################################################################################
# Neural network connection values (weights and biases).
################################################################################
# Col  Name       Description
################################################################################
# 1    connection Neural network connection value.
# 2    t          Connection type (a = weight, b = bias).
# 3    index      Index enumerating weights.
# 4    l_s        Starting point layer (end point layer for biases).
# 5    n_s        Starting point neuron in starting layer (end point neuron for biases).
# 6    l_e        End point layer.
# 7    n_e        End point neuron in end layer.
################################################################################
#                      1 2         3     4     5     6     7
#             connection t     index   l_s   n_s   l_e   n_e
############################################################
  1.8264691991116031E+00 a         1     0     1     1     1
  2.3847754773764320E+00 a         2     0     1     1     2
  7.0367963157718261E-01 a         3     0     1     1     3
  5.5387848864432909E-01 a         4     0     1     1     4
  2.9197323158121828E+00 a         5     0     1     1     5
 -3.4827258654437737E-01 a         6     0     1     1     6
  7.8553581406393888E-02 a         7     0     1     1     7
  4.8682777379385395E-01 a         8     0     1     1     8
  6.2703232585690971E-01 a         9     0     1     1     9
  2.5097801037252707E+00 a        10     0     1     1    10
 -2.6967965659983171E+00 a        11     0     1     1    11
 -8.6320424969469800E-01 a        12     0     1     1    12
  6.9860748691216512E-01 a        13     0     1     1    13
 -8.8533870161729233E-01 a        14     0     1     1    14
 -3.2082727882272960E-01 a        15     0     1     1    15
  9.5509824411947253E-01 a        16     0     1     1    16
 -6.8057793069755257E-01 a        17     0     1     1    17
 -6.6087203361168312E-01 a        18     0     1     1    18
 -1.7579975056512331E+00 a        19     0     1     1    19
 -3.9726673465060669E+00 a        20     0     1     1    20
  2.2620857429552843E+00 a        21     0     2     1     1
  1.6065014087256548E+00 a        22     0     2     1     2
  3.3110313332355529E-01 a        23     0     2     1     3
 -7.4735474398310228E-02 a        24     0     2     1     4
 -2.0925574314842410E+00 a        25     0     2     1     5
  1.6971353365532130E-01 a        26     0     2     1     6
  1.8598717487446030E+00 a        27     0     2     1     7
  6.1055571749951232E-01 a        28     0     2     1     8
  2.6682600843543867E+00 a        29     0     2     1     9
 -1.0984063031101301E+00 a        30     0     2     1    10
 -3.8590925790704103E+00 a        31     0     2     1    11
 -2.2863766616831008E-01 a        32     0     2     1    12
 -1.6024527399788455E+00 a        33     0     2     1    13
  3.7979661086494859E-01 a        34     0     2     1    14
 -1.0207574387788669E+00 a        35     0     2     1    15
  1.1378870849574010E+00 a        36     0     2     1    16
  9.9108759349086939E-01 a        37     0     2     1    17
  4.7206886599667834E+00 a        38     0     2     1    18
 -1.3111588222263251E+00 a        39     0     2     1    19
 -6.4847211370047708E-01 a        40     0     2     1    20
  3.8087965635305667E+00 a        41     0     3     1     1
 -1.5140923150633234E+00 a        42     0     3     1     2
  1.3901523272095881E+00 a        43     0     3     1     3
  1.9415553707225097E+00 a        44     0     3     1     4
  1.5593155884129628E-01 a        45     0     3     1     5
 -1.1196491827471318E+00 a        46     0     3     1     6
 -4.4520078441640152E+00 a        47     0     3     1     7
  1.3758419994130229E+00 a        48     0     3     1     8
  1.9984700909761060E+00 a        49     0     3     1     9
  1.9254517613028730E+00 a        50     0     3     1    10
 -2.6449084299491799E-01 a        51     0     3     1    11
 -1.8959296764940073E-01 a        52     0     3     1    12
  4.1133575225598629E-01 a        53     0     3     1    13
  2.6893667864896518E+00 a        54     0     3     1    14
  3.7301812549753727E-01 a        55     0     3     1    15
 -2.8267510081737082E+00 a        56     0     3     1    16
  2.6882855262514225E+00 a        57     0     3     1    17
  1.1633699121058139E+00 a        58     0     3     1    18
  1.6513712876703464E+00 a        59     0     3     1    19
  8.3410755570583461E-01 a        60     0     3     1    20
  3.0370769400509362E-01 a        61     0     4     1     1
 -3.9521962166938546E-01 a        62     0     4     1     2
  7.3475518811294327E-01 a        63     0     4     1     3
  2.9936891797267845E-01 a        64     0     4     1     4
  1.4331649177507111E+00 a        65     0     4     1     5
  2.7623808084574109E-01 a        66     0     4     1     6
 -5.7827935639771444E-01 a        67     0     4     1     7
  1.4726195835818274E+00 a        68     0     4     1     8
  1.5284600909805537E+00 a        69     0     4     1     9
  2.1940266308205494E-01 a        70     0     4     1    10
 -4.3105999336370415E-01 a        71     0     4     1    11
  1.8452337115452682E+00 a        72     0     4     1    12
  3.0494633350752940E+00 a        73     0     4     1    13
 -7.8318905930608473E-01 a        74     0     4     1    14
 -9.6066061367592159E-01 a        75     0     4     1    15
 -1.8256333748078828E+00 a        76     0     4     1    16
 -1.4965433530469224E-01 a        77     0     4     1    17
  1.6970622769333493E-01 a        78     0     4     1    18
  1.3987259478608780E+00 a        79     0     4     1    19
  1.4567412007947520E+00 a        80     0     4     1    20
  3.8404269342509606E-01 a        81     0     5     1     1
 -1.3637955830216228E-01 a        82     0     5     1     2
  5.3399695162359051E-01 a        83     0     5     1     3
  1.1090978778974859E-03 a        84     0     5     1     4
  1.1114418245986248E+00 a        85     0     5     1     5
  7.0270517564665202E-01 a        86     0     5     1     6
 -1.7866511170096246E+00 a        87     0     5     1     7
  3.9654405894493133E-01 a        88     0     5     1     8
  1.5864938643367010E+00 a        89     0     5     1     9
  1.7556276237483401E+00 a        90     0     5     1    10
  3.8310731212101856E-01 a        91     0     5     1    11
  1.0483603852682633E+00 a        92     0     5     1    12
  1.8857003142612776E+00 a        93     0     5     1    13
 -1.2661211131161683E+00 a        94     0     5     1    14
 -1.1457625483196010E+00 a        95     0     5     1    15
  3.2774250830638159E+00 a        96     0     5     1    16
 -4.0525647263285997E-01 a        97     0     5     1    17
 -3.4300520260583616E+00 a        98     0     5     1    18
 -1.0354459383043877E+00 a        99     0     5     1    19
 -3.4670749145287166E-01 a       100     0     5     1    20
  6.2989580179513782E-01 a       101     0     6     1     1
 -1.6960128508076999E+00 a       102     0     6     1     2
  7.0631263783522635E-01 a       103     0     6     1     3
  3.7486229055718483E+00 a       104     0     6     1     4
 -5.4032653018235455E-01 a       105     0     6     1     5
  4.9910581605850868E-01 a       106     0     6     1     6
 -2.9407500058143160E-01 a       107     0     6     1     7
  5.1206328658302402E-01 a       108     0     6     1     8
 -1.3039423619708872E+00 a       109     0     6     1     9
 -1.3823005840630942E+00 a       110     0     6     1    10
  1.0241940707835906E+00 a       111     0     6     1    11
  3.3877762695525879E+00 a       112     0     6     1    12
 -2.0778178589892606E+00 a       113     0     6     1    13
 -7.8234164836234532E-01 a       114     0     6     1    14
  8.9605023709606740E-04 a       115     0     6     1    15
 -2.8654626274784025E+00 a       116     0     6     1    16
  2.4356098693438266E+00 a       117     0     6     1    17
 -1.0541705528213050E+00 a       118     0     6     1    18
 -8.2644196806246961E-01 a       119     0     6     1    19
  9.1419807266653086E-01 a       120     0     6     1    20
  1.6875393901955013E-02 a       121     0     7     1     1
 -1.4516115625653525E+00 a       122     0     7     1     2
 -5.7675797128535500E-01 a       123     0     7     1     3
  6.5821249829958828E-01 a       124     0     7     1     4
 -3.5628472380867136E+00 a       125     0     7     1     5
  2.3647759683740929E-01 a       126     0     7     1     6
  8.4859502251546404E-01 a       127     0     7     1     7
  2.0015741356361620E+00 a       128     0     7     1     8
  1.9854283722186772E+00 a       129     0     7     1     9
 -1.5526751311725839E-01 a       130     0     7     1    10
  6.8026411879337734E-01 a       131     0     7     1    11
  3.1044476565881078E+00 a       132     0     7     1    12
  1.5798066903789303E+00 a       133     0     7     1    13
  3.5285045730112380E-01 a       134     0     7     1    14
 -2.8263517141386885E+00 a       135     0     7     1    15
  5.2029691179832749E-02 a       136     0     7     1    16
  5.4822478856705370E-01 a       137     0     7     1    17
 -1.3245730374331899E+00 a       138     0     7     1    18
  3.4556030912975855E-01 a       139     0     7     1    19
  3.4422135906585627E-01 a       140     0     7     1    20
 -1.6408499657599909E+00 a       141     0     8     1     1
  8.8414673508971997E-01 a       142     0     8     1     2
  4.0614351233988932E-01 a       143     0     8     1     3
 -3.9700683367327985E+00 a       144     0     8     1     4
 -2.2740999509641844E+00 a       145     0     8     1     5
  1.6577903571845596E+00 a       146     0     8     1     6
 -1.3996778220385384E-01 a       147     0     8     1     7
 -1.5796681547510620E+00 a       148     0     8     1     8
  2.7164725809421514E-01 a       149     0     8     1     9
 -1.0386661314094379E+00 a       150     0     8     1    10
  1.1517755679385471E+00 a       151     0     8     1    11
 -3.4851017931566586E-01 a       152     0     8     1    12
  2.6719601788507679E+00 a       153     0     8     1    13
 -1.1967679978983883E+00 a       154     0     8     1    14
  2.2389290007054441E-01 a       155     0     8     1    15
  4.6355451910382772E+00 a       156     0     8     1    16
  2.2123761070365831E+00 a       157     0     8     1    17
 -3.2531354376213626E+00 a       158     0     8     1    18
  4.0876196014306698E-01 a       159     0     8     1    19
  1.9331009465801934E+00 a       160     0     8     1    20
 -6.1073238835339411E-02 a       161     0     9     1     1
  3.8201764484239331E+00 a       162     0     9     1     2
  2.4296114838665303E-01 a       163     0     9     1     3
  1.8316999572466923E+00 a       164     0     9     1     4
  1.4084826742716572E+00 a       165     0     9     1     5
 -2.7576477298491846E+00 a       166     0     9     1     6
 -1.0511778486704180E+00 a       167     0     9     1     7
  1.2499339248340291E+00 a       168     0     9     1     8
  1.1801679843018873E+00 a       169     0     9     1     9
 -5.2400503260991971E-01 a       170     0     9     1    10
 -6.9723493927339097E-01 a       171     0     9     1    11
 -2.5693211561705526E-01 a       172     0     9     1    12
  2.5990117252575817E-01 a       173     0     9     1    13
 -1.2148230046791213E+00 a       174     0     9     1    14
 -2.9703505107441280E-01 a       175     0     9     1    15
  1.6563062121289038E+00 a       176     0     9     1    16
  1.3966717229815506E+00 a       177     0     9     1    17
  3.3266336176491912E-01 a       178     0     9     1    18
  1.3297598713151701E+00 a       179     0     9     1    19
  1.1078507666105331E+00 a       180     0     9     1    20
 -9.6168274541638399E-01 a       181     0    10     1     1
 -2.0906180787151424E-01 a       182     0    10     1     2
 -3.4189102325930079E+00 a       183     0    10     1     3
 -2.1440248564396316E+00 a       184     0    10     1     4
 -1.5149068947937363E+00 a       185     0    10     1     5
  1.3824117574073942E+00 a       186     0    10     1     6
  1.3614844641072494E+00 a       187     0    10     1     7
  7.9541381330007724E-02 a       188     0    10     1     8
  1.4874650924425545E-01 a       189     0    10     1     9
 -2.1815286527170974E+00 a       190     0    10     1    10
  3.1024254874306876E+00 a       191     0    10     1    11
 -1.3467979507028921E-01 a       192     0    10     1    12
  1.5596644973788729E-01 a       193     0    10     1    13
  2.1949579253002938E+00 a       194     0    10     1    14
 -2.5337807620044552E+00 a       195     0    10     1    15
 -3.6657263166162007E-01 a       196     0    10     1    16
 -4.6540353014993673E-02 a       197     0    10     1    17
  2.0439542046190121E-01 a       198     0    10     1    18
 -2.3887204726709328E+00 a       199     0    10     1    19
  3.7318706235340500E+00 a       200     0    10     1    20
 -1.5797219579363506E+00 a       201     0    11     1     1
 -4.0576177734961227E+00 a       202     0    11     1     2
  2.0659557504900636E+00 a       203     0    11     1     3
 -2.0286311775583403E+00 a       204     0    11     1     4
  1.7340521547492798E+00 a       205     0    11     1     5
 -6.3361472037264532E-01 a       206     0    11     1     6
 -9.0850025659722711E-01 a       207     0    11     1     7
  6.9999738266142142E-01 a       208     0    11     1     8
  5.8070781459180443E-01 a       209     0    11     1     9
 -2.3796420836767522E-02 a       210     0    11     1    10
  7.1419832039222664E-01 a       211     0    11     1    11
  1.8779816935895854E+00 a       212     0    11     1    12
 -2.5125315865711224E+00 a       213     0    11     1    13
  5.0108008808414295E-01 a       214     0    11     1    14
  2.3113741193563286E+00 a       215     0    11     1    15
  1.3933289294017570E+00 a       216     0    11     1    16
 -1.5503876659921589E-01 a       217     0    11     1    17
 -8.3002998551404389E-02 a       218     0    11     1    18
  1.3275866323180610E+00 a       219     0    11     1    19
 -4.5944419160874789E-01 a       220     0    11     1    20
  1.9300482050517287E+00 a       221     0    12     1     1
 -1.0809195526232613E+00 a       222     0    12     1     2
 -2.4427442905206944E+00 a       223     0    12     1     3
 -1.2337855532924502E+00 a       224     0    12     1     4
  1.0004489440903073E+00 a       225     0    12     1     5
 -1.6354095556026276E+00 a       226     0    12     1     6
  2.0038712396648912E+00 a       227     0    12     1     7
  1.7362192969465589E+00 a       228     0    12     1     8
 -2.7617746038168915E+00 a       229     0    12     1     9
  6.3777716104302395E-01 a       230     0    12     1    10
  2.9942794712692448E-02 a       231     0    12     1    11
 -1.7135948841271105E+00 a       232     0    12     1    12
 -1.8979199758604619E+00 a       233     0    12     1    13
  5.5690203305880437E-01 a       234     0    12     1    14
  7.5909082088030178E-01 a       235     0    12     1    15
  3.4339707057896418E+00 a       236     0    12     1    16
 -1.3068466771010503E+00 a       237     0    12     1    17
  2.8590297628210721E+00 a       238     0    12     1    18
 -1.6943336956842949E+00 a       239     0    12     1    19
  6.1729707668424616E-01 a       240     0    12     1    20
  1.3950669419180215E+00 a       241     0    13     1     1
  2.7040401002774733E-01 a       242     0    13     1     2
 -1.4089021464517162E+00 a       243     0    13     1     3
  2.5751636829621463E+00 a       244     0    13     1     4
  3.0925129203553712E+00 a       245     0    13     1     5
  9.6986885681478086E-01 a       246     0    13     1     6
  2.8830731173329402E+00 a       247     0    13     1     7
  7.3690692210770836E-01 a       248     0    13     1     8
  3.0507618721798377E+00 a       249     0    13     1     9
 -1.4083190854569447E+00 a       250     0    13     1    10
  3.7474873188417170E-02 a       251     0    13     1    11
 -2.8152050949842933E-01 a       252     0    13     1    12
  4.2809184992337244E+00 a       253     0    13     1    13
 -4.1813707116762339E-01 a       254     0    13     1    14
 -2.6798170285634106E+00 a       255     0    13     1    15
  8.4305948769320971E-01 a       256     0    13     1    16
 -1.2572687204708459E+00 a       257     0    13     1    17
  4.4674228454995590E-01 a       258     0    13     1    18
  1.6206402610510914E-01 a       259     0    13     1    19
  3.8683833279601254E-01 a       260     0    13     1    20
 -1.1343689434059939E-01 a       261     0    14     1     1
  1.2620858216709849E+00 a       262     0    14     1     2
  1.9884465480376674E+00 a       263     0    14     1     3
 -4.2190330649955099E-01 a       264     0    14     1     4
 -4.5953249205140534E-01 a       265     0    14     1     5
  1.3596454520890451E+00 a       266     0    14     1     6
  1.4450983055006320E-01 a       267     0    14     1     7
  8.3869200717878623E-02 a       268     0    14     1     8
  7.5650712813443144E-01 a       269     0    14     1     9
  2.3889178249587486E+00 a       270     0    14     1    10
 -3.3341179132989796E-01 a       271     0    14     1    11
 -3.3290054109729628E-01 a       272     0    14     1    12
 -3.2056758095686844E+00 a       273     0    14     1    13
 -2.2716862858593689E+00 a       274     0    14     1    14
 -2.6693100669567662E+00 a       275     0    14     1    15
 -2.7221630293211914E+00 a       276     0    14     1    16
  5.0128020719988058E+00 a       277     0    14     1    17
 -1.7379073079471692E+00 a       278     0    14     1    18
 -1.2919437905428366E+00 a       279     0    14     1    19
  8.2478918309574478E-01 a       280     0    14     1    20
  2.2356894453396903E-01 a       281     0    15     1     1
 -1.7340789687088269E+00 a       282     0    15     1     2
 -7.5253365244162629E-01 a       283     0    15     1     3
  2.4938404128117786E+00 a       284     0    15     1     4
  3.8278943425170153E-01 a       285     0    15     1     5
  4.4530946877302371E-02 a       286     0    15     1     6
  1.8731206014990573E+00 a       287     0    15     1     7
  3.8290948161612612E+00 a       288     0    15     1     8
 -6.9421695129669336E-01 a       289     0    15     1     9
  3.4564545752806769E-01 a       290     0    15     1    10
  1.6967999508529601E-02 a       291     0    15     1    11
 -1.3831551821399970E+00 a       292     0    15     1    12
  1.5624948139553227E-01 a       293     0    15     1    13
 -1.6287585821631527E+00 a       294     0    15     1    14
  3.4239484177999295E+00 a       295     0    15     1    15
 -2.0975012404796312E+00 a       296     0    15     1    16
  2.8269983259395919E+00 a       297     0    15     1    17
  3.7552320592340647E+00 a       298     0    15     1    18
  2.0909484807591419E+00 a       299     0    15     1    19
  2.3818126824213093E+00 a       300     0    15     1    20
  2.4995955545694084E+00 a       301     0    16     1     1
 -2.6006343085914829E+00 a       302     0    16     1     2
  1.6503024992206661E-01 a       303     0    16     1     3
  3.0430321959332924E+00 a       304     0    16     1     4
  2.3803024989708041E+00 a       305     0    16     1     5
 -6.7205206873463008E-01 a       306     0    16     1     6
  3.4430097630300527E-01 a       307     0    16     1     7
 -1.0087334189702046E+00 a       308     0    16     1     8
 -7.0529197768574603E-01 a       309     0    16     1     9
  2.6549809075681347E-01 a       310     0    16     1    10
 -6.5797065580643554E-01 a       311     0    16     1    11
 -1.0656561454438804E+00 a       312     0    16     1    12
  3.0530314016923024E+00 a       313     0    16     1    13
  1.5946821645633202E+00 a       314     0    16     1    14
  1.9240880274496897E+00 a       315     0    16     1    15
 -1.3714418458118888E-01 a       316     0    16     1    16
 -3.4180455772802949E+00 a       317     0    16     1    17
 -1.8134794400617018E+00 a       318     0    16     1    18
 -1.9206539922588840E-02 a       319     0    16     1    19
 -6.0739469557222481E-01 a       320     0    16     1    20
  9.6421077044494174E-01 a       321     0    17     1     1
 -2.1661987113887453E+00 a       322     0    17     1     2
  3.8959982802591480E+00 a       323     0    17     1     3
  1.6000468231927221E+00 a       324     0    17     1     4
 -2.4549215699484827E-02 a       325     0    17     1     5
  4.5641273689619932E-01 a       326     0    17     1     6
  4.1901507120009235E-01 a       327     0    17     1     7
 -2.2162628018150401E+00 a       328     0    17     1     8
 -1.2611910589584394E+00 a       329     0    17     1     9
 -1.3303059474250061E+00 a       330     0    17     1    10
  1.9842956025455016E+00 a       331     0    17     1    11
  5.0496152801382443E-01 a       332     0    17     1    12
  7.6966545428765332E-01 a       333     0    17     1    13
 -1.9836758798263499E+00 a       334     0    17     1    14
 -1.6348901014824206E+00 a       335     0    17     1    15
  8.9272626987798226E-02 a       336     0    17     1    16
  7.8669180352225332E-01 a       337     0    17     1    17
  7.8560106640923744E-01 a       338     0    17     1    18
 -2.0971633241094310E+00 a       339     0    17     1    19
  8.1403897311704621E-01 a       340     0    17     1    20
 -1.2476095775603648E+00 a       341     0    18     1     1
  1.3284287637992456E-01 a       342     0    18     1     2
 -2.2918204655478340E+00 a       343     0    18     1     3
 -8.6043672009155303E-01 a       344     0    18     1     4
 -3.7128143144730874E+00 a       345     0    18     1     5
 -4.0896868385739228E-02 a       346     0    18     1     6
 -2.5094981112128609E+00 a       347     0    18     1     7
 -3.5858361631135200E+00 a       348     0    18     1     8
 -2.2474738984204556E+00 a       349     0    18     1     9
 -8.2659228120850370E-01 a       350     0    18     1    10
 -7.1143427582796448E-01 a       351     0    18     1    11
 -1.7022555999989557E+00 a       352     0    18     1    12
  1.8908801026481317E+00 a       353     0    18     1    13
 -3.1489124311327359E+00 a       354     0    18     1    14
  8.0501527601440456E-02 a       355     0    18     1    15
 -1.3898810265824360E+00 a       356     0    18     1    16
  7.3958973756602364E-01 a       357     0    18     1    17
  2.0159013338209899E+00 a       358     0    18     1    18
  1.2969355734478227E+00 a       359     0    18     1    19
 -2.0821784816754674E+00 a       360     0    18     1    20
  1.2818698958947752E+00 a       361     0    19     1     1
  1.4898425060467531E+00 a       362     0    19     1     2
 -2.6108888390416665E+00 a       363     0    19     1     3
 -2.7156753659950765E+00 a       364     0    19     1     4
  9.9672860041075351E-01 a       365     0    19     1     5
  7.2637753856100762E-01 a       366     0    19     1     6
  4.6811559476127051E+00 a       367     0    19     1     7
 -1.7374947107956307E-01 a       368     0    19     1     8
  1.8756404208580102E+00 a       369     0    19     1     9
 -6.7394596390566819E-01 a       370     0    19     1    10
 -2.8013818668554480E+00 a       371     0    19     1    11
 -1.1538587634258932E+00 a       372     0    19     1    12
  1.7794676211204027E-01 a       373     0    19     1    13
 -4.1275502822203319E-01 a       374     0    19     1    14
 -6.5316999951222710E-01 a       375     0    19     1    15
  5.5117583297614042E-03 a       376     0    19     1    16
 -2.5282159393679384E+00 a       377     0    19     1    17
  9.5547977930839989E-01 a       378     0    19     1    18
  5.3579623322731001E-02 a       379     0    19     1    19
 -1.1973446193428836E+00 a       380     0    19     1    20
 -2.3124300234744015E+00 a       381     0    20     1     1
  1.8328803599724366E+00 a       382     0    20     1     2
  3.6478452894261437E+00 a       383     0    20     1     3
  5.5919556647998148E-01 a       384     0    20     1     4
  1.0935885675643651E-01 a       385     0    20     1     5
  9.5577408022326904E-01 a       386     0    20     1     6
 -1.5811793142563977E+00 a       387     0    20     1     7
  1.7668482337645841E+00 a       388     0    20     1     8
  1.7338342964478533E+00 a       389     0    20     1     9
  1.0708007770527384E-01 a       390     0    20     1    10
  2.1224121724845317E+00 a       391     0    20     1    11
  5.1847941147174970E-01 a       392     0    20     1    12
  2.0528407549667809E+00 a       393     0    20     1    13
  1.2827124433990411E+00 a       394     0    20     1    14
 -1.7830902424752189E+00 a       395     0    20     1    15
  1.6107782984485122E+00 a       396     0    20     1    16
  1.9199128976211781E+00 a       397     0    20     1    17
 -9.3915009842940145E-01 a       398     0    20     1    18
 -1.8949262396169304E+00 a       399     0    20     1    19
 -6.2660728859619819E-01 a       400     0    20     1    20
  1.0579752031576615E+00 a       401     0    21     1     1
  5.3698804809645406E-01 a       402     0    21     1     2
  4.2130093670285196E-01 a       403     0    21     1     3
  4.6402035912022601E+00 a       404     0    21     1     4
  2.4879780548904549E+00 a       405     0    21     1     5
 -2.3976729864590913E+00 a       406     0    21     1     6
  1.3947798670671485E+00 a       407     0    21     1     7
 -6.1632617239321930E-01 a       408     0    21     1     8
  1.9198763730085469E+00 a       409     0    21     1     9
  3.1823520113805102E+00 a       410     0    21     1    10
 -2.2095054704425170E+00 a       411     0    21     1    11
  7.5528052072421292E-01 a       412     0    21     1    12
  1.1770376210230038E+00 a       413     0    21     1    13
 -1.9403499745339232E+00 a       414     0    21     1    14
  6.0214326308856325E-01 a       415     0    21     1    15
 -1.5466628625216035E+00 a       416     0    21     1    16
  1.4746612337918810E+00 a       417     0    21     1    17
  8.4553771937738809E-01 a       418     0    21     1    18
  4.6470433032048115E+00 a       419     0    21     1    19
  8.9222617518936009E-01 a       420     0    21     1    20
  1.2699335675830057E+00 a       421     0    22     1     1
 -4.4716797389069851E-01 a       422     0    22     1     2
  1.7516379660514187E+00 a       423     0    22     1     3
  1.5484403963660622E+00 a       424     0    22     1     4
 -1.3037834599252759E-01 a       425     0    22     1     5
 -2.4985825450465331E+00 a       426     0    22     1     6
 -9.4440326064266134E-01 a       427     0    22     1     7
 -1.2795701541897360E+00 a       428     0    22     1     8
  2.5492494383541237E-01 a       429     0    22     1     9
  8.6811217283003594E-01 a       430     0    22     1    10
 -2.7014850277244054E+00 a       431     0    22     1    11
  2.0566751360035478E+00 a       432     0    22     1    12
  2.7755057914666716E+00 a       433     0    22     1    13
  6.2203111258032806E-01 a       434     0    22     1    14
  1.2078693159432619E+00 a       435     0    22     1    15
 -6.0489946788972804E-01 a       436     0    22     1    16
  1.4290360069543100E+00 a       437     0    22     1    17
  1.7798808371370152E+00 a       438     0    22     1    18
  2.8361561617446327E+00 a       439     0    22     1    19
 -2.6421648889476095E+00 a       440     0    22     1    20
  1.3920625505109863E-01 a       441     0    23     1     1
  1.4189484431206678E+00 a       442     0    23     1     2
  1.9977450135638704E+00 a       443     0    23     1     3
  1.4634440846924848E+00 a       444     0    23     1     4
 -1.7675965317478606E+00 a       445     0    23     1     5
 -2.2692607960548075E+00 a       446     0    23     1     6
 -2.5963857264740442E+00 a       447     0    23     1     7
 -5.4848059126028303E-01 a       448     0    23     1     8
 -5.5382152220997172E-01 a       449     0    23     1     9
 -3.5102055447821456E-01 a       450     0    23     1    10
  2.8359571609793952E+00 a       451     0    23     1    11
 -4.5739527217250719E+00 a       452     0    23     1    12
 -8.0978233157006807E-01 a       453     0    23     1    13
  2.1023593388248072E+00 a       454     0    23     1    14
 -3.5433823855711526E+00 a       455     0    23     1    15
 -2.5824899993719317E+00 a       456     0    23     1    16
  5.9308133377703298E-01 a       457     0    23     1    17
  9.6073128559817123E-01 a       458     0    23     1    18
  3.1120286766172565E+00 a       459     0    23     1    19
  8.8167165115166635E-01 a       460     0    23     1    20
  8.9742371998165349E-01 a       461     0    24     1     1
 -1.7717951183990994E+00 a       462     0    24     1     2
 -1.4736121108400899E+00 a       463     0    24     1     3
  2.4379267332391872E+00 a       464     0    24     1     4
  1.0416488310984389E+00 a       465     0    24     1     5
 -5.7276894318416960E-01 a       466     0    24     1     6
  1.5927259182662923E+00 a       467     0    24     1     7
 -1.5166613221412619E+00 a       468     0    24     1     8
 -9.6852396186753664E-01 a       469     0    24     1     9
  5.1124840649993497E-01 a       470     0    24     1    10
  5.2925303861282191E-01 a       471     0    24     1    11
  2.3583353847701041E+00 a       472     0    24     1    12
  9.6631112097222005E-01 a       473     0    24     1    13
 -4.7173963931245219E-02 a       474     0    24     1    14
  4.1691339422056500E-01 a       475     0    24     1    15
  5.5656060629731052E-01 a       476     0    24     1    16
 -1.9953547457626444E+00 a       477     0    24     1    17
  7.5749622910023373E-01 a       478     0    24     1    18
 -2.5726578760141647E+00 a       479     0    24     1    19
 -3.1169296755736693E+00 a       480     0    24     1    20
 -1.9233577604854271E-01 a       481     0    25     1     1
  1.0532470388990096E+00 a       482     0    25     1     2
 -4.0911812349205651E-01 a       483     0    25     1     3
  1.3098997014027911E+00 a       484     0    25     1     4
  1.3694754662604072E+00 a       485     0    25     1     5
  3.5760421695125902E-02 a       486     0    25     1     6
  7.3878649523561413E-01 a       487     0    25     1     7
  8.3033201844682769E-01 a       488     0    25     1     8
  3.5872463651471964E+00 a       489     0    25     1     9
 -3.4933492524965287E-01 a       490     0    25     1    10
 -2.4384033461337138E+00 a       491     0    25     1    11
  2.2396286394994873E+00 a       492     0    25     1    12
 -1.1002063590041915E+00 a       493     0    25     1    13
 -2.9168614067431502E+00 a       494     0    25     1    14
 -8.3202768576465969E-02 a       495     0    25     1    15
  5.8395040296064027E-01 a       496     0    25     1    16
 -3.6175162012391260E+00 a       497     0    25     1    17
 -3.6812929014792628E-01 a       498     0    25     1    18
  2.1586758319038593E+00 a       499     0    25     1    19
 -1.6188625074785659E+00 a       500     0    25     1    20
 -1.3304455761835212E+00 a       501     0    26     1     1
  4.7835727642567347E+00 a       502     0    26     1     2
  1.8257291989119484E+00 a       503     0    26     1     3
 -8.3370996477358617E-01 a       504     0    26     1     4
  3.9277049321968899E-01 a       505     0    26     1     5
 -1.1686381705912259E+00 a       506     0    26     1     6
  1.6948936112721599E-01 a       507     0    26     1     7
 -4.0713476873075638E-01 a       508     0    26     1     8
  1.6408732590239978E+00 a       509     0    26     1     9
  2.2055186573542998E-01 a       510     0    26     1    10
  4.7256492342477079E-02 a       511     0    26     1    11
 -1.2504645105682755E+00 a       512     0    26     1    12
  2.1303472304447548E+00 a       513     0    26     1    13
  3.5634310036060041E-01 a       514     0    26     1    14
 -6.8885411951410136E-01 a       515     0    26     1    15
 -1.3356022892149647E-01 a       516     0    26     1    16
  7.2823395217956011E-01 a       517     0    26     1    17
 -4.3911783005868699E-01 a       518     0    26     1    18
  3.4932487245916372E-01 a       519     0    26     1    19
 -2.1692792563633834E-01 a       520     0    26     1    20
 -1.5297414244912699E+00 a       521     0    27     1     1
 -2.6023543149384474E+00 a       522     0    27     1     2
 -1.1291333850585610E+00 a       523     0    27     1     3
 -1.4792239542501902E+00 a       524     0    27     1     4
 -7.2803641602620539E-01 a       525     0    27     1     5
 -8.3990382991037102E-02 a       526     0    27     1     6
  4.3785647527747527E+00 a       527     0    27     1     7
 -6.8451971237921794E-01 a       528     0    27     1     8
 -1.6767992864637130E-01 a       529     0    27     1     9
  1.4041855380693482E+00 a       530     0    27     1    10
  1.4306042117274544E+00 a       531     0    27     1    11
 -3.3985451487894885E-01 a       532     0    27     1    12
 -2.9293436974194997E+00 a       533     0    27     1    13
  2.4116788618811738E+00 a       534     0    27     1    14
  1.9657396256479638E+00 a       535     0    27     1    15
 -1.3631754198451214E+00 a       536     0    27     1    16
  1.3392659290076554E+00 a       537     0    27     1    17
 -8.6829922141739332E-02 a       538     0    27     1    18
 -5.1070470385687203E+00 a       539     0    27     1    19
 -2.7877729154758750E+00 a       540     0    27     1    20
 -2.3882411758328390E-01 a       541     0    28     1     1
 -1.7223666550124488E+00 a       542     0    28     1     2
  3.7474931818978243E+00 a       543     0    28     1     3
 -1.3032342236586467E+00 a       544     0    28     1     4
 -8.3051564061592764E-01 a       545     0    28     1     5
 -1.6822643279167466E+00 a       546     0    28     1     6
 -4.8868959933326339E-01 a       547     0    28     1     7
 -8.6658315247563855E-01 a       548     0    28     1     8
 -2.1205298007095195E+00 a       549     0    28     1     9
  1.0864657615860052E+00 a       550     0    28     1    10
  3.6826232019314609E-01 a       551     0    28     1    11
 -2.5966087931660797E+00 a       552     0    28     1    12
  2.4718177259054563E+00 a       553     0    28     1    13
 -1.7965064875879455E-01 a       554     0    28     1    14
 -3.6139199993135565E+00 a       555     0    28     1    15
 -1.1974187917537595E+00 a       556     0    28     1    16
  6.2595241165254278E-01 a       557     0    28     1    17
 -2.2626043508196991E+00 a       558     0    28     1    18
  7.9121872545110783E-01 a       559     0    28     1    19
 -3.3228990454134377E-01 a       560     0    28     1    20
 -4.6024321137330509E-01 a       561     0    29     1     1
  2.0167882047985053E-01 a       562     0    29     1     2
 -1.2672922901760832E+00 a       563     0    29     1     3
  3.4919524544505121E-01 a       564     0    29     1     4
  3.0837154822676420E+00 a       565     0    29     1     5
  1.6665707181330651E+00 a       566     0    29     1     6
  2.0058405908416121E+00 a       567     0    29     1     7
 -1.6547211841285150E+00 a       568     0    29     1     8
  1.2470270190311059E+00 a       569     0    29     1     9
 -4.3873846858440685E-01 a       570     0    29     1    10
 -5.6043506505072938E-01 a       571     0    29     1    11
 -2.6268040646529083E+00 a       572     0    29     1    12
  3.3559292003129721E+00 a       573     0    29     1    13
  1.1264043520415483E+00 a       574     0    29     1    14
  2.2071601583007716E+00 a       575     0    29     1    15
 -1.7616392425243965E+00 a       576     0    29     1    16
 -3.4962777786229343E-01 a       577     0    29     1    17
 -1.6597446857406712E+00 a       578     0    29     1    18
  9.7558359253415095E-01 a       579     0    29     1    19
  1.3842614158588020E+00 a       580     0    29     1    20
  6.4535701050110084E-01 a       581     0    30     1     1
 -4.9742352614728885E-01 a       582     0    30     1     2
 -6.2477733402748303E-01 a       583     0    30     1     3
 -7.4456621031556391E-01 a       584     0    30     1     4
  2.4296693549298742E-01 a       585     0    30     1     5
  4.3980293873681842E-01 a       586     0    30     1     6
 -3.6773343697346008E+00 a       587     0    30     1     7
 -1.5650186214799073E+00 a       588     0    30     1     8
 -2.6393775180459507E+00 a       589     0    30     1     9
 -1.1825153505149801E+00 a       590     0    30     1    10
 -1.9236122117772754E+00 a       591     0    30     1    11
  4.3024177698047500E-01 a       592     0    30     1    12
  6.4414577471576073E-01 a       593     0    30     1    13
  1.4655044633742498E+00 a       594     0    30     1    14
  3.5889222159835538E-01 a       595     0    30     1    15
  1.0444954265842472E+00 a       596     0    30     1    16
 -3.3850439635564644E-01 a       597     0    30     1    17
  8.5010876013988024E-01 a       598     0    30     1    18
  3.5971271580799447E+00 a       599     0    30     1    19
 -2.1513512249292450E+00 a       600     0    30     1    20
  2.5547387185258854E+00 a       601     0    31     1     1
  1.5316343475151555E+00 a       602     0    31     1     2
  2.6609795004940460E+00 a       603     0    31     1     3
 -4.7680858408760446E-01 a       604     0    31     1     4
  1.8799660456195240E+00 a       605     0    31     1     5
 -3.7610335478948147E+00 a       606     0    31     1     6
 -4.5086297236842352E+00 a       607     0    31     1     7
  2.0295661297956258E+00 a       608     0    31     1     8
 -5.1693471851627104E-01 a       609     0    31     1     9
  3.5955203657133082E-02 a       610     0    31     1    10
  1.5046795881156527E+00 a       611     0    31     1    11
 -1.3273423370421327E+00 a       612     0    31     1    12
  1.8059517300683510E+00 a       613     0    31     1    13
 -2.4322069987244759E+00 a       614     0    31     1    14
  2.4702140530488905E+00 a       615     0    31     1    15
  6.2085370688780621E+00 a       616     0    31     1    16
  2.1916469666521619E+00 a       617     0    31     1    17
  2.8359107096257516E+00 a       618     0    31     1    18
 -1.8146596077754649E+00 a       619     0    31     1    19
 -7.5151934773798490E-01 a       620     0    31     1    20
 -9.6062282349504935E-01 a       621     0    32     1     1
  4.6476518099694974E+00 a       622     0    32     1     2
 -2.5853847643915810E+00 a       623     0    32     1     3
 -4.8893515850765085E-01 a       624     0    32     1     4
  5.2884844687280075E-01 a       625     0    32     1     5
  6.6112392664665987E-01 a       626     0    32     1     6
  2.5848729176514627E+00 a       627     0    32     1     7
 -2.4225815328253204E+00 a       628     0    32     1     8
 -5.3654754255677384E-01 a       629     0    32     1     9
  1.8687454783224198E+00 a       630     0    32     1    10
 -2.5520074178237642E+00 a       631     0    32     1    11
 -4.1612882501203585E-01 a       632     0    32     1    12
 -1.7301148056245450E+00 a       633     0    32     1    13
 -1.0710684153465562E+00 a       634     0    32     1    14
 -7.3111049654120830E-01 a       635     0    32     1    15
 -3.6947899203928980E-01 a       636     0    32     1    16
 -2.2067763286002151E+00 a       637     0    32     1    17
 -1.5108091040482934E+00 a       638     0    32     1    18
  9.6544772335681728E-01 a       639     0    32     1    19
 -3.9454303693606096E-01 a       640     0    32     1    20
  4.0935026980649258E+00 a       641     0    33     1     1
 -3.7123399721744814E+00 a       642     0    33     1     2
 -2.5169293874372279E-03 a       643     0    33     1     3
  9.3948015274958963E-01 a       644     0    33     1     4
 -5.4751218606237562E-01 a       645     0    33     1     5
  4.6411223756512848E-01 a       646     0    33     1     6
  9.2280233074063606E-02 a       647     0    33     1     7
 -9.5819521287060039E-01 a       648     0    33     1     8
  1.6576622995564609E+00 a       649     0    33     1     9
  3.0763340670110584E-01 a       650     0    33     1    10
  3.1065205677752022E-01 a       651     0    33     1    11
  2.3949463978183778E+00 a       652     0    33     1    12
  3.2755245735917473E+00 a       653     0    33     1    13
 -2.7731172591814421E+00 a       654     0    33     1    14
 -5.4790594109102156E-02 a       655     0    33     1    15
 -2.0021722553328822E+00 a       656     0    33     1    16
 -1.8649997229161133E+00 a       657     0    33     1    17
  3.7855196581491207E-01 a       658     0    33     1    18
  7.9737862144777266E-02 a       659     0    33     1    19
  4.0655661624422752E+00 a       660     0    33     1    20
 -8.3070885294983643E-01 a       661     0    34     1     1
 -4.4872559206054158E-01 a       662     0    34     1     2
  3.3639092460747694E-01 a       663     0    34     1     3
  7.1314728056743748E-01 a       664     0    34     1     4
  1.6315589138938398E+00 a       665     0    34     1     5
 -7.9119334442481726E-01 a       666     0    34     1     6
  4.3474833275641589E-01 a       667     0    34     1     7
  3.3160705624402931E-01 a       668     0    34     1     8
 -1.3599443693032829E+00 a       669     0    34     1     9
 -6.3200617737047138E-01 a       670     0    34     1    10
 -8.6831721875678516E-02 a       671     0    34     1    11
  1.3255058055452964E+00 a       672     0    34     1    12
 -6.3225458263314860E-01 a       673     0    34     1    13
 -1.3293541227400509E+00 a       674     0    34     1    14
 -1.8644487790149535E+00 a       675     0    34     1    15
 -1.7712723951427318E+00 a       676     0    34     1    16
  2.0758396561298875E+00 a       677     0    34     1    17
  1.0582869948371061E+00 a       678     0    34     1    18
 -1.7911681833760948E+00 a       679     0    34     1    19
 -1.4748991843676260E+00 a       680     0    34     1    20
  2.8959300385736859E+00 a       681     0    35     1     1
 -2.5792588545129127E+00 a       682     0    35     1     2
  1.5263029991140702E+00 a       683     0    35     1     3
  3.0044730233322428E+00 a       684     0    35     1     4
 -3.3801038367187075E-01 a       685     0    35     1     5
  2.2955266318421366E+00 a       686     0    35     1     6
 -1.4288130344961940E+00 a       687     0    35     1     7
 -5.3929018768038095E-01 a       688     0    35     1     8
  6.9350983138776956E-01 a       689     0    35     1     9
 -2.0846938504374424E+00 a       690     0    35     1    10
  1.5176865300939657E-01 a       691     0    35     1    11
  1.6507950138690741E+00 a       692     0    35     1    12
  1.9938682015063105E+00 a       693     0    35     1    13
  3.2699308569109092E-01 a       694     0    35     1    14
 -1.1472127796076037E+00 a       695     0    35     1    15
  8.9753665380394620E-01 a       696     0    35     1    16
  1.3275356225826578E+00 a       697     0    35     1    17
 -1.5822629078468589E+00 a       698     0    35     1    18
  1.3579819605435908E+00 a       699     0    35     1    19
 -2.3000516212696914E-01 a       700     0    35     1    20
  1.5594000787162143E-01 a       701     0    36     1     1
  1.7279303089560754E+00 a       702     0    36     1     2
 -3.8729046012702288E+00 a       703     0    36     1     3
  6.6684832754891299E-01 a       704     0    36     1     4
 -2.3051406770497209E+00 a       705     0    36     1     5
  1.0087298775237776E+00 a       706     0    36     1     6
  1.9069322524937562E+00 a       707     0    36     1     7
  3.5838222937269770E-01 a       708     0    36     1     8
 -4.2074320687519005E-03 a       709     0    36     1     9
  2.3929819759134761E+00 a       710     0    36     1    10
 -5.6741115729706515E-01 a       711     0    36     1    11
 -3.2806724997362831E+00 a       712     0    36     1    12
  1.1371304147487125E+00 a       713     0    36     1    13
  1.2710912065274740E+00 a       714     0    36     1    14
 -2.7885836016508359E+00 a       715     0    36     1    15
  7.0681565178881101E-01 a       716     0    36     1    16
  1.7249770325632958E+00 a       717     0    36     1    17
  1.9209077082014117E+00 a       718     0    36     1    18
 -1.6517553972278345E-01 a       719     0    36     1    19
  2.4791828151625639E-01 a       720     0    36     1    20
  1.9769194398808071E-01 a       721     0    37     1     1
  8.9622120403797834E-01 a       722     0    37     1     2
  2.0506425130447274E+00 a       723     0    37     1     3
 -6.2583235427336603E-01 a       724     0    37     1     4
  2.1177905927542279E-01 a       725     0    37     1     5
  6.9958365434995640E-01 a       726     0    37     1     6
 -1.2103304574041041E+00 a       727     0    37     1     7
  9.4465530449677459E-01 a       728     0    37     1     8
  8.5950803806816467E-01 a       729     0    37     1     9
  1.5501920526734820E+00 a       730     0    37     1    10
 -6.8902200277417758E-01 a       731     0    37     1    11
 -1.6601742363434178E+00 a       732     0    37     1    12
 -1.3284392967233221E+00 a       733     0    37     1    13
 -5.6844664493877028E-01 a       734     0    37     1    14
  3.9797761764408229E-01 a       735     0    37     1    15
 -1.4354320812639592E+00 a       736     0    37     1    16
 -1.5887859238544704E+00 a       737     0    37     1    17
  5.2249196754874538E-01 a       738     0    37     1    18
  6.2449660620574377E-01 a       739     0    37     1    19
  1.8278292660461504E+00 a       740     0    37     1    20
  1.7319759485200490E+00 a       741     0    38     1     1
  5.7616506712240434E-01 a       742     0    38     1     2
  1.9834940962319614E+00 a       743     0    38     1     3
 -6.9609244109846458E-01 a       744     0    38     1     4
 -4.4924286423362533E-02 a       745     0    38     1     5
  1.4218034929610726E+00 a       746     0    38     1     6
 -5.7817650488158623E-01 a       747     0    38     1     7
 -7.4168298259146626E-01 a       748     0    38     1     8
  1.2578457003904329E+00 a       749     0    38     1     9
 -3.6971327509732843E-01 a       750     0    38     1    10
  6.7922925262787759E-01 a       751     0    38     1    11
  2.1693247085109806E+00 a       752     0    38     1    12
  5.3508701937701697E-01 a       753     0    38     1    13
  9.5935907373343265E-01 a       754     0    38     1    14
 -2.4663632087391343E+00 a       755     0    38     1    15
 -2.7872716044300483E-01 a       756     0    38     1    16
  1.6342208517160024E+00 a       757     0    38     1    17
 -6.7380488856555310E-01 a       758     0    38     1    18
 -2.3131514094592851E+00 a       759     0    38     1    19
 -6.4168036874140510E-01 a       760     0    38     1    20
  1.2127302388510264E-01 a       761     0    39     1     1
 -2.4360964245202728E+00 a       762     0    39     1     2
  1.4694395224040795E+00 a       763     0    39     1     3
 -3.8322740911627939E-01 a       764     0    39     1     4
  1.4951714690464097E+00 a       765     0    39     1     5
 -1.1192995331750892E+00 a       766     0    39     1     6
 -5.7106036828085860E-01 a       767     0    39     1     7
  1.0907373312790896E+00 a       768     0    39     1     8
  8.6613100825710676E-01 a       769     0    39     1     9
 -1.8876273273303086E+00 a       770     0    39     1    10
 -8.7661653703727660E-01 a       771     0    39     1    11
 -5.8721760149210778E-01 a       772     0    39     1    12
  1.5411167915671771E+00 a       773     0    39     1    13
 -5.4469696692750125E-01 a       774     0    39     1    14
  1.2333224390758455E+00 a       775     0    39     1    15
  5.8302496098381429E-01 a       776     0    39     1    16
 -2.2158922863368427E-01 a       777     0    39     1    17
 -5.2716524841349766E-01 a       778     0    39     1    18
  3.2497496258867409E-01 a       779     0    39     1    19
 -1.5349639755302455E-01 a       780     0    39     1    20
 -2.9210190559189164E+00 a       781     0    40     1     1
  1.4237476793492687E+00 a       782     0    40     1     2
  1.4104946451323632E+00 a       783     0    40     1     3
  1.9933448385966428E+00 a       784     0    40     1     4
  9.5264054326437908E-01 a       785     0    40     1     5
 -1.0733661152500453E+00 a       786     0    40     1     6
 -1.7876196065502248E+00 a       787     0    40     1     7
 -1.2711491705618794E+00 a       788     0    40     1     8
 -8.2689952981001819E-02 a       789     0    40     1     9
 -1.6293238976654156E+00 a       790     0    40     1    10
  9.7835792724110693E-01 a       791     0    40     1    11
 -1.2067938785357202E+00 a       792     0    40     1    12
 -1.4976890937630289E+00 a       793     0    40     1    13
  1.3852666755026570E+00 a       794     0    40     1    14
 -1.4054751019854197E+00 a       795     0    40     1    15
 -7.5160570886078382E-01 a       796     0    40     1    16
 -1.0323560840575814E+00 a       797     0    40     1    17
  2.1937601739569601E+00 a       798     0    40     1    18
 -6.4742841635182813E-01 a       799     0    40     1    19
  2.2329175593766539E+00 a       800     0    40     1    20
 -3.9537293683238572E+00 a       801     0    41     1     1
  2.0897959488302345E+00 a       802     0    41     1     2
  3.5521775337949441E-01 a       803     0    41     1     3
  1.8078460712498088E+00 a       804     0    41     1     4
  7.5746267041831361E-01 a       805     0    41     1     5
 -1.9895725808423015E+00 a       806     0    41     1     6
 -2.6597211035338053E+00 a       807     0    41     1     7
  6.3799411626191438E-01 a       808     0    41     1     8
 -2.4601579358148351E+00 a       809     0    41     1     9
 -9.2921241162321377E-01 a       810     0    41     1    10
 -9.9734109805334392E-01 a       811     0    41     1    11
  8.8800327444488447E-01 a       812     0    41     1    12
  2.0301112303702742E+00 a       813     0    41     1    13
  1.1531824014907588E+00 a       814     0    41     1    14
  1.4148790125496233E+00 a       815     0    41     1    15
  8.8693359114957043E-02 a       816     0    41     1    16
 -1.0861884372346784E+00 a       817     0    41     1    17
 -3.4604455075937968E-03 a       818     0    41     1    18
  2.8972471555833792E+00 a       819     0    41     1    19
  4.2746653301194476E-01 a       820     0    41     1    20
  9.3119154289107919E-01 a       821     0    42     1     1
 -3.9671736476816571E-01 a       822     0    42     1     2
 -9.4084757295376442E-01 a       823     0    42     1     3
  2.1193854094244191E-01 a       824     0    42     1     4
  4.8355444263567499E-01 a       825     0    42     1     5
 -2.6314682693094160E+00 a       826     0    42     1     6
  1.5453113310229605E+00 a       827     0    42     1     7
 -1.1475107129835129E+00 a       828     0    42     1     8
 -1.3380185341647137E+00 a       829     0    42     1     9
 -1.0545972254808595E+00 a       830     0    42     1    10
 -1.6730948690795007E+00 a       831     0    42     1    11
 -2.0684142306029467E+00 a       832     0    42     1    12
  7.9626155660492670E-01 a       833     0    42     1    13
  2.5468019356890076E-01 a       834     0    42     1    14
  4.4930261018425183E-01 a       835     0    42     1    15
 -1.4179656745661324E+00 a       836     0    42     1    16
 -7.2956335756014556E-01 a       837     0    42     1    17
 -1.4050315310938577E+00 a       838     0    42     1    18
 -2.9321821834971646E+00 a       839     0    42     1    19
  1.4511649115413552E+00 a       840     0    42     1    20
  1.1648232904152713E+00 a       841     0    43     1     1
  9.5984141948568788E-02 a       842     0    43     1     2
 -6.0208775545026805E-01 a       843     0    43     1     3
  1.1761309116935244E+00 a       844     0    43     1     4
 -1.0685500657297582E+00 a       845     0    43     1     5
 -7.2858044262946020E-01 a       846     0    43     1     6
  2.9300144188169419E+00 a       847     0    43     1     7
  2.3671046455093109E-01 a       848     0    43     1     8
 -3.2156783116355409E-01 a       849     0    43     1     9
  1.1730315547734409E+00 a       850     0    43     1    10
  9.9162846790619386E-01 a       851     0    43     1    11
 -3.6289405419126570E+00 a       852     0    43     1    12
  1.4722346585058661E+00 a       853     0    43     1    13
 -2.8670242102784016E-01 a       854     0    43     1    14
 -3.3797683774341829E-02 a       855     0    43     1    15
  6.3865718317603049E-01 a       856     0    43     1    16
 -1.2953365408895259E+00 a       857     0    43     1    17
  1.9488043668143357E-01 a       858     0    43     1    18
  8.4309765061538733E-01 a       859     0    43     1    19
 -6.1994901288509796E-01 a       860     0    43     1    20
  1.5381898327501362E+00 a       861     0    44     1     1
  6.7230379902489468E-01 a       862     0    44     1     2
  2.1174299818692353E+00 a       863     0    44     1     3
  8.1664115014620187E-01 a       864     0    44     1     4
  1.5368057598545827E-02 a       865     0    44     1     5
 -5.8184476135318330E-01 a       866     0    44     1     6
  6.6561265755644161E-01 a       867     0    44     1     7
 -1.9363852738590954E+00 a       868     0    44     1     8
 -1.8003045256430221E+00 a       869     0    44     1     9
  1.3350686865204477E+00 a       870     0    44     1    10
 -1.0363004397296252E+00 a       871     0    44     1    11
  3.2981200478632782E+00 a       872     0    44     1    12
 -1.4346653293873652E+00 a       873     0    44     1    13
  1.1294018214218313E+00 a       874     0    44     1    14
  2.0928710915267343E+00 a       875     0    44     1    15
  3.1430516606188057E+00 a       876     0    44     1    16
  1.0857433940993455E+00 a       877     0    44     1    17
  2.6791527638278217E-01 a       878     0    44     1    18
  1.0007960247917411E+00 a       879     0    44     1    19
 -4.6201281586343668E-01 a       880     0    44     1    20
  6.3318906832421540E-01 a       881     0    45     1     1
 -3.6046376106789950E-02 a       882     0    45     1     2
 -5.4140659775864505E-02 a       883     0    45     1     3
 -1.5570762517497037E+00 a       884     0    45     1     4
  7.2309953410936367E-01 a       885     0    45     1     5
 -1.3768875073744395E+00 a       886     0    45     1     6
 -5.8697830420007358E-01 a       887     0    45     1     7
 -9.0061110259866128E-02 a       888     0    45     1     8
 -1.0805064623067246E+00 a       889     0    45     1     9
 -9.6132773694318363E-01 a       890     0    45     1    10
  5.4525072005266617E-01 a       891     0    45     1    11
 -8.8253334802478023E-01 a       892     0    45     1    12
 -1.2431446895997362E+00 a       893     0    45     1    13
  1.9937242107708650E+00 a       894     0    45     1    14
  2.0945381341386287E+00 a       895     0    45     1    15
 -9.8456934539444174E-01 a       896     0    45     1    16
  8.2613927066166182E-01 a       897     0    45     1    17
  5.5755129845399598E-01 a       898     0    45     1    18
 -9.8761884159905788E-01 a       899     0    45     1    19
  8.7821415612378917E-01 a       900     0    45     1    20
 -1.2291632228644993E+00 a       901     0    46     1     1
 -1.7082807081794142E+00 a       902     0    46     1     2
 -2.6408245424871009E+00 a       903     0    46     1     3
  3.6903207122504500E-01 a       904     0    46     1     4
  2.9929707202037797E-01 a       905     0    46     1     5
 -9.4913869296080056E-01 a       906     0    46     1     6
  1.5947668657417517E+00 a       907     0    46     1     7
  3.1144498510389018E-01 a       908     0    46     1     8
 -6.9494082569307614E-01 a       909     0    46     1     9
 -1.1398567687623136E-01 a       910     0    46     1    10
 -1.1543996780186598E+00 a       911     0    46     1    11
 -5.9594200611809867E-01 a       912     0    46     1    12
 -2.1073412684532355E+00 a       913     0    46     1    13
 -1.7653415912815544E+00 a       914     0    46     1    14
  2.0059202785579613E-01 a       915     0    46     1    15
 -3.7701595297680751E-01 a       916     0    46     1    16
  1.1995345171624534E+00 a       917     0    46     1    17
 -1.0747534987052849E+00 a       918     0    46     1    18
  3.0530343451421662E+00 a       919     0    46     1    19
 -9.2123482086135067E-01 a       920     0    46     1    20
  2.0409977014151945E-01 a       921     0    47     1     1
 -1.8942672085875942E+00 a       922     0    47     1     2
  4.7361720087001630E-01 a       923     0    47     1     3
 -3.1019110252260446E-01 a       924     0    47     1     4
 -4.5804166750486230E-01 a       925     0    47     1     5
 -2.8978713038211729E-01 a       926     0    47     1     6
 -7.6799277431230717E-01 a       927     0    47     1     7
 -1.4228252256398721E+00 a       928     0    47     1     8
  4.7622204254076744E-01 a       929     0    47     1     9
 -7.4569677970972870E-01 a       930     0    47     1    10
  1.1725894738650966E+00 a       931     0    47     1    11
  1.0192818450748877E+00 a       932     0    47     1    12
  7.1993232268885787E-01 a       933     0    47     1    13
  1.0916851027843082E+00 a       934     0    47     1    14
 -1.1027154793440290E+00 a       935     0    47     1    15
 -1.0357609137281507E-01 a       936     0    47     1    16
  2.6965831559014736E-01 a       937     0    47     1    17
 -9.0290036004654670E-02 a       938     0    47     1    18
  1.4230145515646464E+00 a       939     0    47     1    19
  3.9506939333545765E-01 a       940     0    47     1    20
  6.2766780853230209E-01 a       941     0    48     1     1
  9.1241098663165798E-01 a       942     0    48     1     2
 -2.9690464476917511E-01 a       943     0    48     1     3
 -2.6451790540431636E-01 a       944     0    48     1     4
 -5.1410639501226552E-01 a       945     0    48     1     5
 -2.1830227692042672E-01 a       946     0    48     1     6
  2.3213114904596872E+00 a       947     0    48     1     7
  2.1823317513015472E-01 a       948     0    48     1     8
 -3.5765142315580610E-02 a       949     0    48     1     9
  1.8962519697284925E+00 a       950     0    48     1    10
 -1.7324872056205229E+00 a       951     0    48     1    11
  2.0739309044767125E+00 a       952     0    48     1    12
  6.4289441985922613E-01 a       953     0    48     1    13
 -2.7329871623951302E-01 a       954     0    48     1    14
 -2.2938718917297831E+00 a       955     0    48     1    15
  1.6657460333302057E+00 a       956     0    48     1    16
  2.5703772137622889E+00 a       957     0    48     1    17
  3.2532676320903303E-01 a       958     0    48     1    18
  8.1287441917346426E-01 a       959     0    48     1    19
 -5.7593624347078287E-01 a       960     0    48     1    20
  1.2029248671747081E+00 a       961     0    49     1     1
 -1.5502978381591087E-01 a       962     0    49     1     2
  4.6955045277483169E-02 a       963     0    49     1     3
 -8.5514116714907606E-01 a       964     0    49     1     4
  7.3188704021014600E-02 a       965     0    49     1     5
  1.2064027007462301E+00 a       966     0    49     1     6
  4.6842815260768506E-01 a       967     0    49     1     7
 -2.1676109279363809E+00 a       968     0    49     1     8
 -2.7040618476007816E-01 a       969     0    49     1     9
  3.3980475892317066E+00 a       970     0    49     1    10
 -1.1101581085389658E+00 a       971     0    49     1    11
  3.1290081706063139E-01 a       972     0    49     1    12
  1.8455506124060017E+00 a       973     0    49     1    13
 -1.6187491182524185E+00 a       974     0    49     1    14
  1.5443297494282113E+00 a       975     0    49     1    15
  7.5142254150257470E-01 a       976     0    49     1    16
 -1.5954725702863748E+00 a       977     0    49     1    17
 -2.5735273302481119E+00 a       978     0    49     1    18
  1.4780124143496004E-01 a       979     0    49     1    19
  2.3443772121867381E+00 a       980     0    49     1    20
  3.7051401902785552E+00 a       981     0    50     1     1
  6.4934413387112044E-01 a       982     0    50     1     2
  4.8282980976812002E-02 a       983     0    50     1     3
  4.1265591344908165E-01 a       984     0    50     1     4
 -2.7557257784086282E+00 a       985     0    50     1     5
 -1.4082808707346168E+00 a       986     0    50     1     6
 -2.4121089900345187E+00 a       987     0    50     1     7
 -1.6367930267292929E-01 a       988     0    50     1     8
 -2.4427105313503854E+00 a       989     0    50     1     9
 -3.8295509316762544E-01 a       990     0    50     1    10
  4.4578998022410971E-01 a       991     0    50     1    11
  1.4111798879336337E+00 a       992     0    50     1    12
 -1.6137616126313927E+00 a       993     0    50     1    13
  1.6219972738288957E+00 a       994     0    50     1    14
 -2.4993046221680153E+00 a       995     0    50     1    15
  1.5974717425332636E+00 a       996     0    50     1    16
  5.6140538328996759E-01 a       997     0    50     1    17
  1.1000428084818055E+00 a       998     0    50     1    18
 -2.1828986254892797E+00 a       999     0    50     1    19
 -1.0966532535731710E+00 a      1000     0    50     1    20
 -1.4808387051125644E+00 a      1001     0    51     1     1
  2.0855292992011540E-01 a      1002     0    51     1     2
 -2.3791990036098293E-01 a      1003     0    51     1     3
 -7.6656408459279846E-01 a      1004     0    51     1     4
 -1.9236918630436337E-01 a      1005     0    51     1     5
 -6.0792559732573515E-01 a      1006     0    51     1     6
 -7.8107511328540413E-01 a      1007     0    51     1     7
 -2.7354468633552226E-01 a      1008     0    51     1     8
  4.8798655704227062E-01 a      1009     0    51     1     9
 -1.9345698218178059E-01 a      1010     0    51     1    10
  5.9783517100595496E-01 a      1011     0    51     1    11
 -3.0280367315454790E+00 a      1012     0    51     1    12
  1.3937146941521896E+00 a      1013     0    51     1    13
 -7.7917760626026578E-01 a      1014     0    51     1    14
  3.0235477792291177E-01 a      1015     0    51     1    15
 -1.0846805930755798E+00 a      1016     0    51     1    16
 -1.2574716070805085E+00 a      1017     0    51     1    17
  4.3569573297751457E-01 a      1018     0    51     1    18
  1.2794170720245448E+00 a      1019     0    51     1    19
 -1.3819772740792055E-01 a      1020     0    51     1    20
 -6.0954683141094568E-01 a      1021     0    52     1     1
  1.2911979392586841E+00 a      1022     0    52     1     2
 -1.2389846164518583E+00 a      1023     0    52     1     3
  2.1230555020803319E+00 a      1024     0    52     1     4
 -9.5500108502931669E-01 a      1025     0    52     1     5
  1.5749702344458572E-01 a      1026     0    52     1     6
 -1.2280767971740374E+00 a      1027     0    52     1     7
  5.7148506680932731E-01 a      1028     0    52     1     8
 -5.7076199023057206E-01 a      1029     0    52     1     9
  3.7240100768119885E-02 a      1030     0    52     1    10
  2.2986878120361052E+00 a      1031     0    52     1    11
 -1.1098296392561846E+00 a      1032     0    52     1    12
 -4.2461834536259763E-02 a      1033     0    52     1    13
 -8.5596055462913367E-01 a      1034     0    52     1    14
  6.7607426907372070E-01 a      1035     0    52     1    15
 -1.3586322404048521E+00 a      1036     0    52     1    16
  3.9492429481182950E-01 a      1037     0    52     1    17
  3.5851516466701761E-01 a      1038     0    52     1    18
  2.4754784637559515E-01 a      1039     0    52     1    19
 -6.9115964377928130E-01 a      1040     0    52     1    20
 -1.9511894679504243E+00 a      1041     0    53     1     1
  3.4059999033740311E+00 a      1042     0    53     1     2
 -1.2803827519782223E+00 a      1043     0    53     1     3
  2.2609701948094680E+00 a      1044     0    53     1     4
  1.6285176005188404E+00 a      1045     0    53     1     5
  1.6968420005404781E+00 a      1046     0    53     1     6
  6.7497873498399885E-01 a      1047     0    53     1     7
 -3.3637213491768798E+00 a      1048     0    53     1     8
  1.0571037673231225E+00 a      1049     0    53     1     9
  8.3514359972937768E-01 a      1050     0    53     1    10
  1.9171774708856215E+00 a      1051     0    53     1    11
 -1.6138862524445812E+00 a      1052     0    53     1    12
 -1.3146621470433293E+00 a      1053     0    53     1    13
 -5.3007575690567510E-01 a      1054     0    53     1    14
 -2.3600406122477975E+00 a      1055     0    53     1    15
  6.1450720313905893E-01 a      1056     0    53     1    16
 -5.1211863367085969E-02 a      1057     0    53     1    17
 -5.8081267440579613E-02 a      1058     0    53     1    18
  1.3492071231310880E+00 a      1059     0    53     1    19
 -1.2359549493740389E+00 a      1060     0    53     1    20
 -5.6009442983280722E-01 a      1061     0    54     1     1
  1.2074459734403986E+00 a      1062     0    54     1     2
 -1.1359659374281197E+00 a      1063     0    54     1     3
  2.9563917735038592E+00 a      1064     0    54     1     4
  2.4061993160075192E+00 a      1065     0    54     1     5
 -1.2451506451623164E-01 a      1066     0    54     1     6
 -5.8613882295806818E-01 a      1067     0    54     1     7
  1.4448544526572484E+00 a      1068     0    54     1     8
 -2.4174354018706534E+00 a      1069     0    54     1     9
 -6.7841770405172169E-02 a      1070     0    54     1    10
 -6.0525901921434666E-01 a      1071     0    54     1    11
  9.7741745882994580E-01 a      1072     0    54     1    12
  8.6309248908766867E-01 a      1073     0    54     1    13
  1.2101832904474383E-01 a      1074     0    54     1    14
  2.5239922535896708E-01 a      1075     0    54     1    15
  8.1537079271626844E-01 a      1076     0    54     1    16
  7.1618408536155004E-02 a      1077     0    54     1    17
  1.9108834288565995E+00 a      1078     0    54     1    18
 -1.3621465317682018E+00 a      1079     0    54     1    19
  9.9602132715342440E-01 a      1080     0    54     1    20
 -4.8753858620266716E-01 a      1081     0    55     1     1
 -2.0402319730068968E-01 a      1082     0    55     1     2
  1.5818575258960421E+00 a      1083     0    55     1     3
  7.9863302177937190E-01 a      1084     0    55     1     4
  1.2498466039302167E+00 a      1085     0    55     1     5
 -3.4284411209452732E+00 a      1086     0    55     1     6
  6.6544636457761797E-01 a      1087     0    55     1     7
 -7.7665869859144032E-01 a      1088     0    55     1     8
  7.5075470343444040E-01 a      1089     0    55     1     9
 -1.4776654281481434E+00 a      1090     0    55     1    10
 -1.4212800041641929E+00 a      1091     0    55     1    11
 -1.9192851543511911E+00 a      1092     0    55     1    12
 -2.4591473963699251E+00 a      1093     0    55     1    13
 -1.3853539225258789E+00 a      1094     0    55     1    14
  5.8949933750560979E-01 a      1095     0    55     1    15
  1.7752715970177975E+00 a      1096     0    55     1    16
  6.0635675268569111E-01 a      1097     0    55     1    17
 -2.5192927628635733E+00 a      1098     0    55     1    18
 -1.6469747328809659E+00 a      1099     0    55     1    19
  6.7801504064493523E-01 a      1100     0    55     1    20
  2.6285537813739379E-01 a      1101     0    56     1     1
  1.4418069285318067E+00 a      1102     0    56     1     2
  1.7653142178562948E+00 a      1103     0    56     1     3
 -3.7773839201265885E-01 a      1104     0    56     1     4
  3.4916705475775127E+00 a      1105     0    56     1     5
 -1.5389164052118909E+00 a      1106     0    56     1     6
  1.8346787491586880E+00 a      1107     0    56     1     7
  1.4617730399268902E+00 a      1108     0    56     1     8
 -1.1883951337221352E+00 a      1109     0    56     1     9
 -1.4640857141452446E+00 a      1110     0    56     1    10
 -2.5267818314357458E-02 a      1111     0    56     1    11
  2.9560671160183793E-01 a      1112     0    56     1    12
  1.1103584210456977E-01 a      1113     0    56     1    13
 -1.3644137037205479E+00 a      1114     0    56     1    14
 -3.7373034795034843E+00 a      1115     0    56     1    15
 -2.3577235988136693E+00 a      1116     0    56     1    16
  1.0006240991249400E+00 a      1117     0    56     1    17
  2.8728164113488335E+00 a      1118     0    56     1    18
 -3.6010861540004160E+00 a      1119     0    56     1    19
 -9.2470468217406654E-01 a      1120     0    56     1    20
  1.8835865894967645E+00 a      1121     0    57     1     1
 -5.3110450042254742E-01 a      1122     0    57     1     2
  4.7137842630921956E-01 a      1123     0    57     1     3
  9.8747183464482824E-01 a      1124     0    57     1     4
 -1.9504886854220014E+00 a      1125     0    57     1     5
 -8.9940499862186907E-01 a      1126     0    57     1     6
  1.5127241730057237E+00 a      1127     0    57     1     7
  3.2280635630329058E-01 a      1128     0    57     1     8
 -5.7984304719304691E-01 a      1129     0    57     1     9
 -1.0006640670816753E+00 a      1130     0    57     1    10
 -4.1323032171613477E-01 a      1131     0    57     1    11
 -2.3180188078662343E+00 a      1132     0    57     1    12
  2.8501345538203036E+00 a      1133     0    57     1    13
  4.0658909948647481E-01 a      1134     0    57     1    14
  2.5174019148206663E+00 a      1135     0    57     1    15
  1.5828245809572017E+00 a      1136     0    57     1    16
 -2.3445225141280805E+00 a      1137     0    57     1    17
  1.7018452314557886E+00 a      1138     0    57     1    18
  1.5707331054787637E+00 a      1139     0    57     1    19
 -1.8664561387187624E+00 a      1140     0    57     1    20
  9.3866770856285708E-01 a      1141     0    58     1     1
  2.8321091424136045E-02 a      1142     0    58     1     2
 -5.6310263139272720E-01 a      1143     0    58     1     3
 -1.5944262533546192E+00 a      1144     0    58     1     4
 -1.5022157058388328E+00 a      1145     0    58     1     5
  3.2142410220957801E-01 a      1146     0    58     1     6
 -3.5442834479586122E-01 a      1147     0    58     1     7
 -2.1518299732109394E-01 a      1148     0    58     1     8
  1.8374102007497335E+00 a      1149     0    58     1     9
 -9.9003549539466973E-01 a      1150     0    58     1    10
 -7.7912131023402853E-01 a      1151     0    58     1    11
  2.1780744109892094E+00 a      1152     0    58     1    12
 -2.1960096876948998E+00 a      1153     0    58     1    13
  1.5821837288247640E+00 a      1154     0    58     1    14
  5.3403629878303793E-01 a      1155     0    58     1    15
  2.5327510427541516E-01 a      1156     0    58     1    16
 -1.0524082801320129E+00 a      1157     0    58     1    17
 -5.1835410656000958E-01 a      1158     0    58     1    18
 -2.1000101989519813E+00 a      1159     0    58     1    19
  7.1101059171317171E-01 a      1160     0    58     1    20
 -2.5644581119463998E+00 a      1161     0    59     1     1
  1.0281484780043457E+00 a      1162     0    59     1     2
  3.4004679449728442E-01 a      1163     0    59     1     3
  1.4776513102216593E+00 a      1164     0    59     1     4
  2.0073580355525529E+00 a      1165     0    59     1     5
  9.5410397959520066E-01 a      1166     0    59     1     6
  2.6476548835334222E+00 a      1167     0    59     1     7
  3.2144731562468082E-01 a      1168     0    59     1     8
 -1.8075085393015253E+00 a      1169     0    59     1     9
 -1.7576165720314352E+00 a      1170     0    59     1    10
  7.2448139106735643E-02 a      1171     0    59     1    11
  8.5645129793869978E-01 a      1172     0    59     1    12
 -3.1071396334008350E+00 a      1173     0    59     1    13
 -2.5295288874412227E+00 a      1174     0    59     1    14
 -1.5802361292915574E+00 a      1175     0    59     1    15
 -2.3952034785522995E+00 a      1176     0    59     1    16
 -2.3486818309689395E+00 a      1177     0    59     1    17
  7.5526241574699093E-01 a      1178     0    59     1    18
 -2.7564660182118748E+00 a      1179     0    59     1    19
  6.5437395393351239E-01 a      1180     0    59     1    20
  1.9596036476281682E+00 a      1181     0    60     1     1
 -1.6860237617033687E+00 a      1182     0    60     1     2
 -1.8250472644962081E+00 a      1183     0    60     1     3
 -5.3912175332406465E+00 a      1184     0    60     1     4
  5.3081004167050549E-01 a      1185     0    60     1     5
  1.4691588373504032E+00 a      1186     0    60     1     6
  4.2610948008409251E+00 a      1187     0    60     1     7
  5.7652142344585766E-01 a      1188     0    60     1     8
  1.5891425194210578E+00 a      1189     0    60     1     9
 -1.4986088389078194E+00 a      1190     0    60     1    10
 -2.5383068316820059E+00 a      1191     0    60     1    11
 -2.7727855703034049E-01 a      1192     0    60     1    12
  3.0395796634823469E-01 a      1193     0    60     1    13
 -1.9391380764813353E+00 a      1194     0    60     1    14
 -1.4333660625035411E+00 a      1195     0    60     1    15
  2.5514631293440675E+00 a      1196     0    60     1    16
  2.2361178281377420E-01 a      1197     0    60     1    17
 -2.8291214771396542E+00 a      1198     0    60     1    18
  1.2000133336118919E+00 a      1199     0    60     1    19
  2.2443614758915755E+00 a      1200     0    60     1    20
 -6.6306962659827928E-01 a      1201     0    61     1     1
 -3.7416359464772653E-01 a      1202     0    61     1     2
  1.8745292205913993E+00 a      1203     0    61     1     3
  2.0040242492231739E+00 a      1204     0    61     1     4
 -8.1780442658233643E-01 a      1205     0    61     1     5
 -1.4981443523850810E+00 a      1206     0    61     1     6
  1.4379006332340107E+00 a      1207     0    61     1     7
 -2.7586076342205740E-01 a      1208     0    61     1     8
 -1.2301430229595642E+00 a      1209     0    61     1     9
  2.0076878890366756E+00 a      1210     0    61     1    10
 -1.3282315820484258E+00 a      1211     0    61     1    11
 -1.0367364548116218E+00 a      1212     0    61     1    12
  7.0829846083594949E-01 a      1213     0    61     1    13
 -3.2044054482203563E+00 a      1214     0    61     1    14
 -9.9233984834222011E-01 a      1215     0    61     1    15
  1.4463731819435968E-01 a      1216     0    61     1    16
  3.3405204531000487E-01 a      1217     0    61     1    17
  1.0098456493436876E+00 a      1218     0    61     1    18
 -1.5154485405401688E+00 a      1219     0    61     1    19
  1.2340126528868598E+00 a      1220     0    61     1    20
 -8.0106630835195716E-02 a      1221     0    62     1     1
  4.1191106802350879E+00 a      1222     0    62     1     2
  3.3162823939237334E+00 a      1223     0    62     1     3
  8.5286198671205637E-01 a      1224     0    62     1     4
 -1.5629009479025928E+00 a      1225     0    62     1     5
 -7.4111295558292112E-01 a      1226     0    62     1     6
  2.6542410096107125E+00 a      1227     0    62     1     7
 -1.9746048358155639E+00 a      1228     0    62     1     8
 -1.2195838499196289E-01 a      1229     0    62     1     9
  2.0272993339913858E+00 a      1230     0    62     1    10
 -7.1349275136529966E-01 a      1231     0    62     1    11
 -2.3289150539845367E+00 a      1232     0    62     1    12
  2.5817729722033672E-01 a      1233     0    62     1    13
 -5.8026239298512838E-01 a      1234     0    62     1    14
 -2.5818863506054628E+00 a      1235     0    62     1    15
 -2.0177621554795214E-01 a      1236     0    62     1    16
 -1.3255935226308870E+00 a      1237     0    62     1    17
 -9.1149254529213664E-01 a      1238     0    62     1    18
 -1.7551018547218344E+00 a      1239     0    62     1    19
 -2.3868472674062788E+00 a      1240     0    62     1    20
  7.8634793272572912E-01 a      1241     0    63     1     1
  2.7701430650864961E-01 a      1242     0    63     1     2
  1.5002642321910460E+00 a      1243     0    63     1     3
  1.0715626294877680E+00 a      1244     0    63     1     4
  4.8236755265063808E-01 a      1245     0    63     1     5
  1.6654695326318829E+00 a      1246     0    63     1     6
 -8.1111886831124497E-02 a      1247     0    63     1     7
  2.6543663190983771E+00 a      1248     0    63     1     8
  9.6039722301834496E-01 a      1249     0    63     1     9
  1.2843979560311580E+00 a      1250     0    63     1    10
 -1.3329679144872277E+00 a      1251     0    63     1    11
  5.9835940282661260E-01 a      1252     0    63     1    12
 -6.8060297914110346E-01 a      1253     0    63     1    13
 -7.3283964105990107E-01 a      1254     0    63     1    14
 -5.0088939232220941E-01 a      1255     0    63     1    15
  5.2430627334119495E-01 a      1256     0    63     1    16
 -1.8308777480739813E+00 a      1257     0    63     1    17
 -5.9586855419127505E-01 a      1258     0    63     1    18
  3.7046460446537228E+00 a      1259     0    63     1    19
  6.8467172700267406E-02 a      1260     0    63     1    20
 -8.2208664449666102E-01 a      1261     0    64     1     1
 -2.7612804759455427E+00 a      1262     0    64     1     2
 -3.5196144406479268E+00 a      1263     0    64     1     3
 -2.9247335028986239E+00 a      1264     0    64     1     4
  1.2849381217743452E+00 a      1265     0    64     1     5
 -2.2104483204683256E+00 a      1266     0    64     1     6
 -4.1898468468917627E-01 a      1267     0    64     1     7
 -2.1396175635530634E-01 a      1268     0    64     1     8
  1.3856652494763164E+00 a      1269     0    64     1     9
 -1.8672495384766494E+00 a      1270     0    64     1    10
  1.7876343379878257E+00 a      1271     0    64     1    11
 -2.1114359111380865E+00 a      1272     0    64     1    12
  3.9008388356462775E-01 a      1273     0    64     1    13
 -2.7815022318393638E+00 a      1274     0    64     1    14
 -1.8131392577451613E+00 a      1275     0    64     1    15
 -4.9286256808792556E-01 a      1276     0    64     1    16
  5.9199444634131315E-01 a      1277     0    64     1    17
 -9.1387462556886900E-01 a      1278     0    64     1    18
 -1.1256922074292526E+00 a      1279     0    64     1    19
  1.2245348321559995E+00 a      1280     0    64     1    20
  2.6901136542641866E+00 a      1281     0    65     1     1
 -2.7000447995215788E+00 a      1282     0    65     1     2
  2.1696645735584470E+00 a      1283     0    65     1     3
 -8.8052203219991476E-01 a      1284     0    65     1     4
  5.6248177130625843E-01 a      1285     0    65     1     5
 -1.9400976598794837E+00 a      1286     0    65     1     6
 -1.7493723569407280E+00 a      1287     0    65     1     7
 -9.7123800214192577E-02 a      1288     0    65     1     8
 -8.1159147350996552E-01 a      1289     0    65     1     9
 -1.1131060403926856E+00 a      1290     0    65     1    10
  2.0547998950348805E+00 a      1291     0    65     1    11
  4.4790802276763453E-01 a      1292     0    65     1    12
  5.5403372733134371E-01 a      1293     0    65     1    13
  2.0936262363062368E+00 a      1294     0    65     1    14
 -1.8503177296769939E+00 a      1295     0    65     1    15
  2.0826928371594722E+00 a      1296     0    65     1    16
 -1.5825433089049128E+00 a      1297     0    65     1    17
  8.2208456087118342E-01 a      1298     0    65     1    18
 -2.5692075560608334E+00 a      1299     0    65     1    19
 -2.1804555816299503E-01 a      1300     0    65     1    20
 -8.6462236463097286E-01 a      1301     0    66     1     1
  2.2064060715290084E+00 a      1302     0    66     1     2
  9.1841770253579613E-01 a      1303     0    66     1     3
 -4.6098758118217309E-01 a      1304     0    66     1     4
  1.1860934443476283E+00 a      1305     0    66     1     5
 -9.8310177778034510E-02 a      1306     0    66     1     6
 -1.3826840887954632E+00 a      1307     0    66     1     7
 -2.2369468743866316E+00 a      1308     0    66     1     8
 -2.2451517799746807E+00 a      1309     0    66     1     9
 -6.1282357635792784E-01 a      1310     0    66     1    10
 -1.6970200143936598E+00 a      1311     0    66     1    11
  8.4828557639013080E-01 a      1312     0    66     1    12
 -4.2036919975936932E-01 a      1313     0    66     1    13
  2.3733239997039286E+00 a      1314     0    66     1    14
 -1.2623460739424242E+00 a      1315     0    66     1    15
 -9.5117474563487125E-01 a      1316     0    66     1    16
 -1.4175784449024282E+00 a      1317     0    66     1    17
  3.5228110314536725E+00 a      1318     0    66     1    18
 -2.0071002225774093E+00 a      1319     0    66     1    19
  6.9738560005194250E-01 a      1320     0    66     1    20
 -1.4402044776598906E+00 a      1321     0    67     1     1
  5.6580423962015076E-02 a      1322     0    67     1     2
 -7.3836839782235486E-01 a      1323     0    67     1     3
  3.9071850117692575E-01 a      1324     0    67     1     4
 -1.6594356331306770E+00 a      1325     0    67     1     5
  2.9972760437571280E+00 a      1326     0    67     1     6
 -1.3207434427110121E+00 a      1327     0    67     1     7
  2.0445345406718927E+00 a      1328     0    67     1     8
  2.0920618501496206E+00 a      1329     0    67     1     9
 -6.3104753285786838E-02 a      1330     0    67     1    10
  4.1422407797009797E-01 a      1331     0    67     1    11
  3.2769313823652624E+00 a      1332     0    67     1    12
 -2.9843331813936791E-01 a      1333     0    67     1    13
  3.5534463249320685E+00 a      1334     0    67     1    14
 -2.7567950153880033E-01 a      1335     0    67     1    15
 -5.1002538567743505E-01 a      1336     0    67     1    16
 -5.1415995016162064E-01 a      1337     0    67     1    17
  3.6512998572701671E+00 a      1338     0    67     1    18
  7.3510020467267212E-01 a      1339     0    67     1    19
  4.8059352071463053E+00 a      1340     0    67     1    20
 -1.7785049253654914E+00 a      1341     0    68     1     1
 -3.8109543333807248E-02 a      1342     0    68     1     2
 -4.6908936845482430E+00 a      1343     0    68     1     3
  2.2370605895382436E+00 a      1344     0    68     1     4
  3.0863308845145001E+00 a      1345     0    68     1     5
 -1.5337527859925475E+00 a      1346     0    68     1     6
  5.8232149035642367E-01 a      1347     0    68     1     7
  7.6655079030586637E-01 a      1348     0    68     1     8
  3.5686560471672124E-01 a      1349     0    68     1     9
 -5.1115877206120153E-01 a      1350     0    68     1    10
  2.6837779652702044E-02 a      1351     0    68     1    11
 -1.5552966624632123E+00 a      1352     0    68     1    12
 -9.7250108811301839E-01 a      1353     0    68     1    13
 -1.6286499990515462E+00 a      1354     0    68     1    14
  7.9642709804650302E-01 a      1355     0    68     1    15
  4.3550153193478586E-01 a      1356     0    68     1    16
 -3.3517926392842029E-01 a      1357     0    68     1    17
 -2.4761379503006085E+00 a      1358     0    68     1    18
  2.6970118872962159E+00 a      1359     0    68     1    19
  8.6355085725113112E-01 a      1360     0    68     1    20
 -2.1205395622246197E+00 a      1361     0    69     1     1
 -1.0358269733845080E+00 a      1362     0    69     1     2
 -3.6893908477277368E+00 a      1363     0    69     1     3
 -2.8117425523789934E+00 a      1364     0    69     1     4
 -7.6936849884555258E-01 a      1365     0    69     1     5
 -1.2544626777848589E-01 a      1366     0    69     1     6
  7.1131561196842030E-01 a      1367     0    69     1     7
 -9.4498469138251651E-01 a      1368     0    69     1     8
 -9.8743876362842387E-01 a      1369     0    69     1     9
 -1.8705409663487829E+00 a      1370     0    69     1    10
  2.1407943471707176E+00 a      1371     0    69     1    11
  7.4318632851174360E-01 a      1372     0    69     1    12
 -1.8028214543737053E+00 a      1373     0    69     1    13
 -6.6202569439070524E-01 a      1374     0    69     1    14
  9.3957674953583348E-01 a      1375     0    69     1    15
  1.3365354517353019E+00 a      1376     0    69     1    16
 -1.6343799064268774E-01 a      1377     0    69     1    17
 -7.2790198596701428E-01 a      1378     0    69     1    18
  7.3247296415323082E-01 a      1379     0    69     1    19
  1.2431352598594072E+00 a      1380     0    69     1    20
  1.3247894559329156E+00 a      1381     0    70     1     1
  1.0759139689703063E+00 a      1382     0    70     1     2
  2.9878593743371775E+00 a      1383     0    70     1     3
  1.0443925868435175E+00 a      1384     0    70     1     4
 -9.0578796050575716E-01 a      1385     0    70     1     5
  3.2044287018342752E-03 a      1386     0    70     1     6
  5.9410231180556983E-01 a      1387     0    70     1     7
  2.4276268024946628E+00 a      1388     0    70     1     8
 -3.5336661225376047E+00 a      1389     0    70     1     9
  1.2970211698563034E+00 a      1390     0    70     1    10
  1.3031241692117517E+00 a      1391     0    70     1    11
  2.5901665088691539E+00 a      1392     0    70     1    12
 -7.2702486447180614E-01 a      1393     0    70     1    13
 -4.7136038188468360E-01 a      1394     0    70     1    14
  9.3387280141202800E-01 a      1395     0    70     1    15
  1.0864676954713957E+00 a      1396     0    70     1    16
  1.7886125165896245E+00 a      1397     0    70     1    17
  7.7823018020001233E-01 a      1398     0    70     1    18
  1.7599149923088655E+00 a      1399     0    70     1    19
 -3.0712234768780616E-01 a      1400     0    70     1    20
  2.9416589155930195E-01 a      1401     0    71     1     1
 -1.1393989401588207E+00 a      1402     0    71     1     2
  6.7156046484600129E-01 a      1403     0    71     1     3
 -9.0577225316764487E-02 a      1404     0    71     1     4
 -8.8047513217212270E-01 a      1405     0    71     1     5
  1.3325753401446339E+00 a      1406     0    71     1     6
  2.3511736399579161E-01 a      1407     0    71     1     7
 -2.2269847456467837E+00 a      1408     0    71     1     8
 -1.0050336313568720E+00 a      1409     0    71     1     9
  1.1487822478450234E+00 a      1410     0    71     1    10
 -3.5771552400206741E-01 a      1411     0    71     1    11
  1.7602153393084170E+00 a      1412     0    71     1    12
  4.5574829728769455E+00 a      1413     0    71     1    13
  2.0467950994921991E-01 a      1414     0    71     1    14
  1.5534614589736673E+00 a      1415     0    71     1    15
  3.2263272961387962E-01 a      1416     0    71     1    16
  3.8417880400646719E-02 a      1417     0    71     1    17
 -2.7523970545595673E+00 a      1418     0    71     1    18
  6.5937438799041292E-01 a      1419     0    71     1    19
  1.6838556726613505E+00 a      1420     0    71     1    20
  9.7073123878198553E-02 a      1421     0    72     1     1
 -6.6490047116548445E-01 a      1422     0    72     1     2
 -4.2796154654176402E+00 a      1423     0    72     1     3
  1.5708149069771986E+00 a      1424     0    72     1     4
 -1.6970612704550183E+00 a      1425     0    72     1     5
  1.1232539946492563E+00 a      1426     0    72     1     6
 -3.9416821289926607E-01 a      1427     0    72     1     7
 -8.1835363189046906E-01 a      1428     0    72     1     8
 -5.6617456048099184E+00 a      1429     0    72     1     9
  1.0793512004990782E+00 a      1430     0    72     1    10
  1.9624398560330132E+00 a      1431     0    72     1    11
 -1.4513183871688335E+00 a      1432     0    72     1    12
 -2.0328621145969922E-01 a      1433     0    72     1    13
 -1.5799934708305496E+00 a      1434     0    72     1    14
  6.6976664651573725E-01 a      1435     0    72     1    15
  1.4573914449887697E+00 a      1436     0    72     1    16
  2.1580696712845301E-01 a      1437     0    72     1    17
  2.4642137878748654E-01 a      1438     0    72     1    18
  7.8797380430434627E-01 a      1439     0    72     1    19
 -1.1271506213965767E+00 a      1440     0    72     1    20
 -2.4074246595581466E+00 a      1441     0    73     1     1
  1.4265075004927130E+00 a      1442     0    73     1     2
 -6.0624863547224483E-01 a      1443     0    73     1     3
 -2.5890672295607908E+00 a      1444     0    73     1     4
 -1.4901212840846030E+00 a      1445     0    73     1     5
  7.7758586285503584E-01 a      1446     0    73     1     6
  9.6682916511499661E-01 a      1447     0    73     1     7
 -1.2779202184996892E+00 a      1448     0    73     1     8
  2.0104642446729355E+00 a      1449     0    73     1     9
 -3.9363542487029041E-01 a      1450     0    73     1    10
 -9.4621705459955158E-02 a      1451     0    73     1    11
 -1.5294359111313123E+00 a      1452     0    73     1    12
  1.0971639260431567E+00 a      1453     0    73     1    13
  1.1894154982868399E-01 a      1454     0    73     1    14
 -2.5407770890225123E-01 a      1455     0    73     1    15
 -1.1658574653715110E+00 a      1456     0    73     1    16
 -4.1905990525356746E-01 a      1457     0    73     1    17
  7.5680103659901832E-01 a      1458     0    73     1    18
  6.2296528233032555E-01 a      1459     0    73     1    19
 -2.2950516241175110E+00 a      1460     0    73     1    20
 -1.6563547089240993E-01 a      1461     0    74     1     1
  1.5045961868687605E+00 a      1462     0    74     1     2
 -5.7392282380683246E-01 a      1463     0    74     1     3
  1.0021935449315802E+00 a      1464     0    74     1     4
  1.8185141028641125E+00 a      1465     0    74     1     5
 -5.9869815417750250E-01 a      1466     0    74     1     6
 -7.5456285537752887E-01 a      1467     0    74     1     7
  2.3386215311900380E-01 a      1468     0    74     1     8
 -6.4103103973747841E-02 a      1469     0    74     1     9
  1.1604068592136176E+00 a      1470     0    74     1    10
  2.1793574019452224E+00 a      1471     0    74     1    11
  4.1366628454058700E+00 a      1472     0    74     1    12
 -6.6155734220020923E-01 a      1473     0    74     1    13
  6.4237132298363264E-01 a      1474     0    74     1    14
  8.3194845712451237E-01 a      1475     0    74     1    15
 -3.8532538275528143E+00 a      1476     0    74     1    16
  8.6611286430986278E-01 a      1477     0    74     1    17
 -1.3199074342382637E+00 a      1478     0    74     1    18
  1.0879175089272153E-01 a      1479     0    74     1    19
 -2.3858205496749316E+00 a      1480     0    74     1    20
 -2.1299913718301222E+00 a      1481     0    75     1     1
  3.3372815518519201E+00 a      1482     0    75     1     2
 -7.3501663867833480E-02 a      1483     0    75     1     3
 -6.8880712481126594E-02 a      1484     0    75     1     4
  4.8663535603843897E+00 a      1485     0    75     1     5
  1.3360256975978257E+00 a      1486     0    75     1     6
  1.9509388066787354E+00 a      1487     0    75     1     7
 -1.9176312909945019E+00 a      1488     0    75     1     8
  2.2190585857776743E+00 a      1489     0    75     1     9
  1.0570248603723735E+00 a      1490     0    75     1    10
  1.1700626999024308E+00 a      1491     0    75     1    11
 -9.9363749727212036E-01 a      1492     0    75     1    12
  8.7790600201146340E-01 a      1493     0    75     1    13
 -1.6038897007703934E+00 a      1494     0    75     1    14
 -3.4652062365268073E+00 a      1495     0    75     1    15
 -2.2376991472135188E+00 a      1496     0    75     1    16
  5.9428682247961162E-01 a      1497     0    75     1    17
  4.6197484919412929E-01 a      1498     0    75     1    18
  1.1014848440698119E-01 a      1499     0    75     1    19
 -1.7558595543427893E+00 a      1500     0    75     1    20
  1.2078841379018679E+00 a      1501     0    76     1     1
 -1.3604934766754675E+00 a      1502     0    76     1     2
  9.9102538428394282E-02 a      1503     0    76     1     3
  8.1439407626243376E-01 a      1504     0    76     1     4
  1.5178434882800129E+00 a      1505     0    76     1     5
  1.7915902091721514E+00 a      1506     0    76     1     6
 -1.4975349793151809E+00 a      1507     0    76     1     7
  1.1382169846966002E+00 a      1508     0    76     1     8
 -2.1498216289396010E+00 a      1509     0    76     1     9
  1.2688219650466286E+00 a      1510     0    76     1    10
  4.2232386944247796E-01 a      1511     0    76     1    11
 -1.5128386119747148E+00 a      1512     0    76     1    12
 -1.2521051899396107E+00 a      1513     0    76     1    13
 -5.0980254933006719E-01 a      1514     0    76     1    14
  7.0554776228106009E-01 a      1515     0    76     1    15
 -3.9422863698354627E-01 a      1516     0    76     1    16
  2.1641024542379665E+00 a      1517     0    76     1    17
 -8.9067119212748636E-01 a      1518     0    76     1    18
 -2.4635539255137333E+00 a      1519     0    76     1    19
  1.4027142727358834E+00 a      1520     0    76     1    20
  5.2925357286992358E-01 a      1521     0    77     1     1
 -5.6115513917199426E-02 a      1522     0    77     1     2
  1.8118437562699958E+00 a      1523     0    77     1     3
  2.5346245438078849E+00 a      1524     0    77     1     4
  1.7189086984207431E+00 a      1525     0    77     1     5
 -1.3012710346634864E+00 a      1526     0    77     1     6
  4.6026034311203237E-03 a      1527     0    77     1     7
 -1.3701956272440237E+00 a      1528     0    77     1     8
  2.8125830639119500E+00 a      1529     0    77     1     9
  1.1342345808928547E+00 a      1530     0    77     1    10
  1.7485716217141074E+00 a      1531     0    77     1    11
 -1.1147933597361029E-01 a      1532     0    77     1    12
  8.8401769375515984E-02 a      1533     0    77     1    13
  8.7482372536438235E-01 a      1534     0    77     1    14
 -1.0783500126933681E+00 a      1535     0    77     1    15
 -1.9096803718443131E-01 a      1536     0    77     1    16
 -4.8240215962918298E-01 a      1537     0    77     1    17
 -6.6578685273369287E-01 a      1538     0    77     1    18
  4.3940942908002323E-01 a      1539     0    77     1    19
 -1.9889279777560440E+00 a      1540     0    77     1    20
  2.8177444598808821E+00 a      1541     0    78     1     1
  1.6245633348154656E-01 a      1542     0    78     1     2
  3.1117963457692395E+00 a      1543     0    78     1     3
 -5.8972336231719780E-01 a      1544     0    78     1     4
 -5.7444117929886684E-01 a      1545     0    78     1     5
 -9.2701066951781513E-02 a      1546     0    78     1     6
  1.1667807723703734E+00 a      1547     0    78     1     7
  7.2950103906618102E-01 a      1548     0    78     1     8
 -2.4743618474250524E+00 a      1549     0    78     1     9
 -3.7372552591753370E+00 a      1550     0    78     1    10
 -2.1459453758622785E-01 a      1551     0    78     1    11
 -3.9630438268864321E-01 a      1552     0    78     1    12
 -1.1136632297778908E+00 a      1553     0    78     1    13
  2.5198743566271973E+00 a      1554     0    78     1    14
  1.5321960944048163E+00 a      1555     0    78     1    15
  1.3728778066504093E-02 a      1556     0    78     1    16
  7.9983954349226005E-01 a      1557     0    78     1    17
  2.5788074335795739E+00 a      1558     0    78     1    18
  2.7012324086966664E+00 a      1559     0    78     1    19
 -1.4396726101758536E-01 a      1560     0    78     1    20
  7.3063072056518108E-01 a      1561     0    79     1     1
 -4.3854032551185956E-01 a      1562     0    79     1     2
 -7.2889933790783096E-02 a      1563     0    79     1     3
  1.3838795521157545E+00 a      1564     0    79     1     4
 -4.5560999730716883E-01 a      1565     0    79     1     5
 -2.0793409592911192E+00 a      1566     0    79     1     6
  7.6115920062712250E-01 a      1567     0    79     1     7
  8.3188625398399740E-01 a      1568     0    79     1     8
 -1.5344955949222808E-01 a      1569     0    79     1     9
 -1.5481569574864991E+00 a      1570     0    79     1    10
  7.6094516935041001E-01 a      1571     0    79     1    11
  1.3797527328238266E+00 a      1572     0    79     1    12
  4.5408401686743116E-01 a      1573     0    79     1    13
  1.4882722697093347E+00 a      1574     0    79     1    14
  2.6317988604023070E+00 a      1575     0    79     1    15
 -1.6712524965691777E+00 a      1576     0    79     1    16
 -1.1884275833257030E+00 a      1577     0    79     1    17
  1.1408208857875113E+00 a      1578     0    79     1    18
  7.8693563767863228E-01 a      1579     0    79     1    19
 -3.4111530016500726E+00 a      1580     0    79     1    20
  1.3207743225275634E-01 a      1581     0    80     1     1
  5.3628472534393157E-01 a      1582     0    80     1     2
  2.5896184061431042E+00 a      1583     0    80     1     3
 -4.4618857673992718E+00 a      1584     0    80     1     4
  2.0910457987011832E+00 a      1585     0    80     1     5
  2.8619963177584423E-01 a      1586     0    80     1     6
 -1.0741052825582277E-02 a      1587     0    80     1     7
  3.5736257912826352E-01 a      1588     0    80     1     8
  1.4592611357049967E+00 a      1589     0    80     1     9
 -4.1212237030606669E-01 a      1590     0    80     1    10
 -2.7271579454387700E+00 a      1591     0    80     1    11
  3.2541914290648708E+00 a      1592     0    80     1    12
 -2.8497184294391618E+00 a      1593     0    80     1    13
 -1.2332511639828114E-01 a      1594     0    80     1    14
 -5.2701835401881221E+00 a      1595     0    80     1    15
 -1.3548502728737564E+00 a      1596     0    80     1    16
 -1.2858601322624141E+00 a      1597     0    80     1    17
  1.0235757556775744E+00 a      1598     0    80     1    18
 -1.1038201790611704E+00 a      1599     0    80     1    19
  3.0439552191868562E+00 a      1600     0    80     1    20
 -1.0291435495696037E+00 a      1601     0    81     1     1
  1.4782106434690534E+00 a      1602     0    81     1     2
  2.4243756936990810E-01 a      1603     0    81     1     3
 -2.2172528402659784E+00 a      1604     0    81     1     4
 -2.1363739426813253E+00 a      1605     0    81     1     5
  1.7532469684371554E+00 a      1606     0    81     1     6
 -6.6173602823379110E+00 a      1607     0    81     1     7
  8.9360848277988403E-01 a      1608     0    81     1     8
 -2.0107568929418087E+00 a      1609     0    81     1     9
  1.6306885033220267E-01 a      1610     0    81     1    10
  1.5962455892967900E-01 a      1611     0    81     1    11
 -1.8718305705127833E+00 a      1612     0    81     1    12
  2.5359600002273450E+00 a      1613     0    81     1    13
 -2.9398096796644393E+00 a      1614     0    81     1    14
  1.0600362122678946E+00 a      1615     0    81     1    15
  2.3772714909377664E+00 a      1616     0    81     1    16
  1.6724997252486395E+00 a      1617     0    81     1    17
  8.0231715728443442E-01 a      1618     0    81     1    18
  4.7718595218897103E-01 a      1619     0    81     1    19
 -2.0509785536666221E+00 a      1620     0    81     1    20
  1.2312096936116859E+00 a      1621     0    82     1     1
  6.1578934552402376E-01 a      1622     0    82     1     2
  1.3204182815921466E+00 a      1623     0    82     1     3
