################################################################################
# Neural network connection values (weights and biases).
################################################################################
# Col  Name       Description
################################################################################
# 1    connection Neural network connection value.
# 2    t          Connection type (a = weight, b = bias).
# 3    index      Index enumerating weights.
# 4    l_s        Starting point layer (end point layer for biases).
# 5    n_s        Starting point neuron in starting layer (end point neuron for biases).
# 6    l_e        End point layer.
# 7    n_e        End point neuron in end layer.
################################################################################
#                      1 2         3     4     5     6     7
#             connection t     index   l_s   n_s   l_e   n_e
############################################################
  2.4012291823048457E-01 a         1     0     1     1     1
 -2.3102653076800528E-01 a         2     0     1     1     2
  3.9225379308647151E-01 a         3     0     1     1     3
 -1.3895941668540512E+00 a         4     0     1     1     4
  7.0044898415708734E-01 a         5     0     1     1     5
  9.5154592215782841E-01 a         6     0     1     1     6
  1.3144009660730269E+00 a         7     0     1     1     7
 -2.8230720297252332E+00 a         8     0     1     1     8
  8.0215252671381576E-01 a         9     0     1     1     9
 -2.8855106628879668E-01 a        10     0     1     1    10
 -4.7718584766060107E-01 a        11     0     1     1    11
 -2.3068434163913754E-01 a        12     0     1     1    12
  6.0329814082788247E-01 a        13     0     1     1    13
 -1.8311226555946449E+00 a        14     0     1     1    14
 -7.4383929227441270E-01 a        15     0     1     1    15
  1.0631932478087709E+00 a        16     0     1     1    16
 -2.2584552615958428E-01 a        17     0     1     1    17
 -4.4395042226925702E-01 a        18     0     1     1    18
 -1.9487383627139567E+00 a        19     0     1     1    19
  4.0747498594626624E-01 a        20     0     1     1    20
  4.6277461957347843E-01 a        21     0     2     1     1
  9.5512068838486885E-01 a        22     0     2     1     2
 -8.5883292058268912E-01 a        23     0     2     1     3
  2.4230096078001090E-01 a        24     0     2     1     4
 -1.2052279911253005E+00 a        25     0     2     1     5
  1.0123259505995168E+00 a        26     0     2     1     6
 -2.2562937697369629E+00 a        27     0     2     1     7
 -9.0383043452084999E-01 a        28     0     2     1     8
  1.5951075404351394E+00 a        29     0     2     1     9
  9.5093771754538370E-01 a        30     0     2     1    10
  1.3994754583254157E-01 a        31     0     2     1    11
  1.9810512544952823E+00 a        32     0     2     1    12
  5.5113722403158238E-01 a        33     0     2     1    13
  1.8207034895026750E+00 a        34     0     2     1    14
 -9.9824676297214743E-01 a        35     0     2     1    15
 -6.2902594048972227E-01 a        36     0     2     1    16
  1.3394163191082262E+00 a        37     0     2     1    17
 -6.6021661066646020E-01 a        38     0     2     1    18
 -1.4294125177285069E+00 a        39     0     2     1    19
  2.7465669140857831E+00 a        40     0     2     1    20
  2.4295034397007048E-01 a        41     0     3     1     1
  5.7104947758057849E-02 a        42     0     3     1     2
  1.0874634677659060E-01 a        43     0     3     1     3
 -7.5267091718154366E-01 a        44     0     3     1     4
  1.1758483906936039E+00 a        45     0     3     1     5
  1.5046623731424416E+00 a        46     0     3     1     6
  3.6188720055183898E-01 a        47     0     3     1     7
 -1.5580773120945657E+00 a        48     0     3     1     8
  9.2559834292066556E-01 a        49     0     3     1     9
  6.3037626489402288E-01 a        50     0     3     1    10
 -1.1854282359856159E+00 a        51     0     3     1    11
  8.8113355410670191E-01 a        52     0     3     1    12
  2.6337620738414036E-01 a        53     0     3     1    13
 -3.1074130181604809E-01 a        54     0     3     1    14
 -3.5869294384652978E-01 a        55     0     3     1    15
  7.1837683864993807E-01 a        56     0     3     1    16
  1.7342172018838782E+00 a        57     0     3     1    17
  4.1900880747584368E-01 a        58     0     3     1    18
 -4.6734240568578816E-01 a        59     0     3     1    19
 -7.4380621431206217E-01 a        60     0     3     1    20
  3.4837213690033642E-01 a        61     0     4     1     1
  7.9007984854345570E-01 a        62     0     4     1     2
  4.1088156358544325E-01 a        63     0     4     1     3
 -4.4606628942164900E-01 a        64     0     4     1     4
 -1.9782406661571859E+00 a        65     0     4     1     5
 -1.1556294743841189E-01 a        66     0     4     1     6
  1.9870832609319538E+00 a        67     0     4     1     7
  1.4091787698615337E+00 a        68     0     4     1     8
 -2.3839740041075824E-01 a        69     0     4     1     9
  1.0456485753551018E-01 a        70     0     4     1    10
 -2.0531012216516895E-01 a        71     0     4     1    11
  5.0869450976623176E-01 a        72     0     4     1    12
  2.4653393803240847E-01 a        73     0     4     1    13
  1.0714962484410047E+00 a        74     0     4     1    14
  1.1115815649395304E+00 a        75     0     4     1    15
 -1.4618874543252719E-01 a        76     0     4     1    16
 -8.4194924182381869E-01 a        77     0     4     1    17
 -1.8441963146433482E-01 a        78     0     4     1    18
 -9.1273733069002883E-01 a        79     0     4     1    19
  4.3725524057420495E-01 a        80     0     4     1    20
  7.5556904537750449E-02 a        81     0     5     1     1
  1.8953746685966786E+00 a        82     0     5     1     2
 -2.5712103926762291E+00 a        83     0     5     1     3
 -1.6425704772148347E-01 a        84     0     5     1     4
  4.6681536893447506E-01 a        85     0     5     1     5
  2.0794717031585697E-01 a        86     0     5     1     6
 -2.4437105603160512E+00 a        87     0     5     1     7
  7.6903909865369346E-01 a        88     0     5     1     8
  1.4101296603810605E+00 a        89     0     5     1     9
 -1.3402765564065297E-01 a        90     0     5     1    10
 -1.1693575102768887E-01 a        91     0     5     1    11
  1.4623821733195068E+00 a        92     0     5     1    12
  1.3317081565286260E-01 a        93     0     5     1    13
  1.1380643820587044E+00 a        94     0     5     1    14
 -3.5054733766832127E-03 a        95     0     5     1    15
 -7.8851460106373339E-01 a        96     0     5     1    16
  1.3419664101686750E+00 a        97     0     5     1    17
 -9.4296098298195172E-02 a        98     0     5     1    18
  2.2611644843904044E-01 a        99     0     5     1    19
  2.1541709986977970E+00 a       100     0     5     1    20
  2.8152838110878720E-01 a       101     0     6     1     1
 -2.5068484114681784E+00 a       102     0     6     1     2
  1.7287149409947519E-01 a       103     0     6     1     3
 -9.5291546415753117E-02 a       104     0     6     1     4
 -8.6997175573447161E-01 a       105     0     6     1     5
 -1.1002655640001942E+00 a       106     0     6     1     6
 -1.1215246705657260E+00 a       107     0     6     1     7
 -9.9847553642527820E-01 a       108     0     6     1     8
  1.6177666498311887E+00 a       109     0     6     1     9
  1.4161609238100037E-01 a       110     0     6     1    10
 -7.0591564275234675E-01 a       111     0     6     1    11
  9.2336603757710733E-01 a       112     0     6     1    12
  7.8188301749789890E-01 a       113     0     6     1    13
  2.3244341086810079E+00 a       114     0     6     1    14
 -3.8659944129513263E-01 a       115     0     6     1    15
 -2.5269326029593109E+00 a       116     0     6     1    16
  8.3459586349205372E-01 a       117     0     6     1    17
  1.4627272512615275E-01 a       118     0     6     1    18
 -5.8124252645458585E-01 a       119     0     6     1    19
  1.8594110836559683E+00 a       120     0     6     1    20
  5.5635341793122106E-01 a       121     0     7     1     1
  9.0193520831753027E-01 a       122     0     7     1     2
  4.3925248168116660E-01 a       123     0     7     1     3
 -7.2412665738329163E-01 a       124     0     7     1     4
 -9.5872117233514875E-01 a       125     0     7     1     5
  1.0100810445487753E+00 a       126     0     7     1     6
  1.1027781045703917E+00 a       127     0     7     1     7
  9.8143403891318048E-01 a       128     0     7     1     8
  3.9284705983775002E-02 a       129     0     7     1     9
  1.7613995824616546E-01 a       130     0     7     1    10
  4.8311127754594768E-01 a       131     0     7     1    11
  4.5550353909328578E-01 a       132     0     7     1    12
  1.3607059226467311E+00 a       133     0     7     1    13
  1.7267392378744535E+00 a       134     0     7     1    14
 -1.7442739629810098E+00 a       135     0     7     1    15
 -2.7367776860032528E-01 a       136     0     7     1    16
  1.3579678796365484E+00 a       137     0     7     1    17
 -2.1268779144360081E-01 a       138     0     7     1    18
  2.1202567095708629E+00 a       139     0     7     1    19
 -7.3578210417466239E-01 a       140     0     7     1    20
  1.8467705471247262E-01 a       141     0     8     1     1
 -6.0256173012498038E-01 a       142     0     8     1     2
  2.9309968538809988E-01 a       143     0     8     1     3
  1.9974325202826598E-01 a       144     0     8     1     4
  1.0351716011268983E+00 a       145     0     8     1     5
  1.1255393047619655E+00 a       146     0     8     1     6
  2.0700084319804093E+00 a       147     0     8     1     7
  1.5323756483888480E+00 a       148     0     8     1     8
 -1.8709916172557964E-01 a       149     0     8     1     9
 -9.9786145642658930E-01 a       150     0     8     1    10
 -8.3408438551278641E-01 a       151     0     8     1    11
  1.3466353643223714E-01 a       152     0     8     1    12
  5.5092232605489500E-01 a       153     0     8     1    13
 -8.6296268381493735E-01 a       154     0     8     1    14
  3.2525714841430753E-01 a       155     0     8     1    15
 -9.9608617429799384E-01 a       156     0     8     1    16
 -7.9108072008393412E-02 a       157     0     8     1    17
 -4.3183448370120864E-01 a       158     0     8     1    18
  1.9190908438613180E-01 a       159     0     8     1    19
  7.4536588156197847E-01 a       160     0     8     1    20
  7.8025144745122188E-01 a       161     0     9     1     1
 -1.4093859112024050E+00 a       162     0     9     1     2
  2.1489007327570038E+00 a       163     0     9     1     3
 -9.0844574650973264E-01 a       164     0     9     1     4
  2.9245435077784293E-01 a       165     0     9     1     5
  7.0775953650075329E-01 a       166     0     9     1     6
 -1.8707710637736616E+00 a       167     0     9     1     7
  3.1662729971510628E-01 a       168     0     9     1     8
 -5.2671536624870374E-01 a       169     0     9     1     9
  1.0610785344564282E+00 a       170     0     9     1    10
 -9.7133851225212953E-02 a       171     0     9     1    11
  9.8222728963798045E-01 a       172     0     9     1    12
 -3.2312748854111600E-01 a       173     0     9     1    13
 -5.8405093217598603E-01 a       174     0     9     1    14
  6.9244236339431009E-01 a       175     0     9     1    15
  4.8596849710022111E-01 a       176     0     9     1    16
  5.0305262657972183E-01 a       177     0     9     1    17
 -6.7287306020645957E-03 a       178     0     9     1    18
 -2.2475816770183439E+00 a       179     0     9     1    19
 -1.7592208041644364E+00 a       180     0     9     1    20
  5.6053497886493053E-01 a       181     0    10     1     1
 -1.2175168000553900E+00 a       182     0    10     1     2
  1.9093530578012745E+00 a       183     0    10     1     3
 -8.8663254013670278E-01 a       184     0    10     1     4
  6.1837366679391015E-01 a       185     0    10     1     5
 -4.8287559488029408E-01 a       186     0    10     1     6
  6.9667410185105372E-01 a       187     0    10     1     7
  1.1601353532855388E-01 a       188     0    10     1     8
  3.9390340972200838E-01 a       189     0    10     1     9
 -5.8694307511034816E-01 a       190     0    10     1    10
 -1.0943425730926464E+00 a       191     0    10     1    11
 -6.0544584017601488E-02 a       192     0    10     1    12
  3.7290619397281816E-01 a       193     0    10     1    13
  1.4854626496102787E+00 a       194     0    10     1    14
 -5.2608270872344889E-02 a       195     0    10     1    15
 -8.1169178330580671E-01 a       196     0    10     1    16
 -6.4635258471062651E-01 a       197     0    10     1    17
 -4.2369997935186865E-01 a       198     0    10     1    18
  1.3717323268037558E+00 a       199     0    10     1    19
 -8.5219613812413580E-02 a       200     0    10     1    20
 -3.5839496400736653E-01 a       201     0    11     1     1
  1.1802676676446342E+00 a       202     0    11     1     2
 -4.7559737212188113E-01 a       203     0    11     1     3
 -8.9744900402925321E-01 a       204     0    11     1     4
 -7.1082308084543455E-01 a       205     0    11     1     5
  8.6638035943377145E-01 a       206     0    11     1     6
 -1.4401783637015637E+00 a       207     0    11     1     7
 -2.5401932393772584E+00 a       208     0    11     1     8
  8.5243143344970274E-01 a       209     0    11     1     9
 -1.3182601980481479E+00 a       210     0    11     1    10
 -7.1323033441964570E-02 a       211     0    11     1    11
 -9.4552632956677052E-01 a       212     0    11     1    12
 -1.4246762041177763E-01 a       213     0    11     1    13
  7.2457192914693103E-01 a       214     0    11     1    14
  2.8572689623809704E+00 a       215     0    11     1    15
 -2.6673318174345737E+00 a       216     0    11     1    16
  1.1516132652770255E+00 a       217     0    11     1    17
 -1.0382587523986129E+00 a       218     0    11     1    18
 -2.5816272693533335E+00 a       219     0    11     1    19
  1.0510896169855646E+00 a       220     0    11     1    20
 -4.9814426182588767E-01 a       221     0    12     1     1
  2.7424997551450198E-01 a       222     0    12     1     2
 -2.5104548616315694E+00 a       223     0    12     1     3
 -1.9666412232015229E-01 a       224     0    12     1     4
  3.0963320810896156E-01 a       225     0    12     1     5
  1.5882984939790430E+00 a       226     0    12     1     6
 -2.4158958166210063E+00 a       227     0    12     1     7
  1.3880800550967379E-01 a       228     0    12     1     8
  7.8464810568738136E-03 a       229     0    12     1     9
  5.9353704720092282E-01 a       230     0    12     1    10
  6.7624997218129357E-01 a       231     0    12     1    11
  3.6478139321401726E-01 a       232     0    12     1    12
  5.1261607321928693E-01 a       233     0    12     1    13
  1.3447903327090716E+00 a       234     0    12     1    14
  2.0277567728397727E+00 a       235     0    12     1    15
 -1.3112620867703886E+00 a       236     0    12     1    16
  2.4226938355522001E+00 a       237     0    12     1    17
 -4.0932980267566027E-01 a       238     0    12     1    18
  9.4120774841165789E-01 a       239     0    12     1    19
 -1.5580095182826641E+00 a       240     0    12     1    20
  7.0572382735712813E-01 a       241     0    13     1     1
  2.9076596628299645E+00 a       242     0    13     1     2
  1.9481456970917574E+00 a       243     0    13     1     3
 -1.3912442173609134E+00 a       244     0    13     1     4
  7.6596136978828749E-02 a       245     0    13     1     5
  1.3571766263596936E+00 a       246     0    13     1     6
 -2.3704418937013894E+00 a       247     0    13     1     7
 -2.2787340015475142E+00 a       248     0    13     1     8
 -5.1183816666480386E-01 a       249     0    13     1     9
 -2.4544219070549825E-02 a       250     0    13     1    10
 -4.7519154335620667E-01 a       251     0    13     1    11
 -2.5860145424604075E-01 a       252     0    13     1    12
  1.1055609903300799E-01 a       253     0    13     1    13
 -6.6139260793685839E-01 a       254     0    13     1    14
  4.7850720312412676E-01 a       255     0    13     1    15
  1.4158126747892175E-01 a       256     0    13     1    16
  3.6658623795068890E-01 a       257     0    13     1    17
 -6.0796508541148098E-01 a       258     0    13     1    18
  7.7814028067388163E-01 a       259     0    13     1    19
  4.7833601671559556E-01 a       260     0    13     1    20
 -2.3237130739394423E+00 a       261     0    14     1     1
  1.5916408611532908E+00 a       262     0    14     1     2
 -2.7406574379104674E-02 a       263     0    14     1     3
 -2.1651018882074866E+00 a       264     0    14     1     4
 -2.2687288653095847E-01 a       265     0    14     1     5
 -4.5210634895915763E-01 a       266     0    14     1     6
 -1.0048641938789966E+00 a       267     0    14     1     7
 -1.2410674371402888E+00 a       268     0    14     1     8
  5.1517133643223989E-01 a       269     0    14     1     9
  7.4056275564885765E-01 a       270     0    14     1    10
 -1.2291437852618479E+00 a       271     0    14     1    11
  4.0138841252391350E-01 a       272     0    14     1    12
 -1.6795671669825335E-01 a       273     0    14     1    13
  2.1053532391114285E+00 a       274     0    14     1    14
  1.3962887479300612E-01 a       275     0    14     1    15
  1.9778363507808279E+00 a       276     0    14     1    16
 -2.1349288687361417E-01 a       277     0    14     1    17
  1.7015948830983885E-01 a       278     0    14     1    18
 -5.6302889997234240E-01 a       279     0    14     1    19
 -3.0309078049559308E+00 a       280     0    14     1    20
  5.2608286427445250E-01 a       281     0    15     1     1
  3.5269786395164595E+00 a       282     0    15     1     2
 -5.8412564025320346E-01 a       283     0    15     1     3
  2.7345480941683573E+00 a       284     0    15     1     4
  9.8386114931607360E-01 a       285     0    15     1     5
 -8.8345267211237344E-01 a       286     0    15     1     6
  3.4131966289121558E+00 a       287     0    15     1     7
  2.3807925614258911E+00 a       288     0    15     1     8
 -1.2922328270701366E+00 a       289     0    15     1     9
  8.8622336996101425E-01 a       290     0    15     1    10
  9.0875077025834983E-01 a       291     0    15     1    11
  3.6013530934810156E-01 a       292     0    15     1    12
  5.5230478677556849E-01 a       293     0    15     1    13
 -2.2610045031273485E+00 a       294     0    15     1    14
  6.2518917311125080E+00 a       295     0    15     1    15
 -2.1562396395262322E+00 a       296     0    15     1    16
 -3.2890960256693922E+00 a       297     0    15     1    17
 -1.4656905440087777E+00 a       298     0    15     1    18
 -1.7479260971142041E+00 a       299     0    15     1    19
  1.5199822762956994E-01 a       300     0    15     1    20
 -5.6974889551542085E-01 a       301     0    16     1     1
 -1.7891007376806625E-01 a       302     0    16     1     2
  1.1018245343716400E+00 a       303     0    16     1     3
  3.3506712832718458E-02 a       304     0    16     1     4
  1.4808118177650067E+00 a       305     0    16     1     5
  9.8011173881405123E-01 a       306     0    16     1     6
 -1.5947702724380057E+00 a       307     0    16     1     7
  2.3078720923861318E+00 a       308     0    16     1     8
 -1.2068851079471377E+00 a       309     0    16     1     9
  2.1828559953585694E-01 a       310     0    16     1    10
 -2.8767789393203498E+00 a       311     0    16     1    11
 -7.8700190409565426E-02 a       312     0    16     1    12
  2.0313248204697429E+00 a       313     0    16     1    13
  8.7713528495171644E-01 a       314     0    16     1    14
 -3.8044605084363142E-01 a       315     0    16     1    15
 -6.8346411988581846E-01 a       316     0    16     1    16
 -1.2943663871179849E+00 a       317     0    16     1    17
 -6.9535099926644117E-01 a       318     0    16     1    18
 -1.1260197171895516E+00 a       319     0    16     1    19
  9.9552474795769830E-01 a       320     0    16     1    20
  4.0269921448106888E-01 a       321     0    17     1     1
  3.4563976917099670E+00 a       322     0    17     1     2
  1.0634635660488503E+00 a       323     0    17     1     3
  1.3225399727962223E-01 a       324     0    17     1     4
  2.2205725451431485E-01 a       325     0    17     1     5
  1.0846039768293232E+00 a       326     0    17     1     6
 -4.6368168553405757E+00 a       327     0    17     1     7
  2.0112602911181394E+00 a       328     0    17     1     8
 -2.4801413072288012E-01 a       329     0    17     1     9
  6.1012456285691397E-01 a       330     0    17     1    10
 -6.4926003420537182E-01 a       331     0    17     1    11
 -4.9200739551729371E-02 a       332     0    17     1    12
  9.0447877771283020E-02 a       333     0    17     1    13
 -3.6700209938917228E+00 a       334     0    17     1    14
  3.0905270118304917E-02 a       335     0    17     1    15
 -1.1334701715908688E-01 a       336     0    17     1    16
  1.7914711183211740E+00 a       337     0    17     1    17
 -2.3921847857924350E-01 a       338     0    17     1    18
 -9.6102425272400949E-01 a       339     0    17     1    19
  3.5626346512445197E+00 a       340     0    17     1    20
 -7.3865622793873775E-01 a       341     0    18     1     1
 -1.3094334946193475E-01 a       342     0    18     1     2
 -8.9500697394262341E-01 a       343     0    18     1     3
 -2.4667430819125360E+00 a       344     0    18     1     4
 -8.8611314001532870E-01 a       345     0    18     1     5
 -9.6507073073540162E-01 a       346     0    18     1     6
 -2.6319859348630442E-01 a       347     0    18     1     7
  8.3803594624034117E-01 a       348     0    18     1     8
 -1.9315232053452038E+00 a       349     0    18     1     9
 -5.4689438861408013E-01 a       350     0    18     1    10
 -1.3288871171886918E+00 a       351     0    18     1    11
 -2.3690866970128288E-01 a       352     0    18     1    12
 -1.7112175218981932E-01 a       353     0    18     1    13
  2.0871033221198587E+00 a       354     0    18     1    14
  2.1962074321105010E+00 a       355     0    18     1    15
  8.3258768669739702E-01 a       356     0    18     1    16
 -2.5942101514414323E-01 a       357     0    18     1    17
  1.6374219282269133E+00 a       358     0    18     1    18
 -1.2494152164692575E-02 a       359     0    18     1    19
 -2.5435533589318746E+00 a       360     0    18     1    20
 -2.1263963004666571E+00 a       361     0    19     1     1
  1.0174651720779475E+00 a       362     0    19     1     2
 -5.2446975743671032E-01 a       363     0    19     1     3
  8.7364790409725757E-01 a       364     0    19     1     4
 -2.1984843067229702E+00 a       365     0    19     1     5
 -1.3568785953886666E+00 a       366     0    19     1     6
 -1.5595257397714297E+00 a       367     0    19     1     7
 -3.1157207183479927E+00 a       368     0    19     1     8
 -2.4322587687996718E-02 a       369     0    19     1     9
  2.9545899255655526E+00 a       370     0    19     1    10
  2.1614293188424805E+00 a       371     0    19     1    11
  1.2213816407722573E+00 a       372     0    19     1    12
 -1.9352293830820679E+00 a       373     0    19     1    13
  3.0000077356709380E+00 a       374     0    19     1    14
 -2.9162391857992973E+00 a       375     0    19     1    15
  1.3742026718965104E+00 a       376     0    19     1    16
 -2.4854385730324564E+00 a       377     0    19     1    17
  5.8839334898907258E-01 a       378     0    19     1    18
 -6.0175758192974937E-01 a       379     0    19     1    19
  1.1922976614611627E+00 a       380     0    19     1    20
 -1.1724354120321436E+00 a       381     0    20     1     1
  7.3725214265888084E-01 a       382     0    20     1     2
  8.3752201455858055E-01 a       383     0    20     1     3
 -2.0731860855203936E+00 a       384     0    20     1     4
 -4.8772153281818290E-02 a       385     0    20     1     5
  9.5808727709517394E-01 a       386     0    20     1     6
 -1.4076246013723455E+00 a       387     0    20     1     7
 -1.9347005876100695E-01 a       388     0    20     1     8
 -5.7670808005084806E-01 a       389     0    20     1     9
 -5.7100414976167779E-01 a       390     0    20     1    10
 -9.6687575379205692E-01 a       391     0    20     1    11
 -8.7591798919877817E-01 a       392     0    20     1    12
  2.3356585473724847E+00 a       393     0    20     1    13
 -2.4085548775895710E-01 a       394     0    20     1    14
 -1.1154854873588078E+00 a       395     0    20     1    15
 -2.3035799871451101E+00 a       396     0    20     1    16
 -1.9803720217669853E+00 a       397     0    20     1    17
 -4.8990668459650871E-01 a       398     0    20     1    18
  1.5952614378565033E+00 a       399     0    20     1    19
 -1.1769693559147312E+00 a       400     0    20     1    20
  5.9873850456192912E-01 a       401     0    21     1     1
  2.0164023497499577E+00 a       402     0    21     1     2
  1.3857531032339903E+00 a       403     0    21     1     3
  6.7886939091708320E-01 a       404     0    21     1     4
  1.1825237913815898E+00 a       405     0    21     1     5
 -1.0171956778804199E+00 a       406     0    21     1     6
 -1.1073506539865816E+00 a       407     0    21     1     7
  2.4153385891702386E+00 a       408     0    21     1     8
 -4.3804254290738653E-01 a       409     0    21     1     9
 -2.1134573241402257E+00 a       410     0    21     1    10
 -1.6958552068921333E+00 a       411     0    21     1    11
  1.0351026755466368E+00 a       412     0    21     1    12
  4.6981816915257096E-01 a       413     0    21     1    13
 -9.8494709181916817E-01 a       414     0    21     1    14
  1.9522621649430656E+00 a       415     0    21     1    15
  5.2034175375724090E-01 a       416     0    21     1    16
 -3.1285752573398690E-01 a       417     0    21     1    17
  8.6195305468465511E-01 a       418     0    21     1    18
  9.4244529877196581E-01 a       419     0    21     1    19
  1.0562473664997569E+00 a       420     0    21     1    20
 -7.8953865888444719E-01 a       421     0    22     1     1
  3.2808706338666318E+00 a       422     0    22     1     2
  2.6835850952593321E-01 a       423     0    22     1     3
 -2.2035717774407262E+00 a       424     0    22     1     4
 -1.4256891103364027E+00 a       425     0    22     1     5
  4.8651402423312062E-01 a       426     0    22     1     6
  7.1267869045978849E-01 a       427     0    22     1     7
 -1.1496576879256271E+00 a       428     0    22     1     8
  2.1472990456739022E-03 a       429     0    22     1     9
 -5.5192447320764371E-01 a       430     0    22     1    10
  1.0792976955663174E+00 a       431     0    22     1    11
 -1.0016714855154418E+00 a       432     0    22     1    12
  1.4644774415168904E+00 a       433     0    22     1    13
 -8.8351800246370649E-01 a       434     0    22     1    14
 -8.4862101227837117E-01 a       435     0    22     1    15
 -2.6470458236815717E+00 a       436     0    22     1    16
 -2.3067752574008504E+00 a       437     0    22     1    17
 -2.1423373091441925E-01 a       438     0    22     1    18
  2.3332363340409743E+00 a       439     0    22     1    19
 -7.6697540517149654E-01 a       440     0    22     1    20
  3.6115565585259313E-01 a       441     0    23     1     1
  2.9013050220307912E-01 a       442     0    23     1     2
 -1.8317844802092070E-01 a       443     0    23     1     3
 -1.0142136175979160E+00 a       444     0    23     1     4
 -5.4590606319448354E-01 a       445     0    23     1     5
  2.6412199030069972E-01 a       446     0    23     1     6
  8.1604889093813249E-02 a       447     0    23     1     7
  9.8469629341604348E-01 a       448     0    23     1     8
  1.1057215371641518E+00 a       449     0    23     1     9
  1.0700679351121123E+00 a       450     0    23     1    10
 -4.5525679100484018E-01 a       451     0    23     1    11
  1.8438552730450251E+00 a       452     0    23     1    12
  9.1047331815691823E-01 a       453     0    23     1    13
  1.4074186816789134E+00 a       454     0    23     1    14
 -1.3873132477279431E+00 a       455     0    23     1    15
  3.4898090853368507E-01 a       456     0    23     1    16
 -3.0424132226849974E+00 a       457     0    23     1    17
 -4.3490021946281693E-01 a       458     0    23     1    18
  3.2887786305440234E+00 a       459     0    23     1    19
  4.8224361656432607E-01 a       460     0    23     1    20
  2.5330166390155767E-01 a       461     0    24     1     1
  1.7783454379881827E+00 a       462     0    24     1     2
 -1.8375904992946877E+00 a       463     0    24     1     3
 -2.7731205883998172E-01 a       464     0    24     1     4
 -4.1635320807498211E-01 a       465     0    24     1     5
  2.3800481976356638E-01 a       466     0    24     1     6
 -3.5038959933835179E-01 a       467     0    24     1     7
 -3.2528111874077190E+00 a       468     0    24     1     8
  1.6093652124794171E-03 a       469     0    24     1     9
 -1.0732169315060451E+00 a       470     0    24     1    10
 -8.1524503245787028E-01 a       471     0    24     1    11
 -5.4258443567725028E-04 a       472     0    24     1    12
  5.1642719944057369E-01 a       473     0    24     1    13
 -4.0545431027386858E-01 a       474     0    24     1    14
  7.3352651570965555E-01 a       475     0    24     1    15
 -4.3769783235471664E-04 a       476     0    24     1    16
 -5.9103098902025164E-01 a       477     0    24     1    17
 -2.2928519706380754E-01 a       478     0    24     1    18
  1.1956642826307924E+00 a       479     0    24     1    19
  5.9447684936459433E-01 a       480     0    24     1    20
  1.1350680062822118E+00 a       481     0    25     1     1
 -3.7262393400350291E+00 a       482     0    25     1     2
  5.3415459919018311E-02 a       483     0    25     1     3
  3.0482593262754970E-01 a       484     0    25     1     4
  3.3440180537487280E-01 a       485     0    25     1     5
  9.6217587443998087E-01 a       486     0    25     1     6
 -1.2062156208807604E+00 a       487     0    25     1     7
 -1.9324094701542767E+00 a       488     0    25     1     8
  5.9477343146391626E-01 a       489     0    25     1     9
  1.2527776916465549E+00 a       490     0    25     1    10
 -5.2023862583878444E-01 a       491     0    25     1    11
 -3.5773723532896623E-01 a       492     0    25     1    12
  5.8299544617810306E-01 a       493     0    25     1    13
  4.1506091346250540E-01 a       494     0    25     1    14
  3.0182642622403660E-01 a       495     0    25     1    15
 -2.3309312381498901E+00 a       496     0    25     1    16
  3.8393109570721151E+00 a       497     0    25     1    17
 -5.0458455864985574E-01 a       498     0    25     1    18
 -6.7637907829572663E-01 a       499     0    25     1    19
  1.8921318020289359E+00 a       500     0    25     1    20
 -1.7169102859223218E-01 a       501     0    26     1     1
  3.5181411903194161E-02 a       502     0    26     1     2
 -1.0430600618900061E+00 a       503     0    26     1     3
 -4.9405400366865471E-01 a       504     0    26     1     4
  1.2328463943833270E+00 a       505     0    26     1     5
  7.6309148126420212E-01 a       506     0    26     1     6
  1.5475236535204768E+00 a       507     0    26     1     7
  7.4496545642628220E-01 a       508     0    26     1     8
  3.6409734690447004E-01 a       509     0    26     1     9
 -2.5223462837426332E-02 a       510     0    26     1    10
 -4.8320272037470491E-01 a       511     0    26     1    11
  4.4209947389685944E-01 a       512     0    26     1    12
  7.7181710589906816E-01 a       513     0    26     1    13
 -1.5873799241743317E-01 a       514     0    26     1    14
  3.6688790166687307E-01 a       515     0    26     1    15
 -1.0267935181451213E+00 a       516     0    26     1    16
 -3.5592563979905406E-01 a       517     0    26     1    17
 -6.0282631895819383E-01 a       518     0    26     1    18
  9.2424848135927351E-01 a       519     0    26     1    19
  4.5956262359416349E-02 a       520     0    26     1    20
 -3.7155816000361447E-01 a       521     0    27     1     1
 -1.6654205921140117E+00 a       522     0    27     1     2
 -3.8756273255426515E-01 a       523     0    27     1     3
 -2.8411942134685092E-02 a       524     0    27     1     4
  2.7165629952188275E-01 a       525     0    27     1     5
  5.1718560392949386E-01 a       526     0    27     1     6
 -3.2209380541054661E-01 a       527     0    27     1     7
  1.4796807164715273E+00 a       528     0    27     1     8
 -3.8750485261086637E-01 a       529     0    27     1     9
 -8.9630798784723298E-01 a       530     0    27     1    10
 -5.4321870509543435E-01 a       531     0    27     1    11
  1.3863171881676112E-01 a       532     0    27     1    12
  3.7857633704654520E-01 a       533     0    27     1    13
 -9.9067061804554335E-01 a       534     0    27     1    14
  1.2996480768472833E+00 a       535     0    27     1    15
 -1.9322642972806141E+00 a       536     0    27     1    16
 -4.7521330968343473E-01 a       537     0    27     1    17
 -6.5445849830356462E-01 a       538     0    27     1    18
 -1.0279357303046019E+00 a       539     0    27     1    19
 -2.2232832378670344E+00 a       540     0    27     1    20
  6.5643165916646484E-02 a       541     0    28     1     1
 -9.2014188120437701E-01 a       542     0    28     1     2
  6.6793626504069037E-01 a       543     0    28     1     3
 -7.2822860446446880E-01 a       544     0    28     1     4
  2.2905870678143619E-01 a       545     0    28     1     5
  1.8003292430722762E-01 a       546     0    28     1     6
  9.8293589326720787E-01 a       547     0    28     1     7
  2.1725474829747498E+00 a       548     0    28     1     8
  6.2519620295322698E-01 a       549     0    28     1     9
  6.6827538773788187E-01 a       550     0    28     1    10
 -6.5527578938808584E-01 a       551     0    28     1    11
  6.6587914740470419E-02 a       552     0    28     1    12
  7.5114654297000150E-01 a       553     0    28     1    13
 -4.3398427846462482E-03 a       554     0    28     1    14
  6.6989133064501050E-01 a       555     0    28     1    15
 -9.7228251903605145E-01 a       556     0    28     1    16
  6.8634566707550027E-01 a       557     0    28     1    17
 -7.7714395245876733E-01 a       558     0    28     1    18
  1.0340085050473160E+00 a       559     0    28     1    19
  9.2244139723823737E-01 a       560     0    28     1    20
  6.5209772419334144E-01 a       561     0    29     1     1
 -1.3181575840915409E+00 a       562     0    29     1     2
  1.5524123856944110E+00 a       563     0    29     1     3
 -3.8985740117818440E-01 a       564     0    29     1     4
  3.8797957021814121E-03 a       565     0    29     1     5
  7.8727280294734178E-02 a       566     0    29     1     6
 -9.4598163067804331E-01 a       567     0    29     1     7
  5.0067409563061300E+00 a       568     0    29     1     8
 -1.3657718236489299E-03 a       569     0    29     1     9
  1.5589485032173672E-01 a       570     0    29     1    10
 -5.1813006149487628E-01 a       571     0    29     1    11
  3.2082414509183221E-01 a       572     0    29     1    12
  1.1934597782185903E-01 a       573     0    29     1    13
  9.4297299200347862E-01 a       574     0    29     1    14
  5.4430203714404568E-01 a       575     0    29     1    15
 -4.6487020881141072E-01 a       576     0    29     1    16
  6.4416278808815883E-02 a       577     0    29     1    17
 -2.1194003311484791E-01 a       578     0    29     1    18
 -8.6229673783607819E-01 a       579     0    29     1    19
 -2.4199756910929198E+00 a       580     0    29     1    20
 -1.4699823677546775E-01 a       581     0    30     1     1
 -8.8526763945851808E-02 a       582     0    30     1     2
  2.3616089472013550E-02 a       583     0    30     1     3
  4.2723949324729732E-01 a       584     0    30     1     4
  8.5553812910280122E-02 a       585     0    30     1     5
 -6.8705325619289803E-01 a       586     0    30     1     6
 -9.0074217744608609E-01 a       587     0    30     1     7
  1.4814409540190738E+00 a       588     0    30     1     8
  1.4942643349658560E+00 a       589     0    30     1     9
  3.5378988280520905E-02 a       590     0    30     1    10
 -3.0789765132759339E-01 a       591     0    30     1    11
 -4.6001246205538260E-01 a       592     0    30     1    12
  5.9773140475074171E-01 a       593     0    30     1    13
  2.2102894927435783E+00 a       594     0    30     1    14
  7.4549014204665265E-01 a       595     0    30     1    15
  4.3462106449970539E-01 a       596     0    30     1    16
  6.2811536704359494E-01 a       597     0    30     1    17
 -4.5856714309367647E-01 a       598     0    30     1    18
  5.8455341234504254E-01 a       599     0    30     1    19
 -5.0691466435060462E-01 a       600     0    30     1    20
  8.0005019891697982E-01 a       601     0    31     1     1
 -1.2265090067185758E+00 a       602     0    31     1     2
  1.4366725966328826E+00 a       603     0    31     1     3
 -1.0111692581990606E+00 a       604     0    31     1     4
 -1.3166612942870961E+00 a       605     0    31     1     5
 -2.8178607384700033E-01 a       606     0    31     1     6
  1.5580616388156989E+00 a       607     0    31     1     7
  4.2447761214155266E-01 a       608     0    31     1     8
  2.5751613513539612E-01 a       609     0    31     1     9
  1.0917893702680357E+00 a       610     0    31     1    10
 -2.1793780219257741E-01 a       611     0    31     1    11
  2.0452460234374259E+00 a       612     0    31     1    12
  4.1018619902529707E-01 a       613     0    31     1    13
 -9.6231043698425767E-01 a       614     0    31     1    14
 -1.0628201984847043E+00 a       615     0    31     1    15
 -1.1718051848934952E-01 a       616     0    31     1    16
 -2.9440578063623297E+00 a       617     0    31     1    17
 -4.6510309425785495E-01 a       618     0    31     1    18
 -3.8423929311345467E-01 a       619     0    31     1    19
 -1.3267577588763815E-01 a       620     0    31     1    20
 -2.3187114915698508E-02 a       621     0    32     1     1
  7.9230670724213603E-01 a       622     0    32     1     2
  1.0771842632286686E+00 a       623     0    32     1     3
 -9.7375595291574069E-01 a       624     0    32     1     4
 -2.0365480558208310E-01 a       625     0    32     1     5
  4.1861096688330390E-01 a       626     0    32     1     6
 -1.1563629323903659E+00 a       627     0    32     1     7
  1.4711558386111456E-01 a       628     0    32     1     8
  1.0282345169885297E-01 a       629     0    32     1     9
  7.4589930348187961E-01 a       630     0    32     1    10
  2.0116354540397374E-01 a       631     0    32     1    11
  3.1233436079538074E-01 a       632     0    32     1    12
  9.1946406806193415E-01 a       633     0    32     1    13
 -1.1012470273445663E+00 a       634     0    32     1    14
  1.6592319538952043E-04 a       635     0    32     1    15
  4.7071454373963434E-01 a       636     0    32     1    16
 -7.7998032138716045E-01 a       637     0    32     1    17
 -6.6271437039302872E-01 a       638     0    32     1    18
 -5.3768055361655342E-01 a       639     0    32     1    19
  7.0431596678808395E-01 a       640     0    32     1    20
 -1.0936664354717966E-01 a       641     0    33     1     1
  1.6956307644934256E+00 a       642     0    33     1     2
 -2.0754065908349714E-02 a       643     0    33     1     3
 -1.2197701297927742E-01 a       644     0    33     1     4
 -2.3145271586731861E-01 a       645     0    33     1     5
  2.1156369328909791E-01 a       646     0    33     1     6
  3.6726583094396992E-01 a       647     0    33     1     7
 -2.5682333205943291E+00 a       648     0    33     1     8
 -9.3788912027234594E-01 a       649     0    33     1     9
 -1.5910110289965864E+00 a       650     0    33     1    10
 -4.9900441158184740E-02 a       651     0    33     1    11
 -5.7121837164153189E-01 a       652     0    33     1    12
  6.3325876132744807E-01 a       653     0    33     1    13
 -3.4694984755893515E-01 a       654     0    33     1    14
  8.3628642186091595E-01 a       655     0    33     1    15
 -7.9918187184474976E-01 a       656     0    33     1    16
 -3.2373328106101956E-01 a       657     0    33     1    17
 -5.6285210347990289E-01 a       658     0    33     1    18
  1.4308558553357995E+00 a       659     0    33     1    19
 -8.6210311399991801E-02 a       660     0    33     1    20
 -6.6682673009388072E-01 a       661     0    34     1     1
 -9.1646055568512985E-01 a       662     0    34     1     2
 -1.1429057296611627E+00 a       663     0    34     1     3
 -8.1929330013234242E-02 a       664     0    34     1     4
 -5.6564772869291735E-01 a       665     0    34     1     5
  1.8767459069034534E-01 a       666     0    34     1     6
  1.0884338071175343E+00 a       667     0    34     1     7
  1.0927279748877354E+00 a       668     0    34     1     8
 -4.8940711869703346E-01 a       669     0    34     1     9
 -4.9863625040301224E-01 a       670     0    34     1    10
 -3.0588566264038908E-01 a       671     0    34     1    11
 -7.5780554212401235E-02 a       672     0    34     1    12
  8.0765487820721238E-01 a       673     0    34     1    13
 -9.9835218062230141E-02 a       674     0    34     1    14
  1.4132349964451336E+00 a       675     0    34     1    15
 -4.3385184260501752E-01 a       676     0    34     1    16
 -8.1805409999867196E-01 a       677     0    34     1    17
 -8.1345443908293036E-01 a       678     0    34     1    18
 -9.5165265906597796E-01 a       679     0    34     1    19
 -1.2992668708210884E+00 a       680     0    34     1    20
  3.6131789800550218E-01 a       681     0    35     1     1
  1.3467757969092602E+00 a       682     0    35     1     2
 -1.2158015531682265E+00 a       683     0    35     1     3
  1.6009727294353829E-01 a       684     0    35     1     4
 -6.4515064700023472E-01 a       685     0    35     1     5
  3.7385074003230401E-01 a       686     0    35     1     6
  2.3762435871973859E+00 a       687     0    35     1     7
  9.0280876501855640E-03 a       688     0    35     1     8
 -5.3611166392339156E-02 a       689     0    35     1     9
 -1.4392206633198583E+00 a       690     0    35     1    10
 -2.9144074861175406E-01 a       691     0    35     1    11
  4.0041210727788973E-01 a       692     0    35     1    12
  7.0432357169305604E-01 a       693     0    35     1    13
  1.5871036389904896E+00 a       694     0    35     1    14
  1.4070303479880386E+00 a       695     0    35     1    15
  2.6062659980633368E-01 a       696     0    35     1    16
 -1.8266839074899390E+00 a       697     0    35     1    17
 -7.0688981099411674E-01 a       698     0    35     1    18
  9.6448578038022736E-01 a       699     0    35     1    19
  8.2011769576110427E-01 a       700     0    35     1    20
  3.8261311597760994E-01 a       701     0    36     1     1
  3.6130044512859327E+00 a       702     0    36     1     2
 -1.2476845307625133E+00 a       703     0    36     1     3
 -3.2477932274796928E-01 a       704     0    36     1     4
 -8.4845000929878867E-01 a       705     0    36     1     5
  8.5840452314354526E-02 a       706     0    36     1     6
  3.3664442874391933E+00 a       707     0    36     1     7
  1.8311186861891373E+00 a       708     0    36     1     8
  2.3831054701624571E-01 a       709     0    36     1     9
  1.9755056443023478E-01 a       710     0    36     1    10
 -4.1870090506330554E-01 a       711     0    36     1    11
  3.3046276107756162E-01 a       712     0    36     1    12
  1.0827320142996679E+00 a       713     0    36     1    13
  2.5080204937281176E+00 a       714     0    36     1    14
  9.3188048655906208E-01 a       715     0    36     1    15
 -3.8157094429356569E-01 a       716     0    36     1    16
 -1.2310912214421950E+00 a       717     0    36     1    17
 -9.0851317703480827E-01 a       718     0    36     1    18
  1.0393048931524294E+00 a       719     0    36     1    19
  4.5556914157340639E-01 a       720     0    36     1    20
  9.2417841589836042E-02 a       721     0    37     1     1
 -2.8452264782413877E-01 a       722     0    37     1     2
  4.4756349634433712E-01 a       723     0    37     1     3
  1.8371841536221014E+00 a       724     0    37     1     4
  8.9616306989183159E-01 a       725     0    37     1     5
 -7.9226929350412378E-01 a       726     0    37     1     6
  7.3672253944804422E-01 a       727     0    37     1     7
  5.3759701138815875E-02 a       728     0    37     1     8
  4.9629006039657739E-02 a       729     0    37     1     9
 -5.5400156494058139E-01 a       730     0    37     1    10
  4.1615964691929358E-01 a       731     0    37     1    11
 -2.7955131735384781E-01 a       732     0    37     1    12
  5.4743867969706717E-01 a       733     0    37     1    13
  4.8077265171076056E-01 a       734     0    37     1    14
  1.1195566181537517E+00 a       735     0    37     1    15
  2.6599516674836871E-01 a       736     0    37     1    16
  2.6338937649545247E-01 a       737     0    37     1    17
 -4.6457074393193459E-01 a       738     0    37     1    18
  1.6013408000308366E-01 a       739     0    37     1    19
  8.0775039865203194E-02 a       740     0    37     1    20
  9.1252081898041071E-02 a       741     0    38     1     1
  1.3295932440691249E+00 a       742     0    38     1     2
 -2.3838552796029266E-01 a       743     0    38     1     3
 -3.1475184747132738E+00 a       744     0    38     1     4
 -4.2993982541941977E-01 a       745     0    38     1     5
  1.0822245803681643E-01 a       746     0    38     1     6
  1.6661631698822110E+00 a       747     0    38     1     7
  9.0737246116824788E-01 a       748     0    38     1     8
  2.3140629090286430E-01 a       749     0    38     1     9
 -1.6092396246812910E+00 a       750     0    38     1    10
 -9.1414752501104657E-01 a       751     0    38     1    11
 -2.8437345766719946E-01 a       752     0    38     1    12
  7.1599675251592931E-01 a       753     0    38     1    13
  4.0538919676270983E-02 a       754     0    38     1    14
 -5.6084586364649125E-01 a       755     0    38     1    15
  3.9111103622361804E-01 a       756     0    38     1    16
 -1.1409929128502252E+00 a       757     0    38     1    17
 -6.1563096440256126E-01 a       758     0    38     1    18
  1.8848319521837893E+00 a       759     0    38     1    19
 -7.5273418878058074E-01 a       760     0    38     1    20
 -3.4763139662266740E-01 a       761     0    39     1     1
 -1.8805368429448086E-01 a       762     0    39     1     2
  1.5172718976604269E+00 a       763     0    39     1     3
 -1.4952472058094690E+00 a       764     0    39     1     4
  5.8765140326707516E-02 a       765     0    39     1     5
  2.5717530697892194E-01 a       766     0    39     1     6
  6.2187152662653278E-01 a       767     0    39     1     7
  4.0484530616088504E-01 a       768     0    39     1     8
 -6.1957412086828045E-01 a       769     0    39     1     9
 -1.0609779306867018E+00 a       770     0    39     1    10
 -3.3062898729761270E-01 a       771     0    39     1    11
  4.4395611132405433E-01 a       772     0    39     1    12
  5.3530935621673759E-01 a       773     0    39     1    13
 -2.0927248694390008E+00 a       774     0    39     1    14
 -1.7721981176468565E-01 a       775     0    39     1    15
 -9.5502260810503137E-01 a       776     0    39     1    16
 -3.3928135224927430E-01 a       777     0    39     1    17
 -2.9392239006128046E-01 a       778     0    39     1    18
  1.0601195924199982E+00 a       779     0    39     1    19
  6.6241636413576943E-01 a       780     0    39     1    20
  3.3807198122318560E-01 a       781     0    40     1     1
 -2.8627200569013907E-02 a       782     0    40     1     2
  1.0886455189792437E+00 a       783     0    40     1     3
 -5.7450234996006755E-01 a       784     0    40     1     4
 -9.7946276870998672E-01 a       785     0    40     1     5
 -3.6897064006188578E-02 a       786     0    40     1     6
 -4.4908015067811313E-01 a       787     0    40     1     7
 -7.7720513066201185E-03 a       788     0    40     1     8
 -5.7597418792117994E-01 a       789     0    40     1     9
  9.3067887514633629E-01 a       790     0    40     1    10
 -4.2373469752220139E-01 a       791     0    40     1    11
  1.9324464218152082E-01 a       792     0    40     1    12
  1.3528799171191727E-02 a       793     0    40     1    13
  6.5007337870311577E-01 a       794     0    40     1    14
 -1.4505852003823169E-01 a       795     0    40     1    15
 -6.5878832204550131E-01 a       796     0    40     1    16
 -7.1963922525992652E-01 a       797     0    40     1    17
 -2.6968592514115967E-04 a       798     0    40     1    18
 -1.5800804350527937E+00 a       799     0    40     1    19
 -9.5184083393052876E-01 a       800     0    40     1    20
  7.6903386245035166E-01 a       801     0    41     1     1
 -2.9101002891554650E-02 a       802     0    41     1     2
 -2.9169208721192696E-01 a       803     0    41     1     3
 -1.0241445347306029E+00 a       804     0    41     1     4
 -1.0507235930547134E+00 a       805     0    41     1     5
  1.9571507108649400E-01 a       806     0    41     1     6
 -3.4573513069525602E-01 a       807     0    41     1     7
 -4.8956720023139180E-02 a       808     0    41     1     8
 -5.7539867310376774E-02 a       809     0    41     1     9
  7.2054395232139612E-01 a       810     0    41     1    10
  4.0286255269385474E-01 a       811     0    41     1    11
  7.8092068110867374E-01 a       812     0    41     1    12
  1.9636434563012078E-01 a       813     0    41     1    13
 -2.6464086465554787E-01 a       814     0    41     1    14
 -8.6676324596349286E-01 a       815     0    41     1    15
  1.2154342193293978E-01 a       816     0    41     1    16
  2.2350941478644107E-01 a       817     0    41     1    17
 -7.5482655826515588E-02 a       818     0    41     1    18
  8.8662315015241522E-01 a       819     0    41     1    19
 -1.5455489821774959E+00 a       820     0    41     1    20
  5.2654518631166394E-02 a       821     0    42     1     1
 -1.2969981633851697E+00 a       822     0    42     1     2
  3.2895868319352872E-01 a       823     0    42     1     3
 -4.6977687967959481E-01 a       824     0    42     1     4
  2.9869484777674454E-01 a       825     0    42     1     5
  4.4798267884651000E-01 a       826     0    42     1     6
  2.1009451805541244E+00 a       827     0    42     1     7
  2.2185182605338657E-01 a       828     0    42     1     8
 -1.4463662420157394E-01 a       829     0    42     1     9
 -5.5759250186605858E-01 a       830     0    42     1    10
  2.7028485526301588E-01 a       831     0    42     1    11
  5.3736504974208799E-01 a       832     0    42     1    12
  1.5239601492387475E-01 a       833     0    42     1    13
 -3.3565828774869128E-01 a       834     0    42     1    14
  3.7457808569252848E-01 a       835     0    42     1    15
 -9.9365726747238692E-01 a       836     0    42     1    16
 -6.3791926771853724E-01 a       837     0    42     1    17
  1.6700810129265689E-01 a       838     0    42     1    18
 -3.1145562528799853E-01 a       839     0    42     1    19
  8.9277134007758219E-01 a       840     0    42     1    20
  2.3203492822580737E-01 a       841     0    43     1     1
 -1.7051008538967722E+00 a       842     0    43     1     2
  2.8050430887549687E+00 a       843     0    43     1     3
 -1.4741189802663981E+00 a       844     0    43     1     4
  1.5800076291096969E+00 a       845     0    43     1     5
  1.3486339525434063E+00 a       846     0    43     1     6
  1.9702283727814036E+00 a       847     0    43     1     7
  2.8137913207349069E-01 a       848     0    43     1     8
 -3.0575923862734167E-01 a       849     0    43     1     9
 -2.2066084580618796E-02 a       850     0    43     1    10
  3.7615237475910251E-02 a       851     0    43     1    11
  1.4762394105110268E+00 a       852     0    43     1    12
  3.3161874541533015E-01 a       853     0    43     1    13
 -1.1506821446849256E+00 a       854     0    43     1    14
  2.8044957807275117E-01 a       855     0    43     1    15
 -9.3171319197131419E-01 a       856     0    43     1    16
  1.6265135461015481E-01 a       857     0    43     1    17
 -1.4305033237811882E-01 a       858     0    43     1    18
 -2.1473704172629908E+00 a       859     0    43     1    19
 -8.2647949825842371E-01 a       860     0    43     1    20
  4.2551297039599917E-01 a       861     0    44     1     1
  1.8546603177126513E+00 a       862     0    44     1     2
  6.2133686151574219E-02 a       863     0    44     1     3
 -9.2798396161354602E-01 a       864     0    44     1     4
 -6.0284485061297466E-01 a       865     0    44     1     5
 -1.3463250993428541E-01 a       866     0    44     1     6
  2.7011209500398135E+00 a       867     0    44     1     7
  3.2976829887968606E-01 a       868     0    44     1     8
 -1.7453847412834558E-01 a       869     0    44     1     9
  8.6842954287438778E-01 a       870     0    44     1    10
  1.1155651584289630E-01 a       871     0    44     1    11
  6.3564655070318254E-01 a       872     0    44     1    12
  1.6777079699280925E-01 a       873     0    44     1    13
 -1.9278342577808727E+00 a       874     0    44     1    14
  4.8215056825718988E-01 a       875     0    44     1    15
 -5.4806435815873988E-01 a       876     0    44     1    16
 -8.8230688798508883E-01 a       877     0    44     1    17
 -2.3104144057109999E-01 a       878     0    44     1    18
 -1.6078132510664300E-01 a       879     0    44     1    19
 -1.2477083411436059E-01 a       880     0    44     1    20
  3.1227190286241296E-01 a       881     0    45     1     1
 -2.6887364327080460E-01 a       882     0    45     1     2
  2.1775260404842323E+00 a       883     0    45     1     3
 -7.6880871955362373E-01 a       884     0    45     1     4
 -1.2003598343306476E+00 a       885     0    45     1     5
  3.1983186863322501E-02 a       886     0    45     1     6
 -5.8175501851214617E-01 a       887     0    45     1     7
 -7.2838469878744372E-01 a       888     0    45     1     8
  3.6363603966048835E-01 a       889     0    45     1     9
  5.9788230741238935E-01 a       890     0    45     1    10
  9.2467185934630131E-02 a       891     0    45     1    11
 -3.3600151654186776E-02 a       892     0    45     1    12
  6.9324117314682354E-01 a       893     0    45     1    13
 -1.5643025175450036E+00 a       894     0    45     1    14
  2.4240836644025474E-01 a       895     0    45     1    15
  3.0069430761318106E-01 a       896     0    45     1    16
 -6.3021237838822586E-01 a       897     0    45     1    17
 -5.8919926930804589E-01 a       898     0    45     1    18
 -1.9803901833382027E+00 a       899     0    45     1    19
 -6.3266267903202711E-01 a       900     0    45     1    20
  7.9978999051211988E-02 a       901     0    46     1     1
  1.1889696424556149E+00 a       902     0    46     1     2
  7.6972113648607443E-01 a       903     0    46     1     3
  1.3533191019166799E-01 a       904     0    46     1     4
 -6.8669602693905996E-01 a       905     0    46     1     5
 -5.8129895173023242E-02 a       906     0    46     1     6
 -4.3768124752442356E-01 a       907     0    46     1     7
 -2.3271447999050641E+00 a       908     0    46     1     8
 -1.8770939946974941E+00 a       909     0    46     1     9
 -1.4973250108974641E+00 a       910     0    46     1    10
 -2.8927932033602727E-01 a       911     0    46     1    11
 -7.8080341442977452E-01 a       912     0    46     1    12
  8.2733115002100954E-01 a       913     0    46     1    13
 -1.0491567449806694E+00 a       914     0    46     1    14
  8.1116785893532861E-01 a       915     0    46     1    15
 -1.2953635362625637E+00 a       916     0    46     1    16
 -8.8785221914821577E-01 a       917     0    46     1    17
 -6.2536722642835252E-01 a       918     0    46     1    18
  1.8653508150097238E+00 a       919     0    46     1    19
  9.5633856816264040E-01 a       920     0    46     1    20
  2.6530644195854530E-01 a       921     0    47     1     1
 -5.6378498312600978E-01 a       922     0    47     1     2
  2.0223989718974673E+00 a       923     0    47     1     3
 -7.9841723844385903E-01 a       924     0    47     1     4
 -7.5020250125091192E-01 a       925     0    47     1     5
 -2.7830987381364580E-02 a       926     0    47     1     6
 -2.0273467379070591E+00 a       927     0    47     1     7
  2.7591464358561479E+00 a       928     0    47     1     8
  9.1435197155903680E-01 a       929     0    47     1     9
 -3.7897854355677230E-01 a       930     0    47     1    10
 -1.2401214810677659E+00 a       931     0    47     1    11
 -3.0334358312702880E+00 a       932     0    47     1    12
  2.1192077514256287E+00 a       933     0    47     1    13
  1.0485483356874171E-01 a       934     0    47     1    14
 -2.8028002064130542E-01 a       935     0    47     1    15
 -1.0318927550566910E+00 a       936     0    47     1    16
 -2.3455342783681368E+00 a       937     0    47     1    17
 -6.3522852193337487E-01 a       938     0    47     1    18
  6.1760064164726669E-01 a       939     0    47     1    19
 -2.1911188684994443E+00 a       940     0    47     1    20
 -6.9604181410554383E-02 a       941     0    48     1     1
 -1.5024777606419246E+00 a       942     0    48     1     2
  1.3721792546843245E-01 a       943     0    48     1     3
 -9.9380887096792958E-01 a       944     0    48     1     4
  1.1573993475541957E+00 a       945     0    48     1     5
  3.5097481420023607E-01 a       946     0    48     1     6
 -4.8034525242449261E-01 a       947     0    48     1     7
  4.7478597132352601E-01 a       948     0    48     1     8
  1.5013727538600735E-01 a       949     0    48     1     9
  5.8876356387350393E-01 a       950     0    48     1    10
  2.4614039077072908E-01 a       951     0    48     1    11
 -6.1993002528831798E-01 a       952     0    48     1    12
  7.9270138295142123E-01 a       953     0    48     1    13
 -6.5285531999244073E-01 a       954     0    48     1    14
  6.8077545945980533E-01 a       955     0    48     1    15
  1.2824419303794041E+00 a       956     0    48     1    16
  5.9139548714936352E-01 a       957     0    48     1    17
 -4.8339130788202661E-01 a       958     0    48     1    18
 -2.3197651910963577E+00 a       959     0    48     1    19
 -1.7396092164526891E+00 a       960     0    48     1    20
 -2.8716010412367388E-01 a       961     0    49     1     1
 -8.0326251022736284E-01 a       962     0    49     1     2
 -5.5876709496567101E-01 a       963     0    49     1     3
 -4.8427529152010884E-01 a       964     0    49     1     4
 -9.8540384499073752E-01 a       965     0    49     1     5
  1.4146268495730432E-01 a       966     0    49     1     6
  2.0174561778697835E+00 a       967     0    49     1     7
 -2.6081206910671240E-01 a       968     0    49     1     8
 -7.9267533689212022E-01 a       969     0    49     1     9
 -2.2632443983915038E-01 a       970     0    49     1    10
  1.4803548451639079E-01 a       971     0    49     1    11
  3.3177555889305210E-02 a       972     0    49     1    12
  8.1321051745116335E-01 a       973     0    49     1    13
 -3.7285896066267865E-01 a       974     0    49     1    14
  1.0177146668737953E+00 a       975     0    49     1    15
  1.1314185720616878E+00 a       976     0    49     1    16
 -2.2898644320440193E+00 a       977     0    49     1    17
 -6.4018975367685083E-01 a       978     0    49     1    18
 -6.1356602225848189E-01 a       979     0    49     1    19
  7.0030070179394488E-01 a       980     0    49     1    20
 -2.6460177515003952E-01 a       981     0    50     1     1
  3.0213210378159907E+00 a       982     0    50     1     2
 -4.1727081462063325E+00 a       983     0    50     1     3
 -5.0061372774826740E-01 a       984     0    50     1     4
  5.7927121526787251E-01 a       985     0    50     1     5
  1.8829566391757943E-01 a       986     0    50     1     6
 -3.2936291173509193E+00 a       987     0    50     1     7
 -9.2284594989163715E-01 a       988     0    50     1     8
  2.5236640281967726E+00 a       989     0    50     1     9
 -2.0313851843258884E-01 a       990     0    50     1    10
 -1.6473618880115942E-01 a       991     0    50     1    11
 -9.1354731072936755E-03 a       992     0    50     1    12
  6.8652193031523401E-01 a       993     0    50     1    13
 -9.7279112786665303E-02 a       994     0    50     1    14
  2.3235007032901353E-01 a       995     0    50     1    15
 -1.6040110824025646E+00 a       996     0    50     1    16
  2.0777222695268636E+00 a       997     0    50     1    17
  4.2194142310428540E-01 a       998     0    50     1    18
  1.1290227026566013E+00 a       999     0    50     1    19
  8.3150266288924923E-01 a      1000     0    50     1    20
 -1.1148373607250181E-01 a      1001     0    51     1     1
  2.5721634908514730E+00 a      1002     0    51     1     2
 -9.9645245080915157E-01 a      1003     0    51     1     3
 -4.2400079052210349E-01 a      1004     0    51     1     4
  4.1898204571645303E-01 a      1005     0    51     1     5
 -8.0473004618283397E-02 a      1006     0    51     1     6
 -2.0540548198790769E+00 a      1007     0    51     1     7
  2.4461929492799337E+00 a      1008     0    51     1     8
  6.8515982078352156E-01 a      1009     0    51     1     9
  1.7568246541605899E+00 a      1010     0    51     1    10
 -1.5425245262180742E-01 a      1011     0    51     1    11
 -5.5794963816902465E-01 a      1012     0    51     1    12
  7.3039762113572670E-01 a      1013     0    51     1    13
 -7.3021156445208557E-01 a      1014     0    51     1    14
  4.1732636628812514E-01 a      1015     0    51     1    15
  1.6395185231045100E+00 a      1016     0    51     1    16
  2.6876041137787512E+00 a      1017     0    51     1    17
 -9.7630542065217096E-01 a      1018     0    51     1    18
 -9.3807469073207406E-01 a      1019     0    51     1    19
 -1.0017543458927609E+00 a      1020     0    51     1    20
  9.2951591016290164E-02 a      1021     0    52     1     1
  1.3324455512853692E+00 a      1022     0    52     1     2
 -8.1278272585530686E-01 a      1023     0    52     1     3
  2.4270853386492144E+00 a      1024     0    52     1     4
  9.6376761311037662E-01 a      1025     0    52     1     5
 -7.4709850130559463E-01 a      1026     0    52     1     6
  8.5815057220399699E-02 a      1027     0    52     1     7
  2.9653280061734938E-01 a      1028     0    52     1     8
 -1.8671162428375885E+00 a      1029     0    52     1     9
 -1.1843580263952160E+00 a      1030     0    52     1    10
  1.3697500706136443E+00 a      1031     0    52     1    11
  5.4697595788932109E-02 a      1032     0    52     1    12
  6.5329911528630402E-01 a      1033     0    52     1    13
 -1.8032032470018309E+00 a      1034     0    52     1    14
  1.6566572353410201E+00 a      1035     0    52     1    15
  2.8429660754033803E-01 a      1036     0    52     1    16
 -2.1350756064589991E+00 a      1037     0    52     1    17
 -4.6143603974290043E-01 a      1038     0    52     1    18
 -4.2611576523769923E-01 a      1039     0    52     1    19
  1.9672699789796053E+00 a      1040     0    52     1    20
  1.4198616557545894E-03 a      1041     0    53     1     1
  1.8382672964466773E+00 a      1042     0    53     1     2
 -1.4966130802139874E-01 a      1043     0    53     1     3
 -5.8448770671274863E-01 a      1044     0    53     1     4
 -1.3711310214487000E+00 a      1045     0    53     1     5
  3.0469329179030930E-01 a      1046     0    53     1     6
 -2.7352592813148779E-01 a      1047     0    53     1     7
  4.8418835792218257E-01 a      1048     0    53     1     8
  4.6461485920031831E-01 a      1049     0    53     1     9
  7.3201242123976096E-01 a      1050     0    53     1    10
  7.4273232038418763E-02 a      1051     0    53     1    11
  7.7397764369527811E-01 a      1052     0    53     1    12
  3.9092094489660351E-01 a      1053     0    53     1    13
  2.4566798700655341E+00 a      1054     0    53     1    14
  4.7392195527651410E-01 a      1055     0    53     1    15
 -2.3070925616453078E-01 a      1056     0    53     1    16
 -1.0275081353395732E+00 a      1057     0    53     1    17
 -3.8216918054631022E-01 a      1058     0    53     1    18
  4.9997321368663972E-01 a      1059     0    53     1    19
 -1.7203239989109522E+00 a      1060     0    53     1    20
  1.3487295739066569E+00 a      1061     0    54     1     1
  2.0177910374878647E+00 a      1062     0    54     1     2
 -7.9265957151095801E-01 a      1063     0    54     1     3
 -1.3236677928296810E-02 a      1064     0    54     1     4
  7.8522729209393038E-01 a      1065     0    54     1     5
  1.0512785548027612E-01 a      1066     0    54     1     6
 -5.8992933013069992E-01 a      1067     0    54     1     7
 -2.7933342820383085E+00 a      1068     0    54     1     8
  3.4506004576620075E-01 a      1069     0    54     1     9
 -3.1096092942645936E-01 a      1070     0    54     1    10
 -9.4661317523335550E-02 a      1071     0    54     1    11
 -8.8313759195608577E-01 a      1072     0    54     1    12
  3.2094991089696753E-02 a      1073     0    54     1    13
  2.8006821026589207E-01 a      1074     0    54     1    14
 -5.8431190426140445E-01 a      1075     0    54     1    15
 -3.1874223590319428E-01 a      1076     0    54     1    16
  7.1846140109989387E-01 a      1077     0    54     1    17
 -4.2552590754714903E-01 a      1078     0    54     1    18
  1.6677186459399501E-01 a      1079     0    54     1    19
  1.7140259707317484E+00 a      1080     0    54     1    20
  8.3469395895100440E-01 a      1081     0    55     1     1
 -1.4008595592176449E+00 a      1082     0    55     1     2
  2.0854558218320749E+00 a      1083     0    55     1     3
 -3.8261552921445346E-01 a      1084     0    55     1     4
  1.1828579018440379E+00 a      1085     0    55     1     5
  3.6038602356670912E-01 a      1086     0    55     1     6
 -1.9756858004041886E+00 a      1087     0    55     1     7
 -1.8236531165871137E+00 a      1088     0    55     1     8
  1.5477651895039681E+00 a      1089     0    55     1     9
  2.0222604790464330E-01 a      1090     0    55     1    10
 -4.9806836418050593E-01 a      1091     0    55     1    11
 -2.7111492484685091E+00 a      1092     0    55     1    12
  7.0449823774387832E-01 a      1093     0    55     1    13
  6.6957040876019713E-01 a      1094     0    55     1    14
  1.4159431735621313E+00 a      1095     0    55     1    15
 -4.9926628388176936E-01 a      1096     0    55     1    16
  9.8837574816822726E-01 a      1097     0    55     1    17
 -8.0646892247453272E-01 a      1098     0    55     1    18
  7.7060982244665732E-01 a      1099     0    55     1    19
  9.7561576849586540E-01 a      1100     0    55     1    20
  4.0194882616749378E-01 a      1101     0    56     1     1
  1.7477852163663308E+00 a      1102     0    56     1     2
 -9.6488499400388628E-01 a      1103     0    56     1     3
 -2.6697843458187498E-01 a      1104     0    56     1     4
  3.9995992501767536E-01 a      1105     0    56     1     5
  8.8056885572697619E-01 a      1106     0    56     1     6
  5.8455978765536631E-01 a      1107     0    56     1     7
  1.0607496798415108E+00 a      1108     0    56     1     8
 -5.1215412331484389E-01 a      1109     0    56     1     9
  1.6094514318654995E-01 a      1110     0    56     1    10
  6.8012246777835973E-03 a      1111     0    56     1    11
  2.8665516605996817E-02 a      1112     0    56     1    12
  7.6862968341065929E-01 a      1113     0    56     1    13
 -3.8151712939463123E-01 a      1114     0    56     1    14
  6.6804468716797794E-01 a      1115     0    56     1    15
 -1.2560925747225720E+00 a      1116     0    56     1    16
 -1.3254310763061516E-01 a      1117     0    56     1    17
 -5.2607535453396170E-01 a      1118     0    56     1    18
  1.3775822671914488E+00 a      1119     0    56     1    19
 -2.9469592538526393E-02 a      1120     0    56     1    20
  4.0625339803737753E-01 a      1121     0    57     1     1
 -8.7357875445568345E-01 a      1122     0    57     1     2
 -1.4304939083543631E+00 a      1123     0    57     1     3
 -2.7985620536501882E-01 a      1124     0    57     1     4
  8.6720891780949172E-01 a      1125     0    57     1     5
  9.5997471081665264E-01 a      1126     0    57     1     6
 -7.6296822419495747E-01 a      1127     0    57     1     7
  7.8396768724375687E-01 a      1128     0    57     1     8
 -1.1212408915142394E-01 a      1129     0    57     1     9
 -5.1295412237118684E-02 a      1130     0    57     1    10
 -7.9773491465091440E-01 a      1131     0    57     1    11
  4.6690946095095692E-01 a      1132     0    57     1    12
  5.3344498552392672E-01 a      1133     0    57     1    13
 -1.8635775090731582E-01 a      1134     0    57     1    14
  9.0846602456538528E-01 a      1135     0    57     1    15
 -1.3400386370508337E+00 a      1136     0    57     1    16
  1.2081842405307304E+00 a      1137     0    57     1    17
 -2.1796216924507136E-01 a      1138     0    57     1    18
 -7.9280970465878398E-01 a      1139     0    57     1    19
 -3.9162139931991800E-03 a      1140     0    57     1    20
  2.6626177664429462E-01 a      1141     0    58     1     1
  3.1628844380223392E-01 a      1142     0    58     1     2
  4.9236514585361363E-01 a      1143     0    58     1     3
  1.5007807630411280E-01 a      1144     0    58     1     4
  1.8550209044699468E+00 a      1145     0    58     1     5
  5.6350359008948636E-01 a      1146     0    58     1     6
  4.3815745817557877E-01 a      1147     0    58     1     7
  1.2474047899963763E+00 a      1148     0    58     1     8
  7.3274712743562809E-01 a      1149     0    58     1     9
  3.4678942931221521E-02 a      1150     0    58     1    10
 -6.0984394269442921E-01 a      1151     0    58     1    11
 -9.2326043557524207E-01 a      1152     0    58     1    12
  7.2772300112611732E-01 a      1153     0    58     1    13
  1.1099944089393288E-02 a      1154     0    58     1    14
  3.7879491301391965E-01 a      1155     0    58     1    15
  3.2521324803121232E-01 a      1156     0    58     1    16
  1.8283860511671370E+00 a      1157     0    58     1    17
 -1.8656973707648250E-01 a      1158     0    58     1    18
  1.2805404331494328E+00 a      1159     0    58     1    19
  1.3913730282887637E-01 a      1160     0    58     1    20
  7.9902745192819324E-01 a      1161     0    59     1     1
 -2.6495023461449224E-01 a      1162     0    59     1     2
  5.6746369014784387E-02 a      1163     0    59     1     3
  3.4528408387530840E-01 a      1164     0    59     1     4
  1.4990619315380080E+00 a      1165     0    59     1     5
  9.8848036207888679E-01 a      1166     0    59     1     6
 -2.3900954111541312E-01 a      1167     0    59     1     7
 -1.1823111173390652E+00 a      1168     0    59     1     8
 -1.2109678958624459E-01 a      1169     0    59     1     9
 -1.0943829040330334E-01 a      1170     0    59     1    10
 -1.3423770598934923E-01 a      1171     0    59     1    11
 -3.4754638327039356E-01 a      1172     0    59     1    12
  5.5296748573476329E-01 a      1173     0    59     1    13
 -1.1257085963249536E+00 a      1174     0    59     1    14
  1.2250865080316813E+00 a      1175     0    59     1    15
 -4.1707938884641538E-01 a      1176     0    59     1    16
  5.8664387600542844E-01 a      1177     0    59     1    17
 -4.5013875220449678E-01 a      1178     0    59     1    18
 -8.5958456625579527E-01 a      1179     0    59     1    19
 -5.7692227030351562E-01 a      1180     0    59     1    20
  5.9000372122699984E-01 a      1181     0    60     1     1
  9.9158692589028397E-01 a      1182     0    60     1     2
  4.3817987062009961E-01 a      1183     0    60     1     3
 -3.3874677291093358E-01 a      1184     0    60     1     4
 -9.1304069075127031E-02 a      1185     0    60     1     5
  1.0502080446316804E+00 a      1186     0    60     1     6
  1.7619473815535958E-02 a      1187     0    60     1     7
  1.0123446591772205E+00 a      1188     0    60     1     8
  8.2897160779504886E-01 a      1189     0    60     1     9
  4.4252695976890016E-01 a      1190     0    60     1    10
 -4.9838894265816214E-01 a      1191     0    60     1    11
 -4.9664670803589778E-01 a      1192     0    60     1    12
  5.3775013251907682E-03 a      1193     0    60     1    13
 -1.3977239909861003E-02 a      1194     0    60     1    14
  4.0636899171406687E-01 a      1195     0    60     1    15
  4.9021132836093290E-01 a      1196     0    60     1    16
  1.2732811292074708E+00 a      1197     0    60     1    17
 -4.6983831196810250E-01 a      1198     0    60     1    18
  3.4454690895525913E-01 a      1199     0    60     1    19
  4.5524613866366515E-01 a      1200     0    60     1    20
  3.2862135296798173E-01 a      1201     0    61     1     1
  2.5559003962762041E+00 a      1202     0    61     1     2
  1.0184696443074930E+00 a      1203     0    61     1     3
  2.9300891923975519E-01 a      1204     0    61     1     4
  9.1394018931202029E-03 a      1205     0    61     1     5
 -3.7211827331887021E-01 a      1206     0    61     1     6
 -6.2415364059539145E-02 a      1207     0    61     1     7
 -5.7923882019782980E-01 a      1208     0    61     1     8
  7.8639381698893129E-01 a      1209     0    61     1     9
  4.8819289184184289E-01 a      1210     0    61     1    10
 -3.9989319354296388E-01 a      1211     0    61     1    11
 -1.4717412220521358E+00 a      1212     0    61     1    12
  2.7889751024864667E-01 a      1213     0    61     1    13
  3.8429132678244166E-01 a      1214     0    61     1    14
 -1.1278300646376872E-01 a      1215     0    61     1    15
  6.6989576089185654E-01 a      1216     0    61     1    16
  1.7505133663739714E-01 a      1217     0    61     1    17
 -1.5578065451543485E-01 a      1218     0    61     1    18
  4.1174566130606394E-01 a      1219     0    61     1    19
 -1.6409985412564604E-01 a      1220     0    61     1    20
  7.1799319951417950E-01 a      1221     0    62     1     1
  8.4382694330898633E-01 a      1222     0    62     1     2
  2.3667691915319313E+00 a      1223     0    62     1     3
 -8.4645120992644440E-01 a      1224     0    62     1     4
 -1.6564604393186178E+00 a      1225     0    62     1     5
  7.6997841397996614E-01 a      1226     0    62     1     6
  7.0692989241181969E-01 a      1227     0    62     1     7
  2.3869197866918661E+00 a      1228     0    62     1     8
 -5.6695906710197264E-01 a      1229     0    62     1     9
  7.9916092402384231E-02 a      1230     0    62     1    10
  5.0869286199430638E-02 a      1231     0    62     1    11
  1.5408466845487170E+00 a      1232     0    62     1    12
  6.1356978535490014E-01 a      1233     0    62     1    13
 -5.5294361387224633E-01 a      1234     0    62     1    14
 -7.0410224503894492E-01 a      1235     0    62     1    15
 -1.0087298987954569E+00 a      1236     0    62     1    16
  3.7892222363725303E-01 a      1237     0    62     1    17
 -4.9123682171840743E-01 a      1238     0    62     1    18
 -2.6563473073323986E-02 a      1239     0    62     1    19
  1.9329189425459897E-01 a      1240     0    62     1    20
  5.5682239459222349E-01 a      1241     0    63     1     1
  2.2924534063979207E-02 a      1242     0    63     1     2
 -1.2211098235048097E+00 a      1243     0    63     1     3
  7.8105271274210175E-01 a      1244     0    63     1     4
  5.2524996978156391E-01 a      1245     0    63     1     5
  6.9441531984763916E-01 a      1246     0    63     1     6
 -1.7657536766232051E+00 a      1247     0    63     1     7
 -1.7732434436032334E+00 a      1248     0    63     1     8
  1.2583860639101874E-01 a      1249     0    63     1     9
 -1.5387594320635207E-02 a      1250     0    63     1    10
  6.0597883330995528E-01 a      1251     0    63     1    11
 -3.7735320464452510E-01 a      1252     0    63     1    12
 -7.3663473316478240E-02 a      1253     0    63     1    13
  1.6437121534213648E+00 a      1254     0    63     1    14
 -3.5481662720192297E-01 a      1255     0    63     1    15
 -1.0386749606043497E-01 a      1256     0    63     1    16
 -1.2688905178521401E-01 a      1257     0    63     1    17
 -3.3187248068623942E-01 a      1258     0    63     1    18
 -2.5971037243843238E+00 a      1259     0    63     1    19
  7.2376718169928589E-01 a      1260     0    63     1    20
  4.0157533277785318E-01 a      1261     0    64     1     1
  1.1349884738265726E-02 a      1262     0    64     1     2
 -4.3454698537671776E-01 a      1263     0    64     1     3
 -1.6922243187638258E-01 a      1264     0    64     1     4
  1.1823906486952028E-01 a      1265     0    64     1     5
 -2.9347204229525731E-01 a      1266     0    64     1     6
 -1.3940963496986145E+00 a      1267     0    64     1     7
  4.2598005905331920E-01 a      1268     0    64     1     8
  3.1222319159095075E+00 a      1269     0    64     1     9
 -5.2116801217171847E-03 a      1270     0    64     1    10
 -3.4779003001338121E-01 a      1271     0    64     1    11
 -2.3675261035944013E+00 a      1272     0    64     1    12
  1.9457149424831270E+00 a      1273     0    64     1    13
  1.1902669428443526E+00 a      1274     0    64     1    14
  6.1976448438097553E-01 a      1275     0    64     1    15
 -5.9294507728777246E-01 a      1276     0    64     1    16
 -3.6250539383748787E-01 a      1277     0    64     1    17
 -5.0452004970251840E-01 a      1278     0    64     1    18
  1.2868631285264549E+00 a      1279     0    64     1    19
 -3.0455898394615177E+00 a      1280     0    64     1    20
  1.8713915852588178E-01 a      1281     0    65     1     1
  5.3075504610038959E-01 a      1282     0    65     1     2
 -6.5688892250066200E-01 a      1283     0    65     1     3
  1.2558501941588559E-02 a      1284     0    65     1     4
  2.9251479253267998E-01 a      1285     0    65     1     5
  7.5340504436549205E-01 a      1286     0    65     1     6
 -9.4589644340928658E-01 a      1287     0    65     1     7
  9.1614735719004048E-01 a      1288     0    65     1     8
 -1.1056767234768079E+00 a      1289     0    65     1     9
  2.1567304435810228E-01 a      1290     0    65     1    10
  3.5987405585165755E-01 a      1291     0    65     1    11
 -4.7801874950943191E-01 a      1292     0    65     1    12
  1.0965500432450364E+00 a      1293     0    65     1    13
 -1.0879214198575857E+00 a      1294     0    65     1    14
  8.3442190153927820E-01 a      1295     0    65     1    15
 -7.3060563285900326E-01 a      1296     0    65     1    16
  1.0800033508860978E+00 a      1297     0    65     1    17
 -5.0796477620867486E-01 a      1298     0    65     1    18
  2.0978918317387921E-01 a      1299     0    65     1    19
 -3.9458373467295410E-01 a      1300     0    65     1    20
  4.3845251685826753E-01 a      1301     0    66     1     1
  8.8832279751620524E-01 a      1302     0    66     1     2
  2.1137305255723074E-01 a      1303     0    66     1     3
  2.9244903596361599E-01 a      1304     0    66     1     4
  1.3221841799288301E+00 a      1305     0    66     1     5
  2.3945690431905028E-01 a      1306     0    66     1     6
 -5.6113075287324299E-01 a      1307     0    66     1     7
  9.0245615429402781E-01 a      1308     0    66     1     8
  1.2814096154184023E+00 a      1309     0    66     1     9
 -1.2782256759442692E-01 a      1310     0    66     1    10
 -3.2051325087294436E-01 a      1311     0    66     1    11
 -8.8964762936676856E-01 a      1312     0    66     1    12
  8.2408310296795373E-01 a      1313     0    66     1    13
 -1.5745324012789621E+00 a      1314     0    66     1    14
  5.8912579410481580E-01 a      1315     0    66     1    15
  1.0559988010008987E+00 a      1316     0    66     1    16
  2.7487537117497673E+00 a      1317     0    66     1    17
 -5.2568026861591122E-01 a      1318     0    66     1    18
  7.0373485606154274E-01 a      1319     0    66     1    19
  9.2958266236500764E-01 a      1320     0    66     1    20
  3.8434469212381805E-01 a      1321     0    67     1     1
  1.7949976717929864E-01 a      1322     0    67     1     2
  6.8764934486501172E-01 a      1323     0    67     1     3
 -2.8474211477469691E-01 a      1324     0    67     1     4
  1.8879192568605756E+00 a      1325     0    67     1     5
  5.6633956689209330E-01 a      1326     0    67     1     6
  1.0544424928873088E+00 a      1327     0    67     1     7
 -3.1015470740507983E-01 a      1328     0    67     1     8
 -3.3786609319549149E-01 a      1329     0    67     1     9
  6.4414796474130650E-03 a      1330     0    67     1    10
 -4.4488026866116948E-01 a      1331     0    67     1    11
 -3.8119826095878856E-01 a      1332     0    67     1    12
 -4.1378262920668393E-03 a      1333     0    67     1    13
  6.8560809534811962E-01 a      1334     0    67     1    14
  1.1197880163343625E+00 a      1335     0    67     1    15
 -9.0833344886959411E-01 a      1336     0    67     1    16
 -3.5694512573981135E-01 a      1337     0    67     1    17
 -3.5440911415747095E-01 a      1338     0    67     1    18
 -1.3969658704835994E-01 a      1339     0    67     1    19
 -1.7130118047151848E+00 a      1340     0    67     1    20
  4.6721742530119614E-01 a      1341     0    68     1     1
  4.9373721685264305E-01 a      1342     0    68     1     2
  2.6227313386720968E-01 a      1343     0    68     1     3
  3.4081946919294409E-01 a      1344     0    68     1     4
 -1.6357906965220068E+00 a      1345     0    68     1     5
  4.8188803542757069E-01 a      1346     0    68     1     6
  2.4396103454041413E+00 a      1347     0    68     1     7
  4.1162118323334190E-02 a      1348     0    68     1     8
  6.4119413949517190E-01 a      1349     0    68     1     9
  9.8858163979100999E-01 a      1350     0    68     1    10
  4.1919118173857928E-01 a      1351     0    68     1    11
 -4.8271414278008123E-01 a      1352     0    68     1    12
  2.1003959626243829E-01 a      1353     0    68     1    13
  2.2561127981546342E-01 a      1354     0    68     1    14
  7.8592625473318256E-01 a      1355     0    68     1    15
 -2.7864072088227937E-01 a      1356     0    68     1    16
 -2.7223112837649588E-01 a      1357     0    68     1    17
  4.2403010503268349E-02 a      1358     0    68     1    18
  2.6586403974121292E-02 a      1359     0    68     1    19
 -1.4126517757808413E-01 a      1360     0    68     1    20
 -1.3164984343918560E+00 a      1361     0    69     1     1
  1.2035000769655151E+00 a      1362     0    69     1     2
 -2.2913395204435032E+00 a      1363     0    69     1     3
 -8.6847613014933844E-01 a      1364     0    69     1     4
 -1.4699124317579740E-01 a      1365     0    69     1     5
  7.4752909249968719E-02 a      1366     0    69     1     6
 -2.8071829053192277E+00 a      1367     0    69     1     7
 -1.5784840048709687E+00 a      1368     0    69     1     8
  3.6038760839781941E-01 a      1369     0    69     1     9
 -8.8467624037059733E-01 a      1370     0    69     1    10
 -9.7424874529122918E-01 a      1371     0    69     1    11
  1.7096077866064783E+00 a      1372     0    69     1    12
  3.5563834064076738E-01 a      1373     0    69     1    13
 -1.3275307948846171E+00 a      1374     0    69     1    14
 -3.5658525502448857E-01 a      1375     0    69     1    15
  1.2562046282913897E+00 a      1376     0    69     1    16
 -1.9854506802969276E+00 a      1377     0    69     1    17
 -1.9631996490559733E-01 a      1378     0    69     1    18
 -1.1399616542226250E+00 a      1379     0    69     1    19
  7.6611908207430868E-01 a      1380     0    69     1    20
 -8.2942849871079505E-01 a      1381     0    70     1     1
  1.3674574222278060E+00 a      1382     0    70     1     2
  1.6141453285916763E+00 a      1383     0    70     1     3
 -1.5287323969704689E-01 a      1384     0    70     1     4
  1.1766749985632090E+00 a      1385     0    70     1     5
  2.5702465040951011E-01 a      1386     0    70     1     6
 -9.8685631838051135E-01 a      1387     0    70     1     7
 -2.4614543141870335E-01 a      1388     0    70     1     8
 -2.7481354789520557E-01 a      1389     0    70     1     9
  7.0670493395590772E-01 a      1390     0    70     1    10
  3.7436905767343626E-01 a      1391     0    70     1    11
  1.2585310253704030E+00 a      1392     0    70     1    12
  1.0957940920632634E+00 a      1393     0    70     1    13
 -6.4771560885104595E-01 a      1394     0    70     1    14
  3.2402856882716369E-01 a      1395     0    70     1    15
 -7.8635664674070327E-01 a      1396     0    70     1    16
  2.5076956285123481E-01 a      1397     0    70     1    17
 -4.3333924285496989E-01 a      1398     0    70     1    18
 -7.5384267269104119E-02 a      1399     0    70     1    19
 -5.4052935304365703E-02 a      1400     0    70     1    20
  1.0006454946600596E+00 a      1401     0    71     1     1
 -1.1683545735048235E+00 a      1402     0    71     1     2
  2.4608883773786654E+00 a      1403     0    71     1     3
  5.1227027540165637E-01 a      1404     0    71     1     4
 -1.0913472179300192E+00 a      1405     0    71     1     5
 -5.6311849725699703E-01 a      1406     0    71     1     6
  8.9872943880212619E-01 a      1407     0    71     1     7
 -3.9167554674594025E+00 a      1408     0    71     1     8
 -3.4298041578096733E-01 a      1409     0    71     1     9
  6.1237915619727279E-01 a      1410     0    71     1    10
 -2.3113710694873513E+00 a      1411     0    71     1    11
 -2.5520073778432768E+00 a      1412     0    71     1    12
  4.8576221848740203E-01 a      1413     0    71     1    13
  3.1892561399114694E-01 a      1414     0    71     1    14
 -6.6582947210167363E-03 a      1415     0    71     1    15
  1.8672371883324825E+00 a      1416     0    71     1    16
 -2.7275874618176743E-01 a      1417     0    71     1    17
 -1.4232164910562120E-01 a      1418     0    71     1    18
  3.0458583386484697E+00 a      1419     0    71     1    19
  4.5392735915272778E-02 a      1420     0    71     1    20
  7.7404994801342208E-01 a      1421     0    72     1     1
 -2.6567625856951187E+00 a      1422     0    72     1     2
  1.4613354788999109E+00 a      1423     0    72     1     3
 -1.2261050773250519E+00 a      1424     0    72     1     4
  3.6867926987247424E-01 a      1425     0    72     1     5
  1.4635466479399053E+00 a      1426     0    72     1     6
  4.6672780970540416E-02 a      1427     0    72     1     7
 -2.0288187226143575E+00 a      1428     0    72     1     8
 -6.5024782660951852E-01 a      1429     0    72     1     9
  8.0599785764852294E-01 a      1430     0    72     1    10
 -3.1975224189445339E-01 a      1431     0    72     1    11
 -5.3588810988548874E-01 a      1432     0    72     1    12
  2.3914895393790339E-01 a      1433     0    72     1    13
 -9.3587148409201437E-01 a      1434     0    72     1    14
 -7.1277682636395556E-01 a      1435     0    72     1    15
 -5.2071603854947446E-01 a      1436     0    72     1    16
  2.2298495987749600E+00 a      1437     0    72     1    17
 -3.2257469427087532E-01 a      1438     0    72     1    18
  7.7149853305014005E-02 a      1439     0    72     1    19
 -2.2568378496198935E-01 a      1440     0    72     1    20
 -6.4594146320692783E-02 a      1441     0    73     1     1
  1.0247581334329658E+00 a      1442     0    73     1     2
  6.6826939836385657E-02 a      1443     0    73     1     3
  4.9286664760922846E-02 a      1444     0    73     1     4
 -3.7482294190707116E-01 a      1445     0    73     1     5
  4.4077245056529479E-01 a      1446     0    73     1     6
  1.6658184153658768E+00 a      1447     0    73     1     7
 -1.9427888803544666E-02 a      1448     0    73     1     8
 -3.7743064582864932E-01 a      1449     0    73     1     9
  3.9778393056413369E-02 a      1450     0    73     1    10
  9.6152102928848437E-01 a      1451     0    73     1    11
  3.8143698766236139E-01 a      1452     0    73     1    12
  4.1512448819053943E-01 a      1453     0    73     1    13
  2.8717134865128169E-01 a      1454     0    73     1    14
  1.5230420952294923E+00 a      1455     0    73     1    15
 -9.7218272685279228E-01 a      1456     0    73     1    16
 -1.0475356794099564E+00 a      1457     0    73     1    17
 -1.8021466660765773E-01 a      1458     0    73     1    18
  4.5727305116916867E-01 a      1459     0    73     1    19
 -3.0288391220659205E-01 a      1460     0    73     1    20
  3.7474127116075501E-01 a      1461     0    74     1     1
  1.1016951921979414E+00 a      1462     0    74     1     2
  1.3329436858661067E-01 a      1463     0    74     1     3
 -4.1776985446195619E-01 a      1464     0    74     1     4
 -1.4364938764915236E-01 a      1465     0    74     1     5
  3.7904992604803778E-01 a      1466     0    74     1     6
  2.6778113049073045E+00 a      1467     0    74     1     7
 -2.1208465518979005E+00 a      1468     0    74     1     8
 -2.1485802868677656E-01 a      1469     0    74     1     9
 -4.0191127058005327E-01 a      1470     0    74     1    10
 -4.1023810023290891E-01 a      1471     0    74     1    11
  6.5484705736717086E-01 a      1472     0    74     1    12
  5.4222619485631751E-01 a      1473     0    74     1    13
 -3.0072516277604850E+00 a      1474     0    74     1    14
  1.6312569254206508E-01 a      1475     0    74     1    15
 -5.4075252111448480E-01 a      1476     0    74     1    16
 -2.3000133221799951E-01 a      1477     0    74     1    17
 -6.3859095647373090E-02 a      1478     0    74     1    18
 -7.4786480073614758E-01 a      1479     0    74     1    19
  2.9136920910000019E+00 a      1480     0    74     1    20
  1.8419204278795151E-01 a      1481     0    75     1     1
  4.5846968459464660E-01 a      1482     0    75     1     2
  8.2629133518692699E-01 a      1483     0    75     1     3
 -8.7678482877656150E-01 a      1484     0    75     1     4
  6.2409655188982560E-01 a      1485     0    75     1     5
  7.0111135662243596E-01 a      1486     0    75     1     6
  8.0573057871622411E-01 a      1487     0    75     1     7
 -1.3005413743371672E+00 a      1488     0    75     1     8
 -4.4161617498818362E-01 a      1489     0    75     1     9
  5.3504990909182493E-01 a      1490     0    75     1    10
 -4.8589732357772120E-01 a      1491     0    75     1    11
  1.1343694387316207E-01 a      1492     0    75     1    12
  2.8800112782318132E-01 a      1493     0    75     1    13
 -2.7071024351033266E+00 a      1494     0    75     1    14
  4.4365488946436410E-01 a      1495     0    75     1    15
 -2.9333374479848656E-01 a      1496     0    75     1    16
 -4.9152928068970275E-01 a      1497     0    75     1    17
 -4.0856709660874796E-01 a      1498     0    75     1    18
 -6.7043859119556526E-01 a      1499     0    75     1    19
 -8.1566528513822478E-01 a      1500     0    75     1    20
  5.7501807133136407E-01 a      1501     0    76     1     1
  2.0239949510613835E+00 a      1502     0    76     1     2
  6.3511312330573499E-01 a      1503     0    76     1     3
 -7.0908441079300211E-01 a      1504     0    76     1     4
  7.1200624298516202E-01 a      1505     0    76     1     5
  1.4850196253394235E-01 a      1506     0    76     1     6
  1.1172923174101448E+00 a      1507     0    76     1     7
 -2.2614726957605566E-01 a      1508     0    76     1     8
 -1.0199502790158217E-01 a      1509     0    76     1     9
  1.4464844863758020E+00 a      1510     0    76     1    10
 -1.5033898080032698E-01 a      1511     0    76     1    11
  1.0207893118680740E+00 a      1512     0    76     1    12
 -2.4331233085966599E-02 a      1513     0    76     1    13
 -4.4918105007430137E-01 a      1514     0    76     1    14
  2.9713723338457271E-01 a      1515     0    76     1    15
 -1.1314482921409776E-01 a      1516     0    76     1    16
 -2.9640267971728423E-01 a      1517     0    76     1    17
 -4.1355101214133390E-02 a      1518     0    76     1    18
 -1.6877247436614935E+00 a      1519     0    76     1    19
 -3.4304934051551488E+00 a      1520     0    76     1    20
  3.8825365645588777E-01 a      1521     0    77     1     1
  2.6224411650328481E+00 a      1522     0    77     1     2
  7.8540677745147036E-01 a      1523     0    77     1     3
 -4.3704285049157121E-01 a      1524     0    77     1     4
 -2.4825268555532881E-01 a      1525     0    77     1     5
  6.9697628643652298E-01 a      1526     0    77     1     6
 -6.6912317195200688E-01 a      1527     0    77     1     7
  4.0365861712755458E-01 a      1528     0    77     1     8
 -3.9129014395318001E-01 a      1529     0    77     1     9
  1.0379318032228142E+00 a      1530     0    77     1    10
 -5.3243581310805310E-01 a      1531     0    77     1    11
  2.7995155603877914E-01 a      1532     0    77     1    12
  1.5163013691256980E-02 a      1533     0    77     1    13
 -3.6160673549175160E+00 a      1534     0    77     1    14
  6.0913592862440735E-01 a      1535     0    77     1    15
  3.2389474553954667E-01 a      1536     0    77     1    16
 -7.1115372108463382E-01 a      1537     0    77     1    17
 -2.0606415182285959E-01 a      1538     0    77     1    18
 -1.3681742789832949E+00 a      1539     0    77     1    19
  9.3385865673189605E-01 a      1540     0    77     1    20
  9.4152072784200250E-02 a      1541     0    78     1     1
 -4.1796013787054997E-01 a      1542     0    78     1     2
  1.3074306847859583E+00 a      1543     0    78     1     3
 -2.3584942007132770E-01 a      1544     0    78     1     4
 -4.4966177956392678E-01 a      1545     0    78     1     5
  2.0260899675058086E+00 a      1546     0    78     1     6
  1.4235234650861148E+00 a      1547     0    78     1     7
  1.3211209025194863E+00 a      1548     0    78     1     8
 -1.3820110544407542E+00 a      1549     0    78     1     9
  3.9022852954270065E-01 a      1550     0    78     1    10
 -1.0642303933498014E+00 a      1551     0    78     1    11
  1.3680155998709911E+00 a      1552     0    78     1    12
  7.9141676163743080E-01 a      1553     0    78     1    13
 -1.3048159537263295E+00 a      1554     0    78     1    14
 -8.2691494641675023E-02 a      1555     0    78     1    15
 -1.6734220164351929E-01 a      1556     0    78     1    16
  2.1665007273445149E+00 a      1557     0    78     1    17
  1.8117679147605040E-01 a      1558     0    78     1    18
 -7.6161914011434206E-01 a      1559     0    78     1    19
 -3.9425231848894882E-01 a      1560     0    78     1    20
  7.6291017069682976E-01 a      1561     0    79     1     1
  6.4986690558597593E-01 a      1562     0    79     1     2
  5.6112324076029307E-01 a      1563     0    79     1     3
 -1.3987213544134228E-01 a      1564     0    79     1     4
 -1.0625621703066288E+00 a      1565     0    79     1     5
  1.1319250207783431E+00 a      1566     0    79     1     6
  2.4282911658006183E+00 a      1567     0    79     1     7
  1.5048718039305899E+00 a      1568     0    79     1     8
 -9.0585843137080269E-01 a      1569     0    79     1     9
  8.4034522925949234E-02 a      1570     0    79     1    10
 -3.0532694476438510E-01 a      1571     0    79     1    11
 -4.0571054698128645E-01 a      1572     0    79     1    12
  1.1927996790284352E+00 a      1573     0    79     1    13
 -6.2366332679107850E-01 a      1574     0    79     1    14
  1.0624187324088998E+00 a      1575     0    79     1    15
  8.8700448368141990E-02 a      1576     0    79     1    16
 -5.6244977788484467E-02 a      1577     0    79     1    17
 -8.5522871245541099E-01 a      1578     0    79     1    18
  1.9700243143929985E+00 a      1579     0    79     1    19
 -8.2190579678906217E-01 a      1580     0    79     1    20
  6.2347993919306510E-01 a      1581     0    80     1     1
 -1.3911484047117748E+00 a      1582     0    80     1     2
 -3.6077338122634262E-01 a      1583     0    80     1     3
  4.8204580719544066E-01 a      1584     0    80     1     4
 -1.0768481426677377E-01 a      1585     0    80     1     5
  1.7911754648899283E+00 a      1586     0    80     1     6
  2.9292897908651810E-01 a      1587     0    80     1     7
  3.7735738509327342E-02 a      1588     0    80     1     8
 -4.6276432624896902E-01 a      1589     0    80     1     9
  2.1366220867506933E+00 a      1590     0    80     1    10
 -1.2579709848460682E-01 a      1591     0    80     1    11
 -4.1840112594590900E-01 a      1592     0    80     1    12
  3.3247106573881752E-01 a      1593     0    80     1    13
  2.3003004629563533E+00 a      1594     0    80     1    14
  4.3117217852889156E-01 a      1595     0    80     1    15
  3.1515579516532050E-01 a      1596     0    80     1    16
  5.5478315320634664E-01 a      1597     0    80     1    17
  2.4487648862388808E-01 a      1598     0    80     1    18
 -3.6439220991131105E+00 a      1599     0    80     1    19
 -1.3742572648256102E+00 a      1600     0    80     1    20
  3.5752656382780140E-01 a      1601     0    81     1     1
 -1.3976484650884600E+00 a      1602     0    81     1     2
 -6.6139747951353522E-01 a      1603     0    81     1     3
 -1.8044716672689241E+00 a      1604     0    81     1     4
 -1.0043547664206920E+00 a      1605     0    81     1     5
 -6.1977049955546593E-01 a      1606     0    81     1     6
  3.8712892026630336E-01 a      1607     0    81     1     7
  5.0959205943744523E-01 a      1608     0    81     1     8
  2.3487153152688296E+00 a      1609     0    81     1     9
 -9.6934925179736597E-01 a      1610     0    81     1    10
 -1.3309494626764478E+00 a      1611     0    81     1    11
 -3.0652481608418292E+00 a      1612     0    81     1    12
  3.0535137459526989E+00 a      1613     0    81     1    13
 -1.6076409108338872E+00 a      1614     0    81     1    14
 -1.5102053318793511E+00 a      1615     0    81     1    15
 -9.6722646172270388E-01 a      1616     0    81     1    16
 -8.7642523197836808E-01 a      1617     0    81     1    17
  1.2779388363956892E-01 a      1618     0    81     1    18
  1.1116623776765984E+00 a      1619     0    81     1    19
  6.5269783783921365E-01 a      1620     0    81     1    20
  1.9982072006117174E-01 a      1621     0    82     1     1
 -4.6941373741571185E-01 a      1622     0    82     1     2
 -2.3795753206349909E-01 a      1623     0    82     1     3
