################################################################################
# Neural network connection values (weights and biases).
################################################################################
# Col  Name       Description
################################################################################
# 1    connection Neural network connection value.
# 2    t          Connection type (a = weight, b = bias).
# 3    index      Index enumerating weights.
# 4    l_s        Starting point layer (end point layer for biases).
# 5    n_s        Starting point neuron in starting layer (end point neuron for biases).
# 6    l_e        End point layer.
# 7    n_e        End point neuron in end layer.
################################################################################
#                      1 2         3     4     5     6     7
#             connection t     index   l_s   n_s   l_e   n_e
############################################################
  9.4132494733669414E-01 a         1     0     1     1     1
  1.5034751663083687E+00 a         2     0     1     1     2
 -2.6046350530481382E-01 a         3     0     1     1     3
  1.4957259112042549E+00 a         4     0     1     1     4
  1.3857269095368570E+00 a         5     0     1     1     5
 -3.0467103422010724E+00 a         6     0     1     1     6
 -1.7226881478933298E+00 a         7     0     1     1     7
  1.0894854458069196E+00 a         8     0     1     1     8
  1.4589512237186204E+00 a         9     0     1     1     9
  3.2322078390783395E+00 a        10     0     1     1    10
 -1.8334497546317683E+00 a        11     0     1     1    11
  1.7980089542698765E+00 a        12     0     1     1    12
  1.8677592827680202E-02 a        13     0     1     1    13
  2.7896006783781874E-01 a        14     0     1     1    14
  2.2909009955227044E+00 a        15     0     1     1    15
 -1.6689316239620648E+00 a        16     0     1     1    16
  2.0590037575984064E+00 a        17     0     1     1    17
  1.2534419261011793E+00 a        18     0     1     1    18
 -2.1573862949568472E+00 a        19     0     1     1    19
  2.9701864360019918E+00 a        20     0     1     1    20
  3.2751990007577576E+00 a        21     0     2     1     1
  9.0012126653313673E-01 a        22     0     2     1     2
  2.0720427892417019E+00 a        23     0     2     1     3
  1.7007791345734247E+00 a        24     0     2     1     4
 -1.4728645205276965E+00 a        25     0     2     1     5
 -1.7596949577370531E+00 a        26     0     2     1     6
  2.9824518530494376E-01 a        27     0     2     1     7
 -1.2991537443959174E+00 a        28     0     2     1     8
  1.7542875726602554E+00 a        29     0     2     1     9
 -6.5257932754136605E-01 a        30     0     2     1    10
 -6.0318244009324629E-01 a        31     0     2     1    11
  7.6492451676204820E-01 a        32     0     2     1    12
 -1.2985544196408297E-01 a        33     0     2     1    13
 -1.4865536322990456E+00 a        34     0     2     1    14
 -3.5575539866056025E+00 a        35     0     2     1    15
  3.2938844560703218E-01 a        36     0     2     1    16
  3.5940301298491457E+00 a        37     0     2     1    17
 -3.6178009974817522E-02 a        38     0     2     1    18
  4.8418476325380372E-01 a        39     0     2     1    19
  2.8318532989072849E+00 a        40     0     2     1    20
  2.7640881310708770E-01 a        41     0     3     1     1
  1.1456072416016547E+00 a        42     0     3     1     2
 -5.1508803419090210E-01 a        43     0     3     1     3
 -2.6287891664279468E+00 a        44     0     3     1     4
 -1.0556257135233993E+00 a        45     0     3     1     5
  7.8085958269686484E-01 a        46     0     3     1     6
 -4.2130399738218277E-01 a        47     0     3     1     7
  2.2410757797050410E-01 a        48     0     3     1     8
  2.6990825488712549E+00 a        49     0     3     1     9
  1.2929712685191741E+00 a        50     0     3     1    10
  4.1418470865143908E-01 a        51     0     3     1    11
  4.3823858935049262E+00 a        52     0     3     1    12
 -3.6902891508827490E-01 a        53     0     3     1    13
  9.2767673808492823E-01 a        54     0     3     1    14
  7.2854208922262897E-01 a        55     0     3     1    15
  1.2059882556710091E+00 a        56     0     3     1    16
 -2.3403518182256122E+00 a        57     0     3     1    17
  2.5041160488292005E+00 a        58     0     3     1    18
  4.1633752757744014E-01 a        59     0     3     1    19
 -1.2188832651296995E+00 a        60     0     3     1    20
 -2.0893281095241206E-01 a        61     0     4     1     1
  7.8326383254317267E-01 a        62     0     4     1     2
  2.1023212078444580E+00 a        63     0     4     1     3
 -3.1723340729091087E-01 a        64     0     4     1     4
 -1.3150151785960997E+00 a        65     0     4     1     5
 -2.0483674439625918E+00 a        66     0     4     1     6
  5.2279523046132881E-01 a        67     0     4     1     7
 -5.9580801109429027E-01 a        68     0     4     1     8
 -2.3896779091153992E+00 a        69     0     4     1     9
  2.1108766895828852E+00 a        70     0     4     1    10
 -1.1207396683258968E+00 a        71     0     4     1    11
  2.0607932714870190E+00 a        72     0     4     1    12
  1.8865664635592996E+00 a        73     0     4     1    13
  2.5645458644553094E+00 a        74     0     4     1    14
  8.1088078951176890E-01 a        75     0     4     1    15
 -5.6381239175150377E-01 a        76     0     4     1    16
  9.4760254259005661E-01 a        77     0     4     1    17
  1.1612654339823629E+00 a        78     0     4     1    18
 -8.9335027187084215E-01 a        79     0     4     1    19
 -1.0397857908265764E+00 a        80     0     4     1    20
  3.9353330069289943E-01 a        81     0     5     1     1
  7.6079391225546106E-02 a        82     0     5     1     2
  2.4018553844992785E+00 a        83     0     5     1     3
  6.6541500656991948E-01 a        84     0     5     1     4
  8.5603880111106034E-02 a        85     0     5     1     5
 -2.1890135477884409E-01 a        86     0     5     1     6
 -2.4698366388538013E+00 a        87     0     5     1     7
 -1.1914433535199478E+00 a        88     0     5     1     8
  3.8540350926279887E-02 a        89     0     5     1     9
  2.4765227493039115E+00 a        90     0     5     1    10
  1.0456012079217696E+00 a        91     0     5     1    11
  3.2560738839273462E-01 a        92     0     5     1    12
 -9.1580873475673674E-01 a        93     0     5     1    13
  1.2116535639524320E+00 a        94     0     5     1    14
  5.0710250817962015E+00 a        95     0     5     1    15
 -1.0850657014998912E+00 a        96     0     5     1    16
 -2.1318579809892060E+00 a        97     0     5     1    17
 -1.6407360995920623E+00 a        98     0     5     1    18
 -2.2508475758809618E+00 a        99     0     5     1    19
 -1.9072597248254153E+00 a       100     0     5     1    20
  5.6144033004121163E-01 a       101     0     6     1     1
  2.3139561286726056E+00 a       102     0     6     1     2
  5.4054935317900267E-02 a       103     0     6     1     3
  7.4375362468068362E-01 a       104     0     6     1     4
  1.8167813416049359E+00 a       105     0     6     1     5
  7.8422349163997662E-01 a       106     0     6     1     6
 -2.2721365894389453E-01 a       107     0     6     1     7
 -2.3560014395975766E+00 a       108     0     6     1     8
  2.5007957498671431E+00 a       109     0     6     1     9
  1.1568803432447057E-01 a       110     0     6     1    10
  4.2812115061233808E-01 a       111     0     6     1    11
 -1.6459471605487721E+00 a       112     0     6     1    12
  1.1311415118728041E+00 a       113     0     6     1    13
  1.1744223362260013E+00 a       114     0     6     1    14
 -1.5352853087703657E+00 a       115     0     6     1    15
 -4.2100674080469919E-01 a       116     0     6     1    16
  3.3785773221236143E-01 a       117     0     6     1    17
  2.7241190030374409E+00 a       118     0     6     1    18
 -1.3624236054794134E+00 a       119     0     6     1    19
  6.9830580382223395E-01 a       120     0     6     1    20
 -5.5075412800458479E-01 a       121     0     7     1     1
  1.0980792742031784E+00 a       122     0     7     1     2
  2.1767711295474332E-01 a       123     0     7     1     3
  9.4601885845910261E-01 a       124     0     7     1     4
  1.3385041789146201E-01 a       125     0     7     1     5
 -1.2369279502873267E+00 a       126     0     7     1     6
 -2.3804956134538044E-01 a       127     0     7     1     7
 -4.0560267172389936E-01 a       128     0     7     1     8
  1.3249994703819323E+00 a       129     0     7     1     9
  2.2663536933201391E+00 a       130     0     7     1    10
 -1.7733977506988925E+00 a       131     0     7     1    11
 -1.1244180020284449E+00 a       132     0     7     1    12
  4.3836880271135392E-01 a       133     0     7     1    13
 -3.1299768329963591E+00 a       134     0     7     1    14
  1.1471596154241503E+00 a       135     0     7     1    15
  3.8313760253681878E-01 a       136     0     7     1    16
  7.3937308914518240E-01 a       137     0     7     1    17
  4.5563315371543500E-01 a       138     0     7     1    18
  1.1438628379711324E+00 a       139     0     7     1    19
 -8.6657006024208216E-01 a       140     0     7     1    20
  1.1380738515123605E+00 a       141     0     8     1     1
 -1.3183789677057023E-01 a       142     0     8     1     2
  2.2642908734217757E+00 a       143     0     8     1     3
  4.1467494895393414E-01 a       144     0     8     1     4
  3.7101079459115485E+00 a       145     0     8     1     5
 -9.1897143598102904E-01 a       146     0     8     1     6
 -2.0596904915745164E+00 a       147     0     8     1     7
 -2.7411362781922657E+00 a       148     0     8     1     8
 -1.3877219348034511E+00 a       149     0     8     1     9
 -2.0386625056264536E+00 a       150     0     8     1    10
  3.3140764305033243E-01 a       151     0     8     1    11
  5.4361061498876775E-02 a       152     0     8     1    12
  1.0839725152871413E+00 a       153     0     8     1    13
 -3.9441878903969156E+00 a       154     0     8     1    14
  1.1370220155086170E+00 a       155     0     8     1    15
 -3.8475972366025341E-01 a       156     0     8     1    16
 -1.1611117437827370E+00 a       157     0     8     1    17
  1.1206376258277697E-02 a       158     0     8     1    18
  1.1876436123025695E+00 a       159     0     8     1    19
 -5.5943977675701229E-01 a       160     0     8     1    20
 -1.2258401024807336E-01 a       161     0     9     1     1
 -6.3848291528635226E-01 a       162     0     9     1     2
  3.1303940378534267E-01 a       163     0     9     1     3
 -1.1455044265124485E+00 a       164     0     9     1     4
 -1.3695896841242321E+00 a       165     0     9     1     5
  1.9075796003179771E-01 a       166     0     9     1     6
  1.7404349499599508E-01 a       167     0     9     1     7
  1.1141635781840438E+00 a       168     0     9     1     8
  4.1157595913145384E-01 a       169     0     9     1     9
 -1.0842880085711653E+00 a       170     0     9     1    10
 -4.6422421557201893E-01 a       171     0     9     1    11
 -1.8479156846934830E+00 a       172     0     9     1    12
 -1.1672036539506236E-01 a       173     0     9     1    13
 -3.8203277475298578E+00 a       174     0     9     1    14
  3.0878498881079691E-01 a       175     0     9     1    15
  6.8868589192640550E-01 a       176     0     9     1    16
 -1.4715063617951936E+00 a       177     0     9     1    17
  6.5975194391055392E-01 a       178     0     9     1    18
  3.5896709992551772E+00 a       179     0     9     1    19
 -2.5076716287585370E+00 a       180     0     9     1    20
  6.6795921267663749E-01 a       181     0    10     1     1
  3.2165147340781169E-01 a       182     0    10     1     2
  2.4131621809066472E+00 a       183     0    10     1     3
  1.6989069402554102E+00 a       184     0    10     1     4
  8.6984593901651475E-01 a       185     0    10     1     5
 -6.6456816604830313E-02 a       186     0    10     1     6
  2.0330913296131081E-02 a       187     0    10     1     7
 -1.7604850270337424E+00 a       188     0    10     1     8
 -1.7211015947228248E+00 a       189     0    10     1     9
  5.9758136166032361E-01 a       190     0    10     1    10
 -1.2647423799967648E+00 a       191     0    10     1    11
 -1.6760862544698618E+00 a       192     0    10     1    12
 -2.9433568660945082E+00 a       193     0    10     1    13
 -2.4197955470498913E+00 a       194     0    10     1    14
  6.1173621411490986E-01 a       195     0    10     1    15
 -8.8634383751876789E-01 a       196     0    10     1    16
  1.9032568260262894E+00 a       197     0    10     1    17
 -4.3878086701833763E-01 a       198     0    10     1    18
 -1.8925157252080496E+00 a       199     0    10     1    19
 -7.9228225316551204E-01 a       200     0    10     1    20
  1.3392317293627587E-01 a       201     0    11     1     1
  1.4770309338220047E+00 a       202     0    11     1     2
 -2.5590814557623314E+00 a       203     0    11     1     3
 -1.2956805347408991E+00 a       204     0    11     1     4
  1.2315475923323354E+00 a       205     0    11     1     5
  2.3978694269048995E+00 a       206     0    11     1     6
 -1.5289469930756003E+00 a       207     0    11     1     7
 -4.7297843807302981E-01 a       208     0    11     1     8
  4.2805103367435748E+00 a       209     0    11     1     9
  1.9744721883242271E+00 a       210     0    11     1    10
  4.0919401181724485E-01 a       211     0    11     1    11
 -5.6443956102362225E-01 a       212     0    11     1    12
 -1.5352561952341268E-01 a       213     0    11     1    13
  1.0525615365493930E+00 a       214     0    11     1    14
  1.8955474628246805E+00 a       215     0    11     1    15
  1.9600216330080547E+00 a       216     0    11     1    16
 -6.0904241175797724E-01 a       217     0    11     1    17
 -1.1879681989053110E+00 a       218     0    11     1    18
 -2.3935050887578071E+00 a       219     0    11     1    19
 -7.2900538256619440E-01 a       220     0    11     1    20
  1.5828568232915521E+00 a       221     0    12     1     1
  3.0098162720774049E+00 a       222     0    12     1     2
 -7.6847511128296619E-01 a       223     0    12     1     3
  7.1781161964507201E-01 a       224     0    12     1     4
 -1.1517309517805523E+00 a       225     0    12     1     5
 -8.7126952658209667E-01 a       226     0    12     1     6
  5.6957357103524908E-01 a       227     0    12     1     7
  4.1418057989654627E-01 a       228     0    12     1     8
  7.0927353497439760E-01 a       229     0    12     1     9
  1.3826147165115306E+00 a       230     0    12     1    10
  3.4355603558356906E-01 a       231     0    12     1    11
 -1.4091424420379434E-01 a       232     0    12     1    12
 -6.6022282530393162E-02 a       233     0    12     1    13
 -1.1825214735385547E+00 a       234     0    12     1    14
 -6.1135583492254697E-01 a       235     0    12     1    15
 -2.1687025174381200E+00 a       236     0    12     1    16
 -2.6351267214932506E+00 a       237     0    12     1    17
 -3.3347431038935121E-01 a       238     0    12     1    18
  2.9149557487926753E-01 a       239     0    12     1    19
  2.2959186231847899E+00 a       240     0    12     1    20
 -6.8834814788652088E-01 a       241     0    13     1     1
 -1.2606752977444120E+00 a       242     0    13     1     2
  2.5819997479691756E+00 a       243     0    13     1     3
  1.1696436967498738E+00 a       244     0    13     1     4
  3.6157354228774832E+00 a       245     0    13     1     5
  1.1303402126603319E+00 a       246     0    13     1     6
  1.4576380103179813E+00 a       247     0    13     1     7
  2.0300134594392108E-01 a       248     0    13     1     8
  2.1036630047113634E+00 a       249     0    13     1     9
 -1.4958229685231506E+00 a       250     0    13     1    10
 -1.5474690486222931E+00 a       251     0    13     1    11
  7.1050048870596083E-01 a       252     0    13     1    12
 -7.0431424894955341E-01 a       253     0    13     1    13
 -4.0409274730875664E+00 a       254     0    13     1    14
 -2.0636810108319366E+00 a       255     0    13     1    15
 -3.5816361739098235E+00 a       256     0    13     1    16
 -1.5397527323691635E+00 a       257     0    13     1    17
 -2.6187175567856427E+00 a       258     0    13     1    18
  2.3871481847573876E-02 a       259     0    13     1    19
  7.0619654114951436E-01 a       260     0    13     1    20
 -6.6301993679592330E-01 a       261     0    14     1     1
 -8.2229295502666544E-01 a       262     0    14     1     2
 -8.8229614628914055E-01 a       263     0    14     1     3
 -1.0647598114993682E-01 a       264     0    14     1     4
 -1.2809772136659234E+00 a       265     0    14     1     5
  8.5709665725145157E-02 a       266     0    14     1     6
  7.7173002680166594E-02 a       267     0    14     1     7
 -9.6309541367124951E-01 a       268     0    14     1     8
  1.3816441086069950E+00 a       269     0    14     1     9
  1.2276201833199547E+00 a       270     0    14     1    10
 -1.3780287910786254E-01 a       271     0    14     1    11
  6.6129793392750047E-01 a       272     0    14     1    12
 -1.3213402667920608E+00 a       273     0    14     1    13
 -1.1301785371003585E+00 a       274     0    14     1    14
 -1.3206518057239194E+00 a       275     0    14     1    15
  7.0080895605563254E-01 a       276     0    14     1    16
  4.1867614006494419E-01 a       277     0    14     1    17
 -1.9212871573009156E+00 a       278     0    14     1    18
 -6.7187682281367889E-01 a       279     0    14     1    19
  2.4370405781837552E+00 a       280     0    14     1    20
  6.3730037387178962E-01 a       281     0    15     1     1
  2.0126583721419863E-01 a       282     0    15     1     2
 -1.2560642805691933E+00 a       283     0    15     1     3
  1.0325926629587303E+00 a       284     0    15     1     4
  2.1550846992165340E+00 a       285     0    15     1     5
  6.5180359877500926E-01 a       286     0    15     1     6
  8.5394347524424408E-01 a       287     0    15     1     7
 -2.9354623803067696E-02 a       288     0    15     1     8
  9.5071108367636126E-01 a       289     0    15     1     9
  7.8039904857592335E-01 a       290     0    15     1    10
  8.3891376835948961E-01 a       291     0    15     1    11
  1.0984192349308421E+00 a       292     0    15     1    12
 -3.9396909435166099E+00 a       293     0    15     1    13
 -1.8280811141145283E+00 a       294     0    15     1    14
 -1.2684590603106489E+00 a       295     0    15     1    15
  4.0451215243229971E-01 a       296     0    15     1    16
 -6.7140346804795203E-01 a       297     0    15     1    17
 -2.8925766557492133E-01 a       298     0    15     1    18
  1.3528164127137350E+00 a       299     0    15     1    19
  2.9515826109328014E-01 a       300     0    15     1    20
  3.4018659689799131E+00 a       301     0    16     1     1
 -3.6017195571322995E+00 a       302     0    16     1     2
  9.7382775963840906E-01 a       303     0    16     1     3
  4.8936088447040733E+00 a       304     0    16     1     4
 -5.4634307567808027E-01 a       305     0    16     1     5
  4.7121117267172705E+00 a       306     0    16     1     6
 -1.6623587028516165E+00 a       307     0    16     1     7
  2.1516734091541831E+00 a       308     0    16     1     8
 -8.9518848942592355E-01 a       309     0    16     1     9
 -1.6786078288892490E+00 a       310     0    16     1    10
  7.7227739478250035E-01 a       311     0    16     1    11
  6.8854417895541309E-02 a       312     0    16     1    12
 -7.3125782878039969E-01 a       313     0    16     1    13
 -1.1027746344775375E+00 a       314     0    16     1    14
 -3.7250708507333883E-03 a       315     0    16     1    15
 -1.5279436794547582E-01 a       316     0    16     1    16
 -1.5471779670281127E+00 a       317     0    16     1    17
  6.5704144041434420E-01 a       318     0    16     1    18
  4.9032184155989744E-01 a       319     0    16     1    19
  6.1459236355244140E-01 a       320     0    16     1    20
  1.1313266218505587E+00 a       321     0    17     1     1
  4.9781111771239089E-01 a       322     0    17     1     2
  3.6667183366785645E+00 a       323     0    17     1     3
  2.4597332734520361E+00 a       324     0    17     1     4
 -9.3932227988120920E-01 a       325     0    17     1     5
  1.2417273583620794E+00 a       326     0    17     1     6
  1.2052858460267144E+00 a       327     0    17     1     7
  2.5951980032492377E+00 a       328     0    17     1     8
 -4.7830879876042631E-01 a       329     0    17     1     9
 -3.7502900780718823E-01 a       330     0    17     1    10
 -1.6643353769446484E-01 a       331     0    17     1    11
 -1.3228773889264260E+00 a       332     0    17     1    12
 -3.9051181497488024E-01 a       333     0    17     1    13
 -3.6340798355056538E+00 a       334     0    17     1    14
 -1.2103714018818344E-01 a       335     0    17     1    15
 -4.0971988213445663E+00 a       336     0    17     1    16
 -5.3678617110333953E+00 a       337     0    17     1    17
 -3.2767129125619427E+00 a       338     0    17     1    18
 -1.2104208638430811E+00 a       339     0    17     1    19
  4.5942691689002024E-01 a       340     0    17     1    20
 -6.1620164216551754E-01 a       341     0    18     1     1
  1.0491565677917110E+00 a       342     0    18     1     2
 -1.4333959971847407E-01 a       343     0    18     1     3
  1.6998840406586713E+00 a       344     0    18     1     4
 -4.0314019940997445E+00 a       345     0    18     1     5
 -6.5503581665907706E-01 a       346     0    18     1     6
 -2.2068920493680797E+00 a       347     0    18     1     7
  1.0459282323802310E+00 a       348     0    18     1     8
 -1.6511793640198271E+00 a       349     0    18     1     9
 -1.3884335345601042E+00 a       350     0    18     1    10
  1.0541555035638628E+00 a       351     0    18     1    11
 -4.9607667518133808E-01 a       352     0    18     1    12
 -1.1657532285947099E+00 a       353     0    18     1    13
  2.2654908439331072E+00 a       354     0    18     1    14
 -1.3849428997319471E+00 a       355     0    18     1    15
 -1.6570082543414486E+00 a       356     0    18     1    16
  3.0914219963295566E+00 a       357     0    18     1    17
  2.2231685490425934E-02 a       358     0    18     1    18
 -5.4377541232902193E-01 a       359     0    18     1    19
  8.6179352112628871E-01 a       360     0    18     1    20
 -9.5034023835461723E-01 a       361     0    19     1     1
  3.4659076505290596E+00 a       362     0    19     1     2
 -2.2098984706009195E+00 a       363     0    19     1     3
  4.7049304320133700E-01 a       364     0    19     1     4
  3.1912119652377307E+00 a       365     0    19     1     5
 -1.1475264286003242E+00 a       366     0    19     1     6
 -1.1462896805634763E-01 a       367     0    19     1     7
  3.3542346863399368E+00 a       368     0    19     1     8
  2.5820528229946533E+00 a       369     0    19     1     9
 -1.2368159612325749E+00 a       370     0    19     1    10
 -1.5628986085746850E+00 a       371     0    19     1    11
  1.4375046228839612E+00 a       372     0    19     1    12
 -5.5347361961532626E-01 a       373     0    19     1    13
  8.3649959365868831E-01 a       374     0    19     1    14
 -2.8650297769687243E+00 a       375     0    19     1    15
 -6.7267315586696341E-01 a       376     0    19     1    16
 -8.3267384142368228E-01 a       377     0    19     1    17
 -7.4082145856159221E-01 a       378     0    19     1    18
 -4.2649444366877315E-01 a       379     0    19     1    19
 -3.2691487666066514E+00 a       380     0    19     1    20
 -2.4979358641723859E-01 a       381     0    20     1     1
  2.2986746517822780E+00 a       382     0    20     1     2
  1.4868495194390641E+00 a       383     0    20     1     3
  6.1938801517629782E-01 a       384     0    20     1     4
  1.5954934439976418E+00 a       385     0    20     1     5
 -2.5295900521679124E+00 a       386     0    20     1     6
  1.5502874208425537E+00 a       387     0    20     1     7
  4.0418263924628492E+00 a       388     0    20     1     8
 -1.3796116979725705E+00 a       389     0    20     1     9
  1.9082999123302469E+00 a       390     0    20     1    10
  1.1861000971677524E+00 a       391     0    20     1    11
  3.4581735679166945E+00 a       392     0    20     1    12
  2.4186896500990329E+00 a       393     0    20     1    13
 -3.7003577450793732E+00 a       394     0    20     1    14
 -1.8014754210504487E+00 a       395     0    20     1    15
  2.5652811529709947E+00 a       396     0    20     1    16
  1.4739825309193630E+00 a       397     0    20     1    17
 -1.7960933381578130E+00 a       398     0    20     1    18
  3.3904368946018687E-01 a       399     0    20     1    19
  8.9977156674630743E-01 a       400     0    20     1    20
 -2.0520743686421268E+00 a       401     0    21     1     1
 -2.2085034419214828E+00 a       402     0    21     1     2
  1.3781281853072003E-02 a       403     0    21     1     3
  1.9185064989067477E+00 a       404     0    21     1     4
 -1.0475645616406113E+00 a       405     0    21     1     5
 -1.9040877873625446E+00 a       406     0    21     1     6
  2.0739363270465772E+00 a       407     0    21     1     7
 -1.0068531912312457E+00 a       408     0    21     1     8
  2.6540581208605132E+00 a       409     0    21     1     9
  8.9288929342541890E-01 a       410     0    21     1    10
 -4.2360692305239906E+00 a       411     0    21     1    11
  2.2206751386550594E+00 a       412     0    21     1    12
 -5.7261364478841159E-01 a       413     0    21     1    13
 -1.1065573549825278E+00 a       414     0    21     1    14
  1.1140490106220118E+00 a       415     0    21     1    15
 -5.4515488869601869E-01 a       416     0    21     1    16
  1.3267527453903523E+00 a       417     0    21     1    17
 -2.4974570968938906E-02 a       418     0    21     1    18
  1.0172261254677080E+00 a       419     0    21     1    19
 -2.0626306938749530E+00 a       420     0    21     1    20
  4.2641724013902618E+00 a       421     0    22     1     1
 -1.0961471455013505E+00 a       422     0    22     1     2
  1.2777142585060377E+00 a       423     0    22     1     3
  2.5939478102278155E+00 a       424     0    22     1     4
  1.2679344640233148E-01 a       425     0    22     1     5
 -4.7661725170087182E-01 a       426     0    22     1     6
 -1.3696229387972156E+00 a       427     0    22     1     7
 -1.0899736799467346E+00 a       428     0    22     1     8
  5.0178937706561677E-01 a       429     0    22     1     9
 -9.4316628788624224E-01 a       430     0    22     1    10
  2.4195671544342834E+00 a       431     0    22     1    11
  4.9754397504750519E-01 a       432     0    22     1    12
 -1.4447044002426030E+00 a       433     0    22     1    13
 -9.7263241026317671E-01 a       434     0    22     1    14
 -2.0066922335631823E+00 a       435     0    22     1    15
  9.9852843777604205E-01 a       436     0    22     1    16
 -1.6842329466219257E+00 a       437     0    22     1    17
  3.5904716638861376E+00 a       438     0    22     1    18
  2.1222267501378482E+00 a       439     0    22     1    19
 -1.2120537657915667E+00 a       440     0    22     1    20
 -1.8653580430445715E+00 a       441     0    23     1     1
 -2.7010668085536360E+00 a       442     0    23     1     2
  1.9727755041927137E+00 a       443     0    23     1     3
 -2.7418302494776943E+00 a       444     0    23     1     4
  4.4104191861878421E+00 a       445     0    23     1     5
 -1.9115038335106929E+00 a       446     0    23     1     6
 -1.6949477913913313E+00 a       447     0    23     1     7
  4.8383982079076043E-02 a       448     0    23     1     8
  2.1591859103726039E+00 a       449     0    23     1     9
  8.6301118893446138E-01 a       450     0    23     1    10
  2.0415818830696448E+00 a       451     0    23     1    11
 -4.2416110249506563E-03 a       452     0    23     1    12
  4.5926490014935881E+00 a       453     0    23     1    13
 -1.3641130127562187E+00 a       454     0    23     1    14
  2.9968677331855448E-01 a       455     0    23     1    15
 -4.2370381918337729E-01 a       456     0    23     1    16
 -1.7148196364785191E+00 a       457     0    23     1    17
  1.4270367283310472E+00 a       458     0    23     1    18
  4.2666390109814945E+00 a       459     0    23     1    19
 -4.4464325496284379E-01 a       460     0    23     1    20
 -1.7325700979329666E+00 a       461     0    24     1     1
  1.0709665039866767E-01 a       462     0    24     1     2
  2.5061879415525579E+00 a       463     0    24     1     3
  2.8249422626088565E+00 a       464     0    24     1     4
 -2.3820969205450795E+00 a       465     0    24     1     5
  1.1874536156853643E+00 a       466     0    24     1     6
  5.7602419240506031E-01 a       467     0    24     1     7
 -1.3179995246083101E-01 a       468     0    24     1     8
  6.0831425153261946E-02 a       469     0    24     1     9
  1.0607566720975083E+00 a       470     0    24     1    10
 -1.6347838991482986E+00 a       471     0    24     1    11
  8.6531184406080675E-01 a       472     0    24     1    12
 -2.8454606517141299E+00 a       473     0    24     1    13
 -4.7579274482092271E-01 a       474     0    24     1    14
  2.5092814134762413E+00 a       475     0    24     1    15
  7.8345436195401397E-01 a       476     0    24     1    16
  4.4696550785126005E-01 a       477     0    24     1    17
 -1.3328988911495092E+00 a       478     0    24     1    18
  1.0762449290625222E+00 a       479     0    24     1    19
 -4.2279893389117298E+00 a       480     0    24     1    20
  3.3576746902850629E-01 a       481     0    25     1     1
 -5.1997846309521023E-01 a       482     0    25     1     2
  1.2667023308226628E+00 a       483     0    25     1     3
 -1.1937219064119737E+00 a       484     0    25     1     4
 -2.6753782535200465E+00 a       485     0    25     1     5
  1.5610351079824145E+00 a       486     0    25     1     6
  1.4125706359009014E+00 a       487     0    25     1     7
  2.3144143537198412E+00 a       488     0    25     1     8
 -1.9157559392042842E+00 a       489     0    25     1     9
  2.0947405186162786E+00 a       490     0    25     1    10
 -4.8375419790143276E-01 a       491     0    25     1    11
 -9.4869235554633780E-01 a       492     0    25     1    12
  2.4645639568369377E+00 a       493     0    25     1    13
 -1.8180750293231049E+00 a       494     0    25     1    14
  7.2647878572239222E-01 a       495     0    25     1    15
  2.4534009704262738E+00 a       496     0    25     1    16
  1.8803754044633592E+00 a       497     0    25     1    17
 -2.9675014222171390E+00 a       498     0    25     1    18
  1.2259866544549933E+00 a       499     0    25     1    19
 -2.1806086672886988E+00 a       500     0    25     1    20
 -1.6563379375381307E-01 a       501     0    26     1     1
  1.5324122819601980E+00 a       502     0    26     1     2
 -1.0682253928038727E+00 a       503     0    26     1     3
  3.2836787938581677E+00 a       504     0    26     1     4
  4.4218311174114691E-02 a       505     0    26     1     5
 -1.4544784255600391E+00 a       506     0    26     1     6
  2.4873452824753790E+00 a       507     0    26     1     7
 -1.0842869369803434E+00 a       508     0    26     1     8
 -1.3954713460518515E+00 a       509     0    26     1     9
 -3.8436699739696040E-01 a       510     0    26     1    10
 -8.9157738383634166E-01 a       511     0    26     1    11
 -2.3062064586863792E-01 a       512     0    26     1    12
 -2.3574032186470735E+00 a       513     0    26     1    13
 -2.1541352354207026E+00 a       514     0    26     1    14
 -3.1802351378048194E-01 a       515     0    26     1    15
  7.9249474892938276E-01 a       516     0    26     1    16
 -3.3042527956585279E+00 a       517     0    26     1    17
 -8.4098309753381728E-01 a       518     0    26     1    18
  2.4616895919831299E+00 a       519     0    26     1    19
 -3.3536002314908198E-01 a       520     0    26     1    20
 -8.4791399711117099E-01 a       521     0    27     1     1
 -1.9642541884601242E-01 a       522     0    27     1     2
  2.8680675266348681E+00 a       523     0    27     1     3
 -4.9042089462607024E+00 a       524     0    27     1     4
 -1.7321503801099507E+00 a       525     0    27     1     5
 -1.7831163654395468E+00 a       526     0    27     1     6
  3.1147164094930297E+00 a       527     0    27     1     7
 -1.3924596934941555E+00 a       528     0    27     1     8
  1.3913326656482710E+00 a       529     0    27     1     9
  1.1378059886243481E+00 a       530     0    27     1    10
 -2.3005462969049799E+00 a       531     0    27     1    11
  3.9637713658562768E-01 a       532     0    27     1    12
  1.8492491915354906E-01 a       533     0    27     1    13
 -1.4145780407110706E+00 a       534     0    27     1    14
  2.2557408502915197E+00 a       535     0    27     1    15
  1.4642543498310030E+00 a       536     0    27     1    16
  1.3084333853335122E+00 a       537     0    27     1    17
 -2.3030251326909226E-01 a       538     0    27     1    18
  2.2151893394033189E+00 a       539     0    27     1    19
  3.9468429423426019E+00 a       540     0    27     1    20
 -5.7881648932167939E-01 a       541     0    28     1     1
 -1.0829560615614009E+00 a       542     0    28     1     2
 -2.0718015838213057E+00 a       543     0    28     1     3
 -4.7124852925366811E+00 a       544     0    28     1     4
 -1.5991039585215907E+00 a       545     0    28     1     5
 -2.0861523980139132E+00 a       546     0    28     1     6
  3.0783684549789003E-01 a       547     0    28     1     7
  1.5979954388567199E+00 a       548     0    28     1     8
  1.1211612003246216E+00 a       549     0    28     1     9
 -8.6497320891642793E-01 a       550     0    28     1    10
 -1.2892903840835826E-01 a       551     0    28     1    11
  1.2394442359696163E-01 a       552     0    28     1    12
  1.5298753919381052E+00 a       553     0    28     1    13
 -5.3673448666861034E-01 a       554     0    28     1    14
  1.4102506327134248E-02 a       555     0    28     1    15
  1.6047006061171243E+00 a       556     0    28     1    16
 -2.2021880792923323E-01 a       557     0    28     1    17
 -2.5108096022931163E+00 a       558     0    28     1    18
  3.6204083417678863E+00 a       559     0    28     1    19
 -1.1526896363820138E+00 a       560     0    28     1    20
 -1.4441001070147454E+00 a       561     0    29     1     1
  2.1355501239048419E-02 a       562     0    29     1     2
  2.6618601764785932E-01 a       563     0    29     1     3
 -1.0052321056972002E+00 a       564     0    29     1     4
  1.4008041031357050E+00 a       565     0    29     1     5
  1.7532789007164822E+00 a       566     0    29     1     6
 -1.2167157151392456E+00 a       567     0    29     1     7
  2.2455048092820999E-02 a       568     0    29     1     8
  4.1315489681322487E-01 a       569     0    29     1     9
  2.4433394856247334E-01 a       570     0    29     1    10
  3.9773743531010628E+00 a       571     0    29     1    11
  4.2278481762062006E+00 a       572     0    29     1    12
 -5.7321928795911603E-01 a       573     0    29     1    13
  9.3403587116135767E-01 a       574     0    29     1    14
 -1.8543387026196184E-01 a       575     0    29     1    15
  1.5294872718105563E+00 a       576     0    29     1    16
 -1.3430725981380247E+00 a       577     0    29     1    17
 -7.9933422470751192E-01 a       578     0    29     1    18
  2.3418423245068785E+00 a       579     0    29     1    19
  1.0680743203964735E+00 a       580     0    29     1    20
  1.9735724276658444E+00 a       581     0    30     1     1
  4.6993695276070296E-01 a       582     0    30     1     2
 -6.4852387592757843E-01 a       583     0    30     1     3
 -1.4112859754440239E+00 a       584     0    30     1     4
 -2.0573687634360163E-01 a       585     0    30     1     5
 -8.0344623983944885E-01 a       586     0    30     1     6
 -1.8407117487656701E+00 a       587     0    30     1     7
  6.3014952863954726E-02 a       588     0    30     1     8
 -8.3726583163073198E-01 a       589     0    30     1     9
 -1.6234647411878693E+00 a       590     0    30     1    10
 -2.4077116209740551E-01 a       591     0    30     1    11
 -1.7540406540182696E-01 a       592     0    30     1    12
  2.4727385944577238E-01 a       593     0    30     1    13
  2.8083757433175442E+00 a       594     0    30     1    14
 -1.1051405761668778E+00 a       595     0    30     1    15
  4.0754691593753173E-01 a       596     0    30     1    16
  5.7196516784349338E-01 a       597     0    30     1    17
  1.0053509231355851E+00 a       598     0    30     1    18
  6.7543571455746731E-01 a       599     0    30     1    19
 -5.7850308834130448E-01 a       600     0    30     1    20
 -7.8195295504330220E-01 a       601     0    31     1     1
 -2.2730688977893040E-01 a       602     0    31     1     2
  4.0245090011664753E-01 a       603     0    31     1     3
  1.5085473238007621E+00 a       604     0    31     1     4
 -2.2891120382362677E+00 a       605     0    31     1     5
 -2.1596268211015612E+00 a       606     0    31     1     6
 -6.8778630567044169E-02 a       607     0    31     1     7
 -1.5494860381601216E+00 a       608     0    31     1     8
 -1.1079282307221074E+00 a       609     0    31     1     9
  6.6862186971073567E-01 a       610     0    31     1    10
 -5.6591839945868816E-01 a       611     0    31     1    11
 -1.6089863021373876E+00 a       612     0    31     1    12
 -1.7077518882044296E+00 a       613     0    31     1    13
 -1.5394652875281352E+00 a       614     0    31     1    14
  1.4486129076469447E+00 a       615     0    31     1    15
 -7.8771924515309222E-01 a       616     0    31     1    16
 -2.8606187473410433E-01 a       617     0    31     1    17
 -4.4715523041892047E-01 a       618     0    31     1    18
  5.7200937710143585E-01 a       619     0    31     1    19
  8.8527864616222862E-02 a       620     0    31     1    20
  1.9999205444947386E+00 a       621     0    32     1     1
  5.6050343119001644E-01 a       622     0    32     1     2
  1.3350891443936075E+00 a       623     0    32     1     3
  6.9715109825541899E-01 a       624     0    32     1     4
 -2.2470465680560534E+00 a       625     0    32     1     5
 -1.0462973118389685E+00 a       626     0    32     1     6
  7.2204550619826002E-01 a       627     0    32     1     7
  7.9157094401293226E-01 a       628     0    32     1     8
  5.2216260360625821E-01 a       629     0    32     1     9
  3.3655594354927532E+00 a       630     0    32     1    10
 -1.5862729671858076E+00 a       631     0    32     1    11
 -3.8194707934811842E+00 a       632     0    32     1    12
  1.8677382689781179E+00 a       633     0    32     1    13
  1.3856463094507676E-01 a       634     0    32     1    14
 -1.9479525891104280E-01 a       635     0    32     1    15
 -8.5190795695460031E-01 a       636     0    32     1    16
 -3.9876345085204795E-01 a       637     0    32     1    17
 -1.3987611417506202E-02 a       638     0    32     1    18
 -1.1286339139328132E+00 a       639     0    32     1    19
 -4.7470325492477405E-01 a       640     0    32     1    20
 -1.7458662619576307E-01 a       641     0    33     1     1
 -2.9458714760457876E+00 a       642     0    33     1     2
 -1.1249521496813759E+00 a       643     0    33     1     3
 -3.2586317814098742E-01 a       644     0    33     1     4
 -1.7303177281771498E+00 a       645     0    33     1     5
 -7.3904784381934208E-01 a       646     0    33     1     6
  1.2788363237564582E+00 a       647     0    33     1     7
 -9.0304905793560075E-01 a       648     0    33     1     8
 -3.2347534434468328E-01 a       649     0    33     1     9
  2.2024458770282207E+00 a       650     0    33     1    10
 -1.2371743922014784E+00 a       651     0    33     1    11
 -7.8317713761699181E-01 a       652     0    33     1    12
  1.3024417348204137E-01 a       653     0    33     1    13
  5.3405156062165549E-03 a       654     0    33     1    14
  4.9147232365899007E-01 a       655     0    33     1    15
 -7.9357257415901938E-01 a       656     0    33     1    16
  5.6676468419961623E-01 a       657     0    33     1    17
  2.0366433795140715E+00 a       658     0    33     1    18
  2.0908601565269409E+00 a       659     0    33     1    19
 -8.2923469763698399E-01 a       660     0    33     1    20
 -1.0206064118886287E+00 a       661     0    34     1     1
  4.3840934672272119E-01 a       662     0    34     1     2
  2.2004295461774614E-01 a       663     0    34     1     3
 -2.7953046886851335E-01 a       664     0    34     1     4
  4.4206241840124161E-01 a       665     0    34     1     5
  1.4529170766456911E+00 a       666     0    34     1     6
 -5.5812390308789184E-01 a       667     0    34     1     7
 -1.7582799044103348E-01 a       668     0    34     1     8
 -1.5274693162623432E+00 a       669     0    34     1     9
  1.6664319675381287E-01 a       670     0    34     1    10
 -6.2194272896105363E-01 a       671     0    34     1    11
  5.3214986320064772E-01 a       672     0    34     1    12
  4.9445266955070577E-01 a       673     0    34     1    13
 -1.4904559607217541E-01 a       674     0    34     1    14
  3.5930719053589838E-01 a       675     0    34     1    15
  2.2197161199586829E-01 a       676     0    34     1    16
  1.4711207578684544E+00 a       677     0    34     1    17
 -1.1318863872496525E+00 a       678     0    34     1    18
  2.2545221029703766E-01 a       679     0    34     1    19
  5.0072833298154906E-01 a       680     0    34     1    20
 -1.4365035261488039E+00 a       681     0    35     1     1
 -1.7402444188015971E+00 a       682     0    35     1     2
 -8.6311204127062807E-02 a       683     0    35     1     3
 -1.0873164831274336E-01 a       684     0    35     1     4
 -1.7096712016656896E+00 a       685     0    35     1     5
 -1.9102979978488202E-01 a       686     0    35     1     6
  8.5777514280815625E-01 a       687     0    35     1     7
 -1.3852411174935584E+00 a       688     0    35     1     8
  9.3846455359623535E-02 a       689     0    35     1     9
 -1.0559658507695526E+00 a       690     0    35     1    10
 -1.7562853102386151E+00 a       691     0    35     1    11
 -2.1600222450279635E-01 a       692     0    35     1    12
 -1.0774938471653430E+00 a       693     0    35     1    13
 -8.8764874231654217E-02 a       694     0    35     1    14
 -1.2165141473987502E+00 a       695     0    35     1    15
 -7.8766534620242445E-01 a       696     0    35     1    16
  1.2367624756427342E+00 a       697     0    35     1    17
 -6.9242743995831066E-02 a       698     0    35     1    18
  1.7099569827446570E+00 a       699     0    35     1    19
 -3.1464433655417761E+00 a       700     0    35     1    20
 -1.7589838581271282E+00 a       701     0    36     1     1
 -7.3912893398544877E-01 a       702     0    36     1     2
  1.1420552923864995E+00 a       703     0    36     1     3
 -7.8063627194686325E-01 a       704     0    36     1     4
 -2.8359072095101501E-01 a       705     0    36     1     5
 -8.3304502534293856E-01 a       706     0    36     1     6
 -1.5219980459975844E+00 a       707     0    36     1     7
 -1.0973045946860607E+00 a       708     0    36     1     8
 -4.8010302597461321E-02 a       709     0    36     1     9
  5.1812045721015110E-01 a       710     0    36     1    10
 -7.9860330784097089E-01 a       711     0    36     1    11
  4.1629604054636643E-01 a       712     0    36     1    12
  1.1638639138100640E-01 a       713     0    36     1    13
  2.7272839920813674E-01 a       714     0    36     1    14
 -6.9555524962213822E-01 a       715     0    36     1    15
 -1.2198536337196277E+00 a       716     0    36     1    16
  3.2661475337349266E-01 a       717     0    36     1    17
  2.3454492967425783E-01 a       718     0    36     1    18
  2.0303162155479839E+00 a       719     0    36     1    19
  5.4298847116327398E-01 a       720     0    36     1    20
 -2.1767162781725377E-01 a       721     0    37     1     1
  6.4237386816199038E-01 a       722     0    37     1     2
  1.9185736839474846E-01 a       723     0    37     1     3
  2.6352418472434253E-01 a       724     0    37     1     4
  4.4418111974462632E-01 a       725     0    37     1     5
  9.5870356806841628E-01 a       726     0    37     1     6
 -1.5957739699733287E+00 a       727     0    37     1     7
  1.8425397362594180E+00 a       728     0    37     1     8
  5.2237030550082275E-01 a       729     0    37     1     9
 -1.0451707600914621E+00 a       730     0    37     1    10
 -1.5572364630859912E+00 a       731     0    37     1    11
 -1.2474270921712896E+00 a       732     0    37     1    12
  1.9407268468435128E+00 a       733     0    37     1    13
  1.4598761328874252E+00 a       734     0    37     1    14
  4.8108478263669724E-01 a       735     0    37     1    15
 -3.6849345554024339E-02 a       736     0    37     1    16
 -3.8633003925619785E-01 a       737     0    37     1    17
  9.8929943395388775E-01 a       738     0    37     1    18
 -6.1698813000074064E-02 a       739     0    37     1    19
  5.7877854816666285E-01 a       740     0    37     1    20
  4.1106788076128054E-02 a       741     0    38     1     1
 -2.1752465992883052E-01 a       742     0    38     1     2
  3.7607382024633824E+00 a       743     0    38     1     3
 -1.1717548434192891E-02 a       744     0    38     1     4
 -1.4797030911652818E+00 a       745     0    38     1     5
 -1.3400002936572060E+00 a       746     0    38     1     6
 -3.5245950981906735E+00 a       747     0    38     1     7
  3.1696314207907495E-03 a       748     0    38     1     8
 -7.5063805327158695E-01 a       749     0    38     1     9
  3.3502686666329656E-01 a       750     0    38     1    10
 -6.5964765317959440E-01 a       751     0    38     1    11
  2.3919445330847462E+00 a       752     0    38     1    12
  2.9779381118869623E+00 a       753     0    38     1    13
  1.9164308525098857E+00 a       754     0    38     1    14
 -1.9568130872343057E+00 a       755     0    38     1    15
  7.2680341748695210E-01 a       756     0    38     1    16
 -2.0773509156150034E+00 a       757     0    38     1    17
  2.3526362101201763E+00 a       758     0    38     1    18
  2.7090093543268137E+00 a       759     0    38     1    19
  1.0838294027883759E+00 a       760     0    38     1    20
  1.0550083365477265E+00 a       761     0    39     1     1
 -2.1843545556961144E+00 a       762     0    39     1     2
  5.1219487935261787E-01 a       763     0    39     1     3
 -8.7370281545622741E-01 a       764     0    39     1     4
  1.9152149510584655E+00 a       765     0    39     1     5
 -3.5602577394129153E-01 a       766     0    39     1     6
 -8.0644638282753767E-01 a       767     0    39     1     7
 -2.9325754443253675E+00 a       768     0    39     1     8
 -3.2046519783550899E-03 a       769     0    39     1     9
 -1.1416651747119200E+00 a       770     0    39     1    10
 -1.7020097538027865E+00 a       771     0    39     1    11
  1.3385875223810557E+00 a       772     0    39     1    12
  3.0196156124962772E+00 a       773     0    39     1    13
  7.4802328576291766E-01 a       774     0    39     1    14
 -3.7203782178923733E-01 a       775     0    39     1    15
  5.0843478874697878E-01 a       776     0    39     1    16
 -1.1263732346613422E+00 a       777     0    39     1    17
 -3.9543398489120601E-01 a       778     0    39     1    18
 -3.2739618088852857E-01 a       779     0    39     1    19
  6.6678056820795972E-01 a       780     0    39     1    20
 -5.6247707518494561E-01 a       781     0    40     1     1
  3.9456797669754579E-01 a       782     0    40     1     2
 -1.4590866676633367E+00 a       783     0    40     1     3
 -2.0506222951205797E+00 a       784     0    40     1     4
  2.1217660506117189E-01 a       785     0    40     1     5
 -1.4522398592009201E-02 a       786     0    40     1     6
  8.6391705013135678E-01 a       787     0    40     1     7
 -6.4340635261512424E-01 a       788     0    40     1     8
  3.0231160129261587E+00 a       789     0    40     1     9
 -8.9064463235898628E-01 a       790     0    40     1    10
  3.9812922253469343E-02 a       791     0    40     1    11
 -1.5146800491104790E+00 a       792     0    40     1    12
  2.9372520066244618E+00 a       793     0    40     1    13
  9.5870542661352232E-01 a       794     0    40     1    14
 -2.5489018743588504E-01 a       795     0    40     1    15
 -7.2361616380492566E-01 a       796     0    40     1    16
 -1.8998568068183594E+00 a       797     0    40     1    17
  3.0952542405462293E+00 a       798     0    40     1    18
  1.7558190448994890E+00 a       799     0    40     1    19
  2.3963913732114520E-01 a       800     0    40     1    20
  1.7809503715938080E+00 a       801     0    41     1     1
  1.7149641452348363E+00 a       802     0    41     1     2
  1.5109005569675735E+00 a       803     0    41     1     3
  8.4223600853639413E-01 a       804     0    41     1     4
  1.4189367770121437E+00 a       805     0    41     1     5
 -1.0530331648936693E+00 a       806     0    41     1     6
 -5.9847628893091954E-02 a       807     0    41     1     7
  2.2008721492615750E+00 a       808     0    41     1     8
 -1.9228277208293462E-01 a       809     0    41     1     9
  2.9779346106526137E+00 a       810     0    41     1    10
 -8.6772194832002825E-01 a       811     0    41     1    11
  3.5540647160408495E-01 a       812     0    41     1    12
 -4.0125985794332081E-01 a       813     0    41     1    13
 -3.7111156939638290E+00 a       814     0    41     1    14
  1.0909122780282634E+00 a       815     0    41     1    15
 -7.2069147845758574E-01 a       816     0    41     1    16
  1.0912093266509775E+00 a       817     0    41     1    17
  7.1222537263297359E-01 a       818     0    41     1    18
 -7.9445022030302936E-01 a       819     0    41     1    19
  1.0544697811522914E+00 a       820     0    41     1    20
 -1.7128138165192850E+00 a       821     0    42     1     1
 -1.7224401885396845E+00 a       822     0    42     1     2
  7.2741984430090045E-01 a       823     0    42     1     3
  7.6159808580190702E-01 a       824     0    42     1     4
 -9.2055597856467797E-01 a       825     0    42     1     5
 -2.2885740816008697E+00 a       826     0    42     1     6
  9.0058750245263075E-01 a       827     0    42     1     7
 -6.8959822654376912E-01 a       828     0    42     1     8
 -1.4457155343622033E-01 a       829     0    42     1     9
  6.5109701567142064E-01 a       830     0    42     1    10
 -1.1851703365711805E+00 a       831     0    42     1    11
  1.9671314565929643E-01 a       832     0    42     1    12
  1.5980729952413266E+00 a       833     0    42     1    13
 -8.5809591055225365E-01 a       834     0    42     1    14
  7.5798690663282386E-01 a       835     0    42     1    15
  5.7428025761256685E-01 a       836     0    42     1    16
  5.4263827294610778E-01 a       837     0    42     1    17
  1.1971162164780891E+00 a       838     0    42     1    18
  1.6128137250074586E+00 a       839     0    42     1    19
  3.0903103518149708E-02 a       840     0    42     1    20
 -1.0973893313445287E+00 a       841     0    43     1     1
 -2.2509410505976304E-01 a       842     0    43     1     2
  6.7716371816037124E-01 a       843     0    43     1     3
 -1.0422370611138736E+00 a       844     0    43     1     4
 -1.3098512536210605E+00 a       845     0    43     1     5
  3.5913990065099415E+00 a       846     0    43     1     6
  9.2893706679580956E-01 a       847     0    43     1     7
 -1.5231946158625287E+00 a       848     0    43     1     8
 -2.3264842230281828E+00 a       849     0    43     1     9
 -1.0357218529484739E-01 a       850     0    43     1    10
  6.2448708304077050E-01 a       851     0    43     1    11
  1.3606419402971948E-01 a       852     0    43     1    12
 -1.4788526031587179E-01 a       853     0    43     1    13
  2.6508798697679609E-01 a       854     0    43     1    14
  2.0943854880142396E+00 a       855     0    43     1    15
  1.4693684889991563E+00 a       856     0    43     1    16
 -1.1549930781468454E+00 a       857     0    43     1    17
 -9.3053554469708158E-02 a       858     0    43     1    18
 -2.3984119273728570E+00 a       859     0    43     1    19
  4.2436269097167684E-01 a       860     0    43     1    20
 -2.2180355874801001E+00 a       861     0    44     1     1
  1.4439706184391390E+00 a       862     0    44     1     2
 -1.3798229155265829E+00 a       863     0    44     1     3
  2.7087158474051560E+00 a       864     0    44     1     4
 -3.5979919608212958E+00 a       865     0    44     1     5
 -9.2727050426421612E-02 a       866     0    44     1     6
  2.1885796885049180E-01 a       867     0    44     1     7
  2.0478733299293022E+00 a       868     0    44     1     8
 -1.0259933639998315E+00 a       869     0    44     1     9
 -1.0993852162942488E+00 a       870     0    44     1    10
 -7.0140624777914085E-01 a       871     0    44     1    11
  1.4715397879257086E-01 a       872     0    44     1    12
 -3.9272118341217244E+00 a       873     0    44     1    13
  1.2262610169264447E+00 a       874     0    44     1    14
 -4.1063542499668337E-01 a       875     0    44     1    15
  1.4411420211363106E+00 a       876     0    44     1    16
 -2.7072606848463612E+00 a       877     0    44     1    17
 -1.2683848418961308E+00 a       878     0    44     1    18
 -1.3575393389039940E+00 a       879     0    44     1    19
  3.4029914855306966E+00 a       880     0    44     1    20
 -3.6284504287379232E-01 a       881     0    45     1     1
 -1.3183384810211152E-01 a       882     0    45     1     2
  1.7181779537714001E+00 a       883     0    45     1     3
  1.3736918801031279E+00 a       884     0    45     1     4
 -5.4529776310889022E-01 a       885     0    45     1     5
  6.6037130140164735E-01 a       886     0    45     1     6
  1.1410931353885005E+00 a       887     0    45     1     7
 -5.4337952252421839E-01 a       888     0    45     1     8
  3.1503341187774014E-01 a       889     0    45     1     9
 -1.1567994679592610E+00 a       890     0    45     1    10
 -5.9504178598924773E-01 a       891     0    45     1    11
 -1.0160234985756962E+00 a       892     0    45     1    12
  1.7927202740563506E+00 a       893     0    45     1    13
 -1.1451387979169343E+00 a       894     0    45     1    14
 -1.9303932920399678E+00 a       895     0    45     1    15
  1.6248024686938204E-02 a       896     0    45     1    16
  3.6651980391532135E-01 a       897     0    45     1    17
 -1.1397229322835740E+00 a       898     0    45     1    18
  2.0729446675015208E+00 a       899     0    45     1    19
 -1.2298182508221156E+00 a       900     0    45     1    20
 -1.0092815200902900E+00 a       901     0    46     1     1
 -1.3800186630770130E-02 a       902     0    46     1     2
  1.2665892378535117E+00 a       903     0    46     1     3
 -1.3489961393725556E+00 a       904     0    46     1     4
  6.7482301466640207E-02 a       905     0    46     1     5
  1.9506131255929493E+00 a       906     0    46     1     6
  8.0911223876986793E-01 a       907     0    46     1     7
 -1.2906724315198809E-01 a       908     0    46     1     8
  1.0303167862126729E-01 a       909     0    46     1     9
 -2.1029426274126902E-02 a       910     0    46     1    10
  6.4575767953136276E-01 a       911     0    46     1    11
  7.9336337915954058E-01 a       912     0    46     1    12
  4.4060047827004906E-01 a       913     0    46     1    13
 -8.5513315540690582E-02 a       914     0    46     1    14
  6.3626575663625728E-02 a       915     0    46     1    15
 -3.7160011522255837E-01 a       916     0    46     1    16
  5.7426853832346814E-01 a       917     0    46     1    17
  2.4038616310308267E-01 a       918     0    46     1    18
  8.8477526766862447E-01 a       919     0    46     1    19
  3.0943819514589832E-01 a       920     0    46     1    20
 -1.2099402875156589E+00 a       921     0    47     1     1
  5.8517451278562216E-01 a       922     0    47     1     2
 -3.0622633264762561E-01 a       923     0    47     1     3
 -1.9065041505241387E+00 a       924     0    47     1     4
  1.2438990251329332E+00 a       925     0    47     1     5
  4.9549592897310326E+00 a       926     0    47     1     6
 -3.5588561819061476E-01 a       927     0    47     1     7
 -2.7036806161181143E-01 a       928     0    47     1     8
  2.5606238727707678E+00 a       929     0    47     1     9
  5.2091811521288933E-01 a       930     0    47     1    10
  8.8973883349226113E-01 a       931     0    47     1    11
 -1.4389495358807394E+00 a       932     0    47     1    12
  1.6554446070564628E+00 a       933     0    47     1    13
 -1.6691568635005549E-02 a       934     0    47     1    14
  5.5794601490058338E-01 a       935     0    47     1    15
 -1.2962856437105450E+00 a       936     0    47     1    16
  4.9233360736432846E-01 a       937     0    47     1    17
  3.2041225695386353E+00 a       938     0    47     1    18
  1.4327113202836295E+00 a       939     0    47     1    19
  6.0296171264457976E-01 a       940     0    47     1    20
  1.3369386893343698E+00 a       941     0    48     1     1
  1.6679213296758644E+00 a       942     0    48     1     2
  8.5559136295948479E-01 a       943     0    48     1     3
 -8.3588589762822163E-01 a       944     0    48     1     4
 -1.2440517432540315E+00 a       945     0    48     1     5
  2.1102000900658817E+00 a       946     0    48     1     6
 -7.7780094947287026E-01 a       947     0    48     1     7
  5.9912967414196472E-01 a       948     0    48     1     8
 -9.3550291802660202E-01 a       949     0    48     1     9
 -4.2941316103384812E+00 a       950     0    48     1    10
 -1.2039115855613789E+00 a       951     0    48     1    11
 -1.1775898855193672E+00 a       952     0    48     1    12
 -1.8186936093640643E-01 a       953     0    48     1    13
 -4.5555790377392424E-01 a       954     0    48     1    14
  1.4566166239183302E+00 a       955     0    48     1    15
  2.6618323836978872E+00 a       956     0    48     1    16
  3.8887436508267020E-01 a       957     0    48     1    17
 -3.3431934316548615E+00 a       958     0    48     1    18
 -6.5427500532936100E-01 a       959     0    48     1    19
  1.9486236214069128E-01 a       960     0    48     1    20
  1.4118517419682020E+00 a       961     0    49     1     1
 -4.4441384504570725E-01 a       962     0    49     1     2
  8.8820424527975705E-01 a       963     0    49     1     3
  2.9745066551878857E-01 a       964     0    49     1     4
 -1.6646924445235494E+00 a       965     0    49     1     5
 -5.1240916745709304E-02 a       966     0    49     1     6
 -1.3891238408558189E+00 a       967     0    49     1     7
  1.0462434434683467E+00 a       968     0    49     1     8
 -2.8403363515433062E+00 a       969     0    49     1     9
 -1.9889375425184935E-01 a       970     0    49     1    10
 -6.2045303064428814E-01 a       971     0    49     1    11
  9.7329393166821643E-01 a       972     0    49     1    12
  3.6587552675823742E+00 a       973     0    49     1    13
 -4.8145163196995786E-02 a       974     0    49     1    14
 -1.4868276632460651E+00 a       975     0    49     1    15
 -1.5055168205329206E+00 a       976     0    49     1    16
  4.8589093170273677E-02 a       977     0    49     1    17
  2.4157490800307522E+00 a       978     0    49     1    18
 -4.1497463630943587E-01 a       979     0    49     1    19
  1.1218839458583385E+00 a       980     0    49     1    20
  6.2191830458225218E-02 a       981     0    50     1     1
 -2.3757596435893853E+00 a       982     0    50     1     2
 -1.0440122504848965E+00 a       983     0    50     1     3
 -3.7342462397643517E+00 a       984     0    50     1     4
  1.7373156979616680E+00 a       985     0    50     1     5
 -4.5293106189052162E-01 a       986     0    50     1     6
  5.1188389891890362E-01 a       987     0    50     1     7
 -5.5117168546017270E-01 a       988     0    50     1     8
  8.1528326943981946E-02 a       989     0    50     1     9
 -9.7391569812646028E-01 a       990     0    50     1    10
 -2.0780276475234682E-01 a       991     0    50     1    11
  4.1429745761953418E-01 a       992     0    50     1    12
  6.8948947855896159E-01 a       993     0    50     1    13
 -1.1192071215564894E+00 a       994     0    50     1    14
  9.4358436919133259E-01 a       995     0    50     1    15
 -1.5354387454322063E+00 a       996     0    50     1    16
  1.1187511243013981E+00 a       997     0    50     1    17
 -3.1089126653906085E-01 a       998     0    50     1    18
 -3.6223694697113407E-01 a       999     0    50     1    19
 -6.8165489962968540E-01 a      1000     0    50     1    20
  4.2318222535579386E-01 a      1001     0    51     1     1
  3.0794208725769252E+00 a      1002     0    51     1     2
  5.1294813943307771E-01 a      1003     0    51     1     3
 -6.1171998924052962E-01 a      1004     0    51     1     4
  2.3070190987058642E-01 a      1005     0    51     1     5
  2.1277335923731699E-01 a      1006     0    51     1     6
 -2.5673953906086848E+00 a      1007     0    51     1     7
  6.1362413124830706E-01 a      1008     0    51     1     8
  1.5505755836571830E-02 a      1009     0    51     1     9
  1.5211578648070674E+00 a      1010     0    51     1    10
 -9.0795293168358937E-02 a      1011     0    51     1    11
 -1.9855622726667110E+00 a      1012     0    51     1    12
 -7.0732804383112372E-02 a      1013     0    51     1    13
 -9.3089892455490020E-01 a      1014     0    51     1    14
  4.4281405622894909E-01 a      1015     0    51     1    15
 -3.2638653886263780E-01 a      1016     0    51     1    16
 -9.0875059273546799E-01 a      1017     0    51     1    17
  1.5066563111753812E+00 a      1018     0    51     1    18
 -2.2375303315703934E+00 a      1019     0    51     1    19
  5.1535003549794545E-01 a      1020     0    51     1    20
 -4.8337003494810227E-01 a      1021     0    52     1     1
  4.0738533749891365E-01 a      1022     0    52     1     2
 -1.4265152198592330E+00 a      1023     0    52     1     3
  2.3220732873840597E+00 a      1024     0    52     1     4
 -4.5114694544998418E-02 a      1025     0    52     1     5
  2.1553236716158727E-01 a      1026     0    52     1     6
  1.4382518335564494E+00 a      1027     0    52     1     7
  2.7223999231629685E+00 a      1028     0    52     1     8
 -5.4994840255792488E-01 a      1029     0    52     1     9
 -4.4388742044227397E-01 a      1030     0    52     1    10
 -7.8406904695338245E-02 a      1031     0    52     1    11
 -2.5644531313759060E+00 a      1032     0    52     1    12
 -3.1326567340155154E+00 a      1033     0    52     1    13
  9.9174091322417057E-02 a      1034     0    52     1    14
  7.6595273592630053E-01 a      1035     0    52     1    15
 -7.9989541996196595E-02 a      1036     0    52     1    16
 -5.4048619097484762E-01 a      1037     0    52     1    17
 -1.7397642604964059E-01 a      1038     0    52     1    18
  1.4633612812724741E+00 a      1039     0    52     1    19
 -1.7643239878553130E-01 a      1040     0    52     1    20
 -8.0031329268117357E-01 a      1041     0    53     1     1
  8.0184033153503964E-01 a      1042     0    53     1     2
  1.1984081125737092E+00 a      1043     0    53     1     3
 -2.2906012194165233E+00 a      1044     0    53     1     4
 -1.3582562828562297E+00 a      1045     0    53     1     5
  5.2439314988207079E-02 a      1046     0    53     1     6
  1.3765090416998393E-01 a      1047     0    53     1     7
  4.3801687335238271E-01 a      1048     0    53     1     8
 -2.4059899452301159E+00 a      1049     0    53     1     9
 -3.5585014815079692E+00 a      1050     0    53     1    10
 -1.0756321525266050E+00 a      1051     0    53     1    11
  1.0900487320828161E+00 a      1052     0    53     1    12
  8.4850409864880716E-01 a      1053     0    53     1    13
  1.1491538325265092E+00 a      1054     0    53     1    14
  6.8821853493365015E-01 a      1055     0    53     1    15
  1.3391455175465954E+00 a      1056     0    53     1    16
  3.3959999850316751E+00 a      1057     0    53     1    17
 -3.3586514654077698E-01 a      1058     0    53     1    18
  9.3270677472791941E-01 a      1059     0    53     1    19
 -7.1215012402999522E-01 a      1060     0    53     1    20
 -9.1274520770034484E-01 a      1061     0    54     1     1
 -1.5687763488008249E-01 a      1062     0    54     1     2
 -4.5641299205673846E-01 a      1063     0    54     1     3
  1.8273326826489391E+00 a      1064     0    54     1     4
  4.7866121660653582E-01 a      1065     0    54     1     5
  2.0983586396233340E+00 a      1066     0    54     1     6
 -2.5278938691260104E+00 a      1067     0    54     1     7
  1.3373715162326358E+00 a      1068     0    54     1     8
 -1.0684675829236423E+00 a      1069     0    54     1     9
 -4.9894438290866070E+00 a      1070     0    54     1    10
 -1.3585093425126138E+00 a      1071     0    54     1    11
  1.7058092008331063E+00 a      1072     0    54     1    12
  6.2817785450588359E-01 a      1073     0    54     1    13
  3.9154744455897483E+00 a      1074     0    54     1    14
 -1.1136063836844214E-01 a      1075     0    54     1    15
 -5.3012129224060689E-01 a      1076     0    54     1    16
 -1.2866670639945816E+00 a      1077     0    54     1    17
 -1.3176457684019607E+00 a      1078     0    54     1    18
 -3.1819130685603523E+00 a      1079     0    54     1    19
 -6.4578070829003831E-01 a      1080     0    54     1    20
  6.6505954950894863E-01 a      1081     0    55     1     1
 -8.2603513714559673E-01 a      1082     0    55     1     2
 -3.3233177446043656E-02 a      1083     0    55     1     3
 -1.9262948980432737E+00 a      1084     0    55     1     4
 -3.5552729420129975E-01 a      1085     0    55     1     5
  2.3246346564340661E-01 a      1086     0    55     1     6
  9.2062559842867764E-01 a      1087     0    55     1     7
  2.9752208550027230E+00 a      1088     0    55     1     8
 -8.8664625143093811E-01 a      1089     0    55     1     9
 -1.3968187316697660E+00 a      1090     0    55     1    10
 -2.1783824528414111E+00 a      1091     0    55     1    11
  2.2362650715959869E+00 a      1092     0    55     1    12
  2.9654225489574038E+00 a      1093     0    55     1    13
 -1.5441166527724115E+00 a      1094     0    55     1    14
  4.9581709334594865E-01 a      1095     0    55     1    15
 -4.8227066963288495E-01 a      1096     0    55     1    16
  1.5591238289479910E+00 a      1097     0    55     1    17
  4.5045813535870483E-01 a      1098     0    55     1    18
 -4.8231449543875793E-01 a      1099     0    55     1    19
 -2.2129418390632534E+00 a      1100     0    55     1    20
  8.1931417344475077E-01 a      1101     0    56     1     1
  2.8641389458880981E+00 a      1102     0    56     1     2
  8.1087448898788916E-01 a      1103     0    56     1     3
 -2.8448935710060050E+00 a      1104     0    56     1     4
 -1.5817007999398818E+00 a      1105     0    56     1     5
 -3.2276847456249791E-01 a      1106     0    56     1     6
  1.1033550648091467E-02 a      1107     0    56     1     7
 -1.3471415548573218E+00 a      1108     0    56     1     8
 -1.1963133751123851E+00 a      1109     0    56     1     9
 -6.0665039872738968E-01 a      1110     0    56     1    10
 -7.2673267360371796E-01 a      1111     0    56     1    11
 -2.6138845677779368E+00 a      1112     0    56     1    12
 -3.8987338323485474E+00 a      1113     0    56     1    13
  4.3236472045342272E-01 a      1114     0    56     1    14
  1.5825546174800720E-01 a      1115     0    56     1    15
 -1.3231528440676693E-01 a      1116     0    56     1    16
  1.3998812793581847E+00 a      1117     0    56     1    17
  1.1768162919884850E+00 a      1118     0    56     1    18
  1.8433927924299906E-01 a      1119     0    56     1    19
  1.7634105672984052E-01 a      1120     0    56     1    20
 -2.6588662858042400E+00 a      1121     0    57     1     1
  3.9165119449971109E-01 a      1122     0    57     1     2
  9.1383310856174649E-01 a      1123     0    57     1     3
  2.3513112043914988E+00 a      1124     0    57     1     4
 -1.1076098610287222E+00 a      1125     0    57     1     5
 -1.8111907870436859E+00 a      1126     0    57     1     6
 -1.7232316035770063E+00 a      1127     0    57     1     7
  1.6063916302932091E+00 a      1128     0    57     1     8
  4.5494075849351240E-01 a      1129     0    57     1     9
 -3.0521152521356067E+00 a      1130     0    57     1    10
  2.1909221105959742E-01 a      1131     0    57     1    11
  1.0408317113623593E+00 a      1132     0    57     1    12
 -2.3811384271593203E+00 a      1133     0    57     1    13
  1.7002568229755382E+00 a      1134     0    57     1    14
  8.2606057328863791E-01 a      1135     0    57     1    15
 -1.3450156071628339E+00 a      1136     0    57     1    16
 -1.1921653229565905E-01 a      1137     0    57     1    17
  1.7127503713177003E-01 a      1138     0    57     1    18
  1.4865776874774950E+00 a      1139     0    57     1    19
 -8.3807545180498966E-01 a      1140     0    57     1    20
  2.4814667113532312E+00 a      1141     0    58     1     1
  5.5058222892687303E-02 a      1142     0    58     1     2
  1.4102491143749676E-01 a      1143     0    58     1     3
  3.2345758110563516E-01 a      1144     0    58     1     4
  1.5569927271899867E-01 a      1145     0    58     1     5
  8.4173199445512337E-01 a      1146     0    58     1     6
  1.3786106310829107E+00 a      1147     0    58     1     7
 -2.4775839049059938E+00 a      1148     0    58     1     8
 -3.7532447686070425E-01 a      1149     0    58     1     9
  1.7336703620081093E-01 a      1150     0    58     1    10
 -1.3540555929528213E+00 a      1151     0    58     1    11
  1.3995737924436180E+00 a      1152     0    58     1    12
  3.8327014647266777E-01 a      1153     0    58     1    13
  8.5139616262450324E-01 a      1154     0    58     1    14
 -3.2243160753828687E-01 a      1155     0    58     1    15
 -1.0847502019597699E+00 a      1156     0    58     1    16
  2.5120389179235922E+00 a      1157     0    58     1    17
 -7.2727646885515237E-02 a      1158     0    58     1    18
 -5.8454734925581586E-01 a      1159     0    58     1    19
 -5.4529393739886911E-01 a      1160     0    58     1    20
  3.0169398288558996E-01 a      1161     0    59     1     1
  1.4781709332995128E+00 a      1162     0    59     1     2
  1.4899864917391875E-01 a      1163     0    59     1     3
 -1.5413809679295571E+00 a      1164     0    59     1     4
 -4.6670512393864338E-01 a      1165     0    59     1     5
  4.3049434861905439E-01 a      1166     0    59     1     6
 -8.0170792768012189E-01 a      1167     0    59     1     7
  1.1567104390156713E+00 a      1168     0    59     1     8
 -6.6407804532460746E-01 a      1169     0    59     1     9
 -6.5034025680129381E-01 a      1170     0    59     1    10
 -1.0396992281475963E+00 a      1171     0    59     1    11
  3.5525128288029242E+00 a      1172     0    59     1    12
 -3.2146340522558958E+00 a      1173     0    59     1    13
 -2.9658338588858717E+00 a      1174     0    59     1    14
  2.1278228526501066E+00 a      1175     0    59     1    15
 -2.6036865686050730E+00 a      1176     0    59     1    16
  1.2858962946582342E-01 a      1177     0    59     1    17
 -9.3668922330617221E-01 a      1178     0    59     1    18
 -2.4547970207092189E+00 a      1179     0    59     1    19
  2.3499664929918498E+00 a      1180     0    59     1    20
 -1.0442929845073163E+00 a      1181     0    60     1     1
 -4.0403130577688497E-02 a      1182     0    60     1     2
  7.5507986043316266E-01 a      1183     0    60     1     3
  3.1030756230304007E-01 a      1184     0    60     1     4
  6.2184384533603987E-01 a      1185     0    60     1     5
 -3.5047355467697344E-01 a      1186     0    60     1     6
  3.3899788305170836E-01 a      1187     0    60     1     7
  4.6605628070817379E-01 a      1188     0    60     1     8
 -5.5787744899381719E-01 a      1189     0    60     1     9
 -1.6838234465746278E+00 a      1190     0    60     1    10
  4.4597758602391285E-01 a      1191     0    60     1    11
  1.4150716059818800E+00 a      1192     0    60     1    12
  1.5422042677963166E+00 a      1193     0    60     1    13
 -2.8579908332406920E+00 a      1194     0    60     1    14
  1.0858251555142957E+00 a      1195     0    60     1    15
  6.9615139906016621E-01 a      1196     0    60     1    16
  5.2557050060906163E-01 a      1197     0    60     1    17
 -1.3843555984442291E+00 a      1198     0    60     1    18
 -2.6066867824693191E-01 a      1199     0    60     1    19
  1.3139324542317921E+00 a      1200     0    60     1    20
 -1.6453646695418708E-01 a      1201     0    61     1     1
 -5.9844470284683371E-01 a      1202     0    61     1     2
 -4.9973305785962312E+00 a      1203     0    61     1     3
 -6.8291566430828610E-01 a      1204     0    61     1     4
 -3.0303480195491557E+00 a      1205     0    61     1     5
 -2.0561762480821821E+00 a      1206     0    61     1     6
  1.5427814955793373E+00 a      1207     0    61     1     7
  3.3154114946498572E+00 a      1208     0    61     1     8
  2.3409599950126418E+00 a      1209     0    61     1     9
  1.0223720079196275E+00 a      1210     0    61     1    10
  1.7325600381487145E+00 a      1211     0    61     1    11
 -1.8973922349165586E+00 a      1212     0    61     1    12
 -5.0545405528068521E-01 a      1213     0    61     1    13
  3.4148784836194004E+00 a      1214     0    61     1    14
  6.9997499294854404E-01 a      1215     0    61     1    15
  3.6783097305370647E+00 a      1216     0    61     1    16
 -1.3547933510704330E-01 a      1217     0    61     1    17
 -4.9068987627959815E-01 a      1218     0    61     1    18
  1.8511034853324959E+00 a      1219     0    61     1    19
  1.1672784792811732E+00 a      1220     0    61     1    20
  3.7130226150294066E+00 a      1221     0    62     1     1
  6.5300418560414231E-01 a      1222     0    62     1     2
 -1.3365909276955596E+00 a      1223     0    62     1     3
 -4.4408112904121050E-01 a      1224     0    62     1     4
  3.6304371228192633E+00 a      1225     0    62     1     5
 -1.7631832273212508E-01 a      1226     0    62     1     6
  1.3369086147230211E+00 a      1227     0    62     1     7
 -2.0288759019904732E+00 a      1228     0    62     1     8
 -5.4204333902370294E-01 a      1229     0    62     1     9
 -2.1658442509420875E-01 a      1230     0    62     1    10
  6.5564517961619073E-01 a      1231     0    62     1    11
 -2.6737836511505306E+00 a      1232     0    62     1    12
 -1.8660466111041538E+00 a      1233     0    62     1    13
  3.0671909844797768E-01 a      1234     0    62     1    14
  2.6869235504616609E+00 a      1235     0    62     1    15
 -7.0114611711298425E-01 a      1236     0    62     1    16
 -1.5921666494550124E+00 a      1237     0    62     1    17
 -1.1982986863935399E+00 a      1238     0    62     1    18
 -2.3988864105303271E+00 a      1239     0    62     1    19
  3.8044428491845084E-01 a      1240     0    62     1    20
 -3.7438669050157530E-01 a      1241     0    63     1     1
 -1.1126492359878752E+00 a      1242     0    63     1     2
 -3.9693184127865972E+00 a      1243     0    63     1     3
  5.5769421843469380E-01 a      1244     0    63     1     4
 -2.2351366448983652E+00 a      1245     0    63     1     5
  8.0799314664964439E-01 a      1246     0    63     1     6
  1.1892463932283883E+00 a      1247     0    63     1     7
 -3.7985504812976456E-01 a      1248     0    63     1     8
 -4.3483220317499910E-01 a      1249     0    63     1     9
  3.3057522045451385E-02 a      1250     0    63     1    10
  2.3130979665323164E+00 a      1251     0    63     1    11
 -2.0998328804619708E-02 a      1252     0    63     1    12
 -1.4142974722833732E+00 a      1253     0    63     1    13
 -1.0688027915361344E-01 a      1254     0    63     1    14
  1.3238337377613252E+00 a      1255     0    63     1    15
  2.7627351374694982E+00 a      1256     0    63     1    16
 -4.0386518780820717E+00 a      1257     0    63     1    17
 -1.3111997371988762E+00 a      1258     0    63     1    18
 -1.1619966930748358E+00 a      1259     0    63     1    19
  2.4712156377074015E+00 a      1260     0    63     1    20
  1.4856631500516277E+00 a      1261     0    64     1     1
  7.0327665880976775E-01 a      1262     0    64     1     2
  2.2866903081018277E+00 a      1263     0    64     1     3
  8.5775622474974733E-01 a      1264     0    64     1     4
  1.1880107876256563E+00 a      1265     0    64     1     5
  1.1956881866797553E+00 a      1266     0    64     1     6
  4.3721554774012079E-02 a      1267     0    64     1     7
  1.9967838089640666E-01 a      1268     0    64     1     8
  5.6760817957964016E-01 a      1269     0    64     1     9
 -1.0487326572103679E+00 a      1270     0    64     1    10
  5.9170510780049779E-01 a      1271     0    64     1    11
 -1.4574128785027267E+00 a      1272     0    64     1    12
  3.1956022725030082E+00 a      1273     0    64     1    13
 -1.4803787216117641E+00 a      1274     0    64     1    14
 -2.6393279092747179E+00 a      1275     0    64     1    15
  1.6751246737167130E-01 a      1276     0    64     1    16
  3.3086822521454909E-02 a      1277     0    64     1    17
 -2.3802763766821582E+00 a      1278     0    64     1    18
  6.3867438025940837E-01 a      1279     0    64     1    19
  1.6777399224059741E+00 a      1280     0    64     1    20
 -2.7221310589517173E-01 a      1281     0    65     1     1
  2.6285152677383977E-01 a      1282     0    65     1     2
  3.0270235184074412E-01 a      1283     0    65     1     3
 -1.9682695873537159E+00 a      1284     0    65     1     4
 -4.0771745590792280E-01 a      1285     0    65     1     5
  3.2053378123890068E+00 a      1286     0    65     1     6
  2.5920381515222619E+00 a      1287     0    65     1     7
  1.1227457511214420E+00 a      1288     0    65     1     8
 -6.8318535555911983E-02 a      1289     0    65     1     9
 -1.0067351312524138E+00 a      1290     0    65     1    10
  9.4151041930526191E-01 a      1291     0    65     1    11
  2.1029543456795213E-01 a      1292     0    65     1    12
 -6.4576023433342045E-01 a      1293     0    65     1    13
 -6.2921371801285531E-01 a      1294     0    65     1    14
  4.6757598805800754E-01 a      1295     0    65     1    15
  3.3840172560357334E-01 a      1296     0    65     1    16
  7.9580385208269577E-01 a      1297     0    65     1    17
  1.2434625191660316E-01 a      1298     0    65     1    18
 -7.0711765088222356E-01 a      1299     0    65     1    19
 -1.0296480596520026E+00 a      1300     0    65     1    20
  2.0218057284698862E-01 a      1301     0    66     1     1
  1.0227194594793116E+00 a      1302     0    66     1     2
 -9.6472590190749247E-02 a      1303     0    66     1     3
 -2.7257426403445248E+00 a      1304     0    66     1     4
  2.8057687574173777E+00 a      1305     0    66     1     5
  2.5018641999523403E+00 a      1306     0    66     1     6
  2.0471516116489576E+00 a      1307     0    66     1     7
  1.1686468635784133E+00 a      1308     0    66     1     8
  2.7337536341864261E+00 a      1309     0    66     1     9
  5.2414396950080974E-02 a      1310     0    66     1    10
  1.4922105572403914E+00 a      1311     0    66     1    11
 -2.0562870041450094E+00 a      1312     0    66     1    12
  1.1430615037463498E+00 a      1313     0    66     1    13
  6.3743650769800220E-01 a      1314     0    66     1    14
  1.1098393149747587E-01 a      1315     0    66     1    15
 -1.6612001706291106E+00 a      1316     0    66     1    16
 -1.5232511390315174E-03 a      1317     0    66     1    17
  3.4234308672374585E+00 a      1318     0    66     1    18
  4.7649671101031488E-01 a      1319     0    66     1    19
  1.3838172953915877E+00 a      1320     0    66     1    20
  3.4712977916173346E+00 a      1321     0    67     1     1
 -2.5705402153640661E-01 a      1322     0    67     1     2
 -3.7145097700244412E+00 a      1323     0    67     1     3
  1.4451049977422481E+00 a      1324     0    67     1     4
 -4.2292793842191900E-01 a      1325     0    67     1     5
 -2.7965832654593442E-01 a      1326     0    67     1     6
  1.9437858767842782E+00 a      1327     0    67     1     7
  1.5845673779084837E+00 a      1328     0    67     1     8
 -2.0530834991299085E+00 a      1329     0    67     1     9
  7.7492443071909201E-01 a      1330     0    67     1    10
 -1.4718162534999495E+00 a      1331     0    67     1    11
 -1.7404237723280174E+00 a      1332     0    67     1    12
  2.3206833596254399E+00 a      1333     0    67     1    13
 -5.9110246013576362E-01 a      1334     0    67     1    14
  4.1418262645414916E-01 a      1335     0    67     1    15
 -2.2903430619795033E+00 a      1336     0    67     1    16
  2.8008773134672036E+00 a      1337     0    67     1    17
 -7.8424770786806863E-01 a      1338     0    67     1    18
 -2.1640386935026608E+00 a      1339     0    67     1    19
 -2.4283750182567651E-01 a      1340     0    67     1    20
 -5.5823336557595460E-01 a      1341     0    68     1     1
  5.2431659745495618E-01 a      1342     0    68     1     2
 -2.6632035548969388E+00 a      1343     0    68     1     3
 -3.0930381106319436E+00 a      1344     0    68     1     4
  1.7915504180941140E+00 a      1345     0    68     1     5
 -2.5332056097097516E-01 a      1346     0    68     1     6
 -1.2626946971446247E+00 a      1347     0    68     1     7
 -6.0888352986697880E-01 a      1348     0    68     1     8
  3.5582762497704995E-01 a      1349     0    68     1     9
 -3.0764105034973404E+00 a      1350     0    68     1    10
 -4.0019637619795470E+00 a      1351     0    68     1    11
  2.3936187074182018E+00 a      1352     0    68     1    12
  1.4033761494064798E+00 a      1353     0    68     1    13
 -3.0352405344687332E+00 a      1354     0    68     1    14
  1.0030886356562334E+00 a      1355     0    68     1    15
  2.7332857812288375E-01 a      1356     0    68     1    16
  5.5767194559391900E-02 a      1357     0    68     1    17
 -4.8205968967498354E+00 a      1358     0    68     1    18
 -5.8737260725939711E-01 a      1359     0    68     1    19
 -9.1628063454851727E-01 a      1360     0    68     1    20
 -2.8072220559128138E-02 a      1361     0    69     1     1
 -2.2526095016036378E+00 a      1362     0    69     1     2
 -3.4510098367266431E+00 a      1363     0    69     1     3
 -3.9523936593040481E+00 a      1364     0    69     1     4
  1.5180486822054819E+00 a      1365     0    69     1     5
 -8.6161529772632461E-01 a      1366     0    69     1     6
  1.1037610847804662E+00 a      1367     0    69     1     7
  2.3890941984784617E+00 a      1368     0    69     1     8
  3.6415619779299013E-01 a      1369     0    69     1     9
 -9.5767903912718899E-01 a      1370     0    69     1    10
 -5.6762606304170626E-01 a      1371     0    69     1    11
 -1.7729186666390733E+00 a      1372     0    69     1    12
 -3.6794656520780853E+00 a      1373     0    69     1    13
 -2.1209843315445380E+00 a      1374     0    69     1    14
  6.3333045577093194E-01 a      1375     0    69     1    15
 -1.6568232719983753E+00 a      1376     0    69     1    16
  1.9346493286883319E+00 a      1377     0    69     1    17
  1.0145548353116933E-01 a      1378     0    69     1    18
 -2.0221970368995175E+00 a      1379     0    69     1    19
 -1.0256608853667097E+00 a      1380     0    69     1    20
 -1.4574231768938595E+00 a      1381     0    70     1     1
  1.2188143830366163E+00 a      1382     0    70     1     2
 -2.1541261695894951E+00 a      1383     0    70     1     3
 -2.3295064762667295E-01 a      1384     0    70     1     4
 -2.3187592106159558E+00 a      1385     0    70     1     5
 -2.4975515809768156E+00 a      1386     0    70     1     6
 -3.8143302979595171E+00 a      1387     0    70     1     7
  3.5893913587451083E+00 a      1388     0    70     1     8
 -2.3021898090911321E+00 a      1389     0    70     1     9
  1.2193844965483389E+00 a      1390     0    70     1    10
  3.1395915094424798E-01 a      1391     0    70     1    11
  7.8981954170564417E-02 a      1392     0    70     1    12
 -5.4013784342421971E+00 a      1393     0    70     1    13
 -2.3465601638072959E+00 a      1394     0    70     1    14
  3.9936785238037664E-01 a      1395     0    70     1    15
  1.2815024825535621E+00 a      1396     0    70     1    16
  5.8196855363202726E-01 a      1397     0    70     1    17
  2.1477485449902290E-02 a      1398     0    70     1    18
 -9.4990220687501015E-01 a      1399     0    70     1    19
  2.2241750213984388E+00 a      1400     0    70     1    20
 -8.3306574561651003E-01 a      1401     0    71     1     1
 -8.1265291022463126E-01 a      1402     0    71     1     2
  8.8674649010533113E-01 a      1403     0    71     1     3
 -5.4608381773860959E-01 a      1404     0    71     1     4
  9.5400582758158248E-01 a      1405     0    71     1     5
  3.8720281346122754E-01 a      1406     0    71     1     6
  2.2932204296268868E+00 a      1407     0    71     1     7
 -2.2883275384292543E+00 a      1408     0    71     1     8
 -1.9403358369067634E+00 a      1409     0    71     1     9
 -1.0475406381742534E+00 a      1410     0    71     1    10
  1.1044620383300496E+00 a      1411     0    71     1    11
  9.9379272738979341E-01 a      1412     0    71     1    12
  7.2963427368238210E-01 a      1413     0    71     1    13
 -3.8711498003501954E-01 a      1414     0    71     1    14
  3.0813330861796961E+00 a      1415     0    71     1    15
 -1.3859496042768293E+00 a      1416     0    71     1    16
 -6.0604493133087534E-01 a      1417     0    71     1    17
 -3.4807744108412710E+00 a      1418     0    71     1    18
 -1.8784341737783641E+00 a      1419     0    71     1    19
  2.1625167648183532E+00 a      1420     0    71     1    20
  1.3708344885999257E-01 a      1421     0    72     1     1
 -7.1452687226746536E-01 a      1422     0    72     1     2
 -5.4481312342659927E-01 a      1423     0    72     1     3
 -1.6124077301057615E+00 a      1424     0    72     1     4
 -1.6091378657809416E+00 a      1425     0    72     1     5
 -1.5824463190535107E+00 a      1426     0    72     1     6
  1.2059909447486605E+00 a      1427     0    72     1     7
 -3.2261231048088348E+00 a      1428     0    72     1     8
  1.0846979399792125E+00 a      1429     0    72     1     9
  2.5385742243668119E+00 a      1430     0    72     1    10
 -4.2178435034072553E-01 a      1431     0    72     1    11
 -1.0229928931998520E+00 a      1432     0    72     1    12
 -1.7031338107885788E-01 a      1433     0    72     1    13
 -1.4711611141857313E+00 a      1434     0    72     1    14
  4.2644983614564652E-01 a      1435     0    72     1    15
 -4.9393951616095050E-01 a      1436     0    72     1    16
 -2.2840768074739665E-01 a      1437     0    72     1    17
  2.5165608921661322E+00 a      1438     0    72     1    18
  1.1522640137434856E+00 a      1439     0    72     1    19
 -4.7031607073628057E-01 a      1440     0    72     1    20
  1.1719574454382968E+00 a      1441     0    73     1     1
  1.7335279018914083E+00 a      1442     0    73     1     2
  1.7757645614425432E-01 a      1443     0    73     1     3
  2.7051813612147253E+00 a      1444     0    73     1     4
  3.6559917823676638E+00 a      1445     0    73     1     5
  7.1886363432569456E-01 a      1446     0    73     1     6
 -1.3467306230856442E+00 a      1447     0    73     1     7
  2.4337550952307483E+00 a      1448     0    73     1     8
 -2.4587761561878603E+00 a      1449     0    73     1     9
  7.2897781784432814E-01 a      1450     0    73     1    10
 -1.8482170785395906E+00 a      1451     0    73     1    11
  6.9814617208955776E-01 a      1452     0    73     1    12
  3.3149207263777769E-01 a      1453     0    73     1    13
  5.0889476074408146E-01 a      1454     0    73     1    14
  9.6559745563742971E-01 a      1455     0    73     1    15
  5.6149791036949181E-01 a      1456     0    73     1    16
 -2.6248324064522812E+00 a      1457     0    73     1    17
  2.9705378050750508E+00 a      1458     0    73     1    18
  2.0070293528130003E+00 a      1459     0    73     1    19
  1.1732431193469997E+00 a      1460     0    73     1    20
 -1.9172088321522334E+00 a      1461     0    74     1     1
 -9.0982987757361367E-01 a      1462     0    74     1     2
  1.5097129727840932E+00 a      1463     0    74     1     3
  5.1782184518123142E-01 a      1464     0    74     1     4
 -2.3378308118224842E+00 a      1465     0    74     1     5
 -1.5070163393725318E+00 a      1466     0    74     1     6
  4.2765155847216713E-01 a      1467     0    74     1     7
 -1.1295446046877036E+00 a      1468     0    74     1     8
  6.7712616212808030E-01 a      1469     0    74     1     9
  2.5520805676879954E+00 a      1470     0    74     1    10
 -5.3571022704566118E-01 a      1471     0    74     1    11
 -3.3183736744797256E+00 a      1472     0    74     1    12
 -9.2324900164968277E-02 a      1473     0    74     1    13
  3.8219825366065967E+00 a      1474     0    74     1    14
  1.8279634152627625E-02 a      1475     0    74     1    15
  3.6956090137992537E-01 a      1476     0    74     1    16
 -2.3627629679658427E-01 a      1477     0    74     1    17
  1.1430847203550378E+00 a      1478     0    74     1    18
  1.8094251022560093E+00 a      1479     0    74     1    19
  3.0895937408718138E-01 a      1480     0    74     1    20
 -1.8598254053897660E+00 a      1481     0    75     1     1
 -2.1590937232391658E+00 a      1482     0    75     1     2
 -2.2372461629958551E-01 a      1483     0    75     1     3
 -9.3105614138194071E-01 a      1484     0    75     1     4
 -1.3567972382428433E+00 a      1485     0    75     1     5
 -7.5621704954536484E-01 a      1486     0    75     1     6
 -1.4041577131404595E+00 a      1487     0    75     1     7
 -8.9600389198240471E-01 a      1488     0    75     1     8
 -4.6480339990711789E-01 a      1489     0    75     1     9
  1.2259855360787448E+00 a      1490     0    75     1    10
  4.7829011371083219E-01 a      1491     0    75     1    11
 -4.0151049246057502E-01 a      1492     0    75     1    12
 -1.2110066392907322E+00 a      1493     0    75     1    13
  1.1669538624411657E+00 a      1494     0    75     1    14
 -4.3713570531107365E-01 a      1495     0    75     1    15
 -1.8326789400416281E+00 a      1496     0    75     1    16
  7.0431069539160307E-01 a      1497     0    75     1    17
  6.2079578348788633E-01 a      1498     0    75     1    18
  1.1784478620295020E+00 a      1499     0    75     1    19
 -1.8111677439539242E+00 a      1500     0    75     1    20
 -1.7338468509914322E+00 a      1501     0    76     1     1
 -1.2264315710206035E+00 a      1502     0    76     1     2
  1.5483223509431996E+00 a      1503     0    76     1     3
  5.4801543137092468E-01 a      1504     0    76     1     4
 -5.5659603800981194E-01 a      1505     0    76     1     5
 -8.6101653923009147E-01 a      1506     0    76     1     6
 -1.6808347268137678E+00 a      1507     0    76     1     7
 -3.8386953686060588E-01 a      1508     0    76     1     8
 -8.0974384484113671E-01 a      1509     0    76     1     9
 -1.4328724686672054E+00 a      1510     0    76     1    10
  2.6784195285258744E-01 a      1511     0    76     1    11
  6.7458239629165528E-02 a      1512     0    76     1    12
 -6.0058850106157824E-01 a      1513     0    76     1    13
 -4.8376179884655524E-01 a      1514     0    76     1    14
 -1.2843338197192056E+00 a      1515     0    76     1    15
 -1.2416442375937251E+00 a      1516     0    76     1    16
 -5.4316715108455260E-01 a      1517     0    76     1    17
 -9.7614055620948617E-02 a      1518     0    76     1    18
 -1.5822935151548145E-01 a      1519     0    76     1    19
  5.4697690415016953E-01 a      1520     0    76     1    20
 -1.5547056040162404E+00 a      1521     0    77     1     1
 -2.4116337349867334E+00 a      1522     0    77     1     2
  2.1279136064101150E+00 a      1523     0    77     1     3
 -1.8332153407951584E+00 a      1524     0    77     1     4
 -2.2984699332872478E+00 a      1525     0    77     1     5
  3.1910860846072525E-01 a      1526     0    77     1     6
  3.4809853312237378E+00 a      1527     0    77     1     7
 -2.1228586938313136E+00 a      1528     0    77     1     8
 -1.2702570976346377E+00 a      1529     0    77     1     9
 -3.3371870906023360E-01 a      1530     0    77     1    10
 -1.4707040757285572E+00 a      1531     0    77     1    11
  1.4118457091466469E-01 a      1532     0    77     1    12
  1.9839742599691490E+00 a      1533     0    77     1    13
  4.1793373983669263E-01 a      1534     0    77     1    14
 -4.2298875082892212E-01 a      1535     0    77     1    15
  1.1289200689806194E+00 a      1536     0    77     1    16
  1.9403219427566512E+00 a      1537     0    77     1    17
  1.2197495860429546E+00 a      1538     0    77     1    18
 -2.4848365954241043E+00 a      1539     0    77     1    19
 -9.0337997967927866E-02 a      1540     0    77     1    20
  3.5190929915898539E+00 a      1541     0    78     1     1
  1.1881166381874886E+00 a      1542     0    78     1     2
  1.6085290205886549E+00 a      1543     0    78     1     3
 -2.2931149914325036E-01 a      1544     0    78     1     4
 -1.7112546151669574E+00 a      1545     0    78     1     5
  9.4592157986441705E-01 a      1546     0    78     1     6
  5.6272652421375724E-01 a      1547     0    78     1     7
 -8.7495704293673193E-01 a      1548     0    78     1     8
  7.0874502489257674E-01 a      1549     0    78     1     9
 -1.2668455290991711E+00 a      1550     0    78     1    10
 -1.9101911403652541E+00 a      1551     0    78     1    11
 -1.4058173596624164E+00 a      1552     0    78     1    12
 -4.1541243284641510E-01 a      1553     0    78     1    13
  1.0704324540735550E+00 a      1554     0    78     1    14
 -7.4666311260002416E-01 a      1555     0    78     1    15
  5.5085800190437584E-01 a      1556     0    78     1    16
  1.7879297785737984E+00 a      1557     0    78     1    17
 -2.8982389913922085E-01 a      1558     0    78     1    18
  1.4478891652407495E+00 a      1559     0    78     1    19
 -7.3597006265055709E-01 a      1560     0    78     1    20
  6.7861158146443656E-01 a      1561     0    79     1     1
  8.9022916677565944E-01 a      1562     0    79     1     2
  3.2992029295515829E-01 a      1563     0    79     1     3
  9.7032551199518410E-02 a      1564     0    79     1     4
  9.4828563122461063E-01 a      1565     0    79     1     5
 -1.7523323150503350E-01 a      1566     0    79     1     6
  9.3189526343258555E-01 a      1567     0    79     1     7
 -6.6242003803673732E-01 a      1568     0    79     1     8
 -5.7856253988989848E-01 a      1569     0    79     1     9
  1.1406063677042366E+00 a      1570     0    79     1    10
  1.2616766229080929E+00 a      1571     0    79     1    11
 -9.0413788479980040E-01 a      1572     0    79     1    12
  2.5367172317476383E+00 a      1573     0    79     1    13
  3.6249780265989742E+00 a      1574     0    79     1    14
 -1.0764665094734811E+00 a      1575     0    79     1    15
 -4.9363475687557545E-01 a      1576     0    79     1    16
 -5.9043783167617170E-01 a      1577     0    79     1    17
  2.4394020915797148E+00 a      1578     0    79     1    18
  5.3495221827455719E-01 a      1579     0    79     1    19
 -7.7805306663229046E-01 a      1580     0    79     1    20
 -1.1170592896291531E+00 a      1581     0    80     1     1
  2.4984810242777455E+00 a      1582     0    80     1     2
  1.5147179757273093E+00 a      1583     0    80     1     3
  1.0157566028461062E+00 a      1584     0    80     1     4
  1.9240054282472414E+00 a      1585     0    80     1     5
 -3.0056799277493149E+00 a      1586     0    80     1     6
  3.0032985464746531E+00 a      1587     0    80     1     7
 -8.1591836516396088E-01 a      1588     0    80     1     8
  2.6943862675628422E-01 a      1589     0    80     1     9
  2.6117945320499585E+00 a      1590     0    80     1    10
  4.7808633252246985E-01 a      1591     0    80     1    11
 -3.0782006123821937E-01 a      1592     0    80     1    12
 -1.4246142766060427E-01 a      1593     0    80     1    13
  8.3529263631589135E-01 a      1594     0    80     1    14
  1.2532893485102700E-01 a      1595     0    80     1    15
  2.7475525228985456E+00 a      1596     0    80     1    16
  4.2780349475816093E-01 a      1597     0    80     1    17
  1.0418731786313753E+00 a      1598     0    80     1    18
  1.9205515345542017E+00 a      1599     0    80     1    19
 -1.0699114007709150E+00 a      1600     0    80     1    20
 -1.7552775701852048E+00 a      1601     0    81     1     1
 -8.2048065151157312E-01 a      1602     0    81     1     2
  1.7423877753545391E+00 a      1603     0    81     1     3
 -1.1330542629149138E+00 a      1604     0    81     1     4
  5.4757403682843631E-01 a      1605     0    81     1     5
 -1.1672304821401083E+00 a      1606     0    81     1     6
  8.9476572979595803E-01 a      1607     0    81     1     7
 -1.6306859616923957E+00 a      1608     0    81     1     8
  1.5311089541370002E+00 a      1609     0    81     1     9
  7.7139259912460090E-01 a      1610     0    81     1    10
 -8.7622431465091155E-01 a      1611     0    81     1    11
 -9.5746795387918460E-01 a      1612     0    81     1    12
 -3.7315482124298405E-01 a      1613     0    81     1    13
 -1.2387309480864770E+00 a      1614     0    81     1    14
  5.5157656705794500E-01 a      1615     0    81     1    15
  3.5003516395066397E-01 a      1616     0    81     1    16
 -1.5627318683609577E+00 a      1617     0    81     1    17
  1.1614273355812579E+00 a      1618     0    81     1    18
  1.1867094958345550E+00 a      1619     0    81     1    19
 -7.8362990533134350E-02 a      1620     0    81     1    20
 -8.5756172583011070E-01 a      1621     0    82     1     1
 -1.9994139249524767E-01 a      1622     0    82     1     2
  1.3818716556339019E+00 a      1623     0    82     1     3
