################################################################################
# Neural network connection values (weights and biases).
################################################################################
# Col  Name       Description
################################################################################
# 1    connection Neural network connection value.
# 2    t          Connection type (a = weight, b = bias).
# 3    index      Index enumerating weights.
# 4    l_s        Starting point layer (end point layer for biases).
# 5    n_s        Starting point neuron in starting layer (end point neuron for biases).
# 6    l_e        End point layer.
# 7    n_e        End point neuron in end layer.
################################################################################
#                      1 2         3     4     5     6     7
#             connection t     index   l_s   n_s   l_e   n_e
############################################################
  9.4394245630466411E+00 a         1     0     1     1     1
 -2.1325345234666241E+01 a         2     0     1     1     2
 -2.0973647806597824E+00 a         3     0     1     1     3
 -1.6902957874675216E+01 a         4     0     1     1     4
 -3.1381560132911179E+01 a         5     0     1     1     5
  1.1336241309855316E+01 a         6     0     1     1     6
 -7.8818527577916413E+00 a         7     0     1     1     7
 -2.8924303561244519E-01 a         8     0     1     1     8
  1.3524029750310540E+01 a         9     0     1     1     9
  3.2981101080331833E+01 a        10     0     1     1    10
 -2.6542382306191986E-01 a        11     0     1     1    11
 -6.8635276823817781E+00 a        12     0     1     1    12
  3.2645080533506570E+00 a        13     0     1     1    13
 -7.6304091803446381E+00 a        14     0     1     1    14
 -5.8988340170592313E+00 a        15     0     1     1    15
 -7.8608520219309606E+00 a        16     0     1     1    16
 -3.9544348614357570E+00 a        17     0     1     1    17
 -9.1865124853352267E+00 a        18     0     1     1    18
  3.1337341664548838E+01 a        19     0     1     1    19
 -6.9711633122297627E+00 a        20     0     1     1    20
  1.8568897503782265E+00 a        21     0     2     1     1
  1.3811127148224177E+01 a        22     0     2     1     2
  1.7973191513959073E+01 a        23     0     2     1     3
 -1.6531930989881878E+00 a        24     0     2     1     4
  3.2733947381675974E+00 a        25     0     2     1     5
  5.0433487107691137E+00 a        26     0     2     1     6
 -5.7306300524790084E+00 a        27     0     2     1     7
  8.1368914513627288E+00 a        28     0     2     1     8
 -9.5185070252396253E-01 a        29     0     2     1     9
  1.8593849400154198E+01 a        30     0     2     1    10
 -4.3824108855930524E+00 a        31     0     2     1    11
 -2.9499460693715107E-01 a        32     0     2     1    12
 -3.7765379963146017E+00 a        33     0     2     1    13
  1.1558250050178730E+01 a        34     0     2     1    14
  1.5774973004983733E-02 a        35     0     2     1    15
 -5.3092166540381829E+00 a        36     0     2     1    16
 -3.2920524917099527E+00 a        37     0     2     1    17
 -1.6049183421984463E+01 a        38     0     2     1    18
 -2.4261151074369796E+00 a        39     0     2     1    19
  3.7767424568353243E+00 a        40     0     2     1    20
 -1.2362904685385927E+00 a        41     0     3     1     1
  6.7982103847049062E+00 a        42     0     3     1     2
  1.0475995133340222E+01 a        43     0     3     1     3
  1.7946017922646096E+01 a        44     0     3     1     4
  1.2981594632930038E+01 a        45     0     3     1     5
 -7.5834208006203188E+00 a        46     0     3     1     6
 -1.0024206491010057E+01 a        47     0     3     1     7
 -1.3476398615414228E+01 a        48     0     3     1     8
 -8.3069839720202516E+00 a        49     0     3     1     9
 -2.1187561642596942E+00 a        50     0     3     1    10
  8.1392999530330741E+00 a        51     0     3     1    11
  1.7977738241139061E+01 a        52     0     3     1    12
  4.1825412409869074E+00 a        53     0     3     1    13
 -8.6805089616094318E+00 a        54     0     3     1    14
 -7.9878074515197355E+00 a        55     0     3     1    15
  1.8234485344040166E+01 a        56     0     3     1    16
 -1.3445092922638416E+01 a        57     0     3     1    17
  1.2692418485766888E+01 a        58     0     3     1    18
 -2.3147336838264096E+01 a        59     0     3     1    19
  5.3450308674131390E+00 a        60     0     3     1    20
  7.6007743251814510E+00 a        61     0     4     1     1
 -1.4973055552630948E+01 a        62     0     4     1     2
  8.4243231656932882E-01 a        63     0     4     1     3
 -3.0548404042997155E+00 a        64     0     4     1     4
  5.3365337062240306E+00 a        65     0     4     1     5
  1.9738983784013381E+01 a        66     0     4     1     6
  1.1237229484842192E+01 a        67     0     4     1     7
 -1.5102737440777442E+01 a        68     0     4     1     8
  4.0745660690770447E-01 a        69     0     4     1     9
 -1.9445952039347674E+00 a        70     0     4     1    10
  2.8125097647315073E+01 a        71     0     4     1    11
  1.0554968612190498E+01 a        72     0     4     1    12
  9.4926552173786352E+00 a        73     0     4     1    13
  9.0331557796106643E-01 a        74     0     4     1    14
  1.7909410141011662E+01 a        75     0     4     1    15
  1.2324744491218874E+01 a        76     0     4     1    16
 -1.7956804609158239E+00 a        77     0     4     1    17
  1.5360499797382102E+01 a        78     0     4     1    18
  8.5974230171369026E+00 a        79     0     4     1    19
 -1.1506753504445740E+01 a        80     0     4     1    20
 -3.7573783917989245E+00 a        81     0     5     1     1
  9.5206371123262059E+00 a        82     0     5     1     2
  4.1315565909533802E+00 a        83     0     5     1     3
  2.0623166199321923E+00 a        84     0     5     1     4
 -1.4796422929293980E+01 a        85     0     5     1     5
 -6.4977846232401673E+00 a        86     0     5     1     6
  1.0490037169513707E+01 a        87     0     5     1     7
  1.0303080973696998E+01 a        88     0     5     1     8
 -4.7544282362291792E+00 a        89     0     5     1     9
  3.7520560716409341E+00 a        90     0     5     1    10
  8.4697519762120681E+00 a        91     0     5     1    11
 -2.6354726839368681E+00 a        92     0     5     1    12
  8.9169856209893510E+00 a        93     0     5     1    13
  2.2588064224731127E+01 a        94     0     5     1    14
 -6.0354037755404466E-01 a        95     0     5     1    15
  7.6963915731741828E-01 a        96     0     5     1    16
  1.9700571538254827E+01 a        97     0     5     1    17
 -3.0501491056435118E+01 a        98     0     5     1    18
  3.2901732451171263E+01 a        99     0     5     1    19
  1.4633689942061768E+01 a       100     0     5     1    20
  7.9050184851479157E+00 a       101     0     6     1     1
 -6.4883284887024406E-01 a       102     0     6     1     2
  8.8861600640666154E+00 a       103     0     6     1     3
  3.2899395027466345E+00 a       104     0     6     1     4
 -1.6484492938781877E+01 a       105     0     6     1     5
 -7.0834972805430709E+00 a       106     0     6     1     6
  3.7835660464768530E+01 a       107     0     6     1     7
 -2.4995361119050039E+00 a       108     0     6     1     8
 -1.5856994604444125E+01 a       109     0     6     1     9
 -7.7014616978687442E+00 a       110     0     6     1    10
 -3.5114662363032480E+01 a       111     0     6     1    11
 -8.7352825437611887E+00 a       112     0     6     1    12
 -9.8762295154583732E+00 a       113     0     6     1    13
 -6.6631149233329632E+00 a       114     0     6     1    14
 -1.1061580652459501E+01 a       115     0     6     1    15
  2.5634056222728280E+01 a       116     0     6     1    16
 -4.6697691845497653E+00 a       117     0     6     1    17
  2.7065511769380930E+01 a       118     0     6     1    18
  8.4613271168809181E+00 a       119     0     6     1    19
  2.7861197946052318E+01 a       120     0     6     1    20
 -6.5650504286113485E+00 a       121     0     7     1     1
 -1.1323993020589088E+01 a       122     0     7     1     2
  3.7784144655727894E+00 a       123     0     7     1     3
 -8.5072988424300071E+00 a       124     0     7     1     4
 -1.3404404841478619E-02 a       125     0     7     1     5
 -1.1018616594135553E+01 a       126     0     7     1     6
  5.0595806754303005E+00 a       127     0     7     1     7
  4.7577202413871138E+00 a       128     0     7     1     8
 -8.4417864708928541E+00 a       129     0     7     1     9
  1.6054869715913952E+01 a       130     0     7     1    10
 -3.1835476002708853E+00 a       131     0     7     1    11
 -6.5143443006870401E+00 a       132     0     7     1    12
  1.4647611262819700E+00 a       133     0     7     1    13
  1.6973406257525858E+00 a       134     0     7     1    14
 -1.4448000522766502E+01 a       135     0     7     1    15
 -3.7624985096160518E-01 a       136     0     7     1    16
  1.2502096705866176E+01 a       137     0     7     1    17
 -1.0025883789299673E+01 a       138     0     7     1    18
  1.4459367064331479E+01 a       139     0     7     1    19
  4.2329140342402036E+00 a       140     0     7     1    20
 -7.1055390834714922E+00 a       141     0     8     1     1
  8.1429073312197087E+00 a       142     0     8     1     2
 -1.3090094764031322E+01 a       143     0     8     1     3
  1.2991898591364597E+01 a       144     0     8     1     4
  1.3053470505564983E+01 a       145     0     8     1     5
 -3.7039653684359388E+00 a       146     0     8     1     6
 -4.6425315170160042E+00 a       147     0     8     1     7
 -2.4473916423155404E+00 a       148     0     8     1     8
 -5.3817378792110802E+00 a       149     0     8     1     9
  1.4493845773013854E+00 a       150     0     8     1    10
  9.5800482983163260E+00 a       151     0     8     1    11
  1.8209139171480615E+00 a       152     0     8     1    12
 -8.4565194760902109E+00 a       153     0     8     1    13
  4.8306432670663684E+00 a       154     0     8     1    14
  5.9174625942615826E+00 a       155     0     8     1    15
  9.4390651703896165E+00 a       156     0     8     1    16
 -1.3512803273516678E+00 a       157     0     8     1    17
  4.5734245836988210E+00 a       158     0     8     1    18
  8.3893637836082302E+00 a       159     0     8     1    19
 -1.7269924942411070E+01 a       160     0     8     1    20
  3.9250396294720535E+00 a       161     0     9     1     1
  3.2429435835733300E+00 a       162     0     9     1     2
 -5.5810866640731858E+00 a       163     0     9     1     3
 -1.0976967069672798E+00 a       164     0     9     1     4
 -5.7967989158928042E+00 a       165     0     9     1     5
 -7.1910476900880838E+00 a       166     0     9     1     6
  6.7853623562982799E+00 a       167     0     9     1     7
 -1.0120054112783510E+01 a       168     0     9     1     8
  2.9784421460386357E+00 a       169     0     9     1     9
 -8.7520617507745655E+00 a       170     0     9     1    10
  2.0086109132380251E+01 a       171     0     9     1    11
 -3.1849804031126601E+00 a       172     0     9     1    12
  1.2069986267239317E+01 a       173     0     9     1    13
  9.8803841162609061E+00 a       174     0     9     1    14
 -2.2829805925553623E+00 a       175     0     9     1    15
 -3.1836823832975356E+00 a       176     0     9     1    16
 -8.3271456445784491E+00 a       177     0     9     1    17
 -7.8714781578001114E+00 a       178     0     9     1    18
 -6.6602774922844166E-02 a       179     0     9     1    19
 -1.8620262334774698E+00 a       180     0     9     1    20
  4.8664036955740420E+00 a       181     0    10     1     1
 -8.2190118807991759E+00 a       182     0    10     1     2
  6.2169896688609114E+00 a       183     0    10     1     3
 -3.0365708806897862E+00 a       184     0    10     1     4
 -9.3566490035041063E+00 a       185     0    10     1     5
  4.6877806373058286E+00 a       186     0    10     1     6
  6.9318959917203715E+00 a       187     0    10     1     7
 -1.6914577467624653E+01 a       188     0    10     1     8
  7.4198096545444798E+00 a       189     0    10     1     9
 -1.4745914125451694E+01 a       190     0    10     1    10
 -6.2867228741060490E+00 a       191     0    10     1    11
  1.9037236089162732E+01 a       192     0    10     1    12
 -1.1658483368362871E+01 a       193     0    10     1    13
 -6.0900372472489135E+00 a       194     0    10     1    14
  5.6411562294396029E+00 a       195     0    10     1    15
  4.0997510695054391E+00 a       196     0    10     1    16
  8.6737790452896739E+00 a       197     0    10     1    17
 -3.9159028678267256E+00 a       198     0    10     1    18
  7.2287555794732672E+00 a       199     0    10     1    19
  2.4179122136557116E+00 a       200     0    10     1    20
  8.1603118504798093E+00 a       201     0    11     1     1
 -3.9041045880255423E+00 a       202     0    11     1     2
  5.3338586077797112E+00 a       203     0    11     1     3
  4.9065712922453897E-01 a       204     0    11     1     4
  1.3874348029293271E+00 a       205     0    11     1     5
 -4.2521147962866435E+00 a       206     0    11     1     6
  2.4157725662986316E+00 a       207     0    11     1     7
  2.2236324506516915E+01 a       208     0    11     1     8
 -2.4257521879555766E+00 a       209     0    11     1     9
  1.0299782490196842E+01 a       210     0    11     1    10
 -2.1850543300323508E+00 a       211     0    11     1    11
  5.9105991628259122E+00 a       212     0    11     1    12
 -1.4189985684840895E+01 a       213     0    11     1    13
  1.5583006718374612E+00 a       214     0    11     1    14
  2.3770070769972493E+00 a       215     0    11     1    15
 -1.3800066128294757E+00 a       216     0    11     1    16
  1.1039337364640817E+01 a       217     0    11     1    17
 -2.5617941840990701E+00 a       218     0    11     1    18
  1.2321716901609946E+01 a       219     0    11     1    19
 -3.5128729793112003E+00 a       220     0    11     1    20
  3.0959460176473702E-01 a       221     0    12     1     1
  1.1388406702290728E+00 a       222     0    12     1     2
  9.7314080763234028E+00 a       223     0    12     1     3
  2.8932912817053507E+00 a       224     0    12     1     4
 -1.4004825942980849E+01 a       225     0    12     1     5
 -8.2625487032131932E+00 a       226     0    12     1     6
 -8.6940054106503570E+00 a       227     0    12     1     7
 -1.1810279059930068E+01 a       228     0    12     1     8
 -9.8063688266804867E+00 a       229     0    12     1     9
  6.3220748126641704E+00 a       230     0    12     1    10
 -3.5571460220399307E+00 a       231     0    12     1    11
  6.3605542290065706E+00 a       232     0    12     1    12
  9.8252548695217108E+00 a       233     0    12     1    13
 -3.7815491916076658E+00 a       234     0    12     1    14
  3.6605033363871544E+00 a       235     0    12     1    15
 -5.2751740268786724E+00 a       236     0    12     1    16
 -1.6556242960421810E+00 a       237     0    12     1    17
  5.5582328596600963E+00 a       238     0    12     1    18
 -1.3528539110611700E+01 a       239     0    12     1    19
  3.1216546794657489E+00 a       240     0    12     1    20
  1.2789237766669340E+01 a       241     0    13     1     1
 -1.0789939607720280E+01 a       242     0    13     1     2
  3.9931015291806728E+00 a       243     0    13     1     3
 -8.1339876209345867E+00 a       244     0    13     1     4
 -9.6492586261551399E+00 a       245     0    13     1     5
 -2.8926625437532647E+00 a       246     0    13     1     6
 -1.1050649243710103E+01 a       247     0    13     1     7
 -3.0173654919194213E+01 a       248     0    13     1     8
  4.8103143494410801E+01 a       249     0    13     1     9
 -3.4348086296512079E+01 a       250     0    13     1    10
 -3.1830749207538407E+01 a       251     0    13     1    11
 -1.5061528284307453E+01 a       252     0    13     1    12
  1.0878838778846514E+01 a       253     0    13     1    13
 -2.4083802207150722E+01 a       254     0    13     1    14
  2.2760211779251879E+01 a       255     0    13     1    15
 -6.7537465342445835E-01 a       256     0    13     1    16
 -1.3456064596750609E+01 a       257     0    13     1    17
  8.7072542111321383E+00 a       258     0    13     1    18
  6.6635722090398311E+00 a       259     0    13     1    19
 -7.6941820890948938E+00 a       260     0    13     1    20
 -3.0835168124563808E+00 a       261     0    14     1     1
  2.8496629127288657E+00 a       262     0    14     1     2
 -3.7293561798419952E+00 a       263     0    14     1     3
 -3.9875179931987859E+00 a       264     0    14     1     4
  1.2693113071422038E+01 a       265     0    14     1     5
  1.3297316827964123E+01 a       266     0    14     1     6
 -7.6034997619737350E+00 a       267     0    14     1     7
  4.0081675951096161E+00 a       268     0    14     1     8
 -3.5760202839705046E+00 a       269     0    14     1     9
  7.7797201044268434E+00 a       270     0    14     1    10
 -1.5297101938483252E+01 a       271     0    14     1    11
 -1.0907531045404006E+01 a       272     0    14     1    12
 -4.5401708066109299E+00 a       273     0    14     1    13
  3.5646269638596690E+00 a       274     0    14     1    14
  1.6306238511900462E+00 a       275     0    14     1    15
 -3.2296452941288041E+00 a       276     0    14     1    16
 -4.0272638621094120E-01 a       277     0    14     1    17
  8.1103563590560181E+00 a       278     0    14     1    18
 -2.9959903022104246E+00 a       279     0    14     1    19
  1.1565275527514801E+01 a       280     0    14     1    20
 -2.3453634846450690E+01 a       281     0    15     1     1
 -4.5786257432915922E-01 a       282     0    15     1     2
 -2.1818331902041511E+01 a       283     0    15     1     3
  1.6341862227870351E+01 a       284     0    15     1     4
  3.6551897141895613E+00 a       285     0    15     1     5
 -4.8753374691726279E+00 a       286     0    15     1     6
 -3.3550749469504261E+01 a       287     0    15     1     7
  2.0604118569891920E+01 a       288     0    15     1     8
 -1.3882059503925694E+01 a       289     0    15     1     9
 -1.9598038899066495E+01 a       290     0    15     1    10
  6.2332091347493279E-01 a       291     0    15     1    11
  1.9138109409631475E+01 a       292     0    15     1    12
  5.4554527986601684E+01 a       293     0    15     1    13
  5.5120604840529950E+00 a       294     0    15     1    14
 -6.0122000454483859E-01 a       295     0    15     1    15
  9.6515779512912084E-02 a       296     0    15     1    16
  3.9235887180043605E+00 a       297     0    15     1    17
  7.9316907438515747E+00 a       298     0    15     1    18
  3.0892997483227372E+01 a       299     0    15     1    19
 -4.7842791679081191E+00 a       300     0    15     1    20
 -3.6101846264814932E+00 a       301     0    16     1     1
  5.0276991328005920E+00 a       302     0    16     1     2
 -2.8692735777456848E+00 a       303     0    16     1     3
 -3.9781766027994632E+00 a       304     0    16     1     4
  1.5215498244858882E+01 a       305     0    16     1     5
  1.7149286763563289E+01 a       306     0    16     1     6
 -5.1465371422220425E+00 a       307     0    16     1     7
  5.5737822325593278E+00 a       308     0    16     1     8
  5.5177737880954707E+00 a       309     0    16     1     9
  2.2393203823058911E+00 a       310     0    16     1    10
 -2.3361820279077097E-01 a       311     0    16     1    11
 -4.0674865866401486E+00 a       312     0    16     1    12
 -9.6973561183677202E+00 a       313     0    16     1    13
  8.1657743996816272E+00 a       314     0    16     1    14
  3.1097550424477149E+00 a       315     0    16     1    15
 -5.6693477502127374E+00 a       316     0    16     1    16
  6.0811165699435998E-01 a       317     0    16     1    17
  6.4549924074348644E+00 a       318     0    16     1    18
 -4.2698070139178892E+00 a       319     0    16     1    19
  7.8840103954283665E+00 a       320     0    16     1    20
 -2.7747053755950906E+00 a       321     0    17     1     1
 -2.9063342521199406E+01 a       322     0    17     1     2
 -9.6932899744123482E+00 a       323     0    17     1     3
 -1.3886166501607370E+01 a       324     0    17     1     4
  4.6235316868859968E+00 a       325     0    17     1     5
  1.8429127346717122E-01 a       326     0    17     1     6
 -2.4573482203759145E+00 a       327     0    17     1     7
 -1.2307898456727644E+01 a       328     0    17     1     8
  1.7151761352932366E+00 a       329     0    17     1     9
  2.0265457491294626E+01 a       330     0    17     1    10
 -6.2599856380926635E+00 a       331     0    17     1    11
 -6.1263743330101503E+00 a       332     0    17     1    12
 -2.8968384732662891E+01 a       333     0    17     1    13
 -1.9475421638394838E+01 a       334     0    17     1    14
 -5.7971026887270272E+00 a       335     0    17     1    15
 -1.7965770893477831E+01 a       336     0    17     1    16
  2.5578813192751664E+01 a       337     0    17     1    17
  3.4014456991034092E+00 a       338     0    17     1    18
 -1.0071938610338695E+01 a       339     0    17     1    19
  8.3922453558365753E+00 a       340     0    17     1    20
 -9.2088907708978560E+00 a       341     0    18     1     1
  3.2149027642787344E+00 a       342     0    18     1     2
 -2.3646576211783362E+01 a       343     0    18     1     3
  9.2975601984719858E-01 a       344     0    18     1     4
  6.4242246993995060E+00 a       345     0    18     1     5
 -8.5532745936874865E-01 a       346     0    18     1     6
  2.4280337847517320E+01 a       347     0    18     1     7
  1.3114861844208543E+01 a       348     0    18     1     8
  1.7352412362631700E+01 a       349     0    18     1     9
 -2.7565185888404329E+01 a       350     0    18     1    10
 -8.2693094212288436E+00 a       351     0    18     1    11
  6.2591111628892238E+00 a       352     0    18     1    12
  9.5563417179654611E+00 a       353     0    18     1    13
  3.0634852216096544E+01 a       354     0    18     1    14
  2.0279003180416701E+01 a       355     0    18     1    15
  6.3279203620488964E+00 a       356     0    18     1    16
  4.9776698797305947E+00 a       357     0    18     1    17
 -3.6154528347605464E+00 a       358     0    18     1    18
 -1.0794364106342153E+01 a       359     0    18     1    19
 -1.0313605737940055E+01 a       360     0    18     1    20
 -3.7111125507652418E+00 a       361     0    19     1     1
  3.0674150038236981E+01 a       362     0    19     1     2
 -1.6874494250461964E+01 a       363     0    19     1     3
 -4.4200975938853846E+00 a       364     0    19     1     4
  1.9538465219189003E+01 a       365     0    19     1     5
 -2.3322687212010798E+01 a       366     0    19     1     6
 -4.3169659130970075E+00 a       367     0    19     1     7
  3.8951639632128119E+00 a       368     0    19     1     8
  1.6902611021714215E+01 a       369     0    19     1     9
  1.8399103618739161E+01 a       370     0    19     1    10
 -3.2286623545535669E+01 a       371     0    19     1    11
 -1.8798481759758918E+01 a       372     0    19     1    12
  2.5303714591596429E+00 a       373     0    19     1    13
  2.8574682952614833E-01 a       374     0    19     1    14
 -1.4841504741658331E+00 a       375     0    19     1    15
  5.4667019583131022E+00 a       376     0    19     1    16
  2.0192302709337445E-02 a       377     0    19     1    17
  9.4376861666228837E+00 a       378     0    19     1    18
 -2.6940951823730096E+01 a       379     0    19     1    19
  5.8010018629793314E-01 a       380     0    19     1    20
  2.8454605311633021E+01 a       381     0    20     1     1
  1.6056440992604216E+01 a       382     0    20     1     2
  1.3917225121990562E+01 a       383     0    20     1     3
 -1.0053267666428749E+01 a       384     0    20     1     4
  1.2684803790052433E+01 a       385     0    20     1     5
 -1.2082080800157131E+01 a       386     0    20     1     6
 -1.1561250943124280E+01 a       387     0    20     1     7
  1.7720381595189622E+01 a       388     0    20     1     8
 -5.3404088716115599E+00 a       389     0    20     1     9
 -4.4691508771910101E+01 a       390     0    20     1    10
 -2.3861915078294031E+00 a       391     0    20     1    11
  6.7106770640174931E+00 a       392     0    20     1    12
  1.4145590361633925E+01 a       393     0    20     1    13
  2.3707896165195681E+01 a       394     0    20     1    14
 -1.2915340911120621E+01 a       395     0    20     1    15
 -2.1364880633497609E+01 a       396     0    20     1    16
 -1.2865343728528982E+01 a       397     0    20     1    17
  3.0550635444579001E+01 a       398     0    20     1    18
  1.3134713518003361E+01 a       399     0    20     1    19
 -1.2229482612911804E+00 a       400     0    20     1    20
 -3.1963702525193646E+01 a       401     0    21     1     1
 -7.6641555602354412E+00 a       402     0    21     1     2
  3.6594482526209077E+01 a       403     0    21     1     3
 -2.2516876119215087E+01 a       404     0    21     1     4
 -2.8933602897672723E+00 a       405     0    21     1     5
 -1.2258622762237922E+01 a       406     0    21     1     6
 -2.8494314164303958E+01 a       407     0    21     1     7
 -4.2051914096642030E+01 a       408     0    21     1     8
 -1.0765638161009745E+01 a       409     0    21     1     9
 -6.5839607957008424E+00 a       410     0    21     1    10
  5.5679916457953329E+00 a       411     0    21     1    11
 -1.3779206019777584E+01 a       412     0    21     1    12
 -2.0510658407169799E+01 a       413     0    21     1    13
 -1.1760201919406496E+01 a       414     0    21     1    14
  6.0146852687640360E+00 a       415     0    21     1    15
  3.3914844252490175E+00 a       416     0    21     1    16
 -4.1173957456073289E+01 a       417     0    21     1    17
  1.1894886072054877E+01 a       418     0    21     1    18
  6.2427758262557367E+00 a       419     0    21     1    19
 -7.7078364406125619E+00 a       420     0    21     1    20
  1.1534490333205600E+01 a       421     0    22     1     1
 -1.6291321788376131E+01 a       422     0    22     1     2
  2.6595112831465149E+00 a       423     0    22     1     3
  9.7715778705498124E+00 a       424     0    22     1     4
 -1.7206737694871222E+01 a       425     0    22     1     5
  2.9608911831858649E+01 a       426     0    22     1     6
  2.2892280333162084E+01 a       427     0    22     1     7
  1.3771919601657695E+01 a       428     0    22     1     8
  3.8270676032899695E+00 a       429     0    22     1     9
 -1.5506869501107015E+01 a       430     0    22     1    10
 -2.8097313331957533E+01 a       431     0    22     1    11
  3.3172856491887579E+01 a       432     0    22     1    12
 -2.1126358315320410E+01 a       433     0    22     1    13
 -1.6312038162134805E+01 a       434     0    22     1    14
 -2.2014885217129418E+01 a       435     0    22     1    15
 -6.8027398171310933E+00 a       436     0    22     1    16
  1.4326879382539083E+01 a       437     0    22     1    17
  1.0509307710724402E+01 a       438     0    22     1    18
  1.4665651639982231E+01 a       439     0    22     1    19
  3.7468749748172083E+00 a       440     0    22     1    20
  2.4698582449144965E+01 a       441     0    23     1     1
  1.2231152091193950E+01 a       442     0    23     1     2
  2.2690271432185263E-01 a       443     0    23     1     3
 -4.2362511457334501E-01 a       444     0    23     1     4
  6.7793801347776110E+00 a       445     0    23     1     5
  8.0012888196507532E+00 a       446     0    23     1     6
  2.6556108187332175E+00 a       447     0    23     1     7
  3.8865906051866932E+00 a       448     0    23     1     8
  1.3202342629949491E+01 a       449     0    23     1     9
 -9.2066969036233299E+00 a       450     0    23     1    10
 -9.2135796379741119E+00 a       451     0    23     1    11
  3.3243330324314769E+01 a       452     0    23     1    12
  7.6782131890516581E-01 a       453     0    23     1    13
 -1.4383087268239107E+01 a       454     0    23     1    14
  2.6887012032662856E+01 a       455     0    23     1    15
  5.5918839406960812E+00 a       456     0    23     1    16
 -2.4955855377022843E+01 a       457     0    23     1    17
  1.3129999760766401E+01 a       458     0    23     1    18
 -4.3338975584924881E+00 a       459     0    23     1    19
 -1.8640344972571519E+00 a       460     0    23     1    20
 -1.9133838306313478E+01 a       461     0    24     1     1
 -7.4285302858474385E+00 a       462     0    24     1     2
 -2.2681521685150066E+00 a       463     0    24     1     3
  9.4439028928171154E-01 a       464     0    24     1     4
 -1.0171735305801754E+01 a       465     0    24     1     5
 -2.7525894023212238E+00 a       466     0    24     1     6
 -1.7599762068236423E+01 a       467     0    24     1     7
  2.2296242601920653E+01 a       468     0    24     1     8
  1.1623347157283195E+01 a       469     0    24     1     9
  1.8419970003694953E+01 a       470     0    24     1    10
 -1.2428694630180543E+01 a       471     0    24     1    11
 -1.8134839283273081E+01 a       472     0    24     1    12
 -1.3997891372186699E+00 a       473     0    24     1    13
 -1.9520912319026622E+00 a       474     0    24     1    14
 -3.0425553466669172E+01 a       475     0    24     1    15
 -1.2763492577133633E+01 a       476     0    24     1    16
  2.1266511381433435E+01 a       477     0    24     1    17
  2.6567828599655079E+00 a       478     0    24     1    18
  4.5673298429718132E+00 a       479     0    24     1    19
  9.4512322076649919E+00 a       480     0    24     1    20
 -7.8905624968996992E+00 a       481     0    25     1     1
 -5.1814637002143131E+00 a       482     0    25     1     2
  1.8474654225790516E+01 a       483     0    25     1     3
 -2.7180944958283253E+00 a       484     0    25     1     4
 -5.6129291370898562E+00 a       485     0    25     1     5
  2.1597251169593168E+00 a       486     0    25     1     6
 -8.2258636583940739E+00 a       487     0    25     1     7
 -9.6127813920858749E+00 a       488     0    25     1     8
 -1.9678415740968479E+01 a       489     0    25     1     9
 -8.0185314856967285E+00 a       490     0    25     1    10
  1.9435399933822520E+01 a       491     0    25     1    11
 -1.0873769853951593E+01 a       492     0    25     1    12
 -6.4868149710202951E+00 a       493     0    25     1    13
  5.7814834049760311E+00 a       494     0    25     1    14
  9.2209261801307214E+00 a       495     0    25     1    15
  6.0118125392097319E+00 a       496     0    25     1    16
  3.2894465770914612E+00 a       497     0    25     1    17
 -1.2986055221339873E+01 a       498     0    25     1    18
 -2.7916719495366409E+00 a       499     0    25     1    19
 -4.3077933726993676E+00 a       500     0    25     1    20
 -2.2640657475928062E+01 a       501     0    26     1     1
  2.0329651231278594E+00 a       502     0    26     1     2
 -2.7206869534924536E+01 a       503     0    26     1     3
  2.2439042832455673E+01 a       504     0    26     1     4
 -1.5114480477272533E+01 a       505     0    26     1     5
  6.2166272101727413E+00 a       506     0    26     1     6
  1.4484940533738849E+01 a       507     0    26     1     7
  1.9502909970542797E+00 a       508     0    26     1     8
  2.2589522108147531E+00 a       509     0    26     1     9
  1.5846823410677910E+01 a       510     0    26     1    10
  1.2002200463699149E+00 a       511     0    26     1    11
 -6.5986043500751306E+00 a       512     0    26     1    12
  6.1873144039439859E-02 a       513     0    26     1    13
 -5.9531553163628885E+00 a       514     0    26     1    14
  1.5403204547541060E+01 a       515     0    26     1    15
  1.7468359728065799E+01 a       516     0    26     1    16
  1.6921848458732708E+01 a       517     0    26     1    17
 -1.7972326195094848E+01 a       518     0    26     1    18
 -9.1601305734274874E+00 a       519     0    26     1    19
  4.4104984223475654E+00 a       520     0    26     1    20
  5.4903996107157367E+00 a       521     0    27     1     1
  1.9581834208579675E+01 a       522     0    27     1     2
 -2.9314817397366317E-02 a       523     0    27     1     3
 -1.0200883500500748E+01 a       524     0    27     1     4
  1.0953927541504351E+01 a       525     0    27     1     5
  3.5889161175049589E+00 a       526     0    27     1     6
  2.4533017118106049E+01 a       527     0    27     1     7
  2.1728465534385361E+01 a       528     0    27     1     8
 -5.7651333698112905E+00 a       529     0    27     1     9
 -3.0997915514225955E+01 a       530     0    27     1    10
 -1.9085256549049653E+01 a       531     0    27     1    11
 -2.0532699502302196E+00 a       532     0    27     1    12
  4.9819991705154800E+00 a       533     0    27     1    13
  8.8293032358985997E+00 a       534     0    27     1    14
  6.9743304716533698E+00 a       535     0    27     1    15
 -3.5712407105412662E+00 a       536     0    27     1    16
  3.1016709317305978E+01 a       537     0    27     1    17
 -5.8874066863035122E+00 a       538     0    27     1    18
 -1.8631492909609698E+01 a       539     0    27     1    19
  2.3931206951434191E+01 a       540     0    27     1    20
 -2.3695766847811690E+00 a       541     0    28     1     1
  3.7116198377069596E+00 a       542     0    28     1     2
 -3.2390711848723100E+01 a       543     0    28     1     3
  1.3032174232949586E+01 a       544     0    28     1     4
 -4.4659996566571385E+00 a       545     0    28     1     5
 -2.4702932079561524E+01 a       546     0    28     1     6
 -3.2253177014466267E+01 a       547     0    28     1     7
 -2.3378597049567912E+01 a       548     0    28     1     8
 -1.2955816518828787E+01 a       549     0    28     1     9
 -1.2576014786279506E+01 a       550     0    28     1    10
  9.4126228424511815E+00 a       551     0    28     1    11
 -1.1167419922606962E+01 a       552     0    28     1    12
  1.1283707927986120E+01 a       553     0    28     1    13
 -1.6288981030046465E+01 a       554     0    28     1    14
 -4.9965264102389533E+00 a       555     0    28     1    15
  1.0181803903305278E+01 a       556     0    28     1    16
  9.6243222164511755E-01 a       557     0    28     1    17
  1.6203204266269974E+01 a       558     0    28     1    18
 -1.1276642338989248E+01 a       559     0    28     1    19
  2.4079776887340127E+00 a       560     0    28     1    20
 -1.1762444305447582E+01 a       561     0    29     1     1
  1.4861172716577546E+01 a       562     0    29     1     2
  9.9002643625506206E+00 a       563     0    29     1     3
 -2.0894948347871072E+01 a       564     0    29     1     4
 -7.8820302993580169E+00 a       565     0    29     1     5
  1.2618958736299385E+01 a       566     0    29     1     6
 -7.2386840177682696E+00 a       567     0    29     1     7
  1.6676342424767772E+00 a       568     0    29     1     8
  1.8387697942752009E+01 a       569     0    29     1     9
 -2.9939981009840739E+01 a       570     0    29     1    10
  1.6206089759185989E+01 a       571     0    29     1    11
 -1.5925070553331199E+01 a       572     0    29     1    12
 -3.5038847117684595E+00 a       573     0    29     1    13
  1.3611053855291559E+01 a       574     0    29     1    14
  3.4958084333306466E+01 a       575     0    29     1    15
  2.3857712088575767E+01 a       576     0    29     1    16
 -1.9673996385483697E+01 a       577     0    29     1    17
  1.1956503741377855E+01 a       578     0    29     1    18
 -1.9809467864969942E+01 a       579     0    29     1    19
  9.8504455326865947E-01 a       580     0    29     1    20
  2.1660562368145642E+00 a       581     0    30     1     1
 -1.4560068983213819E+01 a       582     0    30     1     2
 -6.4193794721277113E+00 a       583     0    30     1     3
  1.5398227202265213E+01 a       584     0    30     1     4
  2.7633070322693726E+01 a       585     0    30     1     5
 -4.5845107071169955E-01 a       586     0    30     1     6
  4.3534053328439644E+00 a       587     0    30     1     7
 -2.2386861000101497E+01 a       588     0    30     1     8
  1.7813883652197116E+00 a       589     0    30     1     9
 -1.7185034365902347E+01 a       590     0    30     1    10
  2.5508673709414989E+01 a       591     0    30     1    11
 -9.3254683137170336E+00 a       592     0    30     1    12
  5.5200807192283170E+00 a       593     0    30     1    13
 -3.9753936483649085E+01 a       594     0    30     1    14
 -1.6726454124027221E+01 a       595     0    30     1    15
 -2.8771701655380308E+01 a       596     0    30     1    16
  1.3599511017677388E+01 a       597     0    30     1    17
  3.7554302660719281E+00 a       598     0    30     1    18
 -2.8643834005683942E+01 a       599     0    30     1    19
 -7.4640664335057538E+00 a       600     0    30     1    20
  1.5570638497771441E+01 a       601     0    31     1     1
  1.6142698001556845E+01 a       602     0    31     1     2
  1.6742600479849148E+01 a       603     0    31     1     3
 -2.3208859666923991E+00 a       604     0    31     1     4
 -7.3556443523355535E+00 a       605     0    31     1     5
  2.5575345009663106E+01 a       606     0    31     1     6
 -3.3572405480828898E+01 a       607     0    31     1     7
  8.9755975460175517E+00 a       608     0    31     1     8
 -8.9262325907280164E+00 a       609     0    31     1     9
 -2.4078390170725790E+01 a       610     0    31     1    10
  6.5887683785774325E+00 a       611     0    31     1    11
  2.2233365155602055E+01 a       612     0    31     1    12
  3.5031464405995787E+00 a       613     0    31     1    13
 -1.7515279226961278E+00 a       614     0    31     1    14
  3.6663136508522474E+00 a       615     0    31     1    15
 -5.6865217007730635E+00 a       616     0    31     1    16
 -1.2174263421262035E+01 a       617     0    31     1    17
  2.0321691804259849E+00 a       618     0    31     1    18
 -2.2906070258241517E+01 a       619     0    31     1    19
 -1.5637523287564019E+00 a       620     0    31     1    20
  1.1981985261007968E+00 a       621     0    32     1     1
 -1.6817258195375180E+00 a       622     0    32     1     2
 -3.6542599459997054E+00 a       623     0    32     1     3
  2.9258455607730188E+01 a       624     0    32     1     4
  6.5530172287728727E-01 a       625     0    32     1     5
  1.1001554760058523E+01 a       626     0    32     1     6
  1.9372216170466782E+01 a       627     0    32     1     7
  2.6822799165784081E+00 a       628     0    32     1     8
  5.4804546919838146E-02 a       629     0    32     1     9
 -9.3091983275361798E+00 a       630     0    32     1    10
 -2.9812455044740645E+01 a       631     0    32     1    11
  1.0018763750362853E+01 a       632     0    32     1    12
  4.8750679665812484E+00 a       633     0    32     1    13
 -2.8521384402208337E+01 a       634     0    32     1    14
 -3.5971339292031477E+00 a       635     0    32     1    15
  5.4908242771433518E+00 a       636     0    32     1    16
 -2.3366560788768256E+00 a       637     0    32     1    17
 -1.9925606510268540E+01 a       638     0    32     1    18
 -1.1157554556361092E+01 a       639     0    32     1    19
 -1.6385882381422423E+01 a       640     0    32     1    20
  6.0786677253770272E+00 a       641     0    33     1     1
 -1.9003597130824076E+01 a       642     0    33     1     2
 -1.2182140609089236E+01 a       643     0    33     1     3
 -9.7272441310651576E+00 a       644     0    33     1     4
 -9.2845882773110766E+00 a       645     0    33     1     5
 -2.8476122998995642E+01 a       646     0    33     1     6
  5.1004698102789430E+00 a       647     0    33     1     7
  7.4327875490240745E+00 a       648     0    33     1     8
  1.5022815752173102E+00 a       649     0    33     1     9
  4.6252229438668437E+01 a       650     0    33     1    10
 -2.8919015916242179E+00 a       651     0    33     1    11
  2.0626964914313959E+01 a       652     0    33     1    12
 -7.9312480486636092E+00 a       653     0    33     1    13
  3.3408589691750743E+00 a       654     0    33     1    14
 -5.5006181013030835E+00 a       655     0    33     1    15
  2.9656808524729468E+00 a       656     0    33     1    16
 -5.5435078852920683E-01 a       657     0    33     1    17
  2.2387553897292541E+01 a       658     0    33     1    18
  3.6104469110736113E+00 a       659     0    33     1    19
  9.7330496340326411E-01 a       660     0    33     1    20
 -1.0674567132561531E+01 a       661     0    34     1     1
 -1.4924873212766968E+01 a       662     0    34     1     2
  3.0872399601539303E+01 a       663     0    34     1     3
 -4.4795061221002701E+00 a       664     0    34     1     4
  1.2524869596211333E+01 a       665     0    34     1     5
 -6.9076272764305200E+00 a       666     0    34     1     6
  3.4568801760189758E+00 a       667     0    34     1     7
  1.7741065871979451E+01 a       668     0    34     1     8
 -5.4673035605977489E+00 a       669     0    34     1     9
  3.1291578131379396E+01 a       670     0    34     1    10
 -1.0591818189011784E+01 a       671     0    34     1    11
 -1.3072280380148181E+01 a       672     0    34     1    12
  7.3787132627523633E+00 a       673     0    34     1    13
  2.0175443687237582E+01 a       674     0    34     1    14
  1.1450544229226105E+00 a       675     0    34     1    15
 -1.1338079361332019E+01 a       676     0    34     1    16
  1.5007679062474672E+01 a       677     0    34     1    17
 -2.0840087545074651E-01 a       678     0    34     1    18
 -7.6683821171807747E+00 a       679     0    34     1    19
  3.1442956091214700E+01 a       680     0    34     1    20
 -5.9900184648152770E+00 a       681     0    35     1     1
  1.0288572046507772E+01 a       682     0    35     1     2
  5.1969179653740589E+00 a       683     0    35     1     3
  6.2282843119882880E+00 a       684     0    35     1     4
  9.8632027106909703E+00 a       685     0    35     1     5
  1.6603990898781735E+00 a       686     0    35     1     6
 -7.2699531936669031E+00 a       687     0    35     1     7
  1.3726599778764424E+01 a       688     0    35     1     8
 -1.0235179337504574E+01 a       689     0    35     1     9
  1.1583817069409676E+01 a       690     0    35     1    10
  1.5989479017047825E+00 a       691     0    35     1    11
  3.9672109531511603E+00 a       692     0    35     1    12
 -4.6202329284482220E+00 a       693     0    35     1    13
  4.3536200636996609E+00 a       694     0    35     1    14
 -7.5304661195284908E+00 a       695     0    35     1    15
  1.1487894016413032E+01 a       696     0    35     1    16
  1.1138084141971945E+01 a       697     0    35     1    17
 -3.7853728171333367E+00 a       698     0    35     1    18
 -6.0600763777659141E+00 a       699     0    35     1    19
  1.2321928996107154E+01 a       700     0    35     1    20
 -1.7987022331747933E+00 a       701     0    36     1     1
 -8.3243608507729547E+00 a       702     0    36     1     2
 -2.0292019293744623E+00 a       703     0    36     1     3
 -4.2806688812641704E+00 a       704     0    36     1     4
 -2.5729480827202185E+00 a       705     0    36     1     5
  1.3675466325138331E+01 a       706     0    36     1     6
  1.2470434679355979E+00 a       707     0    36     1     7
  1.0302334194783816E+01 a       708     0    36     1     8
 -1.1951092983461759E+01 a       709     0    36     1     9
  1.6107237080606682E+00 a       710     0    36     1    10
  2.6791701119122944E+01 a       711     0    36     1    11
 -1.1708515628034023E+01 a       712     0    36     1    12
  1.2656305846806376E+01 a       713     0    36     1    13
  1.3290637160533098E+01 a       714     0    36     1    14
  1.6202757517758318E+01 a       715     0    36     1    15
 -9.0741288685689145E+00 a       716     0    36     1    16
 -8.1214641525397564E+00 a       717     0    36     1    17
  1.5699807233459204E+00 a       718     0    36     1    18
  2.7536376427826166E+01 a       719     0    36     1    19
 -1.1454122867379459E+01 a       720     0    36     1    20
  4.0520099695767167E+00 a       721     0    37     1     1
  1.0031496339531556E+00 a       722     0    37     1     2
 -8.6401132115918902E+00 a       723     0    37     1     3
 -4.3641845436617261E+00 a       724     0    37     1     4
  3.0568579028559117E+00 a       725     0    37     1     5
 -5.1276958866345543E+00 a       726     0    37     1     6
  8.5963663142703464E+00 a       727     0    37     1     7
  1.4394736832807759E+01 a       728     0    37     1     8
  1.0724003371558615E+01 a       729     0    37     1     9
 -3.4881609808908753E+00 a       730     0    37     1    10
 -4.4788909338339380E+01 a       731     0    37     1    11
  2.0928225273657524E+01 a       732     0    37     1    12
  1.2443903683038673E+01 a       733     0    37     1    13
  9.9721927699116775E-01 a       734     0    37     1    14
 -1.8127637334437562E+01 a       735     0    37     1    15
 -9.6070383756519444E+00 a       736     0    37     1    16
 -9.4259661125710270E+00 a       737     0    37     1    17
  7.7673587334755636E+00 a       738     0    37     1    18
 -9.4493305866525752E+00 a       739     0    37     1    19
  1.1436461534326202E+01 a       740     0    37     1    20
  1.5470393654164871E+01 a       741     0    38     1     1
 -4.7789488634313643E-01 a       742     0    38     1     2
  7.9972592040798256E+00 a       743     0    38     1     3
 -9.6710947582586364E+00 a       744     0    38     1     4
  1.2745845188771113E+01 a       745     0    38     1     5
 -7.7348539839953769E+00 a       746     0    38     1     6
 -8.2978499452756207E+00 a       747     0    38     1     7
 -1.5659683252078688E+01 a       748     0    38     1     8
 -4.4125263478692629E+00 a       749     0    38     1     9
  2.4477651654249094E+01 a       750     0    38     1    10
  2.8525091279152434E+01 a       751     0    38     1    11
 -1.5231665213334157E+01 a       752     0    38     1    12
  2.2866704078487308E+00 a       753     0    38     1    13
  6.2121497653237352E+00 a       754     0    38     1    14
 -1.0497644994297257E+01 a       755     0    38     1    15
 -9.5979473783815958E+00 a       756     0    38     1    16
 -3.7026602651200089E+00 a       757     0    38     1    17
  6.3529554246183988E+00 a       758     0    38     1    18
  8.0012053229359967E+00 a       759     0    38     1    19
 -8.0472739418207073E+00 a       760     0    38     1    20
 -1.5603426682559636E+00 a       761     0    39     1     1
  5.6449064329199681E+00 a       762     0    39     1     2
 -1.3910838335434477E+01 a       763     0    39     1     3
  3.2624871154046701E+01 a       764     0    39     1     4
 -7.2446521388381868E-01 a       765     0    39     1     5
  2.4887516491912898E+01 a       766     0    39     1     6
 -2.2097858507288176E+01 a       767     0    39     1     7
  1.6628624684804191E+01 a       768     0    39     1     8
  4.4316730813204551E-02 a       769     0    39     1     9
  6.0418132776030706E+00 a       770     0    39     1    10
 -2.7564446549202644E+00 a       771     0    39     1    11
 -1.0431292639073524E+00 a       772     0    39     1    12
 -3.2671838368956436E+00 a       773     0    39     1    13
  7.4528552334646907E+00 a       774     0    39     1    14
  6.9453280840999847E+00 a       775     0    39     1    15
 -4.6189516248109763E+00 a       776     0    39     1    16
 -4.9225507448511756E+00 a       777     0    39     1    17
 -3.1905597004357542E+01 a       778     0    39     1    18
  2.3137384513629591E+01 a       779     0    39     1    19
 -1.1050747426506511E+01 a       780     0    39     1    20
  6.4554631313686501E+00 a       781     0    40     1     1
  3.8909934788105653E+00 a       782     0    40     1     2
 -1.1558079161977364E+01 a       783     0    40     1     3
 -1.3280384345832564E+01 a       784     0    40     1     4
 -7.6397561240547871E+00 a       785     0    40     1     5
 -6.3679958557876146E+00 a       786     0    40     1     6
 -1.0377659547835286E+01 a       787     0    40     1     7
 -1.3433093666231299E+01 a       788     0    40     1     8
  3.1670021764123213E+01 a       789     0    40     1     9
 -2.9594105646120701E+00 a       790     0    40     1    10
  1.5462690933052684E+01 a       791     0    40     1    11
 -9.8654333496353637E+00 a       792     0    40     1    12
  1.4408858719553225E+01 a       793     0    40     1    13
 -1.4991843921876530E+01 a       794     0    40     1    14
  5.8743373834550248E+00 a       795     0    40     1    15
 -8.6689666063805753E+00 a       796     0    40     1    16
 -2.8010075645951115E+01 a       797     0    40     1    17
 -3.5257949599852033E+01 a       798     0    40     1    18
  7.8973283991324479E+00 a       799     0    40     1    19
 -3.9837157817639444E+01 a       800     0    40     1    20
  1.2427420531995115E+00 b       801     1     1
  1.2700069632915241E+00 b       802     1     2
 -1.5469048482264944E-01 b       803     1     3
 -1.2218096099054945E+00 b       804     1     4
  1.3848237004814790E+00 b       805     1     5
 -5.4226114544602444E-01 b       806     1     6
  1.7275715973589278E+00 b       807     1     7
  3.2707942462031370E+00 b       808     1     8
 -4.0762246515759443E-01 b       809     1     9
  3.2241134034287535E+00 b       810     1    10
 -8.1451822223145101E+00 b       811     1    11
  4.0233977522406414E+00 b       812     1    12
  2.3957757319906089E-01 b       813     1    13
  1.8245375140784703E-01 b       814     1    14
 -6.1473355251783701E-01 b       815     1    15
 -3.5333386196448224E-01 b       816     1    16
 -2.7552807594452386E+00 b       817     1    17
 -5.2164500903467159E+00 b       818     1    18
  2.4625623069348155E+00 b       819     1    19
  7.5886201027309941E-01 b       820     1    20
 -1.2521141971999652E+01 a       821     1     1     2     1
  4.8630224151375945E+00 a       822     1     1     2     2
  3.2917957182251691E+00 a       823     1     1     2     3
  7.0531581520687159E-01 a       824     1     1     2     4
 -2.5485489769151726E+00 a       825     1     1     2     5
 -9.5226192259623019E+00 a       826     1     1     2     6
 -9.4123628349253039E+00 a       827     1     1     2     7
  1.7752196748927271E+00 a       828     1     1     2     8
 -3.9602353238219057E+00 a       829     1     1     2     9
 -3.9712682699942725E+00 a       830     1     1     2    10
 -1.5560961266441430E+01 a       831     1     1     2    11
  8.0514107981205585E-01 a       832     1     1     2    12
 -1.2744119001274472E+01 a       833     1     1     2    13
 -2.0584661267916096E-01 a       834     1     1     2    14
  1.9813285695760424E-01 a       835     1     1     2    15
  3.1358634251900250E+00 a       836     1     1     2    16
 -1.1437444170601916E+01 a       837     1     1     2    17
  7.2923799645775071E+00 a       838     1     1     2    18
  1.4997586718316933E+00 a       839     1     1     2    19
 -2.1972394906097317E+00 a       840     1     1     2    20
  1.0813977342802607E+01 a       841     1     2     2     1
  7.9451433887434231E-01 a       842     1     2     2     2
  1.2181168560164977E+01 a       843     1     2     2     3
 -2.5777159102682550E+00 a       844     1     2     2     4
  1.5446895852624443E+00 a       845     1     2     2     5
 -3.3444152821214588E+00 a       846     1     2     2     6
 -7.7899420981720882E+00 a       847     1     2     2     7
  5.4871944971545021E+00 a       848     1     2     2     8
  1.4004848129994703E+00 a       849     1     2     2     9
  6.1012970898056791E+00 a       850     1     2     2    10
 -3.5372807616143667E+00 a       851     1     2     2    11
 -4.0642052398183663E+00 a       852     1     2     2    12
 -6.9418569359837585E+00 a       853     1     2     2    13
 -6.5371246831675061E+00 a       854     1     2     2    14
  1.3850113454794810E+01 a       855     1     2     2    15
 -2.3470981421213089E+00 a       856     1     2     2    16
 -5.6830367969470075E+00 a       857     1     2     2    17
 -3.6218675311379243E+00 a       858     1     2     2    18
  8.7462981241766524E+00 a       859     1     2     2    19
  5.0827760298894722E+00 a       860     1     2     2    20
 -1.2669271119266834E+00 a       861     1     3     2     1
  2.0550525734368446E+00 a       862     1     3     2     2
 -2.3733128423527012E+00 a       863     1     3     2     3
  1.8673496887614542E+00 a       864     1     3     2     4
 -2.1940620759598475E+00 a       865     1     3     2     5
  7.6224439603127561E+00 a       866     1     3     2     6
  8.5793261452257330E-01 a       867     1     3     2     7
  2.7464385885175959E+00 a       868     1     3     2     8
  3.3529738889794802E+00 a       869     1     3     2     9
 -1.4735447545381766E+00 a       870     1     3     2    10
 -1.8891873938502322E+00 a       871     1     3     2    11
  1.6710971124133587E+00 a       872     1     3     2    12
  1.2575900145635031E+00 a       873     1     3     2    13
 -2.3444582890831072E+00 a       874     1     3     2    14
  5.1758285165070559E+00 a       875     1     3     2    15
 -8.5219429810805245E+00 a       876     1     3     2    16
  6.1102537756477684E+00 a       877     1     3     2    17
  5.7023551486206152E+00 a       878     1     3     2    18
 -5.7039732659890889E+00 a       879     1     3     2    19
 -3.9878155661804255E+00 a       880     1     3     2    20
 -4.8398342380175263E+00 a       881     1     4     2     1
  2.6972286692993603E+00 a       882     1     4     2     2
  2.5008707971384316E+00 a       883     1     4     2     3
  9.1820212795530642E-01 a       884     1     4     2     4
 -1.3956307181763905E+00 a       885     1     4     2     5
 -7.6794759777503216E+00 a       886     1     4     2     6
  2.2572559716031573E+00 a       887     1     4     2     7
  4.8684210333746227E+00 a       888     1     4     2     8
 -3.4902360585790797E+00 a       889     1     4     2     9
 -1.7731058784066218E+00 a       890     1     4     2    10
  3.3421474357603604E+00 a       891     1     4     2    11
 -3.4948745755283199E+00 a       892     1     4     2    12
 -5.6876375709020346E+00 a       893     1     4     2    13
 -3.2075642292786801E+00 a       894     1     4     2    14
  3.1005743377608916E+00 a       895     1     4     2    15
 -4.2020634095796918E+00 a       896     1     4     2    16
 -2.8662317784370339E+00 a       897     1     4     2    17
  4.6841765023101456E-01 a       898     1     4     2    18
 -6.3038794370047579E+00 a       899     1     4     2    19
  3.1122800507727866E+00 a       900     1     4     2    20
  6.6204604223686916E+00 a       901     1     5     2     1
  1.0419211364710672E+00 a       902     1     5     2     2
 -3.3534464367103798E+00 a       903     1     5     2     3
 -4.2761484462177952E+00 a       904     1     5     2     4
 -1.0898190292367096E-01 a       905     1     5     2     5
  3.1239635528569174E+00 a       906     1     5     2     6
  8.2251780982646174E+00 a       907     1     5     2     7
  7.3336234334305841E+00 a       908     1     5     2     8
 -1.8933038401939997E-01 a       909     1     5     2     9
  4.6474116888272826E-01 a       910     1     5     2    10
 -1.7100193756717204E+00 a       911     1     5     2    11
  5.4896212974311362E+00 a       912     1     5     2    12
  3.8199378895764431E+00 a       913     1     5     2    13
  5.7066494908551748E+00 a       914     1     5     2    14
 -5.2803941787441442E+00 a       915     1     5     2    15
  8.9028909414843351E+00 a       916     1     5     2    16
  9.6667728929008483E+00 a       917     1     5     2    17
 -7.3479719634077634E-01 a       918     1     5     2    18
  4.2001240312436279E+00 a       919     1     5     2    19
 -3.0747855463109066E+00 a       920     1     5     2    20
  8.5109300012342821E+00 a       921     1     6     2     1
  7.2417581202063905E+00 a       922     1     6     2     2
 -3.1670551894715077E-01 a       923     1     6     2     3
 -5.3775050317598172E+00 a       924     1     6     2     4
 -1.4505810704494104E-01 a       925     1     6     2     5
 -8.0545097082270605E+00 a       926     1     6     2     6
  4.6590956757518844E+00 a       927     1     6     2     7
  2.9620384808768478E+00 a       928     1     6     2     8
 -1.2926832545748541E+00 a       929     1     6     2     9
  5.9088425857874638E+00 a       930     1     6     2    10
 -2.2982298564762069E+00 a       931     1     6     2    11
 -3.6493734506595858E+00 a       932     1     6     2    12
  5.6355179930616348E+00 a       933     1     6     2    13
 -3.4262365421512118E+00 a       934     1     6     2    14
 -6.8260021096707160E+00 a       935     1     6     2    15
  1.4404926160919895E+00 a       936     1     6     2    16
 -3.6362120913819451E+00 a       937     1     6     2    17
 -2.6955286795991222E+00 a       938     1     6     2    18
 -2.5137223476249453E+00 a       939     1     6     2    19
 -1.4168071494537957E+00 a       940     1     6     2    20
  1.0967674522369922E+01 a       941     1     7     2     1
  6.3239370702974167E+00 a       942     1     7     2     2
  1.2276738306553709E+00 a       943     1     7     2     3
 -3.6945951810677324E+00 a       944     1     7     2     4
  7.9802918472491706E+00 a       945     1     7     2     5
 -1.1970438670870672E+01 a       946     1     7     2     6
  8.4678362680964288E+00 a       947     1     7     2     7
 -3.3498051298752851E-01 a       948     1     7     2     8
 -5.4580239129273602E+00 a       949     1     7     2     9
  8.4613504575507221E+00 a       950     1     7     2    10
 -1.1164873104305173E+00 a       951     1     7     2    11
  6.4981985921791257E+00 a       952     1     7     2    12
  1.1057157425312143E+01 a       953     1     7     2    13
  4.4611259235435741E+00 a       954     1     7     2    14
 -6.2281415969755933E+00 a       955     1     7     2    15
  1.7877619849659898E+00 a       956     1     7     2    16
 -6.2561955283780861E+00 a       957     1     7     2    17
  1.0597415885134540E+00 a       958     1     7     2    18
  4.9741851959865606E+00 a       959     1     7     2    19
 -8.4794343298031443E+00 a       960     1     7     2    20
  3.6615029595003454E+00 a       961     1     8     2     1
 -3.9044976878375665E-01 a       962     1     8     2     2
 -1.0479628295293115E+00 a       963     1     8     2     3
 -1.7274341832915834E+00 a       964     1     8     2     4
 -1.4561351575435377E+00 a       965     1     8     2     5
 -6.6951285752335221E-01 a       966     1     8     2     6
  2.1755301812777743E+00 a       967     1     8     2     7
 -9.7369102421935416E+00 a       968     1     8     2     8
  2.5751071488319108E+00 a       969     1     8     2     9
  4.9650728922832021E+00 a       970     1     8     2    10
  2.0932899073443370E+00 a       971     1     8     2    11
 -3.1097640115289806E+00 a       972     1     8     2    12
 -5.0828609336072921E+00 a       973     1     8     2    13
  1.2545190091458769E+00 a       974     1     8     2    14
  3.0827999832293469E+00 a       975     1     8     2    15
 -1.7561800718751265E+01 a       976     1     8     2    16
 -6.1434099532136370E+00 a       977     1     8     2    17
  6.1512720266929479E+00 a       978     1     8     2    18
 -7.2938772418583007E+00 a       979     1     8     2    19
  1.3448897536326051E+01 a       980     1     8     2    20
 -1.7412301365887266E+00 a       981     1     9     2     1
 -7.9154691088131734E+00 a       982     1     9     2     2
  1.2954947806599755E+00 a       983     1     9     2     3
 -4.4527233869000096E+00 a       984     1     9     2     4
 -5.7923358322212524E+00 a       985     1     9     2     5
  2.1562864016208723E+00 a       986     1     9     2     6
  1.4659560959939995E+00 a       987     1     9     2     7
  3.3329766924496527E+00 a       988     1     9     2     8
  9.7611508209403630E-01 a       989     1     9     2     9
 -4.3605952855189267E+00 a       990     1     9     2    10
 -1.1481891350530207E+00 a       991     1     9     2    11
  6.6947811384959950E+00 a       992     1     9     2    12
  3.1988271411023099E+00 a       993     1     9     2    13
  3.7400113713365495E+00 a       994     1     9     2    14
 -4.5679643910190615E+00 a       995     1     9     2    15
  2.0046796349070459E+00 a       996     1     9     2    16
  3.5987814111410610E+00 a       997     1     9     2    17
 -1.0077299399681583E+00 a       998     1     9     2    18
 -6.1059671035352192E+00 a       999     1     9     2    19
 -3.4883642272166160E+00 a      1000     1     9     2    20
 -8.9336876276786032E+00 a      1001     1    10     2     1
 -1.3635340463735087E+01 a      1002     1    10     2     2
 -4.9889722244457300E+00 a      1003     1    10     2     3
  8.6492288365578407E+00 a      1004     1    10     2     4
 -2.9012537373799296E+00 a      1005     1    10     2     5
 -9.5868721982676934E+00 a      1006     1    10     2     6
 -9.2762672178415926E+00 a      1007     1    10     2     7
  1.5294228396814249E+01 a      1008     1    10     2     8
  7.0041111612746194E+00 a      1009     1    10     2     9
  9.8354850406194387E+00 a      1010     1    10     2    10
 -3.9667695440848028E+00 a      1011     1    10     2    11
 -4.7933857416170644E+00 a      1012     1    10     2    12
  8.3557826407932634E-01 a      1013     1    10     2    13
 -7.2139053435664877E+00 a      1014     1    10     2    14
 -3.8752678109112102E+00 a      1015     1    10     2    15
  1.1747760813899173E+01 a      1016     1    10     2    16
  4.6742040877034521E+00 a      1017     1    10     2    17
 -4.5150729806599603E+00 a      1018     1    10     2    18
 -2.9520388918997109E+00 a      1019     1    10     2    19
 -1.0545142363629928E+01 a      1020     1    10     2    20
 -4.8545399683826762E+00 a      1021     1    11     2     1
 -6.5006991636865252E-01 a      1022     1    11     2     2
 -1.2736960686026526E+00 a      1023     1    11     2     3
 -1.8411202935529920E+00 a      1024     1    11     2     4
  4.3807509259990072E+00 a      1025     1    11     2     5
  1.2957469145477918E+00 a      1026     1    11     2     6
 -8.0561718852937716E+00 a      1027     1    11     2     7
  1.8594394387973499E+00 a      1028     1    11     2     8
 -5.8341062887067681E+00 a      1029     1    11     2     9
 -1.2795642563397445E+01 a      1030     1    11     2    10
 -5.6609990885840080E+00 a      1031     1    11     2    11
 -8.6485989251288267E+00 a      1032     1    11     2    12
 -5.8528617235778979E+00 a      1033     1    11     2    13
 -4.7550824634005444E+00 a      1034     1    11     2    14
 -4.2931217498108296E+00 a      1035     1    11     2    15
 -4.5481655159269065E+00 a      1036     1    11     2    16
 -4.7906170089904538E+00 a      1037     1    11     2    17
 -1.0581466734782763E+01 a      1038     1    11     2    18
  1.3072810066519958E+01 a      1039     1    11     2    19
 -2.5500906194857570E-01 a      1040     1    11     2    20
  6.2714167509251162E+00 a      1041     1    12     2     1
 -6.2497684389636388E-01 a      1042     1    12     2     2
  1.4109370458665321E+01 a      1043     1    12     2     3
 -3.4174694581509422E+00 a      1044     1    12     2     4
 -6.3696454248114520E+00 a      1045     1    12     2     5
 -6.8290720420754898E+00 a      1046     1    12     2     6
  3.7084544166522959E+00 a      1047     1    12     2     7
 -6.4562520005686617E+00 a      1048     1    12     2     8
 -9.2520726769998052E-01 a      1049     1    12     2     9
  1.0600138195723833E+01 a      1050     1    12     2    10
 -3.4492472939846541E+00 a      1051     1    12     2    11
 -3.3075728234563155E+00 a      1052     1    12     2    12
 -1.0790096821539945E+00 a      1053     1    12     2    13
  2.2080149437203827E+00 a      1054     1    12     2    14
 -1.5949606521647266E+00 a      1055     1    12     2    15
  4.5514174600164568E+00 a      1056     1    12     2    16
 -1.1669552712504251E+01 a      1057     1    12     2    17
  2.2983271172912114E+00 a      1058     1    12     2    18
  5.4374436689610830E+00 a      1059     1    12     2    19
  3.0847590397192328E+00 a      1060     1    12     2    20
  1.0281827154777798E+01 a      1061     1    13     2     1
 -5.2275939642045879E+00 a      1062     1    13     2     2
 -5.2310532524822611E+00 a      1063     1    13     2     3
 -1.5225952387475181E+00 a      1064     1    13     2     4
  1.5344957297948698E+00 a      1065     1    13     2     5
 -1.5722395009448520E-01 a      1066     1    13     2     6
  3.1942036333356816E+00 a      1067     1    13     2     7
  5.1630480716657221E+00 a      1068     1    13     2     8
 -6.1329001446305362E+00 a      1069     1    13     2     9
 -2.9222794821022977E+00 a      1070     1    13     2    10
  6.7742005038349795E-01 a      1071     1    13     2    11
 -4.2350571575245626E+00 a      1072     1    13     2    12
 -4.0454669281630604E+00 a      1073     1    13     2    13
  2.5126660936921787E+00 a      1074     1    13     2    14
  3.5835327590891081E-01 a      1075     1    13     2    15
 -6.3570735864453054E+00 a      1076     1    13     2    16
 -6.0949283703262971E+00 a      1077     1    13     2    17
  1.4013770156695307E+01 a      1078     1    13     2    18
 -3.8202177107488160E-03 a      1079     1    13     2    19
 -5.3750723441257033E+00 a      1080     1    13     2    20
 -8.2862362457086292E+00 a      1081     1    14     2     1
 -2.6799088986901753E+00 a      1082     1    14     2     2
 -6.0573161968487401E+00 a      1083     1    14     2     3
 -1.5472696507674286E+00 a      1084     1    14     2     4
  1.4024380840531276E+00 a      1085     1    14     2     5
  5.6518415049297612E+00 a      1086     1    14     2     6
  4.6731086133918662E+00 a      1087     1    14     2     7
  2.9587544658426554E+00 a      1088     1    14     2     8
 -1.7226537196305329E+00 a      1089     1    14     2     9
 -2.9948192542677869E+00 a      1090     1    14     2    10
 -1.9652220769135973E+00 a      1091     1    14     2    11
  2.6158516047366731E-01 a      1092     1    14     2    12
 -4.6786330070757058E+00 a      1093     1    14     2    13
 -6.2429378620230702E-01 a      1094     1    14     2    14
 -1.0238009967115786E+01 a      1095     1    14     2    15
  4.4344679570257242E+00 a      1096     1    14     2    16
 -4.4590897406127112E+00 a      1097     1    14     2    17
  8.2275617036297817E+00 a      1098     1    14     2    18
 -1.6209501523322540E+01 a      1099     1    14     2    19
 -3.3915501760826068E+00 a      1100     1    14     2    20
 -6.6479748657544557E-01 a      1101     1    15     2     1
 -4.0437026574831698E+00 a      1102     1    15     2     2
  2.4471127895056646E+00 a      1103     1    15     2     3
  4.0927105850095717E+00 a      1104     1    15     2     4
 -3.1136407672462969E+00 a      1105     1    15     2     5
  4.8493433537004025E+00 a      1106     1    15     2     6
 -4.0739764662338407E-01 a      1107     1    15     2     7
 -6.4057719954135811E-02 a      1108     1    15     2     8
 -2.2909571848932679E+00 a      1109     1    15     2     9
  3.4022543269933919E-01 a      1110     1    15     2    10
 -2.9047431508998161E+00 a      1111     1    15     2    11
 -9.2303677132740503E-01 a      1112     1    15     2    12
  2.9829041372630352E+00 a      1113     1    15     2    13
  1.9551581805814113E+00 a      1114     1    15     2    14
 -2.3040810899452366E+00 a      1115     1    15     2    15
  9.3414832349420396E-01 a      1116     1    15     2    16
  3.6769153910352466E+00 a      1117     1    15     2    17
  2.5641710124851733E+00 a      1118     1    15     2    18
  2.7893034465874128E-01 a      1119     1    15     2    19
  1.5849963082175540E+00 a      1120     1    15     2    20
 -6.7508290856566511E+00 a      1121     1    16     2     1
  8.4327987797030413E-01 a      1122     1    16     2     2
  2.5640140325580250E+00 a      1123     1    16     2     3
  5.7087775093445039E+00 a      1124     1    16     2     4
 -3.0079420955797036E+00 a      1125     1    16     2     5
 -1.8834061551010270E+00 a      1126     1    16     2     6
 -5.5628680881016113E+00 a      1127     1    16     2     7
 -1.3797405438506527E-01 a      1128     1    16     2     8
 -5.7235764034924808E+00 a      1129     1    16     2     9
 -1.2147696426622984E+01 a      1130     1    16     2    10
  2.7252081958065770E+00 a      1131     1    16     2    11
 -6.0720120870530603E-01 a      1132     1    16     2    12
 -1.7493243765176447E+00 a      1133     1    16     2    13
 -3.6596088190962290E+00 a      1134     1    16     2    14
 -9.7801489698144506E-01 a      1135     1    16     2    15
  7.5748991034697877E+00 a      1136     1    16     2    16
  8.5221881115883177E-02 a      1137     1    16     2    17
 -3.8027869263127720E+00 a      1138     1    16     2    18
  6.4297591230110855E+00 a      1139     1    16     2    19
  4.8357242545690156E+00 a      1140     1    16     2    20
  1.7329798348778729E+00 a      1141     1    17     2     1
  1.0712582930417758E+00 a      1142     1    17     2     2
 -3.1068189889469520E+00 a      1143     1    17     2     3
  1.9905185974298145E+00 a      1144     1    17     2     4
  4.4102844510441193E+00 a      1145     1    17     2     5
  1.3181970552262333E-02 a      1146     1    17     2     6
  4.2786038485614473E+00 a      1147     1    17     2     7
  1.1685155740308317E+00 a      1148     1    17     2     8
  2.2379978540263155E+00 a      1149     1    17     2     9
 -6.6931357525043120E+00 a      1150     1    17     2    10
 -6.7209970555444274E+00 a      1151     1    17     2    11
  5.0047064731527939E+00 a      1152     1    17     2    12
  1.6380607714065922E+00 a      1153     1    17     2    13
 -2.8200993123357407E+00 a      1154     1    17     2    14
 -2.1385507473469070E+00 a      1155     1    17     2    15
  9.4289147122714407E+00 a      1156     1    17     2    16
  2.1633785842177851E+00 a      1157     1    17     2    17
  7.7010940041084037E+00 a      1158     1    17     2    18
  1.2636361456177580E+01 a      1159     1    17     2    19
 -1.6749489160536708E+01 a      1160     1    17     2    20
  3.3570243077946396E+00 a      1161     1    18     2     1
 -4.2315468903595865E-01 a      1162     1    18     2     2
 -3.9960900084281996E+00 a      1163     1    18     2     3
  2.0713383400538596E+00 a      1164     1    18     2     4
  4.6301029575850250E-02 a      1165     1    18     2     5
 -1.3243606227883920E+01 a      1166     1    18     2     6
  1.3428395989436638E+01 a      1167     1    18     2     7
  3.3681377326549771E+00 a      1168     1    18     2     8
 -1.3989040693214519E-01 a      1169     1    18     2     9
  4.0460624202401956E+00 a      1170     1    18     2    10
 -1.9982563212318127E+00 a      1171     1    18     2    11
  6.1725950716639755E+00 a      1172     1    18     2    12
  1.4939757690855543E-01 a      1173     1    18     2    13
 -2.7852800155772957E+00 a      1174     1    18     2    14
 -2.8409808371933618E+00 a      1175     1    18     2    15
 -6.1639452508427732E+00 a      1176     1    18     2    16
 -1.0865676636266288E+01 a      1177     1    18     2    17
  8.0291947046751329E+00 a      1178     1    18     2    18
 -6.9164133311514604E+00 a      1179     1    18     2    19
  9.5330138570674350E-01 a      1180     1    18     2    20
  1.1190049379117568E+01 a      1181     1    19     2     1
  6.9259405937870060E+00 a      1182     1    19     2     2
 -6.1859303477861474E+00 a      1183     1    19     2     3
 -6.6730519214482937E+00 a      1184     1    19     2     4
  2.0291076170569302E+00 a      1185     1    19     2     5
 -3.1402006375054383E+00 a      1186     1    19     2     6
  1.4666588098834461E+00 a      1187     1    19     2     7
  4.8443115134327641E+00 a      1188     1    19     2     8
  1.3553286748922826E+00 a      1189     1    19     2     9
 -8.8140198631303690E+00 a      1190     1    19     2    10
  4.8545681355891528E+00 a      1191     1    19     2    11
  1.3491033836979279E+01 a      1192     1    19     2    12
  1.5653314177755403E+01 a      1193     1    19     2    13
  1.0126531844353766E+01 a      1194     1    19     2    14
  2.9449644798756180E+00 a      1195     1    19     2    15
  1.2718978217436101E+01 a      1196     1    19     2    16
  2.1252716487560516E+01 a      1197     1    19     2    17
 -2.5465055541413495E+00 a      1198     1    19     2    18
 -1.7951147904294538E+00 a      1199     1    19     2    19
 -1.5322454178285819E+01 a      1200     1    19     2    20
 -7.7592660244832157E+00 a      1201     1    20     2     1
 -8.6909664076180648E-01 a      1202     1    20     2     2
  5.9414582897562234E+00 a      1203     1    20     2     3
 -2.1643648979924350E+00 a      1204     1    20     2     4
 -2.4994309212227135E+00 a      1205     1    20     2     5
 -6.6985433081599348E+00 a      1206     1    20     2     6
 -1.2106263870170884E+00 a      1207     1    20     2     7
  2.2937590202771205E+00 a      1208     1    20     2     8
 -5.6681875951350582E+00 a      1209     1    20     2     9
 -1.8443292040526293E+00 a      1210     1    20     2    10
  8.8956571684568453E-01 a      1211     1    20     2    11
 -6.1116782960141629E+00 a      1212     1    20     2    12
 -9.8951360419390255E+00 a      1213     1    20     2    13
 -3.7134162084914668E+00 a      1214     1    20     2    14
 -2.9394274775482025E+00 a      1215     1    20     2    15
 -7.2263882365192815E+00 a      1216     1    20     2    16
 -3.1327586251950370E+00 a      1217     1    20     2    17
 -2.7251949934765443E+00 a      1218     1    20     2    18
 -4.5579636320773504E+00 a      1219     1    20     2    19
 -1.1628134823663216E+00 a      1220     1    20     2    20
 -3.1655382894469590E+00 b      1221     2     1
  5.3771492431891155E-01 b      1222     2     2
 -1.1646712893827463E+01 b      1223     2     3
  6.9169870677484147E+00 b      1224     2     4
  3.8383584796856351E+00 b      1225     2     5
  2.7456242180809429E+01 b      1226     2     6
  9.2140747778787926E+00 b      1227     2     7
 -1.9468829253231867E+00 b      1228     2     8
 -6.1052566447928704E+00 b      1229     2     9
 -1.6279289294847050E+01 b      1230     2    10
 -4.6968789364965033E+00 b      1231     2    11
 -7.5506772488000271E+00 b      1232     2    12
 -5.7002638127670737E+00 b      1233     2    13
 -1.1083748473356685E+01 b      1234     2    14
 -7.9648070977416090E+00 b      1235     2    15
 -1.8805544476463734E+01 b      1236     2    16
  3.4783849003868639E+00 b      1237     2    17
 -1.8174090100631006E+00 b      1238     2    18
 -3.1251415370151778E+00 b      1239     2    19
 -3.3857275726078853E+00 b      1240     2    20
  8.7445871196118324E-02 a      1241     2     1     3     1
 -5.8608746838692334E-02 a      1242     2     2     3     1
 -2.5888252992112126E-01 a      1243     2     3     3     1
 -2.2615031108031686E-01 a      1244     2     4     3     1
 -2.3814469877138866E-01 a      1245     2     5     3     1
 -1.9955101870366290E-01 a      1246     2     6     3     1
  7.2004601715609420E-02 a      1247     2     7     3     1
 -2.3426651301954612E-01 a      1248     2     8     3     1
 -1.4081173452947185E-01 a      1249     2     9     3     1
  2.8009200900837633E-01 a      1250     2    10     3     1
  1.9065773889322632E-01 a      1251     2    11     3     1
  1.9285483405882928E-01 a      1252     2    12     3     1
 -1.3386617087332642E-01 a      1253     2    13     3     1
 -9.0331296547759898E-02 a      1254     2    14     3     1
  2.2708027348470089E-01 a      1255     2    15     3     1
 -2.0095953647856082E-01 a      1256     2    16     3     1
  1.9970939767574297E-01 a      1257     2    17     3     1
 -2.9748585510418840E-01 a      1258     2    18     3     1
  2.2740894891009691E-01 a      1259     2    19     3     1
 -8.1688290546900244E-02 a      1260     2    20     3     1
 -6.0265216981028980E-01 b      1261     3     1
