################################################################################
# Neural network connection values (weights and biases).
################################################################################
# Col  Name       Description
################################################################################
# 1    connection Neural network connection value.
# 2    t          Connection type (a = weight, b = bias).
# 3    index      Index enumerating weights.
# 4    l_s        Starting point layer (end point layer for biases).
# 5    n_s        Starting point neuron in starting layer (end point neuron for biases).
# 6    l_e        End point layer.
# 7    n_e        End point neuron in end layer.
################################################################################
#                      1 2         3     4     5     6     7
#             connection t     index   l_s   n_s   l_e   n_e
############################################################
 -1.8159699655283223E+01 a         1     0     1     1     1
  7.9976731325122019E+00 a         2     0     1     1     2
 -1.4763533571747294E+01 a         3     0     1     1     3
  1.5527740321630512E+01 a         4     0     1     1     4
 -1.2698346144388520E+01 a         5     0     1     1     5
 -5.0162026715309143E+00 a         6     0     1     1     6
  8.3060291697129784E+00 a         7     0     1     1     7
  7.0511031047311539E+00 a         8     0     1     1     8
 -2.1586325691089574E+01 a         9     0     1     1     9
  5.5660924054137553E+00 a        10     0     1     1    10
  9.0066997671909377E+00 a        11     0     1     1    11
  8.2255167656636861E+00 a        12     0     1     1    12
 -1.2139091071501994E+01 a        13     0     1     1    13
  1.7861742611192901E+00 a        14     0     1     1    14
  2.1163153579347089E+01 a        15     0     1     1    15
 -4.5232966049898309E+00 a        16     0     1     1    16
 -1.4564734454896500E+00 a        17     0     1     1    17
 -3.0047286159591331E+00 a        18     0     1     1    18
  1.4782346184012973E+00 a        19     0     1     1    19
  1.8405895807785985E+01 a        20     0     1     1    20
 -5.4761038495365399E+00 a        21     0     2     1     1
 -8.0903831293334683E-01 a        22     0     2     1     2
 -1.2037668845350793E+00 a        23     0     2     1     3
 -2.3379476893461546E+00 a        24     0     2     1     4
 -7.5519495672794861E+00 a        25     0     2     1     5
  5.8440697083817401E+00 a        26     0     2     1     6
 -1.0539131648314587E+01 a        27     0     2     1     7
  6.0042843153970065E+00 a        28     0     2     1     8
  2.8658334132275236E+00 a        29     0     2     1     9
 -2.8834652575292746E-01 a        30     0     2     1    10
  7.0833580088200252E+00 a        31     0     2     1    11
  3.7741059498919776E+00 a        32     0     2     1    12
  8.8738807427493782E+00 a        33     0     2     1    13
 -3.2082398145590583E+00 a        34     0     2     1    14
 -1.0057563269962019E+01 a        35     0     2     1    15
  3.0812107641764426E+00 a        36     0     2     1    16
 -8.8382721529307133E+00 a        37     0     2     1    17
  2.8352514671939302E+00 a        38     0     2     1    18
  1.4209932168104400E+01 a        39     0     2     1    19
 -8.6036453560890944E+00 a        40     0     2     1    20
  1.3175436819564442E+01 a        41     0     3     1     1
 -2.1613348062146866E+01 a        42     0     3     1     2
  1.3118121434306543E+01 a        43     0     3     1     3
 -7.3853339382569825E+00 a        44     0     3     1     4
  1.0691800569334095E+01 a        45     0     3     1     5
 -9.8647163176058594E+00 a        46     0     3     1     6
 -1.6687247277186607E+01 a        47     0     3     1     7
 -2.5419666448700911E+00 a        48     0     3     1     8
  2.7232285841954123E+01 a        49     0     3     1     9
  1.1127504764233286E+01 a        50     0     3     1    10
  5.3628605474835656E+00 a        51     0     3     1    11
 -4.9172162910097716E+00 a        52     0     3     1    12
  5.0729291779485548E+00 a        53     0     3     1    13
  1.8215508290727218E+01 a        54     0     3     1    14
 -2.5612309467133816E+01 a        55     0     3     1    15
  2.2031699291102673E+00 a        56     0     3     1    16
  1.6956747836735113E+00 a        57     0     3     1    17
 -1.3373499686447509E+01 a        58     0     3     1    18
 -2.1960599541389701E+01 a        59     0     3     1    19
  1.2181546419052414E+00 a        60     0     3     1    20
 -1.0100627639911279E+01 a        61     0     4     1     1
  1.9278812546240225E+01 a        62     0     4     1     2
 -7.9008521921126675E+00 a        63     0     4     1     3
 -1.8488773062569559E+00 a        64     0     4     1     4
  2.5743428213693761E+01 a        65     0     4     1     5
  3.7271887409425797E+00 a        66     0     4     1     6
  3.2501309826542126E+01 a        67     0     4     1     7
 -6.5709914375701759E+00 a        68     0     4     1     8
 -8.1821212804180696E+00 a        69     0     4     1     9
 -8.2083119885379574E+00 a        70     0     4     1    10
  3.1887746271733781E+00 a        71     0     4     1    11
  7.0471966132401004E-02 a        72     0     4     1    12
  1.5349300656019702E+00 a        73     0     4     1    13
  1.3130233848804536E+00 a        74     0     4     1    14
  9.8066297652280596E+00 a        75     0     4     1    15
 -4.5205023260531432E+00 a        76     0     4     1    16
  1.5038460487603833E+01 a        77     0     4     1    17
 -1.5693744453291618E+01 a        78     0     4     1    18
 -5.9056090678883599E+00 a        79     0     4     1    19
 -9.2159125719789543E+00 a        80     0     4     1    20
 -8.2655485512860896E+00 a        81     0     5     1     1
 -1.1469695984847597E+01 a        82     0     5     1     2
  2.0628595885499217E+00 a        83     0     5     1     3
  2.3541222289845981E-01 a        84     0     5     1     4
 -9.5978934665136748E+00 a        85     0     5     1     5
 -1.0874912580098286E+01 a        86     0     5     1     6
 -1.4093116756995490E+00 a        87     0     5     1     7
  6.1747270909755443E+00 a        88     0     5     1     8
 -2.2920786218509286E+00 a        89     0     5     1     9
 -1.0930103599812776E+01 a        90     0     5     1    10
  7.4272781811381385E+00 a        91     0     5     1    11
  3.1463057670882137E+00 a        92     0     5     1    12
 -7.4089035363191149E+00 a        93     0     5     1    13
 -1.6773703105019525E+01 a        94     0     5     1    14
 -1.4080233066040270E+01 a        95     0     5     1    15
  4.6665762119913445E-01 a        96     0     5     1    16
  4.4487157798207150E-01 a        97     0     5     1    17
  2.2961482956610761E+00 a        98     0     5     1    18
  8.3906144229024520E+00 a        99     0     5     1    19
  5.9739841707674008E+00 a       100     0     5     1    20
  2.8623406970287203E+01 a       101     0     6     1     1
  8.2044572832492158E-03 a       102     0     6     1     2
  7.1037571104073498E+00 a       103     0     6     1     3
  4.2569989717283567E+00 a       104     0     6     1     4
 -6.2384050085652898E-01 a       105     0     6     1     5
  1.9425957992862568E+01 a       106     0     6     1     6
 -1.0391845856734477E+01 a       107     0     6     1     7
  6.1612362194836245E-01 a       108     0     6     1     8
 -5.3682722737622699E+00 a       109     0     6     1     9
  1.3871093587484479E-01 a       110     0     6     1    10
 -1.2337781752209763E+01 a       111     0     6     1    11
 -1.0035308618475488E+01 a       112     0     6     1    12
  1.2205287573215546E+01 a       113     0     6     1    13
 -3.2258350019964284E+00 a       114     0     6     1    14
  3.3402486426079383E+00 a       115     0     6     1    15
 -6.9360010529798410E+00 a       116     0     6     1    16
 -8.9924012678813234E+00 a       117     0     6     1    17
  1.5820829003420489E+01 a       118     0     6     1    18
  4.3615168684635384E+00 a       119     0     6     1    19
  7.5174238664567428E+00 a       120     0     6     1    20
  5.3767305358173978E+00 a       121     0     7     1     1
  7.2948137651753182E+00 a       122     0     7     1     2
  1.9705697041092063E+00 a       123     0     7     1     3
  1.4056275133432172E+00 a       124     0     7     1     4
  1.4539849062005645E+00 a       125     0     7     1     5
  6.2960606738030096E+00 a       126     0     7     1     6
 -3.9569031192233695E+00 a       127     0     7     1     7
 -5.4836273436544163E+00 a       128     0     7     1     8
  4.5800045019091060E+00 a       129     0     7     1     9
 -4.1745820077060563E+00 a       130     0     7     1    10
 -8.7022752328863913E+00 a       131     0     7     1    11
  8.8293116754584453E+00 a       132     0     7     1    12
 -1.3332287216607543E+00 a       133     0     7     1    13
  3.0085632335057899E+00 a       134     0     7     1    14
 -4.9272248366098870E+00 a       135     0     7     1    15
  8.4812753585485332E+00 a       136     0     7     1    16
 -5.6989996504934917E+00 a       137     0     7     1    17
 -4.6486930721224891E+00 a       138     0     7     1    18
 -1.0621641039044178E+00 a       139     0     7     1    19
  2.8661655830130659E+00 a       140     0     7     1    20
 -4.0553969203225044E+00 a       141     0     8     1     1
  3.7115714612296378E+00 a       142     0     8     1     2
  7.1695391877968531E+00 a       143     0     8     1     3
 -1.0463969496835258E-01 a       144     0     8     1     4
  1.0750950045981787E+01 a       145     0     8     1     5
 -4.6203491880959904E+00 a       146     0     8     1     6
  1.3043099359031645E+01 a       147     0     8     1     7
 -1.3522881921616529E+01 a       148     0     8     1     8
  9.6243800945363542E+00 a       149     0     8     1     9
  1.4463884056976866E+00 a       150     0     8     1    10
  9.0608326713734588E-01 a       151     0     8     1    11
  9.6734768526875516E+00 a       152     0     8     1    12
  1.1635086050785416E+01 a       153     0     8     1    13
 -6.5828686416023574E+00 a       154     0     8     1    14
  2.1735169811854167E+00 a       155     0     8     1    15
  1.0435620835497637E+00 a       156     0     8     1    16
  1.6601816749951197E+00 a       157     0     8     1    17
 -7.2550775095060409E+00 a       158     0     8     1    18
  4.4399962959743675E+00 a       159     0     8     1    19
 -6.4671177586853101E+00 a       160     0     8     1    20
 -1.8437905159179044E+00 a       161     0     9     1     1
 -4.1486478450264546E+00 a       162     0     9     1     2
 -3.6887200009832379E+00 a       163     0     9     1     3
 -2.9641835059909405E+00 a       164     0     9     1     4
  9.3850329611776253E+00 a       165     0     9     1     5
 -5.4457031443619757E+00 a       166     0     9     1     6
  6.8149298149033699E+00 a       167     0     9     1     7
  1.5655322011962804E+00 a       168     0     9     1     8
 -6.0834399526198419E+00 a       169     0     9     1     9
 -2.5645299585611609E+00 a       170     0     9     1    10
 -2.6049968645490940E+00 a       171     0     9     1    11
  8.1454308049048318E+00 a       172     0     9     1    12
  3.5924998672908228E+00 a       173     0     9     1    13
 -1.3896859984348511E+01 a       174     0     9     1    14
  5.3973471441297018E+00 a       175     0     9     1    15
 -6.7676520201078216E-01 a       176     0     9     1    16
  6.0981791099377125E-01 a       177     0     9     1    17
 -8.8747155750008027E+00 a       178     0     9     1    18
 -3.9133780703730570E+00 a       179     0     9     1    19
  5.3150653000481176E+00 a       180     0     9     1    20
  5.0849177834311188E-01 a       181     0    10     1     1
 -2.1787249825787519E-01 a       182     0    10     1     2
 -1.2912853907894139E+01 a       183     0    10     1     3
 -2.3960792727262938E+00 a       184     0    10     1     4
 -7.7390740751005893E+00 a       185     0    10     1     5
 -5.5063585577646110E+00 a       186     0    10     1     6
  1.4053348486223230E+01 a       187     0    10     1     7
  4.4608825043278006E+00 a       188     0    10     1     8
 -1.2704147840911844E+01 a       189     0    10     1     9
 -1.0919780870801970E+01 a       190     0    10     1    10
 -3.9461618318174794E+00 a       191     0    10     1    11
 -1.7493578931303876E+01 a       192     0    10     1    12
  7.0155889427777474E-01 a       193     0    10     1    13
  2.0006107973375231E+00 a       194     0    10     1    14
 -9.8017147438827293E-02 a       195     0    10     1    15
  1.9776325785380804E+00 a       196     0    10     1    16
  1.0057416871801177E+01 a       197     0    10     1    17
 -2.5799486700208862E+00 a       198     0    10     1    18
  3.3920535840931652E+00 a       199     0    10     1    19
  3.1347912569270284E+00 a       200     0    10     1    20
 -1.5575966789355482E+00 a       201     0    11     1     1
 -1.4303659276503904E+00 a       202     0    11     1     2
  2.3054551553879771E-01 a       203     0    11     1     3
 -3.3082087342380611E+00 a       204     0    11     1     4
  6.8858117312428799E+00 a       205     0    11     1     5
  4.4120373805143211E+00 a       206     0    11     1     6
  3.5611952405978489E+00 a       207     0    11     1     7
 -2.5953235708631910E+00 a       208     0    11     1     8
 -5.8376408301544700E+00 a       209     0    11     1     9
 -3.4598634584795400E+00 a       210     0    11     1    10
 -1.3322065157807437E+01 a       211     0    11     1    11
  1.2918305054788548E+00 a       212     0    11     1    12
  4.8169808786487298E+00 a       213     0    11     1    13
  1.3565002934729373E+00 a       214     0    11     1    14
  2.8222287082485633E+00 a       215     0    11     1    15
 -1.6141208304703365E+00 a       216     0    11     1    16
 -6.6795737426355037E+00 a       217     0    11     1    17
  1.1178217198370481E+00 a       218     0    11     1    18
  8.6069496195078372E+00 a       219     0    11     1    19
  6.1889602498712726E-01 a       220     0    11     1    20
  1.3594271762350880E+00 a       221     0    12     1     1
  1.3558096458810690E+01 a       222     0    12     1     2
 -3.2813766526444903E+00 a       223     0    12     1     3
  1.2070804067064859E+01 a       224     0    12     1     4
  1.0297652381886689E+01 a       225     0    12     1     5
  9.5340493553402350E-01 a       226     0    12     1     6
 -9.6011775584332604E+00 a       227     0    12     1     7
 -6.2053157188346990E+00 a       228     0    12     1     8
  1.3027337630856763E+01 a       229     0    12     1     9
 -2.8229998234492961E+00 a       230     0    12     1    10
  1.5775022171695232E+01 a       231     0    12     1    11
  2.1154632831514588E+00 a       232     0    12     1    12
  9.0258296269272211E+00 a       233     0    12     1    13
  1.5219853960523317E+00 a       234     0    12     1    14
 -7.2711627783896047E+00 a       235     0    12     1    15
 -1.0752063442044701E+01 a       236     0    12     1    16
 -3.2223355386340531E+00 a       237     0    12     1    17
  7.8683752829779907E+00 a       238     0    12     1    18
  2.0326872862592481E+01 a       239     0    12     1    19
 -1.1612089077544203E+01 a       240     0    12     1    20
 -7.7411283983796375E+00 a       241     0    13     1     1
  3.1868833565651968E+00 a       242     0    13     1     2
 -7.8619460280305882E+00 a       243     0    13     1     3
  1.4587918520507223E+01 a       244     0    13     1     4
  3.4542553179559472E+00 a       245     0    13     1     5
  3.9828347948429837E-01 a       246     0    13     1     6
 -6.5305811589531189E+00 a       247     0    13     1     7
  4.7821892944135715E+00 a       248     0    13     1     8
  4.7688232528731084E-01 a       249     0    13     1     9
  6.7321988342675869E+00 a       250     0    13     1    10
  2.3523690965272195E+00 a       251     0    13     1    11
 -5.5434059191526091E+00 a       252     0    13     1    12
  1.1615990682084243E+00 a       253     0    13     1    13
  1.5409461986005459E+00 a       254     0    13     1    14
  2.3247342626538798E+00 a       255     0    13     1    15
  1.4048358474166542E+00 a       256     0    13     1    16
  7.3939745542686843E+00 a       257     0    13     1    17
 -5.8953783934248802E+00 a       258     0    13     1    18
  1.9095503261334436E+01 a       259     0    13     1    19
  1.3049160644952622E+01 a       260     0    13     1    20
  5.5901159660667163E+00 a       261     0    14     1     1
 -1.7056780380338382E-01 a       262     0    14     1     2
 -5.0703588064326421E+00 a       263     0    14     1     3
  1.2457838582285250E+01 a       264     0    14     1     4
 -4.7950228844642249E+00 a       265     0    14     1     5
  5.2618386272726303E+00 a       266     0    14     1     6
 -7.8047041858248423E-01 a       267     0    14     1     7
 -8.7148555740401168E-01 a       268     0    14     1     8
 -2.1137348939379654E+00 a       269     0    14     1     9
  1.5443691179916463E+01 a       270     0    14     1    10
 -3.7625074912029390E+00 a       271     0    14     1    11
  5.1611183275314074E+00 a       272     0    14     1    12
  1.1695262115785507E+01 a       273     0    14     1    13
 -6.5986261568490647E+00 a       274     0    14     1    14
 -2.2149908101653666E+00 a       275     0    14     1    15
  3.6350995305504501E+00 a       276     0    14     1    16
  8.4765502113577196E-01 a       277     0    14     1    17
 -1.1977622712235251E+01 a       278     0    14     1    18
  4.0860854295235756E+00 a       279     0    14     1    19
  1.2581339459666632E+01 a       280     0    14     1    20
  8.3333625804659341E+00 a       281     0    15     1     1
  5.8334273997988308E+00 a       282     0    15     1     2
 -3.6387566791370243E+00 a       283     0    15     1     3
 -1.5273923922723837E-01 a       284     0    15     1     4
  2.7367748359762212E+00 a       285     0    15     1     5
 -1.1557243225617224E+00 a       286     0    15     1     6
  2.3761428138820326E+00 a       287     0    15     1     7
 -2.0285998088999579E+00 a       288     0    15     1     8
 -4.0514314516075647E+00 a       289     0    15     1     9
  1.2365745634124867E+00 a       290     0    15     1    10
 -3.4242220388752429E+00 a       291     0    15     1    11
 -5.5087426120860461E-01 a       292     0    15     1    12
  5.4513298142403768E+00 a       293     0    15     1    13
  3.1125389445011318E+00 a       294     0    15     1    14
 -1.1202341049510267E+00 a       295     0    15     1    15
 -7.1488209345073117E-01 a       296     0    15     1    16
 -3.5674778413126820E+00 a       297     0    15     1    17
  9.0495315389097475E-01 a       298     0    15     1    18
 -3.7162284578040343E+00 a       299     0    15     1    19
  8.6879105802812049E+00 a       300     0    15     1    20
 -2.0008187295938726E+00 a       301     0    16     1     1
  7.5504350269870213E-01 a       302     0    16     1     2
  4.6793449462058669E+00 a       303     0    16     1     3
  4.1306082469982996E+00 a       304     0    16     1     4
  2.9845626878586251E+00 a       305     0    16     1     5
  4.4329039053230079E-01 a       306     0    16     1     6
 -4.9546344127576099E+00 a       307     0    16     1     7
 -4.1368708550103523E+00 a       308     0    16     1     8
  6.5189060607654037E+00 a       309     0    16     1     9
 -3.2777738448761524E+00 a       310     0    16     1    10
  8.0941772733026802E+00 a       311     0    16     1    11
 -6.8587810788515738E-02 a       312     0    16     1    12
 -4.9963392372938520E-01 a       313     0    16     1    13
 -4.4873530808564936E+00 a       314     0    16     1    14
  2.2990772069687062E+00 a       315     0    16     1    15
 -3.8691477479190794E+00 a       316     0    16     1    16
 -3.5695413163738188E+00 a       317     0    16     1    17
  1.1820006897139890E+00 a       318     0    16     1    18
  6.3681576450551987E+00 a       319     0    16     1    19
 -3.2841276086473878E+00 a       320     0    16     1    20
  1.8524472357629648E+01 a       321     0    17     1     1
  1.4940512809665059E+01 a       322     0    17     1     2
 -1.8593107478659302E+01 a       323     0    17     1     3
 -1.4655825315438094E+01 a       324     0    17     1     4
 -1.0238646123175030E+01 a       325     0    17     1     5
  1.0835102369192288E+01 a       326     0    17     1     6
 -2.6308785655136745E+01 a       327     0    17     1     7
  7.4675367032859208E-01 a       328     0    17     1     8
 -2.4552270107880442E+01 a       329     0    17     1     9
 -1.4880057845059840E+00 a       330     0    17     1    10
 -2.3759285333155169E+01 a       331     0    17     1    11
  2.2059769640905060E+01 a       332     0    17     1    12
  2.4586190810015399E+01 a       333     0    17     1    13
 -1.5003274716709468E+01 a       334     0    17     1    14
 -1.2514498185737189E+01 a       335     0    17     1    15
 -2.2788358241017885E+01 a       336     0    17     1    16
 -2.9247757996774503E+01 a       337     0    17     1    17
  9.0081231013132594E+00 a       338     0    17     1    18
  2.2376886304470464E+01 a       339     0    17     1    19
 -1.2910500079865482E+01 a       340     0    17     1    20
 -7.7137060548295953E+00 a       341     0    18     1     1
 -2.8618612778644268E+00 a       342     0    18     1     2
 -9.8982452294981353E+00 a       343     0    18     1     3
  1.8189740042358682E+01 a       344     0    18     1     4
 -3.0972311608668008E+01 a       345     0    18     1     5
 -1.4721928964047375E+01 a       346     0    18     1     6
  5.6263492841620275E+00 a       347     0    18     1     7
  2.6774697268630877E+01 a       348     0    18     1     8
 -1.1259726786678987E+01 a       349     0    18     1     9
  2.2645524424882724E+00 a       350     0    18     1    10
  1.2130568401691747E+01 a       351     0    18     1    11
  7.6492763270238706E-01 a       352     0    18     1    12
 -2.2952011913615117E+01 a       353     0    18     1    13
  2.2356262407540839E+01 a       354     0    18     1    14
  3.7755209192009502E+01 a       355     0    18     1    15
 -4.9763775067427938E+00 a       356     0    18     1    16
  1.4276998574481809E+01 a       357     0    18     1    17
 -1.0130683238592121E+01 a       358     0    18     1    18
  2.3727174102340367E+00 a       359     0    18     1    19
  1.8645153954222124E+01 a       360     0    18     1    20
  3.6095257502126444E+01 a       361     0    19     1     1
 -2.1231011107521834E+01 a       362     0    19     1     2
 -5.7262335690003550E+00 a       363     0    19     1     3
 -1.2108532944948943E+01 a       364     0    19     1     4
 -1.1997204083198188E+01 a       365     0    19     1     5
 -8.2373362316699197E+00 a       366     0    19     1     6
  8.7981525883864684E+00 a       367     0    19     1     7
 -1.4285362677473852E+01 a       368     0    19     1     8
 -6.2790605693196089E-01 a       369     0    19     1     9
 -1.9043196366009862E+01 a       370     0    19     1    10
  1.8346067595979893E+01 a       371     0    19     1    11
 -1.5412948157243680E+01 a       372     0    19     1    12
 -1.2390870184350442E+00 a       373     0    19     1    13
 -1.6928938412208463E+01 a       374     0    19     1    14
 -1.5949478757878532E+01 a       375     0    19     1    15
 -1.7175410553139991E+00 a       376     0    19     1    16
  2.3957254586509606E+01 a       377     0    19     1    17
  1.0785031522295757E+01 a       378     0    19     1    18
  2.5782820957236996E+01 a       379     0    19     1    19
 -1.8741165950871142E+01 a       380     0    19     1    20
 -8.7423471736259977E+00 a       381     0    20     1     1
 -2.0378757327815372E+01 a       382     0    20     1     2
  1.5952159228658426E+01 a       383     0    20     1     3
 -3.4818042931074693E+00 a       384     0    20     1     4
  2.6798302898918521E+01 a       385     0    20     1     5
 -8.2091650645162986E+00 a       386     0    20     1     6
  2.1104239198477490E+01 a       387     0    20     1     7
 -1.7063716349374181E+00 a       388     0    20     1     8
  2.2732995684181130E+01 a       389     0    20     1     9
 -1.7306726841982186E+01 a       390     0    20     1    10
 -1.1428940834644852E+01 a       391     0    20     1    11
 -4.1572251706850905E+00 a       392     0    20     1    12
  2.3203820490215401E+00 a       393     0    20     1    13
  2.5225833626266592E+01 a       394     0    20     1    14
  2.3931584937547974E+01 a       395     0    20     1    15
  4.7750482796942237E+01 a       396     0    20     1    16
  1.0661980378932562E+01 a       397     0    20     1    17
 -1.6197303263365907E+01 a       398     0    20     1    18
 -9.9963301439185219E+00 a       399     0    20     1    19
 -3.6300647708635583E+00 a       400     0    20     1    20
 -1.8233053866391852E+01 a       401     0    21     1     1
  2.1758385575461414E+01 a       402     0    21     1     2
  6.5276175043325324E+00 a       403     0    21     1     3
 -3.8659957882651264E+00 a       404     0    21     1     4
  2.8396728546956606E+01 a       405     0    21     1     5
  2.4038911579149339E+01 a       406     0    21     1     6
 -1.3416938670760437E+01 a       407     0    21     1     7
 -1.2152894376454876E+01 a       408     0    21     1     8
 -1.1973912623083511E+00 a       409     0    21     1     9
  1.1339396727900107E+01 a       410     0    21     1    10
 -3.0999286701242227E+01 a       411     0    21     1    11
 -1.3000712723471397E+00 a       412     0    21     1    12
  1.9016460952751931E+01 a       413     0    21     1    13
 -3.1737060415462452E+01 a       414     0    21     1    14
  2.0105307407188985E+01 a       415     0    21     1    15
  3.8559607410428619E+01 a       416     0    21     1    16
 -1.4408726741839210E+01 a       417     0    21     1    17
 -3.1667597238324436E+00 a       418     0    21     1    18
  9.9641097815067941E+00 a       419     0    21     1    19
 -4.4720133677059934E+01 a       420     0    21     1    20
  5.8445942035027842E+00 a       421     0    22     1     1
  2.2513717861288434E+01 a       422     0    22     1     2
  1.7686022824114318E+00 a       423     0    22     1     3
  4.3849682611224994E+00 a       424     0    22     1     4
  3.0553957046247143E-01 a       425     0    22     1     5
 -2.5750028967583322E+01 a       426     0    22     1     6
  1.1564386591094092E+01 a       427     0    22     1     7
 -1.7856026604574613E+01 a       428     0    22     1     8
  1.3579209084114117E+01 a       429     0    22     1     9
 -7.0859715273911021E+00 a       430     0    22     1    10
 -2.8758993069808685E+01 a       431     0    22     1    11
  2.9275911238470311E+01 a       432     0    22     1    12
 -1.8506627068058254E+01 a       433     0    22     1    13
  1.4993795439409057E+01 a       434     0    22     1    14
 -5.9785718975879840E+00 a       435     0    22     1    15
 -1.2316703816096517E+01 a       436     0    22     1    16
 -2.2284859127139338E+01 a       437     0    22     1    17
  4.1706207412639893E+00 a       438     0    22     1    18
 -2.3056923398096888E+01 a       439     0    22     1    19
  3.3157838156506237E+01 a       440     0    22     1    20
  3.0958233061904643E+00 a       441     0    23     1     1
  2.2843521190127671E+01 a       442     0    23     1     2
  8.3785291306582028E+00 a       443     0    23     1     3
  1.7124566170042026E+00 a       444     0    23     1     4
 -6.3891311815206731E+00 a       445     0    23     1     5
  9.5672102769350715E+00 a       446     0    23     1     6
  9.3829560333863444E+00 a       447     0    23     1     7
 -7.6093720828059839E+00 a       448     0    23     1     8
  9.0065657738390250E+00 a       449     0    23     1     9
  5.8407001527513183E+00 a       450     0    23     1    10
 -8.2172107672635253E+00 a       451     0    23     1    11
  4.5190077709313856E+00 a       452     0    23     1    12
  3.3126834860270100E+00 a       453     0    23     1    13
  1.3469444592717933E+01 a       454     0    23     1    14
  2.2574209355665893E+01 a       455     0    23     1    15
  6.0244446352062555E+00 a       456     0    23     1    16
  3.2419497509829682E+00 a       457     0    23     1    17
 -1.9838217841873369E+00 a       458     0    23     1    18
 -1.2406355813584872E+01 a       459     0    23     1    19
  5.3029486370955115E-01 a       460     0    23     1    20
  8.9841954886310571E+00 a       461     0    24     1     1
 -6.1147001520395095E-01 a       462     0    24     1     2
 -5.0032515704831688E+00 a       463     0    24     1     3
 -3.9322625242569043E+00 a       464     0    24     1     4
 -4.0556872177374199E+00 a       465     0    24     1     5
 -5.5849344919019490E+00 a       466     0    24     1     6
  8.9634889729991807E-01 a       467     0    24     1     7
 -3.4278615233066372E+00 a       468     0    24     1     8
 -7.5885861078137005E+00 a       469     0    24     1     9
  7.9913760383069583E+00 a       470     0    24     1    10
 -3.2218163388413794E+00 a       471     0    24     1    11
 -8.5137847529481050E+00 a       472     0    24     1    12
 -2.7309388329830502E+00 a       473     0    24     1    13
 -2.1179377148522867E+01 a       474     0    24     1    14
 -1.2982363562541426E+01 a       475     0    24     1    15
 -8.7241592365505909E+00 a       476     0    24     1    16
  8.8321462536976370E-01 a       477     0    24     1    17
  5.6250408725151644E+00 a       478     0    24     1    18
 -2.7799714866277810E+01 a       479     0    24     1    19
 -6.4023666705376971E+00 a       480     0    24     1    20
 -4.6670356018912171E+00 a       481     0    25     1     1
 -1.2792288100991616E+01 a       482     0    25     1     2
  9.6717394867808526E+00 a       483     0    25     1     3
 -6.9137040216326069E+00 a       484     0    25     1     4
 -1.8595684545607870E+01 a       485     0    25     1     5
  4.0386239227774841E+00 a       486     0    25     1     6
 -3.8189422872113781E+00 a       487     0    25     1     7
  4.8795203682413133E+00 a       488     0    25     1     8
  3.9914829129234199E+00 a       489     0    25     1     9
 -1.0511366765990786E+01 a       490     0    25     1    10
 -1.0043458579942914E+01 a       491     0    25     1    11
  1.6238690212336778E+01 a       492     0    25     1    12
 -1.9162055998150873E+00 a       493     0    25     1    13
  7.9549735436761928E+00 a       494     0    25     1    14
 -4.5198206408891703E+00 a       495     0    25     1    15
 -5.5375007913771039E+00 a       496     0    25     1    16
 -1.8097731647034859E+01 a       497     0    25     1    17
 -1.4372748491351407E+01 a       498     0    25     1    18
 -4.2032330526969401E+00 a       499     0    25     1    19
  1.9114728563030678E+01 a       500     0    25     1    20
 -3.0659173289807424E+00 a       501     0    26     1     1
 -8.5058706130735362E-01 a       502     0    26     1     2
  2.3652558661701737E+00 a       503     0    26     1     3
  3.5280691298784870E+00 a       504     0    26     1     4
 -2.1957577387180113E+01 a       505     0    26     1     5
  1.5666935999218687E+01 a       506     0    26     1     6
 -1.0156412143215372E+01 a       507     0    26     1     7
  1.4517172991108145E+01 a       508     0    26     1     8
  5.5040340308648936E+00 a       509     0    26     1     9
  1.0317460714972308E+01 a       510     0    26     1    10
  6.1554079319035626E+00 a       511     0    26     1    11
 -4.4679509023573001E+00 a       512     0    26     1    12
  2.1938794117666136E+00 a       513     0    26     1    13
 -1.5250148037880438E+01 a       514     0    26     1    14
 -1.7883560354951268E+01 a       515     0    26     1    15
 -1.6544491945045870E+01 a       516     0    26     1    16
  3.6265977019337381E+00 a       517     0    26     1    17
 -2.5509032389699087E+00 a       518     0    26     1    18
 -6.1445503391537866E+00 a       519     0    26     1    19
 -8.2674047371419093E+00 a       520     0    26     1    20
  3.6994262696443485E+01 a       521     0    27     1     1
 -1.1076541776315935E+01 a       522     0    27     1     2
 -8.8625024013820475E-01 a       523     0    27     1     3
 -2.3001658982468342E+01 a       524     0    27     1     4
  2.5417042137125165E+01 a       525     0    27     1     5
 -1.1775837885285641E+01 a       526     0    27     1     6
 -1.4214229375138292E+01 a       527     0    27     1     7
 -1.7809757928899376E+01 a       528     0    27     1     8
 -9.5769361999155951E+00 a       529     0    27     1     9
 -1.2793138345618685E+01 a       530     0    27     1    10
 -6.5697108334472887E+00 a       531     0    27     1    11
 -8.0987296120497660E+00 a       532     0    27     1    12
 -5.4689861080507249E+00 a       533     0    27     1    13
 -5.9233804829315551E+00 a       534     0    27     1    14
 -1.7028048427342789E+01 a       535     0    27     1    15
 -3.1335493811598301E+01 a       536     0    27     1    16
 -5.9433980457691380E+00 a       537     0    27     1    17
  8.1906714202557680E+00 a       538     0    27     1    18
 -3.3283060903561740E-01 a       539     0    27     1    19
  3.5532766873173024E+01 a       540     0    27     1    20
 -1.2135739884583804E+01 a       541     0    28     1     1
 -2.2399237375680869E+01 a       542     0    28     1     2
  6.0694313434494847E+00 a       543     0    28     1     3
  3.7344831821887259E+00 a       544     0    28     1     4
 -7.6991953992914732E+00 a       545     0    28     1     5
  1.2775400460449077E+01 a       546     0    28     1     6
 -2.3759570798657212E+00 a       547     0    28     1     7
  1.7307485309576027E+01 a       548     0    28     1     8
 -2.0616632813558908E+00 a       549     0    28     1     9
  1.7688665266036509E+01 a       550     0    28     1    10
  1.3230836706330344E+01 a       551     0    28     1    11
 -1.7191628119902274E+00 a       552     0    28     1    12
  1.3969916671110724E+01 a       553     0    28     1    13
  1.7754416124761530E+01 a       554     0    28     1    14
  9.9588764279817159E+00 a       555     0    28     1    15
  2.1054850702318259E+01 a       556     0    28     1    16
  1.5740942275364555E+01 a       557     0    28     1    17
 -7.7914135601171806E+00 a       558     0    28     1    18
 -7.3387924052771965E+00 a       559     0    28     1    19
 -1.3517574082163129E+01 a       560     0    28     1    20
 -1.4943453486325410E+01 a       561     0    29     1     1
 -1.7053918804506775E+01 a       562     0    29     1     2
  8.9095613822371096E+00 a       563     0    29     1     3
  5.4968994531023938E+00 a       564     0    29     1     4
  2.7573703408756575E+01 a       565     0    29     1     5
 -1.0356115208846031E+01 a       566     0    29     1     6
  8.8655376925206522E+00 a       567     0    29     1     7
 -1.7524799570822690E+01 a       568     0    29     1     8
  9.8759634458422330E+00 a       569     0    29     1     9
  3.0096007856785012E+00 a       570     0    29     1    10
 -7.9937583856059247E+00 a       571     0    29     1    11
  5.6662270980131337E+00 a       572     0    29     1    12
 -1.9067139686412887E+01 a       573     0    29     1    13
  7.2662620095266135E+00 a       574     0    29     1    14
  1.9956186086440180E+01 a       575     0    29     1    15
 -1.4695959173588802E+01 a       576     0    29     1    16
 -1.9063008511626094E+00 a       577     0    29     1    17
 -7.7257197187057991E-01 a       578     0    29     1    18
 -1.6922809782069571E+01 a       579     0    29     1    19
  2.1967016096597258E+00 a       580     0    29     1    20
 -1.1417080786936864E+01 a       581     0    30     1     1
 -1.1077092954344344E+01 a       582     0    30     1     2
 -9.8015603795344504E+00 a       583     0    30     1     3
 -6.9198524205574738E+00 a       584     0    30     1     4
  9.8705196469445671E+00 a       585     0    30     1     5
  9.0112697851916952E+00 a       586     0    30     1     6
  4.3531250126301222E+00 a       587     0    30     1     7
  1.2848890759294918E+01 a       588     0    30     1     8
  1.6079104508716782E+01 a       589     0    30     1     9
 -1.7913932127279949E+01 a       590     0    30     1    10
 -5.9912799495580114E+00 a       591     0    30     1    11
 -1.8360496878491475E+01 a       592     0    30     1    12
  1.3255168630954266E+00 a       593     0    30     1    13
 -1.0097537081867019E+01 a       594     0    30     1    14
 -4.8495936055584457E+00 a       595     0    30     1    15
 -5.4172928619871596E+00 a       596     0    30     1    16
  2.6100425523093627E+01 a       597     0    30     1    17
 -1.1921645326597572E+01 a       598     0    30     1    18
  9.6747924124751368E+00 a       599     0    30     1    19
  5.4631294230670022E+00 a       600     0    30     1    20
 -2.1323779066520416E+01 a       601     0    31     1     1
 -1.3814920251364822E+00 a       602     0    31     1     2
 -4.3265348463841480E-01 a       603     0    31     1     3
  1.0592043078479497E+01 a       604     0    31     1     4
 -2.6380596510609486E+01 a       605     0    31     1     5
  7.5787402773370225E+00 a       606     0    31     1     6
 -2.5260398099657976E+01 a       607     0    31     1     7
  9.5953561154388656E-01 a       608     0    31     1     8
 -6.5362383013629408E+00 a       609     0    31     1     9
  4.0572127179092355E+01 a       610     0    31     1    10
 -9.5795214301335587E+00 a       611     0    31     1    11
 -1.8473966975418490E+00 a       612     0    31     1    12
 -3.9101186850522658E+00 a       613     0    31     1    13
  1.8201855606701240E+01 a       614     0    31     1    14
  7.0570140908792576E+00 a       615     0    31     1    15
  1.0443359686297826E+00 a       616     0    31     1    16
 -3.0762702486264704E+01 a       617     0    31     1    17
 -1.2091603802263196E+01 a       618     0    31     1    18
 -2.2952289119032756E+01 a       619     0    31     1    19
  5.3633619412001048E+00 a       620     0    31     1    20
  2.1854783767539494E+01 a       621     0    32     1     1
  1.2381096635158670E+01 a       622     0    32     1     2
 -8.3922369741638327E+00 a       623     0    32     1     3
  3.1617417914400461E+00 a       624     0    32     1     4
 -5.4055387550291094E+01 a       625     0    32     1     5
  2.0810535564602962E+01 a       626     0    32     1     6
 -2.5868699090294087E+00 a       627     0    32     1     7
  2.2991462201914203E+01 a       628     0    32     1     8
 -1.7454917267406117E+01 a       629     0    32     1     9
 -4.1290133273452128E+00 a       630     0    32     1    10
  3.0036007128589002E+01 a       631     0    32     1    11
 -6.6101144691651346E+00 a       632     0    32     1    12
  5.0412933596072182E+00 a       633     0    32     1    13
 -4.2207824523806226E+00 a       634     0    32     1    14
 -8.7084259813554645E+00 a       635     0    32     1    15
  1.6454414757378956E+01 a       636     0    32     1    16
  2.9508596855509978E+01 a       637     0    32     1    17
 -2.8132139920486321E+01 a       638     0    32     1    18
  2.9272247906292776E+01 a       639     0    32     1    19
  7.2514036590512410E+00 a       640     0    32     1    20
 -2.3173287331877539E+00 a       641     0    33     1     1
  3.1405366086390273E+01 a       642     0    33     1     2
 -8.1358516893771196E+00 a       643     0    33     1     3
 -7.8727846663600145E+00 a       644     0    33     1     4
  1.8783610171633057E+01 a       645     0    33     1     5
 -3.7396920513180372E+00 a       646     0    33     1     6
  6.9524563252172271E+00 a       647     0    33     1     7
 -2.2784675220166221E+01 a       648     0    33     1     8
 -3.0683222699079739E+01 a       649     0    33     1     9
  4.3443750478531499E+01 a       650     0    33     1    10
  1.0909249752316667E+01 a       651     0    33     1    11
  4.8208516683343507E+00 a       652     0    33     1    12
  1.4165518238955821E+01 a       653     0    33     1    13
  7.4086456345345306E+00 a       654     0    33     1    14
  7.1591411977231347E+00 a       655     0    33     1    15
 -6.6331032324804324E+00 a       656     0    33     1    16
 -2.0707726686103982E+01 a       657     0    33     1    17
  8.8754733930031620E+00 a       658     0    33     1    18
 -2.0040602826189757E+00 a       659     0    33     1    19
 -5.5548497370362293E+00 a       660     0    33     1    20
 -1.4505395924559172E+01 a       661     0    34     1     1
 -1.3328598416096941E+01 a       662     0    34     1     2
  6.2144397437367216E+00 a       663     0    34     1     3
  2.0779707443631299E+00 a       664     0    34     1     4
  2.9571514894499199E+01 a       665     0    34     1     5
 -2.1693313766989402E+01 a       666     0    34     1     6
 -6.8813873539233761E+00 a       667     0    34     1     7
  2.0729610219177061E+01 a       668     0    34     1     8
  7.3642164086743716E+00 a       669     0    34     1     9
 -2.3618993042008199E+01 a       670     0    34     1    10
  3.1847071804126454E+01 a       671     0    34     1    11
  1.2236348166053967E+01 a       672     0    34     1    12
  8.2672022141146968E+00 a       673     0    34     1    13
  3.5053126754837964E+00 a       674     0    34     1    14
 -7.9866385549105301E+00 a       675     0    34     1    15
  2.1864538866094630E+01 a       676     0    34     1    16
  2.2682927107341254E+01 a       677     0    34     1    17
  1.5956935382119390E+01 a       678     0    34     1    18
  1.6959746692745346E+00 a       679     0    34     1    19
 -7.1884521319077148E+00 a       680     0    34     1    20
  7.2745322037621429E+00 a       681     0    35     1     1
 -4.9414463474868136E+00 a       682     0    35     1     2
  1.2697623977629360E-01 a       683     0    35     1     3
 -1.3749338730184963E+00 a       684     0    35     1     4
  2.2576164672277059E+00 a       685     0    35     1     5
 -3.7772135421394597E+00 a       686     0    35     1     6
 -1.3671553656845443E+00 a       687     0    35     1     7
  7.1231605330097816E+00 a       688     0    35     1     8
  1.0832569830740970E+00 a       689     0    35     1     9
  2.1072162935737397E+00 a       690     0    35     1    10
  9.7709878995407511E+00 a       691     0    35     1    11
 -2.2586295518208463E+01 a       692     0    35     1    12
 -4.2865187594058938E+00 a       693     0    35     1    13
  5.7388651149954590E+00 a       694     0    35     1    14
 -2.0688099743537855E+01 a       695     0    35     1    15
  8.4148248611908230E+00 a       696     0    35     1    16
 -3.5947650797836697E+00 a       697     0    35     1    17
  2.9344590874513217E+00 a       698     0    35     1    18
 -4.8993837702268722E-01 a       699     0    35     1    19
 -9.3144739211141415E-04 a       700     0    35     1    20
 -6.4817995714194918E+00 a       701     0    36     1     1
 -2.0789163351414434E+01 a       702     0    36     1     2
  1.1202947129015637E+01 a       703     0    36     1     3
  3.0016476235503351E+00 a       704     0    36     1     4
  8.4201052812902830E+00 a       705     0    36     1     5
 -3.2763609577021438E+00 a       706     0    36     1     6
 -9.7315940463639041E+00 a       707     0    36     1     7
  6.8057302885883386E+00 a       708     0    36     1     8
 -2.9361978920101377E-02 a       709     0    36     1     9
  5.7793824893407997E-01 a       710     0    36     1    10
  1.0699231698813184E+01 a       711     0    36     1    11
  3.8311105225524149E+00 a       712     0    36     1    12
  8.0512688092574580E-01 a       713     0    36     1    13
  1.0703893447832256E+01 a       714     0    36     1    14
 -5.4263635826762897E+00 a       715     0    36     1    15
  3.2567109472539655E+00 a       716     0    36     1    16
 -3.1204030624606429E+00 a       717     0    36     1    17
 -1.4506787874522422E+00 a       718     0    36     1    18
  5.2939542257359662E+00 a       719     0    36     1    19
 -1.7452814447691285E+01 a       720     0    36     1    20
  9.6638847963263466E+00 a       721     0    37     1     1
  1.5691261659249594E+01 a       722     0    37     1     2
  3.0891511005637327E+00 a       723     0    37     1     3
 -6.4773614270881970E+00 a       724     0    37     1     4
  3.6148713843390247E+01 a       725     0    37     1     5
  6.1805279316418389E+00 a       726     0    37     1     6
 -5.2173557151414611E+00 a       727     0    37     1     7
  1.1961388651365727E+01 a       728     0    37     1     8
 -1.8231771792638167E+01 a       729     0    37     1     9
  6.1588697017123000E+00 a       730     0    37     1    10
 -1.6192359752321650E+01 a       731     0    37     1    11
 -1.5380750863544700E+01 a       732     0    37     1    12
 -8.6193029505936298E+00 a       733     0    37     1    13
  1.0878806673641078E+01 a       734     0    37     1    14
  1.2183769200111543E+01 a       735     0    37     1    15
  2.0971809932179589E+01 a       736     0    37     1    16
  1.6978220045437300E+01 a       737     0    37     1    17
  2.3468194604578079E+00 a       738     0    37     1    18
  1.7129211125156967E+00 a       739     0    37     1    19
  1.2886372839414614E+01 a       740     0    37     1    20
 -1.2538076945174241E+01 a       741     0    38     1     1
  1.0564186256534635E+01 a       742     0    38     1     2
 -2.9514944586835195E+00 a       743     0    38     1     3
 -3.0898835895114676E+00 a       744     0    38     1     4
  2.4140053042153856E+01 a       745     0    38     1     5
 -9.9509699827661802E+00 a       746     0    38     1     6
  2.7964670005724517E+00 a       747     0    38     1     7
 -2.2721532496156112E+01 a       748     0    38     1     8
  3.9197464712803285E+00 a       749     0    38     1     9
 -2.0429145976643288E+00 a       750     0    38     1    10
 -1.1314385890093760E+01 a       751     0    38     1    11
 -3.8545330901426715E+00 a       752     0    38     1    12
 -1.4070497115902961E+01 a       753     0    38     1    13
  2.4796543368036281E+00 a       754     0    38     1    14
 -9.3077277599805104E+00 a       755     0    38     1    15
 -1.6130523148113063E+01 a       756     0    38     1    16
 -1.5515806402314986E+01 a       757     0    38     1    17
  3.9098120541161215E+01 a       758     0    38     1    18
 -1.0685453931595630E+01 a       759     0    38     1    19
 -9.3870413594631401E+00 a       760     0    38     1    20
 -8.5419024265630696E+00 a       761     0    39     1     1
 -6.0602303386341685E+00 a       762     0    39     1     2
  6.9941275549434856E-01 a       763     0    39     1     3
  4.1414258779812826E+01 a       764     0    39     1     4
 -2.7479250766281691E+01 a       765     0    39     1     5
 -3.0613039879383734E+00 a       766     0    39     1     6
  3.0873367392048866E+01 a       767     0    39     1     7
  7.7620099191486887E+00 a       768     0    39     1     8
  6.7889031458126246E+00 a       769     0    39     1     9
 -1.0999721423275165E+01 a       770     0    39     1    10
  1.9757220161931002E+01 a       771     0    39     1    11
 -2.8382138788747913E+00 a       772     0    39     1    12
 -1.4285390911785980E+01 a       773     0    39     1    13
 -1.8391709509611829E+00 a       774     0    39     1    14
  1.7513374774004475E+01 a       775     0    39     1    15
  9.1912435184052228E+00 a       776     0    39     1    16
  1.2773226652439320E+01 a       777     0    39     1    17
  1.5455449481141194E+01 a       778     0    39     1    18
  1.0233952889835583E+01 a       779     0    39     1    19
  6.9283191289954731E+00 a       780     0    39     1    20
  6.4459082691527969E-01 a       781     0    40     1     1
  6.1835945983551888E+00 a       782     0    40     1     2
 -3.4833360013665007E+00 a       783     0    40     1     3
 -8.6403469439656089E+00 a       784     0    40     1     4
 -2.0710370274453449E+01 a       785     0    40     1     5
  5.5928864361835773E+00 a       786     0    40     1     6
 -3.9930523888443914E+00 a       787     0    40     1     7
 -4.9764158123889315E+00 a       788     0    40     1     8
  8.1027272689431875E+00 a       789     0    40     1     9
 -5.0675709533039959E-01 a       790     0    40     1    10
 -1.9013391504844151E+01 a       791     0    40     1    11
 -9.8707811592284784E+00 a       792     0    40     1    12
 -1.4008148746194927E+01 a       793     0    40     1    13
 -1.8995491361550787E+01 a       794     0    40     1    14
 -2.4316101920446329E+01 a       795     0    40     1    15
 -2.4474611549891577E+01 a       796     0    40     1    16
 -2.3722735353253796E+01 a       797     0    40     1    17
 -1.0350518814472590E+01 a       798     0    40     1    18
  1.1346152678460740E+01 a       799     0    40     1    19
 -4.5201781452175993E+00 a       800     0    40     1    20
 -2.4044871489078652E+00 b       801     1     1
  2.6708276386205347E+00 b       802     1     2
  1.5906065035370696E+00 b       803     1     3
  7.3287633422565435E-01 b       804     1     4
 -5.9497290792515722E-01 b       805     1     5
 -2.5003217506389741E+00 b       806     1     6
  2.3450250644809123E+00 b       807     1     7
 -1.4474375428777893E+00 b       808     1     8
 -1.3704056291087905E+00 b       809     1     9
  1.1976593481831728E+00 b       810     1    10
  1.4639855545690714E+00 b       811     1    11
 -2.1651753519603107E+00 b       812     1    12
  6.7592458756118667E-01 b       813     1    13
 -8.8883673464781807E-02 b       814     1    14
  1.5121079978840199E-01 b       815     1    15
 -4.4010973787864105E-01 b       816     1    16
 -1.9106905448410089E-01 b       817     1    17
  1.7384885360986799E-01 b       818     1    18
 -2.2009134217226252E+00 b       819     1    19
 -2.8513245590353153E+00 b       820     1    20
  4.4904080371182209E-01 a       821     1     1     2     1
  3.3548519624773112E+00 a       822     1     1     2     2
 -5.6114797775923508E-01 a       823     1     1     2     3
 -1.2010615856530128E+01 a       824     1     1     2     4
  1.5053535068000174E+00 a       825     1     1     2     5
  4.1499890390238825E+00 a       826     1     1     2     6
 -2.0575192300400555E+00 a       827     1     1     2     7
  7.4369942379290199E+00 a       828     1     1     2     8
  7.9897756686833421E-01 a       829     1     1     2     9
 -9.5075037078554681E-01 a       830     1     1     2    10
 -2.4122960399507116E+00 a       831     1     1     2    11
  5.3569969445687278E+00 a       832     1     1     2    12
  8.3909470408345914E+00 a       833     1     1     2    13
  1.2338577997508168E+01 a       834     1     1     2    14
  1.3857688293362699E+01 a       835     1     1     2    15
 -4.7005949263821414E+00 a       836     1     1     2    16
  4.9098322661423088E+00 a       837     1     1     2    17
 -2.8311431235886386E-01 a       838     1     1     2    18
  1.3177488838539635E+00 a       839     1     1     2    19
  3.0746589694949491E+00 a       840     1     1     2    20
  2.0231954107728551E+00 a       841     1     2     2     1
  3.4760354906658242E-02 a       842     1     2     2     2
 -2.2266705194063867E+00 a       843     1     2     2     3
  6.9886265618712535E+00 a       844     1     2     2     4
  1.1934859119410779E+01 a       845     1     2     2     5
 -1.1466414451571234E+01 a       846     1     2     2     6
 -1.0051840626546214E+01 a       847     1     2     2     7
  1.5602938160508590E+01 a       848     1     2     2     8
 -3.7228980764977111E+00 a       849     1     2     2     9
  8.0255201301796895E+00 a       850     1     2     2    10
 -5.3124168590451704E-01 a       851     1     2     2    11
  5.7449932725862745E+00 a       852     1     2     2    12
  1.2594073551384229E+01 a       853     1     2     2    13
 -1.2492952618891016E+00 a       854     1     2     2    14
  1.1665978192044466E+00 a       855     1     2     2    15
  2.8430471817481626E+00 a       856     1     2     2    16
  5.8458825225812712E+00 a       857     1     2     2    17
  1.2419681055145945E+01 a       858     1     2     2    18
  3.5459810247985670E+00 a       859     1     2     2    19
  3.6081487636327338E+00 a       860     1     2     2    20
  3.9970705767114891E+00 a       861     1     3     2     1
 -9.7968947623361284E+00 a       862     1     3     2     2
 -4.8510595180385291E-01 a       863     1     3     2     3
  1.8685833784513546E+00 a       864     1     3     2     4
 -5.1490957004036906E+00 a       865     1     3     2     5
 -2.5043628436778422E+00 a       866     1     3     2     6
 -2.4970370218007494E+00 a       867     1     3     2     7
  2.3688740592170679E-01 a       868     1     3     2     8
  5.7646990271233580E+00 a       869     1     3     2     9
  1.8385610831802401E-01 a       870     1     3     2    10
 -1.3265521697254623E+00 a       871     1     3     2    11
  2.9111287605358430E-02 a       872     1     3     2    12
  5.8371747434579691E+00 a       873     1     3     2    13
  8.4610999087545558E-01 a       874     1     3     2    14
  1.9427891127927361E+00 a       875     1     3     2    15
  6.4934887091500455E+00 a       876     1     3     2    16
 -1.5099786282738275E+00 a       877     1     3     2    17
  1.2953412164875054E+01 a       878     1     3     2    18
  7.8470106236625208E+00 a       879     1     3     2    19
  6.2697352032045872E-01 a       880     1     3     2    20
  1.0310115876256649E+00 a       881     1     4     2     1
  4.9453307643001470E+00 a       882     1     4     2     2
  2.1835410298579438E-01 a       883     1     4     2     3
 -1.6285522280740860E+01 a       884     1     4     2     4
 -9.4216851255090930E+00 a       885     1     4     2     5
  7.8941588174321314E-02 a       886     1     4     2     6
  2.7609690249372880E+00 a       887     1     4     2     7
  2.3760812467604422E-01 a       888     1     4     2     8
 -2.8983700606841074E+00 a       889     1     4     2     9
  7.9076033155705255E-03 a       890     1     4     2    10
 -1.8196666534629575E+00 a       891     1     4     2    11
  6.2434519392233589E+00 a       892     1     4     2    12
  1.4168901848305076E+01 a       893     1     4     2    13
  2.4500653225802291E+00 a       894     1     4     2    14
 -7.1230099715631123E+00 a       895     1     4     2    15
  1.0349111395980783E+01 a       896     1     4     2    16
 -9.0277683845390122E+00 a       897     1     4     2    17
 -3.2583251321106248E+00 a       898     1     4     2    18
 -3.7513707891938575E-01 a       899     1     4     2    19
  3.5219513100570734E+00 a       900     1     4     2    20
 -2.2771718159788010E+00 a       901     1     5     2     1
  6.5471005865486864E+00 a       902     1     5     2     2
 -2.8499863872173767E+00 a       903     1     5     2     3
 -4.9033755281274294E+00 a       904     1     5     2     4
 -6.8648969236517976E+00 a       905     1     5     2     5
  4.4947067468238728E+00 a       906     1     5     2     6
 -1.2826018955300889E+00 a       907     1     5     2     7
 -4.4028489575482377E+00 a       908     1     5     2     8
  5.5784442811386104E+00 a       909     1     5     2     9
 -5.1723388526318004E-01 a       910     1     5     2    10
 -2.2017184075815807E-01 a       911     1     5     2    11
 -2.1213792254025949E+00 a       912     1     5     2    12
  1.7836631122082285E+00 a       913     1     5     2    13
 -7.2195408445392601E+00 a       914     1     5     2    14
 -3.2787844341815853E+00 a       915     1     5     2    15
 -9.7602815689341504E-01 a       916     1     5     2    16
 -3.0238966138187533E+00 a       917     1     5     2    17
 -2.5589154493555326E+00 a       918     1     5     2    18
 -3.9158104798066118E-01 a       919     1     5     2    19
  1.5269305641569644E+00 a       920     1     5     2    20
  1.1481669431835480E+01 a       921     1     6     2     1
  6.7697783851528879E+00 a       922     1     6     2     2
 -9.5560246455003774E+00 a       923     1     6     2     3
 -1.3102699777410834E+01 a       924     1     6     2     4
 -1.9837223055205597E+00 a       925     1     6     2     5
 -3.1392481004451618E+00 a       926     1     6     2     6
  4.3458898762352236E+00 a       927     1     6     2     7
 -4.7073690596025628E+00 a       928     1     6     2     8
 -8.0651166553692999E+00 a       929     1     6     2     9
  2.3475025168361308E+00 a       930     1     6     2    10
  5.6089005364104390E+00 a       931     1     6     2    11
  3.4855457562914087E+00 a       932     1     6     2    12
  1.0543325522262592E+01 a       933     1     6     2    13
  1.7382882511642426E+00 a       934     1     6     2    14
 -7.1309147096682217E+00 a       935     1     6     2    15
 -4.6298670725422344E+00 a       936     1     6     2    16
  4.4231520557588091E+00 a       937     1     6     2    17
 -8.1489773189053842E+00 a       938     1     6     2    18
  3.5653985491409785E+00 a       939     1     6     2    19
 -3.7521304861074847E+00 a       940     1     6     2    20
 -8.8252862783548895E+00 a       941     1     7     2     1
 -1.9335271133616889E+00 a       942     1     7     2     2
 -4.0676070341765671E+00 a       943     1     7     2     3
 -3.8707125858096098E-01 a       944     1     7     2     4
  2.6173594462116805E+00 a       945     1     7     2     5
  7.3310263151689203E-01 a       946     1     7     2     6
  3.0657670050963399E+00 a       947     1     7     2     7
 -6.0289733051105969E+00 a       948     1     7     2     8
  7.8773970224927714E+00 a       949     1     7     2     9
 -6.4758383632291006E+00 a       950     1     7     2    10
 -1.9655745666724829E+00 a       951     1     7     2    11
  3.8895261738674525E+00 a       952     1     7     2    12
  4.9301843489330963E+00 a       953     1     7     2    13
 -6.9107348251521739E+00 a       954     1     7     2    14
 -1.6335709004945709E+01 a       955     1     7     2    15
 -1.9272719170495205E+00 a       956     1     7     2    16
 -6.7339363238310291E-04 a       957     1     7     2    17
 -4.4763215394927931E+00 a       958     1     7     2    18
  1.2259086753519768E+00 a       959     1     7     2    19
 -3.4794512074672026E+00 a       960     1     7     2    20
 -8.9049358813850024E+00 a       961     1     8     2     1
 -3.0572174052253853E-01 a       962     1     8     2     2
 -9.1989027203008134E-01 a       963     1     8     2     3
  6.6736663010955262E+00 a       964     1     8     2     4
  3.3178665641018625E+00 a       965     1     8     2     5
  5.5974137169345850E+00 a       966     1     8     2     6
  4.6342090083326335E+00 a       967     1     8     2     7
 -5.2122503685256483E-01 a       968     1     8     2     8
  8.6909718132199512E+00 a       969     1     8     2     9
 -6.3833378656064388E-01 a       970     1     8     2    10
  3.2532190406954355E+00 a       971     1     8     2    11
  9.8952359811098098E+00 a       972     1     8     2    12
 -1.3204499839053327E-01 a       973     1     8     2    13
 -3.1995663826571903E+00 a       974     1     8     2    14
 -3.7384317780900425E+00 a       975     1     8     2    15
 -1.2728057213119002E+00 a       976     1     8     2    16
  1.0466977412419800E+01 a       977     1     8     2    17
 -2.1880941131539804E+00 a       978     1     8     2    18
 -1.4992903488098810E+00 a       979     1     8     2    19
  5.3302620071588471E+00 a       980     1     8     2    20
  7.4900331874016883E+00 a       981     1     9     2     1
  9.4636609325457890E+00 a       982     1     9     2     2
 -5.3486747710970972E+00 a       983     1     9     2     3
 -3.7241386767239897E+00 a       984     1     9     2     4
  8.6262962640352772E+00 a       985     1     9     2     5
  8.3640603690326660E+00 a       986     1     9     2     6
 -3.0913332599331147E+00 a       987     1     9     2     7
 -4.9678751550961220E+00 a       988     1     9     2     8
  2.9355343656343114E+00 a       989     1     9     2     9
 -6.1902661460266852E+00 a       990     1     9     2    10
  8.3854468630846957E-01 a       991     1     9     2    11
  3.1118300980933005E+00 a       992     1     9     2    12
  4.1666295740841113E+00 a       993     1     9     2    13
 -7.7299079959830186E+00 a       994     1     9     2    14
 -9.6009638603226151E+00 a       995     1     9     2    15
  4.3514791510652540E+00 a       996     1     9     2    16
 -6.3038379516874210E+00 a       997     1     9     2    17
  5.8229172617010594E+00 a       998     1     9     2    18
  1.5360623124763828E+00 a       999     1     9     2    19
 -2.9548306214802875E+00 a      1000     1     9     2    20
  9.9350656521703584E+00 a      1001     1    10     2     1
 -1.1305339551054434E+00 a      1002     1    10     2     2
 -1.2061973459978415E+00 a      1003     1    10     2     3
 -1.5778686927953558E+01 a      1004     1    10     2     4
  8.7996402429081755E+00 a      1005     1    10     2     5
  5.1674061545575407E+00 a      1006     1    10     2     6
  2.0363437846533969E+00 a      1007     1    10     2     7
 -7.4374977919487488E+00 a      1008     1    10     2     8
  2.8372604375884727E+00 a      1009     1    10     2     9
  3.5811435417312425E+00 a      1010     1    10     2    10
  2.5702670240744259E+00 a      1011     1    10     2    11
 -3.9328432304306524E+00 a      1012     1    10     2    12
 -4.7987366768632826E+00 a      1013     1    10     2    13
 -8.7411470093961867E+00 a      1014     1    10     2    14
 -1.1653546612267947E+01 a      1015     1    10     2    15
 -5.3479323201219726E+00 a      1016     1    10     2    16
  4.9746065756828175E+00 a      1017     1    10     2    17
  1.0564400125962342E-01 a      1018     1    10     2    18
  2.6743342008831408E+00 a      1019     1    10     2    19
 -7.5535667763686360E+00 a      1020     1    10     2    20
 -3.3516181743862723E+00 a      1021     1    11     2     1
 -5.2811624842993110E+00 a      1022     1    11     2     2
 -2.2969972587744243E+00 a      1023     1    11     2     3
 -6.1593093217226675E+00 a      1024     1    11     2     4
  2.1779779653968703E+00 a      1025     1    11     2     5
  1.3886056035647667E+00 a      1026     1    11     2     6
 -1.6413591586957168E+00 a      1027     1    11     2     7
  1.5778808189739038E+00 a      1028     1    11     2     8
  4.8432248342717665E+00 a      1029     1    11     2     9
 -5.9080925285497754E+00 a      1030     1    11     2    10
 -4.2312060124136561E+00 a      1031     1    11     2    11
 -1.4159959313438133E+00 a      1032     1    11     2    12
 -4.4679717651296047E-01 a      1033     1    11     2    13
 -9.9612274099701892E-01 a      1034     1    11     2    14
 -3.4256779970477527E+00 a      1035     1    11     2    15
  2.3216362223189151E+00 a      1036     1    11     2    16
  2.5196196763979368E+00 a      1037     1    11     2    17
  4.9951750988090193E+00 a      1038     1    11     2    18
 -1.9956037500653092E+00 a      1039     1    11     2    19
  5.8176759593058069E-01 a      1040     1    11     2    20
  7.9260492736417714E+00 a      1041     1    12     2     1
  9.6417605345066768E+00 a      1042     1    12     2     2
  3.6446656378194442E+00 a      1043     1    12     2     3
 -2.5181474932354977E+00 a      1044     1    12     2     4
  5.4877849996563999E+00 a      1045     1    12     2     5
 -8.1549658418348814E-01 a      1046     1    12     2     6
 -5.0293758468937915E+00 a      1047     1    12     2     7
  4.5715203745418567E+00 a      1048     1    12     2     8
 -3.3796382270122721E-01 a      1049     1    12     2     9
 -6.6463712651634097E+00 a      1050     1    12     2    10
  2.9337436337042071E+00 a      1051     1    12     2    11
 -3.1022523302700762E+00 a      1052     1    12     2    12
 -1.9927516763696143E+00 a      1053     1    12     2    13
  4.6959003990833699E+00 a      1054     1    12     2    14
 -9.6582448624635902E+00 a      1055     1    12     2    15
  1.6646138859163180E+00 a      1056     1    12     2    16
 -1.7350578014080289E+00 a      1057     1    12     2    17
  1.4237427923489612E+00 a      1058     1    12     2    18
  1.3669814333465566E-01 a      1059     1    12     2    19
 -8.7718821235243349E-01 a      1060     1    12     2    20
 -6.7082191945787883E+00 a      1061     1    13     2     1
 -4.5950604332644875E+00 a      1062     1    13     2     2
 -3.0577060793547934E+00 a      1063     1    13     2     3
  1.3122025521652474E+00 a      1064     1    13     2     4
  9.2260985411165730E-01 a      1065     1    13     2     5
  2.7927108507171368E+00 a      1066     1    13     2     6
 -1.1673174125581696E+00 a      1067     1    13     2     7
  3.4543573051559040E+00 a      1068     1    13     2     8
 -4.9784179851949375E+00 a      1069     1    13     2     9
 -9.1027372797571804E-01 a      1070     1    13     2    10
  2.3745196873457294E-01 a      1071     1    13     2    11
  3.0441745215862501E+00 a      1072     1    13     2    12
 -4.6891073101966239E+00 a      1073     1    13     2    13
  2.0326358019419208E+00 a      1074     1    13     2    14
 -8.3744820563687350E-01 a      1075     1    13     2    15
  4.8326086077076944E+00 a      1076     1    13     2    16
 -2.7981723606515039E+00 a      1077     1    13     2    17
  2.5681022879271462E+00 a      1078     1    13     2    18
 -2.2129833435862663E-02 a      1079     1    13     2    19
 -6.0494522145647487E+00 a      1080     1    13     2    20
  7.6328677281253954E-01 a      1081     1    14     2     1
  6.0182516962849952E+00 a      1082     1    14     2     2
  3.1250978256977175E+00 a      1083     1    14     2     3
 -6.2568757417708794E+00 a      1084     1    14     2     4
 -1.2150128199971342E+00 a      1085     1    14     2     5
  7.5050281423655285E+00 a      1086     1    14     2     6
 -8.2429761628291605E+00 a      1087     1    14     2     7
 -4.1748443285039158E+00 a      1088     1    14     2     8
  3.7470898497140221E+00 a      1089     1    14     2     9
 -2.5023558001719906E+00 a      1090     1    14     2    10
  7.0396951613564329E-01 a      1091     1    14     2    11
  1.0933786414314431E-01 a      1092     1    14     2    12
  7.5825570201555976E+00 a      1093     1    14     2    13
  1.7073839696702187E-01 a      1094     1    14     2    14
 -8.7089344390128929E+00 a      1095     1    14     2    15
 -2.7575944861819339E+00 a      1096     1    14     2    16
  1.1833216225776162E+00 a      1097     1    14     2    17
 -3.6199695810546419E+00 a      1098     1    14     2    18
  4.2671511778714422E+00 a      1099     1    14     2    19
  3.4432110331468158E+00 a      1100     1    14     2    20
  5.1528179556680724E+00 a      1101     1    15     2     1
 -2.6765342961868037E+00 a      1102     1    15     2     2
  1.9182848911358935E-01 a      1103     1    15     2     3
  1.1952176466931641E+00 a      1104     1    15     2     4
  9.2875658510889227E-03 a      1105     1    15     2     5
  1.9404818624709315E+00 a      1106     1    15     2     6
 -2.6567291734495164E+00 a      1107     1    15     2     7
  3.9640169319879806E+00 a      1108     1    15     2     8
  2.9852613202739611E+00 a      1109     1    15     2     9
 -2.6521409985658240E+00 a      1110     1    15     2    10
  2.1947864521316118E+00 a      1111     1    15     2    11
  6.8134051152954134E-01 a      1112     1    15     2    12
  6.1547661219320924E+00 a      1113     1    15     2    13
 -8.9067763262313115E-01 a      1114     1    15     2    14
  2.9340203910701272E+00 a      1115     1    15     2    15
 -1.2861881242164694E+00 a      1116     1    15     2    16
 -4.2259565175437575E-01 a      1117     1    15     2    17
  5.2741620822009212E+00 a      1118     1    15     2    18
  3.1198734815586153E+00 a      1119     1    15     2    19
 -2.4110846553078624E+00 a      1120     1    15     2    20
  3.6536923920121969E+00 a      1121     1    16     2     1
 -5.1263162415681673E+00 a      1122     1    16     2     2
  5.6196496850900814E+00 a      1123     1    16     2     3
 -1.8902620019550873E+00 a      1124     1    16     2     4
  8.6741082084224121E+00 a      1125     1    16     2     5
 -1.0695046816473534E+01 a      1126     1    16     2     6
 -3.2981766999329847E+00 a      1127     1    16     2     7
  7.4073456209074937E+00 a      1128     1    16     2     8
  2.2904471540721447E+00 a      1129     1    16     2     9
  1.1819430770472452E+00 a      1130     1    16     2    10
  2.6504266568468524E+00 a      1131     1    16     2    11
 -5.3686408377605881E+00 a      1132     1    16     2    12
 -5.1610110091118990E+00 a      1133     1    16     2    13
 -5.7883812013350147E+00 a      1134     1    16     2    14
 -1.0585010389413541E+00 a      1135     1    16     2    15
  2.5405289578504799E+00 a      1136     1    16     2    16
  6.1240993808410060E-01 a      1137     1    16     2    17
  3.3793775314241770E+00 a      1138     1    16     2    18
  4.6473756413948059E-01 a      1139     1    16     2    19
 -1.3214737129888010E+00 a      1140     1    16     2    20
  2.0786989537759886E+00 a      1141     1    17     2     1
  4.7532743400962838E+00 a      1142     1    17     2     2
 -8.2050634738093216E+00 a      1143     1    17     2     3
 -3.9399259014772285E+00 a      1144     1    17     2     4
  6.3997497280477829E+00 a      1145     1    17     2     5
  6.4919205380975606E+00 a      1146     1    17     2     6
 -2.2594180573124651E+00 a      1147     1    17     2     7
  4.8711059773590859E-02 a      1148     1    17     2     8
 -3.6578838032732626E+00 a      1149     1    17     2     9
  1.7093207306013525E+00 a      1150     1    17     2    10
  7.4400050682904215E+00 a      1151     1    17     2    11
 -5.8915057161477433E+00 a      1152     1    17     2    12
 -7.4513019428553902E+00 a      1153     1    17     2    13
 -6.5779727610731218E+00 a      1154     1    17     2    14
 -5.4267020043302141E+00 a      1155     1    17     2    15
 -2.9141004001919351E+00 a      1156     1    17     2    16
  6.2412359143620855E-01 a      1157     1    17     2    17
  9.7920904120608565E-01 a      1158     1    17     2    18
  1.4141609440708025E+00 a      1159     1    17     2    19
 -1.2962536007839580E+00 a      1160     1    17     2    20
 -1.3087999847094176E+00 a      1161     1    18     2     1
  3.5760136811357923E+00 a      1162     1    18     2     2
  6.5188156956186105E-01 a      1163     1    18     2     3
 -9.1373184755821146E+00 a      1164     1    18     2     4
 -2.5609789979535651E+00 a      1165     1    18     2     5
 -7.5804719035193688E+00 a      1166     1    18     2     6
 -8.1997094220021509E+00 a      1167     1    18     2     7
  1.0869129123493387E+01 a      1168     1    18     2     8
 -1.0970280271436330E+00 a      1169     1    18     2     9
  3.7028152104213179E+00 a      1170     1    18     2    10
  6.7836384335792594E+00 a      1171     1    18     2    11
 -6.8071838095276531E+00 a      1172     1    18     2    12
 -2.7298624415966319E+00 a      1173     1    18     2    13
  8.8076604063836961E-01 a      1174     1    18     2    14
 -1.3906454039035356E+00 a      1175     1    18     2    15
  1.3573982345390034E+00 a      1176     1    18     2    16
 -8.8636272625956414E-01 a      1177     1    18     2    17
 -3.1613131902160809E+00 a      1178     1    18     2    18
  2.3172815409799852E+00 a      1179     1    18     2    19
 -2.1724913725690849E+00 a      1180     1    18     2    20
  1.0122565151985340E+01 a      1181     1    19     2     1
  2.7613099873411717E+00 a      1182     1    19     2     2
  2.0475265798552185E+00 a      1183     1    19     2     3
  7.6827224331609205E+00 a      1184     1    19     2     4
  5.0227435119166861E+00 a      1185     1    19     2     5
 -3.2459165646549659E-01 a      1186     1    19     2     6
 -5.9889165526494716E+00 a      1187     1    19     2     7
 -2.5634423901738197E+00 a      1188     1    19     2     8
  2.4527670174858058E+00 a      1189     1    19     2     9
 -1.1099074466077070E+00 a      1190     1    19     2    10
  7.5653899962304765E+00 a      1191     1    19     2    11
 -2.4964547689708390E+00 a      1192     1    19     2    12
 -1.8681787138915857E+00 a      1193     1    19     2    13
 -1.2852240028800532E+01 a      1194     1    19     2    14
 -9.9477237842702007E+00 a      1195     1    19     2    15
 -2.5722774045461558E+00 a      1196     1    19     2    16
 -3.5995910658411373E-01 a      1197     1    19     2    17
  5.6858725741105487E-01 a      1198     1    19     2    18
  4.0920727969446951E+00 a      1199     1    19     2    19
 -5.1377604681518241E+00 a      1200     1    19     2    20
 -1.6903866901514505E+01 a      1201     1    20     2     1
 -1.0316263248581063E+01 a      1202     1    20     2     2
  3.3969766061714113E-01 a      1203     1    20     2     3
  5.7346693671315716E+00 a      1204     1    20     2     4
  5.9003095413028517E-01 a      1205     1    20     2     5
  3.8848337189070787E+00 a      1206     1    20     2     6
  9.8956859609338697E+00 a      1207     1    20     2     7
  4.5040523816837617E+00 a      1208     1    20     2     8
 -6.8514378671938203E-01 a      1209     1    20     2     9
 -1.1109955320808684E+00 a      1210     1    20     2    10
 -1.5828600808410065E+00 a      1211     1    20     2    11
  2.1752468822994708E+00 a      1212     1    20     2    12
 -1.6227460547601413E+00 a      1213     1    20     2    13
  5.2613971133196005E+00 a      1214     1    20     2    14
 -1.1549525611596355E+01 a      1215     1    20     2    15
 -7.2445643622428442E+00 a      1216     1    20     2    16
  3.2046034761620832E+00 a      1217     1    20     2    17
 -3.2105282470223044E+00 a      1218     1    20     2    18
  1.5044461670902147E+00 a      1219     1    20     2    19
 -9.2183014405713970E-02 a      1220     1    20     2    20
 -4.8146835921183451E+00 b      1221     2     1
  2.2855759083726063E+01 b      1222     2     2
  9.3661318512942704E-01 b      1223     2     3
 -1.6040024468102065E+01 b      1224     2     4
 -1.5655368413672596E+01 b      1225     2     5
  1.1541833947737983E+01 b      1226     2     6
  1.8231374577968218E+01 b      1227     2     7
 -7.1812410196739593E+00 b      1228     2     8
 -1.0170758279467551E+01 b      1229     2     9
 -3.1859207978096649E+00 b      1230     2    10
  9.6051338877558301E+00 b      1231     2    11
  1.2097237450490756E+01 b      1232     2    12
  4.5857117129813805E+00 b      1233     2    13
  9.0513577112833605E+00 b      1234     2    14
 -4.3915370651078129E+00 b      1235     2    15
 -7.9194961808901176E+00 b      1236     2    16
 -1.0647878551088354E+00 b      1237     2    17
 -3.0736551946348342E+01 b      1238     2    18
 -4.6818840174823650E+00 b      1239     2    19
  5.4475398317717427E-01 b      1240     2    20
 -2.9570026814383082E-01 a      1241     2     1     3     1
 -3.0216008543872586E-01 a      1242     2     2     3     1
  3.5991587519061752E-01 a      1243     2     3     3     1
 -2.5400348445720844E-01 a      1244     2     4     3     1
 -8.5207055013008015E-02 a      1245     2     5     3     1
  1.7256305707744030E-01 a      1246     2     6     3     1
 -2.5394644268949529E-01 a      1247     2     7     3     1
 -2.0005535321638362E-01 a      1248     2     8     3     1
 -3.3110264528440952E-01 a      1249     2     9     3     1
 -1.3446083082660126E-01 a      1250     2    10     3     1
  7.7254482962475668E-02 a      1251     2    11     3     1
  2.3934360407851762E-01 a      1252     2    12     3     1
  7.1184412650199522E-02 a      1253     2    13     3     1
 -1.3960330066749363E-01 a      1254     2    14     3     1
  2.5079730834676583E-01 a      1255     2    15     3     1
 -2.6451443377484923E-01 a      1256     2    16     3     1
 -3.4247194325367608E-01 a      1257     2    17     3     1
  3.9786693078862562E-01 a      1258     2    18     3     1
  1.0857621159720827E-01 a      1259     2    19     3     1
  1.3185940359060436E-01 a      1260     2    20     3     1
  1.3649499810188026E-01 b      1261     3     1
