################################################################################
# Neural network connection values (weights and biases).
################################################################################
# Col  Name       Description
################################################################################
# 1    connection Neural network connection value.
# 2    t          Connection type (a = weight, b = bias).
# 3    index      Index enumerating weights.
# 4    l_s        Starting point layer (end point layer for biases).
# 5    n_s        Starting point neuron in starting layer (end point neuron for biases).
# 6    l_e        End point layer.
# 7    n_e        End point neuron in end layer.
################################################################################
#                      1 2         3     4     5     6     7
#             connection t     index   l_s   n_s   l_e   n_e
############################################################
 -7.2421129488596900E+00 a         1     0     1     1     1
  8.7408079814883237E+00 a         2     0     1     1     2
 -4.2815313545786369E+00 a         3     0     1     1     3
  1.0246222810795143E+01 a         4     0     1     1     4
 -2.7811773146837746E+00 a         5     0     1     1     5
  6.1915887159019656E+00 a         6     0     1     1     6
  3.7310273600512267E+00 a         7     0     1     1     7
 -4.4613919206189519E-02 a         8     0     1     1     8
  9.0199909387679345E+00 a         9     0     1     1     9
 -1.5582542042178962E+00 a        10     0     1     1    10
 -4.9637240034297356E+00 a        11     0     1     1    11
 -4.1586517046942451E+00 a        12     0     1     1    12
  3.2940995510471067E+00 a        13     0     1     1    13
 -1.2568085299002297E+01 a        14     0     1     1    14
  1.9889353327651654E-01 a        15     0     1     1    15
 -3.6627536539381907E+01 a        16     0     1     1    16
 -1.5990761099453360E+01 a        17     0     1     1    17
 -4.8375244614667743E+00 a        18     0     1     1    18
 -2.0070206876072616E+00 a        19     0     1     1    19
 -5.7907968089350801E+00 a        20     0     1     1    20
  1.1713022647261440E+01 a        21     0     2     1     1
 -2.6390837297427630E+00 a        22     0     2     1     2
  7.4882476666145346E+00 a        23     0     2     1     3
 -1.2042602890384412E+01 a        24     0     2     1     4
 -2.5013291691625619E+00 a        25     0     2     1     5
  1.1853831632078031E+00 a        26     0     2     1     6
  1.1410797471392945E+01 a        27     0     2     1     7
  6.9668008804161232E+00 a        28     0     2     1     8
  3.0981453745903971E+00 a        29     0     2     1     9
 -9.4267724911442698E+00 a        30     0     2     1    10
  8.6174079380967363E+00 a        31     0     2     1    11
 -1.5379214344158409E+00 a        32     0     2     1    12
 -4.4459702029143067E+00 a        33     0     2     1    13
 -6.8666157935552707E+00 a        34     0     2     1    14
  1.9861941218576412E+01 a        35     0     2     1    15
  2.0467590912372035E+01 a        36     0     2     1    16
 -8.8652105479961101E+00 a        37     0     2     1    17
 -3.4918018537318600E+00 a        38     0     2     1    18
 -9.7704926909394025E+00 a        39     0     2     1    19
 -2.4519303395620778E-01 a        40     0     2     1    20
  5.0249246855464893E+00 a        41     0     3     1     1
  9.3910531815174227E+00 a        42     0     3     1     2
  7.1892382258480492E+00 a        43     0     3     1     3
 -1.2171708226177017E+01 a        44     0     3     1     4
  7.9078510491900813E+00 a        45     0     3     1     5
 -1.6201114044503608E+01 a        46     0     3     1     6
 -2.0659219127115577E+01 a        47     0     3     1     7
 -1.0866728049199626E+01 a        48     0     3     1     8
  9.3701724587892543E-01 a        49     0     3     1     9
  1.9285979298345460E+01 a        50     0     3     1    10
  1.7591360319414082E+00 a        51     0     3     1    11
  1.8173128172705078E+00 a        52     0     3     1    12
 -1.1991531111485571E+01 a        53     0     3     1    13
  4.8810433837863929E+00 a        54     0     3     1    14
 -8.3093818707859857E+00 a        55     0     3     1    15
  1.9762478881234397E+01 a        56     0     3     1    16
  1.1459360695854945E+00 a        57     0     3     1    17
 -1.0086282764601476E+01 a        58     0     3     1    18
 -2.8940439447441522E+00 a        59     0     3     1    19
  1.5183623091745199E+01 a        60     0     3     1    20
 -6.0382013965755661E+00 a        61     0     4     1     1
 -5.8003235166795919E-01 a        62     0     4     1     2
 -7.3522156602927016E+00 a        63     0     4     1     3
  1.8215940114135993E+01 a        64     0     4     1     4
 -1.2637970340226980E+01 a        65     0     4     1     5
  8.9497232532080181E-02 a        66     0     4     1     6
 -1.4217666070322723E+01 a        67     0     4     1     7
  1.1682581226579098E+00 a        68     0     4     1     8
 -1.3526085147290308E+01 a        69     0     4     1     9
  5.8507640684172690E+00 a        70     0     4     1    10
  1.5128832380788797E+01 a        71     0     4     1    11
 -8.6340760207309177E+00 a        72     0     4     1    12
  5.5496110881452632E+00 a        73     0     4     1    13
  1.2804291228305429E+01 a        74     0     4     1    14
 -2.0247552101192287E+01 a        75     0     4     1    15
 -1.9104851720652341E+01 a        76     0     4     1    16
  1.2582247444487209E+01 a        77     0     4     1    17
  1.9220821756722778E+01 a        78     0     4     1    18
  1.3523911726266343E+01 a        79     0     4     1    19
  8.8161772514898828E+00 a        80     0     4     1    20
 -1.2583990506502726E+01 a        81     0     5     1     1
  3.8844621717594943E+00 a        82     0     5     1     2
 -5.7630558130206007E+00 a        83     0     5     1     3
  1.6099785040160086E+01 a        84     0     5     1     4
  1.2864287739111107E+01 a        85     0     5     1     5
  5.8869921756841732E+00 a        86     0     5     1     6
  1.2564438673711311E+00 a        87     0     5     1     7
  1.1345265798139739E+01 a        88     0     5     1     8
 -4.2396624607031512E+00 a        89     0     5     1     9
 -4.8201801962733981E+00 a        90     0     5     1    10
 -1.6522209734411387E+01 a        91     0     5     1    11
  2.4027292675926231E+00 a        92     0     5     1    12
 -4.6651395774790032E+00 a        93     0     5     1    13
  9.7856247526241091E+00 a        94     0     5     1    14
  2.0635686735119911E+01 a        95     0     5     1    15
 -2.8422542364379728E+00 a        96     0     5     1    16
  3.2969360008476580E+00 a        97     0     5     1    17
 -2.4232578101436608E-01 a        98     0     5     1    18
 -8.6133907619836663E+00 a        99     0     5     1    19
 -1.1433783193885553E+01 a       100     0     5     1    20
  5.3854172566690082E+00 a       101     0     6     1     1
  2.2829243043057028E+00 a       102     0     6     1     2
  4.8285139741872705E+00 a       103     0     6     1     3
 -1.4470084161170583E+01 a       104     0     6     1     4
  1.0283940442621478E+01 a       105     0     6     1     5
 -1.1679396521091460E+01 a       106     0     6     1     6
  5.7765189505884544E+00 a       107     0     6     1     7
 -1.3924535155074361E+01 a       108     0     6     1     8
 -3.7202743598434393E+00 a       109     0     6     1     9
  1.3352561609928548E+01 a       110     0     6     1    10
  4.1764388101656635E+00 a       111     0     6     1    11
 -1.8148518323208440E+00 a       112     0     6     1    12
 -9.3068925308203365E+00 a       113     0     6     1    13
  1.7537035498041005E+00 a       114     0     6     1    14
 -4.1037077388966154E+01 a       115     0     6     1    15
 -4.8894453746192958E+00 a       116     0     6     1    16
 -3.4714659376949437E+00 a       117     0     6     1    17
  5.4432547092500752E+00 a       118     0     6     1    18
  7.0442620225993267E+00 a       119     0     6     1    19
  1.0924845590491486E+01 a       120     0     6     1    20
  2.4499640754429790E+00 a       121     0     7     1     1
  9.3340359128251542E+00 a       122     0     7     1     2
  5.5986699739664614E+00 a       123     0     7     1     3
 -1.1064207903747294E+01 a       124     0     7     1     4
 -7.9212664757760418E+00 a       125     0     7     1     5
  6.4321309248499885E+00 a       126     0     7     1     6
 -3.1271323577050243E+00 a       127     0     7     1     7
  2.3611214472617923E+00 a       128     0     7     1     8
  7.0142341922122797E-01 a       129     0     7     1     9
  1.9628237405068254E+00 a       130     0     7     1    10
  6.6413614218246853E+00 a       131     0     7     1    11
 -5.1899172647099494E+00 a       132     0     7     1    12
  1.4396324501118891E+00 a       133     0     7     1    13
  1.4799649977993856E-01 a       134     0     7     1    14
 -5.2952444517752522E+00 a       135     0     7     1    15
 -9.0697316316797156E+00 a       136     0     7     1    16
 -4.6913459746913073E+00 a       137     0     7     1    17
  1.7051050392910867E+01 a       138     0     7     1    18
 -7.3826924791596822E+00 a       139     0     7     1    19
  8.1504272204608086E-01 a       140     0     7     1    20
 -7.2533758854244983E+00 a       141     0     8     1     1
 -6.3347973778308528E+00 a       142     0     8     1     2
 -6.2391167111238044E+00 a       143     0     8     1     3
 -1.0750092162710740E+00 a       144     0     8     1     4
 -1.4697269347865555E+01 a       145     0     8     1     5
  1.6758460825831246E+01 a       146     0     8     1     6
 -2.7364793316782965E+00 a       147     0     8     1     7
  1.4140469436273495E+00 a       148     0     8     1     8
  2.8243556391709972E+00 a       149     0     8     1     9
 -5.3516571899925758E+00 a       150     0     8     1    10
 -8.5301514977688111E+00 a       151     0     8     1    11
 -1.0256030347215337E+00 a       152     0     8     1    12
  4.9794713681778537E+00 a       153     0     8     1    13
 -1.8384687489680489E+00 a       154     0     8     1    14
  1.9164574472946711E+01 a       155     0     8     1    15
  1.4713169352720689E+01 a       156     0     8     1    16
 -1.0993227426658723E+00 a       157     0     8     1    17
 -1.0097937122727241E+00 a       158     0     8     1    18
  6.5286813597773667E+00 a       159     0     8     1    19
 -1.5212557852650821E+01 a       160     0     8     1    20
 -1.1538124499425741E+00 a       161     0     9     1     1
 -5.9109205270563363E+00 a       162     0     9     1     2
 -4.3019445281860555E+00 a       163     0     9     1     3
  6.4596264439570117E+00 a       164     0     9     1     4
  1.0360756517282944E+01 a       165     0     9     1     5
  1.1813632006821373E+00 a       166     0     9     1     6
 -3.4637688527481374E+00 a       167     0     9     1     7
 -2.0226949777316592E+00 a       168     0     9     1     8
  6.4803636283545052E-01 a       169     0     9     1     9
 -5.6123373929871150E+00 a       170     0     9     1    10
 -4.9681043633677406E+00 a       171     0     9     1    11
 -1.1646973600020658E+00 a       172     0     9     1    12
 -7.7506493569814774E+00 a       173     0     9     1    13
 -4.1665677929016649E+00 a       174     0     9     1    14
  6.8076873323947158E+00 a       175     0     9     1    15
  7.8818043737109251E+00 a       176     0     9     1    16
 -2.2810245148029633E+00 a       177     0     9     1    17
 -1.3636622913057819E+00 a       178     0     9     1    18
 -6.5338696309580246E+00 a       179     0     9     1    19
 -4.7784861900182252E+00 a       180     0     9     1    20
  7.6178785367883401E+00 a       181     0    10     1     1
  1.8930674532842331E+00 a       182     0    10     1     2
 -1.9136354755902669E+00 a       183     0    10     1     3
  1.6986245843329997E+00 a       184     0    10     1     4
  7.1903851489246069E+00 a       185     0    10     1     5
 -7.9919928506412461E+00 a       186     0    10     1     6
 -1.5742317707914600E+01 a       187     0    10     1     7
  2.8726169752129715E+00 a       188     0    10     1     8
 -5.3545062193723769E+00 a       189     0    10     1     9
 -4.5147732902251274E+00 a       190     0    10     1    10
  5.4661604611088972E+00 a       191     0    10     1    11
  1.8047659858832454E+00 a       192     0    10     1    12
  3.3422393191062501E+00 a       193     0    10     1    13
 -1.1106598206579097E+00 a       194     0    10     1    14
 -1.8852225919722311E+01 a       195     0    10     1    15
 -1.5286501765540619E+01 a       196     0    10     1    16
  5.8123076475058666E-01 a       197     0    10     1    17
 -1.5941647766728617E-01 a       198     0    10     1    18
 -9.3591967033286245E+00 a       199     0    10     1    19
  2.5498195561712702E+00 a       200     0    10     1    20
 -4.8696609037711882E+00 a       201     0    11     1     1
  2.5284038324107274E+00 a       202     0    11     1     2
 -1.1823400910249644E+00 a       203     0    11     1     3
 -4.5455026394797837E+00 a       204     0    11     1     4
 -7.7233486478983604E+00 a       205     0    11     1     5
 -5.5114326165696808E+00 a       206     0    11     1     6
  2.2799385464087458E+00 a       207     0    11     1     7
  5.8227143543810129E+00 a       208     0    11     1     8
 -4.1438792095435897E+00 a       209     0    11     1     9
 -5.3235524627907154E+00 a       210     0    11     1    10
 -3.4275562557676154E-01 a       211     0    11     1    11
  5.3166435021181737E+00 a       212     0    11     1    12
  7.5634992231195879E+00 a       213     0    11     1    13
  4.7397886545824255E+00 a       214     0    11     1    14
  5.1393047717613953E+00 a       215     0    11     1    15
 -3.2439473428913663E+00 a       216     0    11     1    16
 -1.1920986739859975E+01 a       217     0    11     1    17
  1.3477381706960516E+01 a       218     0    11     1    18
 -4.8092522054763408E-02 a       219     0    11     1    19
  7.8441335816679461E+00 a       220     0    11     1    20
 -1.0460983422997169E+01 a       221     0    12     1     1
  5.3581959555124508E+00 a       222     0    12     1     2
  2.5858104345033053E+00 a       223     0    12     1     3
 -5.0387473914644687E+00 a       224     0    12     1     4
  4.2514650045598392E+00 a       225     0    12     1     5
  2.0741722167511139E+00 a       226     0    12     1     6
  1.2717771565320087E+01 a       227     0    12     1     7
  1.9164920650521153E+00 a       228     0    12     1     8
 -1.9146778449933186E+00 a       229     0    12     1     9
 -3.6619569167996073E+00 a       230     0    12     1    10
 -5.2363294924991530E+00 a       231     0    12     1    11
 -7.7636583600789271E+00 a       232     0    12     1    12
 -2.4638564539787580E+00 a       233     0    12     1    13
  7.5884191410231916E-01 a       234     0    12     1    14
 -1.4298116232192897E+00 a       235     0    12     1    15
 -2.6931272985670152E+00 a       236     0    12     1    16
  8.1003650563505527E+00 a       237     0    12     1    17
 -1.1671771160074920E+00 a       238     0    12     1    18
  4.7746074566158256E+00 a       239     0    12     1    19
 -7.0412280170660511E+00 a       240     0    12     1    20
  3.0848240961872793E+00 a       241     0    13     1     1
 -8.8302686561870178E+00 a       242     0    13     1     2
 -3.6824134253196030E+00 a       243     0    13     1     3
  2.5341619600902168E+00 a       244     0    13     1     4
  7.6398067437499755E+00 a       245     0    13     1     5
 -2.6470332843278697E+00 a       246     0    13     1     6
 -5.1234136117703448E+00 a       247     0    13     1     7
 -7.6284057416469164E-01 a       248     0    13     1     8
  7.7805717578243447E+00 a       249     0    13     1     9
 -4.1619558737476636E-01 a       250     0    13     1    10
 -1.2981287480082601E+01 a       251     0    13     1    11
  1.7302258476688839E+00 a       252     0    13     1    12
 -7.7013626974421907E+00 a       253     0    13     1    13
 -1.4679389601263891E+01 a       254     0    13     1    14
  5.4760688309417578E+00 a       255     0    13     1    15
 -6.1558558214018886E+00 a       256     0    13     1    16
  6.2270804939489581E+00 a       257     0    13     1    17
 -1.0982044937989189E+01 a       258     0    13     1    18
  3.4940243317840740E+00 a       259     0    13     1    19
 -9.6227043758656627E+00 a       260     0    13     1    20
  7.8906308452167400E+00 a       261     0    14     1     1
 -1.8931923527847381E+00 a       262     0    14     1     2
  2.5957792759096104E-01 a       263     0    14     1     3
  9.3379899107490303E+00 a       264     0    14     1     4
 -8.0244931933257906E+00 a       265     0    14     1     5
  4.3035896433084151E+00 a       266     0    14     1     6
 -4.1595241693299103E+00 a       267     0    14     1     7
  8.2224136076155379E+00 a       268     0    14     1     8
 -1.1214779871020632E-01 a       269     0    14     1     9
  4.9524319758440951E+00 a       270     0    14     1    10
  3.0902141352368733E+00 a       271     0    14     1    11
 -1.5277938570794720E+00 a       272     0    14     1    12
 -5.5044422226060572E+00 a       273     0    14     1    13
  3.1781767027606889E+00 a       274     0    14     1    14
  1.0131902067076457E+01 a       275     0    14     1    15
  5.5892050993586526E+00 a       276     0    14     1    16
 -3.7845556304162451E+00 a       277     0    14     1    17
 -3.9963805823105497E-01 a       278     0    14     1    18
  6.9427136975310013E+00 a       279     0    14     1    19
 -1.7144680434335593E+00 a       280     0    14     1    20
  7.4350829080386553E+00 a       281     0    15     1     1
 -3.1957931547591882E+00 a       282     0    15     1     2
 -1.4161654107707042E+01 a       283     0    15     1     3
 -6.2578827621308424E+00 a       284     0    15     1     4
  6.1621653142709798E-01 a       285     0    15     1     5
  4.2689670314502131E+00 a       286     0    15     1     6
 -6.7314176015590395E+00 a       287     0    15     1     7
 -2.2999869251637448E+00 a       288     0    15     1     8
  3.6272034288334756E+00 a       289     0    15     1     9
  7.6208073047524332E+00 a       290     0    15     1    10
 -1.7461651741456180E+01 a       291     0    15     1    11
 -4.9968835414648733E+00 a       292     0    15     1    12
  6.8110072216455313E+00 a       293     0    15     1    13
 -6.7302077427335414E+00 a       294     0    15     1    14
  3.7976072853297342E+00 a       295     0    15     1    15
 -2.7706801490669669E+01 a       296     0    15     1    16
 -7.0652269621111659E+00 a       297     0    15     1    17
  1.6090625434058889E+01 a       298     0    15     1    18
  2.3504525802376570E+01 a       299     0    15     1    19
 -5.4147790954944721E+00 a       300     0    15     1    20
  7.2546696328993754E+00 a       301     0    16     1     1
 -2.7874648601132018E-01 a       302     0    16     1     2
 -5.7178225486733507E-02 a       303     0    16     1     3
  1.3572362164580456E+01 a       304     0    16     1     4
 -3.9386927024546829E+00 a       305     0    16     1     5
  5.9667565556671076E-01 a       306     0    16     1     6
 -4.5330494368928722E+00 a       307     0    16     1     7
  1.2700656344609131E+01 a       308     0    16     1     8
  5.7825947719749771E-01 a       309     0    16     1     9
 -9.1056365056154764E-01 a       310     0    16     1    10
  1.7928419672529347E-01 a       311     0    16     1    11
 -1.0434742193619693E+00 a       312     0    16     1    12
 -1.8914699686802168E+00 a       313     0    16     1    13
  5.8341463935161224E+00 a       314     0    16     1    14
  7.6821142246838727E+00 a       315     0    16     1    15
  6.0587098786808049E+00 a       316     0    16     1    16
 -9.8217001064697858E+00 a       317     0    16     1    17
 -3.3942670027297130E+00 a       318     0    16     1    18
  9.1114153623913356E+00 a       319     0    16     1    19
 -9.6249170122210670E-01 a       320     0    16     1    20
  4.0231046145911478E+00 a       321     0    17     1     1
  1.2656426254515077E+01 a       322     0    17     1     2
  1.9688682179582816E+01 a       323     0    17     1     3
  4.2089586414041404E+00 a       324     0    17     1     4
 -4.8945246215066209E+00 a       325     0    17     1     5
 -3.1001653932377828E+00 a       326     0    17     1     6
 -4.3390341279962561E+00 a       327     0    17     1     7
  2.1330704288839083E+01 a       328     0    17     1     8
 -1.0938824710867353E+01 a       329     0    17     1     9
 -2.2835307357914715E+01 a       330     0    17     1    10
 -1.6278591220611030E-01 a       331     0    17     1    11
  4.8120017204092802E+00 a       332     0    17     1    12
 -4.2790794529297607E+00 a       333     0    17     1    13
 -4.4936962231099660E+00 a       334     0    17     1    14
  3.2481241850830095E+01 a       335     0    17     1    15
 -2.8943473933857017E+01 a       336     0    17     1    16
 -1.1791896000482746E+01 a       337     0    17     1    17
 -4.9591042915782140E+00 a       338     0    17     1    18
  6.8563922404081923E-01 a       339     0    17     1    19
 -4.2114883942138457E+00 a       340     0    17     1    20
 -1.2290704060186258E+01 a       341     0    18     1     1
 -9.0903421741690238E+00 a       342     0    18     1     2
 -1.2630339447884424E+01 a       343     0    18     1     3
 -2.4914356721852652E+01 a       344     0    18     1     4
  4.8630669772366115E+00 a       345     0    18     1     5
  1.5813716360403260E+01 a       346     0    18     1     6
 -6.3711058993927228E-01 a       347     0    18     1     7
 -1.8667348800013886E-01 a       348     0    18     1     8
  2.6715628164497879E+01 a       349     0    18     1     9
 -7.8298188835050500E+00 a       350     0    18     1    10
  4.0535635813314812E+00 a       351     0    18     1    11
 -1.9336423983471658E+01 a       352     0    18     1    12
 -2.5777793287765089E+01 a       353     0    18     1    13
 -6.3687880555239929E+00 a       354     0    18     1    14
 -4.6723435837791918E+00 a       355     0    18     1    15
  2.4316149307357055E+01 a       356     0    18     1    16
 -3.5259338049667242E+01 a       357     0    18     1    17
  1.2421693519678085E+01 a       358     0    18     1    18
 -8.6620181247011518E-01 a       359     0    18     1    19
 -8.9718546810155626E+00 a       360     0    18     1    20
  9.9798076905297677E+00 a       361     0    19     1     1
  2.4868995594669336E+01 a       362     0    19     1     2
  7.3853903760610100E+00 a       363     0    19     1     3
 -1.0461082472608300E+01 a       364     0    19     1     4
  5.5146027926463921E+00 a       365     0    19     1     5
  2.4486611477333948E+01 a       366     0    19     1     6
  3.0877181958587703E+00 a       367     0    19     1     7
  7.2661123511140335E+00 a       368     0    19     1     8
  4.7154433719386182E+00 a       369     0    19     1     9
  1.0322327641642172E+01 a       370     0    19     1    10
 -3.1886006541287319E+01 a       371     0    19     1    11
  1.3698473040220824E+01 a       372     0    19     1    12
 -9.4457353379464692E-01 a       373     0    19     1    13
 -1.0384371489320904E+01 a       374     0    19     1    14
  5.5546372375214874E+00 a       375     0    19     1    15
  3.0397695963703355E+00 a       376     0    19     1    16
  2.0817923837981578E+01 a       377     0    19     1    17
 -4.4844474461829257E+01 a       378     0    19     1    18
  1.2717993027290118E+01 a       379     0    19     1    19
 -3.1179349374210488E+00 a       380     0    19     1    20
  7.2083833155315942E+00 a       381     0    20     1     1
 -1.0851409594461586E+01 a       382     0    20     1     2
 -8.8287703719557253E+00 a       383     0    20     1     3
  1.3217480088854241E+00 a       384     0    20     1     4
 -1.4985372279436701E+01 a       385     0    20     1     5
  1.3840301651947364E+01 a       386     0    20     1     6
  2.0587702572599902E+01 a       387     0    20     1     7
 -9.7308157095367473E+00 a       388     0    20     1     8
  3.6230487377455449E+00 a       389     0    20     1     9
  1.1509058080582593E+01 a       390     0    20     1    10
  5.7047177076848188E+00 a       391     0    20     1    11
 -1.4815799361038176E+01 a       392     0    20     1    12
  1.2810738977570358E+01 a       393     0    20     1    13
  1.4352267450561108E+01 a       394     0    20     1    14
 -8.8812746788268910E+00 a       395     0    20     1    15
  1.2590117105431101E+01 a       396     0    20     1    16
  1.2260855354216275E+01 a       397     0    20     1    17
 -8.2675894138177153E+00 a       398     0    20     1    18
 -1.0759834921751237E+01 a       399     0    20     1    19
 -1.0088925710318348E+01 a       400     0    20     1    20
  6.0801401148080503E+00 a       401     0    21     1     1
 -4.5694504022064812E+00 a       402     0    21     1     2
 -7.2170084695361849E+00 a       403     0    21     1     3
  8.8591164531539235E-01 a       404     0    21     1     4
  3.1489924152422715E+00 a       405     0    21     1     5
  2.4495930428799952E+00 a       406     0    21     1     6
  1.6783041216766012E+01 a       407     0    21     1     7
 -1.5862736473688427E+01 a       408     0    21     1     8
 -6.8907721863960161E+00 a       409     0    21     1     9
 -2.7444872408886498E+00 a       410     0    21     1    10
 -6.3123937272417345E+00 a       411     0    21     1    11
 -5.5044757620133433E+00 a       412     0    21     1    12
  2.6978541864601041E+01 a       413     0    21     1    13
  1.2230134411646373E+01 a       414     0    21     1    14
  8.2575203550293566E+00 a       415     0    21     1    15
 -5.8563517662643312E+00 a       416     0    21     1    16
  2.5459235685923503E+01 a       417     0    21     1    17
  1.0584753819938776E+01 a       418     0    21     1    18
  1.3932341637335787E+01 a       419     0    21     1    19
 -1.9215602460734669E+01 a       420     0    21     1    20
  1.9145834933199728E+00 a       421     0    22     1     1
 -4.4664034606444503E+00 a       422     0    22     1     2
 -6.6197172919093319E+00 a       423     0    22     1     3
  1.4874613801178368E+01 a       424     0    22     1     4
 -1.1385811860202578E+01 a       425     0    22     1     5
 -1.4416067190374420E+01 a       426     0    22     1     6
 -5.4214950996985740E+00 a       427     0    22     1     7
 -6.0343280743783358E+00 a       428     0    22     1     8
 -1.3406020787302255E+01 a       429     0    22     1     9
 -2.3820234228731255E+01 a       430     0    22     1    10
  8.8280707177346134E+00 a       431     0    22     1    11
  1.4857708565915836E+01 a       432     0    22     1    12
 -1.1521846066838661E+00 a       433     0    22     1    13
  5.5313575452181611E+00 a       434     0    22     1    14
 -1.3973876968700617E+01 a       435     0    22     1    15
 -2.0325589141117785E+01 a       436     0    22     1    16
 -3.7279020501524758E+00 a       437     0    22     1    17
 -4.5068485436455702E-01 a       438     0    22     1    18
 -2.8959152368968322E+01 a       439     0    22     1    19
 -3.9532247775825748E+00 a       440     0    22     1    20
 -6.4332735487491641E+00 a       441     0    23     1     1
 -2.4639210214476451E-01 a       442     0    23     1     2
  1.8189490059433071E+00 a       443     0    23     1     3
 -8.0961757023102514E+00 a       444     0    23     1     4
 -9.0039020368738125E+00 a       445     0    23     1     5
 -1.8450368200524640E+01 a       446     0    23     1     6
  2.2012622988975568E+01 a       447     0    23     1     7
 -2.8127828915125610E+00 a       448     0    23     1     8
  4.6089850937191903E+00 a       449     0    23     1     9
  1.2703529124282394E+01 a       450     0    23     1    10
 -4.5082779308973808E-01 a       451     0    23     1    11
  4.9573378476605467E-01 a       452     0    23     1    12
 -4.3006932059437268E+00 a       453     0    23     1    13
 -5.1022302367141936E-01 a       454     0    23     1    14
  1.7295706180927390E+00 a       455     0    23     1    15
  4.6708148052872520E+00 a       456     0    23     1    16
  7.0954928599664440E+00 a       457     0    23     1    17
 -1.8834899214574417E+01 a       458     0    23     1    18
 -3.9439217793420238E+00 a       459     0    23     1    19
  4.3301022199325292E+00 a       460     0    23     1    20
  1.5907275001049324E+01 a       461     0    24     1     1
 -1.3774046130434541E+00 a       462     0    24     1     2
 -2.3236135476143271E+00 a       463     0    24     1     3
  1.2218491094232210E+01 a       464     0    24     1     4
 -7.0484380697261062E-01 a       465     0    24     1     5
 -1.3129063419460332E+01 a       466     0    24     1     6
 -1.0571337414335911E+01 a       467     0    24     1     7
 -3.4369713379876856E+01 a       468     0    24     1     8
 -1.4081585241202120E+01 a       469     0    24     1     9
 -8.2609396891068734E+00 a       470     0    24     1    10
 -4.9969134513850637E+00 a       471     0    24     1    11
  1.0071886736081172E+01 a       472     0    24     1    12
  2.3995573776623771E+00 a       473     0    24     1    13
 -1.8746546029578482E+01 a       474     0    24     1    14
 -1.3970545774315305E+01 a       475     0    24     1    15
 -1.9987908306766069E+01 a       476     0    24     1    16
  1.9708488859469128E+01 a       477     0    24     1    17
  2.4708757973803241E+01 a       478     0    24     1    18
 -2.0736551170821681E+01 a       479     0    24     1    19
  1.2507535132329558E+01 a       480     0    24     1    20
 -5.9209955568071440E+00 a       481     0    25     1     1
  7.2634675239136923E+00 a       482     0    25     1     2
  4.4110512797408425E+00 a       483     0    25     1     3
 -6.3804043507539578E+00 a       484     0    25     1     4
  1.9963341647319897E+00 a       485     0    25     1     5
  4.5584676595314475E+00 a       486     0    25     1     6
 -7.7337163048902973E+00 a       487     0    25     1     7
  1.1707157833391651E+01 a       488     0    25     1     8
  5.1685978088306799E+00 a       489     0    25     1     9
 -8.0005376632484602E+00 a       490     0    25     1    10
 -1.7872506693008074E+01 a       491     0    25     1    11
 -4.5610408981714645E+00 a       492     0    25     1    12
  9.6644834100351531E+00 a       493     0    25     1    13
  6.5034815738505838E+00 a       494     0    25     1    14
  5.9877069289992835E-01 a       495     0    25     1    15
  1.1889264876954703E+01 a       496     0    25     1    16
  2.6171407270434788E-01 a       497     0    25     1    17
 -1.9076681644329685E+01 a       498     0    25     1    18
  7.1464130310235134E+00 a       499     0    25     1    19
  1.2590362189545649E+01 a       500     0    25     1    20
 -3.0644451525711696E+00 a       501     0    26     1     1
 -7.0305075882928296E+00 a       502     0    26     1     2
  4.5103738538988001E+00 a       503     0    26     1     3
  3.5382628386791776E-01 a       504     0    26     1     4
 -1.7656588085619287E+00 a       505     0    26     1     5
 -7.3518205132798737E+00 a       506     0    26     1     6
  3.3686076170793569E+00 a       507     0    26     1     7
  5.6689186746594089E+00 a       508     0    26     1     8
 -5.2409157666855624E+00 a       509     0    26     1     9
 -1.0259272222057646E+01 a       510     0    26     1    10
 -1.2979408202952003E+00 a       511     0    26     1    11
  5.0497892875066048E+00 a       512     0    26     1    12
 -5.3362433394092559E+00 a       513     0    26     1    13
  5.3457972861032488E-01 a       514     0    26     1    14
  2.6848084570820707E+00 a       515     0    26     1    15
  1.3724218281767666E+01 a       516     0    26     1    16
  8.4672872156425161E+00 a       517     0    26     1    17
 -6.3332927556867427E+00 a       518     0    26     1    18
 -8.2173240814839876E-01 a       519     0    26     1    19
  2.4065956640557406E+01 a       520     0    26     1    20
 -1.2338396408808230E+00 a       521     0    27     1     1
  6.7728477252450805E+00 a       522     0    27     1     2
  9.8083018557209112E+00 a       523     0    27     1     3
 -4.5662113124918662E+00 a       524     0    27     1     4
  1.3392522038435223E+01 a       525     0    27     1     5
 -1.6405353120795991E+00 a       526     0    27     1     6
 -9.7903163525221650E+00 a       527     0    27     1     7
 -1.2672385235124439E-01 a       528     0    27     1     8
  3.6495419634646526E+00 a       529     0    27     1     9
  3.2664382053020148E+01 a       530     0    27     1    10
  3.2627244579375803E+00 a       531     0    27     1    11
  1.2469452244301394E+01 a       532     0    27     1    12
 -1.4588865208018156E+00 a       533     0    27     1    13
 -3.3868422998888339E+00 a       534     0    27     1    14
 -1.3365921916750601E+01 a       535     0    27     1    15
  1.2430361505008614E+01 a       536     0    27     1    16
  1.4200393538510472E+01 a       537     0    27     1    17
  1.4649471346602187E+01 a       538     0    27     1    18
  9.4829062191630271E+00 a       539     0    27     1    19
 -5.1932232725943308E+00 a       540     0    27     1    20
 -7.4926614738865389E+00 a       541     0    28     1     1
  3.4841564317206450E+00 a       542     0    28     1     2
 -2.5565495255463375E+00 a       543     0    28     1     3
 -1.4401825387709415E+00 a       544     0    28     1     4
 -6.9547663730910116E+00 a       545     0    28     1     5
 -6.3486916847917252E+00 a       546     0    28     1     6
  4.3110682967900216E+00 a       547     0    28     1     7
 -1.4091739817700941E+00 a       548     0    28     1     8
  8.4315435159127219E+00 a       549     0    28     1     9
  1.4645480306518996E+01 a       550     0    28     1    10
 -7.8893610635807638E+00 a       551     0    28     1    11
 -5.1207496544778772E+00 a       552     0    28     1    12
 -2.4500329088722244E+00 a       553     0    28     1    13
 -4.8559532256917475E+00 a       554     0    28     1    14
 -2.8349328264472650E+01 a       555     0    28     1    15
 -6.0453063685210582E+00 a       556     0    28     1    16
 -4.5777890686497642E+00 a       557     0    28     1    17
 -1.5030270935457235E+01 a       558     0    28     1    18
  9.1790374205347973E+00 a       559     0    28     1    19
  4.3167311103354482E+00 a       560     0    28     1    20
  1.0178439168576771E+01 a       561     0    29     1     1
 -1.9170466634608658E+01 a       562     0    29     1     2
 -1.2553094798746830E+01 a       563     0    29     1     3
  5.7628274418444625E-01 a       564     0    29     1     4
  4.2752669346035637E+00 a       565     0    29     1     5
  4.9866915713197524E-01 a       566     0    29     1     6
 -2.1183578104684955E+01 a       567     0    29     1     7
 -1.7470070181886683E+01 a       568     0    29     1     8
  3.1096137693262644E+00 a       569     0    29     1     9
  4.0505863799026480E+00 a       570     0    29     1    10
 -2.0110107267235833E+01 a       571     0    29     1    11
  1.1291422793783100E+01 a       572     0    29     1    12
  3.0071837878774001E+00 a       573     0    29     1    13
  5.5715359052202356E+00 a       574     0    29     1    14
 -3.5452744999524811E+01 a       575     0    29     1    15
 -1.0667464989133435E+01 a       576     0    29     1    16
  9.0413095125291196E+00 a       577     0    29     1    17
 -3.5353094629307392E+01 a       578     0    29     1    18
  9.4085611225721266E-01 a       579     0    29     1    19
 -4.6811766469090834E+00 a       580     0    29     1    20
 -4.8343782420205272E-01 a       581     0    30     1     1
 -1.5814468223059115E+00 a       582     0    30     1     2
  1.5644463115458394E+00 a       583     0    30     1     3
 -2.7879304517261790E+01 a       584     0    30     1     4
  5.7480075192076985E+00 a       585     0    30     1     5
  9.5961000198633499E+00 a       586     0    30     1     6
 -1.2981171404561215E+01 a       587     0    30     1     7
 -7.9456247019649506E+00 a       588     0    30     1     8
 -5.5792986459216998E+00 a       589     0    30     1     9
  3.0494770324673182E+00 a       590     0    30     1    10
  1.3602227456617101E+01 a       591     0    30     1    11
 -9.1138150324201348E+00 a       592     0    30     1    12
  1.7272255577576466E+01 a       593     0    30     1    13
  6.1410402764673702E+00 a       594     0    30     1    14
 -9.4535260534263372E+00 a       595     0    30     1    15
 -5.3723672023756171E-02 a       596     0    30     1    16
  1.1255069051343478E-01 a       597     0    30     1    17
  1.1713540698927188E+01 a       598     0    30     1    18
 -5.3522034135760721E-01 a       599     0    30     1    19
  2.1098875899903174E+01 a       600     0    30     1    20
 -2.1524628066210538E+00 a       601     0    31     1     1
 -7.8728670801901091E+00 a       602     0    31     1     2
 -2.6592978554120439E+00 a       603     0    31     1     3
  8.5567609752727449E+00 a       604     0    31     1     4
 -4.8562617014737040E+00 a       605     0    31     1     5
 -3.6664065736377829E+01 a       606     0    31     1     6
 -1.3017755180128612E+00 a       607     0    31     1     7
 -2.3006320984555384E+01 a       608     0    31     1     8
  1.3543631702656240E+00 a       609     0    31     1     9
 -3.2283383096672349E+00 a       610     0    31     1    10
 -8.3604612189390330E+00 a       611     0    31     1    11
  9.1947335639573757E-01 a       612     0    31     1    12
  1.2507146024904262E+01 a       613     0    31     1    13
  1.4783875927350489E+00 a       614     0    31     1    14
 -6.7313694481524511E+00 a       615     0    31     1    15
 -3.7056226129642931E+00 a       616     0    31     1    16
  1.5279337179549082E+00 a       617     0    31     1    17
  1.3748856809403332E+01 a       618     0    31     1    18
 -1.4581925059670390E+01 a       619     0    31     1    19
  6.7794178221283490E+00 a       620     0    31     1    20
 -1.5064556309648326E+01 a       621     0    32     1     1
  1.2688482358948200E+01 a       622     0    32     1     2
  7.1407294121872900E+00 a       623     0    32     1     3
 -1.5941032497057721E+01 a       624     0    32     1     4
  1.8491508676578150E+01 a       625     0    32     1     5
  2.3680154806485865E+00 a       626     0    32     1     6
 -5.0298066428582908E+00 a       627     0    32     1     7
  1.1530357071533736E+01 a       628     0    32     1     8
  8.1510224949156047E+00 a       629     0    32     1     9
 -8.3564196587523796E+00 a       630     0    32     1    10
  4.6385878360217738E+00 a       631     0    32     1    11
 -8.1746710377902687E+00 a       632     0    32     1    12
  1.2469510280395912E+00 a       633     0    32     1    13
 -1.1017941663322485E+01 a       634     0    32     1    14
  9.5497592783902050E+00 a       635     0    32     1    15
  2.9075526024847157E+01 a       636     0    32     1    16
 -1.8469976132630382E+01 a       637     0    32     1    17
  9.5836658335435878E+00 a       638     0    32     1    18
  1.9783101273979472E+01 a       639     0    32     1    19
 -1.6393215084814319E+00 a       640     0    32     1    20
 -9.3865585192093537E+00 a       641     0    33     1     1
  1.3049296418995299E+01 a       642     0    33     1     2
 -2.1265742234557386E-01 a       643     0    33     1     3
  1.3839889788242330E+01 a       644     0    33     1     4
 -9.1789039158204790E+00 a       645     0    33     1     5
 -5.0681373856077766E-02 a       646     0    33     1     6
  1.2865656705854015E+01 a       647     0    33     1     7
  1.7589225714654919E+01 a       648     0    33     1     8
 -8.3385783286400272E+00 a       649     0    33     1     9
 -4.1528473016030620E-01 a       650     0    33     1    10
  2.0857458204344731E+01 a       651     0    33     1    11
  1.6307281358936876E+01 a       652     0    33     1    12
  2.9296096272059078E+00 a       653     0    33     1    13
 -2.6000319070921073E+01 a       654     0    33     1    14
  3.6648054172614671E+01 a       655     0    33     1    15
  1.2856119643439085E+01 a       656     0    33     1    16
 -2.0495723948100824E+01 a       657     0    33     1    17
 -3.9956625620663520E+00 a       658     0    33     1    18
 -6.6220098289321623E+00 a       659     0    33     1    19
  3.6648434275292852E+00 a       660     0    33     1    20
 -5.2967819845008242E+00 a       661     0    34     1     1
 -2.2174912078114314E+01 a       662     0    34     1     2
  4.3587807186182239E+00 a       663     0    34     1     3
 -1.4925700185698569E+00 a       664     0    34     1     4
  7.8837493043367992E+00 a       665     0    34     1     5
  2.2960663910683522E+01 a       666     0    34     1     6
 -1.8429312424233917E+01 a       667     0    34     1     7
  3.8674035367516645E+01 a       668     0    34     1     8
  8.3230750632938726E+00 a       669     0    34     1     9
 -1.2148777370180603E+00 a       670     0    34     1    10
  7.9180166891399697E+00 a       671     0    34     1    11
 -4.3570185159565691E+00 a       672     0    34     1    12
 -2.4541234307387249E+01 a       673     0    34     1    13
  2.3837116161743410E+01 a       674     0    34     1    14
  1.5259529166803604E+01 a       675     0    34     1    15
 -5.5731123871777708E+00 a       676     0    34     1    16
  1.5060528815675269E+00 a       677     0    34     1    17
 -1.0860120892852191E+01 a       678     0    34     1    18
  3.9505075500485836E+00 a       679     0    34     1    19
 -7.5280331181169373E+00 a       680     0    34     1    20
  5.6892967284421845E+00 a       681     0    35     1     1
  3.3062464525364779E+00 a       682     0    35     1     2
  7.1728824539132530E-01 a       683     0    35     1     3
  6.5297658981708944E+00 a       684     0    35     1     4
  1.0654962383322879E+00 a       685     0    35     1     5
  1.1974059911117541E+01 a       686     0    35     1     6
 -1.5003086333539100E+01 a       687     0    35     1     7
 -3.6773513979639572E-02 a       688     0    35     1     8
  8.1377678258925368E-01 a       689     0    35     1     9
  7.0910900278340927E+00 a       690     0    35     1    10
 -2.6011310752611814E+00 a       691     0    35     1    11
 -4.6977092857809950E+00 a       692     0    35     1    12
  4.7972174293151051E+00 a       693     0    35     1    13
  6.5959485784699075E+00 a       694     0    35     1    14
  5.1342946739572035E+00 a       695     0    35     1    15
 -1.0517827521974799E+00 a       696     0    35     1    16
  1.3086871410036272E+00 a       697     0    35     1    17
 -3.2044470602756676E+00 a       698     0    35     1    18
  1.4196462414561386E+01 a       699     0    35     1    19
 -7.5605787264009710E+00 a       700     0    35     1    20
 -6.8348868504532110E+00 a       701     0    36     1     1
  1.2452017450162291E+01 a       702     0    36     1     2
  1.9672293918799348E+01 a       703     0    36     1     3
  1.5656601560150197E+01 a       704     0    36     1     4
  5.3478575119113945E+00 a       705     0    36     1     5
 -3.4140713307803603E+00 a       706     0    36     1     6
  6.0629787092556162E+00 a       707     0    36     1     7
  1.9301252893847359E+01 a       708     0    36     1     8
 -6.5009681165607547E-01 a       709     0    36     1     9
  2.1195392157700303E+00 a       710     0    36     1    10
  3.0987535913761031E+00 a       711     0    36     1    11
 -3.1363952304734681E+00 a       712     0    36     1    12
 -5.7008156460392465E+00 a       713     0    36     1    13
  9.5981482910134979E+00 a       714     0    36     1    14
  2.2333278038128562E+01 a       715     0    36     1    15
  2.7205056810549873E+01 a       716     0    36     1    16
 -9.5107522197168448E-01 a       717     0    36     1    17
 -5.1588593276916219E+00 a       718     0    36     1    18
  1.1943263629101894E+01 a       719     0    36     1    19
  2.4806767614458427E+00 a       720     0    36     1    20
  5.5145156637937187E-01 a       721     0    37     1     1
 -1.2706845002826032E+01 a       722     0    37     1     2
 -1.0129576502990863E+01 a       723     0    37     1     3
 -9.3769660282236489E-01 a       724     0    37     1     4
 -1.3661103037809326E+00 a       725     0    37     1     5
  3.4158777613018416E+00 a       726     0    37     1     6
  1.0642581675283603E+01 a       727     0    37     1     7
 -3.6949814716811741E-01 a       728     0    37     1     8
  2.9417665923214220E+00 a       729     0    37     1     9
  2.2174983325222102E+00 a       730     0    37     1    10
  1.8162882552075267E+01 a       731     0    37     1    11
  2.4399853889215355E+00 a       732     0    37     1    12
 -2.4196735389745374E+00 a       733     0    37     1    13
  2.3320125384897752E+00 a       734     0    37     1    14
 -8.3188569459407535E+00 a       735     0    37     1    15
 -1.0871874206111840E+00 a       736     0    37     1    16
 -7.5578918744531611E+00 a       737     0    37     1    17
  1.1116696618127881E+01 a       738     0    37     1    18
 -2.3476390427077742E+00 a       739     0    37     1    19
 -7.9130394121676400E+00 a       740     0    37     1    20
 -3.1409071324820008E+00 a       741     0    38     1     1
 -1.2984307290311996E+01 a       742     0    38     1     2
 -2.0449942251771955E+00 a       743     0    38     1     3
  2.0846243873322898E+01 a       744     0    38     1     4
 -1.5808763341515753E+01 a       745     0    38     1     5
 -4.1932741682456571E+00 a       746     0    38     1     6
 -2.4593353647543420E+01 a       747     0    38     1     7
  4.6424787923986859E+00 a       748     0    38     1     8
 -6.3517309391083971E+00 a       749     0    38     1     9
  4.7101871219384650E+00 a       750     0    38     1    10
  3.5152278504289063E+00 a       751     0    38     1    11
  1.3998321672392102E+01 a       752     0    38     1    12
 -3.9287535684973331E+00 a       753     0    38     1    13
  6.7933871107856074E+00 a       754     0    38     1    14
 -2.1901140863002986E+01 a       755     0    38     1    15
 -2.8852279111085917E+01 a       756     0    38     1    16
  5.7833828212564109E+00 a       757     0    38     1    17
  5.5516634056329481E+00 a       758     0    38     1    18
 -9.4387318308948642E-01 a       759     0    38     1    19
 -8.9536492405206882E+00 a       760     0    38     1    20
  1.1818487388247306E+01 a       761     0    39     1     1
  4.1542997467169522E+00 a       762     0    39     1     2
 -1.1466572829970858E+01 a       763     0    39     1     3
  1.1546767545197529E+01 a       764     0    39     1     4
 -1.0660817946633390E+01 a       765     0    39     1     5
  1.0588532414373036E+01 a       766     0    39     1     6
  7.3179143835898905E+00 a       767     0    39     1     7
 -2.1953177023620999E+01 a       768     0    39     1     8
  3.5806372983899055E+00 a       769     0    39     1     9
 -1.8633066669577062E+01 a       770     0    39     1    10
 -1.9423997686530331E+01 a       771     0    39     1    11
 -1.3495731948618305E+01 a       772     0    39     1    12
 -1.6101914258202081E+00 a       773     0    39     1    13
 -7.9276061524264840E-01 a       774     0    39     1    14
  3.4113631696376849E+00 a       775     0    39     1    15
 -6.1735658901490469E+00 a       776     0    39     1    16
 -6.7798669003230652E+00 a       777     0    39     1    17
  2.7703645676192707E+01 a       778     0    39     1    18
 -6.1557420158801150E+00 a       779     0    39     1    19
 -7.7825725182946490E+00 a       780     0    39     1    20
  2.6549712606496585E+00 a       781     0    40     1     1
  1.1862798570386600E+01 a       782     0    40     1     2
  1.0469945310671594E+01 a       783     0    40     1     3
  3.0378568831752992E+00 a       784     0    40     1     4
  2.0115274815613912E+01 a       785     0    40     1     5
 -1.4846465139655358E+01 a       786     0    40     1     6
  1.8833615810763817E+00 a       787     0    40     1     7
  7.6837724351092405E+00 a       788     0    40     1     8
 -3.9193382719390635E+00 a       789     0    40     1     9
 -6.7639457209565403E+00 a       790     0    40     1    10
  1.2274869033443421E+01 a       791     0    40     1    11
  6.5113606712523726E+00 a       792     0    40     1    12
  1.6080391883818596E+01 a       793     0    40     1    13
 -1.6421772238176779E+01 a       794     0    40     1    14
  2.0331880304727111E+01 a       795     0    40     1    15
  1.6112626230096847E+01 a       796     0    40     1    16
  6.5871109112331396E+00 a       797     0    40     1    17
 -6.1533939041384542E+00 a       798     0    40     1    18
 -6.5443195796272347E-01 a       799     0    40     1    19
  3.1643207098379222E+00 a       800     0    40     1    20
 -1.9379949666766225E+00 b       801     1     1
 -4.0811318817540814E+00 b       802     1     2
  6.2393805446175377E-01 b       803     1     3
 -5.8093315351560904E-01 b       804     1     4
 -2.2752568428639175E+00 b       805     1     5
  1.1959570627125252E-01 b       806     1     6
  2.4980239979289363E+00 b       807     1     7
 -1.9779170100782877E+00 b       808     1     8
  1.4082607142881645E+00 b       809     1     9
  3.1290169049263072E+00 b       810     1    10
 -1.0911131955660627E+00 b       811     1    11
  3.7184782195795663E-01 b       812     1    12
 -8.9728628562942447E-01 b       813     1    13
  1.8968599046643864E+00 b       814     1    14
 -5.8260179802017777E+00 b       815     1    15
  1.5238916933349222E+00 b       816     1    16
 -7.4832036174190797E-01 b       817     1    17
 -2.6683946697327636E+00 b       818     1    18
 -3.9860733381620744E-01 b       819     1    19
 -2.6130106021948074E+00 b       820     1    20
 -1.3845778168280063E+00 a       821     1     1     2     1
  1.4283752436915234E+00 a       822     1     1     2     2
  2.6564463841375980E+00 a       823     1     1     2     3
  8.7720844930069788E+00 a       824     1     1     2     4
 -3.8902241331244194E+00 a       825     1     1     2     5
 -3.1266709890627928E+00 a       826     1     1     2     6
 -5.9564388741590140E+00 a       827     1     1     2     7
  2.3742788794485556E+00 a       828     1     1     2     8
 -3.8348836080183135E+00 a       829     1     1     2     9
  1.2707051682390009E+00 a       830     1     1     2    10
 -1.4729763528269031E+00 a       831     1     1     2    11
 -6.0287736524172475E-01 a       832     1     1     2    12
 -1.0735135414134792E-01 a       833     1     1     2    13
 -4.7724495701156497E+00 a       834     1     1     2    14
 -2.6476963065087080E+00 a       835     1     1     2    15
  2.9439313755268652E+00 a       836     1     1     2    16
 -1.0958890999379278E+00 a       837     1     1     2    17
  4.7825381784240562E-01 a       838     1     1     2    18
  7.7018240487163352E+00 a       839     1     1     2    19
 -5.5978755172426196E+00 a       840     1     1     2    20
  4.9848573165851189E+00 a       841     1     2     2     1
 -3.6298426017609269E+00 a       842     1     2     2     2
  1.8722220547411790E+00 a       843     1     2     2     3
  2.7408886119617887E-01 a       844     1     2     2     4
  5.5172505926377662E+00 a       845     1     2     2     5
  9.8091102114842954E-01 a       846     1     2     2     6
 -1.1920305228758723E+00 a       847     1     2     2     7
 -5.6525238626901562E+00 a       848     1     2     2     8
  1.0645290079001966E+00 a       849     1     2     2     9
 -2.1551243281153449E+00 a       850     1     2     2    10
 -4.3888441236153630E+00 a       851     1     2     2    11
 -1.2027912308911490E+00 a       852     1     2     2    12
  6.5109120198438386E-01 a       853     1     2     2    13
  9.2705365706028509E-01 a       854     1     2     2    14
  1.9378898182313118E+00 a       855     1     2     2    15
  4.7380612987794137E+00 a       856     1     2     2    16
  6.2127800072849615E+00 a       857     1     2     2    17
 -3.0147783971186066E+00 a       858     1     2     2    18
 -3.4954432967940159E+00 a       859     1     2     2    19
  4.4481164427018188E-01 a       860     1     2     2    20
  8.7680153145884088E-01 a       861     1     3     2     1
 -2.7170618778363562E+00 a       862     1     3     2     2
  8.0582401607948562E-01 a       863     1     3     2     3
  4.2956591753268070E+00 a       864     1     3     2     4
  4.7798260726343118E+00 a       865     1     3     2     5
 -1.4400497191022288E+00 a       866     1     3     2     6
 -4.5538603974326408E+00 a       867     1     3     2     7
 -2.3042447669014043E+00 a       868     1     3     2     8
  1.3290916660210792E+00 a       869     1     3     2     9
  4.0023790399605579E+00 a       870     1     3     2    10
 -4.4919431918382484E+00 a       871     1     3     2    11
 -6.7083385461715017E-01 a       872     1     3     2    12
 -1.4850072365807672E+00 a       873     1     3     2    13
 -3.1723322127140858E+00 a       874     1     3     2    14
 -3.6991460053591521E+00 a       875     1     3     2    15
 -1.1885978832541850E+00 a       876     1     3     2    16
 -7.6683749544745243E+00 a       877     1     3     2    17
 -4.2612442656634437E+00 a       878     1     3     2    18
  8.9272030006670011E+00 a       879     1     3     2    19
 -3.0081692213391578E+00 a       880     1     3     2    20
 -2.5753653388881270E+00 a       881     1     4     2     1
  1.2243088791099868E-01 a       882     1     4     2     2
  2.0618024881030075E+00 a       883     1     4     2     3
 -8.9532815361390252E+00 a       884     1     4     2     4
  4.1489502871037702E+00 a       885     1     4     2     5
 -2.2123414093248948E+00 a       886     1     4     2     6
 -1.1636663063847348E+00 a       887     1     4     2     7
 -1.7351876036077905E+00 a       888     1     4     2     8
  3.8611977339819186E+00 a       889     1     4     2     9
 -4.3829102150025939E-01 a       890     1     4     2    10
 -1.5454986530699188E+00 a       891     1     4     2    11
  6.6100194347260388E-01 a       892     1     4     2    12
  2.2213530210973897E+00 a       893     1     4     2    13
  1.4049933890157678E+00 a       894     1     4     2    14
  1.5523986434912140E+00 a       895     1     4     2    15
  2.2767944142991499E+00 a       896     1     4     2    16
 -1.2275818548966242E+00 a       897     1     4     2    17
  9.6559137627309749E-02 a       898     1     4     2    18
 -5.3543809138842731E+00 a       899     1     4     2    19
  5.5505375122203011E+00 a       900     1     4     2    20
 -6.7800973620306171E-01 a       901     1     5     2     1
 -1.3419033487626722E+01 a       902     1     5     2     2
  6.0764427265752339E+00 a       903     1     5     2     3
 -9.2916240471289715E+00 a       904     1     5     2     4
  2.7549786630808693E+00 a       905     1     5     2     5
  3.2672179172888951E+00 a       906     1     5     2     6
 -3.3743620410094373E+00 a       907     1     5     2     7
  2.9835570898270687E+00 a       908     1     5     2     8
 -5.1190093514720365E+00 a       909     1     5     2     9
 -7.3193664116991393E+00 a       910     1     5     2    10
  7.2444142916190835E+00 a       911     1     5     2    11
 -4.1118914929957056E+00 a       912     1     5     2    12
 -3.3479562005979253E+00 a       913     1     5     2    13
  4.1045838529971812E-01 a       914     1     5     2    14
 -2.0197947938293521E+00 a       915     1     5     2    15
 -2.3906873911064315E+00 a       916     1     5     2    16
 -6.3733905859122437E+00 a       917     1     5     2    17
  1.1306868146980580E+00 a       918     1     5     2    18
 -3.7685178557547427E+00 a       919     1     5     2    19
 -1.4678681568398226E+00 a       920     1     5     2    20
 -4.4173393856245363E-01 a       921     1     6     2     1
  2.9194828456453186E+00 a       922     1     6     2     2
  5.0976016960990247E+00 a       923     1     6     2     3
  6.5856282187262698E+00 a       924     1     6     2     4
  6.6357357668145882E+00 a       925     1     6     2     5
  3.9006051990510171E+00 a       926     1     6     2     6
  3.5688635458677911E-02 a       927     1     6     2     7
  3.7545212551546117E+00 a       928     1     6     2     8
 -4.9824180398398630E+00 a       929     1     6     2     9
 -4.0007082239892497E+00 a       930     1     6     2    10
  4.9695735500204175E-01 a       931     1     6     2    11
 -9.2480925861928964E-01 a       932     1     6     2    12
  3.2800682342768250E+00 a       933     1     6     2    13
  1.2243715339471570E+00 a       934     1     6     2    14
 -1.3349510582452297E+00 a       935     1     6     2    15
 -5.6453891980831583E-01 a       936     1     6     2    16
 -1.3818126976540734E-01 a       937     1     6     2    17
  4.4764081739272035E+00 a       938     1     6     2    18
 -1.3795210809150296E-01 a       939     1     6     2    19
  3.0983043253521914E-01 a       940     1     6     2    20
  2.4787343917647044E+00 a       941     1     7     2     1
 -2.4271232020946094E+00 a       942     1     7     2     2
 -3.4153950019049377E+00 a       943     1     7     2     3
 -3.7252350366180504E+00 a       944     1     7     2     4
  4.1690430592839736E+00 a       945     1     7     2     5
  2.3335574292920755E+00 a       946     1     7     2     6
 -5.0492074653404826E+00 a       947     1     7     2     7
  2.3459894363559748E+00 a       948     1     7     2     8
 -2.4997253085416654E-01 a       949     1     7     2     9
 -2.6253581458020019E+00 a       950     1     7     2    10
  1.0088966178742408E-02 a       951     1     7     2    11
 -7.4023274690217411E-01 a       952     1     7     2    12
 -3.3372439617318772E+00 a       953     1     7     2    13
  7.8556946820504181E-01 a       954     1     7     2    14
  1.6528342331300485E+00 a       955     1     7     2    15
 -1.6401383405270789E+00 a       956     1     7     2    16
 -3.1308570796985671E+00 a       957     1     7     2    17
 -2.8244128773113208E-01 a       958     1     7     2    18
  9.1447408137475072E+00 a       959     1     7     2    19
 -5.2994628505613957E+00 a       960     1     7     2    20
 -3.6371720621490908E+00 a       961     1     8     2     1
  7.2641025340907657E+00 a       962     1     8     2     2
  6.5032816817761574E-02 a       963     1     8     2     3
  4.1234372555634256E+00 a       964     1     8     2     4
  4.9006675374844191E+00 a       965     1     8     2     5
  6.7395765538422987E+00 a       966     1     8     2     6
 -1.0837870920069516E+01 a       967     1     8     2     7
 -2.4170080688202149E+00 a       968     1     8     2     8
 -9.2297224454433326E+00 a       969     1     8     2     9
  1.8415283184282945E+00 a       970     1     8     2    10
 -5.9088496018056142E+00 a       971     1     8     2    11
 -7.2071947308164175E+00 a       972     1     8     2    12
 -2.3339066586714856E+00 a       973     1     8     2    13
 -1.4480343497065100E+00 a       974     1     8     2    14
 -9.4172438785181478E-01 a       975     1     8     2    15
 -4.5730672282335254E+00 a       976     1     8     2    16
  8.0080439212336363E-01 a       977     1     8     2    17
  4.1440639553812479E+00 a       978     1     8     2    18
  2.4788780468507055E+00 a       979     1     8     2    19
  9.6709075434520708E-01 a       980     1     8     2    20
  2.0228686016306763E+00 a       981     1     9     2     1
  2.6947431864293430E+00 a       982     1     9     2     2
 -4.1895597965016647E+00 a       983     1     9     2     3
  8.0389808585895643E+00 a       984     1     9     2     4
 -6.8963195238715516E+00 a       985     1     9     2     5
 -3.6054253523098208E+00 a       986     1     9     2     6
 -4.4815831226826415E+00 a       987     1     9     2     7
 -3.2558981768710438E-01 a       988     1     9     2     8
 -3.5730180642292635E+00 a       989     1     9     2     9
  2.6916723004577077E+00 a       990     1     9     2    10
 -3.6335555926187055E+00 a       991     1     9     2    11
 -5.6325035578000291E+00 a       992     1     9     2    12
 -6.3853038189746352E+00 a       993     1     9     2    13
 -1.8503719542444248E+00 a       994     1     9     2    14
 -6.0802442239002277E+00 a       995     1     9     2    15
 -7.5351618953029913E+00 a       996     1     9     2    16
 -2.4933738182754843E+00 a       997     1     9     2    17
  2.1267558948381304E+00 a       998     1     9     2    18
 -2.0751627995738855E+00 a       999     1     9     2    19
  4.1736328928942505E+00 a      1000     1     9     2    20
 -3.1564127319076980E+00 a      1001     1    10     2     1
 -4.0732463137396913E+00 a      1002     1    10     2     2
 -4.2352196277405465E+00 a      1003     1    10     2     3
 -4.4694265933213631E+00 a      1004     1    10     2     4
 -1.2551710207958526E+00 a      1005     1    10     2     5
  3.8815367222057535E+00 a      1006     1    10     2     6
 -1.1952803481989176E+00 a      1007     1    10     2     7
  4.6243260677713338E-02 a      1008     1    10     2     8
  9.8522721929179358E-01 a      1009     1    10     2     9
 -1.7747883570891620E-01 a      1010     1    10     2    10
 -1.5102117875093035E+00 a      1011     1    10     2    11
 -6.2461259009689130E-01 a      1012     1    10     2    12
 -2.6853347983968527E+00 a      1013     1    10     2    13
 -3.2063355220035991E-02 a      1014     1    10     2    14
  6.4943531506350494E-01 a      1015     1    10     2    15
  6.8820317721007607E+00 a      1016     1    10     2    16
  1.0161533111890415E+00 a      1017     1    10     2    17
 -1.7068881212877691E+00 a      1018     1    10     2    18
  1.2198367041991602E+00 a      1019     1    10     2    19
 -2.5119916331251941E+00 a      1020     1    10     2    20
  7.7777103075434262E-01 a      1021     1    11     2     1
 -4.9927706365742042E+00 a      1022     1    11     2     2
 -1.9580314883824743E+00 a      1023     1    11     2     3
  4.4148621569355200E+00 a      1024     1    11     2     4
 -2.7194760671501617E+00 a      1025     1    11     2     5
 -1.8544892290921962E+00 a      1026     1    11     2     6
 -2.3811175410896217E+00 a      1027     1    11     2     7
 -2.3437999776348657E+00 a      1028     1    11     2     8
  3.7782443905731560E+00 a      1029     1    11     2     9
  2.1422150268552506E-01 a      1030     1    11     2    10
  4.3932707973505396E+00 a      1031     1    11     2    11
 -6.5202054720812563E-01 a      1032     1    11     2    12
  2.7192965907755204E+00 a      1033     1    11     2    13
 -8.2723865672847485E-01 a      1034     1    11     2    14
  7.1106441813759680E-01 a      1035     1    11     2    15
 -2.7529792991929547E+00 a      1036     1    11     2    16
  4.1737514940609897E+00 a      1037     1    11     2    17
 -3.4646031275820457E+00 a      1038     1    11     2    18
  1.1536257579936071E+00 a      1039     1    11     2    19
  2.9743424811558095E+00 a      1040     1    11     2    20
  2.0128404644503122E+00 a      1041     1    12     2     1
  4.0865779585729092E+00 a      1042     1    12     2     2
  3.2436948241392622E+00 a      1043     1    12     2     3
  3.3781012366037313E+00 a      1044     1    12     2     4
 -3.2572633249373171E+00 a      1045     1    12     2     5
 -1.0645121496872427E+00 a      1046     1    12     2     6
 -3.4518042512076788E+00 a      1047     1    12     2     7
 -2.2459355664084342E+00 a      1048     1    12     2     8
  2.8063184066880233E+00 a      1049     1    12     2     9
 -2.6747619146981236E+00 a      1050     1    12     2    10
  2.9403332208204436E+00 a      1051     1    12     2    11
  3.2790332982606403E+00 a      1052     1    12     2    12
 -1.1774996368585646E+00 a      1053     1    12     2    13
  1.7415489380100126E+00 a      1054     1    12     2    14
  7.5417808801115949E-01 a      1055     1    12     2    15
  7.8366863426776026E-02 a      1056     1    12     2    16
 -3.3689570964272619E-01 a      1057     1    12     2    17
  3.8313425581557231E-01 a      1058     1    12     2    18
  7.8261550606328516E+00 a      1059     1    12     2    19
 -5.3313875780758684E+00 a      1060     1    12     2    20
 -5.9642590210692614E-01 a      1061     1    13     2     1
 -4.3734363670199059E+00 a      1062     1    13     2     2
 -1.3647222006392539E+01 a      1063     1    13     2     3
 -1.0317357258208967E+01 a      1064     1    13     2     4
 -3.6664361259068903E+00 a      1065     1    13     2     5
 -8.9275069758141881E-02 a      1066     1    13     2     6
  8.3536938654009252E-01 a      1067     1    13     2     7
  8.0568215934566734E+00 a      1068     1    13     2     8
 -7.5513004470933183E+00 a      1069     1    13     2     9
 -4.2144091944105906E+00 a      1070     1    13     2    10
  6.9599618045999928E-02 a      1071     1    13     2    11
 -2.1702144805010279E+00 a      1072     1    13     2    12
 -1.0364960836121270E+01 a      1073     1    13     2    13
  1.5451229380559248E+00 a      1074     1    13     2    14
  1.7452440714822146E+00 a      1075     1    13     2    15
  5.5370239691820746E+00 a      1076     1    13     2    16
 -6.2819603976879961E+00 a      1077     1    13     2    17
 -5.9797685759675645E-01 a      1078     1    13     2    18
  7.3803570948206954E+00 a      1079     1    13     2    19
 -7.7248014722956198E+00 a      1080     1    13     2    20
  3.1211699407014373E+00 a      1081     1    14     2     1
  5.3005562851236663E+00 a      1082     1    14     2     2
 -5.2222094789164100E+00 a      1083     1    14     2     3
 -3.0453590683830560E+00 a      1084     1    14     2     4
 -4.9517332939498608E+00 a      1085     1    14     2     5
  2.3203795130115559E+00 a      1086     1    14     2     6
 -6.2697769325242749E+00 a      1087     1    14     2     7
  1.2276167191521389E-01 a      1088     1    14     2     8
 -9.4337687516526039E+00 a      1089     1    14     2     9
 -1.1740081286030847E+01 a      1090     1    14     2    10
  4.6668907096967365E+00 a      1091     1    14     2    11
  7.6173472195612097E+00 a      1092     1    14     2    12
  3.9700751820061764E+00 a      1093     1    14     2    13
 -3.0611901376505211E+00 a      1094     1    14     2    14
 -8.5557671350646636E-01 a      1095     1    14     2    15
  5.2255401449865300E+00 a      1096     1    14     2    16
  7.5466681996013127E+00 a      1097     1    14     2    17
 -1.0537463088577688E+00 a      1098     1    14     2    18
  2.7424953393154325E+00 a      1099     1    14     2    19
 -1.1064866621152962E+01 a      1100     1    14     2    20
  3.3457503349031468E+00 a      1101     1    15     2     1
  5.0227428986589526E+00 a      1102     1    15     2     2
 -8.8855420457590863E+00 a      1103     1    15     2     3
 -1.2019012402243316E+01 a      1104     1    15     2     4
  3.6421834291910189E+00 a      1105     1    15     2     5
 -6.9425675057430656E+00 a      1106     1    15     2     6
  1.4782985849464381E+00 a      1107     1    15     2     7
 -5.4460915118917894E+00 a      1108     1    15     2     8
  4.2163654497696461E+00 a      1109     1    15     2     9
 -8.3496422340492071E-01 a      1110     1    15     2    10
 -1.9211805780398608E-01 a      1111     1    15     2    11
  9.2092317189484501E+00 a      1112     1    15     2    12
 -2.8852403126286656E+00 a      1113     1    15     2    13
  9.2664804717815148E+00 a      1114     1    15     2    14
  5.9187312396065330E+00 a      1115     1    15     2    15
  1.3575034140382096E+01 a      1116     1    15     2    16
 -1.3116352000369012E+01 a      1117     1    15     2    17
 -8.0944117704971441E-01 a      1118     1    15     2    18
 -5.2395359356021007E+00 a      1119     1    15     2    19
  7.1323414810343415E+00 a      1120     1    15     2    20
 -8.1058812205195313E-02 a      1121     1    16     2     1
 -7.4417536572380891E+00 a      1122     1    16     2     2
 -3.3314014229293658E+00 a      1123     1    16     2     3
  4.4835651401540604E+00 a      1124     1    16     2     4
 -7.9713145248245099E-01 a      1125     1    16     2     5
  5.0119888051543162E+00 a      1126     1    16     2     6
 -3.8017597759903983E+00 a      1127     1    16     2     7
 -2.8950905982003610E+00 a      1128     1    16     2     8
  3.6521903971926175E+00 a      1129     1    16     2     9
  7.5972385021564355E+00 a      1130     1    16     2    10
  9.9710958883010847E-01 a      1131     1    16     2    11
 -4.3069640541548901E+00 a      1132     1    16     2    12
  4.9436121092789067E+00 a      1133     1    16     2    13
  9.6946576385834329E-02 a      1134     1    16     2    14
 -1.6976922546436268E+00 a      1135     1    16     2    15
 -3.6849158503807788E+00 a      1136     1    16     2    16
 -3.6670479289471056E+00 a      1137     1    16     2    17
  2.4786450670292299E+00 a      1138     1    16     2    18
 -3.1721837282275414E+00 a      1139     1    16     2    19
  1.3971523559486552E+00 a      1140     1    16     2    20
  5.8537495016351826E-01 a      1141     1    17     2     1
  4.4358170021794665E+00 a      1142     1    17     2     2
  4.6830549352776734E+00 a      1143     1    17     2     3
 -3.2105070904348159E+00 a      1144     1    17     2     4
  3.5429604733739195E-01 a      1145     1    17     2     5
  3.0256178392588251E+00 a      1146     1    17     2     6
  1.1322960143274494E+00 a      1147     1    17     2     7
  1.6954995776283401E+00 a      1148     1    17     2     8
  2.4029467156249815E+00 a      1149     1    17     2     9
 -2.8487618814651361E+00 a      1150     1    17     2    10
  4.3651073538617835E+00 a      1151     1    17     2    11
 -3.2260969502907990E+00 a      1152     1    17     2    12
 -1.2713097500655006E+00 a      1153     1    17     2    13
  1.0330523036202981E+00 a      1154     1    17     2    14
  5.2990923194642923E+00 a      1155     1    17     2    15
 -3.7190883880603981E-01 a      1156     1    17     2    16
 -3.5842011925637922E+00 a      1157     1    17     2    17
 -3.4181313689101267E-01 a      1158     1    17     2    18
 -1.6035017581743380E+00 a      1159     1    17     2    19
  4.7777969979156456E+00 a      1160     1    17     2    20
  9.8651041086161229E-01 a      1161     1    18     2     1
 -1.3185549132489060E+01 a      1162     1    18     2     2
 -8.3218936135124046E+00 a      1163     1    18     2     3
  2.8671846312931287E-01 a      1164     1    18     2     4
  3.7434830132080661E+00 a      1165     1    18     2     5
 -4.6594054414128561E-01 a      1166     1    18     2     6
  1.5070366850001196E+00 a      1167     1    18     2     7
 -8.1325804456158721E+00 a      1168     1    18     2     8
 -2.4355446285281386E+00 a      1169     1    18     2     9
  1.1834287827451648E+01 a      1170     1    18     2    10
  1.2437123424362342E+01 a      1171     1    18     2    11
  4.3466653492185916E+00 a      1172     1    18     2    12
  8.8311536290550467E+00 a      1173     1    18     2    13
 -1.4410393837001760E+00 a      1174     1    18     2    14
 -6.8052289448729472E-02 a      1175     1    18     2    15
  4.0814408121099914E+00 a      1176     1    18     2    16
 -1.9936494895501695E+00 a      1177     1    18     2    17
 -1.0998317584653428E+00 a      1178     1    18     2    18
 -5.8145905166202028E-01 a      1179     1    18     2    19
 -5.5218395442137220E+00 a      1180     1    18     2    20
  9.0125787645017341E-01 a      1181     1    19     2     1
 -2.8986519812809952E+00 a      1182     1    19     2     2
  4.7990424697430418E+00 a      1183     1    19     2     3
 -8.4208715630672728E+00 a      1184     1    19     2     4
 -1.5622524465569931E+00 a      1185     1    19     2     5
 -4.3828804394407852E+00 a      1186     1    19     2     6
  7.6627061961090848E-01 a      1187     1    19     2     7
  2.3203782480257865E-01 a      1188     1    19     2     8
  2.3752504895706648E+00 a      1189     1    19     2     9
  1.4138419577397419E+00 a      1190     1    19     2    10
  2.2023553252314387E-01 a      1191     1    19     2    11
 -5.5484351797230214E-01 a      1192     1    19     2    12
 -6.2281358642647078E-01 a      1193     1    19     2    13
 -4.9069706448100359E+00 a      1194     1    19     2    14
  6.7708838087687200E+00 a      1195     1    19     2    15
  5.4508660791223340E+00 a      1196     1    19     2    16
 -1.2633116879410327E+00 a      1197     1    19     2    17
 -1.6992213446637547E+00 a      1198     1    19     2    18
 -5.6847893628587416E+00 a      1199     1    19     2    19
  5.5128944853529589E+00 a      1200     1    19     2    20
  3.0185890544932623E+00 a      1201     1    20     2     1
  4.9752211492191494E+00 a      1202     1    20     2     2
 -1.4993409884331580E+01 a      1203     1    20     2     3
  1.4177646772210908E+01 a      1204     1    20     2     4
 -7.2309538957554471E+00 a      1205     1    20     2     5
 -3.2096624473563615E+00 a      1206     1    20     2     6
  1.1572711651194221E+00 a      1207     1    20     2     7
  6.3292424860918475E+00 a      1208     1    20     2     8
 -6.0086424972765506E+00 a      1209     1    20     2     9
 -3.6844288967396723E+00 a      1210     1    20     2    10
 -2.2212888674429525E+00 a      1211     1    20     2    11
  1.3805766394820820E+00 a      1212     1    20     2    12
 -8.6616190254440237E+00 a      1213     1    20     2    13
 -5.4941825041373535E+00 a      1214     1    20     2    14
 -1.3054229490184657E+01 a      1215     1    20     2    15
 -7.7456389953001077E+00 a      1216     1    20     2    16
  7.8552867346370157E+00 a      1217     1    20     2    17
  1.2150724800686397E+01 a      1218     1    20     2    18
 -8.9092879859207947E+00 a      1219     1    20     2    19
 -5.6205204945074199E+00 a      1220     1    20     2    20
  1.6843770073393119E-01 b      1221     2     1
 -1.6167688787890153E+01 b      1222     2     2
 -1.3262440082070775E+01 b      1223     2     3
 -8.1155543885990866E+00 b      1224     2     4
  1.1460290498225648E+01 b      1225     2     5
 -8.7063348901940323E+00 b      1226     2     6
  1.5720174384638046E+00 b      1227     2     7
 -4.5374968904906092E+00 b      1228     2     8
 -1.1333513969467248E+01 b      1229     2     9
 -1.9644701972121434E-01 b      1230     2    10
  1.8322009867789586E+01 b      1231     2    11
 -8.4921262870605563E-01 b      1232     2    12
 -6.9457916707399008E+00 b      1233     2    13
 -2.4647463412832660E+00 b      1234     2    14
  3.1246495537299546E-01 b      1235     2    15
  5.0663198981899020E+00 b      1236     2    16
 -5.9519163318837940E+00 b      1237     2    17
  9.4590218208675854E+00 b      1238     2    18
 -1.2577467896493753E+01 b      1239     2    19
  8.2139325717547660E+00 b      1240     2    20
  5.1644289998367909E-01 a      1241     2     1     3     1
 -2.1861962025047366E-01 a      1242     2     2     3     1
  1.5315705726524628E-01 a      1243     2     3     3     1
  1.5656156814985475E-01 a      1244     2     4     3     1
  2.5081150194490237E-01 a      1245     2     5     3     1
 -1.0285438890107462E-01 a      1246     2     6     3     1
  1.0575461049674076E-01 a      1247     2     7     3     1
 -1.2678925235720448E-01 a      1248     2     8     3     1
 -2.5273012549897450E-01 a      1249     2     9     3     1
 -7.8070082977872407E-02 a      1250     2    10     3     1
 -2.0236486325153813E-01 a      1251     2    11     3     1
  5.8462266979681821E-02 a      1252     2    12     3     1
 -6.5070794050563513E-02 a      1253     2    13     3     1
 -2.3309721789899712E-01 a      1254     2    14     3     1
  1.7143089630835950E-01 a      1255     2    15     3     1
 -1.9121877265175152E-01 a      1256     2    16     3     1
 -1.3245908008883478E-01 a      1257     2    17     3     1
 -7.0176927865736705E-02 a      1258     2    18     3     1
  1.3987550974163498E-01 a      1259     2    19     3     1
  3.4168108707702760E-01 a      1260     2    20     3     1
 -9.1886812971025134E-02 b      1261     3     1
