################################################################################
# Neural network connection values (weights and biases).
################################################################################
# Col  Name       Description
################################################################################
# 1    connection Neural network connection value.
# 2    t          Connection type (a = weight, b = bias).
# 3    index      Index enumerating weights.
# 4    l_s        Starting point layer (end point layer for biases).
# 5    n_s        Starting point neuron in starting layer (end point neuron for biases).
# 6    l_e        End point layer.
# 7    n_e        End point neuron in end layer.
################################################################################
#                      1 2         3     4     5     6     7
#             connection t     index   l_s   n_s   l_e   n_e
############################################################
 -8.4800574301450826E+00 a         1     0     1     1     1
  5.3437431587096436E+00 a         2     0     1     1     2
 -1.3759050728667129E+01 a         3     0     1     1     3
  8.7987003911200858E+00 a         4     0     1     1     4
 -7.5909820827067493E+00 a         5     0     1     1     5
  2.6447011444064614E+00 a         6     0     1     1     6
 -4.4925940974556253E+00 a         7     0     1     1     7
 -2.5542771388780774E+00 a         8     0     1     1     8
 -1.0545728747098407E-01 a         9     0     1     1     9
 -3.8074061112104229E+00 a        10     0     1     1    10
 -2.5093371552858499E+00 a        11     0     1     1    11
  1.4525328236611875E+01 a        12     0     1     1    12
  1.4875409492540645E+00 a        13     0     1     1    13
  1.2702091188666362E+00 a        14     0     1     1    14
  1.0804900620075458E+01 a        15     0     1     1    15
  5.6861929846719619E+00 a        16     0     1     1    16
 -3.5458982984195000E+00 a        17     0     1     1    17
 -2.7509301297395390E+00 a        18     0     1     1    18
  9.0932989388808334E+00 a        19     0     1     1    19
 -1.4876453652443836E+01 a        20     0     1     1    20
 -3.1733524016896020E-01 a        21     0     2     1     1
 -3.4549601052220256E+00 a        22     0     2     1     2
  9.0729517912578608E+00 a        23     0     2     1     3
 -1.4758067523457971E+01 a        24     0     2     1     4
  7.3232884740551176E+00 a        25     0     2     1     5
 -1.6123788167487956E+00 a        26     0     2     1     6
  8.2321725662789849E+00 a        27     0     2     1     7
  8.1921648589176055E+00 a        28     0     2     1     8
 -1.9978259050663036E+00 a        29     0     2     1     9
 -1.6456852374362928E+01 a        30     0     2     1    10
 -5.5582295508266899E+00 a        31     0     2     1    11
 -7.2811123101225563E+00 a        32     0     2     1    12
 -4.9763168785932308E+00 a        33     0     2     1    13
  6.3110707067959142E+00 a        34     0     2     1    14
 -1.5835376283893831E+01 a        35     0     2     1    15
  1.0039465369708900E+01 a        36     0     2     1    16
  4.1684796164305888E+00 a        37     0     2     1    17
 -1.8955885610500454E+00 a        38     0     2     1    18
 -5.3567469492839503E+00 a        39     0     2     1    19
  1.2246712333184476E+01 a        40     0     2     1    20
 -1.9273951682796408E+01 a        41     0     3     1     1
  1.2197955774916187E+01 a        42     0     3     1     2
 -7.9995935019791342E-01 a        43     0     3     1     3
 -1.3421033635742381E+01 a        44     0     3     1     4
  8.1588287862288205E+00 a        45     0     3     1     5
 -2.7114943600200458E+00 a        46     0     3     1     6
 -1.7983094985313499E+00 a        47     0     3     1     7
 -3.0972857593310210E+00 a        48     0     3     1     8
  1.2866214788894007E+01 a        49     0     3     1     9
  4.3197377670581485E+00 a        50     0     3     1    10
  1.8687542432623074E+00 a        51     0     3     1    11
  8.8828263172794362E+00 a        52     0     3     1    12
 -2.7202101387981154E-01 a        53     0     3     1    13
  1.2608047714880183E+01 a        54     0     3     1    14
  8.2077053983161434E+00 a        55     0     3     1    15
 -5.8574018024922969E+00 a        56     0     3     1    16
  6.0346817872437359E+00 a        57     0     3     1    17
  1.4497973232049658E+01 a        58     0     3     1    18
 -1.8555917042177055E+00 a        59     0     3     1    19
  1.2859146302475077E+01 a        60     0     3     1    20
  1.8680297923343128E-01 a        61     0     4     1     1
  1.2417635458588272E+01 a        62     0     4     1     2
  1.2697839978106977E+01 a        63     0     4     1     3
  1.7202313572461904E+01 a        64     0     4     1     4
  3.1106552209348415E+00 a        65     0     4     1     5
  2.2981673872561821E+01 a        66     0     4     1     6
 -3.5842765610384353E-01 a        67     0     4     1     7
  6.5665266737293964E+00 a        68     0     4     1     8
 -5.3734559172119551E+00 a        69     0     4     1     9
  1.6007427238745635E+01 a        70     0     4     1    10
 -3.4114347811635519E+00 a        71     0     4     1    11
 -5.0595240139258699E+00 a        72     0     4     1    12
  2.5366627430103046E+00 a        73     0     4     1    13
 -9.2627030291490993E+00 a        74     0     4     1    14
 -5.2362747322910339E+00 a        75     0     4     1    15
 -1.0536219583743611E+01 a        76     0     4     1    16
 -4.2016164783844365E+00 a        77     0     4     1    17
 -1.5897778376157465E+00 a        78     0     4     1    18
  1.4608999407377028E+00 a        79     0     4     1    19
 -8.2708853756569063E+00 a        80     0     4     1    20
 -1.7746608339369519E+01 a        81     0     5     1     1
 -2.3618812784564338E+00 a        82     0     5     1     2
 -1.4441306635764917E+01 a        83     0     5     1     3
  4.1304855159633380E+00 a        84     0     5     1     4
  1.8291454304118802E+00 a        85     0     5     1     5
 -1.5377777265470736E+00 a        86     0     5     1     6
  2.5531703845330289E-01 a        87     0     5     1     7
  6.0672207614420666E+00 a        88     0     5     1     8
  5.5541615530455397E+00 a        89     0     5     1     9
 -6.2658706796662045E-01 a        90     0     5     1    10
  2.3502964560468298E+00 a        91     0     5     1    11
 -1.3419884237894397E+00 a        92     0     5     1    12
  2.9297717519013302E+00 a        93     0     5     1    13
 -1.4242335375829319E+01 a        94     0     5     1    14
 -6.9113080886169564E-01 a        95     0     5     1    15
 -5.3242374549205644E+00 a        96     0     5     1    16
 -2.7590407346084351E+00 a        97     0     5     1    17
  8.8980585070889333E+00 a        98     0     5     1    18
  2.1725061055973938E+00 a        99     0     5     1    19
 -1.5346937278960656E+01 a       100     0     5     1    20
  3.1785142501071006E+00 a       101     0     6     1     1
 -2.1870878773040422E-01 a       102     0     6     1     2
 -4.2612785994619804E+00 a       103     0     6     1     3
 -8.5277069657430431E+00 a       104     0     6     1     4
 -1.6824387670679201E+01 a       105     0     6     1     5
 -1.2771767500360621E+01 a       106     0     6     1     6
 -6.8493174790208684E+00 a       107     0     6     1     7
 -1.9289768592369274E+01 a       108     0     6     1     8
 -1.1773798881371414E+01 a       109     0     6     1     9
 -1.4092039038146080E+00 a       110     0     6     1    10
 -3.6617265146706496E-01 a       111     0     6     1    11
  8.0452174605666796E-02 a       112     0     6     1    12
 -3.2176791379829024E+00 a       113     0     6     1    13
  1.0883657777843084E+01 a       114     0     6     1    14
  1.4042308572888972E+01 a       115     0     6     1    15
  3.4436559877518507E+00 a       116     0     6     1    16
 -5.0062397960714389E+00 a       117     0     6     1    17
  2.5685816790381821E+00 a       118     0     6     1    18
  2.1299025020986218E+00 a       119     0     6     1    19
 -1.6104969977130854E+00 a       120     0     6     1    20
 -6.4200613663077375E+00 a       121     0     7     1     1
  6.0876284051618290E+00 a       122     0     7     1     2
 -1.2066851947686954E+01 a       123     0     7     1     3
 -2.7634754151904012E-01 a       124     0     7     1     4
  2.2287069315476882E+00 a       125     0     7     1     5
  9.8821876489799738E+00 a       126     0     7     1     6
 -6.3965158021238837E+00 a       127     0     7     1     7
  1.8508022488895335E+00 a       128     0     7     1     8
  1.7591691294975242E+01 a       129     0     7     1     9
  3.6535517619307978E+00 a       130     0     7     1    10
  1.7041773235512150E+00 a       131     0     7     1    11
  1.7800732372207381E-01 a       132     0     7     1    12
 -5.7048358634509111E-01 a       133     0     7     1    13
 -4.3158125675446790E+00 a       134     0     7     1    14
  1.2463824095319915E+00 a       135     0     7     1    15
 -4.3577544248900839E+00 a       136     0     7     1    16
 -2.6699188678114139E+00 a       137     0     7     1    17
  3.8970007947637564E+00 a       138     0     7     1    18
 -9.3159599617545541E-01 a       139     0     7     1    19
 -5.6875670865034529E+00 a       140     0     7     1    20
  4.7136763552175935E+00 a       141     0     8     1     1
 -5.4959059925215579E+00 a       142     0     8     1     2
  1.2348972318709291E-02 a       143     0     8     1     3
  1.0797066879156956E+01 a       144     0     8     1     4
  2.4210382343490927E-01 a       145     0     8     1     5
  1.1271149015777304E+01 a       146     0     8     1     6
  3.3101491112979318E+00 a       147     0     8     1     7
 -4.9087294948543114E+00 a       148     0     8     1     8
  1.0656647182373267E+00 a       149     0     8     1     9
 -1.0533978974255596E+01 a       150     0     8     1    10
  1.2614851382831735E+00 a       151     0     8     1    11
 -7.9789091654486433E-01 a       152     0     8     1    12
 -2.8251535540285047E+00 a       153     0     8     1    13
 -1.4779160900608201E+01 a       154     0     8     1    14
  1.2983950478862488E-01 a       155     0     8     1    15
 -2.2090507297670663E+00 a       156     0     8     1    16
  1.0628222179540710E+01 a       157     0     8     1    17
 -4.7645396235365132E+00 a       158     0     8     1    18
 -1.3190205157116038E+01 a       159     0     8     1    19
 -6.9322684281278124E-01 a       160     0     8     1    20
 -1.6699916715862702E+00 a       161     0     9     1     1
 -2.0699264913176023E+00 a       162     0     9     1     2
  2.6728127739968279E+00 a       163     0     9     1     3
  2.4986414916896695E+00 a       164     0     9     1     4
  1.5008440212642509E+00 a       165     0     9     1     5
  2.5031346336783336E+00 a       166     0     9     1     6
 -6.8180314184277013E-01 a       167     0     9     1     7
  6.0959465657111158E+00 a       168     0     9     1     8
 -5.6097888613941038E-01 a       169     0     9     1     9
 -2.6290036908149390E+00 a       170     0     9     1    10
 -4.0079123128503520E+00 a       171     0     9     1    11
 -5.8949041937252593E+00 a       172     0     9     1    12
 -1.9704177192277337E+00 a       173     0     9     1    13
  2.8023061563248359E+00 a       174     0     9     1    14
 -7.7076789459043518E+00 a       175     0     9     1    15
  2.6797483446404029E+00 a       176     0     9     1    16
  5.2629245874023178E+00 a       177     0     9     1    17
  4.6684550961376479E+00 a       178     0     9     1    18
  5.8962644628838898E+00 a       179     0     9     1    19
 -1.1543856869556322E+00 a       180     0     9     1    20
  7.6158834676474036E+00 a       181     0    10     1     1
 -1.5688495234594036E+01 a       182     0    10     1     2
  3.1879738793581742E+00 a       183     0    10     1     3
  1.6915854085118014E+00 a       184     0    10     1     4
  2.8343428022406538E+00 a       185     0    10     1     5
 -1.1101991868826639E+01 a       186     0    10     1     6
  3.7196159720666127E+00 a       187     0    10     1     7
  6.4321592218352750E+00 a       188     0    10     1     8
 -8.0335507441762708E+00 a       189     0    10     1     9
  8.4541228069040795E+00 a       190     0    10     1    10
  7.7512889538533036E+00 a       191     0    10     1    11
 -1.4705551202773164E+00 a       192     0    10     1    12
 -1.1130684252957122E+01 a       193     0    10     1    13
 -2.4479385966236968E+00 a       194     0    10     1    14
 -6.7254708292132959E-01 a       195     0    10     1    15
 -6.8837337929519660E-01 a       196     0    10     1    16
  3.2857439695587121E+00 a       197     0    10     1    17
  2.6565297971618289E+00 a       198     0    10     1    18
  1.4079196419452959E+01 a       199     0    10     1    19
  1.1895185175099611E+01 a       200     0    10     1    20
  1.2682166107099018E+00 a       201     0    11     1     1
 -5.9206340875067520E-01 a       202     0    11     1     2
  6.6699248321246953E+00 a       203     0    11     1     3
  2.9558814958229949E+00 a       204     0    11     1     4
  4.6725439448659225E+00 a       205     0    11     1     5
 -3.0514156002275747E+00 a       206     0    11     1     6
 -3.0692162914453953E+00 a       207     0    11     1     7
  1.5068404807959768E+00 a       208     0    11     1     8
  2.0327873025212595E+00 a       209     0    11     1     9
  1.9972884936272060E+00 a       210     0    11     1    10
  3.1834242336829277E+00 a       211     0    11     1    11
  1.7512637748678866E-01 a       212     0    11     1    12
 -5.3536569585293483E+00 a       213     0    11     1    13
 -6.2588378933635420E+00 a       214     0    11     1    14
  2.9661093334343276E+00 a       215     0    11     1    15
 -3.7293027148768410E+00 a       216     0    11     1    16
 -2.7168262720145835E+00 a       217     0    11     1    17
  8.0298566089077525E-03 a       218     0    11     1    18
 -3.2720587371455410E+00 a       219     0    11     1    19
 -1.9595328750200298E+00 a       220     0    11     1    20
  1.9876882758036583E-02 a       221     0    12     1     1
  1.6253363816566761E+01 a       222     0    12     1     2
 -2.7203307453616898E+00 a       223     0    12     1     3
 -4.9805022981488847E+00 a       224     0    12     1     4
  3.9105540053456180E+00 a       225     0    12     1     5
  7.8794992850404943E+00 a       226     0    12     1     6
 -2.7745164992350184E+00 a       227     0    12     1     7
 -7.7610502727396646E+00 a       228     0    12     1     8
  2.3000742659081048E+01 a       229     0    12     1     9
 -7.8233019305556359E+00 a       230     0    12     1    10
 -2.1881249553674791E+00 a       231     0    12     1    11
  1.0160821943284979E+00 a       232     0    12     1    12
  1.0874298785730121E+01 a       233     0    12     1    13
 -4.0116746943897423E+00 a       234     0    12     1    14
 -9.2448588515435475E+00 a       235     0    12     1    15
  3.7596916448582012E+00 a       236     0    12     1    16
 -2.6785913480352495E+00 a       237     0    12     1    17
 -8.2527558346072478E+00 a       238     0    12     1    18
  4.7129585819518578E+00 a       239     0    12     1    19
 -1.4120249153926332E+01 a       240     0    12     1    20
 -7.0754074580261750E-01 a       241     0    13     1     1
  2.7568791706618114E+00 a       242     0    13     1     2
 -2.4156863410469649E+00 a       243     0    13     1     3
 -4.0007224277044910E+00 a       244     0    13     1     4
  3.1879167935752837E+00 a       245     0    13     1     5
 -4.5319030542228295E-01 a       246     0    13     1     6
 -4.3207107953002115E+00 a       247     0    13     1     7
 -2.9823783891865476E+00 a       248     0    13     1     8
  1.2696663024958166E+01 a       249     0    13     1     9
  1.8975475278163811E-01 a       250     0    13     1    10
 -2.4269685198643316E+00 a       251     0    13     1    11
  2.3315345026373038E+00 a       252     0    13     1    12
  7.7204147262223213E+00 a       253     0    13     1    13
 -6.6899976752816244E+00 a       254     0    13     1    14
 -1.7844474563627768E+00 a       255     0    13     1    15
  2.4678551964779851E+00 a       256     0    13     1    16
 -4.5533765779391420E+00 a       257     0    13     1    17
 -1.9686986579542629E+00 a       258     0    13     1    18
  9.1122070815529916E+00 a       259     0    13     1    19
 -6.0665439374997518E+00 a       260     0    13     1    20
 -3.0328595478378171E+00 a       261     0    14     1     1
 -3.1454718683061991E+00 a       262     0    14     1     2
 -7.5624905290919866E+00 a       263     0    14     1     3
 -7.9983207930060276E+00 a       264     0    14     1     4
  8.8598192639006523E+00 a       265     0    14     1     5
 -2.0187973556633185E+00 a       266     0    14     1     6
 -2.5492019774845183E+00 a       267     0    14     1     7
 -1.1413385353390229E+01 a       268     0    14     1     8
  1.0037524021908240E+01 a       269     0    14     1     9
 -1.0954157733652461E+00 a       270     0    14     1    10
  2.0156407833886041E+00 a       271     0    14     1    11
 -5.1182121084998142E+00 a       272     0    14     1    12
  3.3698736353448702E+00 a       273     0    14     1    13
 -1.4417438395304176E+00 a       274     0    14     1    14
  1.4719706100954038E+00 a       275     0    14     1    15
 -1.7675339494504692E+00 a       276     0    14     1    16
  8.5819212172567005E-01 a       277     0    14     1    17
 -8.4266559493067647E-02 a       278     0    14     1    18
  2.2152139208290239E-01 a       279     0    14     1    19
 -7.1674613524821706E-01 a       280     0    14     1    20
  1.5445340747933716E+00 a       281     0    15     1     1
  1.9468640443620309E+00 a       282     0    15     1     2
 -5.9527142127734072E+00 a       283     0    15     1     3
 -6.9884385735921761E-01 a       284     0    15     1     4
  5.1301175140988846E+00 a       285     0    15     1     5
 -2.3765731450489245E+00 a       286     0    15     1     6
  1.5909446658746096E+00 a       287     0    15     1     7
  1.0032792503311154E+00 a       288     0    15     1     8
  4.4833068978626613E+00 a       289     0    15     1     9
 -1.7021809213511038E-01 a       290     0    15     1    10
 -1.1438868471007873E+00 a       291     0    15     1    11
 -7.4639178760639338E+00 a       292     0    15     1    12
  1.3427276878740395E+00 a       293     0    15     1    13
 -5.8674562535151322E+00 a       294     0    15     1    14
 -1.8330642955143188E+00 a       295     0    15     1    15
  1.3538899317759603E+00 a       296     0    15     1    16
  4.2836228767175744E+00 a       297     0    15     1    17
  1.2879638730309753E+00 a       298     0    15     1    18
  8.2259081531530107E+00 a       299     0    15     1    19
 -9.7293435647770572E+00 a       300     0    15     1    20
 -1.9389232129984704E+00 a       301     0    16     1     1
  6.3046991768425595E+00 a       302     0    16     1     2
  1.0170211909711850E+00 a       303     0    16     1     3
  3.1606171826387897E+00 a       304     0    16     1     4
 -3.4267338804377543E+00 a       305     0    16     1     5
  7.5298885772860693E+00 a       306     0    16     1     6
  1.4104394822447046E+00 a       307     0    16     1     7
  4.0256593180352667E+00 a       308     0    16     1     8
  1.5765285729257728E+00 a       309     0    16     1     9
 -4.1670372583971806E+00 a       310     0    16     1    10
 -2.1793821545000602E+00 a       311     0    16     1    11
  4.2800269109565079E+00 a       312     0    16     1    12
 -2.2343324679949950E+00 a       313     0    16     1    13
  3.3472461215788747E+00 a       314     0    16     1    14
 -1.0922293150875122E+00 a       315     0    16     1    15
  3.8100037934216533E+00 a       316     0    16     1    16
 -9.1432945882537264E-01 a       317     0    16     1    17
 -2.1275461233406516E+00 a       318     0    16     1    18
  3.6738879114518441E-01 a       319     0    16     1    19
 -9.0201875439420021E-01 a       320     0    16     1    20
  6.2599654455786402E-01 a       321     0    17     1     1
 -5.0526921126862157E-01 a       322     0    17     1     2
 -4.1437148784309175E+00 a       323     0    17     1     3
  5.3452859306288563E+00 a       324     0    17     1     4
 -2.5682910465029842E+01 a       325     0    17     1     5
  5.6302930490349485E+00 a       326     0    17     1     6
  1.7150896988018778E+00 a       327     0    17     1     7
 -6.7384576289128502E+00 a       328     0    17     1     8
 -2.2575995549587564E+01 a       329     0    17     1     9
  1.1490072027873013E+00 a       330     0    17     1    10
  1.1492619691468755E+00 a       331     0    17     1    11
 -2.1014174149363701E+01 a       332     0    17     1    12
  4.8136033857643126E+00 a       333     0    17     1    13
 -4.6836087893650085E+00 a       334     0    17     1    14
  3.2388618218313487E+00 a       335     0    17     1    15
 -1.2239768799800787E+01 a       336     0    17     1    16
 -7.1957963796111173E+00 a       337     0    17     1    17
 -7.9276795261961359E+00 a       338     0    17     1    18
  3.0356678516544395E+01 a       339     0    17     1    19
 -8.7529094282829831E+00 a       340     0    17     1    20
 -8.2909943222198095E+00 a       341     0    18     1     1
 -2.2721147403204551E+01 a       342     0    18     1     2
 -2.5196968634513084E+00 a       343     0    18     1     3
 -1.3278157800469211E+01 a       344     0    18     1     4
  1.3452621886779408E+00 a       345     0    18     1     5
  4.0208761801356296E+01 a       346     0    18     1     6
  4.2467326286191422E+00 a       347     0    18     1     7
  2.3164987420976900E+01 a       348     0    18     1     8
  1.5241861012126845E+01 a       349     0    18     1     9
 -1.4543682972351151E+01 a       350     0    18     1    10
  2.6421431430539593E+00 a       351     0    18     1    11
 -1.6270337804665196E+01 a       352     0    18     1    12
  5.3194600848014622E+00 a       353     0    18     1    13
 -4.3844699007904602E+00 a       354     0    18     1    14
  8.1238441756579061E+00 a       355     0    18     1    15
  1.1881498249478911E+01 a       356     0    18     1    16
  3.5642939357146830E+01 a       357     0    18     1    17
 -5.7564222186771312E+00 a       358     0    18     1    18
 -2.3401912758293090E+01 a       359     0    18     1    19
  1.5798818512348497E+01 a       360     0    18     1    20
  1.2508600340759616E+01 a       361     0    19     1     1
 -3.7944435303198349E+00 a       362     0    19     1     2
  2.9251089546944358E+00 a       363     0    19     1     3
 -1.7886631895960214E+01 a       364     0    19     1     4
  3.1123566561325871E+00 a       365     0    19     1     5
  9.0976725028521006E+00 a       366     0    19     1     6
 -9.8089828779310437E+00 a       367     0    19     1     7
 -1.4649781755235153E+01 a       368     0    19     1     8
  1.0168625112433615E+01 a       369     0    19     1     9
  8.9193822590607859E+00 a       370     0    19     1    10
  9.9584951303727728E-02 a       371     0    19     1    11
  1.8013240666555046E+01 a       372     0    19     1    12
  5.7773514738937504E+00 a       373     0    19     1    13
 -2.0127244389222104E-01 a       374     0    19     1    14
 -1.1732582015586402E+01 a       375     0    19     1    15
 -1.0066344469149026E+01 a       376     0    19     1    16
  9.3948198119725079E-01 a       377     0    19     1    17
  1.3381893522181585E+01 a       378     0    19     1    18
 -6.0466825022386574E+00 a       379     0    19     1    19
  1.3036924173313098E+01 a       380     0    19     1    20
  2.6547573156323047E+01 a       381     0    20     1     1
 -5.9067016341612559E+00 a       382     0    20     1     2
  1.7739448234616933E+01 a       383     0    20     1     3
  1.7065987606050502E+01 a       384     0    20     1     4
  2.6952707531806080E+01 a       385     0    20     1     5
  1.4296155608944254E+00 a       386     0    20     1     6
 -1.6700623884243271E+01 a       387     0    20     1     7
  1.5202621307583057E+01 a       388     0    20     1     8
  1.8316532264758759E+01 a       389     0    20     1     9
  8.9380761093386809E+00 a       390     0    20     1    10
  1.6030212904157818E+01 a       391     0    20     1    11
  5.4594373332733621E+00 a       392     0    20     1    12
  6.2782158722051280E+00 a       393     0    20     1    13
  9.0553309677758076E+00 a       394     0    20     1    14
 -4.6854875069789284E+00 a       395     0    20     1    15
  2.2870035864340867E+01 a       396     0    20     1    16
 -2.0139192735409210E+00 a       397     0    20     1    17
  1.8532673797385396E+01 a       398     0    20     1    18
 -2.8359249157030540E+01 a       399     0    20     1    19
 -3.9588748097075004E+00 a       400     0    20     1    20
 -1.7382950592990017E+01 a       401     0    21     1     1
  8.0129385287894692E+00 a       402     0    21     1     2
  1.7056291567640226E+01 a       403     0    21     1     3
  1.1728841858350137E+01 a       404     0    21     1     4
 -5.7671435428615236E-01 a       405     0    21     1     5
 -6.1637258766116801E+01 a       406     0    21     1     6
  8.8579361098775014E+00 a       407     0    21     1     7
 -1.8717288395632117E+01 a       408     0    21     1     8
 -5.9195851657673657E+00 a       409     0    21     1     9
  5.9326962893671356E+00 a       410     0    21     1    10
  2.9783274300395055E-02 a       411     0    21     1    11
 -7.9063838027433853E-01 a       412     0    21     1    12
 -2.1443326728777471E+01 a       413     0    21     1    13
 -1.3557700713875317E+01 a       414     0    21     1    14
 -1.9426529804101531E+01 a       415     0    21     1    15
 -1.4663547043214147E+00 a       416     0    21     1    16
 -5.5982781931587247E+01 a       417     0    21     1    17
 -1.1528123461790555E+01 a       418     0    21     1    18
  1.5075195777322655E+01 a       419     0    21     1    19
 -2.0223107577302059E+01 a       420     0    21     1    20
 -6.5133351752736086E+00 a       421     0    22     1     1
  1.8853287401145668E+01 a       422     0    22     1     2
 -1.1667361028407864E+01 a       423     0    22     1     3
  3.4802607738025777E+01 a       424     0    22     1     4
 -3.0316616863370754E+01 a       425     0    22     1     5
 -8.7546599474852744E+00 a       426     0    22     1     6
 -2.8193060253250185E-01 a       427     0    22     1     7
 -2.3492248243359981E+01 a       428     0    22     1     8
 -1.7323418291528949E+01 a       429     0    22     1     9
 -7.2601762725835151E-01 a       430     0    22     1    10
  1.3586826549598030E+01 a       431     0    22     1    11
 -4.2427559462443778E+00 a       432     0    22     1    12
 -9.8421258443186233E+00 a       433     0    22     1    13
 -9.7613258946911117E+00 a       434     0    22     1    14
  3.3330016003907748E+00 a       435     0    22     1    15
  1.9532235936561055E+01 a       436     0    22     1    16
  5.2677224021768021E+00 a       437     0    22     1    17
 -2.2427183944416700E+00 a       438     0    22     1    18
  1.6568207989233766E+01 a       439     0    22     1    19
 -1.3863891405795060E+01 a       440     0    22     1    20
  1.1422871478297401E+01 a       441     0    23     1     1
  1.7706288833483022E+01 a       442     0    23     1     2
 -1.7898989533069409E+00 a       443     0    23     1     3
 -1.9263531574778068E+00 a       444     0    23     1     4
  7.9658350277882786E+00 a       445     0    23     1     5
  1.3082133385394558E+01 a       446     0    23     1     6
  7.9165453873243017E+00 a       447     0    23     1     7
  8.1800293682588858E+00 a       448     0    23     1     8
  7.8203776122538962E+00 a       449     0    23     1     9
 -1.3445995094493052E-01 a       450     0    23     1    10
 -1.3419678127701664E+01 a       451     0    23     1    11
  1.3464069826899809E+00 a       452     0    23     1    12
  4.9457120130734840E+00 a       453     0    23     1    13
  3.9693742986250644E+00 a       454     0    23     1    14
  7.0003877017769529E+00 a       455     0    23     1    15
  5.6214899331177834E+00 a       456     0    23     1    16
 -4.3449165920310593E+00 a       457     0    23     1    17
 -6.1560928171956979E+00 a       458     0    23     1    18
  1.1502262908331328E+01 a       459     0    23     1    19
  2.1783480053009363E+00 a       460     0    23     1    20
  2.0256539176946212E+01 a       461     0    24     1     1
 -1.2783546402161301E+01 a       462     0    24     1     2
  2.1655724805505738E+01 a       463     0    24     1     3
  1.3252463955368402E+01 a       464     0    24     1     4
 -1.7134990089482569E+00 a       465     0    24     1     5
 -1.0031462216826913E+01 a       466     0    24     1     6
 -7.3753802355305895E+00 a       467     0    24     1     7
  8.2317586869061152E+00 a       468     0    24     1     8
 -1.7325709593916010E+01 a       469     0    24     1     9
  1.3441354912712283E+01 a       470     0    24     1    10
 -2.3035607067133935E+01 a       471     0    24     1    11
 -1.1241646177959108E+00 a       472     0    24     1    12
 -1.1733300849300308E+00 a       473     0    24     1    13
  1.0312545753278184E+00 a       474     0    24     1    14
 -1.2305735780691803E+01 a       475     0    24     1    15
  2.9883585118564824E+00 a       476     0    24     1    16
  9.2986305858859586E-01 a       477     0    24     1    17
 -7.5323758236973921E+00 a       478     0    24     1    18
 -1.2297605955881950E+01 a       479     0    24     1    19
 -8.7486331598502431E+00 a       480     0    24     1    20
  1.1978866326253474E+01 a       481     0    25     1     1
  1.0421452834677796E+01 a       482     0    25     1     2
 -2.7911375802412504E+01 a       483     0    25     1     3
 -6.3377411599834517E+00 a       484     0    25     1     4
  9.4555046894591595E+00 a       485     0    25     1     5
 -3.5878981423963427E+00 a       486     0    25     1     6
 -4.5511349162933348E+00 a       487     0    25     1     7
 -9.6223893733185069E+00 a       488     0    25     1     8
  2.6618842285443591E+01 a       489     0    25     1     9
 -1.4569161091438769E+01 a       490     0    25     1    10
  6.7109508427024771E+00 a       491     0    25     1    11
  7.1312182203008945E+00 a       492     0    25     1    12
 -4.4588390239309934E+00 a       493     0    25     1    13
 -1.6535260372069242E+01 a       494     0    25     1    14
 -4.0915769188716213E+00 a       495     0    25     1    15
 -1.4620285567307720E+01 a       496     0    25     1    16
 -1.2002640859714443E+01 a       497     0    25     1    17
 -1.0201347742087632E+01 a       498     0    25     1    18
  1.8092437105302981E+01 a       499     0    25     1    19
 -1.2193740560309424E+01 a       500     0    25     1    20
 -1.8559186183708565E+01 a       501     0    26     1     1
  6.3935679195670065E+00 a       502     0    26     1     2
 -2.2199997604131152E+00 a       503     0    26     1     3
 -2.0527973007293181E+01 a       504     0    26     1     4
 -4.1331185934602264E+00 a       505     0    26     1     5
 -1.9900251572551253E+00 a       506     0    26     1     6
  1.0166186851374373E+01 a       507     0    26     1     7
 -3.8492633475597837E+00 a       508     0    26     1     8
  5.7050781122208927E-01 a       509     0    26     1     9
 -2.3013995086927621E+00 a       510     0    26     1    10
 -1.6664631748191624E+01 a       511     0    26     1    11
 -8.9260296401413513E+00 a       512     0    26     1    12
  5.3292825586004178E-01 a       513     0    26     1    13
 -2.6139768375027160E+01 a       514     0    26     1    14
 -1.0119811967787946E+01 a       515     0    26     1    15
 -1.0876385925377795E+01 a       516     0    26     1    16
  1.0084632261623887E+00 a       517     0    26     1    17
 -4.1525207768556225E+00 a       518     0    26     1    18
  8.1895149997956995E+00 a       519     0    26     1    19
 -1.4642811713208963E+00 a       520     0    26     1    20
  3.1146818789830458E+01 a       521     0    27     1     1
 -3.2991747953192046E+01 a       522     0    27     1     2
 -1.8507291161027663E+01 a       523     0    27     1     3
  1.3731236437841138E+01 a       524     0    27     1     4
 -4.4185379308116532E+00 a       525     0    27     1     5
  1.5905629832883191E+01 a       526     0    27     1     6
 -3.2393377861309269E+00 a       527     0    27     1     7
 -9.8942887098305778E+00 a       528     0    27     1     8
 -1.8264217534277712E+01 a       529     0    27     1     9
 -4.5362189431076452E+00 a       530     0    27     1    10
  1.6818337754216330E+00 a       531     0    27     1    11
  4.7199061594802156E+00 a       532     0    27     1    12
  9.8733397760011510E+00 a       533     0    27     1    13
  3.9745047082567410E+01 a       534     0    27     1    14
  1.3693310871778216E+01 a       535     0    27     1    15
 -1.4061497674994463E+01 a       536     0    27     1    16
  3.4096921908783543E+01 a       537     0    27     1    17
  8.1082810078639689E+00 a       538     0    27     1    18
 -2.1472676777234710E+01 a       539     0    27     1    19
  2.9492497648930875E+01 a       540     0    27     1    20
 -1.1665587900053738E+00 a       541     0    28     1     1
  1.6363897172637444E+01 a       542     0    28     1     2
 -6.2924554148965663E+00 a       543     0    28     1     3
 -2.4475119965044492E+01 a       544     0    28     1     4
  2.0501260123970997E+01 a       545     0    28     1     5
  1.7867914300682000E+00 a       546     0    28     1     6
  2.9941833521778323E+00 a       547     0    28     1     7
  2.4359108837526868E+01 a       548     0    28     1     8
  1.3399949686525888E+01 a       549     0    28     1     9
  4.0968995808658581E+00 a       550     0    28     1    10
  1.1527761217392598E+01 a       551     0    28     1    11
 -5.2039369340180537E+00 a       552     0    28     1    12
  7.0155794275570607E+00 a       553     0    28     1    13
 -9.8998328143793834E-01 a       554     0    28     1    14
  2.9461462125725010E+01 a       555     0    28     1    15
 -5.6157109134558976E+00 a       556     0    28     1    16
 -1.4120639886451579E+01 a       557     0    28     1    17
  3.0028480429729911E+00 a       558     0    28     1    18
  5.0309916717213738E+00 a       559     0    28     1    19
 -8.7766624669497766E+00 a       560     0    28     1    20
  1.5821373313978260E+00 a       561     0    29     1     1
 -6.4065634226686150E+00 a       562     0    29     1     2
  2.1439085612384662E+01 a       563     0    29     1     3
 -7.9550354146750868E+00 a       564     0    29     1     4
  2.2093292479009474E+01 a       565     0    29     1     5
  7.4079563237494739E+00 a       566     0    29     1     6
  1.6715722166169641E+01 a       567     0    29     1     7
 -1.1425432709388511E+01 a       568     0    29     1     8
 -3.9998243708957832E+00 a       569     0    29     1     9
 -1.0613158498449888E+01 a       570     0    29     1    10
 -9.0155848647699290E+00 a       571     0    29     1    11
  6.6203453470137772E+00 a       572     0    29     1    12
 -8.0124573692360235E-01 a       573     0    29     1    13
  3.0369149230853614E+00 a       574     0    29     1    14
 -4.1860385321161353E-01 a       575     0    29     1    15
 -2.1002760291691841E-01 a       576     0    29     1    16
  2.7347575556921924E+00 a       577     0    29     1    17
 -7.0143875143607932E+00 a       578     0    29     1    18
  6.0573163924934716E+00 a       579     0    29     1    19
  9.6178183490868623E+00 a       580     0    29     1    20
 -7.0893462250529877E+00 a       581     0    30     1     1
  1.5877668412482542E+01 a       582     0    30     1     2
  3.2562803320742884E-01 a       583     0    30     1     3
  2.6020328062299427E+00 a       584     0    30     1     4
 -6.8982385433857809E+00 a       585     0    30     1     5
 -4.4070635763187369E+01 a       586     0    30     1     6
 -2.9506939543887980E+00 a       587     0    30     1     7
  8.1426285935909402E+00 a       588     0    30     1     8
 -8.0133951874796985E+00 a       589     0    30     1     9
  2.7267836625603632E+00 a       590     0    30     1    10
  1.4652598040808738E+00 a       591     0    30     1    11
  1.6429174751736703E+01 a       592     0    30     1    12
 -2.5378766864822680E+01 a       593     0    30     1    13
 -1.1250257770800875E+01 a       594     0    30     1    14
  2.6326741926279968E+00 a       595     0    30     1    15
  2.8278829352917958E+00 a       596     0    30     1    16
 -1.3713657304148208E+00 a       597     0    30     1    17
  1.2597122388807795E+01 a       598     0    30     1    18
  6.5233718849714997E+00 a       599     0    30     1    19
  8.8201466105067894E+00 a       600     0    30     1    20
 -1.6250701027512960E+01 a       601     0    31     1     1
  4.3877091095673654E-01 a       602     0    31     1     2
 -1.3392794629561148E+01 a       603     0    31     1     3
  9.5666008122269144E+00 a       604     0    31     1     4
  2.3236088970872920E+01 a       605     0    31     1     5
  1.2222628880773446E+01 a       606     0    31     1     6
  1.0556825878361616E+01 a       607     0    31     1     7
  2.3320803347221226E+01 a       608     0    31     1     8
  1.7335329699105394E+01 a       609     0    31     1     9
 -8.8260266943413939E+00 a       610     0    31     1    10
  2.7961733404914080E+00 a       611     0    31     1    11
  1.5385046462941988E+01 a       612     0    31     1    12
  1.0441714890414703E+01 a       613     0    31     1    13
  1.8198984202149006E+01 a       614     0    31     1    14
  8.3220105640093021E+00 a       615     0    31     1    15
 -6.4973361039932334E+00 a       616     0    31     1    16
  3.0640249916022144E+00 a       617     0    31     1    17
  3.4354379515834821E+00 a       618     0    31     1    18
 -7.2661646283729358E+00 a       619     0    31     1    19
 -9.4959172226348016E+00 a       620     0    31     1    20
  2.4207676895949120E+00 a       621     0    32     1     1
 -1.0946312799137892E+00 a       622     0    32     1     2
 -2.5511022309020439E+00 a       623     0    32     1     3
 -1.0963688012651089E+00 a       624     0    32     1     4
 -2.6597011046585223E+01 a       625     0    32     1     5
 -1.8636455028826433E+00 a       626     0    32     1     6
 -3.2596875436277677E+00 a       627     0    32     1     7
  6.7251350791244322E+00 a       628     0    32     1     8
 -1.7594242418297458E+01 a       629     0    32     1     9
  1.6846908691906126E+00 a       630     0    32     1    10
  1.5473114976917678E+01 a       631     0    32     1    11
 -1.5908547237838842E+01 a       632     0    32     1    12
 -8.3316584465412102E+00 a       633     0    32     1    13
  9.8999110517720297E+00 a       634     0    32     1    14
 -3.9814539340912969E-01 a       635     0    32     1    15
  1.4246783552987269E+01 a       636     0    32     1    16
 -3.8336675897102688E+00 a       637     0    32     1    17
  9.2168380867217135E+00 a       638     0    32     1    18
 -1.4031949688945460E+00 a       639     0    32     1    19
 -1.2733330542664343E+00 a       640     0    32     1    20
  1.3792173205962413E-01 a       641     0    33     1     1
  9.2591989252768201E+00 a       642     0    33     1     2
  1.6686848281060058E+01 a       643     0    33     1     3
  3.1331988894837148E+00 a       644     0    33     1     4
  3.1508968704974517E+01 a       645     0    33     1     5
  4.7628132973686739E+01 a       646     0    33     1     6
 -6.0162231446918222E+00 a       647     0    33     1     7
 -8.7955120820045884E+00 a       648     0    33     1     8
 -2.2798364369147464E+01 a       649     0    33     1     9
  2.3031311870482845E+01 a       650     0    33     1    10
  2.7873528722496528E+00 a       651     0    33     1    11
 -1.8174728724308331E+00 a       652     0    33     1    12
  2.5751730824034087E+01 a       653     0    33     1    13
  7.2721051562361865E+00 a       654     0    33     1    14
 -7.4947068368856691E+00 a       655     0    33     1    15
 -1.2787552162134306E+01 a       656     0    33     1    16
 -1.5554441808337456E+01 a       657     0    33     1    17
 -2.9610805423678578E+01 a       658     0    33     1    18
  1.6008396721183482E+00 a       659     0    33     1    19
 -1.7886331351859404E+01 a       660     0    33     1    20
  1.1517741708550973E+01 a       661     0    34     1     1
 -8.8275996440408662E+00 a       662     0    34     1     2
 -2.6984889036831219E+00 a       663     0    34     1     3
 -2.3992564606871106E+01 a       664     0    34     1     4
 -6.7285200770269702E+00 a       665     0    34     1     5
 -2.0757044610244932E+00 a       666     0    34     1     6
  1.1420314958374496E+01 a       667     0    34     1     7
 -1.6484409836316594E+01 a       668     0    34     1     8
 -4.9899926212380574E+00 a       669     0    34     1     9
 -1.0475615051004651E+01 a       670     0    34     1    10
 -1.2522459838338248E+01 a       671     0    34     1    11
 -2.3396061140732648E+01 a       672     0    34     1    12
  4.5513514814485685E+00 a       673     0    34     1    13
  7.6443085505759001E+00 a       674     0    34     1    14
 -9.5052733359323192E+00 a       675     0    34     1    15
  1.5048921655292357E+01 a       676     0    34     1    16
 -8.5874035499373846E+00 a       677     0    34     1    17
 -3.9799083655515894E+00 a       678     0    34     1    18
  8.5701516430956595E+00 a       679     0    34     1    19
  8.9619517832613660E-01 a       680     0    34     1    20
 -5.5903246639051414E+00 a       681     0    35     1     1
 -7.9103110546442936E+00 a       682     0    35     1     2
 -6.3994726835267590E+00 a       683     0    35     1     3
 -3.6140241547426555E-01 a       684     0    35     1     4
 -6.8505305818267548E+00 a       685     0    35     1     5
 -2.0509556289260015E+01 a       686     0    35     1     6
 -5.6858394444399929E+00 a       687     0    35     1     7
 -4.6306774209354993E+00 a       688     0    35     1     8
 -7.5850095308591063E+00 a       689     0    35     1     9
  1.6093757819700163E+00 a       690     0    35     1    10
  2.2801001494679469E+00 a       691     0    35     1    11
  2.8094168293090278E+00 a       692     0    35     1    12
  1.2097603054862123E+00 a       693     0    35     1    13
  1.3177606387677146E+01 a       694     0    35     1    14
 -2.4921279619943877E+00 a       695     0    35     1    15
  3.3719305891650881E+00 a       696     0    35     1    16
 -7.0603733897268957E-03 a       697     0    35     1    17
  1.6722162597153145E+00 a       698     0    35     1    18
 -4.4307060113037195E+00 a       699     0    35     1    19
  4.5854581814811723E+00 a       700     0    35     1    20
 -7.4904780721798225E+00 a       701     0    36     1     1
  6.3574281581815786E+00 a       702     0    36     1     2
  1.9401261346046992E+00 a       703     0    36     1     3
 -8.5988225217936503E+00 a       704     0    36     1     4
 -3.4019631437184250E+00 a       705     0    36     1     5
 -3.9795073042060096E+00 a       706     0    36     1     6
  2.8769752214181978E+00 a       707     0    36     1     7
 -9.3904804438076077E+00 a       708     0    36     1     8
 -7.8746417617225877E+00 a       709     0    36     1     9
 -9.2719798290937998E+00 a       710     0    36     1    10
  1.7483158486676437E+01 a       711     0    36     1    11
  4.7715935862221741E+00 a       712     0    36     1    12
  8.7703474730961180E+00 a       713     0    36     1    13
 -4.0050012563101517E-01 a       714     0    36     1    14
  4.0011082593403042E+00 a       715     0    36     1    15
 -6.1390085883452370E+00 a       716     0    36     1    16
  3.5207835420024418E+00 a       717     0    36     1    17
  5.2114289953429855E+00 a       718     0    36     1    18
 -2.3802554832264566E-02 a       719     0    36     1    19
  9.1581490676837385E-01 a       720     0    36     1    20
 -1.0975393186030050E+01 a       721     0    37     1     1
  3.3726793355437428E+00 a       722     0    37     1     2
  1.7844974444422096E+01 a       723     0    37     1     3
  3.2913690970134173E+00 a       724     0    37     1     4
 -1.8469950026146865E+01 a       725     0    37     1     5
 -8.1765805873856383E+00 a       726     0    37     1     6
  1.7189673210916141E+00 a       727     0    37     1     7
  1.1376327625213660E+01 a       728     0    37     1     8
  6.9331240061965262E+00 a       729     0    37     1     9
  2.0510158157322252E+01 a       730     0    37     1    10
 -1.7027294893551591E+01 a       731     0    37     1    11
 -2.1031571386881662E+01 a       732     0    37     1    12
  1.2217821480537335E+01 a       733     0    37     1    13
  1.0953531393648822E+01 a       734     0    37     1    14
  6.2933992872659070E+00 a       735     0    37     1    15
  1.6408888316285672E+01 a       736     0    37     1    16
 -1.7518378345697907E+00 a       737     0    37     1    17
  1.4171387012220656E+01 a       738     0    37     1    18
 -2.3409323163115499E+00 a       739     0    37     1    19
 -6.5742089445249419E-01 a       740     0    37     1    20
  2.8358247904172562E+00 a       741     0    38     1     1
 -3.9890456109032733E+00 a       742     0    38     1     2
 -1.7849332566545758E+01 a       743     0    38     1     3
  1.9200458591518627E-01 a       744     0    38     1     4
  3.5885918531759566E+00 a       745     0    38     1     5
  4.3328274627617356E+00 a       746     0    38     1     6
  3.9851798023366336E-01 a       747     0    38     1     7
 -3.9388639406307591E-01 a       748     0    38     1     8
  5.7552736977588239E+00 a       749     0    38     1     9
  4.9686112872118710E-01 a       750     0    38     1    10
 -3.8998504529912799E+00 a       751     0    38     1    11
  1.5045219864092497E+01 a       752     0    38     1    12
  3.6166997469753901E+00 a       753     0    38     1    13
 -1.8998767175783975E+00 a       754     0    38     1    14
  7.4248741952201858E+00 a       755     0    38     1    15
 -1.2808883456805633E+01 a       756     0    38     1    16
  2.7676029075013702E+00 a       757     0    38     1    17
 -7.8590624803760614E+00 a       758     0    38     1    18
 -7.0147522400913909E+00 a       759     0    38     1    19
  1.1113701807870328E+01 a       760     0    38     1    20
 -1.5453162275115986E+01 a       761     0    39     1     1
  8.7366045618787247E+00 a       762     0    39     1     2
 -4.9085265032384218E+00 a       763     0    39     1     3
 -1.3233383191654775E+00 a       764     0    39     1     4
 -1.0115614553569491E+01 a       765     0    39     1     5
 -2.3920345604810510E+01 a       766     0    39     1     6
  3.9189762637473353E+00 a       767     0    39     1     7
 -3.4551334534121709E+00 a       768     0    39     1     8
  2.0959496468737605E+01 a       769     0    39     1     9
 -1.5052203077955754E+01 a       770     0    39     1    10
  5.8171375709932622E+00 a       771     0    39     1    11
  4.9712411050216581E+00 a       772     0    39     1    12
 -1.5447383435204555E+01 a       773     0    39     1    13
 -2.3728805982146760E+01 a       774     0    39     1    14
 -1.8330026085675328E+00 a       775     0    39     1    15
  1.8513223378940825E+01 a       776     0    39     1    16
  8.4206148719297627E+00 a       777     0    39     1    17
  7.9361368388558962E+00 a       778     0    39     1    18
 -1.9571743011701610E+00 a       779     0    39     1    19
  2.4868915129368783E+00 a       780     0    39     1    20
  3.3564946566800589E+00 a       781     0    40     1     1
 -1.8070784422693251E+01 a       782     0    40     1     2
  2.3658410377852604E+01 a       783     0    40     1     3
  1.1303643208328387E+01 a       784     0    40     1     4
  2.5668198083076081E+00 a       785     0    40     1     5
  1.8972437632565737E+00 a       786     0    40     1     6
 -8.7030522753099522E+00 a       787     0    40     1     7
  2.0776712382544169E+01 a       788     0    40     1     8
  4.5740886690772768E+00 a       789     0    40     1     9
  5.5937445113502733E+00 a       790     0    40     1    10
 -1.1175017435772439E+01 a       791     0    40     1    11
  7.5086575148058019E+00 a       792     0    40     1    12
 -9.9793631963085634E+00 a       793     0    40     1    13
  5.1576288099100589E+00 a       794     0    40     1    14
 -1.0106130152636377E+01 a       795     0    40     1    15
 -7.2232804078470112E+00 a       796     0    40     1    16
  1.8821538364611204E+01 a       797     0    40     1    17
  2.5283507944697337E+00 a       798     0    40     1    18
 -9.9947888934026952E-01 a       799     0    40     1    19
  1.4092636379737606E+01 a       800     0    40     1    20
  3.0382755415519891E+00 b       801     1     1
  2.4610799700178636E+00 b       802     1     2
 -3.2986502073336976E+00 b       803     1     3
  2.1327795917065848E-01 b       804     1     4
 -1.1393984715795356E+00 b       805     1     5
 -5.2516774667766626E+00 b       806     1     6
  6.9690593862412928E-02 b       807     1     7
 -2.2187474097491098E+00 b       808     1     8
  4.6467180008191082E+00 b       809     1     9
  1.4527774100001772E-01 b       810     1    10
  1.3639593912418435E+00 b       811     1    11
 -1.5930321721688143E-01 b       812     1    12
 -3.1679301918227437E-01 b       813     1    13
 -3.9252107407342423E+00 b       814     1    14
  1.3478400344532426E+00 b       815     1    15
 -1.5426787450190556E+00 b       816     1    16
  5.1346276768486565E-01 b       817     1    17
 -1.6497760590458137E+00 b       818     1    18
 -1.3064947774840983E+00 b       819     1    19
 -1.2585925652629337E+00 b       820     1    20
  1.5908571339928741E+00 a       821     1     1     2     1
 -7.5177233782323727E+00 a       822     1     1     2     2
 -5.4647372138110883E+00 a       823     1     1     2     3
 -1.9730933664382375E+00 a       824     1     1     2     4
 -2.6765901094846596E+00 a       825     1     1     2     5
 -3.3395540339930418E+00 a       826     1     1     2     6
 -2.9656749794124110E-01 a       827     1     1     2     7
  3.7832241427269170E-01 a       828     1     1     2     8
 -2.5869913442811837E-01 a       829     1     1     2     9
  9.8518651725908732E+00 a       830     1     1     2    10
 -3.7916810729413103E-01 a       831     1     1     2    11
  2.2880150548831608E+00 a       832     1     1     2    12
 -2.8260976129823256E+00 a       833     1     1     2    13
 -5.2652577950975936E-02 a       834     1     1     2    14
 -1.2251383982688171E+00 a       835     1     1     2    15
  6.3599372940409831E+00 a       836     1     1     2    16
  1.0603620578502787E-01 a       837     1     1     2    17
 -1.8999494513369077E+00 a       838     1     1     2    18
  1.4628493364541302E+00 a       839     1     1     2    19
 -6.5253327688060505E+00 a       840     1     1     2    20
 -3.6015733330175590E+00 a       841     1     2     2     1
  3.9597656371558574E+00 a       842     1     2     2     2
  1.9680010269397584E+01 a       843     1     2     2     3
  1.5619126522592486E+00 a       844     1     2     2     4
  3.5976880588860403E+00 a       845     1     2     2     5
 -8.6641176850391108E+00 a       846     1     2     2     6
 -1.7443896625375612E+00 a       847     1     2     2     7
  1.6999727254156878E+00 a       848     1     2     2     8
  5.7729225115035101E+00 a       849     1     2     2     9
 -3.5871315011333835E+00 a       850     1     2     2    10
  5.9663995556370306E+00 a       851     1     2     2    11
  5.6290156673473355E+00 a       852     1     2     2    12
 -1.4321388547141676E+00 a       853     1     2     2    13
  6.2734918881449175E-01 a       854     1     2     2    14
 -4.0312664271786423E+00 a       855     1     2     2    15
  2.9859540006834000E+00 a       856     1     2     2    16
 -7.7705518814536294E+00 a       857     1     2     2    17
  6.1250548795564193E+00 a       858     1     2     2    18
 -5.2809265077423706E-01 a       859     1     2     2    19
  6.4491928684143796E+00 a       860     1     2     2    20
 -1.7504105011492055E+00 a       861     1     3     2     1
 -4.3533650134689648E+00 a       862     1     3     2     2
 -1.3176951821440021E+01 a       863     1     3     2     3
 -5.7545611095440841E-01 a       864     1     3     2     4
  6.8827055425827304E+00 a       865     1     3     2     5
 -1.3696638099458718E+00 a       866     1     3     2     6
  4.0248784974286517E-01 a       867     1     3     2     7
 -3.1115686774560353E-01 a       868     1     3     2     8
  6.2474966829875829E+00 a       869     1     3     2     9
 -6.0865691751203566E-01 a       870     1     3     2    10
  2.1333887870469530E+00 a       871     1     3     2    11
  5.3163538780466890E+00 a       872     1     3     2    12
  7.7641685288231006E+00 a       873     1     3     2    13
  3.5482791445812998E+00 a       874     1     3     2    14
  2.2487356409631127E+00 a       875     1     3     2    15
 -2.4274880254721558E+00 a       876     1     3     2    16
  1.1452827266249136E+01 a       877     1     3     2    17
  2.2300750743440974E+00 a       878     1     3     2    18
  9.8836219281901494E-01 a       879     1     3     2    19
 -7.3286621829005956E+00 a       880     1     3     2    20
 -1.0329985487961288E+00 a       881     1     4     2     1
  5.9295607164314470E+00 a       882     1     4     2     2
  6.2438242816512126E+00 a       883     1     4     2     3
  2.0710357721090431E+00 a       884     1     4     2     4
  2.4337332004387826E+00 a       885     1     4     2     5
 -4.3122383195129421E+00 a       886     1     4     2     6
  7.2469884333909651E-01 a       887     1     4     2     7
 -3.0578686611589828E-01 a       888     1     4     2     8
  1.4675342971737582E+00 a       889     1     4     2     9
  3.3150867964633037E+00 a       890     1     4     2    10
  7.4560758229180124E-01 a       891     1     4     2    11
  3.3344493843139729E+00 a       892     1     4     2    12
  1.0198761595599877E+00 a       893     1     4     2    13
 -6.1882880052680389E-01 a       894     1     4     2    14
 -4.1402501239554174E-01 a       895     1     4     2    15
  3.1462916446238148E-01 a       896     1     4     2    16
 -7.5912017472725379E+00 a       897     1     4     2    17
  8.9519523029144976E-01 a       898     1     4     2    18
 -1.0222102423200550E+00 a       899     1     4     2    19
  4.7428995476237485E+00 a       900     1     4     2    20
 -3.9573226460323694E+00 a       901     1     5     2     1
 -3.3525187332177313E+00 a       902     1     5     2     2
 -6.9850274598544093E+00 a       903     1     5     2     3
  1.5218752709346799E+00 a       904     1     5     2     4
  5.3617097124231554E+00 a       905     1     5     2     5
  7.1364996982067517E+00 a       906     1     5     2     6
 -4.9769673240407775E+00 a       907     1     5     2     7
  1.7225742542861990E+00 a       908     1     5     2     8
 -1.3841012206423198E+00 a       909     1     5     2     9
 -3.2203358183833402E+00 a       910     1     5     2    10
 -3.2269279503169819E+00 a       911     1     5     2    11
 -2.0096401100834025E+00 a       912     1     5     2    12
 -5.2766951418323336E+00 a       913     1     5     2    13
  1.5387328890789707E+00 a       914     1     5     2    14
  4.5319479922665140E+00 a       915     1     5     2    15
  1.2972198332245410E+01 a       916     1     5     2    16
  4.8140739996533695E+00 a       917     1     5     2    17
  2.9453635086163366E+00 a       918     1     5     2    18
  3.2333213571173021E+00 a       919     1     5     2    19
  8.1332585916304678E-01 a       920     1     5     2    20
 -1.0413498087046937E+00 a       921     1     6     2     1
  1.9699147305093093E-01 a       922     1     6     2     2
 -5.0923232383748624E+00 a       923     1     6     2     3
  9.6197118902798606E-01 a       924     1     6     2     4
  5.7449701857180113E-01 a       925     1     6     2     5
  2.1359743623897809E+00 a       926     1     6     2     6
  1.0494753804214730E+01 a       927     1     6     2     7
 -4.2931438626320251E+00 a       928     1     6     2     8
 -6.7684143252818640E-01 a       929     1     6     2     9
 -5.5239792415710722E+00 a       930     1     6     2    10
 -1.0804298209765948E+00 a       931     1     6     2    11
 -3.8960343830110253E+00 a       932     1     6     2    12
  2.6786836636691330E-01 a       933     1     6     2    13
 -7.1801326921103117E+00 a       934     1     6     2    14
 -1.7096672820280541E+00 a       935     1     6     2    15
 -2.5432531808899395E+00 a       936     1     6     2    16
  4.5153264245120335E+00 a       937     1     6     2    17
 -5.2423293701905038E+00 a       938     1     6     2    18
 -5.6426404061051967E+00 a       939     1     6     2    19
 -7.9405966230270169E+00 a       940     1     6     2    20
 -2.3042642175090799E+00 a       941     1     7     2     1
 -9.5908808932114802E+00 a       942     1     7     2     2
  7.1916200511927428E+00 a       943     1     7     2     3
  5.6406049521677104E-01 a       944     1     7     2     4
  1.4437994308186812E+00 a       945     1     7     2     5
 -1.8058893826936693E+00 a       946     1     7     2     6
  6.2504609516515002E+00 a       947     1     7     2     7
 -1.5085338533115633E+00 a       948     1     7     2     8
 -3.2882227013137881E+00 a       949     1     7     2     9
  6.7723074080467416E-01 a       950     1     7     2    10
 -3.5031823761766319E+00 a       951     1     7     2    11
 -2.6518794388092006E+00 a       952     1     7     2    12
  9.3637592522689328E-01 a       953     1     7     2    13
 -8.2107699073939788E-01 a       954     1     7     2    14
  5.6846994721868849E-01 a       955     1     7     2    15
 -1.1733053376088548E-01 a       956     1     7     2    16
  8.1448075536841669E-01 a       957     1     7     2    17
  1.1720700207497892E+00 a       958     1     7     2    18
 -2.1273228818153487E+00 a       959     1     7     2    19
 -3.0099144132680111E-01 a       960     1     7     2    20
 -1.3989461977867865E+00 a       961     1     8     2     1
 -4.9249453972421602E+00 a       962     1     8     2     2
  3.7552427523059726E+00 a       963     1     8     2     3
 -2.1262648123395969E+00 a       964     1     8     2     4
 -4.6804896270906688E+00 a       965     1     8     2     5
 -6.9160666775804218E+00 a       966     1     8     2     6
 -4.7405267808099598E+00 a       967     1     8     2     7
  1.8732021159702523E+00 a       968     1     8     2     8
  2.3701199401529141E+00 a       969     1     8     2     9
  9.7745684987949026E+00 a       970     1     8     2    10
 -5.1590029048836028E+00 a       971     1     8     2    11
  3.2854116416820700E+00 a       972     1     8     2    12
 -1.1733549637492529E-02 a       973     1     8     2    13
 -7.5515795845167322E+00 a       974     1     8     2    14
 -2.0071757812466071E-01 a       975     1     8     2    15
  4.3443027817482854E-01 a       976     1     8     2    16
 -6.0630715365783763E+00 a       977     1     8     2    17
 -3.0938107490065407E+00 a       978     1     8     2    18
 -9.9264237924119332E+00 a       979     1     8     2    19
 -4.8581620141669921E+00 a       980     1     8     2    20
  1.0521358940891394E+00 a       981     1     9     2     1
  3.1075198934832056E+00 a       982     1     9     2     2
 -1.1154024359648909E+01 a       983     1     9     2     3
  1.2228525951663571E+00 a       984     1     9     2     4
  4.0117480298865615E+00 a       985     1     9     2     5
  2.0606439111068728E+00 a       986     1     9     2     6
 -9.5676318078657160E-02 a       987     1     9     2     7
 -1.7237682804277066E+00 a       988     1     9     2     8
 -2.1379849990501838E+00 a       989     1     9     2     9
 -5.2220186981792320E+00 a       990     1     9     2    10
  1.9866170097418681E+00 a       991     1     9     2    11
  2.2222324184261448E+00 a       992     1     9     2    12
 -3.0612554695389340E+00 a       993     1     9     2    13
 -5.1633031484152936E-01 a       994     1     9     2    14
 -5.1263129021473142E-01 a       995     1     9     2    15
 -6.0591967028045000E+00 a       996     1     9     2    16
  2.3989485525683008E+00 a       997     1     9     2    17
  1.3326484382821711E+00 a       998     1     9     2    18
  7.4863608033418743E+00 a       999     1     9     2    19
  1.4697755617947508E+00 a      1000     1     9     2    20
 -2.8075116339526334E+00 a      1001     1    10     2     1
 -5.5555958687634659E+00 a      1002     1    10     2     2
  1.6557808784468906E+00 a      1003     1    10     2     3
 -1.4632453321225884E+00 a      1004     1    10     2     4
  1.1355357138767229E+01 a      1005     1    10     2     5
  8.4147055617674504E-01 a      1006     1    10     2     6
 -5.3420317572028087E-01 a      1007     1    10     2     7
  1.9367686008843681E+00 a      1008     1    10     2     8
 -4.5424135436994160E+00 a      1009     1    10     2     9
 -2.6345775618661960E+00 a      1010     1    10     2    10
  7.5379675545664000E+00 a      1011     1    10     2    11
 -2.3270670695165334E+00 a      1012     1    10     2    12
 -3.5711031274972012E+00 a      1013     1    10     2    13
  1.1701105856532741E+00 a      1014     1    10     2    14
 -3.8206863699040210E+00 a      1015     1    10     2    15
  3.7777545112738448E-01 a      1016     1    10     2    16
  7.7750457781143101E-01 a      1017     1    10     2    17
  2.2920304589097986E+00 a      1018     1    10     2    18
  2.7500944658497222E+00 a      1019     1    10     2    19
 -3.1079503603069831E+00 a      1020     1    10     2    20
 -1.0714664916202383E+00 a      1021     1    11     2     1
  9.5840027491209068E-01 a      1022     1    11     2     2
 -4.2611478984553325E-01 a      1023     1    11     2     3
 -5.7493554062127794E-01 a      1024     1    11     2     4
  6.8349371165513411E+00 a      1025     1    11     2     5
  1.0117586653791498E+01 a      1026     1    11     2     6
 -4.0773238966444303E-01 a      1027     1    11     2     7
  8.1135790699096921E-01 a      1028     1    11     2     8
  4.1137432746294724E+00 a      1029     1    11     2     9
 -4.1343810654476343E+00 a      1030     1    11     2    10
 -2.4768548253192774E-01 a      1031     1    11     2    11
 -2.3567594186891913E-01 a      1032     1    11     2    12
  2.5922676854974220E+00 a      1033     1    11     2    13
 -1.4218015019374248E+00 a      1034     1    11     2    14
  2.7133104267635755E+00 a      1035     1    11     2    15
 -2.1847859698461622E+00 a      1036     1    11     2    16
 -2.8503281454669027E-01 a      1037     1    11     2    17
 -3.2746376215855353E+00 a      1038     1    11     2    18
  3.6355851221225888E-01 a      1039     1    11     2    19
 -5.2580172580328606E+00 a      1040     1    11     2    20
  1.2132240113660465E-01 a      1041     1    12     2     1
 -9.2751195702843408E+00 a      1042     1    12     2     2
 -9.5370987217044900E-01 a      1043     1    12     2     3
 -1.8047929044646298E+00 a      1044     1    12     2     4
  3.4820098745704113E+00 a      1045     1    12     2     5
 -2.0364818955407027E+00 a      1046     1    12     2     6
 -4.4430079008879526E-02 a      1047     1    12     2     7
 -8.4451150616903137E-01 a      1048     1    12     2     8
 -4.3097918206500383E+00 a      1049     1    12     2     9
  7.8154569085669146E-01 a      1050     1    12     2    10
  1.6418660354479480E+00 a      1051     1    12     2    11
  1.5512934734817982E+00 a      1052     1    12     2    12
  2.4247734677704442E+00 a      1053     1    12     2    13
  2.2377248003374866E+00 a      1054     1    12     2    14
 -6.8492324793424741E-01 a      1055     1    12     2    15
  1.8379872106619577E+00 a      1056     1    12     2    16
 -4.1166762223246423E+00 a      1057     1    12     2    17
 -1.2658388753187051E+00 a      1058     1    12     2    18
 -8.8645247204435940E+00 a      1059     1    12     2    19
 -2.2420286403873133E+00 a      1060     1    12     2    20
 -3.4910016568754956E+00 a      1061     1    13     2     1
  3.2800442569825274E+00 a      1062     1    13     2     2
  2.8459930559899876E-01 a      1063     1    13     2     3
  1.7131102521414798E-01 a      1064     1    13     2     4
  2.8300211195558216E+00 a      1065     1    13     2     5
 -4.3095938899340789E+00 a      1066     1    13     2     6
 -4.7844841010584620E+00 a      1067     1    13     2     7
 -9.5376135635942341E-03 a      1068     1    13     2     8
  4.4064997791992031E+00 a      1069     1    13     2     9
  3.2564078626956615E-02 a      1070     1    13     2    10
 -1.0444513151720118E+00 a      1071     1    13     2    11
 -3.3826454133539530E+00 a      1072     1    13     2    12
  3.7089516348642654E-01 a      1073     1    13     2    13
 -3.4765062390300661E+00 a      1074     1    13     2    14
 -1.8413447046722425E-01 a      1075     1    13     2    15
  5.8509595589529368E+00 a      1076     1    13     2    16
  3.5303930004858430E+00 a      1077     1    13     2    17
 -1.2875733312765376E-03 a      1078     1    13     2    18
 -2.6492529511169698E+00 a      1079     1    13     2    19
 -1.0506383987633672E-01 a      1080     1    13     2    20
 -2.3550576832738894E+00 a      1081     1    14     2     1
  5.1412281344935549E+00 a      1082     1    14     2     2
  1.2262378466746219E+01 a      1083     1    14     2     3
  1.9807308709302307E-03 a      1084     1    14     2     4
 -3.2145611421014428E+00 a      1085     1    14     2     5
  1.7876654925508206E+00 a      1086     1    14     2     6
 -4.9135867639054720E-01 a      1087     1    14     2     7
 -5.4032013708344218E-01 a      1088     1    14     2     8
  5.6292134022976130E+00 a      1089     1    14     2     9
  2.8454956382794760E+00 a      1090     1    14     2    10
 -1.1435787884619477E+00 a      1091     1    14     2    11
  6.5135356481628035E+00 a      1092     1    14     2    12
  3.6181903273533402E+00 a      1093     1    14     2    13
  2.0033666503707195E-01 a      1094     1    14     2    14
 -1.4940483682316661E+00 a      1095     1    14     2    15
 -3.1145618525262515E+00 a      1096     1    14     2    16
 -7.3089914781799497E+00 a      1097     1    14     2    17
 -2.4756741959461728E+00 a      1098     1    14     2    18
  4.6219277830604328E+00 a      1099     1    14     2    19
 -3.1524855684149916E-01 a      1100     1    14     2    20
  3.4159649003100867E+00 a      1101     1    15     2     1
 -2.3366052723136730E+00 a      1102     1    15     2     2
 -1.0221914442846771E+01 a      1103     1    15     2     3
  3.7806632790100919E-01 a      1104     1    15     2     4
 -1.0976450117420178E+01 a      1105     1    15     2     5
 -2.2147547105826293E+00 a      1106     1    15     2     6
  4.2974733581141207E+00 a      1107     1    15     2     7
  5.4608512219365635E-01 a      1108     1    15     2     8
  9.7861231782558078E-01 a      1109     1    15     2     9
 -2.2407969704338080E+00 a      1110     1    15     2    10
  5.9861176192127519E-01 a      1111     1    15     2    11
  7.5981663792434135E+00 a      1112     1    15     2    12
  1.0790415217271343E+00 a      1113     1    15     2    13
  1.4645002876860067E+00 a      1114     1    15     2    14
  2.8489567424694964E+00 a      1115     1    15     2    15
 -2.5670237016425292E+00 a      1116     1    15     2    16
  4.0717171018816973E+00 a      1117     1    15     2    17
 -2.7445932917664897E+00 a      1118     1    15     2    18
  9.3229838483617400E-01 a      1119     1    15     2    19
 -3.8832250918692872E+00 a      1120     1    15     2    20
  1.4976397793786471E+00 a      1121     1    16     2     1
 -4.7588795678209230E+00 a      1122     1    16     2     2
 -3.5368245241139871E+00 a      1123     1    16     2     3
 -1.2886533809853542E+00 a      1124     1    16     2     4
  2.8733779460558182E+00 a      1125     1    16     2     5
 -5.1232311744270689E+00 a      1126     1    16     2     6
 -1.3917949247854204E+00 a      1127     1    16     2     7
  1.2099740631303650E+00 a      1128     1    16     2     8
 -4.3427879701738332E+00 a      1129     1    16     2     9
 -3.8271893703056814E+00 a      1130     1    16     2    10
  8.1826375636356712E+00 a      1131     1    16     2    11
 -4.9427399263313756E+00 a      1132     1    16     2    12
  1.8052722637009608E+00 a      1133     1    16     2    13
 -1.0560592630850851E+00 a      1134     1    16     2    14
 -2.3607162337407664E-01 a      1135     1    16     2    15
 -7.6794594041788136E+00 a      1136     1    16     2    16
  3.5404650952942340E+00 a      1137     1    16     2    17
 -3.9200780624718989E+00 a      1138     1    16     2    18
  6.1752740180851271E+00 a      1139     1    16     2    19
 -2.2648182205415051E+00 a      1140     1    16     2    20
 -1.9808304492224371E+00 a      1141     1    17     2     1
 -4.9604159697849441E+00 a      1142     1    17     2     2
 -6.4094434281247530E+00 a      1143     1    17     2     3
 -1.3273284258341798E+00 a      1144     1    17     2     4
  2.9352728906976187E+00 a      1145     1    17     2     5
 -1.8657163911990577E+00 a      1146     1    17     2     6
 -1.6436874390247624E+00 a      1147     1    17     2     7
  2.7390259972966646E+00 a      1148     1    17     2     8
  8.8390817189699984E+00 a      1149     1    17     2     9
 -7.2520684836299045E+00 a      1150     1    17     2    10
 -4.1530864075170593E+00 a      1151     1    17     2    11
 -5.4481850509876777E+00 a      1152     1    17     2    12
 -3.9893925788170037E-01 a      1153     1    17     2    13
 -1.2163386302511314E+00 a      1154     1    17     2    14
 -1.7596108081752619E+00 a      1155     1    17     2    15
  2.1999096145560029E-01 a      1156     1    17     2    16
 -6.6403620271301520E+00 a      1157     1    17     2    17
  6.9360641775243315E-02 a      1158     1    17     2    18
 -1.9011403163786440E+00 a      1159     1    17     2    19
  2.3657247120921547E+00 a      1160     1    17     2    20
  3.0927260941715025E+00 a      1161     1    18     2     1
  2.8422878696703240E+00 a      1162     1    18     2     2
 -3.3089416494360884E+00 a      1163     1    18     2     3
 -1.3818960658733093E+00 a      1164     1    18     2     4
 -8.3382039229347171E+00 a      1165     1    18     2     5
 -3.0205325772757687E+00 a      1166     1    18     2     6
  2.5904628147250435E+00 a      1167     1    18     2     7
 -1.5043870021922812E+00 a      1168     1    18     2     8
  3.3738582582572603E+00 a      1169     1    18     2     9
 -1.4503862773555125E+00 a      1170     1    18     2    10
 -2.2287584521643917E+00 a      1171     1    18     2    11
  3.8518205166303452E+00 a      1172     1    18     2    12
 -2.6926253441940595E+00 a      1173     1    18     2    13
 -4.3808629104846961E+00 a      1174     1    18     2    14
 -2.1618095464998834E+00 a      1175     1    18     2    15
  2.5217979310521930E+00 a      1176     1    18     2    16
  2.9306169160552975E+00 a      1177     1    18     2    17
  5.3741884789083183E-01 a      1178     1    18     2    18
 -1.4959433846626593E+00 a      1179     1    18     2    19
 -3.0457348985772210E+00 a      1180     1    18     2    20
 -9.0798135676141434E-01 a      1181     1    19     2     1
  1.2516169953576290E+00 a      1182     1    19     2     2
 -5.4410197588162230E+00 a      1183     1    19     2     3
  1.7423476904513749E-01 a      1184     1    19     2     4
 -3.6788316401798666E+00 a      1185     1    19     2     5
  5.7627427463089487E-01 a      1186     1    19     2     6
  4.5571567723031066E-02 a      1187     1    19     2     7
  1.1089321175131133E+00 a      1188     1    19     2     8
  2.0381406010552814E+00 a      1189     1    19     2     9
 -3.9575123995402874E+00 a      1190     1    19     2    10
  7.7301152817483809E-01 a      1191     1    19     2    11
  3.4136996888687166E-01 a      1192     1    19     2    12
 -1.4250173585190100E+00 a      1193     1    19     2    13
  1.0845600399033062E+00 a      1194     1    19     2    14
 -4.5211924769490439E+00 a      1195     1    19     2    15
 -2.8354969853574490E+00 a      1196     1    19     2    16
  3.6865771818424620E-01 a      1197     1    19     2    17
  2.2198904852818440E+00 a      1198     1    19     2    18
 -2.1950853882557847E-01 a      1199     1    19     2    19
  1.0125161664480298E+00 a      1200     1    19     2    20
 -2.3165421208289752E-02 a      1201     1    20     2     1
  8.6288270905673958E-01 a      1202     1    20     2     2
  4.4319379380848778E-01 a      1203     1    20     2     3
  1.8353980150677622E+00 a      1204     1    20     2     4
  5.8720854587172218E+00 a      1205     1    20     2     5
 -1.7343886041361676E+00 a      1206     1    20     2     6
  1.8026779965087716E+00 a      1207     1    20     2     7
  1.1946144462306036E+00 a      1208     1    20     2     8
 -6.2847619802783405E-01 a      1209     1    20     2     9
 -5.7726149428674689E-01 a      1210     1    20     2    10
  5.3914398081568926E-01 a      1211     1    20     2    11
  4.6912520110123079E+00 a      1212     1    20     2    12
 -2.2487478191437624E+00 a      1213     1    20     2    13
 -1.2747480512386187E+00 a      1214     1    20     2    14
 -1.5694638903679834E+00 a      1215     1    20     2    15
  9.3754780273682503E-01 a      1216     1    20     2    16
  5.2042771955463838E+00 a      1217     1    20     2    17
  2.1370197538959452E+00 a      1218     1    20     2    18
  9.9236768248093217E+00 a      1219     1    20     2    19
  2.6935825416404859E+00 a      1220     1    20     2    20
 -3.0106789865303858E+00 b      1221     2     1
 -5.8812393873979056E+00 b      1222     2     2
 -2.3646332541961428E+01 b      1223     2     3
 -4.3732449724295401E+00 b      1224     2     4
 -2.7659241697459974E-01 b      1225     2     5
 -1.4537300375237251E-02 b      1226     2     6
  3.3953550407483968E-01 b      1227     2     7
  6.0650431386309178E-01 b      1228     2     8
  5.5024270470937475E-01 b      1229     2     9
  5.2092115886545765E+00 b      1230     2    10
 -1.7812635855295018E+00 b      1231     2    11
  1.7352516652191146E+00 b      1232     2    12
  5.3422468225889013E+00 b      1233     2    13
 -8.8302471381073779E+00 b      1234     2    14
 -2.3027284323918149E+00 b      1235     2    15
 -2.8751950004315439E+00 b      1236     2    16
  1.0217071670453924E+01 b      1237     2    17
 -8.8146834670642278E+00 b      1238     2    18
 -3.6712341844433616E+00 b      1239     2    19
 -1.3648887928084923E+01 b      1240     2    20
 -3.6076532317465171E-01 a      1241     2     1     3     1
 -1.7218953062762291E-01 a      1242     2     2     3     1
 -7.6785658336913365E-02 a      1243     2     3     3     1
 -7.5390758393311663E-01 a      1244     2     4     3     1
 -2.7269640839698012E-01 a      1245     2     5     3     1
  1.1333422554751343E-01 a      1246     2     6     3     1
  2.7033386669309406E-01 a      1247     2     7     3     1
 -1.0357158143256973E+00 a      1248     2     8     3     1
 -1.2519115121797272E-01 a      1249     2     9     3     1
 -2.6613611119484137E-01 a      1250     2    10     3     1
 -8.8646886415653769E-02 a      1251     2    11     3     1
 -1.7461161874072964E-01 a      1252     2    12     3     1
  9.6774013803845191E-02 a      1253     2    13     3     1
 -9.1398588185136395E-02 a      1254     2    14     3     1
 -2.0603218786710534E-01 a      1255     2    15     3     1
  2.3530774189600009E-01 a      1256     2    16     3     1
 -2.4400296513986622E-01 a      1257     2    17     3     1
  4.3156939703093106E-01 a      1258     2    18     3     1
  3.5618618231781285E-01 a      1259     2    19     3     1
  1.6516596148140036E-01 a      1260     2    20     3     1
  5.1759174100150407E-01 b      1261     3     1
