################################################################################
# Neural network connection values (weights and biases).
################################################################################
# Col  Name       Description
################################################################################
# 1    connection Neural network connection value.
# 2    t          Connection type (a = weight, b = bias).
# 3    index      Index enumerating weights.
# 4    l_s        Starting point layer (end point layer for biases).
# 5    n_s        Starting point neuron in starting layer (end point neuron for biases).
# 6    l_e        End point layer.
# 7    n_e        End point neuron in end layer.
################################################################################
#                      1 2         3     4     5     6     7
#             connection t     index   l_s   n_s   l_e   n_e
############################################################
  6.0847916687856263E-01 a         1     0     1     1     1
  2.2390296678543066E-02 a         2     0     1     1     2
  1.4025529979404152E+00 a         3     0     1     1     3
  2.9840179004161194E-01 a         4     0     1     1     4
 -6.0734831358336971E-01 a         5     0     1     1     5
 -8.9408527175043673E-01 a         6     0     1     1     6
  5.1721735494408050E-01 a         7     0     1     1     7
 -4.2285240778029581E-01 a         8     0     1     1     8
  1.2393179775301513E+00 a         9     0     1     1     9
  1.2287962167934788E-01 a        10     0     1     1    10
 -5.6600331635390311E-01 a        11     0     1     1    11
 -1.1725099677266253E+00 a        12     0     1     1    12
 -1.6643910696423865E+00 a        13     0     1     1    13
 -6.2196959830849885E-01 a        14     0     1     1    14
  1.3667902257361362E+00 a        15     0     1     1    15
 -3.9161354195777359E-01 a        16     0     1     1    16
  3.6826545909670011E-01 a        17     0     1     1    17
  3.5496453723579674E-01 a        18     0     1     1    18
 -9.1569710597411080E-01 a        19     0     1     1    19
  2.1137058059931668E+00 a        20     0     1     1    20
  1.9592942867145664E+00 a        21     0     2     1     1
  1.1556042183814894E+00 a        22     0     2     1     2
 -6.3005299949452709E-01 a        23     0     2     1     3
  7.5943763921643470E-01 a        24     0     2     1     4
 -1.3084083382470175E+00 a        25     0     2     1     5
  2.4157301784719473E-01 a        26     0     2     1     6
  5.5452699045102605E-01 a        27     0     2     1     7
  5.3014134272298907E-01 a        28     0     2     1     8
  1.9958453140008070E+00 a        29     0     2     1     9
  6.4635753245526761E-01 a        30     0     2     1    10
 -2.4898367699656974E+00 a        31     0     2     1    11
  1.3865303351307054E+00 a        32     0     2     1    12
  1.0842071084328428E-01 a        33     0     2     1    13
 -1.2738401296393549E+00 a        34     0     2     1    14
  8.5109592487114227E-01 a        35     0     2     1    15
  1.8462288771917593E-02 a        36     0     2     1    16
  5.7971484899937664E-01 a        37     0     2     1    17
  1.4020729681288953E+00 a        38     0     2     1    18
 -5.1203930444457701E-01 a        39     0     2     1    19
 -1.1967180558036115E+00 a        40     0     2     1    20
  5.5641694764308125E-01 a        41     0     3     1     1
  9.6088169178550420E-01 a        42     0     3     1     2
  2.7916700594737548E-01 a        43     0     3     1     3
 -6.7915088712878346E-01 a        44     0     3     1     4
 -3.1490853051159384E-01 a        45     0     3     1     5
  1.6247549153725768E-01 a        46     0     3     1     6
  1.4049965698845173E+00 a        47     0     3     1     7
 -9.2972549290138140E-01 a        48     0     3     1     8
  2.6541151956626385E+00 a        49     0     3     1     9
 -5.4921830155423212E-01 a        50     0     3     1    10
  4.4636142018679287E-01 a        51     0     3     1    11
  1.9564788195013352E-01 a        52     0     3     1    12
 -1.8876108279473165E+00 a        53     0     3     1    13
  4.8814495719147794E-01 a        54     0     3     1    14
 -1.2849952480891196E+00 a        55     0     3     1    15
  4.6189728674107777E-01 a        56     0     3     1    16
  7.1850059418431769E-02 a        57     0     3     1    17
 -2.0328192213715766E+00 a        58     0     3     1    18
 -1.9553567992689272E-01 a        59     0     3     1    19
  1.0613495505783150E+00 a        60     0     3     1    20
  7.0769646817186393E-02 a        61     0     4     1     1
 -2.0751110929428140E+00 a        62     0     4     1     2
  9.7597348821034036E-01 a        63     0     4     1     3
  4.3839820463882678E-01 a        64     0     4     1     4
 -3.6758948461876656E-01 a        65     0     4     1     5
  3.9629257735349666E-01 a        66     0     4     1     6
 -4.3405153101855809E-01 a        67     0     4     1     7
  4.6447354817794362E-01 a        68     0     4     1     8
  8.8853485244703290E-01 a        69     0     4     1     9
  1.3245843116445424E-01 a        70     0     4     1    10
 -2.9606486555699385E-01 a        71     0     4     1    11
  7.2946477573781265E-01 a        72     0     4     1    12
 -4.6426280350444760E-01 a        73     0     4     1    13
 -1.4002557251819547E+00 a        74     0     4     1    14
  2.5759833175085961E-01 a        75     0     4     1    15
  7.6746881735856953E-01 a        76     0     4     1    16
 -6.6795440840980880E-02 a        77     0     4     1    17
  5.5932050295848634E-02 a        78     0     4     1    18
 -3.7434238712268857E-02 a        79     0     4     1    19
 -7.0634068660273844E-02 a        80     0     4     1    20
 -8.6251081504032401E-01 a        81     0     5     1     1
 -2.2541712234513129E+00 a        82     0     5     1     2
  8.3776291233630606E-01 a        83     0     5     1     3
 -8.3214065011837057E-01 a        84     0     5     1     4
 -3.2791406820101980E+00 a        85     0     5     1     5
 -4.9169160812207141E-01 a        86     0     5     1     6
  2.2101411152352665E-01 a        87     0     5     1     7
  3.1322439687806441E-01 a        88     0     5     1     8
 -1.0078543328259697E+00 a        89     0     5     1     9
 -1.1884576151079445E+00 a        90     0     5     1    10
 -8.0668056549819611E-01 a        91     0     5     1    11
  1.4915257181747292E+00 a        92     0     5     1    12
  7.3552610724280953E-01 a        93     0     5     1    13
  2.5574084000480463E-01 a        94     0     5     1    14
  1.2665069729888174E+00 a        95     0     5     1    15
 -4.8911562889084387E-01 a        96     0     5     1    16
  1.4515730623184969E-01 a        97     0     5     1    17
  1.0300237898191150E-01 a        98     0     5     1    18
 -1.8519515113974823E+00 a        99     0     5     1    19
  7.5740157353844373E-01 a       100     0     5     1    20
 -1.1299182844521583E+00 a       101     0     6     1     1
 -1.1296769300274168E+00 a       102     0     6     1     2
  1.0302672943596394E-01 a       103     0     6     1     3
 -4.8877453364572720E-02 a       104     0     6     1     4
  8.8845243799408469E-01 a       105     0     6     1     5
 -4.5202811533376280E-01 a       106     0     6     1     6
 -9.2816656857334201E-01 a       107     0     6     1     7
  3.6390279177636053E-01 a       108     0     6     1     8
 -1.5252864012934830E+00 a       109     0     6     1     9
 -1.4674397670595891E+00 a       110     0     6     1    10
 -1.8014616615238327E-01 a       111     0     6     1    11
 -5.7869293456783366E-01 a       112     0     6     1    12
  6.2075722202554140E-01 a       113     0     6     1    13
  2.9767475821514755E-01 a       114     0     6     1    14
  2.5777965279661152E-01 a       115     0     6     1    15
  4.1962299616085302E-01 a       116     0     6     1    16
 -6.3954029923897748E-01 a       117     0     6     1    17
  1.1047352998572015E+00 a       118     0     6     1    18
  1.2497812234786021E+00 a       119     0     6     1    19
  6.3657511616993834E-01 a       120     0     6     1    20
  8.2243032822296558E-01 a       121     0     7     1     1
  1.2160329826123828E+00 a       122     0     7     1     2
 -1.7125964335433215E+00 a       123     0     7     1     3
  9.9545505729255537E-02 a       124     0     7     1     4
 -3.0409723881714195E+00 a       125     0     7     1     5
 -1.3369849852117786E+00 a       126     0     7     1     6
  3.0212872267539360E-02 a       127     0     7     1     7
  2.8260957202155462E-01 a       128     0     7     1     8
  1.1703727422889314E+00 a       129     0     7     1     9
 -5.1495751655263233E-01 a       130     0     7     1    10
 -1.4037994682915516E+00 a       131     0     7     1    11
  9.0082283655522788E-01 a       132     0     7     1    12
  5.5723098053616971E-01 a       133     0     7     1    13
  2.7624086140195203E-01 a       134     0     7     1    14
  4.4758332049502143E-02 a       135     0     7     1    15
 -1.3521107292315675E+00 a       136     0     7     1    16
  1.7666016732239098E-01 a       137     0     7     1    17
 -7.9127318305058336E-01 a       138     0     7     1    18
  8.6061382970912903E-01 a       139     0     7     1    19
 -1.6858841794164556E-01 a       140     0     7     1    20
  8.2802505064473586E-01 a       141     0     8     1     1
  3.4867648023595305E-01 a       142     0     8     1     2
  2.5086768562182269E+00 a       143     0     8     1     3
  4.2560113254163701E-01 a       144     0     8     1     4
  5.2372917108132810E-01 a       145     0     8     1     5
  5.8245334464440102E-01 a       146     0     8     1     6
  1.6016420962075842E-01 a       147     0     8     1     7
 -9.9156250837237739E-02 a       148     0     8     1     8
 -1.2126158859770613E+00 a       149     0     8     1     9
  1.2522246892285788E-01 a       150     0     8     1    10
  7.1318733053260019E-01 a       151     0     8     1    11
  1.8017273923141441E+00 a       152     0     8     1    12
 -8.3428468564370051E-01 a       153     0     8     1    13
 -4.4967877720803767E-01 a       154     0     8     1    14
  8.1918896389851989E-02 a       155     0     8     1    15
 -6.6093533077389532E-01 a       156     0     8     1    16
  7.0970786216879111E-01 a       157     0     8     1    17
  3.5973964751692522E-01 a       158     0     8     1    18
  1.3290628829100790E-01 a       159     0     8     1    19
 -8.1732016895997062E-01 a       160     0     8     1    20
 -1.0404254853787387E+00 a       161     0     9     1     1
 -1.8580687119463533E+00 a       162     0     9     1     2
  3.6118284256861127E-01 a       163     0     9     1     3
  7.9438448834324871E-01 a       164     0     9     1     4
  1.2334554215230156E+00 a       165     0     9     1     5
  1.0717595559747937E+00 a       166     0     9     1     6
 -1.4000979595785781E+00 a       167     0     9     1     7
  1.2037850195856101E+00 a       168     0     9     1     8
  1.4259483727569293E+00 a       169     0     9     1     9
 -8.8538206485608206E-01 a       170     0     9     1    10
 -1.3042477839948146E+00 a       171     0     9     1    11
  8.7637098953890957E-01 a       172     0     9     1    12
  1.0749594001841281E+00 a       173     0     9     1    13
  2.2414741359748028E-01 a       174     0     9     1    14
  9.0287154738213193E-02 a       175     0     9     1    15
  6.5720073067166640E-01 a       176     0     9     1    16
 -1.2947746256142043E+00 a       177     0     9     1    17
  6.2057280743372734E-01 a       178     0     9     1    18
  9.8813789237010807E-01 a       179     0     9     1    19
 -6.2983573013809069E-01 a       180     0     9     1    20
 -1.4144317836498810E+00 a       181     0    10     1     1
 -2.1206209344035245E-02 a       182     0    10     1     2
 -6.2549133529114409E-01 a       183     0    10     1     3
 -7.9782836244415001E-01 a       184     0    10     1     4
 -6.7668418956540433E-01 a       185     0    10     1     5
 -7.4231464668115935E-02 a       186     0    10     1     6
  1.0583517049738760E+00 a       187     0    10     1     7
  1.2070598997034376E-01 a       188     0    10     1     8
  2.1159325959299360E+00 a       189     0    10     1     9
 -4.8709057558875490E-01 a       190     0    10     1    10
 -1.6681808172918731E+00 a       191     0    10     1    11
  2.0044393174610770E-01 a       192     0    10     1    12
  6.5765766526242098E-01 a       193     0    10     1    13
  9.2668177887876002E-01 a       194     0    10     1    14
 -6.9445684341690450E-01 a       195     0    10     1    15
  9.6984531123576367E-01 a       196     0    10     1    16
 -1.0217261257064911E+00 a       197     0    10     1    17
  2.1380107343443974E-01 a       198     0    10     1    18
  8.2178503936676361E-01 a       199     0    10     1    19
  8.3096824732757624E-01 a       200     0    10     1    20
  5.2198547989539590E-01 a       201     0    11     1     1
 -9.2210665976456208E-01 a       202     0    11     1     2
 -4.3531591628990057E-01 a       203     0    11     1     3
  9.7068852375253534E-01 a       204     0    11     1     4
 -3.3656358328518751E-02 a       205     0    11     1     5
 -8.9866245222465675E-03 a       206     0    11     1     6
 -3.4055979360188195E+00 a       207     0    11     1     7
  1.1063716163107642E-01 a       208     0    11     1     8
 -1.9538727238723990E+00 a       209     0    11     1     9
  2.5287245224204922E+00 a       210     0    11     1    10
  2.2433777613552377E+00 a       211     0    11     1    11
  9.1759626997511856E-01 a       212     0    11     1    12
 -3.3126946921306460E-01 a       213     0    11     1    13
 -9.3614237584214388E-01 a       214     0    11     1    14
  1.2048306341004853E+00 a       215     0    11     1    15
  1.5089959252157581E+00 a       216     0    11     1    16
  1.3227496929949072E+00 a       217     0    11     1    17
  1.0095726730937562E+00 a       218     0    11     1    18
  7.3485303193021753E-02 a       219     0    11     1    19
 -3.9233922138425753E-01 a       220     0    11     1    20
  2.0880288198266985E+00 a       221     0    12     1     1
  1.8237038049245755E+00 a       222     0    12     1     2
 -1.4035632182759459E+00 a       223     0    12     1     3
 -2.3854776989491841E-01 a       224     0    12     1     4
 -1.3574291921279613E+00 a       225     0    12     1     5
 -9.8255547453556313E-01 a       226     0    12     1     6
 -1.9687236965491106E-01 a       227     0    12     1     7
 -5.9357274795200154E-01 a       228     0    12     1     8
 -1.0950051546559558E+00 a       229     0    12     1     9
  7.8898915388614699E-01 a       230     0    12     1    10
  3.7020460513178999E+00 a       231     0    12     1    11
  1.3563176307625691E+00 a       232     0    12     1    12
 -2.2667828345521919E+00 a       233     0    12     1    13
  1.4034005220419548E+00 a       234     0    12     1    14
 -2.0313929376950135E+00 a       235     0    12     1    15
 -1.1309638806372417E+00 a       236     0    12     1    16
 -1.5548992267119897E+00 a       237     0    12     1    17
  5.0577387902695026E-01 a       238     0    12     1    18
 -9.0365265941633832E-01 a       239     0    12     1    19
  7.7687831065903978E-01 a       240     0    12     1    20
  1.4967561460000254E+00 a       241     0    13     1     1
 -3.8386240216842032E-01 a       242     0    13     1     2
  1.9293395131129736E+00 a       243     0    13     1     3
 -5.3281508683232093E-01 a       244     0    13     1     4
 -2.3530055023560639E+00 a       245     0    13     1     5
  2.0988008314895259E+00 a       246     0    13     1     6
  2.6135233029505933E+00 a       247     0    13     1     7
  2.0978255133760981E-01 a       248     0    13     1     8
  2.1973320160610172E+00 a       249     0    13     1     9
 -3.4170673994240330E-01 a       250     0    13     1    10
 -5.7838015666512299E-01 a       251     0    13     1    11
 -1.2954731154280341E-01 a       252     0    13     1    12
  1.2014918902599321E+00 a       253     0    13     1    13
  1.3890586996279408E+00 a       254     0    13     1    14
 -5.8759885547155044E-01 a       255     0    13     1    15
  5.3805651125000642E-01 a       256     0    13     1    16
 -5.8024555951851622E-03 a       257     0    13     1    17
  4.6119091693192682E-01 a       258     0    13     1    18
 -2.2963995611855439E-01 a       259     0    13     1    19
 -1.9382301070367478E-01 a       260     0    13     1    20
  3.6155116587108477E-01 a       261     0    14     1     1
 -1.0338433967636615E+00 a       262     0    14     1     2
  9.8541349245207477E-01 a       263     0    14     1     3
 -1.1462019759403905E+00 a       264     0    14     1     4
 -1.7744303441960256E+00 a       265     0    14     1     5
  1.1115753383550449E+00 a       266     0    14     1     6
  8.9486434105451673E-01 a       267     0    14     1     7
  3.0591935555096272E-01 a       268     0    14     1     8
 -1.6019001458377418E+00 a       269     0    14     1     9
  7.2546192799788833E-01 a       270     0    14     1    10
  7.4518636430469831E-01 a       271     0    14     1    11
 -3.7024673717199108E-01 a       272     0    14     1    12
  2.1872562923972227E-01 a       273     0    14     1    13
 -4.1640061503169212E-01 a       274     0    14     1    14
 -1.7197227952526104E+00 a       275     0    14     1    15
 -2.4925144979608342E-02 a       276     0    14     1    16
 -9.1571483494955863E-01 a       277     0    14     1    17
 -2.4049440716613364E+00 a       278     0    14     1    18
 -6.1459429373047103E-01 a       279     0    14     1    19
 -1.1730604658468835E+00 a       280     0    14     1    20
  7.5961993758185797E-01 a       281     0    15     1     1
 -6.6487314706181722E-01 a       282     0    15     1     2
 -2.6050030641767780E-01 a       283     0    15     1     3
 -1.8513392313115307E+00 a       284     0    15     1     4
  1.6315751027423133E+00 a       285     0    15     1     5
  4.9152375907763879E-01 a       286     0    15     1     6
  1.3799940207900421E+00 a       287     0    15     1     7
  1.7826624578865078E+00 a       288     0    15     1     8
  1.9153278410491437E+00 a       289     0    15     1     9
  9.3154461104818920E-01 a       290     0    15     1    10
 -7.6281187008692553E-01 a       291     0    15     1    11
 -1.2322712032975327E+00 a       292     0    15     1    12
  1.4072363593042847E+00 a       293     0    15     1    13
 -2.3299585194658774E+00 a       294     0    15     1    14
  2.1736617837183294E+00 a       295     0    15     1    15
  3.1252716677595167E+00 a       296     0    15     1    16
 -6.6965851842002461E-02 a       297     0    15     1    17
  1.1508516563978712E+00 a       298     0    15     1    18
  1.3170704105825399E+00 a       299     0    15     1    19
 -4.6796465463051928E-01 a       300     0    15     1    20
 -2.8197495626353266E+00 a       301     0    16     1     1
  4.9858236482248314E-01 a       302     0    16     1     2
  1.1439808481894334E+00 a       303     0    16     1     3
  1.3701627488940954E-01 a       304     0    16     1     4
  6.0044261085520767E-01 a       305     0    16     1     5
 -1.5113562565685525E+00 a       306     0    16     1     6
  1.5509039151464075E+00 a       307     0    16     1     7
 -2.9168798320537437E-01 a       308     0    16     1     8
  2.7962668049584511E+00 a       309     0    16     1     9
 -1.2985082254688716E+00 a       310     0    16     1    10
 -1.7009989218927952E+00 a       311     0    16     1    11
  9.6343476576829767E-01 a       312     0    16     1    12
  1.7679660695536861E+00 a       313     0    16     1    13
 -8.8433549997777949E-01 a       314     0    16     1    14
  9.3226700089680592E-01 a       315     0    16     1    15
  2.3686489249892202E+00 a       316     0    16     1    16
  4.3543550232739608E-01 a       317     0    16     1    17
  3.7824600275550185E-01 a       318     0    16     1    18
  6.8839277789627951E-01 a       319     0    16     1    19
  5.7795429995737946E-01 a       320     0    16     1    20
  2.4463221445754774E-01 a       321     0    17     1     1
 -1.9283855992130397E-01 a       322     0    17     1     2
  1.1861966536623527E+00 a       323     0    17     1     3
  3.9871631624883896E-01 a       324     0    17     1     4
 -2.0493952080878888E+00 a       325     0    17     1     5
  1.6111419599503845E+00 a       326     0    17     1     6
  7.3330342627788836E-01 a       327     0    17     1     7
 -2.3897124256659467E-02 a       328     0    17     1     8
  1.6449331986508087E-01 a       329     0    17     1     9
 -2.5200205459718150E-01 a       330     0    17     1    10
  2.7605967187612052E-01 a       331     0    17     1    11
 -2.4427769628271989E-01 a       332     0    17     1    12
  2.0487088586826654E+00 a       333     0    17     1    13
  7.9841306897400266E-02 a       334     0    17     1    14
  4.4156172668571853E-01 a       335     0    17     1    15
  4.3745343273202474E-02 a       336     0    17     1    16
 -1.2613762690144839E-01 a       337     0    17     1    17
  1.6521026731091202E+00 a       338     0    17     1    18
 -4.0528696087767496E-01 a       339     0    17     1    19
  2.0336161063829925E+00 a       340     0    17     1    20
 -1.5859657196901169E+00 a       341     0    18     1     1
 -6.8066576486525684E-02 a       342     0    18     1     2
  1.8362019135656198E+00 a       343     0    18     1     3
 -1.1174620693476094E+00 a       344     0    18     1     4
 -2.4476081136718770E+00 a       345     0    18     1     5
  3.4296274131765756E+00 a       346     0    18     1     6
 -1.1717176205396993E+00 a       347     0    18     1     7
  7.1821397593916170E-01 a       348     0    18     1     8
  1.0792136119741478E+00 a       349     0    18     1     9
  1.2373511931055461E+00 a       350     0    18     1    10
  2.0439939142098358E+00 a       351     0    18     1    11
  1.3045123185190710E+00 a       352     0    18     1    12
  6.3958435263400615E-01 a       353     0    18     1    13
 -3.0332991898581478E+00 a       354     0    18     1    14
  2.3280977117504271E+00 a       355     0    18     1    15
 -5.0013607740996813E-01 a       356     0    18     1    16
  6.5841369959485752E-01 a       357     0    18     1    17
 -1.0599013214261201E+00 a       358     0    18     1    18
  1.7882802605139201E+00 a       359     0    18     1    19
  2.8329273334356975E-01 a       360     0    18     1    20
  1.1443669022868688E+00 a       361     0    19     1     1
 -2.6180580959548525E+00 a       362     0    19     1     2
 -1.2210061964299981E+00 a       363     0    19     1     3
 -4.2903224253596058E-02 a       364     0    19     1     4
  4.9726790927412845E-01 a       365     0    19     1     5
 -6.2611536707219806E-01 a       366     0    19     1     6
 -9.5170706114922410E-01 a       367     0    19     1     7
  3.2828904826985444E-01 a       368     0    19     1     8
  3.1460317160248743E+00 a       369     0    19     1     9
 -5.1056925295699895E-01 a       370     0    19     1    10
  2.0030266582939067E+00 a       371     0    19     1    11
  1.6207305622272665E+00 a       372     0    19     1    12
  1.7321643606133967E+00 a       373     0    19     1    13
 -7.8502463848732906E-01 a       374     0    19     1    14
 -1.0722182550778481E+00 a       375     0    19     1    15
  7.1691120974845124E-01 a       376     0    19     1    16
  4.4038654028241436E-01 a       377     0    19     1    17
  1.8233891843229261E-01 a       378     0    19     1    18
 -1.4965265297823593E+00 a       379     0    19     1    19
 -1.5834140496647492E-01 a       380     0    19     1    20
  4.4428386462884474E-02 a       381     0    20     1     1
 -1.0752503917917196E-01 a       382     0    20     1     2
  1.3406373486358194E+00 a       383     0    20     1     3
 -2.2829059237199728E-01 a       384     0    20     1     4
  3.9102561673403563E-01 a       385     0    20     1     5
 -2.0449262591261581E+00 a       386     0    20     1     6
  1.6443227698325753E+00 a       387     0    20     1     7
 -1.3395669704733906E+00 a       388     0    20     1     8
  2.0916209373215744E+00 a       389     0    20     1     9
  3.5624220844696192E-01 a       390     0    20     1    10
 -1.4038080881445364E-01 a       391     0    20     1    11
 -2.5789705244275501E-01 a       392     0    20     1    12
  1.7265823523903316E+00 a       393     0    20     1    13
 -4.5616082826111698E-01 a       394     0    20     1    14
 -1.3419237224006244E+00 a       395     0    20     1    15
  1.0053449266574281E+00 a       396     0    20     1    16
  1.2809279172597579E+00 a       397     0    20     1    17
  1.3277275805770448E+00 a       398     0    20     1    18
  4.8241563496908363E-01 a       399     0    20     1    19
  8.0793322662139080E-02 a       400     0    20     1    20
 -7.3481306122810786E-01 a       401     0    21     1     1
  1.0181627821160255E+00 a       402     0    21     1     2
 -1.0502610712243607E+00 a       403     0    21     1     3
 -4.9139486404441385E-01 a       404     0    21     1     4
 -1.6396665909221375E+00 a       405     0    21     1     5
  1.4852673481368300E-01 a       406     0    21     1     6
  1.2020504753401318E+00 a       407     0    21     1     7
 -2.9366176935536076E-01 a       408     0    21     1     8
  3.3573460825277266E+00 a       409     0    21     1     9
  1.7572451128653961E+00 a       410     0    21     1    10
  1.8900953262625206E+00 a       411     0    21     1    11
 -7.0729733933140426E-01 a       412     0    21     1    12
 -1.7159149196845827E+00 a       413     0    21     1    13
 -4.6383806282946832E-02 a       414     0    21     1    14
 -8.8986409773772812E-01 a       415     0    21     1    15
  2.0874813359078417E-01 a       416     0    21     1    16
  5.7794052969143406E-01 a       417     0    21     1    17
  4.0102310271870256E-01 a       418     0    21     1    18
  8.9703518927385539E-01 a       419     0    21     1    19
  1.3796830623325633E+00 a       420     0    21     1    20
  1.9116849781779344E+00 a       421     0    22     1     1
  7.9133764829469866E-01 a       422     0    22     1     2
  7.7173922835342867E-01 a       423     0    22     1     3
 -6.3638230601560586E-01 a       424     0    22     1     4
 -3.3315900314012931E-01 a       425     0    22     1     5
  6.8442621336241904E-02 a       426     0    22     1     6
  3.3307617023765779E-01 a       427     0    22     1     7
 -9.6237015276565030E-01 a       428     0    22     1     8
 -7.4575768357093242E-01 a       429     0    22     1     9
  7.5445339885227980E-01 a       430     0    22     1    10
 -2.2659750875994020E-01 a       431     0    22     1    11
 -1.4193337532697312E+00 a       432     0    22     1    12
  4.4289575834138356E-01 a       433     0    22     1    13
  4.0688200165764771E-01 a       434     0    22     1    14
 -1.2926433100130772E+00 a       435     0    22     1    15
 -6.4219409574133524E-01 a       436     0    22     1    16
  7.0878373550411533E-01 a       437     0    22     1    17
  1.9986159638965377E+00 a       438     0    22     1    18
 -2.5951268914515602E-01 a       439     0    22     1    19
  6.1195607833463328E-01 a       440     0    22     1    20
 -4.0058494294068420E-01 a       441     0    23     1     1
 -3.1719390996731278E-01 a       442     0    23     1     2
  7.1728016224328905E-01 a       443     0    23     1     3
 -3.8576828326484341E-01 a       444     0    23     1     4
  6.7703762731067957E-03 a       445     0    23     1     5
  7.4205075350550054E-01 a       446     0    23     1     6
 -8.1990195650035680E-01 a       447     0    23     1     7
 -6.0097820180857864E-01 a       448     0    23     1     8
  1.4702476098118957E+00 a       449     0    23     1     9
 -8.0263088929742976E-01 a       450     0    23     1    10
  1.2408089598390708E+00 a       451     0    23     1    11
 -8.8221137062119503E-01 a       452     0    23     1    12
  5.2389759319556077E-02 a       453     0    23     1    13
  1.0914422604560579E+00 a       454     0    23     1    14
 -4.9645716488839675E-01 a       455     0    23     1    15
 -4.5667650235753821E-01 a       456     0    23     1    16
  4.0605185536988819E-01 a       457     0    23     1    17
 -5.0450540047235322E-02 a       458     0    23     1    18
 -3.8072188766591192E-01 a       459     0    23     1    19
 -9.2894067483068810E-01 a       460     0    23     1    20
  5.5040684139416440E-01 a       461     0    24     1     1
 -1.1074030519876963E+00 a       462     0    24     1     2
  4.8062037877405339E-01 a       463     0    24     1     3
  2.1175150979800603E-01 a       464     0    24     1     4
 -1.3654565416422648E+00 a       465     0    24     1     5
  4.4687424876097914E-01 a       466     0    24     1     6
  7.9761886727572995E-01 a       467     0    24     1     7
  6.8500908721227938E-01 a       468     0    24     1     8
  1.0750687534508598E+00 a       469     0    24     1     9
  3.7795535203772718E-01 a       470     0    24     1    10
  6.6555842210762450E-01 a       471     0    24     1    11
  5.6199597915056798E-01 a       472     0    24     1    12
  1.1743938950697397E+00 a       473     0    24     1    13
 -1.4038202539210662E-01 a       474     0    24     1    14
 -9.1354514198732606E-01 a       475     0    24     1    15
  1.0118735256775007E+00 a       476     0    24     1    16
  2.6412800892187027E-01 a       477     0    24     1    17
 -2.3348364220256603E+00 a       478     0    24     1    18
  2.0884429283427600E-01 a       479     0    24     1    19
 -4.7417503361086477E-01 a       480     0    24     1    20
 -6.8179286560456265E-01 a       481     0    25     1     1
 -4.8979283241779092E-01 a       482     0    25     1     2
  8.9702237936056792E-02 a       483     0    25     1     3
 -2.3389273952772299E-01 a       484     0    25     1     4
  1.1697020123693460E+00 a       485     0    25     1     5
 -4.0738206491451201E-01 a       486     0    25     1     6
 -1.5209836864356929E-02 a       487     0    25     1     7
 -1.3007890596096321E+00 a       488     0    25     1     8
 -1.4206552020173732E-01 a       489     0    25     1     9
 -6.7757807759802957E-01 a       490     0    25     1    10
 -5.2749799792230636E+00 a       491     0    25     1    11
 -3.5020484375068273E-01 a       492     0    25     1    12
 -4.3758758308266005E-01 a       493     0    25     1    13
 -3.1647529484442861E-02 a       494     0    25     1    14
 -1.1642694602492487E-01 a       495     0    25     1    15
 -7.6632662296209408E-02 a       496     0    25     1    16
 -2.0451044905534552E-01 a       497     0    25     1    17
 -9.5872397706501700E-01 a       498     0    25     1    18
  7.2811767115987047E-01 a       499     0    25     1    19
  1.1298158710602189E+00 a       500     0    25     1    20
 -7.6818745291016177E-02 a       501     0    26     1     1
  2.2525825858932605E-01 a       502     0    26     1     2
 -6.6461159023009886E-01 a       503     0    26     1     3
  4.8999695205836025E-01 a       504     0    26     1     4
 -9.7507141063954861E-02 a       505     0    26     1     5
 -1.3302188330304556E+00 a       506     0    26     1     6
  3.0857608672301212E-01 a       507     0    26     1     7
  2.9707171524131792E-01 a       508     0    26     1     8
 -1.2564572120984896E+00 a       509     0    26     1     9
  1.1772782237909289E+00 a       510     0    26     1    10
  1.5931124135035650E+00 a       511     0    26     1    11
  1.3389569153399938E+00 a       512     0    26     1    12
 -1.1101607124233310E+00 a       513     0    26     1    13
 -6.1030551228455343E-01 a       514     0    26     1    14
 -4.6658587789107575E-01 a       515     0    26     1    15
 -7.9314305790212403E-01 a       516     0    26     1    16
  8.4632993888881303E-01 a       517     0    26     1    17
  9.1520496286119690E-01 a       518     0    26     1    18
  5.2996495899805052E-01 a       519     0    26     1    19
 -6.5192060968198726E-02 a       520     0    26     1    20
  1.3290559214957800E+00 a       521     0    27     1     1
  5.3165607841767659E-01 a       522     0    27     1     2
 -1.2493522180380952E+00 a       523     0    27     1     3
  1.0053614934789954E+00 a       524     0    27     1     4
 -1.6126788320016028E+00 a       525     0    27     1     5
 -1.1581546767584749E+00 a       526     0    27     1     6
  7.9862752340976373E-01 a       527     0    27     1     7
  7.3147589920324274E-02 a       528     0    27     1     8
  1.0724824685067038E+00 a       529     0    27     1     9
  4.0430396925087120E-01 a       530     0    27     1    10
 -1.4664483545461140E+00 a       531     0    27     1    11
  1.7049947567531172E+00 a       532     0    27     1    12
  3.6956459328926394E-01 a       533     0    27     1    13
 -1.4708283001453162E+00 a       534     0    27     1    14
 -6.9395407130839126E-01 a       535     0    27     1    15
 -7.5278546208825869E-01 a       536     0    27     1    16
  4.9445982074412581E-01 a       537     0    27     1    17
 -3.3183203165058456E-01 a       538     0    27     1    18
  5.5130789153566076E-02 a       539     0    27     1    19
 -1.5259397312145473E+00 a       540     0    27     1    20
  7.7436210448557363E-01 a       541     0    28     1     1
  2.6717023004204427E-01 a       542     0    28     1     2
  2.4724460376889776E-01 a       543     0    28     1     3
  4.8604839955376505E-01 a       544     0    28     1     4
 -1.6379730630098495E+00 a       545     0    28     1     5
 -2.7448516598249517E-01 a       546     0    28     1     6
 -6.6979669824525034E-01 a       547     0    28     1     7
  2.2364424853296855E-01 a       548     0    28     1     8
 -6.0357420317602017E-01 a       549     0    28     1     9
 -6.3599452847400240E-01 a       550     0    28     1    10
  1.4549461426805606E+00 a       551     0    28     1    11
 -4.5723857098377213E-01 a       552     0    28     1    12
 -1.1659556071363084E-01 a       553     0    28     1    13
 -6.4495540336425738E-01 a       554     0    28     1    14
 -6.9540066337116924E-01 a       555     0    28     1    15
 -8.7749300799241814E-02 a       556     0    28     1    16
 -3.9892233784512238E-01 a       557     0    28     1    17
  1.2941079534079654E+00 a       558     0    28     1    18
  6.9439085028971315E-01 a       559     0    28     1    19
 -4.6938166636360396E-01 a       560     0    28     1    20
 -6.8211708398409998E-01 a       561     0    29     1     1
 -2.0821905694322989E+00 a       562     0    29     1     2
 -6.0666941845434164E-01 a       563     0    29     1     3
  4.2085925306121902E-01 a       564     0    29     1     4
  4.7111169194995467E-01 a       565     0    29     1     5
 -1.8471707477801688E-01 a       566     0    29     1     6
 -3.8237769729595561E-01 a       567     0    29     1     7
 -5.2249950391189193E-01 a       568     0    29     1     8
  9.3782981724106462E-01 a       569     0    29     1     9
 -3.8157966833604312E-01 a       570     0    29     1    10
  1.2429646544598923E-01 a       571     0    29     1    11
 -1.7537035037603746E-01 a       572     0    29     1    12
  8.5423402627483402E-01 a       573     0    29     1    13
 -6.2707722772046992E-01 a       574     0    29     1    14
  1.8310367041767664E-01 a       575     0    29     1    15
  1.0432224552890661E+00 a       576     0    29     1    16
  4.9804253252190500E-01 a       577     0    29     1    17
 -4.6922632858993119E-02 a       578     0    29     1    18
  3.6149091562498528E-02 a       579     0    29     1    19
  1.9821121784467841E-01 a       580     0    29     1    20
 -7.4071585911167732E-03 a       581     0    30     1     1
 -8.4746409285930613E-01 a       582     0    30     1     2
 -2.4487551291427176E+00 a       583     0    30     1     3
  1.0040163311438428E-01 a       584     0    30     1     4
  3.9220527567502911E-01 a       585     0    30     1     5
 -4.0362121579933727E-02 a       586     0    30     1     6
  1.4687220234176279E+00 a       587     0    30     1     7
 -1.2101292699522627E-01 a       588     0    30     1     8
 -1.2278992591955888E-02 a       589     0    30     1     9
 -6.4155539982301790E-01 a       590     0    30     1    10
  1.2342122909376136E+00 a       591     0    30     1    11
 -1.4552313484736339E+00 a       592     0    30     1    12
  1.4267752545559271E+00 a       593     0    30     1    13
  7.6754648376344337E-01 a       594     0    30     1    14
  3.3756713040853514E-01 a       595     0    30     1    15
  5.8005118307146775E-01 a       596     0    30     1    16
  4.2664242831435251E-01 a       597     0    30     1    17
 -3.4676210050119155E-01 a       598     0    30     1    18
  7.9885168411247665E-01 a       599     0    30     1    19
 -5.8624109110902101E-01 a       600     0    30     1    20
 -6.2113510399339444E-01 a       601     0    31     1     1
  9.8989926500833103E-01 a       602     0    31     1     2
  8.1560271551471430E-01 a       603     0    31     1     3
 -9.4497442546755017E-01 a       604     0    31     1     4
  1.6364027858349335E+00 a       605     0    31     1     5
 -3.8168933363502583E-01 a       606     0    31     1     6
  1.0518252039254010E+00 a       607     0    31     1     7
 -2.0264713253728575E+00 a       608     0    31     1     8
  1.2277917066714492E+00 a       609     0    31     1     9
 -5.5431379825035232E-01 a       610     0    31     1    10
  7.4147427874291538E-01 a       611     0    31     1    11
 -1.9574923776225719E+00 a       612     0    31     1    12
  5.9523160928193986E-01 a       613     0    31     1    13
  1.5377716194591353E+00 a       614     0    31     1    14
  1.4742306323627798E+00 a       615     0    31     1    15
  2.7688215484766093E-01 a       616     0    31     1    16
 -1.4192071464656248E+00 a       617     0    31     1    17
  2.4665627300496182E-02 a       618     0    31     1    18
 -1.5103249416041058E+00 a       619     0    31     1    19
  3.1848960531728900E-02 a       620     0    31     1    20
 -1.6497195538416844E+00 a       621     0    32     1     1
 -2.9597134187032736E-01 a       622     0    32     1     2
 -7.0502923507415349E-01 a       623     0    32     1     3
  6.9254565351334035E-02 a       624     0    32     1     4
  2.1251069089134056E+00 a       625     0    32     1     5
 -1.0467696545137578E-01 a       626     0    32     1     6
  3.5565774275026130E-01 a       627     0    32     1     7
 -2.5652508565809828E-01 a       628     0    32     1     8
 -6.8505348350682582E-01 a       629     0    32     1     9
 -8.2605102571702300E-03 a       630     0    32     1    10
 -1.2238878693914403E+00 a       631     0    32     1    11
 -1.3670124938297892E-01 a       632     0    32     1    12
  3.0335065830787866E-01 a       633     0    32     1    13
  5.2620321095562805E-01 a       634     0    32     1    14
  6.0871280281634854E-01 a       635     0    32     1    15
  4.5945966270687605E-01 a       636     0    32     1    16
  3.6931984985793725E-01 a       637     0    32     1    17
 -9.1920395158098944E-01 a       638     0    32     1    18
  2.3660956958776558E-02 a       639     0    32     1    19
 -3.2737426236386064E-01 a       640     0    32     1    20
 -1.1238612516393156E+00 a       641     0    33     1     1
 -5.5372599556505731E-01 a       642     0    33     1     2
  2.7907518601857290E-01 a       643     0    33     1     3
  9.5558289180466904E-01 a       644     0    33     1     4
 -5.7888235126240783E-01 a       645     0    33     1     5
 -9.5698284371530298E-03 a       646     0    33     1     6
 -4.5333376825927342E-02 a       647     0    33     1     7
  9.8866967385674176E-01 a       648     0    33     1     8
 -8.0830182848603005E-01 a       649     0    33     1     9
  1.0090762992119935E+00 a       650     0    33     1    10
 -1.1754652356982684E+00 a       651     0    33     1    11
  4.9253200957294324E-01 a       652     0    33     1    12
  8.2323628891285666E-02 a       653     0    33     1    13
 -2.8360452645667539E-01 a       654     0    33     1    14
  2.7226662491018860E-01 a       655     0    33     1    15
  1.1355350122639747E+00 a       656     0    33     1    16
  4.6251139253772910E-01 a       657     0    33     1    17
 -1.5734847711408837E+00 a       658     0    33     1    18
  1.1303701997965456E+00 a       659     0    33     1    19
  5.2570360761500379E-01 a       660     0    33     1    20
  9.6845979869834220E-01 a       661     0    34     1     1
  1.3827858579731498E+00 a       662     0    34     1     2
 -5.3313921595072677E-01 a       663     0    34     1     3
  6.9082708941737947E-01 a       664     0    34     1     4
 -1.4855920425998379E+00 a       665     0    34     1     5
 -3.4998584213067152E-01 a       666     0    34     1     6
  9.2475005765257290E-01 a       667     0    34     1     7
 -4.8951683732362411E-01 a       668     0    34     1     8
 -4.2695721745052390E-01 a       669     0    34     1     9
 -2.4986382022646469E-03 a       670     0    34     1    10
 -9.2409907625339727E-01 a       671     0    34     1    11
  1.1537805451866228E+00 a       672     0    34     1    12
  3.0335105149392383E-01 a       673     0    34     1    13
 -1.3247225076449738E+00 a       674     0    34     1    14
 -2.7629968693834567E-01 a       675     0    34     1    15
  2.2018608698918710E-01 a       676     0    34     1    16
  3.3007994356024178E-01 a       677     0    34     1    17
 -2.7667300546184770E-01 a       678     0    34     1    18
  5.2160513209934933E-01 a       679     0    34     1    19
 -1.4121560182870803E+00 a       680     0    34     1    20
 -3.7361378683763691E-01 a       681     0    35     1     1
  1.1996318364624881E+00 a       682     0    35     1     2
  7.7405210752162312E-01 a       683     0    35     1     3
  2.8326075376516140E-02 a       684     0    35     1     4
  7.6710306982808429E-01 a       685     0    35     1     5
  8.0132615648088867E-01 a       686     0    35     1     6
  1.1243770020113848E+00 a       687     0    35     1     7
 -9.8143635320490918E-01 a       688     0    35     1     8
 -4.4896532634381892E-01 a       689     0    35     1     9
 -4.6155611347889203E-01 a       690     0    35     1    10
  4.8524601534310535E-01 a       691     0    35     1    11
 -2.3143702339050046E-01 a       692     0    35     1    12
  5.6165033753989757E-01 a       693     0    35     1    13
 -6.7655474178441632E-01 a       694     0    35     1    14
  1.0408697733617158E+00 a       695     0    35     1    15
  7.9404008713051610E-01 a       696     0    35     1    16
 -1.1475322017435423E-01 a       697     0    35     1    17
  1.0309584110887358E+00 a       698     0    35     1    18
  3.7125715649404656E-01 a       699     0    35     1    19
 -4.1547282453671835E-01 a       700     0    35     1    20
  1.9244114438602318E+00 a       701     0    36     1     1
  1.4806304533668389E+00 a       702     0    36     1     2
  2.1946778350434073E+00 a       703     0    36     1     3
 -2.4232536143497926E-01 a       704     0    36     1     4
 -2.2718698314255321E+00 a       705     0    36     1     5
 -3.9921877065865613E-01 a       706     0    36     1     6
  5.1293891187254181E-01 a       707     0    36     1     7
 -6.8678744070214437E-01 a       708     0    36     1     8
 -2.4776853279776976E+00 a       709     0    36     1     9
 -1.2900945555896548E-01 a       710     0    36     1    10
  4.4092983645143216E+00 a       711     0    36     1    11
  6.9312943646953395E-01 a       712     0    36     1    12
  1.6419762290389830E+00 a       713     0    36     1    13
  3.5465931695071473E-01 a       714     0    36     1    14
 -1.8684870215110772E+00 a       715     0    36     1    15
  1.0331943738910314E+00 a       716     0    36     1    16
  2.6880705075988232E-01 a       717     0    36     1    17
 -1.4652950579560131E-01 a       718     0    36     1    18
  3.8238139817194899E-02 a       719     0    36     1    19
  3.8796718159959059E-01 a       720     0    36     1    20
 -4.4636102615257861E-01 a       721     0    37     1     1
  3.2056511039087437E-01 a       722     0    37     1     2
 -7.5852851098760310E-01 a       723     0    37     1     3
  3.6193246994367839E-01 a       724     0    37     1     4
  1.2308871112592650E+00 a       725     0    37     1     5
  2.0263191991988302E-01 a       726     0    37     1     6
  1.6453038567892386E+00 a       727     0    37     1     7
  5.7719409762233620E-01 a       728     0    37     1     8
  1.1917825592837383E+00 a       729     0    37     1     9
  2.2323420265306632E-01 a       730     0    37     1    10
 -6.7775977885384853E-01 a       731     0    37     1    11
 -1.0372814347461305E+00 a       732     0    37     1    12
 -1.4117645859359307E+00 a       733     0    37     1    13
  6.6382824479482250E-01 a       734     0    37     1    14
 -4.7132782262779310E-01 a       735     0    37     1    15
 -1.0724406242825315E+00 a       736     0    37     1    16
  5.6240742281814049E-01 a       737     0    37     1    17
  4.6140581739643444E-01 a       738     0    37     1    18
  1.1362671135267342E+00 a       739     0    37     1    19
  1.3589889358177487E+00 a       740     0    37     1    20
  1.2854631977553475E+00 a       741     0    38     1     1
 -9.6776889572610070E-01 a       742     0    38     1     2
  3.2848884005836876E+00 a       743     0    38     1     3
  8.1438145456765709E-01 a       744     0    38     1     4
  1.3369203310006825E+00 a       745     0    38     1     5
 -2.7784669896925761E-02 a       746     0    38     1     6
 -8.6721881724555905E-01 a       747     0    38     1     7
 -3.7475652595460596E-01 a       748     0    38     1     8
 -3.2477338027089614E-01 a       749     0    38     1     9
  2.0996973296232954E-01 a       750     0    38     1    10
 -2.0137891301355988E+00 a       751     0    38     1    11
 -5.3309338192519273E-01 a       752     0    38     1    12
  4.9117001994287740E-01 a       753     0    38     1    13
 -2.2694367935533695E+00 a       754     0    38     1    14
 -1.4643959191847562E+00 a       755     0    38     1    15
  1.6968511366059108E-01 a       756     0    38     1    16
  7.8498435412724651E-02 a       757     0    38     1    17
 -3.9005132445434093E-01 a       758     0    38     1    18
  6.9179239930687375E-01 a       759     0    38     1    19
 -1.4721374943058345E+00 a       760     0    38     1    20
 -1.1221136109006495E+00 a       761     0    39     1     1
  1.9392468406529828E+00 a       762     0    39     1     2
  2.7603457640242928E+00 a       763     0    39     1     3
  5.0735321773900377E-01 a       764     0    39     1     4
  1.0538286879546391E-01 a       765     0    39     1     5
  1.2480798542443024E-01 a       766     0    39     1     6
 -1.0891958041212686E+00 a       767     0    39     1     7
  6.7160883648330316E-01 a       768     0    39     1     8
  2.3162519261263399E+00 a       769     0    39     1     9
  6.0847541896966750E-01 a       770     0    39     1    10
  8.4958143408800013E-01 a       771     0    39     1    11
 -2.7030208046777460E-01 a       772     0    39     1    12
 -1.5975805883846261E+00 a       773     0    39     1    13
 -1.2496893562985141E+00 a       774     0    39     1    14
 -8.3021340707249403E-01 a       775     0    39     1    15
 -5.4926529902615029E-01 a       776     0    39     1    16
 -5.3937709737460215E-01 a       777     0    39     1    17
  4.9472431253045535E-01 a       778     0    39     1    18
  2.7294942380488957E-01 a       779     0    39     1    19
 -9.3789241157779402E-01 a       780     0    39     1    20
 -2.7170894911272692E-01 a       781     0    40     1     1
 -1.5336120785164937E+00 a       782     0    40     1     2
  5.7789085229711468E-01 a       783     0    40     1     3
 -3.6697433775643190E-01 a       784     0    40     1     4
  8.3989165288644019E-01 a       785     0    40     1     5
 -9.6641321804668179E-01 a       786     0    40     1     6
 -5.4633561819531695E-01 a       787     0    40     1     7
  1.1821207215500629E+00 a       788     0    40     1     8
  8.5414229056847568E-01 a       789     0    40     1     9
  1.9559517561980033E-01 a       790     0    40     1    10
  3.5756973849669121E-01 a       791     0    40     1    11
  1.2193450442452989E+00 a       792     0    40     1    12
  2.6844950273949053E-01 a       793     0    40     1    13
 -5.8713338729950570E-01 a       794     0    40     1    14
 -1.7174561785412494E+00 a       795     0    40     1    15
  5.9734895329632531E-01 a       796     0    40     1    16
  2.7025423035996909E-01 a       797     0    40     1    17
 -2.3574928557678216E+00 a       798     0    40     1    18
  1.5593485775257236E+00 a       799     0    40     1    19
 -8.8881081143537266E-01 a       800     0    40     1    20
  6.5306625406905364E-02 a       801     0    41     1     1
  8.3636780303092872E-01 a       802     0    41     1     2
 -3.8271179631497643E-01 a       803     0    41     1     3
  8.6959947594391615E-02 a       804     0    41     1     4
 -9.4103332512643145E-01 a       805     0    41     1     5
 -1.2082795286588384E+00 a       806     0    41     1     6
  2.1074856502514123E+00 a       807     0    41     1     7
 -7.4296927960335901E-01 a       808     0    41     1     8
 -6.8978729056571664E-01 a       809     0    41     1     9
  3.2648484423716556E-01 a       810     0    41     1    10
 -1.4153781045267855E+00 a       811     0    41     1    11
  8.0901587363236194E-01 a       812     0    41     1    12
 -1.3155286951246798E+00 a       813     0    41     1    13
 -5.5115044270613289E-01 a       814     0    41     1    14
 -1.8619750713522267E+00 a       815     0    41     1    15
  2.7488698850955645E-01 a       816     0    41     1    16
  3.8977263014058444E-01 a       817     0    41     1    17
 -1.8987852778862671E+00 a       818     0    41     1    18
 -3.1964783978412020E-01 a       819     0    41     1    19
 -1.8324050333187709E+00 a       820     0    41     1    20
  1.0652963050628489E-01 a       821     0    42     1     1
  8.4726074742712409E-01 a       822     0    42     1     2
  9.4495402823829833E-01 a       823     0    42     1     3
 -1.2845783544379159E-02 a       824     0    42     1     4
  1.0058639399538520E+00 a       825     0    42     1     5
  5.3061286989917689E-01 a       826     0    42     1     6
 -6.3650881813424598E-01 a       827     0    42     1     7
 -1.7439854342110361E-01 a       828     0    42     1     8
 -3.2938159161800018E-01 a       829     0    42     1     9
  1.2753191197849467E+00 a       830     0    42     1    10
  2.4180062467998451E+00 a       831     0    42     1    11
  1.5507593802534980E-01 a       832     0    42     1    12
 -1.0859349062132531E+00 a       833     0    42     1    13
 -1.2492514872136955E+00 a       834     0    42     1    14
  4.0223591134530351E-01 a       835     0    42     1    15
 -9.1023549075903143E-01 a       836     0    42     1    16
 -2.7550620832669082E-01 a       837     0    42     1    17
  6.1306106976428976E-01 a       838     0    42     1    18
  5.6130336864359409E-01 a       839     0    42     1    19
  5.1198747541117173E-01 a       840     0    42     1    20
  6.9846676715662392E-01 a       841     0    43     1     1
 -1.9290204092995751E+00 a       842     0    43     1     2
  7.5284621965027909E-01 a       843     0    43     1     3
  1.3544609449432662E-01 a       844     0    43     1     4
  2.8681301275958659E-01 a       845     0    43     1     5
 -2.7453426162722666E-01 a       846     0    43     1     6
 -5.0530216026655628E-01 a       847     0    43     1     7
  6.5307705241672942E-01 a       848     0    43     1     8
 -1.1382667427226869E+00 a       849     0    43     1     9
 -2.0019418542106393E-01 a       850     0    43     1    10
 -7.4546252980398964E-01 a       851     0    43     1    11
  7.5975021045974056E-01 a       852     0    43     1    12
 -1.6636218492950807E+00 a       853     0    43     1    13
 -1.9323191705379299E+00 a       854     0    43     1    14
  1.5746332471096549E+00 a       855     0    43     1    15
  6.5681675138338225E-01 a       856     0    43     1    16
  1.2916958514095414E-01 a       857     0    43     1    17
  7.8067514978100994E-01 a       858     0    43     1    18
  3.8936091523819250E-01 a       859     0    43     1    19
  1.4073137071789976E-01 a       860     0    43     1    20
  1.4547626347137529E-01 a       861     0    44     1     1
 -2.2362226833410528E+00 a       862     0    44     1     2
 -1.7064134695447606E+00 a       863     0    44     1     3
  4.2592054504327653E-02 a       864     0    44     1     4
  8.5934371338490911E-01 a       865     0    44     1     5
 -1.4369143835051584E-01 a       866     0    44     1     6
  1.0354352669076796E+00 a       867     0    44     1     7
 -1.8107394407021176E-02 a       868     0    44     1     8
 -9.4023611899354279E-02 a       869     0    44     1     9
 -9.0024080893790182E-01 a       870     0    44     1    10
  4.9867914002013852E-01 a       871     0    44     1    11
  7.3058491439460271E-01 a       872     0    44     1    12
 -4.8518519151205619E-01 a       873     0    44     1    13
 -5.4215825164361175E-01 a       874     0    44     1    14
 -1.4387417532456670E-01 a       875     0    44     1    15
  1.1241733370651334E+00 a       876     0    44     1    16
  3.8702979334736259E-01 a       877     0    44     1    17
 -2.5378966512721224E-01 a       878     0    44     1    18
  9.2391487693054331E-02 a       879     0    44     1    19
 -1.7028021876661505E+00 a       880     0    44     1    20
 -1.5628942342113028E+00 a       881     0    45     1     1
 -1.6469845741968072E+00 a       882     0    45     1     2
 -9.8830137038755372E-01 a       883     0    45     1     3
  1.5165974607070903E-01 a       884     0    45     1     4
  1.8816364173823876E+00 a       885     0    45     1     5
  4.0849043166852089E-01 a       886     0    45     1     6
 -2.0693492109084904E-01 a       887     0    45     1     7
 -1.1928132845373406E-02 a       888     0    45     1     8
  2.3734527205105954E-01 a       889     0    45     1     9
  4.2693201507248946E-01 a       890     0    45     1    10
 -2.9883627223360714E+00 a       891     0    45     1    11
 -9.8307510237802931E-01 a       892     0    45     1    12
  1.1889627596589578E+00 a       893     0    45     1    13
 -6.7671007111882620E-01 a       894     0    45     1    14
  1.2615806805337955E+00 a       895     0    45     1    15
  3.1079919086469388E-01 a       896     0    45     1    16
 -1.4564437804256009E-01 a       897     0    45     1    17
 -7.5848899233536249E-01 a       898     0    45     1    18
 -5.2327391137083379E-01 a       899     0    45     1    19
  3.4939475262705250E-01 a       900     0    45     1    20
 -2.9820175955563526E+00 a       901     0    46     1     1
  5.6424384472892175E-01 a       902     0    46     1     2
  4.6425581596857873E-01 a       903     0    46     1     3
  8.0963134343910870E-01 a       904     0    46     1     4
 -2.0925134021586356E+00 a       905     0    46     1     5
 -8.0290117795207583E-01 a       906     0    46     1     6
 -8.3401894508858954E-01 a       907     0    46     1     7
  1.6728104502616048E+00 a       908     0    46     1     8
 -1.8673430813130942E+00 a       909     0    46     1     9
  1.3963551899027258E+00 a       910     0    46     1    10
 -1.5619167956618367E+00 a       911     0    46     1    11
 -6.3767621278885267E-01 a       912     0    46     1    12
 -2.3121420080419283E-02 a       913     0    46     1    13
 -5.6493245706145234E-01 a       914     0    46     1    14
 -1.4990469908283585E-01 a       915     0    46     1    15
  1.5555223037906840E+00 a       916     0    46     1    16
  1.2674504810584315E+00 a       917     0    46     1    17
 -9.4506387813884019E-01 a       918     0    46     1    18
  1.1753888077662773E+00 a       919     0    46     1    19
  1.1068336332233060E+00 a       920     0    46     1    20
  7.5528191657778021E-01 a       921     0    47     1     1
 -1.8967667735070610E+00 a       922     0    47     1     2
  2.3350451185590290E-01 a       923     0    47     1     3
 -4.0375829119235512E-01 a       924     0    47     1     4
  1.1759393967794187E+00 a       925     0    47     1     5
 -7.3310677217167142E-01 a       926     0    47     1     6
 -2.3586592251032870E+00 a       927     0    47     1     7
  1.0513653459908541E+00 a       928     0    47     1     8
  9.7512589730539598E-02 a       929     0    47     1     9
 -2.3621508713395950E-01 a       930     0    47     1    10
 -9.9627707305043711E-01 a       931     0    47     1    11
 -2.0409208564772707E-01 a       932     0    47     1    12
 -1.9040509327241724E+00 a       933     0    47     1    13
  3.0667693630373577E-01 a       934     0    47     1    14
  9.8698768507278134E-01 a       935     0    47     1    15
  1.4743941232863418E+00 a       936     0    47     1    16
  5.7883424627687285E-01 a       937     0    47     1    17
  2.0604716643468621E+00 a       938     0    47     1    18
  1.4345726933124261E+00 a       939     0    47     1    19
  1.9024020700915119E+00 a       940     0    47     1    20
 -7.1613915918695958E-01 a       941     0    48     1     1
 -1.9986007752818040E+00 a       942     0    48     1     2
 -1.9248533224710558E+00 a       943     0    48     1     3
  4.3832887387774699E-01 a       944     0    48     1     4
  8.4072003415263974E-01 a       945     0    48     1     5
  5.7915329680313776E-01 a       946     0    48     1     6
  9.9842426972041085E-02 a       947     0    48     1     7
  3.7213714455814467E-01 a       948     0    48     1     8
 -9.8107723235694289E-01 a       949     0    48     1     9
  1.7167292737267517E-01 a       950     0    48     1    10
 -1.1859890816799967E+00 a       951     0    48     1    11
  8.4308341457186187E-01 a       952     0    48     1    12
  3.5360416618417662E-01 a       953     0    48     1    13
 -1.5164621541909504E+00 a       954     0    48     1    14
  6.8236759145697323E-01 a       955     0    48     1    15
  1.9937458856238144E-01 a       956     0    48     1    16
  2.2220144589508001E-01 a       957     0    48     1    17
  4.6461830579364938E-01 a       958     0    48     1    18
  3.0992755236575220E-01 a       959     0    48     1    19
 -7.7006368100829434E-02 a       960     0    48     1    20
  3.1168175351082954E-03 a       961     0    49     1     1
  1.5154320515347375E+00 a       962     0    49     1     2
  2.4183744665015663E-01 a       963     0    49     1     3
  4.6155499558190871E-01 a       964     0    49     1     4
 -1.3287668748785195E+00 a       965     0    49     1     5
  1.9157232579861297E-01 a       966     0    49     1     6
  7.1296527180842384E-01 a       967     0    49     1     7
 -9.2031946217948146E-01 a       968     0    49     1     8
 -1.3095209858166559E+00 a       969     0    49     1     9
 -4.4495338447530203E-01 a       970     0    49     1    10
  2.1917994525060761E-01 a       971     0    49     1    11
  1.0364586814023711E+00 a       972     0    49     1    12
  3.2231731189316676E-01 a       973     0    49     1    13
 -6.5433996920673954E-01 a       974     0    49     1    14
  4.2634191162293245E-01 a       975     0    49     1    15
  1.1438766070824065E+00 a       976     0    49     1    16
  6.8616603645368812E-01 a       977     0    49     1    17
  8.5935427096176831E-01 a       978     0    49     1    18
  5.4626379377915435E-01 a       979     0    49     1    19
 -1.5689356083040416E+00 a       980     0    49     1    20
 -9.9456476958287576E-01 a       981     0    50     1     1
 -1.2770454382807832E+00 a       982     0    50     1     2
  1.4671902727264476E+00 a       983     0    50     1     3
 -7.9684628922272138E-01 a       984     0    50     1     4
  2.3156494381529894E-02 a       985     0    50     1     5
 -4.2022928713159430E-01 a       986     0    50     1     6
 -2.4081684816043735E-02 a       987     0    50     1     7
 -5.3830793225477136E-01 a       988     0    50     1     8
  2.3328116366969262E-01 a       989     0    50     1     9
 -3.2865590278560566E+00 a       990     0    50     1    10
 -1.6306489212627291E+00 a       991     0    50     1    11
  5.6730273564366052E-01 a       992     0    50     1    12
  3.0009845664250547E+00 a       993     0    50     1    13
  3.5308625200070254E-01 a       994     0    50     1    14
  1.7504855696146362E-01 a       995     0    50     1    15
  8.5586525445942441E-01 a       996     0    50     1    16
  1.3749362372179244E-01 a       997     0    50     1    17
 -2.2264440465787197E-01 a       998     0    50     1    18
 -1.9646279681716756E+00 a       999     0    50     1    19
 -5.9393314105454420E-01 a      1000     0    50     1    20
  9.8893107110948242E-01 a      1001     0    51     1     1
 -3.7052787489040390E-01 a      1002     0    51     1     2
 -4.0118680061802159E-01 a      1003     0    51     1     3
  4.9899341672118275E-01 a      1004     0    51     1     4
 -1.8230677647708033E+00 a      1005     0    51     1     5
  1.2630818505470764E+00 a      1006     0    51     1     6
  4.8836694095299804E-01 a      1007     0    51     1     7
 -1.2394894882647525E+00 a      1008     0    51     1     8
 -7.1551661434045888E-01 a      1009     0    51     1     9
 -1.1471942558653516E+00 a      1010     0    51     1    10
  1.8361864548197910E+00 a      1011     0    51     1    11
 -3.3550883349983136E-02 a      1012     0    51     1    12
  3.9907577603480809E-01 a      1013     0    51     1    13
 -3.7266171425658695E-01 a      1014     0    51     1    14
 -6.0988373481086322E-01 a      1015     0    51     1    15
 -5.5132392417123000E-01 a      1016     0    51     1    16
  6.6290816517802276E-01 a      1017     0    51     1    17
 -4.7371975812228968E-02 a      1018     0    51     1    18
  4.9888786741379650E-02 a      1019     0    51     1    19
  7.6900000040773922E-02 a      1020     0    51     1    20
  4.0812311903170923E-01 a      1021     0    52     1     1
  3.3011058327352283E-01 a      1022     0    52     1     2
  1.1072513677574809E+00 a      1023     0    52     1     3
  8.7470169699547529E-01 a      1024     0    52     1     4
  1.4564763352718062E+00 a      1025     0    52     1     5
 -2.6972048643996810E-01 a      1026     0    52     1     6
  1.2116490857607194E+00 a      1027     0    52     1     7
  1.0126985013088194E+00 a      1028     0    52     1     8
  1.0847526129571037E+00 a      1029     0    52     1     9
 -5.3573972319474999E-02 a      1030     0    52     1    10
 -2.0424251561709647E-01 a      1031     0    52     1    11
  1.6492880990799325E-01 a      1032     0    52     1    12
 -4.3155111248778528E+00 a      1033     0    52     1    13
 -9.5019866207720005E-01 a      1034     0    52     1    14
 -1.4223392797977308E+00 a      1035     0    52     1    15
 -2.5576435476414319E+00 a      1036     0    52     1    16
  8.4290179681275793E-02 a      1037     0    52     1    17
 -1.1114910410472723E-01 a      1038     0    52     1    18
 -3.8220001427434758E-01 a      1039     0    52     1    19
  3.5051316267841437E+00 a      1040     0    52     1    20
  1.0400725415953692E-01 a      1041     0    53     1     1
  1.8228258972953229E+00 a      1042     0    53     1     2
 -8.0395172680660565E-01 a      1043     0    53     1     3
 -1.8611788873008545E-01 a      1044     0    53     1     4
 -1.2182329531135434E+00 a      1045     0    53     1     5
  1.3980874016022797E+00 a      1046     0    53     1     6
 -3.1688932340828102E-01 a      1047     0    53     1     7
 -1.0667322063404643E-01 a      1048     0    53     1     8
 -6.9429454828499471E-01 a      1049     0    53     1     9
 -3.9615927801332357E-01 a      1050     0    53     1    10
  6.0200439369535297E-01 a      1051     0    53     1    11
  1.8961366332980858E-01 a      1052     0    53     1    12
 -1.5836592477950968E+00 a      1053     0    53     1    13
  6.8151347872333212E-01 a      1054     0    53     1    14
 -3.6646325916598121E-01 a      1055     0    53     1    15
 -1.0286834121890247E+00 a      1056     0    53     1    16
  1.5535349894641159E-01 a      1057     0    53     1    17
  1.3334922744164663E-02 a      1058     0    53     1    18
  5.9838363817469931E-02 a      1059     0    53     1    19
  2.4442351147403793E-01 a      1060     0    53     1    20
  1.0181700063638497E-02 a      1061     0    54     1     1
 -1.3310665179619265E+00 a      1062     0    54     1     2
  8.2265357694094587E-01 a      1063     0    54     1     3
  1.3761120296516363E-01 a      1064     0    54     1     4
  1.1887073642896735E+00 a      1065     0    54     1     5
  1.4539080586479722E+00 a      1066     0    54     1     6
 -8.9454540204789168E-01 a      1067     0    54     1     7
 -4.0220933086021954E-01 a      1068     0    54     1     8
  2.1089166537018285E+00 a      1069     0    54     1     9
 -6.0196959153745899E-01 a      1070     0    54     1    10
  1.5990271743044802E+00 a      1071     0    54     1    11
 -1.8078009086503538E-01 a      1072     0    54     1    12
 -1.9762508635010612E+00 a      1073     0    54     1    13
 -3.1324550440590893E-01 a      1074     0    54     1    14
 -9.9032856427389371E-01 a      1075     0    54     1    15
  8.9069126625911610E-01 a      1076     0    54     1    16
  2.6378364232345486E-01 a      1077     0    54     1    17
  1.4313095005637483E-01 a      1078     0    54     1    18
  1.5192791317709826E+00 a      1079     0    54     1    19
 -3.2700517153935410E-01 a      1080     0    54     1    20
 -1.6625432022070354E+00 a      1081     0    55     1     1
 -8.0382514017814621E-01 a      1082     0    55     1     2
  1.6725962866415574E+00 a      1083     0    55     1     3
 -1.3739166689203861E+00 a      1084     0    55     1     4
 -2.4036977661500633E-02 a      1085     0    55     1     5
 -9.0167467352209429E-01 a      1086     0    55     1     6
 -1.0303128886667727E+00 a      1087     0    55     1     7
  4.9861878105579449E-01 a      1088     0    55     1     8
 -1.7870757518901328E+00 a      1089     0    55     1     9
  1.2184039051184464E-03 a      1090     0    55     1    10
 -2.2954331640552633E-01 a      1091     0    55     1    11
 -2.0066497192686847E-01 a      1092     0    55     1    12
  1.4221257044044746E+00 a      1093     0    55     1    13
 -7.0103404602926989E-01 a      1094     0    55     1    14
  4.1281718764476352E-02 a      1095     0    55     1    15
  6.4128672789235919E-01 a      1096     0    55     1    16
 -3.7109505583553543E-01 a      1097     0    55     1    17
  8.5667519457546804E-01 a      1098     0    55     1    18
  1.5591269424803020E+00 a      1099     0    55     1    19
  1.0412423750789255E+00 a      1100     0    55     1    20
  4.4146569862515644E-01 a      1101     0    56     1     1
  3.9408279942723479E-01 a      1102     0    56     1     2
  6.5185463190427240E-01 a      1103     0    56     1     3
  2.9622382609435233E-01 a      1104     0    56     1     4
 -8.9350047861090554E-01 a      1105     0    56     1     5
 -1.5824828225557727E-01 a      1106     0    56     1     6
  7.8301198891983792E-01 a      1107     0    56     1     7
  4.0447141255860386E-01 a      1108     0    56     1     8
  8.2861751478444945E-01 a      1109     0    56     1     9
  2.7752591899147311E-01 a      1110     0    56     1    10
  1.4799924941802458E+00 a      1111     0    56     1    11
  1.4846722231563894E+00 a      1112     0    56     1    12
 -1.2516014721198601E+00 a      1113     0    56     1    13
  4.2329896510897663E-01 a      1114     0    56     1    14
 -1.8407105560231787E+00 a      1115     0    56     1    15
 -4.1390477669362657E-01 a      1116     0    56     1    16
  7.0019417208533397E-01 a      1117     0    56     1    17
 -4.4266490942398684E-01 a      1118     0    56     1    18
 -3.3562029513008962E-01 a      1119     0    56     1    19
 -1.0887140446288195E+00 a      1120     0    56     1    20
  6.9274534157681411E-01 a      1121     0    57     1     1
  1.2709724368464823E+00 a      1122     0    57     1     2
  2.2471043671717422E-01 a      1123     0    57     1     3
  6.7789550801167686E-01 a      1124     0    57     1     4
  8.2865704517606761E-02 a      1125     0    57     1     5
  2.2073276437838846E-01 a      1126     0    57     1     6
 -1.1457823278074402E+00 a      1127     0    57     1     7
  2.8139811787738228E-01 a      1128     0    57     1     8
  2.0888593299723595E+00 a      1129     0    57     1     9
 -2.6344442293018006E-01 a      1130     0    57     1    10
 -8.4157366668994926E-01 a      1131     0    57     1    11
  1.0144674611571760E+00 a      1132     0    57     1    12
  5.4179852448001475E-01 a      1133     0    57     1    13
 -2.4810227227269888E-01 a      1134     0    57     1    14
 -1.3104149267228575E+00 a      1135     0    57     1    15
 -3.3483535235068396E-01 a      1136     0    57     1    16
 -2.9436226108588359E-01 a      1137     0    57     1    17
 -8.6322205182879655E-02 a      1138     0    57     1    18
 -6.2618992797181705E-01 a      1139     0    57     1    19
 -1.7977500455672522E+00 a      1140     0    57     1    20
  2.1484905119769615E-01 a      1141     0    58     1     1
 -8.6836985234943986E-01 a      1142     0    58     1     2
 -9.5441663657118814E-02 a      1143     0    58     1     3
 -1.9363834356360335E-01 a      1144     0    58     1     4
 -3.0015303724505817E-02 a      1145     0    58     1     5
  4.6777258154524998E-01 a      1146     0    58     1     6
 -1.3894596464040737E-01 a      1147     0    58     1     7
 -2.0795980398399225E-01 a      1148     0    58     1     8
  2.0853151855544538E-02 a      1149     0    58     1     9
 -3.3959797546852344E-01 a      1150     0    58     1    10
  2.9541828999576674E+00 a      1151     0    58     1    11
 -1.5923555476883122E-01 a      1152     0    58     1    12
 -1.0426529511772882E+00 a      1153     0    58     1    13
 -3.3889351821633573E-01 a      1154     0    58     1    14
 -1.4391390319725797E-01 a      1155     0    58     1    15
  4.4650350021401303E-01 a      1156     0    58     1    16
 -3.6080322069003225E-02 a      1157     0    58     1    17
  4.1949008776411462E-01 a      1158     0    58     1    18
  1.4281697400939730E+00 a      1159     0    58     1    19
  7.4656362210508265E-01 a      1160     0    58     1    20
 -9.6894221072339681E-01 a      1161     0    59     1     1
  1.2418107130153877E+00 a      1162     0    59     1     2
 -1.0685576792181517E+00 a      1163     0    59     1     3
  1.3830290224359731E-01 a      1164     0    59     1     4
  2.2044770927583470E+00 a      1165     0    59     1     5
  6.2274121968773177E-01 a      1166     0    59     1     6
 -3.5594347648353825E-01 a      1167     0    59     1     7
  3.2122052914571486E-02 a      1168     0    59     1     8
  3.3885227188258072E-03 a      1169     0    59     1     9
 -1.4022616528611520E+00 a      1170     0    59     1    10
 -7.7382239337844616E-01 a      1171     0    59     1    11
 -7.4833562137350551E-01 a      1172     0    59     1    12
  2.1022131736127561E+00 a      1173     0    59     1    13
  1.5381843857941289E+00 a      1174     0    59     1    14
 -1.2772210597793949E+00 a      1175     0    59     1    15
  3.4157226271012386E-01 a      1176     0    59     1    16
 -2.2164734185452437E-01 a      1177     0    59     1    17
  4.6548245680154782E-01 a      1178     0    59     1    18
 -6.9096866513424476E-02 a      1179     0    59     1    19
 -7.4553616026492509E-01 a      1180     0    59     1    20
 -2.8538159223932397E-01 a      1181     0    60     1     1
  1.8149137106029114E+00 a      1182     0    60     1     2
  9.1744770535322684E-01 a      1183     0    60     1     3
 -8.8389538040890198E-02 a      1184     0    60     1     4
 -1.3428344942858186E+00 a      1185     0    60     1     5
  6.6862316739948813E-01 a      1186     0    60     1     6
 -1.2557059947666599E-01 a      1187     0    60     1     7
 -4.6907638793166601E-01 a      1188     0    60     1     8
 -1.5602427384148336E+00 a      1189     0    60     1     9
  2.6757649433929154E-01 a      1190     0    60     1    10
  1.3826782394517760E+00 a      1191     0    60     1    11
  1.1793982244734547E-01 a      1192     0    60     1    12
 -6.2362320475308064E-01 a      1193     0    60     1    13
  7.1467024643684751E-01 a      1194     0    60     1    14
  6.3803425788901302E-01 a      1195     0    60     1    15
  9.0726924625977834E-01 a      1196     0    60     1    16
 -8.0421034076693299E-01 a      1197     0    60     1    17
  9.0764980502572590E-01 a      1198     0    60     1    18
 -6.2817729957022139E-01 a      1199     0    60     1    19
  6.4849480452584873E-01 a      1200     0    60     1    20
  5.7643027704513417E-01 a      1201     0    61     1     1
  2.0806450704185755E-01 a      1202     0    61     1     2
 -1.1710095106889380E+00 a      1203     0    61     1     3
 -3.0297792586964533E-02 a      1204     0    61     1     4
 -8.3956712294553326E-01 a      1205     0    61     1     5
 -1.1030085236202045E+00 a      1206     0    61     1     6
 -2.1063303842764402E-02 a      1207     0    61     1     7
 -4.7767739176797031E-01 a      1208     0    61     1     8
 -1.6905268538153173E-01 a      1209     0    61     1     9
  8.6095155500604881E-01 a      1210     0    61     1    10
 -2.8774797731709931E+00 a      1211     0    61     1    11
  5.7501682903752349E-02 a      1212     0    61     1    12
 -1.2376309110132397E+00 a      1213     0    61     1    13
  2.1301685976355147E-02 a      1214     0    61     1    14
  2.6263096137515722E+00 a      1215     0    61     1    15
 -1.2076773439023100E-01 a      1216     0    61     1    16
  2.2129755455360209E-01 a      1217     0    61     1    17
  7.6824433706818906E-01 a      1218     0    61     1    18
  5.6029932905662838E-01 a      1219     0    61     1    19
  2.5550383577299214E+00 a      1220     0    61     1    20
  1.3930279742217333E-01 a      1221     0    62     1     1
  2.9459235728647295E+00 a      1222     0    62     1     2
 -6.0317390652741798E-01 a      1223     0    62     1     3
  7.7314728694694804E-03 a      1224     0    62     1     4
  1.9823531076751125E-02 a      1225     0    62     1     5
  6.9273763267355948E-01 a      1226     0    62     1     6
 -1.3653272229971941E-01 a      1227     0    62     1     7
  2.0444475653756452E-02 a      1228     0    62     1     8
 -1.1174955945517580E+00 a      1229     0    62     1     9
 -7.9260228457269000E-01 a      1230     0    62     1    10
 -1.3070339874327277E+00 a      1231     0    62     1    11
  7.5269860430538155E-02 a      1232     0    62     1    12
 -1.9898519431712380E-01 a      1233     0    62     1    13
 -3.0277271060794291E-02 a      1234     0    62     1    14
  1.4608939187304439E+00 a      1235     0    62     1    15
 -7.4526143420572011E-01 a      1236     0    62     1    16
 -9.1425274694211633E-01 a      1237     0    62     1    17
  3.5139864146061084E-01 a      1238     0    62     1    18
  6.5206488366867577E-01 a      1239     0    62     1    19
  6.6459520433378139E-01 a      1240     0    62     1    20
 -4.0438512272350041E-01 a      1241     0    63     1     1
  5.8900929285950732E-01 a      1242     0    63     1     2
  1.3102153857120711E+00 a      1243     0    63     1     3
  5.4038486525958573E-01 a      1244     0    63     1     4
  2.4109276852390145E+00 a      1245     0    63     1     5
  9.0414129032235269E-01 a      1246     0    63     1     6
 -6.3781166004497014E-01 a      1247     0    63     1     7
  1.7746938963501804E+00 a      1248     0    63     1     8
  9.9196852891885445E-01 a      1249     0    63     1     9
 -7.2579853667331828E-01 a      1250     0    63     1    10
 -1.9518988211738721E+00 a      1251     0    63     1    11
  1.3974402195603020E-02 a      1252     0    63     1    12
 -2.5873596110477848E-01 a      1253     0    63     1    13
 -7.2430169133349917E-02 a      1254     0    63     1    14
  3.9658270422146896E-01 a      1255     0    63     1    15
 -4.4227992796686810E-01 a      1256     0    63     1    16
  2.3504325535986575E-01 a      1257     0    63     1    17
  6.3313885916080226E-01 a      1258     0    63     1    18
  2.4128877546031187E+00 a      1259     0    63     1    19
  5.9984129164678468E-01 a      1260     0    63     1    20
 -3.7009863414099947E-01 a      1261     0    64     1     1
  2.1109031163218955E-01 a      1262     0    64     1     2
  2.9659854524413459E-01 a      1263     0    64     1     3
 -1.2719642307315995E+00 a      1264     0    64     1     4
  8.8231144446162524E-01 a      1265     0    64     1     5
 -2.0178802190802991E+00 a      1266     0    64     1     6
 -1.0383406824909107E+00 a      1267     0    64     1     7
 -2.2902026185338858E-02 a      1268     0    64     1     8
 -6.9068850098704704E-01 a      1269     0    64     1     9
 -1.2532948712334562E+00 a      1270     0    64     1    10
  5.3945762664367136E-01 a      1271     0    64     1    11
 -1.0678045971274264E+00 a      1272     0    64     1    12
  2.6961406461280890E-01 a      1273     0    64     1    13
  3.7782027103118759E-01 a      1274     0    64     1    14
  1.2773944784703892E+00 a      1275     0    64     1    15
  1.3227883701861856E-01 a      1276     0    64     1    16
 -1.0070939230782301E+00 a      1277     0    64     1    17
 -1.3555001974433792E-01 a      1278     0    64     1    18
  4.9154899830391358E-01 a      1279     0    64     1    19
  1.1976931889968812E+00 a      1280     0    64     1    20
 -5.0584977950339705E-01 a      1281     0    65     1     1
 -1.3487717971575857E+00 a      1282     0    65     1     2
  3.3352664543365484E-01 a      1283     0    65     1     3
  6.5825241771533349E-01 a      1284     0    65     1     4
  4.6988284336919756E-01 a      1285     0    65     1     5
  4.9654196745093859E-01 a      1286     0    65     1     6
  6.1762122500366867E-01 a      1287     0    65     1     7
  1.6900458193373591E-01 a      1288     0    65     1     8
  7.8795995762722548E-01 a      1289     0    65     1     9
 -6.6778345266818795E-01 a      1290     0    65     1    10
  2.5138063887065082E-01 a      1291     0    65     1    11
  1.2970154891940393E+00 a      1292     0    65     1    12
 -5.2827980450573631E-01 a      1293     0    65     1    13
 -2.5557562075615503E-01 a      1294     0    65     1    14
 -2.3925610168008421E-01 a      1295     0    65     1    15
  7.8511215833790982E-01 a      1296     0    65     1    16
  6.7260527666061476E-01 a      1297     0    65     1    17
 -3.6787576219944756E-01 a      1298     0    65     1    18
 -1.0558369821756550E+00 a      1299     0    65     1    19
 -1.2479440862798901E+00 a      1300     0    65     1    20
 -2.4681967551202932E-01 a      1301     0    66     1     1
 -1.8750940597685917E+00 a      1302     0    66     1     2
 -4.4744353122447865E-02 a      1303     0    66     1     3
 -6.8750565144263653E-01 a      1304     0    66     1     4
 -2.1969284483753476E-01 a      1305     0    66     1     5
  1.8556993019123205E-01 a      1306     0    66     1     6
 -1.0589769152777664E+00 a      1307     0    66     1     7
 -5.5344322926443523E-01 a      1308     0    66     1     8
  1.6321647742658523E+00 a      1309     0    66     1     9
 -8.3773527423810978E-01 a      1310     0    66     1    10
  2.0075795697970134E+00 a      1311     0    66     1    11
  7.0675136507301395E-01 a      1312     0    66     1    12
 -5.3382099611751377E-01 a      1313     0    66     1    13
 -1.0285117000526919E-01 a      1314     0    66     1    14
  2.8690106301664092E-01 a      1315     0    66     1    15
 -3.9989011780163874E-01 a      1316     0    66     1    16
  6.1591143737653765E-02 a      1317     0    66     1    17
  4.3700422505664072E-01 a      1318     0    66     1    18
  1.3210497306012576E+00 a      1319     0    66     1    19
  1.0368090272701362E+00 a      1320     0    66     1    20
 -1.2745871426210043E+00 a      1321     0    67     1     1
  2.4188259788479238E-01 a      1322     0    67     1     2
  4.6348300742159654E-01 a      1323     0    67     1     3
  1.5009162689276251E-01 a      1324     0    67     1     4
 -1.4012259819834746E-01 a      1325     0    67     1     5
  1.6489056799418034E-01 a      1326     0    67     1     6
 -5.0278500955892846E-01 a      1327     0    67     1     7
  8.6281987139287641E-01 a      1328     0    67     1     8
 -1.7534355758891120E+00 a      1329     0    67     1     9
 -6.9584927517791206E-01 a      1330     0    67     1    10
 -6.2090069121941160E-01 a      1331     0    67     1    11
 -5.1850290345693673E-01 a      1332     0    67     1    12
  1.2505511698853791E+00 a      1333     0    67     1    13
  1.8852963048877323E+00 a      1334     0    67     1    14
  1.5878486148522677E-01 a      1335     0    67     1    15
  3.0376988735457849E-01 a      1336     0    67     1    16
 -5.8061060259395170E-01 a      1337     0    67     1    17
  4.9030554058881304E-01 a      1338     0    67     1    18
 -2.7150148528922807E-01 a      1339     0    67     1    19
 -4.1466643406676484E-01 a      1340     0    67     1    20
  4.3636953824461527E-01 a      1341     0    68     1     1
  1.3827001822545788E+00 a      1342     0    68     1     2
 -3.3005859314451297E-01 a      1343     0    68     1     3
 -5.5137001707780098E-01 a      1344     0    68     1     4
  9.8430315053998324E-02 a      1345     0    68     1     5
 -2.5426688735159420E-01 a      1346     0    68     1     6
 -5.6106328433577934E-01 a      1347     0    68     1     7
 -1.6105741486264977E+00 a      1348     0    68     1     8
 -2.0122548290285658E-01 a      1349     0    68     1     9
 -2.7302346606736399E-02 a      1350     0    68     1    10
 -1.3813354356486518E-01 a      1351     0    68     1    11
 -3.7427842129627986E-01 a      1352     0    68     1    12
 -1.2232962621723313E+00 a      1353     0    68     1    13
  1.6657307763016864E+00 a      1354     0    68     1    14
  3.9139959853627654E-01 a      1355     0    68     1    15
 -1.0926230711856512E-01 a      1356     0    68     1    16
 -5.5895966421108234E-01 a      1357     0    68     1    17
  3.4760414868764067E-01 a      1358     0    68     1    18
 -4.3815665411967042E-01 a      1359     0    68     1    19
  1.0609518282147148E+00 a      1360     0    68     1    20
  3.0369721672149064E-01 a      1361     0    69     1     1
 -3.8536103998610378E+00 a      1362     0    69     1     2
  2.5092479897194453E+00 a      1363     0    69     1     3
  8.1382724609886137E-01 a      1364     0    69     1     4
 -6.5425681979401074E-01 a      1365     0    69     1     5
 -2.1378778167153176E+00 a      1366     0    69     1     6
  8.7938773329861009E-01 a      1367     0    69     1     7
  7.4969070699420570E-01 a      1368     0    69     1     8
 -1.0577126400176027E+00 a      1369     0    69     1     9
  3.2500209507652689E-01 a      1370     0    69     1    10
 -2.9503337707673866E-01 a      1371     0    69     1    11
 -4.5556886095926669E-01 a      1372     0    69     1    12
 -2.8282098440607553E+00 a      1373     0    69     1    13
 -3.6825855961966530E-01 a      1374     0    69     1    14
  2.6210417163902298E+00 a      1375     0    69     1    15
 -1.8269990565012830E+00 a      1376     0    69     1    16
  2.6787017740847836E+00 a      1377     0    69     1    17
 -2.0734090705893557E-01 a      1378     0    69     1    18
 -2.6088187383861881E+00 a      1379     0    69     1    19
 -2.3247265620159134E+00 a      1380     0    69     1    20
 -8.9635250648941123E-01 a      1381     0    70     1     1
  1.1663090661297795E+00 a      1382     0    70     1     2
  2.4152412454420427E+00 a      1383     0    70     1     3
  6.0605473209109595E-01 a      1384     0    70     1     4
  2.7582400539873142E-01 a      1385     0    70     1     5
 -3.8234874833191892E+00 a      1386     0    70     1     6
  9.3072169753335332E-01 a      1387     0    70     1     7
  5.3295692237609882E-02 a      1388     0    70     1     8
  1.9636293990552820E+00 a      1389     0    70     1     9
  3.3240962888203995E-01 a      1390     0    70     1    10
  1.7861475996571979E-01 a      1391     0    70     1    11
 -6.2968434509402393E-01 a      1392     0    70     1    12
 -5.5747181527650351E+00 a      1393     0    70     1    13
 -9.0061721895872260E-01 a      1394     0    70     1    14
  1.5540080062371615E+00 a      1395     0    70     1    15
 -9.3320464044054152E-01 a      1396     0    70     1    16
 -1.3409908629471712E-01 a      1397     0    70     1    17
 -1.1416780066753816E-01 a      1398     0    70     1    18
  4.9323321919747962E-02 a      1399     0    70     1    19
 -8.0265614460202872E-01 a      1400     0    70     1    20
 -2.2439125041935277E+00 a      1401     0    71     1     1
  2.1399148519214100E+00 a      1402     0    71     1     2
 -9.5342297852553048E-01 a      1403     0    71     1     3
 -1.0602662880552149E+00 a      1404     0    71     1     4
  1.8361679689100894E+00 a      1405     0    71     1     5
 -3.7775488860573042E-01 a      1406     0    71     1     6
  1.5498828333515349E+00 a      1407     0    71     1     7
  1.1403557656782641E+00 a      1408     0    71     1     8
 -1.6198123797596435E+00 a      1409     0    71     1     9
  1.4996528550436479E+00 a      1410     0    71     1    10
  3.8438449908856467E+00 a      1411     0    71     1    11
 -7.3563656484409290E-01 a      1412     0    71     1    12
  4.7567864614660721E-01 a      1413     0    71     1    13
 -2.5533487724054854E-01 a      1414     0    71     1    14
 -7.8694827624127461E-01 a      1415     0    71     1    15
  2.7449907925302126E+00 a      1416     0    71     1    16
  1.3945621593543100E+00 a      1417     0    71     1    17
 -1.8590677648474133E-01 a      1418     0    71     1    18
  5.6415819370684586E-02 a      1419     0    71     1    19
  2.3449099410560464E-01 a      1420     0    71     1    20
 -4.4518922245562415E-01 a      1421     0    72     1     1
  5.3831742722364073E-01 a      1422     0    72     1     2
  2.5583711429633937E+00 a      1423     0    72     1     3
 -2.2329004012298445E-01 a      1424     0    72     1     4
 -1.5417614904688131E+00 a      1425     0    72     1     5
 -8.8042206450554594E-01 a      1426     0    72     1     6
  9.2368863685499292E-01 a      1427     0    72     1     7
  5.5448475285798615E-01 a      1428     0    72     1     8
  4.5457468052537531E-01 a      1429     0    72     1     9
  5.6133228386688694E-01 a      1430     0    72     1    10
 -2.6585495477366555E-01 a      1431     0    72     1    11
  1.0168970412795852E-01 a      1432     0    72     1    12
 -3.8189988621711679E-01 a      1433     0    72     1    13
 -7.3109239326200459E-01 a      1434     0    72     1    14
 -2.0545372475295589E+00 a      1435     0    72     1    15
 -1.6654442627525926E-01 a      1436     0    72     1    16
  1.8229221989807648E-01 a      1437     0    72     1    17
 -4.6449234510236746E-03 a      1438     0    72     1    18
 -7.8126883991499474E-02 a      1439     0    72     1    19
 -2.3111068844359455E+00 a      1440     0    72     1    20
  4.7420779668215979E-01 a      1441     0    73     1     1
  2.0348652602966530E+00 a      1442     0    73     1     2
  1.1265114588868019E+00 a      1443     0    73     1     3
  8.3614120430432398E-02 a      1444     0    73     1     4
 -4.7244080506546948E-01 a      1445     0    73     1     5
 -6.7510019402574140E-01 a      1446     0    73     1     6
  2.9526616741356609E-01 a      1447     0    73     1     7
 -3.5259246223240948E-01 a      1448     0    73     1     8
  8.9545216942245143E-01 a      1449     0    73     1     9
  1.2358623815575738E+00 a      1450     0    73     1    10
  5.5832761591938740E-01 a      1451     0    73     1    11
 -2.9989276829769962E-01 a      1452     0    73     1    12
 -2.0631466713554354E+00 a      1453     0    73     1    13
 -6.6430343022149951E-01 a      1454     0    73     1    14
 -1.7280325866752846E-01 a      1455     0    73     1    15
 -1.1249707608207780E+00 a      1456     0    73     1    16
 -5.7800809846603951E-01 a      1457     0    73     1    17
  5.2311429746318017E-01 a      1458     0    73     1    18
  4.9208771418684516E-01 a      1459     0    73     1    19
  5.6701668534914507E-01 a      1460     0    73     1    20
  1.9661404830003473E-01 a      1461     0    74     1     1
 -3.8497517214551934E-02 a      1462     0    74     1     2
 -7.3429315923069749E-01 a      1463     0    74     1     3
 -7.4787700060946560E-01 a      1464     0    74     1     4
 -9.9735880870631477E-01 a      1465     0    74     1     5
 -6.6132865663231621E-02 a      1466     0    74     1     6
 -1.1030307334141851E+00 a      1467     0    74     1     7
  5.1161470635546014E-01 a      1468     0    74     1     8
 -1.0851121991973062E-01 a      1469     0    74     1     9
 -1.7672520750583906E-01 a      1470     0    74     1    10
  2.9994946933811156E-01 a      1471     0    74     1    11
  2.5099099240165074E-01 a      1472     0    74     1    12
 -2.0358024102165181E-01 a      1473     0    74     1    13
 -8.4662855740014475E-01 a      1474     0    74     1    14
  6.3240417965428086E-01 a      1475     0    74     1    15
  1.0057495974867936E+00 a      1476     0    74     1    16
  1.2664056856371897E-01 a      1477     0    74     1    17
 -1.1593220834383658E-01 a      1478     0    74     1    18
 -9.5996214464197338E-01 a      1479     0    74     1    19
 -7.2418047214202225E-02 a      1480     0    74     1    20
  3.1285078426158519E-02 a      1481     0    75     1     1
  1.6240438686163963E-01 a      1482     0    75     1     2
  1.3826418097533091E-01 a      1483     0    75     1     3
  6.3860077380229785E-01 a      1484     0    75     1     4
 -1.5677824884139147E-01 a      1485     0    75     1     5
  7.5903953347846020E-01 a      1486     0    75     1     6
  2.7470230421869246E+00 a      1487     0    75     1     7
  7.8002253755696055E-02 a      1488     0    75     1     8
 -1.2524643013690819E+00 a      1489     0    75     1     9
 -6.9979601564303773E-01 a      1490     0    75     1    10
  4.8420715777936257E-01 a      1491     0    75     1    11
  5.3417238909935449E-01 a      1492     0    75     1    12
  7.8469993140579664E-01 a      1493     0    75     1    13
 -5.2244252048662143E-01 a      1494     0    75     1    14
  3.7250728025026447E-01 a      1495     0    75     1    15
  1.3705741556868084E-01 a      1496     0    75     1    16
 -2.6374894714865005E-01 a      1497     0    75     1    17
  5.9804740490099229E-01 a      1498     0    75     1    18
 -2.2245376776426748E-01 a      1499     0    75     1    19
 -1.2294367504019117E+00 a      1500     0    75     1    20
 -7.6003074332225862E-01 a      1501     0    76     1     1
 -9.5603751003377779E-01 a      1502     0    76     1     2
 -2.0760149682005662E+00 a      1503     0    76     1     3
 -7.1768464937181191E-03 a      1504     0    76     1     4
 -2.5441493768139258E+00 a      1505     0    76     1     5
 -2.8329345284169710E-01 a      1506     0    76     1     6
 -8.8171264252443537E-01 a      1507     0    76     1     7
 -3.5992930721756650E-01 a      1508     0    76     1     8
 -2.0929850903061803E-01 a      1509     0    76     1     9
 -8.8598704150201102E-01 a      1510     0    76     1    10
 -1.0675160596151188E+00 a      1511     0    76     1    11
  3.3128812415829961E-01 a      1512     0    76     1    12
  5.3489150885224312E-01 a      1513     0    76     1    13
 -2.9842108169390125E-01 a      1514     0    76     1    14
  1.0222625511715451E+00 a      1515     0    76     1    15
  6.6364066580269476E-01 a      1516     0    76     1    16
 -8.5694383655120054E-01 a      1517     0    76     1    17
 -1.3089681379771760E+00 a      1518     0    76     1    18
  3.7551386784401558E-01 a      1519     0    76     1    19
  1.4518756320218143E-01 a      1520     0    76     1    20
  1.1539192720245357E+00 a      1521     0    77     1     1
 -1.4415767203450038E+00 a      1522     0    77     1     2
  2.5137212359492134E-01 a      1523     0    77     1     3
  4.5211658984575959E-01 a      1524     0    77     1     4
 -8.0193116219084659E-01 a      1525     0    77     1     5
  1.8181858265912101E+00 a      1526     0    77     1     6
  1.6115542804792700E+00 a      1527     0    77     1     7
  5.7753693957103480E-01 a      1528     0    77     1     8
  4.0550677552982983E-01 a      1529     0    77     1     9
 -9.3186168870526465E-01 a      1530     0    77     1    10
  1.3381837405158798E+00 a      1531     0    77     1    11
  9.0389008562303885E-01 a      1532     0    77     1    12
 -4.8516003002789537E-01 a      1533     0    77     1    13
 -2.2090916269098723E-01 a      1534     0    77     1    14
 -1.3528139764960756E+00 a      1535     0    77     1    15
 -1.7528236560981950E-01 a      1536     0    77     1    16
  4.7464209327527401E-01 a      1537     0    77     1    17
 -3.9856894302643736E-01 a      1538     0    77     1    18
  1.5721390471009661E-01 a      1539     0    77     1    19
 -1.0826588138931454E+00 a      1540     0    77     1    20
  7.3094549853979440E-01 a      1541     0    78     1     1
  2.1002090086682452E+00 a      1542     0    78     1     2
  3.9023789255708197E-01 a      1543     0    78     1     3
  4.7985454667273740E-02 a      1544     0    78     1     4
  7.9875920487268115E-01 a      1545     0    78     1     5
  6.4621609330261498E-01 a      1546     0    78     1     6
 -1.0654490396000571E+00 a      1547     0    78     1     7
  1.3696650692848957E+00 a      1548     0    78     1     8
  2.1711663459495494E+00 a      1549     0    78     1     9
 -8.0488103018916968E-01 a      1550     0    78     1    10
 -6.7942194014137869E-01 a      1551     0    78     1    11
  5.7897969293112517E-01 a      1552     0    78     1    12
  3.7008529542049723E-01 a      1553     0    78     1    13
 -6.9926090821512721E-01 a      1554     0    78     1    14
  4.3572681720984788E-02 a      1555     0    78     1    15
  1.1926330207400428E+00 a      1556     0    78     1    16
 -3.8911508579348353E-01 a      1557     0    78     1    17
  3.4203549029222589E-02 a      1558     0    78     1    18
  5.0289814062880633E-01 a      1559     0    78     1    19
  1.5175672117510421E+00 a      1560     0    78     1    20
  1.9873685696500110E-02 a      1561     0    79     1     1
 -8.9872897686098643E-02 a      1562     0    79     1     2
  1.4970991319231741E+00 a      1563     0    79     1     3
 -5.0444345706855032E-01 a      1564     0    79     1     4
  6.3216057935422698E-01 a      1565     0    79     1     5
 -5.0365058937248897E-01 a      1566     0    79     1     6
  1.7346177529878024E+00 a      1567     0    79     1     7
  1.7034656656189867E-01 a      1568     0    79     1     8
 -2.9919045156188715E+00 a      1569     0    79     1     9
  1.9001768378529416E-01 a      1570     0    79     1    10
 -1.1349733833514056E-01 a      1571     0    79     1    11
  4.4593033916443273E-02 a      1572     0    79     1    12
  1.3484437257091553E+00 a      1573     0    79     1    13
 -1.4399745586334300E-01 a      1574     0    79     1    14
 -1.0058644023081997E+00 a      1575     0    79     1    15
  1.3050744003188655E+00 a      1576     0    79     1    16
  1.5975109835435045E-01 a      1577     0    79     1    17
 -2.3892682289143079E+00 a      1578     0    79     1    18
  7.3415195826868695E-01 a      1579     0    79     1    19
 -1.0253136505048641E+00 a      1580     0    79     1    20
  6.1240746209541586E-01 a      1581     0    80     1     1
  2.4433214591790691E+00 a      1582     0    80     1     2
 -7.3837259125856813E-02 a      1583     0    80     1     3
  3.1003707545243381E-01 a      1584     0    80     1     4
 -5.5250313438050502E-01 a      1585     0    80     1     5
  1.8962567576349740E-01 a      1586     0    80     1     6
 -2.5579639041745245E-01 a      1587     0    80     1     7
  3.2981220751116864E+00 a      1588     0    80     1     8
  1.9930887711879514E-01 a      1589     0    80     1     9
  1.1525639630526610E-01 a      1590     0    80     1    10
 -1.8921487321275678E+00 a      1591     0    80     1    11
 -1.3300280144724466E-01 a      1592     0    80     1    12
 -6.8420153738791278E-01 a      1593     0    80     1    13
 -7.9384552987494361E-01 a      1594     0    80     1    14
  1.5425274568821054E-01 a      1595     0    80     1    15
  1.5975470658105198E-01 a      1596     0    80     1    16
 -1.5623897321653496E-01 a      1597     0    80     1    17
  4.4928290263846377E-01 a      1598     0    80     1    18
 -2.0436611399737040E-01 a      1599     0    80     1    19
  1.7776496362806364E+00 a      1600     0    80     1    20
  1.3134615447597933E+00 a      1601     0    81     1     1
  5.7639404440548681E-01 a      1602     0    81     1     2
  1.2679281764423247E+00 a      1603     0    81     1     3
 -1.1954182765078636E+00 a      1604     0    81     1     4
 -1.6090009162116499E+00 a      1605     0    81     1     5
 -2.9225254949862647E+00 a      1606     0    81     1     6
 -2.0131303608686077E+00 a      1607     0    81     1     7
  6.7331155769884055E-01 a      1608     0    81     1     8
  1.7522044710520608E+00 a      1609     0    81     1     9
 -1.8078928652594868E+00 a      1610     0    81     1    10
  2.6238847371150671E+00 a      1611     0    81     1    11
 -1.4089672199576713E+00 a      1612     0    81     1    12
 -6.2375355844597780E-01 a      1613     0    81     1    13
  6.4134986442927122E-01 a      1614     0    81     1    14
  2.7426193433736867E+00 a      1615     0    81     1    15
  7.3396480996242297E-01 a      1616     0    81     1    16
 -5.5854088023857162E-01 a      1617     0    81     1    17
  1.6885686135977660E+00 a      1618     0    81     1    18
  4.6166754476869537E-01 a      1619     0    81     1    19
  1.2080069036784820E+00 a      1620     0    81     1    20
 -5.0414145739523464E-01 a      1621     0    82     1     1
 -1.9128512516684997E+00 a      1622     0    82     1     2
  4.6541989151360130E-01 a      1623     0    82     1     3
