################################################################################
# Neural network connection values (weights and biases).
################################################################################
# Col  Name       Description
################################################################################
# 1    connection Neural network connection value.
# 2    t          Connection type (a = weight, b = bias).
# 3    index      Index enumerating weights.
# 4    l_s        Starting point layer (end point layer for biases).
# 5    n_s        Starting point neuron in starting layer (end point neuron for biases).
# 6    l_e        End point layer.
# 7    n_e        End point neuron in end layer.
################################################################################
#                      1 2         3     4     5     6     7
#             connection t     index   l_s   n_s   l_e   n_e
############################################################
 -9.6025834252467646E-01 a         1     0     1     1     1
 -7.1865419313327683E-01 a         2     0     1     1     2
  8.9514344702678350E-01 a         3     0     1     1     3
  9.1362728564637719E-01 a         4     0     1     1     4
 -5.6684582383698279E-01 a         5     0     1     1     5
 -3.2442550977302537E-01 a         6     0     1     1     6
  5.9699601366200539E-01 a         7     0     1     1     7
 -3.9862804341849961E-01 a         8     0     1     1     8
 -9.5866031901271243E-01 a         9     0     1     1     9
 -1.1281778831967301E-01 a        10     0     1     1    10
  6.4124194610743734E-01 a        11     0     1     1    11
  7.8591910193332071E-01 a        12     0     1     1    12
  8.1945239860411390E-01 a        13     0     1     1    13
 -1.6448094602989762E+00 a        14     0     1     1    14
  3.2506568367691027E+00 a        15     0     1     1    15
  7.8445903350419610E-01 a        16     0     1     1    16
  1.7509865731173535E+00 a        17     0     1     1    17
  4.6745021704589590E-01 a        18     0     1     1    18
  1.5617657506315687E+00 a        19     0     1     1    19
  4.7283622965659117E-01 a        20     0     1     1    20
  2.3110132781619941E-01 a        21     0     2     1     1
 -1.4411590729998469E+00 a        22     0     2     1     2
  1.6312287271734149E+00 a        23     0     2     1     3
 -2.4990849347882707E-01 a        24     0     2     1     4
  6.6167949405231663E-01 a        25     0     2     1     5
  1.4517785178635774E+00 a        26     0     2     1     6
  2.2353911437488256E+00 a        27     0     2     1     7
  2.4540160170289477E-01 a        28     0     2     1     8
 -7.4581503918990344E-01 a        29     0     2     1     9
 -7.6758072839095248E-01 a        30     0     2     1    10
 -2.1557197536153487E+00 a        31     0     2     1    11
 -1.9422696339865571E+00 a        32     0     2     1    12
 -2.1856701545929447E-01 a        33     0     2     1    13
  1.3310522977419708E+00 a        34     0     2     1    14
 -2.6392940018667782E-01 a        35     0     2     1    15
 -2.7368939819111011E+00 a        36     0     2     1    16
 -6.4607067359330372E-01 a        37     0     2     1    17
  3.6275834731132073E-01 a        38     0     2     1    18
 -4.8442166158860700E-01 a        39     0     2     1    19
  5.2764497590293624E-01 a        40     0     2     1    20
 -1.8592082042767477E+00 a        41     0     3     1     1
 -1.2528263969835887E+00 a        42     0     3     1     2
  1.7630718414746374E-01 a        43     0     3     1     3
  5.7259935565747810E-01 a        44     0     3     1     4
 -1.1461061874666385E+00 a        45     0     3     1     5
  2.9513527865559723E+00 a        46     0     3     1     6
 -3.8276524458282080E-01 a        47     0     3     1     7
  1.4992605135816095E+00 a        48     0     3     1     8
  7.6687767453220657E-01 a        49     0     3     1     9
  4.0278252221087674E-01 a        50     0     3     1    10
  1.8830134866758197E+00 a        51     0     3     1    11
 -1.6732677808707759E+00 a        52     0     3     1    12
  1.8967141231531819E+00 a        53     0     3     1    13
  7.0505632572338894E-01 a        54     0     3     1    14
 -3.7774612520691181E-01 a        55     0     3     1    15
  1.1710283636065539E+00 a        56     0     3     1    16
 -1.0941576807315552E+00 a        57     0     3     1    17
 -4.1503883181702361E-01 a        58     0     3     1    18
  2.6183049289928478E-01 a        59     0     3     1    19
  2.5406493184386081E-01 a        60     0     3     1    20
 -1.6430227533595858E+00 a        61     0     4     1     1
  5.5778726227688591E-01 a        62     0     4     1     2
 -4.8705963025529730E-01 a        63     0     4     1     3
  1.7432053586643326E+00 a        64     0     4     1     4
  6.7606809633264309E-01 a        65     0     4     1     5
  5.8563691599908430E-01 a        66     0     4     1     6
 -4.9941779771425510E-01 a        67     0     4     1     7
 -1.1863641967704952E-01 a        68     0     4     1     8
  4.0821527798329216E-01 a        69     0     4     1     9
  1.4499814524864454E+00 a        70     0     4     1    10
 -1.4950273326942900E+00 a        71     0     4     1    11
  2.6550998820049526E-01 a        72     0     4     1    12
 -3.9946987806531764E-01 a        73     0     4     1    13
 -1.3968357170475085E-01 a        74     0     4     1    14
  7.6770707251899895E-01 a        75     0     4     1    15
  1.1136938211333904E+00 a        76     0     4     1    16
 -8.6366584053135953E-01 a        77     0     4     1    17
 -8.0955791153696055E-01 a        78     0     4     1    18
 -7.8597185473623632E-01 a        79     0     4     1    19
  4.4913019049708314E-01 a        80     0     4     1    20
 -1.1611065083044096E+00 a        81     0     5     1     1
 -9.5452247206228491E-01 a        82     0     5     1     2
  4.0326523162596745E-02 a        83     0     5     1     3
 -8.7431077375128152E-01 a        84     0     5     1     4
  8.4943191982449706E-01 a        85     0     5     1     5
  1.0681293876571067E+00 a        86     0     5     1     6
 -7.9425858382482384E-01 a        87     0     5     1     7
  2.1991348216830731E-01 a        88     0     5     1     8
 -3.9786095812323674E-01 a        89     0     5     1     9
 -2.0728695842869607E-01 a        90     0     5     1    10
 -2.3291297692951951E-01 a        91     0     5     1    11
 -1.0402673138813107E-01 a        92     0     5     1    12
  1.3074953587230991E+00 a        93     0     5     1    13
  4.6846071010163737E-01 a        94     0     5     1    14
  1.3555265115247408E+00 a        95     0     5     1    15
  2.2681919656227150E+00 a        96     0     5     1    16
  1.9775137384951615E+00 a        97     0     5     1    17
 -4.2000889772583572E-01 a        98     0     5     1    18
 -2.0196148452164256E-01 a        99     0     5     1    19
 -4.1632962959085840E-01 a       100     0     5     1    20
 -1.1537200849566920E+00 a       101     0     6     1     1
 -1.4604424049611882E+00 a       102     0     6     1     2
 -1.9148329328136116E-01 a       103     0     6     1     3
 -8.1104132953454078E-01 a       104     0     6     1     4
  1.0422734197973598E+00 a       105     0     6     1     5
  1.3636275060740702E-01 a       106     0     6     1     6
  1.1673051179349097E+00 a       107     0     6     1     7
 -1.0073294549648752E+00 a       108     0     6     1     8
 -9.7011309192463502E-01 a       109     0     6     1     9
  1.4671312627524167E+00 a       110     0     6     1    10
  9.0292052245858123E-01 a       111     0     6     1    11
 -1.6545374700171162E-01 a       112     0     6     1    12
 -2.2815785270443727E+00 a       113     0     6     1    13
 -1.3152875142523610E+00 a       114     0     6     1    14
 -1.0815802852895842E+00 a       115     0     6     1    15
 -5.1580023799947883E-01 a       116     0     6     1    16
  4.3657028435617889E-01 a       117     0     6     1    17
  6.3648653571922487E-01 a       118     0     6     1    18
  3.5115461599348624E-01 a       119     0     6     1    19
 -2.8702558905967474E-01 a       120     0     6     1    20
 -2.4220298675048646E-01 a       121     0     7     1     1
  1.3110918655794651E-01 a       122     0     7     1     2
  2.0347857541649428E+00 a       123     0     7     1     3
  4.1901305097236574E-01 a       124     0     7     1     4
 -7.7895346833503454E-01 a       125     0     7     1     5
  2.4466742611724235E+00 a       126     0     7     1     6
  2.8713065687909511E-01 a       127     0     7     1     7
 -1.1343742284225702E+00 a       128     0     7     1     8
 -9.8650501366403054E-01 a       129     0     7     1     9
  1.2678127626862463E+00 a       130     0     7     1    10
  4.1021389958158272E-01 a       131     0     7     1    11
 -2.1091396915834398E-01 a       132     0     7     1    12
  1.6999134320849787E+00 a       133     0     7     1    13
  3.5314219077845338E-01 a       134     0     7     1    14
 -9.1572117939781217E-01 a       135     0     7     1    15
  2.8224270243700011E-01 a       136     0     7     1    16
 -1.2496163414870194E+00 a       137     0     7     1    17
 -5.8382142508573409E-01 a       138     0     7     1    18
  2.4790698812701928E-01 a       139     0     7     1    19
 -1.5322945134944417E+00 a       140     0     7     1    20
 -5.6718954793373377E-01 a       141     0     8     1     1
  2.3033512363291142E+00 a       142     0     8     1     2
 -1.4164456726029968E+00 a       143     0     8     1     3
  2.6666413841084191E-01 a       144     0     8     1     4
 -5.4563584286707290E-01 a       145     0     8     1     5
 -1.8278679731446816E+00 a       146     0     8     1     6
 -9.8815194351028657E-01 a       147     0     8     1     7
 -1.5052213438199964E+00 a       148     0     8     1     8
  2.3292140405589729E-01 a       149     0     8     1     9
 -9.5268838906829501E-01 a       150     0     8     1    10
 -1.6002046629487614E+00 a       151     0     8     1    11
  1.0003741482312070E+00 a       152     0     8     1    12
  3.2931018442446462E+00 a       153     0     8     1    13
  8.5422629900478719E-01 a       154     0     8     1    14
  1.4438817381840947E+00 a       155     0     8     1    15
  7.9275429093251371E-01 a       156     0     8     1    16
 -3.7282692068350145E+00 a       157     0     8     1    17
  5.6406702973938971E-01 a       158     0     8     1    18
 -3.0860569996100873E-01 a       159     0     8     1    19
 -1.8073982953220979E+00 a       160     0     8     1    20
  1.5120093927609428E+00 a       161     0     9     1     1
  8.1316363825297100E-01 a       162     0     9     1     2
  4.9869475863148838E-01 a       163     0     9     1     3
 -5.1229036654229732E-01 a       164     0     9     1     4
 -9.9861471290166626E-01 a       165     0     9     1     5
  9.2565395372762449E-01 a       166     0     9     1     6
 -9.1485728614380235E-01 a       167     0     9     1     7
 -2.3393078954831309E-01 a       168     0     9     1     8
  1.1854387456166720E+00 a       169     0     9     1     9
  1.5735917019241956E+00 a       170     0     9     1    10
  7.2530781254411447E-01 a       171     0     9     1    11
  6.3298674966657020E-01 a       172     0     9     1    12
 -1.2362547848853844E+00 a       173     0     9     1    13
  3.3803840848336897E-01 a       174     0     9     1    14
 -8.9987924824061050E-01 a       175     0     9     1    15
 -1.9449192016308072E+00 a       176     0     9     1    16
 -1.2929514078795272E+00 a       177     0     9     1    17
 -1.2041154680684070E+00 a       178     0     9     1    18
  1.9539495915720855E+00 a       179     0     9     1    19
  1.7730142052599405E+00 a       180     0     9     1    20
  7.9271375957572124E-02 a       181     0    10     1     1
 -4.5747896916338501E-02 a       182     0    10     1     2
 -2.7580979359330382E-01 a       183     0    10     1     3
 -4.8590812610429890E-01 a       184     0    10     1     4
 -1.0156693347732905E-01 a       185     0    10     1     5
 -2.9248482856490807E+00 a       186     0    10     1     6
 -6.1749109693537030E-01 a       187     0    10     1     7
 -7.9935854393116879E-01 a       188     0    10     1     8
 -6.8347479990845394E-02 a       189     0    10     1     9
  6.4156347968854388E-01 a       190     0    10     1    10
  9.2949115581674985E-02 a       191     0    10     1    11
  9.0702354332458257E-01 a       192     0    10     1    12
  1.2789453360781167E+00 a       193     0    10     1    13
  2.0303203161979366E-01 a       194     0    10     1    14
  1.0705492673303030E+00 a       195     0    10     1    15
 -1.4117439526294124E+00 a       196     0    10     1    16
 -1.2256010407272676E-01 a       197     0    10     1    17
 -9.1456014969654420E-01 a       198     0    10     1    18
 -6.3714053569241358E-01 a       199     0    10     1    19
 -9.7722380464715208E-01 a       200     0    10     1    20
 -7.5049224654410840E-01 a       201     0    11     1     1
  2.4061977156530858E+00 a       202     0    11     1     2
 -8.5642760477940738E-01 a       203     0    11     1     3
 -2.3125055753774848E-01 a       204     0    11     1     4
 -1.5189290747180078E+00 a       205     0    11     1     5
  1.3839289369289929E+00 a       206     0    11     1     6
  6.0284825171533378E-02 a       207     0    11     1     7
  1.0154535039021668E-01 a       208     0    11     1     8
 -1.1376673586721100E+00 a       209     0    11     1     9
  2.9271348390391894E+00 a       210     0    11     1    10
  4.0905137727153660E+00 a       211     0    11     1    11
 -1.1594084750346436E+00 a       212     0    11     1    12
 -2.0098025107972011E+00 a       213     0    11     1    13
 -2.0975025071455056E-01 a       214     0    11     1    14
  9.5236825750704024E-01 a       215     0    11     1    15
  9.1230888270697219E-01 a       216     0    11     1    16
  2.1415449903771791E-01 a       217     0    11     1    17
  8.2256022027949738E-01 a       218     0    11     1    18
  1.1204765031624653E+00 a       219     0    11     1    19
 -5.7561560533110390E-01 a       220     0    11     1    20
 -6.2959228947695378E-01 a       221     0    12     1     1
 -7.8233193587403793E-01 a       222     0    12     1     2
  8.7084390844314508E-01 a       223     0    12     1     3
  1.6034028570525645E+00 a       224     0    12     1     4
 -1.3640030836327670E+00 a       225     0    12     1     5
  2.4294964355029340E+00 a       226     0    12     1     6
  9.2178064923827774E-01 a       227     0    12     1     7
  1.3757202102254988E+00 a       228     0    12     1     8
  5.4209308306091419E-01 a       229     0    12     1     9
  1.5185636476891768E+00 a       230     0    12     1    10
  1.0102589860546713E+00 a       231     0    12     1    11
  9.0673330160801724E-01 a       232     0    12     1    12
  1.6380935219719375E+00 a       233     0    12     1    13
 -5.0645297861320515E-01 a       234     0    12     1    14
 -5.0351282344727744E-01 a       235     0    12     1    15
 -3.4952082965511594E-01 a       236     0    12     1    16
  1.6326406092726844E+00 a       237     0    12     1    17
  2.4855965890746870E-01 a       238     0    12     1    18
 -3.6198674703389999E-01 a       239     0    12     1    19
  4.7072267872448120E-01 a       240     0    12     1    20
  5.5860097198250236E-01 a       241     0    13     1     1
  7.3913338296327191E-01 a       242     0    13     1     2
  8.4179979931373605E-01 a       243     0    13     1     3
  1.6444354415826854E+00 a       244     0    13     1     4
 -1.3707353655218373E+00 a       245     0    13     1     5
 -2.5723297926200863E+00 a       246     0    13     1     6
  5.0371009260464861E-01 a       247     0    13     1     7
  1.5444260876098324E+00 a       248     0    13     1     8
 -1.2155847710645487E+00 a       249     0    13     1     9
 -4.1872249464620032E-01 a       250     0    13     1    10
  7.6376380583945169E-01 a       251     0    13     1    11
 -1.2567921134850331E+00 a       252     0    13     1    12
 -2.1153425248203704E-02 a       253     0    13     1    13
  8.7695805313768993E-01 a       254     0    13     1    14
  2.3364901755690588E+00 a       255     0    13     1    15
 -4.9513748773238914E-01 a       256     0    13     1    16
  3.1014567660425891E+00 a       257     0    13     1    17
  1.3620125071410301E+00 a       258     0    13     1    18
  1.0615802300600168E+00 a       259     0    13     1    19
  2.9782643756701828E+00 a       260     0    13     1    20
  4.7812812859692722E-01 a       261     0    14     1     1
  1.6722522527108543E+00 a       262     0    14     1     2
  4.2784844020104174E-01 a       263     0    14     1     3
  1.9492698877843282E+00 a       264     0    14     1     4
 -6.6280061463268525E-01 a       265     0    14     1     5
 -3.8509873305372015E+00 a       266     0    14     1     6
  6.9097813345822756E-01 a       267     0    14     1     7
 -8.3349962442559034E-01 a       268     0    14     1     8
 -5.7412991653592405E-01 a       269     0    14     1     9
  8.8920377733037725E-01 a       270     0    14     1    10
 -3.7033835102997820E-02 a       271     0    14     1    11
  1.4871659086498070E+00 a       272     0    14     1    12
  5.5760922303072757E-01 a       273     0    14     1    13
  2.3533510124887735E+00 a       274     0    14     1    14
 -9.0025919800270204E-01 a       275     0    14     1    15
 -6.9097550834783306E-01 a       276     0    14     1    16
  2.6175199934859328E-01 a       277     0    14     1    17
 -6.4371248187540986E-01 a       278     0    14     1    18
  1.3768524454245239E+00 a       279     0    14     1    19
  1.2037030978395415E-01 a       280     0    14     1    20
  4.9684660229730843E-01 a       281     0    15     1     1
  6.1849840258697675E-01 a       282     0    15     1     2
 -4.7592560027857428E-01 a       283     0    15     1     3
  1.3983405110445921E-01 a       284     0    15     1     4
 -1.1244976766340435E-01 a       285     0    15     1     5
  9.3385670888600669E-01 a       286     0    15     1     6
  8.3215273681090851E-01 a       287     0    15     1     7
 -3.6887927152070560E-01 a       288     0    15     1     8
  5.1371054425357299E-01 a       289     0    15     1     9
  2.7750901360025764E+00 a       290     0    15     1    10
  9.8610877370955963E-01 a       291     0    15     1    11
 -4.9143476181054224E-01 a       292     0    15     1    12
 -8.2137512458803963E-01 a       293     0    15     1    13
 -5.7790443305520210E-02 a       294     0    15     1    14
  8.8711340567781904E-01 a       295     0    15     1    15
  4.2622742496625632E-01 a       296     0    15     1    16
 -1.5021084525306603E+00 a       297     0    15     1    17
  6.2982677891028105E-01 a       298     0    15     1    18
  2.5045643183139127E-01 a       299     0    15     1    19
 -3.7232520810640551E-01 a       300     0    15     1    20
  1.5413020998588169E+00 a       301     0    16     1     1
  1.4586861157815898E+00 a       302     0    16     1     2
 -1.2303688298939928E+00 a       303     0    16     1     3
  5.6171823276716581E-01 a       304     0    16     1     4
 -5.4699191503331857E-01 a       305     0    16     1     5
  2.0555299326701406E+00 a       306     0    16     1     6
  1.3469961846870093E+00 a       307     0    16     1     7
 -4.6311794669549200E-01 a       308     0    16     1     8
  9.9553802433376137E-01 a       309     0    16     1     9
  1.2618774917084166E+00 a       310     0    16     1    10
  4.6614736029916004E-01 a       311     0    16     1    11
 -7.5316691538291825E-01 a       312     0    16     1    12
 -5.3424383258812591E-01 a       313     0    16     1    13
 -2.5460773633146605E+00 a       314     0    16     1    14
 -7.4797467943700180E-01 a       315     0    16     1    15
  3.4123794205174680E+00 a       316     0    16     1    16
  1.5081590791688095E+00 a       317     0    16     1    17
 -1.8310735362727379E+00 a       318     0    16     1    18
 -4.1668028359667536E-01 a       319     0    16     1    19
  1.3045660536572772E+00 a       320     0    16     1    20
  4.7496878951704048E-02 a       321     0    17     1     1
  1.4110885799183537E+00 a       322     0    17     1     2
  6.2659029204805428E-02 a       323     0    17     1     3
 -9.6342307843129271E-01 a       324     0    17     1     4
 -1.2913848450158807E+00 a       325     0    17     1     5
  1.7752769465883778E+00 a       326     0    17     1     6
  1.7435854277981404E+00 a       327     0    17     1     7
 -1.5104005149313342E+00 a       328     0    17     1     8
 -2.1431423726817114E+00 a       329     0    17     1     9
 -7.4463624087255098E-01 a       330     0    17     1    10
 -7.7591307038206292E-01 a       331     0    17     1    11
 -4.8098205027402346E-01 a       332     0    17     1    12
  4.1888861418897211E-01 a       333     0    17     1    13
 -3.0336395582696634E+00 a       334     0    17     1    14
 -1.3038063177226977E+00 a       335     0    17     1    15
  3.2160302906120519E-01 a       336     0    17     1    16
  2.7488924150513112E+00 a       337     0    17     1    17
  1.2425869886116910E-01 a       338     0    17     1    18
 -3.5010495456538844E+00 a       339     0    17     1    19
  1.4827290273799816E+00 a       340     0    17     1    20
 -6.9211134644819872E-01 a       341     0    18     1     1
 -2.4270485917136306E+00 a       342     0    18     1     2
  2.0914968660698405E+00 a       343     0    18     1     3
  1.1724347268906259E+00 a       344     0    18     1     4
  5.7333140745544076E-01 a       345     0    18     1     5
  9.5092553994933271E-01 a       346     0    18     1     6
 -1.9786815429908411E+00 a       347     0    18     1     7
  1.2849463832000176E+00 a       348     0    18     1     8
 -3.4918136683776679E-01 a       349     0    18     1     9
  1.6829461151572673E+00 a       350     0    18     1    10
  1.7425824482759571E+00 a       351     0    18     1    11
  1.9472082850356986E+00 a       352     0    18     1    12
  4.3609957970266533E-01 a       353     0    18     1    13
  2.3379144827977156E+00 a       354     0    18     1    14
  9.0061559114062617E-01 a       355     0    18     1    15
 -6.9929990628811101E-01 a       356     0    18     1    16
  1.5498124566482854E+00 a       357     0    18     1    17
  9.7365678243191334E-01 a       358     0    18     1    18
 -9.8153444825795688E-01 a       359     0    18     1    19
 -2.6939380981856520E-01 a       360     0    18     1    20
 -2.1370210576191018E-01 a       361     0    19     1     1
 -6.7138013698076282E-01 a       362     0    19     1     2
  3.7339653066000379E-02 a       363     0    19     1     3
 -2.3571511855693488E+00 a       364     0    19     1     4
 -9.9223434516871245E-01 a       365     0    19     1     5
  1.5002813931066565E+00 a       366     0    19     1     6
 -1.2524932471682921E+00 a       367     0    19     1     7
  5.5520251100287732E-01 a       368     0    19     1     8
  5.4975460314520452E-01 a       369     0    19     1     9
 -1.0256399100758431E+00 a       370     0    19     1    10
  2.0296969311204704E+00 a       371     0    19     1    11
 -1.9247542058300469E+00 a       372     0    19     1    12
  2.4496125921210465E+00 a       373     0    19     1    13
 -9.4746166499102369E-01 a       374     0    19     1    14
  9.8983584476644326E-01 a       375     0    19     1    15
  1.5886180774498369E+00 a       376     0    19     1    16
 -4.7951341971526690E-01 a       377     0    19     1    17
  3.1761262000011503E-01 a       378     0    19     1    18
  1.6259972534103264E+00 a       379     0    19     1    19
 -6.4831944055270527E-02 a       380     0    19     1    20
  5.0840430381777868E-01 a       381     0    20     1     1
  1.0214677605581404E+00 a       382     0    20     1     2
 -9.5562283555144123E-01 a       383     0    20     1     3
 -3.2807484595800872E-02 a       384     0    20     1     4
 -4.9940021437002902E-01 a       385     0    20     1     5
  1.4015192132792693E+00 a       386     0    20     1     6
 -8.6661253048680476E-01 a       387     0    20     1     7
 -1.5979760042051732E+00 a       388     0    20     1     8
  7.1227244536611212E-01 a       389     0    20     1     9
  7.0295176400733861E-01 a       390     0    20     1    10
 -3.4370912395583729E-02 a       391     0    20     1    11
  1.6602096141074161E+00 a       392     0    20     1    12
 -3.9805291612952637E-01 a       393     0    20     1    13
 -7.4806390224301489E-01 a       394     0    20     1    14
 -2.4847906789423571E-01 a       395     0    20     1    15
 -5.8636172267338978E-02 a       396     0    20     1    16
  3.6562731422302219E-01 a       397     0    20     1    17
  1.0462995739955829E+00 a       398     0    20     1    18
 -7.4121032963002501E-02 a       399     0    20     1    19
  2.8741718172140845E-01 a       400     0    20     1    20
 -1.4567387387514377E+00 a       401     0    21     1     1
 -2.3129385224090954E-01 a       402     0    21     1     2
  4.7324043278843336E-01 a       403     0    21     1     3
  3.3595362239620136E-01 a       404     0    21     1     4
 -1.0936969362158997E+00 a       405     0    21     1     5
  1.8262740351546534E+00 a       406     0    21     1     6
 -1.1083758504733761E+00 a       407     0    21     1     7
 -3.9071743841853785E+00 a       408     0    21     1     8
 -1.6469032027860198E+00 a       409     0    21     1     9
 -2.0562090589401785E+00 a       410     0    21     1    10
 -1.7681240333306372E+00 a       411     0    21     1    11
 -1.4239628322295721E+00 a       412     0    21     1    12
  2.2671865665161355E+00 a       413     0    21     1    13
 -1.6581241237531736E+00 a       414     0    21     1    14
 -2.5675040160778404E+00 a       415     0    21     1    15
  5.0649375037332973E+00 a       416     0    21     1    16
  2.4657444595980968E+00 a       417     0    21     1    17
 -2.2380659710903013E+00 a       418     0    21     1    18
  8.5288572985832667E-01 a       419     0    21     1    19
 -9.9812595533625414E-01 a       420     0    21     1    20
 -1.6323367501024277E+00 a       421     0    22     1     1
 -1.1382751807164049E+00 a       422     0    22     1     2
  5.3228568052737824E-01 a       423     0    22     1     3
 -9.7031770982711163E-01 a       424     0    22     1     4
  7.9460088918359684E-01 a       425     0    22     1     5
  1.2716531479251223E+00 a       426     0    22     1     6
 -8.3434595597251721E-02 a       427     0    22     1     7
 -4.2343164113394816E-01 a       428     0    22     1     8
  2.4969180714164136E+00 a       429     0    22     1     9
 -1.9855909792654838E-01 a       430     0    22     1    10
  1.9680716562597274E+00 a       431     0    22     1    11
 -2.5209051248645620E-01 a       432     0    22     1    12
  1.6088209046814947E+00 a       433     0    22     1    13
 -6.4925955892663190E-01 a       434     0    22     1    14
 -1.4796774572841902E+00 a       435     0    22     1    15
 -8.7810489420764171E-01 a       436     0    22     1    16
  1.5837145183753232E+00 a       437     0    22     1    17
 -1.2551165018038952E+00 a       438     0    22     1    18
 -2.9301552884841464E-01 a       439     0    22     1    19
  1.6786015631224840E-01 a       440     0    22     1    20
  8.7509179907323364E-01 a       441     0    23     1     1
 -8.1224151172120540E-01 a       442     0    23     1     2
 -1.7187568774738995E+00 a       443     0    23     1     3
 -1.7221267908372492E-01 a       444     0    23     1     4
 -1.0603418914900393E+00 a       445     0    23     1     5
  1.5865384813630479E+00 a       446     0    23     1     6
  3.6271294154754696E-01 a       447     0    23     1     7
  1.1106340221872950E+00 a       448     0    23     1     8
  1.6895510835462406E+00 a       449     0    23     1     9
 -4.0023135056151016E-02 a       450     0    23     1    10
 -4.6412572750669961E-01 a       451     0    23     1    11
  5.1235072423860972E-01 a       452     0    23     1    12
 -4.5109516806548794E-01 a       453     0    23     1    13
  8.6317786351237347E-01 a       454     0    23     1    14
  6.0957888309891906E-01 a       455     0    23     1    15
  2.8085545337396667E-01 a       456     0    23     1    16
  1.1775028806549992E+00 a       457     0    23     1    17
  4.3377026894471332E-01 a       458     0    23     1    18
  1.5322605791462218E-01 a       459     0    23     1    19
  2.2826155557581220E+00 a       460     0    23     1    20
  2.4956763676704368E+00 a       461     0    24     1     1
 -6.8095788044189565E-01 a       462     0    24     1     2
 -1.3784401833787396E+00 a       463     0    24     1     3
 -1.8227462555756966E+00 a       464     0    24     1     4
 -1.9596868197133599E+00 a       465     0    24     1     5
  1.8622565447234291E-01 a       466     0    24     1     6
 -1.0103762025654459E+00 a       467     0    24     1     7
 -3.1249306036783514E-01 a       468     0    24     1     8
  1.1334936882366009E+00 a       469     0    24     1     9
 -5.8262656761891729E-01 a       470     0    24     1    10
  5.0832777795320461E-01 a       471     0    24     1    11
 -1.2005189937394689E+00 a       472     0    24     1    12
  2.2440756472867500E+00 a       473     0    24     1    13
 -1.3980310000740206E-01 a       474     0    24     1    14
  9.7583947701055274E-01 a       475     0    24     1    15
 -1.6292413370839998E-01 a       476     0    24     1    16
  2.0899715128974705E-01 a       477     0    24     1    17
 -6.0612263580248404E-01 a       478     0    24     1    18
  8.5517879955059961E-01 a       479     0    24     1    19
  1.8296873199418690E-01 a       480     0    24     1    20
  1.3135244249155209E-01 a       481     0    25     1     1
  7.0245367357480637E-01 a       482     0    25     1     2
 -5.0867025541736810E-01 a       483     0    25     1     3
 -5.0754215096125521E-01 a       484     0    25     1     4
 -9.7633844247878965E-02 a       485     0    25     1     5
  1.5241507011920286E+00 a       486     0    25     1     6
 -1.1428144030633229E+00 a       487     0    25     1     7
 -6.9688217369753258E-01 a       488     0    25     1     8
 -3.7626341448511513E-01 a       489     0    25     1     9
  1.9897892060699043E-01 a       490     0    25     1    10
 -6.0847141935240068E-01 a       491     0    25     1    11
  2.2521969008574896E+00 a       492     0    25     1    12
  7.2949753046282748E-02 a       493     0    25     1    13
 -1.7141296908562426E-01 a       494     0    25     1    14
 -7.8885708532501153E-01 a       495     0    25     1    15
  1.1279190549000322E+00 a       496     0    25     1    16
  3.7014413083970360E-01 a       497     0    25     1    17
  1.5881184561222925E+00 a       498     0    25     1    18
  3.4118092192127725E-01 a       499     0    25     1    19
 -7.3631387867924128E-02 a       500     0    25     1    20
 -9.9491713826903472E-01 a       501     0    26     1     1
 -2.8439589852912395E-01 a       502     0    26     1     2
  1.9409863282082191E+00 a       503     0    26     1     3
 -7.7177478652645903E-02 a       504     0    26     1     4
  1.0467681478503628E-01 a       505     0    26     1     5
 -8.2542777323009042E-01 a       506     0    26     1     6
 -4.7188115276711978E-01 a       507     0    26     1     7
  4.9279402830739261E-01 a       508     0    26     1     8
 -5.6287156841585317E-01 a       509     0    26     1     9
 -7.2349436080570684E-01 a       510     0    26     1    10
 -9.2745761632977097E-01 a       511     0    26     1    11
  8.9523741244300695E-02 a       512     0    26     1    12
  4.8115752851922949E-01 a       513     0    26     1    13
  3.7286205777303710E-01 a       514     0    26     1    14
  7.0224679647624766E-01 a       515     0    26     1    15
  1.0936427119840599E+00 a       516     0    26     1    16
 -8.1289037814061316E-01 a       517     0    26     1    17
 -9.7286529269144750E-01 a       518     0    26     1    18
  4.1957442056466016E-01 a       519     0    26     1    19
 -2.5041767980741242E-01 a       520     0    26     1    20
  6.3233873912689953E-01 a       521     0    27     1     1
 -3.1236715158171906E+00 a       522     0    27     1     2
 -8.8987312567427507E-02 a       523     0    27     1     3
  9.1248059730361131E-01 a       524     0    27     1     4
  1.2726724149315678E+00 a       525     0    27     1     5
 -5.2200661199899323E-01 a       526     0    27     1     6
  3.3557086093505667E-01 a       527     0    27     1     7
  4.5746443243176721E-01 a       528     0    27     1     8
  2.9784188050891633E+00 a       529     0    27     1     9
 -9.9984785925887731E-01 a       530     0    27     1    10
  5.8443351118733922E-01 a       531     0    27     1    11
  1.4359510449126838E+00 a       532     0    27     1    12
  4.2567433403912069E-01 a       533     0    27     1    13
 -2.3907885604068944E+00 a       534     0    27     1    14
  1.1514053806148522E-01 a       535     0    27     1    15
 -2.9198532062468083E+00 a       536     0    27     1    16
  2.5778891335006510E-01 a       537     0    27     1    17
  3.5156425243417821E-01 a       538     0    27     1    18
 -1.9384421811683443E+00 a       539     0    27     1    19
  1.1526384540262271E+00 a       540     0    27     1    20
  2.0302664869183937E-01 a       541     0    28     1     1
 -5.0604933630613513E-01 a       542     0    28     1     2
  3.9453218778988486E-01 a       543     0    28     1     3
  1.9403469510857371E-01 a       544     0    28     1     4
 -1.5453790344176144E+00 a       545     0    28     1     5
  2.6666876632847805E+00 a       546     0    28     1     6
 -4.0451242482831673E-01 a       547     0    28     1     7
 -1.3598590959198422E+00 a       548     0    28     1     8
 -1.1337393736061201E+00 a       549     0    28     1     9
  1.3581967916095909E+00 a       550     0    28     1    10
  6.9671804490086564E-01 a       551     0    28     1    11
  1.8203891734363169E+00 a       552     0    28     1    12
  2.2169157985568155E+00 a       553     0    28     1    13
 -5.8849969109806777E-01 a       554     0    28     1    14
 -6.0769290143645638E-01 a       555     0    28     1    15
 -1.4213508415583922E+00 a       556     0    28     1    16
  4.2720576116919678E-01 a       557     0    28     1    17
 -1.4420468472989199E+00 a       558     0    28     1    18
 -7.0017050713450568E-01 a       559     0    28     1    19
 -1.9093048927127039E+00 a       560     0    28     1    20
  4.5333441989241523E+00 a       561     0    29     1     1
  1.6823624475177221E+00 a       562     0    29     1     2
 -3.6924787213601529E-01 a       563     0    29     1     3
  2.3832264565988828E+00 a       564     0    29     1     4
  1.1419409874811443E-01 a       565     0    29     1     5
 -6.4227737652040118E-01 a       566     0    29     1     6
  5.2771875264976309E-01 a       567     0    29     1     7
 -6.2747619086331696E-01 a       568     0    29     1     8
  2.9878316562744739E-01 a       569     0    29     1     9
  3.5577462553434552E-01 a       570     0    29     1    10
 -2.6034643296200231E+00 a       571     0    29     1    11
  2.1619784503177270E-01 a       572     0    29     1    12
  5.9868604151658766E-01 a       573     0    29     1    13
  3.3143310520579647E+00 a       574     0    29     1    14
 -2.5327346309822376E+00 a       575     0    29     1    15
  6.7932486798098923E-01 a       576     0    29     1    16
 -1.8177986752509967E+00 a       577     0    29     1    17
  2.2462799122942395E-01 a       578     0    29     1    18
 -1.0093368977101143E+00 a       579     0    29     1    19
  2.1010564757569167E-01 a       580     0    29     1    20
 -2.0699712415301027E-03 a       581     0    30     1     1
 -1.0816179566749735E+00 a       582     0    30     1     2
  4.3783507178687087E-01 a       583     0    30     1     3
 -1.6550074817527685E+00 a       584     0    30     1     4
 -6.3073792839967266E-02 a       585     0    30     1     5
 -1.8550485716765623E+00 a       586     0    30     1     6
  4.8692927348284243E-01 a       587     0    30     1     7
 -4.2042152665325055E-01 a       588     0    30     1     8
 -8.9778338479186848E-01 a       589     0    30     1     9
  7.3865725780839650E-02 a       590     0    30     1    10
  2.5360461148013266E-02 a       591     0    30     1    11
  1.2438961071235499E+00 a       592     0    30     1    12
  6.7817967867922613E-01 a       593     0    30     1    13
  1.2372953593609068E+00 a       594     0    30     1    14
 -6.7183698705487660E-01 a       595     0    30     1    15
  1.4073609058986474E+00 a       596     0    30     1    16
  3.1844727989606170E-01 a       597     0    30     1    17
  1.0872503243175891E+00 a       598     0    30     1    18
  5.6723853904392052E-01 a       599     0    30     1    19
 -2.6130115512368146E-01 a       600     0    30     1    20
  9.4671618543193448E-01 a       601     0    31     1     1
  6.6034564185259259E-01 a       602     0    31     1     2
  2.4721992230973305E-01 a       603     0    31     1     3
  1.2147888245198712E+00 a       604     0    31     1     4
 -1.3462520247016663E+00 a       605     0    31     1     5
 -7.4345664814540446E-01 a       606     0    31     1     6
 -2.1894631941039039E-01 a       607     0    31     1     7
  6.3520074676154625E-01 a       608     0    31     1     8
 -1.6924829090844489E+00 a       609     0    31     1     9
 -3.0457354483282967E-01 a       610     0    31     1    10
 -3.6631057103404454E+00 a       611     0    31     1    11
  3.4674866246315822E-01 a       612     0    31     1    12
 -2.8715731026067681E-01 a       613     0    31     1    13
  5.2900390583887336E-01 a       614     0    31     1    14
  2.9852721028289886E+00 a       615     0    31     1    15
 -2.4311009452160723E+00 a       616     0    31     1    16
 -9.2116317849121632E-01 a       617     0    31     1    17
 -2.1407596789618002E+00 a       618     0    31     1    18
 -1.1980960381275182E-01 a       619     0    31     1    19
 -2.9907357119217992E-01 a       620     0    31     1    20
 -2.5956567835831590E-01 a       621     0    32     1     1
 -2.0452827847192578E+00 a       622     0    32     1     2
 -6.8257981454019623E-01 a       623     0    32     1     3
  6.2140707140515883E-01 a       624     0    32     1     4
  1.2232959812253021E+00 a       625     0    32     1     5
  3.3411950757351877E-01 a       626     0    32     1     6
  1.0633389427268181E+00 a       627     0    32     1     7
 -2.9045859265978424E-01 a       628     0    32     1     8
 -3.5292842893359566E-01 a       629     0    32     1     9
 -1.0356663094743697E-01 a       630     0    32     1    10
  4.0460154338073845E-01 a       631     0    32     1    11
  8.8080597806897853E-01 a       632     0    32     1    12
 -1.1408743114729765E+00 a       633     0    32     1    13
 -6.2754078783731881E-01 a       634     0    32     1    14
 -7.9352757295449128E-01 a       635     0    32     1    15
 -7.6205177728321571E-01 a       636     0    32     1    16
 -3.1526090833962643E-04 a       637     0    32     1    17
  2.9471143001139360E-01 a       638     0    32     1    18
 -1.7787793427255967E+00 a       639     0    32     1    19
  1.1239087024528482E-01 a       640     0    32     1    20
 -2.6360249315897493E+00 a       641     0    33     1     1
 -3.4572542325842317E+00 a       642     0    33     1     2
 -2.2484662181508677E+00 a       643     0    33     1     3
 -3.3708861360040165E-01 a       644     0    33     1     4
 -3.1218207589321456E+00 a       645     0    33     1     5
  1.7348557473017548E-01 a       646     0    33     1     6
 -5.6373652381167505E-01 a       647     0    33     1     7
 -8.2865557500757492E-01 a       648     0    33     1     8
 -1.8048555297611573E+00 a       649     0    33     1     9
  2.0195270931385170E+00 a       650     0    33     1    10
  8.4035071656943738E-01 a       651     0    33     1    11
 -3.2788618607198527E-01 a       652     0    33     1    12
 -9.1406338382727093E-01 a       653     0    33     1    13
  9.4711092097892391E-01 a       654     0    33     1    14
  2.0069020039235150E+00 a       655     0    33     1    15
 -4.1108376189351743E+00 a       656     0    33     1    16
 -2.8371991478791321E+00 a       657     0    33     1    17
 -8.4145626411910890E-01 a       658     0    33     1    18
 -3.6348592634853221E+00 a       659     0    33     1    19
 -3.6005763611501479E-01 a       660     0    33     1    20
  6.5011641705053080E-01 a       661     0    34     1     1
  1.1277265205322788E+00 a       662     0    34     1     2
 -7.7398492595684487E-01 a       663     0    34     1     3
 -1.2725887730857047E-01 a       664     0    34     1     4
  1.1799720546372879E-01 a       665     0    34     1     5
  3.8122688030085432E+00 a       666     0    34     1     6
  5.8572277036678067E-01 a       667     0    34     1     7
  2.2964885881698449E+00 a       668     0    34     1     8
 -6.6468009959617880E-01 a       669     0    34     1     9
  8.6873747834654147E-01 a       670     0    34     1    10
 -2.5523798802602973E+00 a       671     0    34     1    11
 -2.2486932489281597E+00 a       672     0    34     1    12
 -8.5662724715227756E-01 a       673     0    34     1    13
  3.7610262725040466E-01 a       674     0    34     1    14
  7.1161934667329485E-01 a       675     0    34     1    15
 -2.6729237879040233E+00 a       676     0    34     1    16
 -1.2114531181594153E+00 a       677     0    34     1    17
  1.1397663503387052E+00 a       678     0    34     1    18
 -3.9869286205588894E-01 a       679     0    34     1    19
  1.8218955812287760E+00 a       680     0    34     1    20
 -3.0701791799875011E-01 a       681     0    35     1     1
 -2.9922068867215473E-01 a       682     0    35     1     2
  1.5100694075633179E+00 a       683     0    35     1     3
 -3.4115635236855574E-01 a       684     0    35     1     4
  5.2934296352142418E-02 a       685     0    35     1     5
 -1.6225533247355657E+00 a       686     0    35     1     6
 -5.3855967697882501E-01 a       687     0    35     1     7
 -4.3278727536793254E-01 a       688     0    35     1     8
  8.8504041979056391E-01 a       689     0    35     1     9
  9.5349400806977647E-01 a       690     0    35     1    10
 -1.4445245270045326E+00 a       691     0    35     1    11
 -6.8353544854544346E-01 a       692     0    35     1    12
 -1.9187035523049392E+00 a       693     0    35     1    13
  1.9730411139261788E+00 a       694     0    35     1    14
  8.9353155444022692E-01 a       695     0    35     1    15
  3.5380918252583680E+00 a       696     0    35     1    16
 -5.9207005190241113E-01 a       697     0    35     1    17
  6.0707144029850613E-01 a       698     0    35     1    18
 -2.6422228004408110E-01 a       699     0    35     1    19
  7.2276496814851365E-01 a       700     0    35     1    20
  5.9080483569963815E-01 a       701     0    36     1     1
 -5.7917755786593295E-01 a       702     0    36     1     2
  6.2925474197806627E-02 a       703     0    36     1     3
  4.7001830537173866E-01 a       704     0    36     1     4
 -2.1545491477585440E-02 a       705     0    36     1     5
 -1.7029189638075275E+00 a       706     0    36     1     6
 -1.5283131279014199E+00 a       707     0    36     1     7
 -4.2444375276948387E-01 a       708     0    36     1     8
  1.8837203297604328E+00 a       709     0    36     1     9
  8.3028682046465152E-01 a       710     0    36     1    10
 -3.5576774848648256E+00 a       711     0    36     1    11
  7.6231434354622574E-01 a       712     0    36     1    12
 -1.6928600376256382E+00 a       713     0    36     1    13
 -4.1443590930462421E-01 a       714     0    36     1    14
  1.8198905513874044E+00 a       715     0    36     1    15
  5.8142981755755740E-01 a       716     0    36     1    16
  1.9221830369732591E+00 a       717     0    36     1    17
  5.5704831124938614E-01 a       718     0    36     1    18
 -3.7724505424550736E-01 a       719     0    36     1    19
  9.7864980748910690E-01 a       720     0    36     1    20
 -3.2783022636214003E+00 a       721     0    37     1     1
 -8.7237315416226380E-01 a       722     0    37     1     2
  9.6960973118237281E-01 a       723     0    37     1     3
  1.3761242171999430E+00 a       724     0    37     1     4
  1.2800267107060983E+00 a       725     0    37     1     5
 -4.6344512162830126E-01 a       726     0    37     1     6
 -1.1184072381947427E+00 a       727     0    37     1     7
 -1.9247353560521885E+00 a       728     0    37     1     8
 -5.1439086406816470E-01 a       729     0    37     1     9
 -4.2977793492470197E-02 a       730     0    37     1    10
 -5.5253270662478338E-01 a       731     0    37     1    11
 -2.5555312082967557E-01 a       732     0    37     1    12
 -3.0940766143263659E-01 a       733     0    37     1    13
  8.0770685831909483E-01 a       734     0    37     1    14
  1.1489238517836713E+00 a       735     0    37     1    15
  9.2639090937453727E-01 a       736     0    37     1    16
 -1.2506551618569590E+00 a       737     0    37     1    17
 -1.5138141127082658E+00 a       738     0    37     1    18
  1.5843002159816562E+00 a       739     0    37     1    19
  6.5812692778335069E-01 a       740     0    37     1    20
  5.7505142338733262E-01 a       741     0    38     1     1
 -4.7549758172382167E-01 a       742     0    38     1     2
 -1.9385845912968929E+00 a       743     0    38     1     3
 -1.0111749483922622E-01 a       744     0    38     1     4
 -1.1931933269020794E+00 a       745     0    38     1     5
  1.5225416080396987E+00 a       746     0    38     1     6
 -1.0335422137878396E+00 a       747     0    38     1     7
 -1.1594117888608671E-01 a       748     0    38     1     8
 -2.5970271356040525E-01 a       749     0    38     1     9
 -1.9465621318034881E-01 a       750     0    38     1    10
  1.5378296009786807E+00 a       751     0    38     1    11
  2.5470881641883497E-01 a       752     0    38     1    12
  1.3313042036710181E+00 a       753     0    38     1    13
 -4.6024801099552565E-01 a       754     0    38     1    14
  2.2053949347637478E+00 a       755     0    38     1    15
 -5.5221544578796655E-01 a       756     0    38     1    16
  1.5236341847874129E+00 a       757     0    38     1    17
 -1.1945835926123791E+00 a       758     0    38     1    18
 -9.4507533164312441E-01 a       759     0    38     1    19
 -3.1380346048159841E-01 a       760     0    38     1    20
  7.3973029730950116E-02 a       761     0    39     1     1
 -1.2051686597460126E-01 a       762     0    39     1     2
 -2.0963611324307654E+00 a       763     0    39     1     3
 -1.6816798749482000E+00 a       764     0    39     1     4
 -1.2648016855737465E+00 a       765     0    39     1     5
  9.7903248493319417E-01 a       766     0    39     1     6
  4.0705068404121514E-01 a       767     0    39     1     7
  3.4971431132118763E-01 a       768     0    39     1     8
 -6.0372898057647606E-01 a       769     0    39     1     9
 -8.5707563396835362E-01 a       770     0    39     1    10
  1.1526268307985539E+00 a       771     0    39     1    11
  6.1832841927163273E-01 a       772     0    39     1    12
 -7.2042043834761782E-01 a       773     0    39     1    13
 -7.6339089953810291E-01 a       774     0    39     1    14
 -2.9717717967783036E-01 a       775     0    39     1    15
 -1.6323614351759530E+00 a       776     0    39     1    16
  1.3714432077218286E+00 a       777     0    39     1    17
 -1.3958407664287895E-01 a       778     0    39     1    18
 -1.5336830138248875E-01 a       779     0    39     1    19
 -1.4682144513992912E+00 a       780     0    39     1    20
 -3.2401415349448383E-02 a       781     0    40     1     1
  5.9756308595040741E-01 a       782     0    40     1     2
  6.1916878355675153E-01 a       783     0    40     1     3
 -2.3309660459730047E-01 a       784     0    40     1     4
 -8.5816657636143420E-02 a       785     0    40     1     5
 -9.3067021893558505E-02 a       786     0    40     1     6
 -7.0508319167386846E-01 a       787     0    40     1     7
 -8.6430950578246057E-01 a       788     0    40     1     8
  1.5214235686595230E+00 a       789     0    40     1     9
  8.3719101492682058E-01 a       790     0    40     1    10
 -4.7203135376083605E-01 a       791     0    40     1    11
 -7.2597768412625308E-01 a       792     0    40     1    12
 -3.1474012734370602E-02 a       793     0    40     1    13
 -1.3404841389503441E-01 a       794     0    40     1    14
 -2.8149681017136907E-01 a       795     0    40     1    15
  2.7983941713342919E-01 a       796     0    40     1    16
 -1.7825846414988820E+00 a       797     0    40     1    17
 -5.2916272515643648E-01 a       798     0    40     1    18
 -1.5620957421005491E-01 a       799     0    40     1    19
 -9.9144093857553572E-01 a       800     0    40     1    20
  2.4952660024027648E-01 a       801     0    41     1     1
 -6.3015146068738570E-01 a       802     0    41     1     2
  1.0770173515825975E-01 a       803     0    41     1     3
 -7.2909932785350384E-01 a       804     0    41     1     4
 -1.0567068156163815E+00 a       805     0    41     1     5
 -5.0962699140965162E-01 a       806     0    41     1     6
  7.2541012403089455E-01 a       807     0    41     1     7
 -6.9699111327485042E-01 a       808     0    41     1     8
 -6.1603355659667203E-01 a       809     0    41     1     9
 -7.6028170945080187E-01 a       810     0    41     1    10
 -9.2668774193020920E-01 a       811     0    41     1    11
  1.4618204042366933E-01 a       812     0    41     1    12
  2.7126736206824686E-01 a       813     0    41     1    13
  9.9833303016314778E-01 a       814     0    41     1    14
  3.1345693798676677E-01 a       815     0    41     1    15
  2.9852925115544382E-01 a       816     0    41     1    16
  6.9156344070857700E-01 a       817     0    41     1    17
 -2.0591032244741290E+00 a       818     0    41     1    18
  5.0522145138765251E-01 a       819     0    41     1    19
 -6.6003743765446521E-01 a       820     0    41     1    20
  4.2680393662455340E-01 a       821     0    42     1     1
 -1.6797824352590429E+00 a       822     0    42     1     2
 -1.0362098550090217E+00 a       823     0    42     1     3
  4.4185081954271149E-01 a       824     0    42     1     4
 -4.3716335838669329E-01 a       825     0    42     1     5
 -1.0985247606254829E+00 a       826     0    42     1     6
  4.6929744964326225E-01 a       827     0    42     1     7
  7.1104591116802252E-01 a       828     0    42     1     8
  9.2688708922726071E-01 a       829     0    42     1     9
 -2.6058562952469511E-01 a       830     0    42     1    10
  1.4065338888493371E+00 a       831     0    42     1    11
 -3.3605400624509935E-01 a       832     0    42     1    12
 -2.3698649347666030E+00 a       833     0    42     1    13
 -7.4068880822750516E-01 a       834     0    42     1    14
  1.9850101801279510E-01 a       835     0    42     1    15
  1.9092566639419086E+00 a       836     0    42     1    16
  2.4339644637402427E+00 a       837     0    42     1    17
 -1.2395460480237561E+00 a       838     0    42     1    18
  4.2036441882143138E-01 a       839     0    42     1    19
 -1.9629677204800502E-01 a       840     0    42     1    20
 -4.0316576151273709E-01 a       841     0    43     1     1
 -4.2751861804072744E-01 a       842     0    43     1     2
  2.9315701810805326E+00 a       843     0    43     1     3
  4.9118919781834879E-02 a       844     0    43     1     4
 -7.1881678103780289E-01 a       845     0    43     1     5
 -8.2198809347159885E-01 a       846     0    43     1     6
  5.6945364836385381E-01 a       847     0    43     1     7
  1.3602594853824967E+00 a       848     0    43     1     8
 -3.3276415949794858E-01 a       849     0    43     1     9
 -1.5557034862807158E+00 a       850     0    43     1    10
 -2.9028814732141175E+00 a       851     0    43     1    11
 -1.9421729339975771E+00 a       852     0    43     1    12
  9.7753576252226371E-01 a       853     0    43     1    13
 -2.5314120044668700E+00 a       854     0    43     1    14
 -8.0127088618803877E-01 a       855     0    43     1    15
 -1.5639312783491131E+00 a       856     0    43     1    16
  2.0534476004730129E+00 a       857     0    43     1    17
  1.7901212335670571E+00 a       858     0    43     1    18
  4.9506788296516363E-01 a       859     0    43     1    19
  4.0613356418653479E-01 a       860     0    43     1    20
  9.9689336672449336E-01 a       861     0    44     1     1
  5.3586379397369772E-02 a       862     0    44     1     2
  1.6120141429720247E+00 a       863     0    44     1     3
 -3.4505665097619859E-01 a       864     0    44     1     4
 -2.6250860213930860E-01 a       865     0    44     1     5
  1.2736382519927409E+00 a       866     0    44     1     6
 -9.0357909395787739E-01 a       867     0    44     1     7
 -1.1419729147146875E+00 a       868     0    44     1     8
 -7.4106800993931021E-01 a       869     0    44     1     9
 -1.2610566206224871E+00 a       870     0    44     1    10
  3.0568293203371943E-01 a       871     0    44     1    11
 -7.9958688238666553E-01 a       872     0    44     1    12
 -3.1710621357102693E+00 a       873     0    44     1    13
 -1.7745169819876523E+00 a       874     0    44     1    14
 -6.7448402172649191E-01 a       875     0    44     1    15
  2.4246600815304724E+00 a       876     0    44     1    16
  6.8991042187407625E-01 a       877     0    44     1    17
  6.3291504434815415E-01 a       878     0    44     1    18
  3.5954069836743530E-01 a       879     0    44     1    19
 -8.9906765512721296E-02 a       880     0    44     1    20
 -9.1996338653696275E-01 a       881     0    45     1     1
 -1.2515038545966836E-01 a       882     0    45     1     2
 -1.2388940435896834E-01 a       883     0    45     1     3
  1.4677147182564263E+00 a       884     0    45     1     4
 -6.6909452581897899E-01 a       885     0    45     1     5
 -2.5878571959903018E+00 a       886     0    45     1     6
 -1.8332619179507541E+00 a       887     0    45     1     7
 -7.2712745943839385E-01 a       888     0    45     1     8
 -9.2072519626550369E-03 a       889     0    45     1     9
 -2.3350715641838443E-01 a       890     0    45     1    10
  9.6326770918732785E-01 a       891     0    45     1    11
 -5.1377284975469240E-01 a       892     0    45     1    12
  1.4246948571681575E+00 a       893     0    45     1    13
  8.7428511369771988E-01 a       894     0    45     1    14
  6.9920094131206867E-01 a       895     0    45     1    15
  4.4029492927247271E-01 a       896     0    45     1    16
  1.9872086932868320E+00 a       897     0    45     1    17
  3.0689720881072113E-01 a       898     0    45     1    18
 -5.5058493840080276E-02 a       899     0    45     1    19
  1.2245769877889920E+00 a       900     0    45     1    20
 -3.7086641537818666E-03 a       901     0    46     1     1
 -2.9881651718608486E+00 a       902     0    46     1     2
  1.5709510493992114E+00 a       903     0    46     1     3
  1.9629810211706979E+00 a       904     0    46     1     4
 -1.6130593729453355E+00 a       905     0    46     1     5
  8.3020282879420537E-01 a       906     0    46     1     6
 -1.2949659445561406E+00 a       907     0    46     1     7
  7.4799310029814259E-01 a       908     0    46     1     8
 -5.7554522101216025E-02 a       909     0    46     1     9
  2.9034253412076455E-01 a       910     0    46     1    10
  2.1702208607072118E+00 a       911     0    46     1    11
 -1.9363731374352053E-01 a       912     0    46     1    12
 -5.5620146382560021E-01 a       913     0    46     1    13
 -6.8022328727541304E-01 a       914     0    46     1    14
  5.0675327474954435E-01 a       915     0    46     1    15
 -2.5627968419470952E+00 a       916     0    46     1    16
 -2.9242828568848309E+00 a       917     0    46     1    17
  9.2942269169097924E-01 a       918     0    46     1    18
 -5.6491219726857222E-01 a       919     0    46     1    19
  7.5329059458666625E-01 a       920     0    46     1    20
 -1.0533971599952801E+00 a       921     0    47     1     1
  2.1042389092288763E-01 a       922     0    47     1     2
  2.5923911841006403E-01 a       923     0    47     1     3
  9.8067427050127587E-01 a       924     0    47     1     4
  2.7420133556782023E-01 a       925     0    47     1     5
  1.2456639211773575E-01 a       926     0    47     1     6
  5.8977943991714998E-01 a       927     0    47     1     7
 -5.8899525405862641E-01 a       928     0    47     1     8
 -5.1141764106314935E-01 a       929     0    47     1     9
 -2.6266235106611674E-01 a       930     0    47     1    10
 -1.0824847524496821E+00 a       931     0    47     1    11
 -6.4009334560333098E-01 a       932     0    47     1    12
 -4.3142878212902014E-01 a       933     0    47     1    13
  6.7121174125652472E-01 a       934     0    47     1    14
  1.0767746200603663E+00 a       935     0    47     1    15
  1.0036796314215948E+00 a       936     0    47     1    16
 -1.2429695868489534E+00 a       937     0    47     1    17
  3.4331752961130690E-01 a       938     0    47     1    18
  8.4162774602225610E-01 a       939     0    47     1    19
  6.8438371320583846E-01 a       940     0    47     1    20
 -2.5687416048755436E+00 a       941     0    48     1     1
 -5.9210669351410772E-01 a       942     0    48     1     2
 -1.7800343000636494E+00 a       943     0    48     1     3
  5.0301074954058766E-01 a       944     0    48     1     4
  5.7935762852445262E-02 a       945     0    48     1     5
 -5.6370888186422319E-01 a       946     0    48     1     6
 -1.7460645892507543E+00 a       947     0    48     1     7
 -7.1400968294918099E-01 a       948     0    48     1     8
 -7.3592837651841785E-03 a       949     0    48     1     9
 -7.7144146562359095E-01 a       950     0    48     1    10
  7.2548043395926742E-01 a       951     0    48     1    11
 -7.1035571058604774E-01 a       952     0    48     1    12
  3.4650828047909438E-01 a       953     0    48     1    13
 -1.5637078954407180E+00 a       954     0    48     1    14
 -2.6220572096261902E-01 a       955     0    48     1    15
 -3.2595989034958879E+00 a       956     0    48     1    16
 -1.3698149453715525E+00 a       957     0    48     1    17
  5.4745548986190584E-01 a       958     0    48     1    18
 -1.9117254920439808E+00 a       959     0    48     1    19
 -2.2075652783991848E+00 a       960     0    48     1    20
  7.3722618300600540E-01 a       961     0    49     1     1
  7.8058183270398551E-01 a       962     0    49     1     2
 -4.7460639355411116E-01 a       963     0    49     1     3
 -2.0739006377997821E-01 a       964     0    49     1     4
  7.5567734333441017E-01 a       965     0    49     1     5
 -1.3018609439496851E+00 a       966     0    49     1     6
 -2.7445414995972756E-01 a       967     0    49     1     7
  9.7876976029935892E-01 a       968     0    49     1     8
 -8.4624041573681963E-01 a       969     0    49     1     9
  5.7390550369405469E-01 a       970     0    49     1    10
 -2.4066450917257063E+00 a       971     0    49     1    11
 -7.4653038478581346E-01 a       972     0    49     1    12
 -1.2906405819911717E+00 a       973     0    49     1    13
 -8.6581838497317404E-02 a       974     0    49     1    14
  2.1604547179421312E+00 a       975     0    49     1    15
 -3.3829247491907162E+00 a       976     0    49     1    16
  4.2433840516055354E-01 a       977     0    49     1    17
  8.2998036718819401E-01 a       978     0    49     1    18
  4.6807108067244357E-01 a       979     0    49     1    19
  1.1698500544654205E+00 a       980     0    49     1    20
 -2.7155463101494690E+00 a       981     0    50     1     1
 -1.2699814875302612E-01 a       982     0    50     1     2
 -2.5919158542308030E-01 a       983     0    50     1     3
  8.2437410542038481E-01 a       984     0    50     1     4
  3.4076732289879585E-01 a       985     0    50     1     5
  1.6191503138597674E-01 a       986     0    50     1     6
 -1.3732479932734420E+00 a       987     0    50     1     7
 -7.8488446614312468E-01 a       988     0    50     1     8
  6.5884092316668663E-01 a       989     0    50     1     9
 -1.3209455832008794E+00 a       990     0    50     1    10
  1.3580267083121749E+00 a       991     0    50     1    11
 -2.3545577544116769E+00 a       992     0    50     1    12
  3.1422236759679822E-01 a       993     0    50     1    13
 -3.4607895638102237E-01 a       994     0    50     1    14
  3.0252829624426952E-01 a       995     0    50     1    15
  1.0511515507144948E+00 a       996     0    50     1    16
 -6.9139334597836177E-01 a       997     0    50     1    17
 -2.4559503609594313E+00 a       998     0    50     1    18
  4.3639965450777340E-01 a       999     0    50     1    19
 -1.4169367911724840E-02 a      1000     0    50     1    20
  2.1339524107213217E-01 a      1001     0    51     1     1
 -6.0419542108995328E-01 a      1002     0    51     1     2
 -1.1252743891025252E+00 a      1003     0    51     1     3
  6.4335959180571789E-01 a      1004     0    51     1     4
  7.7160850796631500E-02 a      1005     0    51     1     5
  1.9160736668200442E+00 a      1006     0    51     1     6
 -3.4976192542853751E-01 a      1007     0    51     1     7
 -1.2929714708987744E-01 a      1008     0    51     1     8
 -1.2394210285288011E-01 a      1009     0    51     1     9
  8.4612036206527053E-01 a      1010     0    51     1    10
  6.6530803084860549E-02 a      1011     0    51     1    11
 -3.5047668808846327E-01 a      1012     0    51     1    12
  1.1114322505102361E+00 a      1013     0    51     1    13
 -1.1223628569911037E+00 a      1014     0    51     1    14
  6.8837624080868964E-01 a      1015     0    51     1    15
  1.8919648783542056E-01 a      1016     0    51     1    16
  1.5161988512343554E+00 a      1017     0    51     1    17
 -5.8874168439187424E-01 a      1018     0    51     1    18
  2.6162251427108779E-01 a      1019     0    51     1    19
  7.1670016159923966E-01 a      1020     0    51     1    20
  9.9684892161107674E-01 a      1021     0    52     1     1
 -4.6746919273647031E-01 a      1022     0    52     1     2
 -7.0417475487163539E-01 a      1023     0    52     1     3
  1.1756787685793141E-01 a      1024     0    52     1     4
 -3.8275392892398541E-01 a      1025     0    52     1     5
  5.1999811079678837E-01 a      1026     0    52     1     6
 -9.4078708754272578E-01 a      1027     0    52     1     7
  7.7775004864517688E-02 a      1028     0    52     1     8
 -2.6528050196933189E-01 a      1029     0    52     1     9
  9.9728726333128803E-01 a      1030     0    52     1    10
  1.7396081341937213E+00 a      1031     0    52     1    11
 -8.7523262650765410E-01 a      1032     0    52     1    12
 -4.1180383844573526E-01 a      1033     0    52     1    13
 -1.1613255504137114E+00 a      1034     0    52     1    14
 -1.3817550529721842E-01 a      1035     0    52     1    15
  6.4325728080288058E-01 a      1036     0    52     1    16
  5.9272250728800846E-01 a      1037     0    52     1    17
  6.5069094426948548E-01 a      1038     0    52     1    18
  3.6433665028324425E-01 a      1039     0    52     1    19
 -1.0848645358506450E+00 a      1040     0    52     1    20
 -9.2290272180724353E-01 a      1041     0    53     1     1
  1.8818397640613024E-01 a      1042     0    53     1     2
 -1.0449596013800149E+00 a      1043     0    53     1     3
 -2.6925922629293042E-01 a      1044     0    53     1     4
  5.3885036264614949E-01 a      1045     0    53     1     5
 -3.1069775818748224E-01 a      1046     0    53     1     6
 -6.8183541913873247E-01 a      1047     0    53     1     7
  5.2707637524065853E-01 a      1048     0    53     1     8
 -1.5094720088057310E+00 a      1049     0    53     1     9
 -4.6060755196915448E-01 a      1050     0    53     1    10
 -6.2731994772710764E-01 a      1051     0    53     1    11
 -7.8873562863977575E-01 a      1052     0    53     1    12
  1.6870199141898041E+00 a      1053     0    53     1    13
  2.0447236541274996E-01 a      1054     0    53     1    14
 -7.1709593229017377E-01 a      1055     0    53     1    15
  2.8808475616493484E-01 a      1056     0    53     1    16
  1.1260804814348999E+00 a      1057     0    53     1    17
 -1.9824424422677116E+00 a      1058     0    53     1    18
 -5.3452517968218916E-01 a      1059     0    53     1    19
  2.3966171502523045E-01 a      1060     0    53     1    20
  8.0377700884075787E-01 a      1061     0    54     1     1
 -1.8683969256223667E+00 a      1062     0    54     1     2
 -2.2279915859844350E+00 a      1063     0    54     1     3
  2.4990632671286009E-01 a      1064     0    54     1     4
 -8.4181303505411553E-01 a      1065     0    54     1     5
  5.7085258315035248E-01 a      1066     0    54     1     6
  7.8734397852136917E-01 a      1067     0    54     1     7
  1.1902163729503166E+00 a      1068     0    54     1     8
  2.2943426226138250E-01 a      1069     0    54     1     9
  2.7107895748707150E-01 a      1070     0    54     1    10
  4.3659271386201876E-01 a      1071     0    54     1    11
  5.8555195578768496E-02 a      1072     0    54     1    12
 -1.8836655517949077E+00 a      1073     0    54     1    13
 -1.6878841806657769E+00 a      1074     0    54     1    14
 -8.5347160017500090E-01 a      1075     0    54     1    15
 -1.8584240547846378E+00 a      1076     0    54     1    16
  1.8053999910116081E+00 a      1077     0    54     1    17
  9.0869953785490287E-01 a      1078     0    54     1    18
 -5.5874428962260769E-01 a      1079     0    54     1    19
 -9.2162336681085533E-01 a      1080     0    54     1    20
  5.1184011537782612E-02 a      1081     0    55     1     1
 -1.1143243970384193E+00 a      1082     0    55     1     2
 -4.3193753555354220E-01 a      1083     0    55     1     3
 -8.6301521654457525E-01 a      1084     0    55     1     4
  1.9418372058155081E-01 a      1085     0    55     1     5
  1.3443926643783363E-01 a      1086     0    55     1     6
  8.0877235507243267E-02 a      1087     0    55     1     7
  1.2435073776614036E-01 a      1088     0    55     1     8
 -1.8432669891102393E-01 a      1089     0    55     1     9
 -9.8034271085411046E-02 a      1090     0    55     1    10
 -1.7097590523734416E-01 a      1091     0    55     1    11
 -1.6798148330004472E+00 a      1092     0    55     1    12
  6.1177178156772261E-01 a      1093     0    55     1    13
 -2.1828652840306355E+00 a      1094     0    55     1    14
 -1.1546159208650875E+00 a      1095     0    55     1    15
  1.8109702048002332E+00 a      1096     0    55     1    16
 -2.7204601855641389E-02 a      1097     0    55     1    17
  4.3471026079953706E-01 a      1098     0    55     1    18
  6.3870766288056946E-01 a      1099     0    55     1    19
  5.7134497658719208E-01 a      1100     0    55     1    20
  3.9330942521530043E-01 a      1101     0    56     1     1
  6.8054233112750895E-01 a      1102     0    56     1     2
 -1.0573959006058675E+00 a      1103     0    56     1     3
 -9.3267844142137246E-01 a      1104     0    56     1     4
  1.2345188367984403E+00 a      1105     0    56     1     5
  9.6419284904353320E-01 a      1106     0    56     1     6
 -2.1927162437328029E-01 a      1107     0    56     1     7
  1.2250097116021315E-01 a      1108     0    56     1     8
 -5.7939266284574198E-01 a      1109     0    56     1     9
 -2.1977430523769922E-01 a      1110     0    56     1    10
  2.7964680713552377E+00 a      1111     0    56     1    11
  2.1405795293433746E-01 a      1112     0    56     1    12
 -1.7218364499936392E+00 a      1113     0    56     1    13
 -1.9455884813105013E+00 a      1114     0    56     1    14
  6.7432307076377163E-01 a      1115     0    56     1    15
 -2.4630501568334608E+00 a      1116     0    56     1    16
  2.8124698011593936E+00 a      1117     0    56     1    17
  1.9937439053427084E+00 a      1118     0    56     1    18
  1.5388897182579815E+00 a      1119     0    56     1    19
  3.8670260759742747E-01 a      1120     0    56     1    20
 -9.3597833546395681E-01 a      1121     0    57     1     1
  2.1504975758784055E+00 a      1122     0    57     1     2
  3.8133279949101062E-01 a      1123     0    57     1     3
 -3.0894812233310254E-01 a      1124     0    57     1     4
 -1.2940482614860531E+00 a      1125     0    57     1     5
 -2.7241640305879145E+00 a      1126     0    57     1     6
 -1.9804598492995209E+00 a      1127     0    57     1     7
  1.4863637048750893E+00 a      1128     0    57     1     8
  4.5091993783661677E-01 a      1129     0    57     1     9
 -4.5316326968566378E-01 a      1130     0    57     1    10
  8.4420493108920702E-01 a      1131     0    57     1    11
 -2.0037820622942099E-01 a      1132     0    57     1    12
  1.0092784642446511E+00 a      1133     0    57     1    13
  4.0318792962502475E-01 a      1134     0    57     1    14
 -5.3174156064227607E-01 a      1135     0    57     1    15
  2.3552081721925591E+00 a      1136     0    57     1    16
 -1.9019645306751198E+00 a      1137     0    57     1    17
  1.4808280444955002E+00 a      1138     0    57     1    18
 -8.0629949196022266E-01 a      1139     0    57     1    19
  4.9000129461737785E-01 a      1140     0    57     1    20
  1.3015995109021443E+00 a      1141     0    58     1     1
  3.4490054633799616E-01 a      1142     0    58     1     2
  8.3131563458337929E-02 a      1143     0    58     1     3
  1.3542794840916224E+00 a      1144     0    58     1     4
  8.3616799139026546E-02 a      1145     0    58     1     5
  3.6626342202346401E-01 a      1146     0    58     1     6
 -2.1949140304873219E-01 a      1147     0    58     1     7
  1.5052989643570913E+00 a      1148     0    58     1     8
 -1.0919318024858224E+00 a      1149     0    58     1     9
 -1.6438285705650648E+00 a      1150     0    58     1    10
 -2.0011061469628486E+00 a      1151     0    58     1    11
 -1.9407017755966711E+00 a      1152     0    58     1    12
 -1.4024163052926270E-01 a      1153     0    58     1    13
  5.2442258130396135E-01 a      1154     0    58     1    14
  1.7027086233418682E+00 a      1155     0    58     1    15
 -2.7960592489248220E-01 a      1156     0    58     1    16
 -1.0680400111052112E-01 a      1157     0    58     1    17
 -8.3816089698500063E-01 a      1158     0    58     1    18
 -6.1451624329221056E-02 a      1159     0    58     1    19
  1.6978517624241247E+00 a      1160     0    58     1    20
 -2.6923485331416591E-01 a      1161     0    59     1     1
 -8.8019046036214424E-02 a      1162     0    59     1     2
 -1.2899783996560901E+00 a      1163     0    59     1     3
 -8.0330631531218860E-02 a      1164     0    59     1     4
 -1.3152741151374625E+00 a      1165     0    59     1     5
 -9.6838454335489499E-01 a      1166     0    59     1     6
  3.9850838667245481E-01 a      1167     0    59     1     7
  7.2483295858175911E-01 a      1168     0    59     1     8
  5.1890788575885305E-01 a      1169     0    59     1     9
 -6.2501916375349531E-01 a      1170     0    59     1    10
  2.5079515407401853E-01 a      1171     0    59     1    11
  3.5481423466666812E-01 a      1172     0    59     1    12
  2.9503569173197547E-01 a      1173     0    59     1    13
 -2.5015783999140534E-01 a      1174     0    59     1    14
 -1.8648154776244357E+00 a      1175     0    59     1    15
  2.8143766977822944E+00 a      1176     0    59     1    16
  7.2530892305844863E-01 a      1177     0    59     1    17
  9.7574914860085993E-01 a      1178     0    59     1    18
  1.8883497497580790E-01 a      1179     0    59     1    19
  4.0766033930975826E-01 a      1180     0    59     1    20
  1.4770774926156646E-01 a      1181     0    60     1     1
  1.0098068768613933E+00 a      1182     0    60     1     2
 -1.3816325333876254E+00 a      1183     0    60     1     3
  1.2668082382336823E+00 a      1184     0    60     1     4
  6.2514345279824723E-01 a      1185     0    60     1     5
  1.7503364892344819E+00 a      1186     0    60     1     6
 -1.1667808107836088E+00 a      1187     0    60     1     7
 -1.5540028951907450E+00 a      1188     0    60     1     8
 -1.0687242529244294E+00 a      1189     0    60     1     9
 -2.6811389183241352E+00 a      1190     0    60     1    10
 -4.1713443938224332E-01 a      1191     0    60     1    11
  1.7204330049322480E-01 a      1192     0    60     1    12
  1.2812226681065044E+00 a      1193     0    60     1    13
  1.6985329480367313E+00 a      1194     0    60     1    14
 -1.2488154206036423E-01 a      1195     0    60     1    15
  2.2408836065923032E+00 a      1196     0    60     1    16
  1.5924369336784214E+00 a      1197     0    60     1    17
  1.5520006964156259E+00 a      1198     0    60     1    18
 -4.0205963725872734E-01 a      1199     0    60     1    19
 -2.1226856563367799E-01 a      1200     0    60     1    20
  5.3121833127755310E-03 a      1201     0    61     1     1
  3.1946908472552713E+00 a      1202     0    61     1     2
 -3.2569593225754773E-01 a      1203     0    61     1     3
  1.1393742020012421E+00 a      1204     0    61     1     4
 -1.3415260296874609E+00 a      1205     0    61     1     5
 -2.7700975926669100E+00 a      1206     0    61     1     6
  2.6078370185688748E+00 a      1207     0    61     1     7
 -2.9145553478604225E-01 a      1208     0    61     1     8
 -1.0493978375891013E+00 a      1209     0    61     1     9
 -1.0130247027050174E+00 a      1210     0    61     1    10
 -1.2655947877967799E+00 a      1211     0    61     1    11
 -1.1587949284668504E+00 a      1212     0    61     1    12
  1.1100488772375347E-01 a      1213     0    61     1    13
 -4.3556998990243012E-01 a      1214     0    61     1    14
  2.5112239096535166E-01 a      1215     0    61     1    15
 -1.5853167129380232E+00 a      1216     0    61     1    16
 -1.0501644063563809E+00 a      1217     0    61     1    17
  1.0383181598019744E+00 a      1218     0    61     1    18
 -1.6955178307989189E+00 a      1219     0    61     1    19
  3.2869781619465915E-01 a      1220     0    61     1    20
 -9.6975777143058606E-01 a      1221     0    62     1     1
  6.4839835594077166E-01 a      1222     0    62     1     2
 -1.4645749686163145E-02 a      1223     0    62     1     3
 -3.2049864898165953E-01 a      1224     0    62     1     4
 -1.4756927349811816E-01 a      1225     0    62     1     5
 -7.3231324822806632E-01 a      1226     0    62     1     6
  4.0011176467181131E-01 a      1227     0    62     1     7
 -4.9247427503925034E-01 a      1228     0    62     1     8
 -9.1050358824985600E-01 a      1229     0    62     1     9
 -1.8235579307501948E+00 a      1230     0    62     1    10
  1.2716335188022270E+00 a      1231     0    62     1    11
  8.9977011315861422E-01 a      1232     0    62     1    12
  1.6381016098600623E+00 a      1233     0    62     1    13
  2.2295287111212483E-01 a      1234     0    62     1    14
  2.5411526863810180E-01 a      1235     0    62     1    15
  2.7693079346993650E+00 a      1236     0    62     1    16
  7.3344137480346339E-01 a      1237     0    62     1    17
 -2.3301180550595024E-01 a      1238     0    62     1    18
  1.1569157979471055E-01 a      1239     0    62     1    19
 -1.3414980833314007E+00 a      1240     0    62     1    20
 -1.2613688250494637E+00 a      1241     0    63     1     1
  4.6833774989639830E-02 a      1242     0    63     1     2
  1.1349057826061200E+00 a      1243     0    63     1     3
  7.2757715780913212E-01 a      1244     0    63     1     4
  1.0198934400876838E+00 a      1245     0    63     1     5
  4.8000142736289375E-01 a      1246     0    63     1     6
 -1.2209069717987604E+00 a      1247     0    63     1     7
  7.4227137869283499E-01 a      1248     0    63     1     8
 -7.0452579165127968E-02 a      1249     0    63     1     9
 -8.0672846336505855E-01 a      1250     0    63     1    10
 -1.2418472131243905E+00 a      1251     0    63     1    11
 -1.5783109274691812E-01 a      1252     0    63     1    12
 -6.2804375421311537E-02 a      1253     0    63     1    13
 -7.0665044177345060E-01 a      1254     0    63     1    14
 -8.2032833391493065E-01 a      1255     0    63     1    15
  5.6891858782778559E-01 a      1256     0    63     1    16
  1.8028911242953080E-01 a      1257     0    63     1    17
 -1.1495914700576635E+00 a      1258     0    63     1    18
 -3.7724248839099545E-01 a      1259     0    63     1    19
 -1.1457215229751680E+00 a      1260     0    63     1    20
  3.1618658512443704E-01 a      1261     0    64     1     1
  3.5346197820951524E+00 a      1262     0    64     1     2
 -3.6237195070346659E-02 a      1263     0    64     1     3
 -1.7063185915565642E+00 a      1264     0    64     1     4
 -1.9270896359863943E+00 a      1265     0    64     1     5
  1.1210953375069832E+00 a      1266     0    64     1     6
  1.6084301302180723E-01 a      1267     0    64     1     7
 -9.9684416412315646E-01 a      1268     0    64     1     8
 -3.7552737162595257E-01 a      1269     0    64     1     9
 -1.2155952515131410E+00 a      1270     0    64     1    10
 -8.4869762189096098E-01 a      1271     0    64     1    11
  2.0314691845144823E+00 a      1272     0    64     1    12
 -2.5803943689036246E-01 a      1273     0    64     1    13
  1.2964841621272763E-01 a      1274     0    64     1    14
  8.0790314289815301E-01 a      1275     0    64     1    15
  3.3106620692760558E-01 a      1276     0    64     1    16
 -8.5747728756199326E-01 a      1277     0    64     1    17
 -1.1908700434054287E+00 a      1278     0    64     1    18
  6.8234256467857568E-01 a      1279     0    64     1    19
 -5.8663710292713922E-01 a      1280     0    64     1    20
 -9.8106504270137507E-01 a      1281     0    65     1     1
 -1.0837404572714990E+00 a      1282     0    65     1     2
  1.1328147399623636E+00 a      1283     0    65     1     3
  1.6802568588958075E-01 a      1284     0    65     1     4
  1.4908211099578768E+00 a      1285     0    65     1     5
  7.5056754742573006E-01 a      1286     0    65     1     6
 -4.3354813904439865E-01 a      1287     0    65     1     7
 -1.2438719947860868E+00 a      1288     0    65     1     8
 -1.2942467053701351E-01 a      1289     0    65     1     9
 -5.9096141936189905E-01 a      1290     0    65     1    10
  1.2684530757160697E+00 a      1291     0    65     1    11
  3.5756287082886756E-01 a      1292     0    65     1    12
 -6.1737182735466710E-02 a      1293     0    65     1    13
 -4.9627568056342547E-01 a      1294     0    65     1    14
 -3.8967269827232459E-01 a      1295     0    65     1    15
  1.8127346836671940E+00 a      1296     0    65     1    16
 -1.8491193324373512E+00 a      1297     0    65     1    17
 -2.9553657951438755E-01 a      1298     0    65     1    18
  1.0267446406501308E+00 a      1299     0    65     1    19
 -1.1203667650939157E-01 a      1300     0    65     1    20
 -1.7410922303384531E+00 a      1301     0    66     1     1
  5.2942806452135754E-02 a      1302     0    66     1     2
 -5.2015695951520524E-01 a      1303     0    66     1     3
  1.4984216187277274E-01 a      1304     0    66     1     4
  7.3084191521206954E-01 a      1305     0    66     1     5
 -1.2765092330853365E+00 a      1306     0    66     1     6
  1.0208349020054053E-01 a      1307     0    66     1     7
 -1.3222803119138860E+00 a      1308     0    66     1     8
 -7.9637156271918563E-01 a      1309     0    66     1     9
 -1.7654642590955369E-01 a      1310     0    66     1    10
 -1.0734653242077121E+00 a      1311     0    66     1    11
 -6.9085222504077681E-01 a      1312     0    66     1    12
 -1.2924589866960003E+00 a      1313     0    66     1    13
 -4.0979105781569880E-02 a      1314     0    66     1    14
  4.3653262591504044E-01 a      1315     0    66     1    15
  2.8212072650380932E-01 a      1316     0    66     1    16
 -1.9376383091251947E+00 a      1317     0    66     1    17
  2.3016597519428500E-01 a      1318     0    66     1    18
  1.7978638889933982E+00 a      1319     0    66     1    19
  1.0544205294624509E+00 a      1320     0    66     1    20
 -1.1248574478384830E+00 a      1321     0    67     1     1
  1.1070765275207135E+00 a      1322     0    67     1     2
 -2.0762077864238787E-01 a      1323     0    67     1     3
  1.7127139172946706E+00 a      1324     0    67     1     4
 -1.4881673038853535E-01 a      1325     0    67     1     5
 -4.1330774881273324E-01 a      1326     0    67     1     6
 -3.7186566809362731E-01 a      1327     0    67     1     7
 -5.1115193123305036E-01 a      1328     0    67     1     8
  2.5799670292037480E-01 a      1329     0    67     1     9
 -1.5004164590074056E+00 a      1330     0    67     1    10
  3.2725972930741548E-01 a      1331     0    67     1    11
 -2.7659112249725459E+00 a      1332     0    67     1    12
  1.3634483806480426E+00 a      1333     0    67     1    13
  1.1342722585094021E+00 a      1334     0    67     1    14
 -1.3914147990709247E+00 a      1335     0    67     1    15
  2.2222341518062261E+00 a      1336     0    67     1    16
  7.0781281150841346E-01 a      1337     0    67     1    17
 -8.5008501625129396E-01 a      1338     0    67     1    18
  3.5926087918078120E-01 a      1339     0    67     1    19
 -5.9691481491077258E-01 a      1340     0    67     1    20
  3.9802779989510595E-02 a      1341     0    68     1     1
 -7.3660288845204280E-01 a      1342     0    68     1     2
  6.5284167899187992E-02 a      1343     0    68     1     3
  8.0029710675754828E-01 a      1344     0    68     1     4
  1.8896538373335774E+00 a      1345     0    68     1     5
  3.6954811252399483E-01 a      1346     0    68     1     6
  4.4917513129717834E-01 a      1347     0    68     1     7
 -3.2399945866696056E-01 a      1348     0    68     1     8
 -1.3166189511449553E-01 a      1349     0    68     1     9
  1.4536003346248108E+00 a      1350     0    68     1    10
 -6.3416941797104498E-01 a      1351     0    68     1    11
 -7.4942416249742205E-01 a      1352     0    68     1    12
  5.3302898640408902E-01 a      1353     0    68     1    13
 -1.4048275259331227E+00 a      1354     0    68     1    14
 -2.2341456373441169E-02 a      1355     0    68     1    15
  8.2271279154118038E-01 a      1356     0    68     1    16
  1.6427414882591422E+00 a      1357     0    68     1    17
  7.0206104067348174E-01 a      1358     0    68     1    18
  1.3945395025865190E+00 a      1359     0    68     1    19
  9.1796716605150608E-01 a      1360     0    68     1    20
  8.9888998169482037E-01 a      1361     0    69     1     1
 -4.1426852716724027E-01 a      1362     0    69     1     2
 -2.0853199268408669E+00 a      1363     0    69     1     3
  1.8292885744388865E-01 a      1364     0    69     1     4
  7.4872076237863039E-01 a      1365     0    69     1     5
  1.6341836415770166E+00 a      1366     0    69     1     6
 -1.1318251005874127E+00 a      1367     0    69     1     7
  4.1421164185542941E-01 a      1368     0    69     1     8
 -1.9231662710333264E+00 a      1369     0    69     1     9
  1.6377398310811448E+00 a      1370     0    69     1    10
  1.4396172611185274E+00 a      1371     0    69     1    11
 -1.0199932662145179E+00 a      1372     0    69     1    12
 -5.2499502190651215E-01 a      1373     0    69     1    13
 -1.9065592690570654E+00 a      1374     0    69     1    14
  4.8981255914561234E-01 a      1375     0    69     1    15
 -2.0365528971346154E+00 a      1376     0    69     1    16
  5.1772948208097624E-01 a      1377     0    69     1    17
  1.4716097868772060E+00 a      1378     0    69     1    18
  9.6029467406890237E-02 a      1379     0    69     1    19
 -6.1440937937704304E-02 a      1380     0    69     1    20
 -1.6500798376208103E+00 a      1381     0    70     1     1
  1.5212854831688467E+00 a      1382     0    70     1     2
 -4.7157307034664786E-01 a      1383     0    70     1     3
  2.3121471647970587E-01 a      1384     0    70     1     4
  7.5106859570017737E-01 a      1385     0    70     1     5
 -3.9793067460291709E-01 a      1386     0    70     1     6
 -1.3914109429200039E+00 a      1387     0    70     1     7
  1.1720885288089762E+00 a      1388     0    70     1     8
 -1.8682094202112280E+00 a      1389     0    70     1     9
 -7.9525564977855859E-02 a      1390     0    70     1    10
 -8.7086809909058227E-01 a      1391     0    70     1    11
 -1.1507703164888268E+00 a      1392     0    70     1    12
  2.5887721172698455E+00 a      1393     0    70     1    13
  2.6270172831553895E-01 a      1394     0    70     1    14
 -2.0644831097388412E+00 a      1395     0    70     1    15
  2.1574474144518949E+00 a      1396     0    70     1    16
  4.8158170363032166E-01 a      1397     0    70     1    17
 -1.4146048356970260E+00 a      1398     0    70     1    18
 -5.6182591604144083E-01 a      1399     0    70     1    19
 -5.1292124877158979E-02 a      1400     0    70     1    20
  1.1688828869232959E+00 a      1401     0    71     1     1
 -2.4602060210542449E+00 a      1402     0    71     1     2
 -1.3475864650306801E+00 a      1403     0    71     1     3
 -1.9384559596999549E+00 a      1404     0    71     1     4
 -6.2128867636507912E-01 a      1405     0    71     1     5
  9.8889620691629643E-01 a      1406     0    71     1     6
  1.1063002186604087E+00 a      1407     0    71     1     7
 -5.3958939057866646E-02 a      1408     0    71     1     8
 -5.7199377542828733E-01 a      1409     0    71     1     9
  1.7052170265655867E-01 a      1410     0    71     1    10
 -3.0388513947135348E-01 a      1411     0    71     1    11
  1.5449293257837376E-02 a      1412     0    71     1    12
  1.3524741966145875E+00 a      1413     0    71     1    13
 -1.4902182957519825E+00 a      1414     0    71     1    14
 -1.2974686072271528E+00 a      1415     0    71     1    15
  1.3065461004189063E+00 a      1416     0    71     1    16
  9.3165153474569518E-01 a      1417     0    71     1    17
  1.3245731118698536E+00 a      1418     0    71     1    18
 -1.0192623968608418E-01 a      1419     0    71     1    19
 -3.0161462319949245E-01 a      1420     0    71     1    20
  1.9941862723968102E-02 a      1421     0    72     1     1
 -7.1548646850979536E-01 a      1422     0    72     1     2
 -2.1194229639504591E+00 a      1423     0    72     1     3
 -1.4024991587532374E+00 a      1424     0    72     1     4
  5.4488985751835395E-01 a      1425     0    72     1     5
 -4.1751034799886255E-01 a      1426     0    72     1     6
  4.3501138003533713E-01 a      1427     0    72     1     7
 -1.5745774958370216E+00 a      1428     0    72     1     8
 -1.7362377809404483E-01 a      1429     0    72     1     9
  1.1512038049969076E+00 a      1430     0    72     1    10
  7.0785469566735493E-01 a      1431     0    72     1    11
 -5.6619034137515190E-01 a      1432     0    72     1    12
  5.0856125127472973E-01 a      1433     0    72     1    13
 -1.7655677295452357E+00 a      1434     0    72     1    14
 -6.9127900373971929E-01 a      1435     0    72     1    15
  1.2133015766382589E+00 a      1436     0    72     1    16
  1.9877841346837566E-01 a      1437     0    72     1    17
  8.5627230646052921E-01 a      1438     0    72     1    18
  3.9673574570858616E-01 a      1439     0    72     1    19
  1.4497369048402559E-01 a      1440     0    72     1    20
  1.1838067274861186E+00 a      1441     0    73     1     1
  1.3757240654036704E+00 a      1442     0    73     1     2
 -1.4146922771040873E+00 a      1443     0    73     1     3
 -3.6408696890393744E-01 a      1444     0    73     1     4
  4.7568161827609856E-01 a      1445     0    73     1     5
 -1.7990151823124140E-01 a      1446     0    73     1     6
  6.5722692881660649E-01 a      1447     0    73     1     7
  7.8327137571682426E-01 a      1448     0    73     1     8
  1.9028249867111360E-01 a      1449     0    73     1     9
  1.0793088340786290E+00 a      1450     0    73     1    10
  2.7417119320097183E+00 a      1451     0    73     1    11
  5.6758199740302129E-01 a      1452     0    73     1    12
  7.6680830679636369E-01 a      1453     0    73     1    13
 -2.0109697335079199E-01 a      1454     0    73     1    14
  8.8045644463066586E-01 a      1455     0    73     1    15
 -1.3622442227718639E+00 a      1456     0    73     1    16
  1.1530691796970103E+00 a      1457     0    73     1    17
  1.3949220590920925E+00 a      1458     0    73     1    18
  1.4635544077471760E+00 a      1459     0    73     1    19
  3.1944619896390088E-02 a      1460     0    73     1    20
 -3.2009953491959564E-01 a      1461     0    74     1     1
  1.8363185220769951E+00 a      1462     0    74     1     2
 -8.7124908277365676E-01 a      1463     0    74     1     3
 -2.3369482384009466E+00 a      1464     0    74     1     4
 -5.5229164236069250E-01 a      1465     0    74     1     5
 -1.4101827587789667E-01 a      1466     0    74     1     6
  8.5217810613115550E-04 a      1467     0    74     1     7
  3.1293281263705088E+00 a      1468     0    74     1     8
 -1.2789558596406742E-01 a      1469     0    74     1     9
  1.5041822319446987E+00 a      1470     0    74     1    10
 -1.7050469182331967E+00 a      1471     0    74     1    11
  9.0767981503314638E-02 a      1472     0    74     1    12
  1.1518820676733412E+00 a      1473     0    74     1    13
  2.3312431890054228E-01 a      1474     0    74     1    14
 -9.9848668524018053E-02 a      1475     0    74     1    15
  3.0306874323630137E+00 a      1476     0    74     1    16
 -2.1721943561451837E+00 a      1477     0    74     1    17
  1.8295295857888074E+00 a      1478     0    74     1    18
 -2.1388689497487565E+00 a      1479     0    74     1    19
  1.3433286251971144E-01 a      1480     0    74     1    20
  1.6538656393178210E+00 a      1481     0    75     1     1
 -1.4694339115803248E+00 a      1482     0    75     1     2
  5.4745896670688976E-01 a      1483     0    75     1     3
 -6.2479226481501504E-01 a      1484     0    75     1     4
  8.6680787263936931E-01 a      1485     0    75     1     5
  7.3850480320065526E-01 a      1486     0    75     1     6
 -6.5911307829164689E-01 a      1487     0    75     1     7
 -4.1661686522767144E-01 a      1488     0    75     1     8
  2.9331081399598857E-01 a      1489     0    75     1     9
 -5.3285733620314835E-01 a      1490     0    75     1    10
  3.6560091229682716E+00 a      1491     0    75     1    11
 -8.6618124186540901E-01 a      1492     0    75     1    12
  1.1535597697249411E+00 a      1493     0    75     1    13
 -7.7599243466761003E-01 a      1494     0    75     1    14
  2.1596221180165736E+00 a      1495     0    75     1    15
  2.6033145356557039E+00 a      1496     0    75     1    16
 -4.4908094877247201E-01 a      1497     0    75     1    17
 -1.9770207788013483E+00 a      1498     0    75     1    18
 -1.6428150411599146E-02 a      1499     0    75     1    19
  1.3311768482230324E+00 a      1500     0    75     1    20
  4.2735562061017052E-01 a      1501     0    76     1     1
  6.3497126687782579E-01 a      1502     0    76     1     2
  4.3593995710613653E-01 a      1503     0    76     1     3
 -5.1590360625209086E-01 a      1504     0    76     1     4
 -5.2942983838887225E-01 a      1505     0    76     1     5
 -1.5059211717332976E+00 a      1506     0    76     1     6
 -3.1978148727854649E-02 a      1507     0    76     1     7
 -4.1206639146696922E-01 a      1508     0    76     1     8
 -1.9113016308501773E-01 a      1509     0    76     1     9
  9.3083392192688519E-01 a      1510     0    76     1    10
  7.7953537949545904E-01 a      1511     0    76     1    11
  9.6817068568347819E-01 a      1512     0    76     1    12
  1.9414101319789927E+00 a      1513     0    76     1    13
 -3.6767434434049957E-02 a      1514     0    76     1    14
 -4.1239464098895035E-01 a      1515     0    76     1    15
  1.1273688945625548E+00 a      1516     0    76     1    16
 -1.0415410189267407E+00 a      1517     0    76     1    17
 -2.0894171150887295E-01 a      1518     0    76     1    18
 -1.1476581931943841E+00 a      1519     0    76     1    19
  1.9212676698976181E+00 a      1520     0    76     1    20
  1.3434490802929158E-01 a      1521     0    77     1     1
  4.2745385204358621E-01 a      1522     0    77     1     2
  1.8575020973600329E+00 a      1523     0    77     1     3
  7.2058362787330288E-01 a      1524     0    77     1     4
  6.6654076686811048E-01 a      1525     0    77     1     5
 -1.6434113397016288E+00 a      1526     0    77     1     6
 -1.1996894516273350E-01 a      1527     0    77     1     7
  1.5568544405676116E-01 a      1528     0    77     1     8
  4.7250325518355374E-01 a      1529     0    77     1     9
  1.1946044829072875E+00 a      1530     0    77     1    10
  8.8153506560764061E-01 a      1531     0    77     1    11
  2.0061589410578790E-01 a      1532     0    77     1    12
  5.3522259554349283E-01 a      1533     0    77     1    13
  9.8569384255918979E-01 a      1534     0    77     1    14
 -5.6487567251072679E-01 a      1535     0    77     1    15
 -7.5247579554832578E-01 a      1536     0    77     1    16
  1.3632780558531343E+00 a      1537     0    77     1    17
 -8.4283576768398941E-02 a      1538     0    77     1    18
  3.8031106516626612E-01 a      1539     0    77     1    19
  1.5367692038435561E+00 a      1540     0    77     1    20
 -1.2221653482528796E+00 a      1541     0    78     1     1
  3.8552629831682017E-01 a      1542     0    78     1     2
 -3.0216268016016301E-01 a      1543     0    78     1     3
  3.2970964678994574E-01 a      1544     0    78     1     4
  9.3967439604674208E-01 a      1545     0    78     1     5
  2.4324695229934075E+00 a      1546     0    78     1     6
 -6.8358008581230956E-01 a      1547     0    78     1     7
  1.4823857924268227E+00 a      1548     0    78     1     8
 -1.1748383204892993E-01 a      1549     0    78     1     9
 -9.3349146146411266E-01 a      1550     0    78     1    10
 -2.4359121897358076E+00 a      1551     0    78     1    11
 -2.4426994491176401E-01 a      1552     0    78     1    12
  2.1147077354773067E+00 a      1553     0    78     1    13
  1.7097237465440895E-01 a      1554     0    78     1    14
 -2.8291550744954663E+00 a      1555     0    78     1    15
  2.2370747739261145E+00 a      1556     0    78     1    16
  7.8974008342814084E-01 a      1557     0    78     1    17
 -1.5174854490637195E+00 a      1558     0    78     1    18
 -3.4178010906213494E+00 a      1559     0    78     1    19
  2.3094340243445113E+00 a      1560     0    78     1    20
  1.5515280648458987E-01 a      1561     0    79     1     1
  3.4423361443807038E-01 a      1562     0    79     1     2
 -6.0015138425061665E-01 a      1563     0    79     1     3
  4.5812381127389702E-02 a      1564     0    79     1     4
 -1.6511292076127748E-01 a      1565     0    79     1     5
  2.1981701137506116E-01 a      1566     0    79     1     6
 -1.4252510998695813E+00 a      1567     0    79     1     7
 -4.4592522199335605E-01 a      1568     0    79     1     8
  2.2691810965250241E+00 a      1569     0    79     1     9
 -6.5512439724331273E-01 a      1570     0    79     1    10
 -1.8916019124088790E-01 a      1571     0    79     1    11
  7.8904451180711399E-01 a      1572     0    79     1    12
 -6.1413164776951612E-01 a      1573     0    79     1    13
  6.6161050730536919E-01 a      1574     0    79     1    14
  2.5852173448870084E+00 a      1575     0    79     1    15
 -2.5066927900319169E+00 a      1576     0    79     1    16
  2.5628300074245569E+00 a      1577     0    79     1    17
 -2.3049579392451280E-01 a      1578     0    79     1    18
  1.6572650521986767E+00 a      1579     0    79     1    19
 -2.2498029087108137E-01 a      1580     0    79     1    20
 -8.6316561743342970E-02 a      1581     0    80     1     1
  4.9717446820938288E-01 a      1582     0    80     1     2
 -3.6124411448361587E-01 a      1583     0    80     1     3
  7.2586330567774826E-01 a      1584     0    80     1     4
  3.7813629569397883E-01 a      1585     0    80     1     5
 -1.6389669433288230E+00 a      1586     0    80     1     6
  1.8775350711942522E+00 a      1587     0    80     1     7
  3.2400340342422468E-01 a      1588     0    80     1     8
 -9.6496408537003947E-02 a      1589     0    80     1     9
 -3.0509640811182882E-02 a      1590     0    80     1    10
 -1.4886625326274268E+00 a      1591     0    80     1    11
 -1.0668644021638705E+00 a      1592     0    80     1    12
  7.2276205156663254E-01 a      1593     0    80     1    13
 -3.6684224827582668E-01 a      1594     0    80     1    14
  2.0417997662327081E+00 a      1595     0    80     1    15
  3.8530335103190567E+00 a      1596     0    80     1    16
  3.8775776293240055E-01 a      1597     0    80     1    17
  5.2759112610065428E-01 a      1598     0    80     1    18
  2.4390140682232669E-01 a      1599     0    80     1    19
  2.4952118435148826E-01 a      1600     0    80     1    20
  8.7840512195403245E-02 a      1601     0    81     1     1
 -2.8299069682786543E-01 a      1602     0    81     1     2
 -5.1045490403283178E-01 a      1603     0    81     1     3
 -2.8276044044550391E-01 a      1604     0    81     1     4
 -6.6323820168149339E-01 a      1605     0    81     1     5
  9.1469268036234286E-01 a      1606     0    81     1     6
 -3.8663277703369353E-01 a      1607     0    81     1     7
  6.4541940447007162E-01 a      1608     0    81     1     8
 -2.5529181186247779E-01 a      1609     0    81     1     9
 -9.5569624446463264E-01 a      1610     0    81     1    10
  4.6085720225082760E-01 a      1611     0    81     1    11
  6.8831987091206914E-01 a      1612     0    81     1    12
  9.4333698772689767E-01 a      1613     0    81     1    13
 -1.0754745547875376E-01 a      1614     0    81     1    14
  2.9656616100701050E-01 a      1615     0    81     1    15
 -7.4024894470674296E-01 a      1616     0    81     1    16
 -4.6082013454948739E-01 a      1617     0    81     1    17
  3.2675673375099595E-01 a      1618     0    81     1    18
 -1.0376427318295580E+00 a      1619     0    81     1    19
 -5.4991771223339381E-01 a      1620     0    81     1    20
  4.6340682437015451E-01 a      1621     0    82     1     1
  4.4315865707397240E-01 a      1622     0    82     1     2
  2.9676886757186760E-01 a      1623     0    82     1     3
