################################################################################
# Neural network connection values (weights and biases).
################################################################################
# Col  Name       Description
################################################################################
# 1    connection Neural network connection value.
# 2    t          Connection type (a = weight, b = bias).
# 3    index      Index enumerating weights.
# 4    l_s        Starting point layer (end point layer for biases).
# 5    n_s        Starting point neuron in starting layer (end point neuron for biases).
# 6    l_e        End point layer.
# 7    n_e        End point neuron in end layer.
################################################################################
#                      1 2         3     4     5     6     7
#             connection t     index   l_s   n_s   l_e   n_e
############################################################
 -1.7877922834883402E+00 a         1     0     1     1     1
 -4.3667424149535872E-01 a         2     0     1     1     2
 -4.2205546701840219E-01 a         3     0     1     1     3
  4.1864444003787629E+00 a         4     0     1     1     4
 -9.8720363538088585E-01 a         5     0     1     1     5
  9.3430773648075005E-01 a         6     0     1     1     6
 -9.3969551966626552E-01 a         7     0     1     1     7
 -1.5019655776899070E+00 a         8     0     1     1     8
 -1.1778334082545117E+00 a         9     0     1     1     9
 -1.1608562831578717E+00 a        10     0     1     1    10
  1.6077107944484996E+00 a        11     0     1     1    11
 -2.2022243045063106E+00 a        12     0     1     1    12
  1.5428539996727816E-01 a        13     0     1     1    13
 -2.4695910018296376E+00 a        14     0     1     1    14
 -2.2042262279057012E+00 a        15     0     1     1    15
  5.3089926043416902E-01 a        16     0     1     1    16
  1.9477917294376150E+00 a        17     0     1     1    17
 -3.3194832833822905E+00 a        18     0     1     1    18
  7.8982390842774952E-01 a        19     0     1     1    19
  1.1553368914619794E-01 a        20     0     1     1    20
  5.6624331379238313E-01 a        21     0     2     1     1
 -1.9676625405052700E-01 a        22     0     2     1     2
  5.5276798118001613E-01 a        23     0     2     1     3
 -2.5199547190902647E-02 a        24     0     2     1     4
  4.3899188448382268E-03 a        25     0     2     1     5
 -8.1101634738604794E-02 a        26     0     2     1     6
  4.0937725829106725E-01 a        27     0     2     1     7
 -5.9910071197729697E-01 a        28     0     2     1     8
  1.9923603831315100E+00 a        29     0     2     1     9
 -7.1064564773640415E-01 a        30     0     2     1    10
 -4.0259891966163491E-01 a        31     0     2     1    11
  4.7804992599970529E-02 a        32     0     2     1    12
  5.5868029259863605E-01 a        33     0     2     1    13
  7.7845476856036211E-01 a        34     0     2     1    14
 -1.9572258643619914E-01 a        35     0     2     1    15
  1.2177075080443585E+00 a        36     0     2     1    16
  1.0875864484738702E+00 a        37     0     2     1    17
 -2.8344925984564644E+00 a        38     0     2     1    18
  2.4065789753371800E+00 a        39     0     2     1    19
 -3.8018021718409134E-01 a        40     0     2     1    20
 -5.4505326866791648E-01 a        41     0     3     1     1
  2.4604652071095643E+00 a        42     0     3     1     2
  1.3042421877214765E+00 a        43     0     3     1     3
  3.6013352810216864E-01 a        44     0     3     1     4
 -1.6645302959892332E+00 a        45     0     3     1     5
  7.0292570733365733E-01 a        46     0     3     1     6
 -8.6231595583224491E-02 a        47     0     3     1     7
  3.6195429141005051E+00 a        48     0     3     1     8
 -7.4677298350060040E-01 a        49     0     3     1     9
  2.9152209998013529E-01 a        50     0     3     1    10
  7.7839753309818527E-01 a        51     0     3     1    11
  4.3827975317680448E+00 a        52     0     3     1    12
  5.3796850310351907E-01 a        53     0     3     1    13
 -7.1981120814853432E-03 a        54     0     3     1    14
  2.1301512070763056E+00 a        55     0     3     1    15
  1.9609927968444307E+00 a        56     0     3     1    16
  1.1567483725079273E+00 a        57     0     3     1    17
 -2.2296586615449452E+00 a        58     0     3     1    18
 -1.7395350262881324E+00 a        59     0     3     1    19
 -3.8402444566644400E-01 a        60     0     3     1    20
 -1.2655201581475553E+00 a        61     0     4     1     1
 -9.0626432415349545E-01 a        62     0     4     1     2
  7.4238846865118879E-01 a        63     0     4     1     3
 -2.1986311480194956E+00 a        64     0     4     1     4
 -1.3734211775242835E+00 a        65     0     4     1     5
 -2.8126531097145469E-01 a        66     0     4     1     6
  1.2508466703123793E+00 a        67     0     4     1     7
 -8.3283730651064669E-01 a        68     0     4     1     8
  7.8457073253370635E-01 a        69     0     4     1     9
  2.6357039477326177E-01 a        70     0     4     1    10
  1.5052357286671794E-01 a        71     0     4     1    11
  4.2001335083485170E-01 a        72     0     4     1    12
  8.4752236004719805E-01 a        73     0     4     1    13
 -1.1429025599861643E-01 a        74     0     4     1    14
 -4.0897356771577194E+00 a        75     0     4     1    15
 -2.0315936140382851E+00 a        76     0     4     1    16
 -2.7363846550712414E+00 a        77     0     4     1    17
  1.5839815564373150E+00 a        78     0     4     1    18
 -2.3505147701323943E+00 a        79     0     4     1    19
 -6.0096547984239005E-03 a        80     0     4     1    20
 -6.1326312995434129E-01 a        81     0     5     1     1
 -8.7797737913811857E-01 a        82     0     5     1     2
 -1.1031684244592850E+00 a        83     0     5     1     3
  5.4817164488671766E-01 a        84     0     5     1     4
 -2.3868149599015778E-01 a        85     0     5     1     5
 -1.3175231788340899E-01 a        86     0     5     1     6
  1.4743052111784551E+00 a        87     0     5     1     7
 -1.1162613726252413E+00 a        88     0     5     1     8
  3.2696165121916714E+00 a        89     0     5     1     9
  2.1539989777164167E-01 a        90     0     5     1    10
 -8.9162145429293216E-01 a        91     0     5     1    11
 -1.8856648743997171E+00 a        92     0     5     1    12
 -1.7091246038230370E+00 a        93     0     5     1    13
  1.6592642488073468E+00 a        94     0     5     1    14
  3.6298209863982915E+00 a        95     0     5     1    15
  1.6862434517126550E+00 a        96     0     5     1    16
  1.3387520357297495E+00 a        97     0     5     1    17
  8.8195060650859214E-01 a        98     0     5     1    18
 -1.9092984938284356E+00 a        99     0     5     1    19
 -1.1535539676023734E+00 a       100     0     5     1    20
 -1.8590548687357031E-01 a       101     0     6     1     1
  1.6146401198337921E+00 a       102     0     6     1     2
  1.0473914338136663E+00 a       103     0     6     1     3
 -1.8836673762404434E+00 a       104     0     6     1     4
 -3.7119170850766825E-01 a       105     0     6     1     5
  1.1302791783485003E-01 a       106     0     6     1     6
 -1.1913684045920716E+00 a       107     0     6     1     7
 -3.2813268213757699E-02 a       108     0     6     1     8
  1.6991252584552768E-01 a       109     0     6     1     9
  1.2333059418062309E+00 a       110     0     6     1    10
 -5.7097376510494935E-01 a       111     0     6     1    11
 -8.3290971866102237E-02 a       112     0     6     1    12
 -2.4677149537702836E+00 a       113     0     6     1    13
  3.5746712086931176E-01 a       114     0     6     1    14
  1.6444058178757108E+00 a       115     0     6     1    15
  2.1834610607641233E-02 a       116     0     6     1    16
 -6.2014430614769844E-01 a       117     0     6     1    17
  5.8132870800065928E-01 a       118     0     6     1    18
  5.3444114668494280E-01 a       119     0     6     1    19
 -1.1453396429023672E+00 a       120     0     6     1    20
 -9.2952149498287104E-02 a       121     0     7     1     1
 -2.4888873963183553E-01 a       122     0     7     1     2
  8.3274845936268194E-01 a       123     0     7     1     3
 -2.2461326788013758E-01 a       124     0     7     1     4
 -5.4216183986077360E-01 a       125     0     7     1     5
 -2.6470975012402204E-01 a       126     0     7     1     6
 -8.5513068031502792E-01 a       127     0     7     1     7
  5.8161734904488149E-01 a       128     0     7     1     8
  2.3189958760421503E-01 a       129     0     7     1     9
 -1.5912853682710326E+00 a       130     0     7     1    10
  4.9282352694587317E-01 a       131     0     7     1    11
 -8.5304602642759175E-01 a       132     0     7     1    12
 -6.3412854169304056E-01 a       133     0     7     1    13
 -1.2153276195608029E+00 a       134     0     7     1    14
  3.2785935716011769E+00 a       135     0     7     1    15
  9.1786237196844367E-02 a       136     0     7     1    16
 -2.3065352376791270E-01 a       137     0     7     1    17
 -6.2912962357909796E-01 a       138     0     7     1    18
 -3.2178262018007686E+00 a       139     0     7     1    19
  1.6230425679458679E-01 a       140     0     7     1    20
 -1.9749910977652188E-01 a       141     0     8     1     1
 -1.0431265757902490E+00 a       142     0     8     1     2
 -2.9040466947945713E+00 a       143     0     8     1     3
  1.0369605863760141E-01 a       144     0     8     1     4
  1.8150926722433049E+00 a       145     0     8     1     5
  7.9593659324848032E-01 a       146     0     8     1     6
  2.3155425193185297E+00 a       147     0     8     1     7
 -1.3611943025542658E-01 a       148     0     8     1     8
  2.2901439300108839E+00 a       149     0     8     1     9
 -1.2400404298724848E+00 a       150     0     8     1    10
 -3.7045586374488415E-01 a       151     0     8     1    11
  3.0558798891196579E+00 a       152     0     8     1    12
 -9.3338467264490876E-01 a       153     0     8     1    13
  4.0572268549898105E-01 a       154     0     8     1    14
  4.2622907084416140E-01 a       155     0     8     1    15
 -1.5955698070403357E+00 a       156     0     8     1    16
  1.2712338437475574E+00 a       157     0     8     1    17
  2.7632455570392467E-01 a       158     0     8     1    18
  1.1705860569929301E+00 a       159     0     8     1    19
  4.3126201376511260E+00 a       160     0     8     1    20
 -1.7602232123164239E+00 a       161     0     9     1     1
 -2.1386124680585292E-01 a       162     0     9     1     2
 -5.8266773753298051E-01 a       163     0     9     1     3
 -1.3474770728926053E+00 a       164     0     9     1     4
  1.8148946015374692E+00 a       165     0     9     1     5
 -1.2368678643854956E+00 a       166     0     9     1     6
  1.0832729210247010E+00 a       167     0     9     1     7
  1.3966539526002889E-01 a       168     0     9     1     8
  6.3282534560809056E-01 a       169     0     9     1     9
 -1.4737152556326860E+00 a       170     0     9     1    10
 -1.9736777703918493E+00 a       171     0     9     1    11
 -1.4886774815438524E+00 a       172     0     9     1    12
  9.5981172409725879E-01 a       173     0     9     1    13
  1.6288103170164374E+00 a       174     0     9     1    14
 -1.4616192499269662E+00 a       175     0     9     1    15
  1.3135403245051662E+00 a       176     0     9     1    16
  3.6686972634649589E-01 a       177     0     9     1    17
 -5.2293736945289582E-01 a       178     0     9     1    18
  5.7493845341855108E-02 a       179     0     9     1    19
  1.4617402918860634E+00 a       180     0     9     1    20
  2.4780815499701864E-01 a       181     0    10     1     1
 -6.1206565496625431E-01 a       182     0    10     1     2
 -9.6937139121107352E-01 a       183     0    10     1     3
 -1.1138102323823287E-01 a       184     0    10     1     4
  1.7847398101122709E+00 a       185     0    10     1     5
  1.3882506235646586E+00 a       186     0    10     1     6
 -9.9797468865674166E-01 a       187     0    10     1     7
  9.3913653432927846E-02 a       188     0    10     1     8
  2.0034238944730181E+00 a       189     0    10     1     9
  6.6017626417404840E-01 a       190     0    10     1    10
  5.6341556485209587E-01 a       191     0    10     1    11
 -6.3948126864825150E-01 a       192     0    10     1    12
  5.3900419634354069E-01 a       193     0    10     1    13
 -9.9853487022364934E-02 a       194     0    10     1    14
  2.0064625491902097E+00 a       195     0    10     1    15
  2.2893858553323893E-01 a       196     0    10     1    16
 -1.6973077934637346E+00 a       197     0    10     1    17
 -2.8699915708488849E-01 a       198     0    10     1    18
 -7.3892993441406341E-01 a       199     0    10     1    19
  1.4626316254464380E+00 a       200     0    10     1    20
  8.5046364373018057E-01 a       201     0    11     1     1
 -1.0231870030184258E+00 a       202     0    11     1     2
 -5.5360909123893787E-01 a       203     0    11     1     3
 -8.6387243584399998E-01 a       204     0    11     1     4
 -5.7163788992189424E-01 a       205     0    11     1     5
  9.8543147707938417E-01 a       206     0    11     1     6
  9.2903433179242073E-03 a       207     0    11     1     7
  2.0916580698189224E+00 a       208     0    11     1     8
  1.3520888902741777E+00 a       209     0    11     1     9
  1.0565608020446038E+00 a       210     0    11     1    10
  1.6805048080286695E+00 a       211     0    11     1    11
  6.6045196271698869E-01 a       212     0    11     1    12
  2.5557959491538949E+00 a       213     0    11     1    13
 -5.2022571625663050E-01 a       214     0    11     1    14
 -1.1347774628035351E-03 a       215     0    11     1    15
  1.3746636948850899E+00 a       216     0    11     1    16
 -6.3537778682350965E-01 a       217     0    11     1    17
 -1.9326893996225600E+00 a       218     0    11     1    18
  6.1637217892413287E-01 a       219     0    11     1    19
  1.1594127089632753E+00 a       220     0    11     1    20
 -9.8998113556722156E-01 a       221     0    12     1     1
  1.9413043739577875E+00 a       222     0    12     1     2
 -1.6704405228655463E+00 a       223     0    12     1     3
  2.4652815561352859E+00 a       224     0    12     1     4
  1.6000322410227499E-02 a       225     0    12     1     5
 -7.7320057019808885E-01 a       226     0    12     1     6
 -1.3781469460320628E-01 a       227     0    12     1     7
 -1.5712639187560427E+00 a       228     0    12     1     8
 -1.9998220742534261E+00 a       229     0    12     1     9
  1.5681677427467844E+00 a       230     0    12     1    10
 -3.2908210785300476E+00 a       231     0    12     1    11
  2.5048220933138148E+00 a       232     0    12     1    12
  1.1860716840628376E-01 a       233     0    12     1    13
  1.7906459294432260E+00 a       234     0    12     1    14
  2.1664555858472627E+00 a       235     0    12     1    15
 -4.4436486709535922E-01 a       236     0    12     1    16
 -3.5900344292071975E+00 a       237     0    12     1    17
  2.9065811031571891E+00 a       238     0    12     1    18
 -1.3989261232308010E+00 a       239     0    12     1    19
 -2.2852669352907151E+00 a       240     0    12     1    20
  2.3393414130877763E-01 a       241     0    13     1     1
  7.9838159404749132E-01 a       242     0    13     1     2
  2.9049312693901657E+00 a       243     0    13     1     3
  1.4937077517473252E+00 a       244     0    13     1     4
 -3.0019843995298681E+00 a       245     0    13     1     5
  1.2420221828754221E+00 a       246     0    13     1     6
 -2.0758283093034482E+00 a       247     0    13     1     7
  1.7066107808075031E+00 a       248     0    13     1     8
 -4.2389104558797713E-01 a       249     0    13     1     9
  5.5167871830366388E-01 a       250     0    13     1    10
 -2.4449388652132745E-01 a       251     0    13     1    11
 -2.6727549370419270E+00 a       252     0    13     1    12
 -9.5119395267829654E-01 a       253     0    13     1    13
 -1.1993538661111711E+00 a       254     0    13     1    14
 -6.4923497704776723E-01 a       255     0    13     1    15
 -3.1952611297658762E+00 a       256     0    13     1    16
  6.3027320530758868E-01 a       257     0    13     1    17
 -1.9071765200339080E-01 a       258     0    13     1    18
 -1.3678808100075115E+00 a       259     0    13     1    19
 -2.4282526514015061E+00 a       260     0    13     1    20
 -1.3366548611639042E+00 a       261     0    14     1     1
 -3.3954917419776159E-01 a       262     0    14     1     2
 -1.3622328052292731E+00 a       263     0    14     1     3
  2.6138006580161210E+00 a       264     0    14     1     4
  1.8125361101570794E+00 a       265     0    14     1     5
 -7.9418226694729810E-01 a       266     0    14     1     6
 -8.2943320739270043E-01 a       267     0    14     1     7
 -1.4883445586536295E+00 a       268     0    14     1     8
 -1.0292850238107583E-01 a       269     0    14     1     9
  1.6040794641737610E+00 a       270     0    14     1    10
 -1.0466704869237540E+00 a       271     0    14     1    11
 -8.7435221383206263E-01 a       272     0    14     1    12
 -7.4538802491752754E-01 a       273     0    14     1    13
  2.1548897822674690E-01 a       274     0    14     1    14
  1.3559231640073688E+00 a       275     0    14     1    15
  2.7186623684606119E+00 a       276     0    14     1    16
 -5.5522186698561271E-01 a       277     0    14     1    17
 -2.3762019127532179E+00 a       278     0    14     1    18
  2.4635034602193033E+00 a       279     0    14     1    19
  1.8652442814930081E+00 a       280     0    14     1    20
  1.9482043992200084E+00 a       281     0    15     1     1
  3.3054269184818186E-01 a       282     0    15     1     2
  6.1313676617246260E-01 a       283     0    15     1     3
  1.1917103816577910E+00 a       284     0    15     1     4
  2.0904938855177213E+00 a       285     0    15     1     5
 -2.3886379939195351E-01 a       286     0    15     1     6
  1.3983031116207063E+00 a       287     0    15     1     7
 -1.4500205805597424E+00 a       288     0    15     1     8
 -1.1882692152948360E+00 a       289     0    15     1     9
  1.9752121913359219E-01 a       290     0    15     1    10
  2.2187658137177699E+00 a       291     0    15     1    11
 -6.5265891294767386E-01 a       292     0    15     1    12
  3.7922364720861732E+00 a       293     0    15     1    13
  7.6352874588328867E-01 a       294     0    15     1    14
  1.4425471236286165E+00 a       295     0    15     1    15
  6.1324032786803462E-01 a       296     0    15     1    16
 -9.3883766549591741E-01 a       297     0    15     1    17
 -1.6181616685968245E+00 a       298     0    15     1    18
  3.9002384900952404E-02 a       299     0    15     1    19
  4.7607106206635674E-01 a       300     0    15     1    20
  2.9764614950080972E+00 a       301     0    16     1     1
 -1.5258683318370747E+00 a       302     0    16     1     2
 -2.5101281670135935E+00 a       303     0    16     1     3
  2.5853009317668357E-01 a       304     0    16     1     4
 -5.9686349621925350E-01 a       305     0    16     1     5
  1.9237203853325209E+00 a       306     0    16     1     6
 -1.9085659015689416E+00 a       307     0    16     1     7
 -1.5777919805646192E+00 a       308     0    16     1     8
 -2.1481186068014968E-02 a       309     0    16     1     9
 -7.2121475235229915E-01 a       310     0    16     1    10
 -1.1449707598082492E-01 a       311     0    16     1    11
 -1.1917812610102067E-01 a       312     0    16     1    12
 -2.6676649831169086E+00 a       313     0    16     1    13
  1.7101218700224141E-01 a       314     0    16     1    14
  4.0694058480599038E+00 a       315     0    16     1    15
 -1.2140991113617821E+00 a       316     0    16     1    16
  6.8190293828040749E-01 a       317     0    16     1    17
  1.4525040294648699E+00 a       318     0    16     1    18
 -7.4136486168714122E-01 a       319     0    16     1    19
 -3.8840473465873049E+00 a       320     0    16     1    20
 -4.3728080307283417E+00 a       321     0    17     1     1
  7.5837530112141838E-01 a       322     0    17     1     2
  1.3059721651874250E+00 a       323     0    17     1     3
  3.8905695911545837E+00 a       324     0    17     1     4
 -7.3356501598457158E-01 a       325     0    17     1     5
 -1.3059664377314337E+00 a       326     0    17     1     6
  3.7604716116067372E-01 a       327     0    17     1     7
  8.4150003579480681E-01 a       328     0    17     1     8
 -2.0919913242158308E+00 a       329     0    17     1     9
 -1.0467233721688749E+00 a       330     0    17     1    10
 -2.1908675626778389E+00 a       331     0    17     1    11
 -9.8226577102008883E-01 a       332     0    17     1    12
 -2.8388538408937125E-01 a       333     0    17     1    13
 -1.7993853685189163E+00 a       334     0    17     1    14
 -3.0084921991384372E-01 a       335     0    17     1    15
  3.0454447358963730E+00 a       336     0    17     1    16
 -2.3613043107261471E+00 a       337     0    17     1    17
 -9.0467390289176286E-01 a       338     0    17     1    18
 -5.4196902461690599E-01 a       339     0    17     1    19
 -6.0192870647620311E-01 a       340     0    17     1    20
 -4.7828968458802318E-01 a       341     0    18     1     1
  1.3698666998775413E+00 a       342     0    18     1     2
  4.1029280070826006E+00 a       343     0    18     1     3
 -1.3249131783225074E+00 a       344     0    18     1     4
 -1.4433899275988082E+00 a       345     0    18     1     5
 -1.1331753357179126E+00 a       346     0    18     1     6
 -1.1936498105445903E+00 a       347     0    18     1     7
 -6.4563045053358448E-01 a       348     0    18     1     8
 -5.1682641230314785E-01 a       349     0    18     1     9
 -2.3101926083197473E+00 a       350     0    18     1    10
 -6.6476881584465874E-01 a       351     0    18     1    11
  1.7962465176552642E+00 a       352     0    18     1    12
 -1.9988639287980432E+00 a       353     0    18     1    13
  8.8077235956755165E-02 a       354     0    18     1    14
  3.3835762443083439E+00 a       355     0    18     1    15
 -1.4771686670645077E+00 a       356     0    18     1    16
 -6.0050364600502271E-01 a       357     0    18     1    17
  1.1063447514667759E+00 a       358     0    18     1    18
 -9.6089645360484777E-01 a       359     0    18     1    19
  3.1402206795032224E+00 a       360     0    18     1    20
 -6.4020094569375086E-01 a       361     0    19     1     1
 -2.5218125728605170E+00 a       362     0    19     1     2
 -1.3717932190044313E+00 a       363     0    19     1     3
 -5.3020876840554387E-01 a       364     0    19     1     4
  1.5972628893544474E+00 a       365     0    19     1     5
 -1.6290814798836311E+00 a       366     0    19     1     6
 -9.6570423035442698E-01 a       367     0    19     1     7
  1.9630706861368175E+00 a       368     0    19     1     8
  5.5785480688890854E-01 a       369     0    19     1     9
 -1.5235146526538318E-01 a       370     0    19     1    10
  8.3009828826269494E-01 a       371     0    19     1    11
 -2.1442887467671170E+00 a       372     0    19     1    12
  2.1684065148894949E-01 a       373     0    19     1    13
  3.2484413633663695E-02 a       374     0    19     1    14
 -7.4826630654405613E-01 a       375     0    19     1    15
 -2.1842023151890047E+00 a       376     0    19     1    16
  1.4495933090425623E+00 a       377     0    19     1    17
 -2.0664427946707171E+00 a       378     0    19     1    18
  2.5073496889997777E+00 a       379     0    19     1    19
  8.0912328768460839E-01 a       380     0    19     1    20
  3.4758742189142966E-01 a       381     0    20     1     1
  1.5707584716473463E-01 a       382     0    20     1     2
 -6.0840738378509410E-02 a       383     0    20     1     3
 -2.5548844889003743E+00 a       384     0    20     1     4
  1.4183459836022125E+00 a       385     0    20     1     5
  2.5805475600332723E+00 a       386     0    20     1     6
 -1.8444820778862221E+00 a       387     0    20     1     7
 -2.7695612984771834E+00 a       388     0    20     1     8
 -9.1462749966395673E-01 a       389     0    20     1     9
  4.6419833870592129E+00 a       390     0    20     1    10
  6.2436990510462387E-01 a       391     0    20     1    11
  1.0759465336494027E-01 a       392     0    20     1    12
  8.8375900866087909E-01 a       393     0    20     1    13
 -1.1162499098964591E+00 a       394     0    20     1    14
  5.6701962430955943E-01 a       395     0    20     1    15
 -1.5998731598470983E+00 a       396     0    20     1    16
  3.7249100659717405E+00 a       397     0    20     1    17
 -3.0361140797904458E+00 a       398     0    20     1    18
  2.5401037974129439E+00 a       399     0    20     1    19
 -1.3785783625371033E+00 a       400     0    20     1    20
 -1.8743029791470656E+00 a       401     0    21     1     1
 -1.1469879410669837E+00 a       402     0    21     1     2
  5.3745291615370572E-01 a       403     0    21     1     3
  1.0373750200015528E+00 a       404     0    21     1     4
 -1.2048833343133825E+00 a       405     0    21     1     5
 -1.2641262412030885E+00 a       406     0    21     1     6
  3.6195088328893099E-01 a       407     0    21     1     7
  1.4789507376610187E+00 a       408     0    21     1     8
 -1.5272377071608843E+00 a       409     0    21     1     9
 -3.6490721099702967E+00 a       410     0    21     1    10
  1.7774010113539596E+00 a       411     0    21     1    11
 -1.9370059468114551E+00 a       412     0    21     1    12
  2.4169590822507128E+00 a       413     0    21     1    13
 -7.9926975010693024E-01 a       414     0    21     1    14
 -1.6386702940379805E+00 a       415     0    21     1    15
 -1.5126953183818335E+00 a       416     0    21     1    16
 -5.6450006325333157E-01 a       417     0    21     1    17
  6.3191630097909002E-01 a       418     0    21     1    18
  2.5545160006968720E-01 a       419     0    21     1    19
 -6.2748740240415835E-01 a       420     0    21     1    20
  1.2613112623855443E+00 a       421     0    22     1     1
  2.3005206127647391E+00 a       422     0    22     1     2
  5.3286437558739885E-01 a       423     0    22     1     3
 -5.6868825585824978E-01 a       424     0    22     1     4
  5.0802988932077275E-01 a       425     0    22     1     5
  1.3792699645716990E+00 a       426     0    22     1     6
  1.0503085981854073E-01 a       427     0    22     1     7
  2.1471415585753579E+00 a       428     0    22     1     8
  1.8890767987482924E+00 a       429     0    22     1     9
  2.0640396656806241E+00 a       430     0    22     1    10
  3.9287303965845739E+00 a       431     0    22     1    11
 -1.3236241510450619E+00 a       432     0    22     1    12
 -2.4607726140055042E-01 a       433     0    22     1    13
 -3.9818893843941661E-01 a       434     0    22     1    14
 -2.1531025309597354E+00 a       435     0    22     1    15
 -3.6870840410271239E+00 a       436     0    22     1    16
  1.8106441558229516E+00 a       437     0    22     1    17
 -5.9489947863514625E-01 a       438     0    22     1    18
 -2.1776925752316396E+00 a       439     0    22     1    19
 -8.1426868135956110E-01 a       440     0    22     1    20
 -5.5872702145766151E-01 a       441     0    23     1     1
  1.6833804498965493E-01 a       442     0    23     1     2
 -7.2599682959954537E-01 a       443     0    23     1     3
 -5.0439765671702108E-01 a       444     0    23     1     4
 -1.4113794142466818E+00 a       445     0    23     1     5
  1.7240501698807957E+00 a       446     0    23     1     6
  9.2154789096842338E-01 a       447     0    23     1     7
 -1.3143581134523719E+00 a       448     0    23     1     8
  1.3661363024214952E+00 a       449     0    23     1     9
  8.8249614960488854E-01 a       450     0    23     1    10
  2.1555417756480253E+00 a       451     0    23     1    11
  3.7172825590685554E+00 a       452     0    23     1    12
 -3.9627842476724933E+00 a       453     0    23     1    13
  2.7213912299157745E+00 a       454     0    23     1    14
 -3.4017059980012421E-01 a       455     0    23     1    15
 -3.8102869794837352E-01 a       456     0    23     1    16
 -2.0011519394974356E-01 a       457     0    23     1    17
 -3.0022376298736368E+00 a       458     0    23     1    18
 -7.5501149089456276E-01 a       459     0    23     1    19
  7.7933210111854123E-01 a       460     0    23     1    20
 -2.9948855756659248E-01 a       461     0    24     1     1
 -1.4898499903609084E+00 a       462     0    24     1     2
 -1.2882339902199844E+00 a       463     0    24     1     3
 -1.2713297494208577E+00 a       464     0    24     1     4
 -2.1254797805116437E+00 a       465     0    24     1     5
  1.9713290304056019E+00 a       466     0    24     1     6
 -1.2658473177440180E-01 a       467     0    24     1     7
 -1.1143024232109393E+00 a       468     0    24     1     8
 -3.0046215966262485E-01 a       469     0    24     1     9
  2.3999566471931078E-01 a       470     0    24     1    10
  7.4064588007511956E-01 a       471     0    24     1    11
 -4.2905113369897352E+00 a       472     0    24     1    12
 -9.6383487109235411E-01 a       473     0    24     1    13
 -1.8725569665708437E+00 a       474     0    24     1    14
 -3.5039140101037920E+00 a       475     0    24     1    15
  4.3356553757422961E-01 a       476     0    24     1    16
 -1.3230395779749424E+00 a       477     0    24     1    17
  1.0143909392444457E+00 a       478     0    24     1    18
  1.4767331313533996E+00 a       479     0    24     1    19
  2.0050446399219468E+00 a       480     0    24     1    20
 -1.7960456128541020E+00 a       481     0    25     1     1
  1.0800191112086235E+00 a       482     0    25     1     2
  7.5604952689364024E-01 a       483     0    25     1     3
  1.8374753796962968E+00 a       484     0    25     1     4
 -6.0808001682746665E-02 a       485     0    25     1     5
  2.8910197498414298E+00 a       486     0    25     1     6
 -1.4094791700269835E+00 a       487     0    25     1     7
  3.7766323063436823E-02 a       488     0    25     1     8
  1.6690642213743090E+00 a       489     0    25     1     9
  1.0398580437053986E+00 a       490     0    25     1    10
 -2.9501160097475093E-01 a       491     0    25     1    11
  4.1047309780835689E-01 a       492     0    25     1    12
 -5.5873775893754318E-01 a       493     0    25     1    13
 -1.4702099387712648E+00 a       494     0    25     1    14
  4.4865309596093894E-01 a       495     0    25     1    15
  1.2144664678953716E+00 a       496     0    25     1    16
  2.5235274291708794E+00 a       497     0    25     1    17
 -2.6605657421478321E+00 a       498     0    25     1    18
  2.3535803970597491E+00 a       499     0    25     1    19
  1.7471934784518719E+00 a       500     0    25     1    20
 -1.2272271640144816E+00 a       501     0    26     1     1
  2.3730096630397521E-01 a       502     0    26     1     2
  2.1398319781335073E-01 a       503     0    26     1     3
  3.4999409716231620E+00 a       504     0    26     1     4
 -1.8711961129193941E+00 a       505     0    26     1     5
 -8.3209379292348296E-01 a       506     0    26     1     6
  2.8192594514335073E-01 a       507     0    26     1     7
  1.2978875425947867E+00 a       508     0    26     1     8
  2.9701010495783664E+00 a       509     0    26     1     9
  9.4055968193878270E-01 a       510     0    26     1    10
 -2.3079367679688914E+00 a       511     0    26     1    11
  3.0113107777256509E+00 a       512     0    26     1    12
  1.2567592950938630E-01 a       513     0    26     1    13
 -3.7273491264431563E-01 a       514     0    26     1    14
  1.2408689793747325E+00 a       515     0    26     1    15
 -3.7543363345953251E-01 a       516     0    26     1    16
  8.5593857136121410E-01 a       517     0    26     1    17
  3.9814249281959571E+00 a       518     0    26     1    18
  1.0762719530462364E+00 a       519     0    26     1    19
  3.7047674519659828E+00 a       520     0    26     1    20
 -1.1229485979676719E+00 a       521     0    27     1     1
  9.9790332328175657E-01 a       522     0    27     1     2
 -1.7498434809362876E-01 a       523     0    27     1     3
  9.1587280799930526E-01 a       524     0    27     1     4
  3.8792350644332427E+00 a       525     0    27     1     5
  2.7369777380389717E+00 a       526     0    27     1     6
  1.1735246743970862E+00 a       527     0    27     1     7
  2.5329975330008523E+00 a       528     0    27     1     8
  2.7623150365261715E+00 a       529     0    27     1     9
 -2.5834317488118583E+00 a       530     0    27     1    10
 -9.5170690179171835E-01 a       531     0    27     1    11
  2.3312532067117883E-01 a       532     0    27     1    12
 -1.4796709466712632E+00 a       533     0    27     1    13
 -1.5104995329746000E+00 a       534     0    27     1    14
 -1.2859136099695483E+00 a       535     0    27     1    15
 -1.1880484335878470E-01 a       536     0    27     1    16
  3.5046704221413099E+00 a       537     0    27     1    17
 -2.8234654386673483E+00 a       538     0    27     1    18
  3.6791949849953824E+00 a       539     0    27     1    19
 -5.1351722986391712E-01 a       540     0    27     1    20
  2.0010315233424452E+00 a       541     0    28     1     1
 -1.7294713947345774E+00 a       542     0    28     1     2
  1.6528198574588918E-01 a       543     0    28     1     3
 -2.6867102830212692E+00 a       544     0    28     1     4
 -1.3519326028096082E-01 a       545     0    28     1     5
  8.0315338120239477E-01 a       546     0    28     1     6
  9.1466409527575832E-01 a       547     0    28     1     7
 -1.1112332259145126E+00 a       548     0    28     1     8
 -4.2954226034475007E-01 a       549     0    28     1     9
  1.6728530836783484E+00 a       550     0    28     1    10
  2.3718415465182940E+00 a       551     0    28     1    11
  2.8988188673816366E+00 a       552     0    28     1    12
  2.9031599301155997E-01 a       553     0    28     1    13
 -2.8824508457588167E+00 a       554     0    28     1    14
 -4.2704901457496536E-01 a       555     0    28     1    15
 -1.6537892862853825E+00 a       556     0    28     1    16
  7.4541781744048985E-01 a       557     0    28     1    17
  1.6857469034465034E+00 a       558     0    28     1    18
 -8.3185019937592852E-01 a       559     0    28     1    19
 -7.9409161250229476E-01 a       560     0    28     1    20
 -4.4871673031952580E-01 a       561     0    29     1     1
  3.0195596357761861E-01 a       562     0    29     1     2
  5.7013358687614013E-01 a       563     0    29     1     3
 -4.9323569942398737E-01 a       564     0    29     1     4
  2.8570505611391378E-01 a       565     0    29     1     5
  7.0741461409653636E-02 a       566     0    29     1     6
  3.0404559676689091E-01 a       567     0    29     1     7
  1.3840486420775397E+00 a       568     0    29     1     8
 -4.6210876620414837E-01 a       569     0    29     1     9
  5.0958619943889494E-01 a       570     0    29     1    10
 -1.0511156605430894E+00 a       571     0    29     1    11
 -2.8960794074238999E-01 a       572     0    29     1    12
 -2.3092260647861074E-01 a       573     0    29     1    13
  4.7596031106860082E-01 a       574     0    29     1    14
 -2.8451283222082746E+00 a       575     0    29     1    15
  5.9647463308644877E-01 a       576     0    29     1    16
 -6.8910483414304824E-01 a       577     0    29     1    17
 -7.3687352362159630E-01 a       578     0    29     1    18
 -4.3847846916549804E-01 a       579     0    29     1    19
 -1.1548500979809007E+00 a       580     0    29     1    20
  9.9809820619574818E-01 a       581     0    30     1     1
 -1.1533866428587141E+00 a       582     0    30     1     2
  2.0024706916026003E+00 a       583     0    30     1     3
 -2.0491524841767301E+00 a       584     0    30     1     4
 -8.7376121295329387E-02 a       585     0    30     1     5
 -3.5765952281244884E-01 a       586     0    30     1     6
 -2.6374802494326799E-01 a       587     0    30     1     7
 -3.9875781903783414E-01 a       588     0    30     1     8
  2.9870769357522631E-01 a       589     0    30     1     9
 -1.6298729002825927E+00 a       590     0    30     1    10
 -2.3943447534925003E-01 a       591     0    30     1    11
  1.2393540433037470E-01 a       592     0    30     1    12
 -1.2231244859659789E+00 a       593     0    30     1    13
  6.9595683113987350E-01 a       594     0    30     1    14
  1.2072415165054293E+00 a       595     0    30     1    15
 -3.8726835118216030E-01 a       596     0    30     1    16
  9.4151528241824189E-01 a       597     0    30     1    17
  2.8641744438412348E-01 a       598     0    30     1    18
  1.1429067855978312E+00 a       599     0    30     1    19
  8.4919371629996199E-01 a       600     0    30     1    20
 -8.0885202414550950E-01 a       601     0    31     1     1
  1.4109121617478708E+00 a       602     0    31     1     2
 -1.6737918761196651E+00 a       603     0    31     1     3
 -1.4937749157637030E+00 a       604     0    31     1     4
 -1.7389181897856407E-01 a       605     0    31     1     5
 -6.8226269846816734E-01 a       606     0    31     1     6
 -2.4549221970716570E+00 a       607     0    31     1     7
  9.4599940690279161E-01 a       608     0    31     1     8
 -1.4958622021630881E+00 a       609     0    31     1     9
 -1.7242669063754457E+00 a       610     0    31     1    10
  2.4727233864866811E-02 a       611     0    31     1    11
  8.9485384072783600E-02 a       612     0    31     1    12
 -1.2681666271537613E+00 a       613     0    31     1    13
 -3.5191989429352026E+00 a       614     0    31     1    14
 -6.0025501516269175E-01 a       615     0    31     1    15
 -1.7561580184942949E-01 a       616     0    31     1    16
  5.9319451242071353E-01 a       617     0    31     1    17
  2.5508971878752180E+00 a       618     0    31     1    18
 -5.0562924192570669E-01 a       619     0    31     1    19
 -9.9986531823023347E-02 a       620     0    31     1    20
  3.5119557483971708E+00 a       621     0    32     1     1
 -2.0434353599723969E+00 a       622     0    32     1     2
 -7.2725150466651967E-01 a       623     0    32     1     3
 -1.0546540331706709E+00 a       624     0    32     1     4
  1.8778849428583002E+00 a       625     0    32     1     5
 -2.3146275580375639E+00 a       626     0    32     1     6
  2.9700113381126929E+00 a       627     0    32     1     7
  1.0350061211793926E+00 a       628     0    32     1     8
  9.0174115851241921E-01 a       629     0    32     1     9
 -3.9370635355341049E-01 a       630     0    32     1    10
  4.2036627688277733E-01 a       631     0    32     1    11
  2.4349743570165833E-01 a       632     0    32     1    12
  1.0167793032419825E+00 a       633     0    32     1    13
 -2.4779299915906785E+00 a       634     0    32     1    14
 -5.8930419455915295E-01 a       635     0    32     1    15
  1.1100260285769408E+00 a       636     0    32     1    16
  2.3763665611040516E+00 a       637     0    32     1    17
 -6.7447149487693880E-01 a       638     0    32     1    18
  2.1226067325738507E+00 a       639     0    32     1    19
  3.0781441368745721E+00 a       640     0    32     1    20
  1.0242199229372118E+00 a       641     0    33     1     1
  2.0114121296130505E+00 a       642     0    33     1     2
  8.2848941026412837E-01 a       643     0    33     1     3
  4.2555372098329136E-01 a       644     0    33     1     4
 -1.9428843424438258E-01 a       645     0    33     1     5
  1.1302879169332083E+00 a       646     0    33     1     6
 -1.1221517012192971E-01 a       647     0    33     1     7
 -1.4364095087912840E-01 a       648     0    33     1     8
 -1.3596955274585949E+00 a       649     0    33     1     9
 -3.6019840791038499E-01 a       650     0    33     1    10
 -1.0213722999866379E+00 a       651     0    33     1    11
  5.6322428196664531E-01 a       652     0    33     1    12
 -1.6551651103418982E-01 a       653     0    33     1    13
  1.8870248567221488E+00 a       654     0    33     1    14
  4.4081865846350099E-02 a       655     0    33     1    15
 -2.1008440106590114E+00 a       656     0    33     1    16
 -6.2521581645650304E-01 a       657     0    33     1    17
 -2.1773630466031291E-01 a       658     0    33     1    18
  9.3110180767870566E-03 a       659     0    33     1    19
  1.6309557947610214E+00 a       660     0    33     1    20
  6.6541720274123606E-01 a       661     0    34     1     1
 -7.7805780154246917E-01 a       662     0    34     1     2
  9.2900264430538337E-01 a       663     0    34     1     3
 -8.1106025371799484E-01 a       664     0    34     1     4
 -8.9835139910105344E-01 a       665     0    34     1     5
 -1.6431639523535430E-01 a       666     0    34     1     6
  8.6446724504354622E-01 a       667     0    34     1     7
  2.8556791843415968E-01 a       668     0    34     1     8
 -1.4462631905709906E+00 a       669     0    34     1     9
 -1.7572837103029746E+00 a       670     0    34     1    10
  6.1229776091551524E-01 a       671     0    34     1    11
 -2.5688645684315603E-01 a       672     0    34     1    12
 -7.9643611419380103E-02 a       673     0    34     1    13
 -1.4806035437938416E+00 a       674     0    34     1    14
 -1.4767750871608223E+00 a       675     0    34     1    15
  1.0990038161720994E+00 a       676     0    34     1    16
  2.9861174285624942E-01 a       677     0    34     1    17
 -6.6108195275894144E-01 a       678     0    34     1    18
  2.1618203317342535E-01 a       679     0    34     1    19
  2.4970666597759705E+00 a       680     0    34     1    20
  7.3902968703076644E-01 a       681     0    35     1     1
  3.3888081130710329E-01 a       682     0    35     1     2
  1.4533986360178591E-02 a       683     0    35     1     3
 -4.5300066767408848E-01 a       684     0    35     1     4
 -4.8176776012810840E-01 a       685     0    35     1     5
  9.3436355097877799E-01 a       686     0    35     1     6
 -1.7398997911062548E+00 a       687     0    35     1     7
  3.6661455559850320E-01 a       688     0    35     1     8
 -1.4818178700489784E+00 a       689     0    35     1     9
  3.0488768810098510E-01 a       690     0    35     1    10
  9.6160329117999788E-01 a       691     0    35     1    11
  9.3279829188918237E-02 a       692     0    35     1    12
 -9.1725533591605335E-01 a       693     0    35     1    13
  2.1838983079421488E+00 a       694     0    35     1    14
  7.1046127869654818E-01 a       695     0    35     1    15
 -1.7435278700544021E+00 a       696     0    35     1    16
  3.0790229392335333E-01 a       697     0    35     1    17
 -2.4013646898611263E-01 a       698     0    35     1    18
  1.0087685577967089E+00 a       699     0    35     1    19
  1.4015417793063196E+00 a       700     0    35     1    20
  5.2711122009370326E-01 a       701     0    36     1     1
 -2.6926870089068633E-01 a       702     0    36     1     2
  1.1202885243976166E+00 a       703     0    36     1     3
 -1.2809841780612750E+00 a       704     0    36     1     4
 -1.0543063328007649E+00 a       705     0    36     1     5
 -5.8122235149747292E-01 a       706     0    36     1     6
 -1.1326249289060553E+00 a       707     0    36     1     7
  1.7915963862100430E+00 a       708     0    36     1     8
 -1.1431608282230745E+00 a       709     0    36     1     9
 -4.0948605402692045E-01 a       710     0    36     1    10
  4.9063282846315898E-01 a       711     0    36     1    11
 -1.6059611500235563E-01 a       712     0    36     1    12
 -3.3553101300822991E-01 a       713     0    36     1    13
  3.3431091952491476E-01 a       714     0    36     1    14
 -2.0137462233270975E-01 a       715     0    36     1    15
 -9.7026722219702752E-02 a       716     0    36     1    16
  3.5662734453399131E-01 a       717     0    36     1    17
  2.5090504668285777E-02 a       718     0    36     1    18
  2.8369964969834827E-01 a       719     0    36     1    19
  4.6895943303760040E-01 a       720     0    36     1    20
  6.1790020777091970E-01 a       721     0    37     1     1
  1.6386630548254835E+00 a       722     0    37     1     2
 -4.6228443468963060E-01 a       723     0    37     1     3
  1.3611041941280542E-02 a       724     0    37     1     4
  4.7639896440781704E-01 a       725     0    37     1     5
  9.2759450701264776E-02 a       726     0    37     1     6
 -1.0238260683245193E+00 a       727     0    37     1     7
  1.8811427337987583E+00 a       728     0    37     1     8
  1.1636972832311610E+00 a       729     0    37     1     9
 -3.8948585139803843E-01 a       730     0    37     1    10
  3.3008315930875004E-01 a       731     0    37     1    11
 -3.3256001946382635E-01 a       732     0    37     1    12
 -1.3753772260884654E+00 a       733     0    37     1    13
  1.2674561237624886E+00 a       734     0    37     1    14
 -3.2833745590979707E-01 a       735     0    37     1    15
  7.0679100124509875E-01 a       736     0    37     1    16
  1.8605738007602812E+00 a       737     0    37     1    17
  3.2231333264907752E-01 a       738     0    37     1    18
  1.2616376149047019E+00 a       739     0    37     1    19
  1.1466695240041374E+00 a       740     0    37     1    20
  4.4990313866091725E-01 a       741     0    38     1     1
 -1.0454234947967254E+00 a       742     0    38     1     2
  5.4815127954988463E-01 a       743     0    38     1     3
 -1.9624540487766590E-01 a       744     0    38     1     4
 -5.3156618153502377E-01 a       745     0    38     1     5
 -6.7310910461379636E-01 a       746     0    38     1     6
  7.8477037035901076E-01 a       747     0    38     1     7
  1.5562002895739402E+00 a       748     0    38     1     8
  3.2699241530386974E-01 a       749     0    38     1     9
  1.7405802485968667E+00 a       750     0    38     1    10
 -5.6725590093596223E-01 a       751     0    38     1    11
 -2.2463075831312804E+00 a       752     0    38     1    12
  1.3346421637655133E+00 a       753     0    38     1    13
 -1.4138811109169342E+00 a       754     0    38     1    14
 -5.5677417234851556E-01 a       755     0    38     1    15
  5.7642452266787492E-01 a       756     0    38     1    16
  9.0588555037906882E-01 a       757     0    38     1    17
 -2.5527317184865955E-01 a       758     0    38     1    18
 -1.3600875288671401E+00 a       759     0    38     1    19
 -6.2227296909627128E-01 a       760     0    38     1    20
 -1.7810639166708284E-01 a       761     0    39     1     1
 -1.4268473573469578E+00 a       762     0    39     1     2
  3.6906090557143012E-01 a       763     0    39     1     3
  9.4034600630328757E-01 a       764     0    39     1     4
  5.6522699169054758E-01 a       765     0    39     1     5
 -7.9219786469760400E-01 a       766     0    39     1     6
  1.3712932222982250E+00 a       767     0    39     1     7
  1.5615769552794097E+00 a       768     0    39     1     8
  1.4008209919598815E+00 a       769     0    39     1     9
  3.9929048719409432E-01 a       770     0    39     1    10
  4.0691011602530963E-01 a       771     0    39     1    11
 -1.3063829091183681E+00 a       772     0    39     1    12
  5.4165730147070335E-01 a       773     0    39     1    13
 -3.8981971349461508E+00 a       774     0    39     1    14
  1.5505392566394600E+00 a       775     0    39     1    15
 -7.6810240546844244E-01 a       776     0    39     1    16
 -5.6363769910221551E-01 a       777     0    39     1    17
 -2.7984298081553436E+00 a       778     0    39     1    18
 -6.6462520835784711E-01 a       779     0    39     1    19
 -1.8233682910607971E+00 a       780     0    39     1    20
  2.0326904959821976E+00 a       781     0    40     1     1
  1.8107067133990502E+00 a       782     0    40     1     2
 -1.2987169258078155E+00 a       783     0    40     1     3
  6.3376801470947230E-01 a       784     0    40     1     4
 -1.2753138550110181E+00 a       785     0    40     1     5
  7.7334369699969518E-01 a       786     0    40     1     6
  8.0759468670539392E-01 a       787     0    40     1     7
  6.8367367946438184E-01 a       788     0    40     1     8
  2.7490180775913919E+00 a       789     0    40     1     9
  1.3136101708076633E+00 a       790     0    40     1    10
 -1.4901488127862700E-01 a       791     0    40     1    11
  3.7543820151234425E-01 a       792     0    40     1    12
  2.5522521526575939E+00 a       793     0    40     1    13
  1.6499848319900196E-01 a       794     0    40     1    14
  2.2121439677397534E-01 a       795     0    40     1    15
 -7.1699561045987559E-01 a       796     0    40     1    16
  2.0861780932411245E-01 a       797     0    40     1    17
 -2.0461870481900508E+00 a       798     0    40     1    18
  3.1704806548862599E+00 a       799     0    40     1    19
 -2.3299550702973897E+00 a       800     0    40     1    20
  2.3086189497581824E+00 a       801     0    41     1     1
 -1.3474931941980179E+00 a       802     0    41     1     2
 -1.2122108850937514E+00 a       803     0    41     1     3
 -7.4116767854021692E-01 a       804     0    41     1     4
 -1.4630995331423648E+00 a       805     0    41     1     5
 -1.9769298865527709E+00 a       806     0    41     1     6
  4.0378609428703971E-01 a       807     0    41     1     7
  6.4551353670516642E-01 a       808     0    41     1     8
  5.1289934924039093E-01 a       809     0    41     1     9
 -6.8937727592807307E-02 a       810     0    41     1    10
  3.9750464733606999E-01 a       811     0    41     1    11
 -4.4914367655522041E+00 a       812     0    41     1    12
 -3.2984587539179144E-01 a       813     0    41     1    13
 -2.0105879438092447E+00 a       814     0    41     1    14
 -1.1958250056413265E-01 a       815     0    41     1    15
  2.8729656547475861E+00 a       816     0    41     1    16
  1.2459080336295205E+00 a       817     0    41     1    17
  9.9730771373638427E-01 a       818     0    41     1    18
  1.9308824868389634E+00 a       819     0    41     1    19
  3.3823060400327849E+00 a       820     0    41     1    20
  8.5803376833689515E-01 a       821     0    42     1     1
 -2.7446510214559799E-01 a       822     0    42     1     2
 -9.8571201942731834E-01 a       823     0    42     1     3
 -1.7300907892010198E+00 a       824     0    42     1     4
 -9.0061161884615326E-01 a       825     0    42     1     5
 -1.3210043275462255E-01 a       826     0    42     1     6
 -5.0351485846498643E-02 a       827     0    42     1     7
 -3.7104150693402943E-01 a       828     0    42     1     8
 -1.6506107615738306E+00 a       829     0    42     1     9
 -1.1584275790347791E+00 a       830     0    42     1    10
 -1.0031379599986752E-01 a       831     0    42     1    11
 -1.1530716572324304E+00 a       832     0    42     1    12
 -3.8247369160799100E-01 a       833     0    42     1    13
  1.4244523122777314E-01 a       834     0    42     1    14
 -1.0178658275557337E+00 a       835     0    42     1    15
 -1.7546797299969090E+00 a       836     0    42     1    16
  2.8409476004280343E-01 a       837     0    42     1    17
 -1.6095597782159077E+00 a       838     0    42     1    18
  9.8108912744531471E-02 a       839     0    42     1    19
  8.9420046875592540E-01 a       840     0    42     1    20
 -5.1128780151506570E-01 a       841     0    43     1     1
  7.0254723470586533E-01 a       842     0    43     1     2
  7.9820371566077286E-01 a       843     0    43     1     3
  9.6568295525168923E-01 a       844     0    43     1     4
 -1.7372704259288174E-01 a       845     0    43     1     5
 -1.5088292907226502E+00 a       846     0    43     1     6
  2.7554091386483537E-01 a       847     0    43     1     7
  5.1567694903077310E-01 a       848     0    43     1     8
  1.2355303099349255E+00 a       849     0    43     1     9
  2.2524682091690220E+00 a       850     0    43     1    10
 -1.0263439412567523E+00 a       851     0    43     1    11
  2.9198221953963477E-01 a       852     0    43     1    12
 -9.5602767282312173E-01 a       853     0    43     1    13
  2.2721703184421429E+00 a       854     0    43     1    14
 -2.0063453345382563E+00 a       855     0    43     1    15
  4.8886647901552660E-01 a       856     0    43     1    16
 -2.0429138313141390E-01 a       857     0    43     1    17
  1.0360358139883115E+00 a       858     0    43     1    18
  1.0354063922175283E+00 a       859     0    43     1    19
  2.7380453663928156E-01 a       860     0    43     1    20
  9.9219323913260091E-02 a       861     0    44     1     1
 -5.0876894170494036E-01 a       862     0    44     1     2
 -1.6921898446568786E+00 a       863     0    44     1     3
  2.5824414732245788E+00 a       864     0    44     1     4
  1.7296176073622318E+00 a       865     0    44     1     5
 -5.0181964242017141E-01 a       866     0    44     1     6
 -1.5925458162165405E+00 a       867     0    44     1     7
  2.3490880853413549E+00 a       868     0    44     1     8
 -5.9601080897259545E-02 a       869     0    44     1     9
 -2.4571509220665447E-01 a       870     0    44     1    10
  1.8570780351865190E-01 a       871     0    44     1    11
 -6.8344230528915106E-01 a       872     0    44     1    12
  2.2137561890012325E+00 a       873     0    44     1    13
 -5.1309947990811766E-01 a       874     0    44     1    14
  3.9979313385702964E-01 a       875     0    44     1    15
 -1.0265454663529929E+00 a       876     0    44     1    16
 -5.0633937445220434E-01 a       877     0    44     1    17
  3.0470901920825439E+00 a       878     0    44     1    18
  1.4033940633104307E+00 a       879     0    44     1    19
  1.3918320807680467E+00 a       880     0    44     1    20
 -2.4531524322655235E-01 a       881     0    45     1     1
 -2.3550155204064022E-01 a       882     0    45     1     2
 -3.1346561927632355E-02 a       883     0    45     1     3
 -6.9071665417015415E-01 a       884     0    45     1     4
  2.7355041910888744E-01 a       885     0    45     1     5
  6.5874259640994037E-01 a       886     0    45     1     6
 -1.6558140109796020E+00 a       887     0    45     1     7
  1.7746224013842176E+00 a       888     0    45     1     8
 -5.6208512974550384E-01 a       889     0    45     1     9
  1.4848235078926746E+00 a       890     0    45     1    10
  1.0204591411242865E+00 a       891     0    45     1    11
  2.2458083712819790E-01 a       892     0    45     1    12
 -5.4467920760563426E-01 a       893     0    45     1    13
  9.1265574597263954E-01 a       894     0    45     1    14
  1.3828912639075608E+00 a       895     0    45     1    15
 -1.8642701980215113E+00 a       896     0    45     1    16
 -1.7919140741057629E-01 a       897     0    45     1    17
 -5.6846973294077585E-01 a       898     0    45     1    18
  1.0662476943178135E-01 a       899     0    45     1    19
  2.1268681498750883E-01 a       900     0    45     1    20
  4.3837783080128645E-01 a       901     0    46     1     1
 -1.0009413144286816E+00 a       902     0    46     1     2
  1.0870001135566711E+00 a       903     0    46     1     3
 -1.0252874034535697E-01 a       904     0    46     1     4
 -4.1044892415315104E-01 a       905     0    46     1     5
 -3.1840315742293301E-01 a       906     0    46     1     6
 -9.9481674836207734E-01 a       907     0    46     1     7
  1.1140258937439054E+00 a       908     0    46     1     8
 -9.7445684386269027E-01 a       909     0    46     1     9
 -6.5864656854631987E-01 a       910     0    46     1    10
  1.1102467287953908E+00 a       911     0    46     1    11
 -4.1799027438532271E-01 a       912     0    46     1    12
 -5.8625932474057740E-03 a       913     0    46     1    13
 -5.1978523263931986E-02 a       914     0    46     1    14
 -1.5278700778940251E+00 a       915     0    46     1    15
 -2.7336341475856291E-01 a       916     0    46     1    16
 -4.9125938874137087E-01 a       917     0    46     1    17
  4.3796092504837181E-01 a       918     0    46     1    18
 -9.7342666186035909E-01 a       919     0    46     1    19
  1.1608934135776581E+00 a       920     0    46     1    20
  1.5967324839689097E+00 a       921     0    47     1     1
  1.0867451491374907E+00 a       922     0    47     1     2
  9.0360703729310754E-01 a       923     0    47     1     3
  4.0861106148025056E-01 a       924     0    47     1     4
 -6.5916141228540304E-01 a       925     0    47     1     5
  1.1975659397644500E+00 a       926     0    47     1     6
 -1.0447211334526094E+00 a       927     0    47     1     7
  1.4323834003311446E+00 a       928     0    47     1     8
 -1.2517584310910939E+00 a       929     0    47     1     9
 -6.0009215089190389E-02 a       930     0    47     1    10
  1.7467308618810096E+00 a       931     0    47     1    11
  8.7921732429339650E-01 a       932     0    47     1    12
 -1.4271822993125898E+00 a       933     0    47     1    13
 -1.9995668041912762E+00 a       934     0    47     1    14
 -1.9213509893618701E+00 a       935     0    47     1    15
 -6.4039236375173370E-01 a       936     0    47     1    16
 -1.1461236091897318E+00 a       937     0    47     1    17
 -7.6071390406680328E-01 a       938     0    47     1    18
  4.0436689552990451E-01 a       939     0    47     1    19
  3.4468339174638818E-01 a       940     0    47     1    20
  3.0339268064104369E-01 a       941     0    48     1     1
  9.8702793117814636E-01 a       942     0    48     1     2
 -2.3793446215371519E-01 a       943     0    48     1     3
  2.4331667740991323E+00 a       944     0    48     1     4
  8.5531233069478863E-01 a       945     0    48     1     5
  1.1910963988177712E+00 a       946     0    48     1     6
 -1.1784182842156077E+00 a       947     0    48     1     7
  7.2307819004794982E-01 a       948     0    48     1     8
  1.1201154965858202E+00 a       949     0    48     1     9
 -8.2645297786445110E-02 a       950     0    48     1    10
  1.1065838395789078E+00 a       951     0    48     1    11
 -2.9774598324598842E+00 a       952     0    48     1    12
  3.9129959983912527E-01 a       953     0    48     1    13
  2.4259368685913785E+00 a       954     0    48     1    14
 -4.2745114929890171E-01 a       955     0    48     1    15
  7.8216706406177916E-01 a       956     0    48     1    16
  2.2460814812009566E+00 a       957     0    48     1    17
  3.3776071310181361E+00 a       958     0    48     1    18
  9.4921735572054988E-01 a       959     0    48     1    19
 -1.3955966600180898E+00 a       960     0    48     1    20
  8.6780747258281998E-01 a       961     0    49     1     1
  2.1533507969812869E-02 a       962     0    49     1     2
  2.3805291541694737E+00 a       963     0    49     1     3
 -4.4719897842496151E-02 a       964     0    49     1     4
 -7.3187439047932867E-01 a       965     0    49     1     5
  7.1102298989284707E-01 a       966     0    49     1     6
  2.7159050826454925E+00 a       967     0    49     1     7
 -4.1234842592457621E-01 a       968     0    49     1     8
  1.0016807992134229E+00 a       969     0    49     1     9
  1.3844220339267015E+00 a       970     0    49     1    10
 -4.3280338559135173E-01 a       971     0    49     1    11
  1.9001580185597283E-01 a       972     0    49     1    12
 -8.2153462653144771E-01 a       973     0    49     1    13
  3.9780638727357964E-01 a       974     0    49     1    14
 -1.1577822010591812E+00 a       975     0    49     1    15
  8.6466958879593092E-01 a       976     0    49     1    16
  1.1481743006833611E+00 a       977     0    49     1    17
  4.0176837938841226E-01 a       978     0    49     1    18
 -2.3283508254988572E+00 a       979     0    49     1    19
  6.3060565060272356E-01 a       980     0    49     1    20
  1.5574152404246380E+00 a       981     0    50     1     1
 -3.7033715365495717E-01 a       982     0    50     1     2
  8.4683327230875882E-01 a       983     0    50     1     3
 -1.2387393499461434E+00 a       984     0    50     1     4
  4.1299102752235489E-01 a       985     0    50     1     5
  3.3483140704817588E-01 a       986     0    50     1     6
  1.4223148382505193E+00 a       987     0    50     1     7
 -7.0176433235217950E-01 a       988     0    50     1     8
  1.0496682209907429E+00 a       989     0    50     1     9
  5.5523407709793582E-01 a       990     0    50     1    10
 -3.2457258234678404E-01 a       991     0    50     1    11
  1.8182108740476495E+00 a       992     0    50     1    12
  2.8231509333661964E-01 a       993     0    50     1    13
 -5.6894317359992608E-01 a       994     0    50     1    14
  2.9867938778700385E+00 a       995     0    50     1    15
  3.9551773134524204E-01 a       996     0    50     1    16
  5.3462260183561394E-01 a       997     0    50     1    17
 -2.9587453943213187E+00 a       998     0    50     1    18
 -9.2951875272021389E-01 a       999     0    50     1    19
 -3.4265051074664382E-01 a      1000     0    50     1    20
  1.9210076410237542E+00 a      1001     0    51     1     1
 -7.5556002815230239E-01 a      1002     0    51     1     2
  1.1239319157607167E-01 a      1003     0    51     1     3
 -1.8479603572301200E+00 a      1004     0    51     1     4
  2.7429611760552886E-01 a      1005     0    51     1     5
  1.0997392993170243E+00 a      1006     0    51     1     6
  9.7691637880756366E-01 a      1007     0    51     1     7
 -9.1196376960711190E-01 a      1008     0    51     1     8
  3.3457876046711021E-01 a      1009     0    51     1     9
 -7.4155384054658990E-02 a      1010     0    51     1    10
 -6.9828686276762908E-01 a      1011     0    51     1    11
  5.3213619343379281E-01 a      1012     0    51     1    12
  1.3439350567581756E+00 a      1013     0    51     1    13
 -1.5918534156969846E+00 a      1014     0    51     1    14
 -6.7913342036172297E-01 a      1015     0    51     1    15
 -8.4025257580008519E-02 a      1016     0    51     1    16
 -2.0809993491151171E+00 a      1017     0    51     1    17
 -2.0271205186138896E+00 a      1018     0    51     1    18
 -3.9954600593365774E+00 a      1019     0    51     1    19
  8.7453474931730879E-01 a      1020     0    51     1    20
 -6.0162686189926462E-01 a      1021     0    52     1     1
 -2.2983624479201167E-01 a      1022     0    52     1     2
 -6.4839981959523896E-01 a      1023     0    52     1     3
  6.6909865538695767E-01 a      1024     0    52     1     4
  4.0264616428143073E-02 a      1025     0    52     1     5
  1.0571386272661045E+00 a      1026     0    52     1     6
 -7.0650951051315003E-01 a      1027     0    52     1     7
 -1.1298467630394706E+00 a      1028     0    52     1     8
 -4.0096672676027367E-01 a      1029     0    52     1     9
  1.7825338169616789E+00 a      1030     0    52     1    10
 -5.8759076230812313E-01 a      1031     0    52     1    11
 -6.2045020271735796E-01 a      1032     0    52     1    12
 -9.2471825977650879E-01 a      1033     0    52     1    13
 -4.0691323097773120E+00 a      1034     0    52     1    14
 -1.9299626698782887E-01 a      1035     0    52     1    15
  8.1092270606558681E-01 a      1036     0    52     1    16
  6.4290244446530909E-01 a      1037     0    52     1    17
 -5.9490506443974744E-01 a      1038     0    52     1    18
 -2.9278041919078723E+00 a      1039     0    52     1    19
  2.9620641769593481E-01 a      1040     0    52     1    20
 -1.2444917011380947E+00 a      1041     0    53     1     1
  1.4731713530949289E+00 a      1042     0    53     1     2
  4.3545362966600049E-01 a      1043     0    53     1     3
 -5.1750762751630708E-02 a      1044     0    53     1     4
  2.0698746010255328E-01 a      1045     0    53     1     5
 -4.2545569396759397E-01 a      1046     0    53     1     6
  1.8933177168018400E+00 a      1047     0    53     1     7
  4.8810795695465564E-01 a      1048     0    53     1     8
 -1.2381327053728040E+00 a      1049     0    53     1     9
 -2.5460246261523487E+00 a      1050     0    53     1    10
  2.9002592511779715E+00 a      1051     0    53     1    11
  9.8454146843431556E-01 a      1052     0    53     1    12
  1.1968323348351856E-01 a      1053     0    53     1    13
 -2.7108197151350817E+00 a      1054     0    53     1    14
 -1.8615098470865428E+00 a      1055     0    53     1    15
  1.1902343478938542E+00 a      1056     0    53     1    16
 -6.7241906794945391E-02 a      1057     0    53     1    17
  1.2613249295405942E+00 a      1058     0    53     1    18
 -3.3779519181477735E-01 a      1059     0    53     1    19
 -2.5944355148953884E+00 a      1060     0    53     1    20
 -4.2503814999632189E-01 a      1061     0    54     1     1
 -2.4573546179474683E+00 a      1062     0    54     1     2
  6.5532277456852042E-02 a      1063     0    54     1     3
 -2.0536562172430473E+00 a      1064     0    54     1     4
  1.4206129901216600E+00 a      1065     0    54     1     5
  1.4187779296254904E-01 a      1066     0    54     1     6
 -3.2148646385592589E-01 a      1067     0    54     1     7
 -2.8334513764667163E-01 a      1068     0    54     1     8
  8.0578611021228419E-01 a      1069     0    54     1     9
 -4.0000547011215808E+00 a      1070     0    54     1    10
  1.7622662813703589E+00 a      1071     0    54     1    11
  3.3867234770364030E-01 a      1072     0    54     1    12
  3.1618015415060317E+00 a      1073     0    54     1    13
  1.8364112188872250E+00 a      1074     0    54     1    14
 -2.8208573690925092E-02 a      1075     0    54     1    15
  1.5916642369409990E+00 a      1076     0    54     1    16
 -5.2841030502492295E-02 a      1077     0    54     1    17
  5.2289201321507184E-01 a      1078     0    54     1    18
 -2.1811093083345563E+00 a      1079     0    54     1    19
  8.4572115027675576E-01 a      1080     0    54     1    20
  6.3887571637729001E-01 a      1081     0    55     1     1
 -2.0949428494749296E+00 a      1082     0    55     1     2
  1.4441620704685392E+00 a      1083     0    55     1     3
  2.3032382336255285E-02 a      1084     0    55     1     4
 -9.2437155569888829E-01 a      1085     0    55     1     5
 -1.4314216757829565E+00 a      1086     0    55     1     6
  1.5260008705830341E-01 a      1087     0    55     1     7
  8.3985511169249061E-01 a      1088     0    55     1     8
  2.7944269005665029E-01 a      1089     0    55     1     9
 -1.6104521473608480E+00 a      1090     0    55     1    10
  9.0590074187391145E-01 a      1091     0    55     1    11
  1.4177717005562200E+00 a      1092     0    55     1    12
  3.4975433084966583E+00 a      1093     0    55     1    13
 -1.4129039425367351E+00 a      1094     0    55     1    14
 -3.5842733178016575E+00 a      1095     0    55     1    15
 -1.5249687838903849E+00 a      1096     0    55     1    16
  6.3611512820495064E-01 a      1097     0    55     1    17
  6.7559077562542336E-01 a      1098     0    55     1    18
  3.9299353703235812E-01 a      1099     0    55     1    19
 -4.4746487855193895E-01 a      1100     0    55     1    20
  9.6956946340716699E-01 a      1101     0    56     1     1
  8.7494308025362372E-02 a      1102     0    56     1     2
  6.5103755735356061E-01 a      1103     0    56     1     3
 -1.5498975092560241E+00 a      1104     0    56     1     4
  1.0508498156159398E+00 a      1105     0    56     1     5
  9.9786520761997033E-01 a      1106     0    56     1     6
 -2.5362217630522160E-01 a      1107     0    56     1     7
 -3.3945378430504309E+00 a      1108     0    56     1     8
  2.3480994334777316E-01 a      1109     0    56     1     9
  5.5936604259493754E-02 a      1110     0    56     1    10
 -9.9328340730141229E-01 a      1111     0    56     1    11
 -2.3947354363751145E+00 a      1112     0    56     1    12
 -1.2524998961452298E+00 a      1113     0    56     1    13
  1.1822642500141802E+00 a      1114     0    56     1    14
 -1.3898524209992797E+00 a      1115     0    56     1    15
 -1.7364551750595194E+00 a      1116     0    56     1    16
  1.0154254622461008E+00 a      1117     0    56     1    17
 -6.3005169150948670E-02 a      1118     0    56     1    18
 -1.6387163223001717E+00 a      1119     0    56     1    19
  7.9693445260285067E-01 a      1120     0    56     1    20
  2.5970711749348707E-01 a      1121     0    57     1     1
  4.6400847765450542E-01 a      1122     0    57     1     2
  2.7180274576540392E-01 a      1123     0    57     1     3
 -2.4496821964455120E+00 a      1124     0    57     1     4
 -1.0261634086304847E+00 a      1125     0    57     1     5
  1.7962449388143080E+00 a      1126     0    57     1     6
  5.0127753202593439E-01 a      1127     0    57     1     7
 -4.2784074012666590E-01 a      1128     0    57     1     8
  4.1698817000181920E-01 a      1129     0    57     1     9
 -1.2843379519373173E+00 a      1130     0    57     1    10
  7.3393420478773924E-02 a      1131     0    57     1    11
 -9.6354815842695660E-02 a      1132     0    57     1    12
  3.1604587575272953E+00 a      1133     0    57     1    13
  3.1437154302625270E-01 a      1134     0    57     1    14
 -1.7738069109975466E-01 a      1135     0    57     1    15
  8.6979916050924289E-01 a      1136     0    57     1    16
  2.9251487034402639E+00 a      1137     0    57     1    17
 -3.0927157771766276E+00 a      1138     0    57     1    18
 -1.4728943983969789E+00 a      1139     0    57     1    19
 -8.6795055817975897E-01 a      1140     0    57     1    20
 -1.3207601866894791E-01 a      1141     0    58     1     1
  1.4019426208562419E-01 a      1142     0    58     1     2
  2.5460825884197563E-01 a      1143     0    58     1     3
 -7.7311339247896604E-01 a      1144     0    58     1     4
  5.2682686196432249E-01 a      1145     0    58     1     5
  1.6418601855972630E+00 a      1146     0    58     1     6
  8.1430723042607489E-01 a      1147     0    58     1     7
  3.1996346928092340E-01 a      1148     0    58     1     8
  6.5553129924246567E-01 a      1149     0    58     1     9
 -1.0721282321175889E+00 a      1150     0    58     1    10
 -1.3772902014732911E+00 a      1151     0    58     1    11
 -1.9389362071443657E+00 a      1152     0    58     1    12
 -9.0196302094767600E-01 a      1153     0    58     1    13
 -2.7200175711542860E+00 a      1154     0    58     1    14
 -1.9030929558068492E+00 a      1155     0    58     1    15
  1.2428741681007434E+00 a      1156     0    58     1    16
  2.4939573601476974E+00 a      1157     0    58     1    17
 -1.8451085894875425E+00 a      1158     0    58     1    18
 -1.4268473256272134E+00 a      1159     0    58     1    19
 -1.3661443083337221E+00 a      1160     0    58     1    20
 -1.2560642396650050E+00 a      1161     0    59     1     1
  1.3952233189521106E+00 a      1162     0    59     1     2
 -8.6459301402099153E-01 a      1163     0    59     1     3
  7.9920200932862540E-01 a      1164     0    59     1     4
 -3.0004904194811703E+00 a      1165     0    59     1     5
  4.1961344385454502E-01 a      1166     0    59     1     6
 -1.5131413412398653E+00 a      1167     0    59     1     7
  3.8827930142267225E-01 a      1168     0    59     1     8
  2.8141705589118532E-01 a      1169     0    59     1     9
  9.6239934708613473E-01 a      1170     0    59     1    10
  7.2815461550043514E-01 a      1171     0    59     1    11
 -1.4679191905409559E+00 a      1172     0    59     1    12
  1.6252538162087586E+00 a      1173     0    59     1    13
  2.9842628563241980E-01 a      1174     0    59     1    14
  4.2164643649959249E-01 a      1175     0    59     1    15
  8.8052835775493699E-01 a      1176     0    59     1    16
 -1.4583428026472898E+00 a      1177     0    59     1    17
  2.1274804438807449E+00 a      1178     0    59     1    18
 -1.5583292802783504E+00 a      1179     0    59     1    19
  1.2109467005753303E+00 a      1180     0    59     1    20
 -7.3239012413462601E-01 a      1181     0    60     1     1
 -1.7680013154799226E+00 a      1182     0    60     1     2
 -2.2976850745276942E+00 a      1183     0    60     1     3
 -1.1032582261762782E+00 a      1184     0    60     1     4
 -1.5219018049770006E+00 a      1185     0    60     1     5
 -2.8479540413562698E-01 a      1186     0    60     1     6
 -3.5988228838898545E-01 a      1187     0    60     1     7
 -5.3358069866680981E-03 a      1188     0    60     1     8
 -7.4644697365854051E-01 a      1189     0    60     1     9
  1.2547329995007228E+00 a      1190     0    60     1    10
  5.5411191350461220E-01 a      1191     0    60     1    11
  3.8445104103211691E-01 a      1192     0    60     1    12
 -1.0859573939127656E+00 a      1193     0    60     1    13
 -1.2623747596778465E+00 a      1194     0    60     1    14
 -1.2465545490227035E+00 a      1195     0    60     1    15
 -6.6562851104547571E-01 a      1196     0    60     1    16
  6.8991510002936729E-01 a      1197     0    60     1    17
 -2.0987400569303851E+00 a      1198     0    60     1    18
  8.2158127388388524E-01 a      1199     0    60     1    19
 -7.9523536426361585E-01 a      1200     0    60     1    20
 -3.7804802703177309E-01 a      1201     0    61     1     1
  2.9680104356822512E-01 a      1202     0    61     1     2
 -1.0691571285113830E+00 a      1203     0    61     1     3
  1.6477302923213120E+00 a      1204     0    61     1     4
  6.7271251384906572E-01 a      1205     0    61     1     5
  8.9403745705077964E-01 a      1206     0    61     1     6
 -2.6188146631760228E-01 a      1207     0    61     1     7
 -1.0397179795085014E+00 a      1208     0    61     1     8
  7.6282994240939483E-02 a      1209     0    61     1     9
  1.0437583047069843E+00 a      1210     0    61     1    10
  1.5940428341897634E+00 a      1211     0    61     1    11
 -1.9749271057365264E-01 a      1212     0    61     1    12
  1.3156791372083798E-03 a      1213     0    61     1    13
  1.5730684343027581E+00 a      1214     0    61     1    14
 -1.7992458188934024E+00 a      1215     0    61     1    15
  2.8279988555351108E+00 a      1216     0    61     1    16
  3.4931056853966636E-02 a      1217     0    61     1    17
  3.0441193600131990E+00 a      1218     0    61     1    18
  4.6418450996431737E-01 a      1219     0    61     1    19
 -8.7051211788352767E-01 a      1220     0    61     1    20
  4.4998853433744435E-01 a      1221     0    62     1     1
  2.8562379957351836E-01 a      1222     0    62     1     2
 -4.8936106256691309E-01 a      1223     0    62     1     3
  9.3426448342598911E-01 a      1224     0    62     1     4
  5.9930565378204537E-01 a      1225     0    62     1     5
 -3.1808509202473390E-01 a      1226     0    62     1     6
  1.0045976577869107E+00 a      1227     0    62     1     7
 -6.0836591909867588E-01 a      1228     0    62     1     8
 -3.0538335243562537E-01 a      1229     0    62     1     9
  9.4781650503706849E-01 a      1230     0    62     1    10
 -9.2191817292571598E-01 a      1231     0    62     1    11
  1.2393815008318292E-01 a      1232     0    62     1    12
  4.4474336181542490E-01 a      1233     0    62     1    13
 -2.0422523416197289E+00 a      1234     0    62     1    14
  8.8142436455765238E-01 a      1235     0    62     1    15
  1.4480494934611492E+00 a      1236     0    62     1    16
 -3.8265074632157037E-01 a      1237     0    62     1    17
  3.2582226980006719E+00 a      1238     0    62     1    18
 -1.5875394770564508E+00 a      1239     0    62     1    19
  7.2078994203352134E-02 a      1240     0    62     1    20
 -1.3824024500989627E+00 a      1241     0    63     1     1
 -2.5487384134710189E+00 a      1242     0    63     1     2
 -1.6226693918519000E+00 a      1243     0    63     1     3
  1.0937806727515982E+00 a      1244     0    63     1     4
  9.1684983606867010E-01 a      1245     0    63     1     5
 -7.9788186385084880E-01 a      1246     0    63     1     6
 -3.3091340237138769E+00 a      1247     0    63     1     7
  2.7627631157253072E+00 a      1248     0    63     1     8
  5.8017397638459554E-03 a      1249     0    63     1     9
  1.5254272058074347E-01 a      1250     0    63     1    10
  1.2919508912194964E+00 a      1251     0    63     1    11
  8.6906083618333685E-01 a      1252     0    63     1    12
  8.6116223770175970E-01 a      1253     0    63     1    13
 -1.3391094173516676E+00 a      1254     0    63     1    14
  1.0233959723950601E+00 a      1255     0    63     1    15
 -1.6777560908438367E+00 a      1256     0    63     1    16
 -1.6339184955800623E+00 a      1257     0    63     1    17
  1.9612287071527330E+00 a      1258     0    63     1    18
 -7.5141517251363821E-01 a      1259     0    63     1    19
  1.7286928578399485E-01 a      1260     0    63     1    20
 -1.4887264768249382E+00 a      1261     0    64     1     1
 -8.3436134129857564E-01 a      1262     0    64     1     2
 -3.5086581425858498E-01 a      1263     0    64     1     3
  3.4806052435376067E-01 a      1264     0    64     1     4
  9.1250767698446156E-01 a      1265     0    64     1     5
  1.1760609609937396E+00 a      1266     0    64     1     6
 -1.5623941098485892E+00 a      1267     0    64     1     7
  2.1012359271937440E+00 a      1268     0    64     1     8
  6.0916180792537700E-01 a      1269     0    64     1     9
  3.2293552945068908E+00 a      1270     0    64     1    10
 -5.9156669266170261E-02 a      1271     0    64     1    11
  1.1885816871086581E-01 a      1272     0    64     1    12
 -7.4196126983298771E-01 a      1273     0    64     1    13
  2.4164398262905032E-01 a      1274     0    64     1    14
  1.1350856972980821E+00 a      1275     0    64     1    15
 -1.4742509041633587E+00 a      1276     0    64     1    16
 -9.1867363534353264E-01 a      1277     0    64     1    17
 -1.0966277423076720E+00 a      1278     0    64     1    18
 -1.3223622324434388E+00 a      1279     0    64     1    19
 -9.0572935206444760E-01 a      1280     0    64     1    20
  4.4305876234890684E-01 a      1281     0    65     1     1
 -3.0057626809783461E-01 a      1282     0    65     1     2
  1.2739086958876289E+00 a      1283     0    65     1     3
  2.6613217833028235E-01 a      1284     0    65     1     4
  1.5538465969078992E+00 a      1285     0    65     1     5
  8.9949476302694209E-01 a      1286     0    65     1     6
 -1.1648304399203726E+00 a      1287     0    65     1     7
 -9.5511727694153847E-01 a      1288     0    65     1     8
 -1.3542888836571343E+00 a      1289     0    65     1     9
  9.5518184528808892E-01 a      1290     0    65     1    10
  8.4954371299186426E-01 a      1291     0    65     1    11
  2.2876879725130100E-01 a      1292     0    65     1    12
  1.1218595302265366E+00 a      1293     0    65     1    13
  1.3696669822227221E+00 a      1294     0    65     1    14
 -1.1326798416140216E+00 a      1295     0    65     1    15
 -2.9338502912235043E-01 a      1296     0    65     1    16
 -4.9608455639612764E-01 a      1297     0    65     1    17
  1.1730307257044710E+00 a      1298     0    65     1    18
 -1.4773916621385355E+00 a      1299     0    65     1    19
  2.2174173189928763E+00 a      1300     0    65     1    20
  1.0367655091351202E+00 a      1301     0    66     1     1
  1.6887801059481282E+00 a      1302     0    66     1     2
  1.1718953914544152E+00 a      1303     0    66     1     3
  6.4517703143423677E-01 a      1304     0    66     1     4
 -8.6279073551055085E-01 a      1305     0    66     1     5
  1.7320110266612150E+00 a      1306     0    66     1     6
 -1.3113651471026604E+00 a      1307     0    66     1     7
  9.5774942512245845E-02 a      1308     0    66     1     8
 -2.0694692683502107E+00 a      1309     0    66     1     9
  9.0548396674319986E-01 a      1310     0    66     1    10
  5.3480127120087029E-01 a      1311     0    66     1    11
 -6.0166207673963712E-01 a      1312     0    66     1    12
 -2.4069061615888825E+00 a      1313     0    66     1    13
 -1.9993494951352935E+00 a      1314     0    66     1    14
 -2.3391150995523642E-02 a      1315     0    66     1    15
 -1.0601087613121238E+00 a      1316     0    66     1    16
 -3.7638386635745552E-01 a      1317     0    66     1    17
 -1.9303544455863311E-01 a      1318     0    66     1    18
  1.6198049223699376E+00 a      1319     0    66     1    19
 -1.3156038699539596E+00 a      1320     0    66     1    20
  3.2779906049601976E-01 a      1321     0    67     1     1
  1.4659669448902104E+00 a      1322     0    67     1     2
  1.9449324452306092E+00 a      1323     0    67     1     3
 -4.0598018264120621E-02 a      1324     0    67     1     4
  1.6567633780560805E-02 a      1325     0    67     1     5
  2.8825703956253297E+00 a      1326     0    67     1     6
  2.4347033439458410E+00 a      1327     0    67     1     7
 -1.2499545257496154E+00 a      1328     0    67     1     8
 -8.5041099509718354E-01 a      1329     0    67     1     9
  7.8866150591200934E-01 a      1330     0    67     1    10
  4.4499823624479307E-01 a      1331     0    67     1    11
  3.7895790103540361E+00 a      1332     0    67     1    12
  8.0567999787249678E-01 a      1333     0    67     1    13
  1.0647720678156771E+00 a      1334     0    67     1    14
  3.2244505922812572E-01 a      1335     0    67     1    15
  1.4874709358441101E+00 a      1336     0    67     1    16
  5.5092702325503040E-01 a      1337     0    67     1    17
  3.5210635900612752E+00 a      1338     0    67     1    18
 -9.6366822136982799E-01 a      1339     0    67     1    19
  2.7903903696522958E+00 a      1340     0    67     1    20
 -8.6681505257180191E-01 a      1341     0    68     1     1
 -1.9428356007210208E+00 a      1342     0    68     1     2
  2.2426578225412794E+00 a      1343     0    68     1     3
 -4.1318679405506370E-01 a      1344     0    68     1     4
 -1.3752677728074711E+00 a      1345     0    68     1     5
 -1.1195242437941715E+00 a      1346     0    68     1     6
 -3.6089514926014765E-01 a      1347     0    68     1     7
 -4.1559200417124420E-01 a      1348     0    68     1     8
 -4.6496204215694448E-01 a      1349     0    68     1     9
 -1.8918323579955734E+00 a      1350     0    68     1    10
  2.0333598755007158E+00 a      1351     0    68     1    11
 -2.4420772524646304E+00 a      1352     0    68     1    12
  3.5988330783259281E-01 a      1353     0    68     1    13
  2.8587640139074626E+00 a      1354     0    68     1    14
  1.3952059280245745E+00 a      1355     0    68     1    15
 -1.1461355935733131E+00 a      1356     0    68     1    16
 -1.2926049255634835E+00 a      1357     0    68     1    17
  5.0531138806642695E-01 a      1358     0    68     1    18
  5.0834989816093001E-01 a      1359     0    68     1    19
  2.2062236509011082E-01 a      1360     0    68     1    20
  2.5646601981740793E+00 a      1361     0    69     1     1
  9.7150804305005067E-01 a      1362     0    69     1     2
 -2.4346414937036914E-01 a      1363     0    69     1     3
 -1.2245943817254621E+00 a      1364     0    69     1     4
 -5.2046065448128320E-01 a      1365     0    69     1     5
  1.5848008349026064E+00 a      1366     0    69     1     6
  1.3628272618396240E+00 a      1367     0    69     1     7
 -2.8723165149547052E+00 a      1368     0    69     1     8
 -7.9997022331817724E-01 a      1369     0    69     1     9
  4.9780760006689095E-01 a      1370     0    69     1    10
  6.8922669655512719E-02 a      1371     0    69     1    11
  4.7671917226150509E+00 a      1372     0    69     1    12
  9.7079686642479357E-01 a      1373     0    69     1    13
  1.5857897441229676E+00 a      1374     0    69     1    14
  3.2257181761082863E+00 a      1375     0    69     1    15
  1.6076074673124534E+00 a      1376     0    69     1    16
  1.9520683297543566E+00 a      1377     0    69     1    17
 -1.1749574774783969E+00 a      1378     0    69     1    18
  1.0342855361339254E+00 a      1379     0    69     1    19
  2.1962291705739743E+00 a      1380     0    69     1    20
  4.6064337801009314E-01 a      1381     0    70     1     1
  9.3347331459504701E-01 a      1382     0    70     1     2
 -9.7870778869829544E-01 a      1383     0    70     1     3
 -2.5787648035346700E+00 a      1384     0    70     1     4
 -2.0277648617712812E-01 a      1385     0    70     1     5
  6.6917533580264810E-01 a      1386     0    70     1     6
  1.8945020910955117E+00 a      1387     0    70     1     7
 -3.3594533754410940E+00 a      1388     0    70     1     8
  2.3661667085492826E+00 a      1389     0    70     1     9
 -8.0844398599297473E-01 a      1390     0    70     1    10
 -1.0247955384497956E-01 a      1391     0    70     1    11
 -1.5408378631492257E+00 a      1392     0    70     1    12
  1.1984764190764188E+00 a      1393     0    70     1    13
  4.5201578090405220E-01 a      1394     0    70     1    14
  1.3025747524538661E-01 a      1395     0    70     1    15
  9.7530304081937591E-01 a      1396     0    70     1    16
  2.0847557398476981E+00 a      1397     0    70     1    17
  4.8548544432477564E-01 a      1398     0    70     1    18
  9.8212997232096655E-01 a      1399     0    70     1    19
  7.6727219802705060E-01 a      1400     0    70     1    20
  6.3398275257006742E-01 a      1401     0    71     1     1
 -1.7001995246077714E-01 a      1402     0    71     1     2
 -3.7146716529565205E-01 a      1403     0    71     1     3
 -3.5765365701797607E+00 a      1404     0    71     1     4
 -4.6641954583471662E-01 a      1405     0    71     1     5
 -3.0694945693099007E+00 a      1406     0    71     1     6
 -7.3792346948526333E-01 a      1407     0    71     1     7
  9.4511600373416127E-01 a      1408     0    71     1     8
 -5.9234050888660328E-01 a      1409     0    71     1     9
 -1.9589147700552236E+00 a      1410     0    71     1    10
 -1.3146831416071048E+00 a      1411     0    71     1    11
 -3.2962669278110543E+00 a      1412     0    71     1    12
 -9.3682543931747109E-01 a      1413     0    71     1    13
 -1.2185152218349127E+00 a      1414     0    71     1    14
 -1.4655920682946839E+00 a      1415     0    71     1    15
  9.8124651178225286E-01 a      1416     0    71     1    16
 -1.4781415671602989E+00 a      1417     0    71     1    17
 -3.0382598018998114E-01 a      1418     0    71     1    18
  3.1102128070986190E-01 a      1419     0    71     1    19
 -2.6030445870911429E+00 a      1420     0    71     1    20
 -1.6588405090479004E+00 a      1421     0    72     1     1
  2.2200321423251763E+00 a      1422     0    72     1     2
  1.2362587517401677E+00 a      1423     0    72     1     3
  6.6518538680270478E-01 a      1424     0    72     1     4
 -9.4339694190534773E-01 a      1425     0    72     1     5
 -8.3743489842569241E-02 a      1426     0    72     1     6
 -1.7710712332356215E-01 a      1427     0    72     1     7
 -1.0726791517476619E+00 a      1428     0    72     1     8
  8.3453999644491095E-01 a      1429     0    72     1     9
  1.2735706218068901E+00 a      1430     0    72     1    10
 -9.9996875927070517E-01 a      1431     0    72     1    11
  1.5794773222089847E-01 a      1432     0    72     1    12
  1.3553317034419443E+00 a      1433     0    72     1    13
  2.3619570404880963E+00 a      1434     0    72     1    14
 -2.6397394125432005E-01 a      1435     0    72     1    15
 -1.4062306948429659E+00 a      1436     0    72     1    16
  4.9754442950717992E-01 a      1437     0    72     1    17
 -6.0636419254083945E-02 a      1438     0    72     1    18
  2.1808252520766063E+00 a      1439     0    72     1    19
  2.0687411179302578E-01 a      1440     0    72     1    20
  6.1793843358115541E-01 a      1441     0    73     1     1
 -5.4348589425918747E-02 a      1442     0    73     1     2
  3.4144736048462354E+00 a      1443     0    73     1     3
 -6.8222381692096890E-01 a      1444     0    73     1     4
 -4.0239129981493937E-01 a      1445     0    73     1     5
  1.4585553474170032E+00 a      1446     0    73     1     6
  1.2679855561911710E+00 a      1447     0    73     1     7
 -1.6827752628005993E-01 a      1448     0    73     1     8
 -5.2123032756937082E-01 a      1449     0    73     1     9
  3.8815877186015019E-01 a      1450     0    73     1    10
  1.8447431410781256E+00 a      1451     0    73     1    11
  1.9927841808868509E+00 a      1452     0    73     1    12
 -8.0042175609425809E-02 a      1453     0    73     1    13
  1.3788367832602719E+00 a      1454     0    73     1    14
 -1.2504119479328206E+00 a      1455     0    73     1    15
  1.8363062604294705E-01 a      1456     0    73     1    16
  3.5935234631407953E-01 a      1457     0    73     1    17
 -5.8119986556467429E-01 a      1458     0    73     1    18
  2.6212817238925785E+00 a      1459     0    73     1    19
  1.1021760630524251E+00 a      1460     0    73     1    20
 -1.0628601097727908E-01 a      1461     0    74     1     1
 -1.6401376881781256E+00 a      1462     0    74     1     2
  2.6410143784295217E+00 a      1463     0    74     1     3
 -2.5035399099875497E+00 a      1464     0    74     1     4
  9.6774893367090620E-01 a      1465     0    74     1     5
 -6.9040099621062390E-02 a      1466     0    74     1     6
  1.1610487908006857E+00 a      1467     0    74     1     7
  2.4979491575035528E-01 a      1468     0    74     1     8
 -3.0116716179785055E+00 a      1469     0    74     1     9
  5.1853373639583211E-01 a      1470     0    74     1    10
  3.6845992244734149E-01 a      1471     0    74     1    11
 -2.6764844790207984E+00 a      1472     0    74     1    12
  4.0717993023048255E-01 a      1473     0    74     1    13
  1.1953710253173147E+00 a      1474     0    74     1    14
 -1.1421198178085143E+00 a      1475     0    74     1    15
 -2.6903165649084877E+00 a      1476     0    74     1    16
  1.0159013243263142E+00 a      1477     0    74     1    17
 -1.0718439436438918E+00 a      1478     0    74     1    18
  2.0275857801771373E+00 a      1479     0    74     1    19
  6.5028311811208872E-01 a      1480     0    74     1    20
  1.2525901735488687E-01 a      1481     0    75     1     1
  8.6504989624400275E-01 a      1482     0    75     1     2
  3.7481544133258538E-01 a      1483     0    75     1     3
  3.3259188487377345E-01 a      1484     0    75     1     4
  3.1756167259549950E-01 a      1485     0    75     1     5
  1.1402569285530040E+00 a      1486     0    75     1     6
  4.1481946020731925E-01 a      1487     0    75     1     7
  6.2119538775974459E-01 a      1488     0    75     1     8
  1.4751083196862017E-01 a      1489     0    75     1     9
 -2.5575842625458528E-01 a      1490     0    75     1    10
  1.8897204106217930E-01 a      1491     0    75     1    11
  8.9938842919664863E-01 a      1492     0    75     1    12
 -5.0078512696205957E-01 a      1493     0    75     1    13
  1.0533802043843783E+00 a      1494     0    75     1    14
  1.7198683253319177E-01 a      1495     0    75     1    15
  1.9400927996055156E-01 a      1496     0    75     1    16
 -6.4325137607458100E-03 a      1497     0    75     1    17
  7.5101694350052584E-01 a      1498     0    75     1    18
  1.7196618740981819E+00 a      1499     0    75     1    19
  8.1324744722901521E-01 a      1500     0    75     1    20
 -3.6700581729541476E-01 a      1501     0    76     1     1
  2.7411745719202085E-01 a      1502     0    76     1     2
  4.4340901700082958E-01 a      1503     0    76     1     3
 -8.2851870523024396E-01 a      1504     0    76     1     4
  4.7722274820096305E-01 a      1505     0    76     1     5
  6.2562507774246309E-02 a      1506     0    76     1     6
 -1.6569993497858415E+00 a      1507     0    76     1     7
  2.1841166582078828E+00 a      1508     0    76     1     8
  1.7567218164080511E-01 a      1509     0    76     1     9
  5.7578984340569217E-01 a      1510     0    76     1    10
 -8.9119386205007411E-01 a      1511     0    76     1    11
  8.1506036502770163E-01 a      1512     0    76     1    12
 -6.3096785005615741E-01 a      1513     0    76     1    13
 -1.5037505567033871E+00 a      1514     0    76     1    14
  8.7499458667624286E-01 a      1515     0    76     1    15
  5.6794204876279863E-01 a      1516     0    76     1    16
  6.3966548463373052E-01 a      1517     0    76     1    17
 -3.8365260260678385E-01 a      1518     0    76     1    18
  1.0485079867385685E+00 a      1519     0    76     1    19
  1.1190624823005151E+00 a      1520     0    76     1    20
 -6.6319388496278875E-01 a      1521     0    77     1     1
 -4.4047528920473762E-02 a      1522     0    77     1     2
 -3.3449240065886560E-01 a      1523     0    77     1     3
  5.6833265151278123E-01 a      1524     0    77     1     4
  4.4157979958191557E-01 a      1525     0    77     1     5
  1.4384258526078288E+00 a      1526     0    77     1     6
 -1.3787584362856291E+00 a      1527     0    77     1     7
  3.3095699157326475E-01 a      1528     0    77     1     8
 -1.4583252330270446E+00 a      1529     0    77     1     9
  1.0885014859503601E+00 a      1530     0    77     1    10
 -1.2798033689559469E+00 a      1531     0    77     1    11
 -5.8227196077600307E-01 a      1532     0    77     1    12
 -2.3314082416478549E-01 a      1533     0    77     1    13
  9.7016350214048488E-02 a      1534     0    77     1    14
 -2.1060722217762740E+00 a      1535     0    77     1    15
  4.5093067734383968E-01 a      1536     0    77     1    16
 -2.1176051851173012E+00 a      1537     0    77     1    17
 -1.5790853980879853E+00 a      1538     0    77     1    18
 -1.4762654447019650E+00 a      1539     0    77     1    19
  2.9902027159600140E+00 a      1540     0    77     1    20
  9.2940732475783605E-02 a      1541     0    78     1     1
  4.0183996592478718E-02 a      1542     0    78     1     2
 -2.9794595690396126E+00 a      1543     0    78     1     3
 -1.4595195765552509E+00 a      1544     0    78     1     4
  1.6829060385239865E+00 a      1545     0    78     1     5
  1.4328714304836216E+00 a      1546     0    78     1     6
 -1.1411407933088553E+00 a      1547     0    78     1     7
  2.3152476267976749E+00 a      1548     0    78     1     8
 -1.3786827418899222E-01 a      1549     0    78     1     9
 -9.9067894211748808E-01 a      1550     0    78     1    10
  2.5091276187997300E+00 a      1551     0    78     1    11
 -1.5771081029959937E+00 a      1552     0    78     1    12
  1.5557621599359215E+00 a      1553     0    78     1    13
  1.7339202995730787E+00 a      1554     0    78     1    14
  7.5620267293345844E-01 a      1555     0    78     1    15
  1.0411300820452385E-01 a      1556     0    78     1    16
 -7.0233006949786028E-02 a      1557     0    78     1    17
  1.1547067436132623E+00 a      1558     0    78     1    18
  4.7620874381531308E-01 a      1559     0    78     1    19
  9.7834838975474092E-01 a      1560     0    78     1    20
 -1.0895325197768604E-01 a      1561     0    79     1     1
 -2.6027186400398594E-01 a      1562     0    79     1     2
  1.7310594949798934E+00 a      1563     0    79     1     3
 -3.3194801991275558E-01 a      1564     0    79     1     4
  6.4359775274480158E-01 a      1565     0    79     1     5
  7.4516391312221020E-01 a      1566     0    79     1     6
  1.1161444056292054E+00 a      1567     0    79     1     7
  2.2375221045669060E+00 a      1568     0    79     1     8
 -7.1372609701856315E-01 a      1569     0    79     1     9
  6.5511521703118414E-01 a      1570     0    79     1    10
  9.4536998942555805E-01 a      1571     0    79     1    11
 -2.7371096518297500E+00 a      1572     0    79     1    12
 -6.9789144709849693E-01 a      1573     0    79     1    13
 -3.9116575037857419E-02 a      1574     0    79     1    14
 -1.7248327213296357E+00 a      1575     0    79     1    15
  1.1254476553156956E+00 a      1576     0    79     1    16
 -6.3073865852546473E-01 a      1577     0    79     1    17
 -2.0452345567424506E+00 a      1578     0    79     1    18
  1.3808368478589199E+00 a      1579     0    79     1    19
 -3.1755606182022329E+00 a      1580     0    79     1    20
 -3.4042836763722778E-01 a      1581     0    80     1     1
 -8.9558589563419902E-02 a      1582     0    80     1     2
  9.1287600564784810E-01 a      1583     0    80     1     3
 -2.1487261160344024E+00 a      1584     0    80     1     4
  1.7002790266373604E+00 a      1585     0    80     1     5
  6.4175647672580372E-01 a      1586     0    80     1     6
  6.7038792993921703E-01 a      1587     0    80     1     7
 -1.7672026445749275E-01 a      1588     0    80     1     8
  3.8264502322746710E+00 a      1589     0    80     1     9
 -1.5705366247133103E+00 a      1590     0    80     1    10
 -5.4057165076320846E-01 a      1591     0    80     1    11
 -8.2127692870399205E-01 a      1592     0    80     1    12
 -2.3719383500826052E+00 a      1593     0    80     1    13
 -1.7662492840821302E+00 a      1594     0    80     1    14
  1.1975306145293849E+00 a      1595     0    80     1    15
  2.8563056299694742E+00 a      1596     0    80     1    16
  2.2316344666268493E+00 a      1597     0    80     1    17
 -8.8167423831975467E-01 a      1598     0    80     1    18
 -1.0890763959956398E+00 a      1599     0    80     1    19
  2.9471085874263508E-01 a      1600     0    80     1    20
 -8.9580488158596303E-02 a      1601     0    81     1     1
  3.9462660935531807E-01 a      1602     0    81     1     2
  2.1517268205605284E+00 a      1603     0    81     1     3
 -8.0901988276280701E-01 a      1604     0    81     1     4
  8.0810818854344435E-02 a      1605     0    81     1     5
  9.0298540558717014E-02 a      1606     0    81     1     6
  3.2117760173133153E-01 a      1607     0    81     1     7
 -1.1960821741076546E+00 a      1608     0    81     1     8
 -3.9847499189738333E-01 a      1609     0    81     1     9
 -3.0924731651847032E-01 a      1610     0    81     1    10
 -3.8368898986090966E-01 a      1611     0    81     1    11
 -7.8695416995615586E-01 a      1612     0    81     1    12
  1.7959191740820951E-01 a      1613     0    81     1    13
  4.9579766621562632E-02 a      1614     0    81     1    14
  2.3933060736162437E-01 a      1615     0    81     1    15
 -2.3873518209879785E-01 a      1616     0    81     1    16
 -4.4375295451769259E-01 a      1617     0    81     1    17
 -1.8794762667094052E+00 a      1618     0    81     1    18
  8.0292370495339049E-01 a      1619     0    81     1    19
 -2.6634326698718497E-01 a      1620     0    81     1    20
  2.1301314122209809E+00 a      1621     0    82     1     1
 -1.6559146388985702E-01 a      1622     0    82     1     2
  1.6273735659996011E+00 a      1623     0    82     1     3
