################################################################################
# Neural network connection values (weights and biases).
################################################################################
# Col  Name       Description
################################################################################
# 1    connection Neural network connection value.
# 2    t          Connection type (a = weight, b = bias).
# 3    index      Index enumerating weights.
# 4    l_s        Starting point layer (end point layer for biases).
# 5    n_s        Starting point neuron in starting layer (end point neuron for biases).
# 6    l_e        End point layer.
# 7    n_e        End point neuron in end layer.
################################################################################
#                      1 2         3     4     5     6     7
#             connection t     index   l_s   n_s   l_e   n_e
############################################################
 -8.8048321503299114E+00 a         1     0     1     1     1
  6.2738844596938765E+00 a         2     0     1     1     2
 -5.0485805472222269E+00 a         3     0     1     1     3
  7.9646242173442010E+00 a         4     0     1     1     4
  7.6264182541678274E+00 a         5     0     1     1     5
  4.5084447117016424E+00 a         6     0     1     1     6
  8.3715083978983280E+00 a         7     0     1     1     7
  1.4286596970347926E+01 a         8     0     1     1     8
  5.2919270712230579E+00 a         9     0     1     1     9
  1.1378451387633364E+01 a        10     0     1     1    10
 -1.0075247927433431E+00 a        11     0     1     1    11
  3.5055006672112121E+00 a        12     0     1     1    12
  2.1392556045783144E+00 a        13     0     1     1    13
 -1.0557070800582405E+01 a        14     0     1     1    14
  1.2588970191908140E+00 a        15     0     1     1    15
  1.1538896913085527E+01 a        16     0     1     1    16
  4.4390897332726489E+00 a        17     0     1     1    17
 -1.1306256910406539E+01 a        18     0     1     1    18
  1.0346860081024211E+01 a        19     0     1     1    19
  4.9194098217267801E-01 a        20     0     1     1    20
 -1.1473929592425074E+01 a        21     0     2     1     1
 -6.5230687410713353E+00 a        22     0     2     1     2
  5.3892313279987247E+00 a        23     0     2     1     3
  3.9565759592910470E+00 a        24     0     2     1     4
 -1.1566570534431337E+01 a        25     0     2     1     5
  2.8464990946020734E+00 a        26     0     2     1     6
 -5.7274161745705747E+00 a        27     0     2     1     7
  3.2274976544803917E+00 a        28     0     2     1     8
 -7.9346576467478274E+00 a        29     0     2     1     9
 -2.0111159535073469E+01 a        30     0     2     1    10
  1.3326771393315303E+01 a        31     0     2     1    11
  6.3025747318984351E+00 a        32     0     2     1    12
  1.8132269960498244E+00 a        33     0     2     1    13
  5.0985934085888580E+00 a        34     0     2     1    14
  6.6640169793543391E+00 a        35     0     2     1    15
  1.2118283717486872E+01 a        36     0     2     1    16
  1.0355455554722823E+01 a        37     0     2     1    17
  1.7372648310349067E+01 a        38     0     2     1    18
 -1.2974113389502200E+01 a        39     0     2     1    19
  2.4339436906476951E+01 a        40     0     2     1    20
 -2.7311071350957885E+00 a        41     0     3     1     1
  8.9526565538638163E+00 a        42     0     3     1     2
  2.0776217672326492E+01 a        43     0     3     1     3
 -5.2191356202742796E+00 a        44     0     3     1     4
 -3.1549345743296069E+00 a        45     0     3     1     5
 -7.7243281006648319E+00 a        46     0     3     1     6
 -1.0205332487757198E+01 a        47     0     3     1     7
 -9.5829340976035677E+00 a        48     0     3     1     8
 -1.1361443071785326E+01 a        49     0     3     1     9
  1.8162208287649079E+01 a        50     0     3     1    10
  5.0717266643280317E+00 a        51     0     3     1    11
  4.0976709865773353E+00 a        52     0     3     1    12
  5.2327117607610800E+00 a        53     0     3     1    13
  9.0138476571310928E+00 a        54     0     3     1    14
  1.2761675995486437E+00 a        55     0     3     1    15
  8.8857526062905023E+00 a        56     0     3     1    16
 -1.0924796921525113E+01 a        57     0     3     1    17
 -4.5114917347832133E+00 a        58     0     3     1    18
 -2.0339201265356928E+00 a        59     0     3     1    19
 -4.1062884992177011E+00 a        60     0     3     1    20
  2.2034829840036675E+01 a        61     0     4     1     1
 -4.8945873547165846E+00 a        62     0     4     1     2
 -1.4969678097499970E+00 a        63     0     4     1     3
 -1.4936887386895135E+01 a        64     0     4     1     4
  1.6704158439361692E+01 a        65     0     4     1     5
 -1.4588732253216250E+01 a        66     0     4     1     6
 -2.4677751822292620E+00 a        67     0     4     1     7
 -1.9575726630849008E+01 a        68     0     4     1     8
 -1.4291066471988108E+01 a        69     0     4     1     9
 -1.2582326036046272E+01 a        70     0     4     1    10
 -2.4230642522213790E+00 a        71     0     4     1    11
  1.1294506713569131E+01 a        72     0     4     1    12
 -3.3945962658815603E+01 a        73     0     4     1    13
 -1.4123856486758614E+01 a        74     0     4     1    14
  2.3080825484313404E+01 a        75     0     4     1    15
 -5.4554318829615911E-01 a        76     0     4     1    16
 -2.4567107678966952E+01 a        77     0     4     1    17
 -5.9704549748759828E+00 a        78     0     4     1    18
 -6.2021208176492459E+00 a        79     0     4     1    19
 -6.5732189632676619E+00 a        80     0     4     1    20
  6.4145922087630263E+00 a        81     0     5     1     1
 -8.8041163388058834E+00 a        82     0     5     1     2
 -1.2639503994043178E+01 a        83     0     5     1     3
 -2.1075658837020730E+00 a        84     0     5     1     4
  1.1118560104479354E+01 a        85     0     5     1     5
  1.1660919858890683E+01 a        86     0     5     1     6
 -8.0695307133316732E+00 a        87     0     5     1     7
 -1.0506030831775759E+00 a        88     0     5     1     8
  1.9853451848687775E+00 a        89     0     5     1     9
 -5.2322471063268488E+00 a        90     0     5     1    10
 -1.5546461693464064E+01 a        91     0     5     1    11
 -1.1215935021773591E+01 a        92     0     5     1    12
  1.5783262213283026E+01 a        93     0     5     1    13
  1.3540297182517442E+01 a        94     0     5     1    14
  4.4641803289023816E+00 a        95     0     5     1    15
 -1.1358215339578934E+00 a        96     0     5     1    16
  2.7464689740817954E+00 a        97     0     5     1    17
 -8.2027001322803184E+00 a        98     0     5     1    18
  1.4338992655707568E+00 a        99     0     5     1    19
  1.9643233096994670E+00 a       100     0     5     1    20
 -2.1710842917565150E+00 a       101     0     6     1     1
  1.9809541265196195E+01 a       102     0     6     1     2
 -4.0824253689411147E+00 a       103     0     6     1     3
  7.4194256949147146E+00 a       104     0     6     1     4
  4.7877795296334300E+00 a       105     0     6     1     5
 -1.6120213329942659E+00 a       106     0     6     1     6
 -5.5085129185665584E+00 a       107     0     6     1     7
 -2.1096624487092535E+00 a       108     0     6     1     8
  1.0490115440670950E+01 a       109     0     6     1     9
 -1.0148368635181569E+01 a       110     0     6     1    10
  1.3121433923544132E+01 a       111     0     6     1    11
 -3.2466903369064455E+00 a       112     0     6     1    12
 -4.8900297826660859E+00 a       113     0     6     1    13
  4.4406338917668204E+00 a       114     0     6     1    14
 -1.0170286505334918E+01 a       115     0     6     1    15
 -1.6706985618381587E+01 a       116     0     6     1    16
  2.1113341802913009E+01 a       117     0     6     1    17
 -3.3566078267621897E-03 a       118     0     6     1    18
 -1.1538528354386119E+00 a       119     0     6     1    19
 -1.8004200374385572E+01 a       120     0     6     1    20
 -1.4343916037839846E+00 a       121     0     7     1     1
  1.5913416948786191E+01 a       122     0     7     1     2
  8.8201153969328274E+00 a       123     0     7     1     3
 -7.2339873335636540E+00 a       124     0     7     1     4
 -2.6488436003366589E-01 a       125     0     7     1     5
 -1.6637436777936323E+00 a       126     0     7     1     6
 -1.0540723349804585E+01 a       127     0     7     1     7
  1.5089724836012142E+00 a       128     0     7     1     8
  4.7233057361144688E+00 a       129     0     7     1     9
 -1.0841442151535310E+00 a       130     0     7     1    10
  3.0875864991573526E-01 a       131     0     7     1    11
  1.3734148158200192E+01 a       132     0     7     1    12
  4.8850593829584854E+00 a       133     0     7     1    13
  1.1862591227003652E+01 a       134     0     7     1    14
 -3.8315031983194645E+00 a       135     0     7     1    15
 -2.2578361174458674E+00 a       136     0     7     1    16
 -2.9625289114962428E+00 a       137     0     7     1    17
  9.4164679957635347E+00 a       138     0     7     1    18
  1.2835463495272547E+01 a       139     0     7     1    19
 -1.2973855755291604E+01 a       140     0     7     1    20
  1.9112620389622079E+00 a       141     0     8     1     1
 -8.8995933370920870E+00 a       142     0     8     1     2
 -1.5999370530346100E+01 a       143     0     8     1     3
 -1.5490094935767257E+01 a       144     0     8     1     4
 -6.3487267704914565E+00 a       145     0     8     1     5
  1.8362072599433232E+00 a       146     0     8     1     6
  1.6173192066316634E+01 a       147     0     8     1     7
  9.3701536085483006E-01 a       148     0     8     1     8
 -6.1329040790274778E+00 a       149     0     8     1     9
 -8.6472766745909215E+00 a       150     0     8     1    10
 -2.4561587035023944E+01 a       151     0     8     1    11
  3.3695538756409911E+00 a       152     0     8     1    12
 -5.6922119062919023E+00 a       153     0     8     1    13
 -7.1573452932769825E+00 a       154     0     8     1    14
 -1.0756048447671741E+01 a       155     0     8     1    15
 -1.4197805622720223E+01 a       156     0     8     1    16
 -8.5288324592959306E+00 a       157     0     8     1    17
  5.3818183153565018E+00 a       158     0     8     1    18
 -8.0246923818532157E+00 a       159     0     8     1    19
 -1.1224927315511504E+00 a       160     0     8     1    20
 -7.0491900292638709E-01 a       161     0     9     1     1
  4.8425057151402680E+00 a       162     0     9     1     2
 -5.6059748938210294E+00 a       163     0     9     1     3
  3.0896443208413618E+00 a       164     0     9     1     4
  1.0409413495936311E+01 a       165     0     9     1     5
  1.1930574150448235E+01 a       166     0     9     1     6
  1.1383210908148746E+01 a       167     0     9     1     7
  3.7235703806232570E+00 a       168     0     9     1     8
  3.8780094545430464E+00 a       169     0     9     1     9
  1.6138777621183571E+00 a       170     0     9     1    10
 -1.5918163190034664E+00 a       171     0     9     1    11
  2.6486428543706491E+00 a       172     0     9     1    12
  1.8908554746613830E+00 a       173     0     9     1    13
  4.1786255451940124E-01 a       174     0     9     1    14
 -7.2668153505901265E-02 a       175     0     9     1    15
 -5.8188929710384620E+00 a       176     0     9     1    16
  3.9159462311315401E+00 a       177     0     9     1    17
  1.2743381779496525E+01 a       178     0     9     1    18
  6.7770000767079308E-01 a       179     0     9     1    19
  7.6609906917452197E-01 a       180     0     9     1    20
  4.0663426532457008E+00 a       181     0    10     1     1
 -6.1180034908735177E+00 a       182     0    10     1     2
  6.1105146113519995E+00 a       183     0    10     1     3
  1.0166559438936233E+01 a       184     0    10     1     4
 -3.0333382992030883E-01 a       185     0    10     1     5
 -3.7890493362353430E+00 a       186     0    10     1     6
 -4.2401430715026693E+00 a       187     0    10     1     7
 -1.8244564486195423E+00 a       188     0    10     1     8
  7.2197691871962357E+00 a       189     0    10     1     9
 -2.8984266601472362E+00 a       190     0    10     1    10
  1.3680123752873998E+01 a       191     0    10     1    11
  1.2383865065323169E+01 a       192     0    10     1    12
 -5.8118976048981077E+00 a       193     0    10     1    13
  4.6293725436403070E+00 a       194     0    10     1    14
  6.0973939183680939E+00 a       195     0    10     1    15
  6.9213814924154651E+00 a       196     0    10     1    16
 -6.6215035345360604E+00 a       197     0    10     1    17
  3.3871205292805660E+00 a       198     0    10     1    18
  1.2048989581901012E+01 a       199     0    10     1    19
  3.7158669589172932E+00 a       200     0    10     1    20
 -5.1750783583142415E+00 a       201     0    11     1     1
  4.3442653308732595E+00 a       202     0    11     1     2
  3.1429376185244977E+00 a       203     0    11     1     3
 -8.4162343766599363E+00 a       204     0    11     1     4
  2.0249024345305120E+00 a       205     0    11     1     5
 -4.9306084323162986E+00 a       206     0    11     1     6
 -1.2896017543548211E+00 a       207     0    11     1     7
 -2.4175239722676620E+00 a       208     0    11     1     8
  6.8237285592449248E-01 a       209     0    11     1     9
  4.0621002058238371E+00 a       210     0    11     1    10
 -4.6486419456031358E+00 a       211     0    11     1    11
  6.9133121862196347E+00 a       212     0    11     1    12
  3.1344717519611076E+00 a       213     0    11     1    13
  8.0979582445277014E+00 a       214     0    11     1    14
 -4.8610249483544443E+00 a       215     0    11     1    15
 -1.0402889656690337E+00 a       216     0    11     1    16
 -4.5042698822486704E+00 a       217     0    11     1    17
 -1.6191838835876354E+01 a       218     0    11     1    18
 -3.9479634626897919E+00 a       219     0    11     1    19
 -2.0131610937619890E+00 a       220     0    11     1    20
  3.6734839883564083E+00 a       221     0    12     1     1
  2.1032571485435172E+00 a       222     0    12     1     2
 -4.1521771023202056E+00 a       223     0    12     1     3
  2.3417998530751656E+00 a       224     0    12     1     4
 -4.6170714180331995E-01 a       225     0    12     1     5
 -1.8046515527978271E-01 a       226     0    12     1     6
 -9.4374911676577593E+00 a       227     0    12     1     7
 -1.1036278043395795E+00 a       228     0    12     1     8
 -1.4264841619040638E+01 a       229     0    12     1     9
 -9.5645950115648333E+00 a       230     0    12     1    10
 -4.2873329962520446E-01 a       231     0    12     1    11
 -3.0636380532926242E+00 a       232     0    12     1    12
 -1.1006809517303699E+01 a       233     0    12     1    13
 -6.4385635222528115E-01 a       234     0    12     1    14
  7.4203895223087697E+00 a       235     0    12     1    15
 -3.6466807225486351E+00 a       236     0    12     1    16
  3.5911915718941891E+00 a       237     0    12     1    17
  7.1512608298750324E+00 a       238     0    12     1    18
 -1.2280780635559332E-01 a       239     0    12     1    19
  3.9727217218783042E+00 a       240     0    12     1    20
  1.0602827065207521E+01 a       241     0    13     1     1
 -1.3490811834191261E+01 a       242     0    13     1     2
 -1.0973930999614661E+01 a       243     0    13     1     3
  1.2519826163664458E+01 a       244     0    13     1     4
 -1.3081493205038596E+01 a       245     0    13     1     5
  5.4486484489804994E+00 a       246     0    13     1     6
  1.1105878883167792E+01 a       247     0    13     1     7
  3.1454015978224770E+00 a       248     0    13     1     8
  3.9568411850524683E+00 a       249     0    13     1     9
 -2.4339575225482452E+01 a       250     0    13     1    10
  1.6044271169944707E+01 a       251     0    13     1    11
 -1.2206789292090026E+01 a       252     0    13     1    12
  1.2549479627688319E+01 a       253     0    13     1    13
 -1.3618597009879684E+01 a       254     0    13     1    14
 -5.1946062617940987E+00 a       255     0    13     1    15
  8.5732409167287891E+00 a       256     0    13     1    16
  1.7633193399889759E+01 a       257     0    13     1    17
  1.2514624456986651E+01 a       258     0    13     1    18
 -8.9498496374672842E-01 a       259     0    13     1    19
  9.2770463051745207E+00 a       260     0    13     1    20
  5.5935478675940331E+00 a       261     0    14     1     1
  4.0053578986454745E+00 a       262     0    14     1     2
 -1.7486468529738615E+00 a       263     0    14     1     3
 -1.1040235608214095E+01 a       264     0    14     1     4
  6.3498763318456417E+00 a       265     0    14     1     5
  6.9194437534690745E-01 a       266     0    14     1     6
 -4.7571885292374203E+00 a       267     0    14     1     7
 -7.3573508894650566E+00 a       268     0    14     1     8
  1.0604734969252574E+00 a       269     0    14     1     9
  2.1165857967193085E+00 a       270     0    14     1    10
 -1.1307009386967383E+01 a       271     0    14     1    11
  1.8518468517135482E+00 a       272     0    14     1    12
  8.9881875484948903E+00 a       273     0    14     1    13
  3.8328344530951508E+00 a       274     0    14     1    14
 -2.8798943703034516E+00 a       275     0    14     1    15
  2.5613707697967958E+00 a       276     0    14     1    16
  1.2034097983155960E+00 a       277     0    14     1    17
 -6.6933432423854544E+00 a       278     0    14     1    18
  3.6363173530174526E+00 a       279     0    14     1    19
 -1.1066093928529835E+01 a       280     0    14     1    20
 -9.0959152866925628E+00 a       281     0    15     1     1
  2.2897094436812363E+01 a       282     0    15     1     2
  1.0785984834305671E+01 a       283     0    15     1     3
  7.0317171295984533E+00 a       284     0    15     1     4
  1.3187483875641133E+01 a       285     0    15     1     5
 -1.5298793027340329E+01 a       286     0    15     1     6
  3.1943230636415908E+01 a       287     0    15     1     7
  1.2366743943617509E+00 a       288     0    15     1     8
  6.6967849289815824E+00 a       289     0    15     1     9
 -2.8488616104058235E+00 a       290     0    15     1    10
 -9.4024017733797773E+00 a       291     0    15     1    11
 -3.0689715262527946E+00 a       292     0    15     1    12
 -3.2987423506570410E+00 a       293     0    15     1    13
 -1.9309993124204247E+01 a       294     0    15     1    14
 -1.6305437580228825E+00 a       295     0    15     1    15
 -1.1978338648528579E+01 a       296     0    15     1    16
 -3.1944922142740331E+00 a       297     0    15     1    17
  1.8599437230320582E+01 a       298     0    15     1    18
  6.8909969971996441E+00 a       299     0    15     1    19
 -2.0893680733078387E+01 a       300     0    15     1    20
  1.4983883278529524E+00 a       301     0    16     1     1
  2.8904495961293790E+00 a       302     0    16     1     2
  3.4355066896205455E-01 a       303     0    16     1     3
 -1.8105072968694717E+01 a       304     0    16     1     4
  7.8810048978352700E+00 a       305     0    16     1     5
 -5.1453626736111842E+00 a       306     0    16     1     6
 -1.7971139727557339E+00 a       307     0    16     1     7
 -2.2965625549756314E+00 a       308     0    16     1     8
 -8.9690054722287760E-01 a       309     0    16     1     9
  2.5986905983946618E+00 a       310     0    16     1    10
 -1.0748024551796965E+01 a       311     0    16     1    11
 -7.1602773696253674E-01 a       312     0    16     1    12
  1.4768537934651508E+01 a       313     0    16     1    13
 -1.8661883993570199E+00 a       314     0    16     1    14
 -1.4508396233471523E+00 a       315     0    16     1    15
  4.3157605228337985E+00 a       316     0    16     1    16
 -4.1798569485788892E+00 a       317     0    16     1    17
 -5.2354030316136613E-01 a       318     0    16     1    18
  5.3843357345275189E+00 a       319     0    16     1    19
 -1.1039216978409536E+01 a       320     0    16     1    20
  3.4933767616370170E+00 a       321     0    17     1     1
 -7.9773365211204554E+00 a       322     0    17     1     2
 -1.9504141750785330E+01 a       323     0    17     1     3
 -1.7732625166244094E+00 a       324     0    17     1     4
 -1.1957931217186028E+01 a       325     0    17     1     5
  8.2151576961681290E+00 a       326     0    17     1     6
 -1.1389060597423644E+00 a       327     0    17     1     7
 -1.0967052611708731E+01 a       328     0    17     1     8
 -6.0558164033097861E-01 a       329     0    17     1     9
 -2.1358664459971045E+01 a       330     0    17     1    10
  8.4798819062989654E+00 a       331     0    17     1    11
  1.6640274777063277E-01 a       332     0    17     1    12
 -3.7769569315509699E+01 a       333     0    17     1    13
  9.6395444980015856E+00 a       334     0    17     1    14
  4.6663663140365079E+00 a       335     0    17     1    15
 -6.5124346552338972E+00 a       336     0    17     1    16
  1.2302826394147639E+01 a       337     0    17     1    17
  2.6365526977463720E+01 a       338     0    17     1    18
  9.7034796696739889E+00 a       339     0    17     1    19
  8.0409463433436112E+00 a       340     0    17     1    20
 -8.6539475849989849E+00 a       341     0    18     1     1
  8.0810608876309669E+00 a       342     0    18     1     2
 -2.2756435182918850E+01 a       343     0    18     1     3
 -2.3517340641173732E+00 a       344     0    18     1     4
 -1.8692708249392531E+01 a       345     0    18     1     5
  9.1850583693055849E+00 a       346     0    18     1     6
  5.7143097596406314E+00 a       347     0    18     1     7
  2.5844924171287531E+01 a       348     0    18     1     8
 -1.7693446636632132E+01 a       349     0    18     1     9
 -1.9262522358759867E+01 a       350     0    18     1    10
  1.8160762655783646E+01 a       351     0    18     1    11
  1.3316997518390972E+00 a       352     0    18     1    12
  4.1346105605820425E+00 a       353     0    18     1    13
 -1.2637639463007922E+01 a       354     0    18     1    14
 -1.8498646427487323E+01 a       355     0    18     1    15
 -1.6935459972731386E+00 a       356     0    18     1    16
  8.6212104773310543E+00 a       357     0    18     1    17
 -3.2594766976925649E+00 a       358     0    18     1    18
 -1.2468541069931049E+01 a       359     0    18     1    19
 -8.0047711085557189E+00 a       360     0    18     1    20
 -1.3733979089875966E+01 a       361     0    19     1     1
 -8.0706992166701870E+00 a       362     0    19     1     2
 -1.9545805787856612E+01 a       363     0    19     1     3
 -2.3481565794002524E+01 a       364     0    19     1     4
 -4.4344746537720177E+00 a       365     0    19     1     5
  4.3599854241075064E+00 a       366     0    19     1     6
 -1.2299074151709919E+00 a       367     0    19     1     7
  4.8212713080541354E+00 a       368     0    19     1     8
  1.3174756105708290E+01 a       369     0    19     1     9
  4.5197144962627114E+00 a       370     0    19     1    10
 -2.0006830748196951E+01 a       371     0    19     1    11
 -1.6430455025860262E+01 a       372     0    19     1    12
 -8.1353635219564815E+00 a       373     0    19     1    13
  3.6218096163532643E+01 a       374     0    19     1    14
  3.5016015850278124E+00 a       375     0    19     1    15
 -1.6915692053102880E+01 a       376     0    19     1    16
 -9.4941877060381259E+00 a       377     0    19     1    17
  2.0683731286572979E+01 a       378     0    19     1    18
  1.3844017702009621E+01 a       379     0    19     1    19
  1.8232569393982647E+01 a       380     0    19     1    20
 -9.0227657987718981E+00 a       381     0    20     1     1
  1.3785483373030105E+00 a       382     0    20     1     2
  9.0291233467005116E-01 a       383     0    20     1     3
  5.8915771595945996E+00 a       384     0    20     1     4
  9.4038392559923134E-01 a       385     0    20     1     5
 -1.5486833250603796E+01 a       386     0    20     1     6
  4.3249270951511747E+00 a       387     0    20     1     7
  2.6224494525788568E+01 a       388     0    20     1     8
  1.8639340251569301E+00 a       389     0    20     1     9
  2.3274468312527667E+00 a       390     0    20     1    10
 -1.8415629166399590E+01 a       391     0    20     1    11
  1.0323279300827684E+00 a       392     0    20     1    12
  3.1684856237782313E+01 a       393     0    20     1    13
 -1.3280085582670278E+01 a       394     0    20     1    14
  2.2880982793142910E+00 a       395     0    20     1    15
 -2.5257581370796377E+01 a       396     0    20     1    16
 -1.5570080638136119E+00 a       397     0    20     1    17
  2.2634395446439960E-02 a       398     0    20     1    18
 -8.4613433441224810E+00 a       399     0    20     1    19
  6.7243603976968815E+00 a       400     0    20     1    20
  5.4593661812438858E+00 a       401     0    21     1     1
  1.0167173117401070E+01 a       402     0    21     1     2
  8.9901676798510497E+00 a       403     0    21     1     3
 -2.0151835985134960E+00 a       404     0    21     1     4
  1.6110168294920328E+01 a       405     0    21     1     5
  4.3000269223038732E+00 a       406     0    21     1     6
  4.5624765532474484E+01 a       407     0    21     1     7
  7.5635226116151424E+00 a       408     0    21     1     8
  1.4311753862275639E+01 a       409     0    21     1     9
  1.7375800638622840E+00 a       410     0    21     1    10
 -9.6579803559454476E+00 a       411     0    21     1    11
  8.8802682440993319E+00 a       412     0    21     1    12
  1.4177056920335687E-01 a       413     0    21     1    13
 -6.1077791664921186E+00 a       414     0    21     1    14
 -1.4360342540641060E+01 a       415     0    21     1    15
 -2.1114207157686739E+01 a       416     0    21     1    16
  4.3782264310532764E+00 a       417     0    21     1    17
  3.9113297884946879E-01 a       418     0    21     1    18
 -4.0390017776016753E+00 a       419     0    21     1    19
 -2.9234112208331680E+01 a       420     0    21     1    20
  5.4560740618736565E+00 a       421     0    22     1     1
  5.4033882802155500E+00 a       422     0    22     1     2
 -1.2139265817171687E+00 a       423     0    22     1     3
  3.0178234691183196E+01 a       424     0    22     1     4
 -8.5909044152830418E+00 a       425     0    22     1     5
  9.2535907786937734E+00 a       426     0    22     1     6
  4.8286753070598527E+00 a       427     0    22     1     7
  1.5604606973206867E+01 a       428     0    22     1     8
 -1.7167803417106722E+01 a       429     0    22     1     9
  1.9554416143024124E+01 a       430     0    22     1    10
 -2.3433006934600343E+01 a       431     0    22     1    11
  2.3573206470379336E+01 a       432     0    22     1    12
 -1.3479903235575398E+01 a       433     0    22     1    13
 -7.5100759884395449E+00 a       434     0    22     1    14
 -1.2996973962555590E+01 a       435     0    22     1    15
  1.0677274774205296E+01 a       436     0    22     1    16
  2.6414328184802778E+00 a       437     0    22     1    17
 -3.1727173466552266E+01 a       438     0    22     1    18
  5.3865394668074558E+00 a       439     0    22     1    19
  1.2906724087049604E+01 a       440     0    22     1    20
  6.5139775455092090E+00 a       441     0    23     1     1
  2.9414212895924868E-01 a       442     0    23     1     2
 -1.2428266543359427E+01 a       443     0    23     1     3
 -1.6603327043850879E+01 a       444     0    23     1     4
 -2.4398042373455384E+00 a       445     0    23     1     5
 -2.7341873457755803E+01 a       446     0    23     1     6
 -2.2376348472819238E+01 a       447     0    23     1     7
 -5.7098772846782646E+00 a       448     0    23     1     8
  1.1280807858531709E+01 a       449     0    23     1     9
 -1.9785812166520511E+01 a       450     0    23     1    10
  1.0145890478548296E+00 a       451     0    23     1    11
  1.3742807696057087E+01 a       452     0    23     1    12
  5.4952288435404939E-01 a       453     0    23     1    13
 -1.2930601860121836E+01 a       454     0    23     1    14
 -1.3208441342054588E+01 a       455     0    23     1    15
  6.1274750340736714E+00 a       456     0    23     1    16
  1.4655279388044558E+01 a       457     0    23     1    17
  1.9978631727884764E+01 a       458     0    23     1    18
  5.8502934440498482E+00 a       459     0    23     1    19
 -4.3165246010498395E+00 a       460     0    23     1    20
 -1.3802252956525134E+01 a       461     0    24     1     1
  9.6759230492618524E+00 a       462     0    24     1     2
  1.0541036299416684E+01 a       463     0    24     1     3
  2.7677294160538480E+01 a       464     0    24     1     4
  9.6654412299774766E+00 a       465     0    24     1     5
  2.2408195497298504E+01 a       466     0    24     1     6
  2.6468522290923538E+01 a       467     0    24     1     7
  2.9020973026081580E+00 a       468     0    24     1     8
  2.6007368056500395E+00 a       469     0    24     1     9
  3.1321324397179964E+01 a       470     0    24     1    10
 -2.1689597319906117E+01 a       471     0    24     1    11
  8.5508274209907906E+00 a       472     0    24     1    12
  1.1864787338223548E+01 a       473     0    24     1    13
  3.1974390419227152E+00 a       474     0    24     1    14
 -8.6681157994652036E+00 a       475     0    24     1    15
  9.0733757925604532E+00 a       476     0    24     1    16
 -7.6750647799120069E+00 a       477     0    24     1    17
 -2.2443949292634116E+01 a       478     0    24     1    18
  1.5234238566316071E+01 a       479     0    24     1    19
  8.9941673678356937E-01 a       480     0    24     1    20
  6.4943133466388163E+00 a       481     0    25     1     1
 -1.1732646555044992E+01 a       482     0    25     1     2
  6.4846785473921793E+00 a       483     0    25     1     3
 -6.6701629528904469E+00 a       484     0    25     1     4
 -6.4101858842068511E+00 a       485     0    25     1     5
 -1.4350723164100591E+01 a       486     0    25     1     6
 -4.3086210897910737E+00 a       487     0    25     1     7
 -2.6102036861711156E+01 a       488     0    25     1     8
 -3.6564819800035191E+00 a       489     0    25     1     9
 -1.8454749273590721E+01 a       490     0    25     1    10
 -4.4261557114814449E+00 a       491     0    25     1    11
 -1.0042077673405181E+01 a       492     0    25     1    12
 -1.8668951841477785E+01 a       493     0    25     1    13
  2.0611904139603197E+00 a       494     0    25     1    14
  2.9265419400992563E+01 a       495     0    25     1    15
  1.3441123217254358E+01 a       496     0    25     1    16
 -1.0585166615361073E+01 a       497     0    25     1    17
  1.4382706840042955E+01 a       498     0    25     1    18
 -6.6878105862355310E+00 a       499     0    25     1    19
 -9.3186350170064038E+00 a       500     0    25     1    20
  1.0229812572542542E+01 a       501     0    26     1     1
  3.6723644152287015E+01 a       502     0    26     1     2
  1.0884099043341726E+01 a       503     0    26     1     3
 -4.0028213747301633E+00 a       504     0    26     1     4
  3.9097197173859990E+00 a       505     0    26     1     5
 -4.0841718911385509E+00 a       506     0    26     1     6
 -1.9351810452516084E+01 a       507     0    26     1     7
 -3.2648218935089268E+01 a       508     0    26     1     8
 -9.2962857387110187E-01 a       509     0    26     1     9
  9.5274677292567240E+00 a       510     0    26     1    10
  1.0577913628599967E+01 a       511     0    26     1    11
 -3.4737499915830861E+00 a       512     0    26     1    12
 -1.0370169723157037E+01 a       513     0    26     1    13
  1.7462762920562820E+01 a       514     0    26     1    14
  2.5603296261769439E+00 a       515     0    26     1    15
  2.9675605441998285E+00 a       516     0    26     1    16
 -7.7971625742260242E+00 a       517     0    26     1    17
 -1.4263192170826577E+00 a       518     0    26     1    18
  6.3782448137845433E+00 a       519     0    26     1    19
 -3.9538293497701056E+00 a       520     0    26     1    20
  1.6022123539069376E+01 a       521     0    27     1     1
 -1.5467939779377293E+01 a       522     0    27     1     2
 -5.9111748774544655E+00 a       523     0    27     1     3
 -1.6696453997820884E+00 a       524     0    27     1     4
 -8.7692908475035090E+00 a       525     0    27     1     5
  1.0055741615543470E+01 a       526     0    27     1     6
 -8.5220941425917074E-01 a       527     0    27     1     7
 -1.2019965370188009E+01 a       528     0    27     1     8
  1.4743359045708408E+01 a       529     0    27     1     9
 -1.5412134381405393E+01 a       530     0    27     1    10
  1.4347462403788031E+01 a       531     0    27     1    11
 -1.2712015373260892E+01 a       532     0    27     1    12
 -5.2107436362296902E+00 a       533     0    27     1    13
 -6.1066375303076559E-01 a       534     0    27     1    14
 -7.9710766957646744E+00 a       535     0    27     1    15
  1.8015212701498413E+01 a       536     0    27     1    16
  3.2146318924815196E+00 a       537     0    27     1    17
  5.4715963511197359E+00 a       538     0    27     1    18
 -1.9508630830726482E+01 a       539     0    27     1    19
 -9.1995606620643045E-01 a       540     0    27     1    20
 -1.1681872062165279E+00 a       541     0    28     1     1
  2.4632435980529950E+00 a       542     0    28     1     2
  1.1108173497936262E+01 a       543     0    28     1     3
 -5.1914228106462685E+00 a       544     0    28     1     4
  1.2471783085713225E+01 a       545     0    28     1     5
 -1.9134503884594157E+01 a       546     0    28     1     6
 -1.4917146063869863E+01 a       547     0    28     1     7
 -5.6186275160996697E+00 a       548     0    28     1     8
  1.7444764392154731E+01 a       549     0    28     1     9
  1.3144094976642688E+01 a       550     0    28     1    10
 -7.1687678767846021E+00 a       551     0    28     1    11
 -1.7999538473138486E+01 a       552     0    28     1    12
  2.1587547795744353E+01 a       553     0    28     1    13
 -7.5629977603566223E+00 a       554     0    28     1    14
  6.5974616597053011E+00 a       555     0    28     1    15
 -1.1736368307094782E+01 a       556     0    28     1    16
 -1.3702707242570525E-01 a       557     0    28     1    17
  8.1568740206349606E+00 a       558     0    28     1    18
  1.7780022095880266E+01 a       559     0    28     1    19
 -2.6294560206358135E+01 a       560     0    28     1    20
 -8.2314518089403776E+00 a       561     0    29     1     1
 -6.1400385330154927E+00 a       562     0    29     1     2
  8.8725183153639531E+00 a       563     0    29     1     3
 -3.4696868784455034E-02 a       564     0    29     1     4
  1.9981594734537808E+01 a       565     0    29     1     5
 -1.8861196206761541E+01 a       566     0    29     1     6
 -1.1467115246688930E+01 a       567     0    29     1     7
 -1.5775755979906526E-02 a       568     0    29     1     8
  1.0367623150590546E+01 a       569     0    29     1     9
  1.3054956319453588E+01 a       570     0    29     1    10
 -4.1653179378080774E+00 a       571     0    29     1    11
 -7.7488104371606372E+00 a       572     0    29     1    12
 -3.2080563979392034E+00 a       573     0    29     1    13
 -2.3824148827861990E+01 a       574     0    29     1    14
  9.5896661672496659E+00 a       575     0    29     1    15
  1.2867868849140685E+01 a       576     0    29     1    16
 -2.9989822988300849E+00 a       577     0    29     1    17
 -2.0422721634271763E+01 a       578     0    29     1    18
  8.6747589673037862E+00 a       579     0    29     1    19
  8.2786770676379824E+00 a       580     0    29     1    20
  2.4819282084451917E+00 a       581     0    30     1     1
  1.2538277691019835E+00 a       582     0    30     1     2
  1.5249697009015669E+01 a       583     0    30     1     3
  1.4380191461059539E+01 a       584     0    30     1     4
 -6.6519781667791742E+00 a       585     0    30     1     5
 -3.0414256123418442E+00 a       586     0    30     1     6
  3.6798833688456805E+00 a       587     0    30     1     7
 -1.2877706962599737E+01 a       588     0    30     1     8
 -8.1581861406437177E+00 a       589     0    30     1     9
  9.5619879471373341E+00 a       590     0    30     1    10
  1.8378513384072999E+01 a       591     0    30     1    11
  5.1018609231509870E+00 a       592     0    30     1    12
  8.1305143161132598E+00 a       593     0    30     1    13
  5.4155394489021251E+00 a       594     0    30     1    14
  2.0110820693064159E+01 a       595     0    30     1    15
 -1.6055271141609595E+01 a       596     0    30     1    16
 -1.3462066444646945E+01 a       597     0    30     1    17
 -7.2607481296059770E+00 a       598     0    30     1    18
 -1.4124698603205498E+01 a       599     0    30     1    19
  4.3829578266612632E+00 a       600     0    30     1    20
  1.2339549315080109E+01 a       601     0    31     1     1
 -1.4494245178580671E+01 a       602     0    31     1     2
  2.3996785154874555E+01 a       603     0    31     1     3
  2.9687413439257369E+01 a       604     0    31     1     4
  1.8408152151661572E+01 a       605     0    31     1     5
 -4.0903499379525377E-01 a       606     0    31     1     6
 -6.8823342709607083E+00 a       607     0    31     1     7
 -4.8962451914969947E+00 a       608     0    31     1     8
 -5.9036943241792061E-01 a       609     0    31     1     9
 -3.4697670542165175E+00 a       610     0    31     1    10
 -1.4815712882334602E+00 a       611     0    31     1    11
 -1.0426899544097871E+01 a       612     0    31     1    12
  9.9627813691424052E+00 a       613     0    31     1    13
 -2.1102377945423797E+01 a       614     0    31     1    14
  8.2742060281704113E+00 a       615     0    31     1    15
  1.4484541708462254E+01 a       616     0    31     1    16
  2.2344150400263423E+01 a       617     0    31     1    17
 -1.8993251768482737E+00 a       618     0    31     1    18
  7.3335518624848879E+00 a       619     0    31     1    19
 -2.6600951819093137E+01 a       620     0    31     1    20
  6.1303828021783788E+00 a       621     0    32     1     1
  1.5274013236707393E+01 a       622     0    32     1     2
  7.7001291241245067E+00 a       623     0    32     1     3
  1.3675919939463906E+01 a       624     0    32     1     4
 -4.0953304537765574E+00 a       625     0    32     1     5
  1.3682562621427522E+01 a       626     0    32     1     6
  3.4958043245851933E+01 a       627     0    32     1     7
  2.9817780272883061E+00 a       628     0    32     1     8
 -8.2217350549239629E+00 a       629     0    32     1     9
 -3.9882073171956631E+00 a       630     0    32     1    10
  5.5187365767891317E+00 a       631     0    32     1    11
  3.0607598129259888E+01 a       632     0    32     1    12
  8.0138074660988412E+00 a       633     0    32     1    13
  1.0978276840985894E+01 a       634     0    32     1    14
 -2.1466413829530907E+01 a       635     0    32     1    15
  7.6472165817236091E+00 a       636     0    32     1    16
  1.5063726416909297E+01 a       637     0    32     1    17
 -1.0982680144613866E+01 a       638     0    32     1    18
 -6.3167915119480700E+00 a       639     0    32     1    19
 -1.2672812126300617E+01 a       640     0    32     1    20
  7.7874281817848772E+00 a       641     0    33     1     1
  4.7881501820821235E+00 a       642     0    33     1     2
  1.2172704036603678E+01 a       643     0    33     1     3
 -3.0221205443696569E+01 a       644     0    33     1     4
 -1.2380670410855615E+01 a       645     0    33     1     5
  2.0368962329993843E+00 a       646     0    33     1     6
 -5.5233980013207091E+00 a       647     0    33     1     7
  6.4594391893653524E+00 a       648     0    33     1     8
  4.6896184536947167E+00 a       649     0    33     1     9
  2.1606228014591256E+01 a       650     0    33     1    10
  6.9994795946869628E+00 a       651     0    33     1    11
 -6.0936573897558439E+00 a       652     0    33     1    12
 -9.0004762846185802E+00 a       653     0    33     1    13
 -1.9224403841131849E+01 a       654     0    33     1    14
 -1.0039166918341632E+01 a       655     0    33     1    15
  1.7800754217941947E+01 a       656     0    33     1    16
 -2.3278960860246091E+01 a       657     0    33     1    17
  7.0615997545346199E+00 a       658     0    33     1    18
  1.5260354627056504E+01 a       659     0    33     1    19
 -8.7107110865000621E+00 a       660     0    33     1    20
 -1.9611537317460414E+01 a       661     0    34     1     1
 -1.5668628719210729E+00 a       662     0    34     1     2
 -1.1800812890418579E+01 a       663     0    34     1     3
 -9.3870465849670328E+00 a       664     0    34     1     4
 -5.3916415260479245E-01 a       665     0    34     1     5
  1.3523710851331286E-01 a       666     0    34     1     6
 -1.2137912573680081E+01 a       667     0    34     1     7
  9.4343515422695734E-01 a       668     0    34     1     8
  1.3995294206887680E+01 a       669     0    34     1     9
  1.0429643314542021E+01 a       670     0    34     1    10
  1.1672664466959299E+01 a       671     0    34     1    11
 -3.2740137646562042E+00 a       672     0    34     1    12
 -7.2568307492093336E+00 a       673     0    34     1    13
  2.2637533967285201E+01 a       674     0    34     1    14
  1.6113639140570974E+01 a       675     0    34     1    15
  1.5170367786987494E+01 a       676     0    34     1    16
 -2.8797356400819091E+01 a       677     0    34     1    17
  1.3924386087028900E+01 a       678     0    34     1    18
 -2.7195306515144594E+01 a       679     0    34     1    19
  1.7027382607673477E+01 a       680     0    34     1    20
  3.4508931363553059E+00 a       681     0    35     1     1
 -1.8351899605292569E+01 a       682     0    35     1     2
  1.5319313471277067E+00 a       683     0    35     1     3
  1.5884300544137398E+01 a       684     0    35     1     4
 -4.3660248034175968E+00 a       685     0    35     1     5
  5.1425687315393960E+00 a       686     0    35     1     6
  6.7443048425557892E+00 a       687     0    35     1     7
  6.4766437390783684E+00 a       688     0    35     1     8
 -1.5290070096074324E+01 a       689     0    35     1     9
  1.0496130698493074E+01 a       690     0    35     1    10
  1.3974512392439685E+01 a       691     0    35     1    11
 -2.5407425764697997E+01 a       692     0    35     1    12
  8.2090233825157943E-01 a       693     0    35     1    13
  9.8512750457366955E+00 a       694     0    35     1    14
  1.8377640162816821E+01 a       695     0    35     1    15
  1.2624847585630092E+00 a       696     0    35     1    16
  4.6446327305760189E+00 a       697     0    35     1    17
 -1.3838325031180640E+01 a       698     0    35     1    18
 -2.2478135455239592E+01 a       699     0    35     1    19
  8.6520719471647460E+00 a       700     0    35     1    20
  1.0400427958354124E+01 a       701     0    36     1     1
 -1.3942584941727812E+01 a       702     0    36     1     2
  5.6024449067303559E+00 a       703     0    36     1     3
 -2.3863223911068182E+01 a       704     0    36     1     4
 -7.4052633163493340E+00 a       705     0    36     1     5
 -2.6845502069681459E+01 a       706     0    36     1     6
 -1.7534673921549093E+01 a       707     0    36     1     7
 -1.3528416986256333E+01 a       708     0    36     1     8
 -5.2800165898094038E+00 a       709     0    36     1     9
  6.2946506120223269E+00 a       710     0    36     1    10
  6.1380865702149281E+00 a       711     0    36     1    11
 -1.2336552686389505E+01 a       712     0    36     1    12
  1.4759049585558470E+00 a       713     0    36     1    13
 -2.9689723804892498E+00 a       714     0    36     1    14
  1.4061796031752030E+01 a       715     0    36     1    15
 -1.1386653391243705E+01 a       716     0    36     1    16
 -1.9683837146952172E+01 a       717     0    36     1    17
 -7.1749960177123695E+00 a       718     0    36     1    18
  2.4117686530836377E+01 a       719     0    36     1    19
  8.0908943695393383E+00 a       720     0    36     1    20
 -1.2356071605905445E+01 a       721     0    37     1     1
  1.6535208167957855E+01 a       722     0    37     1     2
 -8.4240993567159101E+00 a       723     0    37     1     3
  7.9600385692206697E+00 a       724     0    37     1     4
  8.6059824619736052E+00 a       725     0    37     1     5
  2.4011244055894874E+01 a       726     0    37     1     6
 -2.5642491129980396E+00 a       727     0    37     1     7
  2.1058139725087035E+01 a       728     0    37     1     8
  4.5553141309314187E+00 a       729     0    37     1     9
  9.7081067934579774E+00 a       730     0    37     1    10
  1.7623611148887246E+01 a       731     0    37     1    11
  3.0861942336251915E+00 a       732     0    37     1    12
  1.5049997172798310E+01 a       733     0    37     1    13
  3.8781780591032794E-01 a       734     0    37     1    14
 -8.7584550875378113E+00 a       735     0    37     1    15
 -9.0230794173536943E-01 a       736     0    37     1    16
  1.8211240855611045E+01 a       737     0    37     1    17
 -2.1693236362547214E+01 a       738     0    37     1    18
 -2.4564571647873628E+01 a       739     0    37     1    19
 -2.2741491591444412E+00 a       740     0    37     1    20
 -5.5647601417606154E+00 a       741     0    38     1     1
 -2.3899390674273551E+01 a       742     0    38     1     2
 -1.1551486103360910E+01 a       743     0    38     1     3
 -1.1101040592178316E+01 a       744     0    38     1     4
 -8.5241847731287113E+00 a       745     0    38     1     5
  5.2564170211798178E+00 a       746     0    38     1     6
 -1.4484569435117519E+01 a       747     0    38     1     7
  1.4667919027200060E+00 a       748     0    38     1     8
  9.9550915869673329E+00 a       749     0    38     1     9
  2.2405608562259500E+00 a       750     0    38     1    10
 -1.3764384618128203E+01 a       751     0    38     1    11
 -1.4478094397762295E+01 a       752     0    38     1    12
 -1.6120483231347482E+01 a       753     0    38     1    13
 -1.1468308533506599E+00 a       754     0    38     1    14
  8.5243592780116284E-01 a       755     0    38     1    15
 -5.6662803429908859E+00 a       756     0    38     1    16
 -1.3393567760847078E+00 a       757     0    38     1    17
  9.9062078377405616E+00 a       758     0    38     1    18
  1.1152045168686454E+01 a       759     0    38     1    19
  1.2076848818989157E+01 a       760     0    38     1    20
 -1.2134173134326085E+01 a       761     0    39     1     1
 -1.4032716427628046E+01 a       762     0    39     1     2
 -3.6878642261622203E+00 a       763     0    39     1     3
  5.7520083215178035E+00 a       764     0    39     1     4
  1.2694458455739026E+01 a       765     0    39     1     5
  4.6394542292360086E+00 a       766     0    39     1     6
  2.2411577278019519E+00 a       767     0    39     1     7
 -8.3848583470933971E+00 a       768     0    39     1     8
 -7.5145406024366963E+00 a       769     0    39     1     9
 -1.0341506461101943E+01 a       770     0    39     1    10
 -3.7448626142763115E+00 a       771     0    39     1    11
 -6.2148612794905427E+00 a       772     0    39     1    12
  7.8310308100478885E+00 a       773     0    39     1    13
 -2.3567591389703302E+00 a       774     0    39     1    14
  2.0024252373699792E+01 a       775     0    39     1    15
  7.8914030814964766E+00 a       776     0    39     1    16
  1.2554988173371457E+01 a       777     0    39     1    17
 -4.0439709902896031E+00 a       778     0    39     1    18
 -6.7040500289324854E+00 a       779     0    39     1    19
  1.7165965547191639E+01 a       780     0    39     1    20
  3.2034564671897674E+00 a       781     0    40     1     1
 -1.0584087808979019E+01 a       782     0    40     1     2
  1.1213800366189668E+01 a       783     0    40     1     3
  9.1419702598092041E+00 a       784     0    40     1     4
 -1.9999276990397799E+01 a       785     0    40     1     5
  4.9882047848174507E+00 a       786     0    40     1     6
 -1.6751523389999605E+01 a       787     0    40     1     7
  8.5105108842446651E+00 a       788     0    40     1     8
 -1.4088247897480255E+01 a       789     0    40     1     9
 -6.8343462405257869E+00 a       790     0    40     1    10
  1.1844828364418403E+01 a       791     0    40     1    11
  1.6060409959554306E+01 a       792     0    40     1    12
  2.3557005541032421E+01 a       793     0    40     1    13
 -8.4861308172917016E-01 a       794     0    40     1    14
 -2.3541986016627401E+01 a       795     0    40     1    15
 -8.8064697915464247E+00 a       796     0    40     1    16
  2.6775361442327039E+01 a       797     0    40     1    17
 -4.8247413308594149E+00 a       798     0    40     1    18
  2.4053853312472725E+01 a       799     0    40     1    19
  1.7889165575004743E+01 a       800     0    40     1    20
 -7.3800787156723768E-01 b       801     1     1
  5.9612138878792518E+00 b       802     1     2
 -2.3702804972246345E+00 b       803     1     3
 -9.6960053295582660E-02 b       804     1     4
  2.3093403992740721E-02 b       805     1     5
 -3.0765135780607844E-01 b       806     1     6
  5.7351784918334037E+00 b       807     1     7
  2.1576572153046419E-01 b       808     1     8
 -6.9365198520623772E-01 b       809     1     9
  1.8753629771681637E+00 b       810     1    10
  1.0286448192590769E+00 b       811     1    11
 -4.2342624912811544E-01 b       812     1    12
  2.9515335895329060E+00 b       813     1    13
  1.9187252195497839E-01 b       814     1    14
  2.8523683350162172E+00 b       815     1    15
 -7.8813581053245174E-01 b       816     1    16
  8.7147066449991317E-01 b       817     1    17
 -2.2045426218986739E+00 b       818     1    18
  1.0702259158503682E+00 b       819     1    19
  5.3035083539397410E-01 b       820     1    20
  7.9365734241761157E+00 a       821     1     1     2     1
 -2.2877004039789308E+00 a       822     1     1     2     2
  2.7857216077168601E-01 a       823     1     1     2     3
 -1.3981142803352180E+00 a       824     1     1     2     4
  1.6088390094438048E+00 a       825     1     1     2     5
  4.6043373387221846E+00 a       826     1     1     2     6
  3.2292865919426248E+00 a       827     1     1     2     7
 -6.1955437738276997E-02 a       828     1     1     2     8
 -9.3503419222282114E-01 a       829     1     1     2     9
 -4.4871506966532886E+00 a       830     1     1     2    10
  1.4035768841963210E+00 a       831     1     1     2    11
 -4.8698078961628521E+00 a       832     1     1     2    12
  5.5117510072872413E+00 a       833     1     1     2    13
 -1.0092151619579923E+01 a       834     1     1     2    14
  4.1300904457713035E+00 a       835     1     1     2    15
  5.6176225274633538E+00 a       836     1     1     2    16
 -2.5462928393789852E-01 a       837     1     1     2    17
 -6.2250896511315030E+00 a       838     1     1     2    18
  4.8369077487939210E-01 a       839     1     1     2    19
  5.4611660682548324E+00 a       840     1     1     2    20
 -4.4472183630629916E+00 a       841     1     2     2     1
  5.6629020259485987E+00 a       842     1     2     2     2
 -4.8974014356488089E+00 a       843     1     2     2     3
  7.9496356028051240E-01 a       844     1     2     2     4
 -2.2681165467812798E+00 a       845     1     2     2     5
  2.6767834697981736E+00 a       846     1     2     2     6
 -4.8640241605202323E+00 a       847     1     2     2     7
  2.3015028393388341E+00 a       848     1     2     2     8
 -5.5213470936704079E+00 a       849     1     2     2     9
  6.2418358050329703E-01 a       850     1     2     2    10
  4.0518732916177349E+00 a       851     1     2     2    11
 -1.7039644487790624E+00 a       852     1     2     2    12
 -2.4003082224355858E+00 a       853     1     2     2    13
  4.7731795755725495E+00 a       854     1     2     2    14
  1.5174658155227507E+00 a       855     1     2     2    15
 -7.4853145185505756E+00 a       856     1     2     2    16
  1.0312728309560553E+00 a       857     1     2     2    17
  1.2140570962209422E+01 a       858     1     2     2    18
  1.0487048310216398E+01 a       859     1     2     2    19
  8.2164541390060783E+00 a       860     1     2     2    20
 -1.5030358809723705E+01 a       861     1     3     2     1
  4.0614142065295393E+00 a       862     1     3     2     2
  4.8672882131938904E+00 a       863     1     3     2     3
 -7.0189036563787806E+00 a       864     1     3     2     4
  4.5221194829175362E+00 a       865     1     3     2     5
  5.1298927213662768E+00 a       866     1     3     2     6
 -2.0295141483316108E+00 a       867     1     3     2     7
  9.1950623642215898E+00 a       868     1     3     2     8
  2.0156369300411368E+00 a       869     1     3     2     9
 -4.3952836784376820E-01 a       870     1     3     2    10
  1.5921881574807675E+00 a       871     1     3     2    11
 -3.4458098388590011E+00 a       872     1     3     2    12
 -5.5725276785145708E+00 a       873     1     3     2    13
  6.6000120079649429E+00 a       874     1     3     2    14
 -4.5271393214362101E+00 a       875     1     3     2    15
  1.8931163348619595E+00 a       876     1     3     2    16
  4.8927729948265375E+00 a       877     1     3     2    17
  7.3289224632559478E+00 a       878     1     3     2    18
  1.4337156160691125E+00 a       879     1     3     2    19
 -5.6988235377331682E+00 a       880     1     3     2    20
 -2.8534594617634959E+00 a       881     1     4     2     1
  1.3562559348888368E+00 a       882     1     4     2     2
 -2.5530015786850235E+00 a       883     1     4     2     3
  4.4983914404222292E+00 a       884     1     4     2     4
  4.0471118788615339E+00 a       885     1     4     2     5
 -5.9754273616923701E+00 a       886     1     4     2     6
  3.7545157210316975E+00 a       887     1     4     2     7
  2.4510227780762426E+00 a       888     1     4     2     8
 -6.2352664267388036E-01 a       889     1     4     2     9
 -1.3633601575948846E+00 a       890     1     4     2    10
 -3.9571197774379546E-01 a       891     1     4     2    11
 -3.1459921496011947E+00 a       892     1     4     2    12
  3.0576383652235681E+00 a       893     1     4     2    13
 -1.1193138304928949E+00 a       894     1     4     2    14
 -3.5212968917855818E+00 a       895     1     4     2    15
 -4.7986692911566848E+00 a       896     1     4     2    16
 -6.8658536954256011E+00 a       897     1     4     2    17
  3.7484178657606688E+00 a       898     1     4     2    18
  8.1400004549566631E+00 a       899     1     4     2    19
 -1.9726511402497278E+00 a       900     1     4     2    20
 -8.7549544486937876E+00 a       901     1     5     2     1
 -7.2112213360290267E-01 a       902     1     5     2     2
 -3.1789200133129585E+00 a       903     1     5     2     3
  3.0024728337602653E+00 a       904     1     5     2     4
  2.5035355482581281E+00 a       905     1     5     2     5
 -3.6996797643810819E-01 a       906     1     5     2     6
 -3.8442252676250988E-01 a       907     1     5     2     7
  4.9353831958841763E+00 a       908     1     5     2     8
  1.7026415925920438E-01 a       909     1     5     2     9
 -1.1383103859470967E+00 a       910     1     5     2    10
  2.5098857076524146E+00 a       911     1     5     2    11
  3.3891105918754383E-01 a       912     1     5     2    12
  4.6616411906415394E+00 a       913     1     5     2    13
 -1.7162149575847363E+00 a       914     1     5     2    14
 -4.6268390248054514E-01 a       915     1     5     2    15
 -7.1873219492111060E+00 a       916     1     5     2    16
  1.3982009981507176E-01 a       917     1     5     2    17
 -8.8150291106161411E+00 a       918     1     5     2    18
  1.0446244230426743E+01 a       919     1     5     2    19
 -2.3599487148585119E-01 a       920     1     5     2    20
 -6.4885032531848923E+00 a       921     1     6     2     1
  5.1230031597995174E+00 a       922     1     6     2     2
 -3.3426438419482123E+00 a       923     1     6     2     3
 -3.9618415709180095E+00 a       924     1     6     2     4
  2.0988557870731310E+00 a       925     1     6     2     5
  5.1098970750962902E+00 a       926     1     6     2     6
  3.0404809960813195E-01 a       927     1     6     2     7
 -1.6856314292541161E-01 a       928     1     6     2     8
  5.6795984906132988E+00 a       929     1     6     2     9
  1.5846564895295847E+00 a       930     1     6     2    10
 -2.9612089343932957E+00 a       931     1     6     2    11
 -3.4673500718530725E+00 a       932     1     6     2    12
 -7.8029273643478980E-01 a       933     1     6     2    13
  9.5697985344376579E-01 a       934     1     6     2    14
  3.5201236169911492E+00 a       935     1     6     2    15
  1.7045899411308658E+00 a       936     1     6     2    16
  3.4451870987225197E+00 a       937     1     6     2    17
 -2.9327390544234162E+00 a       938     1     6     2    18
 -2.1368313629764804E+00 a       939     1     6     2    19
 -1.5906794591151847E+00 a       940     1     6     2    20
  5.1559562565204633E+00 a       941     1     7     2     1
  2.6848567220128521E+00 a       942     1     7     2     2
  2.0728757104543569E+00 a       943     1     7     2     3
 -7.9927614989205544E+00 a       944     1     7     2     4
  9.8289355636955076E+00 a       945     1     7     2     5
  9.3441741651585701E+00 a       946     1     7     2     6
  5.1783274667494628E-01 a       947     1     7     2     7
  6.0430759323392538E+00 a       948     1     7     2     8
  6.1667935740071771E+00 a       949     1     7     2     9
  3.5890949934618162E+00 a       950     1     7     2    10
 -7.4823465804441769E-01 a       951     1     7     2    11
  1.4441144102457409E+01 a       952     1     7     2    12
 -3.8638336184340689E+00 a       953     1     7     2    13
 -4.4057319756045761E+00 a       954     1     7     2    14
 -3.8723002962269018E+00 a       955     1     7     2    15
 -2.6110945378390964E+00 a       956     1     7     2    16
 -2.6679852308695522E+00 a       957     1     7     2    17
 -1.4715449421846023E+01 a       958     1     7     2    18
 -1.1149494833363912E+01 a       959     1     7     2    19
 -3.1303580069548729E+00 a       960     1     7     2    20
 -1.6350553691788527E+01 a       961     1     8     2     1
  5.6121279060677010E+00 a       962     1     8     2     2
 -3.7663901676401790E-01 a       963     1     8     2     3
 -7.3883539162499776E+00 a       964     1     8     2     4
  1.1958385267649527E+01 a       965     1     8     2     5
  2.0342060505946926E+00 a       966     1     8     2     6
 -3.5072486892522901E+00 a       967     1     8     2     7
 -8.3829345368256536E-01 a       968     1     8     2     8
  1.3927903559189196E+00 a       969     1     8     2     9
  2.9736903121303815E+00 a       970     1     8     2    10
  2.6915075462663909E+00 a       971     1     8     2    11
 -7.8527060562497981E+00 a       972     1     8     2    12
 -2.9898181941080373E+00 a       973     1     8     2    13
  1.0088825119106504E+01 a       974     1     8     2    14
 -1.6804018455710434E+00 a       975     1     8     2    15
  9.4421021478668443E+00 a       976     1     8     2    16
  5.0919827891625911E+00 a       977     1     8     2    17
 -8.9101457283014407E-01 a       978     1     8     2    18
  5.4749004230396174E+00 a       979     1     8     2    19
  3.2021450816290396E-02 a       980     1     8     2    20
  3.8954374981831092E+00 a       981     1     9     2     1
  1.4817994197214621E+00 a       982     1     9     2     2
  3.8326404438521444E+00 a       983     1     9     2     3
 -5.8527479800210269E+00 a       984     1     9     2     4
  5.9854366642774819E+00 a       985     1     9     2     5
  1.0382154752713153E+00 a       986     1     9     2     6
 -2.1856584820323746E+00 a       987     1     9     2     7
  9.7331445161984647E+00 a       988     1     9     2     8
  3.6647986841985931E+00 a       989     1     9     2     9
 -2.1025638217388148E-02 a       990     1     9     2    10
  5.2779354746575491E+00 a       991     1     9     2    11
  2.5478953812051919E-01 a       992     1     9     2    12
  2.3987130963269405E+00 a       993     1     9     2    13
  4.1121354755453012E+00 a       994     1     9     2    14
  1.6987600820496820E+00 a       995     1     9     2    15
 -2.1665681917028437E-01 a       996     1     9     2    16
  1.5033522330609768E+00 a       997     1     9     2    17
 -3.2384661617813926E+00 a       998     1     9     2    18
  3.6503949783827139E+00 a       999     1     9     2    19
 -1.5759360233892183E+00 a      1000     1     9     2    20
  2.4306089574085741E+00 a      1001     1    10     2     1
  3.1429270805793359E+00 a      1002     1    10     2     2
  1.6071009422862941E+00 a      1003     1    10     2     3
 -5.7406182832816022E-01 a      1004     1    10     2     4
  8.1934440472965786E+00 a      1005     1    10     2     5
 -4.8872857532595759E+00 a      1006     1    10     2     6
 -2.3783372152373770E+00 a      1007     1    10     2     7
 -4.1047609362102766E-01 a      1008     1    10     2     8
 -4.9109678257098945E+00 a      1009     1    10     2     9
  5.0157572125379755E+00 a      1010     1    10     2    10
 -3.6586174917808663E+00 a      1011     1    10     2    11
 -1.4364336415975574E+00 a      1012     1    10     2    12
  4.5420631118776065E+00 a      1013     1    10     2    13
 -1.6154378704260330E-01 a      1014     1    10     2    14
 -7.6618225266502860E+00 a      1015     1    10     2    15
  4.1772505190017366E+00 a      1016     1    10     2    16
 -3.7981458156046993E-01 a      1017     1    10     2    17
  3.4510100067813454E+00 a      1018     1    10     2    18
 -8.4227671640320734E-01 a      1019     1    10     2    19
  5.5876130339568029E+00 a      1020     1    10     2    20
 -1.1930159733013483E+01 a      1021     1    11     2     1
 -1.0140648052139692E+01 a      1022     1    11     2     2
 -2.1022210922658831E+00 a      1023     1    11     2     3
  1.7888225101575836E-01 a      1024     1    11     2     4
  2.2113117614315087E+01 a      1025     1    11     2     5
  4.3947158214730164E+00 a      1026     1    11     2     6
 -4.3762307867373647E+00 a      1027     1    11     2     7
  1.8170377558191242E+00 a      1028     1    11     2     8
 -2.5595227600253567E+00 a      1029     1    11     2     9
  2.8743804900380504E-01 a      1030     1    11     2    10
 -5.0561821488114020E+00 a      1031     1    11     2    11
 -3.1293223750904144E+00 a      1032     1    11     2    12
 -7.6523638694351686E+00 a      1033     1    11     2    13
  5.4133602081314338E+00 a      1034     1    11     2    14
  2.5695865075773785E+00 a      1035     1    11     2    15
  3.3220213051338763E+00 a      1036     1    11     2    16
  2.6379288558290650E+00 a      1037     1    11     2    17
 -2.0592718100473002E+00 a      1038     1    11     2    18
 -2.1370345423089252E+00 a      1039     1    11     2    19
 -3.0908180060943380E+00 a      1040     1    11     2    20
 -3.9575386493020649E-02 a      1041     1    12     2     1
  4.0352894005908171E+00 a      1042     1    12     2     2
  3.1083827628031913E-01 a      1043     1    12     2     3
 -6.5734202430716349E-01 a      1044     1    12     2     4
  1.1544355761134810E+01 a      1045     1    12     2     5
  1.8282905062129295E+00 a      1046     1    12     2     6
 -3.5880948219541025E+00 a      1047     1    12     2     7
 -4.6278393105526461E-01 a      1048     1    12     2     8
 -2.7324500507365457E-02 a      1049     1    12     2     9
  1.5313784935881769E-01 a      1050     1    12     2    10
 -3.2037914022276481E-01 a      1051     1    12     2    11
 -3.1038618526052431E+00 a      1052     1    12     2    12
  7.1258026671499133E+00 a      1053     1    12     2    13
 -1.4273108572905135E+00 a      1054     1    12     2    14
 -9.8783639936022349E-01 a      1055     1    12     2    15
  1.7316388524873256E+00 a      1056     1    12     2    16
  1.4319319522964065E+00 a      1057     1    12     2    17
 -1.3904847281664698E+00 a      1058     1    12     2    18
 -1.9345570222282167E+00 a      1059     1    12     2    19
 -3.3320509588287353E+00 a      1060     1    12     2    20
  1.6278354432834163E+00 a      1061     1    13     2     1
 -1.6156509213924677E+00 a      1062     1    13     2     2
 -8.9158563938203350E-01 a      1063     1    13     2     3
  5.3509990561252838E+00 a      1064     1    13     2     4
 -1.3453355192762464E+01 a      1065     1    13     2     5
 -2.8504083554560449E+00 a      1066     1    13     2     6
 -3.7774637625600316E+00 a      1067     1    13     2     7
 -8.3004998276303184E+00 a      1068     1    13     2     8
  6.7636082866271900E+00 a      1069     1    13     2     9
  8.2096228444303088E-01 a      1070     1    13     2    10
 -1.0277897877066877E+01 a      1071     1    13     2    11
  4.5750283544884400E+00 a      1072     1    13     2    12
 -2.2573276962474553E+00 a      1073     1    13     2    13
 -7.9330624616426904E-01 a      1074     1    13     2    14
 -6.9273945944663211E+00 a      1075     1    13     2    15
  5.6488051126198702E+00 a      1076     1    13     2    16
  7.8819528236132346E+00 a      1077     1    13     2    17
  3.6346325807203645E+00 a      1078     1    13     2    18
  7.7044631608073884E+00 a      1079     1    13     2    19
 -5.0191574734002176E+00 a      1080     1    13     2    20
 -1.0786647755485829E+01 a      1081     1    14     2     1
  1.6258170145243076E+00 a      1082     1    14     2     2
 -1.2692504271494836E+00 a      1083     1    14     2     3
 -2.1710518235115850E+00 a      1084     1    14     2     4
 -1.0942959481299599E+01 a      1085     1    14     2     5
 -2.3765345627236862E+00 a      1086     1    14     2     6
 -8.3173036518549504E-01 a      1087     1    14     2     7
 -4.9178120452602929E+00 a      1088     1    14     2     8
  1.6072526024601423E+00 a      1089     1    14     2     9
  2.8089447611966283E+00 a      1090     1    14     2    10
 -4.2788250155912957E+00 a      1091     1    14     2    11
  1.1831200784242508E+00 a      1092     1    14     2    12
 -8.3903148929572566E+00 a      1093     1    14     2    13
  3.8633763152134559E+00 a      1094     1    14     2    14
 -7.6589078250576756E+00 a      1095     1    14     2    15
 -2.4808450671802449E+00 a      1096     1    14     2    16
  5.3401469452961372E+00 a      1097     1    14     2    17
 -9.9108393269983726E+00 a      1098     1    14     2    18
  6.9998611805020232E+00 a      1099     1    14     2    19
 -5.2147056426574745E-01 a      1100     1    14     2    20
 -2.4243858883419067E+00 a      1101     1    15     2     1
 -7.6464350820841609E-01 a      1102     1    15     2     2
  3.6375125329644815E+00 a      1103     1    15     2     3
 -1.5748430183715720E+00 a      1104     1    15     2     4
  7.4923545699796428E+00 a      1105     1    15     2     5
 -4.0772306922456574E+00 a      1106     1    15     2     6
 -3.4523866871505233E+00 a      1107     1    15     2     7
  1.5172411889735371E+00 a      1108     1    15     2     8
  3.2118732195622930E+00 a      1109     1    15     2     9
  7.9738947088072976E-01 a      1110     1    15     2    10
  4.1244996390238695E+00 a      1111     1    15     2    11
 -8.1339588939177414E+00 a      1112     1    15     2    12
 -2.6845390280598473E+00 a      1113     1    15     2    13
  5.9705179522197727E-01 a      1114     1    15     2    14
 -5.1430383077004889E+00 a      1115     1    15     2    15
  1.1620797437755579E+00 a      1116     1    15     2    16
  3.0443465688943294E+00 a      1117     1    15     2    17
 -1.4140122367686685E+00 a      1118     1    15     2    18
 -7.2885895742868705E+00 a      1119     1    15     2    19
 -5.0329483612373158E+00 a      1120     1    15     2    20
  3.2741603098517325E+00 a      1121     1    16     2     1
  7.0156738072437230E+00 a      1122     1    16     2     2
 -3.6404794345877849E+00 a      1123     1    16     2     3
  4.9207964935211130E+00 a      1124     1    16     2     4
  8.1208312728531773E-01 a      1125     1    16     2     5
 -4.6661427121119319E+00 a      1126     1    16     2     6
  2.6229256848037412E+00 a      1127     1    16     2     7
  2.1422607490510002E+00 a      1128     1    16     2     8
 -1.4692398476072528E+00 a      1129     1    16     2     9
  6.0292718065858153E-01 a      1130     1    16     2    10
 -1.2037894958846491E+00 a      1131     1    16     2    11
 -1.0324032854884031E+00 a      1132     1    16     2    12
 -6.3786701723801169E+00 a      1133     1    16     2    13
  7.1265158694471209E+00 a      1134     1    16     2    14
 -5.1393587299337877E+00 a      1135     1    16     2    15
 -4.4701042999783498E+00 a      1136     1    16     2    16
  1.7513165801456563E+00 a      1137     1    16     2    17
  1.8062131152957066E+00 a      1138     1    16     2    18
 -3.4940892561422130E+00 a      1139     1    16     2    19
 -4.4376251820838473E+00 a      1140     1    16     2    20
 -8.3907992715995849E+00 a      1141     1    17     2     1
 -9.8731617258385675E+00 a      1142     1    17     2     2
  8.5666727911253859E-01 a      1143     1    17     2     3
 -1.5281480019995322E+00 a      1144     1    17     2     4
 -6.6408578184174738E+00 a      1145     1    17     2     5
 -7.3463938815172980E-01 a      1146     1    17     2     6
  2.3920132726142018E+00 a      1147     1    17     2     7
  6.8957897611914269E+00 a      1148     1    17     2     8
 -9.7857073846508538E+00 a      1149     1    17     2     9
  1.8060643241634378E-01 a      1150     1    17     2    10
 -5.9778506234793238E-01 a      1151     1    17     2    11
 -5.3546238318269550E+00 a      1152     1    17     2    12
  2.1959618201375353E+00 a      1153     1    17     2    13
  3.2127455649765504E+00 a      1154     1    17     2    14
  2.0291119169112779E+00 a      1155     1    17     2    15
  8.9486026205305862E+00 a      1156     1    17     2    16
 -6.1160647640803694E+00 a      1157     1    17     2    17
 -5.5636193780721630E+00 a      1158     1    17     2    18
  5.4232960823657583E-01 a      1159     1    17     2    19
  8.7748145304260250E-01 a      1160     1    17     2    20
  1.1017581736881228E+01 a      1161     1    18     2     1
  2.7347697742631238E+00 a      1162     1    18     2     2
  4.1844100819943995E+00 a      1163     1    18     2     3
 -9.8027116818114612E-01 a      1164     1    18     2     4
  6.0288769803830204E+00 a      1165     1    18     2     5
  1.4591081865379703E+00 a      1166     1    18     2     6
 -7.5394305541047553E+00 a      1167     1    18     2     7
 -1.0508850364856273E+00 a      1168     1    18     2     8
 -2.2752950863323882E+00 a      1169     1    18     2     9
  1.2250465451601833E+01 a      1170     1    18     2    10
 -8.3373364789343842E+00 a      1171     1    18     2    11
  6.1415124637064320E+00 a      1172     1    18     2    12
 -3.7590994064909835E+00 a      1173     1    18     2    13
  2.3670307922983627E+00 a      1174     1    18     2    14
  3.3223033197817280E+00 a      1175     1    18     2    15
  6.4037118433637401E+00 a      1176     1    18     2    16
  4.1914447626957552E+00 a      1177     1    18     2    17
  7.9609405335862533E+00 a      1178     1    18     2    18
  2.7824696072117061E+00 a      1179     1    18     2    19
  3.4785386106948106E+00 a      1180     1    18     2    20
 -6.3204896250565961E+00 a      1181     1    19     2     1
  8.2953534918342748E-03 a      1182     1    19     2     2
 -4.4759241386952784E+00 a      1183     1    19     2     3
  6.9183413622168954E+00 a      1184     1    19     2     4
 -1.4306361612767935E+01 a      1185     1    19     2     5
 -3.8332476438606455E-01 a      1186     1    19     2     6
  6.2239843262141177E+00 a      1187     1    19     2     7
  2.3402933089563587E+00 a      1188     1    19     2     8
 -1.0407722301550404E+01 a      1189     1    19     2     9
 -2.0891796652862369E+00 a      1190     1    19     2    10
 -3.6686735133693666E+00 a      1191     1    19     2    11
  3.1181258402613019E+00 a      1192     1    19     2    12
 -3.9039097500640307E-01 a      1193     1    19     2    13
  4.5738509827656681E+00 a      1194     1    19     2    14
  2.8885310815290257E+00 a      1195     1    19     2    15
 -2.7580946688110708E+00 a      1196     1    19     2    16
 -5.8110880062084949E+00 a      1197     1    19     2    17
 -1.8735176758698326E+00 a      1198     1    19     2    18
  7.8178753504270757E+00 a      1199     1    19     2    19
 -1.0689174567974802E+00 a      1200     1    19     2    20
 -7.8299576674457700E+00 a      1201     1    20     2     1
 -3.8121319507064313E+00 a      1202     1    20     2     2
  2.8793379030671304E+00 a      1203     1    20     2     3
  4.4616979969204982E+00 a      1204     1    20     2     4
 -1.4033611999858520E+00 a      1205     1    20     2     5
  2.2164922242251155E+00 a      1206     1    20     2     6
 -1.9060773280034291E+00 a      1207     1    20     2     7
  3.1547674276089639E+00 a      1208     1    20     2     8
 -4.3170317992768368E+00 a      1209     1    20     2     9
 -4.5878415642208470E-01 a      1210     1    20     2    10
  4.4164368729248560E+00 a      1211     1    20     2    11
  1.0393749267192753E+00 a      1212     1    20     2    12
  7.2883033554649250E+00 a      1213     1    20     2    13
 -4.9947064408286170E+00 a      1214     1    20     2    14
  1.8499080316092396E+00 a      1215     1    20     2    15
 -3.2679837841780328E+00 a      1216     1    20     2    16
 -1.9799932128923516E+00 a      1217     1    20     2    17
  4.5410513229784897E+00 a      1218     1    20     2    18
 -3.8647697682949076E+00 a      1219     1    20     2    19
 -4.9670929734827407E+00 a      1220     1    20     2    20
  3.2486862321947165E+00 b      1221     2     1
  1.0651126250855182E+01 b      1222     2     2
  4.4518885605893725E+00 b      1223     2     3
 -4.1245647242171160E+00 b      1224     2     4
 -4.8070681730800038E+00 b      1225     2     5
  5.1419019219271189E-01 b      1226     2     6
  6.3690757712085366E+00 b      1227     2     7
  9.4236999329581241E+00 b      1228     2     8
  5.6773590358136321E+00 b      1229     2     9
  4.6100732717416211E+00 b      1230     2    10
  5.5981890633777764E+00 b      1231     2    11
 -1.7823973213303052E+01 b      1232     2    12
 -2.2365221393749461E+00 b      1233     2    13
  2.1429162076149644E+00 b      1234     2    14
  9.2422747374980432E+00 b      1235     2    15
  3.1493223559498489E+00 b      1236     2    16
  5.8781266307374107E+00 b      1237     2    17
  4.2632788159226855E+00 b      1238     2    18
  4.0459259739080160E+00 b      1239     2    19
 -3.3735257369480158E+00 b      1240     2    20
  1.8744252093457461E-01 a      1241     2     1     3     1
 -1.3631077684812037E-01 a      1242     2     2     3     1
 -2.2366708739544144E-01 a      1243     2     3     3     1
 -2.0226610107217069E-01 a      1244     2     4     3     1
  7.6792976232824051E-02 a      1245     2     5     3     1
 -3.0739076789639004E-02 a      1246     2     6     3     1
 -7.3325934140833937E-02 a      1247     2     7     3     1
 -1.5675381065867275E-01 a      1248     2     8     3     1
 -5.0554889745236024E-02 a      1249     2     9     3     1
  1.5819942541090617E-01 a      1250     2    10     3     1
  2.4348593778189456E-02 a      1251     2    11     3     1
 -1.3528532291368672E-01 a      1252     2    12     3     1
 -2.0719401658697068E-01 a      1253     2    13     3     1
 -9.7695989317986065E-02 a      1254     2    14     3     1
  9.3033398127615519E-02 a      1255     2    15     3     1
 -2.2489946543329112E-01 a      1256     2    16     3     1
 -2.7622571311128963E-01 a      1257     2    17     3     1
  2.7822953694874020E-01 a      1258     2    18     3     1
  1.4164086597263978E-01 a      1259     2    19     3     1
  3.2006925198113223E-01 a      1260     2    20     3     1
  4.1877126369197343E-01 b      1261     3     1
