################################################################################
# Neural network connection values (weights and biases).
################################################################################
# Col  Name       Description
################################################################################
# 1    connection Neural network connection value.
# 2    t          Connection type (a = weight, b = bias).
# 3    index      Index enumerating weights.
# 4    l_s        Starting point layer (end point layer for biases).
# 5    n_s        Starting point neuron in starting layer (end point neuron for biases).
# 6    l_e        End point layer.
# 7    n_e        End point neuron in end layer.
################################################################################
#                      1 2         3     4     5     6     7
#             connection t     index   l_s   n_s   l_e   n_e
############################################################
 -7.3360772839237756E+00 a         1     0     1     1     1
 -1.0859746900167220E+01 a         2     0     1     1     2
 -2.6336824916647013E+00 a         3     0     1     1     3
  1.2108819226136539E+01 a         4     0     1     1     4
  3.1952619737810726E+00 a         5     0     1     1     5
 -2.3786235451854805E+00 a         6     0     1     1     6
 -1.4710142322860797E+01 a         7     0     1     1     7
 -2.6744285339049654E+00 a         8     0     1     1     8
 -7.4030760216030727E+00 a         9     0     1     1     9
  7.5324546979793867E+00 a        10     0     1     1    10
  2.3804010201544186E+00 a        11     0     1     1    11
  8.8677329565139527E+00 a        12     0     1     1    12
 -2.5819995544192840E+00 a        13     0     1     1    13
  5.6394523217142885E+00 a        14     0     1     1    14
 -5.3336300515373869E-01 a        15     0     1     1    15
  1.0210759528886140E+01 a        16     0     1     1    16
  2.2046103040366148E+01 a        17     0     1     1    17
  7.0389047307376860E+00 a        18     0     1     1    18
  2.0385125701120259E+00 a        19     0     1     1    19
 -4.1236283305456096E+00 a        20     0     1     1    20
 -1.8092743903055418E+01 a        21     0     2     1     1
 -1.7292940416882367E+00 a        22     0     2     1     2
  1.6573509539940883E+01 a        23     0     2     1     3
 -4.0850035703072214E+00 a        24     0     2     1     4
 -1.0074943187736372E+00 a        25     0     2     1     5
  1.4608819833350674E+01 a        26     0     2     1     6
  2.1997808187184180E+01 a        27     0     2     1     7
 -1.1497817542861755E+01 a        28     0     2     1     8
  2.3037316654978706E+00 a        29     0     2     1     9
 -4.4601151990519021E+00 a        30     0     2     1    10
  9.4477812554434970E-01 a        31     0     2     1    11
  5.3279567995578594E+00 a        32     0     2     1    12
  7.3858599451790727E+00 a        33     0     2     1    13
  2.2963464136306708E+00 a        34     0     2     1    14
  2.2224752356239081E+00 a        35     0     2     1    15
 -7.9085375236759150E+00 a        36     0     2     1    16
  4.0812575269016955E+00 a        37     0     2     1    17
 -9.4851155584150226E-01 a        38     0     2     1    18
 -9.7504294161529899E+00 a        39     0     2     1    19
  3.5018458930092784E+00 a        40     0     2     1    20
  2.9192693280109609E+01 a        41     0     3     1     1
  1.3893053106705732E+01 a        42     0     3     1     2
 -6.0981819439235814E+00 a        43     0     3     1     3
 -2.7329227714674240E+00 a        44     0     3     1     4
  1.1934477895294584E+01 a        45     0     3     1     5
  1.6728081566670873E+01 a        46     0     3     1     6
  1.0770358459019523E+01 a        47     0     3     1     7
  1.8614250741873248E+00 a        48     0     3     1     8
  1.4024641406936510E+01 a        49     0     3     1     9
 -1.4636970659171034E+01 a        50     0     3     1    10
 -1.6834608924627464E+01 a        51     0     3     1    11
  1.5731443204581608E+00 a        52     0     3     1    12
 -1.1675976717459049E+01 a        53     0     3     1    13
  1.5815943752278003E+00 a        54     0     3     1    14
 -6.1254445628574192E+00 a        55     0     3     1    15
 -1.5891612927435142E+01 a        56     0     3     1    16
 -1.5261030497745802E+01 a        57     0     3     1    17
 -6.1685252364420506E+00 a        58     0     3     1    18
 -1.9658318785032585E+00 a        59     0     3     1    19
  1.0068407930355330E+00 a        60     0     3     1    20
 -3.8128385486854546E+00 a        61     0     4     1     1
  4.4311065287298472E+00 a        62     0     4     1     2
 -4.1091740600274509E+00 a        63     0     4     1     3
 -2.1885450208687742E+00 a        64     0     4     1     4
  1.2400435215428441E+01 a        65     0     4     1     5
 -1.3855749412339163E+01 a        66     0     4     1     6
 -2.2792766423938719E+01 a        67     0     4     1     7
  2.5587393452493523E+00 a        68     0     4     1     8
  6.2056721418360254E+00 a        69     0     4     1     9
  5.4775890002905543E+00 a        70     0     4     1    10
  8.2266199987512447E+00 a        71     0     4     1    11
 -1.0015409788999659E+00 a        72     0     4     1    12
  6.5426694399814673E+00 a        73     0     4     1    13
  1.7661085516055728E+00 a        74     0     4     1    14
  4.6150835021160486E+00 a        75     0     4     1    15
 -5.2109207257812020E+00 a        76     0     4     1    16
 -1.0076459854864017E+00 a        77     0     4     1    17
  9.1130088259435347E+00 a        78     0     4     1    18
  1.0874944975416998E+01 a        79     0     4     1    19
 -2.0177798408533962E+00 a        80     0     4     1    20
 -1.0520735439265493E+01 a        81     0     5     1     1
  1.9993110726563764E+01 a        82     0     5     1     2
  8.3190827898362016E+00 a        83     0     5     1     3
  6.9984326569508823E+00 a        84     0     5     1     4
 -3.9571544648341321E+00 a        85     0     5     1     5
 -1.9633612768690675E+01 a        86     0     5     1     6
  7.4126545060068008E+00 a        87     0     5     1     7
  1.7115386801860911E+01 a        88     0     5     1     8
  5.5526016066797519E+00 a        89     0     5     1     9
 -1.7245457341719380E+01 a        90     0     5     1    10
 -1.6212943735548468E+01 a        91     0     5     1    11
 -5.8714909856471413E+00 a        92     0     5     1    12
  8.0044770069750175E+00 a        93     0     5     1    13
  6.2589103254682321E-01 a        94     0     5     1    14
 -1.1259163928782813E+01 a        95     0     5     1    15
 -1.3646438207461307E+01 a        96     0     5     1    16
  1.4240376822822022E+01 a        97     0     5     1    17
  2.2449491875296776E+00 a        98     0     5     1    18
 -1.1323598182264885E+01 a        99     0     5     1    19
 -4.7242360702512496E+00 a       100     0     5     1    20
  1.1196859573614521E+01 a       101     0     6     1     1
 -1.4137026620024230E+01 a       102     0     6     1     2
  6.7603755210733070E+00 a       103     0     6     1     3
  4.3405451347086386E+00 a       104     0     6     1     4
  1.6134325538178203E+01 a       105     0     6     1     5
 -1.3200050834623404E+01 a       106     0     6     1     6
  1.2726502712820778E+01 a       107     0     6     1     7
 -4.8845173158867317E+00 a       108     0     6     1     8
 -9.1472417427204444E+00 a       109     0     6     1     9
  1.0468964333389383E+01 a       110     0     6     1    10
  2.2634200418685935E+00 a       111     0     6     1    11
 -1.7286517893354542E+01 a       112     0     6     1    12
  1.4498568901827049E+01 a       113     0     6     1    13
  4.8295371508088852E-01 a       114     0     6     1    14
  1.4872579061665092E+00 a       115     0     6     1    15
  9.5156652026296751E+00 a       116     0     6     1    16
  1.6793879425347907E+01 a       117     0     6     1    17
 -9.9483318609783300E+00 a       118     0     6     1    18
 -1.3645964569179008E+00 a       119     0     6     1    19
  6.0898011449180789E+00 a       120     0     6     1    20
  7.6897241219025663E+00 a       121     0     7     1     1
  9.4177858290817991E+00 a       122     0     7     1     2
  5.2292287860769102E+00 a       123     0     7     1     3
  7.1042110112008290E+00 a       124     0     7     1     4
 -5.4893774984516401E+00 a       125     0     7     1     5
  2.6331505075248254E+00 a       126     0     7     1     6
  9.5398554687416830E+00 a       127     0     7     1     7
 -2.3090143143255561E+00 a       128     0     7     1     8
  1.1071163845432549E+01 a       129     0     7     1     9
 -1.8945103852230107E+00 a       130     0     7     1    10
 -7.3943365356175246E+00 a       131     0     7     1    11
  5.9873547461547050E+00 a       132     0     7     1    12
 -1.1460030529533954E+01 a       133     0     7     1    13
  1.8646322810926577E-01 a       134     0     7     1    14
 -1.3259767861772099E+01 a       135     0     7     1    15
 -2.2674085413058238E+00 a       136     0     7     1    16
  1.0228496786934689E+00 a       137     0     7     1    17
  3.8975916461863060E+00 a       138     0     7     1    18
 -6.2212099100043137E+00 a       139     0     7     1    19
  6.3008572667945195E+00 a       140     0     7     1    20
  1.4856104407963651E+01 a       141     0     8     1     1
  2.1643182717859940E+01 a       142     0     8     1     2
 -1.0934532023957333E+00 a       143     0     8     1     3
  6.6549414324269274E-01 a       144     0     8     1     4
 -2.4201878183112724E+00 a       145     0     8     1     5
  5.6656142360986408E+00 a       146     0     8     1     6
  1.6119325414107522E+00 a       147     0     8     1     7
  3.1069658982436826E-01 a       148     0     8     1     8
 -9.7362772842437995E+00 a       149     0     8     1     9
 -4.7148853849994063E+00 a       150     0     8     1    10
  8.6243165325187281E+00 a       151     0     8     1    11
 -1.5267873941610552E-01 a       152     0     8     1    12
 -2.5855036243519791E+00 a       153     0     8     1    13
  4.2789680512350383E+00 a       154     0     8     1    14
 -4.3622661826315676E+00 a       155     0     8     1    15
  5.2801956623067670E-01 a       156     0     8     1    16
 -1.1432657172854856E+01 a       157     0     8     1    17
 -6.0405068558958792E+00 a       158     0     8     1    18
  2.6199788725584914E+00 a       159     0     8     1    19
  8.5919040921312551E+00 a       160     0     8     1    20
 -3.1064560180932793E-01 a       161     0     9     1     1
  1.4493140885748477E+00 a       162     0     9     1     2
  4.0851073326659337E+00 a       163     0     9     1     3
  4.0462797018517236E+00 a       164     0     9     1     4
  3.0960770683277610E+00 a       165     0     9     1     5
 -6.9868201994902117E+00 a       166     0     9     1     6
  3.9191477266327350E+00 a       167     0     9     1     7
 -4.4721795445681991E+00 a       168     0     9     1     8
 -4.3641504688794335E+00 a       169     0     9     1     9
 -3.5835728582709030E+00 a       170     0     9     1    10
  1.4402549314060451E+00 a       171     0     9     1    11
 -2.9678373159787319E+00 a       172     0     9     1    12
 -7.6295735733441470E+00 a       173     0     9     1    13
  4.2312731375485546E+00 a       174     0     9     1    14
  7.3281405456029036E+00 a       175     0     9     1    15
 -7.0452519134362024E-01 a       176     0     9     1    16
  6.0838027981043403E+00 a       177     0     9     1    17
 -1.6960106634536136E+00 a       178     0     9     1    18
  4.0028419079434920E+00 a       179     0     9     1    19
 -1.5695425159559195E-01 a       180     0     9     1    20
  6.9053185335138929E+00 a       181     0    10     1     1
 -1.8587464364738995E+01 a       182     0    10     1     2
  4.6083581704385701E-01 a       183     0    10     1     3
 -1.4880064651230230E+01 a       184     0    10     1     4
  7.8776984649752366E+00 a       185     0    10     1     5
 -3.5245602493823762E+00 a       186     0    10     1     6
  4.5978625135061622E+00 a       187     0    10     1     7
  7.9264187888814934E+00 a       188     0    10     1     8
  5.0892558962395817E+00 a       189     0    10     1     9
 -1.8631734068039439E+01 a       190     0    10     1    10
 -4.0162956285698552E+00 a       191     0    10     1    11
  1.2703865585670322E+00 a       192     0    10     1    12
  5.3151765939845843E+00 a       193     0    10     1    13
  3.4368381350420631E+00 a       194     0    10     1    14
  8.8565464214405409E+00 a       195     0    10     1    15
 -9.5393749450853194E-01 a       196     0    10     1    16
  1.3940646723958983E+01 a       197     0    10     1    17
  4.0814582691639618E+00 a       198     0    10     1    18
 -5.7123323160365809E+00 a       199     0    10     1    19
 -3.6563783265632829E+01 a       200     0    10     1    20
  1.2044643879724982E+01 a       201     0    11     1     1
  4.5138823139493276E+00 a       202     0    11     1     2
 -2.4956741145667332E+00 a       203     0    11     1     3
  1.1545958267106866E+00 a       204     0    11     1     4
 -2.7916437524384141E-01 a       205     0    11     1     5
 -1.1886276587158452E+01 a       206     0    11     1     6
 -1.2781879143158958E+00 a       207     0    11     1     7
 -6.9068133769639106E-01 a       208     0    11     1     8
  4.4123723393496030E+00 a       209     0    11     1     9
 -1.0753901852572714E+01 a       210     0    11     1    10
 -3.9559753002616076E+00 a       211     0    11     1    11
 -1.4424749764726443E+00 a       212     0    11     1    12
 -1.0970430385542853E+01 a       213     0    11     1    13
 -2.5359509656118862E+00 a       214     0    11     1    14
 -4.1941793267892704E+00 a       215     0    11     1    15
 -1.4245114187723917E+00 a       216     0    11     1    16
  2.1291542602467657E+00 a       217     0    11     1    17
  5.7351138538979241E-01 a       218     0    11     1    18
 -3.1600649375935843E+00 a       219     0    11     1    19
 -6.8612993140162237E-01 a       220     0    11     1    20
  1.4227844173969354E+01 a       221     0    12     1     1
  1.3980984581445572E+01 a       222     0    12     1     2
 -2.0269654956804972E+00 a       223     0    12     1     3
  1.3943059488561444E+01 a       224     0    12     1     4
  8.2515670709710633E+00 a       225     0    12     1     5
  7.5470182952051958E+00 a       226     0    12     1     6
 -2.0107879421706308E+01 a       227     0    12     1     7
 -1.9939859654302968E+01 a       228     0    12     1     8
 -3.6705908284973772E+00 a       229     0    12     1     9
 -2.2598349727377118E+00 a       230     0    12     1    10
 -1.0351895332560814E+00 a       231     0    12     1    11
 -8.3891480168552892E+00 a       232     0    12     1    12
 -6.2000331657806678E+00 a       233     0    12     1    13
 -7.6625589395131275E+00 a       234     0    12     1    14
  5.6831076429805947E+00 a       235     0    12     1    15
 -2.1733020401041299E+00 a       236     0    12     1    16
 -2.9704376434784933E+01 a       237     0    12     1    17
 -2.8802360401488063E+01 a       238     0    12     1    18
 -6.2518934289166896E+00 a       239     0    12     1    19
  2.0105516582597300E+01 a       240     0    12     1    20
  5.1265011113680732E+00 a       241     0    13     1     1
 -8.8764131909258437E-01 a       242     0    13     1     2
 -1.5591322573384540E+01 a       243     0    13     1     3
 -3.5395961643617344E+00 a       244     0    13     1     4
  4.5358199368845655E+00 a       245     0    13     1     5
  4.9995225075788126E+00 a       246     0    13     1     6
 -1.1897149440302806E+01 a       247     0    13     1     7
 -5.3000163176959338E+00 a       248     0    13     1     8
 -7.3338488847037295E+00 a       249     0    13     1     9
  8.8564887519759612E+00 a       250     0    13     1    10
  2.6873312513484987E-01 a       251     0    13     1    11
  7.3867120362106542E-01 a       252     0    13     1    12
 -1.6981085586888504E+01 a       253     0    13     1    13
 -3.3574763272644842E-01 a       254     0    13     1    14
 -1.7306364311135507E+00 a       255     0    13     1    15
 -2.5754664687852853E+00 a       256     0    13     1    16
 -6.4207256535921831E+00 a       257     0    13     1    17
 -9.3759490712601927E+00 a       258     0    13     1    18
  1.7049106783048338E+00 a       259     0    13     1    19
  4.4487818200356051E+00 a       260     0    13     1    20
  6.7850789105422047E+00 a       261     0    14     1     1
 -3.1533934736296909E+00 a       262     0    14     1     2
 -9.9955223616973079E+00 a       263     0    14     1     3
  2.7599864383820680E+00 a       264     0    14     1     4
  1.2404230389699402E+01 a       265     0    14     1     5
  1.6151414131788769E+01 a       266     0    14     1     6
 -1.4060516188525545E+01 a       267     0    14     1     7
 -1.6916586739154007E+00 a       268     0    14     1     8
 -1.1237005976065138E+01 a       269     0    14     1     9
 -6.2821260762592068E-01 a       270     0    14     1    10
  3.0520663651756914E+00 a       271     0    14     1    11
  6.6638447433313663E+00 a       272     0    14     1    12
 -1.0631308686987456E+01 a       273     0    14     1    13
 -8.6209044337054563E-01 a       274     0    14     1    14
 -6.1428760555594657E+00 a       275     0    14     1    15
 -6.7062706295880163E+00 a       276     0    14     1    16
  1.1098166387339134E+01 a       277     0    14     1    17
 -1.7145897467816806E+00 a       278     0    14     1    18
  5.2305626479164191E+00 a       279     0    14     1    19
  1.1537101738017556E+01 a       280     0    14     1    20
  6.1466947797725773E+00 a       281     0    15     1     1
  1.0742806797680668E+00 a       282     0    15     1     2
  8.1361750704810620E-01 a       283     0    15     1     3
  1.8294844991051367E+00 a       284     0    15     1     4
  1.7604615000970640E+00 a       285     0    15     1     5
 -1.2797024288130152E-01 a       286     0    15     1     6
 -1.0467923533749834E+01 a       287     0    15     1     7
 -7.8303988239359548E+00 a       288     0    15     1     8
  6.5951125673417827E+00 a       289     0    15     1     9
 -5.1805309638821306E+00 a       290     0    15     1    10
  2.2094089800755601E+00 a       291     0    15     1    11
 -2.5794467962845946E+00 a       292     0    15     1    12
 -4.6557780882593658E-02 a       293     0    15     1    13
  1.4168375674692982E-01 a       294     0    15     1    14
  1.8180684035821577E+00 a       295     0    15     1    15
 -3.3233456903290333E+00 a       296     0    15     1    16
 -4.2366959352893918E+00 a       297     0    15     1    17
 -6.2555793232394530E+00 a       298     0    15     1    18
  1.2572820944701253E+00 a       299     0    15     1    19
  3.6160766056471125E+00 a       300     0    15     1    20
  2.9385810698485373E+00 a       301     0    16     1     1
  7.0801688694929608E+00 a       302     0    16     1     2
  1.0400263690313645E+01 a       303     0    16     1     3
  9.2896533895206375E+00 a       304     0    16     1     4
 -4.9178526659940065E+00 a       305     0    16     1     5
 -2.4597697586850158E+00 a       306     0    16     1     6
  2.5856518358255309E+00 a       307     0    16     1     7
 -4.3178298292268948E+00 a       308     0    16     1     8
  5.3573434334383236E+00 a       309     0    16     1     9
  7.0186078325186836E+00 a       310     0    16     1    10
 -1.2620098331756315E+00 a       311     0    16     1    11
 -1.4870241925740781E+00 a       312     0    16     1    12
  5.4156605661554025E+00 a       313     0    16     1    13
 -6.1731330338397994E-01 a       314     0    16     1    14
  3.7163221328714946E+00 a       315     0    16     1    15
  3.6016025151963591E+00 a       316     0    16     1    16
 -1.0385022945202062E+01 a       317     0    16     1    17
 -2.2198028752141701E+00 a       318     0    16     1    18
 -2.4806350442538987E+00 a       319     0    16     1    19
  1.3851194796188804E+00 a       320     0    16     1    20
  1.3531303807078066E+01 a       321     0    17     1     1
 -2.8550749392158714E+01 a       322     0    17     1     2
 -2.5820321821247763E+01 a       323     0    17     1     3
 -3.6077128691442217E+00 a       324     0    17     1     4
 -1.3314853791257740E+01 a       325     0    17     1     5
  1.1066916945409833E+01 a       326     0    17     1     6
  2.6179233443574979E-01 a       327     0    17     1     7
 -8.6842423776198299E+00 a       328     0    17     1     8
  1.5354943860110548E+00 a       329     0    17     1     9
  1.6158583243911391E+01 a       330     0    17     1    10
  2.5437319585468199E+00 a       331     0    17     1    11
 -1.2858026483946545E+00 a       332     0    17     1    12
 -4.1221643470376478E+01 a       333     0    17     1    13
  5.1755470616421020E+00 a       334     0    17     1    14
 -4.4136038648197928E+00 a       335     0    17     1    15
  9.8930469105200836E-01 a       336     0    17     1    16
  1.4141808516433906E+01 a       337     0    17     1    17
 -9.9956329424673349E+00 a       338     0    17     1    18
  2.3361810771830520E+01 a       339     0    17     1    19
 -1.9454110196519814E-01 a       340     0    17     1    20
 -2.9108260283675499E+01 a       341     0    18     1     1
  8.4599542227090829E+00 a       342     0    18     1     2
  2.5679248507689014E+01 a       343     0    18     1     3
  6.1213115536002638E+00 a       344     0    18     1     4
 -1.5261891673868071E+01 a       345     0    18     1     5
 -2.8519255350515774E+01 a       346     0    18     1     6
  1.5826154086735279E+01 a       347     0    18     1     7
  5.2052990785688786E+00 a       348     0    18     1     8
 -8.7839309959413594E+00 a       349     0    18     1     9
  1.3398428026559877E+01 a       350     0    18     1    10
  1.7206747290938331E+01 a       351     0    18     1    11
 -6.7298668955161451E+00 a       352     0    18     1    12
  1.9044814433014430E+00 a       353     0    18     1    13
 -2.0567905387161190E+01 a       354     0    18     1    14
 -1.1605209428376499E+01 a       355     0    18     1    15
  1.2005755900023290E+01 a       356     0    18     1    16
 -1.3990103537041110E+00 a       357     0    18     1    17
  1.0045498456122722E+01 a       358     0    18     1    18
 -1.2148155889723460E+01 a       359     0    18     1    19
 -2.4022294468297964E+00 a       360     0    18     1    20
 -3.1712597776041571E+00 a       361     0    19     1     1
  7.0400365370291524E+00 a       362     0    19     1     2
  2.4800693290463154E+00 a       363     0    19     1     3
 -8.8133865744411484E+00 a       364     0    19     1     4
  1.1161444339293716E+00 a       365     0    19     1     5
  1.7235954928471205E+01 a       366     0    19     1     6
 -2.9288260167549318E+01 a       367     0    19     1     7
 -2.6214244044468713E+00 a       368     0    19     1     8
 -1.6362765640006507E+00 a       369     0    19     1     9
  1.4778259538415517E+01 a       370     0    19     1    10
 -2.2134719023899734E+01 a       371     0    19     1    11
 -7.8486103763255155E+00 a       372     0    19     1    12
  9.5537725716840249E+00 a       373     0    19     1    13
  9.5849586728811325E+00 a       374     0    19     1    14
 -7.0838923782771221E+00 a       375     0    19     1    15
  2.1562040503211546E+00 a       376     0    19     1    16
 -2.0192764868660205E+01 a       377     0    19     1    17
  6.8556554915551438E+00 a       378     0    19     1    18
 -7.5593799470725531E-01 a       379     0    19     1    19
  4.1346506901213775E+00 a       380     0    19     1    20
 -3.0741211894144303E+01 a       381     0    20     1     1
  2.3803786926690115E+01 a       382     0    20     1     2
  5.9915707375428182E+00 a       383     0    20     1     3
  2.7787754611156835E+01 a       384     0    20     1     4
 -5.7623527739926921E+00 a       385     0    20     1     5
 -2.7111869662404551E+01 a       386     0    20     1     6
  5.0649618425849301E+00 a       387     0    20     1     7
  1.8108549973270758E+01 a       388     0    20     1     8
  1.5564358287063694E+01 a       389     0    20     1     9
  1.1217673896172162E+01 a       390     0    20     1    10
 -4.9363696774518884E+00 a       391     0    20     1    11
  2.5689929098174571E+00 a       392     0    20     1    12
  9.9635825080449010E+00 a       393     0    20     1    13
  9.0547751264479768E+00 a       394     0    20     1    14
  7.7080162658542113E+00 a       395     0    20     1    15
  6.5161928229493338E+00 a       396     0    20     1    16
  5.2557240445835625E+00 a       397     0    20     1    17
 -1.7759951540764742E+00 a       398     0    20     1    18
 -2.5887256955782483E+01 a       399     0    20     1    19
  7.1494102246901541E+00 a       400     0    20     1    20
  2.3232736274802694E+01 a       401     0    21     1     1
  5.5154232281309656E-01 a       402     0    21     1     2
 -2.0359754197511183E+01 a       403     0    21     1     3
 -1.6943564774825326E+01 a       404     0    21     1     4
  1.8482261075563304E+01 a       405     0    21     1     5
  5.1853162757066054E+00 a       406     0    21     1     6
  1.8692894200606582E+00 a       407     0    21     1     7
  1.6563494310694484E+01 a       408     0    21     1     8
 -3.4605289686782029E+01 a       409     0    21     1     9
 -1.5357373736984052E+01 a       410     0    21     1    10
  9.7884457018671629E+00 a       411     0    21     1    11
  1.3671266668953947E+00 a       412     0    21     1    12
  3.4014824674114110E+00 a       413     0    21     1    13
  1.6967202188837383E+01 a       414     0    21     1    14
  1.3037410402537146E+01 a       415     0    21     1    15
  1.1755232157928179E+00 a       416     0    21     1    16
  3.2075827639107835E+01 a       417     0    21     1    17
  1.1926653262835744E+01 a       418     0    21     1    18
  1.5265096215660215E+01 a       419     0    21     1    19
  5.5112498627978120E+01 a       420     0    21     1    20
  2.0357077029867298E+01 a       421     0    22     1     1
  6.0307115800481359E+00 a       422     0    22     1     2
  1.3435631188680162E+00 a       423     0    22     1     3
 -6.0524231965906383E-01 a       424     0    22     1     4
  5.5120331950751282E+00 a       425     0    22     1     5
 -6.4849403239208590E+00 a       426     0    22     1     6
  3.3278796822634710E+01 a       427     0    22     1     7
 -1.2675657786736057E+01 a       428     0    22     1     8
  1.8146434064000932E+01 a       429     0    22     1     9
 -1.6411721275077380E+01 a       430     0    22     1    10
  2.2391351156569321E+01 a       431     0    22     1    11
 -1.2683332849935695E+01 a       432     0    22     1    12
 -1.7927547257948437E+01 a       433     0    22     1    13
 -6.3609676007224110E+00 a       434     0    22     1    14
  1.2416327040416590E+01 a       435     0    22     1    15
  2.6876131269423770E+01 a       436     0    22     1    16
  8.3506836408301111E-01 a       437     0    22     1    17
 -3.4596201122551385E+01 a       438     0    22     1    18
 -9.7090138333936749E-01 a       439     0    22     1    19
 -1.7428213475248093E+01 a       440     0    22     1    20
  2.4972479686798081E+00 a       441     0    23     1     1
 -1.3999875265643951E+01 a       442     0    23     1     2
  1.1972604414866902E+01 a       443     0    23     1     3
  4.8385289095967616E+00 a       444     0    23     1     4
  1.3036776617298017E+01 a       445     0    23     1     5
  1.0678147224967452E+01 a       446     0    23     1     6
 -4.3565319073118216E+00 a       447     0    23     1     7
 -1.7194083496773530E+01 a       448     0    23     1     8
  1.2415204686301655E+01 a       449     0    23     1     9
  4.8412184122662888E-01 a       450     0    23     1    10
  1.1002816052871163E+01 a       451     0    23     1    11
 -3.4849088968348645E+00 a       452     0    23     1    12
  1.9642420951334792E+01 a       453     0    23     1    13
 -7.4136483218260079E+00 a       454     0    23     1    14
  4.9778532025217848E+00 a       455     0    23     1    15
  1.0720645839789555E+01 a       456     0    23     1    16
 -8.4494491699531942E+00 a       457     0    23     1    17
 -1.9034608042521648E+00 a       458     0    23     1    18
 -4.2558122004012038E+00 a       459     0    23     1    19
  8.3365961058978577E+00 a       460     0    23     1    20
 -1.9129315240791904E+01 a       461     0    24     1     1
 -1.0269665632015926E+01 a       462     0    24     1     2
 -6.0557426230518665E+00 a       463     0    24     1     3
 -4.1009979379676516E+00 a       464     0    24     1     4
  1.2081309833337267E+01 a       465     0    24     1     5
  2.3959913275396278E+01 a       466     0    24     1     6
 -1.1128148727130146E+01 a       467     0    24     1     7
  4.4344103114369577E+00 a       468     0    24     1     8
 -6.2101353801748327E-01 a       469     0    24     1     9
 -4.8646647543777188E+00 a       470     0    24     1    10
 -7.8294970559050254E+00 a       471     0    24     1    11
  8.5587818183304538E+00 a       472     0    24     1    12
 -2.7121763808369309E+01 a       473     0    24     1    13
 -3.3977711454547266E-01 a       474     0    24     1    14
  3.3215544436160305E+00 a       475     0    24     1    15
 -6.3340659763056486E+00 a       476     0    24     1    16
 -1.1428964305919111E+01 a       477     0    24     1    17
  1.0759174460226570E+01 a       478     0    24     1    18
 -6.4990245628812982E-01 a       479     0    24     1    19
 -4.6883233289418849E+00 a       480     0    24     1    20
 -1.1363824004265327E+01 a       481     0    25     1     1
  5.6123507318652193E+00 a       482     0    25     1     2
  1.5496854515256079E+01 a       483     0    25     1     3
 -2.2326189952698999E-01 a       484     0    25     1     4
 -8.8551677901541623E+00 a       485     0    25     1     5
  7.9539488186629290E+00 a       486     0    25     1     6
  1.1568322829519246E+01 a       487     0    25     1     7
 -1.1412463686135329E+01 a       488     0    25     1     8
 -1.3089813511466748E+01 a       489     0    25     1     9
 -1.6759191605405924E+01 a       490     0    25     1    10
 -6.5084479907108070E+00 a       491     0    25     1    11
  3.8134349303783690E+00 a       492     0    25     1    12
  1.9957574843837798E+00 a       493     0    25     1    13
 -2.3856520327815494E+00 a       494     0    25     1    14
 -1.7170031992929992E+01 a       495     0    25     1    15
 -3.4361803973034216E-01 a       496     0    25     1    16
  6.6556463858012505E+00 a       497     0    25     1    17
  8.2264281501254253E+00 a       498     0    25     1    18
 -1.2991025659309406E+01 a       499     0    25     1    19
 -1.3902831380216048E+01 a       500     0    25     1    20
  1.8737615152192234E+01 a       501     0    26     1     1
  5.5466342871542205E+00 a       502     0    26     1     2
  6.2442471954537098E+00 a       503     0    26     1     3
 -1.9505685184228415E+01 a       504     0    26     1     4
  6.6263495200676727E+00 a       505     0    26     1     5
  2.2052555146720541E+00 a       506     0    26     1     6
  6.2111119001632158E+00 a       507     0    26     1     7
 -1.0508117529463048E+01 a       508     0    26     1     8
  5.1095888712481408E+00 a       509     0    26     1     9
 -1.4970875671436026E+01 a       510     0    26     1    10
  1.3078022524146506E+01 a       511     0    26     1    11
 -9.6585643278779294E+00 a       512     0    26     1    12
 -4.7996831702215568E+00 a       513     0    26     1    13
 -1.3196777067163231E+01 a       514     0    26     1    14
  9.5557777347688742E+00 a       515     0    26     1    15
 -8.5875507015710966E+00 a       516     0    26     1    16
 -2.5025642195566956E+01 a       517     0    26     1    17
 -3.2346281232500727E+00 a       518     0    26     1    18
  1.0701043456617175E+01 a       519     0    26     1    19
 -6.0954277501134930E+00 a       520     0    26     1    20
 -3.6014459550993728E+01 a       521     0    27     1     1
 -1.5394528877284499E+01 a       522     0    27     1     2
  1.3534063679199531E+00 a       523     0    27     1     3
  2.0506182673272111E+01 a       524     0    27     1     4
 -1.4802635232385343E+01 a       525     0    27     1     5
 -4.5842179447274853E+00 a       526     0    27     1     6
  4.6612077343124687E+00 a       527     0    27     1     7
 -9.7438034568026932E+00 a       528     0    27     1     8
  1.4691650553942502E+01 a       529     0    27     1     9
  1.7477980896417449E+01 a       530     0    27     1    10
 -3.4168397687885189E+01 a       531     0    27     1    11
  1.0852597482553659E+01 a       532     0    27     1    12
  7.6619541335018360E+00 a       533     0    27     1    13
 -6.3706135594934246E+00 a       534     0    27     1    14
 -6.0379781837462589E+00 a       535     0    27     1    15
 -5.9422296957311671E+00 a       536     0    27     1    16
 -4.1773472190278596E+01 a       537     0    27     1    17
  2.6561429026265615E+00 a       538     0    27     1    18
 -3.9409497651980430E+00 a       539     0    27     1    19
 -3.2198361174649321E+01 a       540     0    27     1    20
  1.5907320170205335E+01 a       541     0    28     1     1
 -1.3348481299628229E+01 a       542     0    28     1     2
 -2.1910566256753597E+01 a       543     0    28     1     3
  6.0265124247071311E+00 a       544     0    28     1     4
 -5.6867882732749164E+00 a       545     0    28     1     5
 -1.1156968088118715E+01 a       546     0    28     1     6
 -3.4988631563119100E+01 a       547     0    28     1     7
  2.2217363120519295E+01 a       548     0    28     1     8
 -1.4521243481794787E+01 a       549     0    28     1     9
  2.0861982193282773E+00 a       550     0    28     1    10
  6.8455666192533320E+00 a       551     0    28     1    11
 -3.5924015355343326E+00 a       552     0    28     1    12
 -9.6909366542118178E+00 a       553     0    28     1    13
 -5.0673101969798209E+00 a       554     0    28     1    14
 -1.3252412914474174E+01 a       555     0    28     1    15
  2.0976597537003348E+00 a       556     0    28     1    16
  1.5591007229975824E+01 a       557     0    28     1    17
 -5.2915629427641218E+00 a       558     0    28     1    18
  9.3770494867809600E+00 a       559     0    28     1    19
  1.5042408514480096E+01 a       560     0    28     1    20
 -6.7921277877376074E+00 a       561     0    29     1     1
  2.1163045101545340E+01 a       562     0    29     1     2
 -1.9911792833296023E+01 a       563     0    29     1     3
  1.0733718265473716E+01 a       564     0    29     1     4
  9.8841507576631553E+00 a       565     0    29     1     5
  1.7156334855090585E+00 a       566     0    29     1     6
 -1.2158843217523884E+01 a       567     0    29     1     7
 -8.4447042252491986E+00 a       568     0    29     1     8
 -1.5533673931274752E+01 a       569     0    29     1     9
 -6.8982918995400091E+00 a       570     0    29     1    10
  3.1013327717467796E+00 a       571     0    29     1    11
 -1.6035452182151250E+01 a       572     0    29     1    12
  7.1555190362463117E+00 a       573     0    29     1    13
 -1.4678690242306766E+01 a       574     0    29     1    14
  9.0863352944841473E+00 a       575     0    29     1    15
  1.8742901096518860E+01 a       576     0    29     1    16
 -4.3940231637845191E+00 a       577     0    29     1    17
  1.7255646012614179E+01 a       578     0    29     1    18
 -4.2159176235865745E+00 a       579     0    29     1    19
  6.6732909499942183E-01 a       580     0    29     1    20
  1.7869522893168217E+01 a       581     0    30     1     1
 -1.0922700649036166E+01 a       582     0    30     1     2
  2.3792909265096117E+01 a       583     0    30     1     3
 -1.2486639799261852E+01 a       584     0    30     1     4
 -1.9452893833217013E+00 a       585     0    30     1     5
  7.3938890168117615E+00 a       586     0    30     1     6
  4.3090755923946409E+00 a       587     0    30     1     7
 -8.0795630900344246E+00 a       588     0    30     1     8
  3.0641270396973727E+01 a       589     0    30     1     9
  1.4821118308314960E+01 a       590     0    30     1    10
  1.4822487173512937E+00 a       591     0    30     1    11
  1.7328388607915770E+01 a       592     0    30     1    12
 -2.1142809813127821E+00 a       593     0    30     1    13
  1.7247536359938465E+01 a       594     0    30     1    14
  6.9883402429859149E+00 a       595     0    30     1    15
 -2.4919799317258637E+01 a       596     0    30     1    16
  5.8369009028722525E+00 a       597     0    30     1    17
  8.3900262324308521E+00 a       598     0    30     1    18
  2.9781154844098367E+01 a       599     0    30     1    19
 -3.2255114343746364E+01 a       600     0    30     1    20
 -5.7464922690844418E+00 a       601     0    31     1     1
 -1.7980724104533721E+01 a       602     0    31     1     2
 -3.0898252209230346E+01 a       603     0    31     1     3
  2.3770758417729112E+01 a       604     0    31     1     4
  1.9002019077036529E+01 a       605     0    31     1     5
 -2.0726801336004090E+00 a       606     0    31     1     6
 -2.2526535545702714E+01 a       607     0    31     1     7
 -1.0502077310546831E+01 a       608     0    31     1     8
  3.9208208813616836E+00 a       609     0    31     1     9
 -7.9028693428389241E-01 a       610     0    31     1    10
 -7.2642438002195231E+00 a       611     0    31     1    11
  1.0667741421765488E+01 a       612     0    31     1    12
 -3.6816536720603565E+00 a       613     0    31     1    13
 -6.9524441098277840E+00 a       614     0    31     1    14
  4.9540318310561284E+00 a       615     0    31     1    15
 -7.8638033341496465E+00 a       616     0    31     1    16
 -2.5100791535242726E+00 a       617     0    31     1    17
 -4.0532797285325568E+00 a       618     0    31     1    18
 -5.0155185391166501E+00 a       619     0    31     1    19
  1.0873708774112625E+01 a       620     0    31     1    20
 -1.9382810131855790E+00 a       621     0    32     1     1
 -2.5663138064921167E+01 a       622     0    32     1     2
  2.7698344067116413E+01 a       623     0    32     1     3
 -1.2787253992300585E+01 a       624     0    32     1     4
 -4.0757110984167291E+00 a       625     0    32     1     5
 -1.0128527509169645E+01 a       626     0    32     1     6
  6.6598891485257932E+00 a       627     0    32     1     7
  1.0812623416564312E+01 a       628     0    32     1     8
 -1.0054318306298006E+01 a       629     0    32     1     9
  3.6105306056551623E+00 a       630     0    32     1    10
  3.5483771138456497E+01 a       631     0    32     1    11
  4.9194483706090635E+00 a       632     0    32     1    12
 -2.8868028304348567E+00 a       633     0    32     1    13
  4.1251707959943698E+00 a       634     0    32     1    14
  1.3231212148532974E+01 a       635     0    32     1    15
 -4.3015657515218777E+00 a       636     0    32     1    16
 -2.6385007130357366E+01 a       637     0    32     1    17
 -8.6909402068230364E+00 a       638     0    32     1    18
  1.9682692221002139E+01 a       639     0    32     1    19
 -1.0761827562881239E+01 a       640     0    32     1    20
 -2.0885255794115462E+01 a       641     0    33     1     1
 -8.0304778156013388E+00 a       642     0    33     1     2
 -4.3726745760282604E+01 a       643     0    33     1     3
  1.0446448992326825E+01 a       644     0    33     1     4
 -1.3996624748102676E+01 a       645     0    33     1     5
 -2.0394269432207905E+00 a       646     0    33     1     6
 -3.2276995917226181E+01 a       647     0    33     1     7
 -4.5566145591960447E+00 a       648     0    33     1     8
 -3.7642733541645805E+00 a       649     0    33     1     9
 -1.7112946187376796E+01 a       650     0    33     1    10
 -1.3025254932339982E+01 a       651     0    33     1    11
 -3.2457903155457714E+01 a       652     0    33     1    12
  4.1613986135587995E+00 a       653     0    33     1    13
 -1.2394241465374288E+01 a       654     0    33     1    14
 -2.4373622047332368E+00 a       655     0    33     1    15
  4.4127863710320348E+01 a       656     0    33     1    16
 -1.0475460243367932E+01 a       657     0    33     1    17
 -2.7463378389011183E+01 a       658     0    33     1    18
 -4.0669130003171141E+01 a       659     0    33     1    19
  1.1508584250730429E+01 a       660     0    33     1    20
 -1.0236153162280585E+01 a       661     0    34     1     1
 -1.5846537997413204E+00 a       662     0    34     1     2
  9.0976227094720912E+00 a       663     0    34     1     3
 -1.6102849436237147E+01 a       664     0    34     1     4
 -1.8367315205393822E+01 a       665     0    34     1     5
  8.9696567803340805E+00 a       666     0    34     1     6
  2.3652668557254785E+01 a       667     0    34     1     7
  2.4340562780824669E+01 a       668     0    34     1     8
 -1.5380988622685459E+00 a       669     0    34     1     9
 -1.9624309046330485E+01 a       670     0    34     1    10
 -1.4867836967275256E+01 a       671     0    34     1    11
  2.1097995014950328E+01 a       672     0    34     1    12
 -2.3494392205567099E+01 a       673     0    34     1    13
  7.3030173803635829E+00 a       674     0    34     1    14
 -2.5568360434206625E+01 a       675     0    34     1    15
 -2.9036058679715804E+01 a       676     0    34     1    16
  2.2732963652522827E+01 a       677     0    34     1    17
  2.7382265771850012E+01 a       678     0    34     1    18
 -1.4872609757479280E+01 a       679     0    34     1    19
 -1.4837521899619345E+01 a       680     0    34     1    20
 -1.3496848809470642E+01 a       681     0    35     1     1
 -7.8230697600813599E+00 a       682     0    35     1     2
 -2.8276647314835328E+00 a       683     0    35     1     3
 -1.4353346408903619E+01 a       684     0    35     1     4
 -1.4344319711531550E+00 a       685     0    35     1     5
 -4.9757162345791284E-01 a       686     0    35     1     6
 -1.9926169410299692E+00 a       687     0    35     1     7
  1.3136046051878868E+01 a       688     0    35     1     8
 -7.0493406019644080E+00 a       689     0    35     1     9
 -4.6888176418015330E+00 a       690     0    35     1    10
 -3.7114724787981141E+00 a       691     0    35     1    11
  9.5164905143462217E+00 a       692     0    35     1    12
  6.2133515938138792E+00 a       693     0    35     1    13
  2.2652220392241418E+00 a       694     0    35     1    14
 -8.7809703389411222E+00 a       695     0    35     1    15
 -6.5193747856985640E+00 a       696     0    35     1    16
 -7.7903654705813496E-01 a       697     0    35     1    17
 -2.5505776827791222E+00 a       698     0    35     1    18
  1.3079837569781474E+00 a       699     0    35     1    19
 -3.1513929615891381E+00 a       700     0    35     1    20
  7.8166065581607818E+00 a       701     0    36     1     1
  7.3740351917825659E+00 a       702     0    36     1     2
 -3.4207832697543533E-01 a       703     0    36     1     3
  6.4441968928416040E+00 a       704     0    36     1     4
 -1.0520541049547845E+01 a       705     0    36     1     5
 -1.7058853080654504E+01 a       706     0    36     1     6
  1.1276615448244323E+01 a       707     0    36     1     7
  4.5632544372402393E+00 a       708     0    36     1     8
 -9.4709191164633513E+00 a       709     0    36     1     9
 -1.4241067645679931E-01 a       710     0    36     1    10
  1.4730695264916053E+01 a       711     0    36     1    11
  2.4735829592363623E+00 a       712     0    36     1    12
  1.9798994969801235E+01 a       713     0    36     1    13
 -4.2563631009651486E+00 a       714     0    36     1    14
  8.4547406847353113E+00 a       715     0    36     1    15
  5.3302525547437369E+00 a       716     0    36     1    16
  9.7090353334322832E-01 a       717     0    36     1    17
 -4.8624110769797744E+00 a       718     0    36     1    18
 -4.8227132379375677E+00 a       719     0    36     1    19
 -2.0273142249629286E-01 a       720     0    36     1    20
 -7.0730464479100759E+00 a       721     0    37     1     1
 -2.0346449825535576E+01 a       722     0    37     1     2
 -1.0681571511243616E+01 a       723     0    37     1     3
 -7.0053521980169364E+00 a       724     0    37     1     4
 -7.5706013965600283E+00 a       725     0    37     1     5
 -2.7941992614945541E+01 a       726     0    37     1     6
 -1.7590836557455682E+00 a       727     0    37     1     7
  1.3733713221003935E+01 a       728     0    37     1     8
  1.5781551693287707E+01 a       729     0    37     1     9
  2.0815261660279788E+01 a       730     0    37     1    10
  3.4869072243516812E+00 a       731     0    37     1    11
 -1.1592746854660271E+01 a       732     0    37     1    12
 -2.7776227003016940E+00 a       733     0    37     1    13
  3.8383278693940674E+00 a       734     0    37     1    14
  1.3226972414346793E+01 a       735     0    37     1    15
  9.8674036755284344E+00 a       736     0    37     1    16
  5.2762195226481401E-01 a       737     0    37     1    17
 -3.7396389847946487E+00 a       738     0    37     1    18
  2.4687063914341472E+01 a       739     0    37     1    19
  1.5273634057956793E+01 a       740     0    37     1    20
 -1.1250416510852142E+01 a       741     0    38     1     1
 -1.5445679894045599E+00 a       742     0    38     1     2
 -9.6365783453979930E+00 a       743     0    38     1     3
 -7.8233918629429802E+00 a       744     0    38     1     4
  4.3780111962515509E+00 a       745     0    38     1     5
  1.6222160324637077E+01 a       746     0    38     1     6
 -7.3619407613788015E+00 a       747     0    38     1     7
 -4.7969251413454428E+00 a       748     0    38     1     8
 -6.5122533124585242E+00 a       749     0    38     1     9
  2.2804239909329804E+00 a       750     0    38     1    10
 -3.3568818244014828E+01 a       751     0    38     1    11
  1.5816794053950703E-01 a       752     0    38     1    12
  1.5365225572826567E+01 a       753     0    38     1    13
  4.1691724056590473E-01 a       754     0    38     1    14
 -1.5960751036549869E+01 a       755     0    38     1    15
  5.4686540805333381E+00 a       756     0    38     1    16
  2.2423520210888515E+01 a       757     0    38     1    17
  7.2034782756286821E+00 a       758     0    38     1    18
 -6.0785919929362837E+00 a       759     0    38     1    19
  7.7662841479395439E+00 a       760     0    38     1    20
  2.6077122395057394E+01 a       761     0    39     1     1
  2.5384972962062196E+01 a       762     0    39     1     2
  3.4893446047396637E+01 a       763     0    39     1     3
 -1.1680441608664880E+01 a       764     0    39     1     4
  1.7421380644324365E+00 a       765     0    39     1     5
  1.0020375954414082E+01 a       766     0    39     1     6
  7.0840064254243806E+00 a       767     0    39     1     7
 -1.1549352812073210E+00 a       768     0    39     1     8
  1.7134966309491723E-01 a       769     0    39     1     9
  1.0705823784460698E+01 a       770     0    39     1    10
  2.3801300877491652E+01 a       771     0    39     1    11
  1.9039381537944070E+01 a       772     0    39     1    12
  8.2253428172227103E+00 a       773     0    39     1    13
  1.0895994517524745E+01 a       774     0    39     1    14
  2.0449751238558022E+01 a       775     0    39     1    15
 -2.1640656294007783E+01 a       776     0    39     1    16
  1.6838653974008480E+01 a       777     0    39     1    17
 -2.0036816824940713E+00 a       778     0    39     1    18
  1.4030480005843264E+01 a       779     0    39     1    19
 -2.6614919059530791E+00 a       780     0    39     1    20
  6.9061818593323867E+00 a       781     0    40     1     1
  1.7487430837520328E+01 a       782     0    40     1     2
 -7.7402235236717578E+00 a       783     0    40     1     3
 -1.1022303478418927E+00 a       784     0    40     1     4
  4.0607266923254723E+00 a       785     0    40     1     5
  1.2247836916549598E+01 a       786     0    40     1     6
  1.3063608271937992E+00 a       787     0    40     1     7
 -5.3037922690668120E+00 a       788     0    40     1     8
 -2.0785366050685892E+00 a       789     0    40     1     9
  1.4967591991749497E+01 a       790     0    40     1    10
  1.6323956044805470E+00 a       791     0    40     1    11
 -2.1100229117026985E+00 a       792     0    40     1    12
  2.4370880329647921E+01 a       793     0    40     1    13
 -1.0173698682022140E+01 a       794     0    40     1    14
  9.4272523001541444E+00 a       795     0    40     1    15
  1.0368200486645311E+00 a       796     0    40     1    16
 -3.3108173338034014E+01 a       797     0    40     1    17
  3.0157377509246004E+00 a       798     0    40     1    18
  9.1325676804039944E+00 a       799     0    40     1    19
  6.6005256399568211E+00 a       800     0    40     1    20
  3.6986455788294452E+00 b       801     1     1
  8.5303312209623228E-01 b       802     1     2
 -3.7388402616862115E+00 b       803     1     3
 -6.2231266039487831E+00 b       804     1     4
 -2.7478201131951461E+00 b       805     1     5
  1.3329291801899319E+00 b       806     1     6
  5.1704357590288530E-01 b       807     1     7
  6.6476090086012496E-01 b       808     1     8
  4.0651791830485910E+00 b       809     1     9
 -6.0475052058658729E+00 b       810     1    10
  9.1109499769580016E-01 b       811     1    11
 -3.1967820391679086E-01 b       812     1    12
 -3.5630236496885339E+00 b       813     1    13
  1.0465935180587838E+00 b       814     1    14
  2.7840354113050712E+00 b       815     1    15
 -2.6606891046552500E-01 b       816     1    16
  3.2461103462798330E-01 b       817     1    17
  4.8662478484555782E-01 b       818     1    18
 -1.2273784087786871E-01 b       819     1    19
 -2.5635284837956501E-01 b       820     1    20
 -4.2506623465691487E+00 a       821     1     1     2     1
 -6.0847724796178637E+00 a       822     1     1     2     2
 -1.1576135634403502E+00 a       823     1     1     2     3
  5.1229581340603847E+00 a       824     1     1     2     4
  3.8757505660357663E+00 a       825     1     1     2     5
 -5.8998598422495814E+00 a       826     1     1     2     6
  3.3068624767970798E+00 a       827     1     1     2     7
  2.0830289272395284E+00 a       828     1     1     2     8
 -1.1640031818351115E+00 a       829     1     1     2     9
  5.2021295211752905E-01 a       830     1     1     2    10
 -8.1668592636329969E+00 a       831     1     1     2    11
 -5.3432525241232947E+00 a       832     1     1     2    12
  1.2857959974275446E+00 a       833     1     1     2    13
 -6.8549534826172864E-01 a       834     1     1     2    14
  1.5660585822149591E+00 a       835     1     1     2    15
 -1.2520922401131156E+00 a       836     1     1     2    16
  6.6108956137268526E+00 a       837     1     1     2    17
  6.2026098002386405E+00 a       838     1     1     2    18
  4.8486938363837577E+00 a       839     1     1     2    19
  5.1901749179787098E+00 a       840     1     1     2    20
 -2.5386326522976144E+00 a       841     1     2     2     1
 -8.8941038135726569E-01 a       842     1     2     2     2
  7.3423833914471208E+00 a       843     1     2     2     3
  7.6241488849830974E+00 a       844     1     2     2     4
 -4.3794579697208338E+00 a       845     1     2     2     5
  8.0251751575047212E+00 a       846     1     2     2     6
 -7.3985668256509491E+00 a       847     1     2     2     7
  2.2919442290144665E+00 a       848     1     2     2     8
 -3.5045397300676622E+00 a       849     1     2     2     9
  3.3809708455430303E+00 a       850     1     2     2    10
  3.0451915307930837E+00 a       851     1     2     2    11
  9.5754930775083846E-01 a       852     1     2     2    12
  6.0828055384491364E+00 a       853     1     2     2    13
  1.2425376682336482E+00 a       854     1     2     2    14
  4.8068891326175294E+00 a       855     1     2     2    15
 -3.7907656126694373E+00 a       856     1     2     2    16
 -2.5811440631534506E+00 a       857     1     2     2    17
 -4.3847535951759102E+00 a       858     1     2     2    18
  2.0628736961736398E+00 a       859     1     2     2    19
 -5.0729826045171853E+00 a       860     1     2     2    20
 -1.6735458597035031E+01 a       861     1     3     2     1
 -6.9793133938862244E+00 a       862     1     3     2     2
  9.5499742348333108E+00 a       863     1     3     2     3
 -1.4544943458002209E+00 a       864     1     3     2     4
  2.3758834373779734E+00 a       865     1     3     2     5
  7.0402608165543423E+00 a       866     1     3     2     6
 -3.8781787492462577E-01 a       867     1     3     2     7
 -8.9445856605410707E+00 a       868     1     3     2     8
  6.7722274781008549E+00 a       869     1     3     2     9
  8.0509938075582426E+00 a       870     1     3     2    10
  8.9924778466398063E+00 a       871     1     3     2    11
  5.9465519027995626E+00 a       872     1     3     2    12
  5.1834087780484603E+00 a       873     1     3     2    13
  1.6868303439924293E-01 a       874     1     3     2    14
  1.8570657486215709E+00 a       875     1     3     2    15
 -1.6241958546256061E+00 a       876     1     3     2    16
 -3.1079348907568147E+00 a       877     1     3     2    17
 -3.0143131218380050E+00 a       878     1     3     2    18
 -1.1582571205017571E+01 a       879     1     3     2    19
  4.8120552226649220E+00 a       880     1     3     2    20
  7.4393458199012015E+00 a       881     1     4     2     1
  4.3114313536096214E+00 a       882     1     4     2     2
 -2.9054842308385682E+00 a       883     1     4     2     3
 -5.0218442058984059E-01 a       884     1     4     2     4
  4.8894917402308993E+00 a       885     1     4     2     5
 -2.5354351299407902E+00 a       886     1     4     2     6
  2.8115737758240211E+00 a       887     1     4     2     7
  2.0253464692371985E+01 a       888     1     4     2     8
 -9.8196406969120744E+00 a       889     1     4     2     9
 -3.7189528855787080E+00 a       890     1     4     2    10
 -1.6538628814983802E+01 a       891     1     4     2    11
  6.0485813501713110E+00 a       892     1     4     2    12
 -1.1035695714621487E+00 a       893     1     4     2    13
 -3.2639939502664022E+00 a       894     1     4     2    14
  9.6714130671533400E+00 a       895     1     4     2    15
 -5.9479066692727889E+00 a       896     1     4     2    16
  1.4588481511022595E+01 a       897     1     4     2    17
  5.0631411816259426E+00 a       898     1     4     2    18
 -4.9035110655586225E+00 a       899     1     4     2    19
 -4.7284392199950327E+00 a       900     1     4     2    20
 -2.9465969238015739E+00 a       901     1     5     2     1
 -6.3031908748143008E+00 a       902     1     5     2     2
  2.5735700573530349E+00 a       903     1     5     2     3
  2.0510685233772388E+00 a       904     1     5     2     4
 -5.9599467808787256E+00 a       905     1     5     2     5
  6.4158401174956641E+00 a       906     1     5     2     6
 -4.7486195782526446E+00 a       907     1     5     2     7
 -9.3225669602665331E+00 a       908     1     5     2     8
  6.3902500767188579E+00 a       909     1     5     2     9
  6.4956909769253657E-01 a       910     1     5     2    10
  2.2160399228539287E+00 a       911     1     5     2    11
 -7.2335906577450704E+00 a       912     1     5     2    12
 -1.6293269791408975E+00 a       913     1     5     2    13
  3.4961672920504272E+00 a       914     1     5     2    14
  2.1461561491462224E+00 a       915     1     5     2    15
  1.6293941279831825E+00 a       916     1     5     2    16
 -3.4218637762869721E+00 a       917     1     5     2    17
 -3.5226821821467817E+00 a       918     1     5     2    18
 -1.3729309417921087E+00 a       919     1     5     2    19
 -4.1182784369958769E+00 a       920     1     5     2    20
  5.5866960117855680E+00 a       921     1     6     2     1
 -7.4086784157025276E-01 a       922     1     6     2     2
  3.9513983529772592E+00 a       923     1     6     2     3
  2.9207717801021902E+00 a       924     1     6     2     4
 -5.3261280443276653E-02 a       925     1     6     2     5
 -3.4279449556261272E+00 a       926     1     6     2     6
 -2.4140074997741396E+00 a       927     1     6     2     7
  3.9257036358325039E+00 a       928     1     6     2     8
  1.8364855889287508E+00 a       929     1     6     2     9
 -1.1989348369894786E+00 a       930     1     6     2    10
 -1.3075332740817434E+01 a       931     1     6     2    11
  6.5651470938518919E-01 a       932     1     6     2    12
 -6.5507883575465122E+00 a       933     1     6     2    13
 -2.4271777804304481E-01 a       934     1     6     2    14
 -1.6485581538566316E+00 a       935     1     6     2    15
 -1.4309382113790625E+00 a       936     1     6     2    16
 -8.8455891545061434E+00 a       937     1     6     2    17
 -1.1496245416999717E+00 a       938     1     6     2    18
 -2.4806394749428113E+00 a       939     1     6     2    19
 -1.0318225588830938E-01 a       940     1     6     2    20
 -3.7742712529116078E+00 a       941     1     7     2     1
  1.9369370334341103E+00 a       942     1     7     2     2
 -4.4836771930346631E+00 a       943     1     7     2     3
  2.7019031933405189E+00 a       944     1     7     2     4
  1.7732780646963267E+00 a       945     1     7     2     5
 -4.4427602051317239E+00 a       946     1     7     2     6
  8.1924677523082661E+00 a       947     1     7     2     7
  7.8926634376355576E-01 a       948     1     7     2     8
  4.3065478157647865E+00 a       949     1     7     2     9
 -7.9551385841483968E-01 a       950     1     7     2    10
 -3.7375747533734764E+00 a       951     1     7     2    11
 -9.5040942868757803E+00 a       952     1     7     2    12
  4.6079302866260798E+00 a       953     1     7     2    13
 -9.8120584636140562E-01 a       954     1     7     2    14
 -2.9342755548803541E+00 a       955     1     7     2    15
  1.7425875860738778E+00 a       956     1     7     2    16
 -5.6988959971042288E+00 a       957     1     7     2    17
 -4.5035877349608713E+00 a       958     1     7     2    18
 -5.7233680287575934E+00 a       959     1     7     2    19
  2.5477697533911545E+00 a       960     1     7     2    20
 -4.0408933916319612E+00 a       961     1     8     2     1
 -3.2405323863632645E+00 a       962     1     8     2     2
  2.4764796117637840E+00 a       963     1     8     2     3
 -5.8607248888851453E+00 a       964     1     8     2     4
  5.8262980294205828E+00 a       965     1     8     2     5
  3.0770870232075160E+00 a       966     1     8     2     6
  1.5209773998227256E+00 a       967     1     8     2     7
  5.2676633970353457E+00 a       968     1     8     2     8
 -3.1718843610726162E+00 a       969     1     8     2     9
 -1.2239702502270997E+00 a       970     1     8     2    10
 -1.8231428576173123E+00 a       971     1     8     2    11
  3.4515393963675578E+00 a       972     1     8     2    12
 -2.0740145991897649E+00 a       973     1     8     2    13
  3.4216664006366742E+00 a       974     1     8     2    14
 -7.2044452850657192E+00 a       975     1     8     2    15
 -2.0368896948036026E+00 a       976     1     8     2    16
 -6.4462471108530259E+00 a       977     1     8     2    17
  3.2885300015222030E+00 a       978     1     8     2    18
 -1.9050751391866125E+00 a       979     1     8     2    19
 -7.1740857719137296E-01 a       980     1     8     2    20
 -2.6884443811554801E+00 a       981     1     9     2     1
  8.9809456710358737E-01 a       982     1     9     2     2
  3.1452383356269125E+00 a       983     1     9     2     3
  2.4550383975518381E-01 a       984     1     9     2     4
 -2.5596989453154322E+00 a       985     1     9     2     5
  1.1302738977237139E+00 a       986     1     9     2     6
  1.9599238747274614E+00 a       987     1     9     2     7
  5.5429540676869928E+00 a       988     1     9     2     8
  8.2884861504696605E+00 a       989     1     9     2     9
 -8.8863065308367695E+00 a       990     1     9     2    10
 -9.1135483635534131E-01 a       991     1     9     2    11
  4.3916159652435969E+00 a       992     1     9     2    12
  2.4730440017016178E+00 a       993     1     9     2    13
  1.9583731871975607E+00 a       994     1     9     2    14
 -1.6175462871518587E+01 a       995     1     9     2    15
 -1.8116096937635603E-03 a       996     1     9     2    16
  2.8642890663096829E+00 a       997     1     9     2    17
 -3.9360188673269318E+00 a       998     1     9     2    18
  2.4458694266122176E+00 a       999     1     9     2    19
  7.1911161212003916E-01 a      1000     1     9     2    20
 -9.9081487086405975E+00 a      1001     1    10     2     1
 -3.0913582853510775E+00 a      1002     1    10     2     2
  6.5668904165326714E+00 a      1003     1    10     2     3
  3.2223182488002333E+00 a      1004     1    10     2     4
 -1.0520352250338945E+01 a      1005     1    10     2     5
  2.3824920703702177E+00 a      1006     1    10     2     6
  6.8414063538621761E+00 a      1007     1    10     2     7
 -1.4446341542018402E+01 a      1008     1    10     2     8
 -1.2411835335749217E+01 a      1009     1    10     2     9
 -8.8860670975871923E+00 a      1010     1    10     2    10
  3.0004832095489228E+01 a      1011     1    10     2    11
  1.2032451031043047E+01 a      1012     1    10     2    12
 -1.4649200412154171E+01 a      1013     1    10     2    13
 -2.7760372692609288E+00 a      1014     1    10     2    14
 -2.2485483640830392E+01 a      1015     1    10     2    15
 -1.1315108598602153E+01 a      1016     1    10     2    16
 -4.9512295794299011E+00 a      1017     1    10     2    17
  1.7520702522266751E+00 a      1018     1    10     2    18
  1.6376862856513377E+01 a      1019     1    10     2    19
  1.4047429132080882E+01 a      1020     1    10     2    20
  1.2891438766641549E+01 a      1021     1    11     2     1
 -6.8678679644430521E-03 a      1022     1    11     2     2
 -1.8530121512276221E+00 a      1023     1    11     2     3
  7.3591177133503463E+00 a      1024     1    11     2     4
 -4.2188339504424208E+00 a      1025     1    11     2     5
  4.7215900030208706E+00 a      1026     1    11     2     6
  1.0847559073110966E+00 a      1027     1    11     2     7
  9.8040576957128298E+00 a      1028     1    11     2     8
 -9.1682573530387668E+00 a      1029     1    11     2     9
 -1.4439209015121217E+00 a      1030     1    11     2    10
  7.3521763653524657E+00 a      1031     1    11     2    11
 -2.3790170019011763E+00 a      1032     1    11     2    12
 -2.3544468404604855E+00 a      1033     1    11     2    13
 -4.8501647728883851E-01 a      1034     1    11     2    14
  1.7825420016694622E+00 a      1035     1    11     2    15
 -9.4795360815280318E+00 a      1036     1    11     2    16
 -4.1337214578437653E-01 a      1037     1    11     2    17
  1.1803947532887542E-01 a      1038     1    11     2    18
  4.3189132781101147E+00 a      1039     1    11     2    19
 -2.7287751820668307E+00 a      1040     1    11     2    20
 -8.1293242977068942E+00 a      1041     1    12     2     1
  2.0829292394187697E+00 a      1042     1    12     2     2
  7.9287928146811177E+00 a      1043     1    12     2     3
 -4.3688492866884685E+00 a      1044     1    12     2     4
  5.8440758184226749E-01 a      1045     1    12     2     5
 -3.0053971495889078E+00 a      1046     1    12     2     6
 -3.7361825002390350E+00 a      1047     1    12     2     7
 -9.2412953359062922E+00 a      1048     1    12     2     8
 -5.3138821483811771E+00 a      1049     1    12     2     9
  9.8205628382818611E-01 a      1050     1    12     2    10
  3.5597018336074786E+00 a      1051     1    12     2    11
 -3.9177746174554291E+00 a      1052     1    12     2    12
 -6.0032950644279248E+00 a      1053     1    12     2    13
  3.4332925836473440E+00 a      1054     1    12     2    14
 -2.1670592820949053E+00 a      1055     1    12     2    15
  2.0735505936939935E+00 a      1056     1    12     2    16
  4.3571456396751342E+00 a      1057     1    12     2    17
 -4.5117635163079550E-01 a      1058     1    12     2    18
 -2.6572039303621122E+00 a      1059     1    12     2    19
 -4.2951918563429894E+00 a      1060     1    12     2    20
  7.3796250787184938E+00 a      1061     1    13     2     1
 -7.5798553897856147E+00 a      1062     1    13     2     2
  6.5956717864337691E+00 a      1063     1    13     2     3
  4.8564141616330385E+00 a      1064     1    13     2     4
  3.0225636467477615E+00 a      1065     1    13     2     5
  5.7000361233766093E+00 a      1066     1    13     2     6
  5.3628177479986450E-01 a      1067     1    13     2     7
  9.3742241131783448E+00 a      1068     1    13     2     8
 -2.1566139720740942E+00 a      1069     1    13     2     9
 -4.5949083118431071E+00 a      1070     1    13     2    10
 -1.6878032517752828E+01 a      1071     1    13     2    11
  2.3290869394771263E-01 a      1072     1    13     2    12
  4.6158510757914497E+00 a      1073     1    13     2    13
  7.2896091059116144E-03 a      1074     1    13     2    14
 -7.6767829302309556E+00 a      1075     1    13     2    15
 -2.8038525198963336E+00 a      1076     1    13     2    16
  6.9911733545976928E-01 a      1077     1    13     2    17
  7.0752039461799372E+00 a      1078     1    13     2    18
  2.9905051582110427E+00 a      1079     1    13     2    19
 -6.0209091583340539E+00 a      1080     1    13     2    20
 -8.0377070565835762E+00 a      1081     1    14     2     1
  4.3447235292995181E+00 a      1082     1    14     2     2
 -8.9101437124442597E+00 a      1083     1    14     2     3
 -7.6436728651366543E+00 a      1084     1    14     2     4
 -4.4207576609753185E-01 a      1085     1    14     2     5
  2.7351626998800480E+00 a      1086     1    14     2     6
 -6.2218750099491515E+00 a      1087     1    14     2     7
  5.6375285609966541E+00 a      1088     1    14     2     8
 -4.5852520366013021E+00 a      1089     1    14     2     9
  3.5873931607753593E+00 a      1090     1    14     2    10
  4.4504282355508131E+00 a      1091     1    14     2    11
  5.2487025034725825E+00 a      1092     1    14     2    12
  3.2779854246422433E+00 a      1093     1    14     2    13
  1.0093894277034305E+00 a      1094     1    14     2    14
  3.4067733330929610E+00 a      1095     1    14     2    15
 -2.4446731420468386E+00 a      1096     1    14     2    16
  5.9006702072649828E+00 a      1097     1    14     2    17
  2.4825915295366756E+00 a      1098     1    14     2    18
  1.3014120022058302E+01 a      1099     1    14     2    19
 -1.4337258997693905E+00 a      1100     1    14     2    20
 -9.8510181899611222E+00 a      1101     1    15     2     1
 -5.1140819093532555E+00 a      1102     1    15     2     2
  5.4586835907589446E+00 a      1103     1    15     2     3
  4.7303927138296569E+00 a      1104     1    15     2     4
  3.3323431205010849E+00 a      1105     1    15     2     5
 -8.8738981120807414E-01 a      1106     1    15     2     6
  3.6609795851157878E-01 a      1107     1    15     2     7
  2.2592164822866495E-01 a      1108     1    15     2     8
  8.7140990220489900E-01 a      1109     1    15     2     9
 -7.0326461139685958E-01 a      1110     1    15     2    10
 -6.3054101963747455E-01 a      1111     1    15     2    11
 -2.1530590044322744E+00 a      1112     1    15     2    12
 -3.0084984309831904E+00 a      1113     1    15     2    13
  1.5357860440181132E+00 a      1114     1    15     2    14
  8.3046334657540726E+00 a      1115     1    15     2    15
 -3.2763444295146762E+00 a      1116     1    15     2    16
  1.0858030999764940E+00 a      1117     1    15     2    17
  7.7992887528548476E+00 a      1118     1    15     2    18
  7.6780491121086447E+00 a      1119     1    15     2    19
  6.0721788538891508E-01 a      1120     1    15     2    20
  1.2025268691484072E+00 a      1121     1    16     2     1
  4.6106097976181076E-01 a      1122     1    16     2     2
 -5.3462825049542104E+00 a      1123     1    16     2     3
  1.8276792948941276E+00 a      1124     1    16     2     4
 -1.8321589385379440E+00 a      1125     1    16     2     5
 -7.9738823331512139E+00 a      1126     1    16     2     6
 -2.1548780980193323E+00 a      1127     1    16     2     7
  2.4312640800369305E+00 a      1128     1    16     2     8
 -3.0404875742582997E+00 a      1129     1    16     2     9
  1.6411991617455441E+00 a      1130     1    16     2    10
 -2.6975049285740074E+00 a      1131     1    16     2    11
 -9.9268900532175552E-01 a      1132     1    16     2    12
  3.2161767439346427E+00 a      1133     1    16     2    13
  2.2922491013559640E+00 a      1134     1    16     2    14
 -1.3144353562709712E+01 a      1135     1    16     2    15
  1.9203097965575386E+00 a      1136     1    16     2    16
 -3.8651558038993583E+00 a      1137     1    16     2    17
 -7.4662821450959216E-01 a      1138     1    16     2    18
 -5.7073700272484693E+00 a      1139     1    16     2    19
 -1.3819873345496592E+00 a      1140     1    16     2    20
 -5.0063748660112264E+00 a      1141     1    17     2     1
  1.7004740962914604E+00 a      1142     1    17     2     2
  2.2951716920098204E+00 a      1143     1    17     2     3
  3.0803288798354544E+00 a      1144     1    17     2     4
  1.8796791401050310E+00 a      1145     1    17     2     5
 -2.0742528301380272E+00 a      1146     1    17     2     6
 -1.1418972604536164E+00 a      1147     1    17     2     7
 -3.0775728052001472E-01 a      1148     1    17     2     8
  4.9753147010539047E+00 a      1149     1    17     2     9
 -6.2596473829485664E+00 a      1150     1    17     2    10
  4.4734192469768104E+00 a      1151     1    17     2    11
  3.4256718279340470E-01 a      1152     1    17     2    12
  2.4349320754991135E+00 a      1153     1    17     2    13
  9.5865195321612529E-01 a      1154     1    17     2    14
  7.0063483917430629E+00 a      1155     1    17     2    15
 -1.7248918413609342E+00 a      1156     1    17     2    16
 -5.5688840911529747E+00 a      1157     1    17     2    17
 -1.9252255281604875E+00 a      1158     1    17     2    18
 -3.4494555753851692E+00 a      1159     1    17     2    19
  4.7848299088234842E+00 a      1160     1    17     2    20
 -7.8274435338382267E+00 a      1161     1    18     2     1
 -6.8582243459340182E+00 a      1162     1    18     2     2
 -1.3334513736945969E-01 a      1163     1    18     2     3
 -3.2307905331485682E+00 a      1164     1    18     2     4
 -5.1788375910027797E+00 a      1165     1    18     2     5
 -4.3520672559464559E+00 a      1166     1    18     2     6
 -2.1772383334914762E+00 a      1167     1    18     2     7
 -1.7713911355774073E+01 a      1168     1    18     2     8
  4.3725725206289932E+00 a      1169     1    18     2     9
  4.0145100913413074E+00 a      1170     1    18     2    10
 -1.6937079511177118E+00 a      1171     1    18     2    11
 -4.8396631256016915E+00 a      1172     1    18     2    12
 -1.3989537700982724E+00 a      1173     1    18     2    13
 -1.1111589297545863E+00 a      1174     1    18     2    14
 -9.4358575725449310E+00 a      1175     1    18     2    15
  5.7603135849790785E+00 a      1176     1    18     2    16
  2.9297126013948573E+00 a      1177     1    18     2    17
  1.1906722603563764E+00 a      1178     1    18     2    18
 -5.1929932495560447E+00 a      1179     1    18     2    19
 -2.3640857584263171E+00 a      1180     1    18     2    20
  9.4747664240170533E+00 a      1181     1    19     2     1
  3.1653051642655039E+00 a      1182     1    19     2     2
 -1.3905284154547206E+00 a      1183     1    19     2     3
 -3.9498793406465862E+00 a      1184     1    19     2     4
  1.3308980287105256E+00 a      1185     1    19     2     5
 -3.3891054156357416E+00 a      1186     1    19     2     6
  5.2155242861618270E+00 a      1187     1    19     2     7
  9.7100730983240560E+00 a      1188     1    19     2     8
  1.1512614081816142E+00 a      1189     1    19     2     9
  2.1137919568506987E+00 a      1190     1    19     2    10
 -5.4899201905058188E+00 a      1191     1    19     2    11
  9.7911759993594440E+00 a      1192     1    19     2    12
 -3.8733672573331059E+00 a      1193     1    19     2    13
  2.1264482940377976E+00 a      1194     1    19     2    14
  1.0580027115270207E+01 a      1195     1    19     2    15
 -3.5989784926373618E+00 a      1196     1    19     2    16
  8.0844678259502500E-01 a      1197     1    19     2    17
  2.4748516729609786E+00 a      1198     1    19     2    18
  2.0696062784883642E+00 a      1199     1    19     2    19
 -8.5779732469460968E-01 a      1200     1    19     2    20
 -4.2000595102625802E+00 a      1201     1    20     2     1
 -9.0070576281189183E+00 a      1202     1    20     2     2
 -7.5315214615662081E+00 a      1203     1    20     2     3
 -1.2959528819870136E+00 a      1204     1    20     2     4
  3.6263538519799341E+00 a      1205     1    20     2     5
 -8.3222705012948051E-01 a      1206     1    20     2     6
  2.7673334125889402E+00 a      1207     1    20     2     7
  4.3527842894261859E+00 a      1208     1    20     2     8
  7.5260641073670198E-01 a      1209     1    20     2     9
 -2.5104280354177906E+00 a      1210     1    20     2    10
 -8.0314625137945708E+00 a      1211     1    20     2    11
 -8.0874707529541663E+00 a      1212     1    20     2    12
 -5.0010663730438427E+00 a      1213     1    20     2    13
 -1.1811386246990425E+00 a      1214     1    20     2    14
 -3.7132404693969714E+00 a      1215     1    20     2    15
 -4.1884235022609309E+00 a      1216     1    20     2    16
 -2.8656976915504631E+00 a      1217     1    20     2    17
 -8.4272364421314094E-01 a      1218     1    20     2    18
  1.6551654356742187E+01 a      1219     1    20     2    19
 -4.5552826548434489E+00 a      1220     1    20     2    20
 -5.0565186426115769E+00 b      1221     2     1
 -4.1054749068518381E+00 b      1222     2     2
 -4.0582828628370071E-01 b      1223     2     3
  6.3520757427342716E+00 b      1224     2     4
 -2.4089644091987421E+00 b      1225     2     5
 -6.3338130925445646E-01 b      1226     2     6
  4.9106250109043126E+00 b      1227     2     7
 -1.2452146311230814E+01 b      1228     2     8
 -1.3481164398303061E+01 b      1229     2     9
 -8.5170329263719791E-01 b      1230     2    10
  1.0172513568512873E+01 b      1231     2    11
  1.6202364864088334E+01 b      1232     2    12
 -1.2544654759540315E+01 b      1233     2    13
 -8.0638514679726345E+00 b      1234     2    14
 -1.1030404226977916E+01 b      1235     2    15
 -6.7258071733169409E+00 b      1236     2    16
  7.1305242532560111E+00 b      1237     2    17
 -3.3521191530954866E+00 b      1238     2    18
  4.2662980161079620E+00 b      1239     2    19
  9.5248195890653697E+00 b      1240     2    20
  2.4199042740639734E-01 a      1241     2     1     3     1
  1.8010051314517725E-01 a      1242     2     2     3     1
 -2.4460496902131182E-01 a      1243     2     3     3     1
  1.4850683834741701E-01 a      1244     2     4     3     1
  2.3090108349132452E-01 a      1245     2     5     3     1
  2.1189593057867598E-01 a      1246     2     6     3     1
 -1.5298431260609918E-01 a      1247     2     7     3     1
  1.3916203036001695E-01 a      1248     2     8     3     1
  1.3845228653606229E-01 a      1249     2     9     3     1
  1.0601369023376281E-01 a      1250     2    10     3     1
 -1.5967487140512615E-01 a      1251     2    11     3     1
 -2.1146760838779691E-01 a      1252     2    12     3     1
  2.1790792704224671E-01 a      1253     2    13     3     1
  6.1337130127998207E-01 a      1254     2    14     3     1
 -2.5563245217413494E-01 a      1255     2    15     3     1
 -1.1857748433927480E-01 a      1256     2    16     3     1
  3.4393877248213534E-01 a      1257     2    17     3     1
 -2.8398563973184376E-01 a      1258     2    18     3     1
 -2.3807738058873759E-01 a      1259     2    19     3     1
  1.1056469182634443E-01 a      1260     2    20     3     1
 -4.6524669889320698E-02 b      1261     3     1
