################################################################################
# Neural network connection values (weights and biases).
################################################################################
# Col  Name       Description
################################################################################
# 1    connection Neural network connection value.
# 2    t          Connection type (a = weight, b = bias).
# 3    index      Index enumerating weights.
# 4    l_s        Starting point layer (end point layer for biases).
# 5    n_s        Starting point neuron in starting layer (end point neuron for biases).
# 6    l_e        End point layer.
# 7    n_e        End point neuron in end layer.
################################################################################
#                      1 2         3     4     5     6     7
#             connection t     index   l_s   n_s   l_e   n_e
############################################################
  2.0626682404436309E+01 a         1     0     1     1     1
 -7.9213107607200894E-01 a         2     0     1     1     2
 -1.7323711715899901E+01 a         3     0     1     1     3
 -6.4965980164854935E+00 a         4     0     1     1     4
  1.1913796198495918E+01 a         5     0     1     1     5
  1.0311759990702846E+01 a         6     0     1     1     6
  1.1341932465678353E+01 a         7     0     1     1     7
 -9.5846498584500228E+00 a         8     0     1     1     8
 -7.9960467235621220E+00 a         9     0     1     1     9
  3.1518764305286537E+00 a        10     0     1     1    10
 -2.8355505948186535E+00 a        11     0     1     1    11
  1.8018740475679149E+00 a        12     0     1     1    12
  1.9967895803789784E+01 a        13     0     1     1    13
 -1.7523800231379852E+01 a        14     0     1     1    14
  6.9372645219459326E+00 a        15     0     1     1    15
  1.0116676543372565E+01 a        16     0     1     1    16
 -2.0626793947444416E+01 a        17     0     1     1    17
  9.4666202703919442E+00 a        18     0     1     1    18
 -1.3507933134831704E+01 a        19     0     1     1    19
  4.5601441560802325E+00 a        20     0     1     1    20
  5.9713618998587137E+00 a        21     0     2     1     1
 -1.1694736420235044E+01 a        22     0     2     1     2
 -5.4080047751443638E+00 a        23     0     2     1     3
  9.7182974160997215E+00 a        24     0     2     1     4
  1.1649243534744819E+01 a        25     0     2     1     5
  5.5510691148978386E-01 a        26     0     2     1     6
 -2.1004197811658312E+00 a        27     0     2     1     7
  6.8441970667298280E-01 a        28     0     2     1     8
  4.4073665758764857E+00 a        29     0     2     1     9
 -5.5941773305478970E-01 a        30     0     2     1    10
 -7.8780134166290559E+00 a        31     0     2     1    11
 -1.0477880796780685E+01 a        32     0     2     1    12
 -1.4672050225501870E+01 a        33     0     2     1    13
 -1.4169137643107753E+01 a        34     0     2     1    14
 -6.3682938920708188E-01 a        35     0     2     1    15
 -1.8702640895971578E+00 a        36     0     2     1    16
  2.7684965718052457E-01 a        37     0     2     1    17
 -1.9683725449490399E+01 a        38     0     2     1    18
  1.0151589514422634E+01 a        39     0     2     1    19
 -6.4499892715675955E+00 a        40     0     2     1    20
 -5.9927717642394933E+00 a        41     0     3     1     1
 -1.5830533363938928E+00 a        42     0     3     1     2
  5.8452710864798050E+00 a        43     0     3     1     3
 -4.8649023655049950E-01 a        44     0     3     1     4
 -1.2095519331939132E+01 a        45     0     3     1     5
  4.7397757839265692E-01 a        46     0     3     1     6
  1.4356736448022565E+01 a        47     0     3     1     7
 -1.9244067387293150E+01 a        48     0     3     1     8
  1.0953314193032167E+01 a        49     0     3     1     9
  3.7145226203949635E+00 a        50     0     3     1    10
  1.6914534657659175E+01 a        51     0     3     1    11
  1.2481506116132055E+01 a        52     0     3     1    12
 -1.6021788303777576E+01 a        53     0     3     1    13
  9.8458710653455750E+00 a        54     0     3     1    14
 -1.2074053818206796E+01 a        55     0     3     1    15
  1.6605090389161177E+00 a        56     0     3     1    16
  2.0119208767274742E+01 a        57     0     3     1    17
  2.6500460211304059E+01 a        58     0     3     1    18
  5.2802063273992283E+00 a        59     0     3     1    19
  3.6288497212017417E+00 a        60     0     3     1    20
  4.1444129500165046E+00 a        61     0     4     1     1
  1.7473647190187602E+01 a        62     0     4     1     2
 -3.0812128663543157E+00 a        63     0     4     1     3
  4.6029781012128419E+00 a        64     0     4     1     4
  8.3368602561235559E+00 a        65     0     4     1     5
  3.2121295501781417E+00 a        66     0     4     1     6
 -1.2121472144810083E+01 a        67     0     4     1     7
 -1.2054069556180650E+01 a        68     0     4     1     8
 -6.3069652208172817E+00 a        69     0     4     1     9
  7.0629243490096538E-01 a        70     0     4     1    10
 -3.1734808694133165E+00 a        71     0     4     1    11
 -1.1828888396427969E+01 a        72     0     4     1    12
  2.3227652137616545E+01 a        73     0     4     1    13
  2.0394058967593235E+01 a        74     0     4     1    14
  2.9187953572188421E-02 a        75     0     4     1    15
 -1.8205490188791693E+01 a        76     0     4     1    16
  1.7430868787574624E+01 a        77     0     4     1    17
 -2.6359389684347310E+00 a        78     0     4     1    18
 -1.7769492386908741E+01 a        79     0     4     1    19
  1.6684151676486131E+01 a        80     0     4     1    20
 -1.3223349656011779E+01 a        81     0     5     1     1
 -3.1458907820945292E+00 a        82     0     5     1     2
 -5.3539589095532882E+00 a        83     0     5     1     3
 -2.7242298357078021E-01 a        84     0     5     1     4
  1.3452530336586607E+01 a        85     0     5     1     5
 -1.1339835795643275E+01 a        86     0     5     1     6
 -5.4369262569642416E+00 a        87     0     5     1     7
  1.5398999704650553E+01 a        88     0     5     1     8
  1.0344990120696662E+00 a        89     0     5     1     9
  1.9517781202751594E+00 a        90     0     5     1    10
  1.2960774488347679E+01 a        91     0     5     1    11
  1.1299193259881646E+01 a        92     0     5     1    12
  1.3099813363780688E+01 a        93     0     5     1    13
 -1.0409395566390497E+01 a        94     0     5     1    14
 -1.0186552006942248E+01 a        95     0     5     1    15
 -1.4476031861058601E+01 a        96     0     5     1    16
 -1.8660900033907719E+01 a        97     0     5     1    17
 -1.4831243353957559E+01 a        98     0     5     1    18
  1.1543933348449769E+01 a        99     0     5     1    19
  1.1415597056739598E+01 a       100     0     5     1    20
 -2.3530608373147519E+01 a       101     0     6     1     1
 -2.0253643983316003E+01 a       102     0     6     1     2
 -1.4555909161355929E+01 a       103     0     6     1     3
  6.6338042820574028E+00 a       104     0     6     1     4
 -1.5598467972492831E+00 a       105     0     6     1     5
  2.2572727586366828E+00 a       106     0     6     1     6
 -5.1455175291813706E+00 a       107     0     6     1     7
 -2.3376661685209474E+00 a       108     0     6     1     8
  5.0775505294840428E+00 a       109     0     6     1     9
  1.0848705036467349E+01 a       110     0     6     1    10
  8.5411691438704000E+00 a       111     0     6     1    11
  3.6578038372031259E+00 a       112     0     6     1    12
 -1.3692800376810737E+01 a       113     0     6     1    13
  2.6652340525289211E+00 a       114     0     6     1    14
  2.0590696211260880E+01 a       115     0     6     1    15
  1.4363617801724809E+01 a       116     0     6     1    16
 -1.8499661790624877E+01 a       117     0     6     1    17
  8.8723833412118953E+00 a       118     0     6     1    18
  3.4501729804255419E+00 a       119     0     6     1    19
  3.5360403487846625E+01 a       120     0     6     1    20
 -5.8693902095542567E+00 a       121     0     7     1     1
 -4.6797618871399420E+00 a       122     0     7     1     2
 -1.7534408143998832E+01 a       123     0     7     1     3
 -1.7562761305583582E+01 a       124     0     7     1     4
  4.5451678218558618E+00 a       125     0     7     1     5
  7.0946724015958385E+00 a       126     0     7     1     6
 -6.9335572902119944E+00 a       127     0     7     1     7
  9.7182252539239400E+00 a       128     0     7     1     8
 -6.6358549021954474E+00 a       129     0     7     1     9
  1.0248877826957216E+01 a       130     0     7     1    10
  2.2317265744095107E+00 a       131     0     7     1    11
  1.0614075833415940E+01 a       132     0     7     1    12
 -1.7348390626441628E+01 a       133     0     7     1    13
  1.1157852154946687E+01 a       134     0     7     1    14
 -5.6417133839929763E+00 a       135     0     7     1    15
  1.2950713559218672E+01 a       136     0     7     1    16
 -2.1157100817210286E+00 a       137     0     7     1    17
  4.7859160626732615E+00 a       138     0     7     1    18
 -1.5570870806469006E+01 a       139     0     7     1    19
  5.7467902100818646E+00 a       140     0     7     1    20
  1.1224998432204446E+01 a       141     0     8     1     1
  3.3146246031437463E+00 a       142     0     8     1     2
 -1.1208573995557893E+01 a       143     0     8     1     3
 -1.9593777870138376E+00 a       144     0     8     1     4
 -6.3384992522141559E+00 a       145     0     8     1     5
 -3.5594532697034675E+00 a       146     0     8     1     6
 -3.9466330491802046E+00 a       147     0     8     1     7
 -4.9185075096945994E+00 a       148     0     8     1     8
  3.2306280549252300E+00 a       149     0     8     1     9
  5.3025334216671292E+00 a       150     0     8     1    10
  9.8703907214531643E+00 a       151     0     8     1    11
  1.5618190178320143E+01 a       152     0     8     1    12
  7.9082453481866493E+00 a       153     0     8     1    13
  1.3374600991010965E+00 a       154     0     8     1    14
 -9.9790353091474788E+00 a       155     0     8     1    15
 -4.4937767621709668E+00 a       156     0     8     1    16
  1.1030192229025527E+01 a       157     0     8     1    17
 -9.2048128667545832E+00 a       158     0     8     1    18
 -4.5472894996063422E+00 a       159     0     8     1    19
 -1.6286017402071632E+01 a       160     0     8     1    20
  1.9468497631545119E+00 a       161     0     9     1     1
 -2.3844845919567521E+00 a       162     0     9     1     2
  7.0804147138260545E+00 a       163     0     9     1     3
  1.9747429433280381E+00 a       164     0     9     1     4
  6.2073049603516450E+00 a       165     0     9     1     5
 -1.1285679131346072E+01 a       166     0     9     1     6
 -3.2406289067291083E+00 a       167     0     9     1     7
  2.4007103821831803E+00 a       168     0     9     1     8
 -7.8715454309329447E+00 a       169     0     9     1     9
 -8.7307170001256018E-01 a       170     0     9     1    10
  4.6656684356805309E+00 a       171     0     9     1    11
 -4.8573980017293241E+00 a       172     0     9     1    12
 -1.5452002023287041E+00 a       173     0     9     1    13
 -1.1509287676095679E+00 a       174     0     9     1    14
 -2.4429644555765271E+00 a       175     0     9     1    15
  3.4530347871073257E+00 a       176     0     9     1    16
  1.2763228863557305E+00 a       177     0     9     1    17
 -1.4835696608309694E+00 a       178     0     9     1    18
  2.3623571888611541E+00 a       179     0     9     1    19
  2.4090033900895758E-01 a       180     0     9     1    20
  1.1193548866652561E+00 a       181     0    10     1     1
 -4.6534540836475156E+00 a       182     0    10     1     2
  1.2221685002009627E+01 a       183     0    10     1     3
 -2.1520599406973138E+00 a       184     0    10     1     4
  3.0598957471373325E+00 a       185     0    10     1     5
  8.3203746270715744E+00 a       186     0    10     1     6
 -5.5446128759601772E+00 a       187     0    10     1     7
  5.3071954220504569E+00 a       188     0    10     1     8
 -2.3114580459187679E+00 a       189     0    10     1     9
  1.0711854975497283E-01 a       190     0    10     1    10
 -1.2699317999754911E+00 a       191     0    10     1    11
 -1.1728693771836458E+01 a       192     0    10     1    12
  2.5173435280373782E+00 a       193     0    10     1    13
  2.3940659080818141E+00 a       194     0    10     1    14
 -3.9197314711396052E+00 a       195     0    10     1    15
 -1.0156662437390307E+00 a       196     0    10     1    16
  4.0139376233298671E+00 a       197     0    10     1    17
  8.2153738427244727E-01 a       198     0    10     1    18
 -5.0303433516296412E+00 a       199     0    10     1    19
  2.6073353314787231E+00 a       200     0    10     1    20
 -1.4350806220060901E+00 a       201     0    11     1     1
  2.2715146681038134E+00 a       202     0    11     1     2
 -3.5456819460171758E+00 a       203     0    11     1     3
 -1.4415792627449754E+01 a       204     0    11     1     4
 -3.2558618403193446E-01 a       205     0    11     1     5
  1.2208515634803732E+01 a       206     0    11     1     6
 -2.0775153302128371E+00 a       207     0    11     1     7
  1.2570822438947606E+00 a       208     0    11     1     8
 -3.9906680846597911E+00 a       209     0    11     1     9
  3.8399847556765123E+00 a       210     0    11     1    10
 -4.9581459022558194E+00 a       211     0    11     1    11
 -1.5105690862986076E+01 a       212     0    11     1    12
 -6.9924146922900103E+00 a       213     0    11     1    13
  7.5459982124681169E+00 a       214     0    11     1    14
  1.4082544954324844E+01 a       215     0    11     1    15
  4.9475623967465676E+00 a       216     0    11     1    16
  5.0852226734790591E+00 a       217     0    11     1    17
 -7.3333721293977350E+00 a       218     0    11     1    18
 -7.1297073563421982E+00 a       219     0    11     1    19
  3.6673150420339811E+00 a       220     0    11     1    20
  1.3940620235234205E+00 a       221     0    12     1     1
 -3.7301265878416032E+00 a       222     0    12     1     2
 -4.1080487050578922E+00 a       223     0    12     1     3
  3.6467480545073778E+00 a       224     0    12     1     4
 -5.5290162902376263E+00 a       225     0    12     1     5
 -1.1179921056706540E+01 a       226     0    12     1     6
 -9.9606008454979444E-01 a       227     0    12     1     7
  4.2246725842614874E-01 a       228     0    12     1     8
  6.6877868219997627E-01 a       229     0    12     1     9
 -9.0413360962389486E+00 a       230     0    12     1    10
  7.9691857135696320E-01 a       231     0    12     1    11
  1.3166694800037613E+01 a       232     0    12     1    12
  5.6693282243815126E+00 a       233     0    12     1    13
  9.9967211888973040E+00 a       234     0    12     1    14
 -7.5938834972357441E+00 a       235     0    12     1    15
  8.5459355397176431E+00 a       236     0    12     1    16
 -7.4993073589535142E-01 a       237     0    12     1    17
  1.0141185608625602E+01 a       238     0    12     1    18
  1.0870637706755613E+00 a       239     0    12     1    19
  2.5616490458413277E+00 a       240     0    12     1    20
  4.3268924860311015E+00 a       241     0    13     1     1
  5.0033889612737736E+00 a       242     0    13     1     2
 -2.1378793654255195E+00 a       243     0    13     1     3
  1.9477418501036237E+01 a       244     0    13     1     4
  2.1908280539124309E+01 a       245     0    13     1     5
 -9.9289561245270352E+00 a       246     0    13     1     6
 -2.2699548483158882E+01 a       247     0    13     1     7
 -1.8249323383459849E+01 a       248     0    13     1     8
  3.0605269209965069E+00 a       249     0    13     1     9
 -8.6043744231692916E+00 a       250     0    13     1    10
  5.7200962895752534E+00 a       251     0    13     1    11
  5.6148618273059219E+00 a       252     0    13     1    12
  2.9834553802445170E+00 a       253     0    13     1    13
  2.5050733356951884E+01 a       254     0    13     1    14
 -4.4846812360725972E+00 a       255     0    13     1    15
 -5.8345696687636162E+00 a       256     0    13     1    16
  1.5103297180978590E+00 a       257     0    13     1    17
  7.3377924907200187E-01 a       258     0    13     1    18
  2.7642264132879678E+01 a       259     0    13     1    19
  4.2319112814212465E+00 a       260     0    13     1    20
  2.8407150891971393E+00 a       261     0    14     1     1
  2.5605726994852982E+00 a       262     0    14     1     2
 -1.4267162772102198E+01 a       263     0    14     1     3
 -1.6746562341140613E+01 a       264     0    14     1     4
 -5.7444555048103716E+00 a       265     0    14     1     5
  1.0545752255150200E+01 a       266     0    14     1     6
 -1.1403615155800422E+01 a       267     0    14     1     7
  2.6426770007851257E+00 a       268     0    14     1     8
 -1.2330673669102508E+01 a       269     0    14     1     9
 -2.4350058125439500E-01 a       270     0    14     1    10
 -3.4655973064040912E+00 a       271     0    14     1    11
 -2.5471579790849126E+00 a       272     0    14     1    12
  1.7305779859336958E+01 a       273     0    14     1    13
 -2.0771124067275068E+01 a       274     0    14     1    14
 -2.4821852350545162E+00 a       275     0    14     1    15
  6.8105962758152119E+00 a       276     0    14     1    16
 -6.4889572405898632E-01 a       277     0    14     1    17
  7.7267724035232961E+00 a       278     0    14     1    18
  1.3462653842113905E+01 a       279     0    14     1    19
  6.9990276182334350E+00 a       280     0    14     1    20
 -3.2307517705039182E+00 a       281     0    15     1     1
  5.2347700326544067E-01 a       282     0    15     1     2
  9.6094341778606545E+00 a       283     0    15     1     3
  1.8168340949014240E+01 a       284     0    15     1     4
 -1.7881621983225582E+01 a       285     0    15     1     5
 -2.6292258521984646E+01 a       286     0    15     1     6
 -1.4031724188195172E+01 a       287     0    15     1     7
 -3.7436143879408796E+01 a       288     0    15     1     8
  1.2209027134318158E+00 a       289     0    15     1     9
  3.4302232599126469E+01 a       290     0    15     1    10
 -2.4844129832383524E+00 a       291     0    15     1    11
  3.2633850630016319E+00 a       292     0    15     1    12
  1.2202841132716969E+01 a       293     0    15     1    13
 -6.6290550757485162E-02 a       294     0    15     1    14
  9.5101101334951075E+00 a       295     0    15     1    15
 -7.0607994352933225E+00 a       296     0    15     1    16
  1.7896192146089235E-01 a       297     0    15     1    17
  6.6538281604396265E-01 a       298     0    15     1    18
 -2.4167088173575475E+01 a       299     0    15     1    19
 -3.7473244570068665E+01 a       300     0    15     1    20
  6.1349960735045510E+00 a       301     0    16     1     1
  3.1633694929464768E+00 a       302     0    16     1     2
 -7.3683023686486591E+00 a       303     0    16     1     3
 -2.4445684742859601E+01 a       304     0    16     1     4
 -1.4660719910511956E+01 a       305     0    16     1     5
  1.3476552491580595E+01 a       306     0    16     1     6
 -1.0084469598211349E+01 a       307     0    16     1     7
  5.7459167881877136E+00 a       308     0    16     1     8
 -1.6559876007405524E+01 a       309     0    16     1     9
  1.0432502305484175E+00 a       310     0    16     1    10
 -7.1204321010073954E+00 a       311     0    16     1    11
 -3.3296409858307334E+00 a       312     0    16     1    12
  1.9018901242008909E+01 a       313     0    16     1    13
 -1.7425270546265470E+01 a       314     0    16     1    14
 -1.5978992036629367E+00 a       315     0    16     1    15
  5.0949889992154347E+00 a       316     0    16     1    16
  3.1571686390720495E+00 a       317     0    16     1    17
  4.0933194141651335E+00 a       318     0    16     1    18
  4.9680520704215105E+00 a       319     0    16     1    19
  9.8580266839204693E+00 a       320     0    16     1    20
  6.3521317346965072E+00 a       321     0    17     1     1
  4.2329765538596736E-01 a       322     0    17     1     2
  2.6638581567452931E+01 a       323     0    17     1     3
 -2.9441302142192542E+00 a       324     0    17     1     4
  3.6895082965219670E+00 a       325     0    17     1     5
 -3.7116015747610041E+00 a       326     0    17     1     6
 -1.8860732801474587E+01 a       327     0    17     1     7
 -5.1640543672243471E+00 a       328     0    17     1     8
 -1.4733534940917227E+01 a       329     0    17     1     9
 -5.2583021732218809E+00 a       330     0    17     1    10
 -1.0171706413611307E+01 a       331     0    17     1    11
 -8.2282686738109962E+00 a       332     0    17     1    12
 -4.8375648137128442E+00 a       333     0    17     1    13
  1.9256006004365268E+01 a       334     0    17     1    14
  1.7440933958104278E+01 a       335     0    17     1    15
  1.6869598702860142E+01 a       336     0    17     1    16
 -5.1586875381940764E+00 a       337     0    17     1    17
  4.2119009998011947E+00 a       338     0    17     1    18
 -6.3353095497297094E+00 a       339     0    17     1    19
 -2.1949583860960519E+01 a       340     0    17     1    20
 -2.0284142905349427E+01 a       341     0    18     1     1
  5.3262909498647479E+00 a       342     0    18     1     2
 -7.7698623861254195E+00 a       343     0    18     1     3
 -2.0275832048239494E+01 a       344     0    18     1     4
  1.3737971710237218E+01 a       345     0    18     1     5
 -3.3189658874908445E-01 a       346     0    18     1     6
 -6.3918973160107733E+00 a       347     0    18     1     7
  2.5465440250383597E+01 a       348     0    18     1     8
 -1.7905782304181525E+01 a       349     0    18     1     9
  7.2678013394661347E+00 a       350     0    18     1    10
  2.3344411431929391E+01 a       351     0    18     1    11
  5.3276924548937501E+00 a       352     0    18     1    12
  1.9970640125489258E+01 a       353     0    18     1    13
 -1.6068174307352511E+01 a       354     0    18     1    14
 -5.9582333050748399E+00 a       355     0    18     1    15
  1.1855407610788747E+01 a       356     0    18     1    16
  4.6015311401677366E+00 a       357     0    18     1    17
  2.0815626562167701E+01 a       358     0    18     1    18
  1.4444520723110346E+01 a       359     0    18     1    19
  1.7325734544309821E+01 a       360     0    18     1    20
 -9.1582675534951044E+00 a       361     0    19     1     1
  1.1017325637693023E+01 a       362     0    19     1     2
  2.4387284661003143E+01 a       363     0    19     1     3
  1.8656197110869485E+01 a       364     0    19     1     4
 -1.1679690038244464E+01 a       365     0    19     1     5
 -3.1105768572854313E+01 a       366     0    19     1     6
  3.7336256516964163E+01 a       367     0    19     1     7
 -1.6902732726139833E+00 a       368     0    19     1     8
  3.8629766390332603E+00 a       369     0    19     1     9
 -1.4373744037319641E+01 a       370     0    19     1    10
  8.2224196770840052E+00 a       371     0    19     1    11
 -2.9667090932461497E+00 a       372     0    19     1    12
 -3.0091463578525706E+00 a       373     0    19     1    13
  1.2798412419358314E+01 a       374     0    19     1    14
 -1.3029089270302880E+01 a       375     0    19     1    15
 -1.0702861704390282E+01 a       376     0    19     1    16
 -3.6807376544604775E+00 a       377     0    19     1    17
  1.3289388017174128E+01 a       378     0    19     1    18
 -2.8313921360734375E+00 a       379     0    19     1    19
 -1.2102522969927942E+00 a       380     0    19     1    20
 -1.1123572565124443E+01 a       381     0    20     1     1
  1.6929302070588669E+01 a       382     0    20     1     2
 -1.2846409050612658E+01 a       383     0    20     1     3
  2.3147224528840169E+01 a       384     0    20     1     4
  1.6393284758039758E+01 a       385     0    20     1     5
  2.5922720881336092E+00 a       386     0    20     1     6
 -4.0021806704750915E+00 a       387     0    20     1     7
  2.8709830607244982E+01 a       388     0    20     1     8
  1.9205792067171021E+01 a       389     0    20     1     9
  7.1561308862894908E+00 a       390     0    20     1    10
 -1.3132812093254342E+01 a       391     0    20     1    11
 -8.3859571051782655E+00 a       392     0    20     1    12
 -3.2353191514394335E+00 a       393     0    20     1    13
 -1.5350337753053751E+01 a       394     0    20     1    14
 -1.3876870745621490E+01 a       395     0    20     1    15
 -1.6858038378953875E+01 a       396     0    20     1    16
  1.9727588702847783E+01 a       397     0    20     1    17
 -6.1573883938756566E+00 a       398     0    20     1    18
  2.0664282409331538E+01 a       399     0    20     1    19
 -2.2043874450015752E+00 a       400     0    20     1    20
  1.2879305736093812E+01 a       401     0    21     1     1
 -1.4235076128771629E+01 a       402     0    21     1     2
  1.2398936944617012E+00 a       403     0    21     1     3
 -7.4569505620464600E+00 a       404     0    21     1     4
 -1.4785351514007814E+01 a       405     0    21     1     5
  8.7037854808535950E+00 a       406     0    21     1     6
  2.0405238323458640E+01 a       407     0    21     1     7
 -1.3862293853162781E+01 a       408     0    21     1     8
 -1.7720528057701280E+01 a       409     0    21     1     9
 -1.1777420725250782E+00 a       410     0    21     1    10
  3.9536074079050652E+00 a       411     0    21     1    11
  1.3338924904897080E+01 a       412     0    21     1    12
 -1.0617598717814072E+01 a       413     0    21     1    13
  6.4213720816398934E-01 a       414     0    21     1    14
 -2.6417931516286148E+00 a       415     0    21     1    15
  1.7397642681498631E+01 a       416     0    21     1    16
  1.2910911845476019E+00 a       417     0    21     1    17
 -2.5457959176341578E+01 a       418     0    21     1    18
 -1.5472437018805943E+01 a       419     0    21     1    19
 -3.1562737563795582E+00 a       420     0    21     1    20
  9.0870756533904160E+00 a       421     0    22     1     1
  8.9559799971259739E+00 a       422     0    22     1     2
 -6.6938954675006634E+00 a       423     0    22     1     3
  7.4934907406599356E+00 a       424     0    22     1     4
 -4.8975234979415116E+00 a       425     0    22     1     5
 -1.0412719406192381E+00 a       426     0    22     1     6
 -3.7582346982482093E+01 a       427     0    22     1     7
  9.6902640536633964E+00 a       428     0    22     1     8
  5.6252356022119896E+00 a       429     0    22     1     9
 -4.9619199432266257E+00 a       430     0    22     1    10
 -1.0078852634041510E+01 a       431     0    22     1    11
  8.5606070373112981E+00 a       432     0    22     1    12
 -1.6270012380629346E+01 a       433     0    22     1    13
  3.1510187262804649E+01 a       434     0    22     1    14
  1.9254060558648888E+01 a       435     0    22     1    15
  9.6465247175690880E+00 a       436     0    22     1    16
  1.4227496683492504E+01 a       437     0    22     1    17
  1.5593925040092607E+00 a       438     0    22     1    18
  1.1846178766405778E+01 a       439     0    22     1    19
  6.0424022981255021E+00 a       440     0    22     1    20
  1.3110180878874003E+01 a       441     0    23     1     1
 -1.5343371131565438E+00 a       442     0    23     1     2
 -5.3630895538423582E+00 a       443     0    23     1     3
 -1.8173182302794626E+01 a       444     0    23     1     4
 -1.8027727209978671E+01 a       445     0    23     1     5
  1.8611326431220299E+01 a       446     0    23     1     6
  5.3947452682878065E+00 a       447     0    23     1     7
 -2.0117173616208724E+01 a       448     0    23     1     8
 -3.1658925212622879E+00 a       449     0    23     1     9
 -1.2576137577952804E+00 a       450     0    23     1    10
 -2.4852976030377850E+01 a       451     0    23     1    11
 -1.7262554703358983E+01 a       452     0    23     1    12
  1.7752427596169166E+01 a       453     0    23     1    13
 -2.5991948366039775E+01 a       454     0    23     1    14
 -1.4008206023943131E+01 a       455     0    23     1    15
  7.6554337031993853E+00 a       456     0    23     1    16
 -8.7989714316732037E+00 a       457     0    23     1    17
 -8.7892442607180454E-01 a       458     0    23     1    18
  2.4989355261083904E+01 a       459     0    23     1    19
 -9.8882156620112269E+00 a       460     0    23     1    20
  2.0520858616421968E+01 a       461     0    24     1     1
  3.0795243837467382E+01 a       462     0    24     1     2
  4.4034966226804251E+00 a       463     0    24     1     3
  1.2643112284691533E+01 a       464     0    24     1     4
  9.1587432050185900E+00 a       465     0    24     1     5
  1.4201691177926412E+00 a       466     0    24     1     6
 -6.2047445556524217E+00 a       467     0    24     1     7
  4.9076897362006724E+00 a       468     0    24     1     8
  3.6827056355889281E+00 a       469     0    24     1     9
 -3.0418013783857822E+00 a       470     0    24     1    10
  1.1466424846647243E+01 a       471     0    24     1    11
 -7.2298887719986604E+00 a       472     0    24     1    12
 -4.4779471402132058E+00 a       473     0    24     1    13
  9.1367102426601328E+00 a       474     0    24     1    14
  1.4861568801250531E+01 a       475     0    24     1    15
  7.9701278717357651E+00 a       476     0    24     1    16
 -9.5522149198429265E+00 a       477     0    24     1    17
  1.7750153402955919E+00 a       478     0    24     1    18
 -1.8923800058434932E+01 a       479     0    24     1    19
 -2.2638030279422114E+01 a       480     0    24     1    20
 -1.6049816834512916E+00 a       481     0    25     1     1
  1.7236360220465292E+00 a       482     0    25     1     2
  3.9772269413394268E+00 a       483     0    25     1     3
 -8.1305992063806567E+00 a       484     0    25     1     4
  1.4927327655478008E+01 a       485     0    25     1     5
 -1.1220751981792789E+00 a       486     0    25     1     6
 -8.8548224246153513E+00 a       487     0    25     1     7
  1.4086146154428828E+01 a       488     0    25     1     8
  6.5165598766528001E+00 a       489     0    25     1     9
  9.8348921623469803E+00 a       490     0    25     1    10
 -1.1594620368527840E+01 a       491     0    25     1    11
  8.4481088995435929E+00 a       492     0    25     1    12
  3.6066756202907135E+00 a       493     0    25     1    13
  1.2510484590201276E+01 a       494     0    25     1    14
  2.1422397494573115E+01 a       495     0    25     1    15
  6.0524659579980289E-01 a       496     0    25     1    16
 -3.1775994036416391E+00 a       497     0    25     1    17
 -7.9460854930667795E+00 a       498     0    25     1    18
 -2.2656079452633428E+01 a       499     0    25     1    19
 -1.1449628982972003E+01 a       500     0    25     1    20
  7.9506458808262677E+00 a       501     0    26     1     1
 -6.2123502222021285E+00 a       502     0    26     1     2
  1.1709651013630696E+01 a       503     0    26     1     3
 -2.8958833336950125E+00 a       504     0    26     1     4
 -1.5163637821113374E+01 a       505     0    26     1     5
 -1.1800571266083407E+01 a       506     0    26     1     6
 -1.4446010037875979E+01 a       507     0    26     1     7
 -1.3973083760530500E+01 a       508     0    26     1     8
 -1.5505187388624007E+00 a       509     0    26     1     9
 -4.3794998263481002E+00 a       510     0    26     1    10
  1.4749060832454759E+01 a       511     0    26     1    11
 -8.9658718562424866E+00 a       512     0    26     1    12
  6.1244401393544678E-01 a       513     0    26     1    13
  6.9225545932801449E+00 a       514     0    26     1    14
 -2.3115305021135657E+00 a       515     0    26     1    15
 -9.9914318795075339E+00 a       516     0    26     1    16
 -2.0121309211159675E+00 a       517     0    26     1    17
 -3.4225023384467015E+00 a       518     0    26     1    18
 -7.2013895223353757E+00 a       519     0    26     1    19
 -3.9166067308506540E+00 a       520     0    26     1    20
 -1.7905780685376072E+01 a       521     0    27     1     1
  7.9689371123190531E+00 a       522     0    27     1     2
 -1.0620332884432493E+01 a       523     0    27     1     3
  5.9524258890902537E+00 a       524     0    27     1     4
 -1.7745393378229696E+01 a       525     0    27     1     5
 -2.4098929778073270E+01 a       526     0    27     1     6
  6.9545603651297023E+00 a       527     0    27     1     7
  2.5089605585190561E+01 a       528     0    27     1     8
  3.3595767621973600E+01 a       529     0    27     1     9
 -4.5664982206856353E+00 a       530     0    27     1    10
  4.0576836577475506E+00 a       531     0    27     1    11
  1.3892517007787614E+01 a       532     0    27     1    12
  2.2232141712195716E+01 a       533     0    27     1    13
  6.6933137110119167E+00 a       534     0    27     1    14
  8.7243615731211381E+00 a       535     0    27     1    15
 -5.9555791474860131E-01 a       536     0    27     1    16
 -1.0042134678468150E+01 a       537     0    27     1    17
  2.9366395608736628E-01 a       538     0    27     1    18
  1.7543911959257869E+01 a       539     0    27     1    19
  2.8528957489017812E+00 a       540     0    27     1    20
 -1.2136383768368919E+01 a       541     0    28     1     1
 -2.6800944109103471E+00 a       542     0    28     1     2
  1.0663303041842235E+01 a       543     0    28     1     3
 -1.3561704819649792E+01 a       544     0    28     1     4
  8.5870885320327197E+00 a       545     0    28     1     5
  1.2616857445995249E+01 a       546     0    28     1     6
  2.0858160791675754E+01 a       547     0    28     1     7
 -1.0136966261677152E+01 a       548     0    28     1     8
 -8.1941785282792523E+00 a       549     0    28     1     9
  1.8811723722332129E+01 a       550     0    28     1    10
  6.1849833547212540E+00 a       551     0    28     1    11
 -1.1212628742063335E+00 a       552     0    28     1    12
  1.3919024409602734E+00 a       553     0    28     1    13
 -1.6508187523798551E+01 a       554     0    28     1    14
 -1.7191180422473298E+01 a       555     0    28     1    15
 -3.0236857018433958E+00 a       556     0    28     1    16
 -1.9870578003287784E+00 a       557     0    28     1    17
  2.0724121712085903E+01 a       558     0    28     1    18
 -1.5159713670796149E+01 a       559     0    28     1    19
 -9.7234716412036217E+00 a       560     0    28     1    20
  1.3136752434555795E+01 a       561     0    29     1     1
  9.1550594569876633E+00 a       562     0    29     1     2
  4.7650052131387914E+00 a       563     0    29     1     3
  1.1508074084135719E+01 a       564     0    29     1     4
 -2.4074578832100901E+01 a       565     0    29     1     5
  7.8523975085274085E+00 a       566     0    29     1     6
  1.2461753641357941E+01 a       567     0    29     1     7
 -3.8135689419559258E+00 a       568     0    29     1     8
  1.8285876708665615E+01 a       569     0    29     1     9
 -2.3219861833313590E+01 a       570     0    29     1    10
  1.3347503294208767E+01 a       571     0    29     1    11
  8.5156047319632577E+00 a       572     0    29     1    12
  1.7617563121113029E+01 a       573     0    29     1    13
  1.3065379133423434E+01 a       574     0    29     1    14
  3.3665531181567574E+00 a       575     0    29     1    15
 -1.1550147103243049E+01 a       576     0    29     1    16
 -1.9811531293425075E+00 a       577     0    29     1    17
 -7.6190052224878562E+00 a       578     0    29     1    18
 -4.0780485882524982E+00 a       579     0    29     1    19
  2.4310191037292914E+00 a       580     0    29     1    20
  7.0677767219400589E-01 a       581     0    30     1     1
  6.1431002291636938E+00 a       582     0    30     1     2
 -1.1208755084083128E+01 a       583     0    30     1     3
  1.8986693368480310E+01 a       584     0    30     1     4
 -1.2291147742275786E+01 a       585     0    30     1     5
 -3.4371035574111799E+00 a       586     0    30     1     6
 -2.4290347034631250E+01 a       587     0    30     1     7
 -1.3713983162758108E+01 a       588     0    30     1     8
  3.2873716177796830E+01 a       589     0    30     1     9
 -6.2326205632729641E+00 a       590     0    30     1    10
 -1.8546340318005971E+01 a       591     0    30     1    11
 -5.5194820572225893E+00 a       592     0    30     1    12
  1.1755706705046185E+01 a       593     0    30     1    13
 -1.5984301180823781E+01 a       594     0    30     1    14
 -7.6682452548202451E-01 a       595     0    30     1    15
 -7.2345672401746741E+00 a       596     0    30     1    16
  8.8896172000085567E+00 a       597     0    30     1    17
 -2.5524994699151158E+01 a       598     0    30     1    18
  1.7142811678894464E+01 a       599     0    30     1    19
 -5.6765316248351363E+00 a       600     0    30     1    20
  2.3660365135718408E+01 a       601     0    31     1     1
 -8.2121536704955620E+00 a       602     0    31     1     2
  1.8134321469513612E+01 a       603     0    31     1     3
 -1.0141709175434348E+01 a       604     0    31     1     4
  7.5383877080828334E+00 a       605     0    31     1     5
  1.8644822139833799E+01 a       606     0    31     1     6
  2.9224254579582308E+01 a       607     0    31     1     7
 -1.6003881287957263E+01 a       608     0    31     1     8
 -1.5003285516746203E+01 a       609     0    31     1     9
  1.8065819609113032E+00 a       610     0    31     1    10
 -1.2416015976034049E+00 a       611     0    31     1    11
  2.2055924975892740E+00 a       612     0    31     1    12
 -8.8049300909743455E-01 a       613     0    31     1    13
 -2.7137210578055097E+01 a       614     0    31     1    14
 -1.2569550513301168E+01 a       615     0    31     1    15
 -1.6468285023088416E+01 a       616     0    31     1    16
 -1.6340331474448625E+01 a       617     0    31     1    17
  3.9360764109654362E+01 a       618     0    31     1    18
 -2.1412493052990044E+01 a       619     0    31     1    19
 -1.4600047941804166E+00 a       620     0    31     1    20
 -3.5532869344815567E-02 a       621     0    32     1     1
 -3.5278860366351230E+00 a       622     0    32     1     2
 -4.2969824136891015E+00 a       623     0    32     1     3
 -6.7279823465996822E+00 a       624     0    32     1     4
  3.7011448154692905E-01 a       625     0    32     1     5
 -2.8148135438096720E+01 a       626     0    32     1     6
  1.5450951817239430E+01 a       627     0    32     1     7
 -1.6848191228681554E+01 a       628     0    32     1     8
 -1.6322172597280915E+01 a       629     0    32     1     9
  3.6849841326306915E+01 a       630     0    32     1    10
 -1.0515965536272850E+01 a       631     0    32     1    11
  1.2166714634561631E+00 a       632     0    32     1    12
 -3.3145701129536043E+01 a       633     0    32     1    13
  1.4380185520329432E+01 a       634     0    32     1    14
 -7.9327600702540479E-01 a       635     0    32     1    15
  1.6395213333012279E+01 a       636     0    32     1    16
  6.4807372493071727E+00 a       637     0    32     1    17
  2.7174124333596442E+01 a       638     0    32     1    18
 -2.0002526031238670E+01 a       639     0    32     1    19
  1.0598555725389208E+01 a       640     0    32     1    20
  2.5005676709000056E+01 a       641     0    33     1     1
  6.4998025503141932E+00 a       642     0    33     1     2
  7.8231089195853931E+00 a       643     0    33     1     3
  1.7264297806386079E+01 a       644     0    33     1     4
  1.7234138392744665E+01 a       645     0    33     1     5
  2.6834846040045143E+01 a       646     0    33     1     6
  9.5193775827540268E+00 a       647     0    33     1     7
  8.3844564053291908E+00 a       648     0    33     1     8
 -4.9966980883153713E+00 a       649     0    33     1     9
  7.1263037195940315E+00 a       650     0    33     1    10
  1.9004357478062609E+01 a       651     0    33     1    11
 -9.2054555773641784E+00 a       652     0    33     1    12
  1.6906497314892309E+01 a       653     0    33     1    13
  1.9128594806655663E+01 a       654     0    33     1    14
 -6.6662326123959064E+00 a       655     0    33     1    15
  1.7479935108007748E+01 a       656     0    33     1    16
 -1.0590656636244068E+01 a       657     0    33     1    17
 -7.3564390451871260E+00 a       658     0    33     1    18
 -9.2509077010120713E+00 a       659     0    33     1    19
 -2.4541476773123270E+00 a       660     0    33     1    20
 -2.2431908705147752E+01 a       661     0    34     1     1
 -4.5418549447883255E-01 a       662     0    34     1     2
 -1.4630120323583000E+01 a       663     0    34     1     3
 -9.4146533106515822E+00 a       664     0    34     1     4
  2.4332925031946203E+01 a       665     0    34     1     5
 -7.2100806296449163E+00 a       666     0    34     1     6
 -1.1759545191247662E+01 a       667     0    34     1     7
 -4.5249675579788091E+00 a       668     0    34     1     8
  6.9196899693869511E+00 a       669     0    34     1     9
 -9.6155918122006891E+00 a       670     0    34     1    10
 -1.7298017091940054E+01 a       671     0    34     1    11
 -8.1875591566532258E-01 a       672     0    34     1    12
  1.5208573051017358E+00 a       673     0    34     1    13
 -1.2743948282479527E+01 a       674     0    34     1    14
  1.9248421228674914E+01 a       675     0    34     1    15
  2.0684444289967615E+01 a       676     0    34     1    16
  1.8895257502515076E+01 a       677     0    34     1    17
  1.5912369284319784E+01 a       678     0    34     1    18
  9.7922084112524352E+00 a       679     0    34     1    19
  3.1236300670849499E+00 a       680     0    34     1    20
 -1.1309965266887108E+01 a       681     0    35     1     1
 -2.5302228040609860E+00 a       682     0    35     1     2
  2.1877173719506086E+01 a       683     0    35     1     3
  1.4432615327209385E+01 a       684     0    35     1     4
  1.4738840480715682E+01 a       685     0    35     1     5
 -9.4293379240102642E+00 a       686     0    35     1     6
  1.0307370199630034E+01 a       687     0    35     1     7
  3.0392986768837624E+00 a       688     0    35     1     8
  1.8736415826419449E+01 a       689     0    35     1     9
  7.4595630344632413E+00 a       690     0    35     1    10
  1.1989690740308285E+01 a       691     0    35     1    11
 -9.9605631565867409E-02 a       692     0    35     1    12
  1.7463875479593212E+00 a       693     0    35     1    13
  6.3354072242589687E+00 a       694     0    35     1    14
  3.7060374550812112E+00 a       695     0    35     1    15
 -1.6664395171960244E+01 a       696     0    35     1    16
  1.0255660701254458E+01 a       697     0    35     1    17
  1.4110403613408570E+01 a       698     0    35     1    18
 -7.2353614188428237E+00 a       699     0    35     1    19
  5.8313972925523938E+00 a       700     0    35     1    20
 -3.0956381588372214E+01 a       701     0    36     1     1
 -7.3986172835774768E+00 a       702     0    36     1     2
  8.1982769740235533E+00 a       703     0    36     1     3
  8.2828954152777907E+00 a       704     0    36     1     4
 -3.4985305854822908E+00 a       705     0    36     1     5
 -2.3670166040127567E+00 a       706     0    36     1     6
  2.7423961459539087E-01 a       707     0    36     1     7
  7.4193770205423339E+00 a       708     0    36     1     8
 -1.2069568685307104E+01 a       709     0    36     1     9
 -1.0329658027923063E+01 a       710     0    36     1    10
 -4.7997858399588322E+00 a       711     0    36     1    11
 -1.5136842585190797E+00 a       712     0    36     1    12
 -9.0374320423123800E-01 a       713     0    36     1    13
 -1.5246797538606132E+00 a       714     0    36     1    14
 -1.5913256864199255E+01 a       715     0    36     1    15
 -1.0881193107918911E+01 a       716     0    36     1    16
  2.5529370758855761E+00 a       717     0    36     1    17
 -7.9924729213950414E+00 a       718     0    36     1    18
  1.1496031889855184E+01 a       719     0    36     1    19
  9.3664326307628247E+00 a       720     0    36     1    20
 -1.8139396689643970E+00 a       721     0    37     1     1
 -7.9899736778042119E+00 a       722     0    37     1     2
 -1.1807524780546318E+01 a       723     0    37     1     3
 -6.9747802330223143E+00 a       724     0    37     1     4
 -1.0956670344826133E+01 a       725     0    37     1     5
 -5.4254186384218439E+00 a       726     0    37     1     6
  7.7594891028324167E+00 a       727     0    37     1     7
 -6.9235713755429389E+00 a       728     0    37     1     8
 -5.0954234739915005E+00 a       729     0    37     1     9
 -6.0172713627248484E+00 a       730     0    37     1    10
  2.4623506121562522E+00 a       731     0    37     1    11
 -9.3340504079922422E+00 a       732     0    37     1    12
 -8.3778149314896098E+00 a       733     0    37     1    13
 -1.4785729048213907E+00 a       734     0    37     1    14
  7.1821850675482957E-01 a       735     0    37     1    15
  2.1955212353634797E+00 a       736     0    37     1    16
  8.5044594225256132E-01 a       737     0    37     1    17
 -9.9373201640978355E+00 a       738     0    37     1    18
  1.1492590829368707E+01 a       739     0    37     1    19
  1.7381181024049940E+01 a       740     0    37     1    20
 -6.9034941565381667E+00 a       741     0    38     1     1
 -7.0150967321337170E+00 a       742     0    38     1     2
 -3.2267520584489540E+00 a       743     0    38     1     3
 -1.1417069653597292E+01 a       744     0    38     1     4
  1.0251361052901529E+00 a       745     0    38     1     5
  2.7111861094234499E+01 a       746     0    38     1     6
 -1.1053295595934678E+01 a       747     0    38     1     7
  1.2273873115801919E+01 a       748     0    38     1     8
  4.7822986438818882E+00 a       749     0    38     1     9
 -1.8810654530751037E+01 a       750     0    38     1    10
 -7.1286538525726506E+00 a       751     0    38     1    11
  3.3756725976722732E+00 a       752     0    38     1    12
  6.2817138215082968E+00 a       753     0    38     1    13
 -1.1612379714461390E+01 a       754     0    38     1    14
  1.3167243615146376E+01 a       755     0    38     1    15
  2.8052674381770006E+00 a       756     0    38     1    16
 -2.7022816378907226E+01 a       757     0    38     1    17
 -2.8823944987500774E+00 a       758     0    38     1    18
 -6.4889658228543956E+00 a       759     0    38     1    19
  8.8789164054164864E+00 a       760     0    38     1    20
  2.5798384347404784E+00 a       761     0    39     1     1
 -7.0998356255661390E+00 a       762     0    39     1     2
 -5.1104670540118606E+00 a       763     0    39     1     3
 -1.1288607369240339E+01 a       764     0    39     1     4
  5.4495635327035794E+00 a       765     0    39     1     5
 -2.9452299938355169E+00 a       766     0    39     1     6
 -1.6451059658059417E-01 a       767     0    39     1     7
 -2.4902371566007350E+01 a       768     0    39     1     8
 -2.3302605349089262E+01 a       769     0    39     1     9
 -1.6817668145864584E+01 a       770     0    39     1    10
 -2.6473976303797933E+01 a       771     0    39     1    11
  1.2825364149275873E+00 a       772     0    39     1    12
 -2.4314993025950670E+01 a       773     0    39     1    13
 -1.6326075495143595E+01 a       774     0    39     1    14
  5.6618511774509113E+00 a       775     0    39     1    15
 -1.9235001109239423E+01 a       776     0    39     1    16
  1.4671710726309371E+01 a       777     0    39     1    17
 -1.5816308456283313E+01 a       778     0    39     1    18
  5.9338687704858835E+00 a       779     0    39     1    19
 -8.9656693323697905E+00 a       780     0    39     1    20
  9.8362340237082559E+00 a       781     0    40     1     1
  2.6174356287486948E+00 a       782     0    40     1     2
 -5.1786092816792761E+00 a       783     0    40     1     3
 -6.8343430874555358E+00 a       784     0    40     1     4
 -3.8073288732120162E+01 a       785     0    40     1     5
  7.0592226396697944E-01 a       786     0    40     1     6
 -3.4503284256197584E+00 a       787     0    40     1     7
  2.4112041790319768E+01 a       788     0    40     1     8
 -4.0552021239186411E+00 a       789     0    40     1     9
  1.5059188620781854E+00 a       790     0    40     1    10
  4.1771149887122068E+00 a       791     0    40     1    11
 -1.2358606201384086E+01 a       792     0    40     1    12
 -6.3052882627317457E+00 a       793     0    40     1    13
  1.2318293570515300E+01 a       794     0    40     1    14
 -1.4086977071569262E+01 a       795     0    40     1    15
 -7.4644089172630474E+00 a       796     0    40     1    16
 -1.2288026010720174E+01 a       797     0    40     1    17
 -3.0215922004641570E+01 a       798     0    40     1    18
  1.3867915819357751E+01 a       799     0    40     1    19
 -2.2970847533046438E+01 a       800     0    40     1    20
 -1.1178543367119330E-01 b       801     1     1
  1.6575839318049264E+00 b       802     1     2
  1.2137845150162815E-01 b       803     1     3
  2.7259256434541883E+00 b       804     1     4
  4.0849933723137766E-01 b       805     1     5
  6.6938310619898245E-01 b       806     1     6
  2.1112593201007956E-01 b       807     1     7
  6.3303972963382027E-01 b       808     1     8
 -5.4575323822475152E-01 b       809     1     9
  6.0364356060395162E-02 b       810     1    10
 -1.5289686622407386E+00 b       811     1    11
 -4.4471574668324516E+00 b       812     1    12
 -1.8257042487254094E+00 b       813     1    13
  1.6564760880867395E+00 b       814     1    14
  1.0972049926412710E+00 b       815     1    15
  1.1013207843028059E+00 b       816     1    16
  5.2324789414663799E+00 b       817     1    17
 -4.8961127960805149E+00 b       818     1    18
  2.0111123307024995E-01 b       819     1    19
 -4.0240329958873922E+00 b       820     1    20
  5.2763530069652980E+00 a       821     1     1     2     1
 -2.7490061296013164E+00 a       822     1     1     2     2
  1.5795529729813196E+00 a       823     1     1     2     3
 -5.3082867161364433E-01 a       824     1     1     2     4
 -2.2408741265747092E+00 a       825     1     1     2     5
  2.8520133459533897E-01 a       826     1     1     2     6
 -1.9009996548415324E+00 a       827     1     1     2     7
  1.3212628587637205E+00 a       828     1     1     2     8
  1.3703953932331605E+00 a       829     1     1     2     9
  6.6030674688794324E+00 a       830     1     1     2    10
 -1.1911367204916496E+00 a       831     1     1     2    11
  6.5494670937515442E-01 a       832     1     1     2    12
 -3.9964370553831674E-01 a       833     1     1     2    13
 -2.9778241737428961E+00 a       834     1     1     2    14
  2.2955121623526438E+00 a       835     1     1     2    15
 -2.5524667087438706E+00 a       836     1     1     2    16
 -4.4484256756072700E+00 a       837     1     1     2    17
  5.7675986185305772E-01 a       838     1     1     2    18
 -2.6099869243236333E+00 a       839     1     1     2    19
  1.3564421145949439E+01 a       840     1     1     2    20
 -5.3135098377717371E+00 a       841     1     2     2     1
  5.9181023095536149E+00 a       842     1     2     2     2
  5.5247275887543861E+00 a       843     1     2     2     3
  4.1156606999677807E+00 a       844     1     2     2     4
  5.1939032150590778E+00 a       845     1     2     2     5
  2.6841197559788244E+00 a       846     1     2     2     6
  3.4460034448072712E+00 a       847     1     2     2     7
 -4.6512342933540891E+00 a       848     1     2     2     8
  1.0042735531537499E+01 a       849     1     2     2     9
 -5.7249001729719824E+00 a       850     1     2     2    10
 -7.4438989494632564E+00 a       851     1     2     2    11
  1.4701756640960323E+01 a       852     1     2     2    12
 -2.3393153332600276E+00 a       853     1     2     2    13
 -9.3713558171046674E-01 a       854     1     2     2    14
  7.0778061812888691E+00 a       855     1     2     2    15
  5.7708701791498189E+00 a       856     1     2     2    16
  7.0941962414547133E+00 a       857     1     2     2    17
  6.1925845816745695E-01 a       858     1     2     2    18
 -8.9258289724018358E-01 a       859     1     2     2    19
  1.5262894252468730E+01 a       860     1     2     2    20
 -2.3901568652606828E+00 a       861     1     3     2     1
  4.2102591379183085E+00 a       862     1     3     2     2
  4.4759936641334148E+00 a       863     1     3     2     3
 -5.8428397729370252E+00 a       864     1     3     2     4
  3.0594219157085734E-01 a       865     1     3     2     5
 -6.6988929855373691E-01 a       866     1     3     2     6
  1.5205560024506084E+00 a       867     1     3     2     7
 -8.6292251721545696E+00 a       868     1     3     2     8
  1.2400698980512505E+01 a       869     1     3     2     9
 -4.7278616280163394E-01 a       870     1     3     2    10
 -3.3190711470376120E+00 a       871     1     3     2    11
  2.5043178762395452E-01 a       872     1     3     2    12
 -1.1844504903245119E+00 a       873     1     3     2    13
 -3.4932887200802445E+00 a       874     1     3     2    14
  4.8937035009691980E+00 a       875     1     3     2    15
 -1.0325605588984244E+00 a       876     1     3     2    16
  3.8302720393528089E+00 a       877     1     3     2    17
 -1.8630059374754648E+00 a       878     1     3     2    18
  8.3302749887445948E+00 a       879     1     3     2    19
  5.1650620952043056E+00 a       880     1     3     2    20
 -9.4709683429658096E+00 a       881     1     4     2     1
  7.5997430388722256E+00 a       882     1     4     2     2
  1.2853942291596690E-01 a       883     1     4     2     3
  2.2525958747945909E+00 a       884     1     4     2     4
 -2.5096338749977192E+00 a       885     1     4     2     5
  2.1657709953089617E+00 a       886     1     4     2     6
  1.0293322892863726E+01 a       887     1     4     2     7
 -2.4642971924741541E+00 a       888     1     4     2     8
 -4.7624580909473080E+00 a       889     1     4     2     9
  5.5774764104248860E+00 a       890     1     4     2    10
  9.6242985189949148E-01 a       891     1     4     2    11
  6.8177561631783918E+00 a       892     1     4     2    12
  3.3668006193325843E+00 a       893     1     4     2    13
  1.2227917905158079E+00 a       894     1     4     2    14
  4.5739893581549858E+00 a       895     1     4     2    15
 -8.2936522981025806E+00 a       896     1     4     2    16
  4.8351699648361883E+00 a       897     1     4     2    17
 -4.9585614064425849E+00 a       898     1     4     2    18
  3.1169449237231852E+00 a       899     1     4     2    19
 -9.5371815216157305E+00 a       900     1     4     2    20
 -2.8255180222009231E+00 a       901     1     5     2     1
 -4.0599458405848612E+00 a       902     1     5     2     2
  6.6714890450804933E+00 a       903     1     5     2     3
  1.2743192148060378E+00 a       904     1     5     2     4
 -3.1765005110715766E-01 a       905     1     5     2     5
 -2.3069792244648064E+00 a       906     1     5     2     6
  8.3603531805125630E-01 a       907     1     5     2     7
  2.7006920554078495E+00 a       908     1     5     2     8
 -8.6065277744140800E-01 a       909     1     5     2     9
  2.7419212341821284E+00 a       910     1     5     2    10
  8.7239235252732605E+00 a       911     1     5     2    11
  4.0332894806401072E+00 a       912     1     5     2    12
  4.2803472757482366E+00 a       913     1     5     2    13
  2.4066019882929233E+00 a       914     1     5     2    14
 -6.0041542065921458E+00 a       915     1     5     2    15
 -6.1323933177432743E-01 a       916     1     5     2    16
 -2.3273671377789502E+00 a       917     1     5     2    17
 -5.7371305558469299E+00 a       918     1     5     2    18
 -7.2024836669817238E-01 a       919     1     5     2    19
 -5.9221897524233158E-01 a       920     1     5     2    20
 -7.0390051389656936E+00 a       921     1     6     2     1
 -3.8117135991338449E+00 a       922     1     6     2     2
 -1.1318176836764287E+00 a       923     1     6     2     3
  1.9216061841006336E+00 a       924     1     6     2     4
 -2.5668492221470107E-01 a       925     1     6     2     5
 -7.3741873775446931E-01 a       926     1     6     2     6
 -7.5016625944703517E+00 a       927     1     6     2     7
  6.3618267421343395E+00 a       928     1     6     2     8
 -1.5222257068143212E+00 a       929     1     6     2     9
  1.1718728953958106E+00 a       930     1     6     2    10
 -4.5982478971903102E+00 a       931     1     6     2    11
  1.3014266264301968E+01 a       932     1     6     2    12
 -6.2699072375716263E+00 a       933     1     6     2    13
 -1.8053689436718399E+00 a       934     1     6     2    14
  1.7603303810186319E+00 a       935     1     6     2    15
 -1.0253099134439861E+01 a       936     1     6     2    16
 -5.5900094758139307E+00 a       937     1     6     2    17
 -5.4690915467078289E+00 a       938     1     6     2    18
  5.4160908860737644E-01 a       939     1     6     2    19
 -1.4782213036645198E+00 a       940     1     6     2    20
 -2.0477439581509072E+00 a       941     1     7     2     1
 -4.9620530431099867E+00 a       942     1     7     2     2
 -2.1081821561169143E+00 a       943     1     7     2     3
  2.5070555909575600E+00 a       944     1     7     2     4
  8.5512804297267830E-01 a       945     1     7     2     5
 -3.3812526131508989E+00 a       946     1     7     2     6
 -4.5849864838950047E+00 a       947     1     7     2     7
  2.9421657271686650E+00 a       948     1     7     2     8
 -7.3352717540702210E+00 a       949     1     7     2     9
 -1.3600976118112320E+00 a       950     1     7     2    10
 -9.4396505881060611E-01 a       951     1     7     2    11
  7.0258892348383419E+00 a       952     1     7     2    12
  6.1934316339172416E-02 a       953     1     7     2    13
  8.4125791534837759E+00 a       954     1     7     2    14
  2.1022539529691771E+00 a       955     1     7     2    15
 -4.6277894527342562E+00 a       956     1     7     2    16
  3.3908393826802397E-01 a       957     1     7     2    17
 -3.5204973068708481E+00 a       958     1     7     2    18
  1.1557326867321907E+01 a       959     1     7     2    19
  1.1637929771457031E+01 a       960     1     7     2    20
  1.6027745613319229E+00 a       961     1     8     2     1
  3.7023787605604466E+00 a       962     1     8     2     2
 -3.0470933793412893E+00 a       963     1     8     2     3
 -6.5907283182760470E-02 a       964     1     8     2     4
  4.6119154141402943E+00 a       965     1     8     2     5
 -5.4225524278446835E-01 a       966     1     8     2     6
  1.1607060319704521E+01 a       967     1     8     2     7
  2.1118139133052987E+00 a       968     1     8     2     8
  3.6244771139713183E+00 a       969     1     8     2     9
  5.6204581200793555E+00 a       970     1     8     2    10
 -5.2281917688464299E+00 a       971     1     8     2    11
  1.9741223325938140E+01 a       972     1     8     2    12
 -2.9205140295020886E+00 a       973     1     8     2    13
 -1.0345624997160434E+00 a       974     1     8     2    14
  4.7496311107045468E+00 a       975     1     8     2    15
 -3.2939910211600885E+00 a       976     1     8     2    16
 -4.6082559512017323E+00 a       977     1     8     2    17
 -9.4136497385684095E+00 a       978     1     8     2    18
 -2.3182276264415824E+00 a       979     1     8     2    19
 -1.0488188049485624E+01 a       980     1     8     2    20
  5.1321273279490800E+00 a       981     1     9     2     1
 -4.9346228393069662E+00 a       982     1     9     2     2
 -1.0959899172288308E+00 a       983     1     9     2     3
 -4.0456179797650549E+00 a       984     1     9     2     4
  1.6594532834429097E+00 a       985     1     9     2     5
  2.2501778057864317E+00 a       986     1     9     2     6
 -9.5347411395286414E+00 a       987     1     9     2     7
 -2.6730366121908595E+00 a       988     1     9     2     8
  4.0350373955463796E+00 a       989     1     9     2     9
 -1.3674760258000877E+01 a       990     1     9     2    10
 -5.9568300483602199E+00 a       991     1     9     2    11
 -1.3900336907042339E+00 a       992     1     9     2    12
 -5.2101902373449593E-01 a       993     1     9     2    13
  3.4541049772066956E-01 a       994     1     9     2    14
  1.7520263806010221E+00 a       995     1     9     2    15
 -1.0903987132712996E+00 a       996     1     9     2    16
 -6.3110486761672091E-01 a       997     1     9     2    17
 -3.8714664382641586E+00 a       998     1     9     2    18
 -3.5288138380081087E+00 a       999     1     9     2    19
  9.0023257674839041E-01 a      1000     1     9     2    20
  1.1940147884629949E+01 a      1001     1    10     2     1
 -1.8049717392558533E+00 a      1002     1    10     2     2
 -4.9259724606140347E+00 a      1003     1    10     2     3
  3.1663517831216565E+00 a      1004     1    10     2     4
 -1.5923882986828541E-01 a      1005     1    10     2     5
 -5.2824365078125100E+00 a      1006     1    10     2     6
 -3.0255747000073174E-01 a      1007     1    10     2     7
  7.2784548283214363E+00 a      1008     1    10     2     8
  5.0342608357374841E-01 a      1009     1    10     2     9
 -1.8856167303549056E+00 a      1010     1    10     2    10
  9.4477776531736535E-01 a      1011     1    10     2    11
 -5.1495109195073958E+00 a      1012     1    10     2    12
  7.4497870730630822E-01 a      1013     1    10     2    13
 -3.8958821804436599E+00 a      1014     1    10     2    14
 -3.4769477662061936E+00 a      1015     1    10     2    15
 -5.5070842995882108E-01 a      1016     1    10     2    16
  2.2219992606422361E+00 a      1017     1    10     2    17
  6.1240620423387355E+00 a      1018     1    10     2    18
  6.0537914931799430E-01 a      1019     1    10     2    19
  1.2757446630559134E+01 a      1020     1    10     2    20
 -2.7725221433007974E+00 a      1021     1    11     2     1
 -3.2130757225625506E+00 a      1022     1    11     2     2
  1.8195096555145476E+00 a      1023     1    11     2     3
  5.8183090335907846E+00 a      1024     1    11     2     4
 -4.7819245898372680E+00 a      1025     1    11     2     5
  8.5051893918909052E+00 a      1026     1    11     2     6
  5.3693684588044448E+00 a      1027     1    11     2     7
  1.8132737445944471E+00 a      1028     1    11     2     8
 -8.7249738883463390E+00 a      1029     1    11     2     9
  1.2382663667173166E+01 a      1030     1    11     2    10
 -4.5699657039065009E+00 a      1031     1    11     2    11
  1.3332306191377098E+01 a      1032     1    11     2    12
 -1.6087015711105995E+01 a      1033     1    11     2    13
  1.2399319512701494E+00 a      1034     1    11     2    14
  2.1172045581309459E-01 a      1035     1    11     2    15
  4.6354259819718830E+00 a      1036     1    11     2    16
 -7.0166358483432214E+00 a      1037     1    11     2    17
 -4.7614021337655226E+00 a      1038     1    11     2    18
 -2.0729256584136181E+01 a      1039     1    11     2    19
 -7.3810473599940423E+00 a      1040     1    11     2    20
  1.1019205851191369E+00 a      1041     1    12     2     1
  2.5569712536022697E+00 a      1042     1    12     2     2
 -1.6477580682313114E+01 a      1043     1    12     2     3
 -1.5832331556144982E+01 a      1044     1    12     2     4
  1.1926802034906923E+00 a      1045     1    12     2     5
  1.2574233466808280E+00 a      1046     1    12     2     6
  1.2186805892165049E+01 a      1047     1    12     2     7
  2.1612768704806602E+01 a      1048     1    12     2     8
  2.7359749479052851E+00 a      1049     1    12     2     9
 -5.5946570503191539E+00 a      1050     1    12     2    10
  1.1585692021456357E+00 a      1051     1    12     2    11
  5.8985969981618158E+00 a      1052     1    12     2    12
  1.2342118429913547E+00 a      1053     1    12     2    13
 -5.0665692083396952E+00 a      1054     1    12     2    14
 -8.9703033697308143E+00 a      1055     1    12     2    15
 -1.0870628141007299E+00 a      1056     1    12     2    16
 -5.9977230474869414E-01 a      1057     1    12     2    17
  1.3010661748644392E+01 a      1058     1    12     2    18
  7.4139270472724030E+00 a      1059     1    12     2    19
  3.2583231307859952E+00 a      1060     1    12     2    20
 -6.5685028793509415E-01 a      1061     1    13     2     1
  8.6992815936669132E-02 a      1062     1    13     2     2
  5.8465141491156496E+00 a      1063     1    13     2     3
  5.4986841493067420E+00 a      1064     1    13     2     4
 -5.3361644259161556E-01 a      1065     1    13     2     5
  1.5402495023075911E+00 a      1066     1    13     2     6
  1.5037675210656642E+01 a      1067     1    13     2     7
  1.1284503813780848E+01 a      1068     1    13     2     8
  3.4134080536058015E-01 a      1069     1    13     2     9
  4.7306590043725789E+00 a      1070     1    13     2    10
 -2.2199923889107160E+00 a      1071     1    13     2    11
  4.2607137040908150E+00 a      1072     1    13     2    12
  1.7450645008267041E+00 a      1073     1    13     2    13
 -3.7468723364991381E+00 a      1074     1    13     2    14
  1.7732026145488822E+00 a      1075     1    13     2    15
  4.6499526708350303E-01 a      1076     1    13     2    16
  4.8513338229925287E+00 a      1077     1    13     2    17
 -8.8898753843717371E-01 a      1078     1    13     2    18
 -2.6232575193317822E+00 a      1079     1    13     2    19
  1.2814471168527792E+01 a      1080     1    13     2    20
  4.6976842346013975E-01 a      1081     1    14     2     1
  2.7068611660988711E+00 a      1082     1    14     2     2
  2.4921081532902232E+00 a      1083     1    14     2     3
 -5.7078974812681302E+00 a      1084     1    14     2     4
 -7.1104655761294957E+00 a      1085     1    14     2     5
  2.8886198108923802E+00 a      1086     1    14     2     6
 -9.3179428685516594E+00 a      1087     1    14     2     7
 -2.9548724923739700E+00 a      1088     1    14     2     8
  9.0290785289322919E+00 a      1089     1    14     2     9
 -4.2575720273012418E+00 a      1090     1    14     2    10
 -4.7588518330586265E+00 a      1091     1    14     2    11
  3.5299459330949405E+00 a      1092     1    14     2    12
 -2.3529255225018808E-03 a      1093     1    14     2    13
  7.0546862407533217E-01 a      1094     1    14     2    14
  4.3086526534230396E+00 a      1095     1    14     2    15
  1.8452374531423350E+00 a      1096     1    14     2    16
 -1.2772866989622842E+00 a      1097     1    14     2    17
 -5.4029696069000490E+00 a      1098     1    14     2    18
 -2.5324763097169538E+00 a      1099     1    14     2    19
 -8.3554511641212343E+00 a      1100     1    14     2    20
 -3.0743055176239675E+00 a      1101     1    15     2     1
  4.8344713437861158E+00 a      1102     1    15     2     2
  1.2340414966142127E+01 a      1103     1    15     2     3
 -7.3580406909074849E+00 a      1104     1    15     2     4
  1.4320616850218187E+01 a      1105     1    15     2     5
  8.3346300402406215E-01 a      1106     1    15     2     6
 -3.2601594031115826E+00 a      1107     1    15     2     7
  3.8493175318786923E+00 a      1108     1    15     2     8
 -3.1413813459630049E+00 a      1109     1    15     2     9
  4.3523524277168386E+00 a      1110     1    15     2    10
 -5.8860991450979161E-01 a      1111     1    15     2    11
  1.0057864953719685E+01 a      1112     1    15     2    12
 -5.4164940263482544E+00 a      1113     1    15     2    13
 -6.4274301538298282E+00 a      1114     1    15     2    14
 -5.0582522131386891E-03 a      1115     1    15     2    15
  8.8820445494914180E-01 a      1116     1    15     2    16
 -4.6059380266203211E+00 a      1117     1    15     2    17
 -2.6539490354555522E+00 a      1118     1    15     2    18
  4.8573952635143423E+00 a      1119     1    15     2    19
  2.2930100893401296E+01 a      1120     1    15     2    20
  3.5015181101672246E+00 a      1121     1    16     2     1
 -5.6084844813690058E+00 a      1122     1    16     2     2
 -4.8210994302640637E+00 a      1123     1    16     2     3
 -4.3300401665814203E-01 a      1124     1    16     2     4
  3.5480047126606813E+00 a      1125     1    16     2     5
  3.8009129308412262E+00 a      1126     1    16     2     6
 -9.6192856058399734E+00 a      1127     1    16     2     7
 -4.7935037579987547E+00 a      1128     1    16     2     8
  9.0771149394719348E+00 a      1129     1    16     2     9
  4.7994776343606524E+00 a      1130     1    16     2    10
  7.5548387135784942E+00 a      1131     1    16     2    11
 -1.4898123822958503E+01 a      1132     1    16     2    12
  7.6247087658431347E+00 a      1133     1    16     2    13
 -2.0028471080362147E+00 a      1134     1    16     2    14
 -3.8656560764179950E+00 a      1135     1    16     2    15
 -1.5326406620178459E+00 a      1136     1    16     2    16
  7.3949552893929162E+00 a      1137     1    16     2    17
 -1.8289324933851634E+00 a      1138     1    16     2    18
 -4.0879666088142770E+00 a      1139     1    16     2    19
  2.0141374072020991E+01 a      1140     1    16     2    20
  2.4250181875309456E+00 a      1141     1    17     2     1
  3.0625249725970816E-01 a      1142     1    17     2     2
 -3.6273292651350473E+00 a      1143     1    17     2     3
 -6.6028655466064026E-02 a      1144     1    17     2     4
 -9.1525978631745470E+00 a      1145     1    17     2     5
 -7.1134332120692034E-01 a      1146     1    17     2     6
 -2.5386420401192904E+01 a      1147     1    17     2     7
  8.3191448729679465E+00 a      1148     1    17     2     8
 -5.4905699258193215E+00 a      1149     1    17     2     9
 -5.2743407772765138E+00 a      1150     1    17     2    10
  9.3779537874203651E+00 a      1151     1    17     2    11
 -1.3085790971501123E+00 a      1152     1    17     2    12
 -2.4590821598738750E+00 a      1153     1    17     2    13
  4.1519097446770052E+00 a      1154     1    17     2    14
 -3.7784785008172528E+00 a      1155     1    17     2    15
 -1.4166856331881867E+00 a      1156     1    17     2    16
  7.7642498670327944E+00 a      1157     1    17     2    17
  1.0623370582359353E+01 a      1158     1    17     2    18
 -1.8869916518656529E+00 a      1159     1    17     2    19
  5.4426802048173242E+00 a      1160     1    17     2    20
 -7.3567403861125091E-01 a      1161     1    18     2     1
 -6.3033445104622858E+00 a      1162     1    18     2     2
 -2.3112263226728384E+01 a      1163     1    18     2     3
  2.4658133700121927E+00 a      1164     1    18     2     4
  3.9077691424342040E+00 a      1165     1    18     2     5
 -1.2740336469302822E+00 a      1166     1    18     2     6
  1.3607950039327491E+01 a      1167     1    18     2     7
 -1.9244416659677540E+01 a      1168     1    18     2     8
  5.8859032146350634E+00 a      1169     1    18     2     9
  1.5379976763474827E+01 a      1170     1    18     2    10
  6.7238223088395275E+00 a      1171     1    18     2    11
  1.2207767446007452E+01 a      1172     1    18     2    12
  7.7634624906555985E+00 a      1173     1    18     2    13
  7.0038045813595469E+00 a      1174     1    18     2    14
 -2.0675434334146057E+00 a      1175     1    18     2    15
 -8.1939716318467379E+00 a      1176     1    18     2    16
 -2.2216859242245790E+00 a      1177     1    18     2    17
  7.0480836700447007E+00 a      1178     1    18     2    18
  1.4949074696836179E+01 a      1179     1    18     2    19
  4.8763992211256770E+01 a      1180     1    18     2    20
  1.0319136389917454E+00 a      1181     1    19     2     1
 -3.7159604148096377E+00 a      1182     1    19     2     2
  8.6683253573820700E+00 a      1183     1    19     2     3
 -3.2296193800420609E+00 a      1184     1    19     2     4
 -1.6205790272054419E+00 a      1185     1    19     2     5
  8.4861460023227797E-01 a      1186     1    19     2     6
  1.0321185230651245E+01 a      1187     1    19     2     7
 -6.7088055945794354E+00 a      1188     1    19     2     8
  6.3436667000520703E+00 a      1189     1    19     2     9
 -4.6551445630603094E+00 a      1190     1    19     2    10
 -5.0775274048008532E+00 a      1191     1    19     2    11
  8.1390377252678334E+00 a      1192     1    19     2    12
 -4.6530013490596811E-01 a      1193     1    19     2    13
 -1.7409517195211257E+00 a      1194     1    19     2    14
  2.4864701692274087E+00 a      1195     1    19     2    15
  3.0211726653238862E+00 a      1196     1    19     2    16
  5.1791441586668507E-01 a      1197     1    19     2    17
  3.2903303393699836E+00 a      1198     1    19     2    18
  3.0437764829388305E+00 a      1199     1    19     2    19
  1.3870133919203303E+01 a      1200     1    19     2    20
 -3.9553399691266886E+00 a      1201     1    20     2     1
  4.9072697821317324E-01 a      1202     1    20     2     2
  1.2860311069223844E+01 a      1203     1    20     2     3
 -1.3382826897513591E+00 a      1204     1    20     2     4
 -5.0641605539543404E+00 a      1205     1    20     2     5
 -5.0207406739314022E+00 a      1206     1    20     2     6
 -2.3616707842338197E+01 a      1207     1    20     2     7
  1.2888765068480534E+00 a      1208     1    20     2     8
  1.2479796554378177E+00 a      1209     1    20     2     9
 -1.0679406952009971E+01 a      1210     1    20     2    10
  6.0521453650039136E-01 a      1211     1    20     2    11
 -6.9063410780614101E+00 a      1212     1    20     2    12
 -4.9593580302691169E+00 a      1213     1    20     2    13
  1.9864520045953775E+00 a      1214     1    20     2    14
  7.8502776384244530E+00 a      1215     1    20     2    15
 -1.1589514961479871E+01 a      1216     1    20     2    16
  3.0815779963757288E+00 a      1217     1    20     2    17
  5.5859621400694719E+00 a      1218     1    20     2    18
  1.1886579334209419E+01 a      1219     1    20     2    19
  7.3431693636333222E+00 a      1220     1    20     2    20
  9.3247949503131142E+00 b      1221     2     1
  2.4755648284846652E+00 b      1222     2     2
 -2.5698917555382131E+01 b      1223     2     3
  2.1606587717919985E+00 b      1224     2     4
 -1.2942971649683482E+01 b      1225     2     5
  5.7456028308078366E+00 b      1226     2     6
  2.7719739494182818E+01 b      1227     2     7
  2.4149779955075363E+00 b      1228     2     8
  7.9112839902137591E+00 b      1229     2     9
  1.3206463396016977E+01 b      1230     2    10
 -7.1049030316760282E+00 b      1231     2    11
  2.5567256916394160E-01 b      1232     2    12
 -4.3701561389307422E+00 b      1233     2    13
 -9.5168303692546807E+00 b      1234     2    14
 -4.4636710083819322E+00 b      1235     2    15
 -2.0126734169902614E+00 b      1236     2    16
 -7.5959847073945967E+00 b      1237     2    17
  1.4590479277564798E+00 b      1238     2    18
 -5.8367343988053237E+00 b      1239     2    19
  2.3490451451367253E+01 b      1240     2    20
 -2.0372275796249692E-01 a      1241     2     1     3     1
  1.9224128980464272E-01 a      1242     2     2     3     1
 -2.5377139630344697E-01 a      1243     2     3     3     1
 -3.1747522694124947E-01 a      1244     2     4     3     1
  1.1536833669805513E-01 a      1245     2     5     3     1
  2.2869992814541165E-01 a      1246     2     6     3     1
  2.0209647403894351E-01 a      1247     2     7     3     1
 -9.9152637146251332E-02 a      1248     2     8     3     1
 -1.9559885784631287E-01 a      1249     2     9     3     1
  3.1608148109955075E-01 a      1250     2    10     3     1
 -1.6459162264157493E-01 a      1251     2    11     3     1
 -2.3906806874809242E-01 a      1252     2    12     3     1
 -1.2285677877845212E-01 a      1253     2    13     3     1
 -1.4771226946252619E-01 a      1254     2    14     3     1
 -1.8935496749571609E-01 a      1255     2    15     3     1
 -1.6557007695622913E-01 a      1256     2    16     3     1
  1.8561499739644008E-01 a      1257     2    17     3     1
 -1.7683528182591410E-01 a      1258     2    18     3     1
 -7.3297705809906424E-02 a      1259     2    19     3     1
  3.1633493368183863E-01 a      1260     2    20     3     1
 -5.5327238600394202E-01 b      1261     3     1
