################################################################################
# Neural network connection values (weights and biases).
################################################################################
# Col  Name       Description
################################################################################
# 1    connection Neural network connection value.
# 2    t          Connection type (a = weight, b = bias).
# 3    index      Index enumerating weights.
# 4    l_s        Starting point layer (end point layer for biases).
# 5    n_s        Starting point neuron in starting layer (end point neuron for biases).
# 6    l_e        End point layer.
# 7    n_e        End point neuron in end layer.
################################################################################
#                      1 2         3     4     5     6     7
#             connection t     index   l_s   n_s   l_e   n_e
############################################################
 -1.1280853224717994E+01 a         1     0     1     1     1
 -7.6889221051063759E+00 a         2     0     1     1     2
  2.7649955488647642E+00 a         3     0     1     1     3
 -4.2056836811104175E+00 a         4     0     1     1     4
  9.5144989355030400E+00 a         5     0     1     1     5
 -1.8925691528341448E+00 a         6     0     1     1     6
  1.3307654493997317E+01 a         7     0     1     1     7
 -3.1012638713322760E+00 a         8     0     1     1     8
 -3.5817008308723093E+00 a         9     0     1     1     9
  4.7724051315799274E+00 a        10     0     1     1    10
 -1.7904292916316127E+01 a        11     0     1     1    11
  9.7154094296349438E+00 a        12     0     1     1    12
 -7.1135625709480292E+00 a        13     0     1     1    13
 -9.1506732694295287E+00 a        14     0     1     1    14
  2.2583311325304747E-02 a        15     0     1     1    15
  1.6636738178492990E+01 a        16     0     1     1    16
 -1.7201108323085212E+01 a        17     0     1     1    17
  5.9489241386009386E+00 a        18     0     1     1    18
 -2.7938717320297703E+00 a        19     0     1     1    19
  3.5660283638830217E+00 a        20     0     1     1    20
  4.8610580314728251E+00 a        21     0     2     1     1
  1.9442716184004137E+01 a        22     0     2     1     2
  4.4614535575314598E+00 a        23     0     2     1     3
 -8.2236079368019404E+00 a        24     0     2     1     4
 -2.0611906732805529E+00 a        25     0     2     1     5
  1.3951367111848092E+00 a        26     0     2     1     6
  1.8684015333343595E+01 a        27     0     2     1     7
 -2.8650075935900987E+00 a        28     0     2     1     8
  9.3290704741338515E-01 a        29     0     2     1     9
  3.6063205666007772E+00 a        30     0     2     1    10
  3.4347053209140856E+00 a        31     0     2     1    11
 -5.9204027940227331E+00 a        32     0     2     1    12
 -5.2164785671638425E+00 a        33     0     2     1    13
  1.2935438852794443E+01 a        34     0     2     1    14
  9.4475948474983540E-01 a        35     0     2     1    15
 -1.8226182996440937E+01 a        36     0     2     1    16
  9.2328699491576884E+00 a        37     0     2     1    17
 -6.1871931496844654E+00 a        38     0     2     1    18
 -1.3964078248341563E+01 a        39     0     2     1    19
  5.5175305818038414E+00 a        40     0     2     1    20
  1.3762363132240209E+01 a        41     0     3     1     1
  1.9818045534951064E+01 a        42     0     3     1     2
  1.8761614091999024E+00 a        43     0     3     1     3
 -2.2039303202591034E+00 a        44     0     3     1     4
 -3.7654210577375276E+00 a        45     0     3     1     5
  2.0780286323859958E+00 a        46     0     3     1     6
 -3.0723072977921071E+01 a        47     0     3     1     7
  8.1192181308617606E+00 a        48     0     3     1     8
 -7.3936900141382109E+00 a        49     0     3     1     9
 -8.8649428595491582E+00 a        50     0     3     1    10
  1.3239542871420509E+00 a        51     0     3     1    11
  3.6041790236191855E+00 a        52     0     3     1    12
  7.7520761493895449E+00 a        53     0     3     1    13
  4.0573141475122361E+00 a        54     0     3     1    14
  9.2273951394709897E-01 a        55     0     3     1    15
  8.7345392896424789E-02 a        56     0     3     1    16
  1.6392811441222925E+01 a        57     0     3     1    17
 -1.9543783365057141E+00 a        58     0     3     1    18
  9.7456707638132434E-01 a        59     0     3     1    19
  9.5449688092890658E-02 a        60     0     3     1    20
 -7.5563926684342986E-01 a        61     0     4     1     1
 -2.7633356366947236E+01 a        62     0     4     1     2
  1.1282925379356294E+01 a        63     0     4     1     3
  7.7766490029794637E+00 a        64     0     4     1     4
  1.6963411372718333E+01 a        65     0     4     1     5
 -5.9773250249301695E+00 a        66     0     4     1     6
  2.7325219319137890E+00 a        67     0     4     1     7
  2.2403272705077093E+00 a        68     0     4     1     8
 -2.5393901629608950E+00 a        69     0     4     1     9
 -7.7450356971400121E+00 a        70     0     4     1    10
 -1.0153407114235044E+01 a        71     0     4     1    11
  5.4492468964642988E+00 a        72     0     4     1    12
  8.5292869057798431E+00 a        73     0     4     1    13
 -2.3750559889248293E+00 a        74     0     4     1    14
 -5.7424169850873490E+00 a        75     0     4     1    15
  3.6560644042343591E+00 a        76     0     4     1    16
 -9.3145100426008440E+00 a        77     0     4     1    17
  1.8282416097678848E+01 a        78     0     4     1    18
  1.4075042269948094E+01 a        79     0     4     1    19
 -1.5116949603959013E+01 a        80     0     4     1    20
 -9.2391448521260777E+00 a        81     0     5     1     1
 -1.4554101814280919E+01 a        82     0     5     1     2
 -2.2008478053673734E+01 a        83     0     5     1     3
 -1.5234280308779735E+00 a        84     0     5     1     4
 -8.6339260482162068E+00 a        85     0     5     1     5
  1.0511056065338638E+01 a        86     0     5     1     6
  1.1027699828760078E+01 a        87     0     5     1     7
 -1.3284570815946659E+00 a        88     0     5     1     8
 -6.1081276740760266E+00 a        89     0     5     1     9
  8.9890758197571436E+00 a        90     0     5     1    10
 -1.3828483589929039E+01 a        91     0     5     1    11
  5.1696738703038836E+00 a        92     0     5     1    12
 -3.6244421807422206E+01 a        93     0     5     1    13
 -4.0214638649176511E+00 a        94     0     5     1    14
  2.0548145191203737E+01 a        95     0     5     1    15
 -8.9973152730784385E+00 a        96     0     5     1    16
  8.2631219698522198E+00 a        97     0     5     1    17
 -7.4375024639030229E+00 a        98     0     5     1    18
 -1.1613152053249747E+01 a        99     0     5     1    19
  6.1537135765206663E-01 a       100     0     5     1    20
  5.7147124417683894E+00 a       101     0     6     1     1
  1.1064647672026503E+01 a       102     0     6     1     2
  2.6691477776735013E+01 a       103     0     6     1     3
  2.7536218266883807E+01 a       104     0     6     1     4
 -1.1044391965363255E+01 a       105     0     6     1     5
  1.9412220900099533E+00 a       106     0     6     1     6
 -6.0810124935292977E+00 a       107     0     6     1     7
 -1.2268816450925886E+01 a       108     0     6     1     8
  1.2800056001071512E+01 a       109     0     6     1     9
  4.5516086559807709E+00 a       110     0     6     1    10
  2.6876963893853485E+01 a       111     0     6     1    11
 -2.8734908824578862E+00 a       112     0     6     1    12
 -7.3572506569125133E+00 a       113     0     6     1    13
 -1.4740489792652625E+00 a       114     0     6     1    14
 -1.0772388534833192E+01 a       115     0     6     1    15
 -1.8975354132818865E+01 a       116     0     6     1    16
  1.5056046706125729E+01 a       117     0     6     1    17
 -1.1279145201968257E+01 a       118     0     6     1    18
  7.2085479959621583E+00 a       119     0     6     1    19
  1.4002798325410394E+01 a       120     0     6     1    20
  1.9751026367622125E-02 a       121     0     7     1     1
  3.3524712767234734E+00 a       122     0     7     1     2
  4.4388441393745319E+00 a       123     0     7     1     3
  6.2764753688796020E+00 a       124     0     7     1     4
  5.8558936690625938E+00 a       125     0     7     1     5
 -8.2974020632733438E+00 a       126     0     7     1     6
  1.3307244581759498E+01 a       127     0     7     1     7
  7.5321267948934967E+00 a       128     0     7     1     8
  2.1575538938888397E-01 a       129     0     7     1     9
  4.9072105840680154E+00 a       130     0     7     1    10
  1.2629555742180480E+01 a       131     0     7     1    11
  6.7246880965814748E+00 a       132     0     7     1    12
 -1.4399087334109243E+01 a       133     0     7     1    13
  2.2387987190406800E+00 a       134     0     7     1    14
  4.6217599135323051E-01 a       135     0     7     1    15
  7.7504975318761993E+00 a       136     0     7     1    16
  7.0513285640792853E+00 a       137     0     7     1    17
 -1.6290272036922104E+01 a       138     0     7     1    18
 -3.2400951228996409E+00 a       139     0     7     1    19
 -7.5235625648251228E+00 a       140     0     7     1    20
 -7.0325158347604848E+00 a       141     0     8     1     1
  1.1456786210139821E+01 a       142     0     8     1     2
 -4.3462172784235156E+00 a       143     0     8     1     3
  8.0935860416610836E+00 a       144     0     8     1     4
 -7.6132740309973297E+00 a       145     0     8     1     5
  4.8782698591374993E+00 a       146     0     8     1     6
 -2.9784894516455999E+01 a       147     0     8     1     7
 -1.7935250192248233E+01 a       148     0     8     1     8
 -7.9410180472389849E+00 a       149     0     8     1     9
  7.0142474274707478E+00 a       150     0     8     1    10
 -1.3268268963790261E+01 a       151     0     8     1    11
 -1.6497953297126831E+01 a       152     0     8     1    12
 -2.1898456351616202E+00 a       153     0     8     1    13
  9.4064334951054776E-02 a       154     0     8     1    14
  3.6305454215523714E+00 a       155     0     8     1    15
 -1.4771484096387587E+01 a       156     0     8     1    16
 -6.7174874787456309E+00 a       157     0     8     1    17
 -1.4569561379350427E+01 a       158     0     8     1    18
  1.1054790243314280E+01 a       159     0     8     1    19
 -7.7791078100619089E+00 a       160     0     8     1    20
 -3.5379781635461915E+00 a       161     0     9     1     1
  3.0466659422518623E+00 a       162     0     9     1     2
 -1.1388335115904036E+01 a       163     0     9     1     3
 -4.3259908213845319E+00 a       164     0     9     1     4
  1.0331809239793452E+01 a       165     0     9     1     5
  5.9661351466944614E+00 a       166     0     9     1     6
  7.9503726201301408E+00 a       167     0     9     1     7
 -7.4672638761949788E+00 a       168     0     9     1     8
 -1.1642623036137490E+01 a       169     0     9     1     9
  5.1968448363878839E+00 a       170     0     9     1    10
 -4.1511127135390709E+00 a       171     0     9     1    11
 -3.1916133532886386E+00 a       172     0     9     1    12
 -1.3997013289156985E+01 a       173     0     9     1    13
 -5.0549765322012110E+00 a       174     0     9     1    14
  5.9771601847036750E+00 a       175     0     9     1    15
 -7.3043021759796884E+00 a       176     0     9     1    16
 -1.2883958587651485E+01 a       177     0     9     1    17
  2.5182957435016693E+00 a       178     0     9     1    18
 -8.0841056060926757E+00 a       179     0     9     1    19
  1.8956643397235249E+00 a       180     0     9     1    20
 -9.3553823174671680E-01 a       181     0    10     1     1
 -7.2549987661082032E+00 a       182     0    10     1     2
  4.4305163029517036E+00 a       183     0    10     1     3
 -1.4183431048796399E+01 a       184     0    10     1     4
 -1.3399325835194407E+00 a       185     0    10     1     5
  2.1838712542153162E+00 a       186     0    10     1     6
  2.1487115658131827E+01 a       187     0    10     1     7
 -6.7834429864520072E+00 a       188     0    10     1     8
 -9.4478249787103898E+00 a       189     0    10     1     9
 -2.8513951841410634E+00 a       190     0    10     1    10
 -7.2753563121759841E+00 a       191     0    10     1    11
  1.7701408627119999E+01 a       192     0    10     1    12
  4.0070209216922441E+00 a       193     0    10     1    13
  8.0188578492657516E+00 a       194     0    10     1    14
  6.0969011124973367E+00 a       195     0    10     1    15
  1.3305555632913807E+01 a       196     0    10     1    16
  3.5935756847716047E+00 a       197     0    10     1    17
 -6.9650579882375121E+00 a       198     0    10     1    18
 -6.8445938589693469E+00 a       199     0    10     1    19
 -3.4079327917242592E+00 a       200     0    10     1    20
  5.4250906127628955E+00 a       201     0    11     1     1
 -4.6426939735036976E+00 a       202     0    11     1     2
 -3.8140157075337267E-01 a       203     0    11     1     3
 -1.6872035786241222E+00 a       204     0    11     1     4
  3.7020969705436224E+00 a       205     0    11     1     5
 -1.6365455681150403E+00 a       206     0    11     1     6
  8.5308288541592461E+00 a       207     0    11     1     7
  3.3622488492057667E+00 a       208     0    11     1     8
  6.5476709005999190E-01 a       209     0    11     1     9
  2.7176460924609214E+00 a       210     0    11     1    10
  6.9126638367405144E+00 a       211     0    11     1    11
  9.2840995699854396E+00 a       212     0    11     1    12
 -1.0237304170561394E+00 a       213     0    11     1    13
  1.6702676659280573E+00 a       214     0    11     1    14
 -2.3380197770079469E+00 a       215     0    11     1    15
 -1.2018938941532213E+01 a       216     0    11     1    16
  2.8793458031088885E+00 a       217     0    11     1    17
  2.9422481499788122E+00 a       218     0    11     1    18
 -7.8688673820956501E-01 a       219     0    11     1    19
  1.3591617877629054E+00 a       220     0    11     1    20
  1.3304255829285500E+01 a       221     0    12     1     1
  7.3485505003588401E+00 a       222     0    12     1     2
  8.9279179831891380E+00 a       223     0    12     1     3
  3.7969505019594623E+00 a       224     0    12     1     4
  8.7511848075037033E+00 a       225     0    12     1     5
  9.2088196867250494E-01 a       226     0    12     1     6
 -1.7142572547412758E+01 a       227     0    12     1     7
  7.7851168597768599E+00 a       228     0    12     1     8
 -1.3514372573726785E+01 a       229     0    12     1     9
  8.1211406460718241E+00 a       230     0    12     1    10
 -5.4139978686789130E+00 a       231     0    12     1    11
 -1.3729915807117503E+00 a       232     0    12     1    12
  3.9804757247658906E-01 a       233     0    12     1    13
 -1.0078742437198610E+01 a       234     0    12     1    14
  6.0542532247658709E-01 a       235     0    12     1    15
 -4.3617449284856441E+01 a       236     0    12     1    16
  7.9300530099944808E+00 a       237     0    12     1    17
 -9.2404236113844238E+00 a       238     0    12     1    18
  1.7534373577696283E+00 a       239     0    12     1    19
  1.9545622261144118E+01 a       240     0    12     1    20
  8.9860746075126019E-01 a       241     0    13     1     1
  5.7645989089668150E+00 a       242     0    13     1     2
  1.0949675516080679E+00 a       243     0    13     1     3
 -1.0970098413609579E+00 a       244     0    13     1     4
  5.7141159096836187E+00 a       245     0    13     1     5
 -6.7384636193089209E-01 a       246     0    13     1     6
  4.1093512564049406E-01 a       247     0    13     1     7
 -8.5274092168576381E+00 a       248     0    13     1     8
 -2.8765673238190734E+00 a       249     0    13     1     9
 -2.7720971412895823E+00 a       250     0    13     1    10
 -1.0880855934576385E+01 a       251     0    13     1    11
 -7.5945277582775512E+00 a       252     0    13     1    12
 -2.7723886761141130E+00 a       253     0    13     1    13
 -3.5195215738963017E+00 a       254     0    13     1    14
  6.2948926152897566E-01 a       255     0    13     1    15
 -8.0872441384559064E+00 a       256     0    13     1    16
  5.2139124013477316E+00 a       257     0    13     1    17
 -7.0907772252895207E-01 a       258     0    13     1    18
  4.2818676767564492E+00 a       259     0    13     1    19
  6.5649641766964244E+00 a       260     0    13     1    20
  1.3435139804290206E+00 a       261     0    14     1     1
  6.1116605442820635E+00 a       262     0    14     1     2
  4.5386626124412617E+00 a       263     0    14     1     3
 -2.2822714610396990E+00 a       264     0    14     1     4
  2.7642251231692798E+00 a       265     0    14     1     5
 -3.3717278925609611E+00 a       266     0    14     1     6
  2.7182911857788149E+01 a       267     0    14     1     7
 -3.3784249978746339E+00 a       268     0    14     1     8
  3.4206281564244261E+00 a       269     0    14     1     9
  3.2864689894501615E+00 a       270     0    14     1    10
  1.9075874078289223E+00 a       271     0    14     1    11
  6.6081727319098835E+00 a       272     0    14     1    12
 -4.9534896106603394E+00 a       273     0    14     1    13
  1.5850363399169440E+00 a       274     0    14     1    14
  4.4530767553457409E+00 a       275     0    14     1    15
  1.6391477543844750E+00 a       276     0    14     1    16
 -8.3210534659114135E+00 a       277     0    14     1    17
  4.5136314556846396E-01 a       278     0    14     1    18
  1.6297497990244331E+01 a       279     0    14     1    19
  6.7570058260959307E+00 a       280     0    14     1    20
  2.6778856344320756E+00 a       281     0    15     1     1
  3.1014126378028708E+00 a       282     0    15     1     2
  9.6993618606399163E+00 a       283     0    15     1     3
 -5.7552950592311864E+00 a       284     0    15     1     4
  4.5687972143706741E+00 a       285     0    15     1     5
 -3.8081837629953508E-01 a       286     0    15     1     6
  1.3049203596042423E+01 a       287     0    15     1     7
 -6.3747833941315948E+00 a       288     0    15     1     8
 -7.2357125715531989E+00 a       289     0    15     1     9
  2.8640922079060611E+00 a       290     0    15     1    10
 -2.3052846043156175E-01 a       291     0    15     1    11
  8.7639957051177966E+00 a       292     0    15     1    12
 -4.4716651031816150E+00 a       293     0    15     1    13
 -4.1575542510759372E-01 a       294     0    15     1    14
  3.9119853525331640E+00 a       295     0    15     1    15
 -2.3571874597884229E+01 a       296     0    15     1    16
 -4.1228929384499278E+00 a       297     0    15     1    17
 -2.3821956932160062E+00 a       298     0    15     1    18
 -1.3591663808765910E+00 a       299     0    15     1    19
  9.5262789140419972E+00 a       300     0    15     1    20
  2.2127764493361311E-02 a       301     0    16     1     1
 -2.6488120044108343E+00 a       302     0    16     1     2
 -4.4385970295487098E+00 a       303     0    16     1     3
  3.5128137912386528E+00 a       304     0    16     1     4
  3.1279174977193447E-01 a       305     0    16     1     5
  4.1164937691467927E+00 a       306     0    16     1     6
 -2.2963606940110520E+01 a       307     0    16     1     7
  5.5042740824626621E+00 a       308     0    16     1     8
 -4.2206959482373199E+00 a       309     0    16     1     9
 -1.5527747446621689E+00 a       310     0    16     1    10
 -3.3668546584835073E+00 a       311     0    16     1    11
 -8.9729962438864810E+00 a       312     0    16     1    12
  5.4772543130933604E-01 a       313     0    16     1    13
 -4.4419637434533863E+00 a       314     0    16     1    14
  2.2175212132683297E-01 a       315     0    16     1    15
 -8.1276186963427666E+00 a       316     0    16     1    16
  2.1990096101880146E+00 a       317     0    16     1    17
 -4.9137363848578683E+00 a       318     0    16     1    18
 -7.4988984833178156E+00 a       319     0    16     1    19
 -7.3644090181852762E-01 a       320     0    16     1    20
 -1.0125869685469068E+01 a       321     0    17     1     1
 -2.3383858639567283E+01 a       322     0    17     1     2
  9.9188007769947184E+00 a       323     0    17     1     3
  1.3386218998395174E+01 a       324     0    17     1     4
  2.8937142474323572E+01 a       325     0    17     1     5
 -1.7138446244806747E+01 a       326     0    17     1     6
 -8.4168650236570404E+00 a       327     0    17     1     7
 -1.4444652076638203E+01 a       328     0    17     1     8
  1.1887414628691136E+01 a       329     0    17     1     9
  1.1321601378807214E+01 a       330     0    17     1    10
  1.7759149949066984E+01 a       331     0    17     1    11
 -2.7329685623937269E+01 a       332     0    17     1    12
  8.8662522521061700E+00 a       333     0    17     1    13
 -3.7155236184718339E+00 a       334     0    17     1    14
  6.8029839835428350E+00 a       335     0    17     1    15
 -1.5354068172816335E+01 a       336     0    17     1    16
 -3.2887230485316556E+00 a       337     0    17     1    17
  4.0534415804742224E+01 a       338     0    17     1    18
 -1.1219465729604080E+01 a       339     0    17     1    19
 -1.2184010735952491E+01 a       340     0    17     1    20
 -3.3989374006537720E+00 a       341     0    18     1     1
  3.6209483419109148E+01 a       342     0    18     1     2
  1.8851589891601609E+01 a       343     0    18     1     3
 -2.0406849285302844E+01 a       344     0    18     1     4
 -2.3901118464916131E+01 a       345     0    18     1     5
  5.0876680717215535E+01 a       346     0    18     1     6
  4.8814208700237307E+00 a       347     0    18     1     7
 -4.9297720110763281E+00 a       348     0    18     1     8
  1.0651439208735479E+01 a       349     0    18     1     9
 -2.0417949822403525E+00 a       350     0    18     1    10
 -4.1877630552058754E+01 a       351     0    18     1    11
 -3.5687598781302938E+01 a       352     0    18     1    12
  3.9514113574979675E+01 a       353     0    18     1    13
 -8.9523156633565026E+00 a       354     0    18     1    14
  9.3632848629169647E+00 a       355     0    18     1    15
  1.6658306249753490E+01 a       356     0    18     1    16
  3.0095801173487690E+01 a       357     0    18     1    17
 -2.4766271030547845E+01 a       358     0    18     1    18
 -1.2281061305727285E+01 a       359     0    18     1    19
  1.5793501632793472E+01 a       360     0    18     1    20
 -1.5664459482798144E+01 a       361     0    19     1     1
 -7.1464455056683596E+00 a       362     0    19     1     2
 -8.6293959664199544E+00 a       363     0    19     1     3
 -1.0506866273430786E+01 a       364     0    19     1     4
  8.7290847386963470E+00 a       365     0    19     1     5
 -1.5826305071462036E+01 a       366     0    19     1     6
  1.3140046192626903E+01 a       367     0    19     1     7
  1.7325629124826936E+01 a       368     0    19     1     8
  1.0072436465963072E+01 a       369     0    19     1     9
 -7.2409112591953342E+00 a       370     0    19     1    10
 -3.8409377378327541E+01 a       371     0    19     1    11
 -9.5151648561107347E+00 a       372     0    19     1    12
  8.6634474402052675E+00 a       373     0    19     1    13
  1.3921301061781278E+01 a       374     0    19     1    14
 -2.1846692391196703E+00 a       375     0    19     1    15
 -5.5127558538201082E+00 a       376     0    19     1    16
  3.0760553704764227E+01 a       377     0    19     1    17
 -7.4262062984655639E+00 a       378     0    19     1    18
 -3.1582854252136844E+01 a       379     0    19     1    19
 -1.3300466596332985E+00 a       380     0    19     1    20
  7.5594886460692337E+00 a       381     0    20     1     1
  3.0797828595476936E+01 a       382     0    20     1     2
 -2.1328503408450317E+01 a       383     0    20     1     3
  1.5916283335097621E+00 a       384     0    20     1     4
 -4.5292125705613595E-01 a       385     0    20     1     5
 -9.7517341583229875E+00 a       386     0    20     1     6
  4.4328682539301639E+01 a       387     0    20     1     7
  1.0880247867539415E+01 a       388     0    20     1     8
  2.6029399032437226E+00 a       389     0    20     1     9
 -1.1504031154471097E+01 a       390     0    20     1    10
  1.6289283501634543E+01 a       391     0    20     1    11
  5.0959793939885778E+01 a       392     0    20     1    12
 -7.5246645374127463E-01 a       393     0    20     1    13
  1.6811838734337059E+01 a       394     0    20     1    14
  1.4830255454484476E+00 a       395     0    20     1    15
  8.3168004690443027E+00 a       396     0    20     1    16
 -9.3259119524319960E+00 a       397     0    20     1    17
 -7.9342563627202560E+00 a       398     0    20     1    18
 -7.5421114910977645E+00 a       399     0    20     1    19
  1.6553364317092514E+00 a       400     0    20     1    20
  1.2916589375486318E+01 a       401     0    21     1     1
 -6.9138753079621708E+01 a       402     0    21     1     2
  4.0336450594951557E+01 a       403     0    21     1     3
  2.3387488978728772E+01 a       404     0    21     1     4
  1.5745832950856931E+01 a       405     0    21     1     5
 -4.9054688917659561E+01 a       406     0    21     1     6
 -1.6310023231987593E+01 a       407     0    21     1     7
  6.5543309257160622E+00 a       408     0    21     1     8
 -1.8048499303738748E+01 a       409     0    21     1     9
  2.1264183246778504E+01 a       410     0    21     1    10
  5.0168615837862269E+01 a       411     0    21     1    11
  3.3823112932823846E-01 a       412     0    21     1    12
 -2.1786539480264807E+01 a       413     0    21     1    13
 -1.3358514423732343E+01 a       414     0    21     1    14
 -8.9795643565756056E-01 a       415     0    21     1    15
  1.4553503620482189E+00 a       416     0    21     1    16
 -3.5633049531890741E+01 a       417     0    21     1    17
  2.6504233668445827E+00 a       418     0    21     1    18
  3.5838591703833892E+01 a       419     0    21     1    19
 -9.3857528956179070E-01 a       420     0    21     1    20
  1.8019293940794455E+01 a       421     0    22     1     1
  6.7028348409420895E+00 a       422     0    22     1     2
 -1.3844447924635368E+01 a       423     0    22     1     3
  1.8142172574442772E+00 a       424     0    22     1     4
 -2.9075852719970857E+01 a       425     0    22     1     5
 -1.4524079278881807E+01 a       426     0    22     1     6
  9.0115938471550319E+00 a       427     0    22     1     7
 -3.5584760206735304E+01 a       428     0    22     1     8
 -3.1304539910857592E+01 a       429     0    22     1     9
  1.0953403180292065E+01 a       430     0    22     1    10
  4.5029650923190395E+01 a       431     0    22     1    11
  3.0629605451918334E+01 a       432     0    22     1    12
 -1.3918389653261709E+01 a       433     0    22     1    13
 -1.5615609308340611E+01 a       434     0    22     1    14
  1.7306199117077746E+01 a       435     0    22     1    15
 -2.4802147756512383E+01 a       436     0    22     1    16
  3.8018044681950297E-01 a       437     0    22     1    17
  4.9612446153379581E+00 a       438     0    22     1    18
 -1.8188921429941918E+00 a       439     0    22     1    19
 -1.0713454181166821E+01 a       440     0    22     1    20
 -2.0020197045800314E+00 a       441     0    23     1     1
  1.2625004459667577E+00 a       442     0    23     1     2
 -5.4812420717351573E+00 a       443     0    23     1     3
 -7.3934419730845207E+00 a       444     0    23     1     4
  9.9804699081467674E-01 a       445     0    23     1     5
  7.0485806514425953E+00 a       446     0    23     1     6
  5.7899682929667868E+00 a       447     0    23     1     7
  1.4990980562830870E+01 a       448     0    23     1     8
  6.3243056711734287E+00 a       449     0    23     1     9
  2.7268966323652766E-01 a       450     0    23     1    10
 -2.9554305684044504E+00 a       451     0    23     1    11
  7.0549851899859402E+00 a       452     0    23     1    12
  3.9079170340131952E+00 a       453     0    23     1    13
 -4.2720810292872304E+00 a       454     0    23     1    14
 -1.2671547659345396E+01 a       455     0    23     1    15
 -5.5799785695623880E+00 a       456     0    23     1    16
 -5.7028056398296085E+00 a       457     0    23     1    17
 -7.2027644792549399E+00 a       458     0    23     1    18
 -9.2606808227210760E+00 a       459     0    23     1    19
 -3.7602630126352690E+00 a       460     0    23     1    20
  2.9563709350305181E+00 a       461     0    24     1     1
  3.4902111954205775E+00 a       462     0    24     1     2
 -6.3385163928755475E+00 a       463     0    24     1     3
  4.1115226528049913E+00 a       464     0    24     1     4
  2.8326498290892513E+01 a       465     0    24     1     5
 -9.5937080371503285E+00 a       466     0    24     1     6
  1.5504782114895665E+01 a       467     0    24     1     7
  7.0366571536236977E+00 a       468     0    24     1     8
 -2.0297621033045079E+01 a       469     0    24     1     9
 -1.2408836697792409E-01 a       470     0    24     1    10
 -6.1490453846696336E-01 a       471     0    24     1    11
  2.2225905438234510E+00 a       472     0    24     1    12
  7.4547260531831627E-01 a       473     0    24     1    13
  9.7016882550323658E+00 a       474     0    24     1    14
 -9.6949052308669188E+00 a       475     0    24     1    15
 -5.2331579100661800E+00 a       476     0    24     1    16
 -1.2338415255443454E+01 a       477     0    24     1    17
 -2.8978734351677047E+00 a       478     0    24     1    18
 -1.1945615157367804E+01 a       479     0    24     1    19
  2.9283265477846170E+00 a       480     0    24     1    20
 -2.4135272590751926E+00 a       481     0    25     1     1
 -1.0521357717856290E+01 a       482     0    25     1     2
 -1.0454209091085888E+01 a       483     0    25     1     3
 -8.6981537737306347E+00 a       484     0    25     1     4
 -1.7776642832864667E+01 a       485     0    25     1     5
  1.7753937066036425E+01 a       486     0    25     1     6
 -1.3654056829317900E+01 a       487     0    25     1     7
  5.9680200502473610E+00 a       488     0    25     1     8
 -3.1626274470256482E-01 a       489     0    25     1     9
  6.4732013029748057E+00 a       490     0    25     1    10
  2.8964918348684403E+01 a       491     0    25     1    11
  3.2959265498694728E+00 a       492     0    25     1    12
 -8.3202451513109052E-02 a       493     0    25     1    13
 -1.2721163173716997E+01 a       494     0    25     1    14
  3.1868183343545585E+01 a       495     0    25     1    15
  1.2091689360754401E+00 a       496     0    25     1    16
  2.4481205232135095E-01 a       497     0    25     1    17
 -7.6027797505053876E+00 a       498     0    25     1    18
  1.0468726334005176E+01 a       499     0    25     1    19
 -1.0065787051016473E+01 a       500     0    25     1    20
 -4.0051042193209330E-01 a       501     0    26     1     1
 -2.3922571866916684E+01 a       502     0    26     1     2
  6.7740192192757345E+00 a       503     0    26     1     3
 -1.4258644787018163E+01 a       504     0    26     1     4
 -1.2335902205822228E+01 a       505     0    26     1     5
  1.6123312902394261E+01 a       506     0    26     1     6
 -1.8846610331743353E+01 a       507     0    26     1     7
  3.3877548263523756E+00 a       508     0    26     1     8
  5.5989317918436683E+00 a       509     0    26     1     9
  7.2532235334758510E-01 a       510     0    26     1    10
 -6.0743994003687423E+00 a       511     0    26     1    11
 -2.0003983039388864E+01 a       512     0    26     1    12
 -1.9028829429413416E+00 a       513     0    26     1    13
 -2.6161219956363331E+00 a       514     0    26     1    14
  1.2196274337871300E+00 a       515     0    26     1    15
 -2.2131470998078598E+01 a       516     0    26     1    16
  9.7432713449606485E+00 a       517     0    26     1    17
  2.0726011969598748E+00 a       518     0    26     1    18
 -1.3032869869754583E+01 a       519     0    26     1    19
 -1.0019653207546483E+01 a       520     0    26     1    20
 -3.3413427626193064E+00 a       521     0    27     1     1
  3.4249217013485023E+01 a       522     0    27     1     2
 -2.9675916454099969E+01 a       523     0    27     1     3
  1.4505611518726433E+01 a       524     0    27     1     4
 -3.7535064044359476E+00 a       525     0    27     1     5
  2.5614533971322302E+01 a       526     0    27     1     6
 -4.3112058242486377E+01 a       527     0    27     1     7
 -1.5262191781969433E+01 a       528     0    27     1     8
  5.2598655182173770E+00 a       529     0    27     1     9
 -4.2927119904101536E+00 a       530     0    27     1    10
 -7.9741419227417989E+00 a       531     0    27     1    11
 -1.8552298187150953E+01 a       532     0    27     1    12
 -8.5770489135065198E+00 a       533     0    27     1    13
  7.4447506104982866E+00 a       534     0    27     1    14
 -3.3331924368871038E+00 a       535     0    27     1    15
 -7.0232151901184370E+00 a       536     0    27     1    16
  2.7413822223621764E+01 a       537     0    27     1    17
 -9.9080836554607932E-01 a       538     0    27     1    18
  3.2799499380990853E+00 a       539     0    27     1    19
  6.3107800907924281E+00 a       540     0    27     1    20
 -1.4242063416955860E+01 a       541     0    28     1     1
 -1.8382320925458879E+00 a       542     0    28     1     2
  5.3260606851838697E+00 a       543     0    28     1     3
  7.1729516467631296E+00 a       544     0    28     1     4
  1.3868059752686586E+00 a       545     0    28     1     5
  1.6763546454993424E+01 a       546     0    28     1     6
 -1.0689675722553213E+01 a       547     0    28     1     7
  1.7037137961439974E+01 a       548     0    28     1     8
  2.8789755361421506E+01 a       549     0    28     1     9
 -1.2638008024192426E-01 a       550     0    28     1    10
 -2.2510950841362234E+01 a       551     0    28     1    11
 -6.8761039733939073E+00 a       552     0    28     1    12
  1.0635166145812265E+01 a       553     0    28     1    13
 -7.9448131986681663E+00 a       554     0    28     1    14
 -1.4095445205432483E+01 a       555     0    28     1    15
  2.6260609056976566E+01 a       556     0    28     1    16
 -1.6492297756539880E+01 a       557     0    28     1    17
 -5.1600999614833709E+00 a       558     0    28     1    18
  2.2756363277742803E+01 a       559     0    28     1    19
  9.3245001434075458E+00 a       560     0    28     1    20
 -5.1215338839450917E+00 a       561     0    29     1     1
 -1.1568138439969783E+01 a       562     0    29     1     2
  4.5363979197357960E+00 a       563     0    29     1     3
 -1.4404085438201838E+01 a       564     0    29     1     4
 -4.0982814704297020E+01 a       565     0    29     1     5
  1.2355931077347698E+01 a       566     0    29     1     6
 -4.0636429659664756E+01 a       567     0    29     1     7
  2.7854236257714478E+00 a       568     0    29     1     8
 -4.4958700082973362E+00 a       569     0    29     1     9
 -1.9126546365094130E-02 a       570     0    29     1    10
 -1.5138525704751547E+01 a       571     0    29     1    11
 -3.0567521198479684E+00 a       572     0    29     1    12
  3.2942266570972016E+01 a       573     0    29     1    13
 -4.4677322556893326E+00 a       574     0    29     1    14
 -2.1551100095696317E+01 a       575     0    29     1    15
 -5.6628033182379012E+00 a       576     0    29     1    16
  1.2593270125263665E+00 a       577     0    29     1    17
 -2.2598464571991837E+01 a       578     0    29     1    18
  2.0947314158351251E+01 a       579     0    29     1    19
 -5.6997421508447266E+00 a       580     0    29     1    20
 -3.9356362928275797E+00 a       581     0    30     1     1
 -1.1478835079625582E+00 a       582     0    30     1     2
 -1.4361041831129368E+01 a       583     0    30     1     3
 -3.9660748044131777E+00 a       584     0    30     1     4
  3.0027486277239808E+00 a       585     0    30     1     5
 -9.7186774160106726E+00 a       586     0    30     1     6
  3.7553411943671492E+01 a       587     0    30     1     7
  1.7484862014110689E+01 a       588     0    30     1     8
  8.4892054175905649E+00 a       589     0    30     1     9
 -2.8519378251308858E+01 a       590     0    30     1    10
 -8.2935261054421670E+00 a       591     0    30     1    11
  1.2098781899441732E+01 a       592     0    30     1    12
 -2.0536619805308348E+01 a       593     0    30     1    13
 -4.5871588760858426E+00 a       594     0    30     1    14
 -7.9975405717109620E+00 a       595     0    30     1    15
 -2.5490238810863880E-01 a       596     0    30     1    16
 -2.7525201642985770E+01 a       597     0    30     1    17
  3.3078971857087666E+01 a       598     0    30     1    18
 -9.6682314835305192E+00 a       599     0    30     1    19
 -1.2620909639564998E+01 a       600     0    30     1    20
  2.8338924159211068E+01 a       601     0    31     1     1
 -6.3761552967318014E-01 a       602     0    31     1     2
  3.8102177449323521E-01 a       603     0    31     1     3
  9.7380822760679262E+00 a       604     0    31     1     4
  1.2793218461690991E+01 a       605     0    31     1     5
  3.8666052279305965E+00 a       606     0    31     1     6
  2.2723030568743294E+01 a       607     0    31     1     7
  2.3043829178208277E+01 a       608     0    31     1     8
 -2.5090584645366505E+00 a       609     0    31     1     9
  1.8019045908208049E+01 a       610     0    31     1    10
  3.9352235639641975E+01 a       611     0    31     1    11
  2.5351654437263768E+01 a       612     0    31     1    12
 -2.3171510731175854E+01 a       613     0    31     1    13
  1.4620114654028821E+01 a       614     0    31     1    14
  7.8722091714881168E+00 a       615     0    31     1    15
  3.9838823627950198E+01 a       616     0    31     1    16
  9.8089411891061680E+00 a       617     0    31     1    17
 -1.3803557108861375E+01 a       618     0    31     1    18
  2.3042138232758166E+01 a       619     0    31     1    19
 -6.7628451304984178E+00 a       620     0    31     1    20
  2.2157085816123523E+01 a       621     0    32     1     1
 -8.4989825814116617E+00 a       622     0    32     1     2
  5.8117001345181016E+00 a       623     0    32     1     3
  1.8751247536089593E+01 a       624     0    32     1     4
  1.7965342842239941E+01 a       625     0    32     1     5
 -1.9400525698946758E+01 a       626     0    32     1     6
  1.8261104357919947E+01 a       627     0    32     1     7
 -2.3317942231264503E+01 a       628     0    32     1     8
  4.4698713647050509E-01 a       629     0    32     1     9
  1.4629895256185325E+01 a       630     0    32     1    10
  2.8811097490438144E+01 a       631     0    32     1    11
 -1.1727200463035883E+01 a       632     0    32     1    12
 -2.4963079221405785E+01 a       633     0    32     1    13
 -3.3786044008398690E+00 a       634     0    32     1    14
  2.3656898225457348E+00 a       635     0    32     1    15
  1.6019961904804656E+01 a       636     0    32     1    16
 -2.0319985304772468E+00 a       637     0    32     1    17
  1.1516730331809510E+01 a       638     0    32     1    18
  6.9555008680001933E+00 a       639     0    32     1    19
  9.6854583758878583E+00 a       640     0    32     1    20
  1.2976659356664109E+00 a       641     0    33     1     1
 -2.1807056654922818E+00 a       642     0    33     1     2
 -8.4254062455495706E+00 a       643     0    33     1     3
 -5.1678891277075119E+00 a       644     0    33     1     4
 -2.1165172307985742E+01 a       645     0    33     1     5
  1.2509832277581891E+01 a       646     0    33     1     6
 -1.5885205093750393E+01 a       647     0    33     1     7
  1.2900476205943747E+01 a       648     0    33     1     8
 -1.0095871130025195E+01 a       649     0    33     1     9
  9.2742255968982654E+00 a       650     0    33     1    10
 -3.7450729275790526E+00 a       651     0    33     1    11
 -3.1226290692040961E+00 a       652     0    33     1    12
  1.3030206347601402E+01 a       653     0    33     1    13
 -4.4272203546711006E+00 a       654     0    33     1    14
  1.0591651771372359E+01 a       655     0    33     1    15
  5.0913503044634263E+00 a       656     0    33     1    16
  1.0123809076725369E+01 a       657     0    33     1    17
  1.0130202735335467E+00 a       658     0    33     1    18
  9.7232289066381927E+00 a       659     0    33     1    19
  1.6352883543285007E+01 a       660     0    33     1    20
 -7.7518807934414626E+00 a       661     0    34     1     1
  1.0559786473261658E+01 a       662     0    34     1     2
 -1.4608975659910524E+01 a       663     0    34     1     3
 -1.2800059481356271E+01 a       664     0    34     1     4
  3.9953482243760810E+01 a       665     0    34     1     5
 -3.4561203352202057E+00 a       666     0    34     1     6
 -1.5067433217644950E+01 a       667     0    34     1     7
 -3.3397800670809048E+01 a       668     0    34     1     8
  4.4743449422960628E+00 a       669     0    34     1     9
 -1.4758121777419596E+01 a       670     0    34     1    10
 -2.8671352747474383E+01 a       671     0    34     1    11
 -2.4875494511804771E+01 a       672     0    34     1    12
  2.3282411930082812E+01 a       673     0    34     1    13
 -1.2781287982343208E+01 a       674     0    34     1    14
  8.1636253642540488E+00 a       675     0    34     1    15
 -2.9332204031320945E+01 a       676     0    34     1    16
 -2.0609876105687221E+01 a       677     0    34     1    17
  4.6267156031963125E+01 a       678     0    34     1    18
 -6.2935085183528736E+00 a       679     0    34     1    19
  1.1591246977256422E+01 a       680     0    34     1    20
  1.0205434423973418E+00 a       681     0    35     1     1
  1.1854867747570911E+01 a       682     0    35     1     2
  3.3251304915435571E+00 a       683     0    35     1     3
  3.3026115506304312E+00 a       684     0    35     1     4
 -3.4996944329581483E+00 a       685     0    35     1     5
 -4.5550389753589755E+00 a       686     0    35     1     6
  1.6149036862017292E+00 a       687     0    35     1     7
 -1.6437409815037316E+01 a       688     0    35     1     8
 -5.1221406820385029E+00 a       689     0    35     1     9
 -1.4784024071329498E+00 a       690     0    35     1    10
  4.0180455612314114E+00 a       691     0    35     1    11
  1.7257227079695232E+00 a       692     0    35     1    12
  6.1538334382118851E+00 a       693     0    35     1    13
  7.4441397714333668E+00 a       694     0    35     1    14
  6.7395206246130845E+00 a       695     0    35     1    15
  3.4278093120877782E+00 a       696     0    35     1    16
  1.7248887440430150E+00 a       697     0    35     1    17
  6.5164244284854336E+00 a       698     0    35     1    18
  2.1628068371846760E+00 a       699     0    35     1    19
  6.7892119457739453E+00 a       700     0    35     1    20
  1.4168854023653479E+01 a       701     0    36     1     1
 -6.1500990890113352E+00 a       702     0    36     1     2
  1.6187991627273164E+00 a       703     0    36     1     3
  7.3981297610548435E-01 a       704     0    36     1     4
 -1.4389690473211280E+01 a       705     0    36     1     5
  7.1517668385633195E+00 a       706     0    36     1     6
 -1.6608156673898890E+01 a       707     0    36     1     7
 -2.5478413440545964E+00 a       708     0    36     1     8
  1.1990699058531344E+01 a       709     0    36     1     9
 -3.9452090152334929E+00 a       710     0    36     1    10
  7.0190169078049545E+00 a       711     0    36     1    11
  1.1417269240133046E+00 a       712     0    36     1    12
  1.0511117152739818E+01 a       713     0    36     1    13
 -1.9760341368833698E+00 a       714     0    36     1    14
  9.0007062635014528E+00 a       715     0    36     1    15
  5.8074546743051716E+00 a       716     0    36     1    16
  9.0729578403195479E+00 a       717     0    36     1    17
  1.6202650880643436E+01 a       718     0    36     1    18
  1.5080722261135328E+01 a       719     0    36     1    19
  6.0575690339339525E+00 a       720     0    36     1    20
 -1.6797531972626988E+01 a       721     0    37     1     1
  1.0373876741170816E+01 a       722     0    37     1     2
  1.0569526127494660E+01 a       723     0    37     1     3
  3.9271109150490418E+00 a       724     0    37     1     4
  1.1544154776897377E+00 a       725     0    37     1     5
 -1.4344525252717641E+01 a       726     0    37     1     6
  1.3580638980198499E+01 a       727     0    37     1     7
 -1.4061325506317566E+01 a       728     0    37     1     8
  1.3439765753693841E+01 a       729     0    37     1     9
 -1.5168614777344569E+01 a       730     0    37     1    10
 -7.3117743885782698E+00 a       731     0    37     1    11
 -1.2108639167245286E+01 a       732     0    37     1    12
  1.9904786239044436E+00 a       733     0    37     1    13
 -2.6536101138638477E+00 a       734     0    37     1    14
 -3.2233867901258691E+01 a       735     0    37     1    15
 -9.7830354110410838E+00 a       736     0    37     1    16
 -1.8418889595676031E+01 a       737     0    37     1    17
  2.8144973692396267E+01 a       738     0    37     1    18
 -3.1704405114644456E+00 a       739     0    37     1    19
  6.5063545289647635E+00 a       740     0    37     1    20
 -2.3779897938423584E+01 a       741     0    38     1     1
 -1.3625185384978844E+00 a       742     0    38     1     2
 -6.4461870934895380E+00 a       743     0    38     1     3
 -1.5774033429107621E+00 a       744     0    38     1     4
  9.2441129413929648E+00 a       745     0    38     1     5
  3.1779382724632095E+00 a       746     0    38     1     6
 -5.0855499993120148E+00 a       747     0    38     1     7
  5.3895276528276090E+00 a       748     0    38     1     8
  1.1371468968586479E+01 a       749     0    38     1     9
 -1.7246354022292856E+01 a       750     0    38     1    10
 -1.1728477979180667E+01 a       751     0    38     1    11
  1.6098451443777400E+01 a       752     0    38     1    12
  1.7250641762465605E+01 a       753     0    38     1    13
  1.4972815032710425E+00 a       754     0    38     1    14
 -7.4728416095741315E+00 a       755     0    38     1    15
 -9.8634554199207773E+00 a       756     0    38     1    16
 -1.9348586593075304E+01 a       757     0    38     1    17
 -8.3952239329393255E+00 a       758     0    38     1    18
  7.6336476083087792E+00 a       759     0    38     1    19
  1.1540415808490991E+00 a       760     0    38     1    20
  1.4198597303906961E+01 a       761     0    39     1     1
  1.7110783723610510E+01 a       762     0    39     1     2
  1.2234063659400224E+01 a       763     0    39     1     3
 -1.7388874582374001E+01 a       764     0    39     1     4
  1.4462079666608904E+01 a       765     0    39     1     5
 -7.8448849771635274E+00 a       766     0    39     1     6
  1.0791656522600135E+01 a       767     0    39     1     7
 -1.0114652579987622E+01 a       768     0    39     1     8
 -7.3217933806307434E+00 a       769     0    39     1     9
  1.2859111609557314E-01 a       770     0    39     1    10
 -1.8666066362352595E+01 a       771     0    39     1    11
 -1.0545101706960549E+00 a       772     0    39     1    12
  3.6532520410191363E+00 a       773     0    39     1    13
  2.2768254109523184E+01 a       774     0    39     1    14
 -1.4758277599046332E+01 a       775     0    39     1    15
  2.2426822079418056E+01 a       776     0    39     1    16
 -9.2732447021237807E-01 a       777     0    39     1    17
 -2.5653572578190822E+01 a       778     0    39     1    18
  9.4381441894598483E-01 a       779     0    39     1    19
  2.3750653281464901E-01 a       780     0    39     1    20
 -1.1848182312421621E+01 a       781     0    40     1     1
 -9.8719963381695077E+00 a       782     0    40     1     2
 -5.7045250584146352E+00 a       783     0    40     1     3
  1.0969292934147050E+00 a       784     0    40     1     4
 -3.7468503012109352E+01 a       785     0    40     1     5
 -3.9424557955557509E+00 a       786     0    40     1     6
  1.1194136820701559E+01 a       787     0    40     1     7
  3.6850118452265107E+01 a       788     0    40     1     8
 -1.3607239840007310E+01 a       789     0    40     1     9
  8.5016119538617279E+00 a       790     0    40     1    10
  5.2235329112654707E+00 a       791     0    40     1    11
  2.1809483123247738E+01 a       792     0    40     1    12
 -1.5402174612624746E+01 a       793     0    40     1    13
  6.8061668731072906E+00 a       794     0    40     1    14
 -4.7981571047128524E+00 a       795     0    40     1    15
  5.3866129333143116E+00 a       796     0    40     1    16
  1.1263731383695939E+00 a       797     0    40     1    17
 -3.0958635744903084E+01 a       798     0    40     1    18
 -3.0340557050243639E+01 a       799     0    40     1    19
 -5.9219805479041856E+00 a       800     0    40     1    20
 -4.4257217903632540E-01 b       801     1     1
 -3.3704533719397229E+00 b       802     1     2
  1.4101566326490726E+00 b       803     1     3
 -3.1435862233143008E+00 b       804     1     4
  2.4282753377479986E+00 b       805     1     5
 -5.7693770581391346E-01 b       806     1     6
 -3.1115179797031884E+00 b       807     1     7
  4.1628074322491848E+00 b       808     1     8
  8.0070296855992584E-01 b       809     1     9
 -1.3227576721118428E-01 b       810     1    10
  2.1983439812972092E+00 b       811     1    11
  2.4260299365997602E+00 b       812     1    12
  2.1294819597003012E-01 b       813     1    13
 -1.8616266948666318E+00 b       814     1    14
 -2.6085054015934511E-01 b       815     1    15
 -2.3262177275958154E+00 b       816     1    16
 -4.9547829322676398E+00 b       817     1    17
  2.2869349597003077E+00 b       818     1    18
  9.5466128106897497E-01 b       819     1    19
  1.4284018386020028E+00 b       820     1    20
  6.5457865475692918E+00 a       821     1     1     2     1
 -1.7051120879434305E+00 a       822     1     1     2     2
 -1.1289047523063839E+01 a       823     1     1     2     3
 -6.2140336863849956E+00 a       824     1     1     2     4
  6.1984714194041368E+00 a       825     1     1     2     5
 -1.4859717232873932E+00 a       826     1     1     2     6
  5.1532618676400670E+00 a       827     1     1     2     7
 -6.5516411632393634E+00 a       828     1     1     2     8
 -2.6008602351385797E+00 a       829     1     1     2     9
 -1.0238941680171556E+00 a       830     1     1     2    10
 -1.4661816266984180E+00 a       831     1     1     2    11
  5.5611023847528951E-01 a       832     1     1     2    12
 -9.2127249033516090E-01 a       833     1     1     2    13
 -5.3827133686395685E+00 a       834     1     1     2    14
 -3.3587545995542714E+00 a       835     1     1     2    15
 -4.7929797753843744E+00 a       836     1     1     2    16
  1.2700249350256179E-01 a       837     1     1     2    17
 -7.6422753290387684E+00 a       838     1     1     2    18
  1.3263760836613769E+00 a       839     1     1     2    19
  6.1235089993242813E+00 a       840     1     1     2    20
  2.4518429153605886E-01 a       841     1     2     2     1
 -6.6830774829108486E-01 a       842     1     2     2     2
 -9.3095086459337661E+00 a       843     1     2     2     3
 -1.9714939817262704E+00 a       844     1     2     2     4
  8.5343846968421300E+00 a       845     1     2     2     5
  7.0248594339046677E-01 a       846     1     2     2     6
  5.9498278996877101E+00 a       847     1     2     2     7
 -8.5627146085965880E+00 a       848     1     2     2     8
  1.2780966556068993E+00 a       849     1     2     2     9
  3.5396011022211669E+00 a       850     1     2     2    10
  5.7850951520135654E+00 a       851     1     2     2    11
  4.5733612073297838E+00 a       852     1     2     2    12
  1.6686967606045873E+00 a       853     1     2     2    13
  1.4483651454045341E+00 a       854     1     2     2    14
 -1.5682005771631506E+00 a       855     1     2     2    15
  5.3512521267415059E+00 a       856     1     2     2    16
 -8.8151429980496836E+00 a       857     1     2     2    17
 -3.4057847139510224E+00 a       858     1     2     2    18
 -1.7774510759536710E+00 a       859     1     2     2    19
  6.2728640027511684E+00 a       860     1     2     2    20
  2.2176060590304032E+00 a       861     1     3     2     1
  6.9578443318935301E-01 a       862     1     3     2     2
 -4.5301251351529809E-01 a       863     1     3     2     3
  2.3233204267409777E-01 a       864     1     3     2     4
  5.1374018609112397E+00 a       865     1     3     2     5
  1.1835969252225991E+00 a       866     1     3     2     6
 -1.2351717405244438E+00 a       867     1     3     2     7
  5.8034531113687027E-01 a       868     1     3     2     8
  4.5353155140184178E+00 a       869     1     3     2     9
  2.1536884276262680E+00 a       870     1     3     2    10
 -1.6364154399240971E-01 a       871     1     3     2    11
  3.5209738922128602E+00 a       872     1     3     2    12
 -3.0818650160737455E+00 a       873     1     3     2    13
  1.0870010558864317E+01 a       874     1     3     2    14
  5.7664746677817173E-02 a       875     1     3     2    15
  1.1261893534699936E+00 a       876     1     3     2    16
  1.3844847953780990E+01 a       877     1     3     2    17
 -1.0653234662216207E+00 a       878     1     3     2    18
 -1.3995913632084154E+01 a       879     1     3     2    19
 -6.9259789244074597E+00 a       880     1     3     2    20
  1.1825627850664553E+01 a       881     1     4     2     1
 -2.0534689521571229E-02 a       882     1     4     2     2
  1.1641117055772790E+01 a       883     1     4     2     3
 -4.1039280867500150E+00 a       884     1     4     2     4
  1.3531822213757511E+01 a       885     1     4     2     5
  1.3851363142340800E+01 a       886     1     4     2     6
 -6.2816440139543257E+00 a       887     1     4     2     7
  7.4940408832328389E+00 a       888     1     4     2     8
 -2.9613947629878288E+00 a       889     1     4     2     9
  8.6913722240306974E+00 a       890     1     4     2    10
 -1.3071410439606822E+01 a       891     1     4     2    11
  8.7606751155258955E+00 a       892     1     4     2    12
  8.1692550782197604E-01 a       893     1     4     2    13
  7.6098934041723219E+00 a       894     1     4     2    14
  2.8340754305730576E+00 a       895     1     4     2    15
  1.1987189395580984E+01 a       896     1     4     2    16
  1.0929139025387265E+01 a       897     1     4     2    17
 -1.9241495194799201E+00 a       898     1     4     2    18
  3.3355596505255005E+00 a       899     1     4     2    19
  4.6515616446236505E+00 a       900     1     4     2    20
 -4.0319865670209118E+00 a       901     1     5     2     1
 -1.1922979973042487E+00 a       902     1     5     2     2
  9.2579477682830529E+00 a       903     1     5     2     3
  8.4513250863319236E+00 a       904     1     5     2     4
  2.4064855969569954E+00 a       905     1     5     2     5
 -2.9553660946598739E+00 a       906     1     5     2     6
  6.0714224570588220E+00 a       907     1     5     2     7
 -8.4036043871482260E+00 a       908     1     5     2     8
 -4.0911857605942821E+00 a       909     1     5     2     9
 -6.2630878058759496E+00 a       910     1     5     2    10
 -6.6416659959782915E+00 a       911     1     5     2    11
  3.7208012497881757E+00 a       912     1     5     2    12
  1.0220715156982263E+00 a       913     1     5     2    13
 -3.5077998816983635E+00 a       914     1     5     2    14
 -3.8713603572480876E-01 a       915     1     5     2    15
  5.3914635647266280E+00 a       916     1     5     2    16
  2.9392427006502415E+00 a       917     1     5     2    17
  3.6445170828510087E-01 a       918     1     5     2    18
  6.5681884716136603E+00 a       919     1     5     2    19
 -5.3515135931556497E+00 a       920     1     5     2    20
  7.8952419590037879E+00 a       921     1     6     2     1
 -5.5202701477130001E-01 a       922     1     6     2     2
 -3.5759205205379474E+00 a       923     1     6     2     3
  1.3429312084719573E+00 a       924     1     6     2     4
  3.8231168579054149E+00 a       925     1     6     2     5
  3.5965603909133912E+00 a       926     1     6     2     6
 -2.8021797664023627E+00 a       927     1     6     2     7
 -2.0542629546751829E+00 a       928     1     6     2     8
 -1.1532480089694415E+00 a       929     1     6     2     9
  4.4903733781612534E+00 a       930     1     6     2    10
 -2.8102450394000442E+00 a       931     1     6     2    11
 -5.4373643994650793E+00 a       932     1     6     2    12
  2.4012588422824808E-02 a       933     1     6     2    13
  5.8641388009985835E+00 a       934     1     6     2    14
 -1.1640948099316888E+00 a       935     1     6     2    15
  6.0890708283541244E+00 a       936     1     6     2    16
  2.5864591057474486E+00 a       937     1     6     2    17
  3.4619180851104643E+00 a       938     1     6     2    18
 -8.3060639414261246E+00 a       939     1     6     2    19
  2.4224264841801428E+00 a       940     1     6     2    20
 -2.3609083556836494E+00 a       941     1     7     2     1
 -1.0037580232194603E+00 a       942     1     7     2     2
 -2.6933278178202613E+00 a       943     1     7     2     3
  4.0379135555065488E+00 a       944     1     7     2     4
 -1.5290468389030458E+00 a       945     1     7     2     5
 -3.4026343062285727E+00 a       946     1     7     2     6
 -1.0064824706400398E+01 a       947     1     7     2     7
 -1.8718050907262485E+00 a       948     1     7     2     8
  1.3807363622244098E+00 a       949     1     7     2     9
 -1.1983883871539636E+00 a       950     1     7     2    10
  1.8419886979527453E+00 a       951     1     7     2    11
 -1.9107790590638822E+00 a       952     1     7     2    12
 -2.3105141359841944E-01 a       953     1     7     2    13
  7.9122894449295289E-01 a       954     1     7     2    14
 -3.9613368065948564E+00 a       955     1     7     2    15
 -5.3920339592186544E+00 a       956     1     7     2    16
 -8.4762445406797815E-01 a       957     1     7     2    17
  2.2538422245386860E+00 a       958     1     7     2    18
 -4.4487146941200431E+00 a       959     1     7     2    19
 -1.7455146569933831E+01 a       960     1     7     2    20
 -4.1306719699304271E+00 a       961     1     8     2     1
 -2.1958308833944788E+00 a       962     1     8     2     2
 -2.4079862012063082E+00 a       963     1     8     2     3
 -6.4323154840947128E+00 a       964     1     8     2     4
  1.4022216021078842E+00 a       965     1     8     2     5
 -5.7249560989237294E+00 a       966     1     8     2     6
  6.9385305081338231E+00 a       967     1     8     2     7
 -6.6182589910504657E+00 a       968     1     8     2     8
  2.9494388416308683E+00 a       969     1     8     2     9
 -2.6690997053266763E+00 a       970     1     8     2    10
  4.4617317072462087E-01 a       971     1     8     2    11
  5.3794293944648670E+00 a       972     1     8     2    12
 -5.5827698085958322E-01 a       973     1     8     2    13
  1.2626798250223606E+01 a       974     1     8     2    14
 -3.1694333847578302E+00 a       975     1     8     2    15
 -1.0634977065215336E+00 a       976     1     8     2    16
 -5.0404288830493549E+00 a       977     1     8     2    17
 -6.5393341977743482E+00 a       978     1     8     2    18
  5.5675317684426933E+00 a       979     1     8     2    19
 -3.4836910560661538E+00 a       980     1     8     2    20
  2.5426575074078399E+00 a       981     1     9     2     1
 -5.3289810479436084E-01 a       982     1     9     2     2
 -4.1803588988064915E+00 a       983     1     9     2     3
 -5.7322227126360454E+00 a       984     1     9     2     4
  1.8453585389837150E+00 a       985     1     9     2     5
 -6.4888648158427902E+00 a       986     1     9     2     6
 -6.7800558775334867E+00 a       987     1     9     2     7
 -2.7794968171780727E+00 a       988     1     9     2     8
 -3.9171408095288567E+00 a       989     1     9     2     9
 -4.5302649628163554E+00 a       990     1     9     2    10
 -7.1555561793361084E+00 a       991     1     9     2    11
 -7.8694394835916155E+00 a       992     1     9     2    12
  8.9538400029657494E-01 a       993     1     9     2    13
 -2.8428844265572635E+00 a       994     1     9     2    14
 -2.7938117628040486E+00 a       995     1     9     2    15
 -3.2538443040642123E-01 a       996     1     9     2    16
  5.8772657529826444E-01 a       997     1     9     2    17
  7.7593234422235620E+00 a       998     1     9     2    18
  1.8978049997971336E+00 a       999     1     9     2    19
 -6.8638657838025621E+00 a      1000     1     9     2    20
 -6.5597057600119300E+00 a      1001     1    10     2     1
 -7.5212898632076075E-01 a      1002     1    10     2     2
  3.3839307929041951E+00 a      1003     1    10     2     3
 -2.5282364557440737E+01 a      1004     1    10     2     4
  1.2976851452788288E-01 a      1005     1    10     2     5
 -6.9450639780748800E+00 a      1006     1    10     2     6
 -3.2053927091583305E+00 a      1007     1    10     2     7
  5.2592962392156162E-02 a      1008     1    10     2     8
 -2.0612498255878373E+00 a      1009     1    10     2     9
 -1.6741920993795558E+00 a      1010     1    10     2    10
  2.0397395929236786E+00 a      1011     1    10     2    11
 -3.8536912893332684E+00 a      1012     1    10     2    12
 -3.7077527631265346E+00 a      1013     1    10     2    13
 -8.0767829937332873E+00 a      1014     1    10     2    14
  5.7959499507127727E+00 a      1015     1    10     2    15
 -4.6639872871575996E+00 a      1016     1    10     2    16
 -1.5407862122369163E+01 a      1017     1    10     2    17
  4.0779261863588028E+00 a      1018     1    10     2    18
 -2.2167926242195852E+00 a      1019     1    10     2    19
 -5.6477665217988937E+00 a      1020     1    10     2    20
 -5.5248611257431675E+00 a      1021     1    11     2     1
  8.4023569908023665E-01 a      1022     1    11     2     2
  7.3175944109408011E+00 a      1023     1    11     2     3
  1.3365769795632496E+00 a      1024     1    11     2     4
  1.0777973771114013E+00 a      1025     1    11     2     5
  3.4501091587121913E+00 a      1026     1    11     2     6
  1.4934032443996077E+00 a      1027     1    11     2     7
 -1.8659667622482801E+00 a      1028     1    11     2     8
  7.2707912693632887E-02 a      1029     1    11     2     9
  2.7341835022591572E+00 a      1030     1    11     2    10
  7.1332224385335898E+00 a      1031     1    11     2    11
  1.6558374840167995E+00 a      1032     1    11     2    12
  1.6233759568183388E+00 a      1033     1    11     2    13
 -4.9838609787871917E+00 a      1034     1    11     2    14
  3.5749221259418826E+00 a      1035     1    11     2    15
 -8.5998993440965199E-01 a      1036     1    11     2    16
  9.5741963030765864E-01 a      1037     1    11     2    17
 -2.3239505879588127E+00 a      1038     1    11     2    18
  2.0180059641597987E+00 a      1039     1    11     2    19
 -2.7586083620809161E+00 a      1040     1    11     2    20
  1.0914110310171891E+01 a      1041     1    12     2     1
 -3.5862129868611597E-01 a      1042     1    12     2     2
 -1.0460461723135909E+01 a      1043     1    12     2     3
  7.5144609589406142E-01 a      1044     1    12     2     4
  5.3965765751925765E-01 a      1045     1    12     2     5
 -7.3717225170088039E+00 a      1046     1    12     2     6
  3.4811766851238870E+00 a      1047     1    12     2     7
 -6.1264648445138139E+00 a      1048     1    12     2     8
 -5.3888118307825223E+00 a      1049     1    12     2     9
  7.4404993146891973E+00 a      1050     1    12     2    10
  2.2788166741835352E+00 a      1051     1    12     2    11
 -6.0949455138113198E+00 a      1052     1    12     2    12
  1.4388333001191422E+00 a      1053     1    12     2    13
  1.4584315501673276E+01 a      1054     1    12     2    14
 -1.9516229644917893E+00 a      1055     1    12     2    15
  6.4534361775305493E+00 a      1056     1    12     2    16
  1.9380965242770209E+00 a      1057     1    12     2    17
  3.9918920984932935E+00 a      1058     1    12     2    18
 -4.1722691565599757E-01 a      1059     1    12     2    19
  7.3736355818599186E+00 a      1060     1    12     2    20
 -4.5855433647185757E+00 a      1061     1    13     2     1
  1.2053298694419303E+00 a      1062     1    13     2     2
 -1.7051281369003961E+00 a      1063     1    13     2     3
 -1.3164715741720595E+01 a      1064     1    13     2     4
 -1.8203602126590804E-01 a      1065     1    13     2     5
  5.5245853260139677E-01 a      1066     1    13     2     6
  3.5142842724835837E+00 a      1067     1    13     2     7
 -3.4624366486021367E+00 a      1068     1    13     2     8
  5.2388568014558219E+00 a      1069     1    13     2     9
 -3.1995547379307787E+00 a      1070     1    13     2    10
  1.8258423114555007E+00 a      1071     1    13     2    11
  3.3918247062798428E+00 a      1072     1    13     2    12
  1.8420573710444594E+00 a      1073     1    13     2    13
 -1.2047661377338845E+00 a      1074     1    13     2    14
  3.3795860085795576E-01 a      1075     1    13     2    15
 -1.8962832865752679E+00 a      1076     1    13     2    16
  2.6138165440491874E+00 a      1077     1    13     2    17
  7.0827003084375140E-01 a      1078     1    13     2    18
 -9.2279569647278958E-01 a      1079     1    13     2    19
 -3.2426728681277406E+00 a      1080     1    13     2    20
  4.9324564985617911E+00 a      1081     1    14     2     1
  1.3060925187165304E+00 a      1082     1    14     2     2
  4.9868617233286381E+00 a      1083     1    14     2     3
 -7.2221638505389119E-01 a      1084     1    14     2     4
  7.7846209032487170E+00 a      1085     1    14     2     5
 -1.2866270771047792E+00 a      1086     1    14     2     6
 -1.2743165150958642E+00 a      1087     1    14     2     7
  5.9152252507666325E-01 a      1088     1    14     2     8
  3.1544597286365552E+00 a      1089     1    14     2     9
  5.9110784492869355E+00 a      1090     1    14     2    10
  7.5671393318840208E-01 a      1091     1    14     2    11
  3.1445373532361067E+00 a      1092     1    14     2    12
 -6.9982887838040664E-01 a      1093     1    14     2    13
  1.5132084139467132E+01 a      1094     1    14     2    14
  2.7967922159047718E+00 a      1095     1    14     2    15
  2.6956138155266265E+00 a      1096     1    14     2    16
 -8.3787391758716296E+00 a      1097     1    14     2    17
 -1.2900082552493439E+00 a      1098     1    14     2    18
  3.6125219022000419E+00 a      1099     1    14     2    19
 -3.3562882667966378E+00 a      1100     1    14     2    20
 -1.6946778913365250E+00 a      1101     1    15     2     1
  4.5745866062674867E-01 a      1102     1    15     2     2
  2.7546327925641143E+00 a      1103     1    15     2     3
 -5.9544465271975113E+00 a      1104     1    15     2     4
  5.5395674623584963E+00 a      1105     1    15     2     5
  3.3387576327573348E-01 a      1106     1    15     2     6
 -2.2422356911319117E+00 a      1107     1    15     2     7
 -7.8987671555287005E+00 a      1108     1    15     2     8
  5.1480252497639573E-02 a      1109     1    15     2     9
 -2.7758912743275754E+00 a      1110     1    15     2    10
  2.5533473526075640E-01 a      1111     1    15     2    11
 -1.4479385882360842E+00 a      1112     1    15     2    12
  3.4088736512467799E-01 a      1113     1    15     2    13
 -5.2794984692510294E+00 a      1114     1    15     2    14
  1.2345027909708051E+00 a      1115     1    15     2    15
 -2.5215329781642235E+00 a      1116     1    15     2    16
 -5.3025617140369685E-01 a      1117     1    15     2    17
 -3.5292096535801316E+00 a      1118     1    15     2    18
 -1.4466804020712609E-01 a      1119     1    15     2    19
 -2.8201875397017284E+00 a      1120     1    15     2    20
 -4.7198066622371204E+00 a      1121     1    16     2     1
 -5.6791262452918501E-01 a      1122     1    16     2     2
  1.6999329774119183E+00 a      1123     1    16     2     3
  1.0273436825823428E+00 a      1124     1    16     2     4
 -5.4551004967078374E+00 a      1125     1    16     2     5
 -5.5299003131992985E-01 a      1126     1    16     2     6
 -3.1857510429303719E+00 a      1127     1    16     2     7
 -2.6199017542704022E+00 a      1128     1    16     2     8
 -9.0444897707374761E+00 a      1129     1    16     2     9
  4.3013087464356490E+00 a      1130     1    16     2    10
  5.8186979186522976E+00 a      1131     1    16     2    11
 -5.8749252260348794E-01 a      1132     1    16     2    12
 -5.8079690982068832E-01 a      1133     1    16     2    13
  8.4502285268169928E+00 a      1134     1    16     2    14
  2.5005654457029549E+00 a      1135     1    16     2    15
  1.8907167930939690E+00 a      1136     1    16     2    16
  2.0955498068878203E+01 a      1137     1    16     2    17
 -9.6680974259029911E-02 a      1138     1    16     2    18
 -3.5121447562463604E+00 a      1139     1    16     2    19
 -1.1252313876866262E+01 a      1140     1    16     2    20
  1.4848459338033781E+00 a      1141     1    17     2     1
 -7.2039283648059618E+00 a      1142     1    17     2     2
  1.0700686806739084E+01 a      1143     1    17     2     3
 -2.0853402247325860E+01 a      1144     1    17     2     4
  1.4662243059336925E+01 a      1145     1    17     2     5
  1.6743856161006097E+01 a      1146     1    17     2     6
 -6.4652137338647568E+00 a      1147     1    17     2     7
 -6.1179281168747384E+00 a      1148     1    17     2     8
 -1.4162704092335632E+01 a      1149     1    17     2     9
  9.6200549798604413E+00 a      1150     1    17     2    10
 -1.8385531798545845E+01 a      1151     1    17     2    11
 -5.6723263784975577E+00 a      1152     1    17     2    12
  2.4969112277502452E+00 a      1153     1    17     2    13
 -9.9269185744898163E+00 a      1154     1    17     2    14
  9.4818185249139098E-01 a      1155     1    17     2    15
 -6.1137127846415718E+00 a      1156     1    17     2    16
 -3.6884859654823527E+00 a      1157     1    17     2    17
 -8.8922728876295221E+00 a      1158     1    17     2    18
  1.8667143236798875E+00 a      1159     1    17     2    19
 -6.2107324762260454E+00 a      1160     1    17     2    20
 -5.0445009335992728E+00 a      1161     1    18     2     1
 -4.1553513682447091E-01 a      1162     1    18     2     2
  1.0430888136204668E+01 a      1163     1    18     2     3
 -1.4656716005962551E+01 a      1164     1    18     2     4
 -1.4431226690950099E+01 a      1165     1    18     2     5
  4.3784861961932400E+00 a      1166     1    18     2     6
 -8.9455117012316538E+00 a      1167     1    18     2     7
  1.1361205167063108E+01 a      1168     1    18     2     8
 -4.3669136263616286E+00 a      1169     1    18     2     9
  1.1625878251225375E+01 a      1170     1    18     2    10
 -1.6662781600245831E+00 a      1171     1    18     2    11
  3.1726121770632587E+00 a      1172     1    18     2    12
 -2.2816119031803437E+00 a      1173     1    18     2    13
 -8.2037782879531367E+00 a      1174     1    18     2    14
  4.2242262920196856E+00 a      1175     1    18     2    15
 -7.5693639774466943E+00 a      1176     1    18     2    16
  7.3235891147149070E+00 a      1177     1    18     2    17
  1.4931655094527141E+00 a      1178     1    18     2    18
 -8.6753174209839323E-01 a      1179     1    18     2    19
 -1.2667975739107442E+00 a      1180     1    18     2    20
 -8.4504391952581841E+00 a      1181     1    19     2     1
 -8.4520468652373482E-01 a      1182     1    19     2     2
 -5.7125896338971298E+00 a      1183     1    19     2     3
  1.5769359903731951E+01 a      1184     1    19     2     4
 -5.0464223208143579E+00 a      1185     1    19     2     5
 -5.0812991745299529E-01 a      1186     1    19     2     6
 -1.7000887215903155E+00 a      1187     1    19     2     7
 -1.1235026416377499E+01 a      1188     1    19     2     8
 -1.0355728316604369E+00 a      1189     1    19     2     9
 -4.6898937023069962E+00 a      1190     1    19     2    10
  3.3654866264668168E+00 a      1191     1    19     2    11
 -2.0444328440996431E+00 a      1192     1    19     2    12
 -7.0573183433974307E-01 a      1193     1    19     2    13
 -2.5291868415569456E+00 a      1194     1    19     2    14
  3.1182259623936187E-01 a      1195     1    19     2    15
 -5.5242993460377718E+00 a      1196     1    19     2    16
 -9.7335678835404016E-01 a      1197     1    19     2    17
 -3.4076458142323398E+00 a      1198     1    19     2    18
  5.2319263134042238E-01 a      1199     1    19     2    19
 -1.6806844779384498E+00 a      1200     1    19     2    20
 -7.5296515378347788E+00 a      1201     1    20     2     1
  7.8281634565829028E-01 a      1202     1    20     2     2
 -6.2471144761450814E+00 a      1203     1    20     2     3
  1.4452273099975947E+00 a      1204     1    20     2     4
  3.3796908506857459E+00 a      1205     1    20     2     5
  2.9083629567159144E+00 a      1206     1    20     2     6
 -1.1045314927440124E+00 a      1207     1    20     2     7
 -4.7841986123813420E+00 a      1208     1    20     2     8
 -1.7342364153982444E+00 a      1209     1    20     2     9
  1.8007851696354964E+00 a      1210     1    20     2    10
  5.7206037614799321E+00 a      1211     1    20     2    11
  2.8962717337200092E+00 a      1212     1    20     2    12
  2.2658035987489624E+00 a      1213     1    20     2    13
 -1.0016186716593083E+01 a      1214     1    20     2    14
  3.8847511713525811E+00 a      1215     1    20     2    15
  2.9361093231366500E+00 a      1216     1    20     2    16
  1.0585423485347709E+01 a      1217     1    20     2    17
 -2.2959824112733780E+00 a      1218     1    20     2    18
 -5.2854951077245698E+00 a      1219     1    20     2    19
 -3.5505903160767134E+00 a      1220     1    20     2    20
  1.3702115120430603E+01 b      1221     2     1
 -5.1894663218485997E+00 b      1222     2     2
 -6.7947594131392446E+00 b      1223     2     3
 -9.7582478104791959E-01 b      1224     2     4
  2.2048170287141353E+01 b      1225     2     5
  2.5468991407810545E+01 b      1226     2     6
 -7.1317354200546301E+00 b      1227     2     7
  3.0618040837169120E+00 b      1228     2     8
 -1.1887351328678738E+01 b      1229     2     9
  1.2457579659542438E+01 b      1230     2    10
 -1.7124641214274646E+01 b      1231     2    11
 -3.2101882615337836E+00 b      1232     2    12
  3.2897981251610648E+00 b      1233     2    13
 -7.5483075678283242E+00 b      1234     2    14
 -9.0403395869261765E+00 b      1235     2    15
 -6.9754055057367026E+00 b      1236     2    16
 -1.0843410881002384E+01 b      1237     2    17
 -1.2674562485889274E+01 b      1238     2    18
  5.6174427865728163E+00 b      1239     2    19
 -5.5932597763302310E+00 b      1240     2    20
  1.4827983666559852E-01 a      1241     2     1     3     1
 -1.7107444535450098E-01 a      1242     2     2     3     1
  1.5142143955595549E-01 a      1243     2     3     3     1
  2.5772872526896168E-01 a      1244     2     4     3     1
 -4.0982752825430713E-01 a      1245     2     5     3     1
 -1.4091681852552329E-01 a      1246     2     6     3     1
  1.7354754284352081E-01 a      1247     2     7     3     1
 -2.4261475670359384E-01 a      1248     2     8     3     1
  2.3835560858111071E-01 a      1249     2     9     3     1
 -1.1506664421886374E-01 a      1250     2    10     3     1
  1.6348129816687637E-01 a      1251     2    11     3     1
  2.0757189069453347E-01 a      1252     2    12     3     1
 -2.9665134254558861E-01 a      1253     2    13     3     1
 -4.1491072079360192E-01 a      1254     2    14     3     1
 -7.0130081574107428E-01 a      1255     2    15     3     1
 -3.3899999415063037E-01 a      1256     2    16     3     1
 -1.1877236740476961E-01 a      1257     2    17     3     1
  1.7642406850794087E-01 a      1258     2    18     3     1
 -1.3427245471271695E-01 a      1259     2    19     3     1
  9.0846553332341012E-02 a      1260     2    20     3     1
 -2.6770685193357135E-02 b      1261     3     1
