################################################################################
# Neural network connection values (weights and biases).
################################################################################
# Col  Name       Description
################################################################################
# 1    connection Neural network connection value.
# 2    t          Connection type (a = weight, b = bias).
# 3    index      Index enumerating weights.
# 4    l_s        Starting point layer (end point layer for biases).
# 5    n_s        Starting point neuron in starting layer (end point neuron for biases).
# 6    l_e        End point layer.
# 7    n_e        End point neuron in end layer.
################################################################################
#                      1 2         3     4     5     6     7
#             connection t     index   l_s   n_s   l_e   n_e
############################################################
 -1.7413691738657959E+00 a         1     0     1     1     1
 -2.9377059029319965E+00 a         2     0     1     1     2
 -3.1793496966943091E-01 a         3     0     1     1     3
 -2.7332702634923134E-01 a         4     0     1     1     4
 -7.2067285632246203E-01 a         5     0     1     1     5
 -5.3056140416408451E-02 a         6     0     1     1     6
  6.0167349615325549E-01 a         7     0     1     1     7
  2.3936197952400646E+00 a         8     0     1     1     8
 -1.0503225120501056E+00 a         9     0     1     1     9
  4.0250257721356333E-02 a        10     0     1     1    10
 -1.1495422279656029E-02 a        11     0     1     1    11
 -3.0852787929556397E-01 a        12     0     1     1    12
  1.8545319129327370E-01 a        13     0     1     1    13
 -2.4852171124694395E+00 a        14     0     1     1    14
  1.5702570966996372E+00 a        15     0     1     1    15
  1.3470472739879897E+00 a        16     0     1     1    16
 -6.4020662356872549E-01 a        17     0     1     1    17
 -1.2819189833272690E-01 a        18     0     1     1    18
 -1.2238648216417720E+00 a        19     0     1     1    19
 -1.9379683373863539E+00 a        20     0     1     1    20
  2.0774285380539594E+00 a        21     0     2     1     1
  3.4972858244377956E+00 a        22     0     2     1     2
  3.8480502803730174E+00 a        23     0     2     1     3
  8.8775428456857064E-01 a        24     0     2     1     4
  3.8614526986982933E+00 a        25     0     2     1     5
 -9.4312089553392686E-01 a        26     0     2     1     6
 -1.7696527976288099E+00 a        27     0     2     1     7
 -1.6332951683264905E+00 a        28     0     2     1     8
  1.8807334275649563E+00 a        29     0     2     1     9
  2.0104203494487632E-01 a        30     0     2     1    10
 -2.6198309001197218E+00 a        31     0     2     1    11
 -1.2030633294605074E-02 a        32     0     2     1    12
 -2.2550176254486471E+00 a        33     0     2     1    13
 -2.6076280074587932E+00 a        34     0     2     1    14
  1.9222945087031904E+00 a        35     0     2     1    15
  1.4259878155249619E+00 a        36     0     2     1    16
  2.3209341326287486E-01 a        37     0     2     1    17
 -6.5140684437883889E-01 a        38     0     2     1    18
  4.4754274305313970E+00 a        39     0     2     1    19
 -1.8159944021208924E-01 a        40     0     2     1    20
 -9.7745690583316569E-01 a        41     0     3     1     1
  6.1194735456155647E-01 a        42     0     3     1     2
 -7.1854541752980783E-01 a        43     0     3     1     3
  1.1572175029797511E+00 a        44     0     3     1     4
  4.8104823519861184E-01 a        45     0     3     1     5
 -2.5383686541399114E-01 a        46     0     3     1     6
 -2.7511958610642453E+00 a        47     0     3     1     7
  1.2363146628442345E+00 a        48     0     3     1     8
  1.8772321902148621E+00 a        49     0     3     1     9
  6.0681148624244985E-01 a        50     0     3     1    10
 -3.5670643743298536E-02 a        51     0     3     1    11
 -1.5703243162398897E+00 a        52     0     3     1    12
 -1.8322281679621544E+00 a        53     0     3     1    13
 -9.6671969521339296E-01 a        54     0     3     1    14
 -5.0475913190634791E-01 a        55     0     3     1    15
  2.4265312715430456E+00 a        56     0     3     1    16
  1.7258027025205489E+00 a        57     0     3     1    17
  4.6786573638987988E-01 a        58     0     3     1    18
  6.9753905925220272E-01 a        59     0     3     1    19
  9.1577868958211739E-01 a        60     0     3     1    20
 -1.5247921165926444E+00 a        61     0     4     1     1
 -1.9388727501752723E-01 a        62     0     4     1     2
  5.0623077586104948E-01 a        63     0     4     1     3
 -2.1652847423541024E+00 a        64     0     4     1     4
  1.0523936263928477E+00 a        65     0     4     1     5
  5.0722547252108885E-01 a        66     0     4     1     6
  2.0507978373026012E+00 a        67     0     4     1     7
  1.3183980034368730E+00 a        68     0     4     1     8
  2.7934771919128161E+00 a        69     0     4     1     9
 -2.0191204304350379E+00 a        70     0     4     1    10
  3.2426297647281532E-01 a        71     0     4     1    11
  8.0382871249048926E-01 a        72     0     4     1    12
  1.2147592588389466E+00 a        73     0     4     1    13
  9.2788495679855076E-01 a        74     0     4     1    14
  2.2138107022833111E+00 a        75     0     4     1    15
  2.8215945740915203E+00 a        76     0     4     1    16
 -1.3231737207851020E+00 a        77     0     4     1    17
 -1.2269770807327243E+00 a        78     0     4     1    18
  2.5338351546945455E+00 a        79     0     4     1    19
  1.4795026486880305E+00 a        80     0     4     1    20
 -2.5536064890631782E-01 a        81     0     5     1     1
 -1.1661533130078130E+00 a        82     0     5     1     2
  2.7857944288825061E+00 a        83     0     5     1     3
 -2.6490262885578684E+00 a        84     0     5     1     4
 -2.4855843522575767E+00 a        85     0     5     1     5
 -1.8955651928296191E+00 a        86     0     5     1     6
 -2.2477397144129960E-01 a        87     0     5     1     7
  2.5305970854769394E-01 a        88     0     5     1     8
  7.2954462611426574E-02 a        89     0     5     1     9
  2.1406323374814100E+00 a        90     0     5     1    10
 -9.5782555690798510E-01 a        91     0     5     1    11
 -1.2267613185376804E+00 a        92     0     5     1    12
  1.9581435400756093E+00 a        93     0     5     1    13
  2.4650352545270077E-01 a        94     0     5     1    14
  2.1915878866396796E+00 a        95     0     5     1    15
  2.3346302889509656E+00 a        96     0     5     1    16
 -1.7957767277187247E+00 a        97     0     5     1    17
  4.0679141688126547E-01 a        98     0     5     1    18
  2.4019762883083957E+00 a        99     0     5     1    19
  8.2896427346202417E-01 a       100     0     5     1    20
  7.6362250150076749E-01 a       101     0     6     1     1
 -1.1628609723596896E-01 a       102     0     6     1     2
 -1.8525748013278840E+00 a       103     0     6     1     3
 -3.1600714406359316E-02 a       104     0     6     1     4
 -1.5458497348208209E+00 a       105     0     6     1     5
  1.0156309977065017E+00 a       106     0     6     1     6
 -7.1030011626658718E-01 a       107     0     6     1     7
  5.3211683725468439E-01 a       108     0     6     1     8
  9.0832256589623361E-01 a       109     0     6     1     9
  6.1954629489084612E-01 a       110     0     6     1    10
 -1.5351224831087659E-01 a       111     0     6     1    11
 -8.6985712323444631E-01 a       112     0     6     1    12
 -1.5728434882844742E+00 a       113     0     6     1    13
 -6.1179573576863244E-01 a       114     0     6     1    14
 -1.9371109813096837E-02 a       115     0     6     1    15
  1.2127456950576481E+00 a       116     0     6     1    16
  3.0302203263485883E-01 a       117     0     6     1    17
  1.0502586081956744E+00 a       118     0     6     1    18
  1.5546911127603105E-01 a       119     0     6     1    19
 -7.8233964021123459E-01 a       120     0     6     1    20
 -5.6120936164433033E-01 a       121     0     7     1     1
  2.3050704644367901E+00 a       122     0     7     1     2
 -1.0038640551397916E-01 a       123     0     7     1     3
 -1.9220202188391593E+00 a       124     0     7     1     4
  2.7064853986873394E+00 a       125     0     7     1     5
  2.4334040467182244E-01 a       126     0     7     1     6
 -1.0241272873085892E+00 a       127     0     7     1     7
 -1.8670419224910069E+00 a       128     0     7     1     8
  8.4698199814279518E-01 a       129     0     7     1     9
  4.4614882031364417E-01 a       130     0     7     1    10
  8.2747201012243832E-01 a       131     0     7     1    11
 -2.2281011738486960E+00 a       132     0     7     1    12
 -2.4192088299396621E+00 a       133     0     7     1    13
  1.4467173260514528E+00 a       134     0     7     1    14
 -3.5339000731232900E-01 a       135     0     7     1    15
  2.3705885023783786E+00 a       136     0     7     1    16
 -4.7053794081866723E-01 a       137     0     7     1    17
 -1.1969700799207206E-01 a       138     0     7     1    18
  8.3741335213265855E-01 a       139     0     7     1    19
 -1.3064401876868044E+00 a       140     0     7     1    20
  3.8295668531076887E-01 a       141     0     8     1     1
  4.2855655347173401E-02 a       142     0     8     1     2
  4.9569317473712343E-01 a       143     0     8     1     3
 -2.6759647987825397E+00 a       144     0     8     1     4
  5.2339629619079808E-01 a       145     0     8     1     5
 -5.3791973560168949E-01 a       146     0     8     1     6
  7.0614947917655990E-01 a       147     0     8     1     7
  1.3756851987898531E+00 a       148     0     8     1     8
 -7.5310097008616905E-01 a       149     0     8     1     9
  1.3114666751709339E-01 a       150     0     8     1    10
  1.4022935967963184E+00 a       151     0     8     1    11
 -1.1555232342090600E+00 a       152     0     8     1    12
 -1.3657223014351874E+00 a       153     0     8     1    13
  2.4090565223377909E+00 a       154     0     8     1    14
  1.5869687125319780E+00 a       155     0     8     1    15
 -9.6326407567247552E-01 a       156     0     8     1    16
 -6.0657754933081820E-01 a       157     0     8     1    17
  2.4484823649924077E+00 a       158     0     8     1    18
  2.5279168702106922E+00 a       159     0     8     1    19
  5.7704993407392446E-01 a       160     0     8     1    20
  6.6754824816723557E-01 a       161     0     9     1     1
 -1.9987254635767169E+00 a       162     0     9     1     2
  1.5694392109480662E+00 a       163     0     9     1     3
 -2.8896672485974197E+00 a       164     0     9     1     4
 -6.5817780265655544E-03 a       165     0     9     1     5
 -9.1962757212600121E-01 a       166     0     9     1     6
  8.1299878173694939E-01 a       167     0     9     1     7
  2.3863967803135885E-01 a       168     0     9     1     8
  2.4534331581788327E+00 a       169     0     9     1     9
 -6.6165205625293688E-01 a       170     0     9     1    10
 -1.4442845393694201E-01 a       171     0     9     1    11
  1.4035634569794472E-01 a       172     0     9     1    12
  6.0982444169186056E-01 a       173     0     9     1    13
 -2.3642775554031674E+00 a       174     0     9     1    14
  2.3213169398761697E+00 a       175     0     9     1    15
 -9.1508883347615055E-01 a       176     0     9     1    16
  1.1323315924057753E+00 a       177     0     9     1    17
  3.0868038476731958E+00 a       178     0     9     1    18
  1.1194920176579890E+00 a       179     0     9     1    19
 -1.2224783663065057E+00 a       180     0     9     1    20
  6.4834778752107070E-01 a       181     0    10     1     1
 -2.5081760747126153E-01 a       182     0    10     1     2
 -3.7861183987401553E-01 a       183     0    10     1     3
  5.4940755224124382E-01 a       184     0    10     1     4
  1.1389908827053743E+00 a       185     0    10     1     5
  2.5343876240333379E-01 a       186     0    10     1     6
 -1.1173921220665837E+00 a       187     0    10     1     7
 -6.5086863733055847E-02 a       188     0    10     1     8
 -9.6906392521798490E-01 a       189     0    10     1     9
 -1.0631505374065526E+00 a       190     0    10     1    10
 -7.5991931168567772E-01 a       191     0    10     1    11
 -5.6412370480985630E-01 a       192     0    10     1    12
 -1.4476881900548875E+00 a       193     0    10     1    13
  4.2569765255878739E-01 a       194     0    10     1    14
  1.2978178278739891E+00 a       195     0    10     1    15
 -5.8687353135920550E-01 a       196     0    10     1    16
 -4.3833499057528102E-01 a       197     0    10     1    17
 -4.7799505345057292E-01 a       198     0    10     1    18
  9.7777105855524171E-01 a       199     0    10     1    19
  3.0272748959672391E-01 a       200     0    10     1    20
  2.2485704525411911E+00 a       201     0    11     1     1
  3.3123406445880628E+00 a       202     0    11     1     2
 -1.3781631125981044E+00 a       203     0    11     1     3
 -2.2512784646412034E+00 a       204     0    11     1     4
  5.6013677550888853E-02 a       205     0    11     1     5
 -1.3938497024960543E+00 a       206     0    11     1     6
  8.1208353051404625E-01 a       207     0    11     1     7
 -3.2912850861008285E+00 a       208     0    11     1     8
 -4.8194663129906612E-01 a       209     0    11     1     9
  1.6543121250442323E+00 a       210     0    11     1    10
  2.2731111699525458E-01 a       211     0    11     1    11
 -9.6802136196892111E-02 a       212     0    11     1    12
  3.4743853817621289E+00 a       213     0    11     1    13
 -1.5604757341688771E+00 a       214     0    11     1    14
  3.7905129127742021E+00 a       215     0    11     1    15
 -4.1994460570595322E+00 a       216     0    11     1    16
  1.3509102410909932E+00 a       217     0    11     1    17
 -4.7454633164958282E-01 a       218     0    11     1    18
 -2.3562650919048935E+00 a       219     0    11     1    19
  1.6662550558395708E+00 a       220     0    11     1    20
 -1.2537282570238835E+00 a       221     0    12     1     1
 -1.7831591458991456E+00 a       222     0    12     1     2
 -3.8993852081463753E-01 a       223     0    12     1     3
 -2.3611370094028419E+00 a       224     0    12     1     4
 -3.6687507508750813E-02 a       225     0    12     1     5
  2.7009101652741396E-01 a       226     0    12     1     6
  2.0126576719178191E-01 a       227     0    12     1     7
  1.2945918406755261E-01 a       228     0    12     1     8
 -9.8510729216014414E-01 a       229     0    12     1     9
 -1.0603264938297721E+00 a       230     0    12     1    10
  2.4576898588328908E+00 a       231     0    12     1    11
 -3.1081079130617644E+00 a       232     0    12     1    12
 -2.0901000022067895E+00 a       233     0    12     1    13
  2.4089746795190443E+00 a       234     0    12     1    14
  5.6703765460199729E-01 a       235     0    12     1    15
  1.7433892779069258E+00 a       236     0    12     1    16
  1.2149957387806765E+00 a       237     0    12     1    17
 -4.7010147153685633E-01 a       238     0    12     1    18
 -7.1704898601898792E-01 a       239     0    12     1    19
 -1.9656640280709352E+00 a       240     0    12     1    20
 -7.9951698086797152E-01 a       241     0    13     1     1
 -7.3422184346036756E-01 a       242     0    13     1     2
 -1.3405733067331809E+00 a       243     0    13     1     3
 -1.2346055599698191E+00 a       244     0    13     1     4
 -1.1000336766507575E+00 a       245     0    13     1     5
 -3.5705889346524539E-01 a       246     0    13     1     6
 -8.9513288791364931E-01 a       247     0    13     1     7
 -8.3917988792839585E-02 a       248     0    13     1     8
  4.5190761930058207E-02 a       249     0    13     1     9
 -2.0555365902612057E+00 a       250     0    13     1    10
  4.2130447373403440E-01 a       251     0    13     1    11
 -2.3319390304384641E-01 a       252     0    13     1    12
  7.0854821773412446E-01 a       253     0    13     1    13
 -1.3420912090964991E+00 a       254     0    13     1    14
 -2.1445052469774364E-01 a       255     0    13     1    15
 -2.0448989631931282E+00 a       256     0    13     1    16
 -8.2308662691428947E-01 a       257     0    13     1    17
 -3.1236584085726937E-01 a       258     0    13     1    18
  1.6743328068581966E+00 a       259     0    13     1    19
  5.3529887255329922E-01 a       260     0    13     1    20
  1.0619854281306691E-01 a       261     0    14     1     1
 -6.3744674053422257E-01 a       262     0    14     1     2
  9.0800126341639553E-01 a       263     0    14     1     3
  9.8154312986233533E-02 a       264     0    14     1     4
 -1.8464512417558615E-02 a       265     0    14     1     5
 -1.8618060832897418E-01 a       266     0    14     1     6
  7.2790961135164345E-01 a       267     0    14     1     7
  3.5205518396285856E-01 a       268     0    14     1     8
  5.7355944283379245E-01 a       269     0    14     1     9
  3.1928900052012441E+00 a       270     0    14     1    10
 -2.3285879689398046E+00 a       271     0    14     1    11
 -1.3963091544226240E+00 a       272     0    14     1    12
  4.2950412918663750E-01 a       273     0    14     1    13
 -1.2718150774547088E+00 a       274     0    14     1    14
  2.7126800966928757E+00 a       275     0    14     1    15
  9.7601225066578545E-01 a       276     0    14     1    16
 -2.2892779526497651E+00 a       277     0    14     1    17
  1.1386752059298546E+00 a       278     0    14     1    18
 -1.2804243737741774E+00 a       279     0    14     1    19
 -1.2641439634418010E+00 a       280     0    14     1    20
  1.9110511430575654E+00 a       281     0    15     1     1
  2.6360985509936047E-01 a       282     0    15     1     2
 -1.5236896589521600E+00 a       283     0    15     1     3
  4.6763965751813080E-01 a       284     0    15     1     4
  1.5798345435007231E+00 a       285     0    15     1     5
 -1.0645121120332544E+00 a       286     0    15     1     6
  1.3204060352519515E+00 a       287     0    15     1     7
 -1.8450644918223167E+00 a       288     0    15     1     8
 -2.4879780863408572E+00 a       289     0    15     1     9
  2.2566987953985977E-02 a       290     0    15     1    10
 -1.2523320231058743E+00 a       291     0    15     1    11
  1.1203981812422603E+00 a       292     0    15     1    12
  3.6845696042845230E-03 a       293     0    15     1    13
  8.3780755095079332E-02 a       294     0    15     1    14
  1.9632801335053049E+00 a       295     0    15     1    15
 -1.2499923119479253E+00 a       296     0    15     1    16
  1.8533129419643397E+00 a       297     0    15     1    17
 -2.0494858274454635E+00 a       298     0    15     1    18
 -3.3605934615938710E-01 a       299     0    15     1    19
 -1.7297094708929792E+00 a       300     0    15     1    20
 -3.7187775626908420E-01 a       301     0    16     1     1
 -2.8517812081806571E+00 a       302     0    16     1     2
  3.3991862516538287E+00 a       303     0    16     1     3
  2.5105892482449175E+00 a       304     0    16     1     4
  1.9353197768895471E+00 a       305     0    16     1     5
 -6.6751969014562895E-01 a       306     0    16     1     6
  1.1164552225142503E+00 a       307     0    16     1     7
 -9.2800487010440535E-01 a       308     0    16     1     8
 -3.6565217412497240E+00 a       309     0    16     1     9
 -2.9093739316421949E+00 a       310     0    16     1    10
  1.8136530878862900E+00 a       311     0    16     1    11
  5.6721242982725073E-02 a       312     0    16     1    12
 -1.9917931202364414E+00 a       313     0    16     1    13
  3.9162285842087163E-01 a       314     0    16     1    14
 -2.0582237408266080E+00 a       315     0    16     1    15
  2.9998567414043414E-01 a       316     0    16     1    16
 -1.5227468529728452E+00 a       317     0    16     1    17
  2.1032809665832946E+00 a       318     0    16     1    18
 -4.5643282941205205E+00 a       319     0    16     1    19
 -1.5623188911858616E+00 a       320     0    16     1    20
  4.7953335971782102E-01 a       321     0    17     1     1
 -1.7613023862241888E+00 a       322     0    17     1     2
  1.0987511812811068E+00 a       323     0    17     1     3
  5.9811405779302695E-01 a       324     0    17     1     4
 -1.4980182120878860E+00 a       325     0    17     1     5
  2.0301421135446818E+00 a       326     0    17     1     6
  1.2720787021113571E+00 a       327     0    17     1     7
  1.2047088652709379E+00 a       328     0    17     1     8
  1.0528201833241160E+00 a       329     0    17     1     9
 -5.0338728375217889E-01 a       330     0    17     1    10
 -2.4312670981959775E-01 a       331     0    17     1    11
 -1.1443431237282299E-01 a       332     0    17     1    12
  2.8176070169623385E-01 a       333     0    17     1    13
  1.4957678133970511E+00 a       334     0    17     1    14
 -4.4042552655343625E-01 a       335     0    17     1    15
 -1.2853422375948551E+00 a       336     0    17     1    16
  1.4549736418370609E+00 a       337     0    17     1    17
 -1.1227968832539913E-01 a       338     0    17     1    18
  6.7425804280784685E-01 a       339     0    17     1    19
 -5.2220496112207415E-01 a       340     0    17     1    20
  1.4903421568521735E+00 a       341     0    18     1     1
 -9.9114233630046211E-01 a       342     0    18     1     2
  1.1520862864736701E+00 a       343     0    18     1     3
  2.8156173653099779E+00 a       344     0    18     1     4
 -8.6852001393680178E-01 a       345     0    18     1     5
  3.9512346252303410E-01 a       346     0    18     1     6
  1.5190565817378010E+00 a       347     0    18     1     7
  2.8499523832160784E-01 a       348     0    18     1     8
  3.7303943355729712E+00 a       349     0    18     1     9
 -9.4112650679714738E-01 a       350     0    18     1    10
 -2.3558645990805136E+00 a       351     0    18     1    11
  1.1360916698733348E+00 a       352     0    18     1    12
  1.6516980842276807E+00 a       353     0    18     1    13
 -1.9623900063916604E+00 a       354     0    18     1    14
 -1.2807587273552004E+00 a       355     0    18     1    15
  1.1940024287352147E+00 a       356     0    18     1    16
  1.1419925004580754E-01 a       357     0    18     1    17
 -4.2253785347958965E+00 a       358     0    18     1    18
 -1.1628357042959192E+00 a       359     0    18     1    19
  8.2297945817106333E-01 a       360     0    18     1    20
 -2.1391249483862933E+00 a       361     0    19     1     1
  6.3939725165069050E-01 a       362     0    19     1     2
 -1.9676283168703146E+00 a       363     0    19     1     3
  1.4705875227891712E+00 a       364     0    19     1     4
 -1.2979947267293213E-01 a       365     0    19     1     5
  1.1834683053521171E+00 a       366     0    19     1     6
  1.0901708614027559E+00 a       367     0    19     1     7
  1.0741366838130628E+00 a       368     0    19     1     8
  3.1478023917180336E+00 a       369     0    19     1     9
  3.3776833901120512E-01 a       370     0    19     1    10
 -9.0524925711042625E-01 a       371     0    19     1    11
  3.1850627926853037E-01 a       372     0    19     1    12
  1.9718160691488548E-01 a       373     0    19     1    13
  2.7864163781834512E+00 a       374     0    19     1    14
  1.1620808904720627E-01 a       375     0    19     1    15
  5.8737455887066636E-01 a       376     0    19     1    16
  1.1309272470310221E+00 a       377     0    19     1    17
 -2.1289355691143794E+00 a       378     0    19     1    18
 -1.0710994110033747E+00 a       379     0    19     1    19
  3.7166105090236701E-01 a       380     0    19     1    20
  1.2481131298510924E+00 a       381     0    20     1     1
  1.6785211645317493E+00 a       382     0    20     1     2
 -5.7519125634196788E-01 a       383     0    20     1     3
 -1.8133473667824724E+00 a       384     0    20     1     4
 -1.7124787179660239E-01 a       385     0    20     1     5
 -3.3216746463629521E-01 a       386     0    20     1     6
 -2.1932190093267123E+00 a       387     0    20     1     7
 -2.0279228995271068E+00 a       388     0    20     1     8
 -3.2200565712653684E+00 a       389     0    20     1     9
  3.3493923381795780E+00 a       390     0    20     1    10
 -4.5398400344734324E-01 a       391     0    20     1    11
 -9.9544224212165200E-01 a       392     0    20     1    12
 -2.5730321774720419E+00 a       393     0    20     1    13
  1.3614919740663253E-01 a       394     0    20     1    14
 -6.6813365427303084E-01 a       395     0    20     1    15
  8.7603249572992370E-01 a       396     0    20     1    16
 -9.4334185091671474E-01 a       397     0    20     1    17
 -1.0616801239190918E+00 a       398     0    20     1    18
 -1.4853506834400763E+00 a       399     0    20     1    19
  2.6955470202835192E+00 a       400     0    20     1    20
  1.0252153747056330E+00 a       401     0    21     1     1
 -2.4021188386183518E+00 a       402     0    21     1     2
 -1.4783022731195716E-01 a       403     0    21     1     3
  9.6339331739296985E-01 a       404     0    21     1     4
  1.8361807670808450E-01 a       405     0    21     1     5
  1.4146662669982266E+00 a       406     0    21     1     6
 -4.2131206117071357E-01 a       407     0    21     1     7
  2.5325182563210507E+00 a       408     0    21     1     8
 -1.1404607061364316E+00 a       409     0    21     1     9
  1.7205606617340723E+00 a       410     0    21     1    10
 -2.1540153640104318E+00 a       411     0    21     1    11
  1.8881135473655080E+00 a       412     0    21     1    12
 -1.8656058883798823E+00 a       413     0    21     1    13
 -3.6552768713893335E-01 a       414     0    21     1    14
 -1.5692586629366978E+00 a       415     0    21     1    15
  2.1645476647048518E+00 a       416     0    21     1    16
 -5.2107595884285729E-01 a       417     0    21     1    17
  2.3179589089278019E+00 a       418     0    21     1    18
  2.5193860581272309E+00 a       419     0    21     1    19
 -1.1841244928681196E+00 a       420     0    21     1    20
 -1.4376568208406604E+00 a       421     0    22     1     1
 -6.7925876137774199E-01 a       422     0    22     1     2
  2.3932680875696164E+00 a       423     0    22     1     3
  4.2102620004876892E+00 a       424     0    22     1     4
  3.2404538041316067E+00 a       425     0    22     1     5
 -2.1465089513432378E-01 a       426     0    22     1     6
  8.4408905243135113E-01 a       427     0    22     1     7
  1.0467452107407670E-01 a       428     0    22     1     8
  3.0225168277946896E-01 a       429     0    22     1     9
  4.1889383699317690E+00 a       430     0    22     1    10
  2.1857677779553408E+00 a       431     0    22     1    11
 -5.2661870671937239E-01 a       432     0    22     1    12
  9.4512794639919395E-01 a       433     0    22     1    13
  6.3120373637111071E-01 a       434     0    22     1    14
 -1.7998263096140952E+00 a       435     0    22     1    15
  1.4047809208501596E+00 a       436     0    22     1    16
  1.7210524523917037E+00 a       437     0    22     1    17
 -6.3998276305825907E-01 a       438     0    22     1    18
 -3.5910400550033388E+00 a       439     0    22     1    19
  7.5186250510988761E-02 a       440     0    22     1    20
  3.2858208564023657E+00 a       441     0    23     1     1
 -3.7047683897066404E+00 a       442     0    23     1     2
  2.3708223510302493E+00 a       443     0    23     1     3
 -3.5795239956259317E-01 a       444     0    23     1     4
  5.9854387129147635E-01 a       445     0    23     1     5
 -4.0474073613318173E-02 a       446     0    23     1     6
  2.1069466100904486E+00 a       447     0    23     1     7
 -1.8823643163657156E+00 a       448     0    23     1     8
  2.0173534509445501E+00 a       449     0    23     1     9
 -4.0419033023465181E+00 a       450     0    23     1    10
  2.8582386906345842E+00 a       451     0    23     1    11
  9.8578281585167404E-02 a       452     0    23     1    12
 -1.2694889099375517E+00 a       453     0    23     1    13
 -1.7415311298856191E+00 a       454     0    23     1    14
 -6.0133695772817519E-01 a       455     0    23     1    15
  1.6451835428200721E+00 a       456     0    23     1    16
  2.0562109194274383E+00 a       457     0    23     1    17
  5.3288247592029048E-01 a       458     0    23     1    18
  6.5532688189338217E-01 a       459     0    23     1    19
  1.8054094107312157E-01 a       460     0    23     1    20
 -1.6046066755990501E-01 a       461     0    24     1     1
 -3.6768265979793319E-01 a       462     0    24     1     2
 -7.0665988314768807E-02 a       463     0    24     1     3
  9.3720354996987643E-01 a       464     0    24     1     4
  4.3859654727257302E-01 a       465     0    24     1     5
 -2.5560784667702743E+00 a       466     0    24     1     6
  9.4726347504454134E-01 a       467     0    24     1     7
  1.0758915304131991E+00 a       468     0    24     1     8
  1.8442972023010853E+00 a       469     0    24     1     9
  1.0486726614091830E+00 a       470     0    24     1    10
 -7.4456455135370428E-02 a       471     0    24     1    11
 -2.6020365379463839E-01 a       472     0    24     1    12
  3.4756173304256444E-01 a       473     0    24     1    13
  5.0658954452480598E-01 a       474     0    24     1    14
 -3.0571845586967489E-01 a       475     0    24     1    15
  1.0297535033133365E-01 a       476     0    24     1    16
  1.3792418220409515E+00 a       477     0    24     1    17
 -1.6042181643058624E+00 a       478     0    24     1    18
 -2.5243096160120645E-02 a       479     0    24     1    19
 -2.4035803684201626E+00 a       480     0    24     1    20
 -2.4167697697771531E-01 a       481     0    25     1     1
 -2.2468490954760680E+00 a       482     0    25     1     2
 -4.0562206742306217E-01 a       483     0    25     1     3
 -1.6216177060940582E+00 a       484     0    25     1     4
  1.5503481001951376E+00 a       485     0    25     1     5
  3.0402044754656568E+00 a       486     0    25     1     6
  9.8662672203488033E-01 a       487     0    25     1     7
  9.3452407735505150E-01 a       488     0    25     1     8
 -2.5562077963418743E+00 a       489     0    25     1     9
 -1.4749438205127821E+00 a       490     0    25     1    10
 -4.9786056955997721E-01 a       491     0    25     1    11
 -5.3472702141863659E-01 a       492     0    25     1    12
 -6.5238990428551646E-01 a       493     0    25     1    13
 -2.8936728903628078E-01 a       494     0    25     1    14
 -5.0632682509514615E-01 a       495     0    25     1    15
 -8.2628890603740723E-01 a       496     0    25     1    16
 -2.6752371218754595E-01 a       497     0    25     1    17
 -2.0773504721007674E+00 a       498     0    25     1    18
  1.7744272697919974E-01 a       499     0    25     1    19
  8.9539647560321867E-01 a       500     0    25     1    20
  5.6772669311725033E-01 a       501     0    26     1     1
  2.6357261781898664E+00 a       502     0    26     1     2
  1.3845522402924055E+00 a       503     0    26     1     3
 -8.4621659579946429E-01 a       504     0    26     1     4
 -3.3560778629392474E-01 a       505     0    26     1     5
 -2.6406581417786219E+00 a       506     0    26     1     6
  4.0810271829860502E-02 a       507     0    26     1     7
 -1.4498784368429163E+00 a       508     0    26     1     8
 -4.6867614100196869E-01 a       509     0    26     1     9
  3.2872848976586566E-01 a       510     0    26     1    10
 -7.9511769960362622E-01 a       511     0    26     1    11
  1.4311762845209122E+00 a       512     0    26     1    12
  7.2767320385148893E-01 a       513     0    26     1    13
 -1.5133743817123928E+00 a       514     0    26     1    14
  7.3627621960677969E-01 a       515     0    26     1    15
 -1.5491991075248521E+00 a       516     0    26     1    16
  7.6995836180760535E-01 a       517     0    26     1    17
  5.5652560791536543E-01 a       518     0    26     1    18
 -2.6879296606057395E+00 a       519     0    26     1    19
  5.9543433966099582E-02 a       520     0    26     1    20
  5.3796473920687315E-02 a       521     0    27     1     1
  9.6877655168992799E-02 a       522     0    27     1     2
  4.9372456629568118E-01 a       523     0    27     1     3
 -1.9311782247685045E+00 a       524     0    27     1     4
  1.3944398924035031E-01 a       525     0    27     1     5
 -9.8451033418247269E-01 a       526     0    27     1     6
 -1.5527502203001027E+00 a       527     0    27     1     7
  9.6827351946302842E-01 a       528     0    27     1     8
 -1.1729177291524908E+00 a       529     0    27     1     9
  1.6700152998066164E+00 a       530     0    27     1    10
  1.2974215185975824E+00 a       531     0    27     1    11
 -1.6259938939928975E-01 a       532     0    27     1    12
  6.8353979602553472E-01 a       533     0    27     1    13
 -9.8084570814282945E-01 a       534     0    27     1    14
  1.4340869070957334E+00 a       535     0    27     1    15
 -1.0311560884914588E+00 a       536     0    27     1    16
  1.8471138707729757E+00 a       537     0    27     1    17
  1.6063631252241135E+00 a       538     0    27     1    18
  9.1997276009113838E-01 a       539     0    27     1    19
  1.0940952071380432E+00 a       540     0    27     1    20
  2.4907162427832819E+00 a       541     0    28     1     1
  5.0653335103227048E-01 a       542     0    28     1     2
 -1.5363161258570897E+00 a       543     0    28     1     3
 -2.8271348784151262E-01 a       544     0    28     1     4
 -1.9975783581181912E-02 a       545     0    28     1     5
  2.7728611152214007E+00 a       546     0    28     1     6
 -1.2774197069621460E+00 a       547     0    28     1     7
  1.5807931567473756E+00 a       548     0    28     1     8
  1.4144812992759781E+00 a       549     0    28     1     9
 -6.4049209061733092E-01 a       550     0    28     1    10
 -1.4226041591856209E+00 a       551     0    28     1    11
  5.0269973323431937E-02 a       552     0    28     1    12
  1.2988691904889973E-01 a       553     0    28     1    13
 -1.7056678058105534E+00 a       554     0    28     1    14
 -5.1906314623416638E-01 a       555     0    28     1    15
  2.5365231195897535E+00 a       556     0    28     1    16
  1.0437317582715677E+00 a       557     0    28     1    17
 -1.4789279863597513E+00 a       558     0    28     1    18
 -5.8453656187140590E-01 a       559     0    28     1    19
 -1.4553740190394493E-01 a       560     0    28     1    20
  8.8013296333139568E-01 a       561     0    29     1     1
 -4.3005719398556075E-01 a       562     0    29     1     2
  5.9974023392747966E-01 a       563     0    29     1     3
  1.0977942664057876E-02 a       564     0    29     1     4
 -4.9029245537561710E-02 a       565     0    29     1     5
 -2.9685339257350525E+00 a       566     0    29     1     6
  3.6413706745721180E-01 a       567     0    29     1     7
  9.4095431704832688E-01 a       568     0    29     1     8
 -1.3515553647511450E-01 a       569     0    29     1     9
  7.9014269864429121E-01 a       570     0    29     1    10
  1.9337636842291553E-01 a       571     0    29     1    11
 -1.0765887354773667E+00 a       572     0    29     1    12
  3.8648968879212131E-01 a       573     0    29     1    13
 -2.9258019778505412E-01 a       574     0    29     1    14
 -3.0859239747594889E-02 a       575     0    29     1    15
  9.0968544898639356E-02 a       576     0    29     1    16
  3.9095568548556214E-01 a       577     0    29     1    17
 -6.1600862675729684E-01 a       578     0    29     1    18
 -8.4322047755947416E-03 a       579     0    29     1    19
 -1.4786157911586622E+00 a       580     0    29     1    20
  1.3874049589947923E+00 a       581     0    30     1     1
  3.0179663749978385E+00 a       582     0    30     1     2
  1.2271149046389793E+00 a       583     0    30     1     3
  3.8678308138483647E-01 a       584     0    30     1     4
 -4.1625231447145211E-01 a       585     0    30     1     5
  2.4490468926204154E+00 a       586     0    30     1     6
 -3.1537757829474683E-01 a       587     0    30     1     7
  1.5907849694281400E+00 a       588     0    30     1     8
 -6.4411283287869228E-02 a       589     0    30     1     9
  5.5202620289653226E-02 a       590     0    30     1    10
 -1.3706836614092255E+00 a       591     0    30     1    11
  2.5182555444495209E+00 a       592     0    30     1    12
  1.1960748606076523E+00 a       593     0    30     1    13
  4.6546394647005318E-01 a       594     0    30     1    14
 -8.3566182290442614E-01 a       595     0    30     1    15
  1.3185863906091433E+00 a       596     0    30     1    16
  3.0105819919196153E-01 a       597     0    30     1    17
 -5.5430053495280085E-01 a       598     0    30     1    18
  1.2905738277997059E+00 a       599     0    30     1    19
 -2.2336147007225873E+00 a       600     0    30     1    20
 -2.1486301664701437E+00 a       601     0    31     1     1
  9.5326673026898545E-01 a       602     0    31     1     2
 -1.2572580733796757E+00 a       603     0    31     1     3
  3.7390469906188872E-01 a       604     0    31     1     4
  1.4508900106151084E+00 a       605     0    31     1     5
 -5.6357861909685703E-01 a       606     0    31     1     6
 -1.6874214906541618E+00 a       607     0    31     1     7
  6.6435368791729210E-01 a       608     0    31     1     8
  9.1689384134054142E-01 a       609     0    31     1     9
  2.8841951743314320E+00 a       610     0    31     1    10
 -1.8588443307539284E+00 a       611     0    31     1    11
 -4.0624586526240875E-01 a       612     0    31     1    12
 -6.2390978047083678E-01 a       613     0    31     1    13
 -2.9779645863984094E+00 a       614     0    31     1    14
  1.6750838568502975E+00 a       615     0    31     1    15
 -1.6097856345659078E+00 a       616     0    31     1    16
  9.7379621124278548E-01 a       617     0    31     1    17
  1.7586643792336440E+00 a       618     0    31     1    18
  8.5548934015036882E-01 a       619     0    31     1    19
  1.7755935102978169E+00 a       620     0    31     1    20
  9.0527000273471481E-01 a       621     0    32     1     1
  5.7641247723016209E-01 a       622     0    32     1     2
  2.1052978330889029E+00 a       623     0    32     1     3
 -2.3925843649964547E+00 a       624     0    32     1     4
  1.9364000524966349E+00 a       625     0    32     1     5
  8.4553567014512365E-01 a       626     0    32     1     6
 -4.2771913658839666E-01 a       627     0    32     1     7
  1.5507389615031930E-01 a       628     0    32     1     8
 -4.6294008449109079E+00 a       629     0    32     1     9
  5.0039632751802774E+00 a       630     0    32     1    10
 -5.3643343486691208E-01 a       631     0    32     1    11
  1.4437009643439964E+00 a       632     0    32     1    12
 -1.4374851786611353E+00 a       633     0    32     1    13
  7.4387878080911085E-01 a       634     0    32     1    14
  1.6911173040062688E+00 a       635     0    32     1    15
  5.3279012718470860E-02 a       636     0    32     1    16
  7.5095928140574375E-01 a       637     0    32     1    17
  2.5046285560574448E+00 a       638     0    32     1    18
  7.7703990100811304E-01 a       639     0    32     1    19
  4.3490234806418302E+00 a       640     0    32     1    20
 -1.5835680356656336E+00 a       641     0    33     1     1
 -1.1804475687121339E+00 a       642     0    33     1     2
 -3.1624277307224049E+00 a       643     0    33     1     3
  6.5942070786185036E-01 a       644     0    33     1     4
  1.8178930657890815E+00 a       645     0    33     1     5
 -6.4279500579569937E-01 a       646     0    33     1     6
 -4.0259036014346850E-01 a       647     0    33     1     7
 -1.3659882030525672E+00 a       648     0    33     1     8
  2.8392768451843562E+00 a       649     0    33     1     9
  8.9140988496599671E-01 a       650     0    33     1    10
 -2.3676837682629182E-01 a       651     0    33     1    11
 -1.1099900447741304E+00 a       652     0    33     1    12
  1.9873697362822043E+00 a       653     0    33     1    13
  4.2965516693207834E-01 a       654     0    33     1    14
  6.6438798122906617E-01 a       655     0    33     1    15
  1.7479101850750376E+00 a       656     0    33     1    16
 -3.0512460625785776E-01 a       657     0    33     1    17
  1.8997841619323400E-01 a       658     0    33     1    18
 -1.4944201661311234E+00 a       659     0    33     1    19
 -1.4003320481104100E+00 a       660     0    33     1    20
  2.5481472454702545E+00 a       661     0    34     1     1
  5.3357329718123270E-01 a       662     0    34     1     2
 -1.1658594292821407E+00 a       663     0    34     1     3
  9.8145039940679502E-01 a       664     0    34     1     4
 -1.4627040061782088E+00 a       665     0    34     1     5
 -9.5133755709292755E-01 a       666     0    34     1     6
 -4.7468032185431464E-01 a       667     0    34     1     7
 -8.7603326345507815E-01 a       668     0    34     1     8
  4.7770190574536708E-01 a       669     0    34     1     9
 -3.4842094898012613E-02 a       670     0    34     1    10
 -7.3055393369280830E-01 a       671     0    34     1    11
  7.7139161307247994E-03 a       672     0    34     1    12
 -1.4694411638754887E+00 a       673     0    34     1    13
 -1.9979912062993410E+00 a       674     0    34     1    14
 -1.5267772899220067E+00 a       675     0    34     1    15
 -2.9382208489592465E-01 a       676     0    34     1    16
 -1.0389194231920740E+00 a       677     0    34     1    17
 -1.3056519540348528E+00 a       678     0    34     1    18
 -2.0521511408847448E-02 a       679     0    34     1    19
 -1.7156668615511478E-01 a       680     0    34     1    20
 -1.7171319202437183E+00 a       681     0    35     1     1
  2.2483200310825791E-01 a       682     0    35     1     2
 -4.2578600164594604E-01 a       683     0    35     1     3
 -1.8724177729437159E+00 a       684     0    35     1     4
  2.0089685855189951E-01 a       685     0    35     1     5
 -8.8230779582050090E-01 a       686     0    35     1     6
 -2.6725904809289180E-01 a       687     0    35     1     7
 -9.8071613037226490E-01 a       688     0    35     1     8
  6.2873934541160248E-01 a       689     0    35     1     9
 -2.0660232669927501E+00 a       690     0    35     1    10
 -6.6222601013579696E-01 a       691     0    35     1    11
 -1.0291790705803117E+00 a       692     0    35     1    12
 -4.9353060216553672E-03 a       693     0    35     1    13
  1.3769491749935328E+00 a       694     0    35     1    14
 -4.2671135807750193E-01 a       695     0    35     1    15
  1.3403524014693469E+00 a       696     0    35     1    16
 -1.6361341297361918E+00 a       697     0    35     1    17
  2.4546212062072342E-01 a       698     0    35     1    18
 -2.9732019016041239E-01 a       699     0    35     1    19
  7.6852114697732288E-01 a       700     0    35     1    20
  6.9884839533192589E-01 a       701     0    36     1     1
 -1.8451914007398409E+00 a       702     0    36     1     2
 -1.2006177343689448E+00 a       703     0    36     1     3
 -4.2260715311623087E-01 a       704     0    36     1     4
 -4.4644429734022484E-01 a       705     0    36     1     5
 -1.3788825362993913E+00 a       706     0    36     1     6
  1.5688588543752155E-01 a       707     0    36     1     7
  5.5878019179869731E-01 a       708     0    36     1     8
  1.0042303336510250E+00 a       709     0    36     1     9
  1.7108563733815891E+00 a       710     0    36     1    10
  1.3362451327744238E+00 a       711     0    36     1    11
 -7.9990030005787049E-01 a       712     0    36     1    12
 -6.7608186548364491E-01 a       713     0    36     1    13
  2.2563888650550452E+00 a       714     0    36     1    14
  1.5978501362500712E+00 a       715     0    36     1    15
 -6.4919741943799303E-01 a       716     0    36     1    16
 -1.5307440139047575E+00 a       717     0    36     1    17
 -3.5238703402427374E-01 a       718     0    36     1    18
 -1.3460565070314226E-01 a       719     0    36     1    19
  3.5727166059796747E+00 a       720     0    36     1    20
  3.6281105518278300E-01 a       721     0    37     1     1
 -4.1923855609215460E-01 a       722     0    37     1     2
 -1.2939724854632682E+00 a       723     0    37     1     3
 -2.1163732066309415E+00 a       724     0    37     1     4
  3.7917594964922946E-02 a       725     0    37     1     5
  1.2044652647904430E+00 a       726     0    37     1     6
 -1.4257810712196972E+00 a       727     0    37     1     7
 -1.6173406239036372E-02 a       728     0    37     1     8
  2.8948926756261406E-01 a       729     0    37     1     9
  1.3536663953075481E+00 a       730     0    37     1    10
  1.2505191532369793E+00 a       731     0    37     1    11
 -1.2299839338152990E-01 a       732     0    37     1    12
 -2.6348674727968757E+00 a       733     0    37     1    13
 -6.1414371466581674E-01 a       734     0    37     1    14
  2.3266315814075447E-01 a       735     0    37     1    15
 -8.3786505575574854E-01 a       736     0    37     1    16
 -3.8334438241790209E-01 a       737     0    37     1    17
  6.3537327386398434E-01 a       738     0    37     1    18
 -3.0098083679270876E-01 a       739     0    37     1    19
  7.0321789132234302E-01 a       740     0    37     1    20
 -2.2524648171835202E+00 a       741     0    38     1     1
 -5.6738755094106419E-01 a       742     0    38     1     2
 -7.1299162735742572E-01 a       743     0    38     1     3
 -5.5943385687788261E-01 a       744     0    38     1     4
  2.2851494850572811E+00 a       745     0    38     1     5
  1.6112670202897663E+00 a       746     0    38     1     6
  2.6906658106626034E+00 a       747     0    38     1     7
 -8.1374770834956367E-01 a       748     0    38     1     8
 -2.2354624266421026E+00 a       749     0    38     1     9
  9.1650446267622343E-01 a       750     0    38     1    10
  1.0394102158023277E+00 a       751     0    38     1    11
 -5.6720887773597495E-01 a       752     0    38     1    12
 -3.7872857107883828E-01 a       753     0    38     1    13
 -2.3351831160900289E+00 a       754     0    38     1    14
 -9.8359913567557056E-01 a       755     0    38     1    15
  7.2696736221758851E-01 a       756     0    38     1    16
 -9.1793248685948226E-01 a       757     0    38     1    17
  4.5513884271792776E-01 a       758     0    38     1    18
  4.7464258524335910E-02 a       759     0    38     1    19
 -2.1140650834127714E-01 a       760     0    38     1    20
  3.9699142625991690E-01 a       761     0    39     1     1
 -7.7229173028561904E-01 a       762     0    39     1     2
  3.6418334311547057E-01 a       763     0    39     1     3
 -9.8010772370498878E-01 a       764     0    39     1     4
  1.1844527196594638E-01 a       765     0    39     1     5
  1.6029331391755615E+00 a       766     0    39     1     6
  3.3248701824796717E-01 a       767     0    39     1     7
  4.4066993810765431E-01 a       768     0    39     1     8
 -1.1734253837786479E+00 a       769     0    39     1     9
  6.9173759574141880E-01 a       770     0    39     1    10
  1.7390620952417044E+00 a       771     0    39     1    11
 -5.0939817520946873E-01 a       772     0    39     1    12
 -8.9293678796927112E-01 a       773     0    39     1    13
 -2.0087918708359225E+00 a       774     0    39     1    14
  1.1754170290438379E+00 a       775     0    39     1    15
 -3.8791505200728266E-01 a       776     0    39     1    16
 -5.2998641255613488E-01 a       777     0    39     1    17
  6.2069804473250456E-01 a       778     0    39     1    18
  3.1944400988624294E-01 a       779     0    39     1    19
 -3.9842576083884740E-01 a       780     0    39     1    20
 -1.6315324966325886E+00 a       781     0    40     1     1
 -1.1738627366244900E+00 a       782     0    40     1     2
  1.2296852497715121E+00 a       783     0    40     1     3
  5.6130813323797724E-01 a       784     0    40     1     4
 -2.7239171276338831E-01 a       785     0    40     1     5
  1.0517758206991452E+00 a       786     0    40     1     6
 -2.5208090087154145E+00 a       787     0    40     1     7
  1.0331635092216060E+00 a       788     0    40     1     8
 -1.0669973505525747E+00 a       789     0    40     1     9
 -1.9543891635146471E-01 a       790     0    40     1    10
 -1.0990406902721477E+00 a       791     0    40     1    11
  3.3958845032315423E-02 a       792     0    40     1    12
 -9.2769252064562291E-01 a       793     0    40     1    13
  5.9582836667214056E-01 a       794     0    40     1    14
  3.3102248393857479E+00 a       795     0    40     1    15
 -2.0228519882890494E+00 a       796     0    40     1    16
  5.5694254968020074E-01 a       797     0    40     1    17
  2.8368870537400981E+00 a       798     0    40     1    18
  1.6614229161796792E+00 a       799     0    40     1    19
  1.3410156670306292E+00 a       800     0    40     1    20
 -4.9981943573665183E-01 a       801     0    41     1     1
 -2.8197996101178607E-01 a       802     0    41     1     2
  2.2499294690168675E-01 a       803     0    41     1     3
  2.3570930185931127E-01 a       804     0    41     1     4
  1.6253901784449982E+00 a       805     0    41     1     5
 -8.0526716358850406E-02 a       806     0    41     1     6
  1.2244368629709375E+00 a       807     0    41     1     7
 -1.9559775240338914E-01 a       808     0    41     1     8
 -2.2542870062520599E+00 a       809     0    41     1     9
  2.6011249471510850E-01 a       810     0    41     1    10
  8.7443959593376719E-01 a       811     0    41     1    11
 -1.1931329305309182E+00 a       812     0    41     1    12
  1.2416005708084159E+00 a       813     0    41     1    13
  1.4540856930152732E-01 a       814     0    41     1    14
 -1.7857582671732317E+00 a       815     0    41     1    15
  1.0511617161103357E+00 a       816     0    41     1    16
  3.2972272098331590E-01 a       817     0    41     1    17
 -4.5811673414471199E-01 a       818     0    41     1    18
 -5.2074209334716925E-01 a       819     0    41     1    19
 -1.9276746946935081E-01 a       820     0    41     1    20
  1.0706664153793215E+00 a       821     0    42     1     1
 -8.4667932589670136E-01 a       822     0    42     1     2
  1.3769558139911460E+00 a       823     0    42     1     3
  2.9882387141940864E-01 a       824     0    42     1     4
 -1.5516582782421811E+00 a       825     0    42     1     5
 -7.0639943662713911E-01 a       826     0    42     1     6
  4.0014872908173036E+00 a       827     0    42     1     7
 -2.9443225835850734E-01 a       828     0    42     1     8
  6.2770211078176019E-01 a       829     0    42     1     9
  5.7990769454395086E-01 a       830     0    42     1    10
  3.9350034009219770E-01 a       831     0    42     1    11
 -1.3397681080514241E+00 a       832     0    42     1    12
 -1.0011998870810286E+00 a       833     0    42     1    13
  2.2331594884658150E+00 a       834     0    42     1    14
  1.4488111054898398E+00 a       835     0    42     1    15
  8.8109560246005902E-01 a       836     0    42     1    16
 -2.6517760427719916E-01 a       837     0    42     1    17
  6.2916609290460213E-01 a       838     0    42     1    18
  3.4290120850154113E+00 a       839     0    42     1    19
  2.8360717928650581E-01 a       840     0    42     1    20
  2.0597253505529389E-02 a       841     0    43     1     1
  3.7349193911817374E-01 a       842     0    43     1     2
  1.3470974682056391E+00 a       843     0    43     1     3
 -1.6104109208967710E+00 a       844     0    43     1     4
  1.1730537025554206E-02 a       845     0    43     1     5
 -4.9173343713359657E-01 a       846     0    43     1     6
  2.0271036152776576E+00 a       847     0    43     1     7
 -7.1582704760769766E-01 a       848     0    43     1     8
 -2.0448752233186602E+00 a       849     0    43     1     9
 -1.9943734755903852E-01 a       850     0    43     1    10
 -4.8220572760906094E-01 a       851     0    43     1    11
  6.1919194921433329E-01 a       852     0    43     1    12
 -3.2965270409991430E+00 a       853     0    43     1    13
  3.2203807424020381E-01 a       854     0    43     1    14
 -7.5530447775415371E-02 a       855     0    43     1    15
  1.3385274802509315E+00 a       856     0    43     1    16
  1.2287937709983243E+00 a       857     0    43     1    17
  1.6924715648504760E+00 a       858     0    43     1    18
 -6.1479268404109755E-01 a       859     0    43     1    19
  2.2407227709478965E+00 a       860     0    43     1    20
 -3.8975771138468207E-01 a       861     0    44     1     1
  1.4403439761094636E+00 a       862     0    44     1     2
  3.8860666311908855E-02 a       863     0    44     1     3
  1.0211246840806454E+00 a       864     0    44     1     4
  1.2814284415272053E+00 a       865     0    44     1     5
  1.5521151475270036E+00 a       866     0    44     1     6
  4.4892160415599891E-01 a       867     0    44     1     7
  1.9517627876795041E+00 a       868     0    44     1     8
 -2.6926175141955655E+00 a       869     0    44     1     9
 -2.0251318866890324E+00 a       870     0    44     1    10
 -2.4747093545075718E-01 a       871     0    44     1    11
 -7.9181919679521995E-01 a       872     0    44     1    12
 -1.3394195476320003E+00 a       873     0    44     1    13
 -2.0480544660817940E-01 a       874     0    44     1    14
 -2.0306596852447050E+00 a       875     0    44     1    15
 -2.7741740700406958E-01 a       876     0    44     1    16
 -4.5024574842419562E-01 a       877     0    44     1    17
 -9.0415753561366030E-01 a       878     0    44     1    18
 -2.2545878580639811E-01 a       879     0    44     1    19
 -1.2580965009604863E+00 a       880     0    44     1    20
  3.1611645592073434E-01 a       881     0    45     1     1
  6.8507581768939418E-01 a       882     0    45     1     2
  1.0864329288217054E+00 a       883     0    45     1     3
 -1.3784574971297483E+00 a       884     0    45     1     4
 -8.4073984581986005E-01 a       885     0    45     1     5
 -9.5263136882950572E-01 a       886     0    45     1     6
 -2.9785237056431288E+00 a       887     0    45     1     7
 -1.5299730926803454E+00 a       888     0    45     1     8
 -8.8203359661721914E-01 a       889     0    45     1     9
  1.0289838897484322E+00 a       890     0    45     1    10
 -1.7672442489123696E-01 a       891     0    45     1    11
 -9.3374883668209574E-01 a       892     0    45     1    12
  9.9337890025638687E-01 a       893     0    45     1    13
  2.4041349289331917E+00 a       894     0    45     1    14
 -5.4050116571420692E-01 a       895     0    45     1    15
 -1.7530406549544020E-01 a       896     0    45     1    16
  1.8393386774943701E+00 a       897     0    45     1    17
 -7.9865524855464043E-01 a       898     0    45     1    18
  4.3423455754862589E-01 a       899     0    45     1    19
 -7.5148989382378614E-02 a       900     0    45     1    20
 -1.3340433541793817E+00 a       901     0    46     1     1
  4.9475085947360375E-01 a       902     0    46     1     2
 -3.6781218530159643E-01 a       903     0    46     1     3
  1.4137612302189890E+00 a       904     0    46     1     4
  1.2112257818669293E-01 a       905     0    46     1     5
 -2.0163646903046937E+00 a       906     0    46     1     6
 -1.5147443677586099E+00 a       907     0    46     1     7
  4.5768414955363862E-01 a       908     0    46     1     8
 -1.0922108845777856E+00 a       909     0    46     1     9
 -2.1847904599787054E+00 a       910     0    46     1    10
 -3.8847941905644565E+00 a       911     0    46     1    11
  2.6320548480319461E-01 a       912     0    46     1    12
 -1.4861546755642825E+00 a       913     0    46     1    13
  6.0371068382710245E-02 a       914     0    46     1    14
 -3.4245236268395343E+00 a       915     0    46     1    15
 -1.6552372673068069E-01 a       916     0    46     1    16
  8.0243397279129869E-01 a       917     0    46     1    17
  1.3506941418763163E+00 a       918     0    46     1    18
 -2.3333467340043041E+00 a       919     0    46     1    19
 -2.7400786556340266E+00 a       920     0    46     1    20
  1.6122605714536467E+00 a       921     0    47     1     1
  3.2021317131898086E-01 a       922     0    47     1     2
 -7.4131360389511725E-01 a       923     0    47     1     3
  1.2359180953733555E+00 a       924     0    47     1     4
 -1.5682977060139109E+00 a       925     0    47     1     5
  1.1787983218680993E+00 a       926     0    47     1     6
  9.7033793116940015E-01 a       927     0    47     1     7
  1.6148823087227280E+00 a       928     0    47     1     8
  5.7600089422220624E-01 a       929     0    47     1     9
  8.2914980075792699E-01 a       930     0    47     1    10
 -1.5989684561291312E-01 a       931     0    47     1    11
 -3.3086666134566617E-01 a       932     0    47     1    12
  8.4129336415825562E-01 a       933     0    47     1    13
  5.4784944315502113E-02 a       934     0    47     1    14
 -8.4731065621296131E-01 a       935     0    47     1    15
  5.6906885762649784E-01 a       936     0    47     1    16
  3.2452678512561040E-01 a       937     0    47     1    17
 -7.6155390502535814E-01 a       938     0    47     1    18
  4.6488919703004694E-01 a       939     0    47     1    19
 -3.6009384413151602E-01 a       940     0    47     1    20
  1.3770425723999916E-01 a       941     0    48     1     1
  6.6149853075812703E-01 a       942     0    48     1     2
 -3.5560702817225848E-01 a       943     0    48     1     3
 -1.2245741833408597E-01 a       944     0    48     1     4
  2.1715289916821207E-01 a       945     0    48     1     5
 -1.1148460744691222E+00 a       946     0    48     1     6
 -9.1766819853397508E-01 a       947     0    48     1     7
 -7.2082244619990299E-01 a       948     0    48     1     8
  4.4884252426599887E-02 a       949     0    48     1     9
 -2.3406525610435414E-01 a       950     0    48     1    10
 -6.6259244882313617E-01 a       951     0    48     1    11
  6.3846905829408351E-01 a       952     0    48     1    12
 -1.9305847612580010E-01 a       953     0    48     1    13
 -3.7153463157907873E-01 a       954     0    48     1    14
  5.4101257043793549E-01 a       955     0    48     1    15
 -5.2590998801912658E-01 a       956     0    48     1    16
  2.0383493644696876E-01 a       957     0    48     1    17
  8.5582193272477580E-01 a       958     0    48     1    18
 -5.4882182447250749E-01 a       959     0    48     1    19
  1.7934825143850961E+00 a       960     0    48     1    20
  5.0860658948843873E-01 a       961     0    49     1     1
 -1.2505058686879618E+00 a       962     0    49     1     2
 -1.8703249069318397E+00 a       963     0    49     1     3
  2.5749089083648280E-01 a       964     0    49     1     4
  1.7847354160912003E+00 a       965     0    49     1     5
 -1.0835967384967680E+00 a       966     0    49     1     6
  1.8599765150949443E-01 a       967     0    49     1     7
 -1.9726978168510337E-02 a       968     0    49     1     8
 -4.1328841563296964E-01 a       969     0    49     1     9
 -1.3954124356539304E+00 a       970     0    49     1    10
  1.5143447511169832E+00 a       971     0    49     1    11
 -1.0188502125386325E+00 a       972     0    49     1    12
 -7.3899523894267449E-01 a       973     0    49     1    13
  2.0130859910416912E+00 a       974     0    49     1    14
  4.0900290157987740E-01 a       975     0    49     1    15
 -6.5495666269330055E-01 a       976     0    49     1    16
  9.4095712692554756E-01 a       977     0    49     1    17
 -8.1092801336646325E-01 a       978     0    49     1    18
  1.6798444513994883E+00 a       979     0    49     1    19
  1.4454883762040815E+00 a       980     0    49     1    20
  2.1731499012904898E-01 a       981     0    50     1     1
 -1.1004012845639575E+00 a       982     0    50     1     2
 -4.8933099861640128E-01 a       983     0    50     1     3
 -2.8635476006508409E-01 a       984     0    50     1     4
 -1.0551654905651433E+00 a       985     0    50     1     5
 -3.2719142590556699E-01 a       986     0    50     1     6
 -2.0050573969197014E+00 a       987     0    50     1     7
 -3.0627560514875352E-01 a       988     0    50     1     8
  4.7794764493107439E-01 a       989     0    50     1     9
 -6.3130503665345908E-02 a       990     0    50     1    10
  7.8022641599968690E-01 a       991     0    50     1    11
  3.4618698821381966E-01 a       992     0    50     1    12
 -3.6477264489115285E-01 a       993     0    50     1    13
  9.8847856750098295E-01 a       994     0    50     1    14
 -3.6330332628936690E-01 a       995     0    50     1    15
  5.1619942781406780E-01 a       996     0    50     1    16
  1.8789314432438953E-01 a       997     0    50     1    17
  5.2579692161167224E-01 a       998     0    50     1    18
  8.4410019934221953E-02 a       999     0    50     1    19
  7.3734814904215851E-01 a      1000     0    50     1    20
 -2.7329848134080206E+00 a      1001     0    51     1     1
 -3.7454015030148613E-01 a      1002     0    51     1     2
  3.4088303984591212E-01 a      1003     0    51     1     3
  7.1221205468352966E-01 a      1004     0    51     1     4
  1.2738398985421401E-01 a      1005     0    51     1     5
 -1.2758755435015252E+00 a      1006     0    51     1     6
  1.5181010777293829E+00 a      1007     0    51     1     7
  1.3204700717967250E+00 a      1008     0    51     1     8
 -1.4744963957253365E+00 a      1009     0    51     1     9
 -9.5585261536852384E-01 a      1010     0    51     1    10
 -7.3089005920349515E-01 a      1011     0    51     1    11
 -1.4214316370222331E+00 a      1012     0    51     1    12
 -4.2227055610756198E-01 a      1013     0    51     1    13
  4.7587068037257729E-01 a      1014     0    51     1    14
 -7.6055785723763258E-01 a      1015     0    51     1    15
  1.2642648712330826E+00 a      1016     0    51     1    16
  5.0460509958618083E-01 a      1017     0    51     1    17
 -5.5540632543529822E-01 a      1018     0    51     1    18
  7.6565028811077318E-01 a      1019     0    51     1    19
 -9.1608587442309719E-01 a      1020     0    51     1    20
  2.9815863857985259E-01 a      1021     0    52     1     1
 -3.1419347632392020E-01 a      1022     0    52     1     2
  7.8400456922269812E-01 a      1023     0    52     1     3
  4.7444657289769615E-01 a      1024     0    52     1     4
  1.6086278785055474E+00 a      1025     0    52     1     5
 -1.8564766725662821E-01 a      1026     0    52     1     6
  1.9322821275427067E+00 a      1027     0    52     1     7
 -1.5182561352660322E+00 a      1028     0    52     1     8
 -2.9354770650492723E-01 a      1029     0    52     1     9
  1.0115018953007515E+00 a      1030     0    52     1    10
  4.5982526438370880E-01 a      1031     0    52     1    11
  7.2525596231176681E-01 a      1032     0    52     1    12
 -5.4527595467070866E-01 a      1033     0    52     1    13
 -1.2822403427177091E+00 a      1034     0    52     1    14
 -4.4475794518496714E-01 a      1035     0    52     1    15
 -4.8263900464970128E-01 a      1036     0    52     1    16
 -8.1538820363069164E-01 a      1037     0    52     1    17
  1.0603653650508265E+00 a      1038     0    52     1    18
 -1.1290368503414655E-01 a      1039     0    52     1    19
  1.6923717574967254E+00 a      1040     0    52     1    20
  1.3203799193510684E+00 a      1041     0    53     1     1
  6.4414821819107160E-01 a      1042     0    53     1     2
  1.3007974678231046E-01 a      1043     0    53     1     3
 -1.2232945681394538E+00 a      1044     0    53     1     4
  1.4950845179577865E+00 a      1045     0    53     1     5
  1.0070874170628556E+00 a      1046     0    53     1     6
  4.8281920778886700E-01 a      1047     0    53     1     7
 -7.8763434620608208E-01 a      1048     0    53     1     8
 -1.6195724063770578E+00 a      1049     0    53     1     9
 -4.5621538243027593E-01 a      1050     0    53     1    10
  1.2424908569874866E+00 a      1051     0    53     1    11
 -2.3278474025036296E-02 a      1052     0    53     1    12
 -2.8192459284819096E+00 a      1053     0    53     1    13
 -1.8638011125619287E+00 a      1054     0    53     1    14
  6.3500104196458673E-01 a      1055     0    53     1    15
 -7.4979541285616080E-01 a      1056     0    53     1    16
  8.9327154095110506E-01 a      1057     0    53     1    17
  1.8779803197887592E+00 a      1058     0    53     1    18
  1.2768372896994182E+00 a      1059     0    53     1    19
  4.2628326860918525E-02 a      1060     0    53     1    20
 -9.8529368119081107E-01 a      1061     0    54     1     1
 -1.4115339949626724E+00 a      1062     0    54     1     2
  5.1748495083047874E-01 a      1063     0    54     1     3
 -9.9236560333009061E-01 a      1064     0    54     1     4
 -9.1945052862324173E-01 a      1065     0    54     1     5
 -7.8227217863804366E-01 a      1066     0    54     1     6
  3.7370362541172536E-01 a      1067     0    54     1     7
 -5.0703596748528745E-01 a      1068     0    54     1     8
 -5.3188845291304299E-01 a      1069     0    54     1     9
  8.1637304507875830E-01 a      1070     0    54     1    10
  2.5686599231769558E-01 a      1071     0    54     1    11
 -1.3021299247758675E+00 a      1072     0    54     1    12
  3.1690167400609170E+00 a      1073     0    54     1    13
  4.8874893071547537E-01 a      1074     0    54     1    14
 -6.3838371448565967E-01 a      1075     0    54     1    15
 -9.2447249571764267E-01 a      1076     0    54     1    16
 -8.5431069193846165E-01 a      1077     0    54     1    17
 -2.0032589583418661E-01 a      1078     0    54     1    18
 -9.3833470727885129E-02 a      1079     0    54     1    19
  3.0281058938677879E-01 a      1080     0    54     1    20
  1.0373830964111939E+00 a      1081     0    55     1     1
  8.7145995320785796E-01 a      1082     0    55     1     2
  1.1292205952704328E+00 a      1083     0    55     1     3
  6.1715719129594115E-01 a      1084     0    55     1     4
 -1.9115078585885721E+00 a      1085     0    55     1     5
 -6.0366960475165155E-01 a      1086     0    55     1     6
  7.9489925063303213E-01 a      1087     0    55     1     7
 -8.1121475757949679E-01 a      1088     0    55     1     8
  3.2012393701538279E-02 a      1089     0    55     1     9
  3.3276397528014368E-01 a      1090     0    55     1    10
  5.1006136652014145E-01 a      1091     0    55     1    11
 -7.4260485517519481E-01 a      1092     0    55     1    12
 -7.5829439801692045E-01 a      1093     0    55     1    13
  2.3451067065177633E+00 a      1094     0    55     1    14
  1.4352145912275813E-01 a      1095     0    55     1    15
  1.2406142041358037E+00 a      1096     0    55     1    16
 -2.0741793582501127E+00 a      1097     0    55     1    17
  1.0498546227488857E-01 a      1098     0    55     1    18
  1.4703453067520367E+00 a      1099     0    55     1    19
 -1.0492971392460395E+00 a      1100     0    55     1    20
 -1.2020440903435268E+00 a      1101     0    56     1     1
  1.8552015663442190E+00 a      1102     0    56     1     2
 -7.6265459621044551E-01 a      1103     0    56     1     3
 -1.3087739524218292E-01 a      1104     0    56     1     4
  1.6086260572685629E+00 a      1105     0    56     1     5
  2.0688742408392888E-01 a      1106     0    56     1     6
  1.8108504856450698E+00 a      1107     0    56     1     7
 -1.0753271754878146E+00 a      1108     0    56     1     8
 -1.8872663336075872E+00 a      1109     0    56     1     9
 -2.0530292623408193E+00 a      1110     0    56     1    10
  1.0666661682143008E+00 a      1111     0    56     1    11
  1.0992244055675935E+00 a      1112     0    56     1    12
 -2.2306888591297582E+00 a      1113     0    56     1    13
 -6.3613538139778181E-01 a      1114     0    56     1    14
 -1.5623823683876509E-01 a      1115     0    56     1    15
  1.1684602865348595E-01 a      1116     0    56     1    16
  2.5972573602195737E+00 a      1117     0    56     1    17
  1.2798836648424818E+00 a      1118     0    56     1    18
 -8.2819518938170666E-01 a      1119     0    56     1    19
  1.5174178737747843E+00 a      1120     0    56     1    20
 -3.3226467072032995E-01 a      1121     0    57     1     1
  1.9700058722469054E+00 a      1122     0    57     1     2
  1.5162274175402799E+00 a      1123     0    57     1     3
  1.4811553050576820E+00 a      1124     0    57     1     4
 -7.3431642244724693E-01 a      1125     0    57     1     5
  2.7473564990433990E+00 a      1126     0    57     1     6
  3.9042985171741451E-01 a      1127     0    57     1     7
  1.0503428278970146E+00 a      1128     0    57     1     8
 -1.1108163989477322E+00 a      1129     0    57     1     9
  8.3852765414132524E-01 a      1130     0    57     1    10
  1.0559556541947461E+00 a      1131     0    57     1    11
 -8.4241238507963745E-01 a      1132     0    57     1    12
 -1.4025114505674649E-01 a      1133     0    57     1    13
 -9.2889594453562685E-01 a      1134     0    57     1    14
  3.4924471809047467E-02 a      1135     0    57     1    15
 -3.5696158882680146E-01 a      1136     0    57     1    16
  4.8897354203507942E-01 a      1137     0    57     1    17
  8.7857258171391073E-01 a      1138     0    57     1    18
 -2.3933053550949410E-01 a      1139     0    57     1    19
 -1.9889554682940984E+00 a      1140     0    57     1    20
 -2.0500174394027848E+00 a      1141     0    58     1     1
  1.0997770118251153E+00 a      1142     0    58     1     2
  9.9879283866993007E-01 a      1143     0    58     1     3
  1.2648836219832671E+00 a      1144     0    58     1     4
 -1.4759589059020097E+00 a      1145     0    58     1     5
 -1.3171278881009612E+00 a      1146     0    58     1     6
 -7.9810317001150521E-01 a      1147     0    58     1     7
 -3.5063805087256311E-01 a      1148     0    58     1     8
  1.1409539187639570E+00 a      1149     0    58     1     9
  2.6125961730032712E+00 a      1150     0    58     1    10
 -1.9685075884523479E-02 a      1151     0    58     1    11
 -1.1367520483919205E+00 a      1152     0    58     1    12
  5.5662188339041396E-01 a      1153     0    58     1    13
  5.6515074712633884E-01 a      1154     0    58     1    14
 -2.7860530502761041E+00 a      1155     0    58     1    15
  1.7802173105983662E-01 a      1156     0    58     1    16
  5.0070397590485560E-01 a      1157     0    58     1    17
  4.7070852979050215E-01 a      1158     0    58     1    18
  5.1799708510145848E-01 a      1159     0    58     1    19
 -1.1363474475168858E+00 a      1160     0    58     1    20
  8.2004742264500430E-01 a      1161     0    59     1     1
  9.5165110755904869E-01 a      1162     0    59     1     2
 -1.5417539902062941E-01 a      1163     0    59     1     3
  1.3493692345802151E+00 a      1164     0    59     1     4
 -9.0275990856642363E-01 a      1165     0    59     1     5
 -9.6600110712489595E-01 a      1166     0    59     1     6
 -1.6113611333857883E-01 a      1167     0    59     1     7
 -1.2268048260058739E+00 a      1168     0    59     1     8
 -1.0154993201691609E+00 a      1169     0    59     1     9
  1.8511071568252204E+00 a      1170     0    59     1    10
 -9.7214810735920321E-01 a      1171     0    59     1    11
  7.7631675016158275E-01 a      1172     0    59     1    12
  4.1122787725355892E-01 a      1173     0    59     1    13
 -1.7249663138277602E+00 a      1174     0    59     1    14
 -3.7397530408525617E+00 a      1175     0    59     1    15
  7.7844627662610244E-01 a      1176     0    59     1    16
 -1.3773642420308008E+00 a      1177     0    59     1    17
  1.6966390343627904E+00 a      1178     0    59     1    18
 -2.0529707642547779E+00 a      1179     0    59     1    19
 -6.0251857694368682E-01 a      1180     0    59     1    20
 -5.2969981530699073E-01 a      1181     0    60     1     1
 -1.9619070617402754E+00 a      1182     0    60     1     2
  4.6559655866026017E-01 a      1183     0    60     1     3
  3.9622738450020298E+00 a      1184     0    60     1     4
  5.5504823071679997E-02 a      1185     0    60     1     5
 -4.6933987531635435E-01 a      1186     0    60     1     6
  4.2036627295389550E-01 a      1187     0    60     1     7
  2.4569403913542034E-02 a      1188     0    60     1     8
 -4.8825688652124555E-01 a      1189     0    60     1     9
 -2.7475823668104100E+00 a      1190     0    60     1    10
  8.2552951901951477E-01 a      1191     0    60     1    11
 -1.5798235569020569E+00 a      1192     0    60     1    12
 -1.8506528857613163E+00 a      1193     0    60     1    13
 -2.5319519543781874E+00 a      1194     0    60     1    14
  1.9848279722270423E+00 a      1195     0    60     1    15
  4.1084157501350876E-01 a      1196     0    60     1    16
 -2.4621427190426784E-01 a      1197     0    60     1    17
 -2.8544867031672949E-01 a      1198     0    60     1    18
 -2.4065565059054697E+00 a      1199     0    60     1    19
  3.4325014189076044E+00 a      1200     0    60     1    20
 -2.0388942545710549E+00 a      1201     0    61     1     1
 -3.8227796881620209E-02 a      1202     0    61     1     2
 -3.4273527246706660E-02 a      1203     0    61     1     3
 -7.8057838783393185E-01 a      1204     0    61     1     4
 -1.4611218595084587E+00 a      1205     0    61     1     5
  1.5707885967046729E+00 a      1206     0    61     1     6
 -1.0715195378220057E+00 a      1207     0    61     1     7
  2.9478499869969965E-01 a      1208     0    61     1     8
 -1.0090479531056422E+00 a      1209     0    61     1     9
 -1.8641182859530558E-01 a      1210     0    61     1    10
  4.0743386680568372E-02 a      1211     0    61     1    11
 -1.5564847054771704E+00 a      1212     0    61     1    12
  5.9118293619262263E-01 a      1213     0    61     1    13
  5.4738191363675037E-01 a      1214     0    61     1    14
 -3.1694927057138886E+00 a      1215     0    61     1    15
 -6.1275360095669951E-01 a      1216     0    61     1    16
 -3.1205048444890393E-01 a      1217     0    61     1    17
  3.9628755422633716E-01 a      1218     0    61     1    18
  9.5162566102398066E-02 a      1219     0    61     1    19
 -3.0972724318969602E-01 a      1220     0    61     1    20
 -3.2403933204318219E-01 a      1221     0    62     1     1
  1.5991761892218561E+00 a      1222     0    62     1     2
 -1.6231734612874424E+00 a      1223     0    62     1     3
 -2.2905065789869301E+00 a      1224     0    62     1     4
 -5.4993290854923471E-01 a      1225     0    62     1     5
 -1.3304009632612490E+00 a      1226     0    62     1     6
  8.0640053332524986E-01 a      1227     0    62     1     7
 -2.4801296747395960E+00 a      1228     0    62     1     8
  1.1473632384843442E+00 a      1229     0    62     1     9
 -9.2780211755601916E-01 a      1230     0    62     1    10
  5.2718571464652697E-01 a      1231     0    62     1    11
  1.2757206689388612E+00 a      1232     0    62     1    12
 -1.0686500159248591E+00 a      1233     0    62     1    13
 -2.6036545097122343E+00 a      1234     0    62     1    14
  6.5229869431037424E-01 a      1235     0    62     1    15
 -1.8432322023205783E+00 a      1236     0    62     1    16
 -1.6484693784081499E+00 a      1237     0    62     1    17
  1.8395179309740717E-01 a      1238     0    62     1    18
  6.6836151082303630E-01 a      1239     0    62     1    19
 -1.0470962415367659E+00 a      1240     0    62     1    20
  9.8520762182036969E-01 a      1241     0    63     1     1
  1.6402970012957694E+00 a      1242     0    63     1     2
  2.5730404507074485E+00 a      1243     0    63     1     3
 -3.0160643951217456E+00 a      1244     0    63     1     4
  2.5794958796296736E+00 a      1245     0    63     1     5
 -1.0973062325312761E+00 a      1246     0    63     1     6
 -1.9028761342326010E+00 a      1247     0    63     1     7
  5.8647400102153036E-01 a      1248     0    63     1     8
 -1.8392553985550895E+00 a      1249     0    63     1     9
 -3.9030950841393913E-01 a      1250     0    63     1    10
 -2.0913222856096692E+00 a      1251     0    63     1    11
 -1.7990082260742797E+00 a      1252     0    63     1    12
 -1.5635828970198056E+00 a      1253     0    63     1    13
  6.0645467555565191E-01 a      1254     0    63     1    14
  2.8340708868265647E+00 a      1255     0    63     1    15
 -1.6851960475618579E+00 a      1256     0    63     1    16
 -2.1731292014984258E+00 a      1257     0    63     1    17
 -3.8601900443102666E-01 a      1258     0    63     1    18
  1.3246762518166184E+00 a      1259     0    63     1    19
 -1.5315274843498097E+00 a      1260     0    63     1    20
 -6.6235135357662811E-01 a      1261     0    64     1     1
  9.2659853780751245E-01 a      1262     0    64     1     2
 -1.4632756831569722E+00 a      1263     0    64     1     3
 -3.9333482384753693E-01 a      1264     0    64     1     4
 -7.5604071639838777E-01 a      1265     0    64     1     5
 -2.2745146974822317E-01 a      1266     0    64     1     6
 -1.8554117447351093E-01 a      1267     0    64     1     7
  4.0216775035094776E-04 a      1268     0    64     1     8
 -6.5157273965533480E-01 a      1269     0    64     1     9
 -5.5665382377110550E-01 a      1270     0    64     1    10
  1.1564941599315559E+00 a      1271     0    64     1    11
 -5.1648025771028505E-01 a      1272     0    64     1    12
 -7.1731722597458192E-01 a      1273     0    64     1    13
 -1.5252512728301743E-01 a      1274     0    64     1    14
 -1.9575864493272954E+00 a      1275     0    64     1    15
  8.8958961517284318E-01 a      1276     0    64     1    16
  1.0420314395798089E+00 a      1277     0    64     1    17
  5.0656059841597678E-01 a      1278     0    64     1    18
  2.0915273565212830E-01 a      1279     0    64     1    19
  1.0922851361590125E+00 a      1280     0    64     1    20
 -8.0109810892064071E-01 a      1281     0    65     1     1
  5.1325994588767476E-01 a      1282     0    65     1     2
  7.4665001259756048E-01 a      1283     0    65     1     3
  3.1737687919527535E-01 a      1284     0    65     1     4
  8.3906954924726818E-01 a      1285     0    65     1     5
  6.3638126813114393E-01 a      1286     0    65     1     6
 -7.6928559536404928E-01 a      1287     0    65     1     7
 -3.9873062795658720E-01 a      1288     0    65     1     8
 -2.1239267069974113E+00 a      1289     0    65     1     9
 -2.1010156460833898E+00 a      1290     0    65     1    10
  1.6812774385858273E+00 a      1291     0    65     1    11
  5.6561051782948346E-01 a      1292     0    65     1    12
 -8.0746342736320087E-01 a      1293     0    65     1    13
  6.1565303226866841E-01 a      1294     0    65     1    14
  2.1205337843115024E+00 a      1295     0    65     1    15
  6.8346505213888409E-01 a      1296     0    65     1    16
  1.4479997368101234E+00 a      1297     0    65     1    17
 -6.2780922197811617E-01 a      1298     0    65     1    18
  1.4354820403755790E+00 a      1299     0    65     1    19
  1.4886514262341475E+00 a      1300     0    65     1    20
  1.6608538993753668E+00 a      1301     0    66     1     1
  1.2663774252621112E+00 a      1302     0    66     1     2
 -1.1788752041780561E+00 a      1303     0    66     1     3
 -9.4184293078322989E-01 a      1304     0    66     1     4
 -8.7606520463136761E-01 a      1305     0    66     1     5
  1.2278818792144224E-01 a      1306     0    66     1     6
  7.5400921932138276E-01 a      1307     0    66     1     7
  1.8394270584944314E+00 a      1308     0    66     1     8
  1.2422354592999552E+00 a      1309     0    66     1     9
 -1.3533270005758263E-01 a      1310     0    66     1    10
 -1.8842891012857081E+00 a      1311     0    66     1    11
 -2.0705871976459314E+00 a      1312     0    66     1    12
 -2.7539929818836399E+00 a      1313     0    66     1    13
  1.5296173001163462E+00 a      1314     0    66     1    14
  8.3257065171385791E-01 a      1315     0    66     1    15
  9.8776209550701510E-01 a      1316     0    66     1    16
  2.4728625365374013E+00 a      1317     0    66     1    17
 -1.8417138341421069E-01 a      1318     0    66     1    18
 -1.8687180322139667E+00 a      1319     0    66     1    19
 -7.0455710043950806E-02 a      1320     0    66     1    20
 -1.3321857988408650E+00 a      1321     0    67     1     1
  3.8687863598944167E-01 a      1322     0    67     1     2
 -1.4345997259851386E+00 a      1323     0    67     1     3
  1.6173668109957899E+00 a      1324     0    67     1     4
 -1.1035837005423970E+00 a      1325     0    67     1     5
  1.8644097021354487E+00 a      1326     0    67     1     6
  5.2019852289517776E-01 a      1327     0    67     1     7
  1.4481707872968865E+00 a      1328     0    67     1     8
  2.7481821900421335E+00 a      1329     0    67     1     9
 -1.4168755348655344E+00 a      1330     0    67     1    10
  4.0345152012240360E-01 a      1331     0    67     1    11
 -5.8896427450060207E-01 a      1332     0    67     1    12
  2.6789377740396985E+00 a      1333     0    67     1    13
  2.0131525406804753E+00 a      1334     0    67     1    14
 -4.3860029968088632E-01 a      1335     0    67     1    15
  9.6625659515429596E-01 a      1336     0    67     1    16
  2.4772828395719033E+00 a      1337     0    67     1    17
 -7.4415741359045148E-02 a      1338     0    67     1    18
  1.0750942041311422E+00 a      1339     0    67     1    19
 -2.0438368127768007E+00 a      1340     0    67     1    20
  5.9694938169698464E-01 a      1341     0    68     1     1
  1.2236268039177374E-01 a      1342     0    68     1     2
 -1.2372167310681763E+00 a      1343     0    68     1     3
 -9.0122471513447336E-02 a      1344     0    68     1     4
 -1.0211891559876156E-01 a      1345     0    68     1     5
  7.0376094869179062E-01 a      1346     0    68     1     6
 -1.6745274452902401E+00 a      1347     0    68     1     7
  3.5634794370594208E-01 a      1348     0    68     1     8
 -2.6431968173465858E-01 a      1349     0    68     1     9
  3.9550667603539602E-01 a      1350     0    68     1    10
  1.4425009957519080E-01 a      1351     0    68     1    11
  8.8588165130691898E-01 a      1352     0    68     1    12
  1.5248122522450275E-01 a      1353     0    68     1    13
 -7.1521298426611268E-01 a      1354     0    68     1    14
  5.0158950832683735E-01 a      1355     0    68     1    15
 -9.9036894089695560E-01 a      1356     0    68     1    16
  1.9969906930835557E+00 a      1357     0    68     1    17
  7.6419619224015933E-01 a      1358     0    68     1    18
 -1.0143460069972899E-02 a      1359     0    68     1    19
  1.9425319121515987E+00 a      1360     0    68     1    20
 -4.7301568383501663E-01 a      1361     0    69     1     1
  3.2321377744875862E-01 a      1362     0    69     1     2
  7.4206976076867426E-01 a      1363     0    69     1     3
  1.7834687695011924E+00 a      1364     0    69     1     4
  3.7054584691920822E+00 a      1365     0    69     1     5
 -4.0367787477473838E-01 a      1366     0    69     1     6
  2.7113617819863317E-01 a      1367     0    69     1     7
 -1.5273065991418056E-01 a      1368     0    69     1     8
 -1.3445817683167036E+00 a      1369     0    69     1     9
 -7.8902037561089633E-01 a      1370     0    69     1    10
 -7.0303390066654037E-01 a      1371     0    69     1    11
 -1.3550771028076058E+00 a      1372     0    69     1    12
 -5.9119005474587571E-01 a      1373     0    69     1    13
 -2.8270560696473013E-01 a      1374     0    69     1    14
  3.2144029458007090E-01 a      1375     0    69     1    15
  5.6171264084257289E-01 a      1376     0    69     1    16
  6.5556349256478175E-01 a      1377     0    69     1    17
 -1.5386885980381602E+00 a      1378     0    69     1    18
  1.3030915566359971E+00 a      1379     0    69     1    19
 -1.3639165984547565E+00 a      1380     0    69     1    20
  1.0792212801080108E+00 a      1381     0    70     1     1
 -1.1484653831505625E+00 a      1382     0    70     1     2
  2.0082251539957388E-01 a      1383     0    70     1     3
  2.3242755445444163E+00 a      1384     0    70     1     4
 -7.3262570006781091E-01 a      1385     0    70     1     5
 -1.3367103425803755E+00 a      1386     0    70     1     6
 -1.3371344417209712E+00 a      1387     0    70     1     7
 -5.8760883227153360E-01 a      1388     0    70     1     8
 -4.0801385758751463E-01 a      1389     0    70     1     9
 -1.3671860178516174E-01 a      1390     0    70     1    10
 -1.2715313917631046E+00 a      1391     0    70     1    11
 -8.2421489111380183E-02 a      1392     0    70     1    12
  1.4142821682008944E+00 a      1393     0    70     1    13
  3.0205341713778591E+00 a      1394     0    70     1    14
 -1.0791976715036695E-01 a      1395     0    70     1    15
  1.1622156665367553E+00 a      1396     0    70     1    16
 -7.1272057584447723E-01 a      1397     0    70     1    17
 -4.0596394645760890E-02 a      1398     0    70     1    18
  3.8726907113168063E-01 a      1399     0    70     1    19
  2.3161444265432266E-01 a      1400     0    70     1    20
 -2.7959718329776835E+00 a      1401     0    71     1     1
 -8.8956330033561870E-01 a      1402     0    71     1     2
  1.4311674950825326E+00 a      1403     0    71     1     3
  1.2265014188038721E+00 a      1404     0    71     1     4
 -1.2091724309238736E+00 a      1405     0    71     1     5
 -2.1915819379265731E+00 a      1406     0    71     1     6
  1.0398617040180744E+00 a      1407     0    71     1     7
  3.1421921388790819E-01 a      1408     0    71     1     8
  5.3953092700857075E-01 a      1409     0    71     1     9
 -6.4984549640183714E-02 a      1410     0    71     1    10
  2.0966351645491241E+00 a      1411     0    71     1    11
 -5.0283329348982697E-01 a      1412     0    71     1    12
  2.9767045577375589E-01 a      1413     0    71     1    13
  1.4215367360111142E+00 a      1414     0    71     1    14
 -2.6017891646100538E-01 a      1415     0    71     1    15
  2.3034652138116791E+00 a      1416     0    71     1    16
  2.2098332819292818E-01 a      1417     0    71     1    17
 -1.1175975747140543E+00 a      1418     0    71     1    18
  3.2579767263772186E+00 a      1419     0    71     1    19
 -3.8422288123736609E-01 a      1420     0    71     1    20
  2.5221307724628867E+00 a      1421     0    72     1     1
  2.5434054446659859E-01 a      1422     0    72     1     2
  1.0624949419683365E-01 a      1423     0    72     1     3
  7.3626777252459152E-01 a      1424     0    72     1     4
 -2.0950864145952355E-01 a      1425     0    72     1     5
 -2.1360773818373708E+00 a      1426     0    72     1     6
 -3.1922902622623672E-01 a      1427     0    72     1     7
 -1.7338746752793279E+00 a      1428     0    72     1     8
  1.1575495611224076E+00 a      1429     0    72     1     9
 -1.2031049496427920E-01 a      1430     0    72     1    10
  3.1726744032620480E-01 a      1431     0    72     1    11
  1.3971081957564362E+00 a      1432     0    72     1    12
 -1.1465806573403087E-01 a      1433     0    72     1    13
 -3.4874426348568999E-01 a      1434     0    72     1    14
  1.1399843777276192E-01 a      1435     0    72     1    15
  3.1843325709797488E-01 a      1436     0    72     1    16
 -7.3635561187530807E-01 a      1437     0    72     1    17
  1.0610721039324416E+00 a      1438     0    72     1    18
  1.6385029505973234E-01 a      1439     0    72     1    19
  2.7766662458450737E+00 a      1440     0    72     1    20
  2.0725612736093817E+00 a      1441     0    73     1     1
  7.2922554282501972E-01 a      1442     0    73     1     2
 -4.7855393835208965E-01 a      1443     0    73     1     3
 -4.2399391260223435E-01 a      1444     0    73     1     4
  2.6036857425563071E+00 a      1445     0    73     1     5
  2.3068531879274259E-01 a      1446     0    73     1     6
  1.3941701631643981E+00 a      1447     0    73     1     7
 -1.0725609505709310E+00 a      1448     0    73     1     8
 -1.4861690769972222E+00 a      1449     0    73     1     9
 -1.3849112875522585E+00 a      1450     0    73     1    10
  6.3575410035504576E-01 a      1451     0    73     1    11
 -5.8695650816043654E-01 a      1452     0    73     1    12
 -3.0142790614850323E+00 a      1453     0    73     1    13
 -7.2676351037540721E-01 a      1454     0    73     1    14
 -1.5086828114681428E+00 a      1455     0    73     1    15
  1.1367073181119003E+00 a      1456     0    73     1    16
  2.2085224378246417E+00 a      1457     0    73     1    17
  1.4280221957509613E+00 a      1458     0    73     1    18
  7.7928929542405700E-01 a      1459     0    73     1    19
  4.2289280718044264E-01 a      1460     0    73     1    20
 -1.4661017036668718E+00 a      1461     0    74     1     1
  3.2501314186987753E+00 a      1462     0    74     1     2
 -7.7412160809627728E-01 a      1463     0    74     1     3
 -5.8773137935548347E-01 a      1464     0    74     1     4
  3.8386464389585639E-01 a      1465     0    74     1     5
  1.9190940030237811E+00 a      1466     0    74     1     6
 -7.9738570684514687E-01 a      1467     0    74     1     7
 -1.0353633805754752E+00 a      1468     0    74     1     8
  4.6655467886395968E-01 a      1469     0    74     1     9
  1.1438938599446564E+00 a      1470     0    74     1    10
 -5.7951239934608478E-01 a      1471     0    74     1    11
  3.5165102577488666E-01 a      1472     0    74     1    12
 -1.7314002645800426E+00 a      1473     0    74     1    13
  1.6699789478357438E-01 a      1474     0    74     1    14
  1.5186927686794962E+00 a      1475     0    74     1    15
  2.8061944228710618E+00 a      1476     0    74     1    16
 -4.5193903527008966E-01 a      1477     0    74     1    17
 -3.4202146492370850E-01 a      1478     0    74     1    18
  8.4370331205831639E-01 a      1479     0    74     1    19
 -3.6559465902411542E-01 a      1480     0    74     1    20
  8.9708413774162710E-01 a      1481     0    75     1     1
 -3.1078735815481928E+00 a      1482     0    75     1     2
  2.8661496721397435E+00 a      1483     0    75     1     3
  7.0051018921459984E-01 a      1484     0    75     1     4
 -4.1280697619337543E+00 a      1485     0    75     1     5
 -1.3303511332163627E+00 a      1486     0    75     1     6
 -4.7501006927367839E-01 a      1487     0    75     1     7
 -2.1225353365846081E-01 a      1488     0    75     1     8
  6.3950211845629890E-01 a      1489     0    75     1     9
  1.7121494661331196E-01 a      1490     0    75     1    10
  8.5945837636467148E-01 a      1491     0    75     1    11
 -8.2629992123133555E-01 a      1492     0    75     1    12
  1.4297512344966030E+00 a      1493     0    75     1    13
 -4.3257201013641722E-01 a      1494     0    75     1    14
 -4.8595167968108244E-01 a      1495     0    75     1    15
 -3.3772139185512535E+00 a      1496     0    75     1    16
 -1.4977743277335187E-01 a      1497     0    75     1    17
 -3.6148798901321894E-01 a      1498     0    75     1    18
 -8.6396429890822668E-01 a      1499     0    75     1    19
 -1.6461069201114156E-01 a      1500     0    75     1    20
 -2.2392825276592498E+00 a      1501     0    76     1     1
  1.3417961445290589E+00 a      1502     0    76     1     2
  1.3790383560242414E+00 a      1503     0    76     1     3
 -2.6723281626039168E+00 a      1504     0    76     1     4
  5.3277197824002975E-01 a      1505     0    76     1     5
  1.5356006671894671E+00 a      1506     0    76     1     6
 -7.3193968411632238E-01 a      1507     0    76     1     7
 -4.9184026658560304E-01 a      1508     0    76     1     8
  1.2621449515852712E+00 a      1509     0    76     1     9
 -3.8157284829449600E+00 a      1510     0    76     1    10
  1.1756224899774743E+00 a      1511     0    76     1    11
 -3.3420082189282968E-01 a      1512     0    76     1    12
 -9.1186256214414207E-01 a      1513     0    76     1    13
  1.9430900826795179E+00 a      1514     0    76     1    14
  2.2104452230747151E-01 a      1515     0    76     1    15
  4.1760681524170112E-01 a      1516     0    76     1    16
 -1.9435467488892917E+00 a      1517     0    76     1    17
  9.4681851640413905E-01 a      1518     0    76     1    18
  9.4110539129183080E-01 a      1519     0    76     1    19
 -1.2457561552776879E-01 a      1520     0    76     1    20
 -1.5899264966768205E+00 a      1521     0    77     1     1
  6.1560670295190179E-01 a      1522     0    77     1     2
 -2.0975110157527834E+00 a      1523     0    77     1     3
  1.7289724436201137E+00 a      1524     0    77     1     4
  2.1353317642891270E+00 a      1525     0    77     1     5
  4.8127279964858360E-01 a      1526     0    77     1     6
  7.8819965673927683E-01 a      1527     0    77     1     7
  4.1046196633338156E-01 a      1528     0    77     1     8
 -3.0635008283576504E+00 a      1529     0    77     1     9
 -3.9822831505454253E+00 a      1530     0    77     1    10
  1.7253623826103326E+00 a      1531     0    77     1    11
 -2.5296041606406416E-02 a      1532     0    77     1    12
 -1.2479251402448792E+00 a      1533     0    77     1    13
 -2.1987079335689239E-01 a      1534     0    77     1    14
  2.2502199148541306E+00 a      1535     0    77     1    15
 -2.3625398507374253E+00 a      1536     0    77     1    16
  2.1479268851262030E+00 a      1537     0    77     1    17
  1.2506141927334160E+00 a      1538     0    77     1    18
 -4.4258436655495481E-01 a      1539     0    77     1    19
 -2.0270011248489377E+00 a      1540     0    77     1    20
 -4.6955635137126905E-01 a      1541     0    78     1     1
  2.0389990038715800E+00 a      1542     0    78     1     2
  2.0961893176327831E-01 a      1543     0    78     1     3
 -4.0790899158862542E-01 a      1544     0    78     1     4
  5.9026402282479995E-01 a      1545     0    78     1     5
  2.7633853478581205E+00 a      1546     0    78     1     6
 -1.7489205214013903E+00 a      1547     0    78     1     7
 -9.5002469400597989E-01 a      1548     0    78     1     8
 -2.7736806216518922E-01 a      1549     0    78     1     9
 -7.6095615067747063E-02 a      1550     0    78     1    10
  2.8712970645351898E+00 a      1551     0    78     1    11
  3.4510585396171667E-01 a      1552     0    78     1    12
 -1.5030764397143666E+00 a      1553     0    78     1    13
  8.9912157403882656E-02 a      1554     0    78     1    14
 -2.0487640299878174E+00 a      1555     0    78     1    15
 -9.2986356500189757E-02 a      1556     0    78     1    16
  1.5072717143641519E+00 a      1557     0    78     1    17
  1.2378948285800950E+00 a      1558     0    78     1    18
 -1.1098055407873754E-01 a      1559     0    78     1    19
 -5.0487706482442413E-02 a      1560     0    78     1    20
 -1.5753867317989574E+00 a      1561     0    79     1     1
 -3.6715444060892349E-01 a      1562     0    79     1     2
 -5.6474878533796813E-01 a      1563     0    79     1     3
  7.1382963555655188E-01 a      1564     0    79     1     4
 -1.7404830351926086E+00 a      1565     0    79     1     5
 -2.2814295192157288E+00 a      1566     0    79     1     6
  8.4501300257001963E-02 a      1567     0    79     1     7
  1.0794224756171518E+00 a      1568     0    79     1     8
  1.3480716637071910E+00 a      1569     0    79     1     9
 -2.4285246031377802E-01 a      1570     0    79     1    10
 -2.7327170464481923E-02 a      1571     0    79     1    11
 -5.3458611161384062E-01 a      1572     0    79     1    12
 -6.6058428193234364E-01 a      1573     0    79     1    13
  3.9474116640980905E-01 a      1574     0    79     1    14
 -3.4407627850756848E+00 a      1575     0    79     1    15
  6.1441772103638876E-03 a      1576     0    79     1    16
 -4.6411677919311617E-01 a      1577     0    79     1    17
  1.5590926265075740E+00 a      1578     0    79     1    18
  2.7885239358356597E-02 a      1579     0    79     1    19
 -4.2582914923865467E-01 a      1580     0    79     1    20
  1.8140823443841414E+00 a      1581     0    80     1     1
  2.0028103907751624E-01 a      1582     0    80     1     2
 -9.6785383038698791E-01 a      1583     0    80     1     3
 -2.1613215999896869E+00 a      1584     0    80     1     4
  8.3151430216667677E-01 a      1585     0    80     1     5
  1.3053375577378012E+00 a      1586     0    80     1     6
  1.1698623002268289E+00 a      1587     0    80     1     7
 -9.0770170790098703E-01 a      1588     0    80     1     8
 -5.5791522005727046E-01 a      1589     0    80     1     9
 -1.1108810778687737E+00 a      1590     0    80     1    10
 -4.8649982109138379E-01 a      1591     0    80     1    11
  1.4091416749422594E+00 a      1592     0    80     1    12
 -2.6186834702137118E+00 a      1593     0    80     1    13
  9.8116524735685939E-01 a      1594     0    80     1    14
  1.9744481729009331E+00 a      1595     0    80     1    15
  1.9832090886309826E+00 a      1596     0    80     1    16
  1.7723009265264686E-01 a      1597     0    80     1    17
 -1.0831675380743173E+00 a      1598     0    80     1    18
  9.8915811515536045E-01 a      1599     0    80     1    19
  1.6190212187031019E+00 a      1600     0    80     1    20
 -1.8014410465937833E-01 a      1601     0    81     1     1
  2.5032857151981885E-01 a      1602     0    81     1     2
  2.3934462567373762E+00 a      1603     0    81     1     3
 -3.2087590015055295E-01 a      1604     0    81     1     4
  1.3897624528623154E+00 a      1605     0    81     1     5
 -1.2486688512097517E+00 a      1606     0    81     1     6
  1.6545424558498607E+00 a      1607     0    81     1     7
 -1.5250538158161724E+00 a      1608     0    81     1     8
  5.1009628409336039E-02 a      1609     0    81     1     9
  7.8466428896269380E-01 a      1610     0    81     1    10
  1.9605079044569267E+00 a      1611     0    81     1    11
 -7.7703494983838550E-01 a      1612     0    81     1    12
  1.5152016899802609E+00 a      1613     0    81     1    13
 -3.1020784982276202E+00 a      1614     0    81     1    14
 -2.8665709831196384E-01 a      1615     0    81     1    15
  1.2178026860927440E+00 a      1616     0    81     1    16
  2.5912382063502428E+00 a      1617     0    81     1    17
 -1.7581301539763721E+00 a      1618     0    81     1    18
  1.6173029746736431E+00 a      1619     0    81     1    19
  3.5259092479109751E-02 a      1620     0    81     1    20
  1.3197052950395036E+00 a      1621     0    82     1     1
 -6.7611468178440970E-01 a      1622     0    82     1     2
  1.3685586599600024E+00 a      1623     0    82     1     3
