################################################################################
# Neural network connection values (weights and biases).
################################################################################
# Col  Name       Description
################################################################################
# 1    connection Neural network connection value.
# 2    t          Connection type (a = weight, b = bias).
# 3    index      Index enumerating weights.
# 4    l_s        Starting point layer (end point layer for biases).
# 5    n_s        Starting point neuron in starting layer (end point neuron for biases).
# 6    l_e        End point layer.
# 7    n_e        End point neuron in end layer.
################################################################################
#                      1 2         3     4     5     6     7
#             connection t     index   l_s   n_s   l_e   n_e
############################################################
 -3.9800015561747293E-01 a         1     0     1     1     1
  1.6069952400975576E+00 a         2     0     1     1     2
 -2.8009463170166606E+00 a         3     0     1     1     3
 -6.3519911551548991E-01 a         4     0     1     1     4
  1.3079327818152098E+00 a         5     0     1     1     5
  2.2753901562240366E+00 a         6     0     1     1     6
  2.4056328019801083E+00 a         7     0     1     1     7
 -2.8224295117266718E+00 a         8     0     1     1     8
 -2.7046939241677520E-01 a         9     0     1     1     9
  1.3457732202319739E+00 a        10     0     1     1    10
 -2.8368925672740724E+00 a        11     0     1     1    11
  2.6129391008570559E+00 a        12     0     1     1    12
 -2.1436715465543243E+00 a        13     0     1     1    13
 -2.1825016219408244E+00 a        14     0     1     1    14
  5.0787130654397972E-01 a        15     0     1     1    15
  1.0158610425012795E+00 a        16     0     1     1    16
  1.2961810582210085E+00 a        17     0     1     1    17
  2.3235323045646012E+00 a        18     0     1     1    18
  1.8382066880360355E+00 a        19     0     1     1    19
  2.8205838619099344E-01 a        20     0     1     1    20
  1.8692071724589487E+00 a        21     0     2     1     1
  3.6919235784477084E-01 a        22     0     2     1     2
 -1.4699702541493165E+00 a        23     0     2     1     3
 -1.2772922579101063E+00 a        24     0     2     1     4
 -2.5937194054125059E+00 a        25     0     2     1     5
 -2.6667842423515724E+00 a        26     0     2     1     6
 -1.8384761359387287E+00 a        27     0     2     1     7
  3.8088331856269786E+00 a        28     0     2     1     8
  2.3718291709447699E+00 a        29     0     2     1     9
 -1.9490449230583231E+00 a        30     0     2     1    10
 -2.8683932956529823E-01 a        31     0     2     1    11
 -4.2373416582557100E-01 a        32     0     2     1    12
 -1.9450097907777922E-01 a        33     0     2     1    13
 -4.9092710558342377E-02 a        34     0     2     1    14
  6.4090728736951402E-02 a        35     0     2     1    15
 -1.0971449256850601E+00 a        36     0     2     1    16
 -1.4505919384113917E+00 a        37     0     2     1    17
  1.4047922796276902E+00 a        38     0     2     1    18
 -8.0899926002551492E-01 a        39     0     2     1    19
 -2.5872372304771272E+00 a        40     0     2     1    20
 -1.6541315762237094E+00 a        41     0     3     1     1
 -1.2767774366727940E+00 a        42     0     3     1     2
  5.3848848991029957E-02 a        43     0     3     1     3
 -8.0565926335805005E-02 a        44     0     3     1     4
 -1.4722667341770030E+00 a        45     0     3     1     5
 -4.1571667645762567E-01 a        46     0     3     1     6
 -4.9949983796442200E-02 a        47     0     3     1     7
 -2.4659966492927290E+00 a        48     0     3     1     8
  2.4814135590200653E-01 a        49     0     3     1     9
  1.1126233337637292E+00 a        50     0     3     1    10
  3.6717419643372993E+00 a        51     0     3     1    11
  2.2120561265342102E+00 a        52     0     3     1    12
 -1.5918597397608318E+00 a        53     0     3     1    13
  2.0740461970711639E+00 a        54     0     3     1    14
  1.3456345979828738E-01 a        55     0     3     1    15
 -2.8031868807287821E+00 a        56     0     3     1    16
  2.1397529148082790E+00 a        57     0     3     1    17
  6.3247190306678980E-01 a        58     0     3     1    18
 -2.8734713452728605E-01 a        59     0     3     1    19
  4.7355333002048378E-01 a        60     0     3     1    20
 -1.9473046950576984E+00 a        61     0     4     1     1
  9.8268144717842265E-01 a        62     0     4     1     2
  3.4778085242323433E+00 a        63     0     4     1     3
 -1.0585985507614828E+00 a        64     0     4     1     4
  3.1291697880914935E+00 a        65     0     4     1     5
  6.0920545868798948E-01 a        66     0     4     1     6
 -3.3126210553846454E+00 a        67     0     4     1     7
 -6.8319215982800729E-01 a        68     0     4     1     8
  1.4271620648427163E+00 a        69     0     4     1     9
 -8.8249010711772380E-01 a        70     0     4     1    10
 -6.1507354323487917E-01 a        71     0     4     1    11
  1.0235804490899034E+00 a        72     0     4     1    12
 -3.7979987457737280E-01 a        73     0     4     1    13
  5.8448549044082654E-01 a        74     0     4     1    14
 -7.0580814553369042E-01 a        75     0     4     1    15
 -2.4270659685731353E+00 a        76     0     4     1    16
 -4.8639172755656102E-01 a        77     0     4     1    17
  1.6363847653526307E+00 a        78     0     4     1    18
  1.2769113380195802E+00 a        79     0     4     1    19
  8.2912978271782978E-01 a        80     0     4     1    20
  4.5451340883781661E+00 a        81     0     5     1     1
 -3.0304314149530307E+00 a        82     0     5     1     2
  2.2565329429105812E+00 a        83     0     5     1     3
 -6.9310757735309825E-01 a        84     0     5     1     4
 -1.1214810541309232E+00 a        85     0     5     1     5
 -2.0638989814770836E+00 a        86     0     5     1     6
 -1.9029163899448738E+00 a        87     0     5     1     7
  1.4464066599893985E+00 a        88     0     5     1     8
  5.6842457721142048E-01 a        89     0     5     1     9
 -1.2786323987953214E+00 a        90     0     5     1    10
 -1.0359575218942341E+00 a        91     0     5     1    11
  9.2474100671858184E-01 a        92     0     5     1    12
 -1.2530666178987786E+00 a        93     0     5     1    13
  2.5404286328255985E+00 a        94     0     5     1    14
 -4.1059668289853107E-01 a        95     0     5     1    15
  5.9871695522562607E-02 a        96     0     5     1    16
  2.1366822247320534E+00 a        97     0     5     1    17
  5.0773122866781339E-01 a        98     0     5     1    18
 -3.8710917674157498E-02 a        99     0     5     1    19
  4.4269071724952100E+00 a       100     0     5     1    20
  1.2467191377778382E+00 a       101     0     6     1     1
  3.0786951626088905E+00 a       102     0     6     1     2
 -5.1716397431240624E-01 a       103     0     6     1     3
 -1.9897354263299809E+00 a       104     0     6     1     4
 -1.8116389204943370E-01 a       105     0     6     1     5
 -8.2685347191742933E-02 a       106     0     6     1     6
 -1.1093751884568488E+00 a       107     0     6     1     7
 -1.7499201003356488E+00 a       108     0     6     1     8
 -7.7789407157187948E-02 a       109     0     6     1     9
 -8.6895369369229328E-02 a       110     0     6     1    10
 -3.0763881487972862E+00 a       111     0     6     1    11
 -2.7333806622361440E-01 a       112     0     6     1    12
 -1.2311334781623378E+00 a       113     0     6     1    13
 -1.9828064461243788E+00 a       114     0     6     1    14
  1.1743156392340566E+00 a       115     0     6     1    15
 -9.1181283914017563E-01 a       116     0     6     1    16
 -9.2506393635741979E-01 a       117     0     6     1    17
 -1.2008569240145015E+00 a       118     0     6     1    18
 -7.8145271483787149E-01 a       119     0     6     1    19
 -1.7657985669997587E+00 a       120     0     6     1    20
  7.1433019005644183E-01 a       121     0     7     1     1
  2.3128848657447737E-01 a       122     0     7     1     2
  1.7519081503671166E+00 a       123     0     7     1     3
 -7.3810844871495496E-01 a       124     0     7     1     4
 -1.8624018905949020E+00 a       125     0     7     1     5
 -1.1432604928236156E+00 a       126     0     7     1     6
 -3.1574507522678874E-02 a       127     0     7     1     7
  2.7760678501350999E-01 a       128     0     7     1     8
 -5.6517364229009970E-01 a       129     0     7     1     9
  2.3201188562833570E+00 a       130     0     7     1    10
 -1.1170329621747144E+00 a       131     0     7     1    11
 -1.2652658604990468E+00 a       132     0     7     1    12
 -2.0991798173701604E+00 a       133     0     7     1    13
 -1.4521750903413955E+00 a       134     0     7     1    14
  2.4265746184453918E+00 a       135     0     7     1    15
 -1.6726255699283463E+00 a       136     0     7     1    16
 -1.1290757248872989E+00 a       137     0     7     1    17
  5.0826961927102754E-01 a       138     0     7     1    18
 -1.3566809785684306E+00 a       139     0     7     1    19
  1.3531507781865841E+00 a       140     0     7     1    20
  2.2678363228718710E+00 a       141     0     8     1     1
 -1.7211530940841915E+00 a       142     0     8     1     2
  9.2337227374904340E-01 a       143     0     8     1     3
 -1.3425275396362131E+00 a       144     0     8     1     4
 -1.3237805688241717E+00 a       145     0     8     1     5
 -1.5643787844157420E-02 a       146     0     8     1     6
 -8.6358036313701550E-02 a       147     0     8     1     7
 -1.0645240877771072E+00 a       148     0     8     1     8
  1.0522382663465510E+00 a       149     0     8     1     9
  1.3535899133700326E+00 a       150     0     8     1    10
  3.8131020429336149E-01 a       151     0     8     1    11
 -7.4955571353203265E-01 a       152     0     8     1    12
 -2.0627565443869900E+00 a       153     0     8     1    13
  1.2577419783827937E+00 a       154     0     8     1    14
 -2.0690404448879338E+00 a       155     0     8     1    15
  3.5865107493560329E+00 a       156     0     8     1    16
  1.2512649977827017E+00 a       157     0     8     1    17
  1.2971911652167503E+00 a       158     0     8     1    18
 -8.6189761239697660E-01 a       159     0     8     1    19
  2.3344135630925886E+00 a       160     0     8     1    20
 -6.1299768359670326E-01 a       161     0     9     1     1
 -1.2630263848856365E+00 a       162     0     9     1     2
 -2.5867355524451665E+00 a       163     0     9     1     3
 -2.0359747706486737E+00 a       164     0     9     1     4
 -2.3011946677431756E+00 a       165     0     9     1     5
 -1.8837296366961795E+00 a       166     0     9     1     6
 -3.6072331093966055E+00 a       167     0     9     1     7
  9.1121365729092463E-01 a       168     0     9     1     8
  7.5562805149577394E-01 a       169     0     9     1     9
 -7.6617597455365949E-02 a       170     0     9     1    10
 -1.1070746275077066E+00 a       171     0     9     1    11
 -7.0969018977106746E-01 a       172     0     9     1    12
  2.9037737170521942E+00 a       173     0     9     1    13
 -2.3530660382084707E+00 a       174     0     9     1    14
 -1.2037415517929055E-01 a       175     0     9     1    15
 -2.5348286191596796E+00 a       176     0     9     1    16
  2.0637573021588298E+00 a       177     0     9     1    17
 -1.6552300052860387E+00 a       178     0     9     1    18
 -6.1371375189588895E-01 a       179     0     9     1    19
 -1.2976566449772992E-01 a       180     0     9     1    20
  1.5896187916388467E+00 a       181     0    10     1     1
  4.1368624945916388E-01 a       182     0    10     1     2
  1.0755108543020264E+00 a       183     0    10     1     3
 -1.5410382248746100E+00 a       184     0    10     1     4
  2.8994393485311121E+00 a       185     0    10     1     5
 -2.5501740305282722E-01 a       186     0    10     1     6
  2.7639810060539206E-02 a       187     0    10     1     7
  1.6112103391857102E+00 a       188     0    10     1     8
  1.9711775938533107E+00 a       189     0    10     1     9
 -6.5948120087310969E-01 a       190     0    10     1    10
 -2.7911165918154696E-01 a       191     0    10     1    11
 -7.1347453166266761E-01 a       192     0    10     1    12
  2.3616461172323611E-01 a       193     0    10     1    13
 -3.5237763929123913E+00 a       194     0    10     1    14
  6.0498105449664163E-01 a       195     0    10     1    15
  1.8455574232128145E+00 a       196     0    10     1    16
  1.4964772147529834E-01 a       197     0    10     1    17
  1.9627972965239111E+00 a       198     0    10     1    18
 -1.2801118846093764E+00 a       199     0    10     1    19
 -6.1878746060122891E-01 a       200     0    10     1    20
 -1.6881952603187051E+00 a       201     0    11     1     1
  1.4478063602599436E+00 a       202     0    11     1     2
 -1.5672407587271893E+00 a       203     0    11     1     3
 -2.4824982195984657E+00 a       204     0    11     1     4
 -6.2974003945735291E-01 a       205     0    11     1     5
  1.1676645200744908E+00 a       206     0    11     1     6
 -2.3576161878273405E+00 a       207     0    11     1     7
 -1.9629972972943226E+00 a       208     0    11     1     8
  4.0427444314891749E+00 a       209     0    11     1     9
 -2.6226106959468578E+00 a       210     0    11     1    10
  4.0449956428178883E-02 a       211     0    11     1    11
 -1.4681389821647064E+00 a       212     0    11     1    12
  1.1209816345186998E+00 a       213     0    11     1    13
 -3.7603484881490656E+00 a       214     0    11     1    14
  1.7105366124653097E-02 a       215     0    11     1    15
 -6.4466773608334049E-01 a       216     0    11     1    16
  2.2902947833262206E+00 a       217     0    11     1    17
 -1.4116694578278914E+00 a       218     0    11     1    18
 -4.3206136286980508E+00 a       219     0    11     1    19
  3.6367670437442894E+00 a       220     0    11     1    20
 -1.5272811308206800E+00 a       221     0    12     1     1
  1.1119914637808716E-01 a       222     0    12     1     2
 -6.4324295405840587E-02 a       223     0    12     1     3
 -1.4451090421227655E+00 a       224     0    12     1     4
  3.8975448399426604E-01 a       225     0    12     1     5
 -1.2522198593652680E+00 a       226     0    12     1     6
 -1.7505569795929927E+00 a       227     0    12     1     7
  1.7105417470237734E+00 a       228     0    12     1     8
  1.3891997515104562E+00 a       229     0    12     1     9
 -8.4144086238061699E-01 a       230     0    12     1    10
  1.5540112190889044E+00 a       231     0    12     1    11
  2.1069315229131038E+00 a       232     0    12     1    12
  2.7140283503303166E+00 a       233     0    12     1    13
  1.6429856800877014E+00 a       234     0    12     1    14
 -1.5797537065290805E+00 a       235     0    12     1    15
  1.7150396768077580E+00 a       236     0    12     1    16
  2.2328713491116066E+00 a       237     0    12     1    17
  6.6510309643841181E-01 a       238     0    12     1    18
  1.3830876968919736E+00 a       239     0    12     1    19
 -5.5268640387102030E-01 a       240     0    12     1    20
 -2.0933014242132608E+00 a       241     0    13     1     1
 -3.3561918918468037E-01 a       242     0    13     1     2
  1.3121444911748184E-01 a       243     0    13     1     3
  1.5331798901987610E+00 a       244     0    13     1     4
  2.8050592351586912E+00 a       245     0    13     1     5
 -3.7078412364150842E-01 a       246     0    13     1     6
  5.8453500542955361E-01 a       247     0    13     1     7
 -3.1296200065231696E+00 a       248     0    13     1     8
  2.1254674945463363E+00 a       249     0    13     1     9
 -3.4605718254232247E+00 a       250     0    13     1    10
 -1.5946703516307040E-01 a       251     0    13     1    11
 -2.7818753786631443E+00 a       252     0    13     1    12
 -7.7104683370524604E-02 a       253     0    13     1    13
  5.0033833344115868E+00 a       254     0    13     1    14
 -2.0157721065103478E+00 a       255     0    13     1    15
  2.6686028349548989E+00 a       256     0    13     1    16
  1.7301394684842868E+00 a       257     0    13     1    17
  3.0060117442666656E+00 a       258     0    13     1    18
  2.8817443172791579E+00 a       259     0    13     1    19
  4.3267105871992664E+00 a       260     0    13     1    20
  3.2712158016195092E-01 a       261     0    14     1     1
  3.0050834378321706E-01 a       262     0    14     1     2
  1.6430697844794995E+00 a       263     0    14     1     3
  1.7102733696977723E+00 a       264     0    14     1     4
 -1.6759510160823283E+00 a       265     0    14     1     5
 -1.3141659490667321E+00 a       266     0    14     1     6
  1.5799822489810298E+00 a       267     0    14     1     7
 -1.5367392440351149E+00 a       268     0    14     1     8
 -1.5329461405522433E+00 a       269     0    14     1     9
  6.5326211059994310E-01 a       270     0    14     1    10
 -1.3764393390024847E+00 a       271     0    14     1    11
  7.3808376141483045E-01 a       272     0    14     1    12
 -7.3699924615856849E-01 a       273     0    14     1    13
  1.6513945877391498E+00 a       274     0    14     1    14
 -1.2857855027746898E+00 a       275     0    14     1    15
  5.1892349873703514E-01 a       276     0    14     1    16
 -4.1731810344090831E-01 a       277     0    14     1    17
 -1.4034964941653743E+00 a       278     0    14     1    18
 -9.2044691750987440E-01 a       279     0    14     1    19
 -4.4505737829631586E-01 a       280     0    14     1    20
  9.3930929799439053E-02 a       281     0    15     1     1
  2.6895419636644498E+00 a       282     0    15     1     2
 -8.6135271466619467E-01 a       283     0    15     1     3
 -1.5242586032149366E+00 a       284     0    15     1     4
 -6.4238446720827691E-01 a       285     0    15     1     5
  6.4348894503811671E-01 a       286     0    15     1     6
 -6.3167289014268313E-01 a       287     0    15     1     7
 -1.0636192684349674E-01 a       288     0    15     1     8
 -2.4772572313924299E-01 a       289     0    15     1     9
  2.5630624042406045E+00 a       290     0    15     1    10
 -5.6930410596152814E-01 a       291     0    15     1    11
 -8.0592163275919693E-01 a       292     0    15     1    12
 -2.0581975888148092E+00 a       293     0    15     1    13
 -1.8966189708314793E+00 a       294     0    15     1    14
 -1.0101551316654080E+00 a       295     0    15     1    15
 -7.7446828921835476E-01 a       296     0    15     1    16
 -2.1816549366222224E+00 a       297     0    15     1    17
  9.9096095319802860E-02 a       298     0    15     1    18
 -1.0834204245178800E+00 a       299     0    15     1    19
  1.4463000986407945E-01 a       300     0    15     1    20
  6.5728141463996426E-01 a       301     0    16     1     1
  1.0864389548453104E+00 a       302     0    16     1     2
 -1.7527488317660891E+00 a       303     0    16     1     3
 -3.7488803295852606E+00 a       304     0    16     1     4
  2.8711621005469872E+00 a       305     0    16     1     5
  5.5517141932537202E+00 a       306     0    16     1     6
  1.5398355164290305E+00 a       307     0    16     1     7
  1.5074468792586171E+00 a       308     0    16     1     8
  5.8248466427308421E-01 a       309     0    16     1     9
 -1.2433215317577906E+00 a       310     0    16     1    10
 -3.6004882459275511E-01 a       311     0    16     1    11
  1.1059014978308013E-01 a       312     0    16     1    12
  2.6194981000868989E+00 a       313     0    16     1    13
 -6.0028601178650554E-01 a       314     0    16     1    14
  1.4255358392758737E+00 a       315     0    16     1    15
 -8.0345788997590473E-01 a       316     0    16     1    16
 -2.5255622128179209E+00 a       317     0    16     1    17
  7.4825939052141166E-01 a       318     0    16     1    18
 -2.4046670622001911E+00 a       319     0    16     1    19
  1.2804425160714350E+00 a       320     0    16     1    20
  8.5212743328383500E-01 a       321     0    17     1     1
 -7.3644991238456603E-01 a       322     0    17     1     2
  4.9367964643374140E-01 a       323     0    17     1     3
 -4.2345230198971420E+00 a       324     0    17     1     4
  2.1182540274274908E+00 a       325     0    17     1     5
  2.1625439203599406E+00 a       326     0    17     1     6
 -2.1963186381186923E+00 a       327     0    17     1     7
  7.5339346915043043E-02 a       328     0    17     1     8
  3.2172149270942313E-01 a       329     0    17     1     9
  4.6023941910391380E-01 a       330     0    17     1    10
  5.9708931370823148E-01 a       331     0    17     1    11
  3.1757715009425698E+00 a       332     0    17     1    12
 -5.2242205936612426E-02 a       333     0    17     1    13
 -6.8440678685494816E-01 a       334     0    17     1    14
  3.1278106462206958E+00 a       335     0    17     1    15
 -1.7226656185149880E+00 a       336     0    17     1    16
 -1.7965624231925437E-01 a       337     0    17     1    17
 -3.2354827722543583E-01 a       338     0    17     1    18
 -1.6128199252972684E+00 a       339     0    17     1    19
  6.9433770592377708E-01 a       340     0    17     1    20
  1.7083994888781235E+00 a       341     0    18     1     1
 -2.8971420891131685E+00 a       342     0    18     1     2
 -3.1455510042326096E+00 a       343     0    18     1     3
  2.3407191734796640E+00 a       344     0    18     1     4
 -6.1922100206555430E-01 a       345     0    18     1     5
 -3.2835983803883826E+00 a       346     0    18     1     6
  7.5737562999443664E-01 a       347     0    18     1     7
  2.9094984601570917E+00 a       348     0    18     1     8
  1.4533419490277919E+00 a       349     0    18     1     9
 -3.2901205381581522E-01 a       350     0    18     1    10
 -7.6542844240753993E-01 a       351     0    18     1    11
  6.4171574314787294E-01 a       352     0    18     1    12
  3.8937473434263983E+00 a       353     0    18     1    13
  8.6948462526927739E-01 a       354     0    18     1    14
 -2.3885744994829472E+00 a       355     0    18     1    15
 -2.9130879447641034E+00 a       356     0    18     1    16
 -2.6769091041398529E+00 a       357     0    18     1    17
  3.3372588624168316E+00 a       358     0    18     1    18
  8.1001077335077754E-01 a       359     0    18     1    19
  4.3389979793589344E+00 a       360     0    18     1    20
 -6.6106901530386009E-01 a       361     0    19     1     1
  3.5534484540012117E+00 a       362     0    19     1     2
  9.8949298243503725E-01 a       363     0    19     1     3
 -1.4999151350109421E+00 a       364     0    19     1     4
  5.7727025886216121E-01 a       365     0    19     1     5
  6.1136756570380046E-01 a       366     0    19     1     6
 -1.7497310910155270E+00 a       367     0    19     1     7
 -5.3352153775028144E-01 a       368     0    19     1     8
  1.1620251374809343E+00 a       369     0    19     1     9
 -2.4485306883356897E+00 a       370     0    19     1    10
  1.5565901064729348E+00 a       371     0    19     1    11
 -1.6543108267813580E+00 a       372     0    19     1    12
 -4.1270177863352320E-01 a       373     0    19     1    13
 -4.3414398426169193E-01 a       374     0    19     1    14
 -2.3421062271585482E+00 a       375     0    19     1    15
  5.5904786177904458E-03 a       376     0    19     1    16
 -1.0541132267805631E-01 a       377     0    19     1    17
 -2.7370463777667138E+00 a       378     0    19     1    18
 -6.4209387182896576E+00 a       379     0    19     1    19
  6.8219603274410023E-01 a       380     0    19     1    20
  1.2995101111639407E-01 a       381     0    20     1     1
  3.6396898410512346E-01 a       382     0    20     1     2
  2.2256884985174321E+00 a       383     0    20     1     3
  3.0044415345198985E+00 a       384     0    20     1     4
 -2.2436842251829434E+00 a       385     0    20     1     5
 -3.3604983139633284E+00 a       386     0    20     1     6
  7.1816220565692523E-01 a       387     0    20     1     7
 -1.0786332073851694E+00 a       388     0    20     1     8
 -1.3931510119451169E+00 a       389     0    20     1     9
 -1.3985254224915400E-01 a       390     0    20     1    10
  1.6876626870749150E+00 a       391     0    20     1    11
 -2.1687411758087531E+00 a       392     0    20     1    12
 -7.8197011821578410E-01 a       393     0    20     1    13
 -7.4306156125555567E-01 a       394     0    20     1    14
  1.3560084507822021E+00 a       395     0    20     1    15
  9.8750171571969136E-01 a       396     0    20     1    16
 -2.7125024385927987E+00 a       397     0    20     1    17
  1.3586563682386987E+00 a       398     0    20     1    18
  2.4375961275494396E-01 a       399     0    20     1    19
  7.9076769335820762E-01 a       400     0    20     1    20
  7.6118098673585699E-01 a       401     0    21     1     1
 -8.1379113188112673E-01 a       402     0    21     1     2
  1.9072830385549708E+00 a       403     0    21     1     3
  1.1278562838196986E+00 a       404     0    21     1     4
 -2.0155895703049755E+00 a       405     0    21     1     5
 -2.3055514511868074E+00 a       406     0    21     1     6
 -5.2990086240282019E-01 a       407     0    21     1     7
 -2.2703091772012907E+00 a       408     0    21     1     8
  2.4625653418208451E+00 a       409     0    21     1     9
  1.8033310710252606E+00 a       410     0    21     1    10
 -5.9869018033443233E-01 a       411     0    21     1    11
  1.1373100938054670E+00 a       412     0    21     1    12
  1.2181139350467320E+00 a       413     0    21     1    13
  1.6039577779919780E+00 a       414     0    21     1    14
  9.2348658479943402E-01 a       415     0    21     1    15
 -1.7482824650259159E+00 a       416     0    21     1    16
  1.3280535544854928E+00 a       417     0    21     1    17
  3.2054920573001673E+00 a       418     0    21     1    18
 -1.7987348689873497E-01 a       419     0    21     1    19
  2.3496343994700251E+00 a       420     0    21     1    20
  7.8113433384841957E-01 a       421     0    22     1     1
  2.2584783079539115E+00 a       422     0    22     1     2
  5.5956421417787183E-01 a       423     0    22     1     3
 -4.5950880474536598E-01 a       424     0    22     1     4
 -1.8754887711079773E+00 a       425     0    22     1     5
  1.0191164887164277E+00 a       426     0    22     1     6
 -4.5668744268294797E-01 a       427     0    22     1     7
 -4.8027634035108706E+00 a       428     0    22     1     8
 -2.8971570566870630E+00 a       429     0    22     1     9
  5.1613728939249874E+00 a       430     0    22     1    10
 -2.2999140205697715E+00 a       431     0    22     1    11
  8.6677292315755305E-01 a       432     0    22     1    12
 -6.1691594300648345E-01 a       433     0    22     1    13
  1.6837199461100369E+00 a       434     0    22     1    14
  2.1819697467508226E+00 a       435     0    22     1    15
 -2.0369446148604445E-01 a       436     0    22     1    16
 -3.1410415653627549E-01 a       437     0    22     1    17
  3.1807486631295279E-01 a       438     0    22     1    18
  1.6943207655653469E-01 a       439     0    22     1    19
  9.1992166772256223E-01 a       440     0    22     1    20
  2.4243331874582861E+00 a       441     0    23     1     1
  3.6607038378850892E-01 a       442     0    23     1     2
  2.0223034887583129E+00 a       443     0    23     1     3
 -1.8197842606357058E+00 a       444     0    23     1     4
 -1.1327609710494093E+00 a       445     0    23     1     5
  3.8485526847006910E+00 a       446     0    23     1     6
  1.9711261697676192E+00 a       447     0    23     1     7
  1.0464499202101216E+00 a       448     0    23     1     8
 -1.5598802824846607E+00 a       449     0    23     1     9
  4.6107717534851023E-01 a       450     0    23     1    10
  3.4209317824790303E-01 a       451     0    23     1    11
  3.8578207774412836E+00 a       452     0    23     1    12
 -1.3501594109454016E+00 a       453     0    23     1    13
 -1.6859070722743768E+00 a       454     0    23     1    14
 -4.5265656910343743E-01 a       455     0    23     1    15
 -3.7947957801594201E-01 a       456     0    23     1    16
 -1.3325943943221736E+00 a       457     0    23     1    17
  8.1048203148215370E-01 a       458     0    23     1    18
  8.0511966090672371E-01 a       459     0    23     1    19
 -1.3784158059494103E-01 a       460     0    23     1    20
  2.5158743453216585E+00 a       461     0    24     1     1
 -8.5993456497954468E-01 a       462     0    24     1     2
  9.4238888171942914E-01 a       463     0    24     1     3
 -9.3776999735975752E-01 a       464     0    24     1     4
  2.8758615138627683E+00 a       465     0    24     1     5
 -5.4383717337673976E-01 a       466     0    24     1     6
 -6.3315871653103917E-01 a       467     0    24     1     7
  3.2867235631478082E+00 a       468     0    24     1     8
 -3.6125542268402469E+00 a       469     0    24     1     9
 -1.7725765632783015E+00 a       470     0    24     1    10
 -1.0572954996959034E+00 a       471     0    24     1    11
  4.6463884155621793E+00 a       472     0    24     1    12
  2.5850192263296563E+00 a       473     0    24     1    13
 -9.8522400359737222E-02 a       474     0    24     1    14
  4.0674886180275651E+00 a       475     0    24     1    15
 -1.9816132763587893E+00 a       476     0    24     1    16
 -4.5217490996167453E-01 a       477     0    24     1    17
  7.6769197247014920E-01 a       478     0    24     1    18
  1.8948128550886534E+00 a       479     0    24     1    19
 -9.9172172372842649E-01 a       480     0    24     1    20
  1.8044476468176298E+00 a       481     0    25     1     1
 -2.6104402267603124E+00 a       482     0    25     1     2
  1.2532154234516917E+00 a       483     0    25     1     3
  4.8420923343163871E+00 a       484     0    25     1     4
 -1.7028646206429984E-01 a       485     0    25     1     5
 -5.4664623188107586E-01 a       486     0    25     1     6
  1.1185196510154050E+00 a       487     0    25     1     7
 -1.1919194020430135E+00 a       488     0    25     1     8
  3.7364807273727380E-01 a       489     0    25     1     9
 -4.1086622033564018E+00 a       490     0    25     1    10
  1.3090625142975723E-01 a       491     0    25     1    11
 -1.4887109392439857E+00 a       492     0    25     1    12
 -1.2871849854769859E+00 a       493     0    25     1    13
 -3.8342737097296737E+00 a       494     0    25     1    14
  3.6629696433458625E-01 a       495     0    25     1    15
  1.0334317815071590E+00 a       496     0    25     1    16
  1.0358562132907947E+00 a       497     0    25     1    17
  9.2822660788887601E-01 a       498     0    25     1    18
  7.4151272340894192E-01 a       499     0    25     1    19
 -5.0704301211368881E+00 a       500     0    25     1    20
  4.1656662317318887E+00 a       501     0    26     1     1
 -1.6517552362406338E+00 a       502     0    26     1     2
  3.6010525637655642E+00 a       503     0    26     1     3
  4.7109130606034553E+00 a       504     0    26     1     4
 -3.1249589346921530E-01 a       505     0    26     1     5
 -6.4042719739013454E-01 a       506     0    26     1     6
  6.4958091408188101E-01 a       507     0    26     1     7
  6.1540035075906308E-01 a       508     0    26     1     8
 -1.4216084497489003E+00 a       509     0    26     1     9
  3.4719123470959032E+00 a       510     0    26     1    10
 -4.9132140776029365E-01 a       511     0    26     1    11
  1.9064590392114539E-01 a       512     0    26     1    12
  2.4877830204507950E-01 a       513     0    26     1    13
 -2.3820486428614731E+00 a       514     0    26     1    14
  9.1042662659040730E-01 a       515     0    26     1    15
  2.6172138650168564E-01 a       516     0    26     1    16
  2.9832272985536958E+00 a       517     0    26     1    17
 -1.0250596118412996E+00 a       518     0    26     1    18
 -6.0828449459082889E-01 a       519     0    26     1    19
 -1.5903857608534357E+00 a       520     0    26     1    20
  2.1402895393944208E+00 a       521     0    27     1     1
  3.5417668004171738E+00 a       522     0    27     1     2
  3.8853864846150210E+00 a       523     0    27     1     3
 -1.9027393072506596E-01 a       524     0    27     1     4
 -2.1372891976958446E+00 a       525     0    27     1     5
  6.9581069688982988E-01 a       526     0    27     1     6
 -2.2105222589033859E+00 a       527     0    27     1     7
  6.7967581174436131E-01 a       528     0    27     1     8
 -4.2646548181598376E-01 a       529     0    27     1     9
 -1.4830019952274593E+00 a       530     0    27     1    10
  2.8996581280209597E+00 a       531     0    27     1    11
 -1.4076705583677889E+00 a       532     0    27     1    12
  4.5100559590608702E+00 a       533     0    27     1    13
  6.5658280730458637E-02 a       534     0    27     1    14
  5.3055433160656318E-01 a       535     0    27     1    15
  2.5530709227099024E-01 a       536     0    27     1    16
  1.5317930453469368E+00 a       537     0    27     1    17
 -7.2420652916744921E-01 a       538     0    27     1    18
  1.1554830564065025E-01 a       539     0    27     1    19
  1.9487684520828648E+00 a       540     0    27     1    20
  5.5815253325575198E-01 a       541     0    28     1     1
 -2.9468051596596084E-01 a       542     0    28     1     2
 -7.9573663663719996E-01 a       543     0    28     1     3
 -2.1497380302033245E-01 a       544     0    28     1     4
 -1.1471317251431807E+00 a       545     0    28     1     5
  2.6547839098079971E+00 a       546     0    28     1     6
  1.1618886621818252E+00 a       547     0    28     1     7
  3.0806321661333782E+00 a       548     0    28     1     8
 -2.5013433145726460E+00 a       549     0    28     1     9
  2.3665564805216892E+00 a       550     0    28     1    10
  9.1792328461407724E-01 a       551     0    28     1    11
  5.8366718547513785E-01 a       552     0    28     1    12
  1.3332198576634744E+00 a       553     0    28     1    13
 -6.0675034288559548E-01 a       554     0    28     1    14
  6.2616270291404674E-01 a       555     0    28     1    15
  1.6089563376844690E-01 a       556     0    28     1    16
  4.3305475276120015E-01 a       557     0    28     1    17
 -1.3833241877072964E+00 a       558     0    28     1    18
 -3.3536232963843298E+00 a       559     0    28     1    19
  2.7406497950607003E+00 a       560     0    28     1    20
 -7.7078990405114356E-01 a       561     0    29     1     1
 -3.4832541273472701E+00 a       562     0    29     1     2
 -1.0947659266194079E+00 a       563     0    29     1     3
  2.7452721446201833E-01 a       564     0    29     1     4
 -9.0959209666836280E-02 a       565     0    29     1     5
  1.5711437616865551E+00 a       566     0    29     1     6
 -1.6592765932165829E+00 a       567     0    29     1     7
  8.2712691225318968E-01 a       568     0    29     1     8
 -2.0336565790176661E-01 a       569     0    29     1     9
 -1.4867631052120018E+00 a       570     0    29     1    10
 -2.1384367562679878E+00 a       571     0    29     1    11
 -6.3576053858034376E-01 a       572     0    29     1    12
 -1.0480557104062975E+00 a       573     0    29     1    13
 -2.0672923023704910E+00 a       574     0    29     1    14
 -1.6963545416925441E-01 a       575     0    29     1    15
 -1.2349128755727754E+00 a       576     0    29     1    16
 -1.9332137755152001E+00 a       577     0    29     1    17
  3.7792744097638781E-01 a       578     0    29     1    18
  5.3330965782960656E-02 a       579     0    29     1    19
 -1.2321491216400882E+00 a       580     0    29     1    20
 -1.1601416940845948E+00 a       581     0    30     1     1
 -2.7876960949825120E+00 a       582     0    30     1     2
 -2.4406487788694515E+00 a       583     0    30     1     3
  9.1434292820337604E-01 a       584     0    30     1     4
 -1.5698504872770163E+00 a       585     0    30     1     5
 -5.1666900243584959E-02 a       586     0    30     1     6
  1.9623812057548407E+00 a       587     0    30     1     7
  1.0985634515835774E-01 a       588     0    30     1     8
  2.5521114484381520E+00 a       589     0    30     1     9
  2.2652612008172750E+00 a       590     0    30     1    10
 -2.0916385913380471E+00 a       591     0    30     1    11
  3.2679743629109734E+00 a       592     0    30     1    12
  6.9177279780348533E-01 a       593     0    30     1    13
 -6.9262452912741113E-01 a       594     0    30     1    14
 -1.0713465629639305E+00 a       595     0    30     1    15
  1.2677296130530249E+00 a       596     0    30     1    16
  1.2596152437435790E+00 a       597     0    30     1    17
  6.2242438214429863E-01 a       598     0    30     1    18
 -3.8608815448071521E-01 a       599     0    30     1    19
  6.5918675937095417E-01 a       600     0    30     1    20
  1.4523844634981207E+00 a       601     0    31     1     1
 -4.8029645508126109E+00 a       602     0    31     1     2
  1.4524662225741587E+00 a       603     0    31     1     3
  2.5611203862335867E+00 a       604     0    31     1     4
  1.3475110095487497E+00 a       605     0    31     1     5
 -3.7537065809366181E+00 a       606     0    31     1     6
  2.7894670112120636E-02 a       607     0    31     1     7
  1.8065973938091939E-01 a       608     0    31     1     8
  1.9788227029137537E+00 a       609     0    31     1     9
  2.3211673643237521E-01 a       610     0    31     1    10
 -2.1888212957820208E-01 a       611     0    31     1    11
 -6.0353811904642489E+00 a       612     0    31     1    12
 -4.8754615514319322E-01 a       613     0    31     1    13
 -4.9281874189069326E+00 a       614     0    31     1    14
  2.2439594323367293E+00 a       615     0    31     1    15
  2.3284811051732059E-02 a       616     0    31     1    16
 -5.4702047091911710E-01 a       617     0    31     1    17
  1.6098257067361192E+00 a       618     0    31     1    18
  1.0460322699124126E-01 a       619     0    31     1    19
  4.1353632629494741E-01 a       620     0    31     1    20
  1.7204042438520270E-01 a       621     0    32     1     1
 -6.5763517127750293E-01 a       622     0    32     1     2
 -1.2608359690213176E+00 a       623     0    32     1     3
  1.3461079786644157E+00 a       624     0    32     1     4
  5.3876660496279427E-02 a       625     0    32     1     5
  1.3415292925277200E+00 a       626     0    32     1     6
 -3.7373493548461773E-01 a       627     0    32     1     7
  2.6357791684685838E+00 a       628     0    32     1     8
  7.6747428198749190E-01 a       629     0    32     1     9
  1.5822174574909840E+00 a       630     0    32     1    10
  2.5769337943176627E+00 a       631     0    32     1    11
 -1.3234732409282037E+00 a       632     0    32     1    12
  1.8867729198048515E+00 a       633     0    32     1    13
 -3.1255634134444272E+00 a       634     0    32     1    14
 -2.3934893787007988E-01 a       635     0    32     1    15
  9.5631585052955814E-01 a       636     0    32     1    16
 -9.4686701923708061E-01 a       637     0    32     1    17
  1.0865526546992976E+00 a       638     0    32     1    18
  1.0205287514971966E+00 a       639     0    32     1    19
  1.5748017915289367E+00 a       640     0    32     1    20
  1.0816345572257360E-01 a       641     0    33     1     1
  2.5478319094258333E+00 a       642     0    33     1     2
 -1.4006951749013481E+00 a       643     0    33     1     3
  1.3952015203987131E-01 a       644     0    33     1     4
 -5.3901084456281467E-01 a       645     0    33     1     5
 -1.8149724605321571E+00 a       646     0    33     1     6
  4.4472728185957339E-01 a       647     0    33     1     7
  7.6439454810494056E-01 a       648     0    33     1     8
 -6.4943387815045162E-01 a       649     0    33     1     9
 -2.8096354259794176E-01 a       650     0    33     1    10
 -1.1972274245139036E+00 a       651     0    33     1    11
 -6.5921490082941611E-02 a       652     0    33     1    12
  2.5912490549954774E+00 a       653     0    33     1    13
 -3.6559676374979699E-01 a       654     0    33     1    14
  1.7218261811376565E-02 a       655     0    33     1    15
 -4.8410737290758793E-01 a       656     0    33     1    16
 -4.6012911226915809E-01 a       657     0    33     1    17
 -1.5606604655630927E+00 a       658     0    33     1    18
 -1.1889412012943288E+00 a       659     0    33     1    19
  3.2968696337229930E-01 a       660     0    33     1    20
  3.3370369284557388E-01 a       661     0    34     1     1
  9.5706826398534567E-04 a       662     0    34     1     2
 -6.0071464731894930E-01 a       663     0    34     1     3
  9.1179508202936177E-01 a       664     0    34     1     4
  1.2892410985116515E-01 a       665     0    34     1     5
 -3.4492361193293292E-01 a       666     0    34     1     6
  1.0598193975949635E+00 a       667     0    34     1     7
  1.5455311803348915E+00 a       668     0    34     1     8
 -5.1250639362562744E-02 a       669     0    34     1     9
 -1.4001122061606461E+00 a       670     0    34     1    10
 -2.2006914102239610E+00 a       671     0    34     1    11
 -1.1352876284952826E+00 a       672     0    34     1    12
  9.9877178430940600E-02 a       673     0    34     1    13
 -2.5038658967911481E-01 a       674     0    34     1    14
 -5.9732631806529057E-01 a       675     0    34     1    15
  6.7765593255449530E-01 a       676     0    34     1    16
 -1.8114220492608013E+00 a       677     0    34     1    17
  6.6822047322172751E-01 a       678     0    34     1    18
 -6.5433327434724187E-01 a       679     0    34     1    19
 -6.8890315468445240E-01 a       680     0    34     1    20
  1.4256113222498715E-01 a       681     0    35     1     1
  1.5612469780540392E+00 a       682     0    35     1     2
 -3.4634899882680781E-01 a       683     0    35     1     3
  5.8292292906099830E-01 a       684     0    35     1     4
  1.2927296971468747E+00 a       685     0    35     1     5
  2.3931875674384825E-01 a       686     0    35     1     6
 -3.7140453351034303E-01 a       687     0    35     1     7
 -7.6667043905973697E-01 a       688     0    35     1     8
  4.1408647427691836E-01 a       689     0    35     1     9
 -4.0923883504600445E-01 a       690     0    35     1    10
  8.5342338378035509E-02 a       691     0    35     1    11
 -3.9359606452457302E-01 a       692     0    35     1    12
  1.9302808058193484E+00 a       693     0    35     1    13
  8.8476952751355065E-01 a       694     0    35     1    14
  9.5195811144919007E-01 a       695     0    35     1    15
  1.1487931740320048E-01 a       696     0    35     1    16
 -2.9164609493825600E-01 a       697     0    35     1    17
 -1.3808150082643174E+00 a       698     0    35     1    18
  1.3461594242067878E+00 a       699     0    35     1    19
 -1.5558014447522510E+00 a       700     0    35     1    20
  2.3197356199463257E-01 a       701     0    36     1     1
 -7.2089597503583069E-01 a       702     0    36     1     2
  2.4893344650132349E-01 a       703     0    36     1     3
  9.5567693411625310E-01 a       704     0    36     1     4
  5.0349679908283240E-01 a       705     0    36     1     5
 -8.3075956900083725E-01 a       706     0    36     1     6
  4.9876719883656490E-01 a       707     0    36     1     7
  1.4455666197134596E+00 a       708     0    36     1     8
 -1.0400966426511103E-01 a       709     0    36     1     9
 -8.5490866885630024E-01 a       710     0    36     1    10
 -2.8095430431368856E-01 a       711     0    36     1    11
 -1.0173584546697179E+00 a       712     0    36     1    12
  8.1475397365552149E-01 a       713     0    36     1    13
  6.9683569264345147E-01 a       714     0    36     1    14
  2.4162050423167580E-01 a       715     0    36     1    15
  7.7858284590801086E-01 a       716     0    36     1    16
 -2.6329732489034114E+00 a       717     0    36     1    17
 -7.8664955107775913E-01 a       718     0    36     1    18
  2.1298925140089905E-01 a       719     0    36     1    19
 -1.6974770545724112E+00 a       720     0    36     1    20
  7.1991131223261706E-01 a       721     0    37     1     1
 -4.0333397331829444E+00 a       722     0    37     1     2
  1.3077487610080316E+00 a       723     0    37     1     3
 -2.3988518651573392E+00 a       724     0    37     1     4
  1.0766798021140698E+00 a       725     0    37     1     5
  6.8688115737668687E-01 a       726     0    37     1     6
 -4.8693653902016798E-01 a       727     0    37     1     7
 -4.0337496551651059E-01 a       728     0    37     1     8
  1.1689044704576719E+00 a       729     0    37     1     9
 -8.8595073437754565E-02 a       730     0    37     1    10
 -7.0929441667103399E-01 a       731     0    37     1    11
  2.1052254171039277E+00 a       732     0    37     1    12
 -2.0643756213884310E+00 a       733     0    37     1    13
  2.2099614532646710E+00 a       734     0    37     1    14
 -1.5202421365015866E+00 a       735     0    37     1    15
 -8.4798613307066867E-02 a       736     0    37     1    16
 -3.6319350068604700E-01 a       737     0    37     1    17
  1.1978270797919637E+00 a       738     0    37     1    18
  1.8748912220616384E-01 a       739     0    37     1    19
 -1.9532094756410783E+00 a       740     0    37     1    20
  2.1698440725660398E-01 a       741     0    38     1     1
 -2.0024567778653499E+00 a       742     0    38     1     2
 -3.2087820625718999E-01 a       743     0    38     1     3
 -2.8112985114956501E-01 a       744     0    38     1     4
  3.2769053194583626E+00 a       745     0    38     1     5
  1.2424273858935836E-01 a       746     0    38     1     6
  2.3595783841747653E+00 a       747     0    38     1     7
  1.4541315325804478E+00 a       748     0    38     1     8
 -5.5069860344312094E-01 a       749     0    38     1     9
  3.1588975693388854E-01 a       750     0    38     1    10
  7.5269488386128147E-01 a       751     0    38     1    11
 -3.3689378443083057E-01 a       752     0    38     1    12
  4.3131195963320745E-01 a       753     0    38     1    13
 -1.2336993148850040E+00 a       754     0    38     1    14
  3.0447296209586583E-01 a       755     0    38     1    15
  4.5977908263492512E-01 a       756     0    38     1    16
 -2.4205887903909664E+00 a       757     0    38     1    17
 -1.7928257148954113E-01 a       758     0    38     1    18
  8.9154981563267521E-01 a       759     0    38     1    19
 -6.9785856936127810E-01 a       760     0    38     1    20
  1.4344036705431145E+00 a       761     0    39     1     1
 -2.3386130452470661E+00 a       762     0    39     1     2
  7.1735547224351270E-01 a       763     0    39     1     3
 -6.7805354495280579E-01 a       764     0    39     1     4
 -6.0875907956309656E-02 a       765     0    39     1     5
  7.1328396240230074E-01 a       766     0    39     1     6
 -9.7204543393457421E-01 a       767     0    39     1     7
  2.1214025771064215E+00 a       768     0    39     1     8
  4.2925036917508361E-02 a       769     0    39     1     9
  5.5342489053034005E-01 a       770     0    39     1    10
 -8.0645983898989493E-01 a       771     0    39     1    11
 -1.0975982220487208E+00 a       772     0    39     1    12
  9.8468892315494971E-01 a       773     0    39     1    13
  6.7545811219378571E-01 a       774     0    39     1    14
 -8.1237131606622881E-01 a       775     0    39     1    15
 -4.1462664632390384E-01 a       776     0    39     1    16
 -9.4052753537011402E-01 a       777     0    39     1    17
  2.4946263247047221E-01 a       778     0    39     1    18
  3.3739458729243221E-01 a       779     0    39     1    19
  1.1543002088872718E+00 a       780     0    39     1    20
  1.2403438524084129E+00 a       781     0    40     1     1
  4.2450649766522144E+00 a       782     0    40     1     2
 -1.2288017633159476E+00 a       783     0    40     1     3
  2.1153248305467934E-01 a       784     0    40     1     4
  1.6539588857790737E+00 a       785     0    40     1     5
  2.2500551787692263E-01 a       786     0    40     1     6
 -3.9879158063205145E+00 a       787     0    40     1     7
  1.7874059062397418E+00 a       788     0    40     1     8
 -6.6294327994556312E-01 a       789     0    40     1     9
  4.3994045895922054E-02 a       790     0    40     1    10
  9.9749969907746938E-01 a       791     0    40     1    11
 -3.0879962791812514E+00 a       792     0    40     1    12
 -1.7857928608607829E-02 a       793     0    40     1    13
 -2.4964741839776798E+00 a       794     0    40     1    14
 -3.0797935306599453E+00 a       795     0    40     1    15
 -1.1147671634731000E+00 a       796     0    40     1    16
  1.1197301669879398E+00 a       797     0    40     1    17
 -8.0276995867232415E-01 a       798     0    40     1    18
  4.8054213766820945E-02 a       799     0    40     1    19
  1.2483342004487208E+00 a       800     0    40     1    20
 -6.1101383387194164E-01 a       801     0    41     1     1
 -2.4580551801006760E+00 a       802     0    41     1     2
 -5.8423305010060900E-01 a       803     0    41     1     3
 -6.6495942162686827E-01 a       804     0    41     1     4
  1.7751529158331619E-01 a       805     0    41     1     5
  8.2019480244475562E-01 a       806     0    41     1     6
  1.1819978034711430E-01 a       807     0    41     1     7
 -7.7504035716768571E-01 a       808     0    41     1     8
  4.0248667410453043E-01 a       809     0    41     1     9
  2.4751788398064827E+00 a       810     0    41     1    10
  1.3510530058042571E+00 a       811     0    41     1    11
  1.2024802487066749E-02 a       812     0    41     1    12
  9.5353808940820728E-01 a       813     0    41     1    13
 -2.4277073617076512E+00 a       814     0    41     1    14
 -1.9762992072843015E+00 a       815     0    41     1    15
  2.4089044896297400E+00 a       816     0    41     1    16
 -2.1990410422942501E+00 a       817     0    41     1    17
  1.2184091546368985E+00 a       818     0    41     1    18
 -3.4766963144205054E-01 a       819     0    41     1    19
  1.7213002491407532E+00 a       820     0    41     1    20
 -9.4766542117345753E-01 a       821     0    42     1     1
  1.0378421719316580E+00 a       822     0    42     1     2
 -6.1877967028512249E-01 a       823     0    42     1     3
  1.7015234375825350E+00 a       824     0    42     1     4
 -2.0652106906748735E-01 a       825     0    42     1     5
  6.6248501923967695E-01 a       826     0    42     1     6
  1.6073281097529670E+00 a       827     0    42     1     7
  2.4378023804430762E+00 a       828     0    42     1     8
  6.8939597099432826E-01 a       829     0    42     1     9
 -1.1022484893917867E-01 a       830     0    42     1    10
 -1.2657566163672991E+00 a       831     0    42     1    11
 -2.2554657640691494E-01 a       832     0    42     1    12
  2.8523666831945788E-01 a       833     0    42     1    13
 -2.4069939027971397E+00 a       834     0    42     1    14
  7.3074461934763668E-01 a       835     0    42     1    15
 -2.9798502503970681E-01 a       836     0    42     1    16
  5.8599183231494512E-01 a       837     0    42     1    17
  9.9942329196025456E-02 a       838     0    42     1    18
 -1.0087326616697319E+00 a       839     0    42     1    19
 -2.0074455501753632E-01 a       840     0    42     1    20
  4.7036927423662372E-01 a       841     0    43     1     1
  1.6134759343558407E+00 a       842     0    43     1     2
  9.2013295479441592E-01 a       843     0    43     1     3
 -3.2264359670775805E-01 a       844     0    43     1     4
 -6.7929130470463794E-01 a       845     0    43     1     5
 -1.1424303566551381E+00 a       846     0    43     1     6
 -8.2869425128925345E-01 a       847     0    43     1     7
 -8.1611485559877739E-01 a       848     0    43     1     8
 -7.0071412329372762E-01 a       849     0    43     1     9
  1.0697671877753414E+00 a       850     0    43     1    10
 -1.1143470611753274E+00 a       851     0    43     1    11
 -2.3847748413977925E+00 a       852     0    43     1    12
 -2.7933847090335191E+00 a       853     0    43     1    13
 -6.9733748570706455E-01 a       854     0    43     1    14
  8.2736966847879656E-01 a       855     0    43     1    15
  8.2181928427420592E-01 a       856     0    43     1    16
  7.8297258653646451E-02 a       857     0    43     1    17
 -9.9715370811953152E-01 a       858     0    43     1    18
 -5.9549673797558988E-01 a       859     0    43     1    19
  9.8041451069307961E-01 a       860     0    43     1    20
  1.7395919773744934E+00 a       861     0    44     1     1
  7.8886168896098785E-01 a       862     0    44     1     2
 -2.3759243906651334E-01 a       863     0    44     1     3
  4.8861977505238885E-01 a       864     0    44     1     4
 -1.4545504778803594E-02 a       865     0    44     1     5
 -1.4051840501676679E-02 a       866     0    44     1     6
  7.9078309565711935E-01 a       867     0    44     1     7
 -1.1962274997146305E+00 a       868     0    44     1     8
 -1.0266835378639416E+00 a       869     0    44     1     9
  7.1523357907055740E-01 a       870     0    44     1    10
  1.1343121253587476E+00 a       871     0    44     1    11
  1.9294156426140765E+00 a       872     0    44     1    12
  1.1899137806948773E-01 a       873     0    44     1    13
  1.6526015589452707E+00 a       874     0    44     1    14
 -2.4067776510186698E-01 a       875     0    44     1    15
 -8.5290116334023491E-01 a       876     0    44     1    16
  2.5419433237606555E+00 a       877     0    44     1    17
 -1.2705004587580191E+00 a       878     0    44     1    18
  8.2709115748170214E-01 a       879     0    44     1    19
 -1.3791161178438922E+00 a       880     0    44     1    20
 -3.9043553248949142E-01 a       881     0    45     1     1
  6.5253505147660129E-01 a       882     0    45     1     2
  1.8274905409404138E-01 a       883     0    45     1     3
  5.6511149971979280E-01 a       884     0    45     1     4
  1.8234717998985719E+00 a       885     0    45     1     5
  1.0570333781562005E+00 a       886     0    45     1     6
  9.9024274512614396E-01 a       887     0    45     1     7
 -5.5684911279515759E-01 a       888     0    45     1     8
  1.2303944368736095E+00 a       889     0    45     1     9
  2.8099810536679404E-01 a       890     0    45     1    10
  3.5659936522412250E-01 a       891     0    45     1    11
 -1.4754944474530723E-01 a       892     0    45     1    12
  1.5539376633976492E+00 a       893     0    45     1    13
  1.4333801160213722E+00 a       894     0    45     1    14
  5.8093617681311260E-01 a       895     0    45     1    15
 -6.9390213324386940E-01 a       896     0    45     1    16
  2.4522997000967062E-01 a       897     0    45     1    17
 -1.0481686035978310E+00 a       898     0    45     1    18
  6.4045615040165138E-01 a       899     0    45     1    19
 -8.8664770486942901E-01 a       900     0    45     1    20
 -6.7274504203649066E-01 a       901     0    46     1     1
 -3.1608895921568736E-01 a       902     0    46     1     2
 -3.9191310089448067E-01 a       903     0    46     1     3
  7.1886341624470784E-01 a       904     0    46     1     4
  1.1606954646817429E+00 a       905     0    46     1     5
 -1.0998197650833608E+00 a       906     0    46     1     6
 -3.3926017443867579E-01 a       907     0    46     1     7
  8.5958207334785197E-01 a       908     0    46     1     8
 -1.2900456552502901E-01 a       909     0    46     1     9
 -1.1298161223531651E+00 a       910     0    46     1    10
  2.1565878640858308E-01 a       911     0    46     1    11
 -7.2516126206711973E-01 a       912     0    46     1    12
  1.4854248147531424E+00 a       913     0    46     1    13
  1.2474418081215153E+00 a       914     0    46     1    14
  4.3644195976587447E-01 a       915     0    46     1    15
 -2.7706932535303003E-01 a       916     0    46     1    16
 -1.3542734754443682E+00 a       917     0    46     1    17
 -3.6532761881446707E-01 a       918     0    46     1    18
  1.2268718189339043E+00 a       919     0    46     1    19
 -2.7345804427763923E-02 a       920     0    46     1    20
 -9.8005254254976149E-01 a       921     0    47     1     1
 -3.3866391832424925E+00 a       922     0    47     1     2
  7.3299194943425938E-01 a       923     0    47     1     3
 -3.5563823831563557E-01 a       924     0    47     1     4
  3.3186496279019390E-01 a       925     0    47     1     5
 -1.6236157120509775E+00 a       926     0    47     1     6
 -1.1415817115191635E+00 a       927     0    47     1     7
 -2.7335294918657826E-01 a       928     0    47     1     8
 -2.6572164571319656E-01 a       929     0    47     1     9
 -9.5221975448048346E-01 a       930     0    47     1    10
  1.2889258420107492E+00 a       931     0    47     1    11
 -1.5843761270036574E+00 a       932     0    47     1    12
  1.0100289650611554E+00 a       933     0    47     1    13
  2.7846557916082029E+00 a       934     0    47     1    14
  1.2406347986843593E+00 a       935     0    47     1    15
 -1.4021188124922259E+00 a       936     0    47     1    16
 -5.3830474440957798E-01 a       937     0    47     1    17
 -1.5047429873392626E+00 a       938     0    47     1    18
  1.5122018958443635E+00 a       939     0    47     1    19
  8.5869583783802150E-01 a       940     0    47     1    20
  7.3311727860056164E-01 a       941     0    48     1     1
 -4.2676673385762043E-01 a       942     0    48     1     2
  2.0709081858414615E+00 a       943     0    48     1     3
 -7.4203457939979522E-01 a       944     0    48     1     4
  1.1722568082765192E+00 a       945     0    48     1     5
  6.2847126680234996E-02 a       946     0    48     1     6
  3.3390612370258638E-01 a       947     0    48     1     7
  7.4406692528684637E-01 a       948     0    48     1     8
  4.7132620659560970E-01 a       949     0    48     1     9
  2.0342085619445083E+00 a       950     0    48     1    10
 -9.9790948764455767E-01 a       951     0    48     1    11
  1.8151605580318828E+00 a       952     0    48     1    12
  1.6142632639423280E+00 a       953     0    48     1    13
 -3.5371790606677522E-01 a       954     0    48     1    14
 -7.3143275409779696E-01 a       955     0    48     1    15
 -9.4197556899989787E-01 a       956     0    48     1    16
  2.2618620674859949E-01 a       957     0    48     1    17
 -8.4369467930969644E-01 a       958     0    48     1    18
  4.0121086114956454E-02 a       959     0    48     1    19
  9.7700371988687307E-01 a       960     0    48     1    20
 -4.0450618468194355E-01 a       961     0    49     1     1
  9.6920822273431873E-01 a       962     0    49     1     2
 -6.3814624294049682E-01 a       963     0    49     1     3
 -1.8661718884468895E-01 a       964     0    49     1     4
  2.1290385485714321E-02 a       965     0    49     1     5
  5.3964133702360695E-01 a       966     0    49     1     6
  4.4915267464122083E-01 a       967     0    49     1     7
 -1.6295275937916134E-01 a       968     0    49     1     8
 -1.8239336063278493E+00 a       969     0    49     1     9
 -3.0845121595844466E-01 a       970     0    49     1    10
  1.9952365989510803E+00 a       971     0    49     1    11
  4.3999748646794107E-01 a       972     0    49     1    12
  1.0303522536777826E-01 a       973     0    49     1    13
 -6.5046360105964773E-01 a       974     0    49     1    14
  3.0642663586729113E-01 a       975     0    49     1    15
 -1.0569460547898204E+00 a       976     0    49     1    16
 -3.3225615235062675E+00 a       977     0    49     1    17
  6.7325348670602636E-02 a       978     0    49     1    18
  2.1337681497463548E+00 a       979     0    49     1    19
 -9.1747684037764410E-01 a       980     0    49     1    20
  1.3583673964586931E+00 a       981     0    50     1     1
  1.7129841870035717E-01 a       982     0    50     1     2
  4.3972580793730336E-02 a       983     0    50     1     3
 -8.2327615999100912E-01 a       984     0    50     1     4
 -1.3643763625472463E+00 a       985     0    50     1     5
  2.8537519406896289E-01 a       986     0    50     1     6
 -7.3607076439354302E-01 a       987     0    50     1     7
 -4.1516385033162390E-01 a       988     0    50     1     8
 -1.4779110446685630E+00 a       989     0    50     1     9
  1.9848605640370443E+00 a       990     0    50     1    10
  2.6159402584048191E-01 a       991     0    50     1    11
 -5.4721940279613035E-01 a       992     0    50     1    12
  1.5851506511469164E+00 a       993     0    50     1    13
  9.5009695690790386E-01 a       994     0    50     1    14
 -8.6362433745766098E-01 a       995     0    50     1    15
 -1.2773127838843006E+00 a       996     0    50     1    16
 -1.9341745035118947E+00 a       997     0    50     1    17
 -2.1731170811927100E-01 a       998     0    50     1    18
  5.5216908007598653E-01 a       999     0    50     1    19
 -4.4976751967232281E-01 a      1000     0    50     1    20
  1.4517033920791780E+00 a      1001     0    51     1     1
  3.5100620208427364E+00 a      1002     0    51     1     2
 -5.3935393853011238E-01 a      1003     0    51     1     3
 -6.6222615838483501E-01 a      1004     0    51     1     4
  1.5383931556821979E+00 a      1005     0    51     1     5
 -1.4292014693733381E+00 a      1006     0    51     1     6
 -2.5944747681124505E+00 a      1007     0    51     1     7
  1.6645417269265623E+00 a      1008     0    51     1     8
  1.1075304416642535E+00 a      1009     0    51     1     9
 -1.4381336328000027E+00 a      1010     0    51     1    10
  1.1356222200046759E+00 a      1011     0    51     1    11
 -2.5151572665111499E+00 a      1012     0    51     1    12
  1.9478829590480971E+00 a      1013     0    51     1    13
  3.9252977821437676E+00 a      1014     0    51     1    14
 -1.2417760366493243E-01 a      1015     0    51     1    15
 -1.1216255444576364E+00 a      1016     0    51     1    16
  1.2782955114309811E+00 a      1017     0    51     1    17
  2.4062157007766680E-01 a      1018     0    51     1    18
  2.5511669921709093E+00 a      1019     0    51     1    19
 -1.8520945927103274E+00 a      1020     0    51     1    20
 -5.1077722554583049E-01 a      1021     0    52     1     1
  2.7630494374854488E+00 a      1022     0    52     1     2
 -1.1547165871580447E+00 a      1023     0    52     1     3
 -7.8006865804356307E-01 a      1024     0    52     1     4
 -9.5289811318814799E-01 a      1025     0    52     1     5
 -1.4707301395840748E+00 a      1026     0    52     1     6
  8.8084073270696917E-01 a      1027     0    52     1     7
 -1.6156578948830442E+00 a      1028     0    52     1     8
  6.1715288524048473E-01 a      1029     0    52     1     9
  2.5419687406897227E+00 a      1030     0    52     1    10
  3.3679906656860652E+00 a      1031     0    52     1    11
 -9.5776608450663858E-01 a      1032     0    52     1    12
 -3.0620766064547551E+00 a      1033     0    52     1    13
  4.1706170580410173E-01 a      1034     0    52     1    14
  9.8004154807021515E-01 a      1035     0    52     1    15
 -3.1167043914053947E+00 a      1036     0    52     1    16
 -1.8646287576564033E+00 a      1037     0    52     1    17
  7.5727249114610706E-01 a      1038     0    52     1    18
  2.6128543411670853E+00 a      1039     0    52     1    19
 -2.6725803825611223E+00 a      1040     0    52     1    20
 -6.3398608683397431E-02 a      1041     0    53     1     1
 -5.7115899617646487E-02 a      1042     0    53     1     2
 -1.2682281747118358E+00 a      1043     0    53     1     3
  1.5440346844621367E+00 a      1044     0    53     1     4
 -2.4638937880507479E+00 a      1045     0    53     1     5
  1.0310801785046915E+00 a      1046     0    53     1     6
  1.2784454516124140E+00 a      1047     0    53     1     7
  2.3818258354455297E+00 a      1048     0    53     1     8
  8.7762730317794324E-01 a      1049     0    53     1     9
 -2.1096756596726518E+00 a      1050     0    53     1    10
 -3.7110587058454009E-01 a      1051     0    53     1    11
  2.4199884398917487E-01 a      1052     0    53     1    12
 -4.4398091862700211E+00 a      1053     0    53     1    13
  1.5129254989465031E+00 a      1054     0    53     1    14
 -3.6984425010004474E-01 a      1055     0    53     1    15
  9.6208754999901402E-01 a      1056     0    53     1    16
  5.8535785522698044E-02 a      1057     0    53     1    17
  3.7982675077444844E-01 a      1058     0    53     1    18
  1.7145077229150935E-01 a      1059     0    53     1    19
 -9.3103504554965710E-01 a      1060     0    53     1    20
 -2.3173865628127183E-01 a      1061     0    54     1     1
 -1.5217617652919750E+00 a      1062     0    54     1     2
 -2.0781240478830774E+00 a      1063     0    54     1     3
  4.4830009039775409E-01 a      1064     0    54     1     4
  9.1775789774808003E-01 a      1065     0    54     1     5
  2.6347886546407961E+00 a      1066     0    54     1     6
  1.3406150826123595E+00 a      1067     0    54     1     7
  5.2708219578238358E-01 a      1068     0    54     1     8
  5.2149617563947193E-01 a      1069     0    54     1     9
 -2.4016902713530728E+00 a      1070     0    54     1    10
 -2.3938623914543649E+00 a      1071     0    54     1    11
  1.0005061211913788E+00 a      1072     0    54     1    12
 -4.1330548020988962E+00 a      1073     0    54     1    13
 -2.9822201066654369E-01 a      1074     0    54     1    14
  5.3812789940386574E-01 a      1075     0    54     1    15
  4.2669434467922001E+00 a      1076     0    54     1    16
 -1.7225754288190057E-01 a      1077     0    54     1    17
  2.2482455084394402E+00 a      1078     0    54     1    18
 -2.6975880290634585E-01 a      1079     0    54     1    19
  1.1530387498157348E+00 a      1080     0    54     1    20
 -2.0558623180124131E+00 a      1081     0    55     1     1
 -8.5931404989949156E-01 a      1082     0    55     1     2
 -2.4261017080754308E+00 a      1083     0    55     1     3
  7.4221956541385345E-02 a      1084     0    55     1     4
 -2.2779013389658394E+00 a      1085     0    55     1     5
 -2.3617793614979612E+00 a      1086     0    55     1     6
 -1.2284282234814108E+00 a      1087     0    55     1     7
  1.1120405557701936E+00 a      1088     0    55     1     8
  1.1854787439653747E+00 a      1089     0    55     1     9
  2.5188834933302201E-01 a      1090     0    55     1    10
  2.2881788200173623E+00 a      1091     0    55     1    11
  4.9667140889990585E-01 a      1092     0    55     1    12
 -3.1340477509995530E+00 a      1093     0    55     1    13
 -1.3787451843053131E+00 a      1094     0    55     1    14
  2.7905153746240458E-01 a      1095     0    55     1    15
  4.2709294680855286E-01 a      1096     0    55     1    16
 -3.4776036036143338E+00 a      1097     0    55     1    17
  2.3220209106583063E+00 a      1098     0    55     1    18
 -1.9680895238262184E+00 a      1099     0    55     1    19
 -7.1003441864960892E-01 a      1100     0    55     1    20
  7.3861638515366557E-01 a      1101     0    56     1     1
  3.4969130876711452E+00 a      1102     0    56     1     2
 -1.7510452368035470E+00 a      1103     0    56     1     3
 -1.3655429882355303E+00 a      1104     0    56     1     4
  1.4742381805180879E-01 a      1105     0    56     1     5
  1.0232913820374447E+00 a      1106     0    56     1     6
 -4.0338207519145869E-01 a      1107     0    56     1     7
 -2.3945692428498613E+00 a      1108     0    56     1     8
 -5.8250086943680157E-01 a      1109     0    56     1     9
  1.6729415031568386E+00 a      1110     0    56     1    10
  1.5794507627831547E+00 a      1111     0    56     1    11
 -1.3569843865023881E+00 a      1112     0    56     1    12
 -1.7638736591832411E+00 a      1113     0    56     1    13
  8.1089187334970658E-01 a      1114     0    56     1    14
  2.8323859695226372E-01 a      1115     0    56     1    15
 -1.1541584598882459E+00 a      1116     0    56     1    16
 -1.1191220954972467E+00 a      1117     0    56     1    17
  1.2948034941698507E+00 a      1118     0    56     1    18
  1.8184299355200878E-01 a      1119     0    56     1    19
 -2.0342409432655102E+00 a      1120     0    56     1    20
  1.5591822667679684E+00 a      1121     0    57     1     1
 -1.0974244557284880E+00 a      1122     0    57     1     2
  5.1876879265824072E-01 a      1123     0    57     1     3
 -4.2627945953023182E-02 a      1124     0    57     1     4
 -2.4921348776352215E+00 a      1125     0    57     1     5
 -5.6996508053645190E-01 a      1126     0    57     1     6
  8.0112371871424837E-01 a      1127     0    57     1     7
  8.0043547257848657E-01 a      1128     0    57     1     8
 -5.9155771668584700E-01 a      1129     0    57     1     9
 -5.4987165445427721E-01 a      1130     0    57     1    10
  3.2023438434031964E-01 a      1131     0    57     1    11
  4.4337961234958367E-01 a      1132     0    57     1    12
 -7.5530868787887107E-01 a      1133     0    57     1    13
 -1.5779773767942522E+00 a      1134     0    57     1    14
 -5.3344898292758458E-01 a      1135     0    57     1    15
  2.1041973377596439E+00 a      1136     0    57     1    16
  1.5743521833424887E-01 a      1137     0    57     1    17
  2.6072251014585905E+00 a      1138     0    57     1    18
  3.7917154897520402E+00 a      1139     0    57     1    19
  1.0411275105384274E+00 a      1140     0    57     1    20
 -3.1154938190594050E-01 a      1141     0    58     1     1
 -1.0871893303199485E+00 a      1142     0    58     1     2
 -7.5007639094436507E-01 a      1143     0    58     1     3
 -3.4143801086070635E-01 a      1144     0    58     1     4
  1.0301264036279760E+00 a      1145     0    58     1     5
 -2.0297413293411526E-01 a      1146     0    58     1     6
 -1.3384676961534725E-01 a      1147     0    58     1     7
 -1.5089320857135442E+00 a      1148     0    58     1     8
  7.1701042808264248E-01 a      1149     0    58     1     9
 -2.4232322117078309E-02 a      1150     0    58     1    10
  5.1688813450765281E-01 a      1151     0    58     1    11
 -2.8589801618102380E-02 a      1152     0    58     1    12
 -1.0349203149314821E+00 a      1153     0    58     1    13
  7.9912203334009932E+00 a      1154     0    58     1    14
  1.4498835429063686E+00 a      1155     0    58     1    15
 -5.3381378617076347E-03 a      1156     0    58     1    16
  5.5070279998598037E-01 a      1157     0    58     1    17
 -6.8515153076854129E-01 a      1158     0    58     1    18
 -1.6993106966956137E+00 a      1159     0    58     1    19
  1.6544113212729092E+00 a      1160     0    58     1    20
  2.4596930470745812E-01 a      1161     0    59     1     1
 -5.0939471974705025E-02 a      1162     0    59     1     2
 -6.2336137854943430E-01 a      1163     0    59     1     3
 -2.9872226559821007E+00 a      1164     0    59     1     4
 -1.0405440674115087E+00 a      1165     0    59     1     5
 -1.9263767483259318E+00 a      1166     0    59     1     6
  2.8399641114547882E+00 a      1167     0    59     1     7
 -1.1653755654677274E+00 a      1168     0    59     1     8
  1.8471450559263047E+00 a      1169     0    59     1     9
  9.6620086617835044E-01 a      1170     0    59     1    10
 -9.9738277626571015E-01 a      1171     0    59     1    11
  1.6515426899122980E+00 a      1172     0    59     1    12
 -1.5404974337093604E+00 a      1173     0    59     1    13
  7.3601459099852751E-01 a      1174     0    59     1    14
 -1.1049950175215162E+00 a      1175     0    59     1    15
  7.2190646021419180E-01 a      1176     0    59     1    16
 -1.0659959096896804E-01 a      1177     0    59     1    17
  1.2651180898305161E+00 a      1178     0    59     1    18
 -4.8636123834161404E-01 a      1179     0    59     1    19
 -3.1527793262651382E-01 a      1180     0    59     1    20
 -9.3425193727662270E-01 a      1181     0    60     1     1
  2.7426586566733144E+00 a      1182     0    60     1     2
 -1.2915737628861224E+00 a      1183     0    60     1     3
  1.7039721523426550E+00 a      1184     0    60     1     4
 -7.7127577553918947E-01 a      1185     0    60     1     5
  8.3092744659295992E-01 a      1186     0    60     1     6
  2.4259819579505049E+00 a      1187     0    60     1     7
  1.7754474642914884E+00 a      1188     0    60     1     8
  1.8210446728918450E+00 a      1189     0    60     1     9
 -2.0292413806895793E-01 a      1190     0    60     1    10
 -2.7188082000613498E+00 a      1191     0    60     1    11
 -5.8736626916345080E-01 a      1192     0    60     1    12
 -7.2952447421609534E-01 a      1193     0    60     1    13
 -2.8558009446247659E+00 a      1194     0    60     1    14
  8.4135271157965652E-01 a      1195     0    60     1    15
 -6.0952778412459208E-01 a      1196     0    60     1    16
  1.2690811667382305E+00 a      1197     0    60     1    17
  1.0715805772832949E+00 a      1198     0    60     1    18
  4.4464212481665882E-01 a      1199     0    60     1    19
 -3.5997319125184146E-01 a      1200     0    60     1    20
  6.0409839742384941E-01 a      1201     0    61     1     1
 -2.1047339176039790E+00 a      1202     0    61     1     2
 -1.2317302313287131E+00 a      1203     0    61     1     3
  9.8808432013207570E-01 a      1204     0    61     1     4
  1.0730049787734375E+00 a      1205     0    61     1     5
 -1.2594736286732295E+00 a      1206     0    61     1     6
  1.7247810212129751E+00 a      1207     0    61     1     7
  1.0452868401418882E+00 a      1208     0    61     1     8
  9.1446397974346993E-01 a      1209     0    61     1     9
  1.7662016807660494E+00 a      1210     0    61     1    10
  9.2550309383500673E-01 a      1211     0    61     1    11
 -1.0879192964172137E+00 a      1212     0    61     1    12
 -1.5194996009652728E-01 a      1213     0    61     1    13
  2.5012406418489066E+00 a      1214     0    61     1    14
  8.1637557517030357E-01 a      1215     0    61     1    15
 -2.0069944022901764E+00 a      1216     0    61     1    16
  8.2954431686136987E-01 a      1217     0    61     1    17
 -7.1281774582384005E-01 a      1218     0    61     1    18
  1.4993246137674465E+00 a      1219     0    61     1    19
  1.5142231024627966E+00 a      1220     0    61     1    20
  9.8635614377397346E-02 a      1221     0    62     1     1
  2.8986652595997118E+00 a      1222     0    62     1     2
  1.5951872839605292E+00 a      1223     0    62     1     3
 -2.0841874941149263E+00 a      1224     0    62     1     4
 -1.2913332383773231E+00 a      1225     0    62     1     5
  8.9051340041658955E-01 a      1226     0    62     1     6
 -7.5908547199479770E-01 a      1227     0    62     1     7
 -3.8015092541629897E-01 a      1228     0    62     1     8
 -8.5546669135153497E-01 a      1229     0    62     1     9
  2.6314392417083061E+00 a      1230     0    62     1    10
 -2.8821168798608756E+00 a      1231     0    62     1    11
 -2.3258533113449249E+00 a      1232     0    62     1    12
  1.0507369457167985E+00 a      1233     0    62     1    13
 -2.2940490541745953E+00 a      1234     0    62     1    14
  9.3868042893148396E-01 a      1235     0    62     1    15
  7.2413816333294212E-01 a      1236     0    62     1    16
  2.2178479634500650E+00 a      1237     0    62     1    17
 -1.3550090993953756E+00 a      1238     0    62     1    18
  1.6766241449560579E+00 a      1239     0    62     1    19
  1.8854013789646357E-01 a      1240     0    62     1    20
 -5.5950036018291027E-01 a      1241     0    63     1     1
 -2.6852503823015017E-01 a      1242     0    63     1     2
 -2.4066878740151636E+00 a      1243     0    63     1     3
  1.2162474002746682E+00 a      1244     0    63     1     4
 -1.2171868858452111E+00 a      1245     0    63     1     5
 -1.6511724520498361E-01 a      1246     0    63     1     6
  2.2945490433946021E+00 a      1247     0    63     1     7
 -1.9818881512451467E+00 a      1248     0    63     1     8
 -1.1508861182324148E+00 a      1249     0    63     1     9
 -7.5729283676344850E-01 a      1250     0    63     1    10
  1.2113095878688052E+00 a      1251     0    63     1    11
  8.7685973694540309E-01 a      1252     0    63     1    12
 -8.1431429596705873E-01 a      1253     0    63     1    13
  6.4451007472030630E-01 a      1254     0    63     1    14
  2.7503572759062931E+00 a      1255     0    63     1    15
 -1.0689631404756702E-02 a      1256     0    63     1    16
  7.6633186562697375E-01 a      1257     0    63     1    17
  5.5670469625553853E-01 a      1258     0    63     1    18
 -8.3501506554148897E-01 a      1259     0    63     1    19
 -4.0520442647070443E-01 a      1260     0    63     1    20
 -9.3067468351874227E-01 a      1261     0    64     1     1
  9.5086478733022922E-02 a      1262     0    64     1     2
 -2.3776365902452890E-01 a      1263     0    64     1     3
 -7.7676288834071427E-01 a      1264     0    64     1     4
  1.2692564235012096E+00 a      1265     0    64     1     5
  1.3577951187913517E+00 a      1266     0    64     1     6
  1.2669217115617424E+00 a      1267     0    64     1     7
 -7.8864779739170121E-01 a      1268     0    64     1     8
  1.9923239156190866E+00 a      1269     0    64     1     9
  1.5195695883867957E+00 a      1270     0    64     1    10
  1.5601100261724756E+00 a      1271     0    64     1    11
  5.0007339287879059E-02 a      1272     0    64     1    12
  1.0102617385279824E+00 a      1273     0    64     1    13
  1.9616561457174304E+00 a      1274     0    64     1    14
  5.7074482303595431E-01 a      1275     0    64     1    15
 -2.2586997657425560E+00 a      1276     0    64     1    16
  5.7037339319960156E-01 a      1277     0    64     1    17
 -3.5445745562479886E-01 a      1278     0    64     1    18
 -4.1353651698133259E-01 a      1279     0    64     1    19
 -1.3486251653125054E+00 a      1280     0    64     1    20
 -5.0292650220646096E-01 a      1281     0    65     1     1
  1.0930607710097537E+00 a      1282     0    65     1     2
 -1.0476009042582517E+00 a      1283     0    65     1     3
 -9.6871953354105408E-02 a      1284     0    65     1     4
  1.4039399227470439E+00 a      1285     0    65     1     5
 -7.3981116929205559E-01 a      1286     0    65     1     6
 -1.6107963464395358E+00 a      1287     0    65     1     7
 -6.6556110882780872E-01 a      1288     0    65     1     8
  3.9793503397338847E-01 a      1289     0    65     1     9
 -8.5437657073272544E-01 a      1290     0    65     1    10
  9.3354386264614653E-01 a      1291     0    65     1    11
 -2.6644823807715262E-01 a      1292     0    65     1    12
  1.5883170808336455E+00 a      1293     0    65     1    13
  7.8706413002374565E-01 a      1294     0    65     1    14
  5.0526441518035436E-01 a      1295     0    65     1    15
 -1.2029118876938232E+00 a      1296     0    65     1    16
  2.8475686047514093E-01 a      1297     0    65     1    17
  7.0250852925518248E-01 a      1298     0    65     1    18
  1.6231350313035284E+00 a      1299     0    65     1    19
  8.4618690132678631E-01 a      1300     0    65     1    20
 -1.3297899112585383E+00 a      1301     0    66     1     1
 -2.7596061420669487E+00 a      1302     0    66     1     2
  1.2089522818193761E+00 a      1303     0    66     1     3
 -2.7449102046508274E+00 a      1304     0    66     1     4
  2.8229511910978791E-02 a      1305     0    66     1     5
 -6.7556533323492138E-02 a      1306     0    66     1     6
 -2.2906486328771249E+00 a      1307     0    66     1     7
  2.8480235542212090E-01 a      1308     0    66     1     8
  6.7836633714978123E-01 a      1309     0    66     1     9
 -1.7111479375595820E-01 a      1310     0    66     1    10
  6.0785998373192940E-01 a      1311     0    66     1    11
 -1.2571240852132040E+00 a      1312     0    66     1    12
 -6.3193250669813766E-02 a      1313     0    66     1    13
  2.6868814133196040E+00 a      1314     0    66     1    14
  7.5274694304391809E-01 a      1315     0    66     1    15
 -3.3171645227970505E+00 a      1316     0    66     1    16
  8.1183424786612265E-02 a      1317     0    66     1    17
 -8.8609379864894824E-02 a      1318     0    66     1    18
  1.4117825947193752E+00 a      1319     0    66     1    19
 -1.6031706983449527E+00 a      1320     0    66     1    20
 -1.5125212003704183E+00 a      1321     0    67     1     1
  2.0432420358236998E+00 a      1322     0    67     1     2
 -1.9796126416942697E-01 a      1323     0    67     1     3
 -3.2099037412765030E-01 a      1324     0    67     1     4
 -1.8392008732094518E+00 a      1325     0    67     1     5
  1.1976575394569203E-01 a      1326     0    67     1     6
 -1.4176489312100180E+00 a      1327     0    67     1     7
 -6.9364303171665187E-01 a      1328     0    67     1     8
 -1.3455399780114818E+00 a      1329     0    67     1     9
 -8.5863143583965407E-02 a      1330     0    67     1    10
  2.5333187969523632E+00 a      1331     0    67     1    11
  3.9922168477792364E-01 a      1332     0    67     1    12
 -2.9089228281746875E+00 a      1333     0    67     1    13
 -5.3049922802790495E-01 a      1334     0    67     1    14
  1.4470799647938306E+00 a      1335     0    67     1    15
 -1.7217423727761711E+00 a      1336     0    67     1    16
 -2.5724699651203200E+00 a      1337     0    67     1    17
  5.1607295909982231E-01 a      1338     0    67     1    18
  7.9241354912877648E-01 a      1339     0    67     1    19
 -2.3073107298091811E-01 a      1340     0    67     1    20
 -1.4219913052822244E-01 a      1341     0    68     1     1
 -3.5283186345706512E+00 a      1342     0    68     1     2
  6.6138247480258108E-02 a      1343     0    68     1     3
  5.0034265069836537E-01 a      1344     0    68     1     4
 -2.3061316143429118E+00 a      1345     0    68     1     5
 -1.4240430602200902E+00 a      1346     0    68     1     6
  1.8255374154517159E+00 a      1347     0    68     1     7
 -1.8013043583375183E+00 a      1348     0    68     1     8
 -5.4892595450901283E-01 a      1349     0    68     1     9
  5.7376199868897499E+00 a      1350     0    68     1    10
  2.1058121227269844E+00 a      1351     0    68     1    11
 -1.4349797409447964E+00 a      1352     0    68     1    12
  2.3938513096249597E-01 a      1353     0    68     1    13
  2.9609833567194873E-02 a      1354     0    68     1    14
 -1.1201503937306136E+00 a      1355     0    68     1    15
  1.6974425146255214E+00 a      1356     0    68     1    16
  1.4426117808648182E+00 a      1357     0    68     1    17
 -8.0678950390417981E-01 a      1358     0    68     1    18
 -4.9814718327380811E+00 a      1359     0    68     1    19
 -6.4937138220894253E-01 a      1360     0    68     1    20
  1.0205966688089150E+00 a      1361     0    69     1     1
  1.8712553060583883E+00 a      1362     0    69     1     2
 -1.2679623805698887E+00 a      1363     0    69     1     3
 -1.2799058978791911E+00 a      1364     0    69     1     4
 -2.7849572568090211E+00 a      1365     0    69     1     5
 -9.1716151737483320E-01 a      1366     0    69     1     6
  1.7231551699023025E-02 a      1367     0    69     1     7
  1.5802337930796123E-01 a      1368     0    69     1     8
  6.8759396772884129E-01 a      1369     0    69     1     9
  7.4939565794363006E-01 a      1370     0    69     1    10
 -2.2615187977803700E-01 a      1371     0    69     1    11
 -4.2616024275421011E-01 a      1372     0    69     1    12
 -1.1033131252625636E+00 a      1373     0    69     1    13
  1.5095281436914865E+00 a      1374     0    69     1    14
 -4.7126891374519364E-02 a      1375     0    69     1    15
 -1.2249140118885671E+00 a      1376     0    69     1    16
 -2.9629491248801552E+00 a      1377     0    69     1    17
  4.5403965878868380E-01 a      1378     0    69     1    18
  1.4394163158767298E-01 a      1379     0    69     1    19
  8.7586755199272148E-01 a      1380     0    69     1    20
 -4.5075698304656087E-01 a      1381     0    70     1     1
  3.5899577365490063E+00 a      1382     0    70     1     2
 -1.2614897154648530E+00 a      1383     0    70     1     3
  4.5581312105988109E-01 a      1384     0    70     1     4
 -2.6981550841467730E+00 a      1385     0    70     1     5
  4.1128154842367959E-01 a      1386     0    70     1     6
  1.0331938333105171E+00 a      1387     0    70     1     7
 -4.2540863668484757E-01 a      1388     0    70     1     8
  1.3050795154326029E+00 a      1389     0    70     1     9
 -1.8677077041487815E+00 a      1390     0    70     1    10
  1.5039039122281661E+00 a      1391     0    70     1    11
 -2.2910970705511895E-02 a      1392     0    70     1    12
 -3.2826843399728238E+00 a      1393     0    70     1    13
  3.3462259542654010E-01 a      1394     0    70     1    14
  7.4022542265113822E-01 a      1395     0    70     1    15
  6.0505427575587389E-01 a      1396     0    70     1    16
 -1.1463211757947944E+00 a      1397     0    70     1    17
 -1.2678841145181354E+00 a      1398     0    70     1    18
 -4.0453375321448637E-01 a      1399     0    70     1    19
 -7.6743028205902830E-01 a      1400     0    70     1    20
  3.3244587866878700E-01 a      1401     0    71     1     1
 -3.0780053597341490E-02 a      1402     0    71     1     2
 -1.3728285580505029E+00 a      1403     0    71     1     3
 -2.7847204171032081E+00 a      1404     0    71     1     4
 -2.2609754869545360E+00 a      1405     0    71     1     5
  1.1922098116633970E+00 a      1406     0    71     1     6
 -1.5613302794904049E+00 a      1407     0    71     1     7
  8.4438622199740865E-01 a      1408     0    71     1     8
  2.0895040282587649E+00 a      1409     0    71     1     9
  1.4806035518952521E+00 a      1410     0    71     1    10
  1.5407289166011005E+00 a      1411     0    71     1    11
 -1.2091003729493721E+00 a      1412     0    71     1    12
 -1.6482796654033747E+00 a      1413     0    71     1    13
 -2.5291480394539634E-01 a      1414     0    71     1    14
 -2.8550385501833433E+00 a      1415     0    71     1    15
  2.4183195247882584E-02 a      1416     0    71     1    16
 -2.8565450174831333E+00 a      1417     0    71     1    17
  2.1211365634179611E+00 a      1418     0    71     1    18
  1.6336284850581633E+00 a      1419     0    71     1    19
  8.3287346159401243E-01 a      1420     0    71     1    20
  4.4759492211237151E-01 a      1421     0    72     1     1
  9.4954514278512883E-02 a      1422     0    72     1     2
 -1.7977785545327192E+00 a      1423     0    72     1     3
  1.4158615569568802E+00 a      1424     0    72     1     4
 -1.7125259016826311E-01 a      1425     0    72     1     5
 -2.7670201900188958E+00 a      1426     0    72     1     6
  4.5303731235976857E-01 a      1427     0    72     1     7
  1.8686256495602289E+00 a      1428     0    72     1     8
 -1.6659913734494816E+00 a      1429     0    72     1     9
 -8.4826767367305722E-01 a      1430     0    72     1    10
 -1.2165240667816344E+00 a      1431     0    72     1    11
  5.3203522853397578E-01 a      1432     0    72     1    12
  1.0781702264710873E+00 a      1433     0    72     1    13
  4.3730310063587841E-01 a      1434     0    72     1    14
 -9.8236297046158561E-01 a      1435     0    72     1    15
  5.9823942387464368E-01 a      1436     0    72     1    16
  7.7726934428484840E-01 a      1437     0    72     1    17
 -6.8290673603950991E-01 a      1438     0    72     1    18
 -1.9581053083536074E-01 a      1439     0    72     1    19
  1.8736556009468874E+00 a      1440     0    72     1    20
  9.8639740197113279E-01 a      1441     0    73     1     1
 -1.5992314716400089E+00 a      1442     0    73     1     2
 -2.1590039367597944E+00 a      1443     0    73     1     3
  7.3492756352236976E-01 a      1444     0    73     1     4
 -1.3511308958971144E+00 a      1445     0    73     1     5
 -2.8269932423426609E+00 a      1446     0    73     1     6
 -8.3698889095696311E-02 a      1447     0    73     1     7
 -1.1459564014185915E-02 a      1448     0    73     1     8
 -8.9306630708070811E-01 a      1449     0    73     1     9
 -1.4612928991422178E+00 a      1450     0    73     1    10
  1.4929989921251005E-01 a      1451     0    73     1    11
  2.7407578461743753E-01 a      1452     0    73     1    12
  2.0477151597520966E+00 a      1453     0    73     1    13
 -1.5547586754956664E+00 a      1454     0    73     1    14
 -1.7084745965268737E+00 a      1455     0    73     1    15
  2.5368601819825600E+00 a      1456     0    73     1    16
  1.9495889971650477E+00 a      1457     0    73     1    17
 -1.5115692819850660E-01 a      1458     0    73     1    18
 -5.5839284784198834E-02 a      1459     0    73     1    19
  2.3431728272775256E+00 a      1460     0    73     1    20
 -2.3796110695254029E+00 a      1461     0    74     1     1
 -2.8494541834084233E+00 a      1462     0    74     1     2
 -3.9905476125213507E-01 a      1463     0    74     1     3
  9.5519044996539804E-01 a      1464     0    74     1     4
  8.5432914400637072E-01 a      1465     0    74     1     5
 -1.5402480753013539E+00 a      1466     0    74     1     6
  7.7822919055545692E-01 a      1467     0    74     1     7
 -2.2538611424682249E+00 a      1468     0    74     1     8
  2.4961422782024587E+00 a      1469     0    74     1     9
 -1.1231872011994186E-01 a      1470     0    74     1    10
 -2.0887003324849585E+00 a      1471     0    74     1    11
 -5.3636032213786156E-01 a      1472     0    74     1    12
  2.8449033683611746E-01 a      1473     0    74     1    13
  4.8321295085150204E+00 a      1474     0    74     1    14
  9.7118121609901120E-01 a      1475     0    74     1    15
  3.5171606271693234E-01 a      1476     0    74     1    16
  3.9853674004804769E+00 a      1477     0    74     1    17
  2.9402215842216894E-01 a      1478     0    74     1    18
 -5.5110634402811642E-01 a      1479     0    74     1    19
 -2.4603972975379768E-01 a      1480     0    74     1    20
  4.1458698626305490E-01 a      1481     0    75     1     1
 -7.2743511343478318E-01 a      1482     0    75     1     2
 -2.6760097043636993E-01 a      1483     0    75     1     3
  9.7437239265162112E-01 a      1484     0    75     1     4
 -3.8849587213969988E-01 a      1485     0    75     1     5
  1.0928289212614993E-01 a      1486     0    75     1     6
 -1.0075926063775999E-01 a      1487     0    75     1     7
 -9.6910768376147330E-02 a      1488     0    75     1     8
 -3.9341309533575514E-01 a      1489     0    75     1     9
 -2.9001322996511543E-02 a      1490     0    75     1    10
  7.3924752105611002E-01 a      1491     0    75     1    11
 -1.1441975740836692E-01 a      1492     0    75     1    12
  5.8781466200909877E-02 a      1493     0    75     1    13
  8.5477687070351460E-01 a      1494     0    75     1    14
  6.2948880402478966E-02 a      1495     0    75     1    15
  6.6637739860501499E-01 a      1496     0    75     1    16
  6.5626804061346833E-01 a      1497     0    75     1    17
 -1.5493633098392825E+00 a      1498     0    75     1    18
  1.1893977433129688E+00 a      1499     0    75     1    19
 -1.3744193715379258E+00 a      1500     0    75     1    20
  3.5341158676753059E-01 a      1501     0    76     1     1
  7.8673560014122867E-01 a      1502     0    76     1     2
  3.4890785768835697E-01 a      1503     0    76     1     3
  8.0509586211913953E-01 a      1504     0    76     1     4
 -9.5708445830386868E-01 a      1505     0    76     1     5
 -6.8296856280862472E-01 a      1506     0    76     1     6
  4.1592820059063462E-01 a      1507     0    76     1     7
  3.2419138666667419E-01 a      1508     0    76     1     8
  5.0625328659289731E-02 a      1509     0    76     1     9
 -6.9228397098581163E-01 a      1510     0    76     1    10
 -6.5262425371527030E-02 a      1511     0    76     1    11
 -1.2550846006602807E+00 a      1512     0    76     1    12
  1.0277027254165236E+00 a      1513     0    76     1    13
 -3.8104183208785730E-01 a      1514     0    76     1    14
 -6.4166249450294299E-01 a      1515     0    76     1    15
  1.3123004233638251E+00 a      1516     0    76     1    16
 -1.5241463838134470E+00 a      1517     0    76     1    17
  2.2382999175844581E-01 a      1518     0    76     1    18
 -5.4548935211344984E-01 a      1519     0    76     1    19
 -1.1488226345244128E+00 a      1520     0    76     1    20
 -1.8159845734563018E-01 a      1521     0    77     1     1
 -1.9185431930181001E+00 a      1522     0    77     1     2
 -2.7269295647585223E-01 a      1523     0    77     1     3
  4.7019523765980792E-01 a      1524     0    77     1     4
 -2.4631131692585155E+00 a      1525     0    77     1     5
 -1.5469647621684126E+00 a      1526     0    77     1     6
  1.6752700495454851E+00 a      1527     0    77     1     7
 -1.2274651240318428E+00 a      1528     0    77     1     8
 -7.3648367902095324E-01 a      1529     0    77     1     9
  5.9765985557334900E-01 a      1530     0    77     1    10
  1.0185336885582563E+00 a      1531     0    77     1    11
  1.8692352946495519E-01 a      1532     0    77     1    12
  6.9542222778437268E-01 a      1533     0    77     1    13
 -1.2113409265948367E+00 a      1534     0    77     1    14
  1.0954234981950253E+00 a      1535     0    77     1    15
 -1.5493692167525577E+00 a      1536     0    77     1    16
  1.0683877000940785E+00 a      1537     0    77     1    17
 -6.2717166740953600E-01 a      1538     0    77     1    18
 -2.0757017922186467E+00 a      1539     0    77     1    19
  1.8005381489086689E-01 a      1540     0    77     1    20
  4.9929111434031120E-01 a      1541     0    78     1     1
 -1.7486833751497450E+00 a      1542     0    78     1     2
 -1.4123363014097282E-01 a      1543     0    78     1     3
 -6.6062855986696845E-01 a      1544     0    78     1     4
 -6.4787167933819678E-01 a      1545     0    78     1     5
 -8.0979126073433749E-01 a      1546     0    78     1     6
  1.1271419773125200E+00 a      1547     0    78     1     7
  8.7186640855249775E-01 a      1548     0    78     1     8
  5.3687961664285455E-01 a      1549     0    78     1     9
 -6.5819167027401815E-01 a      1550     0    78     1    10
 -1.7556371775628148E+00 a      1551     0    78     1    11
 -1.5612580542422752E-01 a      1552     0    78     1    12
 -3.0035088212321254E-01 a      1553     0    78     1    13
 -1.2118367311476448E+00 a      1554     0    78     1    14
  1.8588481860357604E+00 a      1555     0    78     1    15
 -3.0295830618857361E-01 a      1556     0    78     1    16
 -1.8097500156775637E+00 a      1557     0    78     1    17
  4.7066929950922765E-01 a      1558     0    78     1    18
 -4.4980158293201356E-01 a      1559     0    78     1    19
  3.8258307178675610E-01 a      1560     0    78     1    20
  1.7878570400184566E+00 a      1561     0    79     1     1
 -8.5350143650186672E-01 a      1562     0    79     1     2
  4.6795953017712194E-01 a      1563     0    79     1     3
  4.4561030729513866E-03 a      1564     0    79     1     4
  1.3086539313107091E+00 a      1565     0    79     1     5
  1.2355426339720306E+00 a      1566     0    79     1     6
  2.0324242304717499E+00 a      1567     0    79     1     7
  1.3633986498509461E+00 a      1568     0    79     1     8
 -1.0039850598107918E+00 a      1569     0    79     1     9
 -1.0015829878228113E+00 a      1570     0    79     1    10
 -2.8676229386618597E+00 a      1571     0    79     1    11
 -1.2719642723166782E+00 a      1572     0    79     1    12
  2.8826025957709125E+00 a      1573     0    79     1    13
  5.6261958728298034E-01 a      1574     0    79     1    14
  1.2989789143623929E+00 a      1575     0    79     1    15
  2.7604423178825046E+00 a      1576     0    79     1    16
 -1.2242658732643805E+00 a      1577     0    79     1    17
 -9.9955609013508140E-02 a      1578     0    79     1    18
 -5.2537493212257369E-01 a      1579     0    79     1    19
 -2.4400539692198220E+00 a      1580     0    79     1    20
  1.6392978322757752E+00 a      1581     0    80     1     1
  6.7890575329261382E-01 a      1582     0    80     1     2
 -2.0544224794228270E+00 a      1583     0    80     1     3
  7.9024335023527764E-02 a      1584     0    80     1     4
  9.4371076534622500E-01 a      1585     0    80     1     5
  6.6304555258858766E-01 a      1586     0    80     1     6
 -1.2175070211114205E+00 a      1587     0    80     1     7
  1.0030671945967709E+00 a      1588     0    80     1     8
  1.2390064103666758E+00 a      1589     0    80     1     9
 -3.7932171851964175E-01 a      1590     0    80     1    10
 -7.2105427489343132E-01 a      1591     0    80     1    11
 -6.9958110736631951E-01 a      1592     0    80     1    12
  3.1676546138282441E-01 a      1593     0    80     1    13
 -2.2633380170611237E+00 a      1594     0    80     1    14
 -5.6230637396141758E-01 a      1595     0    80     1    15
 -2.4227317815768049E-01 a      1596     0    80     1    16
 -2.1140868177518524E+00 a      1597     0    80     1    17
 -1.5055919092356931E-01 a      1598     0    80     1    18
  1.1312437983847672E+00 a      1599     0    80     1    19
  1.4903065927754648E+00 a      1600     0    80     1    20
  3.2547201478306381E-01 a      1601     0    81     1     1
 -1.9580172099976243E+00 a      1602     0    81     1     2
 -1.3624100495872418E+00 a      1603     0    81     1     3
  1.5595331823463081E+00 a      1604     0    81     1     4
 -2.3175314867931870E-01 a      1605     0    81     1     5
 -9.2069871680564375E-01 a      1606     0    81     1     6
 -2.6557321779722802E-02 a      1607     0    81     1     7
  2.4094893435241378E+00 a      1608     0    81     1     8
 -1.7556730923652328E-01 a      1609     0    81     1     9
 -8.1538555223509079E-01 a      1610     0    81     1    10
  2.7348998273227237E-01 a      1611     0    81     1    11
  1.6513127951885426E-01 a      1612     0    81     1    12
 -8.4378427685441160E-01 a      1613     0    81     1    13
 -7.2579777948571278E-01 a      1614     0    81     1    14
  4.3890332043728569E-01 a      1615     0    81     1    15
  7.3948655931609186E-01 a      1616     0    81     1    16
  2.1538713635463567E+00 a      1617     0    81     1    17
  3.5389800572447278E-01 a      1618     0    81     1    18
  3.9609062840115972E-01 a      1619     0    81     1    19
  7.1914499225852779E-01 a      1620     0    81     1    20
  2.4331426869190742E+00 a      1621     0    82     1     1
 -7.0162375286945100E-01 a      1622     0    82     1     2
  1.6878484910471772E-01 a      1623     0    82     1     3
