################################################################################
# Neural network connection values (weights and biases).
################################################################################
# Col  Name       Description
################################################################################
# 1    connection Neural network connection value.
# 2    t          Connection type (a = weight, b = bias).
# 3    index      Index enumerating weights.
# 4    l_s        Starting point layer (end point layer for biases).
# 5    n_s        Starting point neuron in starting layer (end point neuron for biases).
# 6    l_e        End point layer.
# 7    n_e        End point neuron in end layer.
################################################################################
#                      1 2         3     4     5     6     7
#             connection t     index   l_s   n_s   l_e   n_e
############################################################
  9.8122945871246934E+00 a         1     0     1     1     1
  2.5806292854643075E+01 a         2     0     1     1     2
 -1.2486368267685046E+01 a         3     0     1     1     3
 -8.2593541279273530E-01 a         4     0     1     1     4
 -4.0154064870139701E+00 a         5     0     1     1     5
  4.6356360016282128E-01 a         6     0     1     1     6
  7.7992256992846603E+00 a         7     0     1     1     7
  8.9356741205696100E+00 a         8     0     1     1     8
  3.6093299814884712E+00 a         9     0     1     1     9
  1.8920360366505697E+01 a        10     0     1     1    10
  8.1482066635590673E+00 a        11     0     1     1    11
  7.3296179778683468E-01 a        12     0     1     1    12
  1.7049171709829418E+00 a        13     0     1     1    13
  3.6155519652382524E+00 a        14     0     1     1    14
  1.2740722711945347E+00 a        15     0     1     1    15
  8.3238167495186239E+00 a        16     0     1     1    16
 -8.9935429745928044E+00 a        17     0     1     1    17
  7.4352661877592832E+00 a        18     0     1     1    18
  8.3593067611034204E+00 a        19     0     1     1    19
 -2.2542384027752554E+01 a        20     0     1     1    20
 -8.6625639335211702E+00 a        21     0     2     1     1
 -7.3283967359345246E+00 a        22     0     2     1     2
  5.9638404131973344E+00 a        23     0     2     1     3
 -4.0111769213993096E+00 a        24     0     2     1     4
 -3.2556802213163101E+00 a        25     0     2     1     5
  3.3781502785864026E+00 a        26     0     2     1     6
  4.7149757369574807E+00 a        27     0     2     1     7
 -1.0141570614601294E+01 a        28     0     2     1     8
  1.0474273975608284E+01 a        29     0     2     1     9
  1.4853138275176894E+00 a        30     0     2     1    10
 -3.6128146677565822E+00 a        31     0     2     1    11
 -3.0150580862651255E+00 a        32     0     2     1    12
 -7.2447221022768380E+00 a        33     0     2     1    13
 -9.9185657411037322E+00 a        34     0     2     1    14
 -6.3516706408186296E+00 a        35     0     2     1    15
  3.8009749017910455E+00 a        36     0     2     1    16
  6.9691820063287535E+00 a        37     0     2     1    17
 -1.1871055679136859E+01 a        38     0     2     1    18
 -3.9928368423581002E+00 a        39     0     2     1    19
  1.7444918913352623E+01 a        40     0     2     1    20
 -1.4592952395888950E+01 a        41     0     3     1     1
 -1.0871815918910578E+01 a        42     0     3     1     2
  1.2509325441424762E+01 a        43     0     3     1     3
 -6.4050610252740539E+00 a        44     0     3     1     4
 -1.0230066063582958E+01 a        45     0     3     1     5
  1.1374455778324302E+01 a        46     0     3     1     6
  2.0137253894509367E+01 a        47     0     3     1     7
 -1.3250200829812398E+01 a        48     0     3     1     8
  2.9763162185970393E+00 a        49     0     3     1     9
 -7.7033851154809092E+00 a        50     0     3     1    10
  1.8119764808196412E+00 a        51     0     3     1    11
  4.1965053478684293E+00 a        52     0     3     1    12
  3.7701862483085447E+00 a        53     0     3     1    13
  1.7646142453644569E+00 a        54     0     3     1    14
  1.7824961020144787E+01 a        55     0     3     1    15
 -6.2697885829369371E+00 a        56     0     3     1    16
 -2.9457198707721483E-01 a        57     0     3     1    17
 -1.4029553174466010E+00 a        58     0     3     1    18
  5.0959403309655231E+00 a        59     0     3     1    19
  5.2799156382672727E+00 a        60     0     3     1    20
  1.3692384105643772E+01 a        61     0     4     1     1
  8.9676596040428329E+00 a        62     0     4     1     2
  1.0041423256741934E+01 a        63     0     4     1     3
  2.0298255499930018E+01 a        64     0     4     1     4
 -6.3402180287519734E+00 a        65     0     4     1     5
 -1.1047504654831389E+01 a        66     0     4     1     6
 -1.0915513314782068E+01 a        67     0     4     1     7
  7.1724277996636676E+00 a        68     0     4     1     8
 -2.6559281636640741E+00 a        69     0     4     1     9
  2.1617359098150061E+01 a        70     0     4     1    10
 -6.5328204122215245E+00 a        71     0     4     1    11
  1.3080754985205528E+01 a        72     0     4     1    12
 -4.2250062320685116E+00 a        73     0     4     1    13
 -6.8167006075157257E+00 a        74     0     4     1    14
 -9.2810406733580975E-01 a        75     0     4     1    15
 -1.4545062980515169E+00 a        76     0     4     1    16
  8.2593343555959509E-01 a        77     0     4     1    17
  1.8097203767749679E+01 a        78     0     4     1    18
 -4.1518934159395124E+00 a        79     0     4     1    19
 -3.1280274261697776E+00 a        80     0     4     1    20
  4.4377399587341526E-01 a        81     0     5     1     1
  1.9142210043247033E+01 a        82     0     5     1     2
  1.1510982025940637E+01 a        83     0     5     1     3
  2.6561788122609414E+01 a        84     0     5     1     4
  2.6439269718171325E+01 a        85     0     5     1     5
 -7.4839931527312125E+00 a        86     0     5     1     6
  7.1124076147133097E+00 a        87     0     5     1     7
  2.8941108228368582E+00 a        88     0     5     1     8
  9.2330361213481567E+00 a        89     0     5     1     9
 -1.2603997698237816E+01 a        90     0     5     1    10
 -3.9375708073422926E+00 a        91     0     5     1    11
  8.5412889941572878E+00 a        92     0     5     1    12
  1.4658131930545590E+01 a        93     0     5     1    13
  1.0864590529848333E+00 a        94     0     5     1    14
 -8.8066033472638026E+00 a        95     0     5     1    15
 -5.6773948730342383E+00 a        96     0     5     1    16
  8.3482034650854029E+00 a        97     0     5     1    17
 -7.7578850977593454E+00 a        98     0     5     1    18
 -5.0443190928733257E+00 a        99     0     5     1    19
  1.1125724556445238E+01 a       100     0     5     1    20
 -8.2196720308835722E+00 a       101     0     6     1     1
  3.3229756136923272E+00 a       102     0     6     1     2
 -4.2299236007608600E+00 a       103     0     6     1     3
 -4.6998721186520438E+00 a       104     0     6     1     4
  8.7593697685781500E+00 a       105     0     6     1     5
 -1.5518077557210836E+01 a       106     0     6     1     6
  9.2685763986483707E+00 a       107     0     6     1     7
  2.0427832541789646E+00 a       108     0     6     1     8
 -1.8883481537184966E+01 a       109     0     6     1     9
 -1.4633838778136006E+01 a       110     0     6     1    10
  9.7207746443680465E-01 a       111     0     6     1    11
 -5.2164193611260172E+00 a       112     0     6     1    12
  9.9173382763005833E+00 a       113     0     6     1    13
  9.7088817644250724E+00 a       114     0     6     1    14
  5.4938047403317896E+00 a       115     0     6     1    15
  9.5084267276791756E+00 a       116     0     6     1    16
  3.1783018538277941E+00 a       117     0     6     1    17
 -1.0431880141468758E+01 a       118     0     6     1    18
 -6.9897070680634288E+00 a       119     0     6     1    19
 -1.1493217509282214E+01 a       120     0     6     1    20
 -6.6347920072136253E+00 a       121     0     7     1     1
 -1.1374291397670985E+01 a       122     0     7     1     2
 -4.3748569912857720E+00 a       123     0     7     1     3
  6.2870204765611311E+00 a       124     0     7     1     4
  4.5554357528904008E+00 a       125     0     7     1     5
 -5.9201349566130004E+00 a       126     0     7     1     6
  6.0681726400675799E+00 a       127     0     7     1     7
 -4.0746896128201104E+00 a       128     0     7     1     8
 -6.2607324252110468E+00 a       129     0     7     1     9
 -5.4602704863797218E+00 a       130     0     7     1    10
  4.3419178503545979E+00 a       131     0     7     1    11
 -3.8756972466983175E+00 a       132     0     7     1    12
  7.5785174187529272E+00 a       133     0     7     1    13
  1.0394154304801392E+01 a       134     0     7     1    14
 -4.5024570318976496E+00 a       135     0     7     1    15
 -1.9904382813950040E+01 a       136     0     7     1    16
  1.2805086027118618E+01 a       137     0     7     1    17
 -1.0479123278062970E+00 a       138     0     7     1    18
  1.3668250267685025E+00 a       139     0     7     1    19
  1.2092219999684193E+01 a       140     0     7     1    20
 -8.9411350726605843E+00 a       141     0     8     1     1
 -8.0773030399361467E-01 a       142     0     8     1     2
 -2.4942227177606622E+00 a       143     0     8     1     3
 -2.5240327435945122E+00 a       144     0     8     1     4
  6.8958206958472867E-01 a       145     0     8     1     5
 -6.2407297334561884E-01 a       146     0     8     1     6
  4.3427076212192768E+00 a       147     0     8     1     7
 -3.0601062054800874E+00 a       148     0     8     1     8
  1.8784706388812253E+00 a       149     0     8     1     9
  1.8163019656074284E+00 a       150     0     8     1    10
 -4.8087126579997896E+00 a       151     0     8     1    11
 -2.9785879716606525E+00 a       152     0     8     1    12
  4.0827044703531401E+00 a       153     0     8     1    13
 -7.3674383408445960E+00 a       154     0     8     1    14
  3.0624779216152649E+00 a       155     0     8     1    15
  9.9207619620708893E+00 a       156     0     8     1    16
  4.6310031482026943E+00 a       157     0     8     1    17
 -2.5169705855070732E+00 a       158     0     8     1    18
 -3.9602743644644653E+00 a       159     0     8     1    19
 -9.3828144318926043E-01 a       160     0     8     1    20
  3.3992540466299723E+00 a       161     0     9     1     1
  6.9187103393278466E+00 a       162     0     9     1     2
 -4.5525858992503423E+00 a       163     0     9     1     3
  8.8725115200390761E+00 a       164     0     9     1     4
  4.1348409375629043E+00 a       165     0     9     1     5
 -1.6174791425798021E+00 a       166     0     9     1     6
 -1.1303451841948313E+01 a       167     0     9     1     7
 -2.6472129920631020E+00 a       168     0     9     1     8
 -4.8365339666374316E+00 a       169     0     9     1     9
  3.8390306426550311E+00 a       170     0     9     1    10
 -3.6758807896206234E+00 a       171     0     9     1    11
  5.4929172797650516E-01 a       172     0     9     1    12
 -3.0135187846023697E+00 a       173     0     9     1    13
  4.2102196331765646E-01 a       174     0     9     1    14
 -4.0239468833097582E+00 a       175     0     9     1    15
  1.6654852295085774E+01 a       176     0     9     1    16
  3.3465017787621245E+00 a       177     0     9     1    17
 -1.7969242428022394E+00 a       178     0     9     1    18
 -9.6732478712537073E-01 a       179     0     9     1    19
  4.8725241311535532E+00 a       180     0     9     1    20
  4.2768466237183000E-01 a       181     0    10     1     1
 -2.4827477077542994E+00 a       182     0    10     1     2
  1.1124698522757475E+01 a       183     0    10     1     3
  1.5936461017594414E+00 a       184     0    10     1     4
 -2.8025654635434725E+00 a       185     0    10     1     5
 -2.8548868186523508E+00 a       186     0    10     1     6
 -1.5626941619416466E+00 a       187     0    10     1     7
 -1.5115664343551736E+00 a       188     0    10     1     8
 -8.7910601567147779E+00 a       189     0    10     1     9
  1.1684565604952367E+01 a       190     0    10     1    10
  2.5315123469250262E+00 a       191     0    10     1    11
  4.5353609861454747E-01 a       192     0    10     1    12
  8.3970699416815826E+00 a       193     0    10     1    13
 -1.0346487454841007E+00 a       194     0    10     1    14
  3.8220939302495403E+00 a       195     0    10     1    15
 -9.4007353953296793E+00 a       196     0    10     1    16
 -8.2115303005091143E+00 a       197     0    10     1    17
  1.9412369648291183E+00 a       198     0    10     1    18
 -3.5310911541214742E+00 a       199     0    10     1    19
  2.0684855198793790E+00 a       200     0    10     1    20
 -3.3632802856253599E+00 a       201     0    11     1     1
 -7.2905114338971959E+00 a       202     0    11     1     2
  5.9352486512254670E+00 a       203     0    11     1     3
 -1.1717687584959631E+00 a       204     0    11     1     4
 -2.6267741653772236E-01 a       205     0    11     1     5
  3.0866863188772947E-01 a       206     0    11     1     6
  5.9267729566557712E+00 a       207     0    11     1     7
  6.7921629550948059E-01 a       208     0    11     1     8
  5.8263926335791663E+00 a       209     0    11     1     9
 -2.4364987523196113E+00 a       210     0    11     1    10
  4.3943193730660033E+00 a       211     0    11     1    11
  7.5719314371553290E+00 a       212     0    11     1    12
  5.7751414650865103E+00 a       213     0    11     1    13
  4.5655912992504999E-01 a       214     0    11     1    14
  3.9376707116750227E+00 a       215     0    11     1    15
 -2.1653098514598252E+01 a       216     0    11     1    16
  9.7634048934403221E+00 a       217     0    11     1    17
  2.9772631521403445E+00 a       218     0    11     1    18
  4.1523517388929537E-01 a       219     0    11     1    19
  6.9675825419317343E+00 a       220     0    11     1    20
 -8.0555375262597479E+00 a       221     0    12     1     1
  6.9509549157925710E+00 a       222     0    12     1     2
 -3.6629050449361298E+00 a       223     0    12     1     3
 -8.0254682778470094E+00 a       224     0    12     1     4
 -6.6608507585133996E+00 a       225     0    12     1     5
 -3.6564024428854052E+00 a       226     0    12     1     6
  2.4747822846029748E+00 a       227     0    12     1     7
 -4.1303293266362946E+00 a       228     0    12     1     8
 -1.6925748175880816E+01 a       229     0    12     1     9
 -2.1327715197236401E+00 a       230     0    12     1    10
 -1.2281827069345703E+00 a       231     0    12     1    11
 -2.0840799331232943E-01 a       232     0    12     1    12
 -5.9215967462232602E+00 a       233     0    12     1    13
 -1.4943061902137678E+00 a       234     0    12     1    14
  6.5302979601034616E+00 a       235     0    12     1    15
 -6.7390085320250581E-01 a       236     0    12     1    16
 -6.5717812482643607E+00 a       237     0    12     1    17
  2.5177563061284465E+00 a       238     0    12     1    18
  6.1519723545515381E+00 a       239     0    12     1    19
  2.5724490333967793E+00 a       240     0    12     1    20
 -6.9395981745212545E+00 a       241     0    13     1     1
  1.4782229548313170E+00 a       242     0    13     1     2
  2.9997484170102040E+00 a       243     0    13     1     3
 -5.3891639804973321E+00 a       244     0    13     1     4
  2.2482232227329895E+01 a       245     0    13     1     5
  1.3857060214648598E+01 a       246     0    13     1     6
 -1.3544574465630987E+01 a       247     0    13     1     7
 -3.4451315334547346E+01 a       248     0    13     1     8
 -2.1487356445657063E+01 a       249     0    13     1     9
 -3.6624452998479802E+00 a       250     0    13     1    10
 -5.7591953811084595E+00 a       251     0    13     1    11
 -1.4246695772064713E+01 a       252     0    13     1    12
 -3.8590035095708970E+00 a       253     0    13     1    13
  2.2973466871789157E+01 a       254     0    13     1    14
 -1.3141402053439675E+01 a       255     0    13     1    15
 -6.6992519673180038E+00 a       256     0    13     1    16
 -2.9969587610701116E+00 a       257     0    13     1    17
  1.7972111827754269E+00 a       258     0    13     1    18
  6.2544045707070595E+00 a       259     0    13     1    19
 -2.1685313940263267E+01 a       260     0    13     1    20
  4.0391370486218603E-01 a       261     0    14     1     1
 -8.1187236499095405E+00 a       262     0    14     1     2
  6.1107571404122422E-02 a       263     0    14     1     3
 -4.8304845798886298E+00 a       264     0    14     1     4
 -1.6018567952060547E+01 a       265     0    14     1     5
  7.0828434618889313E-01 a       266     0    14     1     6
 -4.0093078456244653E+00 a       267     0    14     1     7
 -5.3805339704568462E+00 a       268     0    14     1     8
  4.1755551628878447E+00 a       269     0    14     1     9
  5.7012918400072552E+00 a       270     0    14     1    10
  8.9937909853740428E-01 a       271     0    14     1    11
 -9.7163064172216576E+00 a       272     0    14     1    12
  3.5986751106663579E+00 a       273     0    14     1    13
  7.3579790521581518E+00 a       274     0    14     1    14
 -7.7641368300533102E+00 a       275     0    14     1    15
  1.1661449760625162E+00 a       276     0    14     1    16
  2.3331991274819539E+00 a       277     0    14     1    17
 -1.7594192638728494E+01 a       278     0    14     1    18
 -3.9064158889227478E+00 a       279     0    14     1    19
  2.1019093943969538E+00 a       280     0    14     1    20
  1.1393262445961110E+01 a       281     0    15     1     1
  2.4661973942276902E+00 a       282     0    15     1     2
 -1.3757113551077978E+01 a       283     0    15     1     3
  1.8282380066977662E+01 a       284     0    15     1     4
  1.0921720870012319E+01 a       285     0    15     1     5
 -1.3047664286209166E+00 a       286     0    15     1     6
  2.4895812019112551E+00 a       287     0    15     1     7
 -1.0171546510041993E+00 a       288     0    15     1     8
 -1.1530321871019729E+00 a       289     0    15     1     9
  2.2650689676835158E+00 a       290     0    15     1    10
 -7.4374434772798494E+00 a       291     0    15     1    11
 -3.9304498828834994E+01 a       292     0    15     1    12
 -1.0912747692378129E+00 a       293     0    15     1    13
 -1.2322431737190957E+01 a       294     0    15     1    14
  5.3159261255606802E+00 a       295     0    15     1    15
  9.8131213676192292E-02 a       296     0    15     1    16
  1.1132593233460849E+01 a       297     0    15     1    17
  1.3747586110772088E+01 a       298     0    15     1    18
 -7.9762047528726061E+00 a       299     0    15     1    19
  5.0257789772265696E+01 a       300     0    15     1    20
 -3.2166539722742935E+00 a       301     0    16     1     1
 -7.2211928217584722E+00 a       302     0    16     1     2
 -1.7810831826197910E+00 a       303     0    16     1     3
 -4.3653154869549722E+00 a       304     0    16     1     4
 -1.1725725334862195E+01 a       305     0    16     1     5
 -2.0260999472989245E+00 a       306     0    16     1     6
 -3.8935528197550791E+00 a       307     0    16     1     7
 -1.1491926057061077E+00 a       308     0    16     1     8
  7.1816413423816670E+00 a       309     0    16     1     9
  9.3160604017117912E+00 a       310     0    16     1    10
  2.9328382299962077E+00 a       311     0    16     1    11
 -7.5753442956832453E+00 a       312     0    16     1    12
  4.3711959299455243E+00 a       313     0    16     1    13
  8.5279254622273406E+00 a       314     0    16     1    14
 -5.6325208417522816E+00 a       315     0    16     1    15
 -1.6867074316492814E+00 a       316     0    16     1    16
  7.3612293590638016E+00 a       317     0    16     1    17
 -1.6803577045343712E+01 a       318     0    16     1    18
 -6.3737449227348808E+00 a       319     0    16     1    19
 -2.9319439376111522E+00 a       320     0    16     1    20
  1.3047998964942122E+01 a       321     0    17     1     1
 -1.5412007019438954E+01 a       322     0    17     1     2
 -1.0652133976195485E+01 a       323     0    17     1     3
  1.0482765598256561E+01 a       324     0    17     1     4
  1.5931422757310765E+01 a       325     0    17     1     5
 -5.9759870409193239E+00 a       326     0    17     1     6
 -5.7715425160142191E+00 a       327     0    17     1     7
 -7.8132620795000729E-01 a       328     0    17     1     8
 -1.7267190459020856E+01 a       329     0    17     1     9
 -1.3405757294977386E+01 a       330     0    17     1    10
 -1.6236355302705977E+01 a       331     0    17     1    11
  9.2977000744789304E+00 a       332     0    17     1    12
 -3.7630572998944807E+00 a       333     0    17     1    13
  1.7428714435116035E+01 a       334     0    17     1    14
  6.6510656773807559E+00 a       335     0    17     1    15
 -5.6981864847287111E+00 a       336     0    17     1    16
  1.7117405724906739E+01 a       337     0    17     1    17
 -1.1936936509106591E+01 a       338     0    17     1    18
 -3.2538773613331595E+00 a       339     0    17     1    19
  9.0599174366371642E+00 a       340     0    17     1    20
 -3.5661531313720879E+01 a       341     0    18     1     1
  3.5389379662946929E-01 a       342     0    18     1     2
 -1.6209393737695486E+01 a       343     0    18     1     3
 -1.7947652497789996E+01 a       344     0    18     1     4
  2.4508754749827042E+00 a       345     0    18     1     5
  3.1374941444401601E+00 a       346     0    18     1     6
 -3.1457413402081357E+01 a       347     0    18     1     7
  2.5237123577157526E+01 a       348     0    18     1     8
  8.1790767844406354E+00 a       349     0    18     1     9
  1.9852716865574564E+01 a       350     0    18     1    10
 -7.4268015741614732E+00 a       351     0    18     1    11
 -2.3317493200205437E+01 a       352     0    18     1    12
 -2.6917264869395673E+01 a       353     0    18     1    13
 -9.8072546294810383E+00 a       354     0    18     1    14
 -4.2409932830335730E+00 a       355     0    18     1    15
 -1.8866999597682332E-01 a       356     0    18     1    16
  1.1043942286490646E+01 a       357     0    18     1    17
 -7.0617302816286420E+00 a       358     0    18     1    18
  1.4441695506963475E+01 a       359     0    18     1    19
  3.9872288657508215E-01 a       360     0    18     1    20
  1.3453833130840717E+01 a       361     0    19     1     1
  1.1647377313996362E+01 a       362     0    19     1     2
 -9.3483922983073686E+00 a       363     0    19     1     3
  1.8887914808953024E+01 a       364     0    19     1     4
 -2.1140696864149122E+00 a       365     0    19     1     5
 -1.0004197975223679E+01 a       366     0    19     1     6
 -9.2817610082590623E+00 a       367     0    19     1     7
 -9.4126179548588471E+00 a       368     0    19     1     8
 -5.9866503885051188E+00 a       369     0    19     1     9
 -2.2407802823307456E+01 a       370     0    19     1    10
 -1.7670258456278244E+01 a       371     0    19     1    11
 -1.9936302256423670E-02 a       372     0    19     1    12
 -3.5453256147166270E+00 a       373     0    19     1    13
 -6.4183421155658094E+00 a       374     0    19     1    14
  4.8213497740644131E+00 a       375     0    19     1    15
 -1.7975626563902335E+01 a       376     0    19     1    16
 -3.8684203606208399E+01 a       377     0    19     1    17
 -1.0387960750397712E+01 a       378     0    19     1    18
  3.4313071980150252E+00 a       379     0    19     1    19
  1.2866786458517934E+01 a       380     0    19     1    20
 -6.3105285025359654E+00 a       381     0    20     1     1
  2.7340736450363750E+01 a       382     0    20     1     2
  1.5010861907023413E+01 a       383     0    20     1     3
  6.0888916450693289E+00 a       384     0    20     1     4
 -5.1257939317581265E+00 a       385     0    20     1     5
  1.7170490067046703E+01 a       386     0    20     1     6
 -2.0166271632460994E+01 a       387     0    20     1     7
 -7.0670585610850951E+00 a       388     0    20     1     8
  1.8711664143111385E+01 a       389     0    20     1     9
 -1.7368569954162552E+01 a       390     0    20     1    10
 -8.0667167119812682E+00 a       391     0    20     1    11
 -2.1452870608097495E+01 a       392     0    20     1    12
  1.3500221903347454E+01 a       393     0    20     1    13
 -5.4133161255192173E+00 a       394     0    20     1    14
 -2.9100083577683030E+01 a       395     0    20     1    15
  9.7213767397462050E+00 a       396     0    20     1    16
  1.8596881462696196E+01 a       397     0    20     1    17
  3.0185337832691306E+00 a       398     0    20     1    18
  1.0038646130456460E+01 a       399     0    20     1    19
 -1.0388839121026578E+01 a       400     0    20     1    20
  1.9163407363742632E+01 a       401     0    21     1     1
 -5.2482261600725826E+00 a       402     0    21     1     2
  9.7708097404927550E+00 a       403     0    21     1     3
  1.7882482697796885E+01 a       404     0    21     1     4
 -1.7726416474590989E+00 a       405     0    21     1     5
 -2.9463326760382036E+00 a       406     0    21     1     6
  5.5179293349705505E+00 a       407     0    21     1     7
  1.1612836472339307E+01 a       408     0    21     1     8
 -5.5635953099362947E+00 a       409     0    21     1     9
  2.0496522025144913E+01 a       410     0    21     1    10
 -1.2914238338191637E+01 a       411     0    21     1    11
 -4.3968627692354696E+00 a       412     0    21     1    12
 -2.2603825847028673E+01 a       413     0    21     1    13
  1.3426168371763266E+01 a       414     0    21     1    14
 -1.2740385159020027E+00 a       415     0    21     1    15
  1.8880612498586810E+01 a       416     0    21     1    16
  1.9244741532831291E+01 a       417     0    21     1    17
  2.5122226052872026E+01 a       418     0    21     1    18
 -4.7591540055683126E+00 a       419     0    21     1    19
 -2.4483005578288623E+01 a       420     0    21     1    20
 -3.1809358678188612E+01 a       421     0    22     1     1
 -1.2288520305391218E+01 a       422     0    22     1     2
 -3.5395514106942527E+00 a       423     0    22     1     3
 -1.7732857817340506E+01 a       424     0    22     1     4
  6.9371718228338630E-01 a       425     0    22     1     5
  1.7417785189181433E+01 a       426     0    22     1     6
  8.0723630395863619E+00 a       427     0    22     1     7
 -1.0235018620391918E+01 a       428     0    22     1     8
  4.5546453898353634E-01 a       429     0    22     1     9
  1.0006680011932522E+01 a       430     0    22     1    10
  1.5708505137378774E+01 a       431     0    22     1    11
 -2.1974851722151958E+00 a       432     0    22     1    12
  4.0893730792669729E+01 a       433     0    22     1    13
  2.4788456595277648E+01 a       434     0    22     1    14
 -7.6087073566208119E+00 a       435     0    22     1    15
 -1.2770484760372504E+01 a       436     0    22     1    16
 -8.4927895150396076E+00 a       437     0    22     1    17
 -1.4615972065053848E+01 a       438     0    22     1    18
 -2.2237888359311274E+01 a       439     0    22     1    19
 -5.2541298551960551E+00 a       440     0    22     1    20
  1.6710653431001358E+01 a       441     0    23     1     1
  5.5436312330232997E+00 a       442     0    23     1     2
  1.8836786589663559E+00 a       443     0    23     1     3
 -1.8501750124228955E+01 a       444     0    23     1     4
 -2.7267620011889196E+01 a       445     0    23     1     5
 -1.5004691592237876E+01 a       446     0    23     1     6
 -1.1290032258243594E+01 a       447     0    23     1     7
 -1.3753535423589836E+01 a       448     0    23     1     8
 -2.5853543745081261E+01 a       449     0    23     1     9
  1.6134920321191927E+01 a       450     0    23     1    10
 -1.1265122360156730E+00 a       451     0    23     1    11
  2.2320921209681535E+00 a       452     0    23     1    12
  4.0342093350476127E-01 a       453     0    23     1    13
 -1.2375721354012729E+01 a       454     0    23     1    14
  2.8389716089234081E+00 a       455     0    23     1    15
  2.6442941462050918E+01 a       456     0    23     1    16
  1.0280897070490472E+01 a       457     0    23     1    17
  2.1738213715358402E+01 a       458     0    23     1    18
  5.0670473157984510E+00 a       459     0    23     1    19
 -8.4104291697047557E+00 a       460     0    23     1    20
 -9.9239845651649308E+00 a       461     0    24     1     1
 -2.3076987937067262E+01 a       462     0    24     1     2
  3.0003548847757681E+01 a       463     0    24     1     3
  6.2262262333912171E+00 a       464     0    24     1     4
 -1.3269167620288481E+01 a       465     0    24     1     5
 -8.4742871556458148E+00 a       466     0    24     1     6
  2.5914708012605626E+01 a       467     0    24     1     7
  1.1076212712639393E+01 a       468     0    24     1     8
  1.7321909107208853E+01 a       469     0    24     1     9
 -2.3779410962592365E+01 a       470     0    24     1    10
  7.8125340365610150E+00 a       471     0    24     1    11
 -1.6619656897533496E+01 a       472     0    24     1    12
 -4.1479912477229828E+00 a       473     0    24     1    13
  8.7996225426627177E+00 a       474     0    24     1    14
 -4.1375082335057028E-01 a       475     0    24     1    15
 -3.5356327684403922E+01 a       476     0    24     1    16
  1.1691384149209913E+01 a       477     0    24     1    17
 -8.2808442342789734E-01 a       478     0    24     1    18
  4.0953226992316427E+00 a       479     0    24     1    19
  6.1685930806562137E+00 a       480     0    24     1    20
  3.0817703813823742E+00 a       481     0    25     1     1
 -7.2698499926295748E+00 a       482     0    25     1     2
 -1.4752084764974146E+01 a       483     0    25     1     3
 -1.1688295609758642E+01 a       484     0    25     1     4
 -1.9828041186337741E-01 a       485     0    25     1     5
  3.9837663265369558E+00 a       486     0    25     1     6
 -1.7684643126936312E+01 a       487     0    25     1     7
  1.7932524182147478E+01 a       488     0    25     1     8
 -7.8574869190456473E+00 a       489     0    25     1     9
  1.0272162950595963E+01 a       490     0    25     1    10
  1.1289059995452786E+00 a       491     0    25     1    11
  4.9908505835244314E+00 a       492     0    25     1    12
 -1.8525351468286019E+01 a       493     0    25     1    13
  1.2348395417858020E+01 a       494     0    25     1    14
  8.9759843153570991E+00 a       495     0    25     1    15
  3.8235689679308362E+00 a       496     0    25     1    16
  6.9414894441566444E-01 a       497     0    25     1    17
  2.6154252033769292E+00 a       498     0    25     1    18
 -7.2474299127424064E+00 a       499     0    25     1    19
 -8.3915680939677024E+00 a       500     0    25     1    20
 -1.1221912890355403E+00 a       501     0    26     1     1
 -1.8250011508535469E+01 a       502     0    26     1     2
 -1.3347977049294311E+00 a       503     0    26     1     3
  6.6416582998905698E+00 a       504     0    26     1     4
  9.9373546093143634E+00 a       505     0    26     1     5
 -1.5238240524977215E+01 a       506     0    26     1     6
 -4.1955499140032799E+00 a       507     0    26     1     7
  7.0040160034953591E-01 a       508     0    26     1     8
 -1.4901135694232870E+01 a       509     0    26     1     9
 -1.3237495570464113E+00 a       510     0    26     1    10
  3.0213314952217099E+00 a       511     0    26     1    11
  1.1074072378252863E+01 a       512     0    26     1    12
 -4.7814361384350956E+00 a       513     0    26     1    13
 -8.5331591181656776E+00 a       514     0    26     1    14
  9.8250446410614796E+00 a       515     0    26     1    15
 -9.2992031409137397E+00 a       516     0    26     1    16
 -1.8316677131964099E+01 a       517     0    26     1    17
 -1.1012689956235588E+01 a       518     0    26     1    18
 -1.2353355987031373E+01 a       519     0    26     1    19
  2.3375695692770801E+01 a       520     0    26     1    20
  5.3314598630007293E+00 a       521     0    27     1     1
 -1.4315249456593568E+01 a       522     0    27     1     2
 -1.1715307086377443E+01 a       523     0    27     1     3
 -1.7123958305412099E+01 a       524     0    27     1     4
  1.4715344287140915E+00 a       525     0    27     1     5
 -1.4990070156819458E+01 a       526     0    27     1     6
  3.3383979007142490E+00 a       527     0    27     1     7
 -5.3320774179308372E-01 a       528     0    27     1     8
 -1.5515165823203970E+01 a       529     0    27     1     9
 -2.3240469060328927E+01 a       530     0    27     1    10
  4.6131047417854676E+00 a       531     0    27     1    11
 -6.8904877051412257E+00 a       532     0    27     1    12
 -2.6096794482778352E-01 a       533     0    27     1    13
  1.0896406895989925E+01 a       534     0    27     1    14
 -2.5284258854634656E+00 a       535     0    27     1    15
  6.8999891959896431E-01 a       536     0    27     1    16
  7.7675847477711617E+00 a       537     0    27     1    17
  1.4580558670953470E+00 a       538     0    27     1    18
  1.0704280358104777E+01 a       539     0    27     1    19
  1.4439760802424880E+01 a       540     0    27     1    20
  3.2446980082839318E+01 a       541     0    28     1     1
  9.1491651823789848E+00 a       542     0    28     1     2
  6.3312100943221239E+00 a       543     0    28     1     3
  4.8133878697990857E+00 a       544     0    28     1     4
 -5.7501422689007873E+00 a       545     0    28     1     5
  4.0976220040651894E+00 a       546     0    28     1     6
 -9.6903148146586631E+00 a       547     0    28     1     7
  5.0407063574248996E+00 a       548     0    28     1     8
 -1.1421263601570089E+01 a       549     0    28     1     9
 -2.6364858330761749E+01 a       550     0    28     1    10
 -1.2716167629727690E+00 a       551     0    28     1    11
  1.5424306542429824E+00 a       552     0    28     1    12
  1.1675559219120470E+00 a       553     0    28     1    13
 -3.8201635312122512E+01 a       554     0    28     1    14
  1.1793985443552163E+01 a       555     0    28     1    15
  4.9976051446561200E+00 a       556     0    28     1    16
  2.2697734391947888E+00 a       557     0    28     1    17
  9.2590028620722435E+00 a       558     0    28     1    18
  2.7729252596171010E+00 a       559     0    28     1    19
 -2.1252808372986621E+01 a       560     0    28     1    20
 -4.4655871619224496E-01 a       561     0    29     1     1
  1.4946448905353897E+01 a       562     0    29     1     2
 -1.4365333610391039E+01 a       563     0    29     1     3
 -1.7375596761500475E+01 a       564     0    29     1     4
 -2.7568263094697404E+01 a       565     0    29     1     5
 -1.9450235282968272E+01 a       566     0    29     1     6
 -5.3493562512177846E+00 a       567     0    29     1     7
 -1.5126914808621555E+01 a       568     0    29     1     8
 -9.1124326092206260E+00 a       569     0    29     1     9
  1.3514308130402028E+01 a       570     0    29     1    10
  2.2436940257730198E+00 a       571     0    29     1    11
  3.8269955923037324E+00 a       572     0    29     1    12
 -2.5724029241401155E+01 a       573     0    29     1    13
 -1.3259970870265875E-01 a       574     0    29     1    14
 -2.4419174973840865E+00 a       575     0    29     1    15
  1.4845018162859763E+01 a       576     0    29     1    16
 -2.4124413367173368E+01 a       577     0    29     1    17
  3.0021748621889810E+01 a       578     0    29     1    18
 -1.2023903240834137E+01 a       579     0    29     1    19
 -1.4132414237188561E+01 a       580     0    29     1    20
  1.6652296444884098E+00 a       581     0    30     1     1
  9.5404512410761626E+00 a       582     0    30     1     2
 -7.7116380904720376E+00 a       583     0    30     1     3
  7.0751307695343222E+00 a       584     0    30     1     4
 -2.0664932195939713E+01 a       585     0    30     1     5
 -2.4085674171495967E+01 a       586     0    30     1     6
  1.5794967846213146E+01 a       587     0    30     1     7
  2.2698349297130171E+00 a       588     0    30     1     8
  8.4890590745385506E+00 a       589     0    30     1     9
  1.2903958063079005E+01 a       590     0    30     1    10
  5.4866564050073006E+00 a       591     0    30     1    11
 -2.2833714374878529E+00 a       592     0    30     1    12
 -1.2127311127745346E+01 a       593     0    30     1    13
 -2.7276721377365316E+01 a       594     0    30     1    14
  2.2458152422909849E+00 a       595     0    30     1    15
 -2.0421251309465319E+01 a       596     0    30     1    16
 -3.7858341834827833E+01 a       597     0    30     1    17
 -2.1647458684880235E+01 a       598     0    30     1    18
  9.2057956624364614E+00 a       599     0    30     1    19
 -8.4908083696364489E+00 a       600     0    30     1    20
  3.0524512200399538E+01 a       601     0    31     1     1
 -8.1286995608391432E+00 a       602     0    31     1     2
 -2.0198177275792054E-01 a       603     0    31     1     3
 -1.4020761636148787E+01 a       604     0    31     1     4
 -5.4853867083974066E+00 a       605     0    31     1     5
  6.0114491382856921E+00 a       606     0    31     1     6
  7.6421893601728375E+00 a       607     0    31     1     7
  6.1794785683915148E+00 a       608     0    31     1     8
  6.1505242396859683E-01 a       609     0    31     1     9
 -1.6437501915472119E+01 a       610     0    31     1    10
  3.4003006620667069E+00 a       611     0    31     1    11
  3.3898385808205034E+00 a       612     0    31     1    12
 -1.0206513948395806E+01 a       613     0    31     1    13
 -2.4899271076284493E-01 a       614     0    31     1    14
 -1.5031523813343764E+01 a       615     0    31     1    15
 -2.4435447927961067E+00 a       616     0    31     1    16
  3.6801823430959374E+01 a       617     0    31     1    17
  2.9502400875650750E+01 a       618     0    31     1    18
 -3.4942677080113387E+00 a       619     0    31     1    19
 -2.1842010328940027E+01 a       620     0    31     1    20
 -1.0192670458284063E+01 a       621     0    32     1     1
 -2.9225272368973346E+01 a       622     0    32     1     2
  8.2352474608364670E+00 a       623     0    32     1     3
  3.6470080491666796E+00 a       624     0    32     1     4
  9.1631267984031215E+00 a       625     0    32     1     5
  3.1130095944650829E+01 a       626     0    32     1     6
  2.6054201008413882E+00 a       627     0    32     1     7
  1.5778176699776163E+01 a       628     0    32     1     8
 -2.9947322732403494E+00 a       629     0    32     1     9
 -3.3031665582184582E+00 a       630     0    32     1    10
  1.3477054516928224E+00 a       631     0    32     1    11
  6.3752734937248432E+00 a       632     0    32     1    12
  7.4185512530487463E+00 a       633     0    32     1    13
 -7.0066366055019147E+00 a       634     0    32     1    14
  1.0062694665034943E+01 a       635     0    32     1    15
  1.1032318454289523E+00 a       636     0    32     1    16
 -1.2074308626504010E+01 a       637     0    32     1    17
 -1.5199678409338622E+01 a       638     0    32     1    18
  1.0356119689462046E+01 a       639     0    32     1    19
 -2.4057544178887684E+00 a       640     0    32     1    20
  1.2656894138995533E+01 a       641     0    33     1     1
 -1.1567290893390226E+01 a       642     0    33     1     2
  6.1209749208939828E+00 a       643     0    33     1     3
 -9.7955198465775943E+00 a       644     0    33     1     4
 -1.0543268089057564E+01 a       645     0    33     1     5
  1.0700707297849787E+01 a       646     0    33     1     6
 -2.9009128291746340E+01 a       647     0    33     1     7
 -2.1233016985533737E+01 a       648     0    33     1     8
  2.8248145634127717E+01 a       649     0    33     1     9
  2.0354461515294119E+01 a       650     0    33     1    10
 -2.3857641311980164E+00 a       651     0    33     1    11
  2.1611782147088654E+01 a       652     0    33     1    12
  1.6957007531675302E+01 a       653     0    33     1    13
  5.1023654768053586E+00 a       654     0    33     1    14
 -8.1017044071974653E-01 a       655     0    33     1    15
 -7.3157740240921916E+00 a       656     0    33     1    16
  8.2794624461267130E+00 a       657     0    33     1    17
  2.1978712378933182E+01 a       658     0    33     1    18
 -3.6911362799734615E+00 a       659     0    33     1    19
  1.2478223989587740E+01 a       660     0    33     1    20
 -8.0795446359650995E+00 a       661     0    34     1     1
  1.7777725514687335E+00 a       662     0    34     1     2
  3.0473699998661736E+01 a       663     0    34     1     3
 -4.4200634459141899E+00 a       664     0    34     1     4
  1.5197924350614151E+01 a       665     0    34     1     5
 -1.4458801799693951E+01 a       666     0    34     1     6
 -5.0927676090918022E+00 a       667     0    34     1     7
 -1.3092531380429300E+01 a       668     0    34     1     8
  1.8125364385454276E-01 a       669     0    34     1     9
  6.1431946409659233E+00 a       670     0    34     1    10
  2.2474472040994737E+01 a       671     0    34     1    11
  2.0174859912604887E+01 a       672     0    34     1    12
  1.0110093706193920E+01 a       673     0    34     1    13
  1.3373386135441656E+01 a       674     0    34     1    14
  8.1788924276275909E-01 a       675     0    34     1    15
  4.4294751521285800E+00 a       676     0    34     1    16
 -1.5377700343120965E+01 a       677     0    34     1    17
 -1.8299965689208843E+01 a       678     0    34     1    18
  3.1261292376246477E+00 a       679     0    34     1    19
  3.3055240845362889E+01 a       680     0    34     1    20
 -3.7444705936155525E+00 a       681     0    35     1     1
 -4.2001178280041787E+00 a       682     0    35     1     2
  2.0785680947984773E+01 a       683     0    35     1     3
 -4.1986795108020525E-01 a       684     0    35     1     4
  1.4895157173034574E+01 a       685     0    35     1     5
  9.0052193747776172E+00 a       686     0    35     1     6
  5.7645194920144274E+00 a       687     0    35     1     7
  3.6010736649691322E+00 a       688     0    35     1     8
  2.3805786392610155E+01 a       689     0    35     1     9
 -2.0623745001180914E+01 a       690     0    35     1    10
  4.3305153625189989E+00 a       691     0    35     1    11
 -6.2707707068285208E+00 a       692     0    35     1    12
  1.2663111626197010E+00 a       693     0    35     1    13
  1.5303888047744874E+00 a       694     0    35     1    14
  5.6594358388055008E+00 a       695     0    35     1    15
 -2.3732348089516456E+01 a       696     0    35     1    16
 -2.5703658672487308E+00 a       697     0    35     1    17
 -9.5750436600839457E+00 a       698     0    35     1    18
  1.3382647614648555E+00 a       699     0    35     1    19
 -1.2031917278931736E+00 a       700     0    35     1    20
 -6.5296895652835485E-01 a       701     0    36     1     1
  2.1183182415193645E+01 a       702     0    36     1     2
 -2.4553528533491189E+01 a       703     0    36     1     3
  8.4457153838669683E+00 a       704     0    36     1     4
  1.3882346649593497E+01 a       705     0    36     1     5
  1.9227301494781653E+01 a       706     0    36     1     6
 -2.1777289441872675E+01 a       707     0    36     1     7
 -7.5550825709996356E+00 a       708     0    36     1     8
  1.1259987188216865E+01 a       709     0    36     1     9
 -1.3383984987427922E+00 a       710     0    36     1    10
 -3.8994212558556698E+00 a       711     0    36     1    11
  4.4526572528593276E+00 a       712     0    36     1    12
 -1.4809144695073360E+00 a       713     0    36     1    13
 -4.0431705513807301E-02 a       714     0    36     1    14
 -1.3683594683068929E+00 a       715     0    36     1    15
  9.6149913827546367E+00 a       716     0    36     1    16
 -1.3403346466093740E+01 a       717     0    36     1    17
  9.7889302089954882E+00 a       718     0    36     1    18
 -1.2964524682504383E+01 a       719     0    36     1    19
 -2.9257620663963213E-01 a       720     0    36     1    20
  4.2923542048274749E-01 a       721     0    37     1     1
  5.4518807609703286E+00 a       722     0    37     1     2
  8.8824564054400348E+00 a       723     0    37     1     3
  4.7609270654117015E+00 a       724     0    37     1     4
  1.1550663957087853E+01 a       725     0    37     1     5
  1.5396062734482060E+01 a       726     0    37     1     6
  1.2151918140103344E+00 a       727     0    37     1     7
 -1.1646694824582379E+01 a       728     0    37     1     8
 -2.6314921121813057E+00 a       729     0    37     1     9
 -4.4406346168608124E+00 a       730     0    37     1    10
 -3.0779261074251703E+00 a       731     0    37     1    11
  7.4115078791096574E+00 a       732     0    37     1    12
 -1.0459023533334308E+01 a       733     0    37     1    13
 -4.1392942874662326E+00 a       734     0    37     1    14
 -1.4888805931301061E+01 a       735     0    37     1    15
  1.5414834316159615E+01 a       736     0    37     1    16
  8.0180718377527924E+00 a       737     0    37     1    17
 -1.2012983447951733E+01 a       738     0    37     1    18
  1.6258735185434539E+01 a       739     0    37     1    19
  8.0063900773335135E+00 a       740     0    37     1    20
  5.2147541535587703E+00 a       741     0    38     1     1
  1.2221920849376463E+01 a       742     0    38     1     2
 -1.7543646839200132E+01 a       743     0    38     1     3
 -3.2699036904838668E+00 a       744     0    38     1     4
 -4.7389189228058806E+00 a       745     0    38     1     5
  6.7355572947113425E+00 a       746     0    38     1     6
 -7.0211033757565455E-01 a       747     0    38     1     7
  1.6457579432518707E-01 a       748     0    38     1     8
  2.7549447318452116E+00 a       749     0    38     1     9
 -1.7247596072249533E-01 a       750     0    38     1    10
  1.0835995128336894E+01 a       751     0    38     1    11
 -2.2797458423390718E-01 a       752     0    38     1    12
  5.0001038625099936E-01 a       753     0    38     1    13
  1.3756786239670999E+01 a       754     0    38     1    14
 -3.4749560774532364E+00 a       755     0    38     1    15
  6.0906796368193628E-01 a       756     0    38     1    16
  6.2827029851567513E+00 a       757     0    38     1    17
  4.7352837834332417E+00 a       758     0    38     1    18
 -8.2223010288215601E+00 a       759     0    38     1    19
 -1.0134594262621844E+01 a       760     0    38     1    20
 -7.7352082591549376E+00 a       761     0    39     1     1
  8.0889385612271933E+00 a       762     0    39     1     2
 -4.1329101151812075E+00 a       763     0    39     1     3
 -7.7220275580438154E+00 a       764     0    39     1     4
  8.6353904843759766E-01 a       765     0    39     1     5
 -5.8547325956822878E+00 a       766     0    39     1     6
  1.5373005175753752E+01 a       767     0    39     1     7
  1.9898730839996217E+00 a       768     0    39     1     8
 -7.8364215666321506E+00 a       769     0    39     1     9
  1.0096666731964930E+01 a       770     0    39     1    10
  9.9482406022613485E+00 a       771     0    39     1    11
 -1.3145134594113769E+01 a       772     0    39     1    12
 -2.9045089332900043E+00 a       773     0    39     1    13
 -2.1770282568514791E+01 a       774     0    39     1    14
 -1.0186461867248142E+00 a       775     0    39     1    15
  2.3776401216650154E+00 a       776     0    39     1    16
 -4.7173944974691269E+00 a       777     0    39     1    17
 -1.3812784053084824E+01 a       778     0    39     1    18
 -3.6920441531754591E+00 a       779     0    39     1    19
  5.6147976972424489E+00 a       780     0    39     1    20
 -1.2172740560383192E+01 a       781     0    40     1     1
  5.2471630094949639E-01 a       782     0    40     1     2
 -3.7234968620740039E-01 a       783     0    40     1     3
  2.6516904163098513E+01 a       784     0    40     1     4
  1.3110029832339363E+00 a       785     0    40     1     5
  2.1806340122478122E+01 a       786     0    40     1     6
  9.3386639604618971E+00 a       787     0    40     1     7
  1.0318916842665677E+01 a       788     0    40     1     8
  1.4284913422111462E+01 a       789     0    40     1     9
 -9.0917379330403474E+00 a       790     0    40     1    10
 -4.3080644123650558E+00 a       791     0    40     1    11
 -1.0197261421964892E+01 a       792     0    40     1    12
 -1.3034508962880290E+01 a       793     0    40     1    13
  1.2660676991508806E+01 a       794     0    40     1    14
  2.9934703136562781E+00 a       795     0    40     1    15
  1.7202732206008946E+00 a       796     0    40     1    16
  3.0838754527883454E+00 a       797     0    40     1    17
  5.0935669045422385E+00 a       798     0    40     1    18
  9.6472018555669656E+00 a       799     0    40     1    19
 -1.3876798949094691E+00 a       800     0    40     1    20
  1.9210922701203337E+00 b       801     1     1
 -1.2945118691215900E+00 b       802     1     2
 -5.7739924721669080E+00 b       803     1     3
 -4.2688808688790214E+00 b       804     1     4
 -9.1706016415362746E-01 b       805     1     5
 -4.1172602826481617E+00 b       806     1     6
 -3.4139927725716617E+00 b       807     1     7
 -6.9657927587029919E-02 b       808     1     8
 -8.1683142060049274E-01 b       809     1     9
 -1.9771110236488050E+00 b       810     1    10
 -1.1419513537294181E+00 b       811     1    11
 -3.1807107360255521E-01 b       812     1    12
 -3.5711373702054821E+00 b       813     1    13
 -7.8196401124786730E-01 b       814     1    14
  3.0219432551216867E+00 b       815     1    15
 -2.9005103858346133E+00 b       816     1    16
  1.8472913143103000E+00 b       817     1    17
 -2.1146155240985374E-02 b       818     1    18
  9.2181117190889550E-01 b       819     1    19
 -2.1028859758416826E-01 b       820     1    20
  3.8925426223506028E+00 a       821     1     1     2     1
  4.7285996073564700E+00 a       822     1     1     2     2
  2.6884471244001826E+00 a       823     1     1     2     3
 -8.3955163261324228E-01 a       824     1     1     2     4
 -1.4998188886269710E+00 a       825     1     1     2     5
  2.7647114237471326E+00 a       826     1     1     2     6
 -6.6885965611238376E+00 a       827     1     1     2     7
 -3.2698027611066977E-01 a       828     1     1     2     8
  1.1494282606363988E+01 a       829     1     1     2     9
  1.5593015315674780E-01 a       830     1     1     2    10
  3.2348282464530960E+00 a       831     1     1     2    11
 -1.2318339506550524E+01 a       832     1     1     2    12
  1.1533521549865435E+01 a       833     1     1     2    13
 -4.5894379308953583E+00 a       834     1     1     2    14
 -5.8537564991199553E-01 a       835     1     1     2    15
 -3.6137279663704311E+00 a       836     1     1     2    16
 -2.3900848728160762E+00 a       837     1     1     2    17
  3.2207537309264700E-01 a       838     1     1     2    18
 -4.0587159720677981E+00 a       839     1     1     2    19
  7.8125444632527852E-01 a       840     1     1     2    20
  6.6570140718268194E+00 a       841     1     2     2     1
  7.0518802710817230E-01 a       842     1     2     2     2
  6.2292311694283740E+00 a       843     1     2     2     3
 -7.1480840676330963E+00 a       844     1     2     2     4
  1.3355978917178100E+00 a       845     1     2     2     5
  2.1564213523517060E+00 a       846     1     2     2     6
 -6.8522658467115152E+00 a       847     1     2     2     7
  4.6425564624889679E+00 a       848     1     2     2     8
  3.3746074799045509E+00 a       849     1     2     2     9
 -1.7715492729481128E+00 a       850     1     2     2    10
  6.6317199227109658E+00 a       851     1     2     2    11
 -4.8069653771117018E+00 a       852     1     2     2    12
 -4.6366842162320223E+00 a       853     1     2     2    13
  9.3218628452912142E+00 a       854     1     2     2    14
  4.9160904218667550E-01 a       855     1     2     2    15
  2.1391224636867959E-01 a       856     1     2     2    16
  4.4732740583759978E-01 a       857     1     2     2    17
 -1.0987716191634957E+00 a       858     1     2     2    18
  7.3510956861685504E+00 a       859     1     2     2    19
 -4.2553311265368832E+00 a       860     1     2     2    20
  6.5568489416873232E+00 a       861     1     3     2     1
  3.4560409507563192E+00 a       862     1     3     2     2
 -1.9992143262086080E+00 a       863     1     3     2     3
 -1.0457567442779123E-01 a       864     1     3     2     4
 -4.6774694913053319E+00 a       865     1     3     2     5
 -4.1536327748970764E-01 a       866     1     3     2     6
 -1.5960610132386924E+01 a       867     1     3     2     7
 -3.9510497578594288E+00 a       868     1     3     2     8
  1.1701328343071609E+01 a       869     1     3     2     9
  9.2823458929421987E-01 a       870     1     3     2    10
 -5.3482985317250593E+00 a       871     1     3     2    11
  1.0118939739876382E+01 a       872     1     3     2    12
 -1.7525405541072082E+01 a       873     1     3     2    13
 -9.3192507741035921E+00 a       874     1     3     2    14
  2.2277720919293822E+00 a       875     1     3     2    15
 -1.3269960569680381E+00 a       876     1     3     2    16
  2.3454417499634022E+00 a       877     1     3     2    17
  1.1114601200482388E+00 a       878     1     3     2    18
 -6.5021773875098263E-02 a       879     1     3     2    19
 -1.3454861661208071E+00 a       880     1     3     2    20
 -3.6737068704137998E+00 a       881     1     4     2     1
 -7.1370174752908762E+00 a       882     1     4     2     2
 -5.7054455048140191E+00 a       883     1     4     2     3
  4.5517332270941928E+00 a       884     1     4     2     4
  6.5290088850082411E+00 a       885     1     4     2     5
  4.1447099807218457E+00 a       886     1     4     2     6
 -7.6043902702150961E+00 a       887     1     4     2     7
  5.0243878344370279E+00 a       888     1     4     2     8
 -5.1623785954839843E+00 a       889     1     4     2     9
 -1.1447551242495837E+00 a       890     1     4     2    10
 -2.3392005499558239E+00 a       891     1     4     2    11
 -1.0194983462893949E-01 a       892     1     4     2    12
  9.0178630259695698E+00 a       893     1     4     2    13
 -1.9719816558440695E+00 a       894     1     4     2    14
  4.2565819896031298E+00 a       895     1     4     2    15
 -1.3539924499066067E+00 a       896     1     4     2    16
  8.5920628621459860E-01 a       897     1     4     2    17
  1.2368561828542280E+01 a       898     1     4     2    18
 -4.0225834542520316E+00 a       899     1     4     2    19
  1.9576447326230912E+00 a       900     1     4     2    20
 -2.3268252132489858E-01 a       901     1     5     2     1
 -4.9058201209364954E-01 a       902     1     5     2     2
  8.8958051771510493E-01 a       903     1     5     2     3
  3.4831959276934437E+00 a       904     1     5     2     4
 -2.1040796315855892E+00 a       905     1     5     2     5
 -1.3554718258111156E+00 a       906     1     5     2     6
 -1.5278550451963660E+01 a       907     1     5     2     7
  1.5365004879494408E+00 a       908     1     5     2     8
 -4.1240490339561147E+00 a       909     1     5     2     9
 -7.3438713138311433E+00 a       910     1     5     2    10
  2.0265005131522749E+00 a       911     1     5     2    11
 -1.3573893232756447E+00 a       912     1     5     2    12
  7.4322082175918724E-01 a       913     1     5     2    13
  2.2169183550825076E+00 a       914     1     5     2    14
 -5.1519142080943077E+00 a       915     1     5     2    15
  2.5413480826153911E+00 a       916     1     5     2    16
  4.0746949939388483E-01 a       917     1     5     2    17
  6.9345218252236380E+00 a       918     1     5     2    18
 -5.2753648892740603E+00 a       919     1     5     2    19
 -4.5184986568981342E+00 a       920     1     5     2    20
  1.7487597401652071E+01 a       921     1     6     2     1
  1.4919894120611893E-02 a       922     1     6     2     2
  2.0116189413224954E+00 a       923     1     6     2     3
  6.6134661639907337E+00 a       924     1     6     2     4
  2.3067616125600634E+00 a       925     1     6     2     5
  3.5511057375067132E+00 a       926     1     6     2     6
 -4.5370864740133490E+00 a       927     1     6     2     7
  1.2310535192896003E+01 a       928     1     6     2     8
  5.4218612343459283E+00 a       929     1     6     2     9
 -1.4225830429591189E+01 a       930     1     6     2    10
  1.0437433479381376E+01 a       931     1     6     2    11
  3.1678037671592314E+00 a       932     1     6     2    12
  7.3476531824673001E+00 a       933     1     6     2    13
 -5.8118158123039376E-01 a       934     1     6     2    14
  1.2281412423878886E+00 a       935     1     6     2    15
 -2.5783137901967605E+00 a       936     1     6     2    16
  2.5545142362333566E+00 a       937     1     6     2    17
  5.3279845292428951E-01 a       938     1     6     2    18
  1.2446306666968558E+01 a       939     1     6     2    19
 -6.4551639453042799E+00 a       940     1     6     2    20
  1.6224261833122273E+00 a       941     1     7     2     1
  1.8652100360171522E+00 a       942     1     7     2     2
 -5.3451289947262048E-01 a       943     1     7     2     3
  4.3736392850190988E+00 a       944     1     7     2     4
  5.4748331535012196E-01 a       945     1     7     2     5
 -7.1551237941220147E-02 a       946     1     7     2     6
 -5.0007619433531421E+00 a       947     1     7     2     7
 -3.2581625552434526E+00 a       948     1     7     2     8
 -3.8419207199390728E+00 a       949     1     7     2     9
 -4.9065719029316810E+00 a       950     1     7     2    10
 -2.7500086064871074E+00 a       951     1     7     2    11
  1.1989441079829370E+00 a       952     1     7     2    12
 -4.7920259995454444E+00 a       953     1     7     2    13
 -5.1726462212445030E+00 a       954     1     7     2    14
  6.8323060680485579E+00 a       955     1     7     2    15
  4.0141452436374747E+00 a       956     1     7     2    16
  3.7527602063510890E+00 a       957     1     7     2    17
  3.3822701104829576E+00 a       958     1     7     2    18
  1.7038114008893714E+00 a       959     1     7     2    19
  1.5364763760071849E+00 a       960     1     7     2    20
  1.9543348416390898E+00 a       961     1     8     2     1
  5.3877439843713484E+00 a       962     1     8     2     2
  3.5332479433888193E+00 a       963     1     8     2     3
  1.5097669736250345E+00 a       964     1     8     2     4
  3.8417760498739582E+00 a       965     1     8     2     5
  2.0288879743679700E+00 a       966     1     8     2     6
  1.3222482730821492E+01 a       967     1     8     2     7
 -2.3069523789712258E+00 a       968     1     8     2     8
  1.1452936640993332E+01 a       969     1     8     2     9
  1.7410146320956981E+00 a       970     1     8     2    10
  3.4679895981487179E+00 a       971     1     8     2    11
 -7.5724474441433944E+00 a       972     1     8     2    12
  1.9426763268389788E+00 a       973     1     8     2    13
 -9.0379345105282773E+00 a       974     1     8     2    14
 -2.6707332929964567E+00 a       975     1     8     2    15
 -4.3624976290295541E+00 a       976     1     8     2    16
 -2.3475761661191310E+00 a       977     1     8     2    17
 -1.8175373269713362E+00 a       978     1     8     2    18
  1.0234858792726846E+00 a       979     1     8     2    19
  9.3857824227315199E+00 a       980     1     8     2    20
 -6.1378913637973671E+00 a       981     1     9     2     1
  1.7520325667342038E+00 a       982     1     9     2     2
  5.2151986335819167E-01 a       983     1     9     2     3
 -6.2693992912828755E-01 a       984     1     9     2     4
 -2.4311603670800666E+00 a       985     1     9     2     5
  1.0707585661336272E+00 a       986     1     9     2     6
 -2.0002062930104856E+00 a       987     1     9     2     7
 -1.3218241807993005E+00 a       988     1     9     2     8
  1.2295242998362559E+01 a       989     1     9     2     9
  5.7342476114883778E-01 a       990     1     9     2    10
 -6.6119042553153067E+00 a       991     1     9     2    11
 -6.9600404538231320E-01 a       992     1     9     2    12
 -5.4212634811663483E+00 a       993     1     9     2    13
 -1.3507483066269595E+01 a       994     1     9     2    14
 -8.6520055315053468E-02 a       995     1     9     2    15
 -1.8925127173514695E+00 a       996     1     9     2    16
 -3.7812607583419405E-01 a       997     1     9     2    17
 -3.8105072216825464E+00 a       998     1     9     2    18
 -3.2308468111607467E+00 a       999     1     9     2    19
  9.7914733765250279E+00 a      1000     1     9     2    20
 -5.6202056622368692E+00 a      1001     1    10     2     1
 -8.9987570978111431E-01 a      1002     1    10     2     2
 -2.8657761082698681E+00 a      1003     1    10     2     3
 -2.3214312265161166E+00 a      1004     1    10     2     4
 -9.5450131330030050E+00 a      1005     1    10     2     5
 -5.8942693846581893E+00 a      1006     1    10     2     6
 -3.2230327841612425E+00 a      1007     1    10     2     7
  4.1981591888092762E+00 a      1008     1    10     2     8
 -6.2369166410389267E+00 a      1009     1    10     2     9
  1.1721566830936917E+01 a      1010     1    10     2    10
 -2.7059922627321984E+00 a      1011     1    10     2    11
  5.0899302030542204E+00 a      1012     1    10     2    12
 -5.0201165772944689E-01 a      1013     1    10     2    13
 -2.0751506000896763E-01 a      1014     1    10     2    14
  2.4679392366408432E+00 a      1015     1    10     2    15
  8.0645427833509800E+00 a      1016     1    10     2    16
  2.5928282468397135E-01 a      1017     1    10     2    17
 -1.3428772896913461E+00 a      1018     1    10     2    18
 -5.0105248414046963E+00 a      1019     1    10     2    19
 -6.6783455715404616E-01 a      1020     1    10     2    20
 -1.3575243064971825E+00 a      1021     1    11     2     1
  5.9953143684833510E+00 a      1022     1    11     2     2
  4.9262655757977099E+00 a      1023     1    11     2     3
  8.5315950133489804E-02 a      1024     1    11     2     4
 -6.6307475127831381E+00 a      1025     1    11     2     5
 -5.6863470064755264E+00 a      1026     1    11     2     6
 -7.3315086293896847E+00 a      1027     1    11     2     7
  3.2083306716336040E+00 a      1028     1    11     2     8
  3.2203992222072042E+00 a      1029     1    11     2     9
  6.9732594967484722E+00 a      1030     1    11     2    10
 -2.3767532423479070E+00 a      1031     1    11     2    11
 -2.5401716931079088E+00 a      1032     1    11     2    12
 -2.1724158551821287E+00 a      1033     1    11     2    13
  8.6844394897953325E+00 a      1034     1    11     2    14
  1.6829456222196997E+00 a      1035     1    11     2    15
  1.7919645885035800E+00 a      1036     1    11     2    16
 -3.5992765429411491E+00 a      1037     1    11     2    17
  2.2452640734694689E+00 a      1038     1    11     2    18
  1.3804300042127411E+00 a      1039     1    11     2    19
  3.6124921484783394E+00 a      1040     1    11     2    20
  2.8088947896587348E+00 a      1041     1    12     2     1
  9.3414727242074953E+00 a      1042     1    12     2     2
  3.6746651472571430E+00 a      1043     1    12     2     3
  1.9101584997609686E+00 a      1044     1    12     2     4
 -8.0770194078579749E+00 a      1045     1    12     2     5
 -1.1103383399239211E+00 a      1046     1    12     2     6
 -4.0680428148105570E+00 a      1047     1    12     2     7
 -1.1636316842549717E+00 a      1048     1    12     2     8
  2.8786152828996605E+00 a      1049     1    12     2     9
  4.2967979282003661E+00 a      1050     1    12     2    10
  2.2790436980170345E+00 a      1051     1    12     2    11
 -2.3779422153139307E+00 a      1052     1    12     2    12
  2.4530053749249205E+00 a      1053     1    12     2    13
 -5.1216773185308870E+00 a      1054     1    12     2    14
 -2.1749818876727596E+00 a      1055     1    12     2    15
  6.9809927624059964E-02 a      1056     1    12     2    16
 -3.1666937787912017E+00 a      1057     1    12     2    17
 -5.9043185164032530E-01 a      1058     1    12     2    18
  2.4796291367319689E+00 a      1059     1    12     2    19
  6.3068827475950473E-01 a      1060     1    12     2    20
  9.5505603230848024E+00 a      1061     1    13     2     1
 -8.6878953764315234E+00 a      1062     1    13     2     2
 -1.9691034454378156E+00 a      1063     1    13     2     3
 -3.0629522345714726E+00 a      1064     1    13     2     4
  2.0291569463940402E+01 a      1065     1    13     2     5
  5.0874513521029270E+00 a      1066     1    13     2     6
  1.2739457734294968E+01 a      1067     1    13     2     7
 -9.8294640315739432E+00 a      1068     1    13     2     8
 -5.8045276010382887E+00 a      1069     1    13     2     9
  2.8633010301476722E+00 a      1070     1    13     2    10
  5.7782029353247450E+00 a      1071     1    13     2    11
  2.4206987733183229E+00 a      1072     1    13     2    12
  8.2306934472382878E+00 a      1073     1    13     2    13
  2.5498400203241696E+00 a      1074     1    13     2    14
 -2.5215152454559759E+00 a      1075     1    13     2    15
 -3.2220801880463168E+00 a      1076     1    13     2    16
  2.4766042994317896E+00 a      1077     1    13     2    17
  2.1328979978873797E+00 a      1078     1    13     2    18
  3.5962101413783748E-01 a      1079     1    13     2    19
  1.2182738566545604E+01 a      1080     1    13     2    20
  5.0460027865951806E+00 a      1081     1    14     2     1
  2.0757735424294896E+00 a      1082     1    14     2     2
  2.5218507294653749E+00 a      1083     1    14     2     3
 -4.0364217495357639E+00 a      1084     1    14     2     4
  1.7476162522926819E+00 a      1085     1    14     2     5
 -3.3995292154350343E-01 a      1086     1    14     2     6
  2.4998732147578748E-01 a      1087     1    14     2     7
 -1.3222015452384936E+00 a      1088     1    14     2     8
  1.6751870513520286E+00 a      1089     1    14     2     9
 -2.7982489407365252E+00 a      1090     1    14     2    10
  9.8319583643526420E-01 a      1091     1    14     2    11
 -4.3108839115674558E+00 a      1092     1    14     2    12
  3.6516316387631411E+00 a      1093     1    14     2    13
 -1.0250068443849480E+00 a      1094     1    14     2    14
  1.2799542451023026E+01 a      1095     1    14     2    15
 -3.6646140916382919E+00 a      1096     1    14     2    16
  2.2871944763277314E+00 a      1097     1    14     2    17
 -1.4370404125104483E+00 a      1098     1    14     2    18
  6.5815677425611652E+00 a      1099     1    14     2    19
 -1.9336751103355865E-01 a      1100     1    14     2    20
  2.8406425645327218E+00 a      1101     1    15     2     1
 -4.9519563469224293E-01 a      1102     1    15     2     2
 -1.6624700847553031E+00 a      1103     1    15     2     3
  1.1754309256369331E+00 a      1104     1    15     2     4
  7.9068277040080759E-01 a      1105     1    15     2     5
  5.3368086471479534E+00 a      1106     1    15     2     6
 -1.2659708853641977E+01 a      1107     1    15     2     7
  2.0335925836469557E+00 a      1108     1    15     2     8
  8.7990578173874834E+00 a      1109     1    15     2     9
  3.3863635165654888E+00 a      1110     1    15     2    10
  7.4798608430752287E+00 a      1111     1    15     2    11
  1.7092858757484546E+01 a      1112     1    15     2    12
 -3.1427542556184650E-02 a      1113     1    15     2    13
 -6.3953887478948639E+00 a      1114     1    15     2    14
  3.6067440806754791E-01 a      1115     1    15     2    15
 -7.3837336596314431E+00 a      1116     1    15     2    16
  3.2276264315334063E-01 a      1117     1    15     2    17
  5.1556842440140405E-01 a      1118     1    15     2    18
  1.8995176417786745E+00 a      1119     1    15     2    19
 -5.2328745554234555E+00 a      1120     1    15     2    20
 -7.7344702035364330E+00 a      1121     1    16     2     1
  4.3448975613607708E+00 a      1122     1    16     2     2
 -4.9778666619849883E+00 a      1123     1    16     2     3
 -5.7838845298721262E+00 a      1124     1    16     2     4
 -4.5701853882300467E+00 a      1125     1    16     2     5
 -4.6702062712730177E+00 a      1126     1    16     2     6
  1.1115663664243156E+01 a      1127     1    16     2     7
 -2.1176318599476258E+00 a      1128     1    16     2     8
 -2.6966236712773508E+00 a      1129     1    16     2     9
 -2.1509275476288803E-01 a      1130     1    16     2    10
 -1.5008420391749183E+01 a      1131     1    16     2    11
  1.2839790378273950E+00 a      1132     1    16     2    12
  5.3081650261962776E-01 a      1133     1    16     2    13
  5.0967031751841256E+00 a      1134     1    16     2    14
 -2.3834890713087389E+00 a      1135     1    16     2    15
  9.0095748831660782E-01 a      1136     1    16     2    16
 -1.0405927081442585E+00 a      1137     1    16     2    17
  8.0848786121345668E+00 a      1138     1    16     2    18
  1.5991748260907066E+00 a      1139     1    16     2    19
 -1.7511975560522399E+00 a      1140     1    16     2    20
  3.6162804177581420E+00 a      1141     1    17     2     1
  1.5388667510441534E+00 a      1142     1    17     2     2
 -1.0302498528666437E+00 a      1143     1    17     2     3
 -9.5228859546447620E+00 a      1144     1    17     2     4
 -3.5276395664622342E+00 a      1145     1    17     2     5
 -3.9498715725279521E-01 a      1146     1    17     2     6
  3.0272818529381289E+00 a      1147     1    17     2     7
  4.1221356185423330E+00 a      1148     1    17     2     8
  4.0627800193796428E+00 a      1149     1    17     2     9
  2.4202777623817378E+00 a      1150     1    17     2    10
  2.5011717918768830E+00 a      1151     1    17     2    11
 -1.5516597520637014E+00 a      1152     1    17     2    12
 -1.9937273371486064E+00 a      1153     1    17     2    13
 -9.4001446708873182E+00 a      1154     1    17     2    14
 -3.8598196249778223E+00 a      1155     1    17     2    15
  5.9664864294015523E+00 a      1156     1    17     2    16
  3.1969333338392891E+00 a      1157     1    17     2    17
  7.0133759828306930E-01 a      1158     1    17     2    18
  1.0348106634539251E+00 a      1159     1    17     2    19
  1.5586452118887056E+01 a      1160     1    17     2    20
 -2.9192877336913718E+00 a      1161     1    18     2     1
  5.5667190967398306E-02 a      1162     1    18     2     2
 -2.7037832135940625E+00 a      1163     1    18     2     3
 -5.8501530123008412E-02 a      1164     1    18     2     4
  3.4536339100084006E+00 a      1165     1    18     2     5
  3.8208261156056254E+00 a      1166     1    18     2     6
 -1.9426440812915109E+00 a      1167     1    18     2     7
  4.1176951204636286E-01 a      1168     1    18     2     8
 -1.6405365602151123E+00 a      1169     1    18     2     9
 -1.8697070209053448E+00 a      1170     1    18     2    10
  4.5806483308287422E+00 a      1171     1    18     2    11
  5.3552444289688470E+00 a      1172     1    18     2    12
  9.0599218120925507E+00 a      1173     1    18     2    13
 -7.3129234408404713E+00 a      1174     1    18     2    14
  4.0085562329202089E+00 a      1175     1    18     2    15
 -1.7485365224174665E+00 a      1176     1    18     2    16
 -9.8918484254652672E-01 a      1177     1    18     2    17
 -1.9756617083372248E+00 a      1178     1    18     2    18
 -2.8020306084825468E+00 a      1179     1    18     2    19
  3.8886101677225478E+00 a      1180     1    18     2    20
 -3.4816593832253933E+00 a      1181     1    19     2     1
  1.4305867419785714E+00 a      1182     1    19     2     2
  2.5134748435643681E+00 a      1183     1    19     2     3
 -1.9411744283123520E+00 a      1184     1    19     2     4
  9.4196612273526750E+00 a      1185     1    19     2     5
  1.5533317814624785E+00 a      1186     1    19     2     6
  9.4018564510003557E+00 a      1187     1    19     2     7
  3.8801632831741979E+00 a      1188     1    19     2     8
 -1.4666799946733847E-01 a      1189     1    19     2     9
 -1.0126013035367478E+01 a      1190     1    19     2    10
 -3.5574441521613180E+00 a      1191     1    19     2    11
  3.7539974662105906E+00 a      1192     1    19     2    12
 -7.7643409110733863E+00 a      1193     1    19     2    13
 -6.5687083226818146E+00 a      1194     1    19     2    14
  1.1918999138571921E+01 a      1195     1    19     2    15
  1.3557902745574284E+00 a      1196     1    19     2    16
 -4.2344078221268893E+00 a      1197     1    19     2    17
 -7.4966028269595641E-01 a      1198     1    19     2    18
  5.8832645246625181E-01 a      1199     1    19     2    19
  7.5944253602227860E+00 a      1200     1    19     2    20
 -3.7621472848470314E+00 a      1201     1    20     2     1
 -1.3614448057047976E+00 a      1202     1    20     2     2
  5.9367004353133868E-01 a      1203     1    20     2     3
 -4.1597136402266068E+00 a      1204     1    20     2     4
 -1.8198134430310122E+00 a      1205     1    20     2     5
  1.3730128039056779E+00 a      1206     1    20     2     6
  5.9448279723180537E+00 a      1207     1    20     2     7
 -4.3986905044502453E+00 a      1208     1    20     2     8
  2.1442230588502476E+00 a      1209     1    20     2     9
  3.7639136642852971E+00 a      1210     1    20     2    10
 -1.6476318994144894E+00 a      1211     1    20     2    11
  4.2744328655897643E+00 a      1212     1    20     2    12
  3.8035994708457621E+00 a      1213     1    20     2    13
 -7.6534179633499511E+00 a      1214     1    20     2    14
  9.4443587854646793E+00 a      1215     1    20     2    15
 -3.9248154994558271E+00 a      1216     1    20     2    16
  5.4846441923848543E-01 a      1217     1    20     2    17
 -6.4993010939876439E-01 a      1218     1    20     2    18
  5.2972686047894122E+00 a      1219     1    20     2    19
 -4.1831048717729047E+00 a      1220     1    20     2    20
  8.8432592306775764E+00 b      1221     2     1
 -1.0970930761338556E+01 b      1222     2     2
 -5.3931093916050710E+00 b      1223     2     3
  1.1420725749840100E+01 b      1224     2     4
  5.3294828373882313E+00 b      1225     2     5
 -2.7459438269799166E+00 b      1226     2     6
 -1.2751003550920053E+01 b      1227     2     7
 -1.0972694928108705E+01 b      1228     2     8
 -2.4303668928312598E+00 b      1229     2     9
 -1.0046052964849570E+00 b      1230     2    10
 -1.8037836477701539E+01 b      1231     2    11
  1.0634691060260149E+01 b      1232     2    12
  6.8671267454773832E-01 b      1233     2    13
  4.1614018046140915E+00 b      1234     2    14
 -3.4325064212109870E+00 b      1235     2    15
  4.4109373929390125E+00 b      1236     2    16
  8.4805911105568477E-01 b      1237     2    17
  1.2004988393970276E+01 b      1238     2    18
  1.0848589724505739E+01 b      1239     2    19
 -5.9635785500832093E+00 b      1240     2    20
  9.9818392420758351E-02 a      1241     2     1     3     1
  1.5452937839219161E-01 a      1242     2     2     3     1
 -4.0179659434421083E-01 a      1243     2     3     3     1
 -1.9918820016996436E-01 a      1244     2     4     3     1
  1.6223911107023672E-01 a      1245     2     5     3     1
  9.0583477470080456E-02 a      1246     2     6     3     1
 -1.8867080785445875E-01 a      1247     2     7     3     1
 -2.2509026158210632E-01 a      1248     2     8     3     1
  6.0424059544338445E-02 a      1249     2     9     3     1
 -2.2444281912179354E-01 a      1250     2    10     3     1
  1.3110911563628419E-01 a      1251     2    11     3     1
 -1.3875559545679708E-01 a      1252     2    12     3     1
  1.2994597925310547E-01 a      1253     2    13     3     1
  2.1676408591515312E-01 a      1254     2    14     3     1
 -1.6265531969228261E-01 a      1255     2    15     3     1
 -1.0542805034412904E-01 a      1256     2    16     3     1
  3.4950496686532939E-01 a      1257     2    17     3     1
  1.0159861599780935E-01 a      1258     2    18     3     1
 -2.5334781917905352E-01 a      1259     2    19     3     1
  2.0277021389070962E-01 a      1260     2    20     3     1
  2.5716796485736515E-01 b      1261     3     1
