################################################################################
# Neural network connection values (weights and biases).
################################################################################
# Col  Name       Description
################################################################################
# 1    connection Neural network connection value.
# 2    t          Connection type (a = weight, b = bias).
# 3    index      Index enumerating weights.
# 4    l_s        Starting point layer (end point layer for biases).
# 5    n_s        Starting point neuron in starting layer (end point neuron for biases).
# 6    l_e        End point layer.
# 7    n_e        End point neuron in end layer.
################################################################################
#                      1 2         3     4     5     6     7
#             connection t     index   l_s   n_s   l_e   n_e
############################################################
  4.3793147151646270E+00 a         1     0     1     1     1
 -9.4574893780570193E+00 a         2     0     1     1     2
  3.9016008669791700E+00 a         3     0     1     1     3
  3.8893087865073701E+00 a         4     0     1     1     4
 -1.4157120598870009E+01 a         5     0     1     1     5
  1.7119415235939910E+00 a         6     0     1     1     6
 -9.1193621085027079E+00 a         7     0     1     1     7
  8.1958411784084628E+00 a         8     0     1     1     8
  5.1847348619044995E+00 a         9     0     1     1     9
 -5.1999140244059801E+00 a        10     0     1     1    10
 -2.1794469822403780E+01 a        11     0     1     1    11
 -6.7719504090774496E-01 a        12     0     1     1    12
 -1.1228796789149005E+01 a        13     0     1     1    13
 -4.1971933247854558E+00 a        14     0     1     1    14
  4.8408245199076783E+00 a        15     0     1     1    15
 -9.4693843043677930E+00 a        16     0     1     1    16
 -6.0132389443894256E+00 a        17     0     1     1    17
  6.6387681203064428E+00 a        18     0     1     1    18
  2.7409641852032873E+00 a        19     0     1     1    19
 -4.2733200135871130E-01 a        20     0     1     1    20
 -8.4472653737941421E+00 a        21     0     2     1     1
  1.4415249528426439E+00 a        22     0     2     1     2
 -2.1055188912094557E+01 a        23     0     2     1     3
 -4.2881988439875034E+00 a        24     0     2     1     4
 -2.9452644673493737E+00 a        25     0     2     1     5
  2.4055634676536788E+00 a        26     0     2     1     6
  4.3401238113978939E+00 a        27     0     2     1     7
  9.5813976622432033E+00 a        28     0     2     1     8
 -1.9979104074658055E-01 a        29     0     2     1     9
  1.7461215442640764E+01 a        30     0     2     1    10
  1.4173517752217547E+01 a        31     0     2     1    11
 -6.2621889515968148E+00 a        32     0     2     1    12
  8.6314079551786160E-01 a        33     0     2     1    13
  1.7245759002760877E+01 a        34     0     2     1    14
  9.2581278564944807E+00 a        35     0     2     1    15
 -3.9749384658243958E+00 a        36     0     2     1    16
  1.1810185218280024E+01 a        37     0     2     1    17
  6.9414793629815552E+00 a        38     0     2     1    18
  7.1675604316190711E+00 a        39     0     2     1    19
 -1.2810828201703044E+01 a        40     0     2     1    20
  1.4307670397434395E+01 a        41     0     3     1     1
 -1.2231358312317713E+01 a        42     0     3     1     2
  1.7090000881382494E+00 a        43     0     3     1     3
  3.3326495783501375E+00 a        44     0     3     1     4
  8.6651788593279075E+00 a        45     0     3     1     5
  8.8236172718981702E+00 a        46     0     3     1     6
 -9.0941781177129482E+00 a        47     0     3     1     7
 -1.3158691822235034E+00 a        48     0     3     1     8
 -9.8181862914944968E+00 a        49     0     3     1     9
  1.0097317499081322E+01 a        50     0     3     1    10
 -5.1372637999074007E+00 a        51     0     3     1    11
  3.7148924615758054E+00 a        52     0     3     1    12
  1.6776631940451754E+01 a        53     0     3     1    13
 -7.4439519161114927E+00 a        54     0     3     1    14
  1.3557907852784938E+01 a        55     0     3     1    15
  5.2601074469623956E+00 a        56     0     3     1    16
  3.2419293702361744E+00 a        57     0     3     1    17
 -5.3778591662995270E+00 a        58     0     3     1    18
  5.9039849237358277E-01 a        59     0     3     1    19
  1.5841323577779468E+01 a        60     0     3     1    20
  3.0894650261603105E+00 a        61     0     4     1     1
  1.6397399794879281E+01 a        62     0     4     1     2
  5.3043885206406811E+00 a        63     0     4     1     3
  3.3078446784767577E+00 a        64     0     4     1     4
 -1.1964915628295843E+01 a        65     0     4     1     5
 -5.6822486507420971E+00 a        66     0     4     1     6
  2.5946832899280543E+00 a        67     0     4     1     7
 -4.2196068922149426E+00 a        68     0     4     1     8
  9.7033273132079045E-01 a        69     0     4     1     9
 -6.8686281435946581E+00 a        70     0     4     1    10
  7.9031272697245019E+00 a        71     0     4     1    11
  1.0306974103541007E+01 a        72     0     4     1    12
  8.9778441160056364E+00 a        73     0     4     1    13
 -6.5711363727988639E+00 a        74     0     4     1    14
 -8.5402584914668793E+00 a        75     0     4     1    15
 -2.1650112291957875E+00 a        76     0     4     1    16
 -3.0177707606831672E+00 a        77     0     4     1    17
 -6.8725394045655772E+00 a        78     0     4     1    18
 -1.1279578919804631E+01 a        79     0     4     1    19
  6.8816483369377845E+00 a        80     0     4     1    20
  3.6311278519095378E+00 a        81     0     5     1     1
 -7.4331153701103405E+00 a        82     0     5     1     2
  1.2995675009923618E+01 a        83     0     5     1     3
 -1.6477798325342887E+00 a        84     0     5     1     4
 -1.0393983161837237E+01 a        85     0     5     1     5
 -1.1289045547368308E+00 a        86     0     5     1     6
 -1.0859908142026008E+01 a        87     0     5     1     7
  3.9751521474007108E+00 a        88     0     5     1     8
  5.7949885800749437E+00 a        89     0     5     1     9
  4.0610656523888089E-01 a        90     0     5     1    10
  1.0379721320968683E+01 a        91     0     5     1    11
  6.0433868416236827E+00 a        92     0     5     1    12
  3.2939834196636579E+00 a        93     0     5     1    13
  7.5239560105521504E+00 a        94     0     5     1    14
 -1.8756969459922654E+00 a        95     0     5     1    15
 -9.0972398286078937E-01 a        96     0     5     1    16
 -1.0985589610228530E+01 a        97     0     5     1    17
 -2.9689704105458934E+00 a        98     0     5     1    18
  1.6425763357431939E+00 a        99     0     5     1    19
 -2.2871326523617164E+01 a       100     0     5     1    20
 -1.2597501850538498E+01 a       101     0     6     1     1
 -1.6876985174006375E+01 a       102     0     6     1     2
  5.0418359078525752E+00 a       103     0     6     1     3
 -3.8046920617700088E+00 a       104     0     6     1     4
  1.0894510843502747E+01 a       105     0     6     1     5
 -2.2639018769638149E+01 a       106     0     6     1     6
  9.8858138049847817E+00 a       107     0     6     1     7
 -2.6317399635886954E+01 a       108     0     6     1     8
 -1.3615838135622537E+01 a       109     0     6     1     9
 -1.7835076603139079E+00 a       110     0     6     1    10
  1.8891263128541596E+01 a       111     0     6     1    11
 -1.1713098937980126E+01 a       112     0     6     1    12
 -7.9655063895683060E+00 a       113     0     6     1    13
 -6.8982331086095776E+00 a       114     0     6     1    14
 -4.6419527833873708E+00 a       115     0     6     1    15
  8.6532184105731158E+00 a       116     0     6     1    16
 -1.3452170697032196E+01 a       117     0     6     1    17
  1.7596944424126146E+00 a       118     0     6     1    18
  1.8997296721947578E+01 a       119     0     6     1    19
  8.3444266069842199E-01 a       120     0     6     1    20
 -6.9266181592571199E+00 a       121     0     7     1     1
 -1.8681935558951604E+01 a       122     0     7     1     2
  1.6067492486241548E+01 a       123     0     7     1     3
  1.0262354055447476E+00 a       124     0     7     1     4
  4.4421048697066512E+00 a       125     0     7     1     5
 -1.5016412507532568E+00 a       126     0     7     1     6
 -1.7113665785830676E+01 a       127     0     7     1     7
 -1.1246595121768399E+01 a       128     0     7     1     8
  2.6575383879572594E+00 a       129     0     7     1     9
 -3.7489776741841530E+00 a       130     0     7     1    10
  9.6687675886780742E+00 a       131     0     7     1    11
  6.7554703827369500E-01 a       132     0     7     1    12
 -1.0727036758563095E+01 a       133     0     7     1    13
 -6.3305138955163720E+00 a       134     0     7     1    14
 -2.6224714159660767E+00 a       135     0     7     1    15
  3.9965489000416832E+00 a       136     0     7     1    16
 -4.8257246172999633E+00 a       137     0     7     1    17
 -5.8651616043231440E+00 a       138     0     7     1    18
  2.1066406217019948E+00 a       139     0     7     1    19
 -2.5263190187537616E+00 a       140     0     7     1    20
 -8.7445192889656340E+00 a       141     0     8     1     1
 -2.3529142711000270E+00 a       142     0     8     1     2
 -1.2487434012762559E+00 a       143     0     8     1     3
  1.8935128896683004E+01 a       144     0     8     1     4
 -6.6487392921309763E-01 a       145     0     8     1     5
 -1.2840377412801196E+01 a       146     0     8     1     6
 -1.4161529751078705E+01 a       147     0     8     1     7
 -9.2150262940919370E-01 a       148     0     8     1     8
 -4.2639171688662101E+00 a       149     0     8     1     9
 -1.4568407620178913E+01 a       150     0     8     1    10
  6.4775061602694066E+00 a       151     0     8     1    11
 -1.6810991606473642E+00 a       152     0     8     1    12
 -1.1520400872809777E+01 a       153     0     8     1    13
 -8.2252168598688495E+00 a       154     0     8     1    14
  8.4724298731827616E+00 a       155     0     8     1    15
 -4.5042204461505086E+00 a       156     0     8     1    16
  5.8214472545282607E+00 a       157     0     8     1    17
 -4.1571558153306540E+00 a       158     0     8     1    18
 -1.4809022056380676E+00 a       159     0     8     1    19
  4.4977916038291434E+00 a       160     0     8     1    20
 -1.1604032667824427E+00 a       161     0     9     1     1
  1.9322120417692430E+00 a       162     0     9     1     2
  2.6820152294469271E+00 a       163     0     9     1     3
 -9.9009316510072842E-01 a       164     0     9     1     4
 -5.0479014251018697E+00 a       165     0     9     1     5
 -2.3588724620998947E+00 a       166     0     9     1     6
  9.5016449624662442E+00 a       167     0     9     1     7
  6.5739606779916002E+00 a       168     0     9     1     8
  2.6482119090414842E+00 a       169     0     9     1     9
 -1.4978283951881144E+00 a       170     0     9     1    10
  5.1005681100280240E+00 a       171     0     9     1    11
  1.3375971093341745E+00 a       172     0     9     1    12
 -1.2647149171856480E+00 a       173     0     9     1    13
  6.6661204004645516E+00 a       174     0     9     1    14
  5.2968875441366254E+00 a       175     0     9     1    15
  1.0925314829952519E+00 a       176     0     9     1    16
 -9.7157464148624761E-01 a       177     0     9     1    17
 -5.2862767863909843E+00 a       178     0     9     1    18
  1.7283451776090277E+00 a       179     0     9     1    19
 -6.1723744474478108E+00 a       180     0     9     1    20
 -8.2153739786404643E+00 a       181     0    10     1     1
 -6.7604286863025296E+00 a       182     0    10     1     2
  7.9221724137300678E+00 a       183     0    10     1     3
  3.5647433145410030E+00 a       184     0    10     1     4
  1.3173791804871213E+01 a       185     0    10     1     5
  6.0094457505430627E+00 a       186     0    10     1     6
 -1.0789153755917235E+01 a       187     0    10     1     7
  5.2655604339338149E+00 a       188     0    10     1     8
  1.2472676941907700E+01 a       189     0    10     1     9
  2.6151070661549318E+00 a       190     0    10     1    10
  7.3616495217464477E+00 a       191     0    10     1    11
  8.4902895311581013E+00 a       192     0    10     1    12
  1.0261734002971863E+01 a       193     0    10     1    13
 -6.0713055148385715E+00 a       194     0    10     1    14
  1.2859781791153674E+01 a       195     0    10     1    15
 -5.2231623721782681E+00 a       196     0    10     1    16
 -8.5619447494383447E+00 a       197     0    10     1    17
  1.4609833852902896E+00 a       198     0    10     1    18
  6.3617392607906318E+00 a       199     0    10     1    19
  1.0911596589957049E+00 a       200     0    10     1    20
 -1.7130894988905645E+00 a       201     0    11     1     1
 -4.7248425173824371E+00 a       202     0    11     1     2
  8.7922501438228140E-01 a       203     0    11     1     3
  1.8572005448585187E+00 a       204     0    11     1     4
  5.9100755975320860E+00 a       205     0    11     1     5
  2.7306076222407127E+00 a       206     0    11     1     6
 -4.9576106453135997E+00 a       207     0    11     1     7
 -5.7902212450073498E-01 a       208     0    11     1     8
  3.9018802006655570E-02 a       209     0    11     1     9
 -5.6601640370971591E+00 a       210     0    11     1    10
  6.7474712214516206E+00 a       211     0    11     1    11
 -9.2885976147018157E-01 a       212     0    11     1    12
  1.3010656931137605E+00 a       213     0    11     1    13
 -4.8000971547829652E-01 a       214     0    11     1    14
  6.2075541279089619E-01 a       215     0    11     1    15
  4.6960691647164711E-03 a       216     0    11     1    16
 -1.7188305590085580E+00 a       217     0    11     1    17
  8.8607682333755988E-01 a       218     0    11     1    18
  1.4654865948025557E+00 a       219     0    11     1    19
 -3.4042057636118170E+00 a       220     0    11     1    20
 -1.9832402293163860E+00 a       221     0    12     1     1
  8.9054275566093022E+00 a       222     0    12     1     2
 -1.9008902755490290E+01 a       223     0    12     1     3
  1.0079326094182662E+01 a       224     0    12     1     4
  1.0285147309142484E+00 a       225     0    12     1     5
 -1.2327568801840775E+01 a       226     0    12     1     6
 -4.4885942285838860E+00 a       227     0    12     1     7
 -6.3965025737380046E+00 a       228     0    12     1     8
 -1.3821266665231292E+01 a       229     0    12     1     9
  7.5172126354486490E+00 a       230     0    12     1    10
  1.2285191147248833E+01 a       231     0    12     1    11
 -7.6691093020453529E+00 a       232     0    12     1    12
 -1.0707606859646425E+01 a       233     0    12     1    13
  2.5110536184941394E+00 a       234     0    12     1    14
 -7.3248664961216079E+00 a       235     0    12     1    15
  6.3762885657719277E+00 a       236     0    12     1    16
 -2.5507161805604004E+00 a       237     0    12     1    17
  6.0340198338648241E+00 a       238     0    12     1    18
 -1.3034521730275964E+01 a       239     0    12     1    19
 -6.0016881252954351E+00 a       240     0    12     1    20
  7.4661017689464870E+00 a       241     0    13     1     1
  1.3236611264848186E+01 a       242     0    13     1     2
 -1.0922361174570941E+01 a       243     0    13     1     3
 -3.0331067887664136E+00 a       244     0    13     1     4
 -1.5416713376118103E+00 a       245     0    13     1     5
 -4.2789394887997414E+00 a       246     0    13     1     6
 -5.0305375593267803E+00 a       247     0    13     1     7
  4.3666956309851743E+00 a       248     0    13     1     8
 -2.5410985872103926E+00 a       249     0    13     1     9
 -4.0805000535578486E+00 a       250     0    13     1    10
 -2.3487157168632984E+00 a       251     0    13     1    11
 -2.0305849431104579E+00 a       252     0    13     1    12
 -4.7093603897711240E+00 a       253     0    13     1    13
 -5.0006906836129819E+00 a       254     0    13     1    14
 -4.6712559947092436E-01 a       255     0    13     1    15
  5.5771081290893913E-02 a       256     0    13     1    16
 -1.6981438982558883E+00 a       257     0    13     1    17
  8.9965785983402624E-01 a       258     0    13     1    18
 -7.8568004266914180E+00 a       259     0    13     1    19
 -6.7831355677761218E-01 a       260     0    13     1    20
 -5.4777796933528862E+00 a       261     0    14     1     1
  1.3043800920356125E+01 a       262     0    14     1     2
 -1.2470807307000335E+01 a       263     0    14     1     3
  1.4502573626392639E+00 a       264     0    14     1     4
  1.6673324482965606E+00 a       265     0    14     1     5
  4.3234754785725285E+00 a       266     0    14     1     6
 -8.3221837594098904E+00 a       267     0    14     1     7
  1.2914307567815397E+01 a       268     0    14     1     8
  3.1174081638295266E+00 a       269     0    14     1     9
 -5.1712611219411946E-02 a       270     0    14     1    10
 -8.2417395470348396E+00 a       271     0    14     1    11
  4.0003916218331144E+00 a       272     0    14     1    12
 -1.4846700727650222E-01 a       273     0    14     1    13
 -1.0807244496718054E+01 a       274     0    14     1    14
 -3.1462371226704606E+00 a       275     0    14     1    15
 -1.7058150287470273E+00 a       276     0    14     1    16
 -1.7472372465410684E+00 a       277     0    14     1    17
 -6.6499425088426163E+00 a       278     0    14     1    18
  7.1863646443960523E+00 a       279     0    14     1    19
  1.2012990754170746E+01 a       280     0    14     1    20
 -3.0445234044904934E-01 a       281     0    15     1     1
  4.8423085466948548E+00 a       282     0    15     1     2
 -1.0168023038713532E+01 a       283     0    15     1     3
  2.5093491101619967E+00 a       284     0    15     1     4
  3.6309693036340369E+00 a       285     0    15     1     5
  1.1182912769646121E+00 a       286     0    15     1     6
  1.2423863261008672E+00 a       287     0    15     1     7
  8.6513532284998913E+00 a       288     0    15     1     8
  2.1484414906631280E-01 a       289     0    15     1     9
  1.8088195105968261E+00 a       290     0    15     1    10
  2.6727976215077631E+00 a       291     0    15     1    11
 -3.6219054798299775E+00 a       292     0    15     1    12
 -2.3397698406098009E+00 a       293     0    15     1    13
 -5.6130164099349511E-01 a       294     0    15     1    14
  2.3721993233099595E-01 a       295     0    15     1    15
  4.7823255507947140E+00 a       296     0    15     1    16
 -8.8415419009977991E-01 a       297     0    15     1    17
 -3.1709578249446486E+00 a       298     0    15     1    18
 -9.7989527115992936E-01 a       299     0    15     1    19
  1.4074624545206449E+00 a       300     0    15     1    20
  1.3524433405496158E-01 a       301     0    16     1     1
 -8.0226342122905980E-01 a       302     0    16     1     2
  5.2099029605696314E+00 a       303     0    16     1     3
  2.6430605897234121E+00 a       304     0    16     1     4
 -4.4079394474570428E+00 a       305     0    16     1     5
 -3.4794507444470093E+00 a       306     0    16     1     6
  3.9789802540222530E-01 a       307     0    16     1     7
 -9.3805254393863287E+00 a       308     0    16     1     8
 -9.0135642779186593E+00 a       309     0    16     1     9
 -2.6323561313774274E-01 a       310     0    16     1    10
  2.2300431435560841E+00 a       311     0    16     1    11
 -1.0698896173044870E+00 a       312     0    16     1    12
 -5.4872314928532218E+00 a       313     0    16     1    13
  6.0537972322725944E+00 a       314     0    16     1    14
  6.7571427674081630E-01 a       315     0    16     1    15
  2.6995766551606848E+00 a       316     0    16     1    16
  1.2300651466415464E+00 a       317     0    16     1    17
  1.0835313268267246E+00 a       318     0    16     1    18
 -8.5114589959391047E+00 a       319     0    16     1    19
 -3.9898569338419931E+00 a       320     0    16     1    20
 -1.6625413380505110E+00 a       321     0    17     1     1
 -6.7815528273393637E+00 a       322     0    17     1     2
 -2.7898173859432229E+00 a       323     0    17     1     3
  3.2591999991620557E-01 a       324     0    17     1     4
 -7.7879616025549954E+00 a       325     0    17     1     5
  5.9606691608461402E+00 a       326     0    17     1     6
  4.6344023638522804E+00 a       327     0    17     1     7
 -1.0646667444502647E-02 a       328     0    17     1     8
 -5.6228995880739001E+00 a       329     0    17     1     9
 -1.0579341645581996E+01 a       330     0    17     1    10
  1.1439727111983295E+01 a       331     0    17     1    11
  1.0057234910298964E+01 a       332     0    17     1    12
 -2.6650023125593858E+00 a       333     0    17     1    13
  3.3772445927931609E+00 a       334     0    17     1    14
 -5.2668210540448914E+00 a       335     0    17     1    15
 -1.3465224914632403E+01 a       336     0    17     1    16
  1.2723455591025898E+00 a       337     0    17     1    17
 -1.4550712000465262E+01 a       338     0    17     1    18
 -9.9909282557705801E+00 a       339     0    17     1    19
 -1.2363172202734791E+01 a       340     0    17     1    20
 -2.2022235151499732E+01 a       341     0    18     1     1
  5.6969375773277864E-01 a       342     0    18     1     2
 -9.1407003253024612E+00 a       343     0    18     1     3
 -6.0221690097109528E+00 a       344     0    18     1     4
  4.6475649221410489E+00 a       345     0    18     1     5
 -6.2085999685403603E+00 a       346     0    18     1     6
 -3.2085148669248360E+00 a       347     0    18     1     7
 -1.3017337275506284E+01 a       348     0    18     1     8
  3.1911722118259085E+01 a       349     0    18     1     9
  1.3311136832334025E+01 a       350     0    18     1    10
 -3.5049676131506691E-01 a       351     0    18     1    11
 -1.3005969725279041E+01 a       352     0    18     1    12
 -1.1312086393643394E+01 a       353     0    18     1    13
 -1.0034123927875619E+01 a       354     0    18     1    14
  3.9265840575092176E-01 a       355     0    18     1    15
 -1.7964612625355556E+01 a       356     0    18     1    16
  1.1698767050175305E+00 a       357     0    18     1    17
  2.2964020921511835E+01 a       358     0    18     1    18
  5.3279650546541282E+00 a       359     0    18     1    19
  4.1834297135428020E+00 a       360     0    18     1    20
 -8.4990079078334002E+00 a       361     0    19     1     1
  1.0859246868900481E+01 a       362     0    19     1     2
  5.4619909945143812E+00 a       363     0    19     1     3
 -8.9607181543706034E+00 a       364     0    19     1     4
  8.3943709136573172E+00 a       365     0    19     1     5
  1.5733104307509809E+01 a       366     0    19     1     6
 -3.5696171427958319E+01 a       367     0    19     1     7
 -1.4781380238357646E+00 a       368     0    19     1     8
 -9.7191603144935854E+00 a       369     0    19     1     9
 -7.2773362012954701E+00 a       370     0    19     1    10
 -2.5573960710801420E+00 a       371     0    19     1    11
 -1.5309614232040669E+01 a       372     0    19     1    12
 -1.2935721179367223E+00 a       373     0    19     1    13
  8.4593000055880430E-01 a       374     0    19     1    14
  2.3215741308445243E-03 a       375     0    19     1    15
  1.5548065269077080E+01 a       376     0    19     1    16
 -2.4425443921461127E+00 a       377     0    19     1    17
 -3.5219655555933893E+00 a       378     0    19     1    18
 -1.1606583951589910E+01 a       379     0    19     1    19
 -7.2115610504148773E+00 a       380     0    19     1    20
 -2.3253048226954345E+00 a       381     0    20     1     1
  1.1305044228996612E+01 a       382     0    20     1     2
 -1.1128783069624287E+01 a       383     0    20     1     3
 -2.3928265966623748E+01 a       384     0    20     1     4
  1.0184045990845139E+01 a       385     0    20     1     5
 -8.3992151593848519E+00 a       386     0    20     1     6
 -9.0726522974342725E+00 a       387     0    20     1     7
  1.6260592155674903E+01 a       388     0    20     1     8
  9.6409450879209153E+00 a       389     0    20     1     9
 -4.3519544377595238E+00 a       390     0    20     1    10
  8.5088898477013242E+00 a       391     0    20     1    11
 -9.8048636669261633E+00 a       392     0    20     1    12
 -3.5964994410135955E+00 a       393     0    20     1    13
  4.9267287432884155E+00 a       394     0    20     1    14
 -2.5831910159022630E+01 a       395     0    20     1    15
  2.1276335969654344E+01 a       396     0    20     1    16
 -7.2533252789618201E+00 a       397     0    20     1    17
  1.7505911435781922E+01 a       398     0    20     1    18
 -2.2679995624566835E+00 a       399     0    20     1    19
  3.2130049356387365E+00 a       400     0    20     1    20
 -7.9294309345257883E+00 a       401     0    21     1     1
  1.7817608089185057E+01 a       402     0    21     1     2
  1.1033207887280780E+01 a       403     0    21     1     3
 -1.4013765364154064E+01 a       404     0    21     1     4
 -1.1992167647504498E+01 a       405     0    21     1     5
  1.8460413941118075E+00 a       406     0    21     1     6
  1.6069781066665502E+01 a       407     0    21     1     7
 -5.9147071525985542E-02 a       408     0    21     1     8
 -2.6636472752330551E+01 a       409     0    21     1     9
  2.8924896252551488E+01 a       410     0    21     1    10
 -9.4708348289385409E+00 a       411     0    21     1    11
  1.9660804654406807E+01 a       412     0    21     1    12
 -3.4532239932851375E+01 a       413     0    21     1    13
  2.6596114241090859E+01 a       414     0    21     1    14
 -7.1663427669408886E-01 a       415     0    21     1    15
 -6.1511682095071425E+00 a       416     0    21     1    16
  1.6552941260102184E+01 a       417     0    21     1    17
 -1.7115715378284055E+01 a       418     0    21     1    18
 -2.2912486401009570E+01 a       419     0    21     1    19
 -2.1040004013120232E+01 a       420     0    21     1    20
  1.9405131488831923E+01 a       421     0    22     1     1
 -1.2098322194546009E+01 a       422     0    22     1     2
  1.8464155446523662E+01 a       423     0    22     1     3
  3.2269446513806351E+01 a       424     0    22     1     4
  1.1909004676812183E+01 a       425     0    22     1     5
 -3.8021746307993873E+00 a       426     0    22     1     6
  3.5991312646654784E+01 a       427     0    22     1     7
  5.2187593330951296E+00 a       428     0    22     1     8
  7.0969484022301508E+00 a       429     0    22     1     9
 -2.1507804703825343E+01 a       430     0    22     1    10
 -1.7724278534828454E+01 a       431     0    22     1    11
  2.8795254618939783E+01 a       432     0    22     1    12
  9.4865502608960615E+00 a       433     0    22     1    13
 -1.2127167120756219E+00 a       434     0    22     1    14
  3.4848330025787888E-01 a       435     0    22     1    15
  2.8860353667825249E+00 a       436     0    22     1    16
  2.8449362538501028E+00 a       437     0    22     1    17
 -1.3088541914482843E+01 a       438     0    22     1    18
  3.4989794531295345E+01 a       439     0    22     1    19
  2.0020827055928695E+01 a       440     0    22     1    20
 -8.1221989908674281E+00 a       441     0    23     1     1
  1.7886999197011673E+00 a       442     0    23     1     2
  9.8131721490725319E+00 a       443     0    23     1     3
  3.1430629914825754E+01 a       444     0    23     1     4
  4.6862353388050426E+00 a       445     0    23     1     5
  1.4896727172821129E+00 a       446     0    23     1     6
  2.0314451456045264E+00 a       447     0    23     1     7
  5.7246548413478218E+00 a       448     0    23     1     8
 -4.4711363223145151E+00 a       449     0    23     1     9
 -2.8363855506638211E+00 a       450     0    23     1    10
  4.9870528419201090E+00 a       451     0    23     1    11
  6.7687032659735680E+00 a       452     0    23     1    12
 -2.6140519261460686E+00 a       453     0    23     1    13
 -2.8492539072230052E+00 a       454     0    23     1    14
 -1.0813109641789556E+01 a       455     0    23     1    15
 -4.6971911546334537E+00 a       456     0    23     1    16
 -7.1310318899913694E-01 a       457     0    23     1    17
 -5.9090550907629229E+00 a       458     0    23     1    18
  5.9269619505543085E+00 a       459     0    23     1    19
  5.3284388519707679E+00 a       460     0    23     1    20
  1.0003510885385950E+01 a       461     0    24     1     1
  1.5143730837909718E+01 a       462     0    24     1     2
 -5.6432541146074602E+00 a       463     0    24     1     3
  9.9997823357577946E+00 a       464     0    24     1     4
  6.2446430714680892E+00 a       465     0    24     1     5
 -1.3525127124203639E+01 a       466     0    24     1     6
  7.7828290184299034E+00 a       467     0    24     1     7
 -2.2405848695312240E+00 a       468     0    24     1     8
  2.0236085595991917E+00 a       469     0    24     1     9
 -1.7926149959138019E+01 a       470     0    24     1    10
 -7.7551562845778594E+00 a       471     0    24     1    11
  3.7687517041291505E+00 a       472     0    24     1    12
 -1.1274430032478964E+01 a       473     0    24     1    13
 -6.7355518512603085E+00 a       474     0    24     1    14
  1.1052171692897153E+01 a       475     0    24     1    15
  2.6292424886030652E+00 a       476     0    24     1    16
  9.3128114684099845E+00 a       477     0    24     1    17
 -1.3577838089800678E+00 a       478     0    24     1    18
  4.1966987332464081E+00 a       479     0    24     1    19
  9.3512151232198502E+00 a       480     0    24     1    20
 -1.7949348064589088E+01 a       481     0    25     1     1
 -1.6465801995286458E+01 a       482     0    25     1     2
 -6.3442777931626928E+00 a       483     0    25     1     3
  3.4669127927534702E+00 a       484     0    25     1     4
 -4.7117799368638371E+00 a       485     0    25     1     5
  6.9612587781489523E+00 a       486     0    25     1     6
  1.4503565546621701E+01 a       487     0    25     1     7
  4.1444115242351822E+00 a       488     0    25     1     8
  1.6841418812391029E+00 a       489     0    25     1     9
  9.5251319973585140E+00 a       490     0    25     1    10
  7.4594133355842496E-01 a       491     0    25     1    11
  4.8064005061305330E+00 a       492     0    25     1    12
 -5.1077745161382824E+00 a       493     0    25     1    13
  2.6751258920720034E-01 a       494     0    25     1    14
 -4.4599809972452062E+00 a       495     0    25     1    15
 -7.4131592129256036E+00 a       496     0    25     1    16
  2.7836178106802412E+00 a       497     0    25     1    17
 -1.8207277920162137E+00 a       498     0    25     1    18
 -9.2662606332220221E-01 a       499     0    25     1    19
  1.6806678582699264E+00 a       500     0    25     1    20
  5.9399870510376551E-01 a       501     0    26     1     1
 -1.2521434514588072E+00 a       502     0    26     1     2
  1.5437949015586602E+01 a       503     0    26     1     3
  3.1907347579213440E+01 a       504     0    26     1     4
  9.1787061864851172E+00 a       505     0    26     1     5
 -1.6017759973411205E+00 a       506     0    26     1     6
  8.1674000540926546E+00 a       507     0    26     1     7
 -1.2196378127917979E+01 a       508     0    26     1     8
 -6.4727046043292038E+00 a       509     0    26     1     9
  7.7069574783277206E-01 a       510     0    26     1    10
  2.5654804461457314E+01 a       511     0    26     1    11
  1.8684546926893777E+01 a       512     0    26     1    12
  8.9225752601487862E+00 a       513     0    26     1    13
  4.2561392306130834E+00 a       514     0    26     1    14
  1.0149994076740503E+01 a       515     0    26     1    15
  2.9435121988005974E-01 a       516     0    26     1    16
  4.6667942677714329E+00 a       517     0    26     1    17
 -1.7419511724956362E+01 a       518     0    26     1    18
  1.1054138716345076E+01 a       519     0    26     1    19
  4.1031649274395443E+00 a       520     0    26     1    20
  1.3291061026931761E+01 a       521     0    27     1     1
 -3.7481260760838682E+00 a       522     0    27     1     2
 -1.2868539263097503E+01 a       523     0    27     1     3
 -3.6371281372028562E+01 a       524     0    27     1     4
  6.1536117467032769E-01 a       525     0    27     1     5
 -3.3859661496111277E+00 a       526     0    27     1     6
  1.4085574482731504E+00 a       527     0    27     1     7
 -2.6621774502489231E+01 a       528     0    27     1     8
  3.6580253657297895E-01 a       529     0    27     1     9
 -2.2321179777324563E+01 a       530     0    27     1    10
  8.2191861128915793E+00 a       531     0    27     1    11
 -2.2144988934796562E+01 a       532     0    27     1    12
  1.9137048452798140E+01 a       533     0    27     1    13
 -2.0873636373856367E+01 a       534     0    27     1    14
  6.6367933934943215E+00 a       535     0    27     1    15
  3.4555165191853838E+00 a       536     0    27     1    16
 -3.7065908563910468E+00 a       537     0    27     1    17
  1.0935268278615315E+01 a       538     0    27     1    18
  1.1059277152474344E+01 a       539     0    27     1    19
  3.0017813746187807E+00 a       540     0    27     1    20
  4.9161687924391781E-02 a       541     0    28     1     1
 -2.0782768600468618E+01 a       542     0    28     1     2
 -3.5885430648746954E+00 a       543     0    28     1     3
  1.4739970261723736E+01 a       544     0    28     1     4
  1.5551505435941393E+00 a       545     0    28     1     5
  8.3433655253305683E-01 a       546     0    28     1     6
 -2.8808799675339074E+01 a       547     0    28     1     7
  3.3224646093858707E+00 a       548     0    28     1     8
  4.1098227547418897E+00 a       549     0    28     1     9
  3.1430136794003407E+00 a       550     0    28     1    10
  2.7504538166161949E+00 a       551     0    28     1    11
 -1.9024257136814096E+01 a       552     0    28     1    12
 -1.1337269112046799E+01 a       553     0    28     1    13
 -1.0877772171982118E+01 a       554     0    28     1    14
 -8.1509138371127037E+00 a       555     0    28     1    15
  5.6280010970818868E+00 a       556     0    28     1    16
 -1.2642398831430905E+01 a       557     0    28     1    17
  4.9274716687936282E+00 a       558     0    28     1    18
 -1.8164754290710562E+01 a       559     0    28     1    19
  1.0105828857742866E+01 a       560     0    28     1    20
  4.7615741733709482E+00 a       561     0    29     1     1
  2.1989769081060253E+01 a       562     0    29     1     2
 -6.8100185134804905E+00 a       563     0    29     1     3
 -4.8924709147978165E+00 a       564     0    29     1     4
 -5.3444825872143653E+00 a       565     0    29     1     5
  3.6531037249968769E+01 a       566     0    29     1     6
  1.4553416441624053E+01 a       567     0    29     1     7
 -2.1775432083454773E+00 a       568     0    29     1     8
 -3.0909339314345554E-02 a       569     0    29     1     9
  2.5871544673245985E+01 a       570     0    29     1    10
 -2.1471101384300592E+01 a       571     0    29     1    11
  8.3113849203398011E+00 a       572     0    29     1    12
  1.2391098201881666E+01 a       573     0    29     1    13
  1.4396753978186638E+01 a       574     0    29     1    14
 -1.6015382451794661E+01 a       575     0    29     1    15
 -5.9448909816614330E+00 a       576     0    29     1    16
  1.4009127252011885E+01 a       577     0    29     1    17
  9.5588739470069690E+00 a       578     0    29     1    18
  4.1384740679512100E-01 a       579     0    29     1    19
  3.1824409872687358E+01 a       580     0    29     1    20
  3.4362441999090301E+01 a       581     0    30     1     1
  9.3584777368383048E+00 a       582     0    30     1     2
 -1.0851897323859877E+01 a       583     0    30     1     3
 -1.6615808450436340E+01 a       584     0    30     1     4
 -1.7037245463304862E+00 a       585     0    30     1     5
  8.7071867240514689E-02 a       586     0    30     1     6
  1.0704469215910152E+01 a       587     0    30     1     7
  1.9828112549362771E+01 a       588     0    30     1     8
 -1.1807446941121498E+01 a       589     0    30     1     9
 -7.3899296495572298E+00 a       590     0    30     1    10
 -1.3422862906565191E+01 a       591     0    30     1    11
 -1.4838218362950370E+01 a       592     0    30     1    12
  2.0605047961518878E+01 a       593     0    30     1    13
  1.9577778127290376E+01 a       594     0    30     1    14
  9.7646193022810035E+00 a       595     0    30     1    15
  3.5776956713329375E+00 a       596     0    30     1    16
 -4.3253876396156974E+00 a       597     0    30     1    17
 -7.4959856615851939E-01 a       598     0    30     1    18
  6.1559918319190308E+00 a       599     0    30     1    19
 -2.7069741791917203E+01 a       600     0    30     1    20
  1.3326800580899077E+01 a       601     0    31     1     1
 -7.0503736856886325E+00 a       602     0    31     1     2
 -6.9981030548472232E+00 a       603     0    31     1     3
  1.4870391070125115E+00 a       604     0    31     1     4
 -9.4910430366385334E+00 a       605     0    31     1     5
  8.9285812052552664E+00 a       606     0    31     1     6
  8.0705205221546397E+00 a       607     0    31     1     7
 -1.8778689424277919E+00 a       608     0    31     1     8
  6.1970647231996727E+00 a       609     0    31     1     9
  2.2287643363524200E+01 a       610     0    31     1    10
  4.8904883343498593E+00 a       611     0    31     1    11
  9.1807447634469064E+00 a       612     0    31     1    12
 -3.2008868197824341E+00 a       613     0    31     1    13
  2.6306085876264289E+00 a       614     0    31     1    14
 -1.6472652949810179E+01 a       615     0    31     1    15
 -1.6879587732575043E+00 a       616     0    31     1    16
  1.9223937363284026E+01 a       617     0    31     1    17
  2.5031304331837152E+01 a       618     0    31     1    18
  4.9703854783252577E-01 a       619     0    31     1    19
  8.8931299186613462E+00 a       620     0    31     1    20
 -7.2358413411332858E+00 a       621     0    32     1     1
 -3.0787026250214435E+01 a       622     0    32     1     2
 -1.2605735035475203E+00 a       623     0    32     1     3
  3.2301892522806341E+01 a       624     0    32     1     4
  8.2951975800194351E+00 a       625     0    32     1     5
 -3.6024175671550800E+01 a       626     0    32     1     6
  8.6160951692003618E+00 a       627     0    32     1     7
  8.7912530991246722E+00 a       628     0    32     1     8
 -5.9035144060016034E+00 a       629     0    32     1     9
 -2.9232324111678789E+01 a       630     0    32     1    10
 -6.5315008469373326E-01 a       631     0    32     1    11
  1.2015870732982570E+00 a       632     0    32     1    12
  3.1666882622253437E-02 a       633     0    32     1    13
 -1.0188002709363055E+01 a       634     0    32     1    14
  1.9331190076412991E+01 a       635     0    32     1    15
  1.1943881783116026E+01 a       636     0    32     1    16
 -6.9879642033742622E+00 a       637     0    32     1    17
 -1.7731122868083649E+01 a       638     0    32     1    18
 -4.1789092534308327E+00 a       639     0    32     1    19
 -7.8868538404698239E+00 a       640     0    32     1    20
 -2.8595520895428272E+01 a       641     0    33     1     1
 -1.9193071271620642E+01 a       642     0    33     1     2
  7.1944052280111199E+00 a       643     0    33     1     3
 -2.5057471591054141E+00 a       644     0    33     1     4
 -1.0456417616279742E+01 a       645     0    33     1     5
 -6.2664977152218935E+00 a       646     0    33     1     6
 -1.0860446832840418E+01 a       647     0    33     1     7
 -1.5556994749529464E+01 a       648     0    33     1     8
  6.7930363266736320E+00 a       649     0    33     1     9
 -1.2751324413260384E+01 a       650     0    33     1    10
 -1.3742821641045973E+01 a       651     0    33     1    11
  2.6463334462957381E+01 a       652     0    33     1    12
 -5.3610095194620699E+00 a       653     0    33     1    13
 -4.3092825873118571E+01 a       654     0    33     1    14
 -1.9711966270430630E+00 a       655     0    33     1    15
 -2.0249126730465562E+01 a       656     0    33     1    16
  6.0759265609145707E+00 a       657     0    33     1    17
  6.0187185556826961E+00 a       658     0    33     1    18
  1.7810589509431376E+00 a       659     0    33     1    19
  3.2330699226236995E+01 a       660     0    33     1    20
 -1.6499131165614116E+01 a       661     0    34     1     1
 -7.5191265386720452E-01 a       662     0    34     1     2
 -4.8915438136671767E+00 a       663     0    34     1     3
 -6.0229434161530842E+00 a       664     0    34     1     4
 -6.8029686683088082E+00 a       665     0    34     1     5
 -1.4849548628351018E+01 a       666     0    34     1     6
 -1.7572066227635236E+01 a       667     0    34     1     7
  1.6815136306611926E+01 a       668     0    34     1     8
  7.0305268870013569E+00 a       669     0    34     1     9
  1.8056445688323421E+00 a       670     0    34     1    10
 -2.6697289003229545E+00 a       671     0    34     1    11
 -8.2818319227708344E+00 a       672     0    34     1    12
 -3.9627694754996773E-01 a       673     0    34     1    13
 -3.1928752890276324E+00 a       674     0    34     1    14
  2.3155287607392008E+01 a       675     0    34     1    15
 -1.2673018239205112E+01 a       676     0    34     1    16
 -2.0595013971897099E+01 a       677     0    34     1    17
 -2.8090844733110909E+01 a       678     0    34     1    18
 -2.7602724213593298E+01 a       679     0    34     1    19
  3.2633718266577727E+00 a       680     0    34     1    20
  7.1483293312244962E+00 a       681     0    35     1     1
  3.3901516263383842E+00 a       682     0    35     1     2
 -1.1056144158772959E+01 a       683     0    35     1     3
 -9.4982139893824264E+00 a       684     0    35     1     4
  2.8244360189842366E-01 a       685     0    35     1     5
 -9.0556031689186476E+00 a       686     0    35     1     6
  1.8863403387660027E-01 a       687     0    35     1     7
 -3.3732730702447605E-01 a       688     0    35     1     8
 -3.4563875833337705E+00 a       689     0    35     1     9
  2.9852867264943606E+00 a       690     0    35     1    10
 -3.8357923132295233E+00 a       691     0    35     1    11
 -8.6034638513022852E+00 a       692     0    35     1    12
 -1.5788345933480330E-01 a       693     0    35     1    13
 -2.3899847077143610E+00 a       694     0    35     1    14
  9.8366015975878387E+00 a       695     0    35     1    15
 -1.6153582262705604E-01 a       696     0    35     1    16
  3.1250994898486057E+00 a       697     0    35     1    17
  6.2124599494364103E+00 a       698     0    35     1    18
 -4.3544342857179137E+00 a       699     0    35     1    19
  3.7073690781729680E+00 a       700     0    35     1    20
 -2.6844784214982709E+00 a       701     0    36     1     1
 -3.5670512188096128E+00 a       702     0    36     1     2
 -4.2950851698437127E+00 a       703     0    36     1     3
 -1.7820680752223058E+01 a       704     0    36     1     4
 -4.6270663396657934E+00 a       705     0    36     1     5
  3.8356134343734518E+00 a       706     0    36     1     6
  3.7999080583725986E+00 a       707     0    36     1     7
  1.5303860232658134E-01 a       708     0    36     1     8
  2.1424290351232198E+00 a       709     0    36     1     9
  8.9582855912380239E+00 a       710     0    36     1    10
 -9.5414158750013041E+00 a       711     0    36     1    11
 -5.5012428252730128E-01 a       712     0    36     1    12
  1.8000316175254085E+01 a       713     0    36     1    13
  4.9160842791305415E+00 a       714     0    36     1    14
 -6.9676208134146567E+00 a       715     0    36     1    15
  2.0183369974564247E+00 a       716     0    36     1    16
 -5.2037324550847170E+00 a       717     0    36     1    17
 -1.7272483470413422E+00 a       718     0    36     1    18
 -1.2223977799314156E+01 a       719     0    36     1    19
  2.0010965592192917E+00 a       720     0    36     1    20
  3.9472809265701720E+01 a       721     0    37     1     1
  1.9477090529279231E+01 a       722     0    37     1     2
  1.9596782505326484E+00 a       723     0    37     1     3
 -2.6288093079890409E+01 a       724     0    37     1     4
  8.4686962951415146E-01 a       725     0    37     1     5
  8.2993817484084698E+00 a       726     0    37     1     6
  1.9262746955725937E+01 a       727     0    37     1     7
  7.1927851989335023E+00 a       728     0    37     1     8
 -1.5713242423600007E+00 a       729     0    37     1     9
 -1.4234277375666520E+00 a       730     0    37     1    10
 -1.9455963271540384E+01 a       731     0    37     1    11
 -4.9931668767261908E+00 a       732     0    37     1    12
  1.2621130922374311E+01 a       733     0    37     1    13
  6.8139119426611909E+00 a       734     0    37     1    14
 -1.9054189533396548E-02 a       735     0    37     1    15
  4.6304867568259809E+00 a       736     0    37     1    16
  2.0807969822703187E+00 a       737     0    37     1    17
 -7.2693932847675846E+00 a       738     0    37     1    18
 -3.0755532857200509E+00 a       739     0    37     1    19
 -4.9065928480283638E+00 a       740     0    37     1    20
 -2.4998729240564450E+00 a       741     0    38     1     1
  2.4108398521999767E+01 a       742     0    38     1     2
  2.8008241533731355E+00 a       743     0    38     1     3
 -3.6659715080261236E+01 a       744     0    38     1     4
 -1.0763772169697519E+01 a       745     0    38     1     5
  1.3390060873793875E+01 a       746     0    38     1     6
 -1.3378191354177706E+00 a       747     0    38     1     7
 -5.7743589204507186E+00 a       748     0    38     1     8
  5.8664889637449793E+00 a       749     0    38     1     9
  1.8950997559480328E+01 a       750     0    38     1    10
 -6.8198614795964643E+00 a       751     0    38     1    11
 -1.2084049312090777E+01 a       752     0    38     1    12
  8.9356695095189798E-01 a       753     0    38     1    13
  1.0196820045101176E+00 a       754     0    38     1    14
 -5.4234025991414478E+00 a       755     0    38     1    15
  1.9116701570921018E+00 a       756     0    38     1    16
  1.2074415556702616E+00 a       757     0    38     1    17
  2.2547777812768956E+01 a       758     0    38     1    18
  1.9748071765029627E+00 a       759     0    38     1    19
 -8.3612054929726987E-01 a       760     0    38     1    20
  6.7473160335374232E+00 a       761     0    39     1     1
  7.3016891795728034E+00 a       762     0    39     1     2
 -3.7276380798300686E+00 a       763     0    39     1     3
  1.8780658771498697E+01 a       764     0    39     1     4
  1.9390438362146565E+01 a       765     0    39     1     5
  9.1171494288418717E+00 a       766     0    39     1     6
  4.0401900031460309E+00 a       767     0    39     1     7
  1.6249701401873686E+01 a       768     0    39     1     8
  3.0955145756506415E+00 a       769     0    39     1     9
  7.0093370599423714E+00 a       770     0    39     1    10
 -4.7362785969979662E+00 a       771     0    39     1    11
 -1.8690859055861413E+01 a       772     0    39     1    12
 -1.5549662768633496E+01 a       773     0    39     1    13
  1.5731933052146763E+01 a       774     0    39     1    14
  2.1683622359800836E-01 a       775     0    39     1    15
  1.2062539682025978E+01 a       776     0    39     1    16
  4.0747833269276938E+00 a       777     0    39     1    17
  3.8953793508895900E+00 a       778     0    39     1    18
 -3.6314382656975224E+00 a       779     0    39     1    19
 -5.7217050573950141E+00 a       780     0    39     1    20
  9.8943448797249669E+00 a       781     0    40     1     1
  1.4170901693796180E+01 a       782     0    40     1     2
  4.0315901764659556E-01 a       783     0    40     1     3
 -9.8294633156201048E+00 a       784     0    40     1     4
 -7.5420999964334356E+00 a       785     0    40     1     5
  1.7367163353874286E+01 a       786     0    40     1     6
  1.3950645206971149E+01 a       787     0    40     1     7
 -2.0611859000696593E+00 a       788     0    40     1     8
 -1.1062462785287771E+01 a       789     0    40     1     9
 -2.2426052222083834E-01 a       790     0    40     1    10
  7.1780637498529796E+00 a       791     0    40     1    11
  8.8183645588837276E+00 a       792     0    40     1    12
  1.1598500872841845E+01 a       793     0    40     1    13
  2.4853580597911790E+01 a       794     0    40     1    14
 -9.6226383892920282E+00 a       795     0    40     1    15
  9.9334013010084909E+00 a       796     0    40     1    16
  1.3525792526544787E+01 a       797     0    40     1    17
  1.1714163342695617E+01 a       798     0    40     1    18
  1.8257650740576018E+01 a       799     0    40     1    19
 -2.4524920247822923E+01 a       800     0    40     1    20
  1.5792853889961331E+00 b       801     1     1
 -9.0278977213813405E-01 b       802     1     2
 -1.0383450973230275E+00 b       803     1     3
 -2.6630132208000994E+00 b       804     1     4
 -6.6154987649820884E-01 b       805     1     5
 -9.8431206217895376E-02 b       806     1     6
 -4.9016866092921441E-01 b       807     1     7
  2.6769763395649422E+00 b       808     1     8
  9.2873572744744404E-01 b       809     1     9
  3.0353250096808084E+00 b       810     1    10
 -1.9677620608751908E-01 b       811     1    11
 -5.7288589107110832E-01 b       812     1    12
 -2.4540255398671791E+00 b       813     1    13
  2.8371439489080885E-01 b       814     1    14
 -9.5299886310280946E-01 b       815     1    15
  1.4348945060217180E-01 b       816     1    16
 -3.8703662270983036E-01 b       817     1    17
  8.5630830054252849E-01 b       818     1    18
  1.9838828255369076E+00 b       819     1    19
  7.8175229250032474E-01 b       820     1    20
 -1.0485755593296195E+01 a       821     1     1     2     1
  1.6970808104460378E-01 a       822     1     1     2     2
 -1.8115414800802487E-01 a       823     1     1     2     3
 -4.7503594312436030E+00 a       824     1     1     2     4
 -3.1661671706121206E+00 a       825     1     1     2     5
 -9.0323136423222667E-03 a       826     1     1     2     6
  4.2494920161378733E+00 a       827     1     1     2     7
  4.8524195275798192E+00 a       828     1     1     2     8
  8.2691846175975687E+00 a       829     1     1     2     9
 -7.9701939298827922E+00 a       830     1     1     2    10
 -1.5371551975012392E+00 a       831     1     1     2    11
  2.2134486130743071E-02 a       832     1     1     2    12
  5.9282307242779753E-01 a       833     1     1     2    13
 -5.5149532414505646E+00 a       834     1     1     2    14
 -9.4878511538588768E+00 a       835     1     1     2    15
 -2.1919698285276645E+00 a       836     1     1     2    16
  1.5414196681440995E+00 a       837     1     1     2    17
 -1.0841904494322554E+00 a       838     1     1     2    18
 -3.5050425162940320E+00 a       839     1     1     2    19
 -7.0666117829467662E-02 a       840     1     1     2    20
  1.2063474849402072E+00 a       841     1     2     2     1
 -1.6235558484747195E+00 a       842     1     2     2     2
 -9.1281231045851090E+00 a       843     1     2     2     3
 -3.0485343436572374E+00 a       844     1     2     2     4
  1.6061972284560539E+00 a       845     1     2     2     5
 -6.1158959007254783E+00 a       846     1     2     2     6
  7.1630309790236799E+00 a       847     1     2     2     7
 -1.4989197832871091E+00 a       848     1     2     2     8
 -1.7142612374838071E+00 a       849     1     2     2     9
 -1.9193130078843750E+00 a       850     1     2     2    10
  3.5555290172680021E+00 a       851     1     2     2    11
 -1.8592396465189458E+00 a       852     1     2     2    12
 -6.1744950075816485E+00 a       853     1     2     2    13
 -1.7686532586081036E+00 a       854     1     2     2    14
 -3.5159822472751578E+00 a       855     1     2     2    15
  9.3343297221823853E+00 a       856     1     2     2    16
 -9.4683432697707337E-01 a       857     1     2     2    17
 -1.9516501793014509E+00 a       858     1     2     2    18
 -3.0706300827665518E+00 a       859     1     2     2    19
 -9.3782561717548607E-01 a       860     1     2     2    20
  1.1697297128745749E+00 a       861     1     3     2     1
  7.5268749268460011E-01 a       862     1     3     2     2
 -1.3220359135856874E+00 a       863     1     3     2     3
 -3.8642951926446769E+00 a       864     1     3     2     4
  5.6203987599392757E-01 a       865     1     3     2     5
 -2.6198199600139338E+00 a       866     1     3     2     6
  4.6682417066333173E+00 a       867     1     3     2     7
 -1.0154460183694223E+00 a       868     1     3     2     8
  6.6151860914155733E+00 a       869     1     3     2     9
  3.3402270866418498E+00 a       870     1     3     2    10
 -1.5619450995869586E+00 a       871     1     3     2    11
 -8.0265644526702151E-01 a       872     1     3     2    12
  6.8641125574123514E+00 a       873     1     3     2    13
 -7.0449550318420000E+00 a       874     1     3     2    14
  2.2916216840438484E+00 a       875     1     3     2    15
  9.2138995674913171E-01 a       876     1     3     2    16
 -8.3069856100106243E-01 a       877     1     3     2    17
 -9.6692678008828070E-01 a       878     1     3     2    18
  2.1530677816148303E+00 a       879     1     3     2    19
 -1.4933785725152755E+00 a       880     1     3     2    20
 -6.3473978320138444E+00 a       881     1     4     2     1
  1.7266112584368398E-01 a       882     1     4     2     2
 -2.5172744823620881E+00 a       883     1     4     2     3
  2.6093123446483286E+00 a       884     1     4     2     4
 -2.9206161100030759E+00 a       885     1     4     2     5
  4.4360696319565722E+00 a       886     1     4     2     6
  9.1081315983332056E-01 a       887     1     4     2     7
 -2.8752129769153041E+00 a       888     1     4     2     8
 -4.2315261674303946E+00 a       889     1     4     2     9
  6.2510353899804383E-01 a       890     1     4     2    10
 -5.8984674960877115E-01 a       891     1     4     2    11
 -9.9436491802834959E-01 a       892     1     4     2    12
  3.0324658506583728E+00 a       893     1     4     2    13
 -2.4888752572537918E+00 a       894     1     4     2    14
 -5.1065373913154009E+00 a       895     1     4     2    15
  2.2811165211505298E+00 a       896     1     4     2    16
  6.3467045220870877E-02 a       897     1     4     2    17
 -1.5075814129206377E+00 a       898     1     4     2    18
  2.3126120034689150E+00 a       899     1     4     2    19
  1.0285388424637458E+00 a       900     1     4     2    20
  3.5028723780643460E+00 a       901     1     5     2     1
 -4.7690784480883712E+00 a       902     1     5     2     2
  3.1183758871329692E+00 a       903     1     5     2     3
  2.9903770533912515E+00 a       904     1     5     2     4
 -6.1500702392871167E+00 a       905     1     5     2     5
  2.6158649391255682E+00 a       906     1     5     2     6
  1.3716246081954466E+00 a       907     1     5     2     7
  1.1168346797906452E+00 a       908     1     5     2     8
  6.1596775060313682E+00 a       909     1     5     2     9
  5.9219603419877860E+00 a       910     1     5     2    10
  3.7543075130992060E-02 a       911     1     5     2    11
  4.7835408502691354E+00 a       912     1     5     2    12
 -4.7117675918079804E+00 a       913     1     5     2    13
 -2.9811696384021380E-01 a       914     1     5     2    14
 -6.4914061721525174E-01 a       915     1     5     2    15
  1.2623618371027370E+00 a       916     1     5     2    16
  1.3225439610045069E+00 a       917     1     5     2    17
  1.2790751303563623E+00 a       918     1     5     2    18
 -5.5635326663505529E+00 a       919     1     5     2    19
 -4.6450166251134717E-01 a       920     1     5     2    20
  1.3248193978997964E+00 a       921     1     6     2     1
  3.1836011746201880E+00 a       922     1     6     2     2
  7.4161215057951124E-01 a       923     1     6     2     3
  2.1348139220083411E+00 a       924     1     6     2     4
 -6.9782169558999065E+00 a       925     1     6     2     5
 -2.8267347880080957E+00 a       926     1     6     2     6
  3.9123818853475525E+00 a       927     1     6     2     7
 -5.4741373158767548E+00 a       928     1     6     2     8
 -4.0181796178191002E-02 a       929     1     6     2     9
 -2.2863143253836271E+00 a       930     1     6     2    10
 -1.3021717497326584E+00 a       931     1     6     2    11
  7.9588412366499009E-02 a       932     1     6     2    12
  2.4991422257238283E-01 a       933     1     6     2    13
 -3.1946917619945747E+00 a       934     1     6     2    14
  6.9840846811480608E+00 a       935     1     6     2    15
 -5.1177466336382782E+00 a       936     1     6     2    16
 -6.2128522493767124E-01 a       937     1     6     2    17
  1.1126469364048801E+00 a       938     1     6     2    18
  2.9563309755252569E+00 a       939     1     6     2    19
 -7.0186030343860706E-01 a       940     1     6     2    20
  1.2148781688458126E+01 a       941     1     7     2     1
 -1.3506144580507919E+00 a       942     1     7     2     2
 -1.0044958577000340E+00 a       943     1     7     2     3
  2.0264269225911327E+00 a       944     1     7     2     4
 -2.3340121002145495E+00 a       945     1     7     2     5
 -6.0746224557355637E+00 a       946     1     7     2     6
  5.8950930045717953E-01 a       947     1     7     2     7
 -7.5995856440797258E+00 a       948     1     7     2     8
 -3.3320443698984654E+00 a       949     1     7     2     9
 -5.5217186149775115E+00 a       950     1     7     2    10
  6.1958091405400575E+00 a       951     1     7     2    11
  3.6602581839302113E+00 a       952     1     7     2    12
  6.1424706160272624E+00 a       953     1     7     2    13
  9.2050277761822379E+00 a       954     1     7     2    14
 -4.1866461961744452E+00 a       955     1     7     2    15
 -2.1530797043626380E+00 a       956     1     7     2    16
  1.2539467875660507E-01 a       957     1     7     2    17
  2.3462383585339877E-01 a       958     1     7     2    18
 -1.0319323240230751E+00 a       959     1     7     2    19
  9.6328779941821485E-01 a       960     1     7     2    20
 -7.8159153612629195E-01 a       961     1     8     2     1
  6.8654850269632428E+00 a       962     1     8     2     2
  1.3708517556631359E+00 a       963     1     8     2     3
  3.8521162046689028E+00 a       964     1     8     2     4
 -9.6412516708503198E+00 a       965     1     8     2     5
 -3.3124409612671908E+00 a       966     1     8     2     6
 -1.2130890725769246E+01 a       967     1     8     2     7
 -1.4599707799835080E+00 a       968     1     8     2     8
  6.2843564855315126E+00 a       969     1     8     2     9
  1.3509650109414291E+00 a       970     1     8     2    10
  2.1082525817179176E+00 a       971     1     8     2    11
  2.0881832179372859E+00 a       972     1     8     2    12
  1.1187140000805053E+01 a       973     1     8     2    13
 -1.0432728973166405E+01 a       974     1     8     2    14
  2.4195939609655852E+00 a       975     1     8     2    15
 -2.4490261372960935E+00 a       976     1     8     2    16
 -2.0059907084489308E+00 a       977     1     8     2    17
  7.4878672490532239E+00 a       978     1     8     2    18
  3.5798143491359755E+00 a       979     1     8     2    19
  5.6521283601419692E-01 a       980     1     8     2    20
  2.0833836820763818E-01 a       981     1     9     2     1
 -2.4624589341719298E-02 a       982     1     9     2     2
 -7.2992436742078013E+00 a       983     1     9     2     3
  2.7044591837410521E+00 a       984     1     9     2     4
  1.7283280155790084E+00 a       985     1     9     2     5
 -5.1895514234000450E-01 a       986     1     9     2     6
 -4.1170625640731471E+00 a       987     1     9     2     7
  8.9125569993611258E+00 a       988     1     9     2     8
 -6.7481409856298624E+00 a       989     1     9     2     9
 -3.3291182408746933E+00 a       990     1     9     2    10
  5.4410374272831072E+00 a       991     1     9     2    11
 -3.7565077905635493E+00 a       992     1     9     2    12
 -2.2133272978645109E+00 a       993     1     9     2    13
  8.7876642220258150E-01 a       994     1     9     2    14
  5.6909112243104767E+00 a       995     1     9     2    15
 -2.5361120301973794E+00 a       996     1     9     2    16
  3.1790024877766526E-01 a       997     1     9     2    17
  2.9233250743738752E+00 a       998     1     9     2    18
 -2.1928252076926600E+00 a       999     1     9     2    19
  5.7828834318088984E-01 a      1000     1     9     2    20
  4.5005296844221645E+00 a      1001     1    10     2     1
 -3.2908697963147375E+00 a      1002     1    10     2     2
 -5.5518864703687809E+00 a      1003     1    10     2     3
  1.0999965301433781E-01 a      1004     1    10     2     4
  2.2151531768543102E+00 a      1005     1    10     2     5
 -1.7388840578977909E+00 a      1006     1    10     2     6
 -1.8303908565431828E+00 a      1007     1    10     2     7
 -3.4247635270788170E+00 a      1008     1    10     2     8
 -1.4360016292134161E+00 a      1009     1    10     2     9
 -6.0431821922897235E+00 a      1010     1    10     2    10
  2.9453691577271610E+00 a      1011     1    10     2    11
  3.3895989484404847E+00 a      1012     1    10     2    12
 -2.8330452395695604E+00 a      1013     1    10     2    13
  8.9240267461024541E+00 a      1014     1    10     2    14
 -7.5564196447481242E+00 a      1015     1    10     2    15
  4.8504714364296388E+00 a      1016     1    10     2    16
 -1.4283089640885132E+00 a      1017     1    10     2    17
 -6.2594824317997002E+00 a      1018     1    10     2    18
 -1.6439537425274962E+00 a      1019     1    10     2    19
  3.8872716603962587E-01 a      1020     1    10     2    20
 -3.0654963626613774E+00 a      1021     1    11     2     1
 -6.1289134699435381E+00 a      1022     1    11     2     2
  3.9423035556030106E+00 a      1023     1    11     2     3
  4.6722224108321359E-01 a      1024     1    11     2     4
  2.6724635163314190E+00 a      1025     1    11     2     5
  8.1630592150886763E+00 a      1026     1    11     2     6
 -2.7210043593102000E+00 a      1027     1    11     2     7
  8.0556600904029096E+00 a      1028     1    11     2     8
  1.5190705996854867E+00 a      1029     1    11     2     9
  6.0112478952041686E+00 a      1030     1    11     2    10
 -3.9110433309201781E-01 a      1031     1    11     2    11
 -2.3434445568254199E+00 a      1032     1    11     2    12
 -8.3951149010816550E+00 a      1033     1    11     2    13
 -8.9495688769647792E+00 a      1034     1    11     2    14
 -5.3775807481347853E+00 a      1035     1    11     2    15
  1.4329894519160100E-01 a      1036     1    11     2    16
 -1.3594668672892425E+00 a      1037     1    11     2    17
 -4.6289682512873647E+00 a      1038     1    11     2    18
  2.6385798502174151E+00 a      1039     1    11     2    19
  5.1931658408009918E-01 a      1040     1    11     2    20
  1.2726705092764905E+00 a      1041     1    12     2     1
 -1.0963786554233521E+00 a      1042     1    12     2     2
  1.3891262711936239E+00 a      1043     1    12     2     3
  2.5690310357641071E+00 a      1044     1    12     2     4
 -4.5083629301467329E+00 a      1045     1    12     2     5
  5.3612081939691523E+00 a      1046     1    12     2     6
  3.7655895719915911E-01 a      1047     1    12     2     7
  4.7128865708034358E+00 a      1048     1    12     2     8
  2.0094470465545382E+00 a      1049     1    12     2     9
 -3.3198816503070200E-01 a      1050     1    12     2    10
  4.3671643470063009E+00 a      1051     1    12     2    11
  1.9948960344924782E+00 a      1052     1    12     2    12
 -1.3023655396725482E+00 a      1053     1    12     2    13
 -1.3875991303796851E+00 a      1054     1    12     2    14
 -3.5988412018438027E+00 a      1055     1    12     2    15
 -2.8976870659746184E-01 a      1056     1    12     2    16
  5.5529403729370774E-01 a      1057     1    12     2    17
 -4.3485984959929764E+00 a      1058     1    12     2    18
  6.1640677930879937E+00 a      1059     1    12     2    19
  5.9990895788856402E-01 a      1060     1    12     2    20
 -4.5458270676740291E+00 a      1061     1    13     2     1
  2.1122277115115922E+00 a      1062     1    13     2     2
  1.2204057464384566E-01 a      1063     1    13     2     3
 -5.2809616557868200E+00 a      1064     1    13     2     4
  2.9882397033956840E+00 a      1065     1    13     2     5
 -1.1023595482628299E+00 a      1066     1    13     2     6
 -8.1253497435822517E+00 a      1067     1    13     2     7
  2.9734421196995058E+00 a      1068     1    13     2     8
  4.1380622773907048E+00 a      1069     1    13     2     9
  7.6552929295544034E+00 a      1070     1    13     2    10
 -6.5960866503954501E+00 a      1071     1    13     2    11
 -1.9277652008650745E+00 a      1072     1    13     2    12
  6.4201473267505249E-02 a      1073     1    13     2    13
  5.5636118575923863E+00 a      1074     1    13     2    14
  2.2991558300222321E+00 a      1075     1    13     2    15
  5.5633699208602536E+00 a      1076     1    13     2    16
 -3.1988639466046997E+00 a      1077     1    13     2    17
 -1.6084539635394268E+00 a      1078     1    13     2    18
 -2.0303997545236570E+00 a      1079     1    13     2    19
 -2.4919648654118660E+00 a      1080     1    13     2    20
 -3.0624031583270779E+00 a      1081     1    14     2     1
 -3.4498104377853878E+00 a      1082     1    14     2     2
  5.5242188979027196E+00 a      1083     1    14     2     3
 -1.9340824438472031E+00 a      1084     1    14     2     4
  2.3065938056213420E+00 a      1085     1    14     2     5
  2.9453683885955524E+00 a      1086     1    14     2     6
  6.9809858572798884E+00 a      1087     1    14     2     7
  1.4655271897432742E+00 a      1088     1    14     2     8
 -5.6233930256290225E+00 a      1089     1    14     2     9
  2.3630207243462338E+00 a      1090     1    14     2    10
  2.9220631666862271E+00 a      1091     1    14     2    11
 -1.6974454733994842E+00 a      1092     1    14     2    12
 -2.4849957605634510E+00 a      1093     1    14     2    13
  4.7913575438305112E-01 a      1094     1    14     2    14
  1.8806121848854682E+00 a      1095     1    14     2    15
  3.4586610194449126E+00 a      1096     1    14     2    16
  6.0489919407098780E-01 a      1097     1    14     2    17
 -1.7372344169457938E+00 a      1098     1    14     2    18
 -1.8841682476202382E+00 a      1099     1    14     2    19
 -1.8129073805216949E+00 a      1100     1    14     2    20
 -5.0393454110282265E+00 a      1101     1    15     2     1
  4.3261456540546970E+00 a      1102     1    15     2     2
 -1.5919845322559856E+00 a      1103     1    15     2     3
  3.0467705079690721E+00 a      1104     1    15     2     4
  3.6247302091875548E+00 a      1105     1    15     2     5
  2.5713473364434041E+00 a      1106     1    15     2     6
 -2.2609319292356617E-01 a      1107     1    15     2     7
  4.3676443235431730E+00 a      1108     1    15     2     8
 -8.1236030245787330E+00 a      1109     1    15     2     9
  1.8896133567670226E+00 a      1110     1    15     2    10
  1.9225339783292097E+00 a      1111     1    15     2    11
  2.5439999751807880E+00 a      1112     1    15     2    12
 -3.1336313214493781E+00 a      1113     1    15     2    13
  1.1401855015123321E+01 a      1114     1    15     2    14
  3.2767916813285356E+00 a      1115     1    15     2    15
  7.0061434802132450E+00 a      1116     1    15     2    16
  1.0962064083910575E-02 a      1117     1    15     2    17
  2.5190617392280745E-01 a      1118     1    15     2    18
 -4.2481683375601875E+00 a      1119     1    15     2    19
 -1.0200205375498239E+00 a      1120     1    15     2    20
  1.5505807095205286E+00 a      1121     1    16     2     1
  2.4425333830906131E+00 a      1122     1    16     2     2
  5.5442680664080122E+00 a      1123     1    16     2     3
  8.7608885269236103E-01 a      1124     1    16     2     4
 -1.6212983633389424E-01 a      1125     1    16     2     5
 -1.5814107627864100E+00 a      1126     1    16     2     6
 -4.5599674572198410E+00 a      1127     1    16     2     7
  2.5915507472006167E+00 a      1128     1    16     2     8
 -2.7821523474887844E+00 a      1129     1    16     2     9
  3.8863967731072551E+00 a      1130     1    16     2    10
 -4.1242428318348866E-02 a      1131     1    16     2    11
  3.4326056809984112E-01 a      1132     1    16     2    12
  9.1423529068834029E+00 a      1133     1    16     2    13
  5.3015897259906175E-01 a      1134     1    16     2    14
 -2.3694164660532269E+00 a      1135     1    16     2    15
  2.2752074799864594E+00 a      1136     1    16     2    16
 -2.9587422421219933E-01 a      1137     1    16     2    17
  4.6417341432626094E+00 a      1138     1    16     2    18
  2.9209437831488168E+00 a      1139     1    16     2    19
  1.2848052136429442E+00 a      1140     1    16     2    20
  1.0933579674285765E+00 a      1141     1    17     2     1
 -3.3514519855785894E+00 a      1142     1    17     2     2
 -2.2250688897465158E+00 a      1143     1    17     2     3
 -3.4772811905428251E+00 a      1144     1    17     2     4
 -5.5226347079830411E+00 a      1145     1    17     2     5
 -1.8738597902876892E+00 a      1146     1    17     2     6
 -4.5927595568095541E+00 a      1147     1    17     2     7
  1.1171301572541577E+00 a      1148     1    17     2     8
  4.2320389312298303E+00 a      1149     1    17     2     9
  2.6161963341467516E+00 a      1150     1    17     2    10
 -3.1630321870670994E+00 a      1151     1    17     2    11
  1.1998751973608988E+00 a      1152     1    17     2    12
  2.8386112452088472E+00 a      1153     1    17     2    13
 -1.0529458857396344E+01 a      1154     1    17     2    14
 -8.2408136251569939E+00 a      1155     1    17     2    15
 -2.5163975079721652E+00 a      1156     1    17     2    16
 -1.3624027963496197E+00 a      1157     1    17     2    17
 -4.6318252424462809E+00 a      1158     1    17     2    18
 -3.7585337821670808E+00 a      1159     1    17     2    19
 -1.0277411189055923E+00 a      1160     1    17     2    20
 -6.0715838344591830E+00 a      1161     1    18     2     1
  5.5305911038861986E+00 a      1162     1    18     2     2
 -1.8525739340423484E+00 a      1163     1    18     2     3
  2.2371567778627872E+00 a      1164     1    18     2     4
  7.4268002113985221E-01 a      1165     1    18     2     5
 -2.4185740223112155E+00 a      1166     1    18     2     6
  4.8111465782470528E+00 a      1167     1    18     2     7
 -3.5577270190114261E+00 a      1168     1    18     2     8
 -3.9678408096978748E+00 a      1169     1    18     2     9
 -1.3462135596768912E+00 a      1170     1    18     2    10
 -1.1511956247624295E+00 a      1171     1    18     2    11
 -3.3544837095875707E-01 a      1172     1    18     2    12
  3.7027830655547977E+00 a      1173     1    18     2    13
  2.4157551598403031E+00 a      1174     1    18     2    14
 -7.7317498442390997E-01 a      1175     1    18     2    15
  1.3119751698779800E+00 a      1176     1    18     2    16
 -8.8071004389000540E-01 a      1177     1    18     2    17
  5.4828947751211117E-02 a      1178     1    18     2    18
  1.1447532663551838E+00 a      1179     1    18     2    19
 -1.5721429388761174E+00 a      1180     1    18     2    20
  1.0946409756881620E+01 a      1181     1    19     2     1
  7.5043079289070602E-01 a      1182     1    19     2     2
 -6.4520325334188833E+00 a      1183     1    19     2     3
 -2.0922830680907172E+00 a      1184     1    19     2     4
  1.7337981697405194E+00 a      1185     1    19     2     5
 -6.6775114921722016E+00 a      1186     1    19     2     6
  2.6531924771568507E+00 a      1187     1    19     2     7
  2.2552185604366382E+00 a      1188     1    19     2     8
 -5.9166119026959529E-01 a      1189     1    19     2     9
  2.7908221514029914E+00 a      1190     1    19     2    10
  1.8157177016023169E+00 a      1191     1    19     2    11
  2.8394337707815325E+00 a      1192     1    19     2    12
 -4.2729894167475697E+00 a      1193     1    19     2    13
 -1.0486287926634994E+01 a      1194     1    19     2    14
 -2.5316447729500862E+00 a      1195     1    19     2    15
  2.9762788486880889E+00 a      1196     1    19     2    16
 -7.8588153986467568E-02 a      1197     1    19     2    17
  1.5434590233961498E+00 a      1198     1    19     2    18
  3.4869528291728464E+00 a      1199     1    19     2    19
 -1.5462697751234797E+00 a      1200     1    19     2    20
 -4.4391704359344883E+00 a      1201     1    20     2     1
 -3.5209678694381958E+00 a      1202     1    20     2     2
 -2.4394262592517850E+00 a      1203     1    20     2     3
 -3.7542289367064857E-01 a      1204     1    20     2     4
  3.1724131809381819E+00 a      1205     1    20     2     5
 -9.6268228791110178E-01 a      1206     1    20     2     6
 -1.9471634117442698E+00 a      1207     1    20     2     7
  7.4684456630324334E+00 a      1208     1    20     2     8
 -4.2208800684446919E+00 a      1209     1    20     2     9
 -7.9237705484808236E+00 a      1210     1    20     2    10
 -3.5289986867299217E-01 a      1211     1    20     2    11
 -1.0903618698830099E+01 a      1212     1    20     2    12
 -2.0508523115674677E+00 a      1213     1    20     2    13
 -2.1226804009420106E+00 a      1214     1    20     2    14
 -3.0032410392321522E+00 a      1215     1    20     2    15
  5.4114290925276665E+00 a      1216     1    20     2    16
 -1.0880221393668046E+00 a      1217     1    20     2    17
  3.5221668447120948E+00 a      1218     1    20     2    18
 -2.8750444065442680E+00 a      1219     1    20     2    19
  2.3723415927146139E-02 a      1220     1    20     2    20
  5.1906189138079757E+00 b      1221     2     1
 -1.1583780006176663E+00 b      1222     2     2
  2.9089484049850061E+00 b      1223     2     3
  1.8729095954044235E+00 b      1224     2     4
  3.1033623608276479E+00 b      1225     2     5
  7.0228000728912781E+00 b      1226     2     6
 -4.3817318334704822E+00 b      1227     2     7
 -5.6346352977154002E+00 b      1228     2     8
 -1.1599533853691766E+00 b      1229     2     9
  1.3135494128798911E+01 b      1230     2    10
 -1.7780915274255462E+00 b      1231     2    11
 -1.1057474291569321E-01 b      1232     2    12
 -1.4277594302441696E+00 b      1233     2    13
  5.3468356894659772E+00 b      1234     2    14
 -2.2922865065128217E+00 b      1235     2    15
  1.7650856020718859E+00 b      1236     2    16
 -3.8637920679042383E+00 b      1237     2    17
 -9.0344507605251785E+00 b      1238     2    18
 -4.9014162666231700E+00 b      1239     2    19
 -2.9012549134617833E+00 b      1240     2    20
 -1.1527022417545875E-01 a      1241     2     1     3     1
  1.1446493763093128E-01 a      1242     2     2     3     1
  6.9064651322592069E-02 a      1243     2     3     3     1
 -8.6182869467307480E-02 a      1244     2     4     3     1
 -3.3834621895469363E-01 a      1245     2     5     3     1
 -1.3820695112166018E-01 a      1246     2     6     3     1
 -1.5855212615696351E-01 a      1247     2     7     3     1
 -2.6241597254405385E-01 a      1248     2     8     3     1
  1.2594154201044533E-01 a      1249     2     9     3     1
 -9.2244426079243574E-02 a      1250     2    10     3     1
 -3.7152589624361415E-01 a      1251     2    11     3     1
 -2.2239671149475013E-01 a      1252     2    12     3     1
  9.8520236881149512E-02 a      1253     2    13     3     1
 -1.9192987093409869E-01 a      1254     2    14     3     1
  1.7685921645892883E-01 a      1255     2    15     3     1
  3.7507688679954260E-01 a      1256     2    16     3     1
 -9.2736972517125082E-01 a      1257     2    17     3     1
  1.9979527228467620E-01 a      1258     2    18     3     1
 -2.7714071464106232E-01 a      1259     2    19     3     1
  6.1575608793012404E-01 a      1260     2    20     3     1
 -2.8944284138357555E-02 b      1261     3     1
