################################################################################
# Neural network connection values (weights and biases).
################################################################################
# Col  Name       Description
################################################################################
# 1    connection Neural network connection value.
# 2    t          Connection type (a = weight, b = bias).
# 3    index      Index enumerating weights.
# 4    l_s        Starting point layer (end point layer for biases).
# 5    n_s        Starting point neuron in starting layer (end point neuron for biases).
# 6    l_e        End point layer.
# 7    n_e        End point neuron in end layer.
################################################################################
#                      1 2         3     4     5     6     7
#             connection t     index   l_s   n_s   l_e   n_e
############################################################
 -6.5619369784418140E+00 a         1     0     1     1     1
  7.2487886334507756E+00 a         2     0     1     1     2
  1.1695697053273225E+01 a         3     0     1     1     3
 -1.6120830793611909E+00 a         4     0     1     1     4
  7.5272336545592680E+00 a         5     0     1     1     5
 -1.0277139710755069E+01 a         6     0     1     1     6
  1.8747490033581343E+01 a         7     0     1     1     7
  1.4166823717247663E+00 a         8     0     1     1     8
  3.8606128561988089E+00 a         9     0     1     1     9
  1.2274376256682669E+00 a        10     0     1     1    10
  5.3002453772086806E+00 a        11     0     1     1    11
  1.7362899025162590E+00 a        12     0     1     1    12
 -8.5572549913618579E-01 a        13     0     1     1    13
  2.0753529688529788E+01 a        14     0     1     1    14
  1.2181635274112144E+00 a        15     0     1     1    15
 -7.2897287189900464E+00 a        16     0     1     1    16
  5.2376537271297918E+00 a        17     0     1     1    17
 -1.7044281660244895E+01 a        18     0     1     1    18
 -1.8388290992896223E+01 a        19     0     1     1    19
  6.7246382635332198E+00 a        20     0     1     1    20
  4.9283587434077952E-01 a        21     0     2     1     1
 -6.2853141008695816E+00 a        22     0     2     1     2
  5.6753996180832544E+00 a        23     0     2     1     3
 -8.9399782449743732E+00 a        24     0     2     1     4
 -3.5962294553326348E+00 a        25     0     2     1     5
 -4.1635464991572242E+00 a        26     0     2     1     6
 -1.1128211861208687E+01 a        27     0     2     1     7
 -5.9635075460899822E-01 a        28     0     2     1     8
  9.6021262915412120E-01 a        29     0     2     1     9
  9.6164586043148521E+00 a        30     0     2     1    10
 -8.8592815989999796E+00 a        31     0     2     1    11
  9.5135711952721846E-01 a        32     0     2     1    12
  4.1068203858349528E-02 a        33     0     2     1    13
 -2.6138338703437216E+00 a        34     0     2     1    14
  7.5797505845588544E+00 a        35     0     2     1    15
 -4.8260113350670322E+00 a        36     0     2     1    16
 -1.0404975066016503E+01 a        37     0     2     1    17
  2.7233878991585372E+00 a        38     0     2     1    18
  9.9468174038851416E+00 a        39     0     2     1    19
  7.3091340648766296E+00 a        40     0     2     1    20
  3.1003025893150626E+00 a        41     0     3     1     1
  1.4794054209661098E+01 a        42     0     3     1     2
 -1.7290480521629028E+01 a        43     0     3     1     3
  6.7041482909416006E+00 a        44     0     3     1     4
  1.9783740741734515E+00 a        45     0     3     1     5
  3.5824506480198752E+00 a        46     0     3     1     6
 -1.0234975430459134E+01 a        47     0     3     1     7
  4.6138661866099486E+00 a        48     0     3     1     8
 -7.5962066020201675E+00 a        49     0     3     1     9
 -1.2374170406621216E+01 a        50     0     3     1    10
 -9.3823082793019275E+00 a        51     0     3     1    11
 -3.3733613321877027E+00 a        52     0     3     1    12
  8.2554058091509717E+00 a        53     0     3     1    13
 -2.3922648500135488E+00 a        54     0     3     1    14
 -1.2794582830351334E+01 a        55     0     3     1    15
 -8.2745558523795470E-01 a        56     0     3     1    16
  7.6542006125763926E+00 a        57     0     3     1    17
  1.5042141905811283E+01 a        58     0     3     1    18
  1.9334641410502197E+01 a        59     0     3     1    19
  3.2920223135530615E+00 a        60     0     3     1    20
  4.2514233481153854E+00 a        61     0     4     1     1
  2.0070565826041561E-01 a        62     0     4     1     2
 -9.5371785457661531E+00 a        63     0     4     1     3
  1.0645334147175358E+01 a        64     0     4     1     4
  7.5519929193905195E+00 a        65     0     4     1     5
  2.0885714332075406E+01 a        66     0     4     1     6
  1.0285250957314696E+01 a        67     0     4     1     7
  1.0929859782820128E+00 a        68     0     4     1     8
  5.9052644621993959E+00 a        69     0     4     1     9
 -2.1086161649560498E+01 a        70     0     4     1    10
  3.8986124713143226E+00 a        71     0     4     1    11
 -1.2606616309564060E+00 a        72     0     4     1    12
 -1.8448921893256189E+00 a        73     0     4     1    13
  8.1974858954199714E+00 a        74     0     4     1    14
  9.6455416551444664E+00 a        75     0     4     1    15
  1.7604596173401198E+01 a        76     0     4     1    16
  8.4489154380303901E+00 a        77     0     4     1    17
 -2.2066861149708750E+00 a        78     0     4     1    18
 -2.8771337279735829E+00 a        79     0     4     1    19
 -6.0347720253450863E+00 a        80     0     4     1    20
  7.4534215326785924E+00 a        81     0     5     1     1
  5.1139858912230129E-01 a        82     0     5     1     2
  3.8559127342286250E+00 a        83     0     5     1     3
 -5.9711949175781909E+00 a        84     0     5     1     4
 -4.2076517322681832E+00 a        85     0     5     1     5
  1.2421565904227146E+01 a        86     0     5     1     6
  3.1603677607828149E+00 a        87     0     5     1     7
 -2.1994608388422730E+01 a        88     0     5     1     8
 -1.6360725535247302E+00 a        89     0     5     1     9
  3.5947188053834664E+00 a        90     0     5     1    10
  6.4381664298506225E+00 a        91     0     5     1    11
  1.1918650546091698E+01 a        92     0     5     1    12
 -4.7592284020494393E+00 a        93     0     5     1    13
 -8.8422944446645735E-01 a        94     0     5     1    14
 -1.4363906682483673E+01 a        95     0     5     1    15
  1.7090887541109744E+01 a        96     0     5     1    16
 -1.4386871314294192E+01 a        97     0     5     1    17
 -1.3035484351331331E+01 a        98     0     5     1    18
  5.4789209564980457E-03 a        99     0     5     1    19
 -3.9997558940313005E+00 a       100     0     5     1    20
 -3.8726895524183784E+00 a       101     0     6     1     1
  2.2038807589004850E+01 a       102     0     6     1     2
  6.1162947375945542E+00 a       103     0     6     1     3
  5.3517217340230330E+00 a       104     0     6     1     4
 -7.3753969650870728E+00 a       105     0     6     1     5
 -2.4167386297199123E+01 a       106     0     6     1     6
 -8.7599496596268338E+00 a       107     0     6     1     7
  3.8736122263432105E+00 a       108     0     6     1     8
 -1.1191710412460376E+01 a       109     0     6     1     9
  4.9105720955650165E+00 a       110     0     6     1    10
 -2.0982269972573704E+01 a       111     0     6     1    11
 -3.2839610737295994E+00 a       112     0     6     1    12
 -2.4213059092677572E+01 a       113     0     6     1    13
 -1.7983956059038146E+01 a       114     0     6     1    14
  9.0421862786076481E+00 a       115     0     6     1    15
 -5.2129438044106047E-01 a       116     0     6     1    16
  1.8562825188644529E+00 a       117     0     6     1    17
 -7.0174896439283136E+00 a       118     0     6     1    18
 -1.6945883972164388E+01 a       119     0     6     1    19
 -5.0292439157675890E+00 a       120     0     6     1    20
  3.4332912202467032E+00 a       121     0     7     1     1
 -5.5082320247648857E+00 a       122     0     7     1     2
 -2.9196014359669769E+00 a       123     0     7     1     3
  2.8071689526515949E-02 a       124     0     7     1     4
  3.3530091659688370E+00 a       125     0     7     1     5
  1.7351460512493858E+01 a       126     0     7     1     6
  2.4150926746602289E-01 a       127     0     7     1     7
 -1.9341228244505198E+00 a       128     0     7     1     8
  6.0457997329979065E+00 a       129     0     7     1     9
  4.8467901997451666E+00 a       130     0     7     1    10
 -1.7423662368026907E+01 a       131     0     7     1    11
 -5.4958617069675180E+00 a       132     0     7     1    12
 -9.2495868054630570E+00 a       133     0     7     1    13
  9.6352760020314374E+00 a       134     0     7     1    14
  4.3126663047142921E+00 a       135     0     7     1    15
 -5.7237599896160365E+00 a       136     0     7     1    16
  8.0930164886219043E+00 a       137     0     7     1    17
  8.0470904408863753E+00 a       138     0     7     1    18
  9.3428420612702077E+00 a       139     0     7     1    19
  5.5521443791490510E+00 a       140     0     7     1    20
  4.0991472939343359E+00 a       141     0     8     1     1
  4.9562215370407072E+00 a       142     0     8     1     2
 -5.7240212578798202E+00 a       143     0     8     1     3
  8.1168327000520559E+00 a       144     0     8     1     4
  8.4779025669633370E+00 a       145     0     8     1     5
  9.9995986563257002E+00 a       146     0     8     1     6
  1.0926570561937135E+01 a       147     0     8     1     7
 -1.0579957259019000E+01 a       148     0     8     1     8
 -3.5856009292854889E+00 a       149     0     8     1     9
 -2.1645512121004007E+00 a       150     0     8     1    10
 -1.2712827792985054E+01 a       151     0     8     1    11
 -3.7155620129716453E+00 a       152     0     8     1    12
  1.8921345154341420E+01 a       153     0     8     1    13
  9.9334895409134720E+00 a       154     0     8     1    14
  3.4981119706082109E+00 a       155     0     8     1    15
  8.9000756459234633E+00 a       156     0     8     1    16
 -3.9508688016421032E+00 a       157     0     8     1    17
  3.0595322612808200E+00 a       158     0     8     1    18
 -7.3084282388435993E+00 a       159     0     8     1    19
 -8.9215952291595257E-01 a       160     0     8     1    20
  1.1051446914499969E+01 a       161     0     9     1     1
  4.2252907548044609E+00 a       162     0     9     1     2
  5.9635627797246942E+00 a       163     0     9     1     3
 -5.5874575139503149E+00 a       164     0     9     1     4
 -5.8546927343330610E+00 a       165     0     9     1     5
 -1.1768302913521913E+00 a       166     0     9     1     6
 -4.1757412972486785E+00 a       167     0     9     1     7
 -6.3835097956572961E-01 a       168     0     9     1     8
 -4.2062263762991119E+00 a       169     0     9     1     9
  1.5804116174376970E+00 a       170     0     9     1    10
 -7.3626358737281796E+00 a       171     0     9     1    11
  1.9767521597660016E+00 a       172     0     9     1    12
 -8.0025847513654297E-02 a       173     0     9     1    13
 -6.2792123751477291E+00 a       174     0     9     1    14
 -7.7861343764600264E+00 a       175     0     9     1    15
  9.4647469025092796E+00 a       176     0     9     1    16
 -1.5608146481605512E+01 a       177     0     9     1    17
 -4.0558849459689705E+00 a       178     0     9     1    18
 -5.6163726913839165E+00 a       179     0     9     1    19
  4.1737063153692331E+00 a       180     0     9     1    20
  4.8683562158799214E+00 a       181     0    10     1     1
 -1.4317364501303709E+00 a       182     0    10     1     2
  4.5637357693917640E+00 a       183     0    10     1     3
  1.1448501133598845E+00 a       184     0    10     1     4
  5.5561226628786118E+00 a       185     0    10     1     5
 -4.4185650885011949E+00 a       186     0    10     1     6
 -3.5084951268799611E+00 a       187     0    10     1     7
  1.3357081942291458E+00 a       188     0    10     1     8
  1.5335546139749423E+00 a       189     0    10     1     9
 -1.0232795312989957E+00 a       190     0    10     1    10
 -8.0085633751145693E+00 a       191     0    10     1    11
 -5.2995401574140528E+00 a       192     0    10     1    12
 -7.3980940256070511E+00 a       193     0    10     1    13
 -1.5384316992142177E+00 a       194     0    10     1    14
 -5.6860975005172794E+00 a       195     0    10     1    15
 -1.8468475268789341E+01 a       196     0    10     1    16
 -1.0308460009442036E-01 a       197     0    10     1    17
 -9.7216183166036951E-01 a       198     0    10     1    18
  7.8759694849517103E+00 a       199     0    10     1    19
 -1.5032052158169746E+00 a       200     0    10     1    20
 -6.7981218394340530E+00 a       201     0    11     1     1
 -5.8311795574917182E+00 a       202     0    11     1     2
  1.0049247461770567E+00 a       203     0    11     1     3
 -2.2389649792202242E-02 a       204     0    11     1     4
  2.1536424699374157E+00 a       205     0    11     1     5
  1.0453606286697406E+01 a       206     0    11     1     6
 -6.0908888620859658E-01 a       207     0    11     1     7
 -1.3114923886440438E+01 a       208     0    11     1     8
  2.0091340123211436E+00 a       209     0    11     1     9
  1.5585788671481506E+00 a       210     0    11     1    10
 -8.0857625215570703E+00 a       211     0    11     1    11
 -2.1734335025700453E+00 a       212     0    11     1    12
  2.5887968864667710E-01 a       213     0    11     1    13
  9.1742040939844713E+00 a       214     0    11     1    14
  8.2068643460266095E+00 a       215     0    11     1    15
  6.3131588948320836E+00 a       216     0    11     1    16
  1.3183301628510160E+01 a       217     0    11     1    17
  5.9178839589640053E-01 a       218     0    11     1    18
  5.1108421793751768E+00 a       219     0    11     1    19
 -4.9976177617745501E+00 a       220     0    11     1    20
  1.0055346422552354E+00 a       221     0    12     1     1
  3.8302403250127228E+00 a       222     0    12     1     2
 -1.8143769166050954E+00 a       223     0    12     1     3
 -4.0085430302313663E+00 a       224     0    12     1     4
  5.4605585303835911E+00 a       225     0    12     1     5
 -3.6250639037073875E+00 a       226     0    12     1     6
  7.3689724047454908E+00 a       227     0    12     1     7
  1.5802281344626645E+00 a       228     0    12     1     8
  9.1978263767934116E+00 a       229     0    12     1     9
 -9.9321375951553803E-01 a       230     0    12     1    10
  6.3646215586452941E+00 a       231     0    12     1    11
 -5.5987450582668163E+00 a       232     0    12     1    12
  3.7704602945290753E+00 a       233     0    12     1    13
 -8.6900043335645787E+00 a       234     0    12     1    14
 -1.0016031549879325E+00 a       235     0    12     1    15
 -3.3278674484807982E+00 a       236     0    12     1    16
 -1.6681491694101755E+00 a       237     0    12     1    17
 -1.4580382619067060E+00 a       238     0    12     1    18
 -8.8778737900591995E+00 a       239     0    12     1    19
 -2.8353809429443984E+00 a       240     0    12     1    20
  2.1017537905326481E+01 a       241     0    13     1     1
  3.0491539483104315E+00 a       242     0    13     1     2
 -9.7820620406833481E+00 a       243     0    13     1     3
 -3.2127650288519028E+01 a       244     0    13     1     4
  4.1880820291491705E-01 a       245     0    13     1     5
 -5.6620154663138134E-01 a       246     0    13     1     6
 -1.4549335330083368E+01 a       247     0    13     1     7
  2.6470169419452581E+01 a       248     0    13     1     8
  1.4153360207584257E+01 a       249     0    13     1     9
 -1.1501388619449751E+01 a       250     0    13     1    10
  3.6505813800713072E+00 a       251     0    13     1    11
 -1.4883341834514785E+00 a       252     0    13     1    12
 -9.4610097306060315E+00 a       253     0    13     1    13
  2.2237319772479665E+01 a       254     0    13     1    14
  3.7458107968386054E+00 a       255     0    13     1    15
  9.9078590442530263E+00 a       256     0    13     1    16
 -1.3400828583417573E+01 a       257     0    13     1    17
  2.2504759737179878E+00 a       258     0    13     1    18
 -2.0146173723579093E+01 a       259     0    13     1    19
 -4.8055517571514823E+00 a       260     0    13     1    20
  1.7299864176547390E+00 a       261     0    14     1     1
  2.7071225864817650E+00 a       262     0    14     1     2
 -7.0955240057181568E+00 a       263     0    14     1     3
 -9.3967443164366635E+00 a       264     0    14     1     4
  3.7138977097742552E+00 a       265     0    14     1     5
 -3.6461982926125742E+00 a       266     0    14     1     6
 -2.7988675221157617E+00 a       267     0    14     1     7
  4.2346710657629467E+00 a       268     0    14     1     8
  5.0621324074789058E+00 a       269     0    14     1     9
  2.0575092206602328E+00 a       270     0    14     1    10
  4.7803105929532697E+00 a       271     0    14     1    11
 -6.3949981348946994E-01 a       272     0    14     1    12
  1.6691958203046926E+00 a       273     0    14     1    13
 -5.4568870527421369E+00 a       274     0    14     1    14
 -4.9380251689938266E+00 a       275     0    14     1    15
  2.6560956389225145E+00 a       276     0    14     1    16
 -6.7444823817059492E+00 a       277     0    14     1    17
 -1.1846976290283946E+00 a       278     0    14     1    18
  1.7897761327290365E+00 a       279     0    14     1    19
  2.5899434920661685E-01 a       280     0    14     1    20
  1.0350451781713636E+01 a       281     0    15     1     1
 -1.7970178985178748E+01 a       282     0    15     1     2
  6.3782155415955177E+00 a       283     0    15     1     3
  7.4809243437519326E+00 a       284     0    15     1     4
  3.1831790976821801E+00 a       285     0    15     1     5
 -2.7987116029168475E+00 a       286     0    15     1     6
 -2.2671516412260657E+00 a       287     0    15     1     7
  1.5647574713988039E+00 a       288     0    15     1     8
 -1.1590817887021210E+01 a       289     0    15     1     9
  2.8868854981796208E+01 a       290     0    15     1    10
  2.8832227887417656E+00 a       291     0    15     1    11
 -1.5797461536895018E+01 a       292     0    15     1    12
  8.0211621396403887E-01 a       293     0    15     1    13
 -4.9326908208296061E+00 a       294     0    15     1    14
  8.9764261083646026E+00 a       295     0    15     1    15
  1.5336417751675380E+00 a       296     0    15     1    16
 -6.2253515594938899E-02 a       297     0    15     1    17
 -1.8818697430110941E+01 a       298     0    15     1    18
  8.0079067535142539E+00 a       299     0    15     1    19
  1.2141246004332643E+01 a       300     0    15     1    20
  4.8775259874233976E+00 a       301     0    16     1     1
 -8.0247882231691547E-02 a       302     0    16     1     2
 -6.4482806102593795E+00 a       303     0    16     1     3
 -1.0811558671061437E+01 a       304     0    16     1     4
  4.6357323573478206E+00 a       305     0    16     1     5
 -2.8580369065828890E+00 a       306     0    16     1     6
 -1.9625113541642425E+00 a       307     0    16     1     7
  7.3190654909836637E+00 a       308     0    16     1     8
  3.9091377156758234E+00 a       309     0    16     1     9
  1.9331587862732629E+00 a       310     0    16     1    10
  3.8719111337402716E+00 a       311     0    16     1    11
  5.1836232732632777E+00 a       312     0    16     1    12
  8.3288623172718630E+00 a       313     0    16     1    13
 -1.0040986868682564E+01 a       314     0    16     1    14
 -3.8678861289288875E+00 a       315     0    16     1    15
  1.7672119471699284E+00 a       316     0    16     1    16
 -4.3793621017921023E+00 a       317     0    16     1    17
  5.7343172808203768E-01 a       318     0    16     1    18
  4.8318814266897131E-01 a       319     0    16     1    19
  1.0907893256586019E+00 a       320     0    16     1    20
 -2.0394869531459968E+01 a       321     0    17     1     1
 -2.4944846077607554E+00 a       322     0    17     1     2
  3.4710799498066192E+00 a       323     0    17     1     3
 -8.7636632982856355E+00 a       324     0    17     1     4
  6.0450334223047397E+00 a       325     0    17     1     5
 -4.9786771885745162E+00 a       326     0    17     1     6
  5.2469284837580501E+00 a       327     0    17     1     7
 -6.9652861095178853E+00 a       328     0    17     1     8
  1.7183276336952009E+01 a       329     0    17     1     9
  2.0511122285841186E+01 a       330     0    17     1    10
 -2.4483741697423946E+00 a       331     0    17     1    11
  1.2956344984699373E+00 a       332     0    17     1    12
 -7.3469971316600606E+00 a       333     0    17     1    13
  9.8469275032319992E+00 a       334     0    17     1    14
  1.4183196887189224E+01 a       335     0    17     1    15
 -1.2899648945457907E+01 a       336     0    17     1    16
  3.7190145703114004E+00 a       337     0    17     1    17
 -5.1896071998417508E+00 a       338     0    17     1    18
 -4.8130075025709420E+00 a       339     0    17     1    19
 -7.6079723695021242E+00 a       340     0    17     1    20
 -3.2130996431712227E+01 a       341     0    18     1     1
  7.7023612528867658E-01 a       342     0    18     1     2
  8.9107951240078673E+00 a       343     0    18     1     3
  5.4847734674065016E+00 a       344     0    18     1     4
  7.5531182379023418E+00 a       345     0    18     1     5
 -1.0217294333524528E+01 a       346     0    18     1     6
 -9.2017811473084414E+00 a       347     0    18     1     7
 -2.3356702993779219E+01 a       348     0    18     1     8
  6.7354937010061047E+00 a       349     0    18     1     9
  8.9414845952643933E+00 a       350     0    18     1    10
  5.1953072531871420E+00 a       351     0    18     1    11
 -2.6994934663271831E+01 a       352     0    18     1    12
 -1.7821955638179560E+01 a       353     0    18     1    13
  4.1190247637389721E+00 a       354     0    18     1    14
 -4.9808116084161913E+00 a       355     0    18     1    15
 -1.1572651081462487E+01 a       356     0    18     1    16
 -1.4070032889322473E+01 a       357     0    18     1    17
  2.7978043232506135E+01 a       358     0    18     1    18
  1.0457414299867176E+01 a       359     0    18     1    19
  2.0521332163207568E+01 a       360     0    18     1    20
  1.5415867462315241E+01 a       361     0    19     1     1
 -1.6559175565536801E+01 a       362     0    19     1     2
 -1.0259491885103096E+00 a       363     0    19     1     3
 -2.3510464163448130E+01 a       364     0    19     1     4
  6.1468509543769345E+00 a       365     0    19     1     5
 -4.4994590203997822E+00 a       366     0    19     1     6
  1.3068032304903671E+01 a       367     0    19     1     7
  1.7457998919345407E+01 a       368     0    19     1     8
 -1.1812324992032732E+01 a       369     0    19     1     9
 -1.4138994689314064E+01 a       370     0    19     1    10
  4.4559926633709779E+00 a       371     0    19     1    11
  6.8836493101000651E-01 a       372     0    19     1    12
  7.0165457305749133E+00 a       373     0    19     1    13
 -1.4644645889753420E+01 a       374     0    19     1    14
  6.4590014962448572E-01 a       375     0    19     1    15
 -4.5414210107700050E+01 a       376     0    19     1    16
  4.3016125350259387E+00 a       377     0    19     1    17
  4.7213459571552869E+00 a       378     0    19     1    18
 -2.4289576269273292E+00 a       379     0    19     1    19
 -1.0143572459604703E+01 a       380     0    19     1    20
  1.0309758291559291E+01 a       381     0    20     1     1
  3.2214532404213375E-01 a       382     0    20     1     2
 -2.5508807083695197E+00 a       383     0    20     1     3
 -1.8660830095321550E+01 a       384     0    20     1     4
 -2.9306508540409094E+01 a       385     0    20     1     5
  1.1479816993054285E+01 a       386     0    20     1     6
  3.6360257171548422E+00 a       387     0    20     1     7
 -1.4509433439705717E+01 a       388     0    20     1     8
  2.1387049172990031E+00 a       389     0    20     1     9
 -1.6791563836884610E+01 a       390     0    20     1    10
  3.4771170351307523E+00 a       391     0    20     1    11
  1.4615137730854689E+01 a       392     0    20     1    12
 -3.7442450048513902E+00 a       393     0    20     1    13
 -3.5676420779280518E+00 a       394     0    20     1    14
  4.5209180159839768E+00 a       395     0    20     1    15
  1.3692508946138725E+01 a       396     0    20     1    16
  4.2439119973994748E+00 a       397     0    20     1    17
  2.4163813488047328E-01 a       398     0    20     1    18
  6.7588207938412390E+00 a       399     0    20     1    19
  5.9627873956685526E+00 a       400     0    20     1    20
  1.1427830695792489E+01 a       401     0    21     1     1
 -2.1399653563651700E+01 a       402     0    21     1     2
 -2.1366444499909139E+00 a       403     0    21     1     3
  8.3872325746667642E-01 a       404     0    21     1     4
 -5.8717640179665320E+00 a       405     0    21     1     5
 -3.8868088428988901E+00 a       406     0    21     1     6
 -1.8382247648852484E+01 a       407     0    21     1     7
 -5.2577756786660821E+00 a       408     0    21     1     8
 -7.4868858398700731E+00 a       409     0    21     1     9
 -1.5319742853770875E+00 a       410     0    21     1    10
 -9.6627271024531467E+00 a       411     0    21     1    11
 -4.5535686079624593E+00 a       412     0    21     1    12
  1.3312627874149891E+01 a       413     0    21     1    13
 -2.4406181621822913E+01 a       414     0    21     1    14
  6.2121498399663926E+00 a       415     0    21     1    15
 -1.1211956681441524E+01 a       416     0    21     1    16
  5.4732644521534217E+00 a       417     0    21     1    17
  1.1775438608113445E+01 a       418     0    21     1    18
 -1.4670446129651630E+01 a       419     0    21     1    19
  5.6423178930281077E+00 a       420     0    21     1    20
  9.9933900535348674E-01 a       421     0    22     1     1
  1.7318263747786727E+01 a       422     0    22     1     2
  1.1224227531740562E+01 a       423     0    22     1     3
  2.9871385035107060E+01 a       424     0    22     1     4
  4.2617652716739558E+00 a       425     0    22     1     5
 -8.9209982066316336E+00 a       426     0    22     1     6
  6.6318437486764834E+00 a       427     0    22     1     7
 -1.4942806978364413E+01 a       428     0    22     1     8
 -2.9225809680682056E+00 a       429     0    22     1     9
  7.5858843324413892E+00 a       430     0    22     1    10
  5.8429518089990991E+00 a       431     0    22     1    11
 -2.1071937047927918E+01 a       432     0    22     1    12
 -1.2790062916771305E+01 a       433     0    22     1    13
  2.5034840122144026E+00 a       434     0    22     1    14
  1.4615389560750934E+01 a       435     0    22     1    15
 -4.2739702749084847E+00 a       436     0    22     1    16
 -1.8451583711397191E+01 a       437     0    22     1    17
 -1.9287110325420368E+01 a       438     0    22     1    18
  2.6229042437320089E+00 a       439     0    22     1    19
 -2.5813425286638946E+01 a       440     0    22     1    20
  4.1491078672438277E+00 a       441     0    23     1     1
  1.2427000124668069E+01 a       442     0    23     1     2
 -1.8661085159778789E+01 a       443     0    23     1     3
 -6.6419373050799129E+00 a       444     0    23     1     4
  2.0547305872382346E+01 a       445     0    23     1     5
  1.4623103434673594E+01 a       446     0    23     1     6
 -1.4255359273850537E+01 a       447     0    23     1     7
  1.4468700641362052E+01 a       448     0    23     1     8
 -1.8306877755373886E+01 a       449     0    23     1     9
  1.8308974397360525E+00 a       450     0    23     1    10
 -7.4383586267697455E+00 a       451     0    23     1    11
  9.1553802934051898E-01 a       452     0    23     1    12
  1.9289779458742998E+01 a       453     0    23     1    13
  1.1781653965525662E+01 a       454     0    23     1    14
  6.5392752181596521E+00 a       455     0    23     1    15
 -2.6012876687880283E+01 a       456     0    23     1    16
  5.6977988421119399E+00 a       457     0    23     1    17
 -2.7374751638998958E+00 a       458     0    23     1    18
 -8.4442549782324305E-01 a       459     0    23     1    19
  1.6847686035907337E+01 a       460     0    23     1    20
 -6.6919843975622166E+00 a       461     0    24     1     1
  5.8810546078768997E+00 a       462     0    24     1     2
 -3.1835991938659070E+00 a       463     0    24     1     3
  1.2060659263506274E+01 a       464     0    24     1     4
 -1.1148258557016213E+01 a       465     0    24     1     5
  2.2335648902774423E+01 a       466     0    24     1     6
 -2.4210568036855489E+00 a       467     0    24     1     7
 -2.0632015260526099E+01 a       468     0    24     1     8
  2.1703720455471807E+01 a       469     0    24     1     9
  3.5074288177905699E+00 a       470     0    24     1    10
 -5.8225413897802012E+00 a       471     0    24     1    11
  5.2534868819577216E+00 a       472     0    24     1    12
  1.4250809702102664E+01 a       473     0    24     1    13
  1.0421451941478285E+01 a       474     0    24     1    14
 -2.6827334720697198E+01 a       475     0    24     1    15
  7.0409696009458689E-01 a       476     0    24     1    16
  6.1422108992474529E+00 a       477     0    24     1    17
 -8.9657103236471762E+00 a       478     0    24     1    18
  1.9810271159495538E+00 a       479     0    24     1    19
 -1.5292637054127056E+01 a       480     0    24     1    20
  1.4381278735683635E+01 a       481     0    25     1     1
 -1.0165455637404206E+01 a       482     0    25     1     2
 -4.4256335755626015E+00 a       483     0    25     1     3
 -1.1126985267317346E+01 a       484     0    25     1     4
  8.0816843218716343E+00 a       485     0    25     1     5
 -3.3831700062595260E+01 a       486     0    25     1     6
  2.1356552355770302E+00 a       487     0    25     1     7
 -1.2248274834556028E+01 a       488     0    25     1     8
 -8.4572473889850883E+00 a       489     0    25     1     9
 -1.0189272789263122E+00 a       490     0    25     1    10
  2.5454808681989896E+01 a       491     0    25     1    11
  3.3225473841659854E+00 a       492     0    25     1    12
  2.9289363905863897E+00 a       493     0    25     1    13
 -6.9608045750067271E+00 a       494     0    25     1    14
 -3.8989555998235166E+00 a       495     0    25     1    15
  3.3287620349918534E+01 a       496     0    25     1    16
 -2.3785785271243416E+01 a       497     0    25     1    17
 -2.5282087077783357E+00 a       498     0    25     1    18
  4.5312292738512232E+00 a       499     0    25     1    19
  1.9260493996180678E+01 a       500     0    25     1    20
  4.7797585246541840E-01 a       501     0    26     1     1
 -7.8034505347859415E+00 a       502     0    26     1     2
 -1.8078611067435528E+00 a       503     0    26     1     3
  7.1254413866094550E+00 a       504     0    26     1     4
  1.3677511548880108E+01 a       505     0    26     1     5
  3.9262925137348978E+00 a       506     0    26     1     6
 -1.8967486790450769E+00 a       507     0    26     1     7
 -2.8880250325563726E+00 a       508     0    26     1     8
 -1.0903768993657458E+01 a       509     0    26     1     9
  7.7651670518746014E+00 a       510     0    26     1    10
 -6.2403752646113748E+00 a       511     0    26     1    11
 -1.3737961418758687E+01 a       512     0    26     1    12
 -1.2174146495547624E+00 a       513     0    26     1    13
 -1.4072686861937537E+01 a       514     0    26     1    14
 -6.2878725563871853E+00 a       515     0    26     1    15
  6.9171150597995643E+00 a       516     0    26     1    16
 -9.4389540819064877E+00 a       517     0    26     1    17
  5.7118157340012710E+00 a       518     0    26     1    18
  1.3867979795148928E+01 a       519     0    26     1    19
 -1.1542484123246760E+01 a       520     0    26     1    20
  1.0414624582830072E+01 a       521     0    27     1     1
 -1.7357087983747526E+01 a       522     0    27     1     2
  2.5732697545827419E+00 a       523     0    27     1     3
  1.8296733726045627E+01 a       524     0    27     1     4
  8.6646833485134955E+00 a       525     0    27     1     5
  3.0661546417051087E+00 a       526     0    27     1     6
 -6.6503056351973235E+00 a       527     0    27     1     7
  9.1531417134995774E+00 a       528     0    27     1     8
  8.8025355469365429E+00 a       529     0    27     1     9
  1.3727225018299456E+00 a       530     0    27     1    10
 -1.3279760999225550E+01 a       531     0    27     1    11
  1.4642922127418807E+01 a       532     0    27     1    12
 -1.7370375839605586E+01 a       533     0    27     1    13
  6.3733827057856116E+00 a       534     0    27     1    14
 -1.2458775232894086E+00 a       535     0    27     1    15
  7.0457058021429486E-01 a       536     0    27     1    16
 -1.4090185201632799E+00 a       537     0    27     1    17
 -1.1833317727940049E+01 a       538     0    27     1    18
 -2.6347905964477011E+01 a       539     0    27     1    19
 -9.6060696668892156E+00 a       540     0    27     1    20
 -5.3519196140847098E+00 a       541     0    28     1     1
  1.2618507462440030E+01 a       542     0    28     1     2
 -1.4209405459953587E+01 a       543     0    28     1     3
 -1.9867057569424620E+01 a       544     0    28     1     4
 -2.5944551506422979E+01 a       545     0    28     1     5
  2.0406478808201264E+01 a       546     0    28     1     6
  8.1553040054548624E+00 a       547     0    28     1     7
  4.4550861686280339E+00 a       548     0    28     1     8
 -1.1633243062860561E+00 a       549     0    28     1     9
  9.5898851022257159E-01 a       550     0    28     1    10
  3.5535987154811233E+00 a       551     0    28     1    11
  2.8438504987867937E+01 a       552     0    28     1    12
  1.5129368969460682E+01 a       553     0    28     1    13
  7.8956921684895338E+00 a       554     0    28     1    14
 -2.1579893586385946E+01 a       555     0    28     1    15
  2.2629306051643283E+01 a       556     0    28     1    16
  1.7580850863280059E+01 a       557     0    28     1    17
  2.4269807976596298E+00 a       558     0    28     1    18
  2.3369603550719699E+01 a       559     0    28     1    19
  8.0822982458825834E+00 a       560     0    28     1    20
  3.0515101215808160E+00 a       561     0    29     1     1
  9.4977794464372600E+00 a       562     0    29     1     2
  1.2209808543093814E+00 a       563     0    29     1     3
  5.4609617214441180E+00 a       564     0    29     1     4
  6.9572499663315250E+00 a       565     0    29     1     5
 -2.9219230147179567E+00 a       566     0    29     1     6
  1.6239351007059573E+00 a       567     0    29     1     7
  2.3931207814022869E+01 a       568     0    29     1     8
  1.2937608163723658E+01 a       569     0    29     1     9
 -7.4847570345152628E+00 a       570     0    29     1    10
  9.9994282348497432E+00 a       571     0    29     1    11
 -1.2064680956666610E+01 a       572     0    29     1    12
  9.3661002557706041E+00 a       573     0    29     1    13
 -3.8837245372805738E+00 a       574     0    29     1    14
  8.9915629886734614E+00 a       575     0    29     1    15
  7.8960356590536060E-02 a       576     0    29     1    16
 -1.5716861634168457E+00 a       577     0    29     1    17
  5.8134116454894915E+00 a       578     0    29     1    18
  1.9609102049466930E+01 a       579     0    29     1    19
 -3.5614413657548791E+00 a       580     0    29     1    20
 -1.4651505197656494E+01 a       581     0    30     1     1
 -1.8826842132241624E+00 a       582     0    30     1     2
 -4.5406391873948140E+00 a       583     0    30     1     3
  2.3841518044749133E+01 a       584     0    30     1     4
 -4.8756147286955382E+00 a       585     0    30     1     5
 -1.0005711779054288E+01 a       586     0    30     1     6
  4.0361515003582316E+00 a       587     0    30     1     7
 -4.5921497995071956E+00 a       588     0    30     1     8
  1.8575698375559796E+01 a       589     0    30     1     9
 -3.8925707684165182E+01 a       590     0    30     1    10
  9.5145484972071195E+00 a       591     0    30     1    11
  9.2768948113433911E+00 a       592     0    30     1    12
  2.3739642623282098E-02 a       593     0    30     1    13
 -3.2779595921945251E+01 a       594     0    30     1    14
  1.5773150446468133E+01 a       595     0    30     1    15
 -3.4735316558315290E+01 a       596     0    30     1    16
  3.2372109045243747E+01 a       597     0    30     1    17
  1.5506319496865293E+01 a       598     0    30     1    18
 -1.5933884428593410E+01 a       599     0    30     1    19
 -2.9600295371204526E+00 a       600     0    30     1    20
  3.6455935588568820E+00 a       601     0    31     1     1
 -7.8627066158392580E+00 a       602     0    31     1     2
 -1.6909435583112394E+01 a       603     0    31     1     3
 -6.0808941347112002E+00 a       604     0    31     1     4
 -1.1312135808621887E+01 a       605     0    31     1     5
  1.3106570092061924E+01 a       606     0    31     1     6
 -9.7698157684178479E+00 a       607     0    31     1     7
  1.0493298557725817E+01 a       608     0    31     1     8
 -5.1983244410913496E+00 a       609     0    31     1     9
  1.7838804407700987E+01 a       610     0    31     1    10
 -1.1797842376219284E+01 a       611     0    31     1    11
  2.3474596222980299E+01 a       612     0    31     1    12
 -4.1561050845075549E+00 a       613     0    31     1    13
  1.8368189113535607E+01 a       614     0    31     1    14
 -1.6159670466305276E+00 a       615     0    31     1    15
  2.8784895657059131E+01 a       616     0    31     1    16
  9.3887051345319392E+00 a       617     0    31     1    17
 -2.6510187066899181E+01 a       618     0    31     1    18
  5.4990302342543442E+00 a       619     0    31     1    19
  8.2344336649649978E+00 a       620     0    31     1    20
  2.1840690035108601E+01 a       621     0    32     1     1
 -1.5381906031721924E+01 a       622     0    32     1     2
 -6.8974599084596431E+00 a       623     0    32     1     3
  1.0938126521344008E+01 a       624     0    32     1     4
  1.1468280869113521E+01 a       625     0    32     1     5
 -1.1026051076397478E+01 a       626     0    32     1     6
 -6.7898025543638569E+00 a       627     0    32     1     7
 -4.9411669406956343E-01 a       628     0    32     1     8
 -2.6151618110645739E+01 a       629     0    32     1     9
  1.2356849782400793E+01 a       630     0    32     1    10
 -8.2593775740271500E+00 a       631     0    32     1    11
  1.7114697519421713E+00 a       632     0    32     1    12
 -7.9728587984614299E+00 a       633     0    32     1    13
  1.5259240061905157E+01 a       634     0    32     1    14
 -1.6426046712191756E+01 a       635     0    32     1    15
  1.9804462095384782E+01 a       636     0    32     1    16
 -1.0698192484883577E+01 a       637     0    32     1    17
 -5.2633609692199617E+00 a       638     0    32     1    18
 -2.0610827638711193E+01 a       639     0    32     1    19
 -5.6185919000388189E+00 a       640     0    32     1    20
 -5.1955381098912028E+00 a       641     0    33     1     1
 -1.3471672869630696E+01 a       642     0    33     1     2
  3.2377735603460311E+00 a       643     0    33     1     3
 -1.4074280705262639E+01 a       644     0    33     1     4
 -5.8121795412634034E+00 a       645     0    33     1     5
 -9.6811472361491440E+00 a       646     0    33     1     6
  5.9991587291936019E+00 a       647     0    33     1     7
  1.7218395194840220E+01 a       648     0    33     1     8
 -8.3867591293507200E+00 a       649     0    33     1     9
  1.2349140451112971E+01 a       650     0    33     1    10
  1.8175584958766301E+01 a       651     0    33     1    11
 -8.0833122632728269E+00 a       652     0    33     1    12
 -4.8368958426352995E+00 a       653     0    33     1    13
  3.3288917386498518E+01 a       654     0    33     1    14
  1.5448341091050343E+01 a       655     0    33     1    15
 -2.7896759900719736E+00 a       656     0    33     1    16
 -1.5787860083544527E+00 a       657     0    33     1    17
 -2.3961325110094162E+01 a       658     0    33     1    18
  4.1905639697814960E+00 a       659     0    33     1    19
  1.5497151414779604E+00 a       660     0    33     1    20
 -4.3594646868101009E-02 a       661     0    34     1     1
 -9.7222979936502407E-01 a       662     0    34     1     2
  8.9660151823141145E+00 a       663     0    34     1     3
  4.6373372294274509E+00 a       664     0    34     1     4
  3.4833091154223736E+00 a       665     0    34     1     5
  1.2178377250732751E+01 a       666     0    34     1     6
 -2.7521582898175527E+01 a       667     0    34     1     7
 -2.5916646644551573E+01 a       668     0    34     1     8
 -6.0549050438789838E+00 a       669     0    34     1     9
 -3.4110990914473835E+00 a       670     0    34     1    10
  2.9136051377892326E+01 a       671     0    34     1    11
 -1.1639772235912547E+01 a       672     0    34     1    12
  1.1877437183110768E+01 a       673     0    34     1    13
  1.1492714470156717E+01 a       674     0    34     1    14
 -2.4557331995331886E+01 a       675     0    34     1    15
 -6.4153840988584099E+00 a       676     0    34     1    16
 -2.3804756435071996E+00 a       677     0    34     1    17
  2.2212453916167217E+01 a       678     0    34     1    18
  9.5230843427305540E+00 a       679     0    34     1    19
 -5.1844061348399766E+00 a       680     0    34     1    20
 -1.0497849950276420E+01 a       681     0    35     1     1
 -9.5955608452319152E-01 a       682     0    35     1     2
  5.2053998071822800E+00 a       683     0    35     1     3
  8.7712357618004635E+00 a       684     0    35     1     4
 -1.7691830481380766E+01 a       685     0    35     1     5
 -5.6354634633019476E+00 a       686     0    35     1     6
  7.5223438503873634E+00 a       687     0    35     1     7
 -3.7723999664191918E+00 a       688     0    35     1     8
  8.0129922019717315E-01 a       689     0    35     1     9
 -4.7096827216378996E+00 a       690     0    35     1    10
  2.1227746972723445E+01 a       691     0    35     1    11
 -5.0143996007879359E+00 a       692     0    35     1    12
 -3.1089041776973434E+00 a       693     0    35     1    13
 -1.1638307153521046E+01 a       694     0    35     1    14
 -1.4959276779191439E+01 a       695     0    35     1    15
  3.3571555445977870E+00 a       696     0    35     1    16
 -8.8720981287693290E-01 a       697     0    35     1    17
 -4.6595393534517493E+00 a       698     0    35     1    18
  2.3339342217635823E+00 a       699     0    35     1    19
 -1.7923979148115066E+01 a       700     0    35     1    20
  1.7663698756271379E-01 a       701     0    36     1     1
  9.9585736457818252E-01 a       702     0    36     1     2
 -4.3724958747422473E+00 a       703     0    36     1     3
 -4.7401116058028139E+00 a       704     0    36     1     4
  1.4552116163037869E+01 a       705     0    36     1     5
 -4.0044276086102471E+01 a       706     0    36     1     6
 -3.6502601838609605E+00 a       707     0    36     1     7
  2.1669775184386246E+01 a       708     0    36     1     8
 -3.0279253239294914E+00 a       709     0    36     1     9
 -1.3464707959381400E+01 a       710     0    36     1    10
  3.6639932325025204E+00 a       711     0    36     1    11
  1.1772773664726403E+01 a       712     0    36     1    12
 -1.7359299531473624E+01 a       713     0    36     1    13
  1.3776754661036284E+01 a       714     0    36     1    14
  1.9319481317558189E+01 a       715     0    36     1    15
  7.1888584482320805E-01 a       716     0    36     1    16
 -8.1326574647969583E+00 a       717     0    36     1    17
  4.6537077290322379E+00 a       718     0    36     1    18
 -2.4743078517334350E+01 a       719     0    36     1    19
  3.8349630686073324E+00 a       720     0    36     1    20
 -8.7087438788132765E+00 a       721     0    37     1     1
  7.6841536494536911E-01 a       722     0    37     1     2
  1.2770445360979538E+01 a       723     0    37     1     3
 -3.1979606844551201E-01 a       724     0    37     1     4
 -2.6084347466485877E+01 a       725     0    37     1     5
  3.6516391863102918E+01 a       726     0    37     1     6
 -4.1097932618891413E+00 a       727     0    37     1     7
 -1.8629850881646908E+00 a       728     0    37     1     8
 -1.1720947274321469E+00 a       729     0    37     1     9
  6.5398552865558059E+00 a       730     0    37     1    10
  1.2321133416250181E+00 a       731     0    37     1    11
 -2.6203802808787149E+00 a       732     0    37     1    12
 -2.8852603026946291E+00 a       733     0    37     1    13
 -5.9181438014102596E+00 a       734     0    37     1    14
  7.7666274377108326E+00 a       735     0    37     1    15
  7.1296086607265963E+00 a       736     0    37     1    16
  1.8003189819952215E+01 a       737     0    37     1    17
  2.7810352227669108E+00 a       738     0    37     1    18
  1.0336385910857013E+01 a       739     0    37     1    19
 -5.5495702790382584E+00 a       740     0    37     1    20
 -1.4404709648281068E+01 a       741     0    38     1     1
  7.3238580534209206E+00 a       742     0    38     1     2
  1.1396286626354868E+01 a       743     0    38     1     3
  6.9011598094905882E+00 a       744     0    38     1     4
 -7.3409621100400848E+00 a       745     0    38     1     5
 -9.6696355142185531E-01 a       746     0    38     1     6
  1.1186518080841564E+01 a       747     0    38     1     7
  2.0398996715167808E+01 a       748     0    38     1     8
  1.2922669527174453E+00 a       749     0    38     1     9
 -9.0718651897017786E+00 a       750     0    38     1    10
  1.1239375214299702E+01 a       751     0    38     1    11
  1.0340513159431291E+01 a       752     0    38     1    12
 -5.7217120900826401E-01 a       753     0    38     1    13
  4.2260004109444443E-01 a       754     0    38     1    14
  6.3501516181764028E+00 a       755     0    38     1    15
 -1.5755322045452916E+01 a       756     0    38     1    16
  1.6622695735989595E+01 a       757     0    38     1    17
 -5.2875140503593217E-02 a       758     0    38     1    18
 -1.9737287102898988E+00 a       759     0    38     1    19
  7.0510262100472296E+00 a       760     0    38     1    20
 -1.1249177442986926E+00 a       761     0    39     1     1
 -9.3017693550832234E+00 a       762     0    39     1     2
  1.4896893651748547E+01 a       763     0    39     1     3
 -7.8019331759060284E+00 a       764     0    39     1     4
  4.2662183678553722E+00 a       765     0    39     1     5
 -6.0498822667357040E+00 a       766     0    39     1     6
  5.1725157358926070E+00 a       767     0    39     1     7
  1.0046670126508294E+01 a       768     0    39     1     8
  9.1496037642140422E+00 a       769     0    39     1     9
  7.8447485371536674E+00 a       770     0    39     1    10
 -2.4188567378116776E+01 a       771     0    39     1    11
 -1.3289124495526297E+01 a       772     0    39     1    12
  2.7631278899995575E+01 a       773     0    39     1    13
 -1.8930923537998154E+01 a       774     0    39     1    14
  2.7029431508401318E+00 a       775     0    39     1    15
 -9.9960709601811288E+00 a       776     0    39     1    16
 -1.0961546655626853E+01 a       777     0    39     1    17
  1.1733845811872857E+01 a       778     0    39     1    18
  4.6397621532942281E+00 a       779     0    39     1    19
  6.4252608336195820E+00 a       780     0    39     1    20
  1.5197333052163093E+00 a       781     0    40     1     1
  1.6986566128161369E+00 a       782     0    40     1     2
 -4.6240650513937771E+00 a       783     0    40     1     3
 -3.8232741439517528E+00 a       784     0    40     1     4
  6.3653581935702279E+00 a       785     0    40     1     5
 -1.2043099043977432E-01 a       786     0    40     1     6
  2.1223972848270989E+01 a       787     0    40     1     7
  2.2394140795713053E+01 a       788     0    40     1     8
  1.4314884681360404E+01 a       789     0    40     1     9
  4.6166025613985013E+00 a       790     0    40     1    10
 -4.0341714153402952E+00 a       791     0    40     1    11
  6.1953357836484928E+00 a       792     0    40     1    12
 -5.8141763655202521E+00 a       793     0    40     1    13
 -1.1990334910827936E+01 a       794     0    40     1    14
 -5.2606457533164397E+00 a       795     0    40     1    15
  1.3446219079311778E+01 a       796     0    40     1    16
 -9.8924648851257633E+00 a       797     0    40     1    17
  1.7421043216712710E+00 a       798     0    40     1    18
 -2.6165857039933182E-01 a       799     0    40     1    19
  1.0010696347704108E+01 a       800     0    40     1    20
 -7.1543568533354862E-01 b       801     1     1
  1.2788284226943081E+00 b       802     1     2
  8.2517340123729591E-02 b       803     1     3
  8.5440511099289873E-01 b       804     1     4
 -4.7194825523882877E-01 b       805     1     5
  5.6088319314224144E-02 b       806     1     6
 -1.3092473186394986E+00 b       807     1     7
  1.5959556973483591E+00 b       808     1     8
  1.0007674778204698E+00 b       809     1     9
 -5.8229694754501782E-01 b       810     1    10
  3.9472394607018652E-02 b       811     1    11
 -5.5997484149729861E-02 b       812     1    12
  3.0000198950356944E+00 b       813     1    13
  1.5491670409601461E+00 b       814     1    14
 -1.3510070408880255E+00 b       815     1    15
 -2.6517077374782922E+00 b       816     1    16
 -1.6482261402491987E+00 b       817     1    17
  2.6219341931422685E-01 b       818     1    18
 -1.7092631703602281E+00 b       819     1    19
  3.1180011100204030E-01 b       820     1    20
  1.1197659357539957E+00 a       821     1     1     2     1
  6.1932714458979312E+00 a       822     1     1     2     2
 -3.4267146012830252E-01 a       823     1     1     2     3
 -2.5065764083477338E+00 a       824     1     1     2     4
 -6.6246058806276631E+00 a       825     1     1     2     5
  2.3310170969639592E+00 a       826     1     1     2     6
 -4.8019986544694930E+00 a       827     1     1     2     7
 -4.0660375677078173E+00 a       828     1     1     2     8
  1.3316601895183875E+00 a       829     1     1     2     9
  6.9160139654631081E+00 a       830     1     1     2    10
 -4.1626492489129294E+00 a       831     1     1     2    11
  3.7769181680421853E+00 a       832     1     1     2    12
  5.1893635732999570E+00 a       833     1     1     2    13
  7.3698707102015948E-01 a       834     1     1     2    14
 -5.6862364887611641E+00 a       835     1     1     2    15
 -1.3424255845711619E+00 a       836     1     1     2    16
 -8.8700700477498984E+00 a       837     1     1     2    17
  3.5074455966734699E+00 a       838     1     1     2    18
 -1.2192281398952738E+00 a       839     1     1     2    19
 -5.5425648545300588E+00 a       840     1     1     2    20
  6.0175056336854658E+00 a       841     1     2     2     1
 -4.1979349746780601E+00 a       842     1     2     2     2
  2.3949423513179697E+00 a       843     1     2     2     3
 -3.4691114373488068E+00 a       844     1     2     2     4
 -2.8972646516981593E+00 a       845     1     2     2     5
 -1.9824765595941867E+00 a       846     1     2     2     6
  7.8053583599454042E+00 a       847     1     2     2     7
 -1.9612752972212233E+00 a       848     1     2     2     8
  4.5798176561200075E+00 a       849     1     2     2     9
  1.8795305183595121E+00 a       850     1     2     2    10
  2.4425844742772629E+00 a       851     1     2     2    11
 -1.5970813693555330E+00 a       852     1     2     2    12
  3.0504936473293203E+00 a       853     1     2     2    13
  1.2018122921771443E+01 a       854     1     2     2    14
 -7.6922408875932813E-01 a       855     1     2     2    15
 -3.0203533413199488E+00 a       856     1     2     2    16
 -8.0251279662822805E-01 a       857     1     2     2    17
  4.0562852754976184E+00 a       858     1     2     2    18
 -1.3946124976388283E+01 a       859     1     2     2    19
 -1.0908427568671786E+00 a       860     1     2     2    20
 -1.0104613713100803E+00 a       861     1     3     2     1
  5.3733662326521134E+00 a       862     1     3     2     2
  3.0439332510646540E+00 a       863     1     3     2     3
  3.5152057223608355E+00 a       864     1     3     2     4
  9.0042044924996922E+00 a       865     1     3     2     5
 -3.1753454560420473E+00 a       866     1     3     2     6
  5.0364387368957031E+00 a       867     1     3     2     7
  1.0113778612018652E-03 a       868     1     3     2     8
  2.8284572747135250E+00 a       869     1     3     2     9
 -1.3206030125289219E+00 a       870     1     3     2    10
 -2.4386573462673555E-01 a       871     1     3     2    11
  2.2671282822161483E+00 a       872     1     3     2    12
  1.0156807528109575E+00 a       873     1     3     2    13
  6.8882365890871595E+00 a       874     1     3     2    14
 -2.8327245566147952E-01 a       875     1     3     2    15
 -5.1974971521091531E+00 a       876     1     3     2    16
  9.8379470525787518E+00 a       877     1     3     2    17
 -5.2568376717557708E-01 a       878     1     3     2    18
  3.9706176905495272E+00 a       879     1     3     2    19
  3.8587354413791203E-01 a       880     1     3     2    20
  4.6629806942215996E-01 a       881     1     4     2     1
  1.3080564134957813E+00 a       882     1     4     2     2
  3.7153111448543019E-01 a       883     1     4     2     3
  4.6416284847329009E-01 a       884     1     4     2     4
  3.3887370486349062E+00 a       885     1     4     2     5
  5.8181133705061749E-01 a       886     1     4     2     6
 -1.2052872233408540E+00 a       887     1     4     2     7
 -3.4477646067964303E+00 a       888     1     4     2     8
  2.5514385057653346E+00 a       889     1     4     2     9
  1.0425891552136074E+01 a       890     1     4     2    10
 -5.3764494730293704E+00 a       891     1     4     2    11
  3.2874998992581750E-01 a       892     1     4     2    12
 -1.7947939660301004E+00 a       893     1     4     2    13
  4.8284198488931640E-01 a       894     1     4     2    14
 -5.5243924059385252E+00 a       895     1     4     2    15
 -7.8112269340047336E+00 a       896     1     4     2    16
 -6.6041829802440666E-02 a       897     1     4     2    17
 -6.4986901815481932E+00 a       898     1     4     2    18
  1.7084452238406629E+00 a       899     1     4     2    19
 -1.6256172737738538E+01 a       900     1     4     2    20
  9.5143312161359290E+00 a       901     1     5     2     1
 -1.6114018723512842E+01 a       902     1     5     2     2
 -3.3741173689227715E+00 a       903     1     5     2     3
 -2.4279213402416850E+00 a       904     1     5     2     4
 -1.3412690545001684E+01 a       905     1     5     2     5
  4.5644275419574392E+00 a       906     1     5     2     6
  7.9372941992845893E+00 a       907     1     5     2     7
 -2.0622189928170336E+00 a       908     1     5     2     8
 -4.0047850606790503E+00 a       909     1     5     2     9
 -4.4763953525189324E+00 a       910     1     5     2    10
  1.2130397693082340E+00 a       911     1     5     2    11
  4.3851290190946148E+00 a       912     1     5     2    12
  6.8790809285586523E+00 a       913     1     5     2    13
 -9.7366405015661179E+00 a       914     1     5     2    14
 -5.3135725624372592E+00 a       915     1     5     2    15
 -1.4234562305599898E+00 a       916     1     5     2    16
 -3.8123631159405824E-01 a       917     1     5     2    17
 -3.0264194544590159E+00 a       918     1     5     2    18
 -3.8486459743438219E+00 a       919     1     5     2    19
 -1.8596492428946927E+00 a       920     1     5     2    20
 -4.5878565593301852E+00 a       921     1     6     2     1
  5.5800954780648269E+00 a       922     1     6     2     2
  1.4148927527400534E+00 a       923     1     6     2     3
  4.9779369258537232E+00 a       924     1     6     2     4
  4.1470279159387253E+00 a       925     1     6     2     5
 -9.0251989967618762E-01 a       926     1     6     2     6
  6.8043009546945648E+00 a       927     1     6     2     7
 -3.7859190480431866E+00 a       928     1     6     2     8
 -8.9547671490704206E-01 a       929     1     6     2     9
 -2.9853053682785169E+00 a       930     1     6     2    10
 -7.0190306009240420E+00 a       931     1     6     2    11
 -8.2533505867622703E-01 a       932     1     6     2    12
 -1.5498382096490102E+00 a       933     1     6     2    13
  5.8785207880339687E+00 a       934     1     6     2    14
  1.4022665356992006E+00 a       935     1     6     2    15
 -4.9540984506481216E+00 a       936     1     6     2    16
 -5.4159200024315970E+00 a       937     1     6     2    17
 -4.7008858444520731E+00 a       938     1     6     2    18
  2.5438453073215141E+00 a       939     1     6     2    19
 -2.4483461880325588E+00 a       940     1     6     2    20
  6.6853379323897641E+00 a       941     1     7     2     1
  9.4141875523370668E+00 a       942     1     7     2     2
  2.0986020338263400E+00 a       943     1     7     2     3
  8.2041463305132167E-01 a       944     1     7     2     4
  6.3805012439982747E+00 a       945     1     7     2     5
  1.7985248605147378E-01 a       946     1     7     2     6
 -4.2635214814401143E+00 a       947     1     7     2     7
 -5.9940335452197413E+00 a       948     1     7     2     8
  3.6956544039885597E+00 a       949     1     7     2     9
  1.0300593271747533E+00 a       950     1     7     2    10
 -4.8404591281731966E+00 a       951     1     7     2    11
  3.2416662474706341E+00 a       952     1     7     2    12
 -4.7213258473320021E+00 a       953     1     7     2    13
 -9.0641929487905113E+00 a       954     1     7     2    14
  5.7651933716105153E-01 a       955     1     7     2    15
 -4.3584565305467935E+00 a       956     1     7     2    16
 -1.2834962338641787E+01 a       957     1     7     2    17
 -4.5152116253129365E-01 a       958     1     7     2    18
 -2.4358821259286523E+00 a       959     1     7     2    19
  9.4337675408674819E+00 a       960     1     7     2    20
  1.9926885067217257E+00 a       961     1     8     2     1
 -3.8339664732407747E-01 a       962     1     8     2     2
  6.0069930251453263E+00 a       963     1     8     2     3
 -1.3037910427645703E+00 a       964     1     8     2     4
 -6.2838936781622468E-01 a       965     1     8     2     5
 -1.3535391035036430E+00 a       966     1     8     2     6
  3.9976694517619968E+00 a       967     1     8     2     7
  4.0532881363994333E+00 a       968     1     8     2     8
  6.0105631420085146E+00 a       969     1     8     2     9
 -3.8506394272578213E+00 a       970     1     8     2    10
 -3.8393292933166920E+00 a       971     1     8     2    11
 -1.6011838431517094E+00 a       972     1     8     2    12
  9.4706965615443950E-01 a       973     1     8     2    13
  1.0777514028092789E+01 a       974     1     8     2    14
  4.5698798216938190E+00 a       975     1     8     2    15
  7.2830234692110940E+00 a       976     1     8     2    16
  3.1688389534428927E+00 a       977     1     8     2    17
  1.3002230888615667E+00 a       978     1     8     2    18
  8.0926603366128074E+00 a       979     1     8     2    19
 -2.4616783220984635E+00 a       980     1     8     2    20
 -2.1098369548558513E-01 a       981     1     9     2     1
  1.1152932783493524E+01 a       982     1     9     2     2
  5.2692267057742708E+00 a       983     1     9     2     3
  3.3506720411251898E+00 a       984     1     9     2     4
  3.0364403172060217E+00 a       985     1     9     2     5
 -6.3062444339581092E-01 a       986     1     9     2     6
 -8.1714512839120279E-01 a       987     1     9     2     7
 -5.5160714355417362E+00 a       988     1     9     2     8
 -1.3652796756638199E+00 a       989     1     9     2     9
  1.9536339011360544E+00 a       990     1     9     2    10
 -4.0715237918778202E+00 a       991     1     9     2    11
  6.7600104619169643E-01 a       992     1     9     2    12
 -4.9507505608320695E-01 a       993     1     9     2    13
 -6.1103245282085297E+00 a       994     1     9     2    14
  7.2358479120732078E+00 a       995     1     9     2    15
  1.0678750118057849E+00 a       996     1     9     2    16
  1.3916127282768469E+00 a       997     1     9     2    17
 -1.2971365510077879E+00 a       998     1     9     2    18
  8.5065150698769916E+00 a       999     1     9     2    19
 -5.3105237442822046E+00 a      1000     1     9     2    20
 -4.0223547988063570E+00 a      1001     1    10     2     1
 -4.3407997224540189E+00 a      1002     1    10     2     2
 -2.7353873427565634E-01 a      1003     1    10     2     3
  3.1901967439658927E+00 a      1004     1    10     2     4
  6.1244225456026635E+00 a      1005     1    10     2     5
  5.8860777213670215E+00 a      1006     1    10     2     6
  3.8199033353225609E-01 a      1007     1    10     2     7
  5.0372475136368760E+00 a      1008     1    10     2     8
 -4.7954240891363051E+00 a      1009     1    10     2     9
  4.5689271043381616E+00 a      1010     1    10     2    10
 -3.3753226892391144E+00 a      1011     1    10     2    11
 -3.9335828033660447E+00 a      1012     1    10     2    12
 -6.4048679047180999E+00 a      1013     1    10     2    13
 -1.4233338720865494E+00 a      1014     1    10     2    14
 -7.4852889512454732E+00 a      1015     1    10     2    15
 -5.0402702504790609E-01 a      1016     1    10     2    16
  1.0013700986790109E+01 a      1017     1    10     2    17
  5.5603506375189085E+00 a      1018     1    10     2    18
 -4.7075589916381659E+00 a      1019     1    10     2    19
  1.1783886524561584E+01 a      1020     1    10     2    20
 -2.2475635163033794E-01 a      1021     1    11     2     1
  1.8774319366597298E+00 a      1022     1    11     2     2
 -4.4380931445111482E+00 a      1023     1    11     2     3
 -3.3093809790120582E-01 a      1024     1    11     2     4
  3.4798578297478668E+00 a      1025     1    11     2     5
  3.6681126229468002E+00 a      1026     1    11     2     6
 -1.9109221487013379E+00 a      1027     1    11     2     7
 -4.4006228883125402E+00 a      1028     1    11     2     8
  1.1514858026632618E+01 a      1029     1    11     2     9
  3.0008192106365348E+00 a      1030     1    11     2    10
 -5.1579463493355415E-01 a      1031     1    11     2    11
 -1.8468720448947353E+00 a      1032     1    11     2    12
 -5.9193293932320818E+00 a      1033     1    11     2    13
 -7.8292047660047421E+00 a      1034     1    11     2    14
 -5.2160685550919563E+00 a      1035     1    11     2    15
 -2.5540059073047447E+00 a      1036     1    11     2    16
  6.8964418469863265E-01 a      1037     1    11     2    17
 -1.1376590653394191E+01 a      1038     1    11     2    18
  1.7514764887032799E+00 a      1039     1    11     2    19
 -1.4250550626003625E+01 a      1040     1    11     2    20
  3.8098383473325534E+00 a      1041     1    12     2     1
  5.5571120968956922E-01 a      1042     1    12     2     2
 -2.4192973015434567E+00 a      1043     1    12     2     3
 -7.8982651622976374E-01 a      1044     1    12     2     4
 -7.2554189525735806E+00 a      1045     1    12     2     5
 -2.3406798285129176E+00 a      1046     1    12     2     6
  2.7753496091896594E+00 a      1047     1    12     2     7
 -1.7042663031998533E+00 a      1048     1    12     2     8
 -5.0617926774161193E-01 a      1049     1    12     2     9
 -5.0204022162337099E+00 a      1050     1    12     2    10
  2.5733953396988651E+00 a      1051     1    12     2    11
 -2.2693221490387394E-01 a      1052     1    12     2    12
  4.1897958628302314E+00 a      1053     1    12     2    13
  5.2428418999447883E+00 a      1054     1    12     2    14
  6.6834655217354042E+00 a      1055     1    12     2    15
 -8.8968952221722977E-02 a      1056     1    12     2    16
  8.2212028946497839E-01 a      1057     1    12     2    17
  8.0789373238837072E+00 a      1058     1    12     2    18
 -1.0882359027601254E+01 a      1059     1    12     2    19
  1.6184605182692731E+00 a      1060     1    12     2    20
  3.3480878859294112E+00 a      1061     1    13     2     1
 -3.0509755914335814E+00 a      1062     1    13     2     2
 -3.8897724115819718E+00 a      1063     1    13     2     3
 -1.3874389832883816E+00 a      1064     1    13     2     4
 -1.2850928131111490E+00 a      1065     1    13     2     5
  1.4550541778536252E+00 a      1066     1    13     2     6
 -1.1831958559679839E+01 a      1067     1    13     2     7
 -4.8382288715135866E+00 a      1068     1    13     2     8
 -2.6339436756589323E+00 a      1069     1    13     2     9
 -1.0366723803179099E+01 a      1070     1    13     2    10
 -3.5579309713238849E-01 a      1071     1    13     2    11
 -1.2849933977288712E+00 a      1072     1    13     2    12
 -5.7476416214340853E-01 a      1073     1    13     2    13
  4.4638516104959987E+00 a      1074     1    13     2    14
  3.3043555091139504E-01 a      1075     1    13     2    15
 -6.1138159022633625E+00 a      1076     1    13     2    16
 -8.9029541890112238E+00 a      1077     1    13     2    17
  3.1295232605741874E+00 a      1078     1    13     2    18
 -6.7252245319174797E-01 a      1079     1    13     2    19
  2.7097212424752448E+00 a      1080     1    13     2    20
  3.3898017525140305E+00 a      1081     1    14     2     1
 -9.6178204040185005E+00 a      1082     1    14     2     2
 -4.2563307894258005E+00 a      1083     1    14     2     3
  1.1454282607342376E+00 a      1084     1    14     2     4
 -4.0278469183983958E+00 a      1085     1    14     2     5
  1.7971079455797738E+00 a      1086     1    14     2     6
 -3.2319846013431706E+00 a      1087     1    14     2     7
 -5.9454094533614370E+00 a      1088     1    14     2     8
  1.1180729262192878E+01 a      1089     1    14     2     9
 -1.3267955693213519E+01 a      1090     1    14     2    10
  1.8902189912281304E+00 a      1091     1    14     2    11
  1.4292420628049098E+00 a      1092     1    14     2    12
  3.4994198662733318E+00 a      1093     1    14     2    13
  5.2515158949579233E-01 a      1094     1    14     2    14
 -3.8306657107884434E+00 a      1095     1    14     2    15
  6.5238182447404398E+00 a      1096     1    14     2    16
  6.5057263076852330E+00 a      1097     1    14     2    17
 -1.9095170583278802E+00 a      1098     1    14     2    18
 -4.3210209251312381E+00 a      1099     1    14     2    19
  4.5256968915760654E+00 a      1100     1    14     2    20
  7.9859815421491360E+00 a      1101     1    15     2     1
  1.4754299596869011E-01 a      1102     1    15     2     2
 -3.6397053953586989E+00 a      1103     1    15     2     3
  6.5582750766731357E-01 a      1104     1    15     2     4
  5.9453892044685142E-01 a      1105     1    15     2     5
 -1.8411234917315560E+00 a      1106     1    15     2     6
  2.1457076712624490E+00 a      1107     1    15     2     7
  9.4741020694239708E+00 a      1108     1    15     2     8
 -1.8132457015657988E+00 a      1109     1    15     2     9
 -9.3260663236515526E+00 a      1110     1    15     2    10
  9.0471157677542564E+00 a      1111     1    15     2    11
 -6.3365867231625277E+00 a      1112     1    15     2    12
 -2.5379108093625073E+00 a      1113     1    15     2    13
  3.1596629341989546E+00 a      1114     1    15     2    14
 -3.6578371571160258E+00 a      1115     1    15     2    15
  3.9795945552522376E+00 a      1116     1    15     2    16
  6.9756901001686327E+00 a      1117     1    15     2    17
 -3.8752390689819345E+00 a      1118     1    15     2    18
 -8.5781977169247856E+00 a      1119     1    15     2    19
  1.6322790767311697E+00 a      1120     1    15     2    20
 -1.5081345161621293E+00 a      1121     1    16     2     1
 -1.3272984430682062E+00 a      1122     1    16     2     2
 -3.1535096124976575E-01 a      1123     1    16     2     3
 -3.5034925141295341E+00 a      1124     1    16     2     4
 -7.7178337384545141E+00 a      1125     1    16     2     5
  2.6552136669418558E-01 a      1126     1    16     2     6
 -5.2247050006183011E+00 a      1127     1    16     2     7
  8.5052777211719164E+00 a      1128     1    16     2     8
 -8.7302664126830420E-01 a      1129     1    16     2     9
 -2.8217491553628662E+00 a      1130     1    16     2    10
 -2.2334407047271072E+00 a      1131     1    16     2    11
  8.3436546295967737E+00 a      1132     1    16     2    12
  3.9106881046824205E+00 a      1133     1    16     2    13
 -4.3647061275762642E+00 a      1134     1    16     2    14
  2.9175052282595210E-01 a      1135     1    16     2    15
 -3.7416886489444248E+00 a      1136     1    16     2    16
  1.1405117129498249E+01 a      1137     1    16     2    17
 -2.2173548339752536E+00 a      1138     1    16     2    18
 -1.1416380750013053E-01 a      1139     1    16     2    19
  5.4054111761883714E+00 a      1140     1    16     2    20
 -7.9606793539972986E-01 a      1141     1    17     2     1
 -1.7991926520276711E+00 a      1142     1    17     2     2
 -3.4252450002331774E+00 a      1143     1    17     2     3
 -1.1549812450369090E+00 a      1144     1    17     2     4
  5.4931370244752467E+00 a      1145     1    17     2     5
 -3.9289896419333976E+00 a      1146     1    17     2     6
 -2.4124562337035371E+00 a      1147     1    17     2     7
  3.4800884579172644E+00 a      1148     1    17     2     8
  6.8745309467101201E+00 a      1149     1    17     2     9
 -5.1350829981932113E+00 a      1150     1    17     2    10
 -4.2004570731695079E+00 a      1151     1    17     2    11
  2.6989892469349519E-01 a      1152     1    17     2    12
  4.9419496737001340E+00 a      1153     1    17     2    13
 -9.6433544274176572E+00 a      1154     1    17     2    14
  1.5435372812427325E+01 a      1155     1    17     2    15
 -1.6953182947234844E+00 a      1156     1    17     2    16
 -1.5217730276154835E+01 a      1157     1    17     2    17
  2.1716879089219447E+00 a      1158     1    17     2    18
 -1.2858742274828239E+00 a      1159     1    17     2    19
  7.8733885087932984E+00 a      1160     1    17     2    20
 -3.4112781724189025E+00 a      1161     1    18     2     1
  2.9959104805901853E+00 a      1162     1    18     2     2
 -3.5585785619372583E+00 a      1163     1    18     2     3
 -2.8887059694466841E+00 a      1164     1    18     2     4
 -1.1311367475428524E+01 a      1165     1    18     2     5
  3.5045548312962116E+00 a      1166     1    18     2     6
  3.1515500370494056E+00 a      1167     1    18     2     7
 -4.7895818234374374E+00 a      1168     1    18     2     8
  1.8063010602792946E+01 a      1169     1    18     2     9
 -6.7376898307977617E+00 a      1170     1    18     2    10
  3.3330182625608447E+00 a      1171     1    18     2    11
  1.5789697455314031E+00 a      1172     1    18     2    12
  3.8021744055133838E-01 a      1173     1    18     2    13
 -5.8030374798029918E+00 a      1174     1    18     2    14
 -5.4297354810509662E+00 a      1175     1    18     2    15
 -4.0352053831905668E+00 a      1176     1    18     2    16
 -3.6420687198470969E-01 a      1177     1    18     2    17
 -6.7262496122168338E+00 a      1178     1    18     2    18
 -3.9799939498518517E+00 a      1179     1    18     2    19
  1.5280340420702817E+01 a      1180     1    18     2    20
  1.5056991038480658E+00 a      1181     1    19     2     1
 -1.3588712354464219E+00 a      1182     1    19     2     2
  3.9319791218743250E+00 a      1183     1    19     2     3
  1.8517052247274512E+00 a      1184     1    19     2     4
 -1.8335874337257017E+00 a      1185     1    19     2     5
 -3.0859987416609944E+00 a      1186     1    19     2     6
  2.8686234452753965E+00 a      1187     1    19     2     7
 -1.2068718225216296E+01 a      1188     1    19     2     8
  2.0755776957712659E+01 a      1189     1    19     2     9
 -6.7399924704397725E+00 a      1190     1    19     2    10
 -1.1131446327874501E+00 a      1191     1    19     2    11
 -2.0559586924642428E+00 a      1192     1    19     2    12
 -8.0809551557724357E-01 a      1193     1    19     2    13
  1.2130933501643902E+01 a      1194     1    19     2    14
  5.4300002551240230E+00 a      1195     1    19     2    15
  7.4709347902320049E+00 a      1196     1    19     2    16
  6.2076233162469965E+00 a      1197     1    19     2    17
  7.4027699175746553E-01 a      1198     1    19     2    18
  3.6473239319846473E-01 a      1199     1    19     2    19
 -1.1946234014050608E+01 a      1200     1    19     2    20
 -2.3059926447165058E+00 a      1201     1    20     2     1
 -8.3919567098883654E+00 a      1202     1    20     2     2
 -1.0516698836365401E+00 a      1203     1    20     2     3
  1.7160879165063676E+00 a      1204     1    20     2     4
 -1.0703398947799092E+00 a      1205     1    20     2     5
 -1.9001065352116713E+00 a      1206     1    20     2     6
  3.6784587271777789E+00 a      1207     1    20     2     7
 -1.2777260902462928E+00 a      1208     1    20     2     8
  7.0576315007194648E+00 a      1209     1    20     2     9
 -7.9346462173600030E-01 a      1210     1    20     2    10
  5.6375470761961410E-01 a      1211     1    20     2    11
  1.7456342595732979E+00 a      1212     1    20     2    12
 -3.6853754910792063E+00 a      1213     1    20     2    13
  5.5350530051031899E-01 a      1214     1    20     2    14
 -3.3984455612402664E+00 a      1215     1    20     2    15
 -2.3003764329333967E+00 a      1216     1    20     2    16
 -4.7868608219957878E+00 a      1217     1    20     2    17
  2.6588982772401106E+00 a      1218     1    20     2    18
 -1.1311388547422248E+00 a      1219     1    20     2    19
  3.9048298492524638E+00 a      1220     1    20     2    20
  6.2739986516259751E+00 b      1221     2     1
  1.8933928824759716E+00 b      1222     2     2
 -6.9853387962344877E+00 b      1223     2     3
 -3.3016836768909950E+00 b      1224     2     4
  3.2651732949647410E+00 b      1225     2     5
  5.4207822119549109E-02 b      1226     2     6
 -3.7124849016713752E+00 b      1227     2     7
  9.0648923735705491E+00 b      1228     2     8
 -4.6018899064191476E+00 b      1229     2     9
  7.3725193985481727E+00 b      1230     2    10
  5.5123273539280184E+00 b      1231     2    11
  1.1265728143455478E+01 b      1232     2    12
  9.3986593412912012E-01 b      1233     2    13
 -1.6367452195561192E+01 b      1234     2    14
 -6.5172765853681227E+00 b      1235     2    15
  8.1880383902166223E+00 b      1236     2    16
  8.6273324261161317E+00 b      1237     2    17
  4.9814027343318310E+00 b      1238     2    18
 -1.3976473353991739E+01 b      1239     2    19
  8.9599261892466551E+00 b      1240     2    20
  1.5162986883626847E-01 a      1241     2     1     3     1
 -1.7110866133532862E-01 a      1242     2     2     3     1
  7.2204632967076840E-02 a      1243     2     3     3     1
  6.7627993994839417E-02 a      1244     2     4     3     1
 -1.4406364175630626E-01 a      1245     2     5     3     1
 -2.6784632274839365E-01 a      1246     2     6     3     1
 -2.2965044434744708E-01 a      1247     2     7     3     1
  1.5394915095935252E-01 a      1248     2     8     3     1
  1.4947187688924365E-01 a      1249     2     9     3     1
  3.0628943625241473E-01 a      1250     2    10     3     1
 -1.7051347207927267E-01 a      1251     2    11     3     1
 -2.1199498822176938E-01 a      1252     2    12     3     1
 -8.4437418377350984E-02 a      1253     2    13     3     1
  1.6243273018924637E-01 a      1254     2    14     3     1
 -3.4937987858074132E-01 a      1255     2    15     3     1
 -8.5775894637429642E-02 a      1256     2    16     3     1
 -2.6229509867350737E-01 a      1257     2    17     3     1
 -1.0609730121128817E-01 a      1258     2    18     3     1
 -1.4113861700613931E-01 a      1259     2    19     3     1
  2.3622922784072356E-01 a      1260     2    20     3     1
 -1.9262446292263447E-01 b      1261     3     1
