################################################################################
# Neural network connection values (weights and biases).
################################################################################
# Col  Name       Description
################################################################################
# 1    connection Neural network connection value.
# 2    t          Connection type (a = weight, b = bias).
# 3    index      Index enumerating weights.
# 4    l_s        Starting point layer (end point layer for biases).
# 5    n_s        Starting point neuron in starting layer (end point neuron for biases).
# 6    l_e        End point layer.
# 7    n_e        End point neuron in end layer.
################################################################################
#                      1 2         3     4     5     6     7
#             connection t     index   l_s   n_s   l_e   n_e
############################################################
  5.9713754014973688E+00 a         1     0     1     1     1
 -4.3343196690743602E+00 a         2     0     1     1     2
 -9.9625868160828501E-01 a         3     0     1     1     3
  8.5320046434854397E+00 a         4     0     1     1     4
 -1.6266920970804239E+01 a         5     0     1     1     5
  1.3320085836774592E+01 a         6     0     1     1     6
 -7.1338612161884720E+00 a         7     0     1     1     7
 -1.9035136432137358E+00 a         8     0     1     1     8
  3.6324828841046625E-01 a         9     0     1     1     9
  3.2945260018138094E+00 a        10     0     1     1    10
 -1.9487263153720512E+01 a        11     0     1     1    11
 -1.6700564823667907E+01 a        12     0     1     1    12
 -6.4715502817934691E+00 a        13     0     1     1    13
  2.7621626005006044E+00 a        14     0     1     1    14
  1.1051193434974866E+01 a        15     0     1     1    15
  1.6158176976811522E+01 a        16     0     1     1    16
 -6.2603502095178811E+00 a        17     0     1     1    17
 -4.2287567445495560E+00 a        18     0     1     1    18
 -1.7356617430817736E+00 a        19     0     1     1    19
 -1.3397419438777993E+00 a        20     0     1     1    20
  2.0511387080430289E+01 a        21     0     2     1     1
 -4.6852101158431347E+00 a        22     0     2     1     2
  1.0747618345453130E+01 a        23     0     2     1     3
 -2.2331977887889107E+00 a        24     0     2     1     4
  6.9486224749585261E+00 a        25     0     2     1     5
 -4.2810631371483012E+00 a        26     0     2     1     6
  4.9123192795540149E-01 a        27     0     2     1     7
  3.9866340083853578E+00 a        28     0     2     1     8
  6.5456121844136064E+00 a        29     0     2     1     9
 -1.6967528139754627E+01 a        30     0     2     1    10
  1.0551186838934159E+01 a        31     0     2     1    11
  9.1157933483115130E+00 a        32     0     2     1    12
 -3.1721669260895879E+00 a        33     0     2     1    13
 -6.2475686067314626E+00 a        34     0     2     1    14
 -7.1448959100455829E+00 a        35     0     2     1    15
 -1.5167926514172539E+01 a        36     0     2     1    16
  3.7606082048075962E+00 a        37     0     2     1    17
  4.4975145080361173E-01 a        38     0     2     1    18
  5.6857138873014810E+00 a        39     0     2     1    19
  9.5305815858985738E+00 a        40     0     2     1    20
 -1.0056332124717844E+00 a        41     0     3     1     1
  4.4223620580480540E+00 a        42     0     3     1     2
 -6.7832525654675013E+00 a        43     0     3     1     3
  1.0067500722311793E+01 a        44     0     3     1     4
  1.2332805581236483E+01 a        45     0     3     1     5
 -6.3212774306351376E+00 a        46     0     3     1     6
  1.2785212956628031E+01 a        47     0     3     1     7
  3.8203043683169224E+00 a        48     0     3     1     8
  1.4857835480378494E+01 a        49     0     3     1     9
  6.3354257640927605E+00 a        50     0     3     1    10
  6.8661363748251452E+00 a        51     0     3     1    11
  1.1069339535119491E+01 a        52     0     3     1    12
  4.2930390618856427E+00 a        53     0     3     1    13
  2.0529984846635516E+00 a        54     0     3     1    14
  4.5774514165588105E+00 a        55     0     3     1    15
 -7.3744859593254031E-01 a        56     0     3     1    16
  5.4898736392503240E+00 a        57     0     3     1    17
  1.2854425512258878E+00 a        58     0     3     1    18
 -1.8320656015213035E-01 a        59     0     3     1    19
 -6.3539033018951701E+00 a        60     0     3     1    20
 -1.3523018646618921E+01 a        61     0     4     1     1
 -5.7800320054063485E+00 a        62     0     4     1     2
 -6.8110981560588391E+00 a        63     0     4     1     3
 -2.3634214209174764E-01 a        64     0     4     1     4
 -6.4727627361332862E+00 a        65     0     4     1     5
  1.1164848338843431E+01 a        66     0     4     1     6
 -8.2833826787786737E+00 a        67     0     4     1     7
  2.4406740823858204E+00 a        68     0     4     1     8
 -3.4338013054113325E+00 a        69     0     4     1     9
  2.3829924293540774E+01 a        70     0     4     1    10
 -9.4376731414622395E+00 a        71     0     4     1    11
  3.2719054119436564E-01 a        72     0     4     1    12
  1.4314788650217671E+00 a        73     0     4     1    13
  1.4165439737295255E+01 a        74     0     4     1    14
 -1.1240950272916379E+01 a        75     0     4     1    15
  6.1284575145287326E+00 a        76     0     4     1    16
 -1.5204376761606705E+01 a        77     0     4     1    17
 -3.1858823286524318E+00 a        78     0     4     1    18
 -3.4350073299697228E+00 a        79     0     4     1    19
 -2.9966984629048983E+00 a        80     0     4     1    20
 -4.4031451040876597E+00 a        81     0     5     1     1
  1.5659081933014127E+01 a        82     0     5     1     2
  5.2260939424353436E+00 a        83     0     5     1     3
 -5.4940659827979932E+00 a        84     0     5     1     4
 -5.3480153963716157E+00 a        85     0     5     1     5
  3.9780658784126306E+00 a        86     0     5     1     6
  1.1320518959497123E+01 a        87     0     5     1     7
  3.8180020266813446E+00 a        88     0     5     1     8
 -5.8146503917432713E-01 a        89     0     5     1     9
  1.6878581105539279E+01 a        90     0     5     1    10
 -3.5332783336240816E+01 a        91     0     5     1    11
 -1.3969592918620259E+01 a        92     0     5     1    12
 -9.9932086691860000E+00 a        93     0     5     1    13
 -1.2512346343358702E+01 a        94     0     5     1    14
  4.3606479284459505E+00 a        95     0     5     1    15
 -1.5523551290745119E-02 a        96     0     5     1    16
 -5.1662490145734585E+00 a        97     0     5     1    17
  4.5319449996546730E+00 a        98     0     5     1    18
  1.9992607021181059E+00 a        99     0     5     1    19
  1.0594556646426193E+01 a       100     0     5     1    20
 -2.3220582801123534E+01 a       101     0     6     1     1
  4.1489618018796568E+00 a       102     0     6     1     2
 -4.0571712397827229E+00 a       103     0     6     1     3
 -4.9308065677257513E+00 a       104     0     6     1     4
  5.6182095781747892E+00 a       105     0     6     1     5
 -1.2389952768620661E+01 a       106     0     6     1     6
 -1.7424411234684868E+01 a       107     0     6     1     7
  2.5292716103400688E+00 a       108     0     6     1     8
  8.5199316450688531E+00 a       109     0     6     1     9
 -1.7795449099328582E+01 a       110     0     6     1    10
  1.7832465084066829E+01 a       111     0     6     1    11
 -8.7170826707015507E+00 a       112     0     6     1    12
  8.0398013158847537E+00 a       113     0     6     1    13
 -1.8269989813404969E-01 a       114     0     6     1    14
 -9.9400214686896238E+00 a       115     0     6     1    15
 -6.0440731363238838E+00 a       116     0     6     1    16
  9.4644929559800361E-01 a       117     0     6     1    17
  4.8679749895772613E+00 a       118     0     6     1    18
  1.4142120682664070E+01 a       119     0     6     1    19
  2.8249114108065112E+00 a       120     0     6     1    20
 -5.7017235253421266E+00 a       121     0     7     1     1
  9.5507810456220188E+00 a       122     0     7     1     2
  5.8327594680551398E+00 a       123     0     7     1     3
 -1.0166405036097085E+01 a       124     0     7     1     4
  4.1129499621536922E+00 a       125     0     7     1     5
  1.3586642541885217E+00 a       126     0     7     1     6
 -5.0182256022489158E-01 a       127     0     7     1     7
 -8.9825939768980110E+00 a       128     0     7     1     8
 -3.3932155849294894E+00 a       129     0     7     1     9
  6.1209621350229000E+00 a       130     0     7     1    10
 -2.1492126928637152E+00 a       131     0     7     1    11
 -1.1537787085620237E+00 a       132     0     7     1    12
  6.6823025991143119E+00 a       133     0     7     1    13
 -8.1177020283617498E+00 a       134     0     7     1    14
  3.9999695621730984E+00 a       135     0     7     1    15
 -2.4715431910799435E+00 a       136     0     7     1    16
  6.3971788681809172E-01 a       137     0     7     1    17
  1.5626846470104121E+00 a       138     0     7     1    18
 -8.7759022364239510E+00 a       139     0     7     1    19
 -2.1136437595570698E+00 a       140     0     7     1    20
 -8.1170232247579630E+00 a       141     0     8     1     1
  1.6118841492600731E+00 a       142     0     8     1     2
  5.2399473649399821E+00 a       143     0     8     1     3
 -2.1543947992209489E+01 a       144     0     8     1     4
 -4.1764394859671121E+00 a       145     0     8     1     5
  8.9847839247891925E-01 a       146     0     8     1     6
 -2.1965082475210935E+00 a       147     0     8     1     7
  4.7231418769338829E+00 a       148     0     8     1     8
  5.8566317339034599E+00 a       149     0     8     1     9
  5.7042707404174058E+00 a       150     0     8     1    10
 -2.9518782611159442E+00 a       151     0     8     1    11
  2.2753242030464991E+00 a       152     0     8     1    12
  5.6660525959412955E-01 a       153     0     8     1    13
  3.1072750829336626E+00 a       154     0     8     1    14
  3.4204152676057116E+00 a       155     0     8     1    15
  8.1386628414837325E+00 a       156     0     8     1    16
 -6.3980637716121453E+00 a       157     0     8     1    17
 -1.0567704717560208E-02 a       158     0     8     1    18
 -1.0623774346018752E+01 a       159     0     8     1    19
 -6.4622934048898824E+00 a       160     0     8     1    20
  2.8923603469539283E+00 a       161     0     9     1     1
  3.7646404716525392E+00 a       162     0     9     1     2
  3.5970515112678247E-01 a       163     0     9     1     3
 -5.4236549505519216E+00 a       164     0     9     1     4
 -8.5456725537750380E+00 a       165     0     9     1     5
 -3.8194918612027040E+00 a       166     0     9     1     6
 -2.9999671093378284E+00 a       167     0     9     1     7
  2.8350657054132928E+00 a       168     0     9     1     8
  1.1226528653139543E+01 a       169     0     9     1     9
  4.1790463199405616E+00 a       170     0     9     1    10
 -4.6685230938722411E+00 a       171     0     9     1    11
 -9.2120535079987285E+00 a       172     0     9     1    12
 -2.8066514630416928E-01 a       173     0     9     1    13
  3.5364667035546915E-01 a       174     0     9     1    14
  3.0491011330577644E-01 a       175     0     9     1    15
 -2.6792282148468618E+00 a       176     0     9     1    16
 -6.6787414499901860E+00 a       177     0     9     1    17
  1.9786722947202648E+00 a       178     0     9     1    18
 -5.6138468420779635E+00 a       179     0     9     1    19
  2.5237048910136775E+00 a       180     0     9     1    20
  1.6603836049065176E+01 a       181     0    10     1     1
 -4.8651999007869300E+00 a       182     0    10     1     2
  3.9793223987613144E+00 a       183     0    10     1     3
  1.0104965694991495E+01 a       184     0    10     1     4
  4.1571203063378066E+00 a       185     0    10     1     5
  3.7372557406445090E+00 a       186     0    10     1     6
  3.3852090001295880E+00 a       187     0    10     1     7
  1.9704144610235524E+01 a       188     0    10     1     8
 -2.9342948134342180E+01 a       189     0    10     1     9
 -2.1935470652585498E+00 a       190     0    10     1    10
  2.2633475945693973E+00 a       191     0    10     1    11
 -9.3473320297253757E+00 a       192     0    10     1    12
 -3.5709002128016398E-01 a       193     0    10     1    13
  8.4171872286558074E+00 a       194     0    10     1    14
 -1.2820789076087896E+01 a       195     0    10     1    15
 -3.9708637325185197E+00 a       196     0    10     1    16
  7.6790825427190468E+00 a       197     0    10     1    17
 -9.6113267855845361E+00 a       198     0    10     1    18
 -3.5660043780244703E+00 a       199     0    10     1    19
 -8.7891443890932717E+00 a       200     0    10     1    20
 -1.1332578112582990E+01 a       201     0    11     1     1
  6.0735775789358604E-01 a       202     0    11     1     2
  3.5701320029686348E+00 a       203     0    11     1     3
  1.0706828578578291E+00 a       204     0    11     1     4
  6.9263685673904831E+00 a       205     0    11     1     5
  2.7965889780757780E+00 a       206     0    11     1     6
  2.8193775505053988E+00 a       207     0    11     1     7
 -1.9405915465613204E+00 a       208     0    11     1     8
 -6.3877531847248816E+00 a       209     0    11     1     9
 -9.1521068106506342E-01 a       210     0    11     1    10
 -4.4599250138655302E+00 a       211     0    11     1    11
  9.1444773529238859E+00 a       212     0    11     1    12
  3.7676478640079352E+00 a       213     0    11     1    13
  6.6360508386072103E+00 a       214     0    11     1    14
  3.9841611849497545E+00 a       215     0    11     1    15
  7.2143061551478391E+00 a       216     0    11     1    16
  3.1477583970471650E+00 a       217     0    11     1    17
  3.2158200569025915E-02 a       218     0    11     1    18
  4.5675054010430092E+00 a       219     0    11     1    19
 -2.4172199066321634E+00 a       220     0    11     1    20
  2.1555027274438290E-01 a       221     0    12     1     1
  1.8795733208393983E+00 a       222     0    12     1     2
 -1.3700810156639971E+01 a       223     0    12     1     3
 -2.1005252115395528E+01 a       224     0    12     1     4
 -5.5225062306184194E+00 a       225     0    12     1     5
 -6.0313719695976289E+00 a       226     0    12     1     6
  1.0130256666680456E+01 a       227     0    12     1     7
 -1.7473767919542931E+00 a       228     0    12     1     8
  1.9695690729917267E+01 a       229     0    12     1     9
  1.7849113182831172E+01 a       230     0    12     1    10
 -5.5022970185760594E+00 a       231     0    12     1    11
  6.1789914820434664E+00 a       232     0    12     1    12
 -5.3529080697326910E+00 a       233     0    12     1    13
  7.2685220564216317E+00 a       234     0    12     1    14
  3.6621619039847881E+00 a       235     0    12     1    15
  2.8952335111845589E+00 a       236     0    12     1    16
 -7.0027336436555503E+00 a       237     0    12     1    17
  6.0312709642813864E+00 a       238     0    12     1    18
  4.1957544358144911E+00 a       239     0    12     1    19
  2.5622980798224024E+01 a       240     0    12     1    20
 -2.0922302657022529E+00 a       241     0    13     1     1
  1.6023699326346623E+00 a       242     0    13     1     2
 -7.7706074768818461E+00 a       243     0    13     1     3
 -6.4321529821106029E+00 a       244     0    13     1     4
  4.6019052707533099E+00 a       245     0    13     1     5
 -5.3887747157202686E+00 a       246     0    13     1     6
 -2.9114466902845493E-01 a       247     0    13     1     7
 -6.4564649823883418E+00 a       248     0    13     1     8
 -1.0748406855408132E+00 a       249     0    13     1     9
  6.3128384894383203E+00 a       250     0    13     1    10
  6.2808760228205696E-01 a       251     0    13     1    11
  5.2628271323690408E+00 a       252     0    13     1    12
 -9.6991769684842826E+00 a       253     0    13     1    13
  7.2602898001908667E+00 a       254     0    13     1    14
  5.8980658027915389E+00 a       255     0    13     1    15
 -3.4241587982653718E+00 a       256     0    13     1    16
 -1.1961853532808109E+00 a       257     0    13     1    17
  1.3441066755802562E+00 a       258     0    13     1    18
 -3.7359455580241363E+00 a       259     0    13     1    19
  5.3970302421412777E+00 a       260     0    13     1    20
  1.1558358929041805E+00 a       261     0    14     1     1
 -6.2238736643773662E-02 a       262     0    14     1     2
 -5.9936197478168589E+00 a       263     0    14     1     3
 -1.0731403541265214E+01 a       264     0    14     1     4
  3.2664320228819310E+00 a       265     0    14     1     5
  1.0153715786893018E+01 a       266     0    14     1     6
 -2.5032571111750141E+00 a       267     0    14     1     7
 -6.1910949785201170E+00 a       268     0    14     1     8
  2.3414837911899689E+01 a       269     0    14     1     9
 -2.5546675385300510E+01 a       270     0    14     1    10
 -9.1990732107885531E+00 a       271     0    14     1    11
  4.6919678555868485E+00 a       272     0    14     1    12
 -1.0277922591959117E+01 a       273     0    14     1    13
 -3.9058738201587015E+00 a       274     0    14     1    14
 -1.3767790641059003E+00 a       275     0    14     1    15
 -1.4134061719976122E+01 a       276     0    14     1    16
  6.1519955164298568E-01 a       277     0    14     1    17
 -6.0010533260560495E-01 a       278     0    14     1    18
 -4.5765116801595085E-01 a       279     0    14     1    19
 -1.1223203147041209E+01 a       280     0    14     1    20
  5.8621592138975096E+00 a       281     0    15     1     1
  1.2222702701756554E+00 a       282     0    15     1     2
 -4.4952304459533510E+00 a       283     0    15     1     3
 -1.0829804694888878E+01 a       284     0    15     1     4
 -1.0635280737838135E+01 a       285     0    15     1     5
  2.4603713557270801E+00 a       286     0    15     1     6
  2.5073830044578971E+00 a       287     0    15     1     7
  1.2309416533418582E+00 a       288     0    15     1     8
  2.3894999843663150E+01 a       289     0    15     1     9
 -3.9731777778878580E-01 a       290     0    15     1    10
 -4.6471567263990474E+00 a       291     0    15     1    11
  2.0655914325562943E+00 a       292     0    15     1    12
 -6.6985220662304901E+00 a       293     0    15     1    13
 -1.9545404203320704E+00 a       294     0    15     1    14
 -2.8891232110620817E+00 a       295     0    15     1    15
 -2.9135528644582589E+00 a       296     0    15     1    16
 -3.4911604168959460E+00 a       297     0    15     1    17
  2.5366062649641572E+00 a       298     0    15     1    18
  1.8588333425858983E+00 a       299     0    15     1    19
  8.9054305411929793E+00 a       300     0    15     1    20
 -4.7757118259635911E+00 a       301     0    16     1     1
  2.7360471668528854E+00 a       302     0    16     1     2
  4.6486779172170838E+00 a       303     0    16     1     3
  7.3293531935044509E-01 a       304     0    16     1     4
 -6.1044324634575835E+00 a       305     0    16     1     5
 -5.2420990568654249E+00 a       306     0    16     1     6
  2.7536864500449711E+00 a       307     0    16     1     7
  2.5235831770104729E+00 a       308     0    16     1     8
 -4.2698677968909475E+00 a       309     0    16     1     9
  9.9028877585192365E+00 a       310     0    16     1    10
  5.8128315126156886E+00 a       311     0    16     1    11
  4.1080878739523801E+00 a       312     0    16     1    12
  5.5668440719368606E+00 a       313     0    16     1    13
 -1.1958431744840738E+00 a       314     0    16     1    14
  1.1675478401134105E+00 a       315     0    16     1    15
  2.9445528850714866E+00 a       316     0    16     1    16
  3.0583973400323563E+00 a       317     0    16     1    17
  4.8788664726360897E+00 a       318     0    16     1    18
  5.9844059592597461E+00 a       319     0    16     1    19
  8.2220526475406288E+00 a       320     0    16     1    20
 -2.2565954664776822E+01 a       321     0    17     1     1
 -3.6251491303794845E+00 a       322     0    17     1     2
  1.5533709743296908E+01 a       323     0    17     1     3
 -8.9558305360965882E+00 a       324     0    17     1     4
  2.0335398051765971E+01 a       325     0    17     1     5
  2.2186856768401011E+00 a       326     0    17     1     6
 -7.1001905435393944E+00 a       327     0    17     1     7
  1.7078881602019111E+00 a       328     0    17     1     8
  3.2694166761271575E+01 a       329     0    17     1     9
 -1.8827869116224921E+01 a       330     0    17     1    10
  3.1637976336921596E+01 a       331     0    17     1    11
 -1.0338896152966253E+01 a       332     0    17     1    12
  1.1897383159233971E+01 a       333     0    17     1    13
 -7.6568525322949350E+00 a       334     0    17     1    14
  7.2465247093586438E+00 a       335     0    17     1    15
 -3.7329711629824921E+01 a       336     0    17     1    16
  6.7324618354637948E+00 a       337     0    17     1    17
  5.4635048805718078E+00 a       338     0    17     1    18
 -5.4319746811384224E+00 a       339     0    17     1    19
  2.9768521766417773E+01 a       340     0    17     1    20
  1.1829801710168994E+01 a       341     0    18     1     1
  1.9098664067745275E+01 a       342     0    18     1     2
 -1.9065956655327287E+01 a       343     0    18     1     3
  4.6519553687837103E+00 a       344     0    18     1     4
  3.2998873463020577E+00 a       345     0    18     1     5
  9.3125720381827488E+00 a       346     0    18     1     6
 -6.0741597318021157E+00 a       347     0    18     1     7
 -1.8503326378079738E+01 a       348     0    18     1     8
 -3.0342448289850811E+01 a       349     0    18     1     9
 -1.7477161512791046E+01 a       350     0    18     1    10
  1.6328922635925835E+01 a       351     0    18     1    11
  2.1121871622246363E+01 a       352     0    18     1    12
  6.9723680004092670E-01 a       353     0    18     1    13
  6.4974418254983171E+00 a       354     0    18     1    14
 -2.4598432118133022E+00 a       355     0    18     1    15
  3.2315025333628394E-01 a       356     0    18     1    16
  8.3431814325294233E+00 a       357     0    18     1    17
  1.3622063095928834E+01 a       358     0    18     1    18
  2.1122080028859830E+01 a       359     0    18     1    19
  1.1772943453205089E+01 a       360     0    18     1    20
  1.2132762859685775E+01 a       361     0    19     1     1
 -4.0803599158959356E+00 a       362     0    19     1     2
  1.1465635557942326E+01 a       363     0    19     1     3
 -8.6588393786534077E+00 a       364     0    19     1     4
  1.8487210876362223E+01 a       365     0    19     1     5
  8.4624353887219161E+00 a       366     0    19     1     6
  2.4801228559245512E+01 a       367     0    19     1     7
  1.6222614395401159E+01 a       368     0    19     1     8
 -1.3293397108404900E+01 a       369     0    19     1     9
 -8.6243254775064724E+00 a       370     0    19     1    10
 -1.9186057338305865E+01 a       371     0    19     1    11
 -1.0094873021843039E+01 a       372     0    19     1    12
  2.9239788707726294E+01 a       373     0    19     1    13
 -1.6180836772908041E+01 a       374     0    19     1    14
  3.7920859898488168E+01 a       375     0    19     1    15
 -4.9527219610777022E+00 a       376     0    19     1    16
  5.0280249789963429E+00 a       377     0    19     1    17
 -9.3352582522672858E+00 a       378     0    19     1    18
 -1.1471897037600817E+01 a       379     0    19     1    19
 -2.1760484317028610E+01 a       380     0    19     1    20
  2.4454786778096157E+01 a       381     0    20     1     1
 -8.7853784536198383E+00 a       382     0    20     1     2
 -1.9585097329859598E+00 a       383     0    20     1     3
 -6.6042254630204367E+00 a       384     0    20     1     4
 -3.1500548784318074E+01 a       385     0    20     1     5
 -8.0845565477964279E+00 a       386     0    20     1     6
  1.6468239953876441E+01 a       387     0    20     1     7
 -1.9017968339141060E+01 a       388     0    20     1     8
 -6.5393604339682758E+00 a       389     0    20     1     9
  1.1023615679288659E+01 a       390     0    20     1    10
 -4.7260990672717718E+00 a       391     0    20     1    11
  5.7457401659958975E+00 a       392     0    20     1    12
 -1.8484603163347238E-01 a       393     0    20     1    13
  1.8145767738515541E+00 a       394     0    20     1    14
 -2.1013074132363538E+01 a       395     0    20     1    15
  2.5106552457750052E+01 a       396     0    20     1    16
 -1.6723182331528847E+01 a       397     0    20     1    17
 -1.2487606317175397E+01 a       398     0    20     1    18
  1.0658856395075619E+01 a       399     0    20     1    19
 -3.4247157246256755E+01 a       400     0    20     1    20
 -9.3712501183609642E-01 a       401     0    21     1     1
 -2.0008324132257965E+01 a       402     0    21     1     2
  3.3923991107963275E+01 a       403     0    21     1     3
  1.6700218635294139E+01 a       404     0    21     1     4
 -4.1175512766025015E+00 a       405     0    21     1     5
  1.1001805268203801E+01 a       406     0    21     1     6
 -9.8648717748079040E+00 a       407     0    21     1     7
  5.8903419532060441E+00 a       408     0    21     1     8
  7.4919583046040348E+00 a       409     0    21     1     9
 -4.6166848009516869E+01 a       410     0    21     1    10
 -5.5569926866747421E-01 a       411     0    21     1    11
 -1.6171231563692601E+00 a       412     0    21     1    12
 -1.4979658511874019E+01 a       413     0    21     1    13
  1.1289458779924058E+01 a       414     0    21     1    14
 -5.6417083526186786E+00 a       415     0    21     1    15
 -1.6486540226797938E+01 a       416     0    21     1    16
 -6.0749741802681481E+00 a       417     0    21     1    17
 -2.9669074193785512E+01 a       418     0    21     1    18
 -2.3501967965503891E+01 a       419     0    21     1    19
  9.4668505712443984E+00 a       420     0    21     1    20
 -7.6192352244610833E+00 a       421     0    22     1     1
  6.5017069140849584E+00 a       422     0    22     1     2
 -1.1881204743452415E+01 a       423     0    22     1     3
 -7.1595613607119777E+00 a       424     0    22     1     4
 -2.7093659101727535E+01 a       425     0    22     1     5
 -1.5599806104491035E+01 a       426     0    22     1     6
 -2.8862179017273281E+01 a       427     0    22     1     7
 -8.3331968959658944E+00 a       428     0    22     1     8
  2.2414989707311534E+01 a       429     0    22     1     9
  1.1213840692587260E+01 a       430     0    22     1    10
  4.9951383774881037E+01 a       431     0    22     1    11
  3.1021781858478217E+01 a       432     0    22     1    12
 -2.7386681213422786E+01 a       433     0    22     1    13
  1.2616676728517266E+01 a       434     0    22     1    14
 -3.3376928502052749E+01 a       435     0    22     1    15
  2.2952473791700768E+01 a       436     0    22     1    16
  3.2040977622197326E+00 a       437     0    22     1    17
 -1.0052030200563228E+01 a       438     0    22     1    18
 -1.5270981430399505E+01 a       439     0    22     1    19
 -1.2972612064246176E+00 a       440     0    22     1    20
 -7.4207223860286931E+00 a       441     0    23     1     1
 -3.9469081434113797E+00 a       442     0    23     1     2
  4.3633290607219477E+00 a       443     0    23     1     3
  5.1866171116713300E+00 a       444     0    23     1     4
  8.5832357610944516E+00 a       445     0    23     1     5
  5.0128755429668725E+00 a       446     0    23     1     6
  3.7136223089233651E+00 a       447     0    23     1     7
  3.0261241943185286E+00 a       448     0    23     1     8
 -8.8834717226422679E+00 a       449     0    23     1     9
 -1.0363871093167414E+00 a       450     0    23     1    10
 -1.8176705094195186E-01 a       451     0    23     1    11
 -3.6550719369221638E+00 a       452     0    23     1    12
  2.5726095391413812E+00 a       453     0    23     1    13
  7.3095801068260879E+00 a       454     0    23     1    14
 -1.7446894263264423E+00 a       455     0    23     1    15
  1.2786931960321619E+01 a       456     0    23     1    16
  6.3232534130357596E+00 a       457     0    23     1    17
 -6.2456926721882491E+00 a       458     0    23     1    18
 -8.6576707587543300E+00 a       459     0    23     1    19
 -7.7592549387972127E+00 a       460     0    23     1    20
 -5.1643931815140256E+00 a       461     0    24     1     1
  2.0796020311791654E+00 a       462     0    24     1     2
 -5.1783391455887644E+00 a       463     0    24     1     3
 -6.2844069679512249E-01 a       464     0    24     1     4
 -6.0029905329742741E+00 a       465     0    24     1     5
 -4.0490120149706366E+00 a       466     0    24     1     6
 -8.8989511934398280E+00 a       467     0    24     1     7
 -2.2550438757403244E+00 a       468     0    24     1     8
 -5.1383384700942871E+00 a       469     0    24     1     9
  1.5699524738958528E+01 a       470     0    24     1    10
 -1.3368810109141723E+01 a       471     0    24     1    11
  5.7538532103458966E+00 a       472     0    24     1    12
 -1.6122770893720457E+01 a       473     0    24     1    13
  2.2428955622011584E+00 a       474     0    24     1    14
  6.9059296105979620E+00 a       475     0    24     1    15
  5.4683889066643743E-01 a       476     0    24     1    16
 -5.6659882620277635E+00 a       477     0    24     1    17
  6.2986736280442530E+00 a       478     0    24     1    18
  2.1161313327898279E+00 a       479     0    24     1    19
  2.9130769817040782E+00 a       480     0    24     1    20
  9.5366067775378678E+00 a       481     0    25     1     1
 -1.3775176080429492E+01 a       482     0    25     1     2
 -2.8806831372165203E+00 a       483     0    25     1     3
 -1.0336185485245098E+01 a       484     0    25     1     4
 -5.1201574719324965E+00 a       485     0    25     1     5
  3.3469653267891646E+00 a       486     0    25     1     6
  1.9605604375354190E+01 a       487     0    25     1     7
  4.8351051160161092E+00 a       488     0    25     1     8
  3.4994116377241177E+01 a       489     0    25     1     9
 -3.0075807296912718E+00 a       490     0    25     1    10
 -9.5343990600396147E+00 a       491     0    25     1    11
  7.0841980904161739E+00 a       492     0    25     1    12
 -4.3045424815120246E+00 a       493     0    25     1    13
  7.7852837108823838E+00 a       494     0    25     1    14
  5.4419218756563490E+00 a       495     0    25     1    15
  7.3579579398168020E+00 a       496     0    25     1    16
  1.4664786313817082E+01 a       497     0    25     1    17
  2.3437516750962395E+00 a       498     0    25     1    18
 -4.5777311270211563E+00 a       499     0    25     1    19
  1.9984941949736776E+00 a       500     0    25     1    20
 -1.8037920013662543E+01 a       501     0    26     1     1
  2.7961307108071285E+00 a       502     0    26     1     2
  2.3992749144292480E+00 a       503     0    26     1     3
  3.2753014951408024E+00 a       504     0    26     1     4
  4.0738513695089713E+00 a       505     0    26     1     5
  6.5560407216461867E+00 a       506     0    26     1     6
  6.1006774157368293E-01 a       507     0    26     1     7
  1.7495273767276959E+01 a       508     0    26     1     8
 -4.1435753516323687E-01 a       509     0    26     1     9
  1.0721301023175609E+01 a       510     0    26     1    10
  1.1026867644292837E+01 a       511     0    26     1    11
  1.3115322914828074E+00 a       512     0    26     1    12
  1.1643025826527134E+01 a       513     0    26     1    13
 -5.2716540087897190E-01 a       514     0    26     1    14
 -7.3614393174381421E-01 a       515     0    26     1    15
 -2.1172800929670156E+01 a       516     0    26     1    16
  1.6869948851241553E+01 a       517     0    26     1    17
  5.3472272211853786E+00 a       518     0    26     1    18
 -4.1295996810956046E+00 a       519     0    26     1    19
  9.0023345397782109E+00 a       520     0    26     1    20
 -1.6576921321122388E+01 a       521     0    27     1     1
  2.2762488436777623E+01 a       522     0    27     1     2
 -2.9147807544264559E+01 a       523     0    27     1     3
 -2.0432669190214291E+01 a       524     0    27     1     4
  2.9272614358917565E+01 a       525     0    27     1     5
 -2.3800798108224967E+01 a       526     0    27     1     6
  9.5548290253479138E+00 a       527     0    27     1     7
 -6.0650060942343984E+00 a       528     0    27     1     8
  6.6921996054783428E-01 a       529     0    27     1     9
  7.9401374970526559E+00 a       530     0    27     1    10
 -6.5640475605257631E+00 a       531     0    27     1    11
 -2.5186156638321709E+01 a       532     0    27     1    12
 -8.3785329475983961E+00 a       533     0    27     1    13
 -1.9138322809624899E+01 a       534     0    27     1    14
  8.4758312497319039E+00 a       535     0    27     1    15
  7.6862126708957943E+00 a       536     0    27     1    16
 -9.1664624181811529E+00 a       537     0    27     1    17
  1.9486967846847140E+01 a       538     0    27     1    18
  1.2452599792259662E+01 a       539     0    27     1    19
  6.3781467064726849E+00 a       540     0    27     1    20
 -1.3436548584218450E+01 a       541     0    28     1     1
 -1.3799368485236991E+01 a       542     0    28     1     2
  6.5163736727843462E+00 a       543     0    28     1     3
  1.1640607458206722E+01 a       544     0    28     1     4
  2.4996532990335871E+00 a       545     0    28     1     5
  6.4485209101978391E+00 a       546     0    28     1     6
  1.1846765969088086E+01 a       547     0    28     1     7
 -2.9302198145928218E+00 a       548     0    28     1     8
  6.9461379174272642E+00 a       549     0    28     1     9
  1.3328579176153701E+01 a       550     0    28     1    10
 -2.9959830734943750E+01 a       551     0    28     1    11
 -1.8924426706756076E+01 a       552     0    28     1    12
  2.5063779581771694E+01 a       553     0    28     1    13
 -9.4842678469671906E+00 a       554     0    28     1    14
  1.9991743861847400E+01 a       555     0    28     1    15
 -4.1583132505771164E-01 a       556     0    28     1    16
  2.5287017511284104E+00 a       557     0    28     1    17
  3.7824276257474456E+00 a       558     0    28     1    18
  8.8640120708315866E+00 a       559     0    28     1    19
 -4.8709107742672497E+00 a       560     0    28     1    20
  4.2801813741557142E+00 a       561     0    29     1     1
 -1.5794562114889020E+01 a       562     0    29     1     2
  6.7270179698567203E+00 a       563     0    29     1     3
  2.1417373764977860E+01 a       564     0    29     1     4
  1.6257293626235757E+01 a       565     0    29     1     5
 -8.3389152369067432E+00 a       566     0    29     1     6
  1.8503882464167493E+01 a       567     0    29     1     7
  1.7308434690538419E+00 a       568     0    29     1     8
  2.7444275986739381E+01 a       569     0    29     1     9
 -1.3678212414271036E+01 a       570     0    29     1    10
  3.0018815692708523E+00 a       571     0    29     1    11
  9.9879852745867304E+00 a       572     0    29     1    12
  5.1929742512752057E-02 a       573     0    29     1    13
  2.5036497242513125E+01 a       574     0    29     1    14
  7.6732178709802064E+00 a       575     0    29     1    15
  1.5848122948556329E+01 a       576     0    29     1    16
  9.4892136466089259E+00 a       577     0    29     1    17
 -2.5475137935048558E+01 a       578     0    29     1    18
  1.2919400069849925E+01 a       579     0    29     1    19
 -9.1028682690294538E+00 a       580     0    29     1    20
  1.9944396520614074E+01 a       581     0    30     1     1
 -2.2160436845105576E+01 a       582     0    30     1     2
 -2.6773298052724435E+01 a       583     0    30     1     3
  8.0046424917997605E+00 a       584     0    30     1     4
  7.5264718276188924E+00 a       585     0    30     1     5
  8.0091591060912517E+00 a       586     0    30     1     6
  4.7083174997232097E-01 a       587     0    30     1     7
  1.8010290870287687E+01 a       588     0    30     1     8
  1.0362318126679471E+01 a       589     0    30     1     9
  1.4021702072428053E+00 a       590     0    30     1    10
  1.8373730356218212E+00 a       591     0    30     1    11
  7.2910530457733447E-01 a       592     0    30     1    12
 -3.2940886336386022E+01 a       593     0    30     1    13
 -5.7994796806033548E+00 a       594     0    30     1    14
  9.2458806611531159E+00 a       595     0    30     1    15
  2.1101622486022940E+01 a       596     0    30     1    16
  2.2633248152720822E+00 a       597     0    30     1    17
 -3.3995344476352187E+00 a       598     0    30     1    18
  1.3265595889315788E+01 a       599     0    30     1    19
 -1.7018229443016142E+00 a       600     0    30     1    20
  1.2796555907156389E+01 a       601     0    31     1     1
  8.9618254428310404E+00 a       602     0    31     1     2
  1.7469139866709039E+01 a       603     0    31     1     3
  1.3043245424940876E+01 a       604     0    31     1     4
  3.0838760235124223E+01 a       605     0    31     1     5
 -9.1318671541462582E+00 a       606     0    31     1     6
  2.2500691913803266E+01 a       607     0    31     1     7
 -3.3358777373604688E+01 a       608     0    31     1     8
 -9.2700259069300461E-01 a       609     0    31     1     9
  2.4716441826787182E+01 a       610     0    31     1    10
 -2.7157435250892387E-01 a       611     0    31     1    11
 -5.9208671350544515E+00 a       612     0    31     1    12
  1.4344586239828470E+01 a       613     0    31     1    13
  1.4933771978421618E+01 a       614     0    31     1    14
 -3.0380838507445581E+01 a       615     0    31     1    15
 -1.6073575493488018E+01 a       616     0    31     1    16
 -1.1877434363592603E+00 a       617     0    31     1    17
  1.2399501547846719E+00 a       618     0    31     1    18
  3.7384118261569217E+00 a       619     0    31     1    19
  3.9063234805488327E+00 a       620     0    31     1    20
 -1.9285545708908209E+01 a       621     0    32     1     1
  1.2127240083948751E+01 a       622     0    32     1     2
 -2.1495683854837864E+01 a       623     0    32     1     3
 -3.4337341839767404E+00 a       624     0    32     1     4
 -1.3362360786613744E+01 a       625     0    32     1     5
  2.6296230484263718E+00 a       626     0    32     1     6
 -3.3942572129452792E+01 a       627     0    32     1     7
 -1.0840020123311336E-01 a       628     0    32     1     8
 -2.7485660977618771E+01 a       629     0    32     1     9
 -1.1302244099025092E+01 a       630     0    32     1    10
 -3.3082189530209702E+00 a       631     0    32     1    11
  5.3516716915795861E+00 a       632     0    32     1    12
 -4.5893803032003193E+00 a       633     0    32     1    13
 -1.8348713553795253E+01 a       634     0    32     1    14
  6.1340473302575271E-01 a       635     0    32     1    15
 -5.0374873010145516E+00 a       636     0    32     1    16
 -1.0661264290782372E+01 a       637     0    32     1    17
  2.0352551544084786E+01 a       638     0    32     1    18
 -1.6398529998747158E+01 a       639     0    32     1    19
  1.0816027533160804E+01 a       640     0    32     1    20
  7.1517775642946413E+00 a       641     0    33     1     1
  1.2570942641706978E+01 a       642     0    33     1     2
  4.7760845539455152E+00 a       643     0    33     1     3
  5.0195342613257834E+00 a       644     0    33     1     4
 -2.1307431021611418E+01 a       645     0    33     1     5
 -5.2435156402903322E+00 a       646     0    33     1     6
 -3.1858300987796793E+00 a       647     0    33     1     7
  1.7363610843420222E+01 a       648     0    33     1     8
  6.4813697892020858E+00 a       649     0    33     1     9
  1.5289305223055470E+01 a       650     0    33     1    10
 -2.3961937130618292E+01 a       651     0    33     1    11
  2.0104867646868435E-01 a       652     0    33     1    12
  3.5443083884639378E+01 a       653     0    33     1    13
  2.0557228779020075E+01 a       654     0    33     1    14
 -3.0272019401086983E+00 a       655     0    33     1    15
  2.2699166994090896E+00 a       656     0    33     1    16
 -1.9688666413932101E+01 a       657     0    33     1    17
  1.5061025272790824E+01 a       658     0    33     1    18
 -1.6357398643247990E+01 a       659     0    33     1    19
 -1.3983251682728024E+01 a       660     0    33     1    20
 -2.1983122895671517E+01 a       661     0    34     1     1
 -1.5212679937870941E+01 a       662     0    34     1     2
  1.4462701833468556E+00 a       663     0    34     1     3
 -3.9398352401848289E+00 a       664     0    34     1     4
 -1.7606034004033614E+01 a       665     0    34     1     5
  1.8257784676505933E+00 a       666     0    34     1     6
 -1.1649072586813025E+01 a       667     0    34     1     7
  1.8541499964460584E+01 a       668     0    34     1     8
  6.3362430733677373E+00 a       669     0    34     1     9
 -3.0569547533957957E+00 a       670     0    34     1    10
 -9.2319304599939116E+00 a       671     0    34     1    11
 -9.4039120451023148E+00 a       672     0    34     1    12
 -1.7726438876314454E+01 a       673     0    34     1    13
 -1.9222210728462787E+01 a       674     0    34     1    14
  1.6680495641897092E+01 a       675     0    34     1    15
 -1.6451658066051595E+00 a       676     0    34     1    16
  7.4674851643738718E+00 a       677     0    34     1    17
  1.6570989373721261E+01 a       678     0    34     1    18
  7.2810264097626964E+00 a       679     0    34     1    19
 -7.1788294657534788E+00 a       680     0    34     1    20
  1.0375739874612739E+01 a       681     0    35     1     1
 -3.3703729435703789E+00 a       682     0    35     1     2
 -6.8142655391077813E+00 a       683     0    35     1     3
 -4.9307495855557537E+00 a       684     0    35     1     4
 -8.4721654707862548E+00 a       685     0    35     1     5
 -6.4237670762348031E+00 a       686     0    35     1     6
 -2.5679879678269724E+00 a       687     0    35     1     7
  3.0353915701692884E+00 a       688     0    35     1     8
  1.6668451608122954E+01 a       689     0    35     1     9
  1.8998711584496599E+00 a       690     0    35     1    10
  6.2090131890661873E+00 a       691     0    35     1    11
  5.0430597465732774E-01 a       692     0    35     1    12
 -2.9348285756861370E+00 a       693     0    35     1    13
 -6.4855606834040040E+00 a       694     0    35     1    14
 -2.8368750700357084E+00 a       695     0    35     1    15
 -2.9425227507343119E+00 a       696     0    35     1    16
 -4.6230118643935834E+00 a       697     0    35     1    17
  2.9141359936331366E+00 a       698     0    35     1    18
  3.5479586414131923E+00 a       699     0    35     1    19
  5.4125778336173902E-01 a       700     0    35     1    20
  6.4674523227984029E+00 a       701     0    36     1     1
 -1.4405702559637024E+00 a       702     0    36     1     2
 -4.3784519535717514E+00 a       703     0    36     1     3
  2.6861068327761823E+00 a       704     0    36     1     4
 -1.1269023724788456E+00 a       705     0    36     1     5
  3.4019964852905491E+00 a       706     0    36     1     6
  1.1433228739084504E+01 a       707     0    36     1     7
  8.2057093226899314E-01 a       708     0    36     1     8
  1.3093807033617216E+01 a       709     0    36     1     9
 -9.5255794187236429E+00 a       710     0    36     1    10
  7.5392401542914831E+00 a       711     0    36     1    11
  6.6776408360657111E+00 a       712     0    36     1    12
  7.4235430413396335E+00 a       713     0    36     1    13
  9.9042278348732926E-01 a       714     0    36     1    14
 -1.0439349836565295E+01 a       715     0    36     1    15
 -5.9357472411134866E+00 a       716     0    36     1    16
  3.4816802018934268E+00 a       717     0    36     1    17
 -3.8189825813802227E+00 a       718     0    36     1    18
  8.6614572748234480E+00 a       719     0    36     1    19
 -2.1205699835027216E+00 a       720     0    36     1    20
 -2.2216873988795836E+01 a       721     0    37     1     1
  7.6024687290233928E+00 a       722     0    37     1     2
  1.5643169487781829E+00 a       723     0    37     1     3
  1.2443261426088405E+01 a       724     0    37     1     4
 -1.8670909189278380E+01 a       725     0    37     1     5
 -1.1212216440162393E+01 a       726     0    37     1     6
 -2.8140304473069911E+01 a       727     0    37     1     7
 -2.0945082044529236E+01 a       728     0    37     1     8
 -1.5321785036542839E+00 a       729     0    37     1     9
  1.5284097188350307E+00 a       730     0    37     1    10
  2.4663291220949379E+01 a       731     0    37     1    11
  2.0782120996072280E+00 a       732     0    37     1    12
 -1.7628132132539771E+00 a       733     0    37     1    13
 -9.3587739219031434E+00 a       734     0    37     1    14
  3.7658294434069206E+00 a       735     0    37     1    15
 -6.9299281379951108E+00 a       736     0    37     1    16
 -1.1167053094648530E+01 a       737     0    37     1    17
  3.7475966549810393E+00 a       738     0    37     1    18
 -3.3927511340322758E-01 a       739     0    37     1    19
  5.8950298318235816E+00 a       740     0    37     1    20
  6.1119998985997119E+00 a       741     0    38     1     1
 -1.2259433311732673E+01 a       742     0    38     1     2
  1.5053036597733472E+01 a       743     0    38     1     3
 -5.0866491835972090E+00 a       744     0    38     1     4
 -1.6857483606413588E+01 a       745     0    38     1     5
 -2.7318662849731279E+00 a       746     0    38     1     6
 -6.6940662443132692E-01 a       747     0    38     1     7
 -1.3520941286673470E+01 a       748     0    38     1     8
 -4.4803444365762019E+01 a       749     0    38     1     9
  2.2338474329087322E+01 a       750     0    38     1    10
  3.4640463906796661E+00 a       751     0    38     1    11
 -1.8862029308875329E+01 a       752     0    38     1    12
  2.8485044764512626E+00 a       753     0    38     1    13
  1.0180294015739761E+01 a       754     0    38     1    14
  2.4295749008236296E+00 a       755     0    38     1    15
 -1.2391019092195481E+00 a       756     0    38     1    16
  8.7253800658622609E+00 a       757     0    38     1    17
 -1.1654914851464810E+01 a       758     0    38     1    18
  3.2377081784781354E+00 a       759     0    38     1    19
 -3.1357343516864509E+00 a       760     0    38     1    20
  1.6896480959274317E+01 a       761     0    39     1     1
 -8.0699891670187469E+00 a       762     0    39     1     2
 -5.3442402384253884E-01 a       763     0    39     1     3
 -5.3415997969935187E+00 a       764     0    39     1     4
  5.0203265172387868E+00 a       765     0    39     1     5
  5.4685126777548270E+00 a       766     0    39     1     6
  4.2662498456161426E+00 a       767     0    39     1     7
 -5.3511286853068523E+00 a       768     0    39     1     8
  6.1827004567820742E-01 a       769     0    39     1     9
 -6.2748903223154455E+00 a       770     0    39     1    10
  8.9775655669522809E+00 a       771     0    39     1    11
  1.6556506515755565E+01 a       772     0    39     1    12
 -1.6430319678678227E+01 a       773     0    39     1    13
 -3.3428068964878559E+00 a       774     0    39     1    14
 -4.3491448875511622E+00 a       775     0    39     1    15
  9.1505317427246542E+00 a       776     0    39     1    16
  6.1936162607104706E+00 a       777     0    39     1    17
 -4.3760509105691927E+00 a       778     0    39     1    18
  1.3354722767057217E+01 a       779     0    39     1    19
 -1.2171972527381755E+01 a       780     0    39     1    20
  2.4353784574884365E+01 a       781     0    40     1     1
  2.6352187200389579E+01 a       782     0    40     1     2
  8.5704596392320198E+00 a       783     0    40     1     3
  5.5446193372150567E+00 a       784     0    40     1     4
  2.6842385292000991E+01 a       785     0    40     1     5
  9.6434201690236687E+00 a       786     0    40     1     6
  7.5827226704618438E+00 a       787     0    40     1     7
 -1.3333023221070667E+01 a       788     0    40     1     8
 -2.0966360987234584E+01 a       789     0    40     1     9
 -7.7515076766009479E+00 a       790     0    40     1    10
 -4.3469941858936689E+00 a       791     0    40     1    11
  5.3536490927337184E+00 a       792     0    40     1    12
  3.9484488774216442E+00 a       793     0    40     1    13
  6.0978679847466355E-02 a       794     0    40     1    14
 -3.3735868039553139E+00 a       795     0    40     1    15
  2.1708624976083462E+00 a       796     0    40     1    16
 -1.6365036222651950E+00 a       797     0    40     1    17
 -1.3717839990093070E+01 a       798     0    40     1    18
 -9.6266633144416858E+00 a       799     0    40     1    19
  2.7918701266183817E+01 a       800     0    40     1    20
  1.8890371453367987E+00 b       801     1     1
  1.9502729235221237E+00 b       802     1     2
  1.1549290669309049E+00 b       803     1     3
 -1.7426919977215263E-01 b       804     1     4
 -2.4143088591824302E+00 b       805     1     5
  2.4828738352740887E-01 b       806     1     6
 -6.4846963373846056E-01 b       807     1     7
  5.2981480851729712E-01 b       808     1     8
 -1.1939378500639986E+01 b       809     1     9
 -1.9690794240619676E+00 b       810     1    10
 -1.2240337367858836E+00 b       811     1    11
 -3.3118938805215126E+00 b       812     1    12
  7.4141106840042037E-01 b       813     1    13
  2.4391233879682730E+00 b       814     1    14
  3.2195878190414819E+00 b       815     1    15
 -9.3460264491130440E-01 b       816     1    16
  4.0136263666293953E-01 b       817     1    17
 -3.3997838716753874E-02 b       818     1    18
 -7.2482988932030323E-01 b       819     1    19
  2.0319606661912190E-01 b       820     1    20
  4.6126496648261659E+00 a       821     1     1     2     1
 -3.6675106420074992E+00 a       822     1     1     2     2
  4.1463616504352077E+00 a       823     1     1     2     3
 -1.9676315105057057E-01 a       824     1     1     2     4
  6.2743730531455211E-01 a       825     1     1     2     5
 -6.0898280065346162E+00 a       826     1     1     2     6
  1.5426858785875339E-01 a       827     1     1     2     7
  4.8658388465727080E+00 a       828     1     1     2     8
  1.1151018428794555E+00 a       829     1     1     2     9
  6.3438072157483356E+00 a       830     1     1     2    10
 -8.9518551907221120E+00 a       831     1     1     2    11
  5.6443689942717565E+00 a       832     1     1     2    12
 -1.0509654897507703E+01 a       833     1     1     2    13
 -7.2489104289274451E+00 a       834     1     1     2    14
 -8.3324516488143618E-01 a       835     1     1     2    15
  1.5577475253627311E+00 a       836     1     1     2    16
 -8.0729619325325130E-02 a       837     1     1     2    17
  1.7086918743134800E+00 a       838     1     1     2    18
  4.3393948855449321E-01 a       839     1     1     2    19
 -3.7036122636316469E+00 a       840     1     1     2    20
 -9.0977351888275688E+00 a       841     1     2     2     1
 -7.5215222357598499E+00 a       842     1     2     2     2
  1.5028570659189031E+00 a       843     1     2     2     3
 -4.8254174713051263E+00 a       844     1     2     2     4
 -7.8926769205644849E+00 a       845     1     2     2     5
  3.2356421480990387E+00 a       846     1     2     2     6
  2.7893885416337327E-01 a       847     1     2     2     7
  1.4064004406262769E+00 a       848     1     2     2     8
 -3.5709941602530282E-01 a       849     1     2     2     9
  1.3604794094255139E+00 a       850     1     2     2    10
  4.4993043753314571E-01 a       851     1     2     2    11
 -3.5396727812456148E+00 a       852     1     2     2    12
 -4.5608778428686421E+00 a       853     1     2     2    13
  1.8956823517143212E-01 a       854     1     2     2    14
  1.5986938960292203E+00 a       855     1     2     2    15
 -3.0450419299658082E+00 a       856     1     2     2    16
 -9.3663388431574113E-01 a       857     1     2     2    17
 -2.2482726146195038E+00 a       858     1     2     2    18
  1.4084591977324519E+00 a       859     1     2     2    19
  3.9360024581411651E-01 a       860     1     2     2    20
 -2.2386415419176995E+00 a       861     1     3     2     1
  2.2595714179823121E+00 a       862     1     3     2     2
 -2.6189408348074048E+00 a       863     1     3     2     3
 -2.4647052161048508E+00 a       864     1     3     2     4
 -1.9422170071221265E+00 a       865     1     3     2     5
  4.3729569251296532E+00 a       866     1     3     2     6
  6.6576407973652563E+00 a       867     1     3     2     7
  1.0121888964864629E+01 a       868     1     3     2     8
  3.2249717959896693E+00 a       869     1     3     2     9
 -2.0797200119573556E+00 a       870     1     3     2    10
  2.8251409702975701E+00 a       871     1     3     2    11
 -1.2297219144490096E+01 a       872     1     3     2    12
 -5.8545890999415748E+00 a       873     1     3     2    13
  1.0514549413041820E+00 a       874     1     3     2    14
  3.0744028096271658E+00 a       875     1     3     2    15
 -5.3842093201330166E-01 a       876     1     3     2    16
  3.1505479510518182E+00 a       877     1     3     2    17
  1.2620652331061659E+00 a       878     1     3     2    18
  1.0403320128151745E+00 a       879     1     3     2    19
 -5.5138142577065805E+00 a       880     1     3     2    20
  1.6363638302659604E+00 a       881     1     4     2     1
  4.3674985597017713E-02 a       882     1     4     2     2
 -7.4744377162457134E+00 a       883     1     4     2     3
  2.3412935417032394E+00 a       884     1     4     2     4
 -2.5089538418270596E+00 a       885     1     4     2     5
  6.4363228297465467E+00 a       886     1     4     2     6
 -2.9632071639452033E+00 a       887     1     4     2     7
 -2.9757741275041836E+00 a       888     1     4     2     8
 -1.0476167826519143E+00 a       889     1     4     2     9
  5.8306628708967221E+00 a       890     1     4     2    10
 -1.6439756555292726E-01 a       891     1     4     2    11
  8.3240580753608810E+00 a       892     1     4     2    12
  3.9859323685848245E+00 a       893     1     4     2    13
 -4.2701933951304456E+00 a       894     1     4     2    14
  3.1147482318071257E-01 a       895     1     4     2    15
 -7.5573346732290849E+00 a       896     1     4     2    16
 -4.1812087896524632E+00 a       897     1     4     2    17
  4.4262674142909848E+00 a       898     1     4     2    18
 -9.1796931215996205E-02 a       899     1     4     2    19
  1.2817675718941777E+00 a       900     1     4     2    20
  6.0036338599995123E+00 a       901     1     5     2     1
 -1.5101834263601230E+00 a       902     1     5     2     2
 -1.6630155374292619E+00 a       903     1     5     2     3
  1.5108909612469912E-01 a       904     1     5     2     4
  2.2055059903500789E+00 a       905     1     5     2     5
  3.2228508077706786E+00 a       906     1     5     2     6
  2.7774899510831492E+00 a       907     1     5     2     7
  8.0607027459726996E+00 a       908     1     5     2     8
 -2.1175034886259807E+00 a       909     1     5     2     9
  4.5326485337706641E+00 a       910     1     5     2    10
  4.1042899628420884E+00 a       911     1     5     2    11
  2.3896176921298973E+00 a       912     1     5     2    12
 -9.0630486241138841E-02 a       913     1     5     2    13
 -4.5232647383433253E+00 a       914     1     5     2    14
 -1.6793765609188431E+00 a       915     1     5     2    15
 -1.4640857188643176E+01 a       916     1     5     2    16
 -3.1138909178277259E+00 a       917     1     5     2    17
 -2.0521022316689908E-01 a       918     1     5     2    18
  5.9541531011666038E-01 a       919     1     5     2    19
  1.2851065518946461E+00 a       920     1     5     2    20
  1.5210905668563292E+01 a       921     1     6     2     1
  2.3130008406458979E+00 a       922     1     6     2     2
 -4.1406033186433175E+00 a       923     1     6     2     3
  1.0476476572787874E+01 a       924     1     6     2     4
 -4.5079794276772116E+00 a       925     1     6     2     5
 -2.9688288481526232E-01 a       926     1     6     2     6
  1.1769835275286791E+00 a       927     1     6     2     7
  2.1238676552511229E+00 a       928     1     6     2     8
 -4.2638635010822048E+00 a       929     1     6     2     9
  7.8245356709239200E+00 a       930     1     6     2    10
 -2.7853921603348546E+00 a       931     1     6     2    11
 -1.2357055558503399E+01 a       932     1     6     2    12
  6.7875273861486640E+00 a       933     1     6     2    13
 -1.7687634529135962E-01 a       934     1     6     2    14
  2.6114993036969709E+00 a       935     1     6     2    15
 -2.2634858978302841E+00 a       936     1     6     2    16
  7.8981123976156822E-02 a       937     1     6     2    17
  5.0770478900352556E+00 a       938     1     6     2    18
 -2.5684870687922277E+00 a       939     1     6     2    19
  7.9217656709533124E-01 a       940     1     6     2    20
 -1.0996544761770924E+01 a       941     1     7     2     1
  2.0069674935468482E+00 a       942     1     7     2     2
 -1.3297926569144460E+00 a       943     1     7     2     3
 -2.1680491851972068E+00 a       944     1     7     2     4
 -1.6339172182186101E+00 a       945     1     7     2     5
  2.5174613242207813E+00 a       946     1     7     2     6
  8.4309661819005843E-01 a       947     1     7     2     7
  1.9080223263881404E+00 a       948     1     7     2     8
  4.9860529468992070E-03 a       949     1     7     2     9
  1.3858195454369255E+01 a       950     1     7     2    10
  2.7631704827566432E+00 a       951     1     7     2    11
  4.7781358049092173E+00 a       952     1     7     2    12
 -6.3019951608975973E+00 a       953     1     7     2    13
 -9.4529724535533682E-02 a       954     1     7     2    14
  2.3029972994268384E+00 a       955     1     7     2    15
  1.1100443853969151E+00 a       956     1     7     2    16
  1.6038886341169585E+00 a       957     1     7     2    17
 -7.5113867098549003E-01 a       958     1     7     2    18
 -1.2027654574322224E+00 a       959     1     7     2    19
 -3.4381256120677053E+00 a       960     1     7     2    20
 -1.0862852485664045E+00 a       961     1     8     2     1
 -2.6532089889691046E+00 a       962     1     8     2     2
  2.9500770790222011E+00 a       963     1     8     2     3
  7.6617255456660969E+00 a       964     1     8     2     4
 -7.0521595823401909E-02 a       965     1     8     2     5
 -4.4512574622397266E-01 a       966     1     8     2     6
  2.6922387049303458E+00 a       967     1     8     2     7
 -6.1499086204863902E+00 a       968     1     8     2     8
  5.6664445743960079E-01 a       969     1     8     2     9
  6.7165374388312760E+00 a       970     1     8     2    10
 -4.0802720736576399E+00 a       971     1     8     2    11
 -1.7050988632317159E+00 a       972     1     8     2    12
  2.4522673864009716E+00 a       973     1     8     2    13
 -1.7275145895025854E-01 a       974     1     8     2    14
 -4.5615384144026079E+00 a       975     1     8     2    15
 -9.6562180549256016E-01 a       976     1     8     2    16
 -3.0078545097248335E+00 a       977     1     8     2    17
 -2.2647476400504885E+00 a       978     1     8     2    18
  1.0680805830590883E+00 a       979     1     8     2    19
 -2.3338295128805617E+00 a       980     1     8     2    20
 -1.2985731775573694E+01 a       981     1     9     2     1
 -1.5217820405716553E+01 a       982     1     9     2     2
  1.1958411134967609E+01 a       983     1     9     2     3
 -8.7355341527404597E+00 a       984     1     9     2     4
  2.0586986126780205E+00 a       985     1     9     2     5
  8.9261901110147668E-01 a       986     1     9     2     6
  7.3890169946323914E-01 a       987     1     9     2     7
 -5.5797976452052893E+00 a       988     1     9     2     8
  1.0509799933325252E-01 a       989     1     9     2     9
 -7.4072974667457359E-01 a       990     1     9     2    10
 -3.3832427419106996E+00 a       991     1     9     2    11
 -1.2591058922772838E+00 a       992     1     9     2    12
 -1.6182033143284258E+01 a       993     1     9     2    13
  3.4001018992718888E+00 a       994     1     9     2    14
 -3.7467511625372421E+00 a       995     1     9     2    15
  2.1721718922402982E+01 a       996     1     9     2    16
 -1.6006273169091596E+00 a       997     1     9     2    17
 -9.1738315605813998E+00 a       998     1     9     2    18
  1.0877665229964200E+00 a       999     1     9     2    19
  5.1816677032699294E+00 a      1000     1     9     2    20
 -3.6236691310295992E-02 a      1001     1    10     2     1
  3.4850923282043498E+00 a      1002     1    10     2     2
  1.2273900547758281E+00 a      1003     1    10     2     3
  5.1605611333366799E+00 a      1004     1    10     2     4
  3.8735432288505756E+00 a      1005     1    10     2     5
  3.2982655985170686E+00 a      1006     1    10     2     6
 -7.1908318166011322E-03 a      1007     1    10     2     7
  6.7884667569170718E+00 a      1008     1    10     2     8
  4.6633959894727772E-01 a      1009     1    10     2     9
  5.7168971287072567E+00 a      1010     1    10     2    10
  7.8882791373286016E+00 a      1011     1    10     2    11
  1.5968189346203765E+01 a      1012     1    10     2    12
 -5.6266572558581984E-01 a      1013     1    10     2    13
 -3.5628302653527316E-01 a      1014     1    10     2    14
 -1.0825817282828140E+01 a      1015     1    10     2    15
 -5.2930519930292137E+00 a      1016     1    10     2    16
 -1.4413229873506883E+00 a      1017     1    10     2    17
 -5.5208095467208960E+00 a      1018     1    10     2    18
 -1.1920572043966486E-02 a      1019     1    10     2    19
 -4.7310755494883079E+00 a      1020     1    10     2    20
 -5.7403614518584085E+00 a      1021     1    11     2     1
 -5.2618244847647011E+00 a      1022     1    11     2     2
  3.0669697036363623E+00 a      1023     1    11     2     3
 -2.6389659854622058E+00 a      1024     1    11     2     4
 -1.0751733629072227E+00 a      1025     1    11     2     5
  3.5103420856534284E+00 a      1026     1    11     2     6
 -3.8193795528245761E-01 a      1027     1    11     2     7
 -3.0243796629527440E+00 a      1028     1    11     2     8
  3.7622162155500405E-01 a      1029     1    11     2     9
  3.6844113335054840E+00 a      1030     1    11     2    10
  3.7007680627264441E+00 a      1031     1    11     2    11
  5.5765971283273430E+00 a      1032     1    11     2    12
 -8.5726730795002459E-01 a      1033     1    11     2    13
  2.4920072424922100E+00 a      1034     1    11     2    14
 -6.1699735707743173E+00 a      1035     1    11     2    15
 -4.4917935514561469E+00 a      1036     1    11     2    16
 -1.4966044073605100E+00 a      1037     1    11     2    17
 -2.9047112094596952E+00 a      1038     1    11     2    18
  3.6827619118883986E-01 a      1039     1    11     2    19
 -1.8018402070877892E+00 a      1040     1    11     2    20
  7.8542462670436974E-01 a      1041     1    12     2     1
  1.8173014337298394E+00 a      1042     1    12     2     2
 -5.6239210833633653E+00 a      1043     1    12     2     3
  7.9815873997850595E+00 a      1044     1    12     2     4
 -1.9165929138217026E+00 a      1045     1    12     2     5
  3.7268281756427615E+00 a      1046     1    12     2     6
 -1.7477819101452696E+00 a      1047     1    12     2     7
  2.2574737201523298E+00 a      1048     1    12     2     8
 -6.2652352557564339E-01 a      1049     1    12     2     9
  4.2741128842375389E+00 a      1050     1    12     2    10
 -3.8189670546139931E+00 a      1051     1    12     2    11
 -2.3777013839549220E+01 a      1052     1    12     2    12
  4.9152503005199089E+00 a      1053     1    12     2    13
  3.0078069982253410E+00 a      1054     1    12     2    14
  5.3855284063222006E+00 a      1055     1    12     2    15
 -1.9140802408526119E+00 a      1056     1    12     2    16
  3.6613960059048387E+00 a      1057     1    12     2    17
  3.0603235772450130E+00 a      1058     1    12     2    18
 -1.8665390896332743E-01 a      1059     1    12     2    19
 -6.3366317640357339E+00 a      1060     1    12     2    20
  2.9480251725813198E+00 a      1061     1    13     2     1
 -6.2927597341506214E-01 a      1062     1    13     2     2
 -7.5664351852011151E+00 a      1063     1    13     2     3
  4.0087096636493085E+00 a      1064     1    13     2     4
  3.9956189646052804E+00 a      1065     1    13     2     5
 -5.4141372929624643E+00 a      1066     1    13     2     6
  3.5968701257520834E+00 a      1067     1    13     2     7
  8.3492869562844829E-01 a      1068     1    13     2     8
 -7.8777547284379548E+00 a      1069     1    13     2     9
 -3.9484955288450013E-01 a      1070     1    13     2    10
 -9.5468776831455204E-01 a      1071     1    13     2    11
  8.5980327979807534E+00 a      1072     1    13     2    12
 -2.7688932858401798E+00 a      1073     1    13     2    13
 -2.6192383866313791E+00 a      1074     1    13     2    14
  7.3862954128645812E+00 a      1075     1    13     2    15
  1.6237928601369647E+00 a      1076     1    13     2    16
 -9.0295000724727466E+00 a      1077     1    13     2    17
 -6.0407969093817417E+00 a      1078     1    13     2    18
 -4.7961174356770908E-01 a      1079     1    13     2    19
 -1.0495547320347573E+01 a      1080     1    13     2    20
 -4.8990507310439577E+00 a      1081     1    14     2     1
  4.8174570860695287E-01 a      1082     1    14     2     2
 -1.6175047236683733E+00 a      1083     1    14     2     3
 -8.3596012846838068E+00 a      1084     1    14     2     4
  2.9468377174318792E+00 a      1085     1    14     2     5
 -6.4691754157936074E+00 a      1086     1    14     2     6
 -2.5177896251072731E+00 a      1087     1    14     2     7
  2.9952937321607354E+00 a      1088     1    14     2     8
  2.8050581282887697E+00 a      1089     1    14     2     9
 -7.0660255471953670E+00 a      1090     1    14     2    10
  5.6581822350052502E-01 a      1091     1    14     2    11
 -3.8720475326815182E+00 a      1092     1    14     2    12
  1.2418508440790503E+00 a      1093     1    14     2    13
  3.2952880624383609E+00 a      1094     1    14     2    14
 -1.0340304573355483E+00 a      1095     1    14     2    15
  4.9684527266753470E-01 a      1096     1    14     2    16
 -1.1183776151976217E+00 a      1097     1    14     2    17
 -1.4116844861040463E+00 a      1098     1    14     2    18
  4.5547540332895785E-02 a      1099     1    14     2    19
  5.6261647157553378E+00 a      1100     1    14     2    20
  2.3913690743180833E+00 a      1101     1    15     2     1
 -4.0409198751969830E+00 a      1102     1    15     2     2
  7.5358636748930075E-01 a      1103     1    15     2     3
  3.2065324445106813E-01 a      1104     1    15     2     4
  6.0462692656206229E+00 a      1105     1    15     2     5
  2.5200173103271620E+01 a      1106     1    15     2     6
 -5.0223173238778118E+00 a      1107     1    15     2     7
  1.7505591926508193E+00 a      1108     1    15     2     8
  9.9573610093071530E-01 a      1109     1    15     2     9
 -1.0423733008257138E+01 a      1110     1    15     2    10
  9.2860000255395097E+00 a      1111     1    15     2    11
 -8.1242251600840216E+00 a      1112     1    15     2    12
 -3.1688282676117847E+00 a      1113     1    15     2    13
  2.3332641560567615E+00 a      1114     1    15     2    14
 -9.1504789910187636E+00 a      1115     1    15     2    15
 -3.3460418062891866E+00 a      1116     1    15     2    16
  3.7971995570332755E+00 a      1117     1    15     2    17
  6.9442267852545578E+00 a      1118     1    15     2    18
  1.8012989119417449E+00 a      1119     1    15     2    19
  3.0197777435152573E-01 a      1120     1    15     2    20
 -1.1009520318235108E+01 a      1121     1    16     2     1
 -1.1427111498428006E+00 a      1122     1    16     2     2
 -3.0682346541145067E-01 a      1123     1    16     2     3
 -1.2774797024371807E+00 a      1124     1    16     2     4
 -1.8546840340975181E+00 a      1125     1    16     2     5
 -4.5159232885989260E+00 a      1126     1    16     2     6
  4.4630681825232915E-01 a      1127     1    16     2     7
  1.6583470994243921E+00 a      1128     1    16     2     8
  5.2067821824409743E-01 a      1129     1    16     2     9
 -2.2349325460001337E+00 a      1130     1    16     2    10
  2.0413017824291879E+00 a      1131     1    16     2    11
 -5.2814587095850927E+00 a      1132     1    16     2    12
 -3.5645113526109702E+00 a      1133     1    16     2    13
  2.9727303506529887E+00 a      1134     1    16     2    14
  4.7394787837950592E+00 a      1135     1    16     2    15
  8.9931049800567671E+00 a      1136     1    16     2    16
  2.0631745705106477E+00 a      1137     1    16     2    17
 -2.3601796117998894E+00 a      1138     1    16     2    18
 -6.2596887820438452E-01 a      1139     1    16     2    19
  5.9815421602627019E+00 a      1140     1    16     2    20
  6.0752209852225869E+00 a      1141     1    17     2     1
  1.6782378297102929E+00 a      1142     1    17     2     2
  2.2691264625521859E+00 a      1143     1    17     2     3
 -6.7499446987126319E+00 a      1144     1    17     2     4
  1.6430137828064859E+00 a      1145     1    17     2     5
 -1.1549072646168300E+01 a      1146     1    17     2     6
 -3.5550311467587599E+00 a      1147     1    17     2     7
  5.2584666281702386E-01 a      1148     1    17     2     8
  4.0172376819620085E-03 a      1149     1    17     2     9
 -3.5190023956723206E+00 a      1150     1    17     2    10
  3.4555979370140893E-01 a      1151     1    17     2    11
 -7.4398422598266665E+00 a      1152     1    17     2    12
  1.9201553824283566E+00 a      1153     1    17     2    13
 -3.1451544186218796E+00 a      1154     1    17     2    14
  8.9436898756041627E-01 a      1155     1    17     2    15
  9.5830001979374801E-01 a      1156     1    17     2    16
  1.0288778304690116E+00 a      1157     1    17     2    17
  1.6245533684528748E+00 a      1158     1    17     2    18
  4.7405299409954077E-01 a      1159     1    17     2    19
  4.6649180495585141E-01 a      1160     1    17     2    20
  3.9695197188913545E+00 a      1161     1    18     2     1
  1.6536539514511119E+00 a      1162     1    18     2     2
 -4.5275521016658393E+00 a      1163     1    18     2     3
 -2.6928247972596115E+00 a      1164     1    18     2     4
 -4.1703199689829571E+00 a      1165     1    18     2     5
 -1.6412653603902707E+00 a      1166     1    18     2     6
  2.6274012510304678E+00 a      1167     1    18     2     7
  3.9414099444261846E-01 a      1168     1    18     2     8
 -2.1285781609814793E+00 a      1169     1    18     2     9
 -1.3841544669417307E+00 a      1170     1    18     2    10
 -3.3237876422000756E+00 a      1171     1    18     2    11
 -1.0650430234329923E+01 a      1172     1    18     2    12
  5.1162619107068315E+00 a      1173     1    18     2    13
 -4.0246629917725887E+00 a      1174     1    18     2    14
 -3.0828666328907479E+00 a      1175     1    18     2    15
  3.4318194632047354E+00 a      1176     1    18     2    16
 -4.8494321649814545E+00 a      1177     1    18     2    17
  1.4821087255059828E+00 a      1178     1    18     2    18
 -2.6490264489912616E+00 a      1179     1    18     2    19
  8.2895833495535598E+00 a      1180     1    18     2    20
  1.0476257711630999E+00 a      1181     1    19     2     1
 -6.1636711193074720E-02 a      1182     1    19     2     2
  4.0337745841123657E-01 a      1183     1    19     2     3
  7.3704631061901109E+00 a      1184     1    19     2     4
 -7.4949625953223087E-01 a      1185     1    19     2     5
  1.0999948530325583E+00 a      1186     1    19     2     6
 -3.2716602012519052E+00 a      1187     1    19     2     7
  1.7993619136219017E+00 a      1188     1    19     2     8
 -4.8869547069835058E+00 a      1189     1    19     2     9
 -1.0706480217780239E+00 a      1190     1    19     2    10
 -4.3644378613615176E-01 a      1191     1    19     2    11
  4.4565575599991201E+00 a      1192     1    19     2    12
  1.4316514816876194E+00 a      1193     1    19     2    13
 -2.5361459565154778E+00 a      1194     1    19     2    14
  9.7752282920185003E+00 a      1195     1    19     2    15
 -6.9492693410243467E-01 a      1196     1    19     2    16
 -3.8114657739579578E+00 a      1197     1    19     2    17
 -7.6586864376168418E+00 a      1198     1    19     2    18
  1.0727627098705637E+00 a      1199     1    19     2    19
  1.2282398307248519E+00 a      1200     1    19     2    20
  1.7367014339108151E+00 a      1201     1    20     2     1
  3.8486890871889194E+00 a      1202     1    20     2     2
  2.5176135157141681E+00 a      1203     1    20     2     3
 -8.0028606808655489E+00 a      1204     1    20     2     4
  6.1339723831422299E-01 a      1205     1    20     2     5
 -7.3479629979073184E+00 a      1206     1    20     2     6
  3.3624834159588430E+00 a      1207     1    20     2     7
  1.6987716437009528E+00 a      1208     1    20     2     8
 -8.9120981154441803E-01 a      1209     1    20     2     9
 -9.1361425805797669E+00 a      1210     1    20     2    10
 -6.8164425682400243E-01 a      1211     1    20     2    11
  3.3599118329044786E+00 a      1212     1    20     2    12
  2.5127986140628016E+00 a      1213     1    20     2    13
  8.6623475386968951E-01 a      1214     1    20     2    14
  8.7253777988442884E+00 a      1215     1    20     2    15
 -2.3592677845240523E-01 a      1216     1    20     2    16
  3.9285887419477130E+00 a      1217     1    20     2    17
 -2.3916904624849344E+00 a      1218     1    20     2    18
 -4.0169210520151910E-01 a      1219     1    20     2    19
 -2.6970154540296378E+00 a      1220     1    20     2    20
 -1.9623702333345722E+01 b      1221     2     1
 -4.9247230728620055E+00 b      1222     2     2
  4.4559074334470834E+00 b      1223     2     3
  5.8105698632500928E+00 b      1224     2     4
  2.5487197465902760E+00 b      1225     2     5
 -5.6612946629407501E+00 b      1226     2     6
 -2.9929861833121243E+00 b      1227     2     7
 -1.6200260431934950E+00 b      1228     2     8
 -3.5622678115453756E+00 b      1229     2     9
 -2.7305936827014778E+00 b      1230     2    10
  9.9039300865459090E+00 b      1231     2    11
 -1.4626791864172098E+01 b      1232     2    12
  6.2965187060558678E+00 b      1233     2    13
  3.2584249757734156E+00 b      1234     2    14
  4.9198733588592791E+00 b      1235     2    15
  7.5477938730248280E+00 b      1236     2    16
  5.9163114251495017E+00 b      1237     2    17
 -1.7621838132559240E+01 b      1238     2    18
  1.5060892506378234E+00 b      1239     2    19
  1.1959267208813275E+01 b      1240     2    20
 -8.8070495111360239E-02 a      1241     2     1     3     1
  5.1551079493063950E-02 a      1242     2     2     3     1
 -1.0196726803013804E-01 a      1243     2     3     3     1
 -2.8483024738572599E-01 a      1244     2     4     3     1
 -2.7447856487626521E-01 a      1245     2     5     3     1
 -1.4823355907530775E-01 a      1246     2     6     3     1
 -2.1376993117700197E-01 a      1247     2     7     3     1
  8.7442876996343608E-02 a      1248     2     8     3     1
  1.6537756313593141E-01 a      1249     2     9     3     1
 -9.1600796830999739E-02 a      1250     2    10     3     1
  1.4319059331301356E-01 a      1251     2    11     3     1
 -2.1181849309256448E-01 a      1252     2    12     3     1
 -1.7910970074500271E-01 a      1253     2    13     3     1
  2.6917835192747958E-01 a      1254     2    14     3     1
  1.1265233745990136E-01 a      1255     2    15     3     1
 -2.4544007833920753E-01 a      1256     2    16     3     1
 -1.0537053313682569E-01 a      1257     2    17     3     1
  5.6372129052861236E-02 a      1258     2    18     3     1
  2.1584069609883869E+00 a      1259     2    19     3     1
 -3.3047655562599448E-02 a      1260     2    20     3     1
 -1.6878502061601688E+00 b      1261     3     1
